solver_type L2R_L2LOSS_SVC_DUAL
nr_class 2
label -1 1
nr_feature 6480
bias 1
w
-0.007182352927078369 
-0.01381686947663913 
-0.01854480965175227 
0.008703187783201069 
-0.01059942268084912 
0.01191136871807216 
0.001097076454627487 
0.01127511256627776 
-0.002946259834949863 
-0.006562533493644773 
-0.003696414432544533 
-0.0128497748346988 
0.003368762017748491 
-0.008935376068805082 
0.006654560825164018 
0.004152334422549019 
0.006313753803981112 
-0.006087018689740141 
-0.001354237130576974 
-0.007300260000273355 
-0.01892327521658971 
0.006401524386748569 
-0.01590019273800423 
0.01253715381195951 
0.003951538125856665 
0.009807262743657287 
-0.001144132422597572 
0.005060426562658891 
-0.006894102021010786 
-0.0122504565535921 
0.006283069599010884 
-0.01736046855865064 
0.002255651066888578 
-0.002593158222705189 
0.006562665885224062 
0.000358506660144604 
-0.01045053899986477 
-0.008284769824455288 
-0.01555398658313628 
0.009927506273767629 
-0.006408866777596616 
0.01289729099012364 
-0.0002232300206385399 
0.006153690850418098 
-0.009241709906062018 
-0.007250325648424342 
-0.01170654949914741 
-0.01187637436215208 
0.005925418264702573 
-0.01211305648323728 
0.002215240284237218 
-0.004763844805480256 
0.004337522262533587 
-0.007230202092227361 
-0.001154042330731183 
-0.006469973375702797 
-0.01059441521885814 
0.01760942927126222 
0.0002971266695205513 
0.009891796327601508 
-0.00286778277092383 
0.009992116907134335 
-6.480959937829058e-05 
-0.001726487762137478 
-0.008263957798074876 
-0.005176202607530954 
0.009144691862051954 
-0.006996185817744538 
0.001176483133717474 
-0.003291223054210786 
0.01047201684848249 
0.001462843595766188 
-0.00683926706313369 
-0.007436717130972656 
-0.009485715058828724 
0.01653462240948058 
-0.004168890159603155 
0.006553211083352118 
-0.01087551967950607 
0.004721206746516023 
-0.007993853007279273 
-0.009477537272301703 
-0.0068038989461774 
-0.01056614579758978 
0.007656036662917004 
-0.01202917636539293 
-0.002029355023425504 
-0.008000608929860011 
0.001329200732014096 
-0.0092128711310548 
0.008242189342852386 
0.00235164513854052 
-0.01042352001139553 
0.008196312805860953 
-0.008614567798666246 
0.006877595057590667 
-0.01267121670518353 
0.006305036582598241 
-0.0001321469438592316 
0.002304506791175559 
0.00184299039452895 
-0.01168776349981688 
0.008020274933684577 
-0.01270661417034706 
-0.003597161832738518 
-0.004002502045118467 
0.00741089110788857 
0.0005818593759347113 
0.0008253832452083575 
0.0003521637053906108 
-0.009645180684582543 
0.006376929549473289 
-0.008351477280626263 
0.009774183763262506 
-0.008383881681676971 
0.005175616641000039 
-0.001791277870157394 
-0.002821286074767855 
-0.0007923563606524943 
-0.009349319388503986 
0.005687407061009738 
-0.009110781798004198 
0.0004402243315651515 
-0.001045279397983356 
0.003501747522012451 
-0.002506476648742536 
0.003399212321754647 
-0.005268932043430072 
-0.01831842240910897 
0.001203519944612212 
-0.01199721495342605 
0.009251098195252704 
-0.007600603804487975 
-0.00319557671876111 
-0.001053484200010828 
0.001066956556725365 
-0.0007780693888745782 
-0.008425703985814534 
0.0006966193329801225 
-0.003132199600522425 
-0.0008004642938175803 
-0.008850185706656877 
-0.0004241678672380553 
-0.0009182669549504137 
-0.001049585212876753 
-0.006272885177537429 
-0.01290261665307012 
0.00928068863976712 
-0.006089035443963727 
0.008383812822686123 
-0.005201210575184126 
-0.005915979624116046 
-0.008858839435088519 
-0.001688113734089259 
-0.0005303296922794379 
-0.0067366541011665 
0.007013962782794138 
-0.0006599286162254268 
0.002028743027294308 
-0.006081583690817274 
-0.0003864942081044734 
-0.0043481490832451 
-0.009052817428207276 
-0.007146574696002785 
-0.009033793142264702 
0.002696552927108436 
-0.006725140792588275 
0.005996546700931618 
-0.000288582112808243 
0.002618459802037807 
-0.006436420329705903 
-0.01133270806392114 
0.0007753024058572118 
-0.003102926373222465 
0.00619733573648817 
-0.01102868022430269 
0.003274118706862555 
0.001372641700305593 
0.006506710225070217 
-0.01016823257362552 
-0.007943389079304567 
-0.009628793072223352 
-0.01278446973745521 
0.00567067085670061 
-0.004371721749135367 
0.006487466659813305 
-0.001017442216694346 
0.005277329475199329 
-0.007250696304405977 
-0.01235012708147521 
-0.0006338142031113313 
-0.004349637394006458 
0.008932753887553964 
-0.005743930930401529 
0.006027942427269834 
-0.0002443060678469187 
0.003631739646923771 
-0.01436048772448292 
-0.004560321963996206 
-0.002421510166258663 
-0.01658580338328463 
0.0008732373858194625 
-0.007569781716523233 
-0.001780410049408333 
1.577075088076635e-05 
0.007965522829498644 
-0.01201177074493521 
-0.002374842003484336 
0.007623373950351962 
-0.01162291020136298 
-0.002964596484017261 
-0.01241147546755261 
0.003028142476989019 
-0.002087612956264196 
0.01170023133515166 
-0.01247944522861204 
-0.007692287049099143 
-0.004277619714665492 
-0.01571013972560076 
0.004308520181785757 
-0.009930394330853373 
-0.001302970413461176 
-0.002596357032256903 
0.008903635109122255 
-0.01276326419478704 
-0.003422047556507493 
0.009922503317681021 
-0.01017904287274483 
0.001441438994933545 
-0.01167409607197223 
0.002420110355568015 
-0.002581421255400148 
0.006708653345109694 
-0.01535761183063367 
-0.00139088169650288 
-0.004271553381160019 
-0.01474766730739816 
0.006031596327557258 
-0.005538533810978292 
0.004990499524344697 
-0.00801039818281769 
0.001263145475903471 
-0.01007613481017763 
0.00252592849053041 
0.00327640736576862 
-0.01086396383828575 
0.006959300073701804 
-0.003031407634674353 
0.005395511030419018 
-0.003208289158178421 
-0.003787345758231502 
-0.002391881485536988 
-0.006305305949751008 
-0.01240705763861376 
-0.02041317403092539 
0.007049689603215336 
-0.00706254635202214 
0.006570327276183826 
-0.01348265136259573 
-0.002036941190479113 
-0.01048282009167687 
-0.001991719005829414 
0.0007495220808127605 
-0.01237335170280923 
0.009592271766740344 
-0.000441034354000727 
0.005337141960000318 
-0.005039705992338139 
-0.004344446502668664 
-0.006210107885869768 
-0.005639842186578942 
-0.007173448289773164 
-0.01738036525579627 
0.005404286619761545 
-0.005272425352964615 
0.01036540522854327 
-0.01195804883949052 
-0.004491130623529093 
-0.007816041852970322 
-0.006364431607981966 
0.002957749424963874 
-0.009760812867352444 
0.008239255765191678 
-0.009411728676779224 
0.003133306002004215 
-0.003491075749879268 
-0.0003749844349985951 
-0.0100715144082252 
-0.007219334827072636 
-0.006897179896035938 
-0.01897432464041495 
0.006272271021234872 
-0.004185357430995468 
0.01283087696222032 
-0.01289819611529574 
-0.006737382743572608 
-0.007740491799516758 
-0.008707391117190702 
0.005345419369865417 
-0.01266644254041686 
0.009644278749682007 
-0.006668223357454687 
0.006116460185817517 
-0.004273710747153778 
-0.003319724096327901 
-0.01698288859584109 
0.004843216243383993 
-0.003973315310145067 
-0.02043747389496138 
-0.004648457749069533 
-0.0150291455183683 
0.01032017650138038 
-0.0100372710788195 
-0.004407085935942428 
-0.001443331577328829 
-0.002007216631918369 
4.656861642748935e-05 
-0.01899005468263422 
0.0004677545850255324 
-0.01012444952705032 
0.006555277296853731 
-0.004631398064464338 
-0.00425584370939948 
-0.0129062443602039 
-0.004337343157771602 
-0.001724441412348895 
-0.01073937717047476 
0.003118440139549026 
-0.008335439934600175 
0.005725244588847921 
0.0006867294586497089 
0.006377452966970984 
-0.006646679332078113 
-0.004658891140221432 
-0.009624566422032299 
-0.009565802139546928 
-0.003326008417890757 
-0.01630124898438513 
0.002261143956575579 
-0.006151107525729627 
-0.001189464166707568 
0.0004118649037588396 
0.0005282148098843002 
-0.002399804911231452 
-0.005348507487302143 
0.008064836703849616 
-0.01498815180620584 
0.004834824168547335 
-0.0007692088081989438 
0.005745867862910766 
-0.0006863040733708971 
-0.004666915581378498 
0.005276330490888805 
0.004516290889609422 
0.006979455419239451 
-0.01077870600097589 
0.003063417217956057 
-0.005503570479962686 
0.003612728603424796 
0.001565145517052643 
-0.01092637573362689 
-0.01062747103572801 
-0.004277722568679421 
0.00657689199310948 
-0.009351054591925754 
0.00372098538510344 
-0.005019800984637003 
0.003451992916786324 
-0.009809828899802203 
-0.01271584397799201 
-0.002006909700066211 
-0.005343260967486194 
0.003123924590957094 
-0.007658716096358664 
-0.002307826308291269 
-0.01113157534289447 
0.001550345579472106 
-0.007452427536264207 
-0.002728881449898529 
-0.006875067643607647 
-0.003309647911872281 
0.005595199770718665 
-0.008822921285544244 
0.002829918569320293 
-0.003433639940805965 
0.01036669193848687 
-0.001010599563684686 
-0.001647540696937684 
-0.003071914094888255 
-0.01119381369543526 
0.001932783780301785 
-0.008679913648729477 
-0.003709327374184928 
-0.01062716620873711 
-0.0009868467146121971 
0.0006488917840456986 
-0.006986235180287996 
-0.006453881432222891 
-0.008915380348117622 
0.003314868240618544 
-0.01454488939276986 
-0.0009707852250977695 
-0.009495145363773404 
0.005468410867495345 
-0.008993785021218342 
-0.008390563843482907 
-0.008312345288055632 
-0.01449667832763591 
-0.002022159533531288 
-0.01857401513499754 
-0.007573860694366824 
-0.01289845099147757 
-0.001914941658063123 
-0.005328693238506772 
0.002661514831941555 
0.0003802897422605505 
-0.005187766071892368 
0.005463670158442434 
-0.01060078654274015 
-0.002016016271991249 
-0.004162044579054859 
0.008228770459654675 
8.188463807455518e-05 
-0.005935923317205002 
0.001248524992926686 
-0.006468355030168632 
6.366351592482237e-05 
-0.01478580533666041 
-0.00547591676015707 
-0.002474671354171936 
0.004658170017038304 
0.002640247351970004 
-0.005031538782196248 
-0.00472642635590134 
-0.003482976446003629 
0.005090307637329405 
-0.007837866419252291 
0.001820423041893727 
-0.002464816867035077 
0.003238719946981163 
-0.004222292627528237 
-0.01106411951351822 
-0.002538753760403577 
-0.004631373041653649 
0.002162376972603457 
-0.01443416617955247 
-0.003537230942401057 
-0.006595668221737984 
0.0008794254547137494 
-0.004673525258815908 
0.001330715977211242 
-0.005894661071534972 
-0.009915771950985745 
0.0005491149390920918 
0.0009873298220905772 
0.0007074620930780283 
-0.006178197558209549 
0.00404625965288574 
-0.0004731783212314374 
0.00378031468531472 
-0.008160659349019519 
-0.005862077975389229 
0.007505742249271852 
-0.002724675611502742 
-0.003525126438667589 
-0.009773297527516649 
0.005467607646140878 
0.006080944929277693 
0.0005517386208920506 
-0.006116864488959035 
-0.008810931718665593 
0.008190222201723434 
0.005390110826845448 
0.008176913666400866 
-0.003971351400553251 
0.005261730215876219 
0.001917453242068136 
0.005188667914782082 
-0.007438746665665675 
-0.006538304819955531 
0.01117771034659597 
0.00115664303141296 
-0.0007894643839157538 
-0.01591174870715422 
0.004233998286454973 
0.006714215909818065 
-0.007243473410186211 
-0.002874946868673395 
-0.003724191846021592 
0.008526603678419909 
-0.008046122176565605 
0.006034618597015304 
0.0005161546041630767 
0.00885931706491818 
-0.01111286398368492 
-0.003768752475540633 
-0.002310504660311392 
-0.01462951507842957 
0.004453669241779406 
-0.003132664988730535 
-0.001330676024486827 
-0.0150223002343747 
0.0003315739263687195 
-0.005553842851429871 
-0.007234352892347709 
-0.003582587312302253 
-0.004337457173292982 
0.0137685057403976 
-0.004765925046638709 
0.01066494131407455 
0.001355111685312556 
0.007241114678228449 
-0.01424488346895572 
-0.002992482430014859 
-0.006553787879757086 
-0.02020443575900799 
0.008249820985531973 
-0.002439047663396002 
0.001946349957901706 
-0.01182656157807539 
-0.00299439869785451 
-0.007391514922658927 
-2.096797559395979e-05 
0.005537526108174912 
-0.009069626139983696 
0.003620016419511951 
-0.009838368118310079 
0.005725596445005422 
-0.0002052532682408116 
0.01438271165492027 
-0.01077025967854551 
-0.0004806662578867431 
-0.006296338637203703 
-0.01674553306771083 
0.007679431986371823 
-0.007193910091820604 
0.002359570523190529 
-0.009517003428157311 
-0.00735647456834623 
-0.003575769222903777 
-0.00287404699977325 
0.003538209836057128 
-0.01012455989178577 
0.00209225576562166 
-0.00852195371035165 
0.00373102057716289 
-0.003117547879633272 
0.005182404772545143 
-0.0125434284172255 
-0.002913304388135219 
-0.003509660761970914 
-0.01491034111523363 
0.006810339138965374 
-0.005135171545270897 
0.00170747715786317 
-0.01515384964624479 
-0.008689118338527691 
-0.006964008874689309 
0.004917706831337374 
-0.001041468176108199 
-0.0141023902182504 
0.0057260404463922 
0.001535818680548407 
0.009602230216821486 
-2.557371259243476e-05 
-0.003297732989053842 
0.001204920409579381 
0.001720027236199025 
0.001916445464878228 
-0.01918256074756933 
0.0001919195320488513 
0.00447315567265231 
0.01249787993690346 
-0.008965000052199643 
-0.009010908355652955 
-0.00254218196487017 
-0.00360130837620186 
-0.00283170306034273 
-0.01113166598767029 
0.005483482481263919 
-0.002552662704385222 
0.009039204811034526 
-0.001224592381403481 
-0.003780240634604921 
-0.008474294427508576 
-0.006092394792071155 
0.0001128832972070676 
-0.01715812839848386 
-0.0008938482180335383 
0.001570272849093301 
0.01313910110596588 
-0.007936398363113552 
-0.007462759673952322 
-0.00939112136342289 
-0.008230939981506433 
0.00483319628145417 
-0.006311911086709933 
0.004213646613434907 
-0.009623860528142398 
0.004266818952442113 
-0.001973770515825101 
0.002945469527554077 
-0.008988038322745428 
-0.01347760395185503 
-0.001080074768464352 
-0.01149269409231077 
-0.005519949693830893 
-0.01313829004702822 
0.0006035029144641617 
-0.006805032173988769 
-0.004503432776911978 
-0.01229910223904536 
-0.008727789552740832 
0.004716879307770997 
-0.005933006679924122 
0.007764643357647564 
-0.005253137659988044 
0.008093006103861567 
-0.001343603380049811 
0.003711633346200971 
-0.0151725467381836 
-0.01460983586633854 
-0.003295221110285275 
-0.009017655939193556 
0.001829853587373725 
-0.007763286084895813 
0.001592927263449832 
-0.00404250703622705 
-0.0026553768154529 
-0.0167067598899763 
-0.005815115565240058 
-0.002270047792989494 
-0.01707193116345864 
0.001752395762734145 
-0.006444193592278255 
0.007744118837126601 
-0.002632083891530148 
0.001571902556387222 
-0.01249809001286992 
-0.01343970290676186 
-0.009084722857449977 
-0.01811272746239829 
0.0023064408747144 
-0.007353374947828303 
-0.005789099397976148 
-0.0148079393952363 
-0.006961708960695054 
-0.01185385145216765 
-0.006083795957259224 
-0.005383416650083258 
-0.01055934357967741 
-0.004931126851643657 
-0.01479508391817357 
0.006324794022528189 
0.0007836415723452764 
0.002900292679290771 
-0.0006526755014314261 
0.001588564328132133 
0.009470962707243374 
-0.004305780174060707 
-0.00614608781039002 
-0.02189454459747468 
0.001025124492346019 
-0.0007818837482493799 
-8.561915598275856e-05 
-0.006924819313590875 
-0.001843865990101278 
0.003394740154650795 
-0.0007401734483140396 
0.002385715199284172 
-0.007269625277840926 
0.006319815842767651 
-0.0004179091154674301 
0.00506145969020995 
0.003826681489398734 
-0.003816995249246446 
-0.00242617954747441 
-0.005802837687227061 
-0.004146406430965391 
-0.008837347826017652 
-0.001035758220108087 
-0.006716044330527303 
0.006311951573730995 
0.003089008005026957 
-0.00812131584216118 
-0.002705001855931678 
-0.004802911753724246 
0.005008104877192985 
-0.003782026668552301 
-4.489750947739079e-05 
-0.00880834413285895 
0.001162034334755233 
-0.004780327998924375 
-0.00808905195887299 
-0.005671035682244194 
-0.00615732555734983 
-0.004815884374380013 
-0.007765610441947134 
-0.006014179271406939 
-0.01140749057072649 
-0.000476467585042423 
-0.00357409828088589 
0.001949918607763363 
-0.000398124862316824 
-0.006087879418726819 
0.005832795543107687 
-0.006699183643015377 
-0.003206565258093872 
-0.007207123581446655 
0.0009415121355610702 
0.005880035649309294 
-0.0005488051089375829 
0.005162237508102091 
-0.001043852698659451 
0.00101514254486882 
-0.009078436082058024 
-0.01006175632145371 
-0.01023919397851351 
-0.003916303574162141 
-0.0008982905943894106 
-0.00510347227227046 
-0.00312781720043394 
-0.008967678210132014 
0.001094449992979399 
-0.01796822560685202 
-0.004639802623161466 
-0.008373121741415593 
0.000687543038865503 
-0.0009668480165150076 
-0.004903559646945943 
0.005277486621567777 
-0.003056606761441545 
-0.001947192872976834 
-0.01447604527824196 
-0.01237126671588359 
-0.01386270599897709 
-0.008041400481540563 
-0.008252819940544769 
0.0007482266028303972 
0.0002691974565541457 
-0.003620512933152439 
0.0005604401241904267 
-0.01049830915124754 
-0.004070509477786921 
-0.0008094750455128034 
0.006128679378099392 
0.006791926729207916 
0.0009480797659082114 
0.0003761591195562557 
-0.00243818854271383 
0.0005155368060870413 
-0.009258149636793181 
0.001800339332818216 
0.002451414640436849 
-0.0006703199785663076 
0.004509898391450794 
-0.005157355442790472 
-0.002679048348280091 
-0.0002187268754394255 
0.007635274127783773 
-0.006347228748401142 
0.003993937400367861 
0.0002894252165153662 
0.008979954541332841 
0.00269391291072072 
-0.00742647198486467 
-0.001414139298494044 
-0.0007478394681013738 
0.004630257487123601 
-0.007545517198210027 
-0.001067775219462818 
0.0004069323221773237 
-0.002754676828635344 
0.001500969580066448 
0.00419544208727325 
-0.009936035419567382 
-0.007814352478896494 
0.01285869723901839 
0.00434079013415933 
-0.001961860378510235 
-0.007930682693190683 
0.01047162849993269 
0.01310807305141955 
-0.01772148449576632 
-0.02588138513263515 
-0.0022321627753419 
0.01173124228228964 
-0.008150285668119768 
-0.03302914022691548 
-0.02597742811700042 
0.004115514883850399 
0.006664917591360797 
0.0165085679996272 
-0.001580407521616144 
0.005261446859972114 
0.03011585909988558 
0.02284992391242066 
0.0115970464990257 
0.0006643392987309455 
0.02564397191956149 
0.02876501882446309 
-0.0224082823175096 
-0.03034008082702733 
0.006516203056058618 
0.02458703673200281 
0.002720526881939678 
-0.03497433314237853 
-0.02108508882410808 
0.01822725814388032 
0.01927763327852449 
0.01254638819932826 
-0.01672424015842587 
-0.01157685009405518 
0.02036415630617719 
0.01921263333071122 
0.003442366607414112 
-0.01360622322474961 
0.01586688950064458 
0.01808424752992115 
-0.02721792333100963 
-0.06462240655354644 
-0.02828335933046797 
0.007823621893336803 
0.006792260340348542 
-0.05021549825334593 
-0.03901028650241598 
-0.01010111753362965 
0.02212015535806067 
0.02087423554635593 
-0.007258093048196332 
-0.01430909883180753 
0.02661355395708466 
0.03009765973583778 
0.01818236521938419 
-0.01011665274438655 
0.01413465949183971 
0.02355781809197813 
-0.001320881710624345 
-0.05371722303861216 
-0.04000358610628432 
-0.002099501368094569 
0.02569209189127246 
-0.03098892901817378 
-0.03621511624414014 
-0.02063458102157967 
0.02653174601291791 
0.0264034802109953 
0.01120880829098623 
-0.01285172424473254 
0.01376481354659667 
0.02155937452897767 
0.02478514598416368 
0.002409682355136337 
0.0009871861572093811 
0.01918927471983238 
0.02677173371451066 
-0.01086354408510045 
-0.04375511116014984 
-0.04166898045352258 
0.01802294139789183 
0.002725480374813993 
-0.02354658438480925 
-0.04360941878811062 
-0.002264526350086256 
0.01800557574317429 
0.01072908968218602 
-0.02057456621055185 
-0.0004827929375391781 
0.01552402088325564 
0.02065585859408923 
-0.00695229155971067 
-0.01049929007689 
0.008703115718963072 
0.01348290881149906 
-0.001300690031649378 
-0.04741706292571042 
-0.05866648331214619 
0.002029552884595666 
0.004100848355969404 
-0.02852561198099045 
-0.05432932921509202 
-0.02471607115200038 
0.01957639724746607 
0.0185164970170642 
-0.004990529454100178 
0.006618240673665129 
0.0200307905575879 
0.02884171492212605 
0.01059888219861757 
0.007127568087487838 
0.01684650021090751 
0.01875594097952915 
0.02221974898326424 
-0.008981128968925113 
-0.02801010479989216 
0.007381912228920852 
0.01392252823536576 
-0.002719816988176375 
-0.02087504261914388 
-0.005305902935312848 
0.001355649451005642 
0.002910884387971948 
-0.01664815533315567 
0.001598548171401566 
0.01014804807413104 
0.01884791422340917 
-0.006642276644620197 
-0.005497623111962357 
-0.001619935232544228 
-0.0008599469956936498 
0.006147672632625502 
-0.02035572705381469 
-0.02183815215991922 
-0.002490856384360834 
0.004185772811554941 
-0.01304109254238135 
-0.02463956548004427 
-0.0140481440982681 
-0.0005095981908520692 
-0.0003233422467667614 
-0.008495088199381228 
0.001111991894386922 
-0.003756517603584794 
0.01050970756423861 
-0.003515663616879611 
0.008717546289303968 
-0.003395241004958897 
-0.01161009916378376 
-0.006654574606812074 
-0.004048105514989971 
0.0009353066839721751 
0.0003479059332171679 
-0.0005915087993138543 
-0.0027532829363174 
0.004550298628394367 
-0.01077976075022437 
-0.0129498962350891 
-0.006320920183970657 
-0.007908792410493588 
0.003464257902836943 
-0.002055472495770049 
0.00586893073208073 
-0.004515929213738602 
0.004511176173782204 
-0.01240274986270216 
-0.01463748636415243 
-0.006735954119810162 
-0.002474677581066732 
0.005063367777425946 
-0.003588988856608388 
-0.002052969657289708 
-0.002544265421232593 
0.00356626157113796 
-0.008062479478018393 
-0.007115611468447763 
-0.008497985182815571 
-0.01335729496247391 
0.004883326610968222 
-0.002423359280254809 
-0.002302300892683547 
-0.01397606747328987 
0.002473505376569776 
-0.008962727687389179 
-0.009444716780081536 
-0.004656874751207013 
-0.007096301035117336 
0.0005560244699791029 
-0.01315886731208438 
-0.008530014471452732 
-0.01675069636927133 
-0.006331235486850581 
-0.006339271361393665 
0.003315743566512727 
0.009617583012301126 
0.0006726402254001155 
-0.008619782694697676 
-0.01164241949958073 
0.006482601626536232 
5.856611868187738e-05 
-0.003398907659378427 
-0.006739096797530167 
-0.0002641880437704383 
-0.004606344562496138 
-0.001963295397989913 
-0.01060129158833284 
-0.01066517838889237 
0.0003449041569808154 
-0.003368306198580224 
-0.009416741020565505 
-0.007419881648433331 
0.00134711458694501 
-0.004280244389431746 
-0.0003233594355392539 
-0.005350168863391408 
-0.001847692746049802 
0.00104161488748754 
-0.001956400109172951 
0.003872482017245397 
0.00577244673827402 
-0.003143691441610973 
0.0003195039597544813 
0.002268267837881839 
-0.009993382998048337 
-0.003364995760800034 
-0.002475194605338401 
0.0002063378893181884 
-0.0055017056188008 
-0.005633164986987873 
-0.005146748497889392 
-0.007666492279821204 
-0.002199410919490094 
-0.00679898276156296 
0.00117126004898534 
0.0001735553318928617 
-0.006227627098615495 
-0.0001529580538530076 
0.001528348035827123 
-0.004167996728389965 
-0.0001604332985475586 
-0.002158721824052758 
-0.01235455649187921 
-0.004839431220551966 
3.009323121551803e-05 
-0.002984905090548424 
-0.01344062484184574 
-0.00908483401962271 
0.002650008302190813 
0.003954144481356126 
-0.003199257629622942 
-0.00271753027769988 
-0.005197073977796911 
-0.001574168977228171 
-0.00270795135936661 
0.002964548625775117 
0.006387200781478482 
0.004083507567197016 
0.002866939167532973 
-0.001083159838096152 
-0.006191002748898307 
0.001566220036115213 
0.003185502401350213 
-0.002050265619808169 
-0.005765261135807515 
-0.0003834631836552298 
-0.004176519348402382 
0.002570423441776121 
-0.006741778210431868 
-0.006744452047703866 
-0.006635797140704583 
-0.002004962028070178 
-0.005303758566060874 
-0.001259352071855763 
-0.003325167581335775 
-0.004730445511065155 
0.0003253922032108603 
-0.002442889224429511 
-0.01095431817305442 
-0.002484628031611133 
0.004048477370984095 
-0.006931533239544185 
-0.008722325825343628 
-0.009520781891913563 
0.003420875508182777 
-0.0001735471273345793 
-0.005233356473186223 
-0.0006509295304844479 
-0.003869360619925839 
0.007698140647838881 
0.009253719232682235 
0.006326294917727574 
0.01158848098635338 
0.006847346534905449 
0.0004068992136110767 
-0.003796307757971132 
-0.005889379775974236 
-0.002577726384289863 
-0.001900500303092264 
-0.003178965300835936 
-0.0001450249673874584 
0.007112968254690989 
-0.002723776938160109 
0.001824661836192326 
0.005218567182928859 
0.009043261069048961 
0.003171898551949119 
0.01256819626116204 
0.01208277739362384 
0.00970981513068273 
0.01166004771401649 
0.005205227413809338 
0.001534014946842047 
0.005550647342514438 
0.003502116962048054 
0.001776734817197978 
0.004397784348159326 
0.001989906724268687 
0.00502804503005119 
0.003884882781735459 
-0.02101425793352895 
-0.02430586347347377 
0.002917721507342611 
0.01052143688839515 
-0.01001894355106077 
-0.02786587865240572 
-0.01240518563591264 
0.009073857238570219 
0.003710780710989555 
-0.02226358052033455 
-0.01579612837543721 
0.007653831287717289 
-0.008557808482436181 
-0.01535332182384977 
-0.02319540130760889 
-0.001908679893203837 
-0.009203223457394378 
-0.02210403680095971 
-0.02073583536821534 
-0.02202763358694242 
0.01857986625356103 
0.03199567873779261 
0.00980333577163252 
-0.02025648439843938 
0.003691992753127473 
0.02617243440378057 
0.0174263511006698 
-0.02018629893682054 
-0.0005766842902726053 
0.02896455579124534 
0.009916047249625257 
-0.00209014014454275 
-0.01378238670614617 
0.01476600117459146 
0.001915283501565509 
-0.02009775617174155 
-0.0222703189401273 
-0.05265731918727175 
-0.01545204782867909 
0.009565159532793204 
0.0048482028154168 
-0.04293313615716479 
-0.01615503385441197 
0.007474881646435717 
0.01740560076748813 
-0.01773033646432698 
-0.002766905301866091 
0.0237306026244557 
-0.00882236712820798 
-0.008827481311697451 
-0.03571090580104256 
-4.971335238674271e-05 
-0.01010952489639454 
-0.02330833577880776 
-0.002174415182491444 
-0.04875902067298098 
-0.02763494884001941 
0.001925505945697149 
0.0231312839985129 
-0.02692624294314068 
-0.01386362595801063 
-0.005086143091305223 
0.02104245642563581 
-0.004647046385268351 
0.003079332689715887 
0.02597920434709248 
9.75300921060216e-06 
0.001361385188573945 
-0.02837657697101275 
0.001146172245395756 
-0.01210448745529074 
-0.01595273341001447 
0.02613961320686476 
-0.006860801167635953 
-0.03271367335948335 
-0.0411063783267266 
0.0125152060954823 
0.005809032933203459 
0.001783224541953868 
-0.02664379873982297 
0.002398608900240636 
0.004594701706240315 
0.01159231797312043 
0.02427475904539882 
-0.01055255759148105 
-0.003952597823721088 
-0.02311337090484944 
0.005807378431686208 
-0.00797134740458973 
-0.01061198007312361 
0.01326358655010232 
0.001511185029639825 
-0.03083641391770724 
-0.05373541814242679 
-0.002678599501829527 
0.006048638807845727 
-0.001725720040444093 
-0.03683306180607894 
-0.01825792866677533 
-0.008744113157220852 
0.007806483822944243 
0.01253722239408623 
-0.02506022102751708 
-0.02277276367076569 
-0.03193007226465328 
0.0001396599863708849 
-0.01465115697596855 
-0.02427402778248219 
0.02304159544056537 
0.03071770609555803 
0.002254109998259551 
-0.02625736965041877 
0.004364100461012581 
0.01472376183736509 
0.01417427028407892 
-0.001659087498977408 
0.001342335755217796 
-0.003465368140767361 
0.02220276917479212 
0.01990899153057264 
-0.0133542874442822 
-0.01627058162619389 
-0.01908046162202622 
0.01298305867729392 
0.0075829819369898 
-0.008910879135324559 
-0.004860598033485368 
0.006161482494722634 
-0.01650835667640487 
-0.02393215804768718 
-0.00598885760740712 
0.004364785168886518 
0.002062048278113298 
-0.01382769299668695 
-0.01334355836399495 
-0.02212413189947853 
0.001108378996397044 
-0.001640373403978954 
-0.0181844672597999 
-0.01854478266438045 
-0.02276425826849346 
-0.002123216408392516 
-0.007977601901958399 
-0.0206331945225414 
-0.004036671094894455 
-0.001898916503521673 
-0.0001319752583682469 
0.004423004323048741 
0.004485746087891238 
0.01373635958233271 
0.008700390173080941 
0.01641299103728342 
0.00240477489355281 
-0.004740317702749043 
0.003720157692557262 
0.003935755306647595 
0.005731884357219807 
0.006012546197798462 
0.002985855402199302 
0.000344535286570597 
0.002965851818266501 
0.0005873329403370699 
-0.01261803672906443 
-0.009589923601373822 
-0.005634019151907282 
0.001950882161242532 
-0.002972200404656268 
0.003319822228343803 
0.002278059704164787 
0.006817819673443692 
-0.004873366439172701 
-0.01208355499594783 
-0.006305960699774077 
-0.0005722690357345114 
0.003352892449515144 
0.002146561078924097 
-0.004663956395889643 
-0.004261045402936405 
-0.001528590333863562 
-0.004672872190259114 
-0.004403280220701604 
-0.01138772532243483 
-0.008162781053361823 
-0.00171917579688874 
-0.01089103568233677 
-0.006017429640036647 
-0.00891279206687037 
-0.003277403235971204 
0.001134119770200951 
-0.01052990793274427 
-0.01222998068236422 
-0.00313830627781853 
-0.0001204604239926558 
-0.006196577172492564 
-0.01085555250957054 
-0.01124133357786696 
-0.004301054640579505 
0.008723490735126752 
-0.001335009674629627 
-0.005665311521453386 
-0.001442353029160261 
-0.0141076572607162 
-0.01052853945789582 
0.0008969891659862047 
-0.0005980782519367853 
-0.007896415538727521 
-0.003137794401142559 
0.004008907698124026 
0.007717472421279309 
0.009181163761413853 
-0.003593038595125755 
-0.0114128914452342 
-0.0007927717190316369 
0.0020857189790744 
-0.007963111598457924 
0.004450488818368272 
-0.005310690933528284 
0.003890985103342411 
0.007566535942009242 
-0.0114100279183887 
-0.008048694017629494 
-0.002125089009599838 
0.002439508933183931 
-0.006356173898558853 
-0.008886947122266982 
0.001966331736384132 
0.0106877113909697 
0.01072012943646159 
-0.007151755312922357 
-0.005881415965520751 
-0.001285216777450583 
0.0003887934377780057 
-0.01076900434420746 
-0.00141758123924274 
-0.005462073169415997 
0.0003991667123328841 
0.003555201086803863 
-0.01110576751938023 
-0.00818548002450546 
4.759082507764763e-05 
0.001065899792402272 
-0.009332349558361833 
-0.01272440747118057 
-0.006650881648089716 
0.001753888698841381 
0.004477301444883453 
-0.007342121215365757 
-0.001297856791592406 
0.001355033250095846 
-0.003167487072357538 
-0.0109457335452728 
-0.008428568090335509 
0.005255294306275078 
-0.0007025918048304096 
-0.0009312120606438116 
-0.01080053647188648 
0.0006784448605992161 
0.00436183844416879 
0.00330498642789655 
-0.002920743011106843 
-0.003019154221424636 
0.005473762688788571 
0.002017705895373314 
0.006900700786629404 
-0.0008086807700446886 
0.005725518637154441 
0.001472659345303824 
0.000857054083612082 
-0.005376330030907333 
0.007124822131392733 
-0.001293707582753928 
-0.001241791112997736 
-0.0001718596128392144 
-0.01014994646351935 
0.00010406253110828 
0.006991137342792773 
-0.002146908309801323 
-0.003793478457450014 
-0.008115537450463159 
0.003126735320991628 
-0.001291206410111585 
0.007959487437681914 
-0.001555130447496085 
0.002019286701769352 
0.005243710256572474 
-9.883487715453985e-05 
-0.00884064234569815 
0.002043815145342145 
0.01092320179673243 
-8.783075162347248e-05 
-0.00284689657012568 
-0.006205122398799418 
0.002936808635935143 
0.003693342757268954 
-0.005966713289129514 
0.001794612870951518 
0.007818735746762673 
0.008655467615938573 
-0.0007941345507961623 
-0.0003922600524644879 
-0.006290020517140491 
0.002943085043044749 
-0.006447408903431448 
-0.008931507839036195 
-0.01006815682391194 
0.01013835675609884 
0.01257625612128127 
0.005572272069834696 
0.008502343403895994 
0.009186664382012653 
0.01006683706619168 
0.01543411258503056 
0.003634707252815656 
0.007830230613850174 
0.008862647011006017 
0.01029757829038015 
-0.001241097846533195 
0.01033627674339761 
0.005613282371977002 
0.00918254475695625 
-0.009545283114080937 
-0.001818356572217712 
-0.003636402986238268 
0.01216247729175119 
-0.01235677272152805 
-0.01454640406250346 
0.01089595182191253 
-0.009489927173065949 
-0.007186704415444366 
-0.01278263996184091 
-0.0004168572907945781 
-0.00492697353702715 
-0.0182392045094115 
-0.01261275574039245 
-0.03114274051882672 
0.01163415091708539 
0.008042463056632011 
0.007510567677406521 
-0.04123240608102398 
-0.02566300153816868 
-0.007470002119521667 
-0.0008275659785288743 
-0.01396327240044583 
-0.005289218685311054 
0.02731410216773592 
-0.00133764442418521 
0.001695605041412926 
-0.00940875538561192 
0.01176425325460822 
0.005645698435494867 
-0.01901123321203162 
-0.002264499819032987 
-0.02291676084449828 
0.02434967035601462 
0.01388284530226873 
0.03144579179774834 
-0.03084974082306839 
-0.01833771443722795 
0.00297738200729391 
0.004346928626885613 
-0.01146842528031506 
-0.002295955946011436 
0.0162834185460322 
-0.02082540497971044 
0.0002764152543355487 
-0.02621613107039611 
-0.006819729208694045 
-0.009621084382512144 
-0.01790964746417437 
0.006557853627128607 
-0.01748665335560628 
0.003176112120332102 
-0.01382965376931124 
0.03384678498602425 
-0.02652628377786335 
-0.0221502113451736 
-0.009174281022091287 
0.003799095192485863 
-0.006640637589521428 
-0.004506625341454617 
0.01594208931156339 
-0.01089634049727998 
0.006426885168578264 
-0.02196161162449569 
-0.006744137946029009 
-0.0150467367145333 
-0.0143233605761465 
0.01125199486034201 
-0.01827286855866625 
0.0008004557012824708 
-0.01065443105295908 
0.04512113577872603 
-0.01802640516522949 
-0.01423515619349553 
-0.01475292574309233 
0.01073004300342222 
0.002003176996791228 
-0.000736978941877756 
0.01802510634355874 
-0.01380202983866284 
-0.003818042476396514 
-0.02260037368916056 
-0.004086496787119113 
-0.01501444803637446 
-0.005038082003990355 
0.02252382695227054 
-0.009755022634839492 
-0.001504326647816908 
-0.0196953843953661 
0.02631029851814515 
-0.02347729562706521 
-0.009588780786650361 
-0.02729103779665298 
0.01496105277786152 
-0.004395843946657083 
-0.001591120480887573 
0.01463870850855985 
-0.01857726395036668 
-0.01167483118758971 
-0.02546581399434336 
0.0003988261962966905 
-0.01335969142450892 
-0.01032655060441634 
0.01939902348433749 
-0.007443403402471714 
-0.006497821456783691 
-0.02388209563728667 
0.01925168016530166 
-0.02659028741438095 
-0.01053493594226032 
-0.03663957365374464 
0.003166640392538686 
0.001204652354391065 
0.01931153701239123 
0.01145153745429587 
-0.01356134193634184 
-0.00897270494780243 
-0.01436346003428116 
0.02131771777701642 
0.009837845071564459 
0.002668208307896924 
0.02527642043795345 
0.02017165061178958 
0.001510489154086798 
-0.03129488518347497 
0.01433639170834582 
-0.001662090647315517 
0.002333580673785818 
-0.03362975257883754 
0.0007228931309953319 
-0.01366649839162161 
-0.001720956615846468 
-0.004181720593976652 
-0.01360555308539664 
-0.01001397220655675 
-0.01666130409445574 
0.004376254847671909 
-0.005102226750597102 
-0.01001737596035986 
0.007452186951498464 
0.007125888382816812 
-0.01438988957394781 
-0.03407938948305642 
0.007280806625857488 
-0.005104065065517047 
-0.006154037550354657 
-0.04457761953614855 
-0.01852638672914365 
0.005186978631603003 
0.003254570792849203 
0.006358238838638994 
0.01125453396723099 
0.01201106153143554 
0.003996110901682918 
0.008497938309703551 
0.007774401323701071 
0.008863302687862897 
0.007226240279498622 
0.0009460111336796285 
-0.00270074339708153 
-0.0002476174215363089 
0.01125067619328191 
-0.001038974897500335 
0.001366115088469671 
-0.01104669589959878 
0.001765183909819865 
-0.007546080756880877 
-0.0113394635617721 
-0.002148106166721379 
0.006396054619189789 
0.00876759275037545 
-0.0041935307532388 
0.0007069916531316732 
-0.0007123549039449056 
-2.234442020648854e-05 
-0.006207634776720722 
-0.010239127171585 
-0.008519550429566846 
-0.002441480417483538 
0.006178773890986611 
-0.009206080239817671 
-0.008295331029686883 
-0.01257385253119633 
-0.004139651795785113 
-0.006555483759931447 
-0.01379988626495786 
-0.0056572280787448 
0.004101470797152649 
0.001627846055097536 
-0.005769661692554699 
-0.004897521359457415 
-0.00162916033468305 
0.01445891306638828 
-0.003768956664722066 
-0.009783805174376964 
-0.001094964952103678 
-0.005248425686611065 
0.007297555273823183 
-0.007818403078761136 
-0.008099365688968324 
-0.003863992556919498 
0.005928762102199556 
-0.0002756165420256999 
0.0009826674822205721 
-0.00148993266933743 
-0.01022934091373642 
-0.01748141750891625 
-0.002062476905355493 
-0.004154954355767285 
-0.01107235927941994 
0.00349248615538293 
0.008990636853702209 
0.007627609311686883 
0.006596562115969958 
-0.007502491650155943 
0.0006039107104058441 
0.00980394788037342 
0.006158048245303235 
0.002305549244991465 
0.01285453383138834 
-0.004363090391267785 
0.0001998136386110461 
-0.000647800632105057 
-0.01073400102526176 
-0.007625932803096252 
-0.003471813322972081 
-0.007690327427452587 
-0.01710774554397208 
-0.002200958921143 
0.003541377716881815 
0.006609476615028561 
0.00293082074339718 
-0.005402239359204396 
0.006891630535440579 
0.01026688115554584 
0.005607319206537914 
-0.00112525349286891 
0.0053963871394455 
-0.01289638284735777 
-0.007121454264358603 
-8.44118150473229e-05 
-0.00848681013749719 
0.002271795294184897 
0.001619389717822693 
-0.008191152893254436 
-0.01407112485566733 
-0.008372290673621781 
0.001670327375460615 
0.003584159699222088 
0.001316848410777148 
-0.0009394532093232448 
0.01312739954354917 
0.01245780970006833 
0.004304333461747739 
-0.003413745125256059 
0.002710868463978035 
0.0007393234020467693 
-0.003689718139251995 
0.002133424055246609 
-0.007384062039052685 
0.0004991792923849038 
0.0006084588076341885 
-0.003600226249855794 
-0.006786757140855778 
0.01006460609345605 
0.005756635444927159 
0.009779338050422802 
0.01422830662183042 
-0.007774365324949375 
0.00407452072084117 
0.003571604574459755 
0.002775925280739014 
-0.001374735657465607 
0.01105842836434289 
0.002887740307642514 
-0.002008150778778018 
0.007050683308676651 
-0.003262348725463537 
0.001320409946877268 
0.007230116234160064 
-0.001047717892540607 
-0.003779591356828576 
0.007775943252254332 
-0.001753891268230619 
0.008698693632797358 
0.01960576917921604 
-0.001970979528187183 
0.003754451603255399 
0.005516420472822397 
0.008041069504350695 
0.0003991248201168596 
0.01445311652193742 
-0.0004534908741590319 
-0.01060492507340211 
0.003508745241205447 
-0.004949037349684008 
-0.001519500165361344 
-0.01553192578167637 
-0.008377309601264904 
-0.006117820543409569 
0.009233995956796243 
-0.008532085842423162 
-0.006864195550017172 
0.02551846387703818 
0.004134801106982248 
-0.006196657988811619 
-0.021648068493561 
0.009109381216422479 
0.004407013917005243 
0.02171408121622422 
-0.001168922650693784 
-0.015479855792593 
0.01450772778322993 
0.01284947590883305 
0.007130648466015729 
-0.01973076135138537 
-0.00439088011268909 
0.001454359318612379 
0.01317352517668667 
-0.01512332697706034 
-0.007688327444156282 
0.0348900020718423 
0.02049607916446202 
-0.002795367331508475 
-0.02578709440149603 
0.02091731139802891 
0.01609407796072128 
0.02514885694222414 
-0.02252947591560584 
-0.04604104032494464 
0.01413489811232075 
0.01636621065495461 
0.01183993968719602 
-0.0581887501940932 
-0.02609541860526 
0.002949435411319765 
0.01148153701293522 
-0.01404094159159284 
-0.02846666816635373 
0.04107125578296157 
0.02601503794714356 
0.008803318115708152 
-0.04081978869444277 
0.02775838531662704 
0.03201161590576568 
0.04173172681391933 
-0.02623562144522762 
-0.0567104760773797 
0.006434023821983965 
0.009050163833782772 
0.0214958618709092 
-0.05576436587309471 
-0.03174206047688033 
-0.001615310016207997 
0.003758059814704429 
-0.005356737799865466 
-0.03134470501107432 
0.03464015264226877 
0.02484856394222679 
0.02234826851148701 
-0.03126876323066034 
0.03236551620900907 
0.03379937119031515 
0.04639051653204735 
9.356089239816096e-05 
-0.03623093053756686 
-0.01375700945156003 
-0.02247675113128169 
0.03144377910358231 
-0.04325801369185457 
-0.03519229610684361 
-0.02100782357685005 
0.003856485043636095 
0.03685616978113367 
0.003943087190991715 
0.02220569610751237 
0.004498255432644266 
0.04504773479478422 
0.00167552205055767 
0.01793471293821761 
0.01268384296693995 
0.05242463406011 
0.001027592058363588 
-0.04178266645071976 
-0.0229219130978567 
-0.02652569799816246 
0.03835254261020735 
-0.03026068228082635 
-0.03429813234730703 
-0.02989393598041093 
0.004745222348825635 
0.03719045829680874 
-0.002746838049925651 
0.01350733433539779 
0.004606906936547005 
0.05435804118532192 
0.008965832809456018 
0.01457837987016169 
0.004530508542425983 
0.0477240786741485 
0.01448462887570646 
-0.02791655444722419 
-0.02680287507795743 
-0.03988020835818299 
0.02084226770577497 
-0.03432868185888532 
-0.02631657567075299 
-0.04655509932065328 
0.004080418775935412 
0.02984251966306623 
0.002719563503959699 
0.01794707551656146 
-0.0005343686224504885 
0.05975987911877301 
0.006342818610150443 
0.01796303124763344 
0.0008486230185372601 
0.03526364136780372 
0.01859644468057997 
-0.01922115697689387 
-0.02255697278792339 
-0.04004987687458297 
0.02085284809786541 
-0.02907193897901309 
-0.0195891122078874 
-0.05267923506921357 
-0.004618323172202705 
0.03237085244665065 
0.01385807172683191 
0.02292475027979686 
-0.004304745634725036 
0.06086845357743106 
0.01885265739709524 
0.02532670248223558 
-0.001246676149661597 
0.02539703102458948 
0.02780057611309117 
0.01176440906020917 
-0.02626590328803058 
-0.05959710175410904 
0.002794966567611004 
-0.00187696986583289 
-0.00105220866152641 
-0.05413794610800959 
-0.01882874262796762 
0.03126697427105678 
0.03256321041336326 
0.01201441071286107 
-0.04759859187795543 
0.02275315936585466 
0.02825392399730826 
0.04335302363726758 
-0.01063421459982161 
-0.01088055433451032 
0.01866078122059273 
0.01507078887599661 
-0.01676964659530363 
-0.04919973684873823 
0.01127312562712659 
0.007439265309002853 
0.004078507588452014 
-0.05104969887544183 
-0.0268903100810426 
0.02268264898174486 
0.03206212735111272 
0.0119719868818568 
-0.04852560895221968 
0.01744371150835518 
0.0314652172158005 
0.04104268000784159 
-0.0193519046833358 
-0.02458573627973259 
0.01220951876324896 
0.01123231223439214 
0.0004099901904351107 
-0.01509999237266295 
0.01501102714801292 
0.002322247997155177 
0.004555514607044898 
-0.01199877378316063 
-0.0006822369398278003 
0.01755682665596266 
0.02152906488676458 
0.0172462502249401 
-0.0286550894024317 
0.0100798276958929 
0.01307024094024258 
0.02144444150803886 
-0.001457324366043099 
-0.01182311997119436 
-0.006266443116052247 
-0.007231977018808014 
-0.004184799779242834 
-0.01102229376215019 
0.008553661574212593 
-0.00678618100979406 
-0.005888142096579786 
-0.01612452540920277 
-0.01014982181663031 
0.0004534447823280759 
0.008598603145429691 
0.009932338854753682 
-0.02282639665297558 
0.008733343482300185 
0.006282689786820377 
0.009324942804693254 
-0.004973172392937215 
-0.01052865457835001 
-0.004538103774691617 
-0.008680255442331508 
-0.001867333479326386 
-0.00228918234099631 
0.01044411092348878 
-0.001475079965752534 
-0.00543926172087651 
0.000293407158045596 
0.00952368738615373 
-0.00357775394698815 
-0.0005462951580138708 
0.01288967824693897 
-0.0002773880046735562 
0.01004012332373539 
0.003898985516167724 
-0.002253723947318618 
0.005246346005661414 
0.004931216445145125 
-0.001532232545673498 
-0.00882291971851794 
-0.01000261047494743 
-0.01651887953385027 
-0.003800366441017183 
0.003409813412000001 
0.00342158214035436 
-0.003725670692726512 
0.002486891478493446 
0.01050550593747631 
0.002412148520143182 
-0.001087317118046356 
-0.002412889755624526 
0.008384262823353889 
0.01162141962117097 
0.0007202783611989332 
-0.001474411167820736 
0.007012388632814693 
-0.004539642897485802 
-0.005589061004682466 
-0.007032510429179105 
-0.0164650014031873 
0.0007995293188918666 
0.007838854201618298 
0.0002146632087165214 
-0.009305989999250152 
0.0004023243188433155 
0.00555012471181659 
0.004013756873970022 
0.001681585714580033 
-0.002379761375378475 
0.009117523962691675 
0.01176908277892324 
-0.00601343640802003 
2.489984944276657e-05 
0.007770094158438607 
-0.006911079032688896 
-0.008538301304435853 
-0.006221824254561571 
-0.01036719253510407 
0.009100321299200393 
0.01283905452830752 
-0.001375606501509778 
-0.00742363263862119 
-0.004025426891270773 
0.00659521967499703 
0.004502945673731268 
0.004314550198987679 
0.002921939177357719 
0.01817075344676704 
0.01999177490716585 
-0.002170806174987815 
-0.001025664720659523 
0.009107201646908451 
-0.005641692352460168 
0.003221815945887396 
-0.0002038406122577839 
-0.02024003172573985 
-0.003849531019050761 
0.001270760545773466 
-0.003341978271358624 
-0.003685507128143819 
0.002577354464908065 
0.007252057156270547 
0.001402072316919672 
0.002009314646213423 
-0.008302824401411049 
0.006598151054184142 
0.002832100466079005 
-0.0009508310776061231 
-0.005447164780209304 
0.007919613448357614 
-0.004027084806275612 
0.00471277001781403 
0.009494826420752098 
-0.0102433514143393 
0.0004142535495377705 
0.006073534758873095 
0.008165274490493807 
0.004893606963053306 
0.009509218572005543 
-0.000970448255010924 
0.008764527851746277 
0.01378953344489243 
0.003174791011955801 
0.004025196254012711 
0.001100537823908152 
0.007122790459894298 
0.002866803384487283 
0.009389947927867202 
-0.01650668879518622 
-0.01131067654574162 
0.01926538550051182 
-0.001868014800778358 
-0.012648417528678 
-0.0245125901044396 
0.01574348017928141 
0.003835683876405778 
0.01762683567924895 
-0.01707424824239727 
0.003689836436422146 
0.02497452747742272 
0.00286686960388421 
-0.009749555610160979 
-0.01271177935766666 
0.01884529429847012 
0.01117899570001617 
0.01880694995791019 
-0.03165577110604715 
-0.02455734912196463 
0.02030944638311377 
0.00673134314902174 
-0.01106916467815373 
-0.02356224149908176 
0.02547867268128462 
0.01302403935270878 
0.01180848278297781 
-0.02916005349892704 
-0.0007035756968804666 
0.02920620857855273 
0.007497932073979987 
-0.007893203262773782 
-0.01303883861804206 
0.02769324768614627 
0.01377571584105094 
0.01209387053510967 
-0.02455013726453358 
-0.02988919824457091 
0.02562142609279872 
0.00432398300007178 
-0.002998737296959783 
-0.03210433957439136 
0.04253115812508884 
0.03553833446306109 
0.03462636836709208 
-0.008118401821220809 
0.01414374769085178 
0.03560687350394839 
-0.004429161618696822 
-0.003407507283752704 
-0.004338882212259585 
0.03778424815364299 
0.02628976632782061 
0.02422425193065815 
-0.033429387642689 
-0.04604653397839514 
0.003060542798140542 
-0.01396907820880956 
-0.007913036256294146 
-0.03326141123628815 
0.03502604722746214 
0.02839577557173827 
0.02092371293880432 
-0.02469100329650881 
-0.004464714065778226 
0.01682213788462013 
-0.02159479813804343 
-0.01183025631277985 
-0.01241242997723012 
0.03891050689266471 
0.02615738660115139 
0.01379875346312265 
0.006851196774936521 
-0.01871042542620755 
-0.002979633913004232 
-0.02358035607508549 
0.02094962400957928 
-0.007035465137222245 
0.02178883954858015 
0.01215318638418717 
0.03687701282123205 
0.004892463301612604 
0.009453119028522545 
0.01925010154989707 
-0.01314766531652394 
0.01424219358296093 
0.00615622005011783 
0.03277535603215052 
0.02247954727908954 
0.02743801461343055 
-0.00304018199825726 
-0.03190950892233362 
-0.01550440705960623 
-0.02912707898207302 
0.02382221860032312 
-0.005119596142874794 
0.009244200471503188 
0.0004133864265928127 
0.02532946784712787 
-0.007819514003650361 
-0.008262859456826583 
0.009628915635427639 
-0.01570680941932983 
0.01886959410710245 
0.006327515577599214 
0.03127232328981128 
0.01946297629595728 
0.01957401061927656 
-0.007267738578383354 
-0.02989303008560233 
-0.01231502915746016 
-0.03134387060998436 
0.02518755430984613 
-0.004021920754171104 
0.01353666333554083 
-0.004306739292491465 
0.01583989921100599 
-0.002801688460500756 
-0.01254602877394752 
0.008316586281426043 
-0.01735381290836264 
0.01481026155157639 
0.006966159244491311 
0.03036881834182565 
0.01646444606175682 
0.01933208013624444 
-0.00108812122334767 
-0.01578452036293648 
-0.0006928916825740945 
-0.02779351205634673 
0.03085338740618176 
0.01481365015792124 
0.02485098984370085 
-0.0002067202074006356 
0.006661694865191484 
-0.002036775268691384 
-0.003087471639457363 
0.02312071854191598 
-0.005635287311613809 
0.02454246193376626 
0.02041597748690598 
0.03685053106157387 
0.02060385787546425 
0.01427283160489292 
-0.005582261499430625 
0.003046468147054966 
-0.006613656794352028 
-0.07079861640078268 
-0.004187799964480668 
0.01689872165240997 
0.04040490372384321 
-0.002851484643017451 
-0.02215012928596691 
-0.01788697983744164 
-0.005008548540248349 
0.02019529282785783 
-0.03533736941158006 
-0.004170098121012578 
0.01215608089291866 
0.03532554351389312 
0.01940514660475865 
-0.00994441379925334 
0.007646711974429389 
0.01328845580560049 
0.008648046790838542 
-0.05689235984134232 
0.002275295968765084 
0.02972048124097584 
0.04171470407672254 
-0.001744445881707247 
-0.02611562016848982 
-0.002221529119907083 
0.0146842225252445 
0.03295283210831818 
-0.01954154532711671 
0.009709241478459502 
0.02114116976644159 
0.03541014059469143 
0.02160135634485756 
-0.008265881455116499 
0.008298574739257778 
0.01341842693760588 
0.005051897049880813 
-0.0441733824064847 
-0.01081832220567951 
0.01131013920173488 
0.01871062391210132 
0.001962723964316867 
-0.0158176223045663 
0.007544810361290505 
0.01966548484687761 
0.02188080666759295 
-0.02878261859676706 
-0.002552000595291009 
0.01420933161039868 
0.02032229549036558 
0.01538604829970765 
-0.009231277293171728 
-0.006441249273375299 
0.002656830981513944 
0.004870390226537841 
-0.03142026709645477 
0.001480304765527977 
0.01055818676620958 
0.009351718365350096 
-0.001201232572503995 
-0.01950442081248715 
-0.004467045812312589 
0.01004720998951384 
0.0176630133344461 
-0.02228766403255366 
0.001900641965947054 
0.01609311438567627 
0.01570415628339424 
0.008091043686333512 
-0.01343233060164304 
-0.008794422882291762 
-0.00458373281081031 
0.003836950904559866 
-0.003496644490999489 
0.00983293855041974 
0.005704121488041515 
-0.001103183281873466 
0.004259588951867809 
0.002293839772399464 
0.001751671498920402 
-0.0002677447155007723 
0.0127041355535509 
-0.0006926627661502765 
0.01371007558060479 
0.005621325615579655 
0.0009539960904360225 
0.003644065346578022 
0.008471514775406091 
0.004803940617626957 
-0.005290299834127314 
-0.00770651159820052 
-0.009761533209508655 
0.001005147948199123 
0.009900332229514872 
-0.003158671632840108 
-0.00998022826243937 
-0.001982503254256129 
0.007047404988829139 
0.005748885023254717 
0.002308029552036479 
-0.0006399296558658327 
0.005104974727157954 
0.01486905174530203 
0.008320078288922512 
0.0004632901052313591 
0.001771639357999064 
0.0006436466786691193 
-0.0002889300792453812 
-0.005467187514662549 
-0.01374188638865885 
0.001231733568459849 
0.005124211201299978 
-0.008026958215061787 
-0.009136370280762878 
0.002320265092620985 
0.009474702958724098 
0.006699340912402962 
0.004513676354298488 
-0.008906842786984578 
0.002865663982701648 
0.003114703813972703 
-0.001948564344222522 
-0.004853817100956003 
0.01063472402087456 
0.003772031390589908 
0.0006520793815244739 
0.001140152907284698 
-0.003024720200910087 
0.0121226396360481 
0.01651996092421148 
-0.002760786759236518 
-0.005432628725946286 
0.003235338058125902 
0.009551756530426484 
0.01255004221544584 
0.007799025133803875 
-0.001800314289696087 
0.007933910876027142 
0.009439742629091264 
-0.004067176273869038 
-0.002741705662095731 
0.006439029146937655 
0.002297445608616776 
-0.001844529605348632 
-0.0007885705310628972 
-0.01299416928293916 
0.003794134058793167 
0.0009227121648077423 
-0.00282011195768956 
-0.008499406280031582 
0.006406099433207435 
0.00149020918693611 
0.004614052828825631 
0.009271042227826209 
-0.004880364290532077 
0.00297966275105391 
0.0008536842979122064 
-0.006999273947356196 
0.0002560560540274902 
0.006537068536173195 
-0.002618824932816032 
0.007771974085113226 
0.01288737367824396 
-0.0003515449816639607 
0.000429916701382293 
0.0009572879789193345 
0.007416163729843411 
0.002089878785692572 
0.006240301023872558 
-0.002672856101591732 
0.01421055451408978 
0.01820156042641466 
0.002352608278504428 
-0.000894078820441609 
0.002118075980392171 
-0.000306883787389086 
0.006759110622068303 
0.004538975937362899 
-0.01977570718455092 
-0.001012052035495778 
0.01635144974521542 
-0.003110364886462632 
-0.008686996784545584 
-0.01347925057951382 
0.01961173409802224 
0.01128675900676937 
0.01166426318815985 
-0.01250900954124155 
0.01028571584049459 
0.01869557773322308 
0.0008802901860915433 
-8.987013978768057e-05 
-0.008806056126726809 
0.01323760451095464 
0.009082668138681084 
0.00459950765663492 
-0.03439126823707 
-0.009539191377362307 
0.01791817716332714 
-0.00126985689751657 
-0.009137150233677144 
-0.01355572254078783 
0.02685407635495104 
0.01368236872984649 
-0.001800039370306259 
-0.02730628320756064 
0.002596975840937499 
0.02378893286724016 
0.001914482843019127 
-0.00387720116784172 
-0.008486440652209911 
0.01338795460473061 
0.004923900879282284 
-0.004677741233423132 
-0.01317858212953188 
0.005997947923871251 
0.02433963390343858 
-0.01410186734187074 
-0.01361641259201686 
-0.007979158576575747 
0.03648823019525808 
0.02614023993726786 
0.01608340994361251 
-0.002512523201568146 
0.01724673882962031 
0.03282228735262494 
-0.003442494854167308 
-0.01204492365525545 
-0.004478081381772383 
0.03025782758968762 
0.01750891244608167 
0.01487364523773137 
-0.02884421359063714 
-0.01245807713734067 
0.01028118723750723 
-0.03141254315941192 
-0.02284843558783616 
-0.0189367316497048 
0.03447102213573219 
0.02444123395349805 
-0.001206554574936678 
-0.01473542918832037 
0.006027036220324172 
0.02028892870830234 
-0.02543236894083513 
-0.02235197953412625 
-0.0157246606281991 
0.02661399810381985 
0.01595489608404974 
-0.0009919951957808955 
-0.005136609569287895 
0.002544851258113995 
0.01300284674233496 
-0.02363754905694077 
0.0009436721305720183 
0.005628433625300771 
0.03085983868893695 
0.01917207987630016 
0.01732497520497333 
0.01030216239482685 
0.01113829331686559 
0.02121392504007479 
-0.007233793338660797 
0.01028816631662926 
0.003629521644809682 
0.02649728856342703 
0.01996711725276875 
0.02161395457672397 
-0.01801641214337909 
-0.0154995768916086 
0.004369962688252673 
-0.0252902479262442 
0.005862353743027439 
0.004046164984198869 
0.02626188862298431 
0.01356414968784606 
0.002907266311682847 
-0.003472651924189006 
-0.002633513742792227 
0.01345248760059724 
-0.008735088299167094 
0.01635468115305758 
0.001677056385770731 
0.01538594012283489 
0.005938115853571672 
0.005475633238993099 
-0.01229120960435321 
-0.01965615537557252 
-0.001475558277311147 
-0.02254869317335885 
0.0005248231707934369 
-0.0009948085472500901 
0.02648034045368134 
0.0132352778612325 
0.01425952214389121 
0.000922748697918362 
-0.005434005867945169 
0.01271595153812785 
-0.009555519818672595 
0.01379897596703072 
-0.000892918655681405 
0.01582157858372223 
0.001915837434817553 
0.008661703743214356 
-0.01268755976768006 
-0.01367709568627514 
0.01461275822628829 
-0.0137362682653904 
0.01269842422606179 
0.01558001784262805 
0.03884583113688341 
0.02156030323630561 
0.008510033596041132 
-0.00188503122225088 
0.00649097241760734 
0.02427741239635442 
0.004501868165478823 
0.0232036273060007 
0.01336077140104687 
0.02975766850462721 
0.01191500793579179 
0.003706801033555848 
-0.02640200515924078 
-0.01319432772317346 
0.01067330248545388 
-0.03811388996645385 
-0.01376782638695097 
0.006021238090583012 
0.0364712290706375 
0.01412199656575063 
-0.01455538240966229 
-0.02592149653768972 
0.0002402865308440753 
0.02173907274128039 
-0.02427996961871878 
-0.01299522010424497 
-0.003033113365411901 
0.02182153313266403 
0.009184072949223977 
-0.02157345173133392 
-0.01300221909940355 
0.003435671322004072 
0.02429973327316581 
-0.02295574913066563 
-8.161352924821351e-05 
0.01666310252920606 
0.03690859802494934 
0.02301175852977835 
-0.01058152802987766 
-0.0109301948179859 
0.01472735156580015 
0.03011991044960822 
-0.01219354484186723 
-0.003066836594915707 
0.005090052880434694 
0.02633400263593418 
0.01622967147981774 
-0.01078539127641877 
0.0004176582541742536 
0.009913984290728 
0.01222020521423062 
-0.03143644548001621 
-0.01120136488666653 
0.005738114032905955 
0.02322902448518329 
0.014055697381686 
-0.007486436230603221 
5.269951308995384e-05 
0.01196858074431465 
0.02198724244598351 
-0.02340921257421253 
-0.0123695794154457 
-0.007761426531732779 
0.009100937013578765 
0.008417612210294608 
-0.007352427600160918 
-0.009191554680403766 
0.003426076489637809 
0.01317654248486599 
-0.02256309060522989 
-0.001013311833615626 
0.01106328800659458 
0.01730260398790788 
0.009354895854199883 
-0.01450746639532231 
-0.008858937289747069 
0.004569224976571202 
0.01734759630426219 
-0.01630210947960461 
-0.003186270347483096 
-0.002555257343047779 
0.004956974526042927 
0.004574487742722066 
-0.009256019622105737 
-0.002186349288370475 
-0.003275469582594559 
0.008713871845991875 
-0.001256207604535981 
0.01123312743367286 
0.004779794075790516 
-0.0003519483736418782 
0.002597638221883725 
0.007712105529300128 
0.003082511070712928 
0.003902559428567941 
0.0154020177459377 
0.008234461012260212 
0.01037500827266352 
0.006361122326014752 
-0.005093682612404729 
0.0009785351178811911 
0.006082506487184502 
0.006336028436791624 
0.000459610034669829 
-0.002254114651732303 
-0.00752799650120172 
0.002289945075541191 
0.008134221558529962 
0.00335251565885293 
-0.004218884708882645 
0.00201885322424964 
0.01316634581254852 
0.009582557533563112 
0.009711589501967597 
-0.004706510639724501 
0.001450915683425381 
-0.001012178879249933 
-0.009698367647127604 
-0.01036669358413789 
0.00678300336654381 
0.008356375773417704 
0.004377727048450419 
-0.00585907403507559 
-0.01227712458537318 
0.002196265890996453 
-0.001177559339694525 
-0.006768119248187818 
-0.003606787308115404 
0.004717005725896679 
0.007450916340752576 
0.006575942961396395 
0.005850113391790023 
-0.006505713396110412 
0.003488253362019379 
-0.005527411621865351 
-0.0077736312929424 
-0.003430937297941525 
0.00117125627831927 
0.009624164058851956 
0.006842551982713089 
0.0001729867225161501 
-0.00570047716374323 
0.0064212426273993 
0.004812406609411335 
-0.0009378307442258543 
0.0008451010340738338 
0.005375902340234228 
0.005647731001061774 
0.007503919172366385 
0.008672490747308661 
0.001028557120948781 
0.006963672873407043 
0.003063520197594084 
0.001382285181526721 
0.002401518105587792 
0.005604498166675301 
-0.00116666967078854 
-0.003107852857221619 
-0.004772077931222117 
-0.008864228459633404 
-0.001535969683933049 
-0.001924317332312165 
-0.008027818428516329 
-0.00321384061044053 
0.003197854175544689 
0.003381401714116207 
0.004696771070116436 
0.001352220452660053 
-0.007039355021702754 
-0.003963938866851487 
-0.002589912439967807 
-0.002946315732542021 
0.0005090536535541813 
0.003189750384973904 
-0.007650104565774139 
0.0006768150615522458 
0.004026231979831055 
-0.001734385304768271 
-0.004065523188715027 
-0.000653595696341166 
0.001313398109685518 
0.003025612300089616 
-0.001223764164795019 
0.001951690846201277 
0.009284398138813463 
0.008967541086312586 
0.004975035847710228 
0.001383896710604747 
0.005140315191310331 
0.003557239683730715 
0.005721220032028412 
0.00507794506916794 
-0.008172379824204674 
0.0007944794261769041 
0.007719237261869164 
-0.00238406724626784 
-0.0008637807108122714 
-0.01333952915836665 
0.01024468557487165 
0.006388451439073866 
-0.001926034245937099 
-0.001053559917299225 
0.003238238667812096 
0.01360766001243421 
0.003973038776204212 
-0.001769815662880396 
-0.007118950758802408 
0.0105121855748145 
0.004589798340453508 
0.003564495606300885 
-0.0222437049982505 
-0.001893314924079751 
0.01873895717570071 
0.003691173028943148 
-0.0007277286252080716 
-0.008421307531829972 
0.01605140687757004 
0.001989692477018576 
-0.01053427055094387 
-0.01813798008114714 
-0.0002282823953113851 
0.01992255477786244 
0.01074214146694077 
-0.002489936259789789 
-0.01194481335222601 
0.01575537335787137 
0.002362274470324227 
-0.009769178143669385 
-0.004634884103002712 
0.01974379157739478 
0.03067193418874058 
-0.00190839464980231 
-0.006844008257973102 
-0.01144132824846505 
0.02810403259567112 
0.0121538974322524 
0.008002961347033816 
-0.009815117401209082 
0.01220202795218524 
0.02621389366043816 
-0.000912994048497484 
-0.01453288785974287 
-0.02117404129525989 
0.02269989166932313 
0.0100523306119525 
2.860812188150785e-05 
-0.01651891522068912 
0.008255780983964215 
0.02020500683296329 
-0.01806308288515833 
-0.01334631331567473 
-0.02087714176448558 
0.02373623113666731 
0.007560876960158561 
-0.01047289590036935 
-0.02242931283724925 
0.0001305553480285918 
0.01276644074713086 
-0.01385170364193024 
-0.01291129707453373 
-0.02809671346773961 
0.0127160396288642 
-0.008794610542652962 
-0.01171550506520522 
0.01483293039492063 
0.0113563994697581 
0.01770956820418505 
-0.006597343301349165 
0.009707920402008815 
0.002747412884468163 
0.02446411811373292 
0.0175588027045117 
0.01976514713860378 
0.02367780531152338 
0.01007517663501896 
0.01180036385148536 
-0.005915132546860195 
0.02152929659603391 
0.002386966550606232 
0.008457789571115065 
0.002014626682623534 
0.01941812621167753 
0.002989844250882352 
-0.002660498505331945 
0.009361077942530036 
-0.009350054464975985 
0.01620853407046784 
-0.000181259887137943 
0.01347747656419864 
0.004915172014812908 
0.00519351985549179 
0.0159295702879421 
-0.0068234180550144 
-0.005337477524814436 
-0.009485788982171939 
0.02648229529336526 
-0.001834507893506535 
-0.001204091501269337 
-0.0126325447115833 
0.01350957202298318 
0.002882351305677002 
-0.0038003035580226 
0.01086887724667672 
-0.009685477907449808 
0.01444675580526831 
-0.001723574995663715 
0.01187153506968043 
-0.0009571257290522674 
0.008005740227524882 
0.01535476694504839 
-0.01358174617879813 
-0.002394541710606614 
-0.006454463436741046 
0.02520102109613555 
-0.007100916928910342 
-0.006590643714881089 
-0.009090776749383632 
0.01797248738784713 
0.002329881596827903 
0.005067917927070779 
0.02559691916154072 
0.008562521124534888 
0.02433035225426156 
0.01161253448567342 
0.03033935782567155 
0.01133674786612678 
0.003589149607363526 
0.01584634279628985 
-0.002120623383834279 
0.01905463471132337 
0.01097382345778665 
0.03010450189480985 
0.0003745123130646271 
0.005348322330189062 
0.002648364117355699 
0.01414965410641072 
-0.02244252069144446 
0.003986841742284808 
0.02527147713194696 
-0.02192462192075536 
-0.01870676129972161 
-0.01005979032576758 
0.01943537851628366 
0.005387472402302509 
-0.01987299970071507 
-0.01236747817976907 
0.001180963390598449 
0.01963577988534697 
-0.02725584291783691 
-0.01900447017140846 
-0.0191982897059072 
0.006168983653464049 
-0.002449770744712925 
-0.02228360155936185 
-0.006994213971228413 
0.01554181304482695 
0.02966412754099442 
-0.009553125085563023 
-0.006786909096545736 
0.003760853618543495 
0.02702102152352867 
0.01652730280243715 
-0.008733597557164645 
-0.005288937859014676 
0.01338925985674961 
0.0275737274893357 
-0.01176970512677904 
-0.006909414722034811 
-0.0008203024986673005 
0.02036375624052646 
0.003943460578002932 
-0.01442239509094753 
0.000110882379119372 
0.008732957671450905 
0.01157627725699927 
-0.0228919175021095 
-0.00856412329333652 
-0.004344794601078062 
0.01376810225439673 
0.01386611292289096 
-0.003349574112999195 
0.004515980634773081 
0.01809535378500112 
0.01853504797750243 
-0.01904965039268797 
-0.006663991035977652 
-0.005102959363360576 
0.01517327061014659 
0.009043875801604564 
-0.005949882225134832 
-0.009636216773904544 
-0.003619192884283759 
0.003723215560268078 
-0.01390552841891786 
-0.004598229416603988 
-0.0029586040515615 
0.005818106501685987 
0.005909791152694516 
-0.01125640846199865 
-0.003976595443156797 
0.008672301479911076 
0.01096317977288661 
-0.007090615049939838 
-0.0003053490886872065 
-0.001236058814971852 
0.008161345180716382 
0.00363326118759539 
-0.006461426467482253 
0.006730330454330708 
-0.0006022466419534006 
0.004306721496726209 
0.002488987773259461 
0.004956461765814024 
0.004545432711217482 
-0.004588961698911744 
0.002094239517383397 
0.005699010411531351 
0.006810844751279742 
0.01120800374645515 
0.01214379637150044 
0.004840932771525599 
0.004429688681543994 
0.005762596557756668 
-0.003548974795916215 
-0.002674028845036831 
0.01155504366767074 
0.01085427409338304 
0.001762955468005084 
0.001923477492577746 
-0.005883823744305064 
-0.0003245825747628645 
-0.004197630233799403 
-0.008705489952474737 
-0.00437802895689718 
0.006310278608616437 
0.009304168834367748 
0.002759976501886402 
0.002509131389501916 
-0.000993209944775947 
0.0104641158241075 
0.00609357535824651 
-9.021253326512266e-06 
0.007429362436544803 
0.01042144872448409 
0.002698678456041876 
-0.001626296680183497 
0.001021525264084555 
-0.005627575970450609 
-2.292680692858071e-05 
-0.006674012185104032 
-0.01282737140093006 
-0.002043416521227573 
-0.0008446060365241235 
0.007152373368120597 
0.001967249804824429 
-0.0003105104665149675 
-0.000799364994235232 
0.003446008732025452 
0.006094098589566903 
-0.007677055502952335 
0.01118204598448286 
0.008373127992145808 
0.0005285116263046844 
-0.002469888319479808 
0.00377531970418538 
0.002193246092526194 
0.001392131649648445 
-0.0005687818415073382 
-0.007145352371753677 
-0.001256468885016111 
-5.118567641575974e-05 
0.005412665030126797 
0.002237176207833974 
0.001584703641706334 
0.007690645171908685 
0.006750351898453722 
0.01186159933402633 
-0.005911522319790144 
0.005451685211321642 
0.008011618436613325 
0.0004057242373094994 
-0.0007678537451567698 
-0.007528833757725156 
-0.00879843182577152 
-0.005580677316409489 
-0.008402701604995963 
-0.008280573474500917 
-0.002972403741834298 
-0.000894762496507033 
0.003784594231137325 
0.006196516063130333 
0.001113053047606182 
-9.854292031884063e-05 
0.001378885429428071 
-0.003570273520716187 
-0.006585830866876006 
0.005290921541638928 
0.007338023519496407 
-0.003292227275044181 
0.003623462021309605 
0.002508636304894737 
0.001272658916846719 
0.001377479693140462 
0.003303734078598364 
0.003231095371795058 
0.004692711625876811 
-0.0004888821099089479 
0.00107210503458291 
0.01360997840530906 
0.01381351289080632 
0.01180487368573658 
0.01122442578023145 
0.001579675823223799 
0.001609960095096706 
0.01066009818188819 
0.006229612435585731 
-0.007419372168125767 
-0.003770023402264656 
0.004270382127538943 
0.001022155710707505 
-0.0007017546367712265 
-0.01018390586138511 
0.01003973611647288 
0.00226643136914525 
0.003048268845708056 
-0.006224265613108372 
0.003965899489076904 
0.01704023803844499 
0.004571647174781314 
-0.00166545950871311 
-0.01049614316971824 
0.009062303375177569 
0.004796804151188942 
-0.002397414823018478 
-0.0186207546317661 
-0.002896808122513926 
0.01495811437343322 
0.01016295410848102 
-0.003252499331115012 
-0.01049040909064384 
0.01904326656351757 
0.002499083446552299 
-0.00956435727764767 
-0.02029904326011736 
0.006368086783439997 
0.02818652494394237 
0.01633225928806947 
-0.002119484383713731 
-0.008204196330074411 
0.02001287952336342 
0.004856944490877091 
-0.01248901799115966 
-0.01383618217190492 
0.007211538821530192 
0.01902981950346088 
-0.003169430348160828 
-0.01785074705412964 
-0.02318862373306778 
0.02560966727973547 
0.009932608106919844 
0.002356239512760303 
-0.00896950671626567 
0.01361117447182547 
0.03002706703624043 
0.007567156705292203 
-0.00822793576937484 
-0.01443571794758545 
0.02209738776047293 
0.01191213147296401 
0.003789659232664908 
-0.02366289419086632 
-0.001906788371843702 
0.01063382811138865 
-0.01004599256919655 
-0.01172674899127932 
-0.02479243489865996 
0.01383598180037321 
-0.004863933829890243 
-0.01146191391093524 
-0.01683272607102693 
0.00614694939987237 
0.01816398290855734 
0.002301962913582407 
-0.0004824532300763911 
-0.01174426270793807 
0.009295161307565324 
-0.003352984535523693 
-0.003458050097641387 
0.0211149409683115 
0.004718060329243905 
0.004995227455571049 
-0.001478206346960668 
0.0292601972349685 
0.007729002931379252 
0.007867151860503302 
0.0004939884428085019 
0.01948543163889366 
0.02911803784558499 
0.01248064375677515 
0.01034345559176153 
0.003358490265543118 
0.03221505754762349 
0.00745222735146611 
-0.003458597722783745 
-0.007598478528666018 
0.03105125690151045 
0.01874231716376048 
-0.008974492413066741 
-0.007021334396649154 
-0.003482154495842515 
0.03231883783876378 
0.001855269511894438 
-0.001716981401132614 
-0.009327820117938965 
0.01665117030069417 
0.02494351823808139 
0.001127704315182591 
-0.0002119295039975311 
0.004770113853514961 
0.03577072886304735 
0.0002050188039229734 
-0.01802379252745994 
-0.0214829164246065 
0.0216890699674874 
0.02233268381658024 
-0.01301376638989336 
-0.006019902270570333 
-0.008022748173652783 
0.0290806852984183 
-0.006344158612930233 
-0.007101681825634157 
-0.004052761298714135 
0.02426770361524703 
0.01947581281211519 
-0.007866015358004123 
-0.000502746573688456 
0.002068028816582539 
0.03498738601668302 
-0.01133109890613393 
-0.0246844499765535 
-0.01110814159105311 
0.02658229251154843 
0.01896017589964322 
-0.004315296473884736 
0.01240783046811379 
0.008572876708315129 
0.02957406683117283 
0.00439228788637545 
0.003909859652299549 
0.004324009207707226 
0.01993623395779563 
0.01714403378802595 
0.0006153046561897539 
0.01342384233699804 
0.01171287939596306 
0.04166988488003906 
0.004767740175138876 
-0.007689869668883764 
0.002905655804621985 
0.02410408675738292 
-0.01086729739209297 
0.001353425304891973 
0.01601062346007897 
-0.0270377410820898 
-0.02050630908553073 
-0.01328762713415017 
0.008835052027306518 
-0.001712874815918491 
-0.01824483922520617 
-0.001104657969435765 
0.008180215497698196 
0.02131646372187041 
-0.01465497363311651 
-0.01206262972914351 
-0.01237879082914621 
0.007089831028468203 
-0.000307972748955666 
-0.01459707823027715 
-0.006738851988635016 
0.005398196940425252 
0.0212993476537141 
-0.01918344563182481 
-0.007913918914032713 
4.233162510837244e-05 
0.01937123439020429 
0.005148768656435685 
-0.01582320846468734 
-0.00324517894851698 
0.01715473815292607 
0.02939561202628976 
-0.004325934874616542 
-0.002517692187226615 
0.000874282699846907 
0.02113339945284892 
0.00165503480104672 
-0.01567159829838283 
0.006271642264453017 
0.01538987900062802 
0.01328162301846287 
-0.02277207362798505 
-0.0114303063113876 
-0.007819959145211827 
0.01162319846354697 
0.008530295893340109 
-0.006642474843967007 
0.004475176886657362 
0.02099775329209786 
0.02069546802118004 
-0.01306804516678198 
-0.01548389412375917 
-0.007694110419971908 
0.01202835030313361 
0.009111574524406699 
-0.004487278645293135 
-0.008385591731555382 
0.003408277606389327 
0.006212704416098031 
-0.01444956111671286 
-0.005672024681002044 
-0.005748141614693365 
0.002679916302702028 
0.0008448696367567159 
-0.01139901897723487 
-0.0101917381246375 
0.007754487655163234 
0.01392367762455133 
-0.005988906478495375 
-0.004956854796260529 
-0.004987538338829455 
0.002029132698127069 
-0.002425847890928686 
-0.006349828270867604 
0.005907248833858656 
0.009351089264816276 
0.00656778640771015 
0.001194329882928693 
0.001555566820949707 
-0.0003848421032592518 
-0.005237987281792461 
-0.006066595283673895 
0.009426080872617006 
0.007358854813938542 
0.00713142936231542 
0.01087669965089834 
0.01281207204935789 
0.005066115185198171 
0.01301855740153877 
0.001960045737570454 
0.006862878487325827 
0.01287972591242247 
0.007145918578682444 
-0.005090075884166522 
-0.003878894055546122 
-0.004855232062181247 
0.008486817773778892 
0.00352795946097065 
-0.002629757368318229 
0.005504691915586002 
0.00406462933915868 
0.02100295016320834 
0.009706095376710308 
0.003591285554419264 
-0.003116781437881677 
0.01081198923999075 
0.001726707602404592 
-0.002761520162013256 
7.520467177664301e-05 
0.008997503085004957 
0.003541350982696003 
-0.008224095912590542 
-0.005958012817361591 
-0.005904310521981098 
-0.0007907504026066418 
-0.0008356505687569914 
-0.004254073013758154 
0.00346981816746049 
0.00375844251961574 
0.009459650801642542 
0.005043648333815365 
0.006555314675106426 
-0.002109871942456693 
0.001947888128835149 
-0.004829710077462903 
-0.003773182037870486 
-0.001340163356156475 
0.00483711969753715 
0.0002637830103755576 
-0.008660229155028365 
-0.001493063090575175 
-0.0009971960286486144 
0.001705592485711106 
0.003414092983006323 
-0.001200090561146867 
0.002858904219229149 
0.003322687899942437 
0.008123561117714078 
0.009745424454277406 
0.009486262121339567 
0.002855320401581077 
0.006918217145840194 
-0.0008871925486787658 
0.002667186753156285 
0.003038291667390587 
0.002686780805029357 
-0.002560351208173954 
0.0005272791016850138 
-0.003306755427559152 
-0.01124851591114679 
-0.001894964921256619 
-0.009108721183059769 
-0.009035383869207709 
0.000195082447789788 
0.003384520646424429 
0.01392374404350731 
0.01478292747392021 
0.007777990831522316 
-0.007572195267997369 
-0.0004595667803747969 
-0.004459454394741888 
-0.004496800838894741 
-0.001559648357573694 
0.01128159249877551 
-0.001515735333597539 
0.01025729399244247 
0.01193831045055495 
0.002435233428613787 
0.009863287642999881 
0.0001357514785056578 
0.0009314564059340343 
0.008139504174132558 
0.002328635401643217 
0.01416536098799646 
0.01927520199793866 
0.01478272981367212 
0.002923727949323187 
0.01201017736190639 
0.004837939093945095 
0.005264159060761308 
0.005610857785234372 
0.008079242830683375 
-0.01377451831632981 
-0.001802079243793273 
0.01195402956079871 
-0.001770681658301466 
-0.00412426319321465 
-0.01378879878962052 
0.007881843855861333 
0.002072342023664817 
-0.008886514510927092 
-0.00953413518502709 
0.004704381995645242 
0.007263238193203686 
-0.002114411860645858 
-0.002461362059717944 
-0.009739994721044028 
0.003357446897155208 
-0.0004776204355887769 
-0.01164266577279016 
-0.02254096908108199 
0.005555782076204174 
0.02397663148492447 
0.01041786281189065 
-0.005000229502755712 
-0.008426389525644376 
0.02407762159975755 
0.012107398865186 
-0.01558815368528799 
-0.01645981556889208 
0.01156300355259897 
0.01777833185243404 
0.005413196387814516 
-0.006321717453460962 
-0.005654631706703481 
0.01308380759367397 
0.004695906614532301 
-0.01735549914086835 
-0.01444938351878432 
0.008035343054798914 
0.02502792191748389 
0.004242173269110935 
-0.007947268186485706 
-0.01316081645781941 
0.02052681142584496 
0.008433019691745709 
-3.653011128211099e-05 
-0.0008928560676623873 
0.01329333505781648 
0.02487329714252828 
0.00323984650448535 
-0.007037790471658305 
-0.002149365487275518 
0.02210223247694655 
0.009661639411976891 
-0.0009222958809028031 
-0.0206082782779378 
-0.004417667966772749 
0.01129613127609955 
0.0001907669807549134 
0.001891522910050385 
-0.01093562024913044 
0.005955192589079755 
-0.00455690524734854 
-0.009104830664812741 
-0.01534374302275896 
0.001795982922590287 
0.01214965205717202 
-0.0003135597739203278 
0.006407564122672835 
0.001097182634866996 
0.01105240853239576 
-0.00536961695771175 
-0.01720123099602409 
0.02832213841612551 
0.005476608538234603 
-0.001359682035288254 
-0.00079005000529814 
0.03339468060784012 
0.006785067890714493 
-0.002325760599123183 
-0.003019078705694074 
0.03062782457187382 
0.02861214953874482 
-0.0005497731329341286 
-0.007176502711373403 
0.00325764613366646 
0.04207050827703886 
0.01399171532464991 
0.0108361049116878 
-0.0003249141415802016 
0.02496649861259839 
0.02594171441176044 
-0.006723885795437392 
-0.01327040786934068 
0.0002127799372525351 
0.03571590656755515 
-0.001522053395366952 
-0.01190005092343545 
-0.01443946841243415 
0.02239366765395744 
0.02146539382861963 
-0.01529866191779375 
-0.01772142088501528 
-0.001682138733088184 
0.04224007684973506 
0.008205488191890485 
0.0007086258657367641 
-0.004625440683122112 
0.02344399872562242 
0.01963671352419932 
-0.01256510517814835 
-0.01121199274080896 
0.001811735273959717 
0.03342847193970613 
-0.008938538614667275 
-0.01633815531231229 
-0.00890060945149968 
0.02636972233251772 
0.03240211585901731 
-0.01869461720837198 
-0.01635781096911151 
-0.002633070775239247 
0.02857713532312067 
-0.003947647533495924 
-0.00526231747735922 
-0.001149096622478135 
0.03580785861168127 
0.02087273445041524 
-0.005486427654663242 
0.002691183160330766 
0.009876921028192374 
0.03825491070893058 
0.005515268374326659 
0.0001530584087279746 
0.002216370406213335 
0.02611519715666271 
0.03234268439720019 
-0.009623439529897618 
0.003890966246962953 
0.01447998913942445 
0.03440377984150198 
0.00641247159653922 
0.006217788898066946 
0.00735368598814393 
0.03323261953218374 
-0.002742953396436153 
0.004673738392300504 
0.01309160000117735 
-0.01690590384747353 
-0.02065471896841056 
-0.01488264164729042 
0.003941086785604522 
0.00284371160718992 
-0.01470680221777691 
0.003803090524210062 
0.005551331689066747 
0.02043796096462645 
-0.01295893241394674 
-0.02197342344922737 
-0.01771222312138995 
0.007568019280792634 
0.006444975062930866 
-0.001098548439250022 
-0.004834691096445738 
0.009962471487498731 
0.01923156746228241 
-0.00821707829084819 
-0.0103969803455817 
-0.005478586151809315 
0.01443069356279143 
0.001054004140752438 
-0.01893514004592447 
0.000129587490941255 
0.00996437230069085 
0.02454036509486895 
-0.002055778156028798 
-0.00670063015015099 
-0.002126689829306914 
0.01843846050385418 
0.008585162535571806 
-0.009946866969013802 
-0.0003428207321782084 
0.0112049775589818 
0.01402958613989195 
-0.01196704730908485 
-0.01580457073391519 
-0.005326486032833956 
0.0153714405588853 
0.006182284446832638 
-0.005719604861452602 
0.004621811207403058 
0.009913347797175887 
0.01487153254336113 
-0.003951130063482784 
-0.01026245906500638 
-0.0012011613946524 
0.01187014674825331 
0.008624017476420507 
-0.000469364189437858 
-0.01094217539568258 
-0.002012853284782362 
0.006370066877722862 
-0.009357815763483593 
-0.009560761856886337 
-0.01184737226716699 
-0.000476422158763721 
-0.008310012490508382 
-0.01156622738145871 
-0.001889863359847766 
0.0004014732356118644 
0.007515433600598965 
-0.00153595363876746 
-0.00483743715072483 
-0.004875112940793509 
0.001374245275603503 
0.0002483164884367985 
-0.004715775979003301 
0.003878473722060953 
0.0001326332629500072 
0.004561973760029894 
0.009799822129970515 
0.00397497110121971 
0.00925855049913378 
-0.0003487840243642432 
-0.002465610190753981 
0.01017183562833937 
0.007674276179247109 
0.009915091542291931 
0.0133216117027671 
0.01922086000258278 
0.0144400120731636 
0.01025854254744816 
0.005829308904046245 
0.002306589942633933 
0.00685165939630211 
0.01731273236460529 
0.002708593731699041 
-0.005064750080463663 
-0.001994341425003355 
0.01305783497200278 
-0.003081081482793909 
-0.009667414450570412 
-0.008297417994065213 
0.004608998428222265 
0.01627955673936146 
-0.001663182253878133 
-0.0005547735741732041 
0.0002719712738760051 
0.01958497562264132 
0.007120052209469935 
-0.00428844266940974 
-0.00199591046715051 
0.006933705688471296 
0.01061246966943076 
-0.002094284805983612 
0.003075350961139874 
-0.004777524397446419 
0.0004445890250199761 
-0.008785290012912235 
-0.008752708781002289 
-0.006002514284142891 
0.00286223561434175 
0.00871351171049585 
-0.006440074274030006 
-0.001871999138081416 
0.003060333911477495 
0.006110624921795733 
-0.007210498949962288 
-0.00478582357117487 
0.0007056891095978122 
0.006853140968653415 
0.006628135965626255 
0.001131408244096732 
0.006918906963608046 
-0.002779965475421094 
0.004546585793932449 
-0.00359673654512895 
-0.002950028707105953 
-0.004726954646619859 
0.00170217118949761 
0.008067561048100018 
-0.00247695539909802 
0.0007063919750447795 
0.004464574292363153 
0.009339248905583257 
-0.00394770424839413 
-0.0002808867280717629 
-0.0007782999922993639 
0.007218693134028197 
0.009749969090168262 
0.00767606900576531 
0.003822138672339403 
-0.01088459908387378 
-0.004142714468232378 
-0.004111843784645997 
-0.005792151686884389 
-0.009068055685120684 
0.007425030096464118 
0.01272390142490978 
0.002655307451463172 
0.005360012413039177 
-0.001932310870555772 
0.001072571010178325 
-0.003408545076635781 
-0.0008301131831543912 
-0.001362830521460085 
0.007063935301622919 
0.01243466920979602 
0.01179841508773631 
0.006992383368355511 
-0.002770321230589977 
0.01051101625965363 
0.006067951140363112 
0.005148986387040701 
0.0004460615531216624 
0.005633276876369166 
0.01448616658731175 
0.01006606549432151 
0.01049025589620347 
0.004813447891375644 
0.01641726549045482 
0.01092322872872834 
0.006205863508033186 
0.005842521469828831 
0.01213391657248178 
-0.01163338241359868 
-0.000864916329557123 
-0.004454351538162847 
-0.005429675609555607 
-0.003111954214232094 
-0.01157303431486178 
-0.002261065464941719 
-0.004949452883729631 
-0.01194102683648241 
0.005372059829892322 
0.003619573422214356 
-0.003098874436613508 
-0.002931221147576583 
0.01110178902538234 
-0.002684276539391562 
-0.005624713782777802 
-0.00871385707491994 
-0.00896672341097535 
-0.0141742724759473 
0.01013004340185534 
0.006136765074713304 
0.004157964853234745 
-0.005195975153777468 
-0.002802218144143785 
0.01065456461163201 
0.002672680526970426 
-0.01812558969890057 
0.001515385213968835 
0.01827080121396548 
0.008031942901353149 
0.005036679970478927 
0.002699468697056859 
0.004777456263228406 
0.006667519139384503 
-0.002160077332317564 
-0.009648428150908201 
-0.005090756425515376 
0.01637318076377902 
0.01694671034283392 
0.0001859965666287568 
-0.002230661643473862 
0.0008527976648967696 
0.02264129519103652 
0.003787552722175331 
-0.007857559847024216 
-0.002785466843124815 
0.02082723637158003 
0.01935779061813852 
0.003633300653934536 
-0.002487061411665011 
0.005091461296935253 
0.02530062472290928 
0.0009093568250527801 
-0.0148393568094318 
-0.0192493139214629 
0.001951461144196919 
0.008195415720006814 
-0.0004979553494234482 
0.009161890412691033 
0.004923391036394342 
0.0166594709098399 
-0.008368130393564351 
-0.02532645473404371 
-0.02246069022134301 
0.01256182738687236 
0.01715381020166807 
0.008428555573296819 
0.007018345248064608 
0.0005136736767054925 
0.02084344949856087 
-0.01258071110136681 
-0.02975167501291403 
0.01910855781486546 
0.002130945657159755 
-0.004680591065639373 
0.004714586820464137 
0.04082075210726906 
0.01380125314846705 
0.01835406419180361 
-0.001784010303033384 
0.0147640878696788 
0.01237136567575299 
0.02089927042669847 
0.02573276613339863 
0.0175499152460464 
0.01912674724392564 
-0.005324893831889862 
0.02139310248677317 
-0.004028593426396348 
-0.005224541860072078 
0.0134060290402538 
-0.01345301510106658 
-0.01663219158449792 
-0.0008834077379704773 
0.03775440847035854 
0.006700833870735222 
0.007420415979932233 
-0.007607286555789821 
0.01147083977527875 
0.005604771480425676 
0.01733720332154206 
0.01915226770626434 
0.0134672392966499 
0.0122661706550338 
-0.01872949811494674 
0.005066400886282274 
-0.01416254709435306 
-0.01419529665804922 
0.03274987900445336 
-0.0180798567042789 
-0.01661037133684318 
-0.004535335239264591 
0.0160982863078967 
-0.009745223005499253 
0.00145680444413514 
0.003820676849335623 
0.03242356746671179 
0.0244211471792211 
0.01445629973945398 
0.01524626848966834 
-0.0004914181113574688 
-0.006364426727016558 
-0.02946159533578696 
0.004622928042006592 
0.002258576744357637 
0.003476068958648817 
0.0331712136074821 
-0.006463781922215925 
0.003997549343949367 
0.01211853955803827 
0.01788512213245315 
-0.0006371133520994876 
0.01507598867158177 
0.01258123123383696 
0.03072014293714538 
0.02505054345685067 
0.02047563720993126 
0.02303537913252295 
0.01163293227296947 
-3.683126044253229e-05 
-0.02031465065972552 
0.01469033183883386 
0.01362931486005449 
0.008407157502122613 
0.003686121227890768 
0.004110589513466597 
0.0144525343616754 
-0.01480647447964221 
-0.02184285673798134 
-0.02080669108153771 
0.0120340058935984 
0.009021435579405608 
-0.0005735127449425269 
0.006690622165565562 
0.01370531624280849 
0.01916454949079674 
-0.004634473802348656 
-0.02726475149676674 
-0.02794478954141737 
0.009454907807707595 
0.01675313051498038 
0.002335953700532183 
-0.002754587588027554 
0.005380817236950919 
0.01790184130194863 
-0.004159069042653077 
-0.01368127440298644 
-0.005888295659628229 
0.01591958268566953 
0.008648337401342273 
-0.007446813511318076 
0.001443302985804989 
0.01522725924853647 
0.02201596489355999 
0.01058880096697496 
-0.01446027849053534 
-0.01471541730029559 
0.008596937660816709 
0.01498869931575362 
-0.003965540512306841 
0.000502873073815885 
0.00522191680032786 
0.00714494573596776 
-0.003837090683443037 
-0.0138289613720566 
-0.003432096866374643 
0.01226178598450465 
0.009859000784536451 
0.001771794989166699 
0.01302811529743448 
0.00771908332743951 
0.01567585475148818 
0.01147426967864297 
0.006937072869087204 
-0.006085445536114393 
-0.004141759019153226 
0.007443729341146964 
0.008714241839844704 
-0.006168164579717294 
-0.007292064426917165 
-0.004157320725902755 
-0.008564583843984005 
-0.01164848995764324 
-0.01110275415412317 
-0.001022563075852258 
-1.773056302300545e-05 
-0.007854706198820069 
0.006282501863657104 
-0.005589850746280173 
0.004912783769173074 
0.006792966726229427 
0.001055002596304707 
-0.01039440849580751 
-0.01274793725311211 
-0.004727956454786804 
0.007397806850166853 
0.0008534002040748505 
0.005830213864502433 
0.004791703824598731 
0.01340719097393148 
0.01433868165107772 
0.003470645966034721 
0.004213999290548334 
0.005232779683300241 
0.00498195991584499 
0.008020461990401333 
0.007890087137668231 
0.005134464814112326 
0.01268618301313557 
0.01639487862376343 
0.005306292117730395 
0.005265115810304872 
0.007967887291982195 
0.0152547978686231 
0.01443226320319533 
-0.004666097240096557 
-0.006314522245420538 
-0.003507502385237042 
0.01722198498780371 
0.007399323602954781 
-0.0008078436667942861 
0.001982505281641148 
0.0038969202282594 
0.01754096491135661 
0.005761770637782597 
0.004361817112001222 
0.008589362922227353 
0.01854536909030885 
0.005853225854779099 
-0.00791066730041373 
-0.006680483503821885 
0.004448317178061835 
0.001777795237512051 
-0.006629026893332267 
-0.004373972808566977 
-0.0008411768838377178 
0.002511680834038335 
-0.008318417244171518 
-0.003288901031751552 
0.003303337811025276 
0.003554691866877255 
0.003754154350342246 
0.009273439271020636 
0.006769466927257625 
0.002544647588348514 
-0.0001394221175188456 
-0.006147394490576909 
-0.003792124523940885 
0.0009786726204332049 
0.003849585771455668 
0.003408354679195167 
-0.00465917510553723 
-0.002497815703003122 
0.003519874277633983 
0.006476533959592861 
-0.007565621363880047 
-0.0003356949357678945 
0.0007073561056582241 
0.00479372063184599 
0.01040783811225293 
0.01132564528371831 
0.00880655002946811 
0.007098321543152667 
0.004650641026659755 
-0.00306157498213364 
-0.0006138618695430637 
0.002433736497790011 
0.003394953085671407 
0.009285708783205459 
0.002019565542412691 
0.002194742388929384 
0.001330093187480786 
0.0008200239444338639 
-0.009067897176871238 
-0.002190411066117447 
-0.003976554497508882 
0.004716339931850487 
0.009367003607482709 
0.001138027339821882 
0.002278457209834484 
0.004992249804244201 
0.01033304710921934 
-0.004259694857872694 
-0.003517208963171204 
0.003832738849754497 
0.002973442966446798 
0.009306802668162993 
0.0101965670671457 
0.007309354970462062 
0.007678020788370413 
0.01492494553386712 
0.002358363021178691 
0.004208970516605771 
0.0008596322083051738 
0.01001840489255676 
0.01155246996983716 
0.00515705779445648 
0.008159177142355502 
0.01381349574735854 
0.02015288408882532 
0.005148084636521104 
0.002076544013378527 
0.007441123162784068 
0.006393892103320297 
0.0002262327771343765 
-0.0006285247673323367 
-0.002661808921632238 
-0.001958785495727167 
0.006888766528050267 
-0.00900792464628682 
-0.009821853848734389 
-0.01340736426843452 
-0.005387051397800428 
0.002124801970912025 
-0.001542009763935906 
-0.0005666379520236567 
0.00528450370106299 
0.01188199838429121 
-0.009167406163993492 
-0.006374891719029822 
-0.003400775970980709 
0.006495513992563698 
-0.003051978116596086 
0.01369691892754637 
0.009027619758642991 
0.004486673747232076 
0.001050974511564812 
0.001518194790608605 
0.003191373332618357 
-0.004206675153969829 
-0.009028615737571476 
-0.004550804261660345 
0.01159570636525716 
0.01465505184334694 
0.01675450006312158 
0.01382758242480619 
0.0009672209890077369 
0.00682477233040569 
0.004688422699312609 
-0.0001188881513893238 
-0.009641348596427924 
0.02104903816040221 
0.01595954267885653 
0.000441746022534943 
-0.00510601123250242 
0.0020089749505638 
0.02362387352542043 
-0.002125492392294676 
-0.01576522469392961 
-0.007573319982882342 
0.01902755900252038 
0.02135285542945148 
0.008283943819255235 
0.004159076882350814 
0.00658920017602458 
0.02345624857183145 
0.009682406788983062 
-0.01730282791769013 
-0.01881667805754092 
0.01585063310717471 
0.0190438061221434 
0.009743376159217582 
0.007751036559482631 
0.00491590904929951 
0.02388519499851777 
-0.00389377302479618 
-0.02796450713903609 
-0.02218094478629051 
0.01804810628101243 
0.02279455014857169 
0.01034049776217814 
0.005481751804247801 
0.004157700055788755 
0.02442036077338315 
0.007951507228934167 
-0.02706416771188058 
0.01301996824046586 
0.02507253018091536 
0.02362266189365313 
0.02050394504615089 
0.01629001030431283 
-0.006010745078205914 
0.02569965331079115 
0.004169627469068627 
-0.006499143544982657 
-0.006200197117213047 
0.02216520515054715 
0.02680199817318603 
0.01873648569677231 
0.002921711883656099 
-0.01619316869081169 
0.02249602955249606 
0.01219878289206637 
-0.01493198815664089 
0.00418419114374977 
0.01795659208048007 
0.01794736714645802 
0.01766507512469817 
0.01309091621626548 
-0.01202405319647193 
0.01836613140074383 
-0.001234319233716594 
-0.01332523303409456 
-0.01076096183631543 
0.01496099693027705 
0.02485173148283491 
0.01339929986574582 
-0.001813828612439363 
-0.02053668660148043 
0.01650431188274698 
0.003644476847778853 
-0.02416136137957039 
0.02771967214264875 
0.01409996102036431 
0.01311182672013047 
0.003242057310261813 
-0.009495006240661519 
-0.02185646842474621 
0.0155107086721042 
0.01029087859289074 
0.006098118508471229 
0.0152269159582401 
0.02205768903548891 
0.01956426827723892 
-0.004909762241762542 
-0.01826147094330556 
-0.02383110759114351 
0.009086082043229715 
0.0009885348273666822 
-0.01198393988653166 
0.0247289082176742 
0.01927667856332954 
0.02325262450909966 
0.01323566117264762 
-0.006475195642764089 
-0.01959042861867537 
0.02214934429127253 
0.01960905728959765 
0.005288278350032726 
0.01854803722961906 
0.0281105481461346 
0.02682357530323711 
0.005748166664949979 
-0.01166652987043447 
-0.01264391490239354 
0.01612816872179296 
0.006657371509425809 
-0.009793938907126059 
0.008171438442192364 
0.01480629854511042 
0.02118423637931574 
0.0008557298041933412 
-0.02687922849664664 
-0.0248399249544414 
0.01391712034028767 
0.02362687507808283 
0.005540127817195543 
0.01317542068983388 
0.0229905678769705 
0.02088787563035982 
-0.0005107161834565644 
-0.02419385535858814 
-0.02050960140116936 
0.01558347642606981 
0.02072177887904296 
0.004709499633744249 
-0.001683372035016183 
0.01065489187735462 
0.02011070400061219 
0.007635287364736414 
-0.01771821154819488 
-0.01992272736471184 
0.005856257985648447 
0.01507879370786981 
-0.007767410765150835 
0.009432222134303185 
0.02058979034517795 
0.01566030465733616 
0.001251286928782727 
-0.01592496593832386 
-0.01046565179008839 
0.01489902919457147 
0.01647776367455443 
0.0008441317674466546 
0.01002555430600669 
0.00880045552195175 
0.01289919187683326 
0.008230730076705266 
0.006100145534728629 
-0.003410954679734919 
-0.006564733150040006 
0.0011575025874698 
0.007712678756021368 
0.01462489365797394 
0.0171509087377031 
0.006660906943956805 
0.003181827182935289 
0.005042857017489362 
0.005079211297270272 
0.004311127056694662 
0.01072729858488496 
0.01020441803827163 
0.007919550305114469 
-0.003770293037553811 
-0.001526562177275897 
-0.001000141100543048 
0.002281835985945588 
-0.008638071850696108 
-0.01387215588172018 
-0.01123752864827439 
0.00340902012852454 
0.01191520349693849 
0.00320677348430092 
-0.00567168748472169 
-0.003729200369853432 
0.004690243894863658 
0.0006897883305579073 
-0.00776076003069785 
-0.004330275440909794 
0.009508981826858061 
0.01194004457296507 
0.00669208454977204 
0.0007291001730735298 
0.00887461574072421 
0.01604067295073507 
0.003658939526202552 
0.006633226950378109 
0.002648488374382253 
0.01559894201987505 
0.02109408479802246 
0.008722776477555394 
0.004082149557676997 
0.008620837457721207 
0.01735830419288288 
0.005214293516801267 
0.004153934072113285 
-0.001821066321240067 
0.01718692679926788 
0.013686633863339 
0.006022877749092645 
0.001117251638380599 
0.01169268648458529 
0.01593118453567477 
0.002252501676872518 
-0.01004873852220835 
-0.01116752180420087 
0.004458011927466632 
0.01396382471501502 
0.007622979874218943 
-0.002799850085413667 
0.006148641749908703 
0.0157712711915525 
0.005325158048670317 
-0.005778409784703087 
-0.004619581577615753 
0.004486283400119673 
0.005855883497021997 
0.01149225216332413 
0.007089005425381143 
0.002972847288548813 
0.0004421377929104257 
-0.006402579049775154 
-0.004810265205755413 
-0.0004864024332645506 
0.003251386905597257 
0.003438714914854055 
0.007458219211322499 
0.001330375707399682 
0.005499218982313989 
0.007216039354072141 
0.0001358685405198108 
-0.005353946947732284 
-0.0002401549342046284 
-6.04387508996571e-05 
0.008964642393630004 
0.01067043462718573 
0.010215831604733 
0.005187095340555753 
0.00171766836818535 
-0.003206487607667111 
-1.162420783291794e-05 
0.0009829610570050629 
0.002038656545841482 
0.004492939914876324 
0.007719490365532424 
0.00413426832802394 
0.009587355020147853 
0.007334136574631633 
0.003182139704124022 
-0.002504503285003758 
-0.001812405781423538 
0.00319028195163483 
0.009263484725994885 
-0.001775431807362425 
0.002443435413950565 
0.00245154360495915 
0.005074316020407286 
-0.001928877029085558 
-0.006025759674617408 
-0.0009059504724582753 
0.001957869147354976 
0.01053060683846758 
0.001177722922750069 
-0.0002282177411127907 
-0.003003698408089715 
0.005320302686739106 
0.005697939413482744 
-0.009120431168135225 
-0.00664485650307732 
0.004415909158219113 
0.01102132960999662 
0.001954273092736921 
0.007658897963053506 
0.01186162366780333 
0.01578329527063458 
0.003990976641869309 
-0.001526499910565784 
0.001247422035119457 
0.00542843639176015 
0.01203336469395622 
0.007505546480977425 
0.005943078745263791 
0.005949301579909357 
0.01150550007176933 
0.01025960334477678 
-0.007069485451442764 
-0.00282907287895605 
0.008005506350328302 
0.002659605067054112 
-0.004916738910403936 
0.0006328343838905245 
0.007340829414816265 
0.005179772868034237 
-0.01142868715886489 
-0.0124436162220535 
-0.004024563852378656 
0.008707481351220379 
0.00428481338026902 
-0.0001424017301273544 
-0.002441664124786572 
0.007583214180715693 
0.008024407913855489 
-0.004346948747991689 
-0.01104415212846381 
-0.001831888948025113 
0.01318825726367216 
-0.006211229253922233 
0.006668747477985932 
0.01485617887220648 
0.01968184414636043 
0.01000740462815465 
-0.002574597329298977 
0.002710811435279831 
0.004626695278573281 
-0.001602357913415481 
-0.006477730435436522 
0.008623217629599236 
0.01555763564126157 
0.02208551975245123 
0.007199065751039832 
0.001636744692026859 
0.005144506470786912 
0.009241725603086811 
0.00946753427723019 
-0.01690059639290635 
0.01910597770851469 
0.02574750074328423 
0.009541277674805169 
0.002467290999729271 
0.00128371564636594 
0.02148557004490433 
0.007624546199509728 
-0.01802965158183334 
-0.0197495121762101 
0.01402791057188188 
0.03261287133338676 
0.0180523686175877 
0.0007216867001666028 
-0.007443378656931963 
0.01687677731880753 
0.008057114656020723 
-0.00677545578073188 
-0.01860468312300783 
0.02361054216637604 
0.02911142888616288 
0.01451010999042985 
0.007767485458070306 
0.005471215379743229 
0.02824541127587133 
0.01150547669035521 
-0.0195247471835487 
-0.02307893134298128 
0.0173861808004939 
0.03960199777117451 
0.02148820330114828 
-0.002867191193606314 
-0.008199308322985363 
0.02291157640601287 
0.007287689579568451 
-0.01282718934720971 
-0.007234029225500658 
0.02856187837739838 
0.03113498493277198 
0.01807433455488208 
-0.0001508734535755367 
-0.01680217873498608 
0.02830173697860335 
0.01461716483443599 
-0.01221014644074451 
-0.01733824697866985 
0.01996997007986945 
0.03523617863699808 
0.01272086049899485 
-0.01343543335349732 
-0.02941278557279217 
0.02529876291642277 
0.008149239510178218 
-0.01413833808524519 
-0.006847574819259889 
0.02095823668837314 
0.03157255040548543 
0.01473450904243129 
-0.003234121850140853 
-0.0204147749269908 
0.02666068707787409 
0.009103230252486267 
-0.02076991278104297 
-0.0185151881297545 
0.0159114028363211 
0.03348476917346199 
0.009247826246586542 
-0.01640641771307229 
-0.0285967457615917 
0.0180285325382015 
-0.0003125455781620657 
-0.02569385921490222 
0.01392691345477788 
0.0243411707107617 
0.02717617830816899 
-0.0007507650035949995 
-0.01160144574306649 
-0.01522014192956669 
0.02310633863727508 
0.004132768316277786 
-0.01483123179323473 
-0.005162898275655785 
0.019831523296148 
0.02866118770758123 
-0.009587292855492318 
-0.0129275859102967 
-0.01655933604542255 
0.01769733411341869 
-0.007843147951105097 
-0.02700089020943134 
0.01168969955928679 
0.02773094921888259 
0.03224467293338483 
0.005499685725647704 
-0.01095393898156424 
-0.01263913078786288 
0.0248415690096675 
0.008794200482001824 
-0.01554548328616805 
-0.001215039182584691 
0.02507689736979118 
0.03627879229823894 
-0.007220197004236211 
-0.01480982979205448 
-0.00996929625382433 
0.02490236098656152 
-0.003414492974566601 
-0.02527523433886695 
0.01595058903609729 
0.02797113394446966 
0.02470065588536141 
-0.002593549825305652 
-0.02290785271063308 
-0.01485755053050217 
0.02292827608971587 
0.02150112822207654 
0.004904096971322124 
0.01487139159868265 
0.03246766034769158 
0.0290977964076791 
-0.0160895913074785 
-0.02286560515628309 
-0.009314115904173883 
0.02192501768127545 
0.009094866241141772 
-0.004983170773129856 
0.007831330734510129 
0.02258887722457103 
0.01917249821570694 
-0.005971554803266509 
-0.02339760257225494 
-0.01114803615712369 
0.01408376107021547 
0.01532206248306575 
-0.003543889754776196 
0.008420945847320511 
0.0286802390922375 
0.01927116867555302 
-0.01540939282775126 
-0.02355080089105149 
-0.0007035928074974369 
0.01685383112330919 
0.007217368013908262 
-0.007422001899603205 
0.009403748258382206 
0.01978696912067558 
0.005607848005792889 
-0.003738252980248957 
0.005667434049964662 
0.006925756314395672 
0.003241717959364973 
0.00828980052392613 
0.005649014573382719 
0.01009870409915213 
0.02146246177624799 
0.009852664495842498 
-0.0004994895452816412 
0.004966485379516703 
0.01250410703151083 
0.004194307801768393 
0.006703587089152895 
-0.002444977164958251 
0.003204088114488178 
0.004143986694622933 
-0.007854195490048838 
-0.009908879697721315 
0.005232459330237024 
0.001765420912510814 
-0.01042281186728026 
-0.006108686924366212 
0.001342360987591981 
0.00291384244789135 
0.006620895991630781 
-0.0005862361401403646 
-0.004419084017043285 
0.006535471017089233 
-0.0004400947263233107 
-0.01291717149512022 
-0.00454966154435754 
-0.0001057949201949727 
0.01425140397026878 
0.005420857238736766 
0.002436707281500751 
0.006322290803518993 
0.01735311997501783 
5.324426691787986e-05 
-0.002566487241396798 
-0.003828714137951182 
