solver_type L2R_L2LOSS_SVC_DUAL
nr_class 2
label -1 1
nr_feature 14608
bias 1
w
-0.1326992925816983 
0.05633694788336897 
-0.05886674901637299 
0.114754568862418 
-0.1092100030622519 
0.2613668648679978 
-0.1629592907835467 
-0.05068870975857531 
0.01189905310005141 
-0.1675556282990769 
0.05111092799468836 
-0.005256744418226254 
-0.131119823956218 
-0.03282830741898829 
0.06114452963189815 
-0.06918530298589295 
-0.03452087911168339 
-0.07515693853765019 
-0.06140036954601664 
-0.07995707941714499 
-0.1413070958541548 
0.09646425917337798 
-0.4441182433858411 
0.02208392605513456 
0.04586147801614885 
0.01390002800398441 
0.04381375798672042 
0.08474333494250738 
-0.2606932921955679 
-0.1334308431333842 
-0.009987141886818339 
-0.2281724334776749 
0.002765335525428118 
-0.1677214678382541 
0.02774265252732958 
0.05584259331418944 
-0.07070335739862345 
0.1747571027259623 
-0.1128773189704963 
0.1907428023254355 
0.1534682037430088 
0.2052391741881197 
-0.03220277200492274 
-0.1087346868200131 
-0.1643940967017843 
0.1143373489871611 
0.1156316699675409 
-0.08584159267454315 
-0.03367696492945457 
0.1268827077880124 
-0.05136638298361147 
0.004215689959282268 
-0.07926829028678048 
0.07750985192084454 
0.1800113666161476 
-0.06944778966997939 
-0.1413874068736938 
0.03733513480221025 
-0.002492299451962875 
-0.01462715650512593 
0.09543147500488498 
0.02655562361640236 
0.1963363959018014 
-0.012020035126866 
-0.06002100429935016 
0.261592399090441 
0.000845812784062476 
-0.01524004471262747 
-0.08746151914601195 
0.06381753651172765 
0.05538526004776426 
0.1046389537336604 
-0.2237883121481422 
-0.006195863328344673 
0.1903740999640083 
0.1350680448907816 
0.1088383949272152 
0.2633479543909581 
-0.08439219587940405 
0.09802869518186319 
-0.1901209232834898 
-0.08254776886881579 
0.1034686784399162 
-0.0513600896288706 
0.01587561791819651 
0.01885391470620844 
0.0377297741013676 
0.0459349958809145 
-0.1238375780183277 
-0.02994131650646645 
0.02337006454492753 
0.08422532384423688 
-0.1664359087840822 
0.1282491818816062 
-0.1328877690221827 
0.06985894068242819 
-0.1502546157181559 
0.05071236401918309 
-0.09793119932537352 
-0.1792323589414036 
-0.09594437267122635 
-0.03076639720781771 
0.1239917899828086 
-0.1502145998715589 
-0.1663100670064618 
0.05525487923350787 
0.09566332799485359 
0.1417406406046862 
-0.08762515734467431 
0.0622900114680015 
-0.1210532439592601 
0.05535268648243796 
0.06202222493233913 
-0.0279427809830034 
-0.09997819936053645 
-0.02111744618868113 
0.07396493974224437 
-0.1540617641816581 
-0.00401764348525066 
-0.08255599155122474 
-0.1691772022441308 
0.002756365113671135 
-0.1091847525273984 
0.1014885269787323 
-0.08280879926730324 
0.01933289033449723 
-0.0445750343225241 
-0.05095924141841982 
-0.30268848764065 
0.1263637163867809 
-0.1481005483877918 
0.08838447948519833 
0.009981589236978148 
0.07920017959788861 
-0.05206378853293434 
0.08247098575483738 
-0.0212763058274213 
0.07836149061602592 
0.107968461023628 
-0.03865853970500452 
-0.001564906826569323 
-0.04794316100325693 
-0.08889010761573425 
-0.07881545670013425 
0.135712428949448 
0.08760525396043069 
-0.01619167624963151 
0.1746027065847707 
-0.1283765400972333 
0.09918257772350908 
-0.1849723063567167 
-0.0215362292028027 
-0.1910760351831643 
0.01396531899770534 
-0.1381823380266494 
-0.03499852226012404 
0.06235714578830709 
0.1379627561058999 
-0.1769778133406973 
-0.03741401461669055 
-0.03676053418607678 
0.01128428417651198 
-0.1504584035133991 
-0.05240850405506118 
0.1145515780422316 
-0.09137540058637433 
0.08779752112300977 
0.1317822028668705 
0.02244076353048432 
0.0722486555029961 
0.01506240253281425 
-0.1198088635085294 
0.1117591529547807 
0.02666197414080805 
-0.1107854242461009 
-0.1858131006753342 
0.2000888617519289 
0.1473099274793191 
0.1009749375106111 
0.1273344984452744 
0.1568198526484448 
-0.0827860146819831 
-0.1046828683082117 
0.1123762783061887 
-0.1440330489852959 
-0.0006469499681540893 
-0.1805572335750103 
0.1321385396658166 
-0.0637361339416251 
-0.1409831315296124 
-0.01883537653672142 
0.02081865356400956 
0.02281661547381507 
0.0597076343069516 
-0.1323469727931536 
0.09850771058179257 
-0.0211535867789667 
0.117525675285262 
-0.03440941430238945 
0.06980240325992881 
-0.3310198523735337 
0.06747313098029578 
0.05776348102765569 
0.02921034883876785 
0.05488675328467209 
-0.1514869628499011 
-0.1200934219897779 
0.03562327106639557 
0.01557603533696618 
-0.04783082103227525 
-0.2566910348546652 
0.04832704697061698 
0.06463534224511311 
-0.006085594400284154 
-0.01312827792504495 
0.05006530508787609 
0.01973359006807942 
-0.002672602532775742 
0.0719744374308255 
0.06179419335553173 
-0.1764838428979605 
0.01812222121562369 
-0.07272582092373318 
0.09714485228116961 
0.1094801450258914 
-0.06763064190652125 
0.1823612368569128 
0.03669163396369377 
-0.1111695826063001 
-0.04369434937252353 
0.02463709124954388 
0.2538579574936885 
0.05360433884316326 
-0.1781107054880958 
-0.03257998034440072 
-0.06086486489788188 
0.09467152799087078 
0.17553079724703 
-0.008380268530185466 
-0.0005279762213829685 
-0.2032147949039705 
0.08870209615642298 
-0.1641853376394761 
0.1934925388526653 
-0.01915320144955102 
-0.0991508936432145 
0.04211239010732054 
-0.04926636800508815 
-0.0241924499303771 
-0.1400920441894457 
-0.1369190246559724 
0.06817061927042177 
-0.0110131863666 
-0.1066237708736827 
-0.2417523059027905 
0.08256106642732053 
-0.2904521071460973 
0.1841039646967264 
-0.02558045334510879 
0.03251667223478989 
-0.1486986535512649 
-0.06201179647091986 
0.1226970421985249 
0.07212145410810518 
-0.09480938528807538 
0.07957647107956715 
0.03685404911251338 
-0.1396808796155012 
0.02636846532013922 
-0.1050237646607356 
0.06602606830078109 
-0.02625757800295752 
-0.0006103631314224295 
-0.03992441141289541 
-0.08937394170737416 
-0.03823173857418201 
0.1082014351560651 
0.04585860713396775 
-0.05916470028126292 
0.1030811309887151 
-0.07186743412826649 
-0.140067544292448 
-0.04952102617382098 
-0.09681273010274755 
-0.04448257163098018 
-0.002130449276021674 
-0.09248375442881351 
-0.08051845165739652 
-0.04516287607606991 
0.09263009529216261 
-0.143755874093828 
0.1239011272371808 
0.1091852233119544 
0.009672680949222577 
-0.06610561627651948 
-0.10543224015924 
0.0978696903855511 
-0.1267740220666912 
0.0950603368366862 
-0.1407560805365676 
0.01508530443795627 
-0.01548915822857553 
0.1053533606763817 
-0.1181590781892682 
-0.09393319736242595 
-0.0858768488006236 
0.2615603248593543 
0.05167163029830662 
0.02057323487163792 
-0.06416445332514059 
-0.1554363574182115 
0.1743938677274343 
0.01210355950152885 
0.01827720382071144 
0.1219752796668504 
-0.001964461916561077 
0.08448790160365453 
0.004911461168317272 
0.08417253993573542 
-0.05824488737508209 
0.05379376461544329 
0.04804739700677597 
-0.1236870583003424 
-0.08208520466874476 
0.101404028225964 
0.1987119270462725 
-0.0840047325267035 
0.07110913370439093 
0.08845397448889673 
-0.03538567560651864 
0.05882599371791954 
0.1432119592051977 
-0.03055266965417313 
0.17563957553439 
-0.1174824621016827 
0.02728253795605904 
0.03194469361094157 
-0.148940090430159 
-0.1796711950088904 
0.01000338407823078 
0.02208072413233957 
0.05242338441275352 
0.06480996763096675 
-0.06477619376960742 
-0.081763076858969 
0.2299803393043601 
-0.1154941613042936 
-0.00485258510961453 
-0.0168618310639829 
0.06180343638947829 
-0.1065737283480574 
0.009335055500738577 
0.06762643882042711 
0.1024901546534581 
-0.1275877278753888 
-0.03108920432778774 
0.1073456931042599 
-0.1435490500068969 
0.09672230182627488 
0.2236352505331447 
0.09181665081842631 
-0.04483182152846799 
0.08329062436261599 
0.03818246662983736 
0.02006208628328085 
0.08253990901526452 
-0.03418414211686494 
0.1766623213995584 
-0.2368803005449538 
-0.1398571041549902 
0.1979008231996096 
-0.02506406932633431 
0.0765864888845591 
-0.003422033546019054 
0.0367282021506752 
-0.07428128627411591 
0.1653522799950342 
-0.06956413673252025 
-0.04387579939911251 
0.02814720603821377 
0.03721575096955813 
-0.01607273377816699 
-0.04714899748473322 
-0.03398395047225131 
-0.1347340624619012 
0.004786558757521355 
0.0123519478838283 
-0.1326229691955714 
-0.03473618873872477 
0.06018716783033885 
0.1223270117742277 
-0.00314660990478381 
-0.009727935965364429 
-0.07925478594814803 
-0.03173320146391016 
0.02330506870165232 
0.04449218455305587 
0.00649160567429297 
-0.1497537752375619 
-0.1461167927787134 
-0.1138017096274281 
0.07663597373115691 
-0.2457570052219392 
0.001355570786260579 
-0.04795556961197874 
0.02895129572604923 
-0.1344615929896344 
-0.1224065576394729 
-0.1791276242014939 
-0.1523517729170769 
-0.05035853882027696 
-0.1923924048375331 
-0.04247049563693039 
-0.08047697433141882 
0.1116113305342554 
-0.0236907387333247 
-0.1109894301837561 
0.007140320850912235 
-0.2109996033807902 
-0.02933019796215915 
-0.04397089706131872 
-0.1449956791380506 
-0.1245632668142544 
-0.03698214505250192 
-0.1978743013229435 
-0.03083622617064275 
0.1696864900528235 
-0.1040188445419084 
-0.1377493346806459 
0.1574792765325204 
-0.09555674636129383 
-0.09159643997702378 
0.08819205776154869 
0.02313754931159206 
0.06718249352394319 
-0.0370850469795938 
0.2335990342347325 
0.1558395532186217 
0.009650618647572553 
0.03835457044624956 
-0.04389956631405 
-0.169136531598746 
0.2102631828719515 
-0.07951188594373082 
-0.1136611329466216 
-0.1836030308760633 
-0.1383158047638146 
0.03237963334108636 
0.08057653869202377 
-0.07901588652185579 
-0.01888822478500818 
0.0194205759991683 
0.016443167214548 
-0.2379091842221526 
-0.006241482090277805 
0.03353731515197863 
-0.07243496367134886 
0.07159275728393505 
-0.1332890621615087 
0.1066585167929803 
-0.1547477933434895 
0.04551053366497953 
-0.07111213306681317 
-0.05881266975785691 
-0.02508703892145106 
0.08952288487758565 
0.1948715768402264 
-0.009635409843675127 
0.03718607108648309 
-0.04754277675444103 
0.04410501285445576 
-0.05519603942492173 
0.1255768522189817 
-0.03621008093755317 
0.1264185092435474 
0.06180451506304974 
0.1701084128275224 
0.1188515961167818 
-0.05217594297352095 
0.05457998914208085 
0.2204874181177604 
-0.1045069905421663 
-0.1580001680389796 
-0.1735413423952828 
0.00490665509448272 
-0.03586898536505284 
0.003918194695174475 
0.01915426171004031 
-0.0979927342794869 
0.04595954664972767 
-0.009631511866712817 
0.165641549085555 
-0.09501692656818533 
-0.01465558881584219 
-0.180944691760633 
0.02669446819304442 
0.4538529272257937 
-0.1192553690023164 
0.03723752638096673 
0.05087566617692381 
-0.004387142907063291 
0.001385590345211312 
-0.03033768588264117 
0.00359334704031761 
-0.01552040288025843 
-0.1294456281523093 
-0.07937606280440572 
0.0497432481833345 
-0.2026261749547736 
0.0850308173012624 
-0.1651217396451312 
-0.0367016912922478 
-0.09556421826039442 
-0.04115730151379524 
0.09932181377052143 
-0.2080954942155648 
0.09251715182342238 
-0.04949159420202402 
0.007370067960283158 
0.2219601041100036 
0.05963161607018603 
-0.1676958361856311 
-0.02131980531018971 
-0.05063833545419134 
-0.1020396558717562 
0.1941407533873279 
-0.1297879535708242 
-0.03695036842833926 
-0.2502654584282836 
0.261784341875723 
-0.1797425870767504 
0.1409817589312141 
-0.1158637371749883 
-0.1987613498877848 
0.02106410667363243 
-0.1420565988812616 
-0.007846682333256295 
0.2142223477055876 
-0.02189765627140858 
-0.06773281538530743 
0.1117707315341796 
-0.05205012263269486 
0.1069460240134258 
0.1071452884200873 
0.004117535641311424 
-0.1465446820398567 
-0.0962524050058258 
0.09977696923847162 
-0.04076359412997678 
-0.1737664009241501 
0.07119384852249352 
0.2999294194501779 
0.3219938695966757 
-0.04088582070020771 
0.112039894942357 
-0.05493379049656461 
0.2011818973667518 
-0.1196446676104674 
0.06119569846383258 
0.02254706881624894 
-0.2264772597286626 
0.1606026998000978 
0.1442784791225604 
0.09467108704556174 
0.1859448980103676 
0.09443056098535169 
0.02025234169425484 
-0.1643022907578967 
0.2281118097102951 
-0.158806710792826 
-0.005306528773764839 
-0.07772846203037012 
-0.03868419263511201 
-0.1741875830893647 
-0.305789616995755 
-0.01267413840743008 
-0.1062857568948229 
-0.1120915428549271 
0.05660631822924374 
0.04521489899120021 
-0.005541605984544708 
-0.1040651845952009 
0.007454000276463453 
-0.017626019857922 
0.1037412247439804 
-0.04086780946422788 
-0.1256903605716294 
0.02864494309384934 
-0.1123409831838041 
0.005724077019666048 
0.0688463859497639 
0.05090969584715966 
-0.1472980036437499 
0.008242005074996969 
-0.08942014321621844 
0.03990941960515376 
-0.04272711609856152 
0.06793241195372463 
0.04059899972300456 
-0.1773020403563358 
0.07711269385362012 
0.03615738287898591 
0.06456724844092269 
-0.2352425693332977 
0.1102081497889542 
-0.006079346125142319 
-0.2596240106318543 
-0.07720907219626348 
-0.1063792642515648 
0.02545202893885728 
-0.04559857365566405 
-0.07683523244348678 
-0.002593496885185118 
-0.06887419664201504 
0.004095274771680828 
-0.08689247033069827 
-0.07540019906524618 
0.1233145104237029 
-0.1345251501047942 
0.1847408716977728 
0.002030099554882051 
0.07911716346839741 
0.070348593526879 
-0.0682999961580122 
-0.0454189876342381 
0.01694811779347608 
0.004419219625497051 
0.03358604602242279 
-0.1436515876472617 
-0.03818132963221434 
0.01852472234897247 
-0.08552866370984387 
0.04900669677493218 
-0.01186253409291671 
-0.1478116426366184 
-0.01485009249617006 
-0.02377489543267697 
-0.01071063308793455 
-0.2682096639263438 
-0.1539345667752219 
-0.04216082374637101 
-0.05498122181818384 
-0.04194492072940712 
0.01975974232032818 
-0.01969788493657558 
-0.1552243445523779 
-0.236406313295118 
0.1108210388030207 
-0.05341590186502016 
-0.3077862171419005 
-0.05946142116728645 
-0.01924859060447742 
-0.1312495475877719 
0.06858621385492282 
0.03088631033518609 
-0.01301412719729695 
-0.1351698223818794 
0.2230438800066081 
0.03310502784320556 
-0.004558084185743288 
0.1057108599001685 
-0.3648902165136098 
0.01938461192753894 
0.1231263578703638 
0.04079121283434882 
-0.02412431204701197 
0.1284510547553497 
0.1023313265394607 
-0.04066734253214267 
-0.03167808534004003 
-0.01499458862267987 
0.03474638135277097 
0.1370369448946009 
-0.1446129020119244 
0.1170642607736398 
-0.1063480006057495 
-0.00268179306664582 
-0.05557798228487882 
0.05769887824721408 
0.1281098537393633 
-0.009802204533030434 
-0.1338003645209683 
0.1008148194474348 
-0.2174460512682399 
-0.1097260248157337 
0.04717154419086658 
-0.08041951652344545 
0.1337396327575396 
-0.06190697667436063 
-0.1456483689051315 
-0.1665376793244015 
-0.03950801614725129 
-0.01888359181763523 
0.0008177199869725378 
0.01896492694378561 
-0.07602431769307218 
0.0283927381358512 
-0.1816565200820573 
0.06864455460704147 
-0.1114249698542705 
-0.03251657105677294 
-0.1056661316707255 
0.08470008346354933 
0.007833663337024007 
-0.03362422685258823 
0.09939551103701624 
-0.1256487167621167 
-0.00991322667356472 
0.04459287007476925 
-0.04167088058174065 
0.1280167284283401 
0.1960157606934559 
0.1568144603848297 
-0.03515108931969674 
-0.0002287236231726655 
0.01754085193945751 
-0.07638093145537815 
0.00834905035654801 
-0.0491508717065284 
-0.261739720158554 
-0.01125716196589727 
0.006264328184312667 
-0.02584794372279386 
0.01931372527263799 
-0.1232207788382112 
0.1061080562013156 
0.08653570549907236 
0.001653610637906044 
-0.01942610831093689 
-0.1924742517174115 
0.01530657792639741 
-0.05590901222084298 
0.04272758632550785 
-0.07427581000441733 
0.007048801541193507 
-0.2446977166610025 
0.08832672589356413 
0.01282608282741317 
0.1039844798783528 
-0.02750466659618642 
-0.1387415702205179 
-0.106874123579032 
0.01569570534232302 
-0.09313205775012078 
-0.05538171920561918 
-0.05426891003593417 
0.1115349468766593 
0.1678669979258759 
0.04938306161978282 
0.09339528317032154 
0.07196289311504225 
-0.1599846073301728 
-0.007603643067449887 
0.008553580610525295 
0.1335447378491869 
0.01080955854327625 
-0.03312543825569771 
0.03806883115526607 
0.05450393971262735 
-0.02112613920207105 
0.08015039744060644 
0.2215483886425945 
-0.1404566565747882 
-0.03813548912860398 
0.04643951767101467 
-0.035533030611334 
0.03044900886186885 
-0.1457476569513823 
0.03410126154792368 
-0.0641191299284613 
-0.1863302019441533 
0.1306975963732711 
-0.180049180023948 
-0.1044103239005487 
-0.0105181102708194 
-0.007291851113435664 
-0.1201522799750239 
-0.1284906630993463 
0.1181103446940953 
0.08749244126074603 
0.0229769465217956 
-0.03105349593591374 
-0.01094028591998921 
0.133019270699312 
-0.1040520071585603 
0.01640790400891799 
0.0314753424938946 
0.06617389767501536 
-0.1549748021607842 
-0.2965393159695257 
0.2217233355272692 
0.1419120047503381 
0.003344039238040005 
-0.1942830356574367 
0.1044198561860564 
0.2584435460441869 
-0.004808556631484922 
0.1852386609136669 
0.06248081032917206 
0.04054632717254909 
0.245650732793759 
-0.1325758078563228 
-0.04064605787721012 
0.1681691169894323 
-0.03183570684146638 
-0.1332581168590596 
-0.2041641855067755 
-0.1275207683907195 
0.04408489549738616 
-0.0682599156295244 
0.1328680384258909 
-0.2148138531293462 
0.1052136206748092 
0.06352344627377243 
-0.06413813056066282 
0.03676060150331738 
-0.2118628343325049 
0.1498548441194394 
-0.1617458406657507 
-0.125954830521763 
-0.06011721123460265 
0.1442039713099742 
0.01344154514813168 
-0.1554104230282219 
-0.1952100399534758 
-0.1504319603238692 
-0.08585197492457775 
0.04673988102521257 
0.06569773334613921 
-0.1289423745541708 
-0.05846560378060973 
0.2638568383878367 
0.04661803013861293 
0.1474620223353555 
-0.2948628399249952 
0.0766483076973917 
-0.107522531019409 
-0.08526145871615921 
-0.1312265231466059 
-0.1623400766899765 
-0.2356771023344543 
0.1127522435899439 
-0.04456545714607372 
0.01212793837826961 
-0.2316570171656768 
0.3401736788330153 
0.03756922238708377 
0.05379900504472235 
-0.2155498264510768 
0.1152192774227126 
0.01026894870187195 
0.152187859817442 
-0.02916666823777034 
-0.0781718282931384 
0.06385298046228945 
0.1759719880200772 
-0.1130750033036393 
-0.04199388059898933 
-0.1994979750578754 
0.1712887666742064 
-0.1702065420774894 
-0.01295647738040158 
0.05814886109355449 
-0.1291990932010091 
-0.1012678549291787 
0.1905032733711329 
-0.100249545230021 
0.01753922077257181 
0.1234267554851618 
0.1021944897290903 
-0.2012647691606934 
-0.1256813146000487 
0.1061288687079983 
0.05437542267873134 
0.1676931119793342 
-0.1619289725456911 
-0.1590923263544836 
-0.1438561982649994 
-0.2654971893033669 
-0.2323033583739829 
-0.08431380485657862 
-0.09898755157835495 
-0.05602506997291823 
0.043967081415729 
-0.2210597738425756 
-0.1093510973547605 
0.05535433996299503 
0.2467992253543841 
0.3444071299382937 
0.1363764305418359 
0.1818895274160513 
-0.0826457591195309 
0.1688582856040771 
0.07662165279222499 
-0.2579719718157273 
0.04920785970988715 
0.07756092619258066 
0.06421582243779712 
-0.01516088097391399 
-0.1193956840864579 
0.001838742254933257 
-0.121836325783773 
0.03066207575557033 
0.1856254688766608 
-0.1172298324207279 
0.1184124866909001 
-0.02961223732547279 
-0.03410181690505662 
0.03041883987191264 
0.1405979791489265 
0.02175407008495191 
-0.1755891832253237 
0.09469420741196032 
0.04154945912040651 
0.1190235569689464 
-0.1214017047055434 
-0.08991372308942906 
-0.09329566031179357 
0.1931345723482947 
-0.01217547181520302 
0.05531774818187267 
0.2751420334091485 
-0.08217444882370016 
-0.08540000001576253 
-0.2162426857419424 
0.1738020558298443 
-0.07654052865505212 
-0.03796728762601745 
-0.007534135059295885 
-0.05251126472983991 
-0.142624017946777 
0.1413751010624583 
-0.06487348311331163 
-0.1143774991513724 
0.1638209348987447 
-0.3314983350112331 
-0.2034613708265045 
-0.3029048794320671 
-0.007670798435304094 
-0.0181947792173798 
0.05214154419029831 
0.1657656855347184 
0.08989062915192837 
0.01900441639438294 
-0.2735523659480211 
-0.07173646372229206 
0.2056874902252781 
0.007214738875512386 
0.02858435612133672 
-0.1775777256120226 
-0.02598769961626266 
0.1020492390927723 
-0.197398781987019 
0.05757729655575291 
0.114854659694123 
-0.05370715632745976 
-0.04754931023395126 
0.2029991770180628 
-0.05754563435132506 
0.1438206781276239 
-0.1426078823386623 
0.2309211396218195 
-0.1346174187477001 
-0.1057080346526062 
0.1136954275745788 
-0.1572270760127006 
0.06321645077160873 
-0.3134959917310067 
0.005377698979409611 
-0.1498101384537313 
0.1287213296165294 
-0.05945908980348562 
-0.2452381953955147 
0.0001604626348397665 
-0.02366371534778013 
-0.1493043061838185 
0.2377371228925414 
0.1350276293405538 
-0.009082511132198294 
-0.07255440262246858 
-0.09137848467738112 
0.09375699807099724 
-0.1026467907764925 
-0.09602067114674981 
-0.06295751102273894 
-0.09047765259233055 
0.03976195138100774 
-0.04822811683540727 
0.0153717620224868 
-0.1177820020303922 
-0.01529186839653934 
-0.126804188582042 
0.06148531745924129 
-0.08778871769802529 
0.1617885670160893 
-0.2759944112944304 
0.02507971689883699 
-0.1118479314838585 
0.1047086490746116 
0.1039372468980889 
0.05455165686434599 
-0.0780198242944791 
-0.04181731013462885 
0.2143875535728837 
-0.2474385577508671 
0.08744312655204647 
0.1873336360070824 
-0.06403487474626228 
-0.07932531944956715 
-0.1575663450699872 
0.116695834955909 
-0.2229990608674925 
0.01380513219817193 
0.1658740778736093 
-0.06749729640682102 
-0.1683924986541421 
0.1684215083125836 
-0.1244570396414243 
0.07872326348213622 
-0.19928186923479 
-0.1082791540765467 
0.02445918493371034 
-0.1252293484899505 
-0.05355516499583506 
-0.2600369142905444 
0.04023561618178707 
-0.1533585436831141 
-0.167472778294461 
-0.09621476084554495 
0.1069384118834611 
-0.1196603766356329 
0.1103977697103678 
0.1932377664573064 
0.1949366573943248 
-0.04041264477884243 
0.2587743216279531 
0.06253794591659634 
-0.01018730068553782 
0.1805964991258613 
0.03397696817865962 
-0.01076062903735873 
-0.03466637309974559 
0.1808203053004884 
-0.1160087550495411 
0.01982948996114566 
0.1312569932570704 
-0.08260931452663203 
-0.1187154284950891 
-0.02608436010870561 
-0.005330073983402544 
-0.2276174690906683 
-0.1882912528137308 
0.02651671733867509 
0.1577363960174991 
0.1104643122424191 
0.09652287585761291 
-0.1609638399544631 
0.02449696192435331 
0.02354041820969669 
-0.173535767021967 
-0.1371717019390948 
0.1145020920350043 
-0.1463760050226848 
0.1785576082828537 
-0.02396402889591962 
0.1391561417557985 
-0.01100957707727497 
0.184130070655145 
0.1300619294411892 
0.07530892696237317 
0.05779632952749851 
0.1051760824763547 
0.09043115838606067 
-0.05460204043650779 
-0.006927269845204056 
0.02293502576796737 
-0.1043285068530678 
0.1259599901899345 
0.08344771074264318 
-0.03270107157836857 
-0.3743599127304751 
-0.01751924706680498 
0.1353370261170836 
-0.07535890033204748 
-0.06424683387548881 
0.2803641341400322 
0.09940484976013586 
-0.03544392829093575 
0.03094692943882127 
0.3101618273232661 
-0.07823499571121376 
0.05610040840444795 
-0.001405286933074817 
-0.1946736090629388 
0.02169443474714942 
-0.07725793584200306 
0.09330639325367378 
0.06719573930300658 
-0.04380150631952585 
0.05877525794325352 
-0.1311752697493247 
-0.09236966648957259 
-0.01342491721574185 
0.05970797875931783 
-0.2155760198700542 
0.1079221438822086 
0.0138332775526585 
0.2595840121530194 
-0.07556836479590294 
-0.2069706216015608 
-0.1350547487358267 
0.05679974183836053 
-0.08706889787165673 
-0.1792837307266308 
-0.1374423311170961 
-0.1449607026926977 
-0.2642781447078621 
-0.2232959443320584 
0.1426253523074326 
0.1758266794085248 
-0.01491156795392235 
0.02402617200581953 
0.07299284622509079 
-0.09404103615931886 
-0.1173302758851128 
-0.1675796510954096 
0.1500383008042483 
0.1488660206194511 
0.1238016700581733 
-0.1585603832309892 
0.02394441734087489 
0.2453996635057128 
-0.04645276187734363 
-0.2731366421313459 
-0.05441079783184259 
-0.06929572133643792 
0.01079788523509158 
0.09053143480490537 
-0.1241993355257301 
-0.2333879302721585 
-0.08362827324650426 
0.1208363268064093 
-0.1238693283655403 
-0.0553570633180573 
0.02175913411778197 
-0.02179699251957545 
-0.2162080709785004 
-0.02894502475371073 
-0.1727756305016391 
-0.01756042651782024 
-0.007405517590731298 
-0.2884025278439422 
0.01743853413929176 
-0.3992834522421213 
-0.1866958550604589 
0.05520089610970218 
0.3040864288288623 
-0.1971316945412307 
0.09010849635977157 
-0.07988082638936582 
0.1351791445545887 
0.0580743795431409 
0.1995328917726711 
0.3194705457766928 
0.1268539492565175 
-0.0004908433716027337 
-0.2298370909087817 
0.2027845162849732 
0.08886953501335945 
-0.229711578753409 
0.1339634855352045 
-0.1011825196205456 
-0.143471057728289 
-0.341270994624269 
0.149775384157787 
0.05524436843922573 
0.2720344662653688 
-0.04890028374288094 
0.1115294371365039 
0.007700601490989633 
0.137936463613568 
0.1887979407395648 
0.112747401462005 
0.22778762318562 
-0.02404088265342667 
0.07945594347186277 
0.1302152393745985 
-0.1379757743114978 
-0.1263997306576019 
-0.08334914391303326 
0.03266359897231674 
-0.1582311776635267 
-0.2163875086729947 
0.171582178599933 
-0.05132128617665335 
-0.3773660296781511 
-0.0851169111823226 
-0.07221717784602893 
-0.01017226092795355 
-0.08222320635537046 
-0.1445550684055658 
-0.150794225872023 
-0.2930155374442726 
-0.02229870313765169 
-0.1582168303163133 
-0.174674016790884 
0.09539074432888063 
0.2737222289113443 
-0.06548405799694035 
-0.2721285979324934 
-0.1268538704420442 
-0.02515010193401579 
0.01854108471263642 
0.08968541288322078 
-0.01612716197832313 
-0.09072406003358313 
0.1609414826032417 
0.06764548753295017 
0.1445731741335224 
-0.1481104290131561 
-0.1918850728628365 
0.08382641641881824 
0.02123283236290279 
-0.2453783859192323 
-0.08805706019650424 
-0.09188330530617259 
-0.1009999826166943 
0.1288656854518112 
-0.02918817599203231 
0.01082590475107313 
0.0131444899614918 
-0.1217154429889833 
0.1665079487933717 
-0.1290264063210238 
-0.12560431122995 
0.009218251613963023 
0.01012274929952468 
0.08181356455946846 
-0.0235411087788698 
0.005390818136796207 
0.1036844986765442 
-0.07286487300845652 
0.08373057738082718 
0.0694949992677233 
0.06213436676166817 
-0.0569420445667663 
-0.1020408217217197 
0.1705406191578162 
-0.1375095289040954 
0.4403733178444239 
0.006621629636814539 
0.04818952332876026 
0.2510283000994614 
0.0009724793337754902 
0.1075212362584692 
0.1556476501704083 
0.1713359959606224 
0.02403765924520249 
0.02284595276648349 
0.0423404800687857 
0.05420269308692428 
-0.148750651581565 
0.03331356151833115 
-0.0009730783038781282 
0.009314369304343982 
0.0549976057811753 
0.06145897921698629 
0.0669525305047413 
0.1313869250119211 
-0.1777726491856704 
-0.03235210582073259 
-0.007965195951449559 
0.07421848792379605 
-0.003265926624454289 
-0.1278083123576203 
-0.004285160182710028 
0.1073794698647734 
-0.1506375857301875 
0.02134298706727521 
-0.07286571389017443 
-0.1521809816077874 
0.1325082483576764 
0.02807455642769227 
-0.05953570715585462 
-0.06314983408757287 
-0.1415430105335726 
-0.01424177323013268 
-0.1740918457145311 
-0.1327992519970599 
-0.001809453418571292 
0.01624278672080399 
0.07234710265509844 
0.04265588504632618 
-0.1302368537297491 
0.1034518124977495 
0.07138730762507739 
0.04689122896245833 
-0.08781755929473165 
-0.1020641180427125 
0.1537117812955188 
-0.1094331201021011 
0.06241562417700516 
-0.07813709958288338 
0.01994827967386105 
0.08229712403401546 
-0.09595911852132881 
0.08080813333658056 
0.03709257863617852 
0.1207002662053487 
-0.06814943420885565 
-0.1271217082311348 
-0.02109299234713502 
-0.1158108194229682 
-0.03005870456773671 
-0.1795040733860332 
0.1327337772250587 
0.1315055968712101 
0.0390025409701963 
-0.05300552335273015 
0.2574915515436964 
0.05242946515122411 
-0.01913890626054416 
-0.03240007292280452 
-0.147084329577029 
0.1145131326822279 
-0.0009907346791113861 
-0.09130636251660668 
0.02300213862443745 
-0.02100032030085539 
0.1607984495763345 
0.1012735759044238 
-0.1371111979416962 
-0.04768848876234262 
0.07866766892612423 
0.08915677905903899 
-0.1157524509452383 
-0.2361778016187193 
-0.08955861196778105 
-0.05866248321511205 
-0.02106170018421055 
0.0236148193632669 
0.04458870040190947 
-0.05274478941384649 
-0.3764445678676116 
-0.1044545316448951 
-0.05600726834414526 
0.1424522057043005 
-0.164402831820767 
0.08289450604513222 
-0.01816227502176985 
-0.02841276702506373 
-0.1477893152529108 
-0.07641430095122807 
0.0498831494099051 
-0.07548752085186047 
0.08956837117610934 
0.1821923396056822 
0.06292333591871421 
-0.02955404939503678 
0.09824949128764054 
0.05338483058066529 
0.1219532644610514 
0.03658203022893337 
0.2235155763595956 
0.01980384647046126 
0.004723608858176478 
-0.0868071827902783 
0.09960979135418975 
-0.2183013947267206 
-0.08868520794681911 
0.05155307254652038 
-0.08210492975188363 
-0.01178643778547566 
-0.02691507302526775 
-0.06440094608639989 
-0.05318905059216837 
-0.04869763723211704 
0.02454799362483973 
-0.2663605450350804 
0.3178701131234587 
0.08083969139464386 
0.1028153035165207 
-0.00305794952309776 
0.09041840868274141 
0.03888806644413569 
-0.108345027373408 
-0.0836830261867758 
0.08349044566454265 
0.001601737717377139 
-0.04166224583347141 
0.132906934732551 
-0.03896933236228341 
-0.07489606909808574 
0.07588479468700236 
0.0417075187533898 
0.03844510287295271 
0.02526677880775776 
-0.02545697859764716 
-0.04855589575145448 
-0.01468390596711609 
-0.06679655282975264 
-0.03603492061277774 
-0.06094602605336175 
0.01260582417084585 
-0.1487506675417778 
-0.1407542690444052 
-0.07494638053515121 
0.2173311254165269 
0.05307540900942692 
0.2248831726802187 
-0.1921379894899745 
-0.04256690083055367 
-0.1693010627746697 
0.06338666477777954 
0.1016642491359238 
0.03671542636499313 
-0.07983888015948352 
-0.108346155319615 
-0.0422731629891723 
0.3080219065071786 
-0.1315667784821797 
-0.09759289901075727 
0.03104729028923591 
-0.1669543312078365 
-0.07506589828502566 
-0.06789504850581277 
0.1404156778432687 
0.03449731144746361 
-0.1215655076369792 
-0.03889811476184058 
-0.1041208691003679 
0.1922914308067875 
-0.2154236019118376 
-0.1337847965516547 
-0.07240045983517908 
-0.1883628910578276 
0.001585527424579773 
-0.07490595318300861 
-0.1137060976740623 
-0.2723272920587346 
-0.1577038804302696 
-0.09031283940245013 
0.2887332566599477 
-0.1018100746746256 
-0.2396231214473671 
-0.1275349407808326 
0.1123250042515511 
0.221649113436828 
-0.08073935710875446 
0.2153157992766992 
-0.1309304852473152 
0.3443837965710675 
-0.07973425497904342 
0.1219880668334996 
0.02321508450514621 
-0.03057411948568338 
-0.1181150133337848 
-0.145801512861286 
0.08911767234564957 
-0.06377591596283355 
-0.01446747127182961 
-0.3130828033688959 
0.1621266834389538 
0.1343881840006632 
-0.2242732428190111 
-0.1341889220600864 
0.07430053316244983 
0.1569884095563765 
-0.05374162423034363 
0.09543937799943845 
0.02514919522069068 
0.0232194912092838 
-0.0675434975514798 
0.03995826866526167 
0.02430354380410828 
-0.2177999597489615 
0.0785497834291832 
0.03298893262273278 
0.01085709585790163 
0.04517040148574951 
-0.04617093420138028 
-0.001535668935897294 
-0.08998833647843887 
0.04728451453450425 
-0.005979864021011747 
0.0606782013074342 
-0.3459938731212817 
0.05959543731143343 
-0.0317240347569764 
0.3091418226157667 
-0.1350626730098852 
0.01350749178965365 
-0.06403450478124538 
0.1261244273119157 
-0.005750914913311394 
-0.1776007520739815 
-0.01019705123727109 
0.03433720809341222 
-0.1489238861396742 
0.1634661919232973 
-0.001969975825113055 
-0.0007529447111054605 
0.1921092696958071 
0.1185521444299693 
-0.06183222210099846 
0.1805403030893627 
-0.2327813412320252 
0.1872766647781977 
-0.08222042297737085 
0.2810622075853222 
0.07523556469854116 
0.2524817977961032 
-0.139368067060574 
-0.08489202318914374 
0.1343449491722156 
-0.09204260692903835 
-0.1104140151221636 
0.0002825704609838978 
0.04399274575299277 
-0.195967134738713 
0.1934091666737991 
-0.1285359996370096 
-0.06530379004147584 
-0.1253214556850747 
-0.02695653887206679 
0.09786220636922627 
-0.3664175381921194 
-0.03965902250832112 
-0.1670097553330679 
-0.01724691261419463 
-0.2212314699759921 
0.4032461633248793 
-0.1191506601367115 
-0.1888020056775606 
-0.1423588744218979 
-0.07359482388468014 
0.1834928197592242 
-0.08973337422650146 
-0.02088732466275506 
-0.1733192816201323 
0.03935610628534553 
0.2757782581941537 
-0.07104924659707301 
0.1769190702976598 
-0.06038427092291441 
-0.09694042349866709 
-0.1127358357738894 
0.2415227195266944 
-0.02063538374155911 
-0.2593294827278149 
-0.2397883953291156 
0.002751918249621981 
-0.2252088290547789 
-0.1119701148638806 
-0.1462277727640078 
-0.1463643197740437 
0.06543127815769022 
-0.05082497737578103 
-0.2257342238908457 
-0.0241534379371639 
0.0516453911550579 
0.1924352150114891 
-0.05891073192649406 
-0.1172622129436073 
0.05744142574432053 
-0.02895516880304639 
0.2233918060888243 
-0.02871785164840338 
-0.06045925834070041 
-0.01715737358051107 
-0.1588032062202727 
0.1610004757687309 
0.01096169998783443 
-0.1548716938005608 
0.08443646423448625 
-0.07876341445762101 
-0.01262052160820818 
-0.06115455363196039 
0.1682542656212624 
-0.1857508414418697 
-0.0629947250783098 
-0.1359991829408832 
0.0215026639266664 
0.0485267930032823 
-0.07484149444652437 
-0.1368093206387166 
0.2471848566511881 
-0.05869907665470934 
0.2170355705805566 
-0.08530409473994609 
0.04821467947771484 
0.01149357171654748 
0.08479778009106084 
-0.1100319204759202 
-0.1401716138628106 
-0.0837396556073246 
0.2066362642774783 
-0.1916166001761059 
-0.0333830647900644 
0.0435785073169091 
-0.0418010150956528 
-0.051132885559222 
0.08928872127130889 
-0.03368539044875887 
-0.08710942348671548 
-0.1709566126322904 
-0.09772918974138191 
0.07018307894753938 
-0.02068086223299813 
-0.1539136345665969 
-0.1036622140014261 
0.07154723902242179 
0.05688713084121486 
0.169204564537635 
-0.2533144160306359 
0.008299973950455517 
-0.2415156825635733 
0.1210801340051891 
-0.1453904334423937 
0.0956250589040957 
0.0451953645871927 
0.0325385511370635 
0.008126476146541918 
0.03475496389149443 
-0.1465986191759765 
0.08280793571677135 
0.04534295407502185 
0.07956116964418873 
0.06749971739521414 
0.1481498516662932 
0.01895477613067111 
0.02745799868753106 
-0.07800021102903557 
0.02926804359288628 
0.163813965246444 
-0.02250123915626999 
-0.1091239078091197 
0.2381435224860444 
-0.0212060978814706 
0.04574430961547754 
-0.02366187625230399 
-0.05109022756885682 
-0.1298114008865761 
-0.08914196758007123 
0.04295202723390372 
-0.1624102025603104 
0.1276088364453691 
-0.1075697123014677 
0.07296056677330731 
-0.06429265563920775 
-0.1152457672105957 
0.02472077454719503 
-0.1242007287168537 
0.01694411221700053 
-0.005367528162909555 
0.09068456086713537 
-0.2070434858081298 
-0.0517714555074513 
0.1682119201819861 
0.1395964481095613 
0.03207937872442621 
0.05549363167896923 
-0.1043153326627464 
0.004498035649592069 
0.07641311632938386 
0.1328509704489442 
0.1920093263591058 
-0.02259967897038626 
0.1209006525645275 
0.1408742449875678 
-0.1610120368169175 
0.167955888677165 
0.01019024621610351 
-0.04240360774191602 
0.001968840430445655 
0.3176858399745509 
-0.03358270709408511 
-0.03476945670305886 
-0.04435062995828497 
0.02864596848489809 
-0.119379881318235 
-0.1182917427080779 
0.06485381195355149 
0.08490946831065144 
0.009727524265363743 
0.09585472171282215 
-0.003661356408382875 
-0.04739414039020066 
-0.06242940851592314 
0.06472671773206838 
-0.01916675632178344 
-0.02614476255532067 
0.02624602548552117 
-0.05754379356528298 
0.01715775819878298 
-0.04376056151933819 
-0.1302425866370316 
0.06481948934178064 
-0.08513283622945243 
0.1202221941487433 
0.03161425527882555 
-0.261026921165015 
-0.141398223646521 
0.08531750013291912 
0.02361231480865035 
0.08593693398857659 
0.1281766393430352 
0.1190759715364846 
-0.01610270579890461 
0.2032106605773341 
-0.07646741480262018 
-0.005743276219334604 
-0.09130012173281497 
-0.2482974433869074 
0.1629541893014059 
-0.02382972194886876 
-0.01662501327027819 
-0.1180268791117798 
-0.02397430494582965 
0.2255940305978557 
-0.1294858932343662 
0.008661936471110483 
-0.093046317351553 
0.1590326084910118 
0.01034687439958659 
0.04373551643504033 
-0.01022961813064794 
0.1066850644157289 
0.04632474662120521 
-0.0720442927661752 
0.1473843217470387 
0.2357073141402833 
-0.0161065659125438 
-0.03332178603726729 
0.0344008646705382 
0.04098182381090699 
0.01857053787977587 
-0.2243224615519155 
0.09319333363258783 
0.08340083539734136 
0.09109765632207052 
-0.09931763580252725 
-0.1505608292817263 
0.1426992231987985 
-0.1058865512589338 
0.1719872195388909 
-0.1020852247667078 
-0.2721281393692443 
0.01931061578995925 
0.1056229943006171 
0.2148620288433521 
-0.2990242021483462 
-0.157351056332409 
0.05812412050024476 
0.01803792467048619 
0.04911637738063648 
-0.06971343005955652 
0.1901633290137169 
0.1705574096945525 
0.09560184393022286 
-0.3198801031559188 
-0.1005093446208328 
-0.07646372805286826 
0.02246944685022451 
-0.3227281824931675 
-0.2123235836251297 
-0.169545673701793 
-0.09376066964339785 
0.1151447836449646 
-0.1515740493936916 
-0.03570001988613884 
0.09835041590594097 
-0.1169474807603654 
-0.02868322074020407 
-0.3142787798104938 
0.1486609528303418 
0.2537153141514257 
0.1867410228340055 
-0.09351263765358819 
0.3089590522301187 
0.01765309646808133 
0.3483486221897236 
-0.02177617956924094 
-0.07398487750404956 
0.01390662458363858 
-0.3551848021224642 
0.0865634133748685 
-0.4397239708262371 
-0.05214865953905064 
-0.1262405039593469 
-0.1691329612978874 
0.2215537388375198 
0.1325345974391606 
0.1889697399748537 
-0.02526103470693906 
0.04300558858720734 
-0.06991277549364891 
-0.06249740951044582 
-0.128624788632333 
0.2921757014065363 
-0.1894242251329837 
0.004851695797872 
0.03304424589067897 
-0.2285975984789327 
0.2350429409106595 
-0.04210549644679593 
0.03147956801685388 
0.04228019892357024 
0.08026651750076684 
0.1993639994124404 
0.002912347801640015 
-0.1459993777855265 
-0.01548193886984013 
0.2303752927884974 
0.01804114294161053 
-0.01807590738312043 
-0.1723400576385485 
0.104554249545899 
0.01370835833991569 
0.06643700703543914 
0.01861834729626806 
-0.2133414086466504 
0.007244612756958754 
0.08805349443074564 
0.07549182359146153 
-0.03694028587862697 
-0.06124014318412325 
0.1164995911704904 
0.01908212891688935 
0.01260940980664124 
0.05175371575644709 
0.3354591740449616 
-0.05279011063892735 
0.02658555625876988 
0.009180668141466961 
0.2254370754156123 
0.02906850300195269 
-0.1736242286513161 
-0.03542916721671748 
-0.1510056304468882 
-0.1956935329407178 
-0.3352779328344839 
0.1394435468777112 
-0.2764341863992106 
-0.280534291676028 
0.06862521215527249 
-0.0985570101435989 
0.136833673622304 
0.2204925089485922 
0.4642896851191829 
-0.1547065136697597 
-0.1137264543044678 
-0.1667688246798794 
0.2317902538964224 
0.1724491984610751 
0.01016353905728054 
-0.4323827578322965 
-0.4157466678952529 
-0.1950213001597834 
-0.05868683325131181 
0.1062155652298423 
-0.4863245404181085 
-0.01319124640243577 
0.153998285069272 
0.1268513943083701 
0.08142035859259357 
-0.03877430781696712 
-0.005330999645687233 
-0.1295364341917274 
0.2055214354186117 
0.06983864946056151 
-0.1488388323911256 
0.1241295738746798 
0.2318134954231419 
-0.03949634448944588 
-0.0947115632217391 
0.1528782671454831 
-0.04422874931590356 
0.1137161625163191 
-0.1099535534843114 
-0.05181879681888385 
0.0943358376618479 
0.1270918854784018 
-0.007576363583340092 
-0.02491453921590862 
0.08943822322691372 
-0.06504828768984811 
0.1762571631818258 
-0.3346336336579672 
-0.1240753765254047 
0.04698632170846851 
0.2456036047120875 
-0.03515186267720934 
-0.2973280955940205 
0.1869373393108854 
-0.09841790395887687 
0.03465381230579762 
0.07210474993884615 
0.06598600379922955 
-0.03040388246304354 
-0.1047639715718733 
0.1461243497857811 
0.01617687870217923 
0.1728795609987593 
0.005322695313616417 
-0.04755734809425479 
0.03981336708961049 
-0.1586061505095866 
0.06928778820796677 
-0.05559485243535831 
0.07445404376870056 
0.004467501713234918 
-0.07606347389992106 
-0.1100434060226863 
0.06648290852525471 
-0.1259965242146511 
-0.02038366445924203 
0.1132773992402102 
-0.1303583400718108 
-0.02323527121308515 
-0.1004283527313871 
0.1673113866870855 
0.07122313383794454 
0.2461769506582732 
-0.02905324764737211 
0.07126134696652303 
-0.1594316705938173 
0.002014831278006423 
-0.06505274041892614 
0.01141849058565219 
0.1534717224978323 
-0.02378416650369129 
-0.02834200116877873 
0.1129316695501395 
0.2071141098240097 
0.09333007521253837 
-0.008455263328223286 
0.1091050467939247 
-0.0210576273208859 
-0.05455978183398881 
0.03391663128527013 
-0.1480226868672303 
0.02947787847155896 
-0.1044213245682004 
-0.09772657379381734 
-0.06237752587873903 
-0.1694218773611853 
0.09577912559160826 
-0.001406337760069919 
-0.03192515422607581 
0.0356101062532572 
-0.1037874763297667 
-0.181139133459933 
-0.06530900805694306 
0.1501048974337451 
-0.1521394245632311 
0.05345447507970467 
-0.03811315709264401 
0.02169771030041658 
-0.03580315831587928 
0.008275504069663191 
0.1507403280740361 
-0.02185989140062192 
0.134578260326377 
0.04095516324281875 
-0.04413314386469247 
-0.04700500234793389 
0.1736525142786425 
0.1362945881637744 
-0.06330645046410639 
0.1366531250322058 
-0.11914152267236 
-0.02275126070957524 
0.05563587723225092 
0.06211063307730319 
0.007533946131427061 
-0.01059001496223826 
-0.06011305505057058 
0.06861201857466433 
-0.0002416697944810566 
-0.03336716745380582 
-0.2030268937351519 
-0.004918670386122147 
-0.0002840673048834705 
0.1463106421521798 
0.01399107081044324 
-0.0409067706321603 
-0.04311858171844363 
-0.2342654390801399 
0.1157813992281652 
0.1290626360037186 
-0.06466733001650793 
0.1179122051021494 
0.1017376508909563 
0.1018030736492325 
-0.04399235378703745 
0.0640399012839709 
0.15980096715835 
-0.08715835698759028 
0.1669796838809343 
-0.07130781301965188 
-0.203088090651165 
-0.133987931755784 
0.06128050368334808 
-0.1967105859887548 
0.06379278469098158 
-0.1095208325917397 
-0.01588687944894551 
-0.02575253456973859 
-0.1774565623486567 
-0.04925608257856193 
0.06332180482792575 
0.05998183916889162 
-0.04435935360677407 
0.05739305932137679 
0.003851405208485542 
-0.003646542273934775 
-0.02232305713545335 
0.04783661285481419 
-0.05206300136005192 
-0.0803453797096077 
0.1744967345863535 
-0.2100926801110724 
0.08645422475075139 
-0.02741450498126383 
-0.2358329546374543 
0.06136952483380625 
-0.01144747297822443 
0.1219997085788575 
-0.0855104417521977 
-0.2199548431975079 
-0.04895707194223553 
-0.08383953774787202 
0.05478961574745738 
-0.04551765758327965 
0.08628463615749861 
0.1117364000456523 
-0.02804241868928864 
-0.1386372578112707 
-0.3135525795163071 
-0.005745861248818034 
-0.1835347114946198 
-0.07721400633204478 
-0.09197606725524553 
0.05081867662989422 
-0.1388697588034129 
0.2115336108467881 
0.1132478355741336 
0.05610982409748475 
-0.1042277724203595 
-0.08116219534400394 
0.1436193031719699 
-0.1299174226460775 
-0.03466002751896421 
-0.04054089147165948 
0.0720264745793351 
0.04949694030494662 
0.06540258198314441 
0.008316963182055073 
-0.01808007268746712 
-0.2500499637025627 
-0.1395474526241528 
-0.03691881338600326 
0.2032284549432653 
0.1562877675175361 
-0.1317894214640998 
0.01969894373328387 
-0.0390223220005979 
-0.07861274512100626 
0.05581213362277733 
-0.08189132067406156 
0.03812213518428288 
0.02482569233005132 
-0.1360526287149988 
0.04112210317888681 
-0.02925721994255726 
0.04777578134819795 
0.1080286199791951 
0.1290881351180726 
0.1002969043140312 
0.2034640970368455 
0.1900685718382697 
0.04724605121756531 
0.1122278201716648 
0.0796962744546519 
-0.1989310553240953 
-0.04440485126315202 
0.1358091772741792 
0.03202248374278791 
-0.08862607081138839 
-0.07763537440272353 
-0.1525039232194309 
-0.02857536600480048 
0.3064294971458166 
0.2810885940250568 
0.1463400435784627 
-0.07085644106773475 
-0.1238645834000217 
-0.09611186599939003 
-0.1213148600986335 
-0.1499323089852947 
-0.009065430114733037 
-0.1019134772007623 
0.1787345983264065 
-0.0229569200223854 
0.2469540815763204 
-0.1336685401950658 
-0.156829885150106 
0.08401322816662403 
-0.2193926978957084 
0.1678922233538207 
-0.09607780106960429 
0.2796961116397627 
0.08270293389697093 
-0.02126386983077305 
-0.01950134054827442 
0.2199703002785542 
0.1800679189653714 
0.07893903616166023 
0.04650846029925196 
-0.1987860894137976 
0.07375512839383178 
-0.03782846017981623 
0.1061834683641654 
-0.1292558228221787 
-0.2188869955705236 
0.1091964367928108 
-0.1252939699286 
-0.04178288857781345 
0.08868221093405974 
-0.05000206801868913 
0.01558553803761724 
0.1064776975749078 
0.048376550747961 
-0.0006670062693631315 
-0.08122097543046851 
-0.0876417199297818 
-0.01162120135060218 
0.04627095227576036 
0.1609813834559305 
-0.09152490607501074 
0.08418551646764923 
-0.1602817472550681 
0.04167898703781066 
0.02784481500557116 
-0.2959880971871103 
-0.1996870502377319 
0.05679034413408421 
0.3213845174194646 
0.0268102663969527 
0.2272681562452238 
-0.05074176580069923 
-0.003568546309981996 
0.05355370905675823 
0.05558826678904717 
0.1339162910564026 
-0.05434386997754424 
0.03279991627251408 
0.1069640743486934 
0.1497252074352841 
-0.1188499903379625 
-0.2814002257228925 
0.188575745588925 
-0.1544084470672149 
0.02780966856142971 
-0.1184782337649026 
0.2345105224884178 
-0.1544094211528617 
-0.1447636267333231 
0.2517978379774761 
0.3086250584058128 
0.1124735108236221 
0.08316248603691533 
0.1006995324107717 
0.09311577521493274 
-0.005571804466257023 
-0.01322826612979944 
-0.06029313839649772 
-0.2371690740711728 
0.03121262207451617 
-0.1768698147864575 
-0.45840022587659 
0.1864347444708054 
0.0684287040756109 
0.1678578787351954 
0.3235114504658531 
0.2513056354979799 
-0.03409792169560197 
-0.1525539935439418 
0.03001620766206898 
-0.1080254624876456 
-0.07723671343331048 
0.2322405589719193 
0.05601669460676569 
0.2116989748110005 
-0.06891504556508125 
0.1594766133577052 
-0.1454249381642869 
0.0988607245708036 
-0.1310284030151544 
-0.2101830785110728 
0.1920141390383243 
-0.142443569828679 
0.03898069515037995 
-0.05379473587761231 
0.1450668583574985 
-0.04013358738165854 
0.1715171987260794 
-0.02182810869266342 
0.1423212578508972 
-0.07176294398954373 
-0.2666516647142505 
0.04241847179233613 
0.02560185153257687 
0.2353311732394503 
0.1212625145016742 
0.06279397775291061 
0.03264021253547633 
-0.4145265404345724 
-0.06450700789957478 
-0.07049061286323781 
0.1631606577511242 
0.1464709986299611 
0.006832407310773747 
0.2357900377676644 
-0.01464472972053298 
-0.1173473699217994 
0.1030971499881633 
0.1631352738741961 
-0.2203921826546265 
-0.01106695325739553 
-0.180235614212108 
-0.1296463022895914 
0.0662992443831931 
0.1174345606439757 
-0.194039946765102 
-0.00878345110686915 
0.04797317989791139 
-0.1591517934263316 
-0.09126628604122899 
0.004994927140193796 
-0.03280736432746042 
0.1241312680970688 
0.0231576661014953 
0.03654781039267167 
0.05258236676344074 
-0.005841916912181492 
-0.04425903799349426 
0.2122291068512094 
-0.1005110431888542 
-0.1747829983922357 
0.04667297106953907 
-0.04132465819535266 
0.1767986933835333 
-0.1565657257909353 
0.09694861732928078 
-0.1684913271570376 
0.06650899752609907 
0.04249022026216901 
0.1143118326825119 
-0.02840317309687491 
0.1426272461985542 
-0.1059244208329013 
-0.0100827066163469 
-0.08724763370146238 
-0.2179181009515265 
0.1609611052469285 
0.04959348557085038 
0.03747543782708833 
-0.05092212360878898 
-0.06185736148591104 
-0.04363590086565633 
-0.1429177984505706 
0.1269120058319404 
0.02063643433275737 
-0.04664074348956752 
-0.02886220716411306 
-0.02113609241858565 
-0.1176801696237265 
0.08768056051775201 
0.1518610099788617 
0.1211544314256806 
0.100123866146709 
-0.04672511507283578 
0.1781111103623375 
-0.2574149307433501 
-0.03763067370038963 
0.172312624930573 
-0.03355362308729731 
-0.03978130558985152 
-0.1019862669164961 
-0.1458857167023929 
0.09036083065059694 
-0.1276816278223926 
-0.06878951333757903 
0.02391936196583498 
-0.08745777540624018 
-0.04135915939453862 
0.03452516012217002 
-0.05282161943447332 
-0.2944210168024958 
0.2234241659926666 
-0.1062926853998364 
0.1252694425618787 
0.0835446234157209 
-0.1715070820291956 
0.02460149301817653 
-0.1346886439140323 
-0.03566299556231524 
-0.008424968788932886 
-0.08871734726238872 
0.007052603137788503 
-0.1452567658756147 
-0.004113481770843265 
0.01904026270560171 
0.07355674462256113 
-0.01571115337453054 
-0.2638471695383732 
0.04013347400850619 
-0.1693530930787044 
-0.04069148201758774 
-0.1200161192561651 
-0.08085998537952847 
-0.1097726314398586 
-0.004464470212573076 
-0.1557059902632201 
0.1151884416777722 
-0.004613258327106201 
0.007435448031086305 
-0.1749888438324715 
0.1443815913260982 
-0.08523809003537894 
-0.01011269806359238 
0.07276554508535323 
-0.1402381485033514 
0.05310682314801117 
0.05669513858424727 
0.0546104011987598 
0.2812968550747607 
0.2862118152288107 
0.1498342886761841 
0.1196862805470591 
0.1331754442132635 
0.09677641452408187 
-0.06601813335737608 
-0.04077126713126434 
0.1082570959418018 
-0.01921203633458772 
0.07566939963788591 
0.2347369993383691 
0.289918822513525 
0.06243502458846618 
-0.07268337128608565 
-0.2981392059015328 
0.04205327050085146 
-0.1507011259421256 
0.04944252573545366 
-0.0237915908328979 
0.008999993347731121 
-0.02894301258148301 
0.05098431822473505 
-0.04696407662457575 
-0.04033499750828885 
0.03588630284685735 
0.09021671597207362 
0.1087621038393742 
0.1042901448296093 
-0.1644048213069889 
0.03720708261059574 
-0.1042671765329248 
0.008403031756851625 
-0.01932515348959834 
-0.08391326598345264 
-0.007134242424601781 
-0.07446043696902321 
-0.0118098809149529 
0.1333887495385959 
-0.07803995031003655 
-0.01572737231703376 
-0.2293954414445741 
-0.1296281479566116 
0.0172411174277216 
0.04525166231985706 
0.04078934333357698 
-0.04371612692105568 
-0.007292416929411398 
0.04412380720893466 
0.2290352963787157 
-0.1223164410684233 
-0.04795373548951123 
-0.03282441817862618 
-0.2168249518289662 
-0.07243130673258523 
0.193572446789619 
0.09627097699791243 
0.170547884238357 
0.08896036661143326 
-0.1452178679272544 
0.01431696773436039 
-0.06259806323272865 
0.01396413214179405 
0.04391118687529375 
-0.2057166687550273 
-0.1641059750886016 
0.1121289948840551 
0.02707851410373012 
0.07243312893979281 
-0.2318042567132453 
0.03954243447337673 
-0.04015920803421984 
-0.112086026774087 
0.106220847632208 
-0.03860454716373839 
-0.2965892184477231 
-0.1610387646997688 
-0.1295658318373272 
-0.007006244140969098 
-0.1556453250962279 
0.2551322849790416 
0.2232258815278109 
-0.03911527659544185 
0.1582017582676867 
-0.03704802184314288 
-0.03723452903554083 
-0.2819647827739864 
-0.009239371830301803 
-0.01948693965070689 
0.248399345111524 
0.2003076142584014 
0.1503247680448512 
-0.2587751769645118 
0.02427440633211773 
-0.1625819388196963 
-0.3202326559883423 
0.008877047622126315 
0.1632382861282799 
-0.06584563327673304 
0.04314954650766303 
0.00493040576860229 
-0.03906987785687327 
-0.1513402162950519 
0.1183951258901246 
0.08995518776556605 
0.2043215424320198 
0.2489485980299152 
-0.03377091880871511 
0.1909143262779998 
0.1008575065881143 
0.08684956751846112 
0.1273312491271865 
0.1448722496042167 
-0.08745496407858788 
-0.05219462018847065 
0.09429745534670883 
0.185466082905964 
0.09021515886132454 
-0.1053053502063189 
-0.0778160179263698 
-0.009357628638441079 
0.222994887249338 
0.05678827181773859 
0.2865076043710224 
-0.002987612750496157 
-0.1294692159255225 
-0.00716725841294202 
-0.04990636985513413 
-0.1104747418930329 
-0.04061064059386536 
-0.06862119816983794 
0.02616989944277338 
-0.1260426053893888 
0.08467951348092609 
0.1048132330848259 
0.1204587578967738 
0.1585132408204209 
-0.07337959429617603 
-0.006722693171666063 
-0.04146524815860954 
0.005700574072470658 
0.01172984779006514 
-0.1254734932547339 
-0.1131573519772848 
-0.1325052145724548 
0.1666090612304052 
-0.1978469275170024 
-0.3226831417058798 
-0.008416921316321546 
-0.1548698086608624 
-0.05371739885590994 
-0.1617290208755329 
0.09768089435686665 
-0.0159729086433435 
-0.05514642009154579 
-0.07684486209977261 
0.07720101996482566 
0.1251658081969068 
-0.1480492730081476 
0.08045854102433153 
0.1362727695641738 
0.1908773163285428 
-0.1200525988292442 
-0.1083137710709237 
-0.2164646664267407 
-0.01607249616753801 
-0.05448914793935406 
-0.06247810380713884 
-0.06151517455201164 
0.03319347433153805 
0.3436783194630663 
-0.2388394334790944 
-0.1098612429350339 
-0.2680804700981531 
-0.07461391703282653 
-0.03351810369090785 
-0.1629698873758975 
0.1482363596476632 
0.1731304751036739 
-0.01198212292267823 
0.1442244948473978 
-0.08994243106436163 
-0.1168219186667954 
-0.2437457415609293 
0.05875603213557382 
0.143000024932141 
0.01143212819753156 
-0.1832468624211932 
-0.02751405381709436 
-0.06965589918608046 
0.00729153679769112 
0.09390702452292257 
-0.03454407660255041 
0.02539799253986686 
0.04792514103018388 
0.05748108349854145 
0.01817316891837324 
0.02639074563276297 
0.04960694388216081 
0.008057241295727104 
-0.08224686336638186 
0.03321195736927249 
0.04973821149021759 
-0.0009985521830793112 
-0.1592495139997843 
0.0006262263636646029 
0.06007995927595104 
0.05296949364397906 
-0.0349959314681499 
0.01840362625772016 
0.03721151371057675 
0.2668013911728531 
-0.1616987789448297 
0.1092831518920778 
-0.1291228583441125 
-0.3371271171656931 
-0.05369570843356285 
-0.2174863186656384 
0.025156552457015 
-0.1387102518568002 
0.05652157995586973 
0.07250737408744386 
0.1123847766675583 
-0.009313161688348854 
0.2834200855302989 
0.05454758304013536 
-0.164099141781011 
-0.0151926751442221 
-0.19397968908576 
0.01442300160618429 
0.005217351751474045 
-0.07891085276072619 
0.1524205034126658 
0.04786598402536957 
0.09310829015177294 
0.08597298906282555 
-0.1868763095548289 
0.006350831258714305 
0.08520072480385156 
0.02189029303975326 
0.1559837012689843 
0.04252120875871437 
-0.1203388400101489 
-0.0954655628349388 
0.08140006287538983 
-0.0740789976605802 
-0.01848824302525821 
0.3678547211404327 
0.08069822592717359 
0.01738870990537292 
0.2444554694955283 
-0.2485185880501445 
0.01816362817079208 
0.0510291167909339 
0.08540257889574622 
0.1100795174398018 
0.04428993083931138 
-0.09721641989002401 
0.09318470559852444 
0.1041916187421635 
-0.1013796930462368 
0.1135905987749359 
0.01105341207387682 
0.03495814438252891 
-0.09047162019836148 
0.0944940982784245 
-0.2389166214559832 
-0.178929638513146 
0.07494335358810848 
-0.1263707804691968 
-0.06746395304346418 
0.002204868370731454 
0.04675676354739359 
0.1475198139463919 
-0.1785257440391607 
0.08617016230664248 
0.1072931330221815 
0.07422119958582063 
-0.05103749270566633 
0.09714666159841447 
0.04035531231420456 
0.177516399405329 
0.205048992022956 
-0.02239332127848801 
0.04227588733734827 
0.0947457198945269 
-0.05572579409975056 
0.09992948130904718 
-0.006869482411088003 
0.01189296669829046 
0.1338754023481865 
-0.03698375805756456 
-0.01383778989517647 
-0.1453497679224603 
0.168932119365523 
0.2734889531102847 
-0.1160112379426595 
0.05814060776549188 
-0.08237769502330924 
-0.2096577632384295 
-0.05928755117167697 
0.1404258408370875 
0.04402286127228352 
-0.0947729204066365 
0.005935276739579659 
0.09803842886697213 
-0.1362954054382984 
0.08535779662755599 
-0.06086759022234394 
0.03273380690012433 
-0.1532179660589057 
0.06681089535890461 
0.2364523330760889 
-0.06860468876583792 
-0.166889198139852 
0.02343073694557527 
-0.09711047767745776 
-0.05757759691452001 
0.006742635164086422 
-0.07727832326439105 
-0.2503967049360618 
-0.003855065256237327 
0.02268513758331287 
-0.1242264335579824 
0.1813321183481053 
-0.1230362816335011 
-0.1311216766127528 
-0.1522810396373306 
-0.1791364823059867 
-0.005765657368231466 
-0.06829124756424609 
0.1715433522466522 
-0.06890639939501096 
-0.0757801158279667 
-0.2034175524647041 
-0.1062019042111191 
-0.04075062034706613 
0.07552913285125201 
0.1059647901983984 
-0.0539620982822723 
-0.04530817106221395 
-0.03581282190296674 
0.07829326707412744 
-0.01883018177698968 
0.1117449517033021 
-0.04337596716768495 
-0.01697337597442465 
0.002098478499672535 
0.04696300839409576 
-0.2000654616660962 
-0.1064781689293613 
0.1392367780779246 
-0.1118529632638217 
0.1956486503968657 
0.2325007915841791 
0.02786044362115995 
-0.05667811861843063 
-0.02037947358182859 
0.02511190069440746 
0.006860661275323291 
0.05494075230073249 
0.05592245798551951 
0.0926448694516538 
-0.1616100167796206 
-0.02382005395825844 
0.1072536556971236 
-0.005645078609038315 
-0.05450942712835122 
0.2314282635538231 
-0.1942855105439071 
-0.07984556440049974 
-0.09005525392582005 
-0.04128394480548552 
0.1203217508099101 
0.2145257777362158 
-0.03051922639939297 
-0.03324799911806851 
-0.001089942141407803 
0.186484499497819 
-0.04133212625301161 
0.02581551766700464 
0.05849139278098445 
0.03323299704943897 
0.04665377642627496 
0.1006136578172885 
-0.02564583414296535 
-0.02786255054274212 
-0.2098111237695916 
0.1559897397301023 
-0.02492474992232647 
0.2044758212826915 
0.08527672524318225 
-0.001474442553689661 
-0.1807419979414713 
0.0006663272993242024 
0.06903496238637397 
0.1381792089650015 
-0.03073008509062962 
-0.05410460277787755 
-0.02412189379357075 
0.08943743080086963 
-0.05417559281647355 
0.06459327333940036 
-0.2211420828565464 
-0.06008637655963513 
0.02982778491941975 
-0.3325883192604808 
-0.07483912691755648 
-0.1349526963212277 
-0.04808561901425051 
-0.2381395585250384 
0.08631088954223723 
0.01590393739391572 
0.007982774175906097 
-0.1365714269047344 
0.06624995952138964 
0.0985034677110269 
-0.05893611545834664 
-0.01707158646058494 
-0.0568108831413824 
-0.4082284797498691 
0.003245145776199785 
0.03810420866990364 
0.02248262906685182 
-0.1302192124870541 
0.3355660664281336 
0.1866843964553427 
0.3070386752237206 
-0.2518580235228284 
0.04414467191285175 
0.02106667094047132 
0.008689838894820334 
0.08132747464333816 
-0.2059245243272829 
0.03557573759209182 
0.08992845500452108 
-0.1250968216667782 
-0.05386381672926131 
0.1060161381880463 
-0.1789339682361042 
0.1405620103841277 
0.03801283669334674 
-0.06978559256331185 
-0.0009646131572469049 
-0.2574882433060875 
0.06411132768482351 
-0.05200833285957761 
0.1069670418048805 
0.04552051839465382 
0.03139803196212521 
-0.2002077308567128 
0.1648451096085507 
0.02904964338739956 
0.09499881102331184 
-0.01613104564218082 
0.08491583643535468 
-0.01813580395345483 
0.137464816407971 
-0.04737682429301692 
0.1016918573110987 
0.1907380407312735 
0.03450030433512866 
0.0595959318996878 
-0.06182129255325421 
-0.00914572785679091 
0.1503623256195469 
0.187578478757387 
-0.1704338325730461 
0.06297453964425337 
0.08100821251018743 
-0.0457051351547471 
-0.05113638446149172 
-0.02480385586526985 
0.1574461006343241 
-0.08666005181136029 
-0.1017274169691367 
0.3378202524526011 
0.03856827351638999 
-0.1079133022248885 
-0.02261045985910322 
-0.09153122500971733 
0.2056970819182924 
0.04633052509136624 
-0.01508927262824705 
-0.2394905407577927 
-0.07655634366799835 
0.06669254671204304 
-0.005904384976524036 
-0.05607147902001115 
0.05846413526656605 
0.1345820489216996 
-0.1761922009071686 
-0.09706158657769366 
-0.2428716688174404 
-0.1020926558913781 
-0.0846396846251626 
-0.03332968622558342 
-0.02153302559966954 
-0.06280890476871429 
0.005231443046192229 
-0.2738854849001572 
0.1864932515773304 
-0.05386609949313447 
-0.06455834155188947 
0.1596175005229168 
-0.0904245480371124 
0.05960174486168621 
0.005708032341371228 
0.07896245066695418 
0.1187283500203059 
0.07486209297867849 
-0.03406285234192237 
0.0222714225530442 
-0.01803426983261932 
0.1143595072992937 
0.04297038246096401 
0.08474189538049536 
0.01944525392179442 
-0.09752850261299301 
-0.02003673019660226 
0.04751244872724565 
0.308168690782746 
-0.1028494541310528 
-0.1775802065421119 
0.1039822173728511 
0.1125356703451676 
-0.1243207846748277 
-0.2876840794094577 
0.2258215071047874 
-0.03704233546684341 
0.02453336411236256 
0.1762318466165584 
-0.1130769985254893 
0.0891644328429146 
0.133047539413978 
0.2107000174366703 
-0.2414381576348689 
0.005001567648239551 
0.1556406021849624 
0.1024321523429056 
-0.1881642738166225 
-0.1522486315361685 
0.005973964260004288 
-0.2456138158606369 
-0.1385157698317789 
0.2061148355953286 
-0.147571785519765 
0.111883052661599 
0.06091892823457375 
-0.09615797712510109 
-0.01581655625756769 
-0.04448670784378807 
-0.08198303718075733 
-0.1115500914678291 
0.2296039784410408 
-0.0154126466821746 
-0.06038868097809248 
0.07114886274741448 
0.05409458599425797 
-0.02476756407120679 
0.2214452826142945 
-0.1648060489478723 
-0.09254436576271213 
-0.08925745794151971 
-0.1351928532390568 
-0.0663665610509232 
0.001258272063161744 
0.1112455491278387 
-0.02276794778360754 
-0.1787065788296654 
0.0742626545960185 
0.03819735846351376 
-0.01636786652316445 
-0.1540501481533522 
0.3425682491209279 
-0.1440388845947794 
-0.09319638817591018 
-0.05430970727582132 
0.03135299468082666 
-0.03507241240208337 
-0.1158286102911227 
0.06321551157126168 
0.09014222419259586 
-0.136396158145082 
0.2498526684522707 
0.04744709489368169 
0.05258219300278638 
-0.2066694698534118 
0.01519384830538185 
-0.06615644354710409 
-0.1344192423119752 
0.03546904849394897 
0.009741363111542041 
0.0005488793321592179 
0.1607990719934888 
0.02179463914796282 
-0.09932363011409732 
-0.0598670488810342 
-0.08462501976650504 
-0.1257353226990201 
-0.163372511773259 
-0.2339705629308755 
-0.23723327876307 
0.05553035884460789 
-0.07381159238138554 
0.07256863547261129 
0.01957452855400152 
0.1524230309229608 
-0.1193677628140788 
0.06831168868872231 
0.1482072768993845 
-0.2148027438293306 
0.1638175794406692 
0.0647316953164697 
0.09896448585116899 
-0.1180479090590714 
0.2240011415776001 
0.2653478505359391 
-0.07777880892197457 
0.02820592056310776 
0.1723353523051891 
0.0008810518305682189 
0.04022730531004229 
-0.03335665053306391 
-0.05932937786629119 
-0.02449511524140299 
0.1099761647323421 
-0.1089934573684738 
0.09662179590255734 
-0.1720070872887333 
-0.162344753539641 
-0.04444764027891817 
0.07924983553914439 
0.03691457178147364 
-0.1974434902901251 
0.08296868590689249 
-0.0472259312791142 
0.0289664124432904 
-0.1337733567207661 
0.1058446047759212 
-0.04310929077180193 
0.1838163203968324 
0.09003697042953208 
-0.1714672858698683 
0.1187605635818551 
-0.01666743550686023 
0.02295279311347382 
-0.07616062124150474 
0.1413245920183935 
0.3257574160662873 
-0.188134675751251 
0.1726004415896953 
0.06100183888365934 
-0.00761023115232154 
-0.01510797815135351 
0.08654246052213967 
0.08949071998917062 
-0.09279579149385571 
0.007036717374963196 
0.0105774249169614 
-0.03820361924771732 
-0.04609377271562162 
0.07884149023229109 
0.06311979029472586 
0.1937889898808577 
-0.002456913221977689 
-0.004155433432834772 
0.07181065290745391 
-0.1137626838094149 
0.004486466888599301 
-0.1500709191901333 
-0.05838271523776967 
0.2687218684698854 
0.1162514272793953 
-0.04809920211197416 
-0.05020471026873543 
0.1869479775470655 
0.05171314264767985 
-0.00680184095101724 
0.01856779717274327 
0.048498898463638 
-0.09110852766688481 
-0.1120733009741229 
-0.03555521545290036 
0.06211054879202661 
-0.03094986308456098 
-0.01154029835998458 
-0.2436687291516846 
-0.1533298363286183 
0.09439331832572508 
-0.07414937969153715 
-0.2013015452965455 
0.02110065224307077 
-0.273581429742406 
0.030587127160679 
-0.1941251403149402 
0.07424814790179446 
0.02778288989978601 
-0.01276538513599687 
0.001786494882868048 
-0.0628215089550123 
0.1091807778233686 
-0.2365868847116114 
-0.1533672462967302 
-0.2321883060248862 
-0.014788902106635 
-0.1201407845737101 
-0.1272161425748032 
-0.2229672871986511 
-0.1702383796324449 
0.2834659097669021 
-0.1328039098752047 
0.02117329342221872 
0.1885928451325969 
0.1641770840023875 
0.2062881386195373 
-0.1729186675608443 
-0.1022911547790027 
-0.09315990170100623 
0.1535103201606112 
0.1455247248144564 
-0.1028931857058876 
-0.1242132941872653 
0.00611985842859439 
0.02026052256345076 
0.1053992054355468 
-0.02915232942770785 
-0.2741889335345944 
-0.1084085166296494 
-0.1514528397423984 
0.134944461863171 
-0.03482261810956513 
-0.08313515918107557 
0.1052836041862545 
-0.004529454566432992 
0.09738928296999562 
0.1247783107258729 
0.08337357325003185 
0.08950393604051937 
0.07169810833060825 
-0.02134805020848298 
0.1594138071801096 
-0.08684764816709944 
-0.01659080684000186 
0.1215231611009279 
0.05067894045875035 
-0.08017376713117166 
0.04532792969044813 
-0.04415624013897358 
0.1446272102592306 
0.1030737474645581 
0.1707187868498803 
-0.05287659134636621 
0.07150007751021061 
0.01521244386239478 
-0.03397165229687586 
-0.1836588132588674 
0.1851277925342934 
-0.1060359831583562 
-0.1736418479794997 
0.05994443011280113 
0.02885586770967928 
0.0830973009645264 
-0.2419749390887196 
0.1021057804635371 
-0.02287184491456257 
0.1301027015559677 
0.1620872365708868 
-0.114457421507622 
0.01515047967727959 
0.06875175593927296 
0.004932087502020139 
0.09206443681969302 
0.1089297698027238 
-0.271456040795659 
0.03931740142293018 
0.03386086699033437 
-0.03939859274098937 
-0.02513165178718023 
-0.2544168904382276 
0.0525668935197101 
0.137077237606744 
0.06815865009459086 
0.1194976329674368 
0.05672934022913418 
0.1102300093155807 
0.1220071867545661 
-0.1768930039884503 
-0.007074244677009763 
0.2222350418307537 
-0.002531187065758922 
-0.1756260696814462 
0.07584444001027296 
0.1273211080300104 
0.02514760910612174 
-0.08339242141153336 
-0.1571056543228672 
0.1833475649684167 
-0.1104601353962401 
-0.1590952294420862 
0.08071607514594736 
-0.116399148408939 
0.07141223491604007 
-0.0358653320394839 
0.07977354348592887 
0.1420579160178544 
-0.02641663925946438 
0.3408330451819195 
0.1817182841757653 
-0.2443254160883582 
0.09932178429829235 
0.01284674133065234 
-0.02602195082745827 
-0.03649937220616811 
0.09878849198609825 
-0.02463736497271519 
-0.2343586755789407 
-0.03821473981456053 
-0.2525076907910578 
-0.01153789311887099 
-0.1408205838311966 
0.1392854792463702 
-0.02063574238775697 
0.03563214304358558 
0.02678023661361362 
-0.03959437888410409 
0.0289134346032794 
0.1021639781870935 
0.176107191306906 
0.0199883423102482 
0.09980215713943601 
-0.2651574350601286 
0.04360598496482069 
-0.1662921318870461 
0.02398747941553335 
0.05175188034247447 
-0.04040740261500513 
0.05168107491828357 
-0.1232166371750344 
-0.1690805192474137 
-0.01292505355956807 
0.1868936562539589 
0.02298521330913147 
0.06292978726232064 
-0.1402895412066234 
0.1594702964683382 
0.01242896966302277 
-0.007666141079331427 
0.1360901107827756 
-0.04735244335128679 
0.02107443185964087 
-0.2579245874987547 
0.01230459278733351 
-0.1225931474855025 
-0.2256405108345931 
-0.06397034602054238 
-0.09933351570580827 
0.0861416365998486 
0.1129801727864284 
0.02215357844510254 
-0.04753395454907344 
-0.2416360480649546 
-0.06439769249312485 
-0.05672008561244205 
0.1598193721842478 
-0.09079056982101133 
0.1316414649584606 
0.05821612765922752 
0.1805644389642124 
-0.01592306044528935 
0.09624172140681174 
0.1117158159883694 
-0.04000127651895113 
0.2949856692298196 
0.1556344131626518 
-0.05870293159846446 
-0.1122793572859515 
-0.06386792759878741 
0.06021864392483423 
0.06595409813692382 
0.06495846425691389 
-0.04805281298162246 
-0.1132661396822481 
0.00412300275997952 
-0.04247261760445213 
0.03950311930723549 
-0.0354421811418731 
0.0331764022311129 
0.08540460740439247 
-0.1201622535929468 
0.0923269596135677 
0.01048380750777953 
0.1360295808150933 
0.06603017941982339 
0.07119533237587514 
-0.06155811603045772 
0.1305542480740313 
-0.0425329297349028 
0.1786402729352244 
-0.2241594335826218 
0.06669838692018712 
-0.04492252453972456 
0.03913517425574784 
0.03395792681435579 
-0.01654152702201135 
0.08915527644805868 
0.1502834928973088 
0.07331369942682381 
-0.03433633890677442 
0.1766432025485868 
-0.1040148959619177 
0.1142987397602215 
0.07399325227000371 
-0.05151370069606611 
-0.05164925344150031 
-0.07209028566348197 
0.02011781214849967 
0.0176671406813235 
-0.03463314200041207 
0.1314240417020487 
0.08862248365771828 
0.01247121422941009 
-0.1324384144781704 
0.06904884058074109 
0.1578340652336425 
0.002648292570738112 
-0.01718260426484249 
-0.06079773188652241 
0.02114156773224794 
-0.1695438974551612 
-0.06782434543926949 
-0.06106543258021496 
-0.1225186672386725 
0.09031559301326011 
-0.2023834526744133 
-0.01092802042654119 
0.03641715448070377 
0.07647027697968918 
0.02639137752786775 
0.05784883574985816 
0.03825661826737373 
0.05658707537480238 
-0.09921145129521813 
-0.03640003878858832 
0.2404128999857783 
-0.1662009325845739 
-0.08630744156196705 
0.03878076748900931 
0.1326876069923922 
-0.08777467313066467 
0.1544931046244164 
-0.1877238184688594 
0.1588754430766195 
0.1064474073253384 
-0.147639034440311 
0.08561678270551408 
-0.2578874125700138 
-0.05963403908165473 
-0.04300704612952881 
-0.08129012963213837 
0.07447125461201008 
-0.04130980191080629 
0.1282960842737543 
-0.1773239198231129 
-0.1340322003707216 
0.01971369427198954 
0.09656283655742695 
0.006327957479704621 
-0.06853362377640682 
0.03277325417149266 
-0.2685548111759311 
-0.2933206110934098 
0.07639624690970383 
0.00387675062951713 
-0.07197546278098783 
0.091988294386025 
0.1454193969730231 
-0.03545024550481831 
0.006989973459822174 
0.143657005907389 
-0.003097859906795176 
0.01479521355486179 
-0.09161246598745536 
0.2726656236136114 
-0.03078125437484982 
0.1150898970251743 
0.00459032248396084 
0.08391118104011454 
-0.07468242856433507 
-0.02759616625247227 
0.09543710728851687 
-0.06078267137284934 
-0.08270006273864783 
-0.1960283200997858 
0.1031072079533164 
-0.1021262601172412 
0.01458124977897102 
0.01378038144422514 
-0.02983946071807703 
0.04057948189518532 
0.09641631631653805 
-0.1087887027701081 
0.04708232116753868 
-0.09557806046297861 
-0.2816414502090008 
0.03927482830679821 
-0.008799778776536791 
-0.01793012224063176 
-0.05414258561905615 
-0.1108530133326053 
-0.2836544908321275 
0.06093867359125203 
-0.1636703784410244 
0.0418002942740196 
-0.003663218627954188 
0.03119528727584811 
0.1635510244534835 
0.05024150023629263 
0.1063292794462933 
-0.02401740465916019 
0.2507958376787994 
-0.04934269260933574 
0.04768196197863259 
0.02489701185775191 
-0.1485989124169272 
-0.0151328567319832 
-0.1090683622910815 
-0.06748505214213278 
-0.1061935453347934 
-0.01941265587349057 
-0.0813457321504879 
0.02193008971396975 
-0.05169567962296214 
-0.2283951289454401 
0.05144858133406949 
-0.005904212799335047 
-0.1371548510552031 
0.06463184801118374 
-0.1641600890768151 
0.2129177269076869 
0.1319789452571288 
-0.2335792707611862 
-0.04851050050652272 
0.1596626020056574 
0.2841220175662203 
0.1095197599869868 
-0.1116532599497043 
-0.1127695556855767 
-0.03060420649194947 
0.03256494815414199 
0.1062761964483021 
0.0266832569907498 
-0.07168098203097675 
-0.1626767076652534 
0.0450446975819477 
0.09460406828848278 
-0.1267139354853658 
0.08066084267421211 
-0.002022758511351807 
0.05585499146161154 
0.1646773428306462 
-0.09772245119524066 
-0.1472169518690654 
0.06324527208038061 
0.02307757262007747 
0.004993308456637133 
-0.0233739421070244 
-0.119618148949971 
0.165498993734754 
-0.02647504387963941 
-0.1085268161832936 
-0.0009567518708854029 
0.0739267188496 
0.2653555961112092 
-0.05347669943750207 
-0.003125490807750904 
0.1414335701316848 
0.06406364548611378 
-0.08343916372773937 
0.06431218411267614 
0.05372847056339843 
0.3054973128778408 
0.04769798558490897 
0.09617503632554579 
0.009315256803800671 
-0.01007424325342173 
-0.137974107921038 
-0.1882023925399622 
0.02887159925454118 
0.1614737251348971 
-0.07819255607327635 
-0.1111116670625375 
-0.1412859908693289 
0.01024973341434132 
0.07789508052082457 
0.1370650421818252 
0.1000839391940227 
0.04488741366660283 
-0.0640818887676536 
0.05913602482399902 
-0.1394324688608998 
0.02733482074748293 
-0.1069198012148708 
0.1596032750829089 
0.1403216457979344 
-0.1035541299205691 
0.05742472409739456 
0.1223008483185468 
-0.140012641550673 
0.2613315685200738 
-0.06018675835236716 
-0.01780913681141872 
0.01336084545768065 
0.02378936221824523 
0.1319362826088187 
-0.1073412393806702 
-0.01078520976068921 
0.120999675758173 
0.01367914575063361 
0.02286388577658221 
0.1450425993218555 
-0.1733372258239562 
0.02624120708212653 
-0.09513522708230443 
0.1332358293111276 
-0.1281795230071167 
0.0282538390500941 
0.1429054190456626 
-0.1049894140013832 
0.129023131287162 
0.2011594424099507 
0.4357322037171132 
0.1830596223880624 
-0.03430948684736326 
-0.143886902610556 
-0.002974173057769416 
0.09167224497353595 
0.01969225776515849 
-0.15538939437476 
-0.03458453023980854 
-0.1588950045765625 
0.05774724815889667 
-0.1704201964736422 
0.06484885097949068 
-0.1443515542046269 
-0.07949199754349247 
0.07115593283839981 
0.1342991007175291 
-0.03894106779936281 
-0.1607947526434495 
0.01381426984376209 
0.0241271448248027 
0.02676668601784812 
0.1301528837680265 
-0.08515183446060985 
-0.1062069477131925 
-0.02469192543248953 
-0.09941973300863516 
0.1120921152391511 
-0.03880509649974258 
-0.1390931787741848 
-0.1639391158877352 
-0.2563097698823624 
0.001969645106255576 
0.1167437557222149 
0.1560437760124852 
0.1905288133701758 
0.2315657039098608 
0.1756123409495045 
0.2011168076476527 
-0.01191595605793433 
-0.1325522163330647 
-0.05041082218137801 
-0.01369894119170099 
-0.0237561820060591 
-0.06711477271084847 
-0.1363994627144943 
0.2047716405550498 
0.3946882861981327 
-0.01462758967262315 
0.08733838173249819 
-0.1238886707302073 
-0.0004610763134492324 
0.01780443993536466 
-0.02408417890647524 
0.002069792735930695 
-0.06035424783212108 
-0.08187469755333796 
-0.1154716342295091 
-0.2614608094618017 
-0.01776506711194039 
-0.09249398435413311 
0.1569141469546495 
-0.01343373332215396 
0.09297516237064479 
-0.1316903606724711 
0.03491557742279456 
-0.1705848729947021 
0.07883942505926267 
-0.03296643462294919 
-0.1854206327545901 
-0.04072776214751359 
0.01073425555001474 
-0.008650920355505505 
0.02181297397478804 
-0.1318440864737672 
-0.0001606590321248297 
0.1148997248091575 
-0.1556864968976179 
-0.1274716075891065 
0.03900417094222121 
-0.09007495258680173 
-0.1402222555894267 
0.050336997565445 
0.01448932265649466 
-0.1111797387615874 
0.2175630663032158 
-0.06669448932954951 
0.08689087523241237 
-0.07728250843822376 
0.1194083779879226 
-0.09360268520200665 
-0.1127183942444255 
-0.03334234806659334 
0.002026783673507191 
-0.01480827948567289 
0.01942053869696097 
-0.05606637045017477 
-0.1477839837718509 
-0.03362086564294769 
-0.1101260654890478 
-0.06188093440798237 
-0.05768004045774365 
-0.08134383797633009 
-0.1193753984324572 
0.144852152290172 
-0.03707798841915452 
0.1340700150556625 
0.1159890678446191 
0.1281015268433095 
0.1856110898907045 
-0.05096224548745748 
-0.1780995249204737 
-0.04343068969570613 
0.1480864113263676 
-0.02311408208117885 
0.2614242639131026 
-0.07488235238490283 
-0.07041001043475192 
-0.07345997756541231 
-0.0964526235968991 
0.02696683928548604 
-0.01197798106263408 
0.05802250160870957 
-0.06644346395781621 
0.07549635323842056 
0.05315834831609192 
0.1640877481063357 
-0.1740180329130807 
-0.0297295287320195 
0.09595120010238767 
0.01690369990336694 
-0.04960524646866411 
-0.02039912519574781 
0.06431205904896431 
-0.05883665308437246 
-0.02300164900623411 
0.1628849696940261 
-0.001546881891145947 
-0.007544830089287869 
-0.01111987633407067 
0.07100187374795514 
-0.00822485795425101 
-0.03275671550340339 
0.03420147555418015 
0.109556350964118 
0.07570233907076183 
0.1314624806136638 
-0.09327106874140989 
-0.01379698329947334 
0.02116464151023906 
-0.0102509431942367 
-0.050311980102867 
0.01368285563876093 
-0.1408906387393464 
-0.04045520717851059 
-0.03771172581117857 
-0.1597238199635571 
0.1515664130855327 
0.1548762285267987 
-0.1135316543709861 
0.02692867491932206 
0.04108451268707388 
-0.1897574281580774 
-0.004761668305030496 
0.1393996109054984 
-0.02177756484165255 
-0.1404791711146721 
-0.03478443077697202 
-0.08912127219765066 
0.02390080876215465 
-0.09564157178352996 
0.01839381955632627 
0.0589028223472946 
0.2196901272256593 
0.006361154927869437 
0.04241217742588747 
-0.09658148620905449 
-0.162001598771306 
0.06105139932616536 
-0.09184073468574114 
-0.09264640458859615 
0.1122675727964189 
-0.1067356956668294 
0.08113712943498741 
0.02855281401142821 
-0.1138857571383422 
-0.06701271500575187 
-0.08522288735894265 
0.1127477448458407 
-0.1438281295095596 
-0.1874788987285712 
-0.0871852563968229 
0.05999282449551835 
0.09019026087654862 
0.2945286823268764 
0.01870400163608559 
-0.09743551394561534 
-0.1838552288844268 
0.146907330911817 
-0.02143600417678168 
-0.1954776741641349 
-0.02359472593749727 
-0.1941050750050133 
-0.01913470964039636 
-0.03391873037521567 
-0.07184982418024727 
0.03720605367488726 
-0.1735195596642042 
0.08120620019376153 
0.002392495902644245 
0.03008788080889547 
0.04002683599161264 
0.004013185409440109 
0.1526037948757147 
0.0398903425355999 
0.03868451642156685 
-0.007340072016656593 
0.257530598964206 
0.001561147511427303 
-0.2075812072852285 
0.1339301478352536 
-0.2502656224224767 
0.1964740432383214 
-0.02435281095858516 
-0.06897271032394747 
0.001435462731911194 
-0.02670456007204958 
-0.01629168267034345 
0.07799192383359947 
-0.08335796520410828 
0.06815725065479962 
-0.02986864769679082 
-0.03831210505247945 
-0.06039468564747181 
-0.1048415647380131 
-0.09490717351228327 
0.07876528905965562 
0.07990433848005875 
-0.2296619481318757 
-0.03646706333580363 
0.02367398815593789 
-0.06170816470233329 
-0.1300444517789261 
0.1566117195311554 
0.08215699662438035 
0.1126391773674648 
-0.1392361226614307 
0.02628833093821075 
-0.10240834758282 
-0.09122052889379346 
-0.05434745868473725 
0.1735930124380816 
0.1075810056508488 
0.04204394463426202 
0.1240719861704779 
-0.2219491248676517 
0.03783535543514688 
-0.01265972976879906 
0.1663132450806704 
0.1168303678647699 
-0.1425611273016599 
0.2456054962962866 
-0.108849263923469 
-0.01295433306471695 
-0.1445154605411378 
-0.05461110817869692 
-0.1583433969009895 
0.06487353772280643 
0.08705189917651593 
0.03424632930464902 
-0.08559955691995534 
-0.01030469739902068 
0.2417082723383397 
0.1669880648914698 
-0.01900331096303476 
-0.06407533830088251 
0.08872817554538061 
0.01002546296120783 
-0.1413650156627657 
0.09453653323322962 
0.02653923284922981 
-0.03875512642735878 
-0.03970670759465151 
-0.1081616530631008 
0.2397453704303676 
0.1034052205756212 
0.1685876710822292 
0.2192618899313559 
-0.1157300129791665 
-0.1188151297998749 
-0.2405116707622246 
-0.05443635771315652 
0.1042753572816555 
-0.1236717295075973 
-0.068216419249996 
-0.08719801706594546 
-0.153102516581379 
-0.0008603652182270502 
-0.07670024161107962 
-0.01410918821186838 
0.03206372929901705 
0.1647611102951065 
0.07431045285613164 
0.1515765053896617 
0.1581642473972047 
-0.07682026287489026 
0.1678821478796783 
-0.1452043857533926 
0.07422868035765375 
-0.1746993152835675 
-0.1944560066672332 
0.1043827782251489 
-0.0468225442527314 
0.1125148175669284 
0.09469347678255895 
-0.06110722833863988 
-0.1401167216569424 
0.1819998734270136 
0.132436843751811 
0.1239947520837362 
0.08912586846139303 
0.2284453347295261 
0.0668327642740701 
-0.20007629320119 
0.05717005468017516 
-0.02266495707884355 
-0.0242299273975707 
-0.1365755111766607 
0.08884378969137643 
-0.09080383615926395 
-0.01116719778530892 
-0.2225935735409546 
-0.07545299020854299 
-0.0143200667639243 
-0.1099403261027906 
-0.07273168057698207 
0.01963466343267951 
0.2381422157561686 
0.05840494051177932 
0.08805383314215845 
-0.0238855867431205 
-0.1938628043667107 
0.1086173061445916 
-0.1511727125286147 
0.003319164133101259 
0.2482355954594052 
0.08910150515268975 
-0.05286533152042692 
0.05330465677740739 
-0.09514178449261328 
0.09655168987598574 
-0.1901179473997913 
-0.04575640167360508 
-0.1075001846589978 
-0.02263770672012978 
-0.1254475020271014 
0.06609704150803705 
-0.03655307226100719 
0.1125871728109869 
0.1260563541677218 
-0.09049097965390908 
0.08915314587218773 
-0.1234248110190043 
0.1201196595479253 
-0.1499885887009703 
0.1299543776318624 
0.05639197605361834 
-0.002149416888111944 
0.06330225959373585 
-0.1046605329695032 
0.04832808446219469 
0.08629976449964817 
0.3064675692443218 
-0.06103071025215933 
0.02917479613215376 
-0.1202607383557093 
0.03252697785159959 
0.006167282387507365 
0.03115219383671591 
0.1086059825235824 
-0.09931250938081797 
0.2515691710917376 
0.07340882322064314 
0.006339025455708342 
0.09295825171562867 
-0.187950301268881 
-0.1962366377761066 
0.1205317754376545 
-0.08450462083167101 
0.07789250528935655 
-0.1348741020113537 
-0.03422999103634138 
-0.1386535426416137 
-0.2110727501335753 
0.0523365752206381 
0.2469826632857426 
-0.1563022055559987 
0.06833677805212129 
-0.2576865635674666 
-0.02280154367904458 
0.04531786972231219 
-0.2444905600912183 
0.09821341236418334 
0.215845016118848 
0.001259918086601609 
0.4073547469718727 
-0.120880310821944 
0.1669703992286038 
0.06847574568281632 
0.02446231288569161 
-0.1175844595230554 
0.04103525575587243 
-0.08394700956380777 
0.0536943035249781 
-0.08948693211327542 
-0.1666700580941984 
0.09447291905994469 
0.02473692116717133 
0.02763769419663382 
0.2016222909429116 
-0.05205009644747511 
-0.1457393412038512 
-0.04659624949925143 
0.002954102371804298 
-0.008818224515075336 
-0.008341404820632453 
-0.04598519972248651 
-0.1337668790462272 
0.0003444289621625894 
-0.04714529285436478 
0.1066262514233234 
0.11707771629074 
0.1482808766287844 
-0.003118558875910037 
-0.1120988291841149 
-0.02167767771038051 
-0.07898320832886101 
-0.05936162008712525 
0.112765732969631 
0.09536888260062128 
-0.1716707180467066 
-0.03778336287443886 
0.04678630973717843 
0.08118949726208781 
0.09886077014555654 
-0.003241114326990994 
-0.2907150600777851 
0.006698918083457574 
0.06930283648658743 
-0.0907232833230105 
-0.1216736020362668 
0.03779069050207066 
-0.002232138738667525 
-0.07111513411463204 
0.07689191799857581 
-0.03432236831460013 
-0.1479452804461851 
-0.05679804163000934 
-0.04877323476771065 
0.02136970494140763 
-0.09392854698057243 
-0.1758179965652764 
-0.05811350186695302 
-0.151473213217548 
0.05130698188193496 
-0.004235124711595108 
0.0181912574891934 
0.08886967068775613 
-0.01347155957255066 
-0.01830384986542136 
0.09683216288256487 
0.05002354648346165 
-0.05849175331180719 
0.01997413225161083 
-0.0005646085852252535 
0.06310422120654706 
-0.006491725631133252 
-0.06258231777675786 
-0.1499876056795595 
0.05870149734988164 
-0.09999493400916397 
0.00125751238059861 
0.1341627184394655 
-0.04130183360399975 
-0.1692992113132241 
0.03572136283452874 
0.002922190181404226 
-0.04631598620932696 
-0.1019055738508614 
0.1734544722724971 
-0.1348468445745615 
-0.1047417751291923 
0.1259054277535823 
0.08795407547812489 
-0.006806980983471566 
0.1187566498281819 
0.1708750824395224 
0.1168487280743849 
0.07115061924405379 
0.140594537981547 
0.09916117609527592 
-0.07056827988644587 
0.079494374847981 
0.1566834241089479 
0.1461821330853911 
0.1635565082239122 
0.07450842940909734 
0.062682191358962 
-0.07610693980506908 
-0.05058872711180567 
-0.07974472826317673 
-0.0701680753907571 
0.01677530623431005 
0.1361379308628749 
-0.1378553006228779 
0.006941205049982067 
0.01182668834122947 
0.004107213301169583 
-0.1470208220683231 
-0.0708703810012868 
-0.1153212159294271 
-0.155458634473337 
0.183620237132312 
0.01420526249747903 
0.01224000933101906 
0.09369717502504335 
-0.0005475730646194313 
-0.1457475727186914 
-0.05561133093973363 
0.09934667697324735 
-0.06070840566524 
-0.1443897266037611 
-0.1017235078428393 
-0.1560811810967411 
0.02142043543760442 
0.1423467437504202 
-0.04337753307693352 
-0.01079583072482423 
0.179417152550277 
0.02717341596324285 
0.1327306947683252 
0.09318584742065426 
-0.0656737642343076 
-0.1274485921484844 
-0.1367113479589207 
-0.0894188040007601 
0.0961315644110823 
-0.03106377309396161 
-0.003608408459818693 
-0.1949546906054686 
-0.2269435977000086 
0.09224519764474 
-0.1175633094506028 
0.001327397547349325 
0.2466871792016563 
-0.117409057626329 
-0.08141989261157152 
0.1931039650582969 
-0.02541525827401871 
0.1822388849080466 
0.0158157779303173 
0.1292199430468225 
-0.08271843189049857 
0.1010215211822381 
0.03237021391195689 
-0.04738629437001808 
-0.03384476416190974 
0.1617451218647239 
0.016245667434279 
0.1406964783691581 
0.04172255789884764 
0.008207749093554716 
-0.1349369316951161 
0.06552534040948357 
-0.1100421820752411 
0.004373988583710966 
-0.01975486342224658 
0.2116743097820271 
0.04362519265535782 
-0.04023287169906939 
-0.1305676161886964 
0.2147353242836475 
0.1006182064031247 
-0.06076305104263909 
0.01040163515758716 
-0.122724761081277 
-0.06328858559999201 
0.1067936468572675 
0.02477222072934444 
-0.08453358712973701 
-0.1196098458737958 
0.189763435771518 
-0.01578017774940108 
-0.0008742892917581971 
0.05759701627935337 
-0.1048338288877652 
-0.1891915698540327 
0.1105118143675111 
0.03428255456845426 
0.04005348045988377 
-0.1242762272383459 
-0.1016541626989597 
0.1061250470266969 
0.1334991979943208 
-0.08823842200741761 
0.04262452614913911 
0.05851766663093683 
-0.06640808442424666 
-0.1085240476142757 
-0.1361988801297725 
0.06656784334542509 
0.1333569067155436 
0.01193202440009671 
0.04628847160910961 
-0.07045595288834376 
-0.209056225208582 
-0.1143529499295613 
0.1830322601867314 
-0.1337938401094851 
-0.1420497669683634 
0.0570086485469036 
-0.08656956386059617 
0.1703928390437663 
0.1789639743844426 
0.08348046883907741 
0.06278084614720858 
0.02906936508044958 
0.1292045297471905 
-0.09234248440946306 
-0.07903332500070227 
0.05101361719149302 
-0.05446888888309621 
0.03633471657332818 
-0.1344652143958112 
0.1696086464066945 
0.06008783968503102 
0.04752071195567368 
0.0600630041058919 
0.3315123635485805 
-0.1987859684911636 
-0.1904179790989381 
0.313901366294606 
0.1898503379542512 
-0.1134368607585692 
0.0005595142902957456 
0.1507645415337331 
0.08647102182129056 
-0.06706196537643336 
-0.05575799549152059 
0.2632587939859796 
-0.2137957578173905 
-0.06039777519671673 
-0.1438683415964923 
-0.1164146979675591 
-0.1426630299675685 
0.04438736918476042 
0.1329593752675726 
-0.03177702450945081 
-0.01842788025523878 
0.004244777428064508 
0.1735747126598561 
-0.03767614706104537 
0.06399212211726182 
-0.005699540184520019 
-0.08559868329938741 
0.02996665523007773 
0.04760112259572005 
-0.0557254895814628 
0.03979274593161247 
0.3508681623129808 
-0.02289321406351425 
0.09398164480640488 
0.0388239080637524 
0.09167970140583288 
-0.07582501998706891 
-0.1264799826695533 
-0.01280109687775848 
-0.1678686915163376 
-0.09832294413493012 
-0.116428296221423 
0.1750275582501967 
0.1154210188900417 
-0.1006483411061478 
-0.004662615992097769 
-0.0375260664067073 
0.02575286218559652 
-0.01761367364785339 
-0.09094650954600389 
-0.04286919668026409 
-0.004830982255948916 
0.09152394134458632 
0.09514763472631274 
-0.1827985362125804 
0.09935668602813263 
-0.02912665012470059 
-0.09499645728645187 
-0.1847236903826821 
0.09541477381717886 
0.02763627740959815 
0.2027696827075421 
-0.05328745233565039 
0.1784381177347704 
-0.1554598304198601 
-0.08069850420003245 
-0.01820347527653374 
0.2669766219748878 
0.08144279663406251 
0.04997473086051141 
-0.007939544463704611 
0.03137230508119464 
-0.1471146264752655 
-0.02090698885191435 
0.1626342584231978 
0.02622196776523988 
-0.01953015961497406 
-0.08344172451052682 
0.1185904484804763 
-0.1751593492162558 
-0.1474011684058327 
0.03441552404367984 
-0.1523532383907519 
-0.1642929657686558 
-0.1142172054877491 
-0.08025547293461957 
0.2775505034712927 
-0.1082477142549974 
0.1404940465308708 
-0.09706336797197343 
0.05728478180418613 
0.1821930995999666 
0.003367649613621317 
0.08214732821068654 
0.07560089255675709 
0.1264882719550419 
0.2013836862025001 
0.05246949682686541 
-0.06051359107115578 
-0.1460814359434432 
-0.01327178256134759 
-0.09608033791092026 
0.1879435726561651 
-0.04010403804145359 
0.04829475021321704 
0.06035201833845353 
0.05989739815290635 
-0.1497983756664916 
0.02092034289897695 
0.02033080416915611 
-0.05265495448719786 
0.05600924655261969 
-0.00712601485966142 
0.1685419850139737 
-0.06368726370356176 
0.2115390070710028 
0.01594086982758898 
0.06259449696383976 
0.03072049151589958 
0.03579497360520164 
0.02908483840181039 
-0.04535867709862341 
0.0566453089241542 
-0.008827057193921769 
0.2493069486480207 
-0.1166938253312204 
0.02001982291540528 
0.09556840032460213 
0.0105649752374298 
-0.06351839029481615 
-0.07025684227298155 
0.1235881366597748 
-0.1363314655778878 
0.09350501388279149 
-0.04396605978894384 
0.004693462338964409 
0.1197478956981878 
0.1732355104535359 
0.068839683475608 
0.04118104164476975 
-0.02102738192815019 
0.1741779484584663 
0.03267460472624701 
-0.1113376096097762 
0.03063709912413838 
-0.08867755383821167 
-0.1329099839752068 
0.02881466740948337 
-0.0452571037371786 
-0.222177543036528 
0.005837901731324681 
0.1496798731556259 
0.06405006304088685 
0.1132490871078121 
0.01682025997449674 
0.08384470763181838 
0.2170628156746396 
-0.09063491038677307 
0.02280288896804899 
-0.05522770958244143 
-0.160467830989246 
-0.008217484225119117 
-0.08144009752111173 
0.1239276794050156 
-0.1120334217048736 
-0.1286075509830495 
0.1830890376161709 
-0.1232533062726889 
-0.01771544570318226 
-0.1291871459108619 
0.1218203011111714 
-0.2393276539544041 
-0.252390633569941 
0.1159606607729014 
-0.1590225387540123 
0.008283661862135725 
0.03832049990316444 
0.217158216563876 
-0.04499154710309278 
0.07320849893233745 
0.1589389850296371 
0.07198435919495029 
-0.1036213500780534 
0.08140600208313448 
-0.08927485794823696 
-0.08610655325808436 
-0.1522868216543148 
0.07274738867816836 
0.1513351201490955 
-0.1432646578221641 
-0.1607443255650816 
-0.002214040461731447 
-0.06396363826904573 
-0.05204588060035325 
-0.05870956888775045 
0.05803951334213111 
-0.08963012842066559 
0.07053282600267022 
-0.1225630174434283 
-0.2329021825207142 
0.04669674175313705 
-0.002298769980976118 
0.09567127734602998 
0.1335283151085393 
-0.03041050495038531 
0.03571332481879846 
-0.06344068442857967 
-0.05379657877552705 
0.1285622748946724 
0.1259491156553826 
-0.04498210467481659 
0.0194950302414227 
0.1391370229869935 
0.1189131905997504 
-0.1727894521461305 
0.1307715808575727 
0.09525001358568627 
-0.01913354512993195 
0.0386740395990773 
-0.02791567289050265 
-0.077392926140029 
0.07222453552592396 
-0.05680152633616185 
0.08558735446271178 
-0.07484923291010577 
0.1747649337083738 
-0.06576649350620384 
-0.01714911134746469 
0.03148075091658187 
0.03782643076854929 
0.003191306780394337 
0.01135342830617865 
0.05911257260384321 
0.2577295209135094 
0.02606142782889228 
0.02688876132322407 
-0.03829634271157709 
-0.02904262633547898 
0.1590896536545877 
-0.1200626596022523 
-0.02333188221653532 
0.1889575365204021 
0.06896813229334597 
0.09594909493204526 
0.07341392880305792 
0.0001402010476145681 
0.09861550856551965 
0.3152596248632633 
-0.01893748464980282 
0.01870805617814074 
-0.09632182621359918 
0.005532446130209305 
-0.1589624430414255 
-0.05241900692376499 
-0.05506801203882497 
-0.06884483380472244 
-0.008925304148275012 
0.1009545887692662 
0.1204033517943206 
-0.1551682015793594 
0.02616911996897562 
0.08823084593355558 
-0.09632876939773583 
-0.005395577013746754 
0.04651272020336328 
-0.1463300460886791 
0.04623015819705206 
-0.1446029080690032 
0.243717697523404 
0.1159115166834464 
-0.06924614848880283 
0.1452049909644252 
0.01802368768713129 
0.163230541744511 
-0.01634129354548379 
-0.02581442700969806 
-0.03791098966398954 
0.1115557610453008 
0.1072181170097351 
0.03038304691058652 
-0.1125072887441578 
-0.2251284481038607 
0.05269913786937775 
0.0008368203649522069 
0.08228120385021492 
-0.009438947942794889 
-0.2290736680446362 
0.1183675447583805 
-0.03466845871436777 
-0.0245105695689481 
-0.2369518065956279 
0.1777110121241472 
0.05401782945421086 
0.07929720343246938 
-0.08667575418971159 
-0.08593479404778601 
0.02296676207062047 
-0.09881473655699541 
-0.07252245816536385 
-0.01069442989747489 
0.001717240629100232 
-0.03806619055126324 
-0.08084378321505936 
0.1042812097628922 
-0.2205570712642057 
-0.00262393351990637 
-0.01377658219577893 
-0.1935660678947669 
0.01501126171100802 
0.1696325818885095 
0.09670779565152135 
-0.05961713031840239 
-0.06239565041436761 
0.1697705011614462 
-0.009048926027568439 
-0.04287428572526826 
0.05841400132156926 
-0.07343791731464394 
0.02374750596051031 
-0.01916247579779248 
0.0383388780655932 
0.07633641317872404 
0.109185841210668 
0.1835297407509102 
0.04010914370204714 
-0.01900986708779853 
-0.2500658301997277 
-0.07090358558156627 
0.0477391117290662 
-0.1994183915750725 
-0.03991357157078131 
0.03009741278816357 
0.1768212923725865 
-0.08145416750414569 
-0.08932379901982269 
0.001297798670721313 
0.03467454241391231 
0.02500317788419163 
-0.1778042572484015 
-0.1349081754553957 
0.04197966381665654 
-0.1641650325759234 
0.1847148034389331 
-0.02707772236830384 
-0.1740309700363275 
-0.01720224534620314 
0.1152997833994666 
0.1171718595524354 
-0.03671641798586815 
0.0051956377966439 
0.231988639321758 
0.030458027853758 
-0.0270521165583327 
-0.1753251158143223 
-0.02266864051263069 
0.07588086613017035 
-0.2704569877202749 
0.1060073803406845 
0.1279731878811339 
0.1072517875440528 
-0.1038418183324749 
-0.02280966507854304 
0.007873799042567886 
0.07651192933826163 
-0.1515826725659779 
0.007753334275910889 
0.1696465202787647 
0.1434575465623813 
0.06437180211780857 
0.1124473123834079 
-0.1749878938382716 
0.1142472230595134 
0.3042621273375867 
-0.04916295068780625 
-0.03542993685531624 
-0.1090389807724867 
0.09807147747605838 
0.07614737635707579 
-0.1952826688223153 
0.3201416211928625 
-0.05955538885801525 
0.1050052261631816 
0.00831819481338353 
-0.05456134512570568 
-0.07696737083348278 
0.32816522913322 
-0.06896787362097834 
-0.1017283716298319 
0.11367833186963 
0.07469053936788124 
-0.01307936857402244 
0.1634939275426426 
-0.05081182270142235 
0.004952783298988406 
0.01319211682621632 
0.03172450759665978 
0.03371516628086136 
-0.07604259648174949 
0.2090351322300047 
-0.0543553860875757 
0.002697134241221138 
-0.104556524331672 
0.02285497189496337 
-0.04040540906630349 
-0.1538188727264206 
-0.001699486859002916 
-0.02605878882159222 
0.1308812452217473 
-0.1360723549308971 
-0.01232669481955376 
0.2410590700153128 
-0.009802445094419276 
0.1923938846591055 
-0.0443575184118357 
0.06402620422982783 
0.09804520651829651 
0.06428993861992199 
0.0881398487255646 
-0.111018150288835 
0.07161212949221397 
-0.1770215548351804 
0.2724656764903831 
0.1224463952823754 
0.1581917863497327 
0.03481101393018733 
-0.1436110644548038 
-0.05653250807399806 
0.05983185107246524 
-0.0263885477408571 
0.1118387982128123 
0.08427985607346566 
-0.08082838884820288 
-0.07767918497188595 
-0.06259567943368606 
0.05194312923167795 
0.1566853582387657 
0.02020944489978954 
-0.1674560711377417 
0.168981437307232 
-0.2495661655412319 
0.002375836454828308 
-0.0413537754968434 
-0.04112927639189442 
-0.09408970407303932 
-0.00312647402025334 
-0.1250501206904467 
-0.1596118545235007 
-0.1760149974785978 
-0.1807949847538391 
-0.1283270606236071 
0.06122964149684766 
-0.04337342532171862 
0.01966149978664554 
-0.2617672883957867 
0.1167824369449039 
0.1120094119739526 
0.04925865385403817 
0.05507655790540175 
-0.007189467289346702 
-0.04899498615376988 
-0.1066370157494591 
-0.09042310734984046 
0.03861098352953631 
0.180528044983954 
0.1724511486144519 
0.04743805665255246 
0.1050418995702153 
-0.06672163178902775 
0.1618260444418274 
-0.113477239510154 
-0.2007141355418127 
-0.07636594353799728 
-0.06723040802551281 
0.02105800952169135 
-0.07485354309307499 
0.09732587242956134 
0.03717926833270596 
-0.02409453323260341 
0.1847818631944809 
0.01722061601604344 
-0.04514645213962904 
-0.06728507889335961 
-0.04959790583860253 
0.121742301699199 
-0.1148243232337364 
-0.1832975937075046 
0.05499080538981369 
0.08678759737728291 
0.01351699322582735 
0.04825946773440287 
-0.04200115382062924 
0.08777773104228169 
0.07807171521023726 
-0.171472469992771 
-0.03844462960345697 
-0.08906846345489865 
0.03280834919458376 
-0.00550705643098724 
0.001625259028692631 
0.0712171328206626 
-0.0268647422513865 
0.1011433554739339 
0.1383013319820645 
0.02140734175702805 
0.1960025434702226 
0.1272985009188685 
0.04675621834888063 
0.0585191088965232 
-0.04817263175391727 
-0.04062752670132689 
0.1442632289131427 
0.09635612446935343 
-0.0002801764728550456 
-0.1094752317602431 
0.1857945071087923 
-0.1265044846426774 
0.001109899532820525 
-0.2357037978258982 
0.05950690587393684 
0.1504166621177682 
-0.1392110523483698 
-0.06313337810288974 
-0.02115334183133465 
0.1043153575775712 
0.2403941231213327 
-0.1114495436748976 
-0.04042629874851852 
0.08124443287269864 
-0.1667172476569543 
0.02214865507886962 
-0.006072745093207858 
-0.2632450476593439 
-0.1204072401581165 
-0.2086664470718749 
0.03819255685366022 
-0.04519924033467177 
0.1013728219720581 
-0.1747712993245641 
-0.04659460610185651 
-0.009376918663732017 
0.186811824447854 
0.0007514212215970874 
-0.163017923486887 
0.0337974122683263 
0.13905077628629 
0.04573976747481848 
-0.01111214845195331 
0.1536336203445769 
-0.183805325415506 
-0.02936791256186955 
0.2116326951074056 
0.002116354173806627 
0.0872421203670747 
-0.07164946438372789 
-0.1449010357198582 
-0.02273964158891421 
0.03574232355393362 
-0.004736060002686418 
-0.09754890463533211 
0.109404734089243 
-0.1692575244964732 
-0.04981045459432831 
-0.1824912417167938 
0.1273238793071767 
0.03707686328948034 
0.02764366176698208 
-0.0777618366585577 
0.08100811021641459 
0.08196825921856585 
-0.1350706037265955 
-0.02828567473224529 
0.1249226573476131 
0.1636082397039112 
-0.1285064480926866 
-0.1503563257022343 
0.2192743749749274 
0.2094976614692673 
0.001159259126456789 
-0.04197402361463141 
0.244501148869637 
-0.1295404979791241 
-0.04621883260055425 
0.03537386854082906 
0.004422988689041242 
0.1049536650081912 
-0.1226168125773844 
-0.2164830448583104 
-0.001616570809352766 
0.1735307482075936 
-0.01181799313204566 
-0.08577397453433572 
-0.136602796849934 
0.06626525758553538 
-0.04211744768614493 
-0.02234361420530489 
-0.1110126580081447 
-0.01592278287918347 
0.1289649434045005 
0.0266299090026107 
0.04585044894402535 
-0.02788713251835967 
0.07346212451313956 
-0.08569815269962548 
-0.06863125993545295 
-0.1466339649482431 
0.03000966497783438 
-0.003742110190016765 
0.1831025924522975 
0.1206093462271531 
0.01943016621207757 
-0.06481593376555971 
0.03914343191192881 
-0.0522765886370143 
0.02082187125219065 
-0.136268882949464 
0.03387971739776984 
-0.05946451094910912 
-0.02644598486859386 
0.09498708422168907 
-0.01879422382546744 
-0.008790683009401746 
0.02850608184102977 
0.05417423607546373 
-0.03725863567827278 
-0.06633551696649363 
-0.2334424601538545 
-0.1427125191513557 
-0.02388962120173013 
-0.01398907751074246 
-0.1462081512166868 
-0.1123078497112246 
0.1279903635006558 
-0.1381867763650739 
0.08809779784947701 
-0.1450215482577228 
-0.1218181019740894 
0.1621966026954488 
