solver_type L2R_L2LOSS_SVC_DUAL
nr_class 2
label -1 1
nr_feature 3780
bias 1
w
-0.001776132663006594 
-0.06775964421941327 
-0.04652933838259904 
0.1547636108534275 
-0.1331655050457214 
0.1665867341502274 
-0.1046350100818993 
0.03103314083411053 
-0.05203314033218443 
-0.02904515341736306 
0.07312827596592361 
-0.009746745166935284 
-0.03623171897331023 
-0.1860377876139448 
0.01163566141794149 
-0.02023266361400778 
-0.04216403335852843 
-0.06002900438792439 
0.003742016945587308 
0.02028861286634426 
-0.02755286023406749 
0.07733584304394503 
-0.03327466605661281 
0.05275340302798296 
-0.148803792118002 
0.06600683279598211 
-0.03726822637677907 
-0.04330080888951434 
-0.004398904590182372 
-0.08638322663820616 
-0.02507205830973689 
-0.04277980209170038 
-0.02638206715492914 
-0.02552415460900297 
0.04716844976158287 
-0.003093640033983166 
-0.05183319639810923 
0.07844663050015394 
-0.01605804305787639 
0.08124195929260235 
0.01506971319858676 
0.03937444465138067 
-0.1267606404234514 
0.01757128632525116 
-0.07820234803010677 
-0.03626446079657866 
-0.03176303175399781 
-0.08697438038303441 
-0.1138983380238359 
-0.1262396301427589 
-0.08206297344778894 
0.02624651851182068 
-0.01321789960833882 
-0.02205806688826484 
0.0214280791831115 
0.0241601243110812 
-0.07415110153397368 
-0.00979484000504844 
-0.06338772794254136 
0.03888680623140611 
-0.09414376685575253 
0.0465785842527531 
-0.01232325851679943 
-0.08033093549652091 
0.03369061334019777 
0.01081991653644114 
-0.04606863076158383 
-0.1003170503321393 
-0.008786165590479142 
0.0685691035819448 
0.01975589496001767 
-0.09537441142645581 
0.001974568002838261 
-0.08859770372282769 
-0.07538002823718359 
0.05991747571365722 
0.0148124936096131 
0.05675093691978444 
-0.08685153144247158 
0.05026798758356413 
-0.02608072105002748 
-0.05805415103812729 
-0.03233279197833902 
0.08270140100620527 
0.03289635627820078 
-0.1099081281916982 
-0.04081520505820471 
-0.05417205632672784 
-0.05887604492212212 
-0.0603258425068566 
0.06032112780948969 
0.052209150706816 
-0.05168474553464528 
0.08823298882412815 
-0.04280203891892907 
0.06651575955026683 
-0.06072512084315172 
0.02570743759610798 
0.0561664729119862 
0.02070167506995838 
0.089393276991019 
0.07908756878487376 
-0.04064254507863425 
-0.1595322537920063 
-0.004126873380508695 
-0.004503985790796396 
-0.05435186948643821 
-0.08565836321613729 
-0.01101157632928225 
0.0367267921268111 
-0.03833424606161779 
0.2161517407515907 
-0.07858006944293378 
0.1174390064961826 
-0.02087329620135012 
0.09943452613226339 
-0.01810709881480153 
-0.01686309484511926 
0.02562677604050734 
-0.05093501116535652 
0.02084013917537302 
-0.2045385284722252 
-0.03817219597778864 
0.02030606386476981 
-0.00677069207729282 
-0.1937580268970849 
-0.01584839214831761 
0.03055553617614694 
-0.08572771452360718 
0.06645595214896385 
-0.06844513113114747 
0.04129010303805963 
-0.04211422181806061 
0.09121431452815015 
-0.03990696551921823 
-0.04993718969927692 
0.007102894041820959 
-0.04932291595235174 
0.06547563428519275 
-0.0913297261510357 
-0.03172606778596677 
0.001659681317240651 
0.05925862647268199 
-0.123384592926179 
-0.003085480572535788 
0.04322539597029119 
-0.03798947755362936 
0.09309628521091672 
0.002174445303336472 
0.0507811801745507 
-0.05709625988345915 
-0.018151512390587 
-0.04580685447655918 
-0.09172634832394572 
0.1231599495150376 
0.01443434390593985 
0.1662796176371471 
0.01051253428661944 
-0.02306086400786189 
-0.03155036890817744 
0.02032605366335689 
-0.01224357626579975 
0.07108959447453826 
0.01897299820255578 
-0.128894897959639 
-0.02068870258608518 
0.002554208387930157 
0.04235594893488973 
-0.02300178245980829 
-0.02890503628552051 
0.02142544384601876 
-0.0973840904993508 
0.02950917789407458 
-0.05420351003554833 
-0.05258815209541727 
-0.1061093832109903 
-0.004139151419116686 
-0.1039445872249944 
-0.1027219500235055 
-0.05674526815594761 
-0.07613474566456835 
0.009688741710266379 
-0.02760975622358234 
0.0501238258382234 
0.0476793883370412 
0.07515900000350688 
-0.02699999843307643 
0.04853731556491862 
-0.01558074881390209 
-0.09193481622381851 
-0.03861984807462843 
0.046523748206816 
0.03836575314312079 
-0.07788175792933165 
-0.007131073647379034 
0.01212899352835642 
0.02703147380380447 
-0.09150074049837288 
0.05953724833722623 
0.01456311567474218 
-0.06415613103639024 
-0.03378482703559618 
-0.09730084080444634 
0.06248169674360579 
-0.122876595796948 
0.02005141787673698 
-0.01226660657498581 
-0.03469699666400672 
-0.08271068496410416 
-0.05208689922241905 
-0.09240980383847551 
-0.1096622573131522 
0.001290302867650481 
0.003460423428524695 
0.0007325387938093449 
-0.04617952351834776 
-0.06896869504302244 
0.07081194968139798 
-0.05573538610179146 
0.05138753169075298 
-0.0534513779124664 
0.1373674636323447 
-0.1072467744442162 
-0.03272531383971772 
-0.09069210284876772 
0.03030283386609286 
0.00372600908718644 
-0.116615201298191 
0.02194751189674161 
-0.0458003201425915 
0.0419964033680531 
-0.01469704358999943 
-0.02530392018563724 
-0.0534347406361589 
-0.07326103387323289 
0.05501680512443558 
-0.1070961556272089 
0.04298962580521608 
-0.04765352942443586 
-0.02577061242375377 
-0.1399846820921406 
0.1298303147504455 
0.01044537204603461 
-0.07657834413557979 
-0.002209074601081242 
-0.05940085197932055 
0.06991786677436149 
-0.05669255698865511 
-0.01225641034557236 
-0.05286116397926494 
0.1149652103447532 
-0.06288412941196027 
-0.007448984939450773 
-0.04910541110748216 
-0.03357735986365339 
-0.01246513038279803 
-0.08409819162761188 
0.1061001973442803 
-0.05720042609998334 
0.05233563361831796 
0.004854945986332458 
0.0169012674883288 
-0.0222151652628799 
-0.04569212170010187 
-0.08103577976333795 
0.009203226342301687 
-0.0477850249606365 
-0.05569603564182151 
-0.01510478992013313 
-0.02313767282787944 
0.0268213475457525 
-0.0231764328291528 
-0.07743719348307111 
0.08467662288248157 
-0.05164118118774694 
0.06427319757782911 
0.01597139858591804 
0.04079097336049554 
0.01617483859408088 
-0.05611458053647115 
-0.031178890060511 
-0.04043183361384151 
0.01508732016490177 
-0.03745054934535278 
-0.01637938521578623 
-0.05622608293846535 
0.01928516158177893 
-0.1006799946433369 
0.05766250538974867 
0.0239517717460682 
-0.01887165268324641 
0.07456536030823854 
-0.1028901637980208 
0.06682146258366267 
0.009054457028689395 
-0.01712403791918058 
-0.02073689524455851 
0.05047117408341607 
0.09696201391413875 
0.01054467236733027 
0.01365346118201323 
-0.06342068745587336 
0.008831972304961373 
-0.0408848184144282 
-0.02818214946762682 
-0.006333514528582313 
-0.01141353686558791 
-0.07571132159964079 
-0.1111942115403799 
-0.001020712601607674 
-0.05373732736853053 
0.01648251053935634 
-0.02076676939461043 
0.06161803552735019 
0.02413706769604589 
0.02009406782578871 
-0.05822383053607882 
-0.005719040121730719 
0.009183709583204519 
-0.03937859301599621 
-0.01491630181112004 
0.01438934782798578 
-0.02408792390874277 
0.06811359900496983 
-0.006310817986096846 
-0.1044102518363466 
0.06841284120417888 
0.1534985506365213 
0.01254417759677523 
0.1195562711449219 
-0.07230718191534004 
0.1243209196455521 
0.1114407526192065 
-0.07474213475364001 
-0.06207489170183851 
0.06941214375301029 
0.0892168920081186 
-0.1125285226953131 
-0.08411019011375108 
-0.04576586875601576 
-0.008716322668448184 
-0.03214569855976089 
-0.02899743738455743 
-0.1496249190720426 
-0.004772247524379132 
0.05758979995722387 
0.05100369848430612 
-0.1443974687481863 
-0.2208052657282054 
0.06105392937909122 
0.1913890945121842 
-0.141240157941144 
-0.2077706408206138 
-0.0337951623399798 
0.06023540055390814 
-0.008838996320501532 
-0.09946120913090625 
-0.08402836373800601 
0.01648114277996479 
-0.1687723909559284 
0.07207913522135911 
-0.1863283736388871 
-0.1015450459889254 
0.07153340044831202 
0.1360059907950129 
-0.01854299900489479 
-0.177696692326742 
-0.006534562485029928 
0.1002472801313313 
0.08465123637145233 
-0.1302465965982532 
-0.08897601046929465 
0.04205525940688044 
0.0466152076454146 
-0.1110549479999845 
-0.05654368501273969 
-0.03087870030675073 
-0.04911427552899452 
0.2095445113682275 
0.07632118153369911 
-0.1424298124940487 
-0.1142127716755772 
0.1630916534042042 
0.1707722708275684 
-0.02440903797014212 
-0.09264427689246768 
0.007713175692528472 
0.07901239712137915 
0.01124510799658874 
-0.04974791473900776 
-0.08403161587939748 
0.05675048495750617 
0.006851436914997372 
-0.02906331060966371 
-0.1010120407102207 
-0.0139318275695592 
0.09767851820089143 
0.04339155449682493 
-0.1025048472156588 
-0.1307443966897497 
0.1129004493462473 
0.1592149631517454 
-0.1018392843719104 
-0.188661095197155 
-0.03422881928999754 
0.0788208317651411 
0.07613573023860683 
-0.06783505181375346 
-0.2052484990095153 
-0.06243621715906421 
-0.1038669479027075 
-0.08985558170888538 
-0.1251153231968555 
-0.05190628927387487 
0.06382929108073118 
0.08782467295563923 
-0.05730176789464015 
0.02204461017585177 
0.02714080659900324 
0.1644887497776741 
0.05711265924066896 
0.05755017133600367 
0.06532963490118107 
-0.02960179540583524 
0.1117921943197516 
-0.004763423428953886 
-0.04659785911714654 
-0.08415467457690631 
-0.02157414127279594 
0.02330906961509374 
0.02773582556483347 
-0.1631823061665305 
0.007651603732330908 
-0.08142600246542218 
-0.02458010041663516 
0.04293320930000451 
0.006672873955395622 
0.05832022763502997 
0.02386180243970023 
-0.0248821468633777 
-0.05669613638216509 
-0.03621510064700293 
-0.008203993468984006 
-0.03359375440492587 
0.01172593760496576 
-0.02011989455995509 
0.0560718902517706 
0.09356196374417682 
0.02088210733191248 
-0.07553182214873903 
0.003415217768535384 
0.09326939881200259 
0.033744489988277 
0.05791412532744539 
0.00498182993181351 
0.04732685056126953 
-0.01692215121599214 
0.06419159816333482 
0.004845391595073343 
-0.05192150854181646 
3.133487894498079e-05 
0.05467148331622103 
-0.01155304287214617 
0.01855399055514076 
0.003928155905694806 
-0.02300037041270752 
-0.01913328920026512 
-0.04765053452848356 
0.05678345270989665 
0.00808315123286325 
-0.02739322280206636 
0.01073153600914766 
0.02038523744409886 
0.03480497260452062 
-0.03783163531767804 
-0.006673028987074007 
-0.02048614044676659 
-0.06860037382447606 
0.03261398603396083 
-0.08474282608137876 
-0.05895043424576256 
-0.09613502622774951 
0.03441506702984935 
0.05009965802509968 
-0.1477146640508447 
-0.01940026136773415 
-0.0900141890998948 
-0.005536543909062107 
-0.02134964343569637 
-0.0212715070069096 
-0.0006964895285917868 
0.08414366191145628 
0.04202253026587305 
0.09909981043911667 
0.0133978428449675 
-0.09158827584994397 
-0.05500242022767967 
-0.04083312229206981 
-0.01980176341659468 
-0.09089439746744117 
-0.03171575039110466 
-0.01240540457908148 
-0.05077040884568172 
-0.02395660145524507 
-0.02128835447558387 
-0.07561691532406377 
-0.04305176440858893 
-0.1098903232754376 
-0.03430745447853063 
0.0003357244740924259 
-0.04324568549918237 
-0.01745180013456634 
0.03269930726447267 
0.02227097143988911 
0.01417651813396685 
-0.03904925723119877 
-0.096891722490123 
-0.06764240547174789 
-0.03156854262115828 
0.01137175727355874 
-0.02510558091402796 
0.0004335816774751698 
-0.01232996092336035 
-0.04869701369437913 
0.03345818077106189 
0.1171564155022303 
0.01699548796710352 
0.06085917929219447 
-0.02800271534964913 
0.07727643897239324 
-0.0213100871396616 
0.06241522973102921 
-0.01631090330931228 
0.01916723987999732 
0.00603108082898317 
-0.007838291236139079 
-0.001392877301168922 
-0.03261671387843517 
0.01389827093758485 
0.02624053476856589 
-0.02047994736838244 
-0.07874406762939816 
0.02358752561483358 
0.007262404954939586 
-0.07564086947276426 
0.06312688237584892 
-0.1336077740858723 
0.004054662147153908 
-0.06924784988697599 
0.05200530488677631 
0.01881309621998999 
0.03930015722319328 
-0.02553471462393709 
-0.03928679808073898 
0.02881854288852466 
-0.006709983155077352 
-0.04948706958087663 
-0.07521002547551796 
0.06862705054484754 
-0.1016638193600732 
-0.06118076532151261 
-0.08232178450745134 
-0.01418477739830565 
0.1283369601130859 
-0.05909989195644741 
-0.09186049579606329 
-0.01701578782375859 
0.1272966480335265 
0.01403099344389467 
-0.04006721671555184 
-0.03923272332489052 
0.01166070709446275 
0.06837577902370048 
-0.06495717843361437 
-0.07206461296283072 
0.00366797349005865 
-0.07252315188245649 
-0.07506315345260127 
0.09744908153845307 
-0.0141097310991554 
-0.05577900419734073 
0.1318191224351031 
0.005202301032873202 
-0.02824903235400941 
-0.1141303726209621 
0.08618523891135199 
-0.0180311828877291 
0.1136113238056417 
-0.01062712505212275 
0.006141925459553041 
-0.00858612627876539 
-0.0193545581834473 
0.003378263272826757 
-0.1045918790384026 
-0.008565748197733872 
0.02239910667799444 
0.04628267241597706 
-0.06467382338230818 
-0.06581833607334302 
-0.06662366187659781 
-0.02214575490263404 
0.008751521510348723 
-0.1953206003014247 
0.06214553360265866 
-0.06987686613675012 
0.1571785272264861 
-0.1736901824169158 
-0.02410654525228232 
-0.02086123632393308 
-0.05795498774500563 
-0.09350062011412479 
-0.2969772985061581 
0.05379691342849143 
-0.002739948535498131 
0.0757017362186507 
-0.07093482581529292 
-0.04014261511001349 
-0.05517994340894937 
0.05041044728874287 
0.02734963665121103 
-0.188218895152065 
0.05521370198241405 
-0.04859555515371192 
0.1339810449430759 
-0.1188253095337457 
0.04978143058358522 
-0.02716938954736066 
0.02334298566862797 
-0.06979790849191493 
-0.06753301626801263 
-0.08949602637575307 
-0.008424021985783891 
0.05455880826933349 
-0.02322104497593111 
-0.04774272315097132 
-0.05830266156251977 
0.1763894608048367 
-0.04675805575573593 
-0.04392635629883242 
-0.04160078920778808 
-0.05470789791680306 
0.1380375028600177 
0.02901255154585002 
0.07671092959418158 
-0.1489722927647298 
0.07146741018498326 
-0.05694878091889347 
0.04839310450491467 
-0.1281939610682714 
0.05719123754735767 
0.05875125345215539 
-0.02744274394438162 
-0.1304113044634722 
-0.1608501394855918 
0.08978416317136187 
-0.04682997467091728 
-0.1073857369951434 
-0.1316980916704536 
-0.06812120433516124 
0.0460595335671615 
-0.04006591030110936 
-0.08112132261010455 
-0.2951362852231438 
0.0006134564358660975 
-0.1313463303749543 
0.01386809863531119 
0.002988272930351109 
0.06413956205843478 
-0.03144949832827178 
-0.06757532413762699 
-0.1035842141328928 
-0.04791779000785758 
0.03227735102830863 
0.1038630625593132 
0.0530795917573969 
-0.01309979773425433 
0.0808347516264014 
0.01510739574911202 
0.07814016127141606 
0.02333947646574595 
-0.08590946832891369 
0.05510293190508262 
-0.08125824361804458 
0.0586813600338008 
-0.01660813377563978 
-0.1314266104040097 
-0.07771324723955786 
0.02938280237693523 
0.02597041687204479 
-0.0008760563539345244 
-0.01586055212370732 
-0.02373089562616826 
0.05649782082638727 
-0.02512854536327091 
-0.04674532051763614 
-0.04785279221482766 
0.09170596877109979 
0.003224696796717235 
-0.06216736647936504 
-0.03966376103929331 
0.02486787380261362 
0.08290127627091166 
-0.08786320244649429 
-0.003038516992928908 
-0.1065958726769564 
-0.03006006671388855 
0.004952728431032572 
0.01681473388924982 
-0.1082969993224937 
-0.02147516540511533 
0.002305411629126029 
-0.03357917234350575 
-0.01032333157426765 
0.05143096949103993 
-0.02338808671635688 
-0.01613236460964941 
-0.08968365860470376 
-0.05007174181212069 
0.0391409841080735 
-0.05567046048233749 
-0.009202141810232838 
0.05028226796865212 
-0.03624073936022008 
-0.06183713711133795 
-0.01207643529488514 
0.04458197810565132 
-0.02232108617274719 
-0.02693907248468344 
0.06389311467755912 
0.0004125463615439343 
0.02295437311922935 
-0.004537667070113611 
-0.06583219980813228 
-0.04280530991870487 
-0.02462449801588643 
0.02516806503606264 
-0.01797541544757856 
0.02174935511298561 
0.01510346438473609 
-0.07474928579149612 
-0.09139168406891858 
-0.0214495855298099 
-0.08951895944902895 
0.006602716244119124 
-0.03255837764052155 
0.04315424965899592 
0.0148865756402146 
-0.02224467253668203 
-0.0677325129687332 
-0.03073268034327768 
-0.07438907925273323 
0.0360512027737776 
-0.03126241281150715 
-0.05182450353580724 
-0.03196236143346338 
-0.04933694221441223 
-0.04628103116393945 
-0.01472033961166199 
-0.00498605319249451 
-0.007164959655770186 
0.00103218765710031 
0.0407047694030891 
0.01362240435994891 
0.02613245680002611 
-0.002555143866523682 
0.02215055616167033 
0.03754201122981343 
0.02396074075112915 
0.01998933207476681 
0.005154999556253387 
0.02054707221118234 
-0.0163673720883755 
-0.04654221659404065 
0.005978197564728352 
-0.03380462909148527 
-0.003869499371608524 
-0.01106178683493986 
-0.06380235769026581 
-0.0177371072451687 
-0.02550365509330749 
-0.01893944512616619 
0.02029258017242991 
0.08389342514351411 
-0.04401887104455736 
0.07095466138800542 
0.0380496288259665 
0.01238655142264852 
0.06287904443104664 
0.02365349185957764 
-0.03781068373687419 
-0.06049434445299972 
0.04191631219533925 
0.01365657266897771 
0.02558140169939457 
0.04630458437049872 
0.0247248473860244 
-0.002887423355785989 
-0.02532103344301415 
0.08334208102595636 
0.05984232715012181 
-0.008918648971302968 
-0.02121900555143613 
0.08565086458054198 
0.1069588022672171 
0.04393483234396124 
0.008180183262983986 
-0.02988112690859355 
0.01805083835984514 
-0.05070185687172547 
0.0409318074015704 
0.02266712246187033 
-0.09900812390561964 
-0.01118561048601895 
-0.02184252204380122 
0.09978645346346451 
-0.1273989796445004 
-0.1197889827682299 
0.009303642537720338 
0.0322616247637572 
-0.05118955615707148 
-0.02691045880482805 
0.03407026775003717 
0.03885252930160824 
-0.01752111616108519 
-0.1428964374875295 
-0.03329374508276049 
-0.1183376986571955 
0.1394955685163794 
-0.1307888035425436 
-0.2400236078254949 
0.1057683367052307 
0.03123080938286329 
0.08715838446041545 
-0.2155678156666413 
-0.02619461015726455 
0.09427106234163984 
0.01289537406403454 
-0.06689037713484121 
-0.1342304063456264 
0.09974380649738027 
0.1651867372336049 
0.0440634989804985 
-0.1413758913291658 
0.1317954080277998 
0.02427878659990132 
0.2068590801472586 
-0.04725166892584814 
-0.2395895868827132 
0.09187897580396989 
-0.1843899803171567 
0.1649506003203471 
-0.1760783761308419 
-0.05507061042643409 
0.07816859760856293 
-0.09017103685474495 
0.1172435554055124 
-0.04934932955110895 
0.1678018984622826 
-0.01366828842950456 
0.1836131150756662 
-0.09052915270164355 
0.04166683696217779 
-0.08085085493563064 
0.1821070594760011 
-0.05299505934155329 
-0.1585498396229363 
-0.04782696528800939 
-0.1668913478592525 
0.206439861883479 
-0.1251273128533591 
0.07510980364790072 
-0.06699276116513629 
-0.005060053565445142 
0.1196232653592217 
-0.05598463799913696 
0.01143296446212723 
0.003043702601305257 
0.2519352729459651 
-0.02566645415383752 
0.02245796354762705 
-0.07122697618685078 
0.2179039538013675 
0.07017956029679577 
-0.1245722072035888 
-0.06981215372795974 
-0.2222000712582053 
0.04144104536669332 
-0.141181836230902 
0.02074192349758348 
-0.09416130107150571 
0.01328246084748317 
0.1546426586065717 
-0.06878992008293754 
0.04792346388921574 
0.0100871566644503 
0.3042757804764969 
-0.06793542987070181 
0.00521876715953873 
-0.03140641228075192 
0.2089233057998543 
0.06163882311637151 
0.01470936029508963 
-0.05963629198965487 
-0.292848363735368 
-0.05191905267999362 
-0.1818835243658784 
0.1153536311630251 
-0.1940108581987284 
-0.01756785482883556 
0.1459769414618703 
0.06005523625812357 
0.1285238639093518 
-0.08659577786889359 
0.2704173912776751 
-0.02373345779013589 
0.08096509881904287 
-0.1669373767408054 
0.05180919534497023 
0.1214574638952308 
0.1670419339861336 
-0.07899920357149709 
-0.2485462225105074 
-0.0006521185064109199 
-0.05467404685501048 
0.1286605135654004 
-0.1541038297846833 
-0.03420913163538847 
0.155293151291246 
0.1261464866706247 
0.07305240396214102 
-0.1320537904063576 
0.1189909030624237 
0.02759990347443062 
0.09792282168447372 
-0.05616474553378514 
-0.08534467381002281 
0.01486149740146661 
-0.03120547920773951 
-0.1374091798358825 
-0.05558244804978838 
0.06272187202156571 
-0.06261794384175134 
0.003438634386909967 
-0.0904179476530233 
-0.04061994492776706 
0.05265523442601408 
0.05179886508060911 
0.01349955371361141 
-0.06015913737351978 
0.05279433533649312 
0.0265086817921282 
-0.04555636379847907 
-0.1443419686633732 
-0.01982905157918261 
0.03566064907949094 
0.1389978244610059 
0.08981644180247957 
-0.01666442938941284 
-0.01441656422882232 
-0.006429967937903792 
0.03633760704224241 
0.1490758781174888 
0.06951039265826754 
0.05616965486989967 
0.05055412770556995 
0.06557030376423569 
-0.02019147378620531 
-0.03165781556013639 
0.06084361914879845 
-0.04054484771214346 
0.09329624260872445 
-0.03206864043070645 
-0.02011488006441459 
-0.01396622574694483 
0.04378068202096664 
0.0006515606704859101 
-0.02909363296449149 
0.02933168178091381 
0.004829604823218069 
0.03841735037983445 
-0.01026410070012183 
0.0324629955364579 
0.001812817218561279 
0.113974756179582 
0.05809117326545502 
0.05536715348000991 
0.04765789696845996 
-0.04457032302931811 
-0.04341792793584432 
-0.05025756896139783 
-0.01496600702818681 
-0.02331848577474324 
-0.03417992291020171 
-0.08059960795268907 
-0.009997737912695105 
-0.01099354187988769 
-0.0237242731457176 
0.04308498386622047 
-0.03870235996318997 
-0.08028254730120622 
-0.04529540045840894 
0.09273868563356807 
0.02964002567458255 
0.047760132978565 
-0.00141985319323951 
0.01819800634759589 
0.02364850137873249 
0.0682756783000075 
-0.06049468280722659 
-0.02601648811641805 
-0.05836282099987526 
-0.06713446322630584 
-0.01504105721830267 
0.1064255709606703 
-0.03384761587740546 
-0.05268905200753665 
-0.03730907114435872 
0.04680031331815633 
0.1249054764583638 
0.01591451665703728 
0.07278958028528654 
-0.02920681458326615 
0.1103871815603598 
-0.03316535958868556 
-0.02585533253693202 
-0.03931873233030948 
-0.03923144812806371 
0.07550746163293071 
-0.06220976085611281 
-0.09362531425192892 
-0.04885536048960504 
0.05356663266923586 
-0.06940762756391844 
-0.003760824685791934 
0.01211433057645061 
0.01035384984524876 
-0.01414393303741457 
0.01647862972212535 
-0.07285507114866005 
0.08215634195470539 
0.02596418875493851 
-0.008591608239653992 
-0.00869970775752071 
0.07148010972818652 
-0.04182664247892214 
0.06869002395547301 
0.09254148771123392 
0.02667289543172224 
-0.05963816266624514 
0.03032493857546665 
0.03385840786276929 
-0.04617774078437232 
-0.0341166310138656 
-0.03638695842706282 
0.07240442772575675 
0.1184205979733042 
0.1193063284388914 
-0.056749968245451 
-0.03145301910113757 
-0.01069836149789862 
0.04193937426925835 
0.04731427955793029 
-0.1494301500327753 
0.04230063925127441 
0.02633065849790967 
0.02829359085400302 
-0.04253450124789487 
-0.06948290666183431 
0.06894598715861221 
-0.05893911751442518 
0.0216677786083999 
-0.05136403377559479 
0.1020151134227382 
0.0621119192301352 
0.0228656386759498 
-0.06579131338678794 
0.04081839873432729 
-0.06054153361379344 
-0.01803820010143867 
0.1605402853371797 
-0.1652505966489606 
-0.1593265588002753 
-0.05111392873229428 
-0.07177950267650057 
0.001379856401540584 
-0.0938044552574573 
0.1896122526592035 
0.01820616932139101 
-0.02817179499464333 
0.01608020542960702 
-0.01691778804194021 
0.004998963408235552 
-0.06516580106103916 
-0.04574636605916286 
-0.03166227926289155 
0.0924266092226347 
-0.001303628039487446 
0.03217797882455796 
-0.03622129352488549 
0.0161929546811208 
0.06271588442524625 
-0.2869959711507089 
0.02506074820131439 
0.01474426308045376 
0.1778509387598837 
-0.05821492781708891 
0.106389787713151 
-0.006845232201688948 
0.07722342409457943 
0.01654942032189578 
-0.01378690607466094 
-0.04417113126157703 
0.007220349899485451 
0.09263983831332315 
0.09345215727887533 
0.1330162527294445 
-0.1294470672799879 
-0.08939322867636526 
0.01197709728187888 
-0.2423016013813699 
0.0675070090439578 
0.09381677600291326 
0.1562073590440892 
0.04217807264792457 
0.02036879068503661 
-0.07485857006105408 
0.006414227777276694 
0.02357009082560515 
-0.02490080068092985 
0.1204090781514267 
0.08008250840760775 
0.06771264428941443 
0.03341304967535744 
0.06051480782041481 
-0.1759960263372603 
-0.1414359240635829 
0.047043867810319 
-0.123211803417168 
0.003108265914314743 
-0.02155019867066137 
0.1109462263947357 
0.1380394603111176 
0.1497924197532554 
0.00214038133119674 
-0.02882430324066612 
0.02556935542302668 
-0.03652316697326525 
0.02763958029967956 
0.01031555528619158 
0.05765440186889928 
0.05004391173689696 
0.1046716759062236 
-0.1105006564798433 
-0.0959068273900872 
0.08651031273450226 
-0.1250642687757706 
-0.004765807954800258 
-0.06321056104179232 
0.08488916874954332 
0.07674395632227515 
-0.001863279996460054 
0.03793804210039865 
0.04089448949104733 
0.1699352325928599 
0.03336054562593448 
0.06802019199659579 
0.04766209746745191 
0.1230959080414613 
0.02184004562140995 
-0.04120401944043953 
-0.02248473820059552 
-0.08317591489403685 
-0.04621821197225631 
-0.2374087782750636 
-0.05596120662475017 
-0.0536308817889618 
0.03438597588150157 
0.09930703581266198 
-0.04914163372985917 
-0.05416260401511928 
-0.002400052476921293 
0.05102017264039679 
-0.08265918223039291 
0.08377789276271259 
0.02759822012136964 
0.008658963984579923 
0.1014524296539843 
-0.07798278711691815 
-0.003249833953800712 
-0.02885190520651328 
0.09658598238282555 
-0.08502695784775048 
0.01721865103732672 
0.05157017252419741 
-0.01329568456950862 
0.001777866334968982 
-0.08430653259488179 
-0.01206986069194592 
-0.003566144319593043 
0.1102799938009962 
0.02103388071173617 
0.08564968452412748 
0.105616150062812 
-0.09339638299492684 
0.09728869580964365 
-0.03717712025946859 
0.03873253903486933 
0.119241361112153 
0.04015938142324815 
-0.0005279219325102461 
-0.1065360248732822 
0.04759178843641858 
0.01752451609600269 
0.1266647973922848 
0.03064892473444434 
0.0478577359034623 
0.1293150931644411 
0.1638046734658621 
8.225256107541594e-05 
-0.1443385888838625 
0.02428324761820325 
-0.05902724037790977 
0.1066986746141389 
-0.07360233666115543 
-0.00434228706145466 
-0.08347941936658512 
-0.03102025589530781 
0.05547247123448042 
0.06229866281059027 
0.08787925226739339 
-0.1056122341155431 
-0.03543470646170606 
-0.02131241391674654 
0.07650207286864272 
-0.04883391272690996 
0.07284430994360987 
0.03599388754865673 
0.03979049512411466 
0.1012914940908876 
-0.05744628467323021 
0.05289409187426893 
0.03663047954554827 
-0.07111460269121933 
-0.01032755819601732 
-0.05334422571071858 
-0.01515744565279232 
-0.04419257937576431 
-0.05507215936747423 
-0.03390555025491532 
0.03202369009760951 
0.09940075792268813 
0.07234662781407658 
0.07447119573278051 
0.09104548894207019 
0.08845909799217187 
-0.04151301523557429 
-0.05053909593676474 
-0.05093137972627904 
0.05603422252745524 
0.004027202131632204 
0.08659558150358405 
-0.02648811173603115 
0.03671350544535888 
0.01026317158095382 
-0.03301622149277747 
0.06090692398805943 
-0.04007045367430461 
0.01992159651274236 
-0.03820934410638178 
0.05296099625465205 
0.03939989970007882 
-0.0147464956577565 
0.02302924815703974 
0.02234138038292217 
0.03732692720174747 
-0.004735122394934317 
0.03870369396873468 
-0.02720215064318475 
-0.01030506650483317 
-0.04759693494645121 
-0.1260318437860101 
-0.08847907937681351 
-0.001459793569719371 
-0.01633783855926002 
-0.06871490125065731 
-0.01440933705113022 
0.01579797826040216 
-0.01774861327834877 
0.02392986866213064 
-0.04079460541340522 
-0.03718557066465306 
0.05040474613769618 
0.03625110878974883 
-0.04676204372146422 
0.09480881190056445 
-0.04396457289379797 
-0.06450597655449648 
0.001156466143083961 
0.01939267875175008 
0.05592757799794465 
-0.07916864946576121 
-0.02483084147488388 
-0.004118577865437564 
0.03569284349272106 
-0.038099775583914 
-0.03775519866251083 
0.0727988547950655 
0.06818800267539643 
0.05673810360737715 
0.01105820443721996 
0.1054807844993499 
-0.008577144156267202 
0.07823143145015353 
0.03506197197714769 
-0.01485826962835771 
-0.02341921301995283 
-0.01185080236867555 
-0.01810841241542082 
0.04506507547651637 
-0.05979324595720395 
-0.008049173717918748 
-0.1100258440451998 
0.07545485475851037 
0.06110722983555118 
-0.02161092827767662 
0.04484834873154716 
0.03463510654531532 
0.0378365853562128 
-0.09379594007592668 
0.07697914246584227 
0.02202351747739234 
0.06947093983912016 
-0.02548726029938127 
-0.08295943083179165 
0.04482579429212291 
-0.07250378851466349 
-0.02691528147984522 
-0.1524960606985257 
0.1077435396200015 
-0.07629525435665967 
-0.08741460399545098 
-0.05788125928137071 
-0.04403060965329871 
0.0537593190726125 
-0.03113211086106263 
0.02298645165910341 
-0.1483954967912303 
0.003444312099674071 
-0.06703261894079639 
-0.03289607711218902 
0.01665520550088517 
0.1059612949031078 
0.02896539378224839 
-0.1004286651632063 
-0.1160745907709096 
-0.08958852325627482 
0.1052915357422368 
0.08193406634628679 
0.01452404772181032 
0.01182197440276972 
0.1309905991333345 
0.09582211577831004 
-0.08520263140378942 
-0.03383112323755341 
-0.08491750293455153 
0.09412029932996807 
0.03310699766500744 
0.01401806217844074 
0.04272352090975694 
-0.0006419422346840883 
0.04655750855256473 
-0.03215451247697928 
0.01335289780493161 
-0.1187421076968657 
0.007753326139744966 
0.005960853382629012 
0.005185656178523124 
0.07028348978536808 
-0.00583155775810227 
0.01421702365192958 
0.02191258646873994 
0.1340674643344169 
0.00913278995258901 
0.1042137496601395 
-0.02091430444569493 
0.01819953532810725 
-0.002153975343342134 
-0.02856238592530335 
0.05416966620523547 
-0.0735987157879326 
0.06977639238036587 
0.005482086128807642 
0.05381332278798132 
-0.1468061811386075 
-0.04843579199783104 
0.05802836836596977 
-0.03990913104791987 
0.001806554780513321 
-0.04732455404359295 
0.1293237509056284 
-0.01221013883957535 
0.04694412054641476 
0.07913681761152273 
0.09304082585280553 
-0.05631503937919568 
-0.04348582413173132 
0.1760797870793118 
-0.0371182676206535 
0.02602033238130971 
0.02978231188869238 
0.1223588914482787 
-0.01542987061767269 
-0.09817761018639858 
-0.01125886180264569 
0.01844334769556088 
0.1410107259458856 
0.004162783718755891 
0.01854010988313083 
0.0236776848565253 
0.07315665242968317 
0.06723058635399637 
-0.1222470355528638 
-0.01613847820550373 
-0.03261956718412721 
0.05505477499777849 
-0.1416662115530076 
0.08181272670868503 
-0.09283277443533607 
-0.0158286912593185 
0.01045662077115447 
-0.06226944521847413 
0.01345311824783248 
0.03281866136140914 
0.01788301949412191 
-0.1836561407523561 
0.03846156924756992 
-0.06050758456496184 
-0.02370609134109861 
-0.02950116595026961 
-0.1211886394927171 
0.04154500911505998 
-0.1052566410927922 
0.02404195443409224 
0.01288129535483339 
-0.001574476197535947 
0.005272572148585849 
-0.03965752964580151 
-0.0165654416669078 
-0.009100144671968863 
0.1069707099080361 
-0.01322484079146544 
0.0221068245404969 
0.06935611526003604 
0.1011801970977006 
0.01741601701198051 
0.1031257011871638 
-0.0243081887428516 
-0.06624958880393832 
-0.0358951653483934 
0.02631705593766142 
0.0235595227402972 
-0.04022295319014417 
-0.1101129967677366 
-0.06712790919513403 
-0.04919264118430314 
-0.002303909832091536 
-0.07793943531336252 
-0.009854429773062251 
0.1115244343642751 
0.00573942444981241 
0.03915499139540449 
-0.01283092903493165 
0.07647177295783236 
0.003274284966422143 
0.07083235231158191 
0.008028173340887759 
0.05203136396197371 
-0.1875534488523673 
-0.05565158706173409 
0.03240317488120064 
-0.04173283667202222 
0.04240675766666245 
-0.04623528286956002 
0.003997979303876889 
0.06969856177909937 
0.002174157261596947 
-0.05086328229725839 
-0.07626479894710099 
0.045246758812811 
-0.03030822133356589 
0.1202620470326318 
-0.03857369540777455 
0.03150562485151642 
0.06951893508771924 
-0.01460994152635843 
0.01746544625197829 
0.02631676830903186 
0.1137457525385819 
0.01264135076242653 
-0.03675557806836958 
-0.03381049589155934 
0.07364228219668391 
0.01229489506218324 
-0.08342179782095871 
0.07012347543819789 
0.002609343115871797 
0.09625556847446587 
0.01551350563090955 
-0.0386580247151144 
0.005238591773233672 
0.0201899297144904 
0.1441626929056224 
-0.01174032326184802 
-0.001851467809161195 
-0.01016307595645004 
0.02335392752908773 
-0.05938953575832424 
-0.01123731647423084 
0.01922212570642879 
0.003457811980388881 
-0.009124341451778498 
0.07407242336592661 
0.04715171977717988 
-0.05904116772246941 
0.009489484380122796 
0.03035503546013406 
0.1129549407597569 
-0.08098874207065657 
-0.008401873349797806 
-0.01346476792689266 
0.004112208265247709 
0.06920888342836595 
-0.02831795728885043 
0.01841480703041401 
0.02169827842449408 
-0.001516273442274283 
-0.08836381396007839 
0.02118144352796547 
-0.04636798952390494 
0.01091858885855921 
0.02751384652682928 
-0.0207961577847421 
0.01052171847940881 
0.08562903910984908 
0.03306844866904238 
-0.07713355886535629 
0.1014080661661 
0.01206223102577146 
-0.007138172571539125 
0.02732037859927772 
0.08671572061587646 
-0.002731029038542573 
-0.04224188385544009 
0.07038992657174871 
-0.00221607281450462 
-0.004337337507124049 
0.04124223324271709 
0.01046030054420691 
0.0434657860690856 
0.1219177287797972 
0.07699496231226831 
0.01380563270021071 
0.06693284632734614 
-0.01663645020884486 
-0.01089521839491765 
0.02115143067610291 
-0.005945994357756556 
-0.06479611412755472 
-0.08552534635507922 
-0.009819989477339463 
-0.02952837604969853 
-0.1314788518679084 
-0.003642908901578124 
-0.01837598554040493 
0.05636218353188202 
-0.05253450986084397 
0.08307830873314763 
0.08406852276516422 
0.01560919286445786 
-0.01445538143843855 
0.003131394857470558 
0.09026570157677043 
-0.002578437114191972 
0.003547025859107109 
-0.06129504636066378 
-0.06398348485022622 
-0.05042806648301979 
0.001029434062437774 
-0.08247010359039945 
-0.2105418789253471 
0.07417065397388681 
-0.09278934830529995 
-0.03645258905905602 
-0.04179528904954613 
0.1225404742641769 
0.07946410510382966 
0.02248016069977011 
-0.024514177474501 
-0.08485295633749798 
0.1211844883659077 
-0.05193429809780088 
0.04166945628630554 
-0.04411642279093569 
0.07421733982256419 
0.0464423661083344 
-0.01865654705383017 
0.0008198177273553013 
-0.06206682418781686 
0.06704226494015862 
-0.02419641574987395 
-0.03287479383007073 
0.01723757095618237 
0.1513999902071165 
0.1358318753058554 
0.02214291040997126 
0.03371585575014229 
-0.01741266466438448 
0.1534363560970309 
-0.02567315705969658 
0.06303558210699375 
0.08553966610320013 
-0.1070403165832104 
-0.03295379436124615 
0.03813222669888829 
0.1641782442378684 
0.007348610063004154 
0.004807373063021578 
-0.00862749228466729 
0.03146967125340861 
0.1120899865458576 
0.02674850298517501 
0.002173804184057506 
0.02663032852278967 
0.1027178885273374 
-0.02601733248019001 
-0.0006997649009747547 
-0.1150296751694193 
0.1307367604055116 
0.07998671746366717 
-0.08989485927133077 
-0.01588411709393684 
-0.01738620591720027 
0.1024151714486801 
-0.0711070996451024 
0.02781812278809407 
0.03739059621596637 
0.1130474942826107 
0.081893719189715 
0.01696067767253601 
0.01922725621382585 
0.04050978532951679 
0.1549296057108691 
0.002495118691738789 
-0.01788806332581443 
-0.0298093427694956 
0.03626137485406346 
0.02246446987800527 
-0.03489698048600811 
0.0939661697087477 
-0.0208006152870021 
-0.08921282493700784 
-0.04798713511143399 
0.03781237307331092 
0.07479207010306711 
-0.1018595417628987 
-0.006894871067832427 
0.1039331215218025 
0.1971960142861984 
-0.005950905946559471 
-0.008661100738281349 
0.07738357642318097 
0.03818935064107659 
0.07965414457925335 
-0.1033370674546307 
0.008656737671499338 
-0.03454003978361131 
0.0006498408749967498 
-0.1341504991912138 
0.04961995286114632 
-0.06374286185603426 
0.006280090786908916 
-0.01567663109549816 
-0.1289672162716357 
0.03227968269763333 
0.03352280022774518 
0.09945657241408265 
-0.02104427268606158 
0.02452033069393281 
-0.1515948147309629 
0.03154393219499069 
0.02122306349279401 
-0.1507369548226027 
0.04463114626542058 
-0.1525948523814922 
-0.04211202248752844 
-0.03410739017755495 
0.04666069839208015 
-0.02636808308206011 
-0.002226787652869737 
-0.04165710535699837 
-0.07550091552738797 
-0.01174073297541715 
-0.0385609003933526 
0.04855705255421608 
0.06592801240145922 
-0.04187874929850276 
-0.02902432410995298 
0.05968560494007051 
-0.0294951963741847 
-0.006583216493936307 
-0.02984835118091484 
0.01630136078549443 
-0.0606723121310291 
-0.03953515838136373 
-0.03305507912552332 
-0.03926248384975955 
-0.04568899176928268 
-0.002968474480814035 
0.02711449595760439 
-0.02335033351039675 
0.07708853747337419 
-0.002997302907941215 
0.04175610172984631 
-0.02255937644733788 
0.02705064418873653 
0.009376073187456901 
0.05065372515833483 
0.01251660230671517 
-0.04753620711054602 
-0.07232909178166559 
-0.04825243184382097 
0.02099410224512346 
0.01634600065756067 
0.01397272748029482 
-0.02598272739561379 
-0.04918800303739639 
-0.001415775322082557 
-0.006015222256411244 
0.01727414752770564 
-0.03334300513763513 
-0.0003461951160633194 
0.01462606867259802 
0.1015519257822704 
0.02481424319856995 
-0.05027405401972105 
0.07273831737788966 
-0.1049693921275239 
0.1385100986308365 
-0.01220083812197404 
0.03150455337912286 
-0.005009422783514571 
-0.04097792868128428 
0.03741767433549247 
-0.02922129370602473 
0.02594128757993085 
-0.03381373052291049 
0.07307373598979063 
-0.0107536089893139 
0.03658913306715734 
0.07580985335125201 
-0.0543387710336938 
0.002201976340992218 
0.04547851211059669 
0.07548112559647552 
0.1085228752465762 
-0.05120291716525894 
-0.0153092196805264 
-0.04961919915582882 
-0.01852225172738819 
-0.02259096610076863 
-0.049200569451781 
0.0743887654286837 
0.0007392344404791435 
0.07856793655538108 
0.04060836498250996 
0.02257704627337389 
-0.01566314276424474 
0.01523989394191729 
0.03990563335309052 
0.05420817441907508 
-0.02855145796527265 
-0.02917108815297141 
0.08217286939012468 
-0.04329360507526694 
0.003564015560192817 
-0.05775791920347176 
0.1153798707717528 
-0.06891505881462577 
-0.0244799182644855 
0.03447243304014695 
-0.0141535918422522 
0.04691130252406782 
-0.01853857236918737 
0.04285562466126631 
0.009827857378390792 
-0.002690892305710944 
-0.0280060866818041 
0.04206854380207965 
0.004008936275368163 
0.0003819192270850364 
-0.03569372484917559 
-0.05835730459010022 
0.06390263128637316 
-0.009730831732976947 
-0.008592255509107125 
-0.0120987573976678 
0.01259082230493622 
0.01535481458564869 
-0.06232893215351117 
-0.01638708878415454 
0.01762749075203536 
0.02321417962057044 
-0.0003301987224683628 
0.007043168482156345 
0.03717407823360029 
0.06200782476000655 
-0.02496818633195661 
-0.09278481998822555 
-0.06981800665005848 
-0.0383719328528513 
-0.05591307536157342 
-0.02888249634452347 
-0.02438266716545835 
-0.01905707299358531 
0.009238298755794485 
-0.028963699048705 
-0.03565008103051966 
-0.006434831796680754 
0.01392296593150249 
-0.04509473829745868 
0.01357950731539263 
-0.05161571369998118 
-0.06099897753059407 
-0.0342195499354348 
-0.006323862342109203 
-0.03416193648442223 
-0.1985899064044859 
-0.09063857319421757 
-0.05359053059048651 
-0.04352246490844414 
-0.09149525848812372 
-0.1354554951940693 
-0.04747448935828474 
-0.06915974946515534 
0.003237049951159892 
-0.1314138686182163 
0.04607428654904067 
0.01192355388729437 
0.0284145775415257 
-0.03459070742833215 
0.06138925893706966 
0.005669830449500193 
-0.1041547479267856 
-0.01121346382759621 
-0.04014901758025512 
0.01564262472660993 
0.03380499857673348 
-0.02876899903659673 
0.07016580216907986 
0.00485117626463106 
0.1219009900633646 
0.004822145995482428 
0.02014282306115539 
0.04456019586125653 
0.1416768100293392 
0.09538423764418157 
0.09326085409816291 
0.07647548989917244 
-0.02669323930827251 
0.1046256665105203 
0.01656444011567967 
-0.03675957927566676 
0.03678621573156755 
-0.1065016909203009 
-0.07827350983567856 
-0.01183007811038469 
0.08658369075523736 
-0.06796596920887071 
-0.04120866076496474 
-0.03849321211851809 
0.08620234783173646 
0.0846186855223735 
0.03108365481010781 
0.02039563796598552 
0.07919402764453268 
0.1474626630546411 
-0.00351573571129722 
-0.04466650832792936 
-0.05194933131925009 
0.05915376320987323 
0.08250133999361253 
-0.1410379922322732 
-0.08051635938361873 
0.01587491444376075 
0.1861387931303062 
-0.06505323555167636 
-0.07055439261872376 
-0.05731818417526478 
0.07689089727727129 
0.1618828330357887 
-0.05000413934915634 
-0.03205391513801614 
0.0505971596896418 
0.07712926324018195 
-0.08473358915900839 
-0.08504022369645771 
-0.02170256689480409 
0.1148344158845715 
0.06459296978310083 
-0.009838853081360186 
0.07513419205431768 
-0.03973149786286901 
-8.552714311326519e-05 
0.04946766769861319 
0.07021369312820137 
0.04810459843081088 
-0.04304425650619437 
0.1093862067745264 
0.05682433681765036 
0.1255459387058509 
0.05279922198940924 
-0.06981220812364063 
0.07333542715017433 
0.08964374826753975 
0.04586612343392837 
0.06445881992433655 
-0.02661065769962354 
0.00828292749477324 
-0.03847395460963479 
-0.08172185354944002 
0.01602321574355566 
-0.03800007467107708 
0.03700736818662064 
0.02335670908934913 
-0.1712341516189443 
0.03559204269003526 
-0.01002502900480515 
0.02591750524657375 
-0.06938996594186213 
-0.06802144923743605 
-0.04346759543910303 
-0.03318645465997121 
0.09315267146651003 
-0.004527393117366177 
-0.01309611626905752 
-0.04268112248118595 
-0.07749555757838764 
-0.03557980715389096 
-0.0984432961738657 
0.06178780605033281 
0.002116235933143012 
-0.03727485596814286 
-0.1048113736005514 
0.05944129342858618 
-0.02497860095743936 
-0.007046541425198468 
0.0263961438101241 
-0.05121937891847532 
0.01229873940988544 
-0.09960768899482023 
-0.03175589842563396 
0.01541570900125443 
-0.05465766682267253 
0.02455255037413015 
-0.005826586088142526 
0.03141471068908943 
-0.03369561176704167 
-0.02399564546927185 
0.07851847744360146 
0.0250874062468163 
0.02403804777827607 
-0.01286880320761553 
0.107603731513158 
0.01652031140190368 
-0.00442865170149215 
0.05456815903381203 
-0.02977784041421172 
0.0142365997151186 
0.1003160016803283 
-0.03634525378435425 
-0.02240674887647499 
-0.03291049963469118 
-0.01458132147339102 
-0.04513648170183419 
0.05029960391741419 
-0.1066240323870533 
-0.04329856730003465 
-0.08442119596254784 
0.007457537265661804 
-0.05687761321015124 
0.09552617952365197 
0.0336018643485459 
-0.04807138859062074 
0.01492174708471037 
-0.05691964005547381 
-0.02513119648778592 
0.05479666538820813 
-0.02391788921926185 
-0.07574118582443599 
0.05160930723029866 
-0.07976191681277875 
-0.01069893283601209 
0.0839312455528293 
0.02172810374168373 
0.01746705564239787 
0.02271369519275189 
0.03124721356751525 
-0.01949552380248849 
0.03520018917729015 
0.01287227817816991 
0.05235785821856428 
0.03623587675418335 
-0.002865393380471282 
-0.04884450334443307 
0.01031169478458941 
-0.002614905150479544 
0.06044731236491366 
-0.02610596135566819 
-0.07887072995376322 
-0.04190610872806336 
0.01540958519469719 
-0.01659184827777411 
-0.01681382437664998 
-0.0645020697071943 
-0.006769816136477444 
0.002731913131770631 
0.0765169970467828 
0.05366593814031928 
0.04597241302920192 
0.02933923606486997 
0.08554499868180813 
-0.02665606489683284 
-0.03765996450659686 
-0.02729707791143825 
0.00839148755123887 
-0.06628740219161194 
-0.02535749962143479 
-0.01295421043798276 
-0.06542944845978689 
0.02721294168550615 
0.06202955668761589 
-0.0533373292563655 
-0.002203004948144297 
0.03813529916616654 
0.0163899204993677 
0.01471177744437829 
-0.01150430692586292 
0.06593904138761461 
0.01565429802104732 
-0.007837326659664894 
0.06545216371069863 
0.05845019618347178 
-0.03987096033195681 
0.02579560576342653 
0.05343885247718461 
0.005531082639406338 
-0.05235472347274585 
0.0612064257917803 
0.03201445595742035 
-0.01847208551054749 
-0.05433947247383084 
-0.01998960685664158 
0.06973919061422955 
0.04686007101064277 
0.03163180151302539 
-0.007803340981737995 
0.08585767521130187 
2.788206836959493e-05 
0.08151835872616527 
0.03390007765175404 
0.008220177140729422 
0.01811190219187183 
-0.08682822650834489 
-0.02368974383758057 
-0.005520584740171883 
-0.03648861191476801 
-0.1220800704947331 
-0.07930708392444011 
0.02244500630143052 
0.008478927379780675 
0.03797840544630313 
-0.02079122009545094 
0.006431027088098348 
0.09711943392788551 
-0.004217774779265153 
-0.1046853210501812 
-0.06359591158766111 
0.0102807796211564 
-0.0833837452680037 
0.08718814872907206 
-0.03369199853393352 
-0.06062818743665729 
-0.01043381343257967 
-0.0366909849677115 
0.009247088214781136 
-0.1184544335118651 
0.03535491690869613 
0.01035941087649371 
0.08235282252607139 
0.01168213008240151 
0.03212784905494013 
0.0655554765484396 
0.0660124623625841 
0.02698269752133366 
-0.03521896388067013 
0.004253782239274639 
0.01388389994681481 
0.134873036779623 
0.04785798539841187 
0.03651901359911039 
-0.02300619247950206 
0.001147549603194242 
0.1960915154547993 
0.05478111918254892 
-0.06935255015218478 
-0.08106489319952147 
0.09423064347707291 
0.02323260614567274 
0.03050681941754594 
-0.09199802697198312 
-0.04091435115362364 
0.04236543008445794 
0.09658941785391922 
0.009286575848147611 
0.1171995566064385 
0.03133985553776843 
-0.06819722328931832 
0.02523909707419845 
0.04307466609239084 
-0.05614033337672997 
0.05292124105392669 
-0.0298965600724114 
0.02711466601338105 
-0.01899619920662706 
0.03082179624753369 
0.08435860389046893 
0.08014166881174845 
-0.01035864713605255 
-0.06430081774187128 
0.04570842793663457 
-0.08154421295382477 
0.05421890095961283 
0.1000574558476615 
-0.06566131074922736 
-0.09524423366801592 
0.01835460877658277 
0.05326022030373045 
-0.06268894247575496 
0.04453422774705168 
0.007876263557136403 
0.0206255413298309 
0.1083078684438586 
0.06110759686417764 
0.03863880735114067 
0.01286052783861793 
0.01201314995879292 
-0.08351094000891611 
-0.01084099398766983 
-0.01478575743827046 
-0.07736311487500563 
0.05946244674274432 
0.08599246194174429 
0.1188314229784852 
0.1007015236169902 
-0.07472057369231963 
-0.008107509607512227 
0.1733592444132106 
0.1697390486394876 
-0.08786039115515282 
0.05198140775695946 
0.1024851566686531 
0.1322493000671981 
0.08417976044255727 
-0.01914444686308234 
0.04178928254362801 
0.05215495744006125 
0.07580767447493471 
-0.1213916284359304 
-0.02161199568463866 
-0.01562429805010094 
0.018818937565931 
-0.02288289777050224 
-0.09139461788968158 
-0.09580117232224454 
-0.06259660642696017 
0.09461327758315261 
-0.04865139301119766 
0.001741488652733382 
0.02524890979409273 
0.05637105741178389 
0.01511100259882881 
0.02636661707200311 
-0.1050747977639955 
0.01639609762193772 
0.07893410833734811 
-0.0228672271278529 
-0.001124238987157888 
-0.1107366476847211 
-0.04716440483595566 
-0.004921607315827989 
-0.07052717817349338 
-0.06361831137565073 
-0.1635160197748646 
-0.07691899841926862 
0.0138944226340259 
0.05872562333831823 
-0.03283891453813829 
-0.003711805090650993 
0.05196668093637623 
-0.06808559735087973 
0.02136316582528536 
-0.145336251127011 
-0.09666693615198284 
0.1167345445893775 
0.008630815618486862 
0.06689453399345524 
-0.0004859206400555403 
0.02355097045849773 
-0.02257170867476724 
0.02698475415216488 
0.02584519764358156 
0.02262582343233254 
0.03254835236108459 
0.05635044593319078 
0.1068731629295223 
0.04137420103855383 
0.02825184393539949 
-0.01077943357603345 
0.0102061652883124 
0.07069638330328483 
0.04412575448412168 
0.02764714067933362 
-0.08534693479247984 
-0.03397026896904758 
-0.04077003709085801 
-0.01262269058678974 
0.05672804749630287 
-0.03689732600993113 
0.04408034171540585 
-0.02805184380741541 
-0.02028820782266305 
0.03952335066511335 
0.01867488731726262 
0.0314416380676495 
0.05017952060935749 
0.006836470537791294 
0.01942213134007548 
0.1070324972788699 
-0.06999887472105434 
-0.01510322088999067 
-0.02994914687634205 
0.03567973427960474 
-0.1156287327813045 
-0.009533467558080702 
0.04419748592736073 
-0.03764244494230536 
0.02683028108714152 
-0.06068744068994106 
0.03155341323031873 
0.009809106002472368 
-0.01176481890278564 
-0.04303626044949663 
0.01384969913175296 
-0.009632063921264755 
-0.01475671647301035 
0.0140971682631224 
0.06647714038300755 
0.09128190345044083 
-0.01113050028616977 
0.03822554710149755 
-0.01996821457997417 
0.08705174891649965 
0.02394175671586632 
0.008143110055556979 
-0.0177253138111566 
-0.00991749486452205 
-0.09651282130077392 
0.003397716803936291 
0.06322059880128371 
-0.03606730282296335 
0.0752876253145017 
0.001430718497714268 
0.02578828113702255 
0.09930349526045558 
0.0238552247362033 
-0.006676647441580728 
-0.07785492930979027 
-0.03029894197117671 
-0.02035860868789447 
-0.04833712305116923 
0.01082410664937727 
-0.01588027515242501 
-0.02432513039384133 
-0.04239962061403844 
-0.03288223690157432 
0.01881489534108643 
-0.0397506717991761 
-0.00445250413339256 
-0.03720165630461175 
0.005903360824596818 
0.00534849054373006 
0.04154578463338611 
-0.005292107508656923 
-0.02497974516925019 
0.002011424874396078 
0.05803497304843548 
0.07303974652308071 
-0.01160831656776884 
-0.04056355567610494 
0.008452129732496013 
-0.03050821664731944 
0.06118886070918721 
0.06822453745366168 
0.007812970116128453 
0.01533644828518095 
0.06495823702556373 
-0.02426077377269125 
0.07276617144765636 
-0.00473028555220339 
0.06976674419533187 
0.01114222534095375 
0.02217992504169 
0.02582014972491184 
-0.07687134295330003 
-0.001554856222674563 
-0.0133433014589765 
-0.003424804547209797 
-0.1072632641000182 
-0.04529528712776414 
0.07134693232217139 
0.0313068085535011 
0.04583743193656813 
-0.03559963159527904 
0.0002118018396871698 
0.01481393504718077 
0.05858075922783121 
0.01237647005058676 
0.06668106187820891 
0.05021536773890271 
0.1197153474518486 
0.01362983885147063 
-0.00366288100566864 
0.04404439856047732 
0.04227918124419801 
0.02748578512994869 
-0.008414938958344088 
0.01072530009523195 
0.1087887710226694 
0.006177033523527691 
-0.0845734156353386 
0.07917975251829372 
0.1278379995766788 
0.1232413010618877 
0.05023772372662137 
0.06413242451902988 
0.07115636814790792 
0.0413314362991932 
0.02574171314907915 
-0.1191078947063537 
0.06834888160530128 
-0.01004097877280035 
0.03533436324763285 
-0.02856795069566087 
0.02141898421863813 
0.1085124991251547 
0.05671774766764274 
-0.01591432828236978 
-0.1366459673846112 
0.07958716226443348 
0.1595106956188077 
0.03492708199968787 
-0.05063534584274026 
-0.1508893956090058 
0.1414428906914426 
0.04471017796080831 
0.02061758949264203 
0.06463713797450524 
-0.09195276566585549 
-0.05739362308155699 
0.03691691807715976 
-0.02654812844365894 
-0.06500485889369575 
0.07525800575265926 
-0.01065099706832142 
-0.0699808032168884 
0.01514193266328805 
-0.007282331694603336 
0.1353173284802292 
-0.03344076114132944 
-0.0867457214055276 
-0.1393751017465314 
0.03272070091500915 
-0.1073350688350698 
-0.1358744534234984 
0.1193487768723606 
-0.02347637659880984 
-0.09525311400229605 
0.009194817225655421 
-0.01527930536143654 
0.03151832230362027 
0.06215324747848212 
-0.0147894910460668 
-0.09691022720470281 
-0.03590612116063737 
0.06374999923673237 
0.07906517395279249 
-0.07283024309745975 
0.02215281551286348 
-0.1178718188893313 
0.005307242057751669 
-0.005066110762040004 
-0.00774878850672117 
0.08701678665652628 
0.09141525337596795 
0.04153395904648189 
0.05700578598220207 
-0.08557702988502684 
-0.04258660588643558 
0.04778761268167946 
0.06392153463050811 
-0.1345638175413361 
0.01631634407006953 
0.09126322977509362 
0.1582357891787635 
-0.125710305452143 
-0.02894970077683085 
0.01408626818966152 
0.143171943058805 
0.09248922030801583 
-0.07638666181674419 
0.007764148758852418 
0.08758382395805828 
0.03229062326320119 
0.001577413286864692 
-0.01609754527228559 
0.04813207300194445 
0.04039857276329101 
0.05900390934515281 
-0.1057317966735686 
0.03265245252474819 
0.116676298756525 
0.08501585080950778 
-0.04822722943269663 
-0.06151486706170848 
-0.03133683603166231 
0.02215183376401024 
0.08329816287207176 
-0.05569305480950888 
-0.004117001007397915 
-0.001322752505007922 
-0.08100005015352564 
-0.08090582222997145 
0.005872803909234196 
0.0811493345136351 
0.002972980769878401 
-0.00844625725179559 
-0.0002720071636126388 
0.0418078010143819 
-0.02656343313038349 
-0.0320130267944289 
-0.07342144125083712 
0.1119039638777162 
0.07956584187823448 
-0.02943748039622994 
-0.01875077934694446 
0.01584737946199221 
0.06660005439663275 
0.04063368316681745 
0.01241176473126912 
-0.02025898602773597 
0.02086159856895113 
0.05064887036399107 
-0.02231727685347321 
0.01458615663634729 
0.03633210332739864 
0.01047749412583601 
0.01561222532077506 
0.08031232305142214 
0.02119339643699004 
-0.0009257801809479565 
0.005207975133263251 
-0.01611789526452531 
0.02565584807448991 
0.03607948288483522 
-0.005250353757533021 
-0.0464368626999925 
-0.02674250986836543 
-0.01757759732638097 
0.01970046344328535 
-0.01210505604535398 
0.002221389142838292 
-0.03995254396985111 
-0.0802830822554552 
-0.04536646696398747 
0.01529823033910756 
0.03798112400931641 
0.03046403263785098 
-0.008246541171590212 
-0.03532992816141477 
-0.04797785960248333 
-0.006319057543358092 
0.003888128390387164 
-0.05349347939547002 
0.05210750021853505 
-0.01084645139354072 
0.03130664093386674 
0.01447280739222727 
-0.007787875764364199 
-0.05158457447268048 
-0.007225902383181948 
0.03206815430135813 
0.07613493418281575 
0.1008372848615961 
-0.006489527510298634 
0.1258996640970712 
0.00302306499469846 
0.006842340052562943 
0.03951216837243935 
0.06143628064102113 
0.01435414961488714 
0.01652763559211396 
0.07889074988363838 
-0.0752467446312392 
0.08261460274683544 
-0.003844766709284941 
-0.1104682532584111 
0.002794840843596797 
0.02191032880523485 
0.00515492466794569 
-0.01298801430401839 
0.03511629226324865 
0.07286877849663355 
0.04116495147452163 
0.08822091632193199 
0.06904899279430414 
-0.03384876287582553 
0.04250795971161854 
0.02045153599600481 
0.05266772924638487 
-0.04743943628291467 
-0.05561991924637559 
-0.03122620372071255 
0.05303345463135912 
-0.01338704009517521 
0.01719412248877249 
-0.1022091953814615 
-0.02428856734351707 
0.03376824930162653 
0.0204280927972471 
0.1039583386240105 
-0.08654611382965818 
0.04823152657495566 
-0.007138572392719326 
-0.03977707968648429 
0.02586652357144819 
0.004736007393166797 
0.0330871246570156 
0.01884345388976592 
0.0007277150487647787 
-0.008643751167009502 
0.1064507197483577 
-0.03499541489419489 
0.06411037366125016 
-0.004789278385490065 
0.006651685011724701 
0.07653160288654487 
0.09163156857827469 
0.09364570398735061 
-0.05966383494124557 
0.03708463265195229 
0.02744233525001445 
-0.02138036178126604 
0.05207539453239993 
0.1064639723763077 
0.0002786695851051391 
-0.07443750888909827 
-0.09422379911672406 
-0.09081039090978772 
-0.01882530505843363 
0.02287317011925475 
-0.004135689102264886 
-0.1309463188969756 
0.06469781149857805 
-0.02280459708075836 
-0.03624372878646778 
-0.0695955015496208 
-0.030225640153863 
0.06486882700632404 
-0.06019853602806222 
-0.02690835675143185 
0.03821261032825074 
0.03934765471209541 
-0.06237019102077722 
0.02740838755601559 
0.0748842391575594 
0.1078267203933223 
0.04183889272567416 
0.04789996935071585 
0.02548638242524949 
-0.07499054577817617 
0.007850619510195686 
0.017498710299547 
0.001225157496528112 
0.03698905058169166 
0.07288662287822943 
0.05458756951051481 
0.06284311206900184 
0.1095617578737752 
0.02820477671196581 
-0.06463272215688662 
0.0168588957100106 
-0.03112119566133353 
0.06122570469777506 
0.05574524182993995 
0.02662797088470054 
-0.04442394676556365 
0.1126842754608985 
-0.01350694730921183 
0.08314237931268939 
-0.04475335373668737 
0.0156404372916863 
0.09392449051061467 
0.0784734998245937 
-0.02814870646185422 
0.052362063882778 
0.08550163735419819 
0.02185027524044696 
0.01620671633182407 
0.08158699556654711 
-0.07217548278041643 
0.01645990374205784 
-0.001467334087611692 
0.01686403064764184 
-0.1378349663231996 
0.0239479841467293 
-0.03223497193379259 
-0.09549472034687363 
-0.02736888665811696 
-0.02057849533548009 
0.05694236499815924 
0.04262057656312766 
-0.04185312207952954 
-0.03017610849255479 
-0.005612684892368535 
-0.00645133970460487 
-0.1150318700669524 
0.02130805461513112 
-0.01070884798682702 
-0.0007442675817431981 
-0.03187473934765018 
0.005790224820159528 
-0.0835914716664498 
0.01147228946528165 
0.004557429616169179 
-0.05954400311683326 
0.01280044480170322 
0.02894440778646654 
0.09707732396301441 
-0.04166105020752471 
-0.1124536447473559 
-0.05526273669055344 
-0.006454113236901289 
0.06025996446217041 
-0.006075554856157067 
0.06877428272454551 
0.02590726449970896 
0.06480356973738838 
-0.06377399431158555 
0.06992220613848908 
-0.002850236358720955 
0.06659413228488166 
0.07655291147757043 
-0.01910281599064118 
0.05593937791226501 
0.05416521428355731 
0.08871502893024051 
-0.08252050846149041 
0.01309314000318834 
-0.09430859195214002 
0.01809437945299551 
0.09135950889580904 
-0.07761605325304304 
0.05680481706620029 
0.06550474770711033 
0.08279325872404621 
-0.06683970937270525 
0.007479733113420567 
-0.003533967722597947 
-0.0127134435920512 
0.04662037699275502 
0.01574966034927365 
0.08947151431313204 
0.1337607509306303 
0.06959969768223181 
0.01888510313365462 
-0.009715871098119512 
-0.0182226834032099 
0.04089606910117293 
0.0815868075470806 
0.0515903270609544 
0.07092244666104028 
-0.09242160671786545 
-0.02484380861760264 
-0.08482488189674828 
0.1446916464260649 
-0.01082461393597596 
-0.0612741287392552 
-0.06959104793112461 
0.006007378954989219 
0.01158260453686022 
-0.02433456753175733 
-0.06749721001735806 
-0.01640114873304438 
0.03899785733702087 
0.06230817933376886 
-0.03256338901608855 
-0.04755668884073566 
0.01568497354886725 
0.07536480451068946 
0.02726598140497911 
0.01574114047905512 
-0.004847129687389846 
-3.154437272770835e-05 
-0.01870374958100933 
-0.0001762687544887983 
0.003211398165557242 
-0.01169700965114178 
0.02376491259335559 
0.1345102495334158 
0.06285513891668172 
0.07590219329843224 
0.06863244486212547 
0.08381727918545442 
0.06256700415606332 
0.02019086264322323 
0.02659009562623672 
0.05976112850640622 
0.02750309674076144 
-0.06655428413133027 
0.01151140085167166 
0.02531349924577631 
-0.07492536582010988 
-0.03115708807894847 
-0.02182654907275616 
-0.003645333032256236 
-0.02907303465375746 
0.02404662782707854 
-0.004619362293622892 
0.001631542566739803 
0.02778699913834146 
-0.0135676017047652 
-0.1227263403183554 
-0.06333725306661417 
0.09283747739280526 
-0.01275399174989546 
0.08699207881534789 
-0.1005581597970912 
0.04091445307586511 
0.05125288200261672 
-0.008700494448264822 
0.0213397021679203 
-0.06206526754712109 
0.007335499394743001 
-0.01898996868572349 
0.04474771658733336 
-0.001745966589736003 
0.03164583511559734 
-0.0007251817163679036 
-0.03337077427418802 
-0.006062490222032311 
0.03402260674155164 
0.02395365384816426 
0.0009938098556387077 
-0.01735378416455177 
-0.001410325347342546 
0.008643849175068568 
-0.01145272705263579 
0.02397771162502696 
-0.07055478807527106 
0.02684242841867715 
0.006480546921803216 
0.01478504516993258 
0.09555205768215944 
-0.01107197404603564 
0.0445366969097616 
0.0477112412055091 
-0.01223652210782329 
0.06903793447372833 
-0.001572654644922687 
-0.0374386961362424 
-0.03970994923628644 
-0.07026974997338259 
-0.06929298185151662 
-0.02988192865543118 
0.0042717396919788 
-0.01566154659449442 
-0.01992206048783344 
-0.07747465575431872 
0.01595076063798926 
0.02282897884905491 
0.01289989086051932 
-0.03308880758778024 
0.07827574010483292 
0.05112518218649137 
0.05123757945610131 
-0.08355943673595573 
0.07919921615350486 
-0.02159815901666854 
-0.0398168273960585 
0.06290903938439447 
-0.04557038455987402 
-0.03622720989955506 
0.02951861015381344 
-0.05032011825023166 
0.005543620842427277 
0.01780813002417914 
0.02512685808342591 
-0.01277362016777391 
0.020415481675924 
0.01382870642317551 
0.1018597536836513 
0.1037814283129009 
0.0370934329831366 
0.09526763168393734 
0.1436811334370182 
0.08974467029147996 
0.03425704989151469 
-0.02039539699657943 
-0.04519607183103263 
0.004482222750914105 
0.02700002987365531 
-0.04841072941238581 
-0.0137595221048352 
-0.05356438212797456 
-0.002377841480915948 
-0.003418236154153154 
-0.01058172139623146 
-0.07566280376499077 
0.03849966466547058 
0.004702169117303007 
-0.04418349590461312 
-0.1058750542808686 
0.01307134818163763 
0.05580346262609992 
0.01142878414946235 
0.06360973007537545 
0.03789693676165174 
0.1177710558913244 
0.05772545808475944 
-0.003431536262800613 
0.08918667128824942 
0.1019184237637397 
-0.006361274563607127 
-0.02702443908820762 
0.135827564999646 
0.06306072144208581 
0.09116692609647864 
0.1208372156109942 
0.01064212779151396 
0.009717458309571545 
0.04155072479037515 
0.04404554933110246 
-0.02962460365215635 
0.07977674860446761 
0.04427513245046562 
0.01150274198690744 
0.03499294274017799 
-0.02121123991038721 
0.1180310529873948 
0.06783079300157813 
0.02551045607302344 
-0.1000861646576515 
0.1054126442859262 
0.05717370223607214 
0.02737790708908512 
-0.06371128677685967 
-0.03638510299645586 
0.02929511336286893 
0.09222598569732482 
-0.07423074236200253 
0.02368748717473316 
0.002566559707319095 
-0.02030735038986517 
0.02486117547440562 
-0.02759521269992839 
-0.04564097944843692 
0.09674174523081291 
0.1193152759618731 
-0.05963430404097678 
-0.06254239742537475 
0.07590309894563586 
0.03262353871218011 
0.06268655013542355 
-0.09409521414152011 
-0.02303111430921016 
0.03506041592769164 
0.05240285483425318 
-0.13551691544587 
0.05280440171992936 
0.02691521494540568 
0.01700878993749763 
0.03823572122121933 
-0.02144188828417981 
0.08522041292997488 
0.09308171376113124 
0.01533344387957728 
-0.04742437722906757 
0.0210181792074909 
0.05462812546903004 
0.007901486003482066 
0.09875744418279045 
0.005022727465534655 
-0.07505335212614153 
0.04587945162207354 
0.04837913570550008 
-0.1375168600430825 
0.06245479145326271 
0.0008193376551707142 
0.05042966400702949 
0.005379115534852301 
-0.03932610699911783 
-0.07329150911587415 
0.1000201450167515 
0.03332265095106379 
-0.0657258041658918 
0.03750882209927944 
0.01826920807778847 
0.04991795643385461 
-0.02530087635248081 
-0.003840158881459157 
-0.1338952454189122 
0.03034508282989749 
0.06885353494802628 
-0.140105007299218 
0.06002420174265166 
0.0932157868992958 
0.1002108629591673 
0.13153446878468 
-0.04525171993092229 
0.0588175394547183 
0.02189129109644172 
0.02520609380390582 
0.01156068371884469 
0.0690456823858205 
0.05822985512253848 
0.1108741269521356 
0.09187340353479284 
0.02187679572499834 
0.02572121811514293 
-0.03747033300347904 
0.01543429545939698 
0.0750047129948898 
0.03123127453209287 
-0.1065528740490096 
-0.03532450253415607 
-0.06682925459595947 
-0.0002080985706361595 
0.02885749338421102 
-0.03412062522322051 
-0.03045294026783997 
-0.07516902257611929 
0.02583405650575876 
-0.04740582127338933 
-0.0368791868373897 
-0.08415636707536936 
0.004890376788673213 
0.02645137079124176 
-0.001189107380970376 
-0.06471535372613241 
0.01205991597160685 
-0.002885313503799813 
0.04976908998442554 
-0.03581290721235451 
0.03303372145886972 
-0.002910698035533196 
0.02566095358192139 
0.1139126584163447 
-0.01963435425097403 
-0.01281354318537126 
0.06475317168989139 
0.07554855220597027 
0.03099967972606637 
-0.0172869505007763 
0.06244176663079699 
0.02965202959556005 
0.06454436802422109 
0.05979813355126785 
-0.01029178471935426 
-0.02356065132898721 
-0.0267447834569844 
-0.06606288994346132 
-0.03345617063408978 
-0.03256261632915895 
-0.06366675117318622 
-0.05301798069560946 
0.01484922664788136 
0.02364082349341271 
0.009438955877392756 
0.02908816097173634 
-0.04971829447104524 
0.04743528674212358 
-0.003943414107782721 
0.01216264263408376 
-0.06728489407567909 
-0.03246935663970636 
0.06253657796175759 
-0.04847385814600297 
-0.02455618153834016 
0.03762836397468084 
0.01978898535473199 
-0.02981718536130292 
-0.02341036024279722 
-0.01581655404875483 
-0.01659422702923485 
-0.03601299702219624 
0.05250641760550467 
0.07688309087245707 
0.02748224597733484 
0.08849461946598032 
0.005206239684470355 
-0.03302975414885865 
-0.00235350182037945 
0.05077261677959014 
0.1235088947410338 
-0.002661203916006103 
-0.08416259818470227 
-0.05310468249320975 
-0.02685882738230783 
0.03041504285923106 
-0.09071468833981999 
0.08540253968125444 
0.01555143052467357 
-0.06225647369822736 
0.10378297736949 
-0.093453768580826 
0.04513264050368821 
-0.03947611615640591 
0.08365642972226417 
0.02198819428182989 
0.03381770538512176 
0.004068933017034342 
0.02609432787130482 
0.00195173635905923 
-0.008385831784258897 
-0.06448149287414678 
-0.01137370856708794 
0.04525680264432457 
-0.06921415475743578 
-0.03776963174672772 
-0.1116920706532561 
-0.03263820073221565 
0.01094878262640047 
0.004047806837270919 
0.0567312811031933 
-0.04267429014524076 
0.1083899541317126 
0.05636859428052591 
0.01729563562125115 
-0.04168029493659252 
0.005454728105191407 
0.02168655573521474 
-0.004708760971975313 
0.01087547045967573 
0.05032221340891488 
0.03763157930860734 
-0.02915627367847386 
0.03748614095089553 
-0.001394445829452913 
0.0299672998485632 
0.004880662149340746 
0.02232171328872274 
0.1009303686354671 
-0.03744272824138591 
0.042453663091199 
0.1028447889027889 
0.0960870534805506 
0.04727089478899785 
0.02302842986047217 
-0.03667384747679491 
-0.05474226813682925 
-0.1579843347787167 
-0.03323455185500577 
-0.01305329348226066 
-0.04156813753861167 
-0.09789712076907015 
-0.1794856238799635 
-0.02439826759455839 
-0.01019001618867429 
-0.1914228082682602 
-0.07478108442396805 
-0.09016573178843662 
0.08949555926911068 
0.03043989731071889 
-0.03714140829692464 
-0.1407714512144607 
-0.04832508584845482 
-0.1042265556944228 
0.02612944579581842 
0.02675443693653323 
-0.03932696462487074 
0.06155836259697976 
-0.07598284310131072 
0.03993614701274641 
0.02534173953042739 
-0.04002382835693161 
0.02311698296025076 
0.02315442615672454 
0.1467232695934335 
0.04539519985658996 
0.09993396690203146 
0.1624788080630721 
0.09906190508486291 
0.01544230578412686 
0.05796110126533208 
-0.07441596989710049 
-0.09549712971096391 
-0.04781521411851453 
-0.03312872214070298 
-0.1104922304344352 
-0.1483371844151535 
-0.02958986965538253 
-0.03404048810458122 
-0.02668600140802449 
-0.104437048935874 
-0.0459813034912562 
-0.006224211420220726 
-0.05594440999590306 
0.001624507645753768 
0.01951974461824934 
-0.08024456069683152 
-0.04554688477489695 
0.05502078784944901 
-0.02501866549173508 
-0.08261592010810799 
0.004802397928006442 
0.05162786591706842 
-0.05140826797959144 
-0.06042814669394042 
0.02251776695996799 
0.01805206700148537 
0.01137709120907568 
-0.04070162975856116 
-0.01228866888136204 
0.01696834882158186 
-0.08822283165950455 
0.01590602381556059 
0.0195606174228835 
-0.02615895621717055 
-0.04340169029623663 
0.03185668253350215 
0.04163491966490422 
0.03946039400801973 
-0.03254771906999679 
0.01813098978693839 
0.02558979124171079 
0.007032658799502275 
0.07609450519710403 
-0.1171917690074252 
-0.03743484692952092 
-0.1174323956076919 
-0.06577115519595747 
0.06678457416839688 
-0.06624085959682585 
-0.04888775681904654 
0.07633353951247436 
-0.09896321150152398 
0.05103734033550748 
-0.04571155095050521 
-0.02499999849608129 
-0.02528182830132151 
-0.04554415611140732 
-0.1898208783629871 
0.02313621519387405 
-0.1191008467497453 
-0.04929943107313076 
-0.1514635677906919 
-0.0886896859622708 
0.01136051060125407 
-0.05074989728658694 
0.03642349039129956 
-0.1606849307902386 
0.01289747410484355 
0.0001888869944657992 
-0.135778310554608 
-0.0684313209209256 
0.05520421594032779 
0.03458708910247963 
-0.008603735185504171 
0.04660352087632848 
-0.008282978900450759 
-0.08508817277358982 
0.06488489237144748 
-0.01140916236274252 
-0.08503094430706552 
0.05771905138912763 
0.08077055151049824 
0.0907174183767176 
0.1258476205006653 
0.06170918348490025 
0.1010169372923074 
0.01075851045195627 
-0.02458440825370833 
0.1872899775300229 
0.1152337323973578 
-0.01083899892133299 
-0.08828451314403574 
-0.01194650430226274 
-0.1015707984908754 
0.05602476418932921 
-0.07744257964485042 
-0.07195000327517866 
-0.1140485198071305 
0.01940017852475259 
-0.01678990033371965 
-0.05689636069692776 
-0.04511985559118928 
-0.1851033307480689 
0.06385378318857618 
-0.08197685223943543 
-0.05438033996990749 
0.05443414150738477 
0.09767179102667001 
0.0009900778094939816 
0.02732093780188247 
0.04678899793106062 
0.01936608972866327 
0.02553719263281359 
-0.04177531828144547 
0.09288273168206618 
-0.008771660062135332 
-0.07540572676095514 
0.0401288717412018 
0.03068430543774655 
0.1617657329107824 
0.1073940642632757 
0.01104458430549589 
-0.00488083066468385 
0.06237026379655437 
0.1324952839557157 
0.05640280433848214 
-0.02104520878712698 
-0.02519243901110238 
-0.06499168576459645 
-0.03665918249467215 
-0.03149202356088276 
-0.1053664917716272 
-0.06578659639302607 
-0.05027965519357924 
0.003865132011334507 
0.0836657842965112 
-0.07340066936367161 
-0.02258680112930195 
-0.06130306349030269 
0.04776243865048069 
-0.022836560731655 
-0.06811020624867804 
-0.02060078190813005 
0.06580722512541101 
0.009534376684273852 
-0.01224050510165152 
-0.04453003489626109 
0.001380853478440686 
-0.008420362972372784 
-0.002769137908791327 
0.02705736781800008 
-0.1179246663066199 
0.01819568184539056 
-0.001429238623709865 
0.03462919570008945 
0.05272719125099191 
0.08405711195725461 
0.07816520653376419 
0.03504396375639983 
0.03555145248190333 
-0.01017395125163015 
0.07891913297331431 
-0.05462386477578823 
-0.05212371005904031 
0.05284176290249885 
0.03644719383943001 
-0.07728467062272076 
-0.05034408456804981 
-0.02498731806644385 
-0.0369307305405521 
-0.0187091565651563 
0.01424626210132488 
-0.03836461296230682 
0.005572205883265614 
0.05179354925492376 
0.02824019945420737 
0.03897553981238137 
-0.02982889056924674 
-0.01273353938210453 
0.07031721098757683 
-0.02982098156955875 
0.04225252990657784 
0.003199479010799968 
-0.03725593772518595 
-0.01665910106664644 
-0.08422409530801332 
-0.08783104652424409 
-0.05808805539275361 
-0.01346317939961676 
0.051729292810853 
-0.0523979333363624 
0.01950156953157306 
0.06435187557315877 
-0.04067843524788353 
0.01586692339540637 
-0.04328024911315984 
-0.02645573930862654 
0.06485632810911954 
0.004423068667818577 
0.03202082329771942 
0.05830410614031224 
-0.07488361030269683 
-0.05473631565570208 
-0.04459506287407062 
0.05870703484903041 
-0.07428488961382675 
-0.039135495709471 
0.0794913315545076 
-0.00585178603093559 
0.04082709582925451 
0.02444160389387243 
-0.1231845993681986 
0.06988592663056326 
0.04074442830740031 
0.0437135184297345 
0.05845013982934866 
0.04264143377294176 
-0.0688713060377535 
-0.101106301562758 
-0.05956089116245942 
-0.007886184703107198 
-0.04551150942211322 
0.006979767757603903 
-0.04718950347236504 
-0.02565772826096284 
0.04367192022640319 
-0.03662689923046217 
-0.06630402263302908 
0.04863305266122741 
0.01769005408997789 
0.06818276784002036 
-0.133229734510859 
-0.09090494490061882 
0.03080037092860217 
-0.0928684550834831 
-0.0685442387100408 
0.03665910516369297 
-0.007147800652305019 
-0.09190586115651407 
-0.01311046541173782 
0.03983570539234125 
-0.1070660600345433 
-0.1325988211726011 
0.1133503552841173 
0.007286573643222627 
-0.01064275516086569 
0.02017071938891731 
-0.0110485764227826 
0.1872922234842558 
-0.07012957510472685 
0.02448689445197805 
0.08408802974645131 
-0.0409557713746098 
-0.07233600172177301 
0.01268109242393863 
-0.08874706370091399 
-0.1367395880665383 
-0.1529247878377489 
-0.07109199353982458 
-0.1697554791667804 
-0.01810662272041098 
0.1219328031847627 
-0.04946145218341848 
0.05801964473917937 
0.02181693795422905 
0.01367979835276462 
0.1551995768793732 
-0.1640233361924779 
-0.04255648411076766 
0.2252820868511053 
-0.08363681542041658 
-0.1081207668768911 
-0.0006076239298898315 
-0.09846834086733636 
-0.07521968702523346 
-0.1526033233401834 
-0.07819446001133684 
-0.1700897507895131 
-0.04714490975697268 
0.09399707035605469 
0.08357942196528445 
0.08263841961113397 
0.04742952434226665 
0.1637840823887618 
0.205491064112899 
-0.1343006862985043 
0.04912545488685929 
0.153679285679909 
-0.1224267826641046 
-0.05409999730788932 
-0.05799086513818962 
-0.07578156755111688 
-0.1550902096587677 
-0.07420713207672022 
-0.05457712864331964 
-0.1430483387723172 
-0.08337570422452993 
0.07340391430695586 
-0.02442360861998644 
0.08277209366552497 
0.1073603787972653 
0.07704567025255082 
0.1672244055186539 
-0.15116418889108 
0.1153595389363606 
0.1132633430107731 
-0.1042229162700139 
-0.002108954852759878 
0.02414924590184292 
-0.1430741840399572 
-0.03753773572883966 
-0.113152003443499 
-0.1084643799202711 
-0.1969866741786513 
-0.06824236241510301 
0.01608688079453267 
0.01604412863391876 
0.05016711763553141 
0.06686746488696657 
0.1287160447499721 
0.172998979077776 
-0.1009748932531187 
0.05815866866242914 
0.09134250388891818 
-0.01878622588863374 
0.04554725227031621 
-0.02514964920375919 
0.006899534577173217 
-0.101642905225625 
-0.05489213126061752 
-0.05253622643457559 
0.03298355559354186 
-0.06102805725743273 
-0.01841310532180685 
-0.01358440910595205 
0.02431181599656275 
0.09553141582187623 
0.1512458625008789 
0.09225391777154351 
-0.004353927219056385 
0.1694153046709982 
0.06804727407363427 
-0.05437040321957991 
-0.07752442652359232 
-0.05181044271981427 
-0.06653853002850134 
-0.03112934586602603 
-0.04532570747665715 
-0.002707438055966546 
-0.04429715671229378 
0.009631042740492852 
0.007700780663658595 
0.01260833123673933 
-0.06176352912237227 
0.06562058094567907 
0.1091893720708578 
-0.03239858873202286 
-0.04751242396088529 
-0.02025793140925319 
-0.002307298890154949 
-0.04042240066736291 
-0.06242964970973211 
0.05070807921648258 
-0.006143411556421102 
-0.008790668597621464 
-0.04737052188841682 
0.06085995171930852 
0.1200636106261883 
0.006973009737710441 
-0.004353273003989683 
-0.02350578785543167 
0.05557021013984357 
0.07098576963063759 
0.06903016050746649 
0.09315345798113463 
0.009829983628646465 
0.02393116927069541 
-0.03189935667599148 
-0.01942816411240411 
-0.0435991488848065 
-0.05313681151887545 
-0.09004936843700223 
-0.04879123726974764 
-0.04807233145515893 
-0.04638833734341337 
-0.04858760946234854 
-0.0206490089274516 
0.02549419556198192 
-0.01497132488619125 
0.009910100698696927 
0.02466106118318457 
0.07004386980389415 
0.09329944019564694 
-0.08726211083913663 
-0.06371228125838242 
-0.001364544212162334 
-0.06371205419567413 
0.1699490791869608 
0.01351079403587221 
-0.03081318700115463 
-0.02078904186170978 
-0.05255306295449905 
-0.07910025021962691 
-0.0851223219114675 
-0.06804139090908802 
-0.008015205103866632 
-0.01190309790483517 
-0.01333287664213536 
-0.01315565946727607 
0.026371816742106 
0.03844276488259905 
-0.07827402476351832 
-0.04110776928124205 
0.02966697235540584 
-0.02031685512904223 
-0.02066526242412452 
0.02143682473652667 
-0.01461947143824819 
-0.03016137614729727 
0.01652992361892031 
0.02672882656317267 
-0.09791706592963872 
-0.05598024650163869 
0.01056452420104084 
-0.009652873894099046 
0.1217637362697852 
0.08487369276289961 
-0.09445476965720062 
0.02614271987615306 
0.008998346074184892 
0.07415735703869331 
-0.07963567164940483 
-0.04551322856034881 
-0.03435885235796798 
-0.04787396532632063 
-0.002951227807127046 
-0.03019713447604631 
0.006456236175976143 
-0.01991758086105171 
0.01573239287774791 
-0.08302831049219431 
-0.07247174705030697 
-0.02503808660042974 
0.00606201687883795 
0.04810861161745964 
-0.08033042269673009 
0.06960056864306421 
0.01283245551882581 
0.05575832539672272 
-0.03194328593144372 
0.03084679684454865 
0.01336588057208211 
-0.05067045678495252 
-0.048612883367822 
-0.1031503069119892 
0.0007570874790743254 
0.03580729612916972 
0.04475272286604033 
-0.03572661603387383 
0.09379848348417225 
0.03174534447822626 
0.01067183814821689 
0.07273252915071308 
-0.05557387818159071 
0.09872781849070322 
-0.002593667776047005 
0.03113336336732111 
0.01658356485064289 
-0.0278048357652481 
-0.04895861951862661 
-0.06067954626288425 
0.04252834485711245 
-0.05485829114273837 
-0.01268818289728234 
0.02663780342034882 
-0.07965283542954825 
-0.05511769763332106 
0.02687340213292374 
-0.02316991031425369 
0.003403133642203274 
0.1148760756518597 
-0.04030762149912519 
0.1012081309512387 
-0.05274289621907386 
-0.01950400790767456 
0.05663357987625448 
-0.03024180193185985 
-0.03286246316233494 
0.008525722032070087 
-0.01382923442286667 
-0.05024073754233305 
0.02097297573859046 
0.01946935694975788 
-0.02195743469774734 
-0.04980837862670998 
0.005427129448430659 
0.01371211455009553 
-0.03288124425957319 
0.003596527952426965 
-0.03959966522059154 
0.06582118448404618 
-0.02402047106500255 
-0.07781400318229782 
0.0660565220288372 
-0.01558171331592428 
-0.007156878792801244 
0.05729181134880907 
-0.06217574958841993 
-0.02462028700069919 
-0.02435511161275634 
0.1407336669555181 
-0.07281267516370085 
-0.02984037691301997 
-0.01995692455687607 
-0.03152328456288127 
0.02103872327874436 
0.07958446905345806 
0.03487600942466704 
0.08941315509527244 
-0.06078784496794531 
-0.02518273593813472 
0.03262417857478135 
-0.08002837803282914 
0.02010893727183361 
-0.02788151744113849 
-0.06203139103089418 
0.03829770065794246 
-0.1076681556430882 
0.03067764952401242 
-0.05543983194632184 
-0.1290936798924066 
-0.03392801365313022 
-0.01133658667887101 
0.0383757155372176 
0.04535627141189462 
0.05336944810884897 
0.1044715068422076 
-0.03681933228934614 
-0.02261535415780847 
-0.02591293969692083 
-0.009521253115921202 
0.1113430884461802 
0.02774347477361047 
0.01370118288750095 
-0.1028336428780919 
-0.09381682619877847 
0.06683970808371764 
-0.09283328114440634 
-0.02453143364381734 
0.06857679762581309 
0.07050027429687508 
-0.1073751897453098 
0.07989836875523916 
-0.007568325419621671 
0.05696993610693081 
-0.1027370231252334 
0.02376261688839807 
0.07248009766137763 
-0.06902452013557669 
0.0181311901767086 
0.04996874992246827 
-0.004974455738164607 
-0.04172262217108631 
-0.04042081089081351 
0.1040577581849924 
0.007819074065670879 
0.02363212125663249 
0.00218590844595578 
0.02599352174569636 
-0.04127646214290593 
0.07255696578714409 
-0.01016749988889972 
0.06506793256762465 
-0.1078156851585671 
0.02827518688961798 
-0.004177275786998402 
0.01474997894083445 
0.06153089452607399 
-0.02782021918471676 
-0.05185783896507168 
-0.05108256904624058 
-0.111024264619928 
0.02251778572878641 
-0.002684787132770011 
-0.06058905846194446 
0.01612746630824298 
0.03481559586310846 
-0.04062607161464298 
0.001843358944810382 
0.05177657371807379 
0.05274230503800781 
-0.109121790200414 
0.0803050729871272 
0.0312451622661032 
0.00310898299875685 
0.03352581004981123 
-0.0348878642288199 
0.06274114495640384 
0.004646563800645906 
-0.07813950944316196 
0.1154782998780435 
0.01826551963337825 
-0.0534722635066378 
0.0001400814227563482 
0.1215004876102328 
-0.04225785836368607 
0.02741334529021782 
0.04985231767849504 
0.08240438713872419 
-0.09993422662189952 
0.0149105205703454 
0.02769963212558702 
-0.01346669015273745 
-0.01418115472131482 
-0.04215237597573883 
0.06357960378585882 
-0.03047236611624941 
-0.06987914706485622 
0.03686093586305344 
0.004680217528691182 
-0.1028078777808894 
-0.0334648786439996 
-0.000595327812959893 
-0.1271435779477096 
0.003833991265684295 
-0.04126394993429486 
0.03893801753468785 
-0.05451330702772166 
0.03038959662930752 
0.001799404278538508 
0.01688877476146364 
-0.007446492968827583 
-0.03400015103104446 
0.06674278101167537 
-0.05856944401655364 
-0.05590822603139462 
0.008737635750293344 
0.05012530283896247 
-0.09350957414753748 
-0.04462951567522461 
0.01908960386288838 
-0.0004569784305917542 
0.1296261045740394 
-0.05986192827902046 
0.05674893986160741 
-0.01243012280668167 
0.06967802736429822 
-0.0396452255669013 
-0.002715150391692253 
0.03486369522812643 
-0.03935184631045537 
0.07994621101581023 
-0.04548552404402834 
-0.05228470040097823 
0.05658994380926735 
-0.05887887872335908 
-0.007485547359980983 
0.006585593423730214 
0.1099168262822965 
0.008975444198596669 
0.142152860017774 
-0.0559938447387361 
0.0482412366298784 
0.01192634272951171 
0.08341731736063682 
0.03391853988405343 
2.037134171457607 
