solver_type L2R_L2LOSS_SVC_DUAL
nr_class 2
label -1 1
nr_feature 6480
bias 1
w
-0.01709642591759761 
-0.06532336229710481 
-0.03560691545817957 
0.1345705828546718 
-0.05427660064956636 
0.0864315649519153 
-0.1216926212705193 
0.05601289143260917 
-0.01905454610923732 
-0.0425007261952583 
-0.00400648901081664 
-0.004286119600313006 
0.01239050710608072 
-0.03434739905002981 
0.05941648124831583 
-0.03825769367689686 
0.01232743581345564 
0.01025507809277499 
-0.01529709477879718 
0.02485027470573818 
-0.1414198242545937 
0.006246913536427474 
-0.1463682502236666 
0.08444249375417723 
-0.06870126686951258 
-0.04193390898868943 
-0.08269003561198883 
-0.0003287457171396022 
-0.005114229658202564 
-0.04000263000833942 
0.0307911618856418 
-0.1294855841102485 
-0.03444924820232432 
-0.09396930376553331 
-0.01851598731711374 
-0.03182021525673034 
-0.06558762634527007 
0.09521593333200583 
-0.0907684929642753 
0.0316993068827016 
0.04369565258849169 
0.1210476563449171 
-0.06904329114327684 
0.02617450238656376 
-0.07856732641033035 
0.01843767200357157 
0.07248692026283486 
0.01848309717485611 
-0.002581570260147019 
-0.05805609161873649 
-0.01366711023467495 
-0.0746406922627932 
-0.02023076786413959 
-0.02639221798773872 
0.001074179336012896 
-0.01112127022798211 
-0.09016399868228259 
0.03305409286115747 
0.0008980147813815424 
0.05740355632783484 
-0.003866030989370534 
0.09385901996782275 
0.07076242180092503 
-0.04246093247205291 
0.007476895789502067 
0.08006870676938228 
0.01968308610507096 
-0.01400852032082965 
-0.01637480571477778 
0.006486748232087514 
0.01846220749170506 
-0.007892087974938018 
-0.07918829623025403 
-0.08164671917385079 
0.03273418479049111 
0.07883165755497494 
0.04823777466475083 
0.1150181492713998 
-0.03979700400370943 
0.1044865982096059 
0.01834627054648146 
-0.05780937058567532 
0.04187207179219694 
0.03798719765977406 
-0.003485782145295554 
-0.006441785401478013 
0.006774728013014783 
-0.00510620910848021 
-0.02438658177244041 
-0.05128989620406491 
0.01190248627539595 
0.05640309156780748 
-0.02775550865461309 
0.02895102290958256 
-0.03128361318882057 
-0.002844478270508868 
-0.0756828159902696 
-0.01723136637930649 
-0.02132128401750405 
-0.0271430524296587 
0.09273215865167335 
-0.005218382308072037 
0.01601802727017109 
-0.05570510424522748 
-0.06700632626419555 
-0.001165238547028404 
-0.05642096739295259 
-0.005432073068063746 
-0.05407385450816039 
-0.006370193434018816 
-0.05859500783534161 
0.02896112214715066 
-0.002858809170858031 
0.06540415492260056 
-0.07910807092043971 
0.01371761103946654 
-0.01173526428227745 
-0.02782244507860099 
0.001413347131425252 
-0.03305942665565162 
0.01505395140498344 
-0.002284635544155429 
-0.01448053731812208 
0.01581418571494002 
-0.04730413845555861 
-0.01400140726901398 
-0.01943237506392449 
-0.07147963157255119 
-0.129429444813588 
0.01296540620589911 
-0.06122318905286784 
0.06306251378408957 
-0.03329722000388229 
0.003797445999863773 
-0.01953553580632619 
-0.02259602045554268 
-0.04440281387593554 
-0.002228411367378848 
-0.02696293190414016 
-0.01861157768882868 
-0.0359192038044741 
-0.008104285270029177 
-0.03419973639725681 
0.05363810629430605 
0.01832374816673573 
-0.00133839700656196 
-0.003170564972921099 
0.08008704805277682 
-0.09824462130732438 
0.0466889646275527 
-0.03556942737313497 
-0.04388814928195727 
-0.04993553979544792 
-0.05604599822033584 
-0.0708299869399191 
-0.0610956863474247 
0.007455081519580713 
0.04060826231877274 
-0.02952034117616116 
0.001255252683653357 
-0.03861688064923431 
-0.008189513478150679 
-0.02525129967170672 
0.02494552848531936 
-0.0169349411451762 
-0.07519540974727779 
-0.05703548352898466 
-0.01864835739124685 
-0.02956493696868288 
-0.03043885697440196 
0.0008276521723994027 
-0.04337393288749902 
-0.01916651534246768 
-0.03827290641272159 
-0.0528509385943455 
-0.108191371344636 
-0.01028453625403612 
0.03847734444506274 
0.04083135229755361 
-0.02569066086082986 
-0.01639369576538544 
-0.0279084603421984 
-0.05670654047294168 
0.05576738445322141 
-0.01508459671928759 
-0.01673730804997371 
-0.09235770393251418 
0.01284364157978796 
-0.01409864031259766 
-0.06472989793755397 
-0.09071412856173179 
-0.0811783882932334 
0.02994614922108528 
-0.08235110421548729 
-0.03979767060980514 
0.001080226799749997 
0.0008108364082364251 
-0.03069282342106326 
-0.03751921160623383 
0.04896288678346145 
-0.1154455411243719 
0.03209592794132614 
0.04536616077937411 
0.004758841835822739 
-0.004696388106660921 
-0.001049089567331809 
-0.03020565890410136 
0.04835907465679553 
0.009454953869311725 
-0.05088353657179528 
-0.07416795815200099 
-0.04054311285183939 
0.014646178366084 
0.02967027369183856 
0.02834010035814694 
0.009578365652069777 
-0.07697207557076413 
0.05957058254039486 
-0.002329821024564966 
0.04188863665057738 
-0.01153350192531076 
0.01470401760133266 
-0.06039955099401696 
0.06946242048786347 
0.03584261219449882 
-0.0353926667062776 
0.07191884278852378 
-0.03755397127094395 
-0.0116080530224613 
-0.05678241286832722 
0.0132844248849237 
0.04004642064653645 
0.03630373993853073 
-0.04822566966324051 
0.009085133304933723 
0.04484544634952146 
-0.01714693730793395 
0.01816014914913028 
-0.06375806225126839 
-0.004682532929097444 
-0.156350641029987 
0.03968490806245764 
-0.05235058224036217 
0.02769320769665004 
0.03165252441387793 
-0.05365233015602755 
-0.0828865399249973 
-0.08762316762123122 
-0.01718546020507816 
-0.03301590645386848 
-0.03572265244272185 
-0.0008860155776015952 
0.01607812727094368 
-0.01765127720650696 
-0.07025243780197729 
-0.002147284835940638 
-0.06514365365833434 
0.04548196071942599 
-0.1026123143565053 
0.05647080613777708 
-0.003384981220713064 
-0.03356604121814011 
-0.04582699557922775 
-0.023633930350512 
-0.05147148893818725 
0.009725960938953051 
-0.003784849853618066 
-0.01113520823574888 
-0.02497821595232838 
-0.02321992480100157 
0.01567795363286602 
0.05459727901303386 
-0.006694650896925899 
-0.01471649821239054 
-0.02787927628013022 
0.03311012307152442 
-0.02926809391533331 
0.07504362922066375 
-0.02230108899316376 
-0.04649260343790888 
-0.02092075301933106 
-0.03676253179397714 
-0.0008921477295843183 
-0.05109160842663978 
-0.05003524990200547 
0.01085112745727129 
0.01361504064905999 
-0.01966516493554045 
0.01689574578627442 
0.04377378088644689 
-0.08087089759648898 
0.03590156823020135 
-0.006295001755691391 
0.05034957174506318 
-0.06704362142225195 
-0.006299230195926039 
0.02469686464553677 
-0.08031079616221382 
-0.002550086525143903 
-0.08787741892401101 
0.05401973186714128 
0.0003868515381561351 
0.0435548129468295 
-0.09053200855471868 
-0.03533384638254096 
-0.05750024821632904 
0.0735948378782451 
0.01772883238679451 
-0.06135487498614715 
0.0575819765898751 
-0.06525377321143459 
0.1516485661661133 
-0.04263388199067822 
0.06313941830751399 
0.07496767873481437 
-0.01559850304665638 
-0.001456912124683584 
0.006040518735060405 
0.01427932292863453 
-0.1282033412947446 
0.0368228460538405 
-0.05919749898002397 
0.01458202343802455 
-0.0416981565672673 
0.05965810454680115 
0.1083891826225878 
0.01065095860153554 
0.08772610253435302 
0.03074294280825206 
0.04134944872625214 
0.005483297135150132 
0.1131415549083935 
0.03221480975034552 
0.06256373977102293 
-0.05655603059018818 
0.0224064613773355 
-0.02442867003921485 
-0.1099653878553981 
-0.04558764221123108 
-0.06333194146390367 
-0.02002726631733772 
-0.04000773825468937 
0.04250566485833969 
0.05184752486596231 
-0.003970359826704993 
0.045301711335769 
-0.03628659103482521 
0.05444555450608665 
-0.01079566375495499 
0.005827910122455491 
-0.01148789005059422 
0.001857543909010002 
0.008433750257615643 
0.05003545033033652 
-0.0294539945246746 
-0.1033880988168075 
0.04606060024396095 
-0.0117887627465394 
0.00269379352607131 
0.06127161505760081 
0.02904448330256544 
-0.02621665959683213 
0.0491018814238188 
0.03113337825111073 
-0.01773120761669931 
0.0388269869471615 
-0.04935353178127969 
0.05272838689564714 
-0.07089611776197936 
-0.04974382358069607 
-0.04263457634787189 
-0.03624419542803094 
-0.01875122156891667 
-0.01926120836460672 
0.01271470476362762 
-0.04258536890437364 
0.04387042993584477 
0.01701333001813879 
0.01815219936913299 
-0.05407951473790451 
0.01090145116801359 
0.02730447967501609 
-0.03353127862782186 
0.02140151677928404 
-0.0247627153426046 
0.02981189863762008 
0.005979657437346467 
0.04672042373566746 
-0.01443489496759517 
-0.02628578563122089 
0.0455748607022299 
-0.006040116450214936 
0.02312512693814613 
-0.02099325391819757 
-0.01420864990001756 
0.05810252373422542 
0.01526982305511882 
-0.01897265896008474 
0.006980076487799523 
0.003950141578418638 
-0.0230078306305659 
0.06243560432291245 
-0.03174035676167145 
0.05404759440015855 
-0.03856129493434314 
0.01730853727332398 
-0.03762493220051191 
-0.08214656579666034 
0.02008747179044015 
-0.03479423582708705 
-0.01119846956771385 
-0.01737738471635776 
-0.004175640141002974 
-0.005222503061610352 
0.01330741747822662 
0.0548997591471185 
-0.02472997338201285 
-0.04133354587738782 
-0.04718661320978202 
0.0001181960580621843 
0.0002391377671912063 
-0.04661104871886503 
-0.01552090075620006 
-0.05507582367302761 
0.006928677798529391 
-0.06818802625131837 
-0.001110150026276265 
-0.05175323561633217 
-0.06101949370164449 
0.03211766756628453 
-0.002217242637351752 
-0.02787482224118188 
-0.009763234137445021 
-0.03612898632166875 
0.01079569590079491 
0.01077850276821682 
0.03573472567991159 
0.04651067196676732 
0.007399690513873074 
-0.004123247509253589 
0.003211638985203617 
-0.03914855498752633 
0.008126119567704509 
-0.02074711574443149 
-0.01697169159767507 
-0.0316266617320135 
-0.05844092304979233 
0.01147843938711659 
-0.02673018508505921 
-0.04715090394742797 
0.009204473039798105 
0.02414137099476485 
0.02718615161849622 
-0.03911888030780457 
0.02019197293996639 
-0.02081665341992778 
-0.02893036861075135 
0.05740379455867835 
0.02775696793619885 
0.01719089970373536 
0.01383347705039599 
0.03819534731054476 
-0.04924346631794031 
-0.06279913142087555 
-0.1184441159885438 
0.004664396727582562 
0.07479329839822034 
-0.02765856694188876 
-0.0345775444946302 
0.01198143827898518 
0.0301571399419968 
0.03054533223752318 
0.09465845294523187 
0.02145389499260189 
-0.04381576704678573 
0.01654137193310479 
0.05327828845032258 
0.005540527531446636 
-0.01694245699027631 
0.01854375678252831 
0.07757400733407849 
-0.05533890395123223 
-0.05609379898732398 
-0.03435244325666154 
0.02737268743330406 
-0.04662636830666457 
0.01990520307168406 
0.03120053181771236 
-0.02683436730037193 
0.1058619908060546 
-0.02471986738401904 
0.01874120187033067 
-0.0207642748694955 
0.03807898038936267 
-0.04880988257886888 
-0.01853871625605771 
0.1195084739582092 
-0.03288252792944709 
0.02472624854043676 
-0.01558917641248007 
-0.008204935640876399 
-0.0001069670915886509 
0.04029899650474505 
-0.09004101931911694 
0.03147224484984997 
-0.05584522489486356 
-0.006938791002355309 
0.1206828379884956 
-0.09928517388402343 
0.02073736299895085 
-0.05578383179825971 
-0.0045893784118364 
-0.040964109872355 
0.007676848090615899 
0.01668496307032273 
-0.1185444252700972 
0.0886888473031547 
-0.07903575454127644 
-0.01638003329944194 
0.05025874382695824 
0.06537408319215647 
-0.07377940750606424 
0.05462991692452192 
0.01381735545856392 
-0.02682299001454248 
0.06253682502865612 
-0.06576912760167132 
0.009526159000996196 
-0.0506559718883212 
0.02218727794543151 
-0.02020075144174418 
0.0009653337923154823 
-0.009103015454331894 
-0.1162946578931778 
0.07337908424671528 
-0.1517789506338164 
-0.01278185372258609 
0.04721363596514123 
0.02414032044078243 
-0.08159188955153171 
0.01381704402146309 
0.07452258153436041 
-0.02159383446573321 
0.08405587550601863 
0.03257209247389422 
-0.002673696600186161 
-0.08359814467976381 
-0.03392418536215566 
-0.02153356989222284 
-0.1033250394578691 
0.05674183793670719 
-0.00818544354682459 
0.1226278816155298 
-0.0467819339046947 
0.005765814688664272 
-0.06435172901235818 
-0.02789853532020412 
-0.1096962563795539 
0.02237254713789674 
0.001860659618274481 
-0.06783831243920434 
0.02253309494295548 
0.00985688895261339 
0.05722251008534858 
0.03580044070415039 
-0.03129616395410215 
0.00851804646261849 
-0.0517868265405675 
0.02201529482711449 
-0.01906809631940005 
0.009659765404294163 
-0.01417098565978445 
0.00446220415560224 
-0.0131149226033766 
-0.08944756990659884 
-0.04369128950406011 
0.001810794471950462 
-0.0650247646278266 
-0.01464603285461537 
0.01223157437130936 
-0.003750907578170463 
0.0490208060419001 
0.05773122768889219 
-0.009755130154699013 
0.03457303677812994 
-0.01170181826894653 
-0.02853717196736912 
0.01283441325977378 
0.04652632268387889 
-0.02050434808362012 
0.006914694098202025 
0.003850718081858663 
-0.1108965193321089 
-0.005530293917658148 
-0.04094970163561444 
0.01108727741780567 
-0.01486282037663936 
0.04764220028230918 
-0.001640547035149156 
-0.0492042606812249 
0.02630440603977611 
0.02324221220744193 
0.06443778332664159 
-0.08581108235355965 
0.080446204192456 
0.03008295876672351 
-0.05080220513164727 
-0.07580419485067305 
-0.03612252472520105 
-0.002498615963702447 
-0.06852148029241524 
-0.05180483432646669 
-0.06061864944036612 
-0.04962352784218914 
-0.05809368039531673 
0.07520179277415798 
0.03820167804543118 
0.02486384071742541 
-0.1151523750818552 
-0.01553175914916623 
-0.01748917543055918 
-0.005455525120427305 
0.03181144521171199 
-0.02139979514892755 
0.01404764682293125 
0.007734118640440154 
0.02342776453765269 
0.01205275472803869 
-0.04502838192752261 
-0.06800507144366766 
-0.001963631663135166 
0.01259840564298171 
-0.03081575852693018 
0.03027495543147128 
-0.05797140051857082 
0.05053535454494573 
-0.09455377260658367 
0.05130790681454942 
-0.05643244810497926 
-0.03032472041305923 
-0.01868453415346959 
-0.08134195066340741 
-0.0295805555007911 
-0.09196850219526811 
-0.01409397634103813 
-0.09787706170088981 
-0.09452898358881637 
-0.009835970584631754 
0.01387302349946493 
-0.05814763483246416 
0.04166155059832122 
0.03544416785226036 
-0.07072480921661986 
0.03390838087565921 
-0.0009897796381095215 
0.02852594605460575 
-0.07148152703006018 
0.009583487253747426 
-0.01029660455889607 
-0.04896451299899231 
0.01854742375770179 
-0.1514714426621967 
0.05087602952191102 
-0.007619062510035522 
0.07251190379482561 
-0.007748277346602541 
0.04980116004484261 
0.08553249876291254 
0.04568929158533488 
-0.004710021179296907 
-0.03409715690268049 
0.04329703107478338 
0.03978255161049771 
-0.004192496601837623 
0.03896326837983081 
-0.001693461157464567 
0.05805959193244931 
-0.03370346525489825 
0.02777805725059108 
-0.007415083416732704 
-0.00466711240722351 
-0.01225259441117304 
0.0412352375787779 
-0.04249782541669277 
0.009242207348366338 
-0.04577682094251335 
-0.01422993776337619 
-0.007689364200332995 
-0.0208129169651353 
0.01801097335476149 
-0.06375032094839812 
-0.020628114024854 
0.02303722084600953 
-0.002762377382205241 
0.004585510574735005 
-0.04334328637212936 
-0.007709287020083425 
-0.06986556538849532 
-0.005059020121307183 
-0.06783933052840706 
-0.04819639056483004 
-0.06629898920796644 
0.08471407266638417 
0.0006636187852333358 
-0.02245488073618547 
0.005198800252616282 
-0.05055677745939931 
0.05096614878788887 
0.03790714764987285 
-0.001961975272627813 
0.07363091833623538 
0.01248556623121682 
0.05668512710310188 
-0.03581571721720475 
-0.02460458882707556 
-0.06065521112015379 
-0.009293961289465478 
-0.06328632989234514 
-0.04268018808485424 
-0.07979065192740967 
0.02324380580274331 
-0.02521154241353329 
-0.03660443247207285 
0.05418178007586415 
-0.07885608294625834 
0.09134134412056198 
0.05079755533461244 
-0.01739795516195089 
0.01990599080000757 
-0.03286493917756467 
0.02766916784568144 
-0.06011448136691389 
-0.003626242019377743 
-0.1206268551820297 
0.003191165839749111 
-0.07859252667206662 
-0.03571946808023337 
-0.04041960335287462 
0.05955095335420746 
-0.02392590281825617 
-0.05460957918340021 
-0.001479016843735245 
0.007797853744837312 
-0.004721193020579441 
-0.0009074447822866653 
0.01213207639718328 
-0.001274996395506799 
0.007388904848640045 
0.03320712094311808 
0.02810022691058811 
-0.0005952203512121224 
-0.07325127629001636 
-0.0547731870173985 
0.040092663161933 
0.02835071068551999 
0.03609300054590161 
0.04204688412798228 
-0.03887949162705119 
0.008362810886637354 
0.02108559813346914 
0.04767499228673803 
0.05760597584447179 
0.01437147916999081 
0.05985233454215567 
0.01243284056519592 
-0.0454270676061827 
0.07688076445547543 
0.03218380743370865 
0.02021108624652958 
-0.05349318671129656 
-0.06131110715294737 
0.04220786554895312 
-0.07291268891236384 
0.01349746767504673 
0.0534593235641994 
-0.08742727700118136 
-0.07211898998431035 
-0.031888796832936 
0.004957442071144062 
0.02523228117709388 
-0.0144947116656726 
0.04518441483176593 
0.09311523120877055 
0.04174397573941128 
0.004237865119790347 
0.03160161246159369 
0.0377276333473027 
0.02023215920361614 
-0.009074502776155536 
-0.1123227193801303 
-0.04796936841392561 
0.08417580384651407 
0.04781767952916363 
-0.07457571301915079 
0.02888951023751421 
0.1123427683589426 
0.03490298808967321 
0.1375364737028911 
0.03546125598413656 
0.1024120291072461 
0.1184405029581183 
-0.07671862597398203 
-0.02262165312161418 
0.1240704447885721 
0.08299094390670982 
-0.05262461835445292 
-0.03530550033598442 
-0.04937664474689229 
0.008016008782295705 
0.0397970617767766 
0.08041012789084315 
-0.04880204961288891 
0.01111881193901341 
0.09477394774380576 
0.04023838530920702 
0.06601416296503702 
-0.1252115855035049 
0.07918355202885728 
-0.02663178036996827 
-0.03450630894085482 
-0.09943093760044988 
0.09605899285008722 
0.03504104417371357 
-0.009085636226160798 
-0.1319891963493667 
-0.05414642503058997 
-0.03760228011890971 
0.02315491341848613 
0.07386243838846296 
-0.03184713751745792 
-0.06258253703052005 
0.1452876638785336 
0.04318278081272407 
0.1070452518588207 
-0.1704558584449472 
0.05014921273902843 
-0.006057676599797722 
0.02160429863034527 
-0.06920899956139098 
-0.03051802138450255 
-0.04182962487875692 
0.1057026745779623 
-0.08280806557533549 
-0.03997526395491797 
-0.09596482730028394 
0.01115806315687434 
0.07174725399367014 
0.01673038657295771 
-0.07753333936954862 
0.09045670488366803 
-0.01150577869840247 
0.06573755882991687 
0.001966186128245452 
0.02189717903774772 
0.02135256758755985 
0.0706403525856754 
0.03215771682618456 
0.01325077853242173 
-0.07942820589001234 
0.09841380555362307 
-0.04897560383755262 
-0.05590610392503826 
-0.01466737878356179 
-0.079837508826063 
-0.008446397094519427 
0.04742204568007031 
-0.1005965289908399 
0.01548458829891879 
-0.006359689465557324 
0.05689690702206655 
-0.06607901643807658 
-0.06361980836129748 
0.021213308863604 
0.01640925867813012 
0.09976412139783755 
-0.02035397085787849 
-0.09184844407668971 
0.03259109694129611 
-0.03922858754761957 
-0.1593202383166407 
-0.09571290093944822 
-0.1386868271287254 
-0.01174014147952368 
0.003107462135910887 
-0.018120971366255 
-0.03162394668019972 
0.03412925913398114 
0.08808627995740401 
0.069625579229479 
0.03582783533456049 
0.05607798835221662 
0.03099453870341476 
0.1341041706032421 
0.0864871092421958 
-0.1127418858914369 
0.04109969116831384 
0.05528975810128708 
-0.007566830977317194 
-0.01531007963119293 
-0.03928385389113591 
-0.01034749435393523 
-0.02990646080013254 
-0.04700262041628661 
0.03603200313757519 
0.02383007890468277 
0.09367748716003164 
-0.04006502840998243 
-0.03261650925218945 
0.01255324696453208 
0.02512781125149229 
0.01973342841065652 
-0.09041195956287662 
0.02012635527279319 
0.01550353461164672 
0.01405844845599789 
-0.07550405430335354 
-0.05521685000270688 
-0.008217907972952423 
0.0246468337673531 
0.05549429530686185 
-0.03167883570414182 
-0.01295968356494338 
-0.01872971603579615 
0.08171110334016241 
0.001449506548680625 
0.04209641657834302 
0.004998356200532799 
-0.03419914216037023 
0.04575860325721704 
-0.03732172938108913 
-0.0575591705867921 
-0.0100719758536345 
-0.01678221471595007 
-0.04159131256891171 
0.03931864096874336 
-0.1015710045458246 
-0.02963887198392019 
-0.01765092367644607 
0.01015500425138863 
0.01590304805662502 
0.0589109565185126 
0.1156328902030037 
0.05071934810811747 
0.03093301484299473 
-0.02885454654334083 
-0.06434829514373108 
0.000225903567962764 
-0.03077248610523017 
0.055737814192021 
-0.04945056450656186 
0.01919090510053151 
-0.02950102821853678 
-0.03227848708157812 
-0.03550852162682819 
0.03184504568782318 
-0.0009712744364213253 
-0.04866980729333716 
0.01312813149793455 
0.02258546048140947 
0.1026562193859062 
-0.02380190265010627 
0.1190141635191832 
0.01740687576014502 
-0.09813188077448902 
-0.01781688498246316 
-0.08157882657239469 
-0.001021002479573741 
-0.06353043686569361 
0.006993229902478602 
-0.1082032376030631 
0.001578274505405032 
-0.09847588424072844 
-0.06156199789381459 
-0.04214739299709195 
-0.03891591186536458 
-0.0685601501807887 
-0.05647648439842017 
0.06068966457843475 
-0.03925212226574647 
-0.01923633730778109 
-0.04261044320884565 
0.05178986450713041 
-0.0919805621360045 
-0.02003111641275392 
-0.009606137131410775 
0.01362822625793884 
0.004786535275055258 
-0.03679356399895623 
0.001053546213750157 
-0.001873343114334568 
-0.02199500058386396 
-0.03498179571704689 
-0.00781876153281775 
-0.003961196998420952 
0.04968406491188495 
-0.08606181214399244 
0.01485142528691872 
-0.01837068692388919 
-0.003608029689163043 
-0.02626759877813807 
0.008312405609987151 
0.003321192462158855 
0.02536353742194526 
0.05990502443809739 
-0.04382637154954982 
-0.02742900549430899 
0.03410138689048359 
-0.04080155319268208 
-0.01371699657410413 
-0.06279328345992953 
0.01778156644780548 
-0.03548557733702615 
0.02479237636621952 
0.007166829312980366 
-0.002274884317563634 
-0.05096667435635553 
0.006395387276895939 
0.01159017522075468 
-0.007563976729731232 
-0.01532680152654747 
-0.02804305419350052 
0.04443274232834733 
0.02122877729028973 
-0.01747736379255406 
-0.05955593960184239 
-0.03790546179132256 
-0.01241883817404461 
-0.0647593480712864 
-0.03422739397165089 
-0.01546583956809536 
-0.07119912064196493 
0.04755112617905925 
0.04233207993269836 
0.04217939849253058 
-0.008406816277864449 
0.05945734399535004 
-0.03400844007032384 
0.04072059973750494 
0.05534760182143294 
0.01318319058627917 
0.005475142016351642 
-0.001660538313263261 
0.03760086457297573 
-0.02006099087039859 
-0.0006791325655053475 
-0.03955450822034656 
-0.06621145252488138 
-0.02934660263160129 
-0.03232356808715062 
0.04453179989610081 
-0.06399428623179074 
-0.07088429352927457 
-0.007354550609831994 
0.02486334924200409 
0.03545810139291911 
0.06042495157341148 
-0.02496779766160764 
-0.003545947676943151 
-0.01794122441449155 
-0.09339553288011712 
-0.04607672063734846 
0.00805895807252161 
-0.02660632969989987 
0.010032662927387 
-0.04197188516525253 
-0.02755747707942213 
-0.06665744554189139 
-0.02322616716496747 
0.04282127708674421 
0.05817353237723104 
0.08362991570240208 
0.05050714584023351 
0.004285838843501183 
0.01476834734573913 
0.02376329703745339 
0.01061125051938168 
-0.08107103748415641 
0.005932206530196035 
0.02897521668150272 
-0.0303933965805476 
-0.1118773877703777 
-0.001818206961644965 
-0.02531595943456529 
-0.02531629786488782 
-0.08573276793161792 
0.04563439157729474 
0.01201911068584968 
-0.005945341099552626 
0.04053447578366857 
0.06594960091057984 
-0.04185766639312644 
0.01466542138751318 
0.0481667314102658 
-0.04179780658600463 
0.02488345366835986 
-0.01720211160458097 
0.03940259438889059 
-0.02503882047234686 
-0.0333918992041227 
-0.01206032802564265 
-0.0426530103305602 
-1.127127654410743e-05 
-0.01064293017464709 
0.0283647918081638 
-0.101889365183183 
-0.06449978517398436 
0.006417288655710995 
0.08178015646400906 
-0.01758890148779931 
-0.0486931454250043 
-0.08381425372443232 
-0.02205061699926859 
-0.02438007868576885 
-0.06999344872143121 
-0.05937872543604453 
-0.008334622926489585 
-0.19126228557037 
-0.07259708961965254 
0.104293439436493 
0.1509465144201572 
0.01061700460116795 
0.03375957110544657 
0.03017458560065717 
-0.001995830707820283 
-0.005511009743149302 
-0.04111147738373502 
0.005903116696989971 
0.105745917407258 
0.02809757141064743 
-0.06858086132797801 
0.0326572144829121 
0.05225238142131233 
-0.01739046786428168 
-0.118244185206856 
-0.02411418603317644 
-0.1167494251665739 
-0.001253278296155143 
-0.02896708520110986 
-0.03334500020803595 
-0.1209934010857567 
-0.009462705996437403 
0.05138031439409704 
0.006021587590114764 
0.02419678137072236 
0.005698226157143832 
-0.01102442107901341 
-0.09332775395994795 
-0.03766823083299499 
-0.06830470164637011 
-0.04172886164660183 
0.005609149660265484 
-0.1784356183773907 
0.02948380676669381 
-0.1671118007219646 
-0.07081787073281785 
-0.003704669057751278 
0.1087555576432959 
-0.02519861717116111 
0.06617068325023234 
-0.001993344855314618 
0.03801647911899798 
-0.007479755063595363 
0.04929759691060751 
0.07837294087413828 
0.08849496316457239 
-0.004081657393445851 
-0.02252203681196844 
0.05341252054288168 
0.02976513849453364 
-0.1311820539959776 
0.1037324651390885 
-0.06780326740277556 
-0.07489436665856408 
-0.1090139278023514 
0.09762537954737367 
0.03054944352593216 
0.09347294015020746 
0.03107055579536466 
0.06426811670276084 
0.05379615102206579 
0.09551192031416478 
0.05334644345541691 
0.04891786329845615 
0.05055978037679101 
-0.06668472920385005 
0.05404708411116309 
0.04538019401204293 
-0.0086101875203142 
-0.02004260670786307 
-0.006778390193988269 
-0.01633808446233388 
-0.09839966454544199 
-0.02674044825757603 
0.02928963860053568 
-0.02770788707747268 
-0.08907318441393164 
-0.0838328480925425 
-0.03913772107804157 
0.02728013859053232 
-0.09453568009882461 
-0.08254832470334167 
-0.141751992543853 
-0.1983499255198218 
-0.02716429707165255 
-0.06130915835357836 
-0.06649529562782858 
0.04041196815016408 
0.1711246499553117 
0.04580668215439887 
-0.1501744000012159 
-0.02254825417381641 
0.01701198319988819 
0.04841547846450323 
0.09780282798631458 
-0.01669196294839581 
-0.08295912976520055 
0.1132087634814351 
0.01767798790142343 
0.0001884309886053222 
-0.07492955145901152 
-0.1358836107284216 
0.09903740232646446 
0.07121173761540335 
-0.08451267742133796 
-0.07276786999069029 
0.01513036772157482 
-0.09940048122074344 
-0.002500892683291905 
-0.00956342611937855 
0.01767459244376013 
-0.04803168098862545 
-0.01365633332741369 
-0.02917183309233453 
-0.1224922264483398 
-0.05633444643756821 
-0.05999656537617249 
-0.007343155237902842 
0.01465562553116687 
-0.03467543849611709 
-0.03511795407556682 
-0.03939651806048095 
-0.05815320390024576 
-0.00247566448093719 
0.07119975344370474 
0.008547032565157941 
-0.06043490808110703 
-0.005816240724332964 
0.09096229166607274 
0.0006813579742670411 
0.09424281425116457 
-0.01928523873379577 
0.005603589989843462 
0.01320769039787441 
-0.01337669105632314 
0.03188808478720676 
-0.02367301825881537 
0.03067458048650043 
0.01543673269151657 
0.06369722351179471 
-0.0005225642725875481 
0.005817108487200291 
-0.03088935154545634 
0.0002198391023545774 
-0.0246508951068913 
-0.01471381455698359 
0.06977253725203815 
0.03780604645083028 
0.02298864962048139 
0.02912352287748851 
-0.03110688399426951 
0.01191832263479806 
0.02296258307338727 
0.04236253007283017 
-0.02733352138895138 
-0.01849167046961083 
0.01743156607762239 
0.01099093653585552 
-0.01643722027207206 
0.01418434057309655 
-0.0651890586245211 
-0.1294311346351691 
-0.03735057339761035 
0.003669710905708548 
0.002155260449642837 
0.03940526426526231 
0.02849828129549643 
-0.06133202662806095 
-0.03207048066251988 
-0.04859969392797144 
-0.02929086109521999 
-0.04597658347180576 
-0.02857784464267374 
0.0098166193858887 
-0.04848457416587029 
-0.01010168362728111 
-0.01704779775720663 
-0.01414071342052853 
-0.1243108172250998 
-0.0478195828267086 
-0.01417799482522841 
0.03879543733754011 
0.05944558913446955 
-0.05780969047416715 
-0.03051150003374774 
0.004200145992888178 
0.02728339648574082 
-0.07559694188893257 
0.08680908357961739 
0.02054228605122155 
0.02534571820023959 
0.04656887506996387 
0.05153796039224386 
-0.05808606517602521 
0.01445403735059265 
-0.07783409908795447 
-0.05103781411011239 
-0.03160866830897359 
-0.02628158268666157 
-0.007469951046080144 
0.06322663356409526 
0.0411687105027856 
-0.02421682080894873 
0.008076260282242861 
-0.01686555454051726 
0.01209865990648967 
-0.009586715071200028 
-0.06484461989400724 
-0.08857947523240767 
-0.02791876276441478 
0.05391535260307671 
-0.006109414707685655 
0.02475576250256877 
0.009838190273997433 
-0.03893928026840678 
-0.015219735421753 
-0.01803015071139189 
-0.01979533146556791 
0.0396705502750439 
0.02779544312906562 
-0.02791489561611315 
-0.01180925523755195 
-0.01249506212586166 
-0.01914202554450996 
-0.0781831243157331 
-0.05090511336747443 
-0.05755971869907418 
0.01389135220197588 
-0.01573914549166561 
-0.0451033432518257 
-0.0248102596139348 
0.05163898701492738 
-0.02240323505457876 
-0.04639902148948544 
0.01015014516190587 
-0.06873338999778769 
0.02160921202726241 
0.08014837629594573 
0.04337942586849771 
-0.002812534258618954 
0.03044932678313364 
0.01688578559343046 
0.05511768620365753 
-0.005430944275526448 
0.01158659874114372 
-0.03109928438196325 
0.01365528358517279 
-0.03847142616823249 
-0.005978151098235344 
-0.0195218907654086 
0.01949580987469116 
0.03124565068186743 
0.009241449311782304 
-0.05534522161809001 
-0.002316090130504633 
-0.02967722146911741 
0.01965204732025668 
0.006285766094863955 
0.004116237411625567 
-0.04610257579777056 
0.04974784142750364 
-0.02161100083957157 
-0.01861845024371891 
0.01586253421222327 
0.0421955540577279 
-0.04659598458256643 
-0.0725634232360861 
-0.03853230027828671 
0.007519214689260666 
-0.05859525610431758 
0.03824202783736112 
0.04200306300950015 
-0.05493809086981492 
-0.02326845667127534 
0.0644405830338259 
-0.03746246689381223 
-0.008142841941471952 
0.01028236693754056 
-0.01769212379114202 
-0.01287086217001756 
0.06715772616241468 
-0.0730288876899319 
0.01396978397790797 
-0.04140514595651722 
-0.07243751848329652 
0.025344333543775 
-0.02361559718847 
-0.005328376332747204 
0.1173351240440583 
0.004492072678490878 
0.08818976779699803 
-0.0345392146555407 
0.0416389356702591 
-0.06473335135897006 
0.115892212593303 
0.04540215859441488 
0.05469529230529094 
0.001544075039058509 
0.02077644230707358 
-0.05749211231224295 
0.04938511649718438 
-0.05043283247290838 
-0.03935138728030766 
0.07465553340377701 
-0.02983746974533048 
0.02107417753687637 
-0.1049228595699624 
-0.02004755183914969 
0.02070698557513808 
-0.0456441110358982 
-0.01803439278938579 
-0.04325999203137106 
0.1238250541631702 
-0.1051483687818203 
-0.01829201684069668 
-0.08726227854963736 
-0.01031448061563725 
-0.03611570194662138 
-0.04936207469354038 
-0.02382812842545947 
-0.08815322720918915 
0.002145148823608995 
-0.07446349356985138 
0.1542944784282047 
-0.06960756034144031 
-0.07818002116768745 
0.03022633032513428 
0.01617486984195796 
0.0766110252496499 
-0.05139676975719502 
0.05628119742281165 
-0.08504209602818398 
0.1127036068554532 
-0.08358499473525424 
0.09721187610089295 
0.0005442620100313796 
-0.04285000376986468 
0.000959683845963805 
-0.1121481049874245 
0.02188377405485392 
-0.01796508203661492 
0.02427839634401257 
-0.1652770949196905 
0.04851399767182936 
0.04870326592212583 
-0.09947205688224639 
0.02954296956071816 
-0.03698105116465963 
0.03427683240395654 
-0.05024431872190124 
0.1071375273393882 
-0.09591660910285786 
0.06473308249176861 
-0.0991340808605856 
-0.005756604713346179 
-0.03648445591202961 
-0.1150911120733453 
0.01565955760601374 
-0.02969300424254548 
0.01178895815839912 
-0.05029392303408291 
0.007879542902470612 
0.01504274071242083 
-0.02722343266537707 
0.01828573918859032 
-0.04454661219907717 
0.06381775853361261 
-0.08088754563548711 
0.1303430307783441 
-0.06459453383155354 
0.1419235590988473 
-0.0569862698082844 
0.03971983606136991 
-0.04940289398407218 
0.01761487082792677 
0.03182578351061019 
-0.04642578203412922 
0.0128257140276068 
0.008062991004646407 
0.01406369590266493 
-0.03400422774817144 
0.01669849216166614 
-0.05380760682670056 
0.1032903506809292 
0.08061749529121508 
-0.004473166749062284 
0.1142081888425243 
-0.06827786158595235 
0.05278099138496457 
-0.05437554350524987 
0.1204596290516807 
-0.03724626165566002 
0.05028320402231046 
-0.02428683772689411 
-0.05480355530280079 
0.02415558455272407 
-0.02690193026178472 
-0.09061099829300788 
-0.07080716037048802 
0.02847857174197398 
-0.09104183390713752 
0.05957117178113371 
-0.01370866749316521 
-0.03780442409090551 
0.006920123448256914 
-0.05064634411618132 
0.01217661281198921 
-0.1933821846242198 
0.05684768182525868 
-0.08341405449589243 
-0.0600696708565838 
-0.1075228122238039 
0.08861827441218376 
-0.01242618745530432 
-0.004968364985755462 
0.002269592371687251 
-0.04579718474329305 
0.1545304668771706 
0.01362380801512445 
-0.001579499278965495 
-0.002790279463874478 
0.06793282579692589 
0.0782356287214392 
-0.01159301280592306 
0.06678037694032637 
-0.1284116973501796 
0.03426363149890353 
-0.02983470375646044 
0.08710135210896147 
-0.07802653891344463 
-0.1225825140676192 
-0.08589038874522133 
0.02218770629953154 
0.01987653614048585 
-0.04500657701235985 
-0.07227909691134247 
-0.1444927730034127 
0.07083750820503829 
-0.05011563321734412 
-0.04866326860098102 
-0.02568817873409681 
-0.006010410049187664 
0.06955103874014393 
-0.1168696629841365 
-0.02238740868973935 
-0.08151219982096949 
-0.02239256638426157 
0.07054599265816386 
0.004506131585932029 
-0.007102940232451348 
0.0233782308270724 
-0.05727144668222432 
0.03285216845907216 
-0.03016787095343725 
-0.007802126608864651 
0.06695006907439074 
-0.009292541213830443 
0.005887084557817952 
-0.01620576919269082 
0.06026406491028288 
-0.08734262025254819 
-0.01782245001611888 
0.03742313638383461 
0.005914798017542707 
0.05602573343424381 
-0.0234948078040886 
-0.07030479775488262 
0.01193238772676312 
-0.05476539252706341 
0.03059513387604728 
0.04589712782233046 
0.01718477704074171 
-0.04845551437512881 
0.03570360113038148 
0.008529378461204109 
-0.03868531791031828 
-0.01388243637647283 
0.05553625983200175 
-0.04705255662694607 
-0.04902708059364867 
0.07115029788606025 
-0.01773227733479147 
-0.001074080761819697 
-0.02804756143828309 
-0.03920328574738943 
-0.06258320674676565 
-0.07189105039018971 
-0.04000609802048458 
0.05901156816105716 
-0.02010850999202712 
-0.09257933973020153 
0.01115929583168571 
-0.05638973118954049 
0.01780396665298497 
0.08375378412598743 
-0.01391508126995196 
0.01793674689103059 
-0.09290187761618064 
0.03616896968587129 
-0.03534007505195295 
-0.03150216350808854 
0.06057152537363739 
-0.005496987980005181 
0.09320464123793036 
0.03259446208762596 
-0.03315255743228455 
0.07325334496666359 
0.06308649763665289 
-0.0001471249706697299 
0.05792079235454729 
0.04269225558054017 
0.04759843218877281 
-0.009624295138294561 
-0.01748676875502654 
0.01815408894119904 
0.09646167974939657 
-0.02971581908474178 
-0.06606744571964177 
0.08949229315735645 
0.01299864789586207 
0.05077770395573159 
-0.007936343853455078 
-0.01510222178307139 
-0.05378423070049006 
-0.05699655363197821 
-0.000592705855909969 
-0.04333517474288518 
0.09058049087865337 
-0.04362142345220923 
0.0562397593344194 
0.01566881596756721 
-0.02489301715286501 
0.01612595328113691 
-0.08535208609558101 
0.002504441110455269 
0.0215155762084125 
0.07232397289869591 
-0.07425725290561656 
0.0192366142575934 
0.02295514883331628 
0.02125537866914339 
0.01294841748135469 
0.004582994922683008 
-0.01318929600715748 
-0.0217713247648862 
-0.02561823046895365 
0.03397709297070756 
0.0456384557262727 
-0.00723067984894748 
0.008813941136799669 
0.02442890129280008 
-0.05415793459189071 
0.0274225840700011 
-0.02808716328270803 
0.003385799582377825 
-0.004809618298621493 
-0.009780606672249089 
-0.001407971486137959 
-0.0006412885905782229 
-0.04754470322447757 
-0.04344563729138289 
0.02528036755935785 
0.01607611721190453 
0.06897216528347316 
0.04239500846401337 
-0.03698214825922541 
0.0187901761825903 
-0.00537490182619268 
-0.05161375539553593 
-0.04631624821267431 
0.01566465626828733 
-0.001865179640886399 
0.06117964449255536 
0.01087249622653889 
-0.05184029417300272 
0.04238050764447617 
-0.01550174368745055 
0.00714143757487574 
0.07217988389029314 
0.03628479600316434 
0.04622238146390591 
-0.0002980111502492929 
-0.09230426559694477 
-0.07106200341403217 
0.04107977913231051 
0.08577565963732615 
0.07963165796094467 
0.05356146460727657 
0.02641630502249796 
-0.0158468791195483 
0.09302258113390392 
-0.09195467138932721 
-0.0219258498900442 
0.01225626494646554 
-0.07090954499031459 
0.05991584653511812 
-0.03949936950299469 
0.04854257309275904 
-0.01747028732458365 
-0.05277475102796814 
0.01193981910504658 
-0.01842759245105569 
0.01495064373569108 
-0.0380871744906003 
0.05411481899857157 
-0.001555219300511354 
0.03157726815598698 
-0.08260333111433765 
0.08716691922430471 
0.005714998157433665 
-0.03774821572371356 
0.1412262227730244 
0.1018894249233127 
0.05494481836093226 
-0.0626371048167377 
0.03172672357845771 
0.006649553792719816 
0.006536059624667388 
-0.03288606765702375 
0.0243801726732878 
0.047453021930412 
0.1097202753301083 
-0.002750279445390804 
-0.05827102164384079 
0.07927135588273926 
-0.0491532645382412 
0.09330028264517941 
0.01328800380540985 
-0.1290060176969405 
0.08365067616944215 
0.08541867095372609 
0.1410857964399767 
-0.1662462973903017 
-0.1170243942411308 
0.1135476362200978 
0.01490493899269247 
0.01961452444647549 
-0.01355766567364359 
0.1033811235589541 
0.1088617136354088 
0.07004831092725339 
-0.1672046580472362 
0.01243959427719629 
-0.03382661575157814 
0.09913989619445604 
-0.1208538955979668 
-0.2313405564298861 
0.03274745828567416 
-0.05673386683716718 
0.1426617279752035 
-0.145045515242935 
-0.06058422177631254 
0.1080426525173703 
-0.07111201448077674 
0.0308230604492317 
-0.09818273035160877 
0.1006222907230582 
0.1284091972373572 
0.1204132419301952 
-0.04376757964670842 
0.1113834258538257 
-0.01404010971666106 
0.1647401718679355 
0.03172489406953297 
-0.08801391992889675 
0.06692579225296506 
-0.1746523840503323 
0.0621243779154361 
-0.2532016273175201 
0.04947432995042315 
-0.03951372850359729 
-0.1140500067250384 
0.1514722607787589 
0.0702876601966015 
0.1082499967068684 
-0.01128619679125853 
0.07117129417934176 
0.01452474545427908 
0.05882941118431621 
-0.06552973012440845 
0.1619377718361209 
-0.002751876911413774 
-0.1108583187632734 
0.03947210856501859 
-0.1486044964799616 
0.1286490695747062 
-0.08292261381820498 
0.03778904571830408 
-0.05899698705636815 
0.02140642672279532 
0.1272369531023167 
-0.02332274290561449 
0.01265851418872747 
0.01388620376563255 
0.1490873887789171 
0.05691241963507352 
0.05749283095899061 
-0.1183638394566499 
0.1009477188182928 
0.02159351665055321 
-0.0065230082600259 
-0.0102417613214585 
-0.1619581054641662 
0.02690167145539566 
-0.05884225027670719 
0.08376847770393445 
-0.09619720581832919 
0.001396677429395195 
0.02907014547485117 
0.0002384801107554301 
0.0989095676124854 
0.04447132275146998 
0.2181384924436676 
-0.06029854217391382 
0.04127339035919943 
0.004866691537260915 
0.169934951250507 
-0.03546576442800611 
-0.09560490450477267 
-0.03196866028348248 
-0.161957456757064 
-0.01846705491263789 
-0.1958303121675709 
0.08005669093857165 
-0.146199732258606 
-0.1553644852155647 
0.0617500286929807 
-0.03312659732803314 
0.1271105456035316 
0.06091919770223415 
0.2668299495245858 
-0.06647216643877804 
0.05390007506918092 
-0.03732260138751543 
0.1063074091432289 
0.1256194640724866 
0.04247215901599177 
-0.1102409583640343 
-0.2457330587091723 
-0.05845018535144716 
-0.1303373628773156 
0.07656634819187967 
-0.1231333582143416 
0.02989250990294825 
0.1459007877061935 
0.1554126008838919 
0.1157025143520168 
-0.08108310728438968 
0.1123140675906441 
-0.02828197447771857 
0.1522720721689224 
0.0001004919112880371 
-0.003135975730562764 
0.1031979989380795 
0.1010177092923014 
-0.03740859662501145 
-0.1224025203442512 
0.04455806852519292 
-0.07120420194676244 
0.05533163974641193 
-0.1128789826038397 
-0.04146218033524376 
0.09937632012896555 
0.08410330832170861 
0.08789834916244274 
-0.06587459176738139 
0.1163347439758176 
-0.05217768953678462 
0.1064777671433288 
-0.1386831176154157 
-0.06174408820146467 
0.07382026876581468 
0.14045558298691 
-0.03566048088513362 
-0.1143152035315649 
-0.004643934797599545 
-0.0439367955775463 
0.05812762742167549 
0.02185610394427997 
0.05439428830909838 
0.05066922964151872 
0.03714614444742886 
0.008665391296391947 
0.007291769183454934 
0.07673191034969165 
-0.01524080903724325 
-0.01683852491085304 
-0.01952977990588869 
-0.08058635164527772 
-0.003724020915883623 
-0.0007721845078547829 
0.002871551341191235 
-0.02566169256075479 
0.007022969707474526 
-0.06480324503306288 
0.05298805231263101 
-0.04413896406300336 
-0.03226503026290623 
0.04875548216506006 
-0.008751172409481549 
0.02360810233132716 
-0.01204425235816862 
0.08092134271104075 
0.01069072758891083 
-0.004223391237651342 
-0.03034229520066318 
0.03796456694709076 
-0.09875165862616014 
0.0486338695920801 
0.05938723605258993 
0.0358885180094369 
0.06417714786841293 
-0.02470231511445773 
0.01954335461972787 
0.09054649587800657 
-0.009994170642581594 
0.02115376774053043 
0.01932639502618677 
0.08920005345524726 
0.01716688921413234 
-0.0761639058231833 
-0.02454877204275425 
-0.1341416701551685 
0.05757762501887499 
0.04491497387302075 
-0.0251672695918958 
-0.02987926606494694 
-0.01579334628049013 
0.02232035002661917 
0.04945775300128009 
0.05516995805656316 
0.03461581283043345 
-0.03359908234844173 
0.001465761515735476 
0.0007087400010389571 
0.05967364825629475 
-0.04424957286397762 
0.01190766046838735 
0.04067034469572647 
0.06307043770913953 
0.01517903736702993 
0.07409819911875956 
0.07526338610060426 
-0.03734323827435571 
0.01723476659203085 
0.07845311808679267 
-0.05052793303700358 
-0.005548900126022006 
-0.02436775199307148 
0.01736842016960852 
-0.02497724102208975 
0.04080654513493718 
-0.03300864202994774 
0.05988373043532207 
0.03765050608180946 
0.0373033792386117 
0.01136354775161701 
-0.03894632177700236 
-0.03565584972151983 
0.01533241154962825 
0.04834589923082463 
-0.008551825466062011 
-0.04488383628126154 
0.04909673650341184 
-0.05000780710447752 
-0.02776356414745783 
0.04046131576949594 
-0.03831995094397424 
-0.04132930746931045 
-0.00978196727204899 
0.07225630356627842 
0.05434725336437276 
-0.01658831147090405 
0.06660257240853151 
0.04060268243747132 
0.1130982217781903 
-0.01337286049097994 
0.001867729758039655 
0.09991011363315935 
-0.04198625417250605 
0.0639987341185804 
-0.02634441764724794 
-0.1089735985033506 
-0.1298908576912068 
0.03342456229786485 
-0.1029625790568889 
-0.02291929308221967 
-0.02309033804443416 
0.04151116510069659 
-0.00567889877618325 
-0.04791240628766387 
-0.08236401387785409 
0.05180588145094828 
0.02099603816171072 
-0.06252173540828762 
-0.01668169562496261 
0.06202563761694187 
-0.06675154604182437 
0.003770695990909917 
0.0153955692515222 
0.01468302433398042 
0.02668774714839858 
0.0638957243781606 
-0.02321502150624445 
0.004204198117706105 
0.01700571214195985 
-0.08652826400036269 
0.05311620111717423 
0.02561483305498827 
0.02628297212924791 
0.02722639772239292 
-0.01254814975244285 
-0.08213980525895453 
-0.04613961301707611 
0.02447937541804652 
-0.07081087065798095 
0.003321733331837875 
0.03873112589015715 
-0.01527307735214106 
-0.03108146652175219 
-0.06620482932864916 
0.03163829131458661 
-0.1437761182630197 
0.01352441904353517 
-0.03472324857752027 
0.0858084031200482 
-0.0006341068990335139 
0.03726383502070273 
-0.02112246376068161 
-0.02153208825911247 
-0.0339129490905195 
-0.0230067588660042 
0.05266056058931267 
-0.07872607443358275 
-0.08213406199077614 
0.03727309681912287 
0.08007536031037546 
-0.01990567160174341 
-0.02967462352397125 
0.1105526912466897 
-0.03156062945792833 
-3.601931594705998e-05 
-0.02201062910010971 
0.02523112950620447 
0.0602905069551474 
0.1133072039405726 
-0.06939359090303034 
-0.0396451363420679 
0.05286916755315138 
-0.005936623143393166 
0.06458639766964172 
-0.01114060756029164 
0.009955526573566456 
0.05895668364724385 
-0.04818096000155073 
0.04846577339684614 
-0.04274048128475622 
0.09543390621753969 
0.01304386325390743 
0.05400873791952562 
0.1105976243842875 
0.104666675737819 
0.07732964867239663 
0.0121164384242291 
0.08266233463527692 
-0.02370552576634519 
-0.01647076497522236 
-0.04390928507733541 
0.08281840217722825 
-0.09895940934736437 
-0.1421537152523025 
-0.02440901002562056 
-0.1278972135606572 
-0.006712730643305679 
0.06052392764856023 
0.1610989044775558 
-0.01596049559153185 
-0.02837157465133353 
-0.08468604082114731 
-0.04076771065566642 
-0.06549132997213769 
-0.07580912674502732 
0.03358494199819179 
-0.04410159879063401 
0.08370716411796814 
-0.0279577938499025 
0.03505904653017603 
-0.07304325558688869 
-0.05539553613823829 
-0.001942159637960681 
-0.1503052102892781 
0.007518331994905081 
0.03035532687557044 
0.1074609400303015 
-0.04586547410163593 
0.06392667707807323 
-0.008142604398874945 
0.08006983079163836 
0.095225134224337 
-0.004822157832029196 
0.02383133101928761 
-0.03563931178763851 
0.02546338575276914 
0.0201777541989373 
0.08049728155750847 
-0.1087717276988195 
-0.113340131748125 
-0.01060205381116181 
-0.09363545226305338 
0.02432891892277733 
0.08263957110594045 
0.05807407620093766 
-0.07906406186787968 
0.05484528879251441 
-0.02539241629779201 
0.03078879753933135 
0.09240286961612286 
-0.003666771752385926 
0.07023594950128347 
0.03416723250385063 
0.09903496217281864 
0.0167956469790479 
0.07018173085512268 
-0.06925930252052044 
-0.1118533379819634 
-0.03910501354820056 
-0.1668028419561451 
-0.01285859830936974 
-0.01142396102960689 
0.08070668714874915 
0.03980809911489867 
0.1379287051123916 
0.03187114137735172 
-0.007291668708084348 
0.0919689936736925 
-0.01511559862588557 
0.06994335480344573 
0.002077343426067652 
0.08897023408455391 
0.001205387484067331 
0.09092978213887051 
-0.02420494133371299 
-0.145997929493076 
0.01270018478519452 
-0.100167785454685 
0.04794229430011013 
-0.05375099246614227 
0.05450750813895667 
0.009985569347936363 
0.03903282987515917 
-0.008622026533737521 
0.02981041831406938 
0.1724878814255268 
0.05579699810135114 
0.06209994394553827 
0.06633095902089836 
0.03430857783347569 
-0.05327573847048585 
-0.03268537519144357 
-0.09090544488696133 
-0.03946959087976668 
-0.01395755544140277 
-0.2279001563905901 
0.0648293644884268 
-0.01431738717452176 
0.1300097828447761 
0.1353570539133502 
0.07122279671929743 
-0.02483564324560009 
-0.1258320102815939 
0.03151301301400577 
-0.1211328605077687 
0.008066507536687587 
0.03009034918645736 
0.02399109049004601 
0.06522810070582129 
0.00165601718129162 
0.04465111601208408 
-0.05704748285133177 
0.07402724952494392 
-0.08704546471653006 
0.008743864038713852 
0.03513558570726531 
0.0404393285372547 
0.03744022504867162 
-0.01835761845110212 
0.06827150871306317 
-0.01511605175032059 
0.1124434502786182 
0.03452815667850975 
0.08746543694978325 
0.04542717963310751 
-0.07338680795289831 
0.02666387167051659 
-0.03778304826979556 
0.05427221374498541 
0.06761064561044805 
0.001111381655040259 
-0.05155124528504507 
-0.1354709347503648 
-0.02085294821352138 
-0.0289379758455944 
0.05287684317701729 
-0.001292765924119202 
0.03326836458974301 
0.1460904626882384 
0.1063996904771402 
-0.07928801293084405 
0.02527671610517573 
0.04793005582449087 
-0.08201281807369933 
0.04513764965612235 
-0.06213129619165806 
0.030182187552259 
0.008164720939653576 
0.0150347455577277 
-0.07163220530088056 
-0.03162772844394029 
0.03848495480374774 
-0.06937090334309814 
-0.02693606281521506 
-0.01901938047060126 
0.04848220175369555 
0.05161317090004711 
0.09478056389753095 
-0.02826415587447068 
-0.0582957473980367 
0.07360785909563006 
-0.05405172992827081 
0.02741756099642911 
-0.02990890909040313 
-0.02582214558575381 
-0.007321128104937303 
-0.03652394090595384 
0.007738350756153009 
-0.05201354840090967 
0.02154789486773904 
-0.03282932736392029 
0.1045518499282873 
0.05086206511410682 
0.07329908413373516 
-0.01515827879571463 
0.07167522041750704 
0.0751142109614535 
0.005281793712797462 
0.04557844800836173 
-0.07475858275415397 
0.03821654910110298 
0.03612583942988713 
0.02042021076625537 
0.05885419190167204 
-0.05040495570922878 
-0.03704170971918951 
-0.08449071956311976 
0.08041405193907605 
0.000206943153389357 
0.06038438616998709 
-0.001935323465395861 
0.01324014192080482 
0.1165118012969481 
0.02647346888755781 
0.06427878734224872 
-0.009166684125096474 
0.01702844798987962 
0.06479710372573001 
0.07321810992897494 
-0.03355629612634806 
-0.08369623381967579 
0.08223896966821527 
0.01327910077057738 
0.002032261754166902 
-0.04633741642823812 
-0.08960451545103774 
-0.009452209183448614 
-0.05571728156126599 
-0.04614242309995784 
-0.006043960165044712 
0.0008216724675514974 
0.05326458513598988 
0.1176619012482826 
-0.01743434709055958 
-0.006139256435372646 
0.04414232872470805 
-0.005759830151405959 
0.004311344764449871 
-0.004087292593384036 
-0.07384150752832976 
0.00179255779873748 
0.04972911372858945 
-0.004490165802492853 
0.09506581417900019 
-0.02142983148299902 
-0.05066597310065281 
-0.01478019505003611 
0.02028022957503239 
-0.02602633848704053 
-0.00611248927253851 
0.02028382840557836 
-0.07720861695659814 
0.05174640107072569 
-0.03932624064841002 
-0.03788417467634842 
-0.01827745492872043 
0.01806406795067416 
-0.0474039572547152 
-0.0456927113289228 
-0.1221062909238022 
0.0615967277031562 
0.01022268119050163 
-0.0175632892781688 
-0.04330508865393944 
0.05905010866286404 
0.01726993263122489 
0.03866062670184447 
-0.01607718000379154 
-0.05547477101462719 
0.008663135007802959 
0.01981053441700114 
-0.03106635427169718 
0.04066885042647837 
0.05490823082944878 
-0.01122739023546955 
0.04435809309747998 
0.08864824785284041 
0.004389000499414477 
-0.02051202206202789 
0.04518791771675808 
0.01849331364600267 
0.0141292763665634 
0.02308594243390151 
-0.03191768906673666 
0.1272504631918653 
0.06856621937582875 
-0.01328561154631698 
-0.04366835265000767 
-0.004195549626964073 
-0.02799981244528439 
0.04045193392210879 
0.001354687958749816 
-0.03177060618456555 
0.03376181951624554 
-0.05258781039375637 
-0.01518152678702877 
-0.05433640865579367 
-0.04184726184422527 
0.0362223740585814 
-0.002602614675069309 
0.04618662356004826 
-0.04220592377839991 
0.0242901017330975 
-0.02866207569484765 
-0.04955193525062182 
-0.0158265584615679 
-0.1141022683955476 
-0.07447477964725165 
-0.00623032059552907 
0.05077745209403219 
0.0147124837515311 
-0.03965431817529089 
-0.01428387967585027 
0.01602434435588327 
-0.02996368174670062 
-0.03063241139108633 
0.06850915552571524 
0.01523028690540869 
0.002645010835359014 
-0.009293738790684684 
-0.005490546224053749 
0.04985244951052173 
-0.02803997127837406 
0.001081002726861316 
-0.08197437656910977 
-0.05829359830777336 
-0.06109161229522287 
-0.01067078888560256 
0.07602564713598328 
0.02834900531023762 
-0.02001826537602243 
-0.09445400012816467 
0.02208594673218489 
-0.0281011851111811 
0.04215084102319255 
0.01746370025797173 
0.05184018721201111 
0.009344722650295924 
0.02236033555524371 
0.05237296413759382 
-0.002384331386650006 
-0.0576698554008167 
0.02401689615061817 
0.05468641152438494 
-0.001032400268876881 
0.1241252758281627 
-0.07319045772217546 
-0.1188043494991582 
-0.1251147430365766 
-0.1597266419450119 
0.006295307288533582 
-0.07516559687904588 
0.1110683608213992 
0.07406598199520463 
-0.03132776923995619 
0.009775865780917364 
-0.01747403403731775 
0.02839538461955977 
-0.1338492188681006 
-0.00696088915294682 
-0.02905317465507274 
0.06581985214072476 
0.06487489913248043 
0.04873768341259822 
-0.05317452108476804 
0.04246896124809694 
-0.04751686828307681 
-0.131982259077272 
-0.04927728739197621 
0.03537945719156455 
0.012206611561677 
0.0005259104250130275 
0.03267162445405893 
-0.006419303963979644 
0.03470746660605888 
0.08487365205579435 
-0.007202750901242576 
0.0327985526712443 
0.03855327781804238 
0.01920948868246843 
0.1041824359971735 
0.0552338423223169 
0.002893623487595961 
0.02742367496902283 
0.07571934929766384 
-0.0656799559963769 
0.006703592713493279 
0.01871341661044409 
0.0919926528340279 
0.03270376953221379 
-0.002248657033916559 
-0.000626586451620756 
0.02020039110750984 
0.07468762956241085 
-0.01170610252555677 
0.07813663444258342 
0.02035936791389421 
-0.06056006994863816 
0.03920634208281923 
0.00382633777778541 
0.006122870449723977 
-0.01595047432176662 
0.04740218727517508 
-0.07834879239858139 
-0.01121697780043745 
0.01329318996486709 
0.07976070132177046 
0.03955328527178073 
0.06153197435796016 
0.01987463093343121 
-0.01740715873652872 
0.06003964293563254 
-0.08405703576651441 
0.07261689404236288 
0.006142813035615249 
0.006885271944742163 
-0.05835403694598275 
0.07810329885059733 
-0.08436227098488359 
-0.1552245785519759 
0.09057536260086167 
-0.099075905783522 
-0.06598952423718205 
0.02372030002526972 
0.05509842059319799 
-0.009745335101522338 
-0.08077362059640696 
0.0235062069576627 
0.02528601304757907 
0.04647791687631692 
-0.03494944361238337 
0.06864574259546817 
0.1172357371837506 
0.07249009236735048 
-0.03498446018876819 
0.001629200541837547 
-0.08280488750326756 
-0.09710982736958015 
-0.02191793003878866 
-0.1320628401233013 
0.005977473330345756 
-0.01974333377337893 
0.07356211813939323 
-0.05276471722388332 
-0.06107516718914752 
-0.05486088665836948 
0.005497385584639854 
0.04458952137554351 
-0.1073675345042486 
0.1350666392222673 
0.03778669311939797 
-0.01379871918970262 
0.03173267517898238 
-0.01551425842669007 
-0.03530512856390781 
-0.08192838506808392 
0.02880271106920899 
0.01106174439340629 
0.05119293602682844 
0.004598483918263239 
-0.01106558199474395 
-0.01437990145044876 
-0.02602022920078293 
-0.009003581987528318 
0.04072160087761002 
0.1048664881680812 
0.01623180426904618 
0.06207870273871018 
0.04063076729619401 
0.02038468308834629 
-0.004151976044271228 
-0.01092750278021131 
-0.0532550177908851 
-0.001058620688090136 
0.03110813093960115 
-0.07841589377808457 
0.01855591797641784 
-0.06080697583322121 
0.01578775908900699 
0.05048916485502299 
-0.0418304393874752 
-0.02204162693050008 
0.006101058242956077 
0.08663171866311063 
-0.08634551764400504 
0.06079379995456897 
-0.03525339059414326 
-0.05258375819849757 
0.02086952830324545 
-0.06020125095907562 
0.01183196765770096 
-0.07699968127141271 
0.06689813110777455 
0.0636469832476806 
0.01641716813180557 
-0.01118636815857678 
0.04049519164893282 
0.04745214121408591 
-0.06262738365599405 
-0.02513482658260937 
-0.06380210298186503 
0.04570847852930015 
-0.02023738240352203 
0.03766425655641425 
0.09442177887232502 
-0.04444669013537766 
-0.02270023743065136 
-0.01995990222356024 
-0.01609037664082553 
-0.0279086879534317 
0.01579701919479179 
0.09370741419369377 
-0.04037914173964996 
0.009163465071660203 
-0.06992708406482311 
0.03858235458360278 
-0.005568162369041831 
-0.01850284140253246 
0.02666686517727541 
0.1010881709837737 
0.1551421834655381 
-0.05087707684634313 
0.07510977270947766 
-0.06233541393963574 
0.03216094556516004 
-0.007700268950271048 
0.008405811086522025 
0.04986821403443792 
-0.02758785266804863 
-0.05375771331556038 
-0.02891300715860863 
-0.02789980909893426 
0.02344700384085377 
-0.003930288968424989 
0.007943425221282123 
0.008490506345472005 
-0.08952661537952372 
0.08491933592193884 
-0.04454936925308786 
-0.01704522056868322 
0.0674516030624619 
0.0002058774135303344 
-0.03778153286682422 
0.02181126281094516 
-0.02070602357626183 
-0.001868954060881061 
-0.03645929039819635 
0.04191808593452624 
0.04145151920789787 
1.777663257400391e-05 
-0.04335952005735997 
-0.009996575774772904 
-0.0112556877128366 
0.0539905095566896 
0.02708093131671057 
-0.01266692290305397 
0.01846272200518308 
0.0298466426951827 
-0.01759078738996311 
-0.008903696746815282 
0.006122747748393079 
0.01361219977954251 
0.0631747412772373 
-0.0263162477910482 
-0.04725191293071285 
-0.002153465469421549 
0.006052040867237097 
0.0815848421785986 
-0.0197136563480425 
-0.007046832967425563 
-0.004969805305104837 
-0.05992307750454436 
0.001320578691877137 
0.02480370123424463 
0.01993756995838982 
-0.02500688847035647 
0.0144477464956553 
0.03619145883029515 
0.0148160347478933 
0.02721110122552535 
0.04450681821259433 
0.005302797737677002 
-0.1030797614050794 
-0.03124928152239079 
0.02496639493330874 
0.009785161003945327 
-0.02763233886318333 
-0.0590636328850723 
-0.01245286787797613 
0.01767509911634182 
0.03073777221038157 
-0.05352229112995998 
0.006731628522583288 
-0.04930108505818177 
0.02896241522053016 
-0.09041334474778066 
0.06366496599430622 
-0.05159055822252333 
-0.0436063181845851 
0.05491318624288129 
-0.02215401378104601 
-0.003623416491621496 
-0.00540831227408782 
0.05287697427668686 
0.06098122963822945 
-0.01348187738265307 
-0.057729995411604 
0.003944240818499058 
0.02998151921938234 
0.01576752587046873 
0.09878558022986428 
0.01705909572409159 
0.1335439652732924 
-0.02804764402697469 
0.05950379425268688 
0.009766455251074732 
0.05464107041411128 
0.00203833683079554 
-0.02413278262711483 
-0.07386461704260558 
0.006159030163699925 
-0.1057528904450185 
-0.0283214813782679 
0.0295381227261464 
-0.02150938837757589 
-0.01139124670755546 
0.05771448500320705 
-0.03449385265450332 
-0.08075907865497362 
-0.03311815659644295 
0.01446768120200709 
0.0270940022954616 
0.08578393311163469 
0.05852402782038413 
0.02305872869165312 
-0.08392550856280233 
0.04738548915902803 
0.006669625948454522 
0.01629101439575779 
-0.06793623471608652 
0.07747660427547845 
-0.03817983792368761 
-0.03745064301813347 
-0.05362057803403587 
0.03670379124960842 
0.04982867673530133 
0.06199014919967851 
-0.01837992146950254 
-0.01878735114625276 
0.06110380722481611 
0.03084184845114007 
0.01009052598383657 
0.001271737540930834 
0.02147084987090607 
0.07971844432836735 
0.0346381244194803 
0.04476159799822559 
-0.0530383980865782 
0.04551319129805087 
-0.06538193472066796 
0.03528702070802199 
-0.001662962313289257 
0.05839085597217102 
0.08073188155037675 
0.04347841470986467 
-0.01307397631551522 
-0.07077429028381961 
0.07123869685613161 
0.06289196716130428 
0.04718952329173279 
-0.02876894532078696 
-0.09120105545824289 
0.02628946069187515 
-0.05740383677007398 
-0.01266113287727961 
-0.162086728899715 
-0.001925435911325341 
-0.01416452865170674 
-0.07452027334506382 
-0.03931330507491686 
-0.03769782445572798 
0.007938078832919868 
-0.1095740897186488 
-0.01634312778093158 
-0.08867348341054762 
0.01717607529398875 
-0.09730860003099516 
0.0225435773837082 
0.00596096272230887 
0.02000608671862706 
0.01929695532828464 
-0.01099420677714363 
-0.08119925071841227 
-0.04736383985873422 
0.02039602077480486 
0.05943024749220956 
-0.009239787430918063 
0.04318922603893378 
0.08496421146827152 
0.1235182775653175 
-0.07374948439756071 
0.03142336255428047 
-0.02083642554413042 
0.01283934059686373 
0.02066244465658962 
0.01439505347202643 
0.01763140172862415 
-0.03928383987893094 
0.02512618347880171 
0.002058655016191581 
0.03842343275222573 
-0.04145445402538104 
-0.01868826906758944 
0.07468219785905419 
0.006170174882669992 
0.02373336216588011 
-0.004207445063397115 
0.04878873341019879 
-0.01235578694181725 
0.1050991510110036 
-0.02570647847456526 
-0.02078630524184343 
-0.02896378567008115 
0.1108580812354045 
-0.01741249018019483 
0.01718378520399714 
-0.001780974497292696 
-0.07252661289320861 
0.0415284918612375 
0.001552371873271577 
0.03439883207323731 
-0.01973658806992553 
0.08552024647651973 
0.01996175345124326 
0.02063066202388437 
0.05205410845943079 
-0.02067870867948094 
0.1071568978719994 
0.003517063628505297 
-0.008161374226192787 
0.02367289818525422 
0.05268953675846738 
-0.02387328044394128 
-0.01717223407195802 
0.003806931157150458 
0.006530238062676888 
0.01671336316123526 
0.04637628682199225 
0.1165649051623683 
-0.01775306944124019 
-0.03814035919908528 
-0.003308831836875901 
0.03051289833843041 
0.1140945362218342 
0.01366361744027153 
-0.02134409953611707 
-0.05625501715759641 
0.02590732762820006 
0.0209420051165995 
-0.0306395486526468 
-0.01842585091134965 
0.0326854967633882 
0.06128135411665517 
-0.05356740763285821 
0.07301799240753941 
-0.08967899006692236 
0.0009215647877953679 
-0.06324287136965648 
-0.03759651937875778 
0.01827361665415189 
-0.06600373828906093 
0.01020822492482116 
-0.12889625483785 
0.09737582380466449 
-0.0999847244145152 
-0.02352431140280284 
-0.007247558732583067 
-0.127108828623966 
0.007383136922099591 
0.0110986950291384 
0.079485672045164 
0.005721369354900404 
-0.005645209021115154 
-0.03873167483175203 
0.0515458956719826 
-0.0484269101387946 
0.007023048229377327 
-0.01884205936094483 
0.0005470694832467703 
0.01142184523603619 
-0.02272128643892962 
-0.02052027257874713 
-0.05678549237825173 
0.1106376135510019 
-0.02736436476253969 
-0.07822101432933085 
-0.004582591536106485 
0.0572589817330247 
-0.03467261110095234 
-0.1240791805215351 
0.03639623764630862 
-0.0629977646667356 
0.02409500579614175 
0.02196258135532595 
-0.08121945194100945 
0.01795862045898033 
0.1299459027808114 
0.0783808897797733 
-0.07856241491821433 
0.007928572569344622 
-0.002120028080143154 
0.1416555573906867 
0.03092861464489792 
-0.1009251948654743 
-0.02516316469767508 
-0.06998555150702078 
-0.07733283301372752 
0.00333093651524792 
-0.02709143632336572 
0.06234485158260787 
-0.02190450069879394 
-0.08254961304518213 
-0.05047305890274042 
-0.00117778646209078 
-0.007710033539691121 
0.03251397745822105 
0.08625813322012306 
0.04453552286028981 
0.06341754757308722 
0.07071309822478812 
-0.01433529835037963 
0.04138526506840211 
0.02318470245247835 
-0.05906024715374501 
-0.02729432937491158 
0.04283839044437929 
-0.1081582657772703 
-0.003820220437587577 
-0.02408863681240751 
0.02118840495653932 
-0.01157011854894913 
-0.07713248012694718 
0.01699195798132984 
-0.007067748064372263 
0.009062181826818594 
-0.0971374171840074 
0.1222626609393568 
-0.08429632581003373 
-0.0161174476730588 
0.1041266170261184 
-0.02564056248344714 
-0.1238902282302804 
-0.07776069404069484 
-0.06104467387947057 
0.006221076385319727 
-0.02732827789912227 
0.09849348533044575 
0.01089308773265794 
0.009435362165352259 
-0.0398218447965576 
0.0151012602461574 
0.02306497085737136 
0.01126348249239308 
0.06618763055079219 
0.01331762858214153 
-0.03816082222375806 
0.06064246957143175 
0.02675736827919497 
0.01705675964859328 
-0.02102336411629214 
-0.07923447536927512 
-0.02743980725576852 
-0.05254835816493778 
-0.07846328781797467 
-0.02869798130180455 
0.02385688577857809 
-0.03990572447468373 
0.05075786794380398 
0.09305950720312163 
0.04414907554505628 
-0.008185934687086647 
0.05561627470534904 
0.03175829387889067 
-0.118984398109672 
0.07355247857321467 
-0.046044199184543 
0.0463709459762748 
-0.03996979490779653 
0.05224060622926133 
0.05983307690346822 
-0.06515506073969607 
-0.01111916668041287 
0.03842715903667108 
0.03343659714428998 
-0.00464741700883133 
0.04679938794310963 
0.09186591731973343 
0.02295857010767383 
0.04610691661627148 
-0.002493635224650094 
0.1226067772025248 
-0.06937145155773378 
-0.01283241507972739 
-0.04447754611098109 
0.03428979766263496 
0.03396260352405536 
-0.06859274131435607 
0.001436924630849358 
-0.03646502130213018 
0.01775782451020876 
-0.05600523907591416 
0.06083396986286791 
-0.05068197850612278 
-0.002646326675449861 
0.01184059153357127 
-0.04983408177490831 
0.01910365789870286 
0.05385782314107931 
0.01724468372518331 
-0.03918889223822624 
0.0782948898725043 
0.02647201586471956 
-0.09471579847888531 
0.003061252703713184 
0.04129681949468392 
0.0533634735096003 
-0.01472173528802758 
0.1292873380181142 
-0.02325129185973618 
0.03554560452022869 
-0.06760701471358377 
-0.03549456882762846 
0.01321792734019766 
0.02974593136903938 
0.05882943104863367 
0.05519764463946054 
0.03576351065759474 
-0.01284625945928632 
0.04389798526837026 
0.03453383335465954 
-0.04110250989778787 
0.09711821119325909 
-0.04058160104985265 
-0.04300507564333673 
0.0300646123680129 
-0.01417873420953224 
-0.01284773615340956 
-0.007185831212553468 
0.06379742291574592 
0.03962134114023915 
0.04202265560848934 
0.005302880269129656 
0.001423419304922437 
0.04242400745650473 
-0.01161813107029482 
0.01431620320420835 
0.002614757628341925 
0.05015750699859859 
-0.0629547210205641 
-0.03489149575820683 
-0.03440947013237117 
0.01350817001945458 
-0.03149097162178423 
-0.06919423641771526 
0.02429508279576574 
-0.1277800724286502 
0.002698106105786894 
-0.09099499296058335 
0.05070749549611445 
0.06004804577252751 
0.06030098656387196 
0.01286255133885306 
0.03751590638708064 
0.07373868350876484 
-0.1306467962880827 
-0.05544692882880407 
-0.09097740342234048 
0.01250624520550276 
0.05919808605938387 
0.008075968507660155 
-0.04539291721834583 
-0.1308218531290981 
0.1257035309130274 
-0.02817473044715572 
0.03680078668809977 
0.02423478619999535 
0.1050652963465336 
0.1090264449723118 
0.01338900906061739 
0.02068727033630188 
-0.05003577646873671 
0.1242586349590527 
0.03529931921893183 
0.04995699878288679 
-0.05025863541831237 
0.003026921358164085 
0.04250177871484884 
0.03536696576019575 
-0.06092349184143985 
-0.095099220561914 
0.0528269717449061 
-0.06237110941567096 
0.03189078669563378 
-0.01212086319868227 
0.02496252677388669 
0.0213284525290941 
0.07895527087863517 
0.08615723269604657 
0.04598738554477522 
0.06727469486124388 
-0.0256603636835457 
0.1061900749114274 
-0.01806144323190171 
0.02085646490042342 
0.002341151865544215 
-0.04259257528119696 
0.05560651342970879 
0.005852381801915753 
0.06462678190805785 
-0.01259518079456051 
-0.03991712658973907 
0.04977437813744896 
0.01957793647376174 
0.0177247641990177 
0.04538296039596257 
0.05284429549499355 
-0.005943653005519663 
0.02695800720861866 
-0.04548877943967973 
0.07808750145922397 
0.01212594131228309 
-0.04834789826787481 
0.04200338964471085 
0.03306540170146642 
0.06613732421730746 
-0.02116363923892494 
0.02488976380916859 
-0.008413880112327805 
0.05122295190681641 
0.1477396917969075 
0.0005994776271211378 
-0.01347434197197062 
0.08808324975416083 
0.01651330001925044 
0.07668226835749865 
-0.002482271880539885 
-0.09039954767463713 
0.04214823962160309 
0.0137632605234572 
-0.03101637661366531 
0.01474572028084288 
-0.06480938813000475 
0.05011292957349719 
0.04740386242210841 
0.01818138813262448 
0.03316464575229659 
0.02110591241348232 
-0.02129113244609778 
0.01596749358896611 
0.02301165779230918 
0.02426334492423849 
0.1708760253198306 
0.02234177691233232 
-0.06663465239032562 
0.03390092889816608 
0.0418546202504135 
0.03686775826354571 
-0.01252960801441915 
0.06911923070161849 
0.02691299608687518 
-0.0783426611847176 
-0.01006380884683596 
0.02679135342003022 
0.02254214359320367 
-0.009909083299047525 
-0.003773582132067716 
0.06175295632472314 
0.1029814821613521 
0.01456641952922572 
0.08412194979859018 
0.07543619053269764 
-0.03996612182441657 
0.07186702127854329 
-0.01432863400450899 
0.02977459655186933 
-0.04865366455498332 
0.01267011666351395 
-0.06213409335264461 
-0.02081211956030574 
-0.02665758388208157 
-0.0187005892987462 
-0.05193459395678206 
-0.09444698840466868 
0.0794768047786395 
0.002227407026585574 
0.05256776310917186 
-0.07480525597583869 
0.01538590791779264 
-0.04222827436867023 
0.03929346869492292 
0.09430711823805103 
-0.04380817366057666 
0.004939316012273873 
-0.1187512692292855 
-0.04253993682702868 
-0.0559982178555628 
-0.01251575217167199 
0.01709905585229774 
0.03704943679140387 
-0.03495264390372482 
-0.04383686966995065 
-0.006313196356652171 
0.006795731770713693 
0.1049156284368942 
0.02888315474659102 
0.06590816764482085 
0.03176755411520839 
0.09132682627473307 
0.02743530572481537 
-0.02462213344364298 
0.05078692830513487 
-0.0003373318955004826 
0.004664739283066736 
-0.1336668198374701 
-0.007746189675702 
-0.0742236481027771 
-0.008034764812612557 
0.01804974743002263 
-0.05224736562957324 
0.01717218843096047 
0.05180248170152855 
0.01760344405124389 
-0.03315998421312125 
-0.04049893066316167 
-0.09846216817766879 
0.001914116738830447 
0.08611352761534492 
-0.0296493401472713 
0.006529862401422495 
-0.08862536463343118 
0.05828835048878759 
0.07314048974772412 
0.06260297811098287 
0.06639058510666582 
-0.0220123227813924 
0.01904724823737126 
0.06486470671681742 
-0.04135907098846203 
-0.01123013597491292 
-0.03032072466250639 
0.02730405015964803 
0.03052993650131815 
-0.006671776856114624 
-0.02132056181696568 
-0.05790877709481244 
0.08884850459523734 
-0.05049442001276019 
0.0229769590788262 
-0.01900300608855816 
-0.01188405692289558 
-0.02360412328527486 
0.01361114831417951 
-0.05622936881935922 
-0.03869571969958684 
0.1115482698845385 
0.03487674796132835 
0.08675689854105127 
-0.019050869649085 
0.05972161707959477 
-0.03450010021130516 
0.09143383438276907 
0.03601167918920398 
0.04590040118453897 
0.04734758341048566 
-0.02016298426601807 
-0.005230032749399615 
0.001713536013179559 
-0.02696632221124662 
-0.002748393890423421 
0.04185952181338757 
-0.04206216923346899 
0.04649150082442916 
-0.01199870089913256 
0.1313225186833698 
0.1003469798363328 
-0.06507568699091008 
-0.006042737122787784 
-0.04740649094594447 
0.04220619610540109 
-0.03226755689990011 
-0.04752197796878515 
-0.006836010046663838 
0.01148034918752511 
-0.01136762282458539 
0.02253434563463914 
-0.04528405272350269 
0.05443039290156024 
-0.01171054014158002 
-0.04164935034943797 
0.01760366108006617 
-0.06618103426385104 
-0.00995185258630359 
-0.0002370740097456798 
-0.02340720102525348 
0.01359563242371526 
0.001323346890478634 
-0.05479067981258832 
-0.02860570397636479 
0.01712436847442275 
0.0661246292680165 
0.007424043394326055 
-0.02998234014183593 
0.05166203398855873 
-0.007945889673887669 
-0.006579408048303062 
0.01837681045734797 
0.02758943898938952 
-0.01963735608635385 
-0.05751053566954573 
-0.003863348017874849 
0.03380264199338387 
0.002862071925768577 
0.06143189405338887 
-0.0325721190344694 
-0.01860544200564206 
-0.01400060863799737 
-0.004050691855693717 
-0.00122400365011403 
-0.0689699579130371 
-0.03488740096326026 
-0.04486265406999916 
-0.06267604764980253 
0.04794584597290356 
-0.07701865433399888 
-0.002539654274086177 
0.03584085002434391 
-0.04389248518583368 
-0.005632850757979362 
0.006104696058588701 
-0.02480499603901534 
-0.02295941760250035 
0.04559917137021289 
-0.09418680300295246 
-0.1341037517198121 
-0.02084082707724018 
0.003300232864101704 
-0.07479915242915776 
-0.03524091287448982 
0.04147504529734321 
-0.0168705865258667 
0.06162831562300207 
-0.01945588663609698 
0.02342468431282261 
0.02984936316369933 
-0.009916803609158331 
0.09481697474574544 
0.02983894379725163 
0.0441420592615648 
0.04321922659098973 
0.05433963187780883 
0.001202082927141869 
-0.001161171007563597 
0.01629708560784527 
-0.0175390957809054 
-0.01699044129656229 
-0.02813669373643322 
-0.01605064459758811 
-0.1045953956906395 
0.01172171744305035 
-0.01753720067186515 
-0.02642564632429708 
-0.08733007072191661 
0.02828298756111803 
-0.01163282311217208 
0.06581133705408292 
-0.03432602013305474 
-0.02769827715172677 
-0.002938124630081634 
-0.01048116699886755 
-0.06673303001535934 
-0.03461528236427324 
-0.04303287099831805 
-0.1015413350662941 
0.01756225484947032 
0.01067702662789524 
0.003448733102511104 
-0.03752122770987081 
0.01837692593101314 
0.08410819751520927 
-0.05225422532743589 
0.02080205084998945 
-0.04231153168532104 
0.08730378089736553 
-0.0007324226318160302 
0.0179205656334514 
-0.04930338161722427 
-0.001148012612069018 
0.002620804131031114 
-0.02117971280599655 
-0.07742817371323693 
-0.05363850414106205 
0.03482576001988198 
-0.02404560218933079 
-0.06000258189849359 
0.06312974855346301 
-0.1374118153936405 
0.05255121697027974 
-0.03877025651652576 
-0.01350967395247273 
-0.002974943450007208 
-0.003628527574293825 
0.1116407121673126 
0.001916083940110846 
-0.03892008959381096 
-0.03011769881180561 
0.04863954845977581 
0.1290372606144411 
0.06480933776128042 
-0.05182630246445642 
-0.1094010811561462 
-0.07386159748546002 
0.00167888704371079 
0.1043574605330577 
-0.01916306442983513 
-0.02618003643413578 
-0.05891376156361548 
0.02342476512286276 
-0.01110055638379052 
-0.01833312659803491 
0.06979307786985391 
-8.889123340629867e-05 
0.05997992182877548 
0.01715928810785119 
0.003041213458516392 
-0.06199905244568132 
0.0002666780055869139 
0.01046268715746429 
0.007967604880498925 
0.01184700544134425 
-0.04741511282933827 
0.07596774577299574 
-0.01671480341166762 
-0.006411098204739857 
0.01961067514162468 
0.04425527450452695 
0.1444920461728687 
0.06713164333270671 
0.05524170228493688 
0.08292987284087372 
0.04732640708524641 
-0.05456750253688422 
0.02805267394062734 
-0.0201237618047311 
0.08503442213619601 
0.06888481970100564 
-0.04349453618432172 
-0.02003324828090182 
0.02482147790314411 
0.006341514483551793 
-0.0449191927477605 
-0.01982422278125511 
-0.043077909811675 
-0.041047632404201 
0.0973557025395147 
0.002790251026028037 
0.05055695243788957 
0.03196802810470296 
0.1010122081757933 
-0.007823836346534923 
-0.03966341039111761 
-0.08352088698908305 
0.05336900862593066 
-0.02380410738397024 
-0.004206580661525509 
-0.003171184837729157 
0.007678789876837787 
0.08365988218522971 
-0.01839749117011139 
-0.03360475397090113 
0.01544996153328786 
-0.01338184693703623 
0.1482446347873348 
-0.06070747478352857 
0.02899936471988287 
0.03801036524376199 
0.07374396816181387 
-0.01095517094616226 
-0.053346579955392 
0.04465175086959338 
0.07118634707370342 
0.05584227605984955 
0.01336015359784922 
0.04316439046736765 
-0.1016515739485327 
0.05284819787156204 
0.03288769117619931 
0.03425603084784426 
0.05080501006754035 
0.03795453244140504 
0.09133068065689842 
-0.01042750297160536 
0.1094256199430375 
0.1142028302907156 
0.1280149835750416 
0.01580772720560102 
0.02254061361468499 
0.02315304437047187 
0.04092325259886102 
0.09104385646083391 
-0.002875977664061018 
-0.0162437881402707 
-0.137358818777977 
-0.04457599055855988 
-0.07614830059612362 
-0.03288666063390503 
0.1120057961923905 
-0.02393501368384114 
0.01535265680253491 
0.02170475112975617 
0.05226007983217489 
-0.04564519868727526 
-0.02873069335987977 
-0.07158232173470798 
-0.01015075296358956 
-0.007177111095276406 
0.01762172790580682 
-0.03319714339839396 
-0.06180941010583123 
0.007512066629456203 
-0.0696523423720035 
0.04630443963360575 
0.008531579291603534 
0.004390621899346141 
0.004139864562185235 
-0.09282830591877582 
-0.05227283428844304 
0.0290205388686089 
0.06946215954158323 
0.004245185730961796 
0.0420699832107671 
0.08596311165915288 
0.05798491292825961 
-0.02567330448123256 
-0.09642310958320921 
0.01471111532965464 
-0.03771784078948251 
0.0009469185845832424 
-0.02755425275821018 
-0.04483544703642285 
-0.007239107142919217 
0.1143895148558024 
0.08053430756060299 
0.01939054684686519 
0.009914585414609316 
0.03213167171617008 
0.01239965067025698 
-0.08002138922363458 
-0.08537197837605222 
0.02513126289425682 
0.01405918888867761 
0.02098266943266208 
-0.08732148430814364 
-0.007670105471327165 
-0.06322225347718069 
-0.001503130871513079 
-0.02069944333641418 
0.02233706928709097 
-0.04690078306903753 
-0.005097803936017243 
-0.04621591910715984 
0.02529361549355193 
0.007262489742539196 
-0.02790234822691006 
-0.03432383023714062 
0.002653244290666389 
-0.07058121253582511 
0.03271948892791506 
-0.04810405119499159 
-0.03763613930555118 
0.005122756578968179 
-0.01743748454671029 
0.003142139936056827 
-0.02262773354643605 
-0.023141344017773 
-0.07241515405868955 
0.09422343009380214 
0.004920085098041264 
-0.04617226540683422 
0.05640125304209734 
-0.03408263565779561 
0.1111917370181651 
0.03260250498158167 
0.054148368784189 
0.009752569916360273 
-0.004939460000124037 
-0.02913632350410495 
-0.009290535278814186 
0.04933600017391319 
0.04829279416998696 
0.01834970908816153 
-0.06401325701754668 
0.05926777250298053 
0.00859376084994707 
0.02278139672620416 
-0.02503721344774991 
-0.03376914447611946 
-0.1198236981118214 
0.0726603112097232 
0.02414384879927287 
0.02603290735454022 
0.06937297681848699 
0.03939800281948759 
0.03501214233999054 
-0.02263332710588948 
-0.005669066464768215 
-0.05780527684772539 
0.07167547884578442 
-0.01898133553516325 
0.01422114743161773 
-0.04428499923712503 
-0.05176534325984374 
-0.054306475548457 
-0.01382317504889597 
0.01988241071314754 
0.06364064198919617 
0.03534453812235035 
-0.003845129624198223 
0.004797124819675265 
0.0168766884828592 
0.06176136560754781 
-0.02548341653647505 
-0.005029524300996424 
0.007396746836099372 
0.01510978626476922 
-0.01176794791862604 
-0.03415751250916568 
0.009598571541668814 
-0.04743675321230793 
-0.0820982907065569 
-0.04762466030615003 
0.0349475833006415 
-0.01222965073360842 
0.002650333943603229 
0.01944256505141691 
0.0131833993537818 
-0.002256814746551875 
-0.04272353937059697 
-0.009094948128258224 
0.02669510382490832 
0.04704722765587144 
-0.01490052200492419 
0.0009848414842458018 
-0.0699938628092852 
-0.07698087225690675 
-0.04279411130663171 
-0.006180613500025432 
-0.04358997260607494 
-0.002203106757681401 
0.01705064040567756 
-0.03760627743295044 
0.006326806529519305 
0.03377140361690704 
0.008771834883395615 
0.01594744437170114 
0.007020872751828852 
-0.07682727073540835 
0.07026806626604591 
0.07495997301316014 
0.001449104695298138 
-0.04553540980568021 
0.03920518815056841 
-0.07784491944943293 
-0.02552349277473932 
0.00280352692683432 
0.005209003223806226 
0.0209521866182225 
0.07676114481772306 
0.005650788069762983 
0.02275404789203861 
-0.06263690393697974 
-0.02522726178638758 
0.0370165534242171 
0.0148203849452957 
-0.009821215728411678 
0.1174320331316819 
0.0538605788622921 
0.01152482667790893 
-0.002119902076190668 
-0.06889535133195773 
-0.003292169157494907 
-0.09917027286009043 
-0.02941692817117557 
-0.01441299489791117 
-0.06988594675506968 
-0.07252330688560195 
-0.03156701767095954 
0.002176831619027182 
0.07146796965339119 
-0.04812750084546518 
-0.06460629278403768 
-0.03501659678967144 
0.06069112066300052 
-0.005477135208436521 
-0.1182224147328065 
-0.001111371362369644 
-0.0244774298940155 
-0.0416799143352307 
0.06193818815267182 
-0.06988831847507729 
0.0198384506926062 
-0.02836852869635177 
0.01793394915976057 
0.009867547197408301 
0.01292676036653678 
-0.01402989314072364 
0.006537996779794897 
0.09822739933293603 
0.03608493866660462 
0.03286035861009025 
-0.03306906323891333 
0.02464552141247575 
0.02265116635745549 
0.002817931597043312 
0.002940252323244215 
-0.09404574421729839 
0.08873011803960638 
0.0002978294562773879 
-0.08057444569867109 
-0.02731873538447692 
0.01661921887003608 
0.03464488406550865 
0.03046224551477116 
0.007985650063447019 
0.0348945959451771 
0.09014528599703189 
0.0003380905083831633 
0.0119016548053209 
0.008669385857338624 
-0.05450727859848593 
0.08883088996703299 
0.02867360292356908 
-0.03609410760601038 
-0.05778147362896217 
-0.02770740536916463 
-0.02559900294977236 
-0.07735862432425349 
0.003313684932780302 
-0.002612798075030493 
0.05446810059516796 
-0.009152004337214876 
-0.04935390043620833 
-0.03155142355532093 
0.03024209206278282 
-0.01421121035698985 
-0.01020106900323555 
0.07995297655771226 
-0.01987137683747908 
0.04926132555676212 
-0.1441868445937105 
0.03856376685955715 
0.0655491034232486 
0.06038961014387732 
0.01271350788391659 
-0.05471415977119375 
0.08343605289709394 
-0.03264468575204463 
0.09178587570276547 
-0.03355671072143992 
0.01724949189085894 
-0.03342993831021605 
0.04517274194093074 
0.003141882814083344 
-0.004595196985014514 
-0.01557306690332657 
-0.05741877768206884 
0.09284818979686631 
0.02117960129742034 
0.03205410725733587 
0.06090746607112832 
-0.04214319710072537 
-0.002111846660373571 
-0.04172838280427206 
0.04909007747822117 
0.008282350410315725 
0.0120228332008878 
-0.08207842102239242 
-0.01328108213976209 
0.03420265466394711 
0.04782217249136284 
-0.00521507359389292 
0.0420761879064141 
-0.07828318163086916 
-0.09086754218509535 
-0.0359776626930312 
-0.06578194881185596 
0.04810411057049709 
0.04127749548932095 
-0.1313128511555398 
-0.003782935081472897 
0.009173186925525907 
0.03131484231476238 
-0.00845483467625493 
-0.008456934138787382 
0.001638945400298198 
0.03644504651213161 
0.05391158688259621 
0.08991914466975395 
0.05696997306667499 
-0.007198058877924747 
0.07307064598135105 
-0.03768278943796348 
0.01793331631775128 
-0.1021545569557329 
-0.04611293321232793 
0.04829046798842665 
-0.1200345789451429 
0.0848196639847856 
0.08336898630978266 
-0.02600593332878985 
-0.05166343858041468 
0.0962966924118438 
0.05848167113784423 
0.05167984398373469 
0.08000344869824561 
0.1012638139346238 
0.1226417318876044 
-0.01929479687693531 
0.05205428567811198 
-0.04872020747992951 
0.04796204350159232 
0.006588709469723982 
-0.04608187948360351 
-0.02185450033081854 
-0.07407371004219834 
-0.04544617206280843 
-0.05661528598398558 
-0.01842161346098089 
-0.08033973485017606 
-0.0191621088513023 
0.01558011706924889 
0.06240531470401073 
0.01937888573056886 
-0.04033707583261188 
-0.06243299857337615 
-0.04425503644240254 
-0.005835349514284696 
-0.1106020550903763 
-0.01765340992895758 
0.05296856718729525 
0.007041479048649955 
-0.02676675186827692 
-0.01033119744240223 
-0.000126695630647077 
0.02500047479907052 
-0.05187302977740468 
0.0227797695135693 
0.009475153181975038 
0.03185031340752185 
-0.02409427833230596 
0.04779786102286512 
0.008184703488768678 
0.00678919938088474 
0.08842930061432859 
-0.08212898540986929 
-0.05074972148672593 
-0.004278406500772228 
0.02592822655230907 
-0.03986951619574199 
-0.02004900966575809 
0.0277003933556475 
-0.04879433493894787 
-0.03646251254484352 
-0.08214257701722963 
-0.01660272683615351 
-0.005750806734223769 
0.1121056467251002 
-0.04237376367727737 
-0.01253147983372414 
-0.01900012556287907 
0.04289508251509114 
-0.01783585592130569 
0.03145322617237967 
-0.01399249614118529 
0.003823057900043445 
0.09829707211645916 
0.009648633063847044 
-0.02267686267481609 
-0.04556392520100657 
-0.08874814231163965 
-0.05041964906688323 
-0.072132469006307 
-0.05153077673955545 
-0.0426063254920668 
-0.0227257909885527 
-0.03306818387513231 
0.016247133338943 
-0.127423540651235 
0.01499094395309795 
0.02096528525272867 
-0.06768973063693209 
0.01467686994831091 
-0.08443581935284786 
-0.0658492693726441 
0.06023926210394314 
-0.09284740008028468 
0.0730740565635901 
0.0489584980872477 
0.02829284833044755 
0.03202690401822528 
-0.0361431285319064 
0.03932065936683634 
0.02676686905753074 
0.0234840305078153 
-0.0880087261660872 
0.05083692902782862 
0.007422095651081506 
0.06182358751808056 
-0.03308686700924321 
-0.04413196846148584 
0.06793457373664999 
0.03477148955052471 
0.06411771365883362 
0.07693365778336866 
-0.02782373914667067 
-0.06009133102145504 
-0.01561140234928407 
0.03246871994876339 
-0.01378411856837574 
-0.03819429520938739 
0.01737249731776437 
-0.03582890914936135 
0.001136254159730736 
0.02725168433452458 
0.04896834961443888 
0.02197203342226403 
0.0538411264013155 
0.04535683015047424 
-0.05689792776357859 
0.02096510375807395 
-0.02728990863631714 
-0.04074499834825812 
-0.01012910032654854 
0.02094855419752291 
-0.02400210170641006 
0.04165417382156163 
-0.02615244954081843 
-0.02782263045315886 
-0.007362845784775536 
-0.0151914422012821 
-0.1047457419065856 
-0.005313358559360317 
0.01479105268399864 
0.03496158210449383 
0.02421287455762007 
0.06635186647491642 
-0.002175831966711283 
0.04308569796124056 
0.06872850266766199 
-0.01198176640403618 
0.03139610420723049 
0.03826914330730805 
-0.03701497420696111 
-0.0007986878557231709 
-0.004318783878676783 
-0.005654575152991334 
-0.04307667281755931 
-0.04695986920096494 
0.007125594216858029 
0.03798331430150679 
-0.0002776070601820284 
0.05397417622980893 
0.04528201749682522 
0.037564175041724 
0.04566140652561498 
0.0226425677093935 
-0.008602142782533035 
-0.01121241650494011 
0.04007967216607636 
-0.003928437639119852 
-0.01598329702304915 
-0.08811464729473022 
-0.06534788040954005 
0.01328811010476987 
-0.08539968363584803 
-0.009398592286614677 
0.04698575269225261 
0.01958333235417796 
-0.07776974032417371 
-0.0536331888666457 
-0.005271053041664421 
-0.07569350070034246 
-0.01560361432077181 
0.03026988260306245 
-0.03231517038082526 
-0.05392554420311866 
0.04442990372879627 
0.08062341167026979 
0.06601061875031841 
0.03759433571782227 
0.02636731777953822 
0.08130438577238623 
0.01498479962502629 
0.04405665504495761 
0.03391056210263582 
0.04243407244233841 
0.03778780429826951 
0.07111828756087922 
0.03909485412769039 
0.03471488319025287 
0.04629015610290158 
0.09382103752210608 
0.00409647418263039 
-0.03057504883356009 
-0.06442069132312242 
-0.05364533047643352 
-0.009178661055346265 
0.03794818586711098 
-0.06896967552608781 
-0.1036160717880464 
-0.04372895853376073 
-0.01876968154508586 
-0.03355803783027363 
-0.0387462826196335 
-0.07782707646936066 
-0.02667678525105564 
0.113614779235945 
0.02399217615351787 
-0.004907889140628217 
0.05696827428383292 
-0.01122508352502502 
-0.005903154600976662 
0.04703713089960131 
0.02413515713574903 
0.0151710683558631 
-0.03796329631758205 
-0.0042827581008218 
-0.03963639060939595 
0.04376820422144716 
0.05776926684764158 
-0.01037498307838548 
0.03975813337636424 
0.03123570311023217 
0.02520497192517554 
0.05411448004762876 
0.06105912283716348 
0.03263798944428792 
0.0315160145343238 
-0.01932801319614012 
-0.05853542870683711 
0.1193492978621111 
-0.04322766025071351 
-0.003528223259255188 
-0.03856083397651478 
-0.03698415974228048 
0.01994130048991808 
-0.01585924752113667 
-0.04207383872645917 
0.03684638228383681 
-0.02648057003884458 
0.01234226411988646 
0.04414295764393397 
0.04782801476826035 
0.05160393436115036 
0.00646257111438073 
0.05859009822949042 
-0.07156898856494835 
0.008006378809819163 
0.03565340629442565 
-0.03465390604426961 
-0.03805775961061474 
0.05706558759048186 
0.02725633835965917 
0.0007941813169562213 
-0.05605559234475404 
0.05627258929020736 
-0.05132708014099623 
-0.03283996515972786 
-0.003831935262925778 
0.02797212815637817 
0.06320709137473306 
0.03435716558549053 
0.001262056843270985 
-0.009925252554611342 
-0.03790218981605592 
0.05105247388863387 
0.08369501435543714 
0.004444156365577492 
0.0308585478162468 
0.001815468898294614 
-0.03571701728304831 
0.09732443785393366 
0.07113123464753854 
0.05436114049704579 
-0.0693541308178855 
0.05687419268877186 
0.05785538998149591 
0.05640801724691174 
0.04983648308344594 
-0.1007616836227408 
0.002690811747133023 
0.02903600756443861 
0.01173741333105272 
0.01334360817423489 
0.007097371748031852 
-0.05366249909131165 
0.05108177323948979 
0.01533003914548394 
0.01642457505168825 
0.09291902334760882 
0.04371153654169781 
0.06434519401931305 
-0.04231147471053948 
0.004641562522992686 
0.07753846909619556 
0.1247331104948505 
-0.02269049980663128 
-0.0392341331938525 
-0.03746508400685775 
-0.06703101391098126 
-0.0267398995175153 
0.1007007707267635 
-0.006395786824701695 
-0.06213405661949685 
0.07080782677876164 
-0.02190603507603592 
0.02933804004668748 
0.1183607665753958 
-0.005446202794540078 
-0.01463736785197484 
0.009926789558283884 
0.03414134647113464 
0.02276831733154421 
0.002891255866806021 
-0.01224021936502846 
-0.05333938975617442 
-0.02939038123885169 
-0.03529607423166226 
-0.02827308518149119 
0.1287431277617542 
0.04378032875763598 
0.1074035745560334 
0.09770710074484319 
-0.02571595738188858 
-0.06232586756305471 
0.1391088771492817 
0.1114781708234809 
-0.0498062394211846 
0.1047030258726273 
0.09674002277654109 
0.09864744591794412 
0.01098332599673442 
-0.05704755617139808 
0.03680839630562546 
0.0247640136299479 
-0.02157882722773929 
-0.04569277831344615 
-0.0050472440806514 
-0.0486809116906048 
0.01053599289475139 
0.02457444114248623 
-0.0160965247245666 
0.01057695894943151 
0.008971965854623764 
0.09842988604293627 
0.0228135040643086 
0.0240886243948276 
0.01683943919684778 
-0.002320969017522262 
0.02725501413307587 
0.01289268110601649 
-0.06704528886464652 
0.01823256581036807 
0.09127570542682739 
0.0170485823089022 
0.0007115967091833556 
-0.02642470104720872 
0.03011234508074068 
0.01764539517999332 
-0.08890447125896152 
-0.0004063302323519954 
-0.03626533401918799 
0.01478934845414166 
-0.04595229968834081 
0.06198346436449312 
0.05389765404942877 
-0.02036311890637684 
-0.02498813797479757 
0.0002598236750553887 
0.03347851963200241 
0.003401785563277571 
-0.03517009058478167 
0.02052813174182155 
-0.02454455639707915 
0.03825082113609822 
0.07411977199140962 
-0.04418575278777324 
0.04937764995409686 
0.05418355467138865 
-0.03235904231978239 
-0.01043724547397406 
0.02080115563787274 
0.0254877925763388 
0.09598259896451097 
0.01396393259760704 
0.07580837267444349 
0.007520257625711361 
0.04427273365176091 
0.007998928548914971 
0.05350022557046089 
0.03553604860803123 
0.07091955992153064 
-0.04108439261028847 
0.0214164457166308 
-0.08025827170002675 
0.007546860138104318 
0.04932285195204534 
-0.04036833385739792 
-0.05427155319492204 
0.008174351452537667 
0.03567455422137704 
-0.009529048925171743 
-0.03802758307241259 
0.02521110256818565 
0.03626372824842348 
0.01691745064650214 
-0.02234242681086082 
-0.0471369933656878 
0.05629611043459458 
-0.05639952323279278 
0.06190506322035566 
-0.002108397418171616 
0.08696639758473929 
0.0486688665514493 
-0.02985217491355883 
0.04279520289942319 
-0.0007037638395509556 
0.03184230060727195 
0.0456561979665816 
0.0674089609866115 
0.05586024458596993 
0.0223748426765866 
0.03360443206120079 
-0.07536376370091283 
0.0996326477071427 
0.01006502221291491 
0.02033560698547559 
-0.003646835367236165 
-0.01627800766740596 
-0.001035298953185743 
-0.0127123973118632 
-0.00197558635777037 
0.01698993833864312 
-0.005701116353946252 
0.01377304167074862 
-0.01081918745044558 
0.0543342755232336 
0.1035270486177316 
-0.0417505051344284 
0.03887493883996678 
0.02084587882388394 
0.03634197229379438 
-0.01809453818123915 
-0.05878239826144022 
0.0134260879011242 
-0.03647289119510808 
0.04006194320197123 
-0.03872213905920464 
-0.01927695305560029 
0.03255864625963474 
0.0300598490846299 
-0.002829709915831848 
0.001210328374991236 
0.05777615172615741 
0.02707737843524389 
0.04001815203462714 
-0.04662332998255597 
-0.03225060680398908 
0.04205987653346655 
0.06985087174108094 
-0.02584917703956835 
0.03711896133595399 
0.01325507776352227 
0.01149825449448928 
0.01864510560646175 
0.01538128100553039 
0.02398611612074341 
-0.01801174923284907 
-0.04751680838076851 
0.03644799535973518 
-0.02150699258106839 
-0.05199690566294051 
-0.0255811491737454 
0.1071163410085275 
0.03130888540955909 
0.03524991505967818 
-0.01702881509334157 
-0.01181881971639957 
0.06783156406027982 
0.004854438613681588 
0.04962410591685515 
-0.008543969056039373 
-0.04917058354529266 
-0.008339546696207737 
-0.02368556105080255 
-0.02090933398924701 
-0.04382147690944189 
-0.05881091903095149 
-0.04257057853262076 
-0.08355628570002357 
-0.01201339472902073 
-0.07064257363064812 
0.03143382036699936 
-0.02144009553800743 
-0.02594359321346047 
-0.0284945168215335 
-0.03419330318516355 
0.01242098228151081 
-0.003354812922747014 
0.03274673777157586 
0.02205519046492208 
0.06767806104143191 
0.03320999947062457 
-0.03257566336630157 
-0.03316916220649863 
0.02723836322655639 
0.008502460291144402 
-0.02361080451048615 
0.02215301541529452 
0.03016016045216906 
0.1168255565839895 
0.0536520227616256 
0.01108681331209653 
0.004977819453442375 
-0.01195767803854781 
0.009973641218937825 
0.07082340617292061 
0.0006910722475916846 
-0.01158455082605479 
-0.0154936815344574 
-0.03813489626132039 
-0.02966410338866442 
0.005591761548184087 
-0.01604627590880904 
0.03383017168893075 
0.02389279800087448 
0.01923224633228531 
0.02888704873387237 
-0.02045231251431124 
-0.05992928112319147 
0.02541079650285701 
0.05447949469437208 
-0.03116618159500447 
-0.007735066008948967 
0.1333470414852653 
0.02689011691027851 
-0.02675347624111257 
0.0313137522453002 
0.05719845932879743 
-0.05105683853298161 
0.009762532169699654 
0.01248642908024114 
0.01503879201761151 
0.02943151294718333 
-0.04163755061293447 
0.07862674390881516 
0.03095920163571447 
0.08525259398937843 
-0.03231614970506785 
0.05816883094227148 
0.0495484718894939 
0.06397422833550072 
0.1015895580435146 
-0.0237718951354307 
0.0161590098753606 
0.04377261227336146 
0.003946013765244599 
0.004381737726402184 
-0.0411724630546736 
0.0273437848940804 
0.07009905158789209 
-0.03490676071984997 
0.007153879148196482 
0.07835088301788454 
0.05151477745263459 
-0.0008932996783587517 
0.02853074281824238 
-0.003042571839599167 
0.08969900604423167 
0.1300431823284995 
0.03606316531346672 
-0.002599800074560478 
0.01195000159109223 
-0.002415624263614456 
-0.01376084511026537 
0.022110733367874 
-0.04926555935396144 
-0.02294779073157586 
-0.0008961310777176615 
0.07391746951103 
0.008175450403892675 
-0.009632002730204295 
0.06696099470870856 
0.02573946288764593 
0.01388713610170081 
0.0207702008942337 
0.04927606032473029 
-0.03198470327597982 
0.03314144158626261 
-0.06877126060598368 
0.05289618713072736 
0.04239823339488322 
0.01992330524727834 
0.07844893175499888 
-0.09059572788348977 
0.09705423520996095 
-0.02098160424706372 
0.0181295420646436 
0.01303881327335307 
0.02016824033218378 
0.06438557207358644 
0.03314410916819514 
-0.003549770972694798 
-0.08814657245767438 
0.1461033454077362 
0.002575792654868456 
-0.03685743258966673 
0.01707081937532828 
-0.05943439848046052 
0.04744459604009324 
0.0420290482969277 
-0.04709493749600611 
-0.1033587088600808 
0.08947789765471002 
-0.04672102990102445 
-0.04972675183292963 
-0.01955813191564056 
-0.02076945242510558 
0.03057698433705632 
-0.01874755512497767 
-0.03499399788856176 
-0.03569988334379091 
0.03192811235926014 
-0.03331776842269798 
-0.1166009038241572 
-0.001610204811974363 
-0.03919220100558539 
-0.01344869790185165 
-0.006514445735285932 
-0.01330963425880149 
-0.02305864664298365 
0.06197891600020627 
0.01991447346515512 
-0.1056707337800218 
0.005302828462558211 
0.05677470136226409 
0.03996978405147921 
-0.1036561738050393 
-0.004294102893702785 
-0.08297519879420809 
0.06125844187217321 
0.003183043950125158 
-0.07788001334222182 
0.05402191786290163 
0.0192600623281481 
0.0808905678961961 
0.02324565241806958 
-0.009151194515631768 
-0.06826893899060453 
0.1029638588817526 
0.07000192629255877 
-0.0998816043608405 
0.01837906789114514 
0.02467313952371573 
0.153981604903676 
-0.03181700899473471 
-0.01861252280232538 
-0.07604146180585507 
0.08757426643291785 
0.06018212709657315 
-0.127516130776604 
0.03237945086931009 
0.02185587633403071 
-0.01454268917206859 
0.0797623867165084 
-0.05217948117152961 
-0.06222660879313945 
0.01695992906944993 
0.01274005913012133 
-0.002092386745237174 
0.03568887296797537 
0.007547879283779948 
0.1115751933555276 
-0.03410334631885384 
0.06208257164254775 
-0.05527642645448883 
-0.005243256046368298 
0.03420479584279103 
-0.1212054851667994 
0.03975459600490476 
0.02809121436680628 
0.004732851613145545 
-0.03411506131417173 
-0.07522268234214327 
-0.003405038558265072 
-0.02673794899099328 
-0.06634542627128388 
-0.00198920229233336 
0.09537906085332354 
0.03991910795716917 
0.04264342895474698 
-0.01165213181332024 
0.01931857346948599 
0.05160762028964595 
0.05301519309852729 
0.01993603541210446 
-0.02848250100486211 
-0.0443554884691454 
0.08256241653347099 
0.005265000867330157 
-0.04055701651921147 
0.06380925913094188 
0.01243478002435143 
-0.04711048622716481 
0.02143591425525212 
0.01259108197660106 
0.04458069378783601 
0.1064467558259916 
0.05780214984816084 
0.01417066327286814 
0.01726936225789168 
0.05848316142758798 
-0.01162193278996878 
0.08297684281649539 
-0.01681116372380616 
-0.0620852480687706 
0.01797157516964671 
-0.003462065455370685 
0.002328781213883161 
0.06400659893890634 
0.08021773599466138 
-0.006887578336539212 
0.003774163597025623 
-0.04235468110920706 
0.01192798740426975 
-0.03957202201370853 
-0.01461525597617233 
0.04546338005632519 
0.04698770349732596 
0.06787011915491056 
-0.05085469409306589 
0.02282068552400481 
0.08016752344542533 
-0.01980768201775734 
0.04220883514038621 
0.01473913919388111 
-0.02074433657930266 
0.0800150397654608 
-0.05849935549395587 
0.04677145229937596 
-0.02198701016707826 
-0.0103669283298409 
-0.03725306150853733 
0.08292203573546665 
0.04941470987023416 
0.01679316208535861 
0.04078886227271521 
0.01933854545727795 
-0.02504143137891813 
0.02378510461689288 
0.02434180073533266 
0.06883872525931195 
0.001570586846618053 
-0.07338568641364626 
0.02252567493039487 
-0.003857973960163396 
-0.005006835818777219 
0.04086997054335095 
-0.01758645728926339 
-0.01182433486679182 
0.05040413406104392 
0.02872676514802089 
0.05258214741655917 
0.04957272511866644 
-0.02405081993175032 
-0.02903700334978861 
0.01903699880126096 
-0.03107789806330346 
-0.05377675800795084 
-0.007795829324493784 
-0.06408964223232114 
-0.1058412648873771 
-0.01446407159719274 
-0.001341657269807439 
0.005035548075243953 
-0.03482034434808223 
0.03301696608292819 
0.01196854553040575 
0.05428287023966242 
0.0496446313904671 
0.00605906452967694 
-0.0227750891955769 
0.01862089057027016 
-0.01197230695756344 
-0.03966366388427321 
0.02266976929385449 
0.006776307384439078 
-0.04905389380649495 
0.08179831244446033 
-0.008929892754251488 
0.02901649851277337 
-0.05958397387773406 
-0.1049343732178279 
-0.01346262770039923 
-0.04456002556002998 
-0.03254813315030319 
-0.08210313601876977 
0.0293375351485206 
-0.01872797110569254 
-0.02351919487379563 
0.06401974088202733 
0.01827493043541251 
-0.03846635618217002 
0.005358565309964727 
-0.0476542392345877 
0.01233980117894295 
-0.1031134516670423 
-0.07919252614121909 
-0.007923648276382318 
-0.01683977070427077 
-0.05028501441841023 
-0.03341852262304749 
-0.03958349937835592 
0.007283178675614711 
0.07797771970576012 
-0.04531889069950543 
-0.04896010914400703 
0.01055627281195121 
0.02351016772672087 
0.02437748176563945 
-0.002457764896301089 
0.03085422079390317 
0.03963129893365062 
0.02287669848509331 
0.02061382800100954 
0.03836797765891113 
0.06135321109852725 
0.003914773855007079 
0.01404992936180324 
0.02458339974961707 
-0.01652746643787172 
0.02029547302039645 
0.01525135210023563 
0.03768065500057103 
0.01984825877356482 
-0.0396881998402573 
0.01032620446325126 
-0.01398464703198367 
0.05414408091068552 
-0.0332695930274001 
0.0918983009970514 
0.003916134734470062 
-0.06233486948242022 
-0.04833262284388164 
-0.06528406453483381 
0.0762189573666026 
0.009423891290606971 
-0.07420561696697685 
-0.03807363661366551 
0.06132039456571633 
-0.05602125117473242 
-0.01358373689497482 
-0.05283428167679824 
-0.07473317282906773 
0.03710314203719074 
-0.02055048278231423 
-0.03676973475029421 
-0.1196120676379301 
0.001905824675946656 
-0.1058039388976878 
0.01720751805529319 
-0.06012655134474072 
0.02160190043886302 
-0.006420471723629098 
0.01367398409324169 
0.05659998723943657 
