solver_type L2R_L2LOSS_SVC_DUAL
nr_class 2
label -1 1
nr_feature 28425
bias 1
w
-0.00529429752770679 
0.0438808834262654 
-0.0136507594184332 
0.04469632351962871 
-0.05218072888050426 
0.08194765429369044 
-0.01614006188800899 
0.01740927153211412 
0.02532060074720902 
-0.003226940992090616 
0.02375022438145803 
0.003510653548232584 
0.05775040323771791 
-0.002321749414581058 
0.0431520251384227 
-0.01202048640965834 
0.02031749810284723 
0.008309024226295623 
0.008539213272522687 
0.02666522352183518 
-0.0460200526286513 
0.04251305608637992 
-0.06978935278341941 
0.05203843838226212 
-0.006896495351438305 
-0.00027307622203123 
-0.01016390663986476 
0.02788386821195663 
0.001645890187762272 
-0.0178441009757796 
0.03721982244751451 
-0.04216878744909559 
0.03272372467600569 
-0.002092694917121469 
0.01338323960352273 
0.006530980400491113 
-0.000664853768240222 
0.01789747549519799 
-0.05591488723130552 
0.04833772761240213 
0.000818304102091587 
0.04684999628202875 
-0.01465159304228679 
-0.01236611942778671 
-0.03277368791395113 
0.006470191502194652 
-0.008173254432739627 
-0.02016517263208743 
0.006389387315120514 
-0.0115101657454774 
0.0105262184252318 
-0.01112750494751557 
0.01630443194720335 
-0.006872373223217547 
0.009614336567210679 
-0.0005127885841328699 
-0.002500258451305658 
0.06522112460355577 
0.03188382377281222 
0.03240812509247077 
-0.02462614757973618 
0.001390370560539033 
-0.003936741883144445 
-0.02732142994368479 
0.002126986889461943 
0.02367864713961255 
0.01284401854752631 
0.003298856956993192 
-0.003788874048964732 
-0.0197002857419467 
0.005569456008780659 
-0.0117962701062725 
4.355290484127376e-05 
-0.006335154334036089 
0.005509491009432913 
0.06572782154477214 
0.02167271904606214 
0.04062812445992092 
-0.04441894863356859 
0.01517274582298824 
0.009478470258759369 
-0.03192077224349902 
0.0008455670543749916 
0.00158535025382956 
0.02147563318070221 
-0.02217850560973961 
0.01604555047848733 
-0.03028654347907716 
-0.01931304025796582 
-0.02064088831939537 
0.02587037810927634 
0.02231151792504028 
-0.01147806986979998 
0.0316005549042097 
-0.03406346761685845 
0.02052361976847317 
-0.04571295383005369 
0.006636882747505769 
0.01334153285136457 
0.009252085119635751 
0.01346215657334776 
-0.01657954056268093 
0.001607195061564707 
-0.0438644788166132 
-0.005816870716338987 
-0.001628323307235057 
-0.0003755966457284047 
0.01118293228077322 
-0.003925909729764579 
0.01920749771617458 
-0.009793795869318703 
0.03985104126164249 
0.007799769473336186 
0.03608403933264766 
-0.02802584288892341 
0.0110378313086334 
-0.0095219753063123 
-0.01570534094100833 
-0.006583909095002883 
-0.02037926364554448 
0.007493954513510776 
0.007062307028076475 
0.00804779457050446 
0.001348730827913702 
-0.0008481658510448403 
-0.01893668657539669 
-0.00680349415589176 
-0.008119548141668037 
-0.05536938479016493 
0.02708801360075847 
-0.03919740879054481 
0.01546343913732741 
-0.02294409297865539 
-0.004187519231389879 
-0.04599941103294406 
0.003655356624279585 
0.01299207181207478 
-0.02370794699043931 
0.003782084257458607 
-4.984822913265124e-05 
-0.02127489231202204 
-0.02406937439210797 
0.01228926331144271 
-0.003522259100488776 
0.0064432980426384 
0.005360039835699164 
-0.04116135715423084 
0.05271436267507583 
-0.04471409365105445 
0.01228462931882179 
-0.02900981039484394 
0.0005651851396840166 
-0.0570439158487823 
0.01795154957778711 
0.006201437402622377 
-0.02424696845646333 
0.0127915731186131 
0.01065333550733939 
-0.01041944059326583 
-0.01079606685510261 
0.0250059997172932 
-0.01811357251682607 
-0.004478250997667745 
0.002117229828567537 
-0.0324233961815457 
0.05748472854918987 
-0.03018215743683228 
0.02683464259021217 
-0.01324289879094954 
0.01850882483669879 
0.007590738563902387 
0.003655053928901467 
0.009291945573402665 
-0.004698915866965677 
0.02243467881973349 
-0.03453849031411591 
0.01420540125372967 
0.007712868073578909 
0.02370805001896844 
0.003075887302293237 
-0.008410253606574382 
-0.02370354428155018 
-0.05115086564166143 
0.0594038945705947 
-0.009263316594232549 
0.0242971076218884 
-0.008398462662453218 
0.02932246908105602 
0.002864289774206254 
-0.004385552677431497 
0.01298968305304261 
-0.02618639553323539 
0.03218942370022658 
-0.006107991512117705 
0.01152584405488295 
0.000797964479254041 
0.004670811235686838 
-0.01557311786016878 
0.02430415936448388 
0.02680853901149055 
-0.05137332422595265 
0.0133722525251253 
-0.03161741359809138 
0.006818328050833199 
-0.01475033323188313 
0.04550239477479155 
-0.01969122351406248 
0.03024744523958205 
0.04172708386135747 
-0.02674844897518515 
0.009778466063512946 
-0.0190120981887259 
-0.01006969201341777 
0.01237844122304659 
0.02851719326522904 
-0.01703401406600484 
0.01450441300747658 
0.02943283181432637 
-0.03236526244345354 
0.0491392911370607 
-0.01973004006620362 
0.002842164525840534 
-0.01514777411215782 
0.06027878975589662 
-0.002344808425034689 
0.01406825565139287 
0.0439591200985012 
-0.0208525710330349 
0.03535069500545066 
-0.009698451155927644 
0.003668111439171827 
0.03087573066716204 
0.01464807367681943 
-0.02991847681970842 
-0.003205523762166076 
-0.003838055776920612 
-0.02299112804264054 
0.045751551890184 
-0.02665138337735731 
0.03103028641349583 
-0.02424439868937286 
0.01551441115647274 
-0.02869478327470082 
0.01791293368443475 
0.00125580261663454 
-0.06339377934214679 
0.02272080063327809 
-0.01759625697913012 
0.02247534532793172 
-0.0005430773184616768 
-0.02608402025658101 
-0.01401878119922201 
0.005927364314151672 
-0.01840889187865865 
-0.04730451034067139 
0.03730829117637718 
-0.03587373707086098 
0.02385141779596794 
-0.03692610529925437 
0.003654061279948226 
-0.02878366500793441 
0.0083641071793252 
0.003683161124609838 
-0.03204129469328632 
0.0175847611460232 
-0.009307732400238947 
0.007777409893459121 
-0.00152401306187542 
-0.01482686240859928 
-0.01468832615083351 
0.02195651751244293 
0.03593445845116189 
-0.0313908479950723 
0.02268054753071909 
-0.04820636185663656 
0.05257382780448146 
-0.004043047932776771 
0.04104058299556625 
-0.02362228007384164 
0.01364333063223013 
0.01652342434197991 
-0.02906865431201117 
0.002766061825890397 
-0.02853397446698582 
0.03406647444890487 
-0.005529971960246393 
0.02909530381725391 
-0.01638663736828107 
0.008071564150340625 
0.01529928765414743 
-0.03282334818468109 
0.03996311434305371 
-0.03884365064081869 
0.05953305189257607 
-0.04588029181550544 
0.004616295113466322 
-0.0166344644465207 
-0.01963852540032933 
-0.0007777062165417035 
-0.03716149455732815 
0.006910350490178511 
-0.002038995834484311 
0.04654201825007419 
-0.04002327358947407 
-0.004263331168948752 
-0.05743247738588634 
0.07793667462490746 
0.003441851239911494 
-0.03247687430165062 
-0.003805497980584106 
-0.06102374610749007 
0.04401709014858599 
-0.02867160335923384 
0.0193067652088769 
0.037869155013027 
0.001213899994294668 
-0.01185014782109314 
-0.01293827413826369 
-0.007351832272810638 
-0.04397376915177967 
0.04260152772739578 
-0.03340636062024045 
0.01031561642951134 
-0.02450994580400653 
-0.01105719114960575 
0.01685355663519155 
0.007459470121086061 
0.05475186003413732 
-0.006475159960813211 
0.02088732587342491 
-0.002892626012848356 
0.05747054931914843 
0.005250845033981099 
-0.01743441077312814 
-0.033010459582659 
-0.01052242715678905 
0.02143388347420601 
-0.04096497768733005 
0.00197242350983726 
-0.01762702217523768 
0.03009615810155025 
0.003076742607349879 
-0.01372234558702761 
0.006550414019680067 
-0.01512128470319226 
0.03496903196619137 
-0.03523763937446336 
0.03024984322438363 
0.01579687282429015 
0.02737461096641344 
-0.02166395442526691 
-0.0249251489755618 
0.02003208067820505 
0.01271320757236968 
0.01162743408055676 
-0.02166390549303986 
0.01442943018099981 
-0.02114366386671588 
0.01394657540858519 
0.008956764387450605 
-0.02200980690060193 
-0.000522106960250923 
-0.0127048137371698 
0.003519206726511862 
-0.007202656274822982 
0.006664876755036507 
0.005826965090116432 
0.03132147817602352 
-0.03337208896726068 
-0.03426675808865109 
0.03534997434745467 
-0.002264001391632039 
0.001651131923585106 
-0.02372654175112383 
-0.004605010397689699 
-0.04436832096950914 
0.008817014755530459 
-0.006555449993227333 
-0.03220816977916633 
-0.01059386185238554 
0.01995678821211532 
-0.00364634314996249 
-0.0255290695165823 
-0.01590676195404882 
-0.01582054501006094 
0.01825557464286994 
-0.01917513737586261 
-0.002742188920149082 
0.008413929578720183 
0.02319655500114766 
-0.006826070353794111 
-0.0307988623887648 
-0.01552544845485894 
-0.04051777968096079 
0.01328438155450555 
0.01595352957250231 
-0.03069628689132587 
-0.005233381782502829 
0.01900599574777237 
0.01518077027394078 
-0.02207715508266626 
0.02333816821959069 
-0.0006830246112555407 
0.008040551183752914 
-0.02241356242256849 
-0.01890625216079947 
-0.008997014440430159 
-0.01649295826874256 
-0.00143165157954178 
-0.03166400618804053 
0.00661800169520773 
-0.0376902816917328 
-0.006860383462272355 
-0.02202459582719788 
0.02287064819314881 
0.00573477855335573 
-0.02460616976759441 
-0.01423033653399965 
-0.04351777038991789 
0.006515355708744832 
0.01276418752154374 
0.003338416399618157 
0.001772218642415483 
0.005703868190150301 
0.003360943910945432 
-0.02872763739803863 
0.001893188141130835 
-0.06082067217402158 
-0.002928082130355992 
-0.004939925403023801 
0.01171561075063184 
0.002616746913550294 
-0.01336220080136005 
-0.01557968237077536 
-0.008074395635059605 
-0.003466189514786681 
0.005257034227118317 
0.01068079447820071 
0.0006714125972848887 
0.003853936786813881 
-0.03307058544764181 
-0.01267378082459574 
-0.002610501834084877 
-0.04277133413517902 
0.02389222581910478 
-0.04174658256083816 
0.004462130633059596 
-0.01846999202338349 
0.003164803689706959 
-0.02459739620187756 
0.02150258965696489 
0.0002680518888519214 
-0.009690671418158978 
-0.01651789851223594 
-0.00700241670349795 
-0.01030185998039676 
-0.02372044607978935 
0.02190479752911823 
-0.01276523411381799 
0.0502438233959213 
-0.007695185840926163 
-0.005987358948620935 
0.008158326538355295 
-0.02377190203081505 
-0.002401018969012141 
-0.0148325451825134 
0.01690927256452047 
-0.001399860310137947 
0.003242324464485983 
-0.02311272229676389 
-0.01089810008036406 
-0.003759891395488964 
0.004817115688467022 
-0.001932575899862346 
-0.007097490732823086 
0.00948798484077706 
-0.0209279260921242 
0.02152460953035094 
-0.007660923298568115 
0.006253646690090248 
0.03699143308084617 
-0.01078405098222808 
0.01657859796762741 
-0.0297229858592588 
-0.003742192603023627 
-0.03027302181337657 
-0.003670927872038275 
0.01845281446206059 
-0.01498910489305365 
0.02715578464424388 
-0.03720935271772245 
0.01479381496755617 
-0.00835208984264489 
0.02129346194100267 
-0.04757053387301217 
0.01260134143548895 
0.04419579405483234 
-0.01629748779994419 
0.03648109997315468 
-0.03157803099213675 
-0.003754742741020774 
-0.01056699654290888 
0.02226902177058161 
-0.03826381279278215 
-0.01282610825575341 
0.008878500304085291 
-0.01689128674249234 
0.03779367831322473 
-0.01458179172546524 
0.02023309728543237 
-0.02393769198119833 
0.02082514276108893 
-0.05286946864053844 
-0.02144237159247234 
0.01249404665969794 
-0.04223104261567765 
0.04353580108316255 
-0.005157010165200743 
-0.001851796783543215 
-0.006888279997287861 
0.02244103593717314 
-0.05731825321292858 
0.009191840104342113 
0.01371569060515853 
-0.01661520930269226 
0.03703566421044729 
-0.03014198131147164 
0.0002022577560689304 
-0.02644338449140339 
0.02862199776972406 
-0.04393223852633151 
-0.01298714041495296 
-0.007973451905491914 
-0.03262345104270203 
0.02817589521402987 
-0.03126991447352923 
0.001645684423947541 
0.01263766032390099 
0.02856410488920659 
-0.04095555040523583 
-0.006219774418728657 
0.0121046476297889 
0.003687609519137171 
0.05455291744086666 
-0.01071724977907055 
0.005333795664600915 
-0.01345030768176865 
0.0087480040263556 
-0.02528913953516042 
-0.0254398091743219 
0.020376756965885 
0.02498203719956371 
0.05757882601923615 
-0.02282600847570784 
0.03141858812576979 
-0.01728195684684379 
0.02841393861068588 
-0.03177697788085832 
0.007562356490039467 
-0.0137295532857808 
-0.03453503482100002 
0.009469796324637044 
4.952352335808312e-05 
0.03423923508954319 
-0.002422721080678338 
-0.01274984976710257 
-0.001789406679006786 
-0.01449279417645884 
-0.003905284213154276 
-0.03022621909166385 
0.01693808658605536 
-0.01801198187652123 
0.03497033740006007 
-0.01957700616794763 
-0.03244384119163753 
0.00194511717309254 
0.005614503699510173 
-0.01071711746638977 
0.003234800367246411 
0.01346609790610715 
-0.003661576951011485 
0.01406835225294057 
0.0009759250061754117 
-0.005023482147850549 
0.009651961788533919 
-0.01137513867276202 
-0.004671816701464172 
-0.02278397580364975 
0.03402058913586423 
0.006722395711634987 
0.02924242109596042 
-0.004453023434475488 
-0.01188857378367221 
-0.009455075197048643 
-0.002293096939819617 
0.01750142599807633 
-0.006307591797222216 
0.01940499035828029 
-0.0202803593435454 
0.02092635270645161 
0.0009287627788967936 
0.02549806797810014 
-0.0102523179370967 
-0.007089136917666466 
0.006568237072686099 
-0.01016488607318351 
-0.01099572811049757 
-0.03235044438563068 
-0.002038769336645475 
-0.01188919661016928 
0.01150842575118796 
-0.02092809044780934 
-0.01418989450088363 
0.007063181186940748 
-0.01654375107730676 
0.02152637802324684 
0.006680503217126527 
0.0368701559242773 
-0.03649814443516154 
0.009925236418052694 
-0.04281749184111494 
-0.01307427663240749 
-0.01463989364392076 
-0.03234296427183177 
-0.004706459946508046 
0.001602048380235666 
-0.01239361891150327 
-0.01978376763222421 
0.002661235637575043 
-0.05356514925104458 
-0.01128905396556757 
0.0112445367356825 
-0.009359000978756922 
-0.001181600699605272 
-0.01816411154226258 
0.03610803869058611 
-0.02152938112739453 
0.01015843952167293 
-0.03591988462022751 
-0.03679119849113317 
-0.008706776856070264 
-0.0276478963273427 
-0.007740810871068786 
-0.03014204832945014 
0.009995008369260093 
-0.01458319766070922 
-0.01659275815815224 
-0.03615225968355497 
-0.01999632202695992 
-0.03467301714241516 
-0.04007065676980481 
-0.01087648959661317 
-0.03700607134041226 
0.01103389357429195 
0.01160349946561934 
0.02828321732118627 
0.008004157544685293 
0.03771666758875832 
0.03966075673296354 
0.01346484984994315 
-0.01454410384001844 
-0.02733342731530754 
0.0221380692684269 
0.01748994588957236 
-0.02051615434825719 
-0.02369837699999604 
-0.009441614202881709 
0.02751221898784573 
-0.006808172245436126 
-0.007251917745935003 
-0.0304532219743257 
0.003337329302107958 
-0.01857347029518582 
0.003931570894824421 
0.002796383969625821 
-0.01134092059262922 
-0.02626789561160696 
-0.02981998882263843 
-0.002329845700929112 
-0.01553173616201013 
-0.002825088546198 
-0.02362287953322036 
0.01467220817049785 
-0.01046937038298582 
-0.01412420609231691 
0.02263308422556831 
-0.0005473497043589667 
-0.005495716593822494 
-0.01756065643100878 
-0.01100598725315611 
-0.04589476731146469 
-0.009616624367210109 
-0.003289383606799878 
-0.003953924010404757 
-0.03685761038236805 
-0.02263866644492386 
0.01246426408193896 
0.01071280742689352 
-0.002431741564352643 
-0.04118227459872893 
-0.004832458992824566 
-0.005126007261237117 
0.002169010703980934 
-0.003728908819859638 
-0.007435128664429401 
-0.0244906048363366 
-0.04058745642372456 
-0.01315786594651988 
-0.00707645041834515 
0.0198342935884648 
0.0247644685863259 
0.004819502225844713 
0.01314474226429923 
0.0006552965609815484 
-0.008152626213368441 
-0.02207822073867607 
-0.008428751180517533 
-0.03577970779714921 
-0.0186265416868271 
-0.01702604886808117 
-0.01594310031161368 
-0.02177287537039194 
-0.01483640192809507 
0.008121451053753351 
-0.01953133233302623 
0.008169906292299994 
-0.004673434317811065 
0.001102059555154972 
-0.001544968018619106 
-0.01828325772893175 
0.02210375988721212 
0.0150176169302155 
0.007637644154893836 
-0.02775466390666567 
0.0001426018903986035 
-0.04892089192266647 
-0.00502827470276934 
-0.008510117337927869 
0.04601388378890351 
0.008563683014943448 
-0.01763751770616701 
-0.005085975362256251 
-0.05177635770000634 
-0.001974589289601412 
-0.01840668350556225 
0.002425720972165321 
0.01315559965981027 
-0.009269833706448604 
0.007034588046970284 
0.02294966861044449 
0.007211905561505154 
-0.041493316310588 
-0.00270067466690665 
0.008027853556717557 
0.01463996771614666 
-0.004493366402962537 
0.007358176094851275 
-0.01373912584117829 
-0.02235426560791529 
0.0351719105958273 
-0.02323558397376963 
0.03157730215452616 
-0.01653474538625514 
0.005482279930581421 
0.003208208833503214 
-0.05487870536121461 
-0.007307268373567133 
0.002296640362574447 
0.01838530068810196 
-0.01342075955682055 
0.01093044581773598 
0.031787186643806 
-0.008806350459686287 
-0.01735572239020014 
0.04333334376884124 
-0.03082025204702629 
-0.01743290452183822 
0.02721344140633903 
-0.01720690127902109 
0.00190961289316613 
-0.00870036214658036 
0.01495652500447868 
0.03124100565982866 
-0.004163914721484557 
-0.04420035685158991 
0.02604699344167499 
0.0228803356086738 
-0.01847072277685649 
-0.04652812483897579 
-0.06040499965324936 
0.01427468082744516 
0.04125870320759191 
0.0128471607955933 
-0.02929643857985804 
0.01898796492500939 
0.06448052435290869 
0.03079190967681598 
0.02064341184931835 
0.0175714570054886 
0.04150171368260783 
0.02386469145553616 
-0.06009259100496604 
-0.06503134785167149 
0.06119676013567033 
0.04430901485395097 
-0.03077248830262783 
-0.07562412106845806 
-0.03956273187038429 
0.02443864495108127 
0.0006769472644123584 
0.04840094871455609 
-0.01345652634450175 
0.008609611490184729 
0.05640775379478561 
0.01974782315294772 
0.01236228194363679 
-0.01925230845028621 
0.03598899876785185 
0.01872301517564877 
-0.06296077530879976 
-0.1011213689446594 
0.01903312619244732 
0.01998926352609321 
0.006624288270665245 
-0.09748927074794117 
-0.05586766707436625 
-0.01990610840107683 
0.02391496706011778 
0.03574778278895802 
-0.008629186127240009 
-0.01609800856415019 
0.06727908370260895 
0.0510933014859915 
0.02209644122863181 
-0.02815824557913068 
0.02834815778261176 
0.01056182161455922 
-0.02975254223022843 
-0.08100112584974416 
-0.0319095689616288 
-0.009435502690272515 
0.06641585910960035 
-0.07004759920926075 
-0.05838412667650219 
-0.0366261214010583 
0.02782931089210184 
0.03064617621545533 
0.03872881623630443 
-0.02940288567031489 
0.02797626906580293 
0.0223313754726056 
0.04478600388356997 
0.006609483079189174 
0.02195308270950527 
0.003764221472284211 
0.03105497717733238 
-0.02832981683280413 
-0.07246515043875289 
-0.08574880958756617 
0.02452989120220159 
-0.009671324351223766 
-0.05463067862277574 
-0.04164495080855879 
-0.02667588187780749 
0.01540191036134646 
0.04236757176370189 
-0.02552139694524641 
0.0378022563758097 
0.02914143972194114 
0.04740356456939989 
-0.02826680754125951 
0.006982835096019436 
0.004747286660734152 
-0.006517020013066956 
0.0118536165572646 
-0.07845828453707715 
-0.0730567673302969 
0.001086698155741645 
-0.00650030702558077 
-0.05592901521559963 
-0.08316294878843829 
-0.06884097780659436 
0.0135154150149854 
0.02015356449536234 
-0.01517584595468583 
0.01154649381438645 
0.02451814596815777 
0.06980015833084098 
0.01540687491956488 
0.01814710627294745 
0.02365689763526081 
0.02159998533125271 
0.03143775074935481 
-0.001553878863717107 
-0.07315714894429932 
0.003695494331942405 
0.04170586061976645 
0.008273362424824815 
-0.04549395640824975 
-0.003969387570138474 
-0.009784498168028594 
0.00445796608048755 
-0.01201975954874455 
0.01625312065941287 
0.006999821122884443 
0.04105428622056633 
-0.02436905667727095 
0.0007490090413929893 
-0.01854396532453297 
0.01505879737435649 
0.006041642433708845 
-0.02999832506322018 
-0.01534999512697153 
0.002258142775978225 
0.03229945859009506 
-0.002085238555998875 
-0.03262399611512447 
-0.02191362039240152 
0.0354716572794643 
0.01585321222679583 
0.006936385161168576 
0.004013762667873476 
-0.01073112675062828 
0.005298375174157598 
-0.02658151863449248 
0.0110937177987664 
0.0009841593623926756 
0.002037503823077787 
0.0042742571437719 
-0.002020630263171775 
-0.02913024099308559 
0.002765396279024709 
0.00389641222882825 
-0.001922795921870635 
0.03505775546442203 
-0.02328411196065298 
-0.0141234892873316 
-0.0169163428596627 
-0.0081243038886443 
-0.0002646185900506255 
0.004926130804523579 
0.005528891616187893 
0.002210302748049077 
0.007741393825431869 
-0.03633337768437146 
-0.002058267065844748 
0.007571661708560184 
0.01212375368862762 
0.003869401331881229 
0.001641592140869012 
0.01163891824238388 
0.005687249027183978 
0.02224027151786749 
-0.01551873686043799 
-0.002157535906446966 
0.0132506865789567 
0.007223300377406586 
0.005724088786787969 
-0.01640352567983407 
0.01685146510610878 
0.006818941949040656 
0.02893328023081851 
-0.03205794682064233 
-0.01693488339768728 
0.0003369674650277685 
0.006777207431743843 
0.01045348043846421 
-0.01018133674496205 
-0.0002427547235003675 
-0.03875041114306501 
0.01632271685336149 
-0.03109248192468416 
0.01716215827008147 
0.01223290291362135 
0.008592888235387798 
-0.05129233093632606 
-0.01642196760248362 
0.01911353667000936 
0.006274542841811566 
-0.03005639224105869 
-0.02184202902819794 
0.005270439575998989 
-0.02324590036836986 
-0.005848484135004097 
-0.01512202015306305 
-0.0006179626352380632 
-0.01246020913527566 
-0.003187294739428845 
0.003124989101479622 
-0.01656703037247364 
-0.00876339784695503 
-0.04846717817528408 
-0.02672110205205627 
-0.01237392107286523 
-0.00538369920579445 
-0.009946320428846743 
0.005489754658387174 
0.004470514441334309 
0.0006159125926760823 
-0.013538382768534 
-0.01239866151211171 
-0.0005727153188007641 
-0.02410926421020606 
-0.01618998518407799 
-0.0199295528921189 
-0.003293642808462816 
0.002572786073344999 
-0.02701483208299762 
-0.008044766900271456 
-0.0506050525251584 
-0.006439045016390336 
-0.01563155533069913 
0.01412343506461074 
0.002598484063085095 
-0.02361899523578037 
-0.01518103890505505 
0.02006122769700549 
0.01643579362602249 
0.008612590036568682 
0.005546019520448552 
-0.01541094767908164 
-0.01029092710792273 
-0.002041118105446672 
-0.0100541307026415 
-0.03734174261543969 
-0.002918030195128856 
-0.001806616844887049 
-0.0202906138352221 
-0.0268689499731132 
-0.003873308568453552 
-0.01460882041195529 
0.01480786825091308 
-0.01587190607598679 
-0.0009839282961701852 
-0.003288428508322481 
0.04061145299043716 
0.01651209216692566 
0.003821865487120899 
0.01791311291159297 
0.008483910225133518 
0.01631418344244612 
-0.0257719165945776 
-0.001094201239118396 
-0.01553308010298151 
-0.005965631290777355 
0.01925800039379051 
-0.01847357636535956 
-0.0107270076965378 
-0.02652422411395934 
0.02012869841861334 
-0.02036922548830874 
-0.01502011215087253 
0.007224255055147732 
0.01197688381663419 
0.02686156913614634 
-0.002337488259259975 
-0.007814315405386586 
-0.008715965492883346 
0.02215213347404683 
-0.04191780513408659 
-0.01681964604037942 
-0.01495413942183714 
-0.005004770733569418 
0.007454648398462612 
-0.01951470757667192 
-0.007293375317502267 
-0.02390850330015604 
0.05116346911037198 
0.0320812121681007 
0.0276390040531017 
0.02369907491570405 
0.01308898287616018 
-0.01528120478568735 
-0.002049137151479111 
0.0155931794055449 
-0.004219840870872411 
-0.0001366899507685722 
-0.02108498840546639 
0.009571148774307753 
0.01282353462272141 
-0.06011251142643082 
-0.009380697796895732 
-0.009262363891452114 
0.01183577448678159 
3.216759057350083e-05 
0.05715469765372705 
0.04682477533548819 
0.02851163354329856 
0.01551717531019428 
0.005896238422027912 
-0.003829080768182388 
0.0192058430303079 
0.02156715285938187 
-0.009705478186369607 
0.003966777258106353 
-0.03781791218650204 
-0.003153780296875533 
0.0003675862717156838 
-0.02188415824689044 
-0.04061300678477171 
-0.01065320057343194 
-0.007436957381044052 
-0.02601314157775394 
-0.02348962918666725 
-0.04639846972196274 
0.03818897142835861 
0.02650246258540965 
0.005673519743285017 
0.003597181458320948 
0.01092774032384007 
-0.04844005812043973 
-0.01735880010118435 
-0.02549549911302759 
-0.06644203281353288 
-0.05817894859158637 
-0.03786436045614247 
-0.08165104304110642 
-0.04965554909107838 
0.05937060131357431 
0.0451911878758566 
-0.007983557873061903 
-0.03286216549325946 
0.005555523191686707 
0.04040597208497614 
-0.0194178170729674 
-0.03368144158698197 
0.02258331672076784 
0.04868040726754387 
-0.008581629127136784 
-0.01679458172864058 
0.0030427803912274 
0.004633229103220156 
-0.03815225722276736 
-0.08518534293140405 
-0.04148250993364646 
-0.06564753398267781 
0.0254190933332841 
-0.005438846026842518 
0.00373151635171988 
-0.07253406903699935 
-0.007615133054415644 
0.02030799924847732 
-0.005080243867331886 
-0.0003655580361147258 
0.0133028918129071 
0.04785968820270731 
-0.06770014784616039 
-0.01600744377870189 
-0.06073332887671391 
0.003822166302257506 
-0.006710589673847315 
-0.06832302471412195 
-0.02159408995246033 
-0.0859617045773691 
-0.01295551130678821 
-0.006927600504791799 
0.07601528074875556 
-0.04251583224091125 
-0.006757711368108003 
-0.001684026463991385 
0.02070201277335841 
0.01329611882656918 
0.02829382530026458 
0.06282697930108147 
-0.0237347228462969 
0.005128173195724059 
-0.04552922140456475 
0.02138929249316619 
-1.775054157043905e-05 
-0.05055817716373324 
0.04088119435714888 
-0.008759708981249913 
-0.07101842662357158 
-0.0918113948487163 
0.01539154135020175 
-0.008938667993693661 
0.01513797525828098 
-0.0309925769899649 
0.006578976081919012 
0.00494632546038528 
0.03360583298881836 
0.07670086580370572 
-0.009133688973183037 
0.007568709179240189 
-0.06632391556185885 
0.02634827571816451 
-0.03276887395781342 
-0.01625065312151665 
-0.01095566301789911 
0.006004084085918936 
-0.04652844275923539 
-0.07077013675600216 
-0.03653768422660465 
-0.008365764126598398 
0.0006888419998196397 
-0.07419323575754645 
-0.05330316142234544 
-0.03093343362181097 
0.01389744602173561 
0.04123273468189061 
-0.03029359043685582 
-0.03747238970780947 
-0.07530652007399848 
0.02130474500884827 
-0.04038174498667665 
-0.05291546237981463 
0.03223664215030717 
0.04811142934037532 
0.01964697796774965 
-0.07714505970559998 
-0.006194541745695726 
0.04457768820088086 
0.03987022535501919 
-0.01558208813608298 
0.01755040217494872 
0.001121633638367953 
0.04097035979143129 
0.0579933118673165 
0.004270014769217015 
-0.02391716916128869 
-0.06269588281212268 
0.01487391724873732 
0.007859504637366913 
-0.00214694015477439 
-0.0273835700567307 
-0.006479411650524551 
-0.03702868727524897 
-0.03697871870478264 
-0.005233349793854604 
0.03702379382465931 
0.01523043099356188 
-0.04244913766946508 
-0.01021903596933672 
-0.03808756534838331 
-0.007934118281155606 
0.01475734489162879 
-0.02109688912462071 
-0.01739780070243274 
-0.04127758591195929 
-0.03400387352783822 
-0.02776341826319276 
-0.02563052434453955 
0.003433937686583777 
0.008174576249793517 
-0.005172571081794708 
-0.03572491841399348 
0.01197415491325567 
0.02561603903894285 
0.01438330882456802 
0.03914875468690984 
0.01748712945156883 
0.01171416709696753 
0.01644048061671105 
0.02363296639032532 
0.02182822935589547 
0.009403094137850794 
0.02621805679040672 
0.01004810838226285 
0.001544910182105117 
0.02678570739084073 
-0.008099982513146531 
-0.01843273249285822 
-0.01593695374122088 
-0.02885734067138718 
0.01295707644631598 
0.02358613848664708 
0.009351982463289244 
0.03101944838777235 
0.01016834728323795 
-0.008184846145146552 
-0.01316921396455289 
0.00753538116164711 
0.01629079071993833 
0.02903454254203565 
0.01015510252202821 
0.003323012688144028 
0.002703160560407665 
0.005702455635528356 
0.001284323937920331 
-0.02684615075757535 
-0.02242715688369855 
0.00880057067662679 
-0.00515464773750619 
-0.01183841235554258 
-0.001811391444921183 
0.01536472374380328 
-0.01480075901753821 
0.004137398692412562 
-0.02818560087417857 
-0.02586923587035203 
0.002579758321956074 
-0.003515948300972395 
-0.007131535366028707 
-0.02755720734280164 
0.01693945578902455 
0.0305663519603763 
0.005004693526950528 
-0.02040095282651095 
-0.006153838165712182 
-0.02881611788128124 
-0.01719574079353171 
0.006130165475132791 
0.0149687628696745 
0.02730280430743596 
0.0119094659832785 
0.009358757673838178 
0.01549065511482048 
0.02562026887352782 
0.003663303467670473 
-0.03321824943539081 
-0.02859342542638475 
-0.01196161641410764 
-0.05300863246134267 
0.02121343696978065 
-0.02312009436945055 
0.01098318742717573 
0.009041833174843788 
-0.03368142916625048 
-0.03502889795625688 
0.007507752876578323 
0.0177781849828596 
0.005744032595711216 
-0.0368562085388567 
-0.0184383531475396 
0.03850692171264695 
0.01493805138473608 
-0.00735188263764168 
-0.0244375978973822 
-0.01744086061021503 
0.003999537477757535 
-0.01417753442941882 
-0.01650671390190129 
0.01733511853424582 
0.02599907667211922 
0.01974359739712716 
-0.04299914575570206 
-0.02522553272024502 
0.01226645168419471 
0.007799857370306892 
-0.002624824751354944 
-0.01627974337671847 
0.0123432531811163 
0.02867680819689107 
0.01804588206741374 
0.0173429303558056 
0.005034687871680374 
-7.192959060822652e-05 
-0.003911293912743821 
-0.01730702731630546 
-0.02235727959521067 
0.02674510952744939 
-0.0136727508073243 
-0.005247605074026048 
-0.01855366372885908 
-0.0004854751582393308 
0.03256955799422528 
0.02783695242911153 
0.0305351550878526 
-0.008764982023389165 
0.01597556011891112 
-0.006758321301106597 
0.02997791366510293 
0.001041175598456668 
0.01451720301027253 
-0.01554737814919144 
-0.008874505311135737 
-0.002039564315443675 
0.01174087670216706 
-0.006866650949738842 
0.004055310112943299 
0.01162839307647497 
-0.008461130334864179 
-0.01528103112727111 
0.02796300739153326 
0.004336999861774302 
0.02611099366764471 
-0.0198122930480562 
0.0107686601577418 
-0.001756596125668074 
0.0346244167705002 
0.00987768573343595 
0.02735784376031131 
0.01825177562018955 
0.0003635209307186723 
-0.009339545797595997 
-0.01407224277512847 
0.0007898477590566154 
-0.01507517860409615 
-0.007305175933313224 
0.02288409817314302 
0.002596546500723237 
0.01578705659053401 
-0.006524398251296475 
0.02947557438297147 
0.002368233709011695 
0.01987196622120418 
0.02260218714469439 
0.006625784826203774 
-0.004381924630740109 
0.008573405043321849 
0.005817873659618495 
-0.01199331088401701 
-0.002656491334637175 
-0.008778297604708342 
-0.01754969854864655 
-0.01765285013176652 
-0.008107304127368218 
0.03193459595057408 
-0.01968685742166778 
0.008416986772025474 
-0.02864846374739849 
0.009911159571660557 
-0.02189242546808424 
0.01648330798495704 
0.02783449281456653 
0.008910192330420664 
0.01779659287123907 
0.02523559183823928 
-0.01559078982406447 
-0.009071504543862605 
-0.008875402124727998 
-0.03536272026940967 
0.00121838618038558 
-0.05129343128984208 
-0.02301913684704208 
-0.05707144573050978 
-0.03333053536360783 
-0.02074728355323761 
-0.05387551441343311 
-0.03880433138598062 
-0.05671990384151675 
0.04273050840705723 
-0.05588418774150079 
0.01204069588494302 
-0.02750786512784525 
0.01366529083190783 
-0.06972385231835514 
-0.05006923980709894 
-0.03174902940375043 
-0.02910823578945471 
-0.02467052375336367 
-0.03477116119615316 
0.0241310842037788 
-0.04401623812307365 
-0.02314477065409234 
-0.02434274442983294 
-0.0006966886404621204 
-0.01769825770156431 
-0.08138882967858833 
0.04454056504421351 
-0.04234720793089881 
0.0671722475874144 
-0.007458306924655322 
0.06626234255576699 
-0.04223263427832047 
-0.01534858908036688 
-0.02055602242459015 
-0.02585236958998528 
0.006032732852545583 
-0.0008534873521186197 
0.02078401064934041 
-0.09541777399150547 
-0.006701897962895479 
-0.0604356814609683 
-0.01714935409317454 
-0.02093752847119199 
-0.05952130034170591 
0.03533188053700645 
-0.03890367262972421 
0.02764075077312934 
-0.07177351831675785 
0.07300011507625777 
-0.06749564371924181 
-0.001592421578866214 
-0.01076163870511278 
-0.03037685781871097 
-0.007758938895839998 
-0.02206982977233623 
0.02746382070135877 
-0.06566965914465815 
0.006764707693847496 
-0.04715267384132886 
0.00369266559749993 
-0.02234777786456357 
-0.0427733972031171 
0.02121629363552283 
-0.04308250403178072 
0.04255840923368803 
-0.07545521524198355 
0.09319163532950846 
-0.05943699252589251 
0.03157141187243752 
-0.02091066442002872 
0.005886822286790367 
0.01098866473337537 
-0.02197756625062188 
0.03485799391062019 
-0.03875636304586599 
-0.01042289291402317 
-0.06642482766979609 
0.02830995176468863 
-0.04638940695503904 
-0.003430162300079239 
0.03841486518903425 
-0.007136015443864994 
0.04788465140999072 
-0.05469020441878772 
0.05058203766144383 
-0.0626850527146475 
0.06400685918195832 
-0.008182706680164319 
0.03773753681877935 
-0.05815092951674426 
-0.03273909030213538 
0.01669750277092188 
-0.04532034960060002 
-0.04044519577329183 
-0.07943960032795724 
0.02532554415042153 
-0.05257574174479499 
-0.04003443183421095 
-0.01276715532878507 
-0.02359022897616009 
-0.0006564686388758749 
-0.07124870952123975 
0.02795628625426021 
-0.104552758907381 
0.04031871926104221 
-0.04095872131163494 
-0.01761435570991416 
-0.03194927803117505 
0.006625001120937194 
-0.002764138612907224 
-0.04227348281252243 
-0.01181666551752654 
-0.06502768070566368 
0.04426088381788681 
0.01391642201371965 
0.01222555037196303 
0.0319618543046049 
0.03578896326324904 
0.03489904377124507 
-0.02640510956699362 
0.02381672944685096 
-0.05654025358788563 
0.02710886868918449 
-0.03045037042753374 
0.02499673346240746 
-0.04726595725422998 
-0.03093136101948998 
-0.03457032411126418 
-0.05349520280001897 
-0.01437571089752934 
-0.05841792836324514 
0.003834882036061417 
0.005205084372985488 
-0.0106005681161208 
-0.003196696261480504 
-0.004854169518978476 
-0.01769654128412632 
-0.01015369189917646 
0.02872491796457415 
-0.06633143404353341 
0.003734520834661913 
-0.044785700208112 
-0.008962699930790361 
0.01095556911593759 
0.0054135357905027 
0.0009189503565253351 
0.002894183715549667 
-0.01094328239141805 
0.01054648108580744 
0.01487233643623164 
0.00630578460060471 
0.01681065665583593 
0.002334871570951338 
-0.002218462079604869 
-0.004584614632079659 
0.01681678581134829 
-0.01676877312580501 
-0.03251067335925117 
0.02062927129312273 
0.001659451793524483 
0.01436375442942727 
0.003325198649387431 
-0.02517971834946893 
0.008235254747079401 
0.007794343777020904 
0.04109841547845808 
0.02240736639581033 
0.0263349000229214 
0.01511727001567593 
0.02664826272723687 
-0.002718056482893424 
-0.003462233672173048 
0.006584324149556331 
0.03474976367645718 
0.01447605488818775 
-0.02242231473591907 
-0.01299973961908682 
-0.01302545531821639 
-0.0108433580549073 
0.01798777831166328 
-0.01258856142049695 
-0.04005954745267604 
-0.0279600081866568 
-0.01017919794956377 
0.007246493411327065 
-0.007089668665419891 
0.01349492616593336 
0.03236626673798806 
0.002919799240276418 
0.03508977505842517 
-0.007474077609432661 
-0.0523315982640593 
-0.003777306896004113 
-0.04145619024011921 
-0.01018744308757263 
-0.0009317938867176559 
0.02184610411657441 
0.001636176807488233 
0.0094186657934856 
0.006544836276342799 
0.004344730623773457 
-0.02307344685156128 
-0.007666725141795143 
0.01135897285484115 
-0.03097060404112394 
0.02736143997456005 
0.02786334885915374 
0.01191710983004556 
0.0222659484835154 
-0.01043447367860609 
-0.002834018254586618 
0.009474917866841666 
0.009109555349353949 
-0.009656026948233072 
0.01528508143763339 
-0.02707849562397282 
0.03489935969878593 
-0.0004688382090639475 
-0.02022035426443793 
-0.01766106418465501 
-0.002380861168937872 
0.02089228733727429 
-0.006670591284976404 
0.01865362301730849 
-0.004285495650504414 
0.03026531174580104 
0.02029547975424758 
-0.02279813334237029 
0.01427849784201318 
0.007013136858696597 
0.002120457896283009 
-0.00819634888991308 
0.01656159079454422 
-0.02625726606354666 
0.0262458083600066 
0.01047004653983206 
0.006089252751244467 
0.02081763817624119 
0.00536048921102497 
0.03223604155827142 
-0.002848217736251704 
-0.01417684886281536 
-0.01086632613987873 
0.03529583516096425 
0.02335902241526772 
0.001477748673296999 
0.03782297677991992 
0.01686912457027603 
0.003774202246595793 
-0.005499747903732451 
0.0101763633249991 
0.001533845493968229 
-0.006625647852786837 
0.006621101477916737 
-0.0258271509350285 
-0.02548957637038088 
-0.001515763500518676 
0.009176609759663354 
0.02941846303037234 
0.03875554922140273 
-0.002404448927007118 
0.01089599684323096 
0.01641199190939085 
-0.02880375824388104 
-0.01418080277140546 
0.0177688646719004 
-0.008954767918101042 
0.002771981983388813 
0.009030594113447339 
-0.01191425078994821 
-0.02234651043824634 
0.008771561579155504 
-0.02559709625922918 
-0.01540931865811413 
0.006711756231304713 
-0.001276650757453459 
0.03031204475801348 
0.001053852069045431 
-0.02489275268164964 
-0.01533787623994154 
0.01626149381724896 
-0.01016583768848382 
0.0166888223261068 
0.02443354876574303 
-0.01629335124866261 
-0.00623274059438883 
0.03445888256202607 
-0.0005606167021472753 
-0.004163652064053487 
-0.002657146256743922 
-0.0160148036095385 
0.01242284404236013 
0.003777297835332091 
-0.0009613685011126663 
0.003116714234235421 
-0.002035165080117197 
0.06040566976435194 
-0.004402232657920516 
0.03209786565533451 
0.004140412908740037 
0.01628177334694569 
-3.302085759029529e-05 
-0.001224153451775735 
-0.03266464232004505 
0.04735225181986557 
-0.006025232779332023 
-0.02022672961763104 
0.01167837601096666 
0.03285075918110773 
0.02165426567344805 
-0.03118362795116037 
-0.008062698597129436 
0.0183865415573722 
-0.03311095317722193 
-0.01575736355395184 
-0.009628694927997295 
0.03999621276084817 
0.03299447535219625 
-0.002831820650426044 
-0.03306660900366618 
0.005451422478339571 
-0.02433602287575772 
0.008053739516356045 
-0.02875450806864414 
-0.1138567036007054 
-0.002611195490750699 
-0.01554433584133431 
0.03655180976001172 
-0.09862097041473689 
-0.0392688761078218 
-0.00174229432145245 
-0.02679092350275468 
-0.01753513273295987 
-0.04482814940106183 
0.05879625314002067 
0.03961177494507161 
0.02020624766180089 
-0.07150912759964989 
0.02454267338214831 
0.01750839131983943 
0.04693241142427516 
-0.04368891313135845 
-0.1227537979046964 
-0.005143346454771777 
-0.03411487181673594 
0.06835012240881552 
-0.08326220790744736 
-0.002997675146542314 
0.009032912680386172 
-0.03786220112493641 
-0.01017902529127869 
-0.07208555641820688 
0.06745499421157478 
0.03871595237863599 
0.05363860038399416 
-0.03792566793952237 
0.06051711682130011 
0.0387315487582293 
0.08149560206650676 
0.00208837102403142 
-0.0715224991695793 
-0.01509266828456864 
-0.1229473760580091 
0.0623902674759111 
-0.08870444916375024 
0.006896730600249142 
-0.01451304167427971 
-0.02798553195250441 
0.06425299308933813 
-0.0236873632410421 
0.05358988398625963 
-0.008244597986973556 
0.06550448533945302 
-0.01848065694914755 
0.02415184425634579 
-0.01270684378789407 
0.08080872380188396 
0.002056124809092384 
-0.06447136566016169 
-0.01251945525402142 
-0.1068822298123165 
0.08544403334495117 
-0.06894861081674905 
0.01465178372668314 
-0.01872931414521014 
0.004231312485664682 
0.0599182505424327 
-0.03762588998733962 
0.02669913572709349 
-0.01350755119864854 
0.1198035508202369 
0.002359943538236829 
0.01983264387173016 
-0.01294140171125925 
0.0743510956327342 
0.005586985244278582 
-0.05399572758995629 
-0.02950562922539717 
-0.1135382438870922 
0.04755381778509384 
-0.07929267850962124 
0.05266830001973163 
-0.01154124158175568 
0.01844333412055644 
0.02354638533709493 
-0.01733103525487861 
0.03041848615715223 
-1.40070504353077e-05 
0.152519087831239 
-0.02987846583263162 
0.03299913642921658 
0.01252966721167237 
0.08437401920184778 
-0.02836772751426959 
-0.05658421306290191 
-0.03175298832511112 
-0.1199801865731121 
0.03034190914184099 
-0.1154888861750793 
0.0372350896428103 
-0.06092465703675758 
-0.03382930423124458 
0.016995032267103 
-0.009191186558001885 
0.02978968623681687 
-0.03364942688359442 
0.1033786783779112 
-0.02775508399833188 
0.03471964717890822 
-0.01823880171629608 
0.05310155602095867 
0.04372199353719167 
0.009076030565708344 
-0.03430780013729308 
-0.1178882789012645 
-0.03309011779031032 
-0.05455832943972 
0.02429971306821896 
-0.09598099793598439 
-0.03861244526727094 
0.05561036235920647 
0.03208446478922245 
0.03242463200889362 
-0.05500542227583921 
0.07849635059736809 
0.03683994517256232 
0.0918859874066877 
-0.01266623063866114 
-0.02151832199597449 
-0.0008904138249912942 
0.002300555331683702 
-0.03029654377738824 
-0.07522881353275629 
-0.001904646055803857 
-0.0441011815784116 
0.01753616177673131 
-0.07551247146460702 
-0.05887882531595346 
0.02915634234240203 
0.01671111049966231 
0.01442780665410447 
-0.04973520501149594 
0.07091734736393579 
0.02542155748124681 
0.06096256054004584 
-0.05648718701694223 
-0.06681301537082987 
0.0005592889429528941 
0.0003295623476623238 
-0.03058897609058612 
-0.04328868753250438 
-0.002984493950939545 
-0.03848963785379446 
0.01863013400410173 
-0.004224299263479377 
-0.001279060479906008 
0.03282189773909427 
0.006402961842470469 
0.03486209320165639 
-0.02069983511953603 
0.005315736515405547 
-0.0128875728193488 
0.004360502797015036 
0.001327707965830942 
0.001646030383461253 
-0.01435909491374219 
-0.02844963863454518 
0.00568428310122447 
-0.007672685539431756 
0.007977715168111774 
-0.0321005527148053 
0.001271414304265202 
-0.01840853672575161 
-0.01967857024031024 
0.02580424944178704 
-0.007714121095287331 
0.04134292650345328 
0.02092956482567922 
0.05672239843544895 
0.01216602835951355 
0.01320833890316316 
0.02316158085212231 
0.03572665271154327 
-0.03354218356588649 
0.01473521308685537 
-0.01610937422012318 
-0.05119448689345518 
-0.01141633597154546 
-0.03409213662049021 
0.005455351580742734 
0.0186386855597177 
0.01168519817604199 
0.01333820742785993 
-0.01015611752460679 
0.03918250041857953 
-0.0103638319921433 
-0.02655506392328409 
-0.01546536543221 
-0.03857969653868906 
0.03003338839711816 
0.02866816248024645 
-0.01877761577739998 
-0.02370909348009607 
-0.0119743026204181 
-0.01845030288192048 
-0.004003570078765513 
0.005315941164763905 
0.03518894053535643 
0.006377986699339639 
-0.01633357608116422 
-0.01548265486085953 
0.009579918226606546 
-0.003359553530130655 
-0.01160825360942449 
-0.006671832961556949 
0.004725868744276331 
0.02182657039672486 
0.01264282358728857 
0.01974146573867056 
-0.03056853831721901 
-0.00500196107539018 
0.003833108344677715 
-0.04221701203630869 
-0.00778929116552685 
0.008629019618543928 
-0.008306640836333888 
-0.02041965743440166 
0.009549115248627107 
0.003736008739678681 
0.007752942935604244 
0.009551516346860212 
-0.01031316462763994 
0.002946636941035286 
0.004025746492299374 
-0.0293796263115532 
0.03127998444524488 
0.01988040842965086 
-0.01739009536835615 
-0.004762497771890874 
0.006276633547379882 
-0.02513759960220465 
0.02488002286582111 
0.02137157559667378 
-0.01470535584646853 
0.0007237555610385782 
-0.005979468357293405 
-0.004459688214622176 
-0.002305930045054942 
0.002259355014590283 
0.009161711847679463 
0.03094661343359614 
0.03703893207290936 
-0.02705355016486228 
0.02127453419452912 
0.03379593692469906 
-0.02452312633757305 
0.01594753260435486 
-0.01790963050314027 
-0.06047228890684681 
-0.02360111812107769 
0.01358435971525682 
-0.03979801859958599 
-0.001630490306471101 
-0.01103359323883137 
0.0202842153543356 
-0.0005579970897515739 
-0.0002618028253189238 
-0.007313337621599835 
0.005482330182889636 
0.02689148180668575 
-0.02588570206357328 
-0.001096640790375021 
0.01452262748063117 
-0.04639602758969767 
-0.0279563238852038 
-0.006510583362139443 
-0.04361699234171374 
-0.003499106324565196 
0.01585865529952932 
-0.02927054078092111 
0.001763706906286989 
0.006842250464099271 
-0.01223051226967104 
0.00305880376934325 
0.01536663521731387 
0.00611172373997553 
-0.0166770418112268 
0.009273136684016439 
-0.02831833154123446 
-0.02050024563408989 
0.01970157271557951 
0.02277913032891739 
-0.018890979862641 
-0.003200103130170472 
-0.02350109659602689 
-0.03873741987881592 
-0.0468757798384395 
-0.0006529113086578101 
-0.05785304217524068 
0.03163632583911358 
0.003144731210951188 
0.01788050481079101 
-0.01243020169774159 
-0.0129524372764319 
-0.01407296080262121 
-0.01056061660248056 
0.00702018709712827 
-0.01495995398461133 
0.04214732346298754 
-0.05693252283006592 
-0.03234867225580965 
0.004262514234140909 
0.02060192127719452 
-0.01502492110450977 
-0.03754438028159068 
0.02210067461327562 
-0.02806436330383808 
-0.01896965684323359 
-0.0482253665155186 
0.01016392160599634 
0.01255553998209451 
0.01796504621834539 
0.0006142829127899824 
-0.006194403561956293 
0.009654209423407712 
-0.02237238460012032 
-0.008918541448345576 
-0.03806794961216192 
-0.03634734312608463 
0.03020785203024791 
-0.009604576611129687 
0.008637479112493726 
-0.04155580518288388 
0.04390653941649434 
0.02981270668470096 
0.04419296012574686 
-0.0061119353257545 
0.01492424678868569 
0.02908513237923805 
-0.02125849276081451 
0.007724123569342278 
-0.02075861107411762 
-0.009412487013444519 
0.001832395266862331 
0.02241696197108793 
-0.05453838994774314 
-0.09015640899445153 
0.005648184511010758 
-0.04198983845458821 
0.02045815736678236 
-0.02026812305625115 
0.09343595143316545 
0.05734079527322184 
0.04930634664078463 
-0.02614671222964823 
-0.01102927674823518 
0.02322127538118419 
-0.04684670505097973 
0.009826328067220157 
-0.02115016657051786 
0.03267086118667718 
0.02073959277440325 
0.04199198245852491 
-0.01153996353127862 
-0.05564695466200836 
0.01365042836108354 
-0.0554587942955986 
0.03114171270701812 
-0.01559997744431149 
0.04402985179275238 
0.004775187155312693 
0.07488904904081475 
-0.04864090564681215 
-0.002132681503063841 
0.01618983722426722 
-0.02367870912303672 
0.02432712611330633 
0.00816148454307276 
0.04075371610181035 
0.01222247880036465 
0.02956521538894736 
-0.03100250841549964 
-0.07051113587078733 
0.008036310329147924 
-0.08695533022061125 
0.04461904919141265 
0.01545505219806445 
0.03085125734097442 
0.009663017834742814 
0.05240321281654495 
-0.03375366577896008 
-0.0015484576051056 
0.02158945576723816 
-0.03264571607853728 
0.03383677017784061 
0.02270784021803375 
0.06437143219623265 
0.02000353812360852 
0.0304777861916449 
-0.02328696204439622 
-0.06072322481772412 
0.0004472469393477016 
-0.07017756475137008 
0.07881618389549064 
-0.008596386155999954 
0.04933460811891325 
0.02798778577867516 
0.07997494975037865 
0.00875323992599434 
-0.01094284991285609 
0.03627668901246774 
-0.004298159760327432 
0.03536108999776538 
0.008413663997183561 
0.06041278621222895 
0.03375474896165499 
0.02693235666287178 
-0.01732867671496806 
-0.05422456414098124 
0.008415304244623001 
-0.09132000003266857 
0.05150805515102596 
-0.005818942037487589 
0.04163298356676226 
0.01020548792406113 
0.03681211245843484 
-0.001820995823588549 
0.004228647151530767 
0.03928966905729302 
-0.006523100095522444 
0.0217904263306749 
0.01069654644329915 
0.03345112506093414 
0.01541286412553282 
-0.01561080029148407 
0.00571244602795387 
-0.01899554542608715 
-0.0002630378503229368 
-0.1227119224469382 
0.02877858039294908 
0.04696882150743858 
0.1055361537022141 
0.05658362963264024 
-0.003681547024461511 
-0.02406881041018105 
-0.02941727109806294 
0.008746827533449759 
-0.05623670903438793 
0.003892250560767724 
0.0428965112170781 
0.0321580523396998 
0.02792998265853235 
-0.008683142447987102 
0.01936566049828897 
-0.002366897610872055 
0.01849651720753084 
-0.07186390554751987 
0.009425325594745902 
0.04364832468931605 
0.05818170878190478 
0.01746284010408533 
-0.05340607158097896 
0.01900477543976231 
-0.01201462731990078 
0.03662484839894588 
-0.02742883604095971 
0.01657174358070193 
0.01839339664119958 
-0.005070944317695818 
0.006668265250956526 
-0.01346610770381677 
0.02983640751438228 
-0.00115171691122854 
0.03226504978888738 
-0.04687644415125507 
-0.05149313496411236 
-0.01355577192938365 
-0.01757897769136863 
0.02936370730044136 
0.0002772684289562382 
0.01415249163733906 
0.03650419754051044 
0.02613188247025738 
-0.06445688587958905 
-0.01525003218784488 
0.01433970997803964 
-0.01723868755869543 
0.02579158426986541 
-0.01856046743187174 
-0.003611774738090399 
-0.02812184599347274 
0.02689475802843268 
-0.01011294004643908 
0.02778434767188022 
0.006800547929010269 
-0.03053787221569118 
0.01764239225936228 
-0.007998349673721299 
-0.01719721185813375 
-0.01254828312854766 
0.02637015206143964 
-0.01916227735460002 
0.03218475022861304 
0.03935757725391911 
-0.003046973737318585 
0.03755669903413036 
-0.03086249079367996 
-0.04173651093500257 
-0.02880613635945467 
0.01845253793697082 
-0.01341620508438195 
-0.03086707257402019 
-0.008739747208489548 
-0.03036211644731123 
0.02930359674273499 
0.01489004681400159 
-0.01457609799544162 
-0.02461436471498611 
0.06397050839924559 
0.005754785872377847 
-0.00492577561610841 
0.005780002694993671 
-0.02919151870427387 
0.04619102402634565 
0.02986808596575076 
-0.009685481704776296 
-0.007302486279479537 
-0.02627649577994624 
-0.02359477505066591 
-0.03533817576954217 
0.01957825644579149 
0.003626815760376362 
0.01290294217507654 
0.008661118143663833 
0.0119948805832603 
0.01871056429598852 
0.0161076055589916 
0.01380925991580178 
-0.006129467920002414 
0.03521948031074147 
0.0214515560507761 
0.03217541176711449 
-0.02362264324930621 
7.254691318151694e-05 
0.02460541104146691 
-0.01430821451921322 
-0.02603581971290909 
-0.005151194605161024 
0.00177928057411059 
-0.006998680134810495 
0.01007017333768938 
-0.01001064266907928 
0.03307677570258986 
0.02087424067366124 
-0.006791992593612777 
-0.01586718684736423 
0.005401635471693079 
0.005309781396496539 
-0.007336307860172166 
0.01393411043732135 
-0.002846802944720052 
0.0008967706805088196 
-0.01073842921335947 
0.006655270701363381 
-0.01051362533390918 
0.03753136973507434 
0.0149965396818817 
-0.01568648830674636 
0.01782719028157629 
-0.003827130624434256 
0.03086699538014895 
0.009024964376009699 
-0.003692003559061437 
-0.01518016486457802 
0.006794829019002468 
0.01400592340308905 
-0.02802700992338734 
0.006279218502754851 
-0.004123420036749826 
0.008431325504669089 
-0.02913016761448536 
0.003238431143464312 
-0.02316339793467172 
0.007449477587034374 
0.01877260082056524 
-0.01746192492469975 
0.007024340877966715 
0.01698503791376289 
0.02720651822916262 
0.002137460511716878 
-0.009573725214566529 
-0.01418514443456688 
-0.006738751222331458 
0.008887115527085506 
-0.0308169208194754 
0.03636963512718579 
0.03131133080874733 
0.007683670474656366 
0.01270036088297508 
0.02633312645676329 
0.004384808344443493 
-0.02593860562742184 
0.01724905945987687 
0.002886693973082785 
0.01628346327308769 
0.02821851207998227 
-0.01373093474758122 
0.02492520135853363 
6.336256007996088e-05 
-0.01023048040368516 
-0.0242520785315652 
0.02247451432165688 
-0.03770335652227626 
0.02199961386807428 
-0.0216511339781247 
0.01239535240963066 
0.01668321113137509 
0.00157976130232009 
-0.03530828314961279 
-0.03029959302288207 
-0.01920508985774518 
0.02609027105158762 
0.007601155487610852 
0.0348860116738985 
0.02138667982352471 
-0.009505677934585354 
-0.0112780580687113 
-0.004650624522813831 
-0.002528349827129081 
-0.007389267503983104 
-0.005101486182812521 
0.007287077517736182 
0.04161292099079668 
-0.01832965059575616 
-0.01173027628670474 
0.009264351621632427 
-0.003996948079383208 
-0.01160188416193394 
-0.002255511160111024 
0.02279664208570254 
-0.01285229918118838 
-0.0165851368759629 
0.0004804804942843753 
-0.02094496289172667 
0.02201123835588179 
0.008908437961959371 
0.01253203641213597 
-0.0001874713705615804 
0.009587928800576058 
0.0060974140199841 
0.01789649110390452 
0.01889613918562457 
0.02929626114712044 
0.01799762872114984 
-0.05899208825969635 
-0.01316595254562192 
-0.02017360462534071 
0.01502174849873595 
0.01918733547124964 
0.01270501964518584 
0.007570541117369864 
0.01928442565699167 
0.03430314056285807 
-0.01264370078699966 
-0.02528616182400517 
0.01785103997452716 
0.05039475193054231 
0.01489860578958973 
0.03720744859834176 
-0.02126595872762462 
-0.02129601906732236 
-0.004154644291553744 
-0.07155098917854935 
-0.008707581475859118 
-0.02757083712409182 
0.05038292466125304 
0.04881166693428287 
0.02475119185826987 
0.0108487478058377 
0.01572595968693484 
0.03782145463919989 
-0.04342943312194336 
-0.001537759440564109 
0.004560917826234582 
0.05801434599110576 
0.02159301821919244 
0.03003752208210203 
-0.06123705657754515 
-0.02197697697217194 
-0.00424483296389673 
-0.06592424060761931 
-0.01368086693620487 
0.02780404350794783 
0.0654908890097098 
0.03615131129856426 
0.01321654774882155 
0.01894531047110198 
-0.008092872687333951 
0.03677791772169151 
-0.0454520852264131 
0.00723972582811322 
0.01659547549074691 
0.04784289750002065 
0.02184709034177904 
0.04090116690803459 
-0.049851089078972 
-0.01407604005988128 
-0.007354665670645531 
-0.06150532079801652 
0.009731266394543253 
0.02513910742446451 
0.07092888576190649 
0.03393374703811218 
-0.001047659608517424 
0.01856080934178323 
-0.0003896903389739295 
0.02703574818765272 
-0.03391616916920933 
0.02657964317046167 
0.01574272090773454 
0.02377546986759587 
0.02427392057194364 
0.04256968730067034 
-0.005153963352795794 
-0.02350787632710247 
0.006370862146147229 
-0.01268497553813027 
-0.01544080133058804 
-0.003095597343369535 
0.05331538015480215 
0.02968743588663817 
0.01854081892660908 
0.02004290434148106 
0.003817854729588929 
0.01782491521712123 
-0.04793914191308182 
0.02138632198666896 
0.003435535170759607 
0.02708008482567125 
-0.004678922193399542 
0.03964321639047545 
-0.03939834169928685 
-0.02899480239667493 
0.01613675835199362 
-0.02922884183422563 
-0.02667187039299089 
-0.01371081078494656 
0.03758582232693429 
0.01928722930238119 
-0.02462294505932878 
-0.004279870900572209 
0.023661112121382 
0.02464963534283946 
-0.02307019048418153 
0.0363077503446017 
0.02700150072893136 
0.04595808273907687 
0.009693962739231425 
-0.003705398271522614 
-0.05047681480549096 
-0.02792100190623477 
-0.005127174535594689 
-0.06021709712611581 
-0.01837542349507075 
0.003758917122328026 
0.04257211346284004 
0.02229737609240898 
-0.009323504469507082 
-0.03153796160972773 
-0.00258204558511209 
0.02875545785935713 
-0.04337420539572249 
0.01684516081273628 
-0.0007062568692988204 
0.019739220529322 
0.0190919945395443 
-0.02041365265498886 
-0.01963288912326715 
-0.03529558225292178 
0.02624195920076723 
-0.004456531620947858 
0.00739261825972331 
-0.001963808948058942 
0.01850497437327536 
0.02179470109898921 
0.0009804678667158248 
-0.005328507663711656 
0.02021416440331764 
0.02540504118397898 
-0.01142546060923012 
0.02726790361368397 
0.008374639819924656 
0.01696434951113569 
0.01548693044537739 
-0.01610469362498277 
0.001273264342968766 
-0.0003532907868012902 
0.01622436419990259 
-0.08212303917093269 
-0.0280074931071067 
0.01989332632772247 
0.008136262561955333 
0.02803381729253019 
-0.02046501987497102 
0.010774675942786 
0.004397837629902473 
0.01802484617357287 
-0.05253225814391923 
-0.003243565531919315 
0.03200676801658735 
0.006539584447028581 
0.02857282892795045 
0.004173837956999707 
-0.04264585473713307 
-0.03485165303645593 
0.02448483441766275 
-0.01353458275393962 
0.01830461612224436 
0.04698167362656709 
0.01621629257545227 
0.0292182635934097 
-0.03859211582846603 
-0.02197145894228101 
-0.02868807735084979 
-0.005954335435196492 
-0.01821337625039442 
0.001962496667579383 
0.02661161580395088 
-0.02057346349085065 
0.003968935954129782 
-0.01269084759377308 
-0.03778904492051537 
-0.02162540135951716 
0.04322354990083538 
0.01548050574794632 
0.0006206335216878112 
0.02625690124735323 
-0.0305568921780877 
0.04907524069769464 
0.02168044285564355 
-0.03017695543914711 
-0.01443993163512129 
0.0266532940670461 
0.02780169093557292 
0.0004903409695925878 
0.02635663141413893 
-0.03866383969503436 
0.01420468842376938 
-0.009605641902871985 
0.02889461289796594 
0.008141059830666927 
-0.01590868941931707 
-0.009264908440844103 
0.001740541160641801 
0.02116056962292076 
0.006661258051376434 
0.01339795378451306 
0.01000593196701337 
0.02910893827194992 
-0.01619783823322788 
-0.01673320255427732 
-0.01432659655343927 
-0.02117076955500836 
0.008298685667729773 
-0.01671081692652632 
-0.008556323413998189 
0.01482429444973288 
0.03622320941725515 
0.009965579049135351 
-0.03270762856523982 
-0.003356806390319238 
0.02857610295517972 
0.01141642697095387 
-0.0189690676674466 
0.01516126230447966 
-0.01157370103013699 
0.01613827177927739 
-0.0003571450713657762 
-0.00563768318082258 
-0.002969183769839272 
0.005141848036572926 
-0.02742481462139976 
-0.01280133477263021 
0.0007704752655220171 
-0.001309510382938443 
0.03977677992264588 
0.002138579467365768 
-0.01790790488751502 
-0.004583715838729075 
0.04498552184979997 
0.02382359789477722 
-0.02088003214364114 
0.01164806388308867 
-0.00863407383127371 
0.01133772596595796 
-0.002770135601272777 
0.01042180333497412 
0.01382543605958056 
0.006794931564887291 
0.001127960479364928 
-0.009627356200099163 
-0.007728644808696413 
0.009299362304005718 
0.009460453292182772 
-0.0229879235691712 
-0.04102569406606041 
-0.00818099380885888 
-0.00584593551765717 
0.02628165138322313 
-0.02428076925383236 
0.01999179027771214 
0.0245100627226517 
-0.009686161189631563 
-0.006573623984270318 
-0.04388210303021026 
-0.02362134064832033 
-0.0158573458521159 
0.0362519261547159 
-0.0330020708221918 
0.01666714211984727 
-0.01187290369347425 
-0.04312479576101699 
-0.02731773900958569 
-0.02912668784039507 
2.703195396101625e-05 
-0.01193110630438933 
0.06093847815120319 
-0.01212603382792848 
0.02245065256406645 
-0.03305676928408757 
-0.003170218086612289 
-0.0133956620699454 
-0.0251441530655683 
0.0139929486942699 
-0.01769245345658536 
0.05344851333677568 
-0.006923411731640817 
0.02371413518354305 
0.002390673491509449 
0.03754140294261216 
-0.007709024059054657 
-0.01041521413032395 
-0.001034134842219951 
0.003592516921362398 
0.00219083832988824 
0.002938750739266786 
0.01559227837787392 
0.009692080839862014 
0.02037226362045038 
0.006519804079069752 
-0.01494188953898594 
0.00817491114899201 
0.02170076052376703 
-0.009207675943544125 
-0.008941765732037739 
0.02263641792348694 
0.04248814550899362 
-0.01285585748256171 
-0.03283662674493863 
0.002891124696381157 
0.003208070007571887 
0.01545135950940572 
0.01050508035472313 
0.007075072439731224 
-0.01141969261570321 
-0.01454857020049365 
-0.0380099256312094 
-0.02906669935772875 
-0.002804112762287791 
0.03088000649860654 
0.01056307345075982 
-0.03990440798126237 
-0.01871685794196651 
0.009630694167022958 
0.0009000849248053688 
-0.004503543763034329 
0.007909736801371159 
0.03891167507484991 
-0.0110152863181294 
-0.00852562183695754 
0.0142296706233469 
0.05210275346033488 
-0.0103288801121325 
0.01736643876799428 
-0.04439374694285547 
-0.01575568307333826 
0.03643017613690262 
-0.01139756878784075 
-0.05261008530898436 
-0.05137221738592556 
0.03349771200044771 
0.004851982610166152 
0.005149479066946695 
-0.005687151003493788 
0.01202274004082215 
0.03133278241651481 
-0.02168647649591766 
0.008728429282063264 
-0.0213514821405423 
0.02955572861250266 
-0.0194462115862699 
-0.01084933440833665 
-0.0297883939262863 
-0.04326642849448086 
0.02706213312932895 
-0.0189462736857504 
-0.001651294868262915 
-0.05518671147423368 
0.02076478155904685 
-0.03868794845672278 
-0.008269675212204189 
0.01463750018234393 
-0.002704924402183973 
0.01673122921289553 
-0.06330256970967112 
-0.009038277643764792 
0.007953493504124996 
0.0442801184896602 
0.003413919159891065 
0.007974830842598497 
0.02545016319980306 
0.01550191218312312 
0.02287049684326139 
-0.03039326055633148 
0.03970979865764812 
0.005010042212556957 
0.02778018878963203 
-0.005859989596693935 
0.0204272089447565 
0.02172804591071936 
-0.01065609549386669 
0.007111043710531804 
-0.06537376679510605 
0.02431500595716789 
-0.00467281318771986 
0.02077352338291458 
-0.01331156324244162 
0.03645643535480545 
0.02123644729215122 
-0.01938371873014467 
0.002581147371349203 
-0.03104616752224747 
0.06563735130776427 
0.007817957050218665 
0.0002263717976331779 
-0.03715553022858344 
0.04401006363716035 
0.01772550984915883 
0.002746728859766041 
0.005598100005152941 
-0.04040822927281004 
0.02187285895637048 
-0.001581200096857186 
0.02156544500874923 
-0.01414767243066786 
0.03472145487452557 
0.0354979251137223 
-0.02612905180036871 
0.01956166551801607 
0.001977547171770178 
0.06172174702531045 
0.0008681209490789584 
-0.01099431810138969 
0.01109462061247149 
0.05379172042300679 
-0.002296965449260322 
0.01492844213633546 
0.01407885331479404 
-0.01247304169442597 
0.02235976902618901 
-0.002541252292353758 
0.06066338966742731 
0.006875411940891247 
-0.0005170650940250132 
0.01569457345292572 
-0.01450044290976032 
0.0584032720351781 
-0.002754140930340123 
0.04564847444035505 
-0.01122867992713795 
0.02935643904187054 
0.04258688222699292 
0.02454290125627902 
0.003237649812212888 
0.00573230722947776 
0.02613106252384731 
-0.05374374546576809 
0.009762662517490877 
-0.04279424251908703 
0.0101436143483867 
0.000456200520583849 
-0.01491750325279703 
0.02841842241556546 
-0.01489736209516369 
0.008556528318126972 
-0.08312496388078437 
-0.002673744707224112 
-0.04348013182464017 
0.01021169152283813 
0.02055735290343181 
-0.03846140902669559 
0.00349025594020693 
0.0005250860990041557 
0.001578025970593312 
-0.01989524310177038 
0.02779056361080812 
-0.01066372603486797 
0.01306699494493165 
0.002854692889526206 
-0.01468848136307386 
0.006908195519780919 
0.00232649886082159 
0.007306151565901432 
-0.0503977252538629 
-0.01395775369074876 
0.02117137320157903 
0.0430062554589123 
-0.009881299478496169 
-0.05697706012081192 
0.0196999259285988 
0.008708932226880682 
-0.01757347724245127 
-0.04664310692076561 
0.01905373026825881 
0.01190068955276321 
0.01088152564032156 
0.02909566771299507 
0.0009340501431573533 
0.0384970682219241 
0.03588736665346034 
0.02492871593819272 
-0.04823964445149617 
-0.004734291150851232 
0.01894515202304289 
0.01211427714001247 
-0.0003595278699948157 
-0.03099552695067337 
-0.02024992431565708 
-0.04366132217079168 
-0.0365072085102056 
0.001471333489571574 
0.02176953640428178 
0.01827858262898096 
-0.004729498882628639 
0.005764150038459276 
-0.005151518986401636 
0.01538089015685312 
0.01433250218946723 
0.0006482008323222353 
0.001029983685719107 
0.04618496085507933 
0.04204170746387763 
-0.001937073369570258 
-0.01088695763441606 
-0.003090837914794728 
0.00295155933047412 
-0.03661628939940636 
-0.01682269537990029 
0.01012481079634004 
-0.01501605533302234 
0.01696453105638111 
-0.01166791301313936 
0.02155710658041215 
-0.00834935584517703 
-0.008154880596673842 
0.03017902279773045 
0.02731962168211853 
0.01852384664258812 
-0.01518798790208347 
0.04199349256859553 
-0.04597026317646598 
-0.002786647738115877 
0.01662725117519891 
0.03219449861058576 
-0.01019494528500725 
-0.01689693128705948 
0.007529923630396029 
-0.008006785145434084 
-0.01771227762531235 
-0.007963418147335552 
0.0169571727475348 
0.023160153831003 
-0.0104252262841718 
0.005408504553547339 
-0.02012427287918682 
-0.001437176931193205 
0.01168398911108743 
0.0073931897179116 
0.008635770342502165 
0.03414958708580294 
-0.008127485125610238 
0.02036766665758129 
0.009131925563350926 
0.02445121284798922 
0.003359237774247016 
-0.008107724384141356 
-0.02757532144295068 
-0.02629290395279048 
0.01365360926422311 
0.01434906047593144 
0.03847664295415709 
0.01272645262241023 
0.01336281442093182 
-0.0125655692475052 
0.00918529185269105 
0.01956093312082284 
-0.01750300421800964 
0.03389817881271037 
0.01455842883647564 
0.009004937543198456 
-0.001174454530607839 
0.01986136543768809 
0.03648093376709826 
-0.001977518820890831 
0.007376075566442014 
-0.003486495532488719 
-0.0007481816358246216 
0.003396888457876026 
0.02467826481007594 
0.004140156044598509 
-0.002304978161168605 
0.003794582532931184 
0.01555931507424317 
0.0201410836891724 
-0.01560887457931483 
-0.001656598856207079 
-0.0009322417325058878 
0.01712337046417441 
0.006704067664839759 
-0.03905037849304159 
-0.01089933506469104 
-0.01201120455394426 
0.01348519634617213 
-0.03707264704680518 
0.00153446398561144 
-0.02337679710345222 
0.01815118410428333 
-0.008771009533015689 
0.0009090787482374531 
0.004163377231921108 
0.01325227202618882 
0.01460609362154552 
-0.02857558078491464 
0.005735438369207625 
0.01919145941592854 
-0.01274939268549352 
0.006960564196389283 
-0.009098387431820515 
0.005655892595689699 
-0.01223314649744391 
0.03231269510560799 
-0.01819418703302562 
0.01962765718442572 
-0.01130790361559604 
-0.01026316964164904 
-0.00997146691335881 
0.01239422144069754 
0.02379070644374806 
0.03124458903622331 
0.01604694699194154 
-0.01748630187050487 
0.02308880829693709 
0.01716481771820945 
0.01638993723536544 
-0.01477399048387699 
-0.02671899208215208 
0.01240108931436082 
0.03185158553063916 
-0.0112811272166395 
-0.01493913946914844 
-0.0003810436569912718 
0.05046500547655201 
0.01543182571758446 
-0.01549483471038301 
-0.0145141278679995 
0.008384752275039742 
0.03190215489659115 
-0.02984837194438855 
-0.009483254186868389 
-0.01776737844256037 
0.02013108576838976 
-0.02667351670938169 
-0.05213286618580853 
-0.02619333025035804 
0.02761802569943201 
-0.005422573745065173 
-0.05696689356283315 
-0.01153531370397813 
-0.01182136967712768 
-0.009897333297698513 
-0.04726017163548658 
-0.02329150531953451 
-0.002672063255238405 
0.02594213063368091 
5.227377690727092e-05 
-0.04370336449656189 
0.01671139000348797 
-0.01226067543642335 
-0.03429985846179546 
-0.06646853764039107 
-0.02750541966213217 
0.01160372736036727 
-0.02278873356818501 
-0.06349414919939039 
-0.07645014517194391 
0.03606668607249081 
0.006146545276253596 
0.003946355997115839 
-0.02736495102687625 
0.001274676319784082 
0.02623643599512198 
-0.01043421555851257 
-0.03335167845836762 
-0.04716378668330821 
0.04782578255848393 
0.03194892726645427 
0.0176277444279484 
-0.05342083813525392 
-0.03477371178096465 
-0.007958566301703439 
-0.03473835615682867 
-0.03840155385737254 
-0.09725601702548051 
0.01449797480851235 
-0.03184131079709983 
-0.02388768886386122 
-0.02255382336850938 
0.004355315319239714 
0.0008871412817454827 
-0.02262127893650294 
-0.009133139007127946 
-0.02858150394745584 
0.03464347695671766 
0.0124597341676312 
0.01494863618279075 
0.02159469591705909 
-0.009221527776068713 
-0.009285582602033935 
-0.03088836760727913 
0.03839554773042324 
0.003399078794456089 
0.02647702169634533 
-0.02157439990922008 
-0.008061911972007276 
0.05471736001062198 
0.01290874934287821 
0.0309435863275387 
0.008378227464343444 
0.0222543639923459 
0.004229097506950484 
0.01556733018676917 
-0.0456863919241198 
0.03102809388389202 
0.01076998218433214 
-0.02395759322429535 
-0.006221419435481011 
-0.03481979423590188 
0.04672706317882182 
-0.02431986477632979 
-0.002812980992485207 
-0.02681303408678669 
0.01243898663549363 
0.05191077908849812 
-0.01196596080174214 
0.01839930513263487 
0.007879911272572124 
0.03357468991343486 
-0.0217276572817968 
-0.01834364963176882 
-0.06869436501367317 
0.01366203633630544 
0.02353331614234278 
-0.04004945183774015 
-0.01699814687170948 
-0.02853510938750162 
0.05353907914367177 
-0.006165980743302342 
-0.005933671707112964 
0.0132184273828249 
0.01982893952921282 
0.01492359209712003 
0.01811143833939785 
0.01637960017012767 
-0.004639402418227924 
0.07448281285884767 
-0.006200858702868087 
-0.03297444691451042 
-0.006439649892092044 
0.02301115525958336 
0.006825168898886596 
-0.01294575843179629 
0.01951029568112965 
0.001872522457202072 
0.05073754959295443 
-0.004385026156243904 
0.0307586469839373 
0.03734572057622493 
0.02944906496907399 
0.007975038786993327 
0.01733341849084526 
0.04175521960912081 
0.0188033959572899 
0.09093788858858777 
0.02728402732304675 
-0.01982852670658941 
0.006936284855778931 
0.01679460782385175 
0.02811351408007345 
-0.01438805504981051 
-0.003904644855375411 
-0.0799659867753798 
-0.049369972342745 
-0.02984254888825531 
-0.001881629196624842 
0.008751208285676182 
-0.04235485232847879 
0.04048977332325911 
0.008377140900630456 
0.0009801654580944587 
-0.02459826812199279 
0.0005965728582772827 
-0.01678215255225843 
0.008502906934789301 
0.01661336283463295 
-0.03781762605834034 
0.002580815093426013 
-0.006463352250163342 
-0.001098076005608157 
-0.05545759404574897 
-0.006885566666637989 
0.01843377100077535 
0.03020283844534045 
-0.01163484353797792 
-0.0684584111551941 
-0.006657398936605604 
0.01871262501967702 
0.02027758762762585 
-0.009042820843166469 
0.01312679660347457 
0.02074293974358997 
0.01912787189134041 
0.003697095673340312 
-0.04851057924632896 
0.04585229833827822 
0.01358178600092534 
0.01185432839063897 
-0.04977050355414194 
-0.001101438699534885 
0.004981374683528308 
-0.01033881086207701 
-0.01059775064027584 
-0.02366750884351032 
0.02072780783312678 
0.02749968201836087 
-0.0006578717136019807 
-0.02810306623877693 
-0.02386038432840953 
-0.04210633575529582 
0.007038306620394026 
0.03398409065581849 
-0.008697957666949981 
0.01527855847323939 
0.00164469084554372 
0.01153978771472874 
-0.02752224269439892 
0.04653145048851927 
0.01994998714253296 
-0.03483426860339184 
-0.01778378795653996 
0.01184960502805837 
-0.007684992678361337 
0.007989420899588125 
-0.004161962099109535 
0.002622639424493788 
0.04538712475783012 
-0.006825825316920653 
-0.001812674898198863 
0.01057291718322554 
0.01095570207249643 
-0.005505033389943149 
0.01724636415507919 
0.004094259227330528 
0.01363976204932134 
0.002890989876725268 
0.03030194081074556 
-0.06103538653513013 
-0.008608672944413772 
0.01686627430877469 
0.01700876381118945 
0.01122728668348245 
0.0032888730613331 
0.01784476309121535 
0.0009577205581451212 
0.03166771755124472 
-0.0252441284064661 
0.01126928346081781 
0.01487090856313501 
-0.01334512139353205 
-0.02185431540114444 
-0.04058703523222962 
-0.012373106875564 
-0.009180124787737842 
0.003640610243947032 
-0.008145425798404347 
0.02226937606528526 
-0.02128710432616154 
0.03711059222153276 
0.003430927897769903 
-0.05167259337481236 
-0.01668501948604732 
0.005104316713194519 
0.02819520864226054 
0.005197647355513054 
0.001811248199593893 
-0.00884714555596868 
0.02997582527395401 
-0.0142382829990531 
-0.01689974157297443 
0.008894365615888567 
-0.0008106548900475274 
-0.001789853114129757 
0.0009498198994800796 
0.001524512857610043 
0.02042889420300541 
0.02723077447726867 
0.001604434003258037 
-0.01787409720310349 
-0.004670498813300253 
0.004088373721589215 
-0.00585455515606623 
-0.0007694914875785343 
-0.003174711796414423 
0.01798267995529817 
0.01306396992362197 
-0.03135023646018904 
-0.02161732085213916 
-0.005935949423514356 
-0.002269834052904589 
-0.01068728507012741 
0.01407094180749195 
-0.02001542869089991 
-0.002431613552688279 
1.103751563147383e-05 
0.004188509572709652 
-0.01029730037486403 
-0.000394837252741056 
0.007336752005199388 
0.001229354839224225 
-0.008803115779838324 
-0.0148685767800303 
-0.0009975377447697695 
-0.007997671109921067 
-0.03254856825416202 
0.0009857094360313341 
-0.02554898030103619 
0.008384671636766089 
-0.009122036413017145 
-0.0003265262883849877 
0.003443543679339164 
0.01768794376392242 
0.01725301904915124 
0.006796241281410834 
-0.002574176340917754 
-0.001400517333160991 
-0.01146401508384054 
-0.03194887891035313 
-0.01720575159819284 
-0.009049868785492573 
0.008325915248670426 
-0.02285363708801246 
-0.009541731670226896 
-0.0001663823723544238 
-0.0001581589415762309 
0.05842050692174938 
0.01177414293954676 
0.00602745823093923 
0.02943668237130375 
0.02121896693998121 
0.004767401446385885 
0.003718840056771971 
0.004020114500256173 
0.01532522233794174 
0.04079909478219666 
0.00222129171477793 
0.007460667029553852 
0.01564472566799028 
-0.002677080188979998 
-0.01994441175094368 
-0.0264411388809201 
-0.04067970246915808 
-0.02349044171522284 
0.009126156223256496 
-0.03863376949639489 
-0.01571726058351679 
-0.01273947245335457 
-0.0002817580510786736 
-0.03651470926841963 
-0.006655708099932535 
-0.04130720066847637 
-0.0292963379038937 
0.008894297012317842 
-0.003140006778129981 
-0.004769836858378865 
0.02851619737812283 
0.009822993184279542 
-0.08760425095569539 
-0.02351568302472843 
-0.0342540943218979 
0.01164151909859111 
0.001540953275211948 
-0.04600690582133982 
0.01254024933019286 
0.01372934307218933 
-0.04040043381311747 
-0.05429149986989999 
-0.02123933027795885 
-0.04390262923504763 
-0.002414147146438362 
-0.02051695953986471 
-0.009478896364392414 
-0.005870900655514124 
0.0175124019735728 
-0.01441975176786405 
-0.02859742322908421 
-0.008777995528585849 
-0.003159436589013016 
-0.01848850306494487 
-0.03047213560850538 
-0.06329776935957811 
0.0244714294360431 
-0.008120736956258402 
0.001846743302084331 
0.01177916326231609 
-0.005216802026073085 
0.02398254184231939 
0.01513535630139318 
-0.01713680175165188 
-0.01501581800160016 
-0.001672137236762234 
0.03567314963596758 
0.04265630547172758 
-0.04136116040737771 
-0.0310280738841486 
-0.02235283425880131 
-0.02201784896384805 
0.00122271025474941 
-0.05440575010699505 
0.001656481649300606 
-0.02534028507143559 
-0.01163678145529711 
-0.03042637203118875 
-0.01099142513968767 
0.002858666641369357 
-0.01096709203607056 
-0.00192236559583632 
-0.01091787338042946 
-0.01217864904688486 
-0.017945410665418 
0.01172529579899637 
0.03955811229661434 
-0.003782405367285962 
-0.0148074737653402 
-0.01064398457676138 
0.0428990074430167 
0.001616205102204342 
0.021674758808065 
-0.02750437245028019 
0.02355899738835299 
0.04778656768166917 
0.02569656861932698 
-0.01169014469826901 
-0.01070935844667943 
0.05416323124122089 
-0.0003143706625778355 
0.01092818921721704 
0.01315482262735676 
0.05916353295730779 
0.03290446426587056 
-0.02515404847710872 
-0.04754674114910223 
-0.02402406113039565 
0.03032152642187966 
-0.04176620086616484 
0.0105094164550112 
-0.03353393151023298 
-0.008318552981259598 
0.02398613822790184 
-0.01608790907024164 
-0.02956627234964515 
-0.01921579495640125 
0.04692245906118692 
-0.01510982840943492 
-0.01150449960403661 
-0.0002174589518978108 
0.0545445275651829 
-0.01252621566494428 
-0.01559399542872459 
-0.0178985097046611 
-0.02086500441262577 
0.04673045940491626 
-0.01746696269701071 
-0.007615086594229263 
-0.01063934844486391 
-0.0123076805577048 
0.03582611722715734 
0.004846822262543071 
0.006895333139566572 
-0.01786255352431009 
0.03715653269401738 
0.005546457180575553 
0.004469330966707032 
0.002146905273297904 
0.03893462650967211 
0.01230747247588324 
-0.00900239868288954 
0.01035311231751394 
-0.004993811247348993 
0.06563317007561838 
0.002592047322236241 
0.003437439000102785 
0.01111961422943008 
0.005988672237494166 
0.04329221116543603 
0.01097009995572496 
0.03672658522889919 
0.02223469873015446 
0.0680711934011225 
0.01157733792146434 
0.01858631876469494 
0.01846146777282742 
0.02145818640137509 
0.02991788577337525 
-0.002878277001320226 
-0.02262590038508331 
-0.03811508910450654 
-0.02561316907430042 
-0.02102888354719028 
-0.01867750503696398 
0.0244628733640459 
-0.04783291205310079 
0.00057850296347183 
-0.001188603870349669 
0.01491894068684729 
-0.03786854364831854 
-0.03231585547994918 
-0.04637140621363453 
-0.008096917618209199 
0.0168536558855091 
-0.004359323697949758 
-0.01175473923466625 
0.02220195992216628 
-0.006711558499929024 
-0.008937001266174254 
0.01480173991505837 
0.007524641108522074 
-0.009964043635284177 
0.00412614611631284 
-0.05910647504378302 
-0.01143257031161183 
0.0179360703859622 
0.0348386223154326 
0.0121941050058269 
0.01379868689885767 
0.02900400506634246 
0.01238745963541606 
0.002517523810565261 
-0.05244007440403715 
0.008303715583685683 
0.02029267532656427 
-0.007619651257843712 
-0.05165435282159185 
-0.02072082233582443 
-0.009792560064738592 
0.0197713994294783 
0.0116292697408186 
-0.009323321536912741 
0.0003089849047981537 
0.01447980621840812 
0.006664383807972242 
-0.02063808706108739 
-0.01772258691360214 
0.02645117165867373 
0.001016376186033488 
-0.01392908660703184 
-0.03468135104183886 
-0.02306923590331479 
-0.01103582587032772 
-0.01133259126105454 
-0.02259391529286661 
0.02857714154835807 
-0.01473301916122721 
-0.0009091154737565736 
-0.001314748966939583 
0.01511383179569759 
-0.01207585875141687 
0.0005530881327682023 
0.003965902922264885 
-0.002712638818228753 
0.007116526208496821 
0.01030914913008132 
-0.006854556087790004 
-0.008335515293808679 
-0.004923974509623908 
0.01163816814025636 
-0.01201300888400652 
0.00336258871169459 
0.0006865667942303366 
-0.000197316304753515 
0.03055966000347822 
-0.01343572908763988 
0.01409358589638491 
0.03245515556184998 
0.008756716843113391 
0.03388689741645596 
0.02039215633528386 
0.04097271642674937 
0.0169946407881085 
-0.002788005798901348 
0.02180235508567074 
0.023078563723595 
0.01888544348312474 
0.01506184016667921 
-0.01966163375968101 
-0.04597025672144817 
-0.0159045613232947 
0.01272477769208798 
0.02487047043566421 
-0.002603799520377735 
-0.006157631482653805 
-0.02807279011588651 
0.04066943829043072 
-0.01103838328686283 
0.006755651104363236 
0.02650625513997526 
0.06329409688433069 
0.0377247610648745 
0.005195767856281837 
0.00587894638573735 
-0.004312390547999479 
0.02753354542797452 
-0.006697169773219219 
-0.005816007633700434 
-0.01762982245683455 
-0.004744894396933718 
-0.008791241126794519 
-0.003256090726727217 
-0.00705679067449845 
0.009206429317619726 
0.02355467139458765 
0.006449375012305348 
0.0116637256201841 
0.02122474068584883 
0.01360687411050998 
-0.01531479591197654 
-0.001280148598845018 
0.005470734004607475 
-0.004147271904595492 
-0.004643907381419963 
-0.001226937288285196 
-0.004625518946155381 
-0.0069196812188041 
0.02005330458186731 
0.00166475707571889 
-0.005887556881626175 
-0.008978608441468052 
-0.01229329668095328 
0.01498715821550295 
0.008542820754531879 
0.0007069403210062021 
0.02121217514365023 
0.03396871523924747 
-0.003985715727636617 
0.0186043457281861 
-0.01288274409773001 
-0.02200417457498969 
0.01024698333248863 
-0.0140419548244714 
0.00765411876569912 
-0.00275665333380082 
-0.03935883740395776 
-0.02200156302173759 
-0.004090776351820981 
-0.02189110377774165 
0.006612149398089355 
0.01892863309742389 
-0.0129321300077738 
0.01512248123166968 
-0.002024563206963185 
-0.03624701899308434 
0.006856203156515242 
0.02674512721300016 
-0.009713865998555681 
-0.007423518204556765 
0.005350139705804857 
-0.01166932164011085 
0.0209380347011708 
0.003561959457910938 
0.01629620005215031 
0.01765102656890799 
0.02687611545120131 
-0.007162732787849539 
-0.001606806150151606 
-4.766763260000428e-05 
-0.002053986150411188 
0.01130356288324828 
-0.0009820156463699221 
-0.009630705457018099 
0.04377348819859189 
0.02982145626878997 
0.0123823759483799 
0.01005055396470746 
-0.02833931567050561 
-7.520021752865858e-05 
-0.04050212121337893 
-0.01043314177621562 
0.01804848494471642 
-0.004815880939703438 
-0.01393516853734843 
0.01846902755554254 
0.009918702943830101 
0.03149445634320201 
0.006764032739394551 
-0.03933091712547263 
-0.002333586627616136 
0.02818210044857545 
-0.007153086550715114 
-0.04529356215599496 
-0.006702018320042757 
-0.006875495508351636 
-0.01856469477376804 
-0.007314473224183501 
-0.05412908832080727 
-0.004919898551486323 
-0.001471780083465472 
0.003003124199419813 
-0.01392397079463545 
0.02202062755174108 
-0.01791716463712452 
0.00194524241431535 
0.01866831109862698 
-0.04183331718462373 
-0.005938373956175217 
-0.01458271978279291 
-0.004022096134795023 
-0.03308601081493612 
-0.009276251774940625 
0.002124701542734691 
-0.02413865259285169 
0.02059494805840583 
0.01496354269491658 
0.009700122975182697 
-0.005822599390884581 
0.00355948057127939 
-0.005444448450910505 
0.02942583156586263 
0.02074910179194466 
-0.01623082372158418 
0.02214988777243303 
-0.01690286923548313 
-0.006997126721780842 
-0.01606523503012419 
-0.003428229606659864 
0.01554026748524563 
0.02802079248809281 
-0.01505989268290439 
-0.04827804686722865 
0.004892448895499398 
-0.001373871917174536 
-0.0146540008818115 
-0.004195760893096543 
0.005938829072870881 
0.006671143237161344 
-0.006951409336831115 
-0.01235558161953167 
-0.02994703344857129 
0.00117360920748528 
-0.005608427064697342 
0.009546534864439755 
-0.0008825520093355388 
-0.01342979675353467 
0.006873590063683844 
-0.01088627518398948 
-0.03637108446671653 
0.01899321579200577 
0.02351311017591787 
-0.02182286314970303 
-0.02104161318691607 
0.06140632170151991 
0.005402524861159342 
0.03528341099383712 
0.02961013396835967 
0.01960303769506116 
-0.01010575256830759 
0.02886289508794267 
0.03153298191464677 
0.00650651772218567 
0.009401429348390489 
-0.02033240245776701 
0.02487180469862079 
0.003270753851359203 
-0.01177652437389684 
0.004472185414567605 
-0.01835256978077783 
-0.03924914404036552 
-0.0356344785410091 
0.03027995297046738 
-0.01125843498946815 
0.002288616817247465 
0.003550092460682907 
0.02676329452854369 
-0.005081705853088298 
0.03731048162292294 
0.04642217308518931 
0.0190493675861798 
-0.01038958559775115 
-0.05518887813637513 
-0.01465453921110936 
-0.0350061014757106 
-0.03316168290942066 
0.04163701488066037 
-0.002533805383146456 
-0.01510231559370205 
-0.02112509902764163 
0.02170668787912474 
0.001398043726372324 
0.02553334793254468 
0.01206564867441702 
0.03443673314555459 
0.0170567045958484 
0.01518487396682565 
0.03881261445066454 
-0.002857884233289907 
-0.007455161034587645 
-0.03880896217391381 
-0.001697905756352417 
-0.03870558210970964 
-0.02942622730235817 
0.04038798420200854 
-0.009778697613216274 
0.02036676421456715 
0.02063916566532098 
0.01660583165079412 
-0.009355577588282777 
0.04067480776724086 
0.0231652822499921 
0.02753343517772292 
0.01514377268398401 
0.01944215075510822 
0.04338146537348114 
0.01979600769466528 
-0.01855289045018635 
-0.01759002407060182 
0.001641391366298951 
-0.008755877849615299 
-0.01128247985844755 
0.00250399870693049 
-0.00311532126819944 
-0.009442833855794778 
-0.01084816959195851 
-0.01909109793081568 
-0.0203402197396975 
-0.00623561375400117 
0.01249779389642555 
0.0134143740455308 
-0.004230981775033145 
0.004912446333475236 
-0.00983284366517815 
-0.003498237410165228 
-0.021879860046976 
-0.02745963742253104 
-0.01939364092134044 
0.009112970608887683 
-0.02041904800873358 
-0.01448488246471134 
0.01608298870531127 
0.009710919949089276 
-0.0003796921546286281 
0.001030947754669698 
0.03477956173624322 
0.002412780261518972 
0.006216661785244573 
-0.02180727736630285 
0.001811796786681677 
0.01699639163564225 
-0.01296430052423592 
0.02233035329371771 
-0.00172939175685008 
0.0106718351131403 
-0.01213910493276209 
0.009992467010233054 
-0.05525819433579674 
0.003424115898212198 
0.03059268631451106 
0.007670051939971589 
-0.005002182211301825 
-0.001681197044718086 
0.02286948772900804 
-0.01199530334074219 
-0.01634359725839407 
-0.00502837983701805 
0.004353142367257188 
-0.01429508646745072 
-0.01475474963302235 
0.02364898823957294 
0.01765640242317597 
0.005302619072866568 
-0.03865287435607747 
-0.02426227413123477 
0.02271599645535975 
-0.02144139026250838 
0.01632469312533127 
0.004839823029082486 
-0.01638549495428987 
-0.02152807249738198 
-0.01335553021389414 
-0.01284210572257206 
-0.01561531798923694 
-0.0106488529035922 
-0.0008895170077320821 
-0.0358633891589164 
-0.01197023401769221 
0.0351929122615988 
-0.01181354060554654 
0.007196448356676851 
-0.03708365899400277 
-0.02427123163890323 
0.01007606030435518 
-0.004584979327141639 
0.0244970708025519 
0.02730325433336911 
0.0169424223647678 
0.02603147605369088 
-0.007120758008616748 
0.02913615948285939 
0.04327331600006567 
0.01086241129163851 
-0.02668423538973455 
0.01619193673001754 
0.02136827650054079 
0.06030687311360368 
0.003387402149191223 
-0.02127105424407916 
0.01132050655882091 
0.03812999540333926 
0.0273088082392628 
0.05459043377453236 
-0.004724751997902009 
0.0102947746289991 
0.03038185225140223 
0.0668455599543257 
0.03644666577257758 
-0.03084148826251893 
0.007702731528202921 
0.01611826088648773 
0.04268179458634427 
0.01525590272547151 
-0.001043087213721947 
0.0245140890628153 
0.02442637658111499 
0.02620083094429167 
-0.04331277784614482 
-0.03248957497165585 
-0.004234111137049754 
0.00858825715284256 
0.008251737718594417 
0.02222202946088053 
0.003826440047136622 
0.01203912051991467 
-0.02295608535081264 
-0.01821226328190227 
0.01746917308333986 
-0.01293412155297658 
-0.02291787175737971 
0.01383247588544383 
0.01523368359118254 
0.02189545575517699 
-0.01615155209563334 
0.01068771669552813 
-0.007467576256970665 
0.01221431652447404 
0.007125291133041563 
0.00305988143713492 
-0.005056945272940884 
1.297164158084128e-05 
0.02163599416318077 
0.01345318187353266 
-0.0150437866599991 
-0.009200019966765683 
0.003649441501946813 
-0.01600960782319563 
-0.002988542141025842 
-0.003483087372882733 
0.01213960301227495 
0.02453767270783589 
-0.005804810983767925 
0.002178417018382265 
-0.01065626885981267 
0.03397923546747117 
-0.01889999835735415 
0.02002736302193407 
0.003560664822876248 
0.001430080114559984 
-0.000429219717054119 
-0.02609299664443437 
0.01272096462327355 
0.004121477614453251 
-0.01351642604246782 
-0.004299830917867842 
0.04476897724990661 
-0.02340135773752012 
-0.005284250594322305 
0.03118224084292057 
0.007267147265119227 
-0.003041353002760155 
-0.01045723322036292 
0.02317389703131144 
0.009603648613871533 
0.01148908448000444 
0.02059174793125901 
0.00138154057239435 
0.0023549235431368 
-0.0007824769413909573 
0.04056071198339634 
0.01263798166337738 
-0.001804553168678475 
0.01745702743919764 
0.03733412621618801 
0.009035595016995525 
0.005782438158436029 
0.0456656723103562 
0.01941710033754005 
0.03685376065479238 
0.007858833523276251 
0.00404711460223134 
-0.003970942947105543 
0.02131801397559053 
-0.008510258458467401 
-0.04500088760739172 
0.01648107234850095 
0.02705463848384089 
0.00887514301298461 
-0.04033232575749682 
-0.01345516289703729 
0.01809122807479095 
-0.006507658330347184 
-0.0160660375164479 
-0.0353933204035438 
0.02025610167092714 
0.02889392962493755 
0.00356469650457379 
-0.001983319927001323 
0.01221079954125317 
0.01490401013318707 
0.002410306327125726 
-8.874156692653708e-05 
-0.03351739086993038 
0.005980869943063336 
-0.01934940564680424 
0.006630138989184144 
-0.03322964999728598 
-0.008700104980073228 
0.01423710203843984 
-0.00844358779208151 
-0.0005666937441969456 
-0.001920656248487185 
0.02778971516194085 
-0.00594595363877121 
0.01415944706459444 
0.01803262393155919 
0.01960973436657289 
-0.008288637878904622 
-0.01402394221568629 
0.02930938337258861 
-0.01836211121592844 
-0.009148612088860827 
-0.01266407226674989 
-0.00223933791062803 
0.009479127662010324 
0.02975584536472467 
0.006513981471621026 
0.00424803311756458 
0.008955030127222796 
-0.005989601827894908 
0.02040301253127415 
0.0151144512985286 
0.01782833569957834 
0.0335716374556078 
0.01985597411430828 
-0.01223510575639215 
0.01265135433459695 
0.03214343384800427 
-0.01150100896121818 
-0.008763153868629654 
-0.00339334656603449 
-0.005853593663083521 
0.01495159637717605 
0.01887026050774222 
0.004549195681911052 
-0.02439049256612638 
0.01360155682616353 
-0.01482483129434684 
-0.01199081991924257 
-0.01593753163169283 
-4.221580702399945e-05 
0.01757226411616152 
-0.009699786509368513 
-0.03531201730900742 
0.01057513912982906 
0.04403726024918952 
0.004602170162840417 
0.01772953163090223 
0.01813099841825701 
-0.003019326486928975 
0.04575460094376269 
0.02189914510054979 
-0.005327124536028143 
-0.03954433703142997 
0.01449531026224391 
0.01627345065175807 
0.009819286292854307 
0.004212026339137431 
-0.04619296192098609 
0.01373381419935941 
0.01560735160477434 
-0.01559245078931302 
-0.0169286768586275 
0.04879456492868516 
0.01724018739656102 
0.0289637579881372 
0.01434087446596928 
-0.01806883673298875 
0.04066878427575062 
0.01416772241775761 
-0.01487921873685383 
-0.0414451506267463 
-0.009217256817609865 
0.02280237318705172 
0.04190777926576832 
-0.001400879599018584 
-0.03668541843600118 
-0.003194029163814263 
-0.0148515822771031 
-0.02688078525095919 
0.05387659687085885 
0.01102133542030019 
0.02434100767319487 
0.03032862876462 
-0.004229972500008479 
-0.00238984022212061 
0.03693230004940743 
0.007435144818959472 
0.003020303540879146 
0.0334221715285918 
0.04038926018018853 
0.03469876806416892 
-0.02415427049054066 
-0.02604005470613534 
-0.02720937401453096 
-0.01045478853254891 
-0.004564487199228648 
-0.007280162820083457 
0.0311646375957187 
0.02778327049788206 
0.0495255870060216 
0.07485214307151657 
0.001595518210109366 
-0.002781483310002174 
0.03623460436792535 
0.03297127604850149 
-0.01947836428285913 
0.02124433130440082 
0.04711978588220139 
0.04676371152955212 
0.01428173656188498 
-0.007683022176806234 
-0.003024412365021705 
-0.003858153465902026 
0.002384860270968033 
-0.04914934126986294 
0.005738368951960063 
0.01185515295723719 
0.0006250285336125097 
0.04748924030849161 
0.01003875419564687 
-0.004572661748125464 
0.0235179149909826 
0.03059536473799674 
-0.0224942051131994 
0.02561295865429589 
0.00773388528431447 
-0.03583985231297721 
0.005816214191659048 
-0.005303868716801015 
-0.05371789431705524 
0.009811167775468026 
0.05430836623955769 
-0.008249460701690962 
0.01287992534996667 
0.02939872049762113 
0.001961470011029056 
0.03082315173232184 
0.005223233543036989 
0.01415440600106104 
-0.004841062966234042 
0.01314360228548019 
-0.05243652757478229 
0.02244811695535627 
0.0275472455401554 
-0.02793023141927671 
-0.00274682289460962 
-0.0228904135350729 
-0.007846473484665599 
0.006151620044930814 
0.03287046360569378 
-0.01464903258506858 
0.004910871055178428 
0.01468352911723222 
0.004533050761453414 
0.00123776232781721 
0.009519059989850623 
0.01348001891355624 
-0.03605201686101993 
-0.04143078342972764 
0.02408075386668422 
0.01432828704040659 
0.02421806099817315 
-0.03975769821834738 
0.01916346525462255 
-0.0008746106065747714 
-0.007708105020922806 
-0.01164511426862494 
0.01099059671995384 
0.01211017997219687 
0.01524007849653867 
-0.004154539879184063 
0.004017012830285194 
0.002679216244988425 
0.009092400944079539 
0.01576427417155647 
-0.01718829161721182 
-0.01217116983551724 
0.01659763362006904 
0.0133035175084373 
-0.009583457108249403 
-0.0441723837231844 
-0.00414411966219703 
-0.01651783388530416 
-0.01020390929180102 
-0.006977556625668657 
-0.0106337098055815 
0.005026527856181922 
-0.01053697440865215 
0.02453354935537745 
0.03702759798920324 
0.04547795110879902 
0.01923741517122902 
0.006358526959131139 
0.02069834465338016 
0.04055481202599431 
0.0563837506176787 
0.01504824302513153 
0.02853643339677749 
-0.006858408174947495 
0.007788958574205156 
0.009455369043753841 
-0.01029586935459363 
0.03122447506299793 
0.005332695739667519 
0.00399974848368605 
0.03669624259475999 
0.01276710894519506 
-0.02254480573940095 
0.004068779098870744 
0.01290878522440515 
0.005687409228578168 
-0.02191890293013167 
-0.02852077922019224 
-0.006805111808472464 
0.04903796434975601 
0.03417686834941458 
-0.02235027029610396 
-0.008752681623672549 
0.00303007821245577 
0.01855132284339786 
-0.004384145259163444 
-0.02135428893302114 
-0.02858216493347151 
-0.01462374894419192 
0.03144008585519115 
0.005328567731026153 
0.009289914441579462 
0.002696231491537274 
0.01788174139724501 
-0.00132065717784476 
0.01628884787736052 
0.01464664013523283 
0.005181961261189798 
0.0381382736512545 
0.007431825054390689 
0.01979135606052275 
0.01544863317851666 
0.05618126892985637 
0.02685665365122353 
0.003222037827842374 
-0.003587751408283486 
-0.0007938046154778251 
-0.0002340279382984894 
-0.007712665765391862 
0.01072465244915821 
-0.004464269531708422 
-0.006568738634462976 
-0.01837664506663314 
0.02338701302762451 
-0.01567527331439047 
0.007041778255573522 
0.02070345513491515 
-0.00340480684251373 
0.02741350008746893 
-0.006291490452512967 
0.02192885474514623 
0.0170190198139073 
-0.009742260951397136 
0.01444924971244364 
0.03873423924481096 
-0.02435828931998264 
-0.02614944957093118 
0.01038125560903485 
0.008921590200503909 
-0.008466567016365844 
-0.0349244955863783 
0.001750601066619013 
0.00416106462829511 
0.03926651850725669 
0.003025508495211543 
-0.02336536779371914 
-0.008709506808461637 
-0.02569786775823425 
-0.004695999314110722 
-0.01997979649646767 
-0.009528971510276808 
0.01450857324055276 
0.02872021040986407 
0.005941515836802573 
0.005215565240555884 
0.02268485724525603 
0.009985565892551654 
0.01331346076051086 
-0.009524285606240667 
-0.005992991138978964 
-0.006324613608977942 
0.03063592121656488 
0.02369327284434031 
0.01216272068868039 
-0.004063172717614324 
0.005207503790459238 
0.005356835128561879 
-0.01164712205260481 
-0.0008754424003544414 
0.009774028417601341 
0.01449403119673255 
-0.01353832079720367 
-0.004972489526729245 
0.007726343974872085 
0.004291966666554325 
-0.01916066407876789 
-0.005311876759650122 
0.01033051363386221 
0.0236195268169879 
0.02724615817824239 
0.01937158652414513 
-0.03448839828185416 
-0.01860712372185198 
0.016780588870274 
0.001846205522648612 
-0.01698422734840412 
0.01733009426524362 
0.06956062387012678 
0.009940063339370387 
0.007890386882810853 
0.02358107789305633 
0.02726323503457501 
-0.02035391795438236 
-0.01366104748433235 
0.02411320305984608 
0.01905404056402247 
0.01197329070980668 
-0.01882647776437257 
0.01611319202968305 
-0.0149168561876212 
0.02507609568642794 
-0.004634472733984316 
-0.00598880054969206 
0.008141756948849095 
0.02835883119682754 
0.02698538716825814 
-0.0173737964698674 
0.01806699468794755 
0.02020007121119726 
0.01876821670116429 
0.008333423077294108 
-0.01685806668069934 
0.02977745345813922 
0.03033793976748049 
-0.01302557315381727 
-0.02975657836833327 
0.00970958799152772 
0.02429941140951708 
0.02819489199024844 
0.0206299496199497 
-0.03858759413900007 
0.01077978185737347 
0.03006769202339769 
-0.007606690520305701 
-0.01952588009449571 
0.02512484187154743 
0.008560034857256859 
-0.0009780292237170263 
-0.001504183008249595 
-0.004242707044067349 
0.03568156576485521 
0.0105773950558697 
-0.02716406622487137 
-0.02371279220317395 
0.0006151751635903427 
0.04810549851802093 
0.02755003440837013 
-0.01027243170578066 
-0.03812501009041282 
0.03102090538273851 
0.004067543844134795 
-0.001731185059875203 
-0.02714773272349036 
0.03818864593191544 
0.0448001035612147 
0.01732274861969642 
0.01747043136586536 
-0.03954220532491051 
0.05149566976011934 
0.01875889402397809 
-0.02627480162860791 
-0.03890098025177594 
-0.01377735506100635 
0.03277037904034273 
0.007688114288131445 
-0.01324183291077158 
-0.0652849842042294 
0.02309333577611405 
0.004498750248806971 
-0.00339913344105522 
-0.01135986283723965 
0.001711298508400007 
0.04430126253021746 
0.04243034622073949 
0.003345633649587389 
-0.03088216361892255 
0.04021638285890605 
0.001943914927139875 
-0.01120613567175015 
-0.0278210997010736 
-0.01742365246726742 
0.03045865319714014 
-0.00278266634350481 
-0.005802989427586848 
-0.05114493611083983 
0.002689853635895136 
-0.00986130389418997 
-0.01778558389864542 
0.04459332746677198 
0.06008981467835747 
0.05145865316847976 
-0.01923759708225888 
-0.008709888731020635 
-0.001879419436330747 
0.0250336594727952 
0.009324642354594617 
-0.005109787816426826 
-0.006620057210114094 
0.025227472564108 
0.01711923697582245 
-0.04898405916017912 
-0.009751808612853779 
-0.02967697175544915 
0.01661636252666446 
-0.0202831446828363 
-0.02171826100956157 
0.01967403889286688 
0.0597714444490146 
0.06594269725150043 
0.01011515615450445 
0.01511781897247676 
-0.02021218013248931 
0.01296614368035832 
0.01117906891766446 
-0.04298287357476792 
-0.02142849291651377 
0.009874326344485599 
0.04207289925489318 
-0.04168286267741331 
-0.009735315933584007 
-0.03693380934027 
0.02094277555207223 
-0.002641692618052745 
-0.06997601467698415 
0.03498917909677939 
0.03418304651279887 
-0.0147016585599557 
0.01342240006004377 
0.001975185565245578 
-0.04938765207074083 
0.02767863642763648 
0.06206804632733078 
0.008576925486084293 
0.01744777070006876 
0.05159377234685271 
0.01677301569057859 
-0.03125726735601658 
-0.003018049291306875 
-0.03841073522645103 
0.01456022943655105 
0.02173531710502691 
-0.04235040354357062 
0.02174165987535502 
0.04144210161876799 
0.002264151559933731 
-0.02116877040359626 
-0.03288766355199118 
-0.01436150595417285 
-0.00189756744992295 
0.01941832399708884 
-0.008250892438805403 
0.003590961378577977 
0.04798190674787339 
0.009410830101633879 
-0.04076505957650001 
-0.04852028737790022 
0.01847776707589134 
0.01972260734139894 
-0.007421994521698334 
-0.02230502693238389 
0.01203861326310917 
0.05735072913228165 
-0.006534898744568888 
0.009027978308152282 
0.007567955740514284 
-0.003974047145330274 
-0.01372125022495269 
0.002991564106523033 
-0.004333513262094674 
0.01111356307146978 
0.03253384505847677 
-0.01661907720361451 
-0.02329305535170858 
-0.003281136049587159 
0.03539694577346458 
-0.01398257988614093 
0.001623698151550886 
-0.0188903899529115 
-0.001865071926405246 
0.02030820073785778 
-0.01520273169692707 
0.005956436958235624 
0.01017488641969404 
0.01524230415726772 
-0.009779135350464293 
-0.00116805692528597 
-0.005183380349649851 
0.01900701385378069 
0.0004462023178349371 
-0.0009720019489099569 
-0.0106341089269333 
0.01271998567731086 
0.009198792290156578 
-0.04388799574103443 
-0.002893803837556629 
0.008262301449215291 
0.01889907046716109 
0.03737222588660882 
-0.003513298248740912 
0.01592496390959262 
0.02816804578615386 
-0.0001693304161294171 
0.007931967515584634 
-0.0009178769281574214 
-0.001528742398806597 
0.004240392642536314 
0.02688470050862149 
0.02847597543050528 
0.02749811986416854 
0.03326803908234196 
-0.0239227694684022 
-0.03598557177268361 
0.006274845520795726 
0.02579634775432484 
0.03863845874690135 
-0.005255807294944293 
-0.03413547509955193 
-0.0001508963630259665 
0.00128236776583106 
0.01364757439043809 
0.0107793958194268 
-0.02064937030514006 
-0.02745781943049816 
0.02754850663635956 
-0.007796990942405541 
-0.0148223694247195 
0.03585318042980967 
0.00838339429103469 
-0.01430966215064423 
-0.02419442238063821 
-0.01473645896566864 
0.0210893001919775 
0.006644200837571626 
0.02039532937304593 
-0.009655663369859924 
0.003432509035852446 
-0.01890383820949481 
0.02807911184418256 
0.009818381378515673 
0.006266990230822642 
-0.002812480152770552 
0.03777679022147927 
0.02770733399357758 
-0.0003932496761553059 
-0.003387896906691896 
-0.01668269209132982 
0.01010978078122889 
-0.001545931360366924 
0.005907099129911238 
0.03016358701567843 
-0.0006938188803408456 
0.01251852625701432 
-0.01018972862776663 
0.01616138733746243 
-0.00780820342076728 
-0.006165482697574532 
-0.002817220540687232 
-0.01523815368770448 
-0.004970529851411112 
0.002602513295158688 
0.009010746474132624 
-0.004216315586010991 
-0.01893248057586712 
0.04503809087474941 
0.02370319851087046 
-0.01860472856380008 
-0.02350777979874711 
0.01035986368434083 
0.01743743536180881 
-0.005621601226469706 
-0.01727023499120028 
-0.004146364871232947 
-0.005102961330343991 
-0.01746210186610936 
-0.002606102155567902 
-0.005614963344954039 
