solver_type L2R_L2LOSS_SVC_DUAL
nr_class 2
label -1 1
nr_feature 3780
bias 1
w
0.06133701761426544 
-0.04891702426991179 
-0.04824648623207872 
0.1172850963962804 
-0.1093418404885544 
0.2340566805365782 
-0.08494954114759144 
0.03685573024486283 
-0.06156653033756573 
-0.01090045054502245 
0.03273371347701798 
-0.008291587529090792 
-0.01483327944766965 
-0.1436814478450843 
-0.02563698284267409 
-0.003742934035500644 
-0.06528763323865484 
-0.03375638942476164 
-0.001244192474669342 
0.005470676590523609 
-0.01152693917510151 
0.04188452433536132 
-0.03375074647495616 
0.05372011607581054 
-0.1535678958643969 
0.07349524169071729 
-0.04971800668573605 
-0.02136445834914857 
-0.001538344339126132 
-0.06519598991742534 
-0.01609061218828461 
-0.02521033349548751 
-0.04164376661813499 
-0.0639388229264395 
0.03169667259649329 
0.01433091542970959 
-0.08264090787677676 
0.04275157593740681 
-0.006593311523932424 
0.0582153393307889 
-0.05141846308306944 
0.03352111511966807 
-0.08023981477419399 
0.05250136946360474 
-0.03120006462246927 
-0.0162943411695643 
-0.02948803934750327 
-0.05733900604341532 
-0.1052988868665834 
-0.1087094472353881 
-0.05904511301366956 
0.02048109504325097 
-0.04046115806712337 
0.0256123561819286 
0.037167825384142 
0.03625846407729748 
-0.08115096684704311 
-0.02202507368525257 
-0.04280880047546411 
0.07185830334950727 
-0.03485327999012715 
0.07239032195173341 
0.02209770347037732 
-0.04001578992885968 
0.02019410843138782 
0.06318226930915435 
-0.08613760460862542 
-0.04879647185078327 
0.0004122256390012135 
0.07452328711656094 
0.01584318819880113 
-0.05438677324890358 
0.0326921603969045 
-0.06373277261889031 
-0.1033194457148779 
0.09237730348851834 
0.01700470667638515 
0.0573649521461027 
-0.09228715246710802 
0.02611926900416998 
-0.004630694854121562 
0.01069658602752123 
-0.02911983044273943 
0.04736790292229959 
0.00691150946836515 
-0.0808369513203876 
-0.07966365013602164 
-0.04839754409520959 
-0.06954133711017441 
-0.02116067777136432 
0.05025915145687079 
0.07036281458090365 
-0.04458016579996896 
0.05360228664299203 
-0.04998252405619167 
0.07337635144382491 
-0.01558118533368008 
-0.01662339218231016 
0.03565135039756188 
0.02419771072048205 
0.08316201557769277 
0.08843911816590934 
0.0006512976613714871 
-0.1465658050183347 
0.04187627577757528 
0.03202383566316356 
-0.02571517554474877 
-0.07296451643891731 
-0.04736589966102684 
0.01226821709086026 
-0.0410135494982821 
0.1991773577545213 
-0.09429236635545785 
0.08027741770639728 
-0.02184825002805167 
0.08894179835423532 
-0.04301424177611691 
-0.02470087699927587 
0.04254589988106069 
-0.06596025659096787 
0.04600483283733312 
-0.1877323472099255 
-0.04091888538900605 
0.0258678798268419 
0.0304869162868254 
-0.1381889299715796 
-0.07018654761978473 
0.05783316287520469 
-0.05202906902714134 
0.0374355450313977 
-0.04921550599995673 
0.1144356284429489 
0.01026824865520794 
0.08398124206337386 
-0.06137302489531699 
-0.06115679861537419 
0.01803265328964284 
-0.024399033618074 
0.06278425618326089 
-0.1219384256691271 
-0.06357218977288134 
-0.01381747972641222 
0.05817269410253633 
-0.07040166743365243 
-0.03245968860394101 
0.06197397815777166 
-0.02756067355335588 
0.0685596826594006 
0.017062130219809 
0.07608433870851498 
-0.03879012787980348 
-0.06048037356106594 
-0.03192920636305462 
-0.08103648383437846 
0.1311603839260629 
0.03027223791610496 
0.1526068181097567 
0.0009859150468131614 
-0.09370123859304749 
-0.02742053254405492 
0.06381669720258608 
0.02119987057689127 
0.08017683815187633 
0.02223420969887015 
-0.1487214937075783 
-0.002575395606940367 
0.002041610426850473 
0.01708171249086568 
-0.002850640356214155 
-0.04655268896503148 
0.01682641149947244 
-0.09391508350247137 
0.03126222399256821 
-0.001856023331558428 
-0.08345097145060305 
-0.08906013582680747 
-0.008719064166368966 
-0.05905490325504369 
-0.06965922471752582 
-0.05481106201825562 
-0.1059345679630864 
-0.006010108315272892 
-0.01625837650688348 
0.05496039335301998 
0.03916420618516082 
0.05838462086064408 
0.008939735084829611 
0.04126307608741458 
-0.04946098719950814 
-0.06395857576153996 
-0.06242787311339436 
0.05748177103840683 
0.0012723341596599 
-0.06811750533582354 
-0.03570007247715015 
0.03976051178077036 
0.06100107218636883 
-0.08931185545998492 
0.02342936719150837 
-0.03307469608775306 
-0.06582905590166234 
0.007498716343035796 
-0.07075085349444468 
0.07762594254411734 
-0.0943329501779612 
0.01309996045326286 
-0.07073430122816371 
-0.04201144056343954 
-0.1014462747282235 
-0.0470557754964083 
-0.07066874497721223 
-0.06811390339014457 
-0.009048362153742792 
-0.03354835241068723 
-0.008364329941114168 
-0.06451770614027579 
-0.03401166606682279 
0.0424012907696525 
-0.03353418100278388 
0.08642157031933574 
-0.04528973327353986 
0.1419380961555733 
-0.1048051895619935 
-0.03173665765945153 
-0.07841448123724225 
0.03726726080214946 
-0.02265312330790811 
-0.1076523757256129 
0.01090801405012173 
-0.02858817662523477 
0.05753987034487209 
-0.04676284406704764 
-0.04093431791444413 
-0.0760850894461652 
-0.05316694327525874 
0.02669688914080189 
-0.06841797532392466 
-0.008576841571270328 
-0.02593557983947071 
-0.01443029509240755 
-0.1302432822816438 
0.1020834567654727 
0.002227386647397999 
-0.06665872615185162 
-0.02593758284431934 
-0.0703851342718437 
0.04973157750826158 
-0.06993933955851604 
-0.04444236072466844 
-0.06839527693123809 
0.09610945975234306 
-0.05457344676237601 
-0.01854637605310136 
-0.04062239446331747 
-0.01352958898207508 
-0.01248988258268365 
-0.104633982634655 
0.0645657785616762 
-0.05191003741182502 
0.008055581618592874 
-0.01854314235474628 
0.01079815490483929 
0.004302174782193979 
-0.06646182625721635 
-0.0690062941318438 
-0.02186442496147813 
-0.05418280490357493 
-0.003781830998034991 
-0.004728623102661851 
-0.05000616908195967 
0.03354563523757129 
-0.03074577502606703 
-0.08046501396992654 
0.05954947060802325 
-0.04394383280302008 
0.06911158392202882 
-0.02349330790496487 
0.04754207640552064 
0.01515991585085311 
-0.01955527549392381 
0.02580677160899035 
-0.06591238784546913 
-0.03799943718265106 
-0.02670552901173809 
-0.0216984288144931 
-0.03045835579547491 
0.0302958966543202 
-0.1267268837078992 
0.06790304708508189 
0.03769077148944252 
-0.01463743464514206 
0.06274998975759832 
-0.09866729145330878 
0.08505359304573859 
-0.02124538889407534 
-0.02345208117250301 
-0.0125166374857006 
0.0479710584630019 
0.1108524803976253 
-0.00479562353742014 
-0.01502806126788434 
-0.06077145046132926 
0.009992704766004449 
-0.001283193887072929 
-0.01567623991378286 
-0.01005048623114951 
0.005128971740685326 
-0.06022492592918827 
-0.08886930551408889 
-0.02918225400985342 
-0.01724138729812364 
0.003765579605966485 
-0.03772922275633111 
0.07021053554900973 
0.01319914988638324 
-0.01794810175391482 
0.00702438075034931 
-0.01923204469950122 
0.01985229696797846 
-0.05313767223549092 
-0.03467630232283714 
0.0445139897451703 
0.05188048018731218 
0.0397908138523264 
0.0109698838440508 
-0.07785333285596759 
0.05024230302475684 
0.1611521910325289 
0.02093266243831181 
0.1114714097890184 
-0.06773259766334949 
0.1075144354027337 
0.1304610778654376 
-0.1039915762654532 
-0.008810496209789263 
0.05320332883559341 
0.08323531751630445 
-0.14161236683662 
-0.1470107530019897 
-0.06566382094973892 
-0.01087436722375425 
-0.02554364364030644 
-0.06947291563397931 
-0.165410265529918 
-0.02370739620236475 
0.08175032121116563 
0.06234475159264511 
-0.1564278532510743 
-0.1949780609762966 
0.04326358791492637 
0.1815161712758283 
-0.1654283134330219 
-0.181118674596052 
-0.00338300867506396 
0.04894403821726893 
-0.01599972680021697 
-0.1359504250076611 
-0.07388367282211147 
0.000932846116107016 
-0.1471305077483538 
0.08194945738973705 
-0.2158635838137107 
-0.1045990562578705 
0.08718090110701543 
0.1776835114052212 
-0.03966194501459126 
-0.1617443466012996 
-0.02909300747916308 
0.1379161507572641 
0.04906144701986583 
-0.1285505409114748 
-0.10588008977078 
0.0221985418082195 
0.06722535170949259 
-0.1152711233838839 
-0.05246838290835058 
-0.02524225623925631 
0.03962827190359793 
0.1802428552293724 
0.04037402342235592 
-0.1291172016157839 
-0.1169428767147197 
0.1373222648265754 
0.1295798135196648 
-0.04740532611014888 
-0.1309414759592722 
-0.008112671360131061 
0.06181098453740595 
0.03562927868580059 
-0.06003610565212583 
-0.08990998602962616 
0.05834296498139847 
0.05563444372343095 
-0.01113371755075942 
-0.1072063199606666 
0.0001248333487267576 
0.09724081560138788 
0.0004258409253860241 
-0.09351471682410377 
-0.1614791763438863 
0.1233587507043536 
0.09507965419766951 
-0.1062009136797621 
-0.1986997220171608 
-0.0337691422975754 
0.05035215534316962 
0.06881594048020888 
-0.06326819462768331 
-0.2586269782663782 
-0.1053144123005837 
-0.04381688547205674 
-0.05784680990015355 
-0.1517025581682411 
-0.0399597229505879 
0.05458453365266648 
0.09979917486535299 
-0.07810142973435451 
-0.01081037301402951 
0.01954666208057338 
0.1443976357941091 
0.07917462133846125 
0.07366341052529732 
0.07167933750201093 
-0.06780326563441078 
0.1035200847108052 
-0.007463652604167016 
-0.02594952497660296 
-0.07665846116527779 
0.004700421848840911 
0.002149362162316398 
0.01170602679846305 
-0.1440700282546395 
0.0002931041264749689 
-0.1007614426567918 
-0.04648592162183603 
0.03354228145737132 
0.005779461382137976 
0.03732915090095099 
0.002166779437497736 
-0.01245448099002082 
-0.04043700761343882 
0.0148336518417824 
-0.04399599132814457 
-0.0324761060760386 
0.02824797974349621 
-0.005499868727977364 
0.0389162558447641 
0.05082582965237104 
0.03324326011154693 
0.01671677536438674 
-0.03405589964171636 
0.1273231392537312 
0.01183556347573253 
0.07946315508145593 
0.01253633242507498 
0.04082960485391753 
-0.05453103003333828 
0.08658707108396507 
-0.01008949804270218 
-0.014778693609185 
0.002102702759085736 
0.07815811499039353 
0.03811545575465007 
0.009136232932863305 
0.01185043214034437 
-0.04247769152650209 
-0.0007279348342477094 
-0.02133660521382166 
0.01167064585901973 
0.03585551860553661 
-0.04758581409142607 
0.008865245005561687 
-0.01484927793078054 
0.04092266029930258 
-0.02714243817392579 
0.01358044422059161 
-0.02441363411853085 
-0.05199171305081917 
0.01289281424205249 
-0.08436483977252623 
-0.03854274967444342 
-0.1242309767256818 
0.008107619159495079 
0.08222158384467036 
-0.09698866520648412 
0.02182484762611984 
-0.08316549628496532 
-0.01931804827328112 
-0.04190681076397838 
-0.01219519382738725 
0.00235470050399311 
0.07348783817750103 
0.03156874920791342 
0.07106484044652614 
0.01513757881339449 
-0.08860508766439217 
-0.03982444235676905 
-0.06982169100349225 
-0.02640938467407588 
-0.03482901186125981 
-0.04998833070872334 
-0.00974149160837133 
-0.06679983738996327 
-0.01902020079099028 
-0.0006597004822837305 
-0.0634568204473793 
-0.01164500699558355 
-0.07167732120450783 
-0.01666579337828512 
0.008499951435063116 
0.005336523017552403 
-0.025483060720109 
-0.000384058520623311 
-0.01500883413424906 
0.02493833149267467 
-0.04843057228142131 
-0.07015867027912119 
-0.05747991687975135 
-0.048216832912521 
0.01079212810431552 
-0.07130298877892007 
-0.02792704084406298 
-0.001614309409219449 
-0.05500785053818028 
0.004191730946942717 
0.06465695001930323 
0.007673877359153405 
0.03760340835207357 
-0.05487197940040338 
0.0530959777112975 
-0.02911784127459688 
0.08200504167928377 
-0.02071396228647875 
0.03722071361671919 
0.02037322344815017 
0.01441066770273837 
0.002475960376609642 
-0.03554215728238683 
0.02453713205241206 
0.008075905554776773 
-0.02990527821273983 
-0.09488004161216296 
-0.007224368408714085 
0.002255889072557247 
-0.04858020843849249 
0.06256725529034197 
-0.1311611017554113 
-0.02146463966382233 
-0.08515020464164756 
0.03407175637547701 
0.00805232447211696 
0.04181387103732095 
-0.02708950808743034 
-0.06593059420700684 
0.06870391999584063 
-0.0009277513778032665 
-0.05289746301628293 
-0.07350926318321968 
0.04304898333172587 
-0.04779539056883841 
-0.07224117853401464 
-0.0505069234216424 
-0.005545107313267086 
0.131606245805182 
-0.03466036315145217 
-0.03439216759236884 
-0.04304771986141354 
0.1520943364572111 
0.03268811701773266 
-0.04250295798749013 
-0.02988146442212912 
0.02431994275815251 
0.09080605434750161 
-0.07572444378307627 
-0.0435690657267163 
-0.02218077524139092 
-0.1054715068316243 
-0.05604610122818592 
0.1065494337130212 
0.001205445243734951 
-0.04299012418998788 
0.1455579605921137 
-0.01096236925285586 
-0.02256013633532555 
-0.1211699895418601 
0.06407221870694739 
-0.00614761689849941 
0.08543838763998385 
-0.01907656216053559 
0.01221559188121838 
0.006155105508321503 
-0.04968006294094746 
-0.001621549041960021 
-0.1065011438417149 
-0.06333442652734836 
0.0404185761733537 
0.09300108688241883 
-0.07426279207123307 
-0.05711569467623118 
-0.06398317044853397 
-0.04697748818700927 
0.04196307797268303 
-0.162344589682141 
0.07080875993314366 
-0.08526811930151192 
0.1153653770546376 
-0.1432236165259438 
0.009711975937130055 
-0.02415017278838966 
-0.07318447606520313 
-0.07035819370377151 
-0.2671157036481158 
0.01766564521906461 
0.005138457376051672 
0.07979272374975893 
-0.07178759847650794 
-0.0297523090114651 
-0.05877806133514996 
0.04534353866962517 
0.04065640894125328 
-0.1257621620141019 
0.08051403348618183 
-0.0517058388777871 
0.1081214575441486 
-0.06809496193596627 
0.03969290317739604 
-0.04028960215403343 
0.04619224785836892 
-0.07839994986172687 
-0.02065787232993083 
-0.0920785918453797 
0.01024506388182675 
0.05303946862624997 
-0.02410537702143786 
-0.04285831961566261 
-0.02815362449681215 
0.1717200875666793 
-0.05528097179983731 
-0.02394107723218685 
-0.03599737195100542 
-0.02036141277097181 
0.1051217039464039 
0.05034374953054968 
0.04519972430943596 
-0.1219180256953366 
0.05948795291193203 
-0.04785867889384826 
0.06513215097772002 
-0.1429731613222402 
0.06100777710456504 
0.06190740413555844 
-0.02336012113734965 
-0.1415702210587647 
-0.1520670576315453 
0.07472351355845203 
-0.07920563553923023 
-0.1053052623066901 
-0.1078685838768006 
-0.05838221127840996 
-0.00564636933362926 
-0.04126452376060193 
-0.07225355651223708 
-0.2584521227513509 
-0.01961990623966427 
-0.1092909958848203 
0.006434966163491752 
-0.0348648705237223 
0.07779764977607544 
-0.001853937579475552 
-0.02562865361333555 
-0.1217454107078385 
-0.0169049736453457 
0.003275997528623905 
0.08867145524644088 
0.03528563957448844 
-0.02002179978779231 
0.07233996202099262 
0.02372602501421358 
0.1135091130952445 
-0.003872263875102627 
-0.06495177386802696 
0.04617466039435073 
-0.08945383010921985 
0.05917979009733945 
0.01493851462775167 
-0.103303292059575 
-0.0317189425968261 
0.05496745021550116 
0.01066817776692993 
-0.005838706943243416 
-0.03626143028328101 
-0.006961946753287167 
0.07024460158384709 
-0.03696324492921223 
-0.04279025581425878 
-0.01886386024878523 
0.1276691815967235 
0.02224026996644505 
-0.01242477079780636 
-0.02328854155408725 
0.04278775781235476 
0.1095469683868635 
-0.06930333082897977 
0.007437688146273267 
-0.09217118549431255 
0.01252935603021127 
-0.02356756012872103 
0.007735617699875151 
-0.08860478477476348 
0.01625609971573304 
0.009332201345670312 
-0.02528539118046819 
-9.331871621938422e-05 
0.01566098790237367 
-0.009256409063113973 
0.006468459113226121 
-0.09365994136084776 
-0.03954047894476884 
0.01352372058764233 
-0.04351460426137958 
0.0222927946059291 
0.02689810811148112 
-0.03291793039118824 
-0.007460876193274669 
-0.007813841823487966 
0.01971994822934652 
-0.0110260555032679 
-0.008371219246128521 
0.07003696377559918 
0.008735814497904249 
-0.02005768721521579 
-0.02273604438284875 
-0.03398825817422115 
-0.01684437833622203 
-0.0291169801858331 
0.03525856535540971 
-0.05774535804482277 
0.01476351552224834 
-0.02757369515205758 
-0.08167086191070699 
-0.06412275136396857 
-0.0069714600493686 
-0.0138145916402531 
-0.007077345513685504 
-0.03669930633026833 
0.01595781482484855 
0.01420887894704107 
-0.04363963825106752 
-0.06071158241976757 
0.01567942280234084 
-0.06345740668824876 
0.02113915261073836 
-0.06631939695166364 
0.003137189002007536 
-0.004875781714973671 
-0.02685889852779276 
-0.09508774692964382 
0.01557106996994614 
-0.03760532544554434 
-0.00796230966618669 
-0.01832667948709285 
-0.00578019293190161 
-0.01473802293566213 
-0.008599042962239853 
-0.002094583688000089 
-0.02745307260944596 
0.03486748141894479 
-0.002094612243312227 
0.006015847353018499 
0.004341019661260562 
0.02215404209834208 
0.0459910223712312 
-0.03201430257775333 
0.01762006078097551 
-0.05803613616199847 
-0.004106440209954735 
-0.007454599012655682 
-0.07585553694708444 
-0.00599868033779828 
-0.02870924659263102 
-0.03001010924291612 
-0.01610481576750935 
0.06897010983425622 
-0.04595360404753013 
0.03757133639517957 
0.004611857156021241 
0.01257563143049782 
0.05957599907591316 
0.01445001433122707 
0.004622067710089833 
-0.03190185100186738 
0.05307939271119803 
-0.002951999130510188 
0.03380015599144444 
0.06096411680941705 
0.04427372168938658 
-0.01746513521394845 
0.007903286224544439 
0.08959574653558584 
0.04466733473946643 
0.01820979776769123 
-0.02009761740772163 
0.05885546120732552 
0.08277495076259092 
0.05530029237916168 
-0.0001893026003988794 
-0.06734896913695272 
0.0346841302026384 
-0.04085509206805889 
0.07818435542873481 
0.008391069966954113 
-0.1244209820549577 
0.01545248393152365 
0.02591622429257117 
0.0821258434192696 
-0.1161703656118718 
-0.1295234665169643 
0.004279268478242546 
-0.01780855727287916 
-0.02644211848325252 
0.002754554748967653 
0.020346342344208 
-5.717515527401028e-05 
-0.007821043496754386 
-0.1170080989478595 
0.005384591627022627 
-0.1115229326355799 
0.108498997517829 
-0.1505842055163281 
-0.2508198131307399 
0.1299473178068723 
0.06978702978597513 
0.06838426592633792 
-0.1730147348450468 
-0.05106394931151578 
0.1166516637370381 
-0.007106106633208592 
-0.03494262207086235 
-0.1166675657171451 
0.1229026002675287 
0.1582721723796678 
0.04273503470114487 
-0.1677840131798524 
0.142133860093509 
0.03033907769272499 
0.1770373146535712 
-0.08566998958275007 
-0.2063595878825031 
0.08483413317414856 
-0.1402344777322621 
0.1582253896613783 
-0.1690892096609176 
-0.07291430740026535 
0.0930477984693968 
-0.09275709387568669 
0.1515139817594231 
-0.04091769597304552 
0.1749327234884257 
0.005422287973364293 
0.188275298416582 
-0.08803125719719519 
0.03914415495586355 
-0.07395498727765319 
0.1524091909636391 
-0.0259924844216891 
-0.1112538539276455 
-0.06054743138855648 
-0.1680621209014273 
0.1823856462491322 
-0.1423198737939568 
0.05261349834182178 
-0.09865559079625665 
0.009976155558337642 
0.1532466579664885 
-0.1004970054230906 
-0.01753585090873976 
0.02471940125822742 
0.1945724055169568 
-0.01981068525804188 
-0.008260602077671863 
-0.09022172943467151 
0.2067723244158888 
0.03146261146958714 
-0.1444982134425095 
-0.07519046341402193 
-0.1916019687544501 
0.00798039550868134 
-0.1156309995351754 
-0.01874164685609198 
-0.1028350794085539 
-0.02677704873076441 
0.1617292629108199 
-0.06394034492816103 
0.03512985584393027 
-0.008798368781089347 
0.2781810844085114 
-0.04662290085057062 
0.01801060689441217 
-0.06854814104261786 
0.167544296370267 
0.0504646691074857 
0.009866938154874893 
-0.07685667842284687 
-0.2564276309807805 
-0.02039621025293446 
-0.1657940530187916 
0.09475794366859025 
-0.1915203573144605 
-0.04556048528567564 
0.1291995364088426 
0.04808640878853201 
0.1411859227604069 
-0.05044780650240132 
0.298419057004617 
-0.03553940404930295 
0.09929629527280501 
-0.1927974134486165 
0.0504439604532728 
0.1188528557454959 
0.1463330830942559 
-0.06162705790638633 
-0.2267581111316583 
-0.02476701710689762 
-0.01560632399071543 
0.1312137654894135 
-0.1998319713059916 
-0.09345509170627184 
0.1579072037521446 
0.1210794464653142 
0.06556641494125277 
-0.1311954012969926 
0.06616821435829 
0.009133848426526359 
0.09714241130683393 
-0.07042663824851014 
-0.08543986290921109 
0.03801554311337729 
-0.003388206101604061 
-0.1291194917666358 
-0.02318323710791903 
0.06829954414356447 
-0.01578115752552779 
0.03446367756719392 
-0.1092537346558099 
-0.04905293971070983 
0.03071595859145058 
0.001551835435690158 
-0.04040714827572848 
-0.07825506374023468 
0.04363138983746198 
0.02362581549943026 
-0.003618209739008069 
-0.1168989525374676 
0.005167434512586283 
0.02548542975520203 
0.1370873324089072 
0.06740554458719832 
0.01454951818784748 
0.03315247206394544 
-0.004220002691000933 
0.04267393972924521 
0.1228266950223891 
0.07581302735397412 
0.05073030573150981 
0.03407664825130702 
0.0563136705469414 
-0.01780032486102204 
-0.02499009951450993 
0.04532769174272604 
-0.05026129297565875 
0.0948574720732457 
-0.009646188118046748 
-0.008268902678322712 
-0.05183729101069635 
0.005381665161123083 
-0.0188085309248651 
-0.008144061937443164 
0.0208044789310256 
0.01830241441412682 
-0.023318388412155 
-0.009424097199580548 
0.06397533167145134 
-0.01422293829060681 
0.09377218270823734 
0.03262184010579069 
0.01786924139224058 
0.02227770469356315 
-0.03105913689575691 
-0.06674820601311476 
-0.03977726601101599 
0.009314282430557352 
0.02347979757988903 
0.01067111278456954 
-0.06155973939099725 
-0.0304465191136929 
-0.03228978268736138 
0.01425656868737423 
0.04564140458757343 
-0.021421848764375 
-0.02618510344531365 
-0.06240384620278899 
0.07230827694221569 
-0.03141996489084947 
0.03171603381731736 
-0.01100813187542737 
0.02817365705788615 
0.02536319660755393 
0.04218952686042556 
-0.0559995804328907 
-0.01311565053223253 
-0.05133744797217751 
-0.06637944613680596 
0.0139029859745108 
0.09567610257409964 
-0.0358229035783007 
-0.04628345306124577 
-0.02085186443216082 
0.01448524828549579 
0.08433775239116816 
-0.009980853319951943 
0.08163528320721003 
-0.02230837202900573 
0.07560558664255186 
-0.03824773732120012 
-0.03112602399578073 
-0.01990629987885975 
-0.04859092597494673 
0.07608459123246224 
-0.1002527450151934 
-0.09285895515519722 
-0.04219702979869664 
0.07255699824897482 
-0.06206057612094347 
-0.0009055771520103204 
0.02749890943804638 
0.03731070057730344 
0.02189130323677654 
-0.01077834566920589 
-0.09739194618739842 
0.09000768503639563 
0.0338414394705692 
0.03233602840278357 
0.01154474311625202 
0.08630735945126125 
-0.03798539722728456 
0.07026265953055134 
0.08972402197289155 
0.03894919773574627 
-0.03291555123544805 
0.02475603895191024 
0.02334200073210461 
-0.06243817307872658 
-0.03232935825814309 
-0.031215942519227 
0.1042218961092853 
0.1059561546440607 
0.1586846627424681 
-0.02926413785262127 
-0.02388192979571561 
-0.01190720393681056 
0.053047897307576 
0.05561462452606961 
-0.1245478234836934 
0.05042017832698216 
0.01637974327569744 
0.02617893941371081 
-0.006449724531961593 
-0.07490675222649439 
0.05595914783276663 
-0.05470765626515191 
-0.0005599763225795905 
-0.01607035543730814 
0.1366918099934631 
0.04442789224379854 
0.005148477028457391 
-0.03220168464712498 
0.01816012246749151 
-0.05853688824199322 
-0.03541244407404059 
0.1742926580924319 
-0.1272266436150167 
-0.1301191531565662 
-0.06754248866564094 
-0.07677054541396157 
0.005126397158239549 
-0.1053073641282872 
0.1735855011951722 
0.01599348767636823 
-0.06297010352106841 
0.02745201933869489 
-0.006059363745913705 
0.005671316612442701 
-0.08525909361815528 
-0.01256168593914486 
-0.03763438975903902 
0.09236904262812437 
-0.003876793112303043 
0.02438906426303656 
-0.03253494649549744 
0.05370269836619934 
0.08883680163642663 
-0.2556438476795079 
0.006166875743574967 
0.04284287308060691 
0.1430010868173812 
-0.0688857837664225 
0.08618382286806411 
-0.02715136832953029 
0.07377696681591321 
0.03139225744147284 
0.007240274240703622 
-0.06068700511351784 
0.02269652778212855 
0.08996994444748534 
0.08746014806425494 
0.1413190475738568 
-0.1293288873892292 
-0.04572995465265695 
-0.0129453149396215 
-0.2227757100475312 
0.01710234457623713 
0.1129165308549373 
0.1354350257323554 
0.003799785503913476 
-0.01156820484839349 
-0.09799058717510663 
-0.02650274348554572 
-0.01581959760288415 
-0.03432673172564543 
0.1034746704729724 
0.1107654207850791 
0.06818454321585381 
0.02507269172352353 
0.05073219579649393 
-0.1800422805988035 
-0.07934246503218859 
0.08893207649608913 
-0.1527895877326198 
-0.07003179469582259 
0.03115986014677227 
0.1039649183103182 
0.1501714354172838 
0.1307729769719503 
-0.02207517571860889 
-0.03304497898162773 
-0.037426444161565 
-0.04859667810489736 
-0.04277226641323469 
0.02685404817989515 
0.02305534518618234 
0.05485877250605231 
0.09151155666134457 
-0.1309076640237955 
-0.08360090420562706 
0.07931486709165834 
-0.06979341969228131 
0.02639211758896467 
-0.03151258820204901 
0.05979500068898733 
0.09482055228547086 
-0.001052947261361094 
0.01572246347882924 
0.04450606044857031 
0.1015723153878106 
0.03281710796604081 
0.06327960808367407 
0.05959781238675291 
0.0674152205215767 
0.04317405815363515 
-0.01452180734213474 
-0.07261668947905182 
-0.07369059751173566 
-0.06457130932518289 
-0.191891853075044 
-0.1058990826442133 
-0.06409152738244114 
0.02512552212834543 
0.1239723074348439 
-0.03079060184273752 
-0.04147294822002659 
0.02540278468566621 
0.02163289015414568 
-0.09792271979422243 
0.06911280329102927 
0.03658317901813352 
0.0181573756492381 
0.0667549971711489 
-0.04995696361201279 
-0.03630779788188953 
-0.05736444145117003 
0.06851435565266824 
-0.06572040718365994 
-0.005199722477950672 
0.02372587860221685 
0.002184886910932397 
0.01739554380662979 
-0.05779952342744181 
-0.01541648002054782 
0.01669233347846855 
0.1052688547879256 
0.02553889490110166 
0.08184434337611865 
0.0930796470602748 
-0.05932574505106743 
0.07911720474448054 
-0.02061771622248881 
-0.004050361080370887 
0.1227491684700431 
0.03920591875311204 
0.01434370824311466 
-0.07556185624342776 
0.01167400046976425 
-0.01607304906366683 
0.1301006281059 
0.024149758363873 
0.05546526750049834 
0.1167806298369142 
0.1631086499284096 
0.01119204662212498 
-0.1334565276561245 
0.02833917065539587 
-0.05124059732712128 
0.0886682344332216 
-0.07423845729458212 
-0.01784777487312822 
-0.07463859490201169 
-0.0302791276155537 
0.02198528977671312 
0.04743581194330132 
0.0360898023523144 
-0.08700227103187498 
-0.05555512785180703 
-0.01610904541781598 
0.02632499063167465 
-0.09156514969130845 
0.04041954021560547 
-4.074451227226569e-05 
0.07510772214028454 
0.08906469358995815 
-0.05387064269472315 
0.04777677320345908 
0.05871553233533904 
-0.0690192606722508 
-0.001148558275072758 
-0.05199856131152986 
-0.05716128489969546 
-0.05612515353085228 
-0.0399738901457057 
-0.03587011172179331 
-0.01030941732256969 
0.03503107147213497 
0.01909188938816106 
0.04530388939136511 
0.05342039131830924 
0.06670630716098888 
-0.0195258966665935 
-0.01652892757642689 
-0.01274563342135208 
0.06503248521081582 
0.02358416066567631 
0.1232882784753007 
-0.01319957689305294 
0.04999654498975407 
0.01037720311129363 
-0.01135689780738795 
0.05220688590412043 
-0.05247350164435894 
0.02649766008302139 
0.009635665221095713 
0.0480135748501878 
0.06275188302366592 
-0.01704637414536945 
0.002848860160040476 
0.05493635499449972 
0.0326802145066576 
-0.01687220180278898 
0.04027998244340418 
-0.01110908503155313 
-0.04314655786422838 
-0.004707572472414783 
-0.1331018403218309 
-0.08128019374945732 
0.01133347441772577 
-0.02153540881890209 
-0.04417979586478157 
-0.002815033767675902 
-0.0009261639388013462 
-0.01202000908136175 
0.04404116485751039 
-0.04142003114878941 
-0.04005108451132991 
0.03396570062211361 
0.03023200438936414 
-0.02473606672653423 
0.1052326391867242 
-0.05526362849343594 
-0.04872378905844273 
-0.02151834727835952 
-0.02423953372782535 
0.05936626302629813 
-0.07255887592966317 
-0.02934571710206976 
-0.01065694451579287 
0.01954837724327643 
-0.07141619751678076 
-0.01471372130602648 
0.04795717887882485 
0.05551116821339852 
0.06328261844941119 
0.01050437681613296 
0.0899070491087342 
-0.03356102477476994 
0.07245912388257783 
0.02377833312425306 
0.00877312142804265 
0.004646841007760997 
0.02893279250532417 
-0.01092131382095359 
0.06180573027441424 
-0.03638145075709012 
0.02785130537378765 
-0.086024575839986 
0.07531562316517534 
0.02231928742736364 
-0.006036031367134646 
0.05717675217284451 
0.04765782038874276 
0.02752347415032301 
-0.03514099045509216 
0.07845063860416365 
0.006273422275305898 
0.02243455130994931 
0.007273009002799587 
-0.08184761417855849 
0.04932757968752117 
-0.06080134367846143 
0.001437335599577328 
-0.1478688935503265 
0.08898761252338605 
-0.08453366116524322 
-0.1274387013721557 
-0.04143147383523071 
-0.05466029845691241 
0.03884910742469565 
-0.008789449715928167 
0.004911417391019446 
-0.134390750676452 
-0.047917777761118 
-0.08562821839267314 
-0.05302026849977662 
0.002185826090013996 
0.08739983094017162 
0.07076675042416161 
-0.07613386938849756 
-0.1374020536563998 
-0.07870790427569357 
0.08311685578880341 
0.07069574347065682 
0.01166955097302479 
-0.02968782928000979 
0.1250383991124611 
0.1099079573788573 
-0.07544819127594883 
-0.05558190121672725 
-0.08302529450790597 
0.06667727403214084 
0.06092365819114338 
-0.00761485001083356 
0.005592672845219729 
-0.03988816791390699 
0.03745100221488737 
-0.007126404440293427 
-0.0001859606367031338 
-0.06375137647918208 
0.01682918811538068 
0.02866917184146262 
-0.001152663994817548 
0.07315600020857914 
-0.04919541729689145 
0.02921001648443518 
0.005121231919913228 
0.1261127839582278 
0.02026484350360663 
0.04502522991486355 
-0.01134857162771633 
0.0214727330110406 
-0.03418113058960337 
0.0003671016089526211 
0.01740574423931443 
-0.04202657696936955 
0.00689383378918644 
0.01545868491615966 
0.02382852401426152 
-0.158274756028676 
-0.03725742489677022 
0.04602819221857807 
-0.01737349444296035 
0.02582279425758561 
-0.003528115011941494 
0.09871690002332469 
-0.01112441892775374 
0.03638176748012388 
0.03278288134614403 
0.08001321387127723 
-0.07976652523160695 
-0.00549686247885015 
0.1346608216897411 
0.003622183305552362 
-0.005968109600159378 
0.04196812673488324 
0.06629242956610396 
-0.02089451022037328 
-0.06021515496621638 
-0.0421279369234801 
0.03465767633794586 
0.1340458412888583 
0.03284930745369406 
-0.02174709347733976 
0.01185426180426453 
0.07217468370658388 
0.0342409545212688 
-0.1120088959795083 
-0.02392919058912868 
-0.02893438428618891 
0.03451090578295412 
-0.108664590297627 
0.07782909431050174 
-0.1163181962269088 
-0.008678864068434792 
-0.008788238958985275 
-0.02916136601908531 
-0.00204376183339888 
0.0301070741751998 
-0.02167528678925984 
-0.2131371490824113 
-0.005202880347135109 
-0.04747546069428491 
-0.01282407580753481 
-0.04138916220858237 
-0.1439334436949817 
0.04516947233451976 
-0.1030207443146638 
0.05165561260666895 
0.06421503779826608 
-0.02860027789994662 
-0.02436250121547317 
-0.009980230421434779 
-0.02511347247341099 
0.006101941486628411 
0.1265368325793087 
0.007646592242838686 
0.02690121596568143 
0.06086129164381902 
0.07926397594451311 
0.002284019706159922 
0.09968244657316473 
-0.002615344913864102 
-0.06367223263672915 
-0.06383872963416104 
0.04344784686867494 
0.006010823083514666 
0.008888529075207032 
-0.08347860889635805 
-0.04378363161540828 
-0.0153651931621231 
-0.001339698376297771 
-0.08885106327838498 
0.01389960701375648 
0.09212946698430013 
0.02226910640463216 
0.03521313285224299 
-0.00559260634608972 
0.1321539026754568 
-0.01476099510818983 
0.03680930464619213 
-0.005119268212230121 
0.04007617246566511 
-0.1663496006363436 
-0.06133994737808627 
0.05590991337065595 
-0.01024471149188616 
0.04284151107852744 
-0.02000841845525343 
-0.01027010830386829 
0.06834383846054271 
0.008654715299226576 
-0.05207685867383077 
-0.05447034969135685 
0.05306882583476922 
-0.07437773840021054 
0.121609569433023 
-0.02440265050512234 
0.0301214140489422 
0.03843930214546962 
-0.04151775862004297 
0.04940762212087745 
-0.01382777872524358 
0.1213784867132832 
0.06590008957158576 
0.009240318730316976 
-0.02204965235239718 
0.06970435018893002 
0.04368576604900088 
-0.06521723119333071 
0.1011681470073081 
-0.01762810420351917 
0.08939751649632281 
0.01337398898792607 
-0.03187694717293902 
-0.01456453166682008 
-0.01586606465468677 
0.190672141998237 
-0.02075793261041475 
0.01509387786436183 
-0.004095354216472528 
0.04669224154005374 
-0.01956670258901115 
-0.005179409337333739 
0.04038985486551617 
-0.03067997134025176 
-0.0267246204067105 
0.04989915573078002 
0.05192823531541114 
-0.09649355796816064 
0.01880278636286663 
0.06711864401310588 
0.1116158164144788 
-0.06487424555696071 
0.02294383659915884 
-0.004861095356284026 
0.02170712270185053 
0.07344960782002211 
-0.046122922031697 
0.03756448468426075 
-0.01676577171789403 
-0.01826298269506295 
-0.07434934412473691 
0.03267327217794431 
-0.04716687385148916 
-0.01904530970212085 
0.003997457215562905 
-0.0003098672649612994 
0.02659680711899855 
0.0850459706469554 
0.02547012662282892 
-0.02796217443732668 
0.1306827741393933 
0.043766293708175 
-0.01525889839760543 
-0.007635987985075741 
0.04324215357606904 
-0.03267954311434167 
-0.01805284009140002 
0.06390738653808364 
-0.02449325845208603 
-0.02532993535181196 
0.01077204994970941 
0.001935413361476832 
0.02553863654447243 
0.1163177175458299 
0.08265886152964172 
0.03729637616044288 
0.03258413202094693 
-0.01868044500008324 
-0.05289289665341461 
0.03749922868519267 
-0.04858909517674524 
-0.03948375371498979 
-0.04348894235052857 
-0.003991084343096436 
-0.06672897433681528 
-0.07819414834335905 
0.01750303070670399 
0.007774539452511782 
0.03344818314962193 
-0.0448076251152394 
0.07516923991616974 
0.04747081743424721 
0.03268952437271848 
0.0171929131377814 
0.006695841606661109 
0.09415035191307712 
0.01832320570784325 
0.000295716238292789 
-0.05228369745231309 
-0.05589986120203583 
-0.04219742473711701 
-0.001270298009156819 
-0.1270542945843492 
-0.1587689133489684 
0.0495273487873496 
-0.06778730750229994 
-0.006838009318677363 
-0.02473561236122503 
0.07742178416914036 
0.0540539893299956 
0.01609928601382786 
-0.02298259467273259 
-0.08264535124801993 
0.06818552460182817 
-0.05466231287567518 
0.0361559846129252 
-0.09057898902915935 
0.09307949252826579 
0.0271811515559395 
-0.04206728589090727 
-0.02586249928915389 
-0.01400441668466018 
0.06485425751617092 
0.01253097688445935 
-0.02425462206440106 
0.03102732984273244 
0.09062955796434753 
0.09164476635372412 
0.01138305887315543 
0.01236950794402869 
-0.005520007183546265 
0.1483735290243909 
-0.01259681079036387 
0.07291071092192072 
0.06462162204354893 
-0.08454674115284695 
-0.04672657391773396 
0.0116967362484803 
0.188729754698016 
0.04077329797893327 
-0.01735616849360159 
0.006101912701435301 
0.05472799042311323 
0.1367353168316301 
-0.03147120499467877 
-0.06014062268188092 
0.01042907878129883 
0.09684212508275165 
-0.01418173670389718 
-0.03748347517116893 
-0.1442659114821919 
0.09236128736803671 
0.07406688809981027 
-0.09061370470620228 
-0.03675194334222788 
-0.004784895915099202 
0.1101141689540131 
-0.05717704513538562 
-0.006653152286954056 
0.01086185806136804 
0.1261262103644652 
0.0481727523190258 
-0.0009123992463346194 
-0.04438686709236291 
0.0359471554146651 
0.1016939009788052 
0.02999436450698045 
-0.02680466580728291 
-0.04677939515334024 
0.02377923738414989 
0.01387260547349865 
-0.04140784268081153 
0.07527693015579365 
0.03397052223566875 
-0.0895692717944086 
-0.06083333253597556 
0.0402971948891624 
0.06863124940914736 
-0.05985845948512356 
-0.01402169584955114 
0.1155639350866263 
0.1406916297171562 
-0.002835033905269957 
0.009159687533187516 
0.0661571444653197 
0.01510772788919935 
0.07876741791280689 
-0.08306018355532174 
0.01893839083340412 
-0.02187310021172329 
0.01644714504345868 
-0.1260212728401622 
0.0105752124543846 
-0.05208871881451588 
0.01025049888955382 
-0.003508093679976979 
-0.1290826341077032 
0.03916809103145831 
0.02637436434971868 
0.06887985409334998 
-0.07573033744648705 
0.0316810245984551 
-0.1388730093648371 
-0.004337368200957306 
0.08331495669159852 
-0.121176112084059 
0.04961720869401 
-0.1220787585696713 
-0.007540705627318994 
-0.03973786629565156 
0.03850422326859548 
-0.01447571201593457 
-0.04206185512589419 
-0.01243384405033473 
-0.08493004056558988 
-0.005564077796774307 
-0.04951996588674003 
0.05103313753026663 
0.01257542882256118 
-0.02355230449285467 
-0.03262402740278507 
0.01094249371048829 
-0.01655700070405661 
-0.007171149801579237 
-0.03735609421634892 
0.01987015325656779 
-0.02594611711971578 
-0.07957390074494688 
-0.03639162033019185 
-0.03004059274509695 
-0.07102283346786155 
0.006092252468952719 
0.03354697647768786 
-0.02184280469478784 
0.05964064206489328 
0.005206116967786587 
-0.02137655772482004 
-0.003738252267558024 
0.01131744672385935 
-0.01264937001718385 
0.05743671040321417 
0.004799129430981846 
-0.06423154113839864 
-0.03008887704941399 
0.002000698101376154 
0.03576401073315347 
0.009455431105089595 
-0.005233620610785542 
-0.0143299590937132 
-0.06271405736059409 
-0.03599538938635265 
-0.006184098257833816 
0.01560718305164465 
-0.02448778286427343 
-0.006116265374036584 
0.01577264675362908 
0.1187855569621377 
0.02478558013966222 
-0.04101349776599109 
0.09281192531490043 
-0.0869545841064769 
0.1079673239723744 
-0.03309673156933404 
0.02734073159563179 
0.002603380557401772 
-0.01140691240600384 
0.03750668484758862 
-0.04465943453709308 
0.06092328002660393 
-0.02876873337169298 
0.01535586859274473 
-0.03624552835378895 
0.0729312788249222 
0.02036629892072343 
-0.02980237740851105 
0.03421980209670937 
0.03990218874447091 
0.07346599552209895 
0.08592709835852985 
-0.03869776179411627 
0.0007582360325017873 
-0.05956658807133527 
-0.07384018140987104 
-0.02981080183054526 
-0.0218132095514002 
0.051085486480634 
0.008801188045902254 
0.1005035351870578 
0.0594922057723264 
0.04736994491631118 
0.0173867695415976 
-0.004706587406998034 
0.01785601317129536 
0.03309448161395574 
-0.04944363081692057 
-0.02358550667929663 
0.05612260519404481 
-0.04021507274076842 
0.03587279716926763 
-0.07455613858942836 
0.017490785211386 
-0.07559707789450346 
-0.01788113334528038 
0.02450609502015035 
-0.03565683581644492 
0.07386784636776031 
-0.0009122750291956182 
0.02422239076631258 
0.02465719653616825 
0.03025417373023251 
-0.03489890679197379 
0.01420490532509018 
0.005851777413460985 
0.03613634016508456 
-0.0345858261091854 
-0.04794327394748022 
0.0733531924026988 
-0.02378613688634321 
-0.03780574999197701 
-0.03340406777555283 
0.02300145619784128 
0.02675960739407563 
-0.03383382662060869 
0.01668105156929458 
0.03763837137789561 
0.008225079168837565 
0.002656710505645661 
0.02545429742181021 
0.05418555726364385 
0.02662937598625507 
-0.03300346037201341 
-0.07399967462309007 
-0.08018661050749515 
-0.009761987612941758 
-0.03692555430401669 
-0.05050456538164276 
-0.0005761921823115518 
-0.06429636987189898 
-0.01923044963117952 
0.03038196429528914 
-0.06057566935572879 
0.006282526700874059 
0.05017031573875063 
-0.02468232731434132 
-0.0003402693376534204 
-0.07445998327517946 
-0.07574520115196372 
-0.03792795608837494 
0.01376302205278518 
-0.06889807003319624 
-0.1830482287745947 
-0.09503606236103661 
-0.02185568475345626 
-0.03353203914337609 
-0.05439483734370974 
-0.1497781780373982 
-0.1111411619473452 
-0.06512259838636449 
-0.0007309637950085689 
-0.1311322297081575 
0.03786147002972542 
0.02469245589844487 
0.03619678528755658 
-0.04249601186478181 
0.1024057437366729 
0.01166716249928968 
-0.1026199887409462 
-0.01634261909304531 
-0.01412168076648277 
-0.0247533171596471 
0.06149390321642505 
-0.05452711671744591 
0.02594445736020835 
0.01623873555408504 
0.09491383708760812 
0.019099028117578 
0.009244091850435879 
0.03384437541413621 
0.1281050287743571 
0.06161568648559616 
0.06641119303287493 
0.06591300216642473 
-0.006629197710659975 
0.08435006446398728 
0.03460481277116589 
-0.009043740741963329 
0.03560617250753082 
-0.1123343181835094 
-0.06073051182007524 
-0.05413046386739451 
0.08129020870909183 
-0.05109260993636542 
-0.05406861956731201 
-0.03054883923604246 
0.07071842096965927 
0.07791874589942095 
0.008752980899942737 
-0.03770015085746654 
0.01633893253028476 
0.1687343814346457 
-0.01048756303024407 
-0.07223939814386471 
-0.08232433018199886 
0.05542058281061547 
0.05335549660864503 
-0.1140132649376139 
-0.07942125105051444 
-0.04461189500950839 
0.1422182155650767 
-0.002722030984350146 
-0.03579657007266934 
-0.03399790490048833 
0.09245314979520813 
0.1176452210711581 
-0.05840577969267508 
-0.02040814604647984 
0.03568338506714158 
0.07944411549893815 
-0.072512916482682 
-0.08073323122696109 
-0.06502417906780961 
0.1087540350614704 
0.05020257776754999 
0.007996776981427424 
0.08135041509730774 
-0.03968724708460377 
0.02964055501283051 
0.06514379375195752 
0.06124371903146812 
0.0666460052146424 
-0.03086815653241197 
0.04244841431223832 
0.03282540855381381 
0.1140373246146614 
0.04542293685224435 
-0.06058123696530299 
0.06711776998456952 
0.0848754341573254 
0.03513284287424111 
0.07260335130477624 
-0.03373829197935706 
0.01178221750279025 
-0.02130768816066637 
-0.0959195924894202 
0.02523270268328115 
-0.070834280012656 
0.00152584262670562 
0.0387475858876206 
-0.1788469350261162 
0.01382122530668068 
-0.008373001036067666 
0.03876778548212335 
-0.04549739605742255 
-0.047048929832969 
-0.03794510503344543 
-0.04696190916040164 
0.1034769856145836 
-0.03775571242696489 
0.03018894752025536 
-0.009128881543622373 
-0.05956889503220696 
-0.04636905625490972 
-0.0387658371177175 
0.02466040139535306 
-0.04634872792144271 
-0.03074649571542033 
-0.0810543504882872 
0.02966780063554677 
-0.02011781937803032 
-0.001821760536727 
0.04763144222751939 
-0.05991753656817046 
0.001282088696641568 
-0.06251563203639275 
0.009461418694038716 
-0.01850463488548847 
-0.02577675321376082 
0.01712535233255095 
0.01471896999549061 
0.004360650468448065 
-0.0379636337235288 
-0.02708815111158974 
0.0798915754471799 
-0.006015335911070768 
0.02836378878541009 
0.01245258507914035 
0.08001079364546851 
0.0004491177349682263 
-0.00650815291193284 
0.05057291941462575 
-0.04080821248425411 
0.0109964342116733 
0.1074117372380133 
-0.02331282404782637 
-0.01523624774099317 
-0.04627836422650982 
0.03116355242249783 
-0.07024014939569626 
0.03054910552423986 
-0.08610608428055846 
-0.02271255481908566 
-0.1067333548307986 
0.004857690925772492 
-0.05277177089135372 
0.08459643008296344 
0.05617464850649724 
-0.05164662903876281 
0.01975955260669898 
-0.0368221188466291 
-0.05872248948656827 
0.0106661728051531 
-0.008464188007154514 
-0.09895397929231424 
0.02225495496631384 
-0.06717279991520614 
-0.002153936611354545 
0.02762676645870785 
0.01310191840441141 
0.03408705603500446 
0.01312444517909517 
-0.01786553478037887 
-0.0394530096170793 
0.0476517461693746 
0.02448343010256946 
0.05132114621833521 
0.005435894399006655 
-0.01753906702779049 
-0.07830138434382136 
0.02421729723539126 
-0.0254470378017282 
0.04892170759399282 
-0.04264886685224206 
-0.05963885340353645 
-0.008354612651483569 
-0.003405429646202882 
-0.03893929003609298 
-0.007144394002024388 
-0.05194663895365725 
-0.01423575795263754 
-0.003903096983430224 
0.08037717983500743 
0.01347163662867756 
0.02532635348945187 
0.01650383086937201 
0.06037608612288083 
-0.02675371034403386 
-0.005644791797657882 
-0.03085254857927063 
0.02069871789712159 
-0.07424499378670338 
0.01054949009955371 
0.009792365032753407 
-0.031255877157421 
0.007692335041167368 
0.07486772328429057 
-0.05186646786110796 
0.01898480529309677 
0.06854409468741153 
-0.005764842566146329 
0.01920603641409945 
-0.01219251667707298 
0.1239496848675409 
-0.033778099737573 
-0.001845098971904065 
0.05851249681145605 
0.009217924189858173 
-0.02949287432290204 
-0.0003360757048825633 
0.01817039627040517 
-0.004110306304211285 
-0.02539671560340882 
0.0539634626611624 
-0.02458160787153727 
-0.01161821362625405 
-0.02471716379405301 
0.001275532141805273 
0.05810382858715672 
0.04048625487461481 
0.02625635844135459 
0.0182038236064631 
0.0955032322329909 
-0.005230388735748662 
0.05573651119011921 
0.03880618096572807 
-0.005702196181393559 
-0.02078944869727979 
-0.09691520349614208 
-0.05133487638738457 
-0.02346071134624214 
-0.04210997582927562 
-0.1255390455487308 
-0.05549811406822605 
-0.01798866157099548 
-0.009017021689577093 
0.03626967547052472 
-0.05378935411077215 
-0.007738331735403598 
0.06592303138315578 
-0.001636084978463119 
-0.08068636001658792 
-0.07225313511224579 
-0.00895168528386399 
-0.09080609628164464 
0.02051656595311907 
-0.03603357859463761 
-0.05235578184586175 
-0.02825109581110299 
-0.03419698471514503 
0.01682594272602791 
-0.09887938802100302 
0.01168438310476606 
0.01046907580298026 
0.0768092873195529 
0.01679431306226062 
0.03055342890894171 
0.03028709406738378 
0.04368340846848463 
0.03796580085921705 
-0.06698426110163244 
-0.008009948649386759 
0.004049534519930032 
0.0875016785426939 
0.06386662775644139 
0.05246170557204795 
-0.03677360278653417 
-0.0166337287443083 
0.1971765434408668 
0.059228806424141 
-0.06444101533440548 
-0.07190686717140055 
0.09607789674091946 
0.03577006029065644 
0.08418912665244624 
-0.09579707487582738 
-0.05696543325264333 
0.04088815041372411 
0.0964793643488915 
0.02270431229386273 
0.1119252178299864 
0.01761387190696178 
-0.09385218423756388 
0.003586609258251485 
0.03600325463372833 
-0.05263381238321425 
0.05168374176735764 
-0.003945765012995673 
0.01194785212374692 
-0.03729510769971834 
0.03691019412376439 
0.09450104902625872 
0.1311100451795121 
0.01830255846495293 
-0.05418705340199774 
0.03403165978544673 
-0.1080135963032694 
0.036776047705998 
0.07374088397351573 
-0.07610964617168414 
-0.08608591534205519 
-0.006810587056714194 
0.05635084830241319 
-0.07673290151758953 
0.05936346654464203 
-0.03334551067939653 
0.03540874230990189 
0.08389701026690746 
0.04302408898247203 
0.04128640931152909 
-0.01335656796118513 
-0.02705711777086926 
-0.08774319182897798 
0.04184377131045464 
-0.03336070776835984 
-0.05531212079444631 
0.02304779101528683 
0.08485591001293512 
0.0933609705406573 
0.09792736597626127 
-0.05504516344350183 
-0.03440341043415639 
0.1528270834384482 
0.1322393094969774 
-0.06845571028337434 
0.07579658875566656 
0.09268232726479211 
0.1369284358153374 
0.08694643630780841 
-0.00848195095983016 
0.06238731540591815 
0.07679221707144904 
0.07061634369280236 
-0.07947418899715067 
-0.02842918377136366 
-0.0003186597493181604 
0.02259996262815469 
0.003163154554051718 
-0.09651044510621437 
-0.08300556701393978 
-0.09062396377206236 
0.0670964089550693 
-0.04861862262195307 
-0.01002039788145177 
0.04625400899630878 
0.03228935540816035 
0.005821671122100905 
0.05525296216269491 
-0.1016582812860781 
-0.03172894129436293 
0.07299560797836691 
-0.0294599462167981 
-0.03871664143652626 
-0.08184450135380507 
-0.02894270921529511 
-0.01319727367011008 
-0.06286172317909998 
-0.03153332585182248 
-0.08382469501205528 
-0.06630900003010179 
0.002507202651088236 
0.03140582746373444 
-0.03074429468342598 
0.009705575500202677 
0.03619550403305536 
-0.05055968569206805 
0.04331646466049674 
-0.1653305134407673 
-0.08993486339025387 
0.1124167674136929 
0.01356751988903627 
0.04195605625848434 
-0.005236831170644977 
0.01669725133965404 
-0.0269294758302384 
0.04864635790532788 
0.03147010154891497 
0.04139245333368587 
0.05106596551947023 
0.05167780406012803 
0.06763714024720452 
0.06894157162797793 
0.01749638412064429 
0.02459262854785312 
0.003019400488323132 
0.07614281702653213 
0.080997450427818 
0.04687252547990311 
-0.06569924466984746 
-0.05747796544856951 
-0.04147951082318126 
0.01537784882576361 
0.09441521716651791 
0.0006924778561039112 
0.02910469551094969 
-0.03051679357769331 
0.001725176931470309 
0.05189198987602538 
0.002409254562045134 
0.03648246687878559 
0.04343508386902822 
-0.01161927296821258 
-0.01324139997552229 
0.08596755075175894 
-0.06189552447207863 
-0.01093770753069934 
-0.0457796335043515 
0.0368108759808029 
-0.1111820426169957 
-0.001559997167437426 
0.03677582604744951 
-0.02238843229811941 
0.04344992039871436 
0.003236427990072811 
0.0389503370137082 
0.03368034556020399 
0.005732932959831659 
-0.0318055976082374 
0.01130226119086349 
0.003519067164765557 
-0.02416707574263096 
-0.02435540389948671 
0.06151929907853327 
0.122503161426823 
0.03053641034798728 
0.06078823446646697 
-0.01108698614211907 
0.09108919662371044 
0.02638328960760088 
-0.03376810957749631 
0.02503474259241569 
0.008079444752923005 
-0.07926996199283112 
0.000459828981048994 
0.06031333256520403 
0.03036356991427374 
0.07007907271301618 
-0.005231951971240712 
0.02432690733714019 
0.06490866788184059 
0.01964170834494247 
-0.004085254333823216 
-0.04120636686346063 
-0.01402868158608874 
-0.01972210858638959 
-0.03714121194147974 
0.06124579620886261 
-0.03501133436898547 
-0.01185161690356765 
-0.03849365385439054 
-0.03569277407475751 
0.02715271409269148 
-0.02841955383728308 
0.0182739489310321 
-0.04907695682938686 
-0.004054374726671997 
-0.01814813475823236 
0.003053026991405046 
-0.01469662611222473 
-0.002255910626867181 
0.01538867830637568 
0.05574543007526186 
0.03791611151165568 
-0.01150372500796243 
-0.01141136063611025 
0.01586668134514272 
-0.01159098859323661 
0.02439192222932568 
0.05886199188994511 
0.02873223848218263 
0.04419029644696188 
0.06021470070771116 
0.0141602747250177 
0.05225924329175317 
0.02536548304619224 
0.06911284493585766 
-0.0005995913187129056 
0.03954775773474097 
-0.02498164558679976 
-0.08741469234327888 
0.01259395847726272 
0.02610701440542234 
0.02865894141159649 
-0.07117427292236567 
-0.03757510170154141 
0.03428660670700454 
-0.00499680118565847 
0.04346574671701568 
-0.01244506634026774 
0.01260416217630935 
0.01420119383436384 
0.04842075453848457 
-0.02471021494929963 
0.04807222130306978 
0.03040574449771923 
0.1015691892752668 
0.002882272277560453 
0.01836444651368048 
0.01820038472138763 
0.03247576939388208 
-0.0161773430815326 
-0.000859716526277113 
0.001426129066279496 
0.1009552376058834 
0.001792053492662307 
-0.05182044796136327 
0.06021176726587812 
0.1128784163962399 
0.1160562413885814 
0.005282943672052678 
0.04660977259064703 
0.07761540579119859 
-0.00225984194711392 
-0.004134138037226129 
-0.08038610430669961 
0.08547919799908232 
-0.02133233716517452 
0.02299987065581728 
0.001989739698311474 
0.01784156513201982 
0.09050936976141161 
0.04647920867838667 
0.001712191022489055 
-0.1347457477796248 
0.09190508756729282 
0.1308607681129381 
0.01345851398137887 
-0.05392018503306059 
-0.1362105331782158 
0.1351005885130565 
0.1035752433154552 
0.0310492707473382 
0.07750634310179583 
-0.07975961459725399 
-0.0636042554510596 
0.03373260802865222 
0.00989334932490547 
-0.05844905324029591 
0.04199311908289961 
-0.01525380404367595 
-0.08767055726323103 
-0.01859519476210124 
-0.03126286545558343 
0.1062065568259531 
-0.05666722963174264 
-0.06418396503491877 
-0.138573625635141 
0.03393006617949522 
-0.08395924575168831 
-0.1445532772467591 
0.1213562762919524 
-0.07098935390124179 
-0.09623156626542785 
0.04846000718459147 
-0.07008758496334729 
0.066457044665115 
0.1029602898881911 
0.001013701541348328 
-0.04129991792247786 
-0.07313292508049589 
0.07973329274619571 
0.06980653652785422 
-0.06311546575974591 
0.009046242222666803 
-0.1185654010928493 
0.007020561914239452 
-0.01145145092652111 
-0.01426761351466696 
0.1013158040081701 
0.05589529965192495 
0.02482525214473843 
0.03631537552496619 
-0.07002942302857777 
-0.06940415100068438 
0.03590289044164454 
0.04698042979677675 
-0.1150463847070986 
0.006909056035047985 
0.09292563069985034 
0.1557886580255153 
-0.1367758635393705 
0.006440716891029554 
-0.01314686559253095 
0.123329367495044 
0.05863950883571368 
-0.070476614683694 
0.03663548979387722 
0.1089694404423828 
-0.03233789924199433 
-0.01098490873688317 
-0.01148728600182046 
0.02645423791204961 
0.02373005761122073 
0.04492659680770235 
-0.0919774505150278 
0.01711786760552579 
0.1427396253577873 
0.08192609968203739 
-0.02796546822970291 
-0.04876695319092947 
-0.037728561828389 
0.01189493831263938 
0.0908337074954798 
-0.05860870564460084 
-0.002979954895161298 
0.008891352092314737 
-0.05351010445349389 
-0.09145017498113533 
0.04840572745992436 
0.07486213871391682 
0.05272955946991449 
0.005474117365252468 
0.01868846109549914 
0.01950464062370668 
-0.01409203480965804 
-0.02875910525010546 
-0.07626070179904275 
0.09433510110499869 
0.100404247192954 
-0.0321924523313696 
-0.001476730141446722 
0.05130521598646631 
0.0305891841433472 
0.01389183545784542 
0.02688308618970646 
-0.01666511860084957 
0.06300732314388405 
0.03620846750158767 
-0.05848112684361628 
-0.00917465235580686 
0.02877431059449962 
-0.01954988270650418 
-0.002680060462395467 
0.08300880959928342 
-0.009969584870172184 
-0.004824278187642342 
0.009129475152089629 
-0.03909658922215879 
0.0414457638640515 
0.06336976671443753 
-0.006581496379660259 
-0.02819610568612624 
-0.01238081462460459 
-0.02667772512897652 
0.007184341824251922 
-0.0485794780296326 
-0.02446716639367482 
-0.01208883839231112 
-0.05053059771468093 
-0.04591291694778777 
0.01353689724600449 
0.02427112034835418 
0.02246966770273204 
-0.03142463968249033 
-0.03358997171125212 
-0.05924578726978239 
0.004161167522287804 
0.0172092233785015 
-0.03242447092515126 
0.06272679568598619 
-0.00461131842052283 
0.004522912557747781 
0.03759334172159324 
0.005463945017219761 
-0.03940221340154047 
-0.03391463432364429 
0.04724198775522183 
0.06736807664699203 
0.08288646276637898 
-0.01089740238730495 
0.1130152228943186 
-0.007311712193245391 
-0.02569807401472927 
0.01077372802446471 
0.06220539688956688 
0.005002583520880625 
0.04452311801600781 
0.01598583848924464 
-0.08140590984444149 
0.08425819504115543 
-0.03846309204729068 
-0.106746234853252 
0.04249991193531309 
0.01324963362163268 
0.008073035553926749 
0.010537480516465 
-0.03249627265396589 
0.01336705559552506 
0.0146444963835014 
0.06088186306249475 
0.0705088258270135 
-0.01962335356766699 
0.01882544423647696 
0.0146069292745979 
0.04905088162784135 
-0.04488371490464223 
-0.04750654032162849 
-0.04056752015601695 
0.0589368052227797 
-0.02950454670090623 
0.0121144041947519 
-0.09873409391226809 
0.001989597288397163 
0.01477490906592535 
-0.003334323161863725 
0.08610049176342525 
-0.07105093986573602 
0.02781321596256158 
0.006418062664712581 
-0.06285684291387945 
0.02600236050202975 
0.003193256636482115 
0.01065008943689438 
0.03177811937090493 
-0.01056998720207264 
-0.01049474461050093 
0.06511524707898274 
-0.03656464888714597 
0.02774650831108836 
0.008747585220408883 
-0.0114532529216352 
0.0547290424216597 
0.1253850510538912 
0.07710743365541639 
-0.02419403147125794 
0.06125086725595159 
0.0490346243473731 
-0.06070573465838253 
0.05071166085622095 
0.1062849282701306 
-0.01947949834832262 
-0.07187726257354188 
-0.1029238780655182 
-0.08980344560848688 
0.009813224720087804 
-0.02106275531818542 
-0.02666201390390274 
-0.09608378460206871 
0.08849178567885646 
-0.05123908688372852 
-0.008535739708121244 
-0.09745889406478594 
-0.03697957822735343 
0.07984794923432627 
-0.07841624043255695 
-0.04685940087373906 
0.07679976510532394 
0.07737600487314297 
-0.0430330534790969 
0.008460877787866599 
0.04592644812805966 
0.08565010566298444 
0.003310767460175922 
0.02816752006493103 
0.01858340874073564 
-0.08667371176536892 
0.0142234487663631 
0.02344169983569757 
0.02147722858193428 
0.03119488748415972 
0.05000711300521453 
0.02149702384801926 
0.03365354803819935 
0.07023827048447411 
0.02493155754639717 
-0.04596051897004288 
-0.01152144741214879 
-0.009401032956252921 
0.03698962135465413 
0.03320518405167331 
0.02428177744162755 
-0.0437527096442133 
0.1030145043520076 
0.001820434329572052 
0.0758440581697373 
-0.07181376240592227 
0.026549212660667 
0.09070536996598012 
0.05775063229106923 
-0.03169347028018937 
0.03234687796909642 
0.05597602020369491 
0.03295508535620436 
0.04834096898466377 
0.06263549274900265 
-0.05495519097694267 
0.009338462382375014 
-0.04289302858370309 
0.01225232081611948 
-0.1604306503142878 
0.01925805545989721 
0.0001976734244821052 
-0.08251979288078144 
-0.03924084938403278 
0.005936836901088632 
0.09104417578736955 
0.04037482171211671 
-0.03123767865169149 
-0.001515806960695095 
-0.04352085645969829 
-0.01042619675649665 
-0.07566253792415582 
0.0222264382931205 
0.001297104204628361 
0.01041368782845564 
-0.04493361422228316 
-0.03709117525397401 
-0.06750862633892631 
-0.0310450213482141 
-0.02424787209809083 
-0.09398627433201198 
0.006453718691113236 
0.02788154220184631 
0.120773820599568 
-0.04308041489532649 
-0.1429343334384088 
-0.02801064993034608 
-0.01866358235557895 
0.05975859090995735 
-0.02201351628460083 
0.07551640026628725 
0.01952086610830021 
0.08401695046798723 
-0.07121819400606133 
0.09980205690677386 
-0.009627404512173924 
0.03333207557674044 
0.06198383992636458 
-0.04921899143511054 
0.02733972972427784 
0.0304802326071796 
0.0929504619206033 
-0.09391723389039722 
0.03768492400446444 
-0.08185591131261546 
0.02552052494118047 
0.09703296707678903 
-0.1215810982318515 
0.05368505253726261 
0.06436152168702229 
0.06884091770157978 
-0.0263281530470282 
0.0006397375986290812 
0.02930130602737223 
-0.02499743801807842 
0.05126464201151625 
0.02726579599573955 
0.08475562143796486 
0.1170848532738658 
0.03523441103055235 
-0.05119561653676152 
-0.02272081148397184 
-0.004582691604198183 
0.009538145116159738 
0.08639447646216146 
0.04345862225336822 
0.05383045245346684 
-0.108441752327095 
-0.0367809257715 
-0.04028463193129472 
0.1096573734816891 
-0.01403709396505929 
-0.02576448378238059 
-0.02357775959500312 
0.001489393843642166 
-0.02818514237265485 
-0.06981972938345971 
-0.11799635530536 
-0.06088705192314011 
0.01436605549334743 
0.0544896316723274 
-0.0185204927297884 
-0.03295717821583063 
0.01787629419825549 
0.04022798730190946 
0.007041193938798279 
0.01722437899983209 
-0.06912969079978527 
-0.001103041462407833 
0.02558099440962906 
0.02600850704389873 
0.003321318209502531 
-0.006642599479303834 
0.0227386262535679 
0.1043843620954441 
0.06534048534098147 
0.07860647692496307 
0.06631168501668042 
0.1111929243341541 
0.01745501361839093 
0.00260086622141059 
-0.0118622857831118 
0.03382515991500155 
0.01424734632132419 
-0.08329529661535832 
-0.01760924197110677 
0.03292530245815302 
-0.00780628233405318 
0.01947958090302655 
-0.02067620038107373 
0.01689229160004558 
-0.02474650123127017 
0.006772673406712963 
0.01550829884607032 
-0.01213808135522968 
0.03764640989427562 
-0.005867155105675164 
-0.1230524392154358 
-0.0458363382950881 
0.09779231516047469 
-0.04333601849619362 
0.05959844510195455 
-0.06811281828468149 
0.07659153136138128 
0.03881737030472721 
-0.03061086298269676 
0.04133373418835597 
-0.03699382522254714 
-0.02827225370987053 
-0.009433678662598439 
0.07524179365115406 
0.01456595881397327 
0.02119505460132926 
0.01255130945341624 
-0.07346213676946918 
-0.04245951341892592 
0.02963419401253159 
0.01993256604600704 
0.04025335566466744 
-0.04675980219819064 
0.03093906871146309 
-0.01658910921662634 
-0.03693371713628443 
-0.002764240423487831 
-0.06600486382294853 
0.03082476005145153 
0.01673665880646494 
0.02101835607860041 
0.08029290932512406 
0.002941103379322951 
0.01922438195574941 
0.0527385599823942 
-0.008565623237811012 
0.06237463416111939 
-0.0374846020278357 
-0.02352531617061778 
0.006242845786469941 
-0.06934529835783494 
-0.05191872976331144 
-0.05368488843642567 
0.002511145178469245 
0.0003663375798733096 
-0.002079175338009471 
-0.07181413391382151 
0.02516784679028273 
0.04932884094585876 
-0.0315669713166148 
-0.0357139454612618 
0.024097320669358 
0.008186411806546874 
0.05088319868455009 
-0.07771429230912567 
0.06955722133071469 
-0.0407022464079711 
-0.05192173677304692 
0.08018694530121388 
-0.04706608360111326 
-0.0290607299906225 
0.02754731328470909 
-0.01874552210246605 
0.02002370522902659 
0.01267790701026055 
0.003907930845768652 
-0.01729669134264603 
0.03007269535268993 
0.01116624042532074 
0.04724461827276689 
0.03381880320371074 
0.05667132412995795 
0.0862218433105033 
0.1030183644930711 
0.03496500586661401 
0.0310066164572383 
0.02084831154939473 
-0.04536534134965624 
-0.02338862205279448 
0.06597961352736763 
-0.02073550412166499 
-0.0260988269146277 
-0.04537269305825333 
0.03368716550081032 
-0.003942763965607902 
-0.009498697750852389 
-0.07325505735347783 
0.01665010584518208 
0.007991522335280183 
-0.007909192372961078 
-0.08436413041789424 
0.008998588362991821 
0.01517212858880189 
0.008333409606351996 
0.08434187100559466 
0.0537309774738304 
0.1014375298495768 
0.02388853177254227 
-0.009819946892553355 
0.06076204032197201 
0.08264700343972678 
0.006853338793641103 
-0.0306852504208058 
0.1246767835534943 
0.09073005302391945 
0.08935558913667355 
0.1144088103566975 
0.008832476140418278 
0.01236973257888743 
0.005477751405123859 
0.0150657623497864 
-0.04812485821199498 
0.06795778507686255 
0.001933756940765033 
-0.02249590051419001 
0.0501268365941412 
-0.002704773267523054 
0.08028458576259058 
0.04395538322278739 
0.03576542537808147 
-0.09272386959723265 
0.07693631089958243 
0.09137222453779384 
0.05295208081341087 
-0.06664272296283907 
-0.0411753654055667 
0.03332197298031624 
0.06805112282185491 
-0.08869352477218241 
0.05568765402528239 
0.004632430708449863 
-0.0399860645729844 
0.004931306774378408 
-0.03352515495610376 
-0.01745935999743006 
0.04422681441556706 
0.1285920767851083 
-0.02068061689981677 
-0.04006255743483352 
0.06625790531200759 
0.07055044657342184 
0.06406668473779621 
-0.1116996092574717 
0.00542397934278442 
0.02216319413168146 
0.03869176075761292 
-0.1410943963506783 
0.007617215906166538 
0.01546776207652836 
0.0109584372717566 
0.04447275021789743 
-0.0425931766894182 
0.1402859689883374 
0.08882853450339574 
0.02430996694991689 
-0.06186317489393962 
-0.02869254625991946 
0.05808513270174219 
0.02508455772265884 
0.05467917863514056 
-0.06140381028567687 
-0.04489113487338266 
0.03021299925981704 
0.0732699646597062 
-0.1156094365988078 
0.04061527560156997 
-0.02026783807724035 
0.03480216414109007 
0.02542563179299215 
0.003154887865520642 
-0.07869019673590132 
0.106423019780224 
0.02945886904309323 
-0.04907381858602018 
0.03723052559256867 
-0.0006517134633233401 
0.02792387425134593 
-0.02273346981437551 
-0.04353351980547052 
-0.1164904347711969 
-0.005153103815625286 
0.07476419790554194 
-0.07696578668598168 
0.07342589207527761 
0.1256665425178298 
0.09350665895763249 
0.1175252562592333 
-0.06929109223849263 
0.1119452661893836 
-0.01755883739220351 
0.01611300374291997 
0.01341973965546216 
0.0556008085767676 
0.08751307891778314 
0.09704171695295156 
0.08439015452249739 
0.03547391120595127 
0.03070129079919472 
0.0113863890749109 
0.02356423271420606 
0.0678626104813498 
0.05080253740965904 
-0.1165271494714099 
-0.0305409777102841 
-0.05074810257226784 
-0.04081032932582889 
0.0209480653707656 
-0.07336324252760629 
-0.05387853207618619 
-0.06282424988255832 
-0.001544563885146747 
-0.05126414818821223 
-0.02061792917538756 
-0.05665879334718815 
0.006143888800391044 
0.0433577404213813 
0.02887403089669885 
-0.0646393056253546 
-0.02612268957368425 
0.01303201090406259 
0.03033893176323316 
-0.02380146676899744 
0.05027922874333263 
-0.0537759132442972 
0.03678186821850584 
0.06322682205839125 
-0.05592500489606962 
-0.03472481808886833 
0.07247066245926762 
0.08499733673627394 
0.04356824451557373 
-0.03312265798299904 
0.0528329562854292 
0.06200887683431228 
0.06493439809483915 
0.04888385854829446 
-0.005295943481825104 
0.02313975658371893 
-0.03954610695855824 
-0.008696782917053737 
-0.009011059434677442 
-0.02573027543729299 
-0.04614035865215063 
-0.00687457136541227 
0.0598273476696233 
0.05000206912465474 
0.003884206008194003 
-0.002969137542453863 
-0.0003649442027700606 
0.05057797413723794 
-0.02839161362132189 
0.02326251376829014 
-0.04072382840574151 
-0.05167177568999948 
0.0796426201576749 
-0.05505564248314632 
-0.02392646733799374 
0.04479195400149028 
0.00758262223805874 
0.0006467171595950221 
0.009314212479277693 
-0.009096796794068381 
-0.01390428885905366 
-0.0661218147451971 
0.02435359570709219 
0.06237956174637701 
-0.01619941229057651 
0.09422048518036674 
-0.01028823898747232 
-0.004538008565229457 
0.006307926364748849 
0.05497214390039779 
0.09573103343136272 
0.005549170309687532 
-0.06425277257476995 
-0.01487665400146083 
-0.02598775947532227 
0.01390211065101733 
-0.08100215525101626 
0.0464146781139058 
-0.000462065948641547 
-0.03357688039517244 
0.1227644755020485 
-0.06991758613136649 
0.04780989319724765 
-0.03198804122263801 
0.07656656847516302 
-0.0003710354688718101 
0.02453435862312326 
0.03354649499673999 
0.01994446306107128 
-0.002995431567763777 
-0.03651824092548265 
-0.05788379089881332 
-0.04228425633713979 
0.05561012811592318 
-0.07983911611880157 
-0.05000723156643946 
-0.08640206096469753 
-0.05091266439475824 
-0.01593492251084962 
-0.04556780261269681 
0.02026084918781631 
-0.03303400200905044 
0.08449766746616298 
0.02105621673976279 
-0.0004658887968989251 
-0.03092658859982694 
-0.004988422623236682 
0.01981888976461127 
-0.01476216476883767 
0.02718437967495376 
0.02326413129606932 
0.008481204878070123 
-0.02896296644969642 
0.05424650653608705 
0.02565484887979433 
-0.003671805910451194 
0.005586790121272529 
-0.008233342011655884 
0.1247028805334108 
-0.002204522321541343 
0.01139304894999905 
0.09661615069986641 
0.1064616427070053 
0.06762647486430889 
0.01117960652564526 
-0.00463918119835164 
-0.05838530906038163 
-0.1282022918752149 
-0.04843009655203498 
-0.001334609832555018 
-0.002712000440731015 
-0.07659180474228346 
-0.1449529033605192 
0.04200773471772218 
-0.02089072297462138 
-0.1705439557118295 
-0.08193270922725798 
-0.09878100092211015 
0.08771761163577364 
0.01364692173287363 
-0.05000430682354551 
-0.1093333582371279 
-0.03022609645592473 
-0.09951197122447916 
0.004251598303111864 
0.07307732608504071 
-0.05236450050870569 
0.05225887104076026 
-0.1045118494670739 
0.05259474296151496 
0.0413738811736042 
-0.06867641235721315 
0.03842324060140342 
0.04375658938830655 
0.1479114228308427 
0.02022335564793941 
0.087646313615436 
0.1343286283322297 
0.06192039021828138 
-0.002215061311719184 
0.06033671395350666 
-0.04714655192698045 
-0.1104271905146002 
-0.03063498799518499 
-0.03186880359555903 
-0.06327433429157545 
-0.1394610714401174 
-0.02192588395480451 
-0.03550500494369602 
-0.0175452642062714 
-0.116849409603557 
-0.07920478713275733 
-0.06195986417044593 
-0.02738887694304652 
0.02864685386936596 
0.0233101214280558 
-0.1066564967754104 
-0.08023028132806362 
0.03705564858279566 
-0.02533230826535371 
-0.09088957017892052 
-0.002506784198500156 
0.02450294774259337 
-0.03537674909806387 
-0.08382031559678732 
0.002400444670452594 
0.0137240265101953 
-0.01939527323968485 
-0.01037888730333335 
-0.0452381731428694 
0.006599555414390999 
-0.07700243070131163 
0.01454213037831752 
-0.001767310940100768 
-0.01197897203050137 
-0.0462540006735018 
0.03715097472173263 
-0.006036112797255726 
0.03980299708014773 
-0.03467407271289215 
-0.02402793693638453 
0.02831734161610921 
-0.007693972085211112 
0.08999234512008919 
-0.1020908192883407 
-0.0167014013451375 
-0.1146513232928461 
-0.08819485924402851 
0.07147009433375559 
-0.061667946845905 
-0.004831759426769041 
0.06421156824464731 
-0.1253299735791507 
0.06349265982559027 
-0.07229470580416136 
-0.04359935426238418 
-0.03065992204402291 
-0.07217034711077248 
-0.1747036828401141 
0.02465430421796971 
-0.1504241827136089 
-0.04676003538235034 
-0.1531696867208467 
-0.05659222917871264 
0.05821195844258532 
-0.07021793793186239 
0.02568546709294473 
-0.1637969565141056 
0.008846417167421475 
-0.03834286324125816 
-0.1505722659922863 
-0.0515304088387659 
0.06657059342826285 
-0.0128056123942536 
0.03721358660465748 
0.05365693777207269 
-0.01610701273610647 
-0.08196362924763734 
0.07365290374110577 
0.01298326653823013 
-0.08484709941321694 
0.02080556884415985 
0.08208349338709311 
0.1077599001600026 
0.1341683433879972 
0.1021344785014046 
0.1150828637951106 
0.00978782795884401 
-0.003196230037637812 
0.1680981995049541 
0.08742378234070629 
-0.02825143471996525 
-0.0722123333514358 
0.00446299031796752 
-0.1199558944794437 
0.04481630234987124 
-0.07328566309310998 
-0.09599650343331406 
-0.1120306452776627 
0.003918045023638799 
-0.01704746977594149 
-0.1020834813812658 
-0.1056831994069627 
-0.2047930778975366 
0.04576408757303717 
-0.1074500445940844 
-0.08264931894626756 
-0.004048193991117173 
0.09154482289612993 
-0.005901069997661235 
0.02696015458698807 
0.01868086087431838 
-0.01071132455981529 
0.03956622545261521 
-0.05951908157690048 
0.1053362974521999 
-0.04173791767055701 
-0.07107426239228763 
0.003781722508726054 
0.002505902584497317 
0.07935966078756822 
0.09358342820814174 
0.00636844247597079 
-0.04062485430100996 
0.00931939411646805 
0.1075515879283943 
0.02273742873913769 
-0.0762835133353756 
-0.05583070722577653 
-0.05502118055126585 
-0.03498018988502051 
0.01999286771797274 
-0.1248919233465169 
-0.007967024738778587 
-0.06533156483003466 
-0.04018314466997926 
0.08296471143254873 
-0.05974581074359666 
-0.0274935231961193 
-0.07981962278638485 
0.06575043817603657 
-0.009118103460800064 
-0.01371687535602373 
0.01827758860228634 
0.04503026048181177 
0.0007482403796283195 
0.02587294584805833 
-0.04577904612321427 
0.006703368107205897 
0.0009114612059929998 
0.00308168708191209 
0.05098657225213216 
-0.1162243557589371 
0.005497293410719363 
0.02188881389092441 
0.01359225743615107 
0.02524797096598037 
0.08790556413345009 
0.07233693412110691 
0.0392327926974321 
0.05165453556086137 
0.0189474691186971 
0.05934332562518001 
-0.06630356668642313 
-0.05444408665355218 
-0.002930158315301304 
0.0263145443729052 
-0.07675931505270721 
-0.04295723982171705 
-0.009031358954836232 
0.001539913426595448 
-0.03681696764737646 
0.02733833035528541 
-0.02286409870381301 
-0.06435445840465623 
-0.01293765286042216 
0.01734655467262729 
0.04913644764488127 
-0.02489404334323546 
-0.0480117353284131 
0.1000426874429789 
-0.02023495082479081 
-0.003382747170261882 
-0.06138735121324739 
-0.02315899002470567 
-0.02056987427670066 
-0.08575664852918903 
-0.06547696462496246 
-0.05058435829492226 
-0.0185472024052145 
0.04805516242300512 
-0.06299882467102123 
0.01919886838404632 
0.07029385505650225 
-0.03725793518734042 
0.02313382463868734 
-0.08271273771998912 
-0.04478449080048096 
0.04934418490492172 
0.01092199467530484 
0.02558669385585116 
0.04922210302767287 
-0.03000604270308889 
-0.04028411526870902 
-0.02800731052014413 
0.0650072311387611 
-0.1056956221463062 
-0.02715947534586599 
0.08050141523655521 
-0.01236219627191203 
0.04716444957866462 
0.03218721629582631 
-0.1336683368618972 
0.0865066902836725 
0.01711693339786382 
0.05051717771510132 
0.02221399940807591 
0.05147592641967754 
-0.02750687728207055 
-0.08040649237972733 
-0.03919613080483624 
0.04199193951446941 
-0.04220394901775992 
-0.01110901052731896 
-0.06483741173172793 
-0.004263628493851135 
0.07798957201205263 
-0.006051477593146828 
-0.03567998647608198 
0.0009673299520800774 
-0.003060596318442485 
0.08163925219325395 
-0.08111378406146982 
-0.05611665751647792 
0.04242403162264979 
-0.073273528972716 
-0.06058950813450376 
0.07063738370783892 
-0.02289182430104173 
-0.07411147548980561 
0.01190219276139025 
0.0190881953960249 
-0.1157621467584328 
-0.1283714243268859 
0.09843138906172559 
0.01170838656154718 
0.005981332655864735 
-0.0297010563862855 
-0.03001352444652733 
0.209047701446161 
-0.04554134290611069 
0.03788925997857913 
0.08746024856184956 
-0.01373684692646746 
-0.02399036055259311 
-0.02958870386385152 
-0.06271849846061071 
-0.120123156175811 
-0.1359850462993739 
-0.04752950240293589 
-0.1789271184786751 
-0.04586542097375198 
0.08761938253233795 
-0.03457735413100223 
0.07529218240093449 
0.04663381923632669 
0.04452770820468125 
0.1494432590396829 
-0.1161115516690909 
-0.03519144995661375 
0.2235188443407427 
-0.06798171016518645 
-0.09660901815753303 
-0.02515870624812074 
-0.05751082810566661 
-0.05984616434152557 
-0.1533344634250884 
-0.06900795643620339 
-0.1289398428404374 
-0.06032447825419156 
0.1100577348339333 
0.08984247775554834 
0.04105994679183402 
0.0402184340130013 
0.1454713630154064 
0.2167256884221405 
-0.0879135551681261 
0.05391791362148904 
0.1794944855907621 
-0.0901106357653422 
-0.04383971340415557 
-0.02988070612044326 
-0.03660888805312507 
-0.070224409802653 
-0.0489527123359596 
-0.05958985611558129 
-0.1399369459305199 
-0.06923122851348967 
0.07199838419580115 
-0.01751524836002922 
0.05558701886837945 
0.1377636339267123 
0.08571898248129257 
0.1520941774290505 
-0.1951407562244279 
0.1122379573908771 
0.09921476362445988 
-0.05829618090002916 
0.0232096389882959 
0.02205152333507882 
-0.1144385329476347 
0.01922782761983176 
-0.1477323134894595 
-0.1209482579173274 
-0.1836794576125763 
-0.03573954216462113 
0.005833244150256963 
0.03032579933930145 
0.04865266960875855 
0.08948568120352926 
0.1178960791724258 
0.1819283277087415 
-0.122909900862081 
0.01843173952586346 
0.07926347521038897 
-0.01495246514033808 
0.06940803274469276 
-0.02516627531961303 
0.0185997143977499 
-0.1049722397084116 
-0.08140280822441191 
-0.06970613768995236 
0.01148636074938095 
-0.06555837061276952 
-0.06459541657197193 
-0.03574697571114543 
0.01659726874608755 
0.1212681569820894 
0.1162861639942664 
0.1204493179416751 
-0.05205707130557018 
0.1560892673104231 
0.05267472163407969 
-0.05629286180075031 
-0.0666263544713321 
-0.08047143123090077 
-0.07357357254049736 
-0.0649735464769505 
-0.06899706857870497 
0.002514433343312097 
-0.07620129947881096 
0.009667957362009087 
-0.03325842988715382 
-0.008086880707756672 
-0.07834209372379823 
0.09079741144412759 
0.08032166080409447 
0.03067050826983035 
-0.06530931704215019 
-0.06599490280027885 
-0.01544506652675684 
-0.03334515559414526 
-0.05931418785561303 
0.04352851011259259 
-0.01675412423416602 
-0.03132867492261548 
-0.03729984983066865 
0.009481373818044328 
0.1077344582322017 
0.04833390685391361 
-0.04171771751829585 
-0.007933271215327152 
0.07581771921304774 
0.01765747303942411 
0.03788671326902771 
0.07856292010291348 
-0.005015284721408448 
0.0293570359519211 
0.01920282853236518 
-0.01218922435990807 
-0.05437076408888288 
-0.01955130928065042 
-0.0953991007841543 
-0.03838233633278745 
-0.04739362841729547 
-0.0501808882189981 
-0.07566549013261084 
-0.02569026913196056 
-0.03935388713343844 
-0.01615627159251846 
0.03737378098377549 
-0.0045820560452835 
0.05641054152719795 
0.1047730846643675 
-0.0653577166305632 
-0.05622996466429119 
0.01935665983562545 
-0.0453740743776946 
0.151013597963233 
-0.02250128065652626 
-0.01902402681162562 
-0.02953735000325534 
-0.05504350861055334 
-0.08092187464298897 
-0.1074025883814894 
-0.08472695323246382 
-0.01568704821146995 
-0.003321742444651809 
-0.01591824525737221 
0.01891083021731263 
0.01035201655647029 
0.04715828080899202 
-0.06066696849331669 
0.008951078873651878 
0.02375106020606105 
-0.05302975288486613 
0.05278151320633714 
0.0299851704609745 
-0.04292610678058888 
-0.02091454301997024 
8.035738072569247e-05 
0.04941556297975077 
-0.06807895448022014 
-0.05967857792036266 
-0.002596267494441627 
-0.01394605605083542 
0.101029486067089 
0.09429294581300011 
-0.09825576970744655 
0.01875536455106187 
9.468183415248943e-05 
0.0734921209031561 
-0.08495559596932685 
-0.05215313957311927 
-0.0175267675363705 
-0.02459098623371974 
0.01280217610391125 
0.01170643855542545 
0.02595340957800214 
-0.03391835096624823 
0.01537363149523585 
-0.04583589300113847 
-0.07587650854623385 
-0.04924493549548788 
-0.02823498383603212 
0.05353919121976457 
-0.06813731653617891 
0.07095763151222927 
-0.001740063148501414 
0.06652979988144615 
-0.0480405344849673 
0.01839075773725182 
-0.004272025548882063 
-0.05204124620636023 
-0.04086099563973439 
-0.0733600647992857 
0.0252627291004705 
0.01402539861308641 
0.03162825172734333 
-0.05421087110687564 
0.1053632092395727 
0.01706590117686025 
-0.02324942192024227 
0.0492276371304581 
-0.03258881749461243 
0.1117412812282728 
-0.05140287695561428 
-0.0198392116562925 
-0.01273001729090002 
0.01391826745099819 
-0.04949498312640107 
0.006847865929089819 
-0.01157708721791491 
-0.05495652428950304 
-0.04242369782012063 
0.04344491195810848 
-0.04843527690589467 
-0.03381055399696983 
0.006104518241415677 
-0.009766915767554523 
-0.02973292835488026 
0.1451432676000388 
-0.02357304210332242 
0.06819813832224395 
-0.02521708082138009 
0.02415801180837434 
0.02149592560682832 
-0.03046001035454652 
-0.04394091050549986 
0.06693790092219876 
-0.03172843005999789 
-0.01014830710829568 
0.0121906862855396 
0.04572367681585884 
-0.01859263442353747 
-0.06874158719920434 
-0.01393903104943053 
-0.009692750190123082 
-0.06912044670138459 
0.03445642180438813 
-0.01092152340230664 
0.09456018030787619 
0.001806221668832974 
0.00388219630226925 
0.04843451932656382 
-0.03118714087129795 
-0.02825322069369836 
0.0782708039349705 
-0.05093239750046658 
0.02051099320364918 
-0.08994927386551516 
0.1411805971161778 
-0.05356701896370274 
0.006850555724320989 
-0.07622224775735613 
-0.06777528893953932 
0.0333999471671962 
0.05702356263651461 
-0.01675025036250208 
0.05582620332710136 
-0.09074168274176037 
-0.02497994292167617 
0.03552493754687226 
-0.03982531206419675 
0.01705754565394291 
0.006300157138369947 
-0.04184908456470995 
0.05314294491929106 
-0.1300297525366413 
0.0189841760307177 
-0.02105969885566905 
-0.07966856277681048 
-0.003772599815247699 
0.01221248030052011 
0.09175676300808618 
0.04982343387231443 
0.04977731438701001 
0.05565268051672594 
-0.01456690228063545 
-0.02912286470454163 
-0.01753370609870243 
0.003139527695099205 
0.1302563918469997 
0.03110619119892523 
0.04649514361881117 
-0.0844556375741017 
-0.1076367271411601 
0.0411859873960442 
-0.08716418725541532 
-0.02938966536877194 
0.06081671225646389 
0.05561896983672276 
-0.08589625993305904 
0.06141000851781681 
-0.04275592093497468 
0.000291163763248142 
-0.09429919693881644 
0.04981810682340226 
0.04868597106589433 
-0.056781825232527 
0.02833674713863893 
0.06252297285863932 
-0.008559460132652191 
-0.06492663784505467 
-0.01911802706623462 
0.08593488136627452 
-0.008630687704718927 
0.0254657294983918 
0.0266675237988836 
-0.03400971863553775 
-0.0006985160304265012 
0.06042898837593491 
-0.02381670055687585 
0.03703404514846592 
-0.09897125643522885 
0.04549559149774113 
-0.02482345325128147 
0.02815537279759732 
0.02700036590929476 
-0.02647438930971337 
-0.04407819366140706 
-0.06724705606881143 
-0.1178517663704544 
0.006648798118501107 
-0.001569474878561573 
-0.02465738483356452 
0.004089284218564646 
-0.02475738365859705 
-0.002137249118363307 
0.01693281375133998 
0.03242191717823442 
0.04367342249425648 
-0.07827771168713496 
0.07006431859018086 
0.04949769363428042 
-0.03658393279993134 
0.0005346630923199837 
-0.03560716471730368 
0.06333785704808811 
-0.01742388994362068 
-0.0632031379617574 
0.1168087434180977 
0.02270266770145829 
-0.05560229437750164 
-0.01991509477957181 
0.1201585637288521 
-0.006620664993905597 
0.01948105183007756 
0.05949816611672255 
0.1062560501203747 
-0.0553033748623472 
0.01153574134157418 
0.04574649811150679 
0.009885805877775109 
0.001973076889860509 
-0.06821435949444916 
0.0209000179185712 
-0.04591181280822244 
-0.09292167914198853 
0.04450582903142904 
-0.03915504578474563 
-0.05763913494172834 
-0.01052601155900737 
0.03593695985717393 
-0.1115340715984971 
-0.01489535275334163 
-0.01120433828101979 
0.04326479603430963 
-0.06368022180663162 
0.003671889648104067 
0.02046712415692327 
-0.01645024144173503 
-0.0006711787591188026 
-0.03584097781846798 
0.0369739958099032 
-0.06067836760151294 
-0.04181804215821535 
0.03522772443380425 
0.02040962122301048 
-0.05882256499218637 
-0.03918310235379566 
0.04088834397077842 
-0.002952788849141183 
0.07720811516257098 
-0.09697671118507276 
0.07613058783161428 
0.04084536450908418 
0.08042237011922272 
-0.0723853867799306 
-0.01741763805515035 
0.05183528217798988 
-0.0332226300641596 
0.08424124177696161 
-0.03537074053347505 
-0.05993012734772234 
0.05079536216804721 
-0.05305653267278684 
-0.0196263012722872 
-0.03265979891005157 
0.1332541626026478 
-0.03240554511909485 
0.1158871407074234 
-0.05289338607898984 
0.0280340781253197 
0.02198189593196741 
0.02618960209626224 
0.006145198223184851 
2.539471877339602 
