solver_type L2R_L2LOSS_SVC_DUAL
nr_class 2
label -1 1
nr_feature 14608
bias 1
w
-0.1381428877355974 
-0.01105601980835679 
-0.05782933054511127 
0.1384976050073522 
-0.1155368430901812 
0.2574427805553354 
-0.1942636604052692 
-0.04440651143281084 
-0.01743525467398406 
-0.1511275817422883 
0.035732211607962 
-0.01141207981428076 
-0.1507848349642207 
-0.06340853362976864 
0.02525326927862869 
-0.1013509989375201 
-0.04293924568036997 
-0.06518832733435614 
-0.1146574845503512 
-0.04816673891034025 
-0.1799143214507045 
0.1040578161693393 
-0.4536669476154248 
0.02246247936183415 
0.02198929996150916 
0.0341750126499523 
0.01237633265298811 
0.06339441158584666 
-0.2760512453985723 
-0.1419226964857878 
-0.003162824663336657 
-0.2503208532770793 
-0.02994882774444379 
-0.2180609719309085 
0.05508217691353726 
0.06194270189032869 
-0.0935248111605901 
0.1547125665882191 
-0.1778038352805396 
0.1637756031223121 
0.1473932982103466 
0.2018361119880893 
-0.02010770313335551 
-0.1014240909074001 
-0.1408356684558081 
0.1464257944395241 
0.1297891478729064 
-0.09430723325835666 
-0.07848911334414314 
0.1133242842498104 
-0.02552722496673652 
0.02484801713721882 
-0.0259970864395754 
0.009059581819528038 
0.1380407292552271 
-0.04830749952667399 
-0.1151093225749228 
0.03654534515922531 
0.01063523723839216 
0.03707025123633192 
0.03570738347720642 
0.03106881555874232 
0.2640117124749547 
-0.0409601636775223 
-0.08575843442193506 
0.2155187330583708 
-0.03550467423028026 
-0.06392685196704904 
-0.09937749546470298 
0.04948410381295282 
0.007340908192461871 
0.1432003979865098 
-0.2002091710580638 
-0.03086643301980846 
0.2347281186488261 
0.113753799701176 
0.1264049293306385 
0.2145709875193874 
-0.08454795627790081 
0.07800416247272005 
-0.1667109715187014 
-0.0822202655420491 
0.1322070446354986 
-0.06722146074431472 
-0.0001008314259266928 
-0.05375338633288158 
0.02673844661020223 
-0.05040609572899899 
-0.1002837901421425 
-0.09491972884750131 
-0.06286327217427747 
0.0865309263197251 
-0.1522887355970788 
0.0985066344752171 
-0.1440539917526576 
0.07314636916363217 
-0.1531653662732405 
0.04155453027266261 
-0.05116259844115734 
-0.1804530710276595 
-0.03128150004308234 
-0.02837622589438341 
0.09266338501959319 
-0.1143282618853333 
-0.1724710846473758 
0.04367086195526892 
0.1335088793435626 
0.145192567265472 
-0.06095412498460232 
0.08518868303349972 
-0.1607777395619042 
0.07423956521728814 
0.08921842188963543 
-0.007071292463819796 
-0.124392078047554 
-0.009762109242204732 
0.03937825110090977 
-0.1423586487732769 
0.04878620888929689 
-0.04958301184906909 
-0.09966840732223278 
-0.01110426999877153 
-0.04228844638842452 
0.1443841424047255 
-0.1123731696403203 
0.0162405708160965 
-0.04071975062213713 
-0.05759696664227573 
-0.303865129833168 
0.1302752519514965 
-0.1689846980895315 
0.09928105890524117 
-0.02198952206760878 
0.06969246286994853 
-0.0488211827106688 
0.06927784241610382 
-0.06065192682120174 
0.08651044581981744 
0.07181386526057768 
-0.07723064879261773 
-0.0562108992900803 
-0.09220498721722201 
-0.08096920210344137 
-0.1070802998602434 
0.1537668913935172 
0.06656195506418579 
-0.02206305771170635 
0.1493014000230225 
-0.08200828940656217 
0.1457203307973472 
-0.1644636494642104 
-0.04671471932538868 
-0.208796013906535 
-0.001072618674533392 
-0.1761807319586027 
-0.03880690145167285 
0.0008001836587739071 
0.1603134128353965 
-0.1960770540660366 
-0.03674686518696641 
-0.05332197195532503 
-0.04859200746908387 
-0.1547062390136133 
-0.02978455746489021 
0.07710218367652866 
-0.1229713590487785 
0.06765290075583584 
0.1094490067644588 
-0.00867761434833981 
0.0574895608626163 
0.02709280740234953 
-0.1053226463931894 
0.1188828538750027 
0.03353450186001299 
-0.1359414375746675 
-0.1210671906000921 
0.1396071076840777 
0.1264888246746948 
0.1164062230829452 
0.1419472076276514 
0.118673917198246 
-0.06476794034746011 
-0.06943241844466068 
0.09123145812224445 
-0.1623011030310725 
0.04566999353664053 
-0.1538095630567975 
0.1674887126970776 
-0.04544010871909115 
-0.1836554538223216 
-0.02978747811003581 
0.02683741270152455 
0.01521096182123196 
0.05870049095526932 
-0.1614456193664267 
0.1140648659781965 
0.04962429705599746 
0.1296085931073029 
-0.04685652416848207 
0.05036595780645213 
-0.3226644140936452 
0.11367114772763 
0.06076808941769105 
0.04368246886367509 
0.05846945903365704 
-0.1977033601471621 
-0.1014845234285679 
0.09689395988002739 
0.0146461337950786 
-0.06174785272423759 
-0.2264874986791052 
0.09373485491657119 
0.002607205008190271 
-0.03715173613407895 
-0.07262888268635249 
-0.01337182361486104 
0.04455967438999427 
-0.02745404485756544 
0.07163149064690782 
0.05645767156632064 
-0.2134063607438504 
0.02275138491350424 
-0.09494845448877838 
0.1147024718610929 
0.08286352659361984 
-0.07059380894263431 
0.1833260605009586 
4.950454736362577e-05 
-0.1205848091576432 
-0.07885438186597575 
-0.01645554616826029 
0.3068303518445683 
0.103406384183624 
-0.1439961721122696 
0.01161331344045205 
-0.06693758433655929 
0.09340273335452583 
0.2313895038228208 
-0.01930313076132469 
0.01659221653646707 
-0.1968280819875536 
0.06129903237394602 
-0.1602211343549827 
0.1711236300003162 
0.01079773813419468 
-0.1081223561724297 
0.07980802505271285 
-0.06809248525027035 
-0.01578895889523054 
-0.1408261023524396 
-0.1613101682085821 
0.03770839538456386 
0.0164853412577377 
-0.1334370615558757 
-0.2154839291662337 
0.1049946448928556 
-0.2875668183930167 
0.1595943242283654 
-0.06434051045305629 
0.05608312818114508 
-0.121493038505179 
-0.03947830741047242 
0.135524658456697 
0.01738695440679107 
-0.08672116238388332 
0.07532918333352193 
0.03501138917323639 
-0.1169919197456731 
0.02631505552921916 
-0.07349070554563342 
0.05912861385381971 
-0.04696836869298926 
0.01489517836218817 
-0.08252812290245722 
-0.0592138062208 
-0.01401287767313956 
0.1524743984591439 
0.05364902595572085 
-0.1320436516534498 
0.02814410845375174 
-0.05645534160736079 
-0.1331936828948196 
-0.04422526745803459 
-0.1010310803594459 
-0.04089221676547213 
-0.01654519562963715 
-0.05201619600447259 
-0.07237148930305043 
0.006476101071923783 
0.123057444391657 
-0.1732291740292231 
0.06400742947632497 
0.04451529606704265 
0.03929911847102874 
-0.05458837498698144 
-0.08574572962468299 
0.1040438655871236 
-0.1430479547390983 
0.152822233181216 
-0.1337313060262448 
0.0328395347768537 
-0.02232842294026643 
0.1156744734065627 
-0.1138486909770446 
-0.04784027007187772 
-0.08219508493373277 
0.2531739059088503 
0.1191479039693985 
-0.02529219170453009 
-0.02762480271001226 
-0.08498848146153368 
0.1209257538084089 
-0.04543993388932324 
0.0215802487498438 
0.09548287935864343 
-0.06988325327075258 
0.08974249395457955 
-0.02825951910926695 
0.04001779815154976 
-0.0814951447303566 
0.1037934360905663 
0.09014170500051209 
-0.09554811106144101 
-0.08633756980014676 
0.1114345134114632 
0.1854391822411748 
-0.1320338718492832 
0.1111639647411159 
0.04659115180992536 
-0.0287790316509943 
0.0603748497272347 
0.08511724696419609 
-0.01436960120861035 
0.1419585444705327 
-0.1213986486301892 
0.07021715700195796 
0.02357004205460011 
-0.1292287311431748 
-0.05990562386721869 
-0.0540806924003664 
0.1145333205761088 
0.04897589211171772 
0.0659934150738824 
-0.06247608962251919 
-0.04169765356655251 
0.2260639067376689 
-0.07183919907148775 
0.02379292919191346 
0.05090447563715145 
0.09415658489791436 
-0.08716955688648223 
0.01822457951383278 
0.147311541822382 
0.1358058870742028 
-0.07702625419310988 
-0.03270910935443336 
0.0931801098820966 
-0.1262494668226244 
0.1737194675133877 
0.2223540385992423 
0.1285199597087732 
-0.02650367995955448 
0.1193535378206614 
0.07145318656560104 
0.07205310392033155 
0.0938729427463834 
0.01623591706502768 
0.2007003357844773 
-0.2643599918622101 
-0.206586704145608 
0.2139807412305801 
-0.1200463959336309 
0.09887134444847422 
-0.02252319083971737 
0.02176268625498256 
-0.09294523433057086 
0.1795308653619352 
-0.09848567689340186 
-0.04226434073470896 
-0.01689654140903391 
0.0494879775152516 
-0.003470290867341454 
-0.03590051893715508 
0.003839270365015979 
-0.09140738592451775 
0.01471448892922659 
0.009789591887836404 
-0.1829186690273629 
-0.0497867068907968 
0.05528746431938476 
0.03558185160351834 
-0.01777811938810047 
0.0163359878196243 
-0.06540926072381675 
-0.02443812735641638 
-0.0563674348604282 
0.03077123005161626 
-0.01225118820552584 
-0.1379938537713135 
-0.1555863383045344 
-0.1062618929985318 
0.086185189099117 
-0.2929790196690719 
-0.004168967633198551 
-0.06745388456046789 
0.04048565841444478 
-0.08901033853246169 
-0.1179163048955794 
-0.1320206386120264 
-0.09492950050506743 
-0.04204228871176815 
-0.2369893710289477 
-0.05202806231464096 
-0.04670829202105234 
0.1302283397485619 
-0.01142121102441489 
-0.1573711831987801 
0.05025279404827809 
-0.1944837221858137 
-0.04643330712205252 
-0.04221469531371809 
-0.09675737660663222 
-0.076704707598496 
-0.04618948174408401 
-0.1902969972396202 
-0.03489030661893834 
0.197833283431612 
-0.084842176349973 
-0.2107899000161982 
0.2131249979343191 
-0.07430630801961596 
-0.04894238768856393 
0.04567747837394878 
-0.0007526873854865701 
0.09067630730503191 
0.006193560887421825 
0.1915563431024604 
0.133170732794929 
0.04136663451818843 
0.03958008005375107 
-0.01632830854918629 
-0.2549709952876594 
0.1692274649440537 
-0.08911722829583713 
-0.05789237412837886 
-0.1450286635662904 
-0.1188827291190289 
0.03243367830335429 
0.06988029073767403 
-0.07225921409429127 
0.03234673277205865 
0.03297172622462788 
-0.05115960301198982 
-0.2528521370900296 
-0.005231103361283987 
-0.03058350329341589 
-0.07284036603627415 
0.09619170636402868 
-0.1040919274565182 
0.1211084993721566 
-0.06613863012950508 
0.07227228841014624 
-0.110336083006017 
-0.0194283857398656 
0.05429672186846407 
0.1092152788915223 
0.1536967533805745 
0.04887604584368824 
-0.01911989563879647 
-0.03311244715257922 
0.03959498723391786 
-0.01844806402245067 
0.1278798245999986 
-0.01130490172246316 
0.1006176257639204 
0.04336582916650895 
0.1513308863681512 
0.1357648042222999 
-0.007050457420562946 
0.05050612803100298 
0.1949616132167618 
-0.09699649102344453 
-0.06660063020708325 
-0.1962711094041558 
-0.02655059140752843 
-0.05253700338039501 
0.04665568315521745 
0.04754444164907724 
-0.1060643298335723 
0.08034976660904306 
-0.02141737985644311 
0.174871729501545 
-0.07030641964296278 
-0.03051676744153377 
-0.2594650098565703 
0.005054830651679407 
0.4146922395380496 
-0.08224368305582763 
0.05078936139133242 
0.07661694788121148 
0.01996698843779014 
-0.008687982490087466 
-0.03693046554536576 
-0.07331523107617287 
0.03253262044861541 
-0.124913060936712 
-0.07590723452125864 
0.06359384985439266 
-0.1948350816480027 
0.0987769498076899 
-0.1741051631263408 
0.007807528793088753 
-0.1536193262460621 
-0.05966254658432076 
0.135711296785887 
-0.2276056033097041 
0.1192254767961577 
-0.08175434662703608 
-0.04380782928278519 
0.2637782083701511 
0.04585145491630944 
-0.04964870396351748 
-0.009483579635081764 
-0.04602576168296954 
-0.09478303667626427 
0.179964257433698 
-0.08603733752634217 
0.03031895253715098 
-0.2423594608337681 
0.2339903154113215 
-0.209358750040252 
0.1442618713792924 
-0.1320674977331902 
-0.1619173970610173 
0.08227984239524111 
-0.1682348116980525 
-0.03228408756361269 
0.1675173897366306 
0.004815938941337051 
-0.07088094928791272 
0.05353034657969084 
-0.01178518467028655 
0.07604460581326403 
0.12779989020616 
0.002211872075489482 
-0.1336102754120627 
-0.08237174661306003 
0.1267243404763737 
-0.01110238223770017 
-0.191805300303937 
0.07827739488316454 
0.2590380447348677 
0.2482154216581016 
-0.02976132553203989 
0.1522763319676696 
-0.07268284778018233 
0.2155117629543118 
-0.0473503366630087 
0.04043900165653733 
0.03817468127955153 
-0.1957740917330379 
0.1253336347502951 
0.083829367532313 
0.0913296881098869 
0.1944264259728274 
0.05312255337628943 
-0.01027932687339576 
-0.2243276593690594 
0.2385899321363387 
-0.09932560006252451 
-0.04003849740134834 
-0.09229492232047379 
-0.01262035604474334 
-0.1318501933151833 
-0.2536721041644182 
-0.0222472902015497 
-0.07721971360247401 
-0.0656852278470878 
0.09343090785683181 
0.01729721699734682 
0.03406527293800968 
-0.08923846681857761 
0.009924846587843121 
-0.04937444896710369 
0.1155081832925137 
-0.04675951436514471 
-0.163274110209654 
0.01871115079731845 
-0.08387920760446216 
0.02117871378838038 
0.007530270385944083 
0.07565843346538033 
-0.1446207320558277 
-0.01912702366278624 
-0.09711026728919467 
0.002481159404418515 
-0.04071298495970926 
0.07874030710861903 
0.03665749665337982 
-0.1835138256663637 
0.09329649175835777 
0.02104020053805319 
0.1541412398215511 
-0.2647887273635993 
0.09735528998252703 
-0.03393766970602329 
-0.2641881271826783 
-0.09253058079733281 
-0.08636503821787093 
-0.0236596855084059 
-0.1250657465546079 
-0.07162334987795684 
-0.046204875052667 
-0.06374303335680739 
-0.03870629684198709 
-0.008195908620913621 
-0.02724093810442756 
0.09410442361300339 
-0.1453381373418552 
0.1905769626695614 
-0.02385700164012785 
0.07774505253291319 
0.1081294669253033 
-0.1101940132577285 
-0.01511596826846152 
-0.02462375171972061 
0.007535070508551461 
0.00454289653447435 
-0.1052402648189865 
-0.01531495424602468 
0.00280502306483923 
-0.009389456521453501 
0.08295528609023348 
-0.009486509603546661 
-0.1143631443203197 
0.02329843492547002 
-0.08404868379739701 
-0.05807012380111411 
-0.2290900144435805 
-0.1750000942045617 
0.02643098616315079 
-0.1027320584510888 
-0.01549239818904262 
-0.01107620213877396 
-0.02855486425560698 
-0.1967624987352305 
-0.2616234840161142 
0.09709958462235717 
-0.008342577233275835 
-0.301568711717743 
-0.002768743468650074 
-0.08461793249249018 
-0.1543046992441997 
0.04779522355863824 
0.04658264031430125 
-0.08035988660641091 
-0.08076780358314523 
0.2283128827221448 
0.01479489713283737 
0.02458051853332633 
0.05869646345854006 
-0.3522940353103738 
-0.01605406692729315 
0.101319624263058 
0.06482273311803946 
-0.05511817845868965 
0.1272535593698017 
0.05513858144708035 
-0.04200317801244304 
-0.03868454201880618 
0.04926722805885127 
0.01755426078310848 
0.1346068236001056 
-0.1854539540108179 
0.1476278975851641 
-0.1629337021563662 
-0.04163372495374856 
-0.09187319948150699 
0.09446954232796947 
0.119207798274496 
-0.03694655165588116 
-0.1607491419830981 
0.1028466047729652 
-0.2511162290465454 
-0.1037678083267832 
0.0150794217447846 
-0.05774137299040974 
0.08781482224911963 
-0.09515302765008705 
-0.1423275421838291 
-0.1778964515941543 
-0.05220346704343336 
-0.0355666091398258 
-0.0125865152303526 
0.02927320181472666 
-0.07274760082873599 
0.02771911930163239 
-0.1458795745418106 
0.05627729607468197 
-0.1330613850862591 
-0.02051244179106058 
-0.1098254160790623 
0.1205741066111739 
0.02407333590703807 
-0.009906831710711708 
0.09984824081995043 
-0.09554004595389545 
0.002960921937059006 
0.01465847163885268 
-0.04615885039323293 
0.1331616773040809 
0.1584088132374312 
0.1807865424622052 
-0.1107373603098797 
0.03147425565440518 
0.02611117388334402 
0.04536409675875905 
0.02733872678121087 
-0.008051087517915834 
-0.2734481227216197 
0.04504663567592279 
0.001914528490565494 
-0.01265084467016802 
0.03662097850169757 
-0.1692176670178704 
0.13149693407257 
0.01154655761357883 
-0.00960018404529427 
-0.004963023341163038 
-0.2585346867790713 
0.05746991672447296 
-0.07814002859829766 
0.02923760030939083 
-0.1237796476419239 
0.02417906326345915 
-0.2569231248342797 
0.1184638925980439 
0.02644515416664967 
0.1443333530518844 
-0.0016502628288711 
-0.132770851364908 
-0.08745234567455643 
0.006530479291135136 
-0.08420450259103522 
0.001683173988793516 
-0.01674465896745613 
0.05083576435405947 
0.1621691611025188 
0.04022211251692109 
0.0283098117574164 
0.04337380873646896 
-0.1753853921974289 
-0.06760805074235834 
0.04843950669847776 
0.09534919319628271 
-0.004597914536274921 
-0.0001090560017812231 
0.03574327897487471 
0.05215282688090112 
-0.04361422216638964 
0.05912027423710124 
0.210906127480025 
-0.1152402211027569 
0.01173285566358478 
-0.022823861712439 
-0.02036529733117565 
0.02043037146704762 
-0.1657896544648607 
0.03375398626072945 
-0.03943748388574578 
-0.1475038166887805 
0.1046211037660069 
-0.2126985088946085 
-0.07860691750782078 
-0.02862837798014149 
-0.04394522816883357 
-0.06571359070772068 
-0.1228172235662021 
0.09769200279369449 
0.06996494806422045 
0.02988455429471949 
-0.07315738060114127 
0.08210331503950144 
0.120656442168014 
-0.1291334759930771 
0.01347511076598007 
0.06972558402914378 
0.09761542009585235 
-0.1958276930008558 
-0.324182225158422 
0.1732672622685391 
0.195589474559056 
-0.01636263204720855 
-0.2021793263649588 
0.1589209967151153 
0.3115021500770764 
-0.03162469008150681 
0.1876393084973071 
0.08674312305267164 
-0.005691530060844063 
0.2182613767383692 
-0.1093942997560376 
-0.0602254445279955 
0.2243470849577691 
-0.002421454559144895 
-0.1378356677282069 
-0.2272649592298923 
-0.1147963573085783 
0.0346805732657471 
-0.04201024386027995 
0.122239477920926 
-0.2334260228020184 
0.08168804226910657 
0.03499361086589983 
-0.07116516030196189 
0.08453427185320025 
-0.2671279881916595 
0.169542062363376 
-0.1402902311034465 
-0.1343345914391343 
-0.006645104841682489 
0.1871170322795555 
-0.01663976096766968 
-0.1559178029170808 
-0.1866573724115776 
-0.1359509714904434 
-0.07626222356558904 
0.05545961269852305 
0.05739716247021512 
-0.137808136316892 
-0.1335343525035726 
0.2477273414493437 
0.074626423738689 
0.1443679370398534 
-0.3443245546795488 
0.1081592343627998 
-0.06935225313846992 
-0.05312453219116781 
-0.1260842503477609 
-0.1973811412904704 
-0.1692955144271751 
0.1304216078567912 
-0.07975779910328987 
-0.004860547047142566 
-0.2227003309918132 
0.2877358236578875 
0.07110018490892875 
-0.007511867549568106 
-0.2124113979955874 
0.1388956608178493 
0.007946978658628881 
0.1330108462118476 
-0.02055851093238674 
-0.09799548909238552 
0.002298916863327474 
0.1409868948034154 
-0.03851988907627368 
-0.0145553150499382 
-0.2322243982347157 
0.1747071500007462 
-0.1433202208029516 
0.006063484899845394 
0.09104893210571079 
-0.1206494738753859 
-0.06212718255928172 
0.1903915179349917 
-0.1124364229796093 
0.02442065616747743 
0.1584683886572356 
0.1261595637457341 
-0.1398068787915898 
-0.1614906761721766 
0.04698189563026176 
0.04179519068923914 
0.2265783051758969 
-0.1932506065602464 
-0.1666141995702014 
-0.0502431375422053 
-0.2359579736529637 
-0.188652031695907 
-0.1315578002134775 
-0.0737668835955088 
-0.03160429797724795 
0.07568792162980965 
-0.2088571007782573 
-0.08949934214191084 
0.04196641673371295 
0.2628394614963712 
0.3338050384809454 
0.1513268175733217 
0.1884325475362224 
-0.03954320261435562 
0.1502632439284131 
0.118821002474472 
-0.2920044373785995 
0.03005169571678618 
0.06227216947208318 
0.05707411860199071 
-0.0255949717702205 
-0.04836372941611577 
0.02412219531401561 
-0.09492527738656628 
0.01200327521134888 
0.1386949190438467 
-0.1336624190597646 
0.1205983302739614 
-0.1101724552500822 
-0.05034176700425228 
-0.05596639696924714 
0.08043579727385269 
-0.05639385058390114 
-0.2119480172232428 
0.08375323963131501 
0.09310538180653642 
0.1065025794751212 
-0.1242000137247745 
-0.1662460708110954 
-0.1172182685688747 
0.1719654939752682 
0.01206973614864199 
0.001056335836624071 
0.2323640257076886 
-0.1104145287123589 
-0.0408555682894465 
-0.1742677401904805 
0.1138769704382056 
-0.03885978838255828 
-0.07400155952395053 
0.007917142858468347 
-0.0310796367614629 
-0.1074349552685777 
0.1175197607096635 
-0.09338830463749334 
-0.04131228467701096 
0.1159374955394145 
-0.291874069463264 
-0.1870039197271363 
-0.2958420944054298 
-0.0311909627300106 
-0.01444284794561373 
0.05410549097218304 
0.1898801005787014 
0.1809506379269818 
0.1034931506607604 
-0.2371134715672097 
-0.09395546811690994 
0.08932684046192223 
-0.03222257010703977 
0.07207293138539532 
-0.1140024370388004 
-0.04008713458520316 
0.08026497123299146 
-0.2007770353582996 
0.04697570197569125 
0.1003579152661885 
-0.04355029199842057 
-0.08923138340185049 
0.2079949323892215 
-0.08884516768811977 
0.1267568908638497 
-0.1554280085614227 
0.2571744774849772 
-0.158244580439439 
-0.1506111638100213 
0.09314313557228612 
-0.09853327042963259 
0.08554856655041727 
-0.2906096662803169 
0.1008250167664835 
-0.1484913895110315 
0.1077112407746193 
-0.06776844389593825 
-0.2747637870787896 
-0.05338424274635978 
-0.01303400957012055 
-0.1943441813292063 
0.2558891510304562 
0.1431369279777929 
0.02737716620402103 
-0.06278528013084862 
-0.1393645000361808 
0.05756244909418468 
-0.04218111590149695 
-0.06758268420333094 
-0.05353382027329235 
-0.04792692410465848 
0.08061874361916647 
-0.08049502810999078 
0.03832432582748328 
-0.1487418920007241 
-0.04783932326333583 
-0.1522212593060948 
0.05990146124145714 
-0.09154077728471298 
0.1853928837296561 
-0.2810557422432588 
-0.03630576550945197 
-0.124268272726689 
0.132000071083796 
0.0484748747457532 
0.07415324318078587 
-0.06944541114738424 
-0.06536082221873508 
0.2146148324859998 
-0.267322357997215 
0.02877524161942012 
0.1327804103238246 
-0.05073796123094947 
-0.0464409825923034 
-0.1187378018980531 
0.115566222966779 
-0.2495415262380805 
-0.01211039273786502 
0.182820282496298 
-0.06466782775605873 
-0.1759022835673905 
0.1681696278930484 
-0.08268177220850897 
0.0815684241707164 
-0.2344572212776757 
-0.05257317886405716 
-0.01316474592268217 
-0.07916476823480316 
-0.04327289472348596 
-0.2167361304512725 
0.04736009420674313 
-0.1773075748662201 
-0.09055204936715205 
-0.09189206914835764 
0.112271472923518 
-0.1366322242908867 
0.1475797061636318 
0.196888412884249 
0.1701863798097105 
-0.02396974329692876 
0.2394882862581187 
0.02560436203625628 
-0.03732085000479024 
0.1643260725500912 
0.02819095308645848 
0.0002791408433247636 
-0.05893110195717433 
0.1918252311961294 
-0.1403064372555529 
0.01701152495028203 
0.1474204524609642 
-0.05445273517100196 
-0.1573253812957375 
-0.05848923359864679 
-0.05298922667669298 
-0.1963769074382436 
-0.2070727192642564 
0.04994479006091797 
0.1222573277943056 
0.05316887030034467 
0.06933992108271192 
-0.1738393517606145 
0.006211868709167325 
-0.006263677723420341 
-0.12619090734465 
-0.2072374821715748 
0.0630777660784291 
-0.1264356810080765 
0.08774414960442978 
-0.03140973769720325 
0.1738424348567869 
-0.04017003595488656 
0.1514602050825 
0.07491766888984644 
0.03951460360316644 
0.02094922378015523 
0.09771782389429928 
0.09192263793096395 
-0.02574525942831614 
-0.02384533723538664 
0.02826810671195979 
-0.07533618678421049 
0.1013058221387148 
0.1131646857840694 
-0.005726221148159628 
-0.3603213353521026 
-0.0451928574208078 
0.1607131203954617 
-0.06588599755911914 
-0.09101706869153948 
0.2555515604087456 
0.05665528839730084 
0.007443829865179758 
0.06018494486420208 
0.3176029281169767 
-0.08345410959771106 
0.0974282299724947 
0.02332920915242171 
-0.189710159106089 
-0.04616697953660129 
-0.07281118371001281 
0.1105922422939315 
0.05661838591274082 
-0.02808456234841581 
0.06395945639609138 
-0.1670947029990635 
-0.08004198134553282 
-0.02639922853464999 
0.05944259852385435 
-0.2220660983834188 
0.1072769927685243 
-0.04132541190603693 
0.2302511455870976 
-0.09967758634556766 
-0.1649070302229668 
-0.1151960621602573 
0.06809144866472691 
-0.133724498434447 
-0.1711988761264172 
-0.1800408172296429 
-0.15628179361484 
-0.2909274295259881 
-0.2305563470265427 
0.1790302736583646 
0.1614356173604854 
-0.006681119820313385 
0.05468015640161859 
0.06528075077117668 
-0.07148296639653254 
-0.1549469093047595 
-0.1295855585878504 
0.1233947317069386 
0.1406672697253984 
0.06772741648464677 
-0.156232960686127 
0.03327961715575851 
0.1924439726584585 
-0.06745224860227664 
-0.295372230222686 
-0.03587895893094275 
-0.08332560326341572 
0.005425619219684572 
0.05605434339624861 
-0.09448292151651784 
-0.229311677028794 
-0.07460064485552285 
0.217016793459496 
-0.1137107319997172 
-0.04462934509342474 
0.01593945778467101 
0.008579721376229503 
-0.2407675699575002 
-0.01095383735021309 
-0.1868382509430483 
0.0115037349748 
-0.02565911399522108 
-0.2800126216315985 
0.002803928783484885 
-0.4420325902993024 
-0.242630889990004 
0.007917773626726498 
0.3044802050742481 
-0.1783486171508635 
0.0573796212402656 
-0.0405954995522036 
0.121632963087313 
0.06689439925607384 
0.1024882066216583 
0.2672273705480427 
0.1186366876106526 
-0.04307536092987159 
-0.2886311043959019 
0.2309596926267498 
0.06031160976235417 
-0.2200346797041148 
0.09876354805738069 
-0.1200613644492276 
-0.1479861476989339 
-0.2929852878560124 
0.1436103294089243 
0.05676331199606614 
0.246075674269022 
-0.0383845199891457 
0.08560852100407268 
0.01181128948208269 
0.1690920475922814 
0.2363178606580256 
0.1034817123782483 
0.2326840176436179 
-0.05914188437295879 
0.1144201601072567 
0.1416854938846782 
-0.1766665558175477 
-0.07291881262498898 
-0.1019780470926923 
-0.01103401146528329 
-0.1397232727022547 
-0.254788572821795 
0.06144379806654651 
-0.06276477182745713 
-0.3110894384124164 
-0.06852782808116364 
-0.05660722140613368 
0.04708863076840337 
-0.08153731590971522 
-0.1822522268333854 
-0.1420495102979215 
-0.3254840887330716 
-0.01240585288214783 
-0.16726581946959 
-0.2559786095909723 
0.0582298405467509 
0.2582330525816265 
-0.03341522466180406 
-0.2623130998742982 
-0.09282299397362949 
-0.05399019764590099 
0.03935379233450938 
0.1006087925553099 
-0.0176901887874082 
-0.0641699950266007 
0.1559532730281764 
0.07474705700132585 
0.08436754159565726 
-0.1310340452531402 
-0.1777604923619313 
0.1211162981086649 
0.09265122095024798 
-0.2422997256408406 
-0.1262732536829508 
-0.05218725080959914 
-0.1476115683154966 
0.1068293195687938 
-0.0265622661767634 
0.001355663523484719 
0.00695822382512295 
-0.09383617820362518 
0.1972916927805563 
-0.1198979518457756 
-0.09926215351149852 
-0.01678816365853367 
0.00744410705442261 
0.05148182490469533 
-0.03368368790729139 
-0.01294740356038089 
0.07860843825623745 
-0.131983738614097 
0.1426855398217037 
0.1291839112523861 
0.06226062400771676 
-0.06043488575254624 
-0.1827660189435557 
0.1226591813834193 
-0.07920065980963899 
0.4321748253756526 
-0.03324489289295444 
0.009141042319742641 
0.1759940424120726 
0.01994444258012629 
0.1211977637420159 
0.1949844275710194 
0.16229593417249 
0.08329275246241945 
0.07103430534711021 
0.02368877972498302 
0.1111623510072172 
-0.138794851929798 
0.1082704945268944 
0.02230731210560078 
0.05397972236641562 
0.07205042648049174 
0.02933397689858727 
-0.01781168571858426 
0.08918162577316904 
-0.1545399924764665 
-0.07649909411961402 
-0.01080008652720737 
0.03872812900131451 
-0.03587760810293619 
-0.1189556469394806 
0.03104161314407231 
0.07949583204615622 
-0.1565585541397266 
0.07484760456984077 
-0.06995056460030075 
-0.1048831410808974 
0.1077053995570505 
0.003275283773905321 
-0.04745169780949933 
-0.004639675881464819 
-0.1400008481430014 
0.04594353171768469 
-0.1869708754968938 
-0.1151522299659841 
-0.03456752860705079 
0.02428563978891605 
0.05572280307929286 
-0.005197178189699787 
-0.1081535399102031 
0.0433111684554869 
0.06424032107043672 
0.1467915112448979 
-0.04771267610318966 
-0.133371765851566 
0.1436550480541485 
-0.09455839943192285 
-0.04676007352274832 
-0.08430316891901815 
0.07609642647612355 
0.06464232106193006 
-0.06413644247392727 
0.01948753546050523 
0.03733567914544128 
0.1728460069235906 
-0.09089647226656868 
-0.1199366658971191 
-0.0163604056138089 
-0.1766242194210079 
-0.08692642550481786 
-0.2293789559665315 
0.09904999447001823 
0.1352185812409522 
-0.04238483422012442 
-0.00382394675994588 
0.2165442406056234 
0.08612301309116588 
-0.01679153345536124 
-0.01947366432701452 
-0.1351795378247311 
0.1418496249636869 
-0.03297365496839379 
-0.09638989593512227 
0.002206107138921566 
-0.01436740399847031 
0.1452641280124271 
0.04231058756253613 
-0.1151757311865128 
-0.0412813716806494 
0.01697160848231678 
0.1384152988060019 
-0.05224424736094329 
-0.2211015912291022 
-0.07428425984882771 
0.02002685838792866 
-0.03050299324285618 
-0.006016555990277735 
0.06647243721320741 
-0.08181039524883733 
-0.3707212603818721 
-0.02239090004484234 
-0.03081909787537008 
0.1168463480617077 
-0.1886135374685866 
0.04465091839298141 
0.04293862742177371 
0.02339288001808491 
-0.1652403537096803 
-0.09770883477573764 
0.03486876867099001 
-0.06658350476700441 
0.1378575855099269 
0.1270874379296173 
0.1373473690937708 
-0.04185741331889834 
0.06550934214428036 
0.05612012867763707 
0.1271924871963408 
0.01462785973080479 
0.1759593525123809 
0.007276039989615718 
0.01572163358572498 
-0.1005578989441317 
0.1614974823119573 
-0.1946680465814184 
-0.1191892306549713 
0.02611268513414889 
-0.0744994463976457 
-0.02610985436175601 
0.02835326704302636 
-0.063711425017056 
-0.08430283297945304 
-0.01293260463212128 
-0.01678685415268574 
-0.2676836734520274 
0.2786701247377185 
0.117438475857624 
0.07887061326498619 
-0.02738722793668295 
0.1094479829934161 
-0.001991429971944242 
-0.1014154507123119 
-0.04901834209604841 
0.1312881260655437 
0.02493963955301471 
-0.06453632230537071 
0.1541429194361141 
0.01149615527109778 
-0.0925666043160094 
0.06360574567825016 
0.000479730466409268 
0.07081161704228846 
0.05215733922873855 
0.004178148592297447 
-0.0661452580927518 
0.01217394782449252 
-0.1296122424704185 
-0.01894565238071188 
-0.08703534593082565 
0.02103311305286764 
-0.1192875360480456 
-0.1313848777964602 
-0.1077275443138031 
0.2480739634639378 
0.05838125587617587 
0.1754312754063402 
-0.1979571542558369 
-0.03796120753390918 
-0.2101350256993818 
0.0732693389577676 
0.06281679411073664 
0.02258165166801121 
-0.1107858968604466 
-0.1068289309058331 
-0.0179226623309731 
0.2681689458319533 
-0.08865987501442515 
-0.092655152462277 
0.01770561234199013 
-0.1922158203970972 
-0.06960650621213609 
-0.07305313084861086 
0.09469704145285811 
0.06403694839826275 
-0.08619330379856048 
-0.05809573423094674 
-0.09074229179168466 
0.1628914778582466 
-0.1948180206602244 
-0.1758843712203317 
-0.1129779030225621 
-0.2211201560794253 
-0.03974565198025883 
-0.0837544482797045 
-0.06482136826281454 
-0.2822234643534647 
-0.1269023116401255 
-0.08997179722058928 
0.3275807989014848 
-0.1072312882606212 
-0.2409362231709829 
-0.1487475149644151 
0.1257049120798925 
0.2151515175650546 
-0.07688545816726149 
0.2859945519594819 
-0.1422934232398212 
0.3030160751564409 
-0.07218142735412965 
0.13338295641319 
0.05459301978950955 
0.02769218656622252 
-0.1252398997341189 
-0.09989267744635764 
0.06992515180982793 
0.007595505323827934 
0.04234960802326531 
-0.3095901374639586 
0.2482223590719868 
0.1881269274928997 
-0.2201007839597826 
-0.1446815519220261 
0.04952034282276994 
0.2065084622357144 
-0.07318433419988743 
0.06962803030044407 
0.005244354627135428 
-0.005718475787028558 
-0.05480726638197156 
0.043113905282568 
0.05353367238678725 
-0.222908197448147 
0.1088834434123598 
0.02233213752776813 
-0.0307005548304591 
0.02566033490454798 
-0.06046417837967712 
-0.008475568974046119 
-0.1045970521135419 
0.04386072725932563 
-0.01853967158364383 
0.08378534413506593 
-0.2928450455295714 
0.0914023468033289 
-0.03204758129273517 
0.3154503598309364 
-0.06487363061932315 
-0.04502503063780797 
-0.02593632778048892 
0.1289481355827838 
-0.02432695832903917 
-0.1406644833463592 
-0.08340005459860973 
0.01077934136743891 
-0.1190835944814834 
0.138276657622575 
0.08103499817297152 
0.0001116696005135318 
0.1843678869724956 
0.1554522365592926 
-0.01119597797130582 
0.1634924909033474 
-0.2213299546377042 
0.1242112940595854 
-0.06351491686791845 
0.2493844909611369 
0.115716131497769 
0.2792783215319528 
-0.2168015037271044 
-0.1184623192998286 
0.1186313686078997 
-0.009158977076250364 
-0.04926223087434708 
-0.01725203804412873 
0.002290606918921653 
-0.2060736111576942 
0.1941884564656462 
-0.125260008187176 
-0.05510826810351721 
-0.09816177074987582 
-0.041051782866794 
0.1151395192167788 
-0.3881603867032747 
0.002396200094678801 
-0.121035040777046 
0.01508321967374203 
-0.1559684944213744 
0.3388501401976869 
-0.1722468820023847 
-0.1405898601827877 
-0.07981059586472813 
-0.05653924104054332 
0.1334888239950128 
-0.05481983656412025 
-0.07738581643206741 
-0.09953898818528088 
0.07796291273569574 
0.3091608225080282 
-0.04981499761244822 
0.1257706363042281 
-0.1185367021520926 
-0.07892953121582401 
-0.07706422404640186 
0.2498923712492206 
0.009150312193199754 
-0.1886710424175609 
-0.2160441693644025 
0.04539518664724929 
-0.1666759650467491 
-0.1093626643993862 
-0.1851586506474341 
-0.1664861810035863 
0.05982402219066235 
-0.04121506738139417 
-0.2804703690105352 
-0.02249212555678906 
0.03725205375764765 
0.1592220387848614 
-0.08225351472324215 
-0.04676457279618312 
0.05103997672727413 
-0.02605182114015359 
0.1851001996739024 
0.008477108949924332 
-0.04745946593331109 
0.04907237024930565 
-0.08988594949657726 
0.1646809485226137 
-0.02846014658292358 
-0.1765829620399098 
0.0526544876280058 
-0.0946488769081536 
-0.004654526825041594 
-0.005731718766165216 
0.1534976325356172 
-0.1532427745158301 
-0.03211074037764151 
-0.09371823095062971 
0.07277116397907808 
0.05722689569381199 
-0.05780559300557061 
-0.1279424048319785 
0.2166383447517251 
-0.06420094638679587 
0.1635243934149219 
-0.08207326759078171 
0.03198497750769873 
0.007783348902587791 
0.1690561455421147 
-0.1233933159895971 
-0.137434089637837 
-0.08533390472971181 
0.2490368340614118 
-0.2061045287350235 
-0.02161280559422267 
0.06200071398226251 
-0.04449956607286505 
-0.1031177921314415 
0.06472975849113456 
-0.01929437076300926 
-0.08445559463799365 
-0.2492739866331155 
-0.1335828733446622 
0.08246645043920546 
-0.03780590893600499 
-0.08134387559982542 
-0.1059028579291715 
0.06332036317850082 
0.05905127020520937 
0.1452332402208184 
-0.2172490450809321 
0.05192633206603927 
-0.1994287775475627 
0.1362528534359175 
-0.1189790909854052 
0.06036933501826456 
0.02045190079888673 
0.06469403735348783 
0.0009536019832956412 
0.0396004500414627 
-0.1562028535517255 
0.06372726325542517 
0.0156624639539536 
0.04003967576855547 
0.03423078355437398 
0.08606883392742555 
-0.009316186443643957 
0.08077346499229594 
-0.08656497309946086 
-0.02975452611548075 
0.136570973435943 
-0.03579689138962931 
-0.1358240501802642 
0.2809348106234528 
-0.03080656228252985 
0.04768753886298385 
-0.06506501547691713 
-0.02141680053567422 
-0.1625680112361303 
-0.09488906937979301 
0.06004581661680137 
-0.1544101856150277 
0.09015556998255418 
-0.0885631837069093 
0.01794645801696556 
-0.03756293451585731 
-0.1102253059968286 
0.04088143309420608 
-0.09861922052758096 
-0.03890884661165982 
0.03093291812590807 
0.08481877437793275 
-0.2095289690331145 
-0.08831282058775128 
0.1728769001576485 
0.116681522300408 
0.0431627081409382 
0.0746291224193919 
-0.07566712678379643 
0.0225979050825834 
0.08559923465848103 
0.1581069360614373 
0.2268719090443566 
0.001850794982383942 
0.06277553035398338 
0.1542684625549277 
-0.1868756100781812 
0.1857556246854016 
-0.02097949335379934 
-0.02908992744977139 
0.02540339396885771 
0.2678108418944662 
-0.01056450320183291 
-0.004710388528635446 
-0.1093606786984116 
0.07243631712452345 
-0.05089102844386428 
-0.09070454354170834 
0.08843525306919982 
0.08386496992512375 
0.0002265450851216298 
0.04762990476864629 
-0.06484482847814563 
-0.04175975022041237 
-0.06974951383987421 
0.07324830053690351 
-0.01255456506364673 
-0.01382043265205587 
-0.01578279372567478 
-0.03004481312194536 
0.03585706639575157 
-0.03955309014119483 
-0.1111638932686553 
0.06063311727653448 
-0.07950451140984673 
0.1567909481404469 
0.006514489230927667 
-0.2339464468557238 
-0.1179331687295474 
0.09845501839315141 
-0.02218159480366015 
0.1331041932108508 
0.1406095995106111 
0.04466424435871234 
-0.0135170906702752 
0.1424599099524054 
-0.07982942805815164 
-0.02912833064095914 
-0.07038800147274629 
-0.2211907916901244 
0.1524276457421281 
-0.04337890836448254 
-0.006384407996063968 
-0.08000481519110085 
-0.03486075301829256 
0.1425634951119104 
-0.1090571334428395 
0.01447038966204325 
-0.1480517374159781 
0.1410556913422822 
-0.05017857662243682 
0.1045578530170851 
-0.01972228553548225 
0.1028494309588397 
0.03930326987136523 
-0.1213170641527266 
0.150385772780997 
0.2521856044228449 
-0.01823192255553086 
-0.02138095247888021 
0.02195451582493968 
-0.01351817776682648 
0.007109933629747882 
-0.1669382066016805 
0.1367068618666922 
0.05711220439841028 
0.1184828586357443 
-0.09588203559958319 
-0.1058069485347388 
0.1609609077429112 
-0.1126577537927604 
0.1526642943301946 
-0.1154816846288841 
-0.234020756447489 
0.02657704399656124 
0.08992522720047751 
0.2213695778663628 
-0.2876899295159815 
-0.1954825342484761 
0.0521014997347277 
-0.04762722801863879 
-0.015477753446938 
-0.03307406728742882 
0.1540704249154509 
0.209576359852226 
0.1529783262431697 
-0.2971485026579219 
-0.1364290295885018 
-0.1446216709754641 
0.05614683587531944 
-0.3142608180848165 
-0.2132156184688207 
-0.1710571202015582 
-0.07523661076688447 
0.1539149154305887 
-0.1756108843322109 
-0.02921427886995889 
0.09308375442329428 
-0.04864574997065412 
-0.01487092859311414 
-0.2791313779842102 
0.1670745461192436 
0.2611924820605029 
0.1905530049666754 
-0.1075212812558989 
0.2996612905573202 
0.016916556421896 
0.4092279764897548 
-0.04977920211524836 
-0.02010400587504723 
0.09577834510271428 
-0.3073103956379431 
0.09393513401077533 
-0.440375948895203 
-0.01121483508512115 
-0.09384211911975222 
-0.1204277851434394 
0.1724669518697243 
0.1311777250531586 
0.1733322272963373 
-0.06917511950469928 
0.1210455822884479 
-0.01242244276313944 
-0.07181942230849467 
-0.1319146003448364 
0.2558086319388178 
-0.2385752579609748 
-0.07628950581843799 
0.04196258805502055 
-0.2771665467562321 
0.2580739444195856 
-0.01133556414954067 
0.04112269962752234 
0.01289377083619167 
0.09348388281600824 
0.2528677110205312 
-0.02857275097581338 
-0.1432023930041701 
0.04000262630459294 
0.2023328154998245 
0.06659889895991054 
-0.02417262974145347 
-0.2019366294791772 
0.06703656322672202 
0.03739963691501746 
0.04106302784143945 
-0.0537970307718471 
-0.2322012093662642 
0.01826100833843685 
0.08718756124099364 
0.07521345636493329 
-0.05630917079494961 
-0.07198986665722483 
0.1247408541572764 
0.02393628387631714 
-0.01205126246790538 
0.09356435934502531 
0.3364292570686261 
-0.05458336743545917 
0.02166048079133033 
-0.004344423417627878 
0.204277670512484 
-0.04112687018584903 
-0.2212347718325902 
0.01851029325412888 
-0.1866464179498641 
-0.1606060352459932 
-0.3521713685388437 
0.111900400217171 
-0.3307985640131477 
-0.2861380348883801 
0.1130759941813622 
-0.07576149669495878 
0.1386731117319244 
0.1704881324254775 
0.4240786149749987 
-0.1747926483446459 
-0.154182543754058 
-0.1609678853500532 
0.1553628641863507 
0.1337375345415674 
0.01394630147576253 
-0.4178255696144359 
-0.4304003961685705 
-0.1611224578684113 
-0.04138479109245609 
0.06789306687215785 
-0.5519091148893588 
-0.01101881565107899 
0.1548683319118818 
0.1790707114475552 
0.07651555872157993 
-0.03442058267036943 
0.04259945235074464 
-0.04346373139632979 
0.1471610280839639 
0.05664144852188686 
-0.2155352730726431 
0.1199256165707306 
0.1623146763432528 
-0.01056973610133107 
-0.1599310256276247 
0.1268883906372687 
-0.01295314853014501 
0.07747764623866046 
-0.1893674242875248 
-0.09447509587400418 
0.04406677752496207 
0.1284878726652031 
-0.01948739568489067 
-0.05600380849557574 
0.07080799329121172 
-0.0413987677899384 
0.1338391826944915 
-0.312095259638315 
-0.1399256696922495 
0.0380065888406677 
0.2471925154296452 
-0.02677082926859834 
-0.3474457170425556 
0.1710275803176531 
-0.1559413572433996 
0.05437245200335136 
0.0009131913902852541 
0.1095775037109444 
-0.08207602513186596 
-0.1246144959147357 
0.1268272192422654 
0.0202691183958414 
0.1729604937244457 
-0.01453164875378314 
-0.03866453338470217 
0.03713296079988637 
-0.08522794788696274 
0.02857174216604889 
-0.06843721505028513 
0.07551606073520233 
-0.01166504592755479 
-0.04602144057143784 
-0.06605284753037285 
0.03208219952749585 
-0.1196203945436902 
0.002424330894051244 
0.06365996322060888 
-0.09733770312006684 
-0.05119176478314688 
-0.1132499338777118 
0.1328444249430946 
0.08661750999405694 
0.2034084080699599 
-0.07673298802768962 
0.1173523109458464 
-0.1168976091110687 
-0.03457494318995627 
-0.07017163969592273 
0.005567309539772664 
0.1591639325056614 
0.01793659358519068 
-0.03514842240007503 
0.1329736077191683 
0.216274893407421 
0.1145611588742726 
-0.03954347760169372 
0.1010936445334191 
-0.01158718433893923 
-0.0509152308047153 
-0.03175528643298253 
-0.2069356223108147 
0.05488868223425082 
-0.1238023348534752 
-0.1442339008388975 
-0.09973276798983011 
-0.1542133852005985 
0.125577889925102 
0.007862217706556282 
-0.03783837669938647 
0.09352513949634449 
-0.08498104954077811 
-0.1374170994794088 
-0.01223445572844361 
0.2158894564655522 
-0.1399422587788581 
0.04491601025106476 
-0.03727950238723297 
0.0804808119414579 
-0.009616572666122529 
-0.02248860721536143 
0.1644244980987048 
0.01742380627227036 
0.102775480418243 
0.05461212077075027 
-0.04385963859857457 
-0.02314322287308773 
0.2432465015133726 
0.122171657614643 
-0.04185121748183052 
0.1881365511090174 
-0.08221391406393321 
0.02717674229562337 
0.002006844888758488 
0.03624503676954316 
-0.02176662325712407 
-0.03242754708723682 
-0.00357553424299131 
0.0521070335982146 
-0.009702448674869271 
-0.04228847736173204 
-0.1887063934256014 
0.03224877720335628 
-0.007732304025973825 
0.1212743936371944 
0.05624333787096898 
-0.02884452631377858 
-0.08823206573438409 
-0.2432335190981767 
0.09056465682398342 
0.1004104809621372 
-0.04137044967353923 
0.1046355730782706 
0.1084256673440963 
0.07275107105256884 
-0.0003371109949245947 
0.1099727522935349 
0.1477804783884315 
-0.09455228374734319 
0.1987616542038461 
-0.0915278184474534 
-0.1538346602210044 
-0.1313334213464246 
0.04892024448690543 
-0.2157942861633226 
0.0797259009565716 
-0.06135730271224776 
-0.02820951953982357 
-0.06399301886497119 
-0.1049130617420399 
-0.02871340761246364 
0.03730495535818971 
0.04870282047495713 
-0.03190372476955137 
0.08351850390521859 
0.05914315106557087 
-0.01493702970132245 
-0.04797169462009203 
0.07433583114293033 
-0.02591515507688929 
-0.05917997035195099 
0.1879153747759441 
-0.2110272125678573 
0.09577664130628979 
-0.04727997758640986 
-0.2149120754094213 
0.03727786361420705 
-0.00742261406821479 
0.07663008449133607 
-0.06793436920173732 
-0.2655229128379838 
-0.05672748408947666 
-0.1230936164427758 
-0.001393700145692943 
-0.04037414702978195 
0.05815249689315214 
0.1223369929798329 
0.02180037022154411 
-0.1188272300997874 
-0.3657109612641324 
0.003629738072082051 
-0.1931719707220677 
-0.07138004638784745 
-0.08765517828596732 
0.03548574033256138 
-0.1357770912316226 
0.1995255035341267 
0.06065644561554364 
0.0299083505610166 
-0.1292894987031118 
-0.08388829242506406 
0.1062265792752343 
-0.1254415539699988 
-0.01598470103180899 
-0.09185603131143905 
0.07682789021481534 
0.06475794189422487 
0.1607223287020134 
0.03449226020421571 
-0.08338159805016233 
-0.2541715618565331 
-0.08761628596722228 
-0.01904631904985465 
0.189052054367129 
0.1400961215663242 
-0.1492606180014 
-0.03880342705368488 
-0.05947648782220905 
-0.05899132928772433 
0.07512201493271112 
-0.07878485350745147 
0.04314163367353264 
-0.01366865894462251 
-0.1229515658411679 
-0.007641624580355533 
-0.01180482238115374 
0.1237756230235334 
0.08539384387031852 
0.07485377832643686 
0.08304791259133444 
0.2320069700212522 
0.1226061596763209 
0.03720458933890235 
0.1378004801251825 
0.1249125670406612 
-0.2041026681916623 
-0.1016370949755381 
0.1421242503566761 
-0.02546849538747788 
-0.1711193731270885 
-0.04000531564312833 
-0.1628169282981611 
-0.05067684832847422 
0.1982477289587432 
0.3289874941538153 
0.1223968509549637 
-0.0753373199615933 
-0.1117988656132541 
-0.05071710185219945 
-0.1266115324075194 
-0.1459632140336899 
-0.01657066372360575 
-0.07960272570854612 
0.1507085022237998 
0.01764515799670156 
0.263830783980991 
-0.1918826272534347 
-0.1635167001794942 
0.04812784186883848 
-0.2551722122835948 
0.1219939153017142 
-0.1177953522651127 
0.250782816955248 
0.0403734801409854 
-0.007409063618177435 
0.03048341544108777 
0.2367329879642847 
0.1806165510535677 
0.07193903872209462 
0.07681005011023673 
-0.1718556215384159 
0.0489584424248248 
-0.07928058998686634 
0.1511761976667338 
-0.05500749738606684 
-0.2157081682179316 
0.1024488920351784 
-0.07729448496436918 
-0.141523203955686 
0.05503009241493821 
-0.01390779460956477 
0.002927200683491392 
0.1128043640287365 
0.05033060864014833 
0.01898392118238502 
-0.09360254149492375 
-0.143589732078384 
0.04745212036207678 
0.03755260997338751 
0.1663474115729207 
-0.07636096841857881 
0.06234170983882285 
-0.1694752269230627 
-0.04693585695656382 
0.06706141564754027 
-0.276393727446668 
-0.1407357192125913 
0.07096871254058069 
0.2953975016475626 
0.05814120727860387 
0.2069095966635946 
-0.03559657055161999 
-0.0412731231318844 
0.03389222569113463 
0.01305931126877213 
0.1098190535723359 
-0.1070076155963009 
0.06168201862064328 
0.05203999211874094 
0.1797721276426547 
-0.1164662652162378 
-0.2907181774088184 
0.2609505797300884 
-0.1772592834194312 
0.02162101167836937 
-0.1144229212143772 
0.2615336974670088 
-0.06748409412213963 
-0.112884750260591 
0.1591039238313646 
0.2887707237545908 
0.1395601924105266 
0.07912646722982235 
0.1590223132951256 
0.1494911770139578 
0.03144708809237316 
-0.06283112093468311 
-0.03618165140464831 
-0.1777014113674676 
-0.0138659423049919 
-0.156203006736074 
-0.3601401401073315 
0.09617364866358823 
0.04283149564105174 
0.1776555633426603 
0.3108602170276519 
0.2689176799283683 
-0.07130317418716076 
-0.1406394727315519 
0.04826717972866647 
-0.1140516848697953 
-0.0414163175854357 
0.2077240971981865 
0.05184122573899272 
0.1708661622732661 
-0.07191786641309066 
0.1389306589141279 
-0.1600119005748057 
0.0649840162301865 
-0.1522173172784069 
-0.242293061308236 
0.129679599692593 
-0.08870903469215759 
0.08143750805896148 
-0.04156641700593727 
0.1836267432831099 
0.001908375790524784 
0.1930483061452748 
0.04874858013981964 
0.1616289246059669 
-0.08823767759395126 
-0.2587376636635249 
0.02774469026361626 
0.006775997828837131 
0.185581476152426 
0.09677491154197468 
0.08271644349692062 
0.05033344124785785 
-0.4022495925752322 
-0.06928321175909817 
-0.05034896613236285 
0.143402173819849 
0.163552209855573 
-0.04752533942071951 
0.2768642945708914 
-0.01930636125335706 
-0.1636868076573786 
0.1105378850838875 
0.1922226487496984 
-0.2094588223315348 
-0.01793037765385699 
-0.2240596589553689 
-0.1001248743250438 
0.06843104710812328 
0.1182185976332611 
-0.1698438155807887 
-0.02578671276600915 
0.1109206317779931 
-0.1672284297830798 
-0.128057006948276 
0.04212153997971727 
-0.02643484387009616 
0.1771967207662479 
0.06724745807275885 
0.08460499389542218 
0.05159079214358812 
0.063692787302294 
-0.03815795082155997 
0.1442191986179159 
-0.008667666837443333 
-0.1699064468471861 
0.02114273413264997 
-0.04806558224548686 
0.1679885220592824 
-0.1447550082808806 
0.08365476555805888 
-0.1062272965169804 
0.123750830673827 
-0.0004439081314915846 
0.09722595571908905 
-0.004734511732711728 
0.1379181389913877 
-0.1053984966357781 
-0.03235630973389603 
-0.0756930402172524 
-0.1875164178169534 
0.1760751963867245 
0.08428649008746344 
0.03255776446465464 
-0.08569076141212614 
-0.06470757414527646 
-0.0229670547687625 
-0.1693994971209553 
0.09639245516118029 
-0.04196541666039497 
-0.08612640828110485 
0.004618650701729651 
0.008720203805282599 
-0.08619442475267099 
0.09187594242984845 
0.1401224499127811 
0.067164313397531 
0.07595681904664606 
-0.07142245500122511 
0.2130678495630356 
-0.2619701026910545 
-0.07867649552894672 
0.2177894358805253 
-0.01432510731754206 
0.0005014292555378877 
-0.1248571809304689 
-0.1908017122621764 
0.04498818802423092 
-0.1199772298710667 
-0.08424344062230722 
-0.01809288480567477 
-0.06372593138259519 
-0.000730678320244038 
0.05958532533581046 
-0.03062954635676334 
-0.2505563253505451 
0.2149595440393196 
-0.04142441263271497 
0.1994549294918729 
-0.02836715211335335 
-0.2251764127943748 
0.05883307693849654 
-0.1295636604988643 
-0.04981053761489984 
-0.0303154348498705 
-0.1279192963955375 
-0.03314160049733992 
-0.08231055801060293 
-0.03050152488554175 
0.03265401303864568 
0.08232380594321287 
-0.002630011202485163 
-0.24720459510039 
0.02867017504533052 
-0.1686968043025625 
-0.08954830795313401 
-0.07726570347559807 
-0.05121527240708322 
-0.1609104393201634 
-0.01809558456230293 
-0.1746071827924455 
0.1449116020986265 
0.005519313610308983 
0.02625774805456587 
-0.1772784808240672 
0.1919028807006083 
-0.003226881711905025 
0.04233295009604218 
0.02061693072663064 
-0.1619706967585036 
0.04810190329544312 
0.05039651210660734 
0.01069867187339293 
0.2573558716592342 
0.255559731358433 
0.1712051971276656 
0.1416517663813059 
0.100534674083181 
0.006241372837472792 
-0.04908792924118346 
-0.004106233468393942 
0.130478467359074 
0.04500682948551465 
0.0679705135686289 
0.1866721348063176 
0.2618169256552418 
0.05744434633020067 
-0.07476388413094483 
-0.2139130014026178 
0.02772077640266132 
-0.1416961814506261 
0.04520722895500411 
0.008970513412892078 
-0.008842921355601613 
0.00642753670341775 
0.1043869548659197 
-0.005982746845508162 
-0.02614672200815667 
0.0385044539927949 
0.0808483591714704 
0.1218172424881957 
0.03932606066672369 
-0.1536457897532755 
0.04336095206597815 
-0.06617533297785982 
-0.04502780330097977 
0.0239823370698049 
-0.05146661906410441 
0.01320625369162761 
-0.09055105103513969 
0.02356612758634333 
0.1639525153100139 
-0.06144203672961535 
-0.02443615532493948 
-0.165629334073433 
-0.1390672534266669 
0.01423414139998487 
0.07866772641668435 
0.1200759383194253 
0.05162797971064729 
-0.04702093949466247 
0.0408439665055314 
0.2252955455569743 
-0.07942589419700188 
-0.0297750945320833 
-0.029403955802234 
-0.2007791168233328 
-0.114082355744254 
0.1841731813433488 
0.1212275075848195 
0.1761642632414211 
0.08624694096021247 
-0.1562930232877104 
0.03445252676793452 
-0.07029038948586315 
0.0568284875444075 
0.05960894758861635 
-0.1670072113183935 
-0.1691812330218849 
0.06366400627857124 
0.02116453071637489 
0.05322480882759502 
-0.2009938293015118 
0.1131433068522362 
0.0395011515852808 
-0.02832525427652504 
0.1083628101399234 
-0.02859445544148493 
-0.2760152164558045 
-0.1338754252112561 
-0.1208396308948186 
-0.01013413460467743 
-0.1977051739609011 
0.3051475780532451 
0.266606032876397 
-0.1009750335595191 
0.1387900155559293 
-0.05286313042017295 
-0.002525243824435103 
-0.2761448134144666 
0.003784762453004472 
-0.002349288686306345 
0.2074993697088051 
0.2117351249554506 
0.1503263971723629 
-0.3003734308766842 
0.001782683236918482 
-0.09052191540526251 
-0.3043254366116103 
-0.04882729258785282 
0.2381462164352401 
-0.06282162664002749 
0.04934685351387705 
0.08843145417485829 
-0.05707661175081911 
-0.1474586487062648 
0.1506282541174697 
0.1056927152910228 
0.2070343431249493 
0.1555999036900081 
-0.04353190229747845 
0.1607296395805285 
0.06945778844716165 
0.04202615134725834 
0.1583760570294177 
0.1689889571378759 
-0.1081024487958962 
-0.05331974390705196 
0.08573376971033138 
0.1668674535547393 
0.1273638693294346 
-0.1323501859672885 
-0.06064335999877039 
0.02845424371564113 
0.184897399349276 
0.0557504149738538 
0.2645268621440893 
-0.02633743630660577 
-0.148551451330273 
0.0445887555196227 
-0.0490828303585133 
-0.07374522052594279 
-0.007719254678815049 
-0.04933803964540515 
0.09192471106257953 
-0.07924642930948811 
-0.001086781747628983 
0.1211654470600578 
0.04403574830506026 
0.183610075393787 
-0.1082387588719547 
-0.01691140733059544 
0.01853730764260099 
-0.008156551766502684 
0.03640366144345027 
-0.07094526333091183 
-0.1662620686437521 
-0.1380508399662678 
0.1721392851647094 
-0.1819061223311816 
-0.2895549692633295 
-0.002320835945133328 
-0.1067648742094123 
-0.08159162523868098 
-0.1521512803256596 
0.1240273253835251 
-0.01896145207384119 
-0.02859205823593421 
-0.01612621564494742 
0.09401020648903155 
0.1312625806103719 
-0.1491447947503008 
0.03865111249869536 
0.1805470207740393 
0.1963683035951264 
-0.05770883783403109 
-0.01750159405556024 
-0.1597907649346057 
-0.08115079885005295 
-0.08769171601217729 
-0.1007796886961254 
-0.04131618041591472 
0.01854108209567411 
0.339675464039824 
-0.1990966147372044 
-0.06846313701432484 
-0.273389090195335 
-0.09836119449425851 
-0.09483962224834991 
-0.173264821553038 
0.1955774332171558 
0.1507608028538087 
0.03914862270858287 
0.1085314906365812 
-0.0618669203230004 
-0.07348397682729607 
-0.1892338682259266 
0.08068663609648755 
0.1311430209807476 
0.06851449972111379 
-0.142505388336785 
-0.04482555649792576 
-0.03015740029609178 
-0.006389207737158986 
0.08461966414964116 
-0.0111136176526032 
0.04096738638576899 
0.03300715078949305 
0.0507933539882232 
-0.01137889969821779 
0.05519605191216166 
0.02251555960603282 
-0.006920698320103188 
-0.1017045669329674 
0.01915467936666351 
-0.06057432195130644 
0.002771736690354831 
-0.1790759954748857 
-0.03405039754979765 
0.09225607996774673 
0.07587826002715173 
-0.03927260575473668 
0.008223655469671947 
0.0001020473136229243 
0.2728691731702904 
-0.1318717503157967 
0.1161814251936517 
-0.1550506285507966 
-0.3366309467479828 
-0.06261764552767898 
-0.184274904737046 
0.01983160491170165 
-0.1426371054415012 
0.02088925981772348 
0.02714362882331935 
0.1089510271741683 
-0.03009460946766427 
0.2644151245008267 
0.08277427926244021 
-0.1324504380048694 
0.01478414792645615 
-0.1810787715716682 
0.02562330942562524 
-0.01707433942527614 
-0.09735458940163659 
0.1124604686219806 
0.1018166272297783 
0.07556663608738116 
0.1275376778748815 
-0.2106256011057553 
0.02220278730790399 
0.03943109981451004 
0.0007580468401976539 
0.2297502278391361 
0.06071327794224543 
-0.1931424960045136 
-0.1002122092508645 
0.05067372642459081 
-0.1098600283410026 
-0.0218202146215601 
0.4401122570420767 
0.04777167578683796 
-0.0003914836498649284 
0.258116235349609 
-0.2324998975378011 
0.0154100861178225 
0.1240030449397803 
0.1107328564046189 
0.1015789226981437 
0.01351643959735538 
-0.1463101778955965 
0.1449938528275443 
0.1543346208871439 
-0.05199953359450944 
0.06854557917577501 
-0.001621437315601533 
0.04808531003553212 
-0.1189818970321687 
0.07470233297067626 
-0.2229612158403938 
-0.2390277196675412 
0.1131516895819876 
-0.1415929156794596 
-0.1253354684676158 
0.004591006604921109 
0.0496699763278401 
0.1323424914511594 
-0.178561512276819 
0.07643274444668308 
0.1152237183623807 
0.04915651314944377 
-0.0629703102900746 
0.06316498389351034 
0.0598644117115627 
0.2001880732791033 
0.1512586319203559 
-0.01197919665971364 
0.0716916527337092 
0.0606274320207954 
-0.0672948953726874 
0.1226397303668441 
0.01387067488551042 
-0.0268467992481214 
0.1773230945990948 
-0.05077736248551473 
-0.05953705554501831 
-0.1380896036046008 
0.08781886475147563 
0.269391302494468 
-0.0821514685478503 
-0.02455731936750798 
-0.07008544598153855 
-0.1878231477716768 
-0.135388286994972 
0.1662081858109084 
0.044206700170709 
-0.1279857133333172 
-0.03496414977316233 
0.1473697538429862 
-0.1290116290265079 
0.05754878234130328 
-0.07418325113533253 
0.02645373675350355 
-0.1393550082225965 
0.05506398139136734 
0.1597888392784715 
-0.03583490214911286 
-0.1733771768123465 
0.05220621385414854 
-0.08723633174233504 
-0.03674973142128544 
-0.0003929025091396879 
-0.06240667586994977 
-0.2322534115264608 
-0.05043903827406247 
0.0675584177565817 
-0.1482535141874085 
0.1952832283448753 
-0.1248835923970558 
-0.1536139014986348 
-0.1400459407817617 
-0.173791957547435 
0.002764981728201911 
-0.116911990313228 
0.1409646422662095 
-0.03221815622375337 
0.004320481920298627 
-0.2267371652515188 
-0.06120786215120717 
-0.002800719275703583 
0.09976276135647809 
0.1303001988536239 
-0.02620654082257791 
-0.03868629545634249 
0.01029587273847168 
0.1516175366265634 
-0.02494065044860081 
0.1961146658709741 
-0.01424323571095534 
0.03518813727269821 
0.007931864311874757 
0.04752450616835443 
-0.2014762690778248 
-0.0439798211945344 
0.1172884240147409 
-0.08017875610502852 
0.1960276681371548 
0.2737236646914855 
0.004089718756492835 
-0.03628240742275134 
-0.01429467593692964 
0.01961023006238504 
0.01801432298099996 
0.06093838407588944 
0.02792668271816146 
0.0761915693853225 
-0.1448124783304044 
-0.04054747511090218 
0.1085711085033692 
0.04134391906547333 
-0.1373465697861497 
0.1846456994103253 
-0.2102326747467724 
-0.01418672021678326 
-0.1625630356773834 
-0.00132037890568962 
0.123492930679288 
0.1834098809720751 
-0.0405123911019873 
-0.08251874025661415 
0.02759056206758632 
0.1973366851638596 
-0.0818240851651271 
0.006764365369787618 
0.06926643369848492 
0.01954340854161918 
-0.05757328366702839 
0.0775298477600663 
-0.05627669109460339 
-0.05505184529801731 
-0.1724269454305118 
0.1880017412483811 
-0.01148508627202615 
0.1786482164443555 
0.06652463065088018 
0.05108330239449844 
-0.1969768709710533 
0.03379502053452529 
0.06597000377758853 
0.1212885321092865 
0.02101719802090427 
-0.05587508756536057 
0.01115749985355511 
0.1182327738328563 
-0.05808091767122785 
0.08823077596561112 
-0.2718087902764847 
-0.04363268044945936 
0.003309680335104202 
-0.3491658421606858 
-0.09264150643758444 
-0.1696550054755015 
-0.02863353955601544 
-0.1720114213352487 
0.1084229431762655 
-0.0002802159935028003 
0.0402106119628478 
-0.1518195837214524 
0.1267614020177343 
0.167371842683736 
-0.03052022193308826 
0.05689227801819414 
-0.1004785179358671 
-0.364626687502091 
0.008368639818896179 
0.06834693241140116 
0.01540453482953654 
-0.1228748513337675 
0.2715916373263478 
0.2250341978284068 
0.2583523745292187 
-0.2212551661278184 
0.02561336003713033 
0.04701213537830026 
-0.01415030459381736 
0.02576322420553901 
-0.1952811989077945 
0.04706994020529607 
0.04066551172111887 
-0.1561661345400318 
-0.003730662881748079 
0.0366993642520337 
-0.1353789462004336 
0.1251389394500481 
-0.02702829327546052 
-0.1206467186183201 
0.01034801185557514 
-0.2105467234303308 
0.06632027508045552 
-0.0165719299548589 
0.1450530112994851 
0.03995163032777541 
-0.04672085142016408 
-0.1992082935592017 
0.1800436644762144 
-0.02743039003616181 
0.09135838645785528 
-0.02634684044338174 
0.03572210595000577 
-0.001928785684279434 
0.09268492294430578 
-0.05700316815715188 
0.09353591249439744 
0.1082408688381476 
0.05500643003081376 
0.078102478513263 
0.0003205275551580635 
-0.01320294298380449 
0.1317922069718775 
0.148695404047009 
-0.1998085814394447 
0.1499728001320425 
0.06511378683829157 
-0.05588602428517267 
-0.04750286201340267 
-0.03598124026325793 
0.1285732883870807 
-0.1181257225135931 
-0.06909552888280072 
0.2950143715382048 
0.07440744438892889 
-0.1361865084730879 
-0.05111282042985114 
-0.1202995358345576 
0.1609551415378918 
0.04964079472244016 
0.008590170371208171 
-0.1980395619749532 
-0.05482018430085358 
0.0873466445278782 
-0.01873894801315298 
-0.09677558567851911 
0.04733496937071861 
0.1199586691815837 
-0.142715571697722 
-0.07560004275225146 
-0.2519448205168379 
-0.05398714470184093 
-0.1054557730655519 
-0.01519735076453344 
0.00704090821685952 
-0.04041740046282035 
-0.05896115248621959 
-0.2725121068733646 
0.2696187347976409 
-0.1096237981435193 
-0.07195693924606078 
0.1316062312428952 
-0.01895828870827944 
0.0827445683751563 
0.02331937844134122 
0.1036679119080204 
0.1157019179094611 
0.004496700736716024 
-0.05628590082431707 
0.004959524337750761 
-0.08759711128850489 
0.04172788050505909 
0.004788780985956471 
0.07905450039396837 
0.04865588551500598 
-0.1371071114191805 
-0.05957801111404857 
0.01639114612998585 
0.3130955282745043 
-0.0912150574742043 
-0.1730305358566026 
0.08275155546945286 
0.09346960270296252 
-0.1704896437842038 
-0.2846624966999273 
0.2101545593884778 
-0.05213866808531864 
-0.00443659085271604 
0.1415699456320326 
-0.07588212614502847 
0.05810927831077304 
0.1333944597901992 
0.1917123927030436 
-0.2601409998024103 
-0.05056477572508896 
0.1303786804393753 
0.1453498059007384 
-0.0992427515535546 
-0.1680049639510277 
0.01834891994632502 
-0.1566221571042598 
-0.1810722029917717 
0.2051393845522607 
-0.1363459228779895 
0.1090637622496603 
0.07442075551687585 
-0.08828342701962327 
-0.09158196328210827 
-0.05884769290920715 
-0.04122116806452476 
-0.1164341773842093 
0.1909703608231278 
0.003152353918996851 
-0.02023805535013671 
0.09678738976190975 
0.0200921864401379 
-0.1048996993710139 
0.263767840740764 
-0.1773696979973179 
-0.1094394501327206 
-0.1035457311631661 
-0.1329816853572088 
-0.03951811441393235 
-0.01590362507858438 
0.09310304628679913 
0.01989213841355921 
-0.1648155729420899 
0.08073864277513257 
0.06678415921424104 
0.01393662486058903 
-0.08547667706840735 
0.318532221969717 
-0.07929665055705835 
-0.03476403797274571 
-0.03196941475438477 
0.03140724347046405 
-0.04972552917646235 
-0.03039661610650468 
0.03314278325893363 
0.03853750905953741 
-0.1449697319287181 
0.1605122580685365 
0.005528197457822745 
0.02244510533502038 
-0.2299743896726432 
0.04670102283745225 
-0.0937755656869305 
-0.1129221269926431 
0.1009177111170323 
0.01573168630681398 
-0.04123699462530616 
0.2224893958062825 
-0.01573873889464311 
-0.1076560187563493 
-0.03972036250619887 
-0.09290369252942854 
-0.1355580505055972 
-0.08266182511030498 
-0.1757450829509086 
-0.2214559316154945 
0.05177821018960993 
-0.03970602772180776 
0.03175846491519152 
-0.04404543442809433 
0.1056806025719741 
-0.09480721435838506 
0.108233554358187 
0.1736871334026208 
-0.2350834647233984 
0.197679280528036 
-0.01635336244039785 
0.1390476328430473 
-0.1033442159427787 
0.1812794564944642 
0.2773546406271153 
-0.01645787439522181 
0.02174315211205922 
0.2399881570719457 
0.01174640386828552 
0.07543119037873006 
-0.05768642841354076 
-0.05068335296431482 
-0.03996183853963507 
0.1149111605365387 
-0.06365794176747165 
0.1106013348291358 
-0.1671374151918761 
-0.1376592135085155 
-0.05657996620884456 
0.1250115356564764 
0.04798450184758699 
-0.2513198719196201 
0.04356657344311027 
-0.004605538978883509 
0.04100922136808895 
-0.1205296819871847 
0.06469533692790734 
-0.04451805520597327 
0.1316235241240138 
0.1042736013750508 
-0.1094480523925498 
0.114119026596377 
0.04426277469221887 
0.01110874880365391 
-0.0621313633093805 
0.07736735968435746 
0.2812621794838018 
-0.1901697502976538 
0.1259393443487852 
0.1131270031637134 
-0.007757278560836106 
0.002915958974831769 
0.1278872275119423 
0.0745045877784198 
-0.157810301196191 
0.0317587821454998 
-0.06077412903363996 
-0.04579026646355421 
-0.04634931776306005 
0.08162914380389681 
0.03193459765030576 
0.2180460327778655 
-0.004904855155347464 
6.267078165786064e-05 
0.06319748936251592 
-0.1082327812042633 
0.0008109487981005937 
-0.175043832203045 
-0.0231873770389141 
0.2640085343181227 
0.115012064477367 
-0.03881236585560543 
-0.07346790743153968 
0.1374982333786817 
0.05553084395013586 
-0.04811826662376025 
0.01642900733133941 
0.01673284286319027 
-0.09247989567377232 
-0.1052051408952679 
0.0494837497700903 
0.08237657165567219 
-0.01703062459403765 
-0.01544241821194978 
-0.2529105277157261 
-0.1863394939373376 
0.05586045060343232 
-0.0817920026460507 
-0.247264234378529 
-0.0148797949853767 
-0.2491641119193619 
0.02515853041084246 
-0.2071276787186947 
0.02618134634493739 
-0.0006639338659088243 
-0.03788723749312841 
0.0004086396644896419 
-0.08742740028038817 
0.1093670390125699 
-0.2201881100261802 
-0.1987671254310167 
-0.2490702177915382 
-0.04056008995673987 
-0.1319347123203945 
-0.1287474681970897 
-0.2302796581122942 
-0.1551825847195003 
0.2055338963471079 
-0.1036244094847509 
-0.0002684257343218709 
0.1475500940874532 
0.2017673038812727 
0.1376731398009815 
-0.224331741040823 
-0.1084681588054255 
-0.08755660223779066 
0.1022044404761001 
0.1952331973946869 
-0.07005992026161934 
-0.1341271837375975 
0.04916829932188053 
0.09301928987685919 
0.1191507467093129 
-0.05399126083540414 
-0.2454932926543906 
-0.06225621688580823 
-0.1378086958328169 
0.1223293585719439 
-0.01246252763218038 
0.0598185626585106 
0.1426196134962621 
-0.03851832907618825 
0.08226942666109115 
0.1600565264999202 
0.08577029715174005 
0.03430119722353712 
0.08844225859686695 
-0.04582155689007026 
0.09462888132199544 
-0.1016631707412843 
0.005498873694674879 
0.1386986431546249 
0.06950658354407865 
-0.08367546506814705 
0.03187795016375858 
-0.0331323747530884 
0.1428518765044951 
0.07389086137193421 
0.18033530231189 
-0.04002181818841889 
0.01672731444334539 
0.009934932694749782 
-0.08387853206348742 
-0.227841890560796 
0.1456689569880646 
-0.1187551851582705 
-0.1538081524688605 
0.110524097507524 
0.02163708010084602 
0.07042178451190742 
-0.2080528511865613 
0.07342384410438681 
0.007590215140351709 
0.2031892796226098 
0.1860184983899159 
-0.1160828559342583 
0.04764239305654701 
0.07151968936082682 
0.032141303346946 
0.147135629170612 
0.1292083693166994 
-0.289038973297864 
0.05761763179638758 
0.09507701541294483 
-0.07705349616046279 
-0.07819859468460472 
-0.2847768762071636 
0.01178799785793014 
0.1526895184171111 
0.1088310291174827 
0.08707615769276138 
0.001521946741656281 
0.1236785974362124 
0.1297710171229592 
-0.1340598074674347 
-0.004004906753224371 
0.1845510134798777 
-0.1182218657522118 
-0.1772878383900312 
0.07877139741656035 
0.1520294060624912 
-0.007207316046658773 
-0.08425622859904019 
-0.0711614236672173 
0.1573691684144211 
-0.1236711192369391 
-0.1181827605369406 
0.137597826856265 
-0.1977422870963993 
0.06032507537571484 
-0.07696510578375494 
0.0910940554721985 
0.09036107473154099 
-0.05347981772946428 
0.3187398852989909 
0.1978390169526919 
-0.2096545602468839 
0.1080111597941291 
0.02467698741693308 
-0.003159203693091658 
-0.04557290051219839 
0.104717521741076 
-0.009706987759689206 
-0.217611554814063 
-0.05560850937247407 
-0.258656481106127 
-0.01457590787736839 
-0.09001833569216744 
0.1366049112097976 
-0.07069634643820555 
0.00881814075735768 
0.005231011570724528 
-0.009330114737783541 
0.01136808823652502 
0.0953360665665238 
0.151568608406644 
-0.0006295609241089168 
0.09089634995075792 
-0.2864297564568508 
0.05490233512323034 
-0.1276069499783291 
-0.03889879738287459 
0.1010570506916594 
-0.03850283417394666 
0.01893271598518736 
-0.1020351112615054 
-0.1372191665900881 
-0.02579951961743805 
0.1715969145855608 
0.002454055262338027 
0.1101376345264422 
-0.08705491992431266 
0.1965959436665546 
-0.006742675662934456 
0.0003295971354138098 
0.1464471986280895 
-0.05613811834111496 
0.06489835632734681 
-0.2202322422594694 
-0.006895642445181643 
-0.1303658518285239 
-0.2778644048075454 
-0.01856831110046529 
-0.04687220583388402 
0.07634951711000354 
0.1396954206486498 
-0.004138103766177115 
-0.0671501418196542 
-0.2444746207560157 
-0.05041819561294867 
-0.006794727629436228 
0.1574253130870115 
-0.07638829735172545 
0.1401874477816787 
0.001862031203717565 
0.1746436091044402 
0.02100703499207264 
0.08939922918457517 
0.1195903409073878 
-0.07390150749572613 
0.2654598941116497 
0.1874110025466265 
-0.06568849030358846 
-0.10330521936275 
-0.09779436534581826 
0.03876449019894507 
0.08790336895383488 
0.09009317843352416 
-0.1108295671436529 
-0.1428661402048416 
0.01997224457488972 
-0.001333680133477534 
0.06335728143581648 
-0.01937263087553552 
-0.0204310301687797 
0.09986779022483888 
-0.1457379276665954 
0.1346429320035512 
-0.09097907685809599 
0.09328844757793532 
0.06917028067437317 
0.1399885278553705 
-0.07340464215731902 
0.1343373751517758 
-0.0384188960647668 
0.1577205056749445 
-0.1534381213085038 
0.1087103981139427 
-0.003464177410432327 
0.007077545683121529 
0.04080386090247347 
-0.02934313947649476 
0.0424873073389988 
0.08588752993251152 
0.0416535418192375 
-0.01687680398144992 
0.1879309074127155 
-0.09202226380675688 
0.1004949169307595 
0.09515332772428862 
0.01750534525257643 
0.02213508868968155 
-0.06385198681805018 
-0.01126551570535754 
0.04862428180250913 
-0.02523358626782177 
0.1339298613379401 
0.1226415366388232 
0.0665309910566871 
-0.07485741537307529 
0.0621429929836079 
0.1351683611331036 
0.003149971863250312 
-0.0635854310828453 
-0.06978211715107473 
0.06321818098522206 
-0.1196879295620781 
-0.02705671501473147 
-0.0484889836288406 
-0.06257603435312684 
0.06092063697815238 
-0.1873735377379069 
0.008887913193401599 
0.02233415373505499 
0.0748216180969674 
0.08943321789429651 
0.034599374632344 
0.03002341178191694 
-0.01358861316892826 
-0.1589884589354017 
-0.0396075178228938 
0.2804386472645522 
-0.1817295733945009 
-0.04242184625718135 
0.05510636810693751 
0.1802586143936998 
-0.0959912730069282 
0.1654439212320334 
-0.1514189897854003 
0.1863685599182857 
0.05115429826496873 
-0.1047146760769466 
0.0215352460430953 
-0.2707910646323733 
-0.08895666175250071 
0.03154456319801175 
-0.02150311703635169 
0.06119024225109004 
-0.05023005724506643 
0.1427130424587525 
-0.1577376494847058 
-0.1044727097664208 
0.01445499628535905 
0.07876370015023587 
0.007444361152228737 
-0.09457614780703764 
0.01685281688325425 
-0.2526311869341399 
-0.27678059276556 
0.09515235856827942 
0.01579641693282141 
-0.08039239817723755 
0.08766188927242691 
0.1201106649471625 
-0.03082001331541059 
-0.006609280343724097 
0.1436081021422082 
-0.05688295277660444 
0.05904026513901478 
-0.04693970614089038 
0.2751076515265919 
0.04435273821651135 
0.127813013953235 
-0.01246942792782296 
0.1105873817452769 
-0.07598409583945026 
-0.009764537767484444 
0.0855444132344068 
-0.103688850199095 
-0.03391434280681851 
-0.1395171454555326 
0.1062190233046559 
-0.199178962559527 
0.04810521900306339 
0.003526841385157233 
-0.05617398923628367 
-0.01778434793080187 
0.1216687700954702 
-0.08578117550436912 
0.001913933345848379 
-0.1211557824602906 
-0.2837832895471671 
0.01405053164631181 
0.02331737181877667 
-0.01232722178102305 
-0.06588848606163705 
-0.07957972347361292 
-0.2963399992527967 
0.03599351768612041 
-0.1551281497783545 
0.06268949607280791 
0.005961702308255175 
0.04127044034860839 
0.1744096855845298 
0.01482102886770355 
0.05152717816656407 
-0.07233557763809903 
0.2149698827733486 
-0.06653281264961797 
0.1090842311650796 
0.00437540678282749 
-0.1886504964760397 
-0.0407570966130911 
-0.06604258334758875 
-0.07673233594871642 
-0.08605189255458494 
-0.07606060520939484 
-0.09188826494830164 
0.08307042806346537 
-0.05105005298567536 
-0.2793466384401906 
0.01491183228309498 
0.01320642073765913 
-0.1478491196342121 
0.1063778527427211 
-0.1419344485311035 
0.2433709835438242 
0.08139903338049673 
-0.2256155704965209 
-0.08797905417881402 
0.1660828494509616 
0.2781927326355108 
0.1501116943922837 
-0.09263032081841201 
-0.1504331009208347 
-0.09930792523314928 
0.04805142320119291 
0.09970715018328645 
0.03185738655113435 
-0.04927592125755247 
-0.1604450046024017 
0.05744337393085579 
0.02219605257581454 
-0.05789137284732146 
0.07657016965858335 
0.01269222252434642 
0.1018589388327601 
0.1303584909688693 
-0.08277513545120725 
-0.2162635261645563 
0.1040675444340931 
0.02170034305142364 
-0.0009864678981615165 
0.01565681341831221 
-0.06459442717644963 
0.1665556730683474 
-0.1029533400751166 
-0.1267133027363213 
-0.001263236035796957 
0.08128456402518025 
0.2580950425835612 
-0.009935153213145489 
0.02908316189258289 
0.1783594058556473 
0.001646585533536231 
-0.03787578844881647 
0.05619397617138373 
0.0501653071790309 
0.3039488946060455 
0.06515065635893917 
0.05337264934278294 
-0.01355272702376925 
-0.05525391803974879 
-0.09782270109341937 
-0.1701874387935345 
0.08192164633193331 
0.1976501690896517 
-0.05043220807732389 
-0.0804480235153061 
-0.1128086013731437 
0.05883674396666404 
0.1348258627831867 
0.1294022814842165 
0.1165901414898197 
0.0920125783557152 
-0.03801732048642394 
0.01593753777681999 
-0.09368434701884061 
0.005829300936898009 
-0.06091320920141199 
0.1599929478950116 
0.1641211175936664 
-0.1625857927512903 
0.01521602823432765 
0.09513884591367612 
-0.1468006038525657 
0.2861537223361029 
-0.0278074425938361 
-0.05316385789425001 
0.01116390422815431 
-0.00104188460762715 
0.1647412115671171 
-0.1208228823341954 
0.01975643560470962 
0.129513387419259 
0.04836460970807319 
0.02573327842435444 
0.1453087822282687 
-0.2131032859454506 
0.09789669987106583 
-0.02532090947454288 
0.1622011878677132 
-0.1156040728276439 
0.01849412157404342 
0.1846857195920179 
-0.1060549176032628 
0.1343580777047896 
0.1555988025808674 
0.3931320138236863 
0.1857413666110261 
-0.008616807851440171 
-0.08141327208586012 
-0.05002267899372902 
0.123467443121436 
-0.005479491006443078 
-0.1170609965534512 
-0.03751914833328113 
-0.1384642324609476 
-0.01948740123565853 
-0.1621887023635011 
0.08629699805185451 
-0.1602856733668348 
-0.07783009333264065 
0.0264233408676771 
0.1073779136380668 
0.01112159102303753 
-0.2011270981048558 
-0.005431944818776497 
-0.004153068199096 
0.06507454245675758 
0.1545784429227191 
-0.08823370696635263 
-0.1062504986675502 
0.0001178599940566344 
-0.1427503703902398 
0.08181822978449635 
-0.05911771553352538 
-0.08199601082389249 
-0.1580212461816425 
-0.2609480531925882 
-0.01806802234943819 
0.1399615172158569 
0.1886968646404275 
0.1812280413796014 
0.2241564159673829 
0.2279971998422741 
0.1853538835501607 
-0.05268428541978265 
-0.1246902201525491 
-0.1062863025263303 
0.0236133708325468 
0.02120314641934904 
-0.04370662587612734 
-0.07447786357380756 
0.1848907616885159 
0.3414249121903865 
-0.009377058912668452 
0.1087192132346621 
-0.06358848298920385 
0.01583618437388491 
0.03251601994357194 
-0.03146201874209938 
-0.0150223281596515 
-0.07447887870228387 
-0.05944348520856974 
-0.1497607227981236 
-0.2728016424909 
0.01162757233251487 
-0.09683088617102995 
0.1652897981159849 
-0.03672584866857531 
0.06968660896538367 
-0.1506852751567332 
-0.003055626105847067 
-0.1981182989630756 
0.08957610245796584 
-0.06172120712533038 
-0.1917804686031838 
-0.02482236101899194 
0.02650503971007675 
-0.007676448329135372 
0.0095760943086152 
-0.1361891965762953 
0.08393840711066744 
0.1162976121949634 
-0.1716848612286387 
-0.06611456636676116 
-0.03551790169967861 
-0.03578088200486035 
-0.136072549207846 
0.05465669335254426 
0.05087117247959063 
-0.1079036145559293 
0.2370409476844237 
-0.07654898884500426 
0.1574496632625882 
-0.0344288511198959 
0.1941609668921451 
-0.1043813335272523 
-0.07157422636379596 
-0.03456888332766839 
0.01577509167507219 
0.007619573419110756 
0.04594589026175244 
-0.09858967092821919 
-0.1648417969093964 
-0.05390830212888774 
-0.06509510810542334 
-0.02776867206889396 
-0.08309843677581794 
-0.08416310018423288 
-0.07278959814990375 
0.09773271622705251 
0.03470105454619737 
0.1142045567727521 
0.07087610687293139 
0.1808927281803128 
0.161853728255884 
-0.08050604954829747 
-0.1435526170803285 
0.02709486975776449 
0.1274026225466753 
0.03646405653498185 
0.2496613796017014 
-0.08835273998288429 
-0.03799978714002637 
-0.03237199666057277 
-0.1151254671434004 
0.1070523418830616 
-0.01029064120541474 
0.08947888004353549 
-0.05540910010741033 
0.07896486427483969 
0.0311970784464784 
0.1722467106484687 
-0.1507361972050233 
0.002077099006495118 
0.06665166992885851 
0.04741473204626935 
-0.04091607005253851 
-0.0716723056181757 
0.00860586505520375 
-0.05253362354281129 
-0.06180909488639474 
0.1668213066050816 
-0.05031047547579286 
0.04106691411627971 
-0.09000600476818701 
0.07228255849010917 
0.02048769886346594 
-0.01824992978059689 
0.01298538821490493 
0.1303500814657693 
0.08863645762583439 
0.1487738633725545 
-0.06736719357971215 
0.01826499620546291 
-0.006259909396213871 
-0.06820827643034824 
-0.09349863613596793 
-0.0508803035893183 
-0.09232870845001383 
-0.05226540332693796 
-0.03465328421925133 
-0.09858893080892971 
0.1605922649184355 
0.1593657893216624 
-0.1086025154825903 
0.02725464619757538 
0.1184459218474744 
-0.2132159498772061 
0.02388209589483331 
0.1568080381233383 
0.004261590521035985 
-0.04694946625673926 
0.01135587459516436 
-0.08898771338681707 
-0.01569894704095294 
-0.0784465149028012 
0.0101128244450889 
0.06092765804242781 
0.2047174595373619 
0.008666489684163722 
-0.05753742525826433 
-0.1424328103145167 
-0.1273049149027467 
0.05910580920475712 
-0.04621740517694502 
-0.1174034437476098 
0.1116778341732952 
-0.1117706654948663 
0.03648332327494147 
0.06556799301455343 
-0.1253060106839252 
-0.09260014021256856 
-0.06229476172381739 
0.1286613293431791 
-0.143708531812645 
-0.1660142590754702 
-0.1066970390063688 
0.07275317896279798 
0.05940186056579601 
0.3129578882530131 
-0.01291459943679678 
-0.1419356390936629 
-0.1440707311797881 
0.1036254354372124 
-0.02658481271245083 
-0.2044470614317969 
-0.01700959122202003 
-0.2076784920307364 
0.05756528392155595 
-0.0276732163598988 
-0.06131849560943609 
0.06869426309610117 
-0.1490518883913553 
0.0672373314608798 
0.05308199905663993 
0.1047649973612712 
0.04955858177613803 
0.004944010510709253 
0.1658077620907721 
0.04243111831518651 
0.0616512163662554 
0.001070506661293181 
0.2590683179504111 
0.05439559304280459 
-0.1976692587829923 
0.1069320547286954 
-0.2576669901601266 
0.1829163376490723 
0.03725965424626336 
-0.05397191404517687 
0.004316045136923552 
-0.0140756681913633 
0.02863512705239465 
0.1013856694338922 
-0.08789703130730224 
0.07818786100361505 
-0.029088067937079 
-0.06379966335819548 
-0.07639581268078283 
-0.1403791821303289 
-0.04378069960127016 
0.1119870844878065 
0.1346054074813492 
-0.2227301209242456 
-0.07580285738680352 
0.009863067057554272 
-0.07635448520110003 
-0.1406569025001678 
0.1818600309220186 
0.0442673456950697 
0.06338318655123518 
-0.1436753920014022 
-0.0339337692072646 
-0.09285625760736535 
-0.02370896850542949 
-0.1023893931370427 
0.1807661270128855 
0.1096235970064742 
0.03002820670129691 
0.09203995825192851 
-0.2311998595309868 
0.05229856550978377 
-0.02423282249207144 
0.1766359724881014 
0.08721014211186531 
-0.1468125698160278 
0.2255531346162617 
-0.08856320970324184 
0.02642818073752061 
-0.1684806476722701 
-0.005798334272808869 
-0.1897906251375511 
0.04258205180925199 
0.07373884691991306 
0.03728238075622144 
-0.05117394873746365 
-0.07057459525105393 
0.2920276560020543 
0.1055422539720702 
-0.03494763841234003 
-0.02910379543558923 
-0.003878840133651522 
0.005528990640872863 
-0.1853395992870434 
0.1181351129085571 
0.03854756689024705 
-0.02414382608904173 
-0.130211003323754 
-0.04638411806923947 
0.2343637060765455 
0.07356721760663272 
0.2180897360797329 
0.1694305085640184 
-0.07395535415213551 
-0.1505646197401407 
-0.1940066553280457 
-0.05896088942102444 
0.1045352252288494 
-0.1242620660990473 
-0.06259838026250694 
-0.01811816385838178 
-0.1400200105613637 
0.06932802355334643 
-0.01690953712777262 
-0.05305425595726453 
-0.009110027660179465 
0.201157546992609 
0.01784963060586311 
0.1697014184677098 
0.1021704605553017 
-0.1480051167286509 
0.2169150720228736 
-0.1799197078846067 
0.08797597235943462 
-0.1500841612056079 
-0.2137757766674722 
0.1172819769054634 
-0.05849110321964016 
0.1657421084663487 
0.06678892877963842 
-0.04125159141573453 
-0.1955875785002239 
0.1840634097060274 
0.1615711031909132 
0.1167276031409115 
0.1579463703436418 
0.2459707318141542 
0.07287386041971677 
-0.1784730097134066 
-0.006367376877728057 
-0.04562785660036989 
-0.06454544273688878 
-0.1221821888955714 
0.07934713715729369 
-0.0998078281245305 
-0.0713999598988045 
-0.1880137227497915 
-0.1248797142852143 
0.007413579016057352 
-0.07199369844656542 
-0.1327661652550882 
0.02747698852486028 
0.1637049602590623 
0.05883538175930354 
0.002906584087143026 
-0.02844281368022622 
-0.205781394025179 
0.1681389101774017 
-0.1719586314222132 
-0.03077036593222028 
0.2562012387157662 
0.06458070875434004 
-0.07772287374465391 
0.02829358866828307 
-0.04588491012002555 
0.07124241905337016 
-0.1957503130777876 
-0.002379692853233889 
-0.0852862789693796 
0.0358312165625144 
-0.09025951459030997 
0.1024748149331578 
0.009340021205613228 
0.1251472462066432 
0.138972998919818 
-0.1650159801199624 
0.09824168347500097 
-0.1050421115912421 
0.06889491398231756 
-0.1306945405910316 
0.1631411379313578 
0.0943918777896582 
0.01124957742091071 
0.02089799830760046 
-0.1020672884178256 
-0.004694119253504405 
0.131471144333712 
0.2328642613549613 
-0.10011561170432 
0.06004536267220397 
-0.1147823402865315 
-0.003576654153470836 
-0.07317275454798053 
0.04701142287102604 
0.1295015872854871 
-0.1008713761819586 
0.2558023344937556 
0.08187934010594362 
-0.03681058894288113 
0.05512238657725971 
-0.1894160810768532 
-0.1549724064429444 
0.08353309662535531 
-0.04541504412566862 
0.1070894310986582 
-0.06073526610458443 
-0.03359932000302125 
-0.1307300723706099 
-0.2803600048676753 
0.02397598873398017 
0.257219097766103 
-0.1903170484688906 
0.1015456197726112 
-0.2652696678516742 
-0.05861697208517291 
0.04452790678231398 
-0.2277884974841597 
0.09363024145571337 
0.1252977148995305 
0.002187081665156329 
0.3706208089591204 
-0.07981104883500476 
0.1322067935235554 
0.03497833256797258 
0.04639045675482946 
-0.08306646829054322 
0.07923001294930535 
-0.03986155852204726 
0.05147690009936435 
-0.09532001831412623 
-0.1438327356945557 
-0.02833867523790331 
0.06109858245241346 
0.02263082639080067 
0.1705685661177723 
-0.06403082213419518 
-0.1108377140846419 
-0.03427173673285369 
-0.01980587285002728 
-0.0139225038805171 
-0.007174132314268514 
0.0150989502492953 
-0.1033654824891366 
0.008991449802677454 
-0.01685674651165947 
0.1031195074346466 
0.1792674812700412 
0.1574428438127247 
0.04882173263688184 
-0.06204329096625842 
-0.01812277209231241 
-0.04089823331743561 
-0.05984767625061892 
0.1014134148701194 
0.1074378579625602 
-0.2056964269982324 
0.03638715050602646 
-0.01252011271814642 
0.04358837061559758 
0.09565404452423049 
-0.03506733542327031 
-0.2335840893475622 
-0.001236103492714955 
-0.02222266401836509 
-0.1065482953248092 
-0.1378598371846028 
0.07401092585608834 
-0.02925845091671953 
-0.06510339440922804 
0.02246692978649585 
-0.06309694530697302 
-0.1228251262957275 
-0.02037638438512713 
0.01880334725502271 
-0.02672138097494049 
-0.1604360338356326 
-0.1818978298136542 
-0.1042200271678412 
-0.1418744904544885 
0.06868725580036666 
0.0329459090361964 
0.01898681267387965 
0.117297184612195 
-0.09735878523636352 
-0.0363245645289702 
0.0996462825443223 
0.1245913067294933 
-0.04755012427018965 
-0.03630699783349076 
0.003619183349556717 
0.03803200073907452 
-0.02886268388932698 
-0.0818824661611748 
-0.148447046817578 
0.1026905687273339 
-0.178240896944775 
-0.0245326285477518 
0.1515308784353508 
-0.02124959198456012 
-0.1807527166315457 
0.0489719476138261 
0.01757289577980312 
-0.01250326572788514 
-0.1174783643753406 
0.1421925192530661 
-0.1252713074034242 
-0.1571166176829636 
0.1324122513478148 
0.04564393765345186 
-0.07700675495466415 
0.1619748808572831 
0.1579491005652563 
0.1570131458732282 
0.05178891836057169 
0.1945115779441491 
0.115270606918911 
-0.09302683176662031 
0.1411489933974141 
0.1128517540756629 
0.1219385767880997 
0.09125084204593993 
0.07338254272089995 
0.08430677469341569 
-0.0866918746283812 
-0.04512844510216298 
-0.06452611078851643 
-0.08803877144491455 
0.008968334822765968 
0.1165699977443623 
-0.1119856333367772 
-0.007294953421297463 
0.01943898458762539 
0.04354516427340675 
-0.1655640403826562 
-0.08319326302097015 
-0.1367536097856263 
-0.1559080442209952 
0.2067779128073269 
0.02745331755742153 
0.06145476021247363 
0.07853544209140462 
-0.01372757907153625 
-0.1871666599117507 
-0.01305378461795967 
0.0844989008147109 
-0.03374615823398566 
-0.1461292783902561 
-0.02921813045694465 
-0.1604545985071225 
0.02055787405995627 
0.2000671206888682 
-0.07940004548125729 
0.0380478218520617 
0.1482282029075077 
0.01338547968116071 
0.166629089524064 
0.1218951572787316 
-0.05515517385596826 
-0.123872844305498 
-0.1854053616379601 
-0.09460438330159036 
0.09642166468178053 
-0.02367241225625562 
-3.388509564974427e-05 
-0.2406643900661587 
-0.2350225313136292 
0.07493550489782484 
-0.09498658649257857 
-0.02573369499327967 
0.2569825839386469 
-0.1164216366532048 
-0.08767374057369613 
0.2172691936862274 
-0.04754520592382883 
0.1580886346344292 
0.04220369914852568 
0.1326552014720806 
-0.09945059533242863 
0.1046955450238041 
0.0254581576418527 
-0.05549786634545949 
-0.001394953407699781 
0.2036210555814364 
0.01407088102607908 
0.07827280247201034 
0.01025957490862377 
-0.01117369807803323 
-0.0885680313056486 
0.06578826327120388 
-0.107700784969803 
0.02455413559004316 
-0.006764521470589238 
0.2270975372891512 
0.04383872449647006 
-0.02296834331571639 
-0.1070310080712156 
0.2213122584374116 
0.120570340158334 
-0.03259722254885605 
0.07021769532222072 
-0.05884424977930851 
-0.09912725682244082 
0.08040390704515096 
0.05260194772498006 
-0.06558942001930505 
-0.1059874624685254 
0.2183712614909268 
-0.05909779754477233 
-0.0486145734579454 
0.03251974664165432 
-0.09981251736831044 
-0.1653178846487338 
0.09145256838983036 
0.07239757283950859 
0.03282225417998864 
-0.08748420766416047 
-0.07530944172569817 
0.06789852376489655 
0.1347317078824625 
-0.07243867981807663 
0.08682772343495403 
0.03695746249416953 
-0.05714137296721639 
-0.1484346089125596 
-0.0358034691917111 
0.06680805390240263 
0.1492802301227064 
0.02601501299041363 
0.09129402546007785 
-0.05546834490048901 
-0.2308961720291851 
-0.09793317362241778 
0.148567020066855 
-0.1174910018426951 
-0.09731663485546102 
0.07503788696371788 
-0.04434156097187617 
0.1862844306433631 
0.2409909352375425 
0.112028179106674 
0.06310451725127249 
0.04621255628814682 
0.1459682464459193 
-0.05916141404691176 
-0.08852072745148123 
0.04542310429505082 
-0.02447579661461216 
0.0304197581889142 
-0.09619132112413814 
0.1678350484425543 
0.0869550148248229 
0.03865799399542184 
0.06754889324699365 
0.3442927773823747 
-0.2390585161002498 
-0.1333880819449155 
0.2931330073533253 
0.1830838645168623 
-0.1267975952232386 
-0.001261327842943982 
0.1530814672417183 
0.08626589754140127 
-0.02063910168800977 
-0.04868018050015147 
0.2513686528317781 
-0.2655320387373425 
-0.02959021339122848 
-0.1634906266794484 
-0.1079681879263632 
-0.1507425608328298 
0.001426620389068101 
0.1425454360458153 
-0.03249074684845474 
0.0001756335643929504 
0.03663805713390468 
0.1367607187220142 
-0.04862431671424024 
0.06419372840301145 
-0.0120740402569884 
-0.09895929572640991 
0.03959370496634857 
0.03518100071598248 
-0.07383734090026325 
0.008779635544661683 
0.3262326317194675 
-0.02890192504910838 
0.04725269213022202 
-0.01107119923461185 
0.1089651663497869 
-0.05718218322611524 
-0.1257579987779645 
-0.04563782470719056 
-0.1668110403544365 
-0.06778166815053059 
-0.1849955439573479 
0.1475598794633049 
0.08610505778680404 
-0.09431398416762478 
-0.001651238733015628 
-0.03082024181738616 
0.009943526378064192 
-0.004521385171630221 
-0.1052424933038081 
-0.04856552300822736 
-0.0588416722739739 
0.08988555282771031 
0.06081191988792359 
-0.1284221091384873 
0.1302843821824759 
-0.04888054907859293 
-0.1087178026941021 
-0.1804025431820324 
0.1077884892187059 
0.008997759700253887 
0.1957389194542252 
-0.05263607548298696 
0.1120578628544388 
-0.172330932604447 
-0.1044468549421755 
-0.003491699632907539 
0.2209380446435217 
0.06337105421176902 
0.03250929371679272 
-0.04701228698801972 
0.0377645285731086 
-0.1005451751144486 
0.004629635542175018 
0.1986295970371624 
0.05055395563517229 
-0.03149113874989059 
-0.11972493833715 
0.1515948767685699 
-0.1195496941184035 
-0.1787143898440053 
0.0429832991875409 
-0.1054101166525121 
-0.1902087482369936 
-0.04632558311084108 
-0.08723356108422561 
0.313266168482433 
-0.04691392909936736 
0.1253033132764307 
-0.04507158826167935 
0.01594775854953452 
0.181523451509445 
0.0290727832719002 
0.1015609820312031 
0.07599205135567148 
0.02969819671813866 
0.1775356346695405 
0.03445372212743988 
-0.04067750989464518 
-0.0618363972101573 
0.004126272846371176 
-0.1346809482323557 
0.3018718113881263 
-0.06736851399616968 
0.1454332743974886 
0.03424733168403227 
0.01055432343549304 
-0.1195757006174512 
-0.02344107074168915 
-0.003091924525025081 
-0.06750495870551343 
0.06908624892736065 
-0.0362042093004763 
0.1981368003611053 
-0.05878313197850801 
0.1997075847483146 
0.01814457963609799 
0.08827078728340385 
0.03080558338783484 
0.01100261472799307 
0.05475425325887655 
-0.07398350351201248 
0.02483853161066197 
0.001391896336439017 
0.2585274867590575 
-0.1722933138108783 
0.04828739189015976 
0.0146874197917971 
-0.02258856480190211 
-0.1037576413175183 
-0.1112187246469932 
0.09281237558899681 
-0.04538716336586185 
0.1206728895804665 
-0.02317731444511289 
0.01567200611293392 
0.1305345012247554 
0.2412186225795189 
0.09818409983361739 
0.01813427416335894 
0.003727074235350293 
0.1154139003208399 
0.06423545539503675 
-0.03107996343180803 
0.03788733985545554 
-0.08593668691267707 
-0.1110522731250545 
0.0522087807866764 
-0.06201364797286713 
-0.2895562111533619 
-0.004921071452301368 
0.1242483975914442 
0.1101713557373551 
0.1525301947600236 
0.001632506317040413 
0.06073724316402606 
0.1793985476821256 
-0.1003812126915012 
0.07408562214108048 
-0.06521046629607355 
-0.1708417971778907 
-0.03004045166672422 
-0.0932480237691002 
0.1933087179287652 
-0.06209296370873463 
-0.1511602417066478 
0.1784083835972761 
-0.1250261184896016 
-0.009608842688389307 
-0.174778384693843 
0.1063410625756612 
-0.3091306699530393 
-0.1863510623521618 
0.07074519462994472 
-0.1804746680717443 
0.01368954399702876 
0.01195762406276177 
0.1668083134191566 
-0.07758810814952607 
0.08584276373709251 
0.1170393538325754 
0.06962273366261049 
-0.1032061098549229 
0.01151088816378547 
-0.02602635001744683 
-0.04109419190817044 
-0.1428575652304822 
0.05179705240533822 
0.1260495834002442 
-0.1706423233144518 
-0.118586714974925 
0.0002977624591338052 
-0.08612372319789047 
-0.08493835825160996 
-0.02912197048743825 
0.05488078720379503 
-0.1073209695263515 
0.08001191844176705 
-0.1471869788083675 
-0.2549580184605374 
0.02719964860793811 
-0.03092504140363049 
0.07741614843615832 
0.1085209964289593 
0.03186114366701898 
0.02894132805952202 
-0.03439382915814202 
-0.03928074325616179 
0.1414763272736331 
0.1014632378986064 
-0.008465267835175715 
-0.0007259986266323439 
0.2238897593663384 
0.1765917092034934 
-0.2016925657240551 
0.1179751401626338 
0.08986772095473868 
-0.05944597855026689 
0.02280339671598096 
-0.02652692185743619 
-0.06933502500195012 
0.05302022865085285 
-0.03230371991654488 
0.003347539659045574 
-0.07110858194498593 
0.2056729954714626 
-0.05440748306536104 
-0.02221307275470548 
0.05542648450366473 
0.004520040628334727 
-0.04790441975521914 
0.04273890340428601 
0.01965868039795438 
0.2271385380169732 
0.06935351541902343 
-0.02233870366525844 
-0.06291770202394606 
-0.02005857003192148 
0.1132607961018219 
-0.1425941722999272 
0.01288519209122906 
0.1352218642820311 
0.04002890456262626 
0.08088791500047397 
0.1024147879486603 
0.02118536284608777 
0.08269667806674824 
0.3106265086919922 
-0.02527922884993732 
-0.007710758263622529 
-0.1011698777187073 
0.03060959202386356 
-0.1082740772300593 
-0.03037014934975997 
-0.06337978177474203 
-0.08592982013247559 
0.01230825104255152 
0.1135689361090547 
0.08072080851349389 
-0.09702116263098903 
0.04836488414768232 
0.03089933821960979 
-0.1217017651317664 
-0.006892422627374297 
0.01343174480933518 
-0.1204700475147182 
0.05579739989401831 
-0.1742663200984968 
0.2231709807759524 
0.1003384440739227 
-0.06180498952031704 
0.08530800824751954 
0.0007610310896639891 
0.1414632827929869 
-0.03635198984307803 
-0.001752899944454005 
-0.04727450230822972 
0.1907547281642271 
0.1310442042466956 
0.1013757878587531 
-0.08752405788020161 
-0.1948558665214376 
0.113500454892446 
0.01295473110482347 
0.0479957180383247 
-0.01328081908884565 
-0.2019627585347218 
0.1293776576967885 
-0.004913959407221505 
0.02331879806543557 
-0.2863378220088583 
0.1660571194433071 
0.06814767390501833 
0.1097173883349556 
-0.1154292685183651 
-0.07524530872556964 
0.06239350317238455 
-0.06197460900688997 
-0.027352469231866 
-0.06377712400653836 
0.05452735701180998 
0.00232686005445081 
-0.01625422525694023 
0.08835921709425321 
-0.2111388761852117 
-0.0281167261945906 
-0.06132461128143373 
-0.1670123685926255 
0.02309596681600697 
0.2060440408604106 
0.04523912472373068 
-0.08200418523597031 
-0.1014727441949612 
0.1484312885474467 
-0.01954623292077298 
-0.08844231105333725 
0.020040254273807 
-0.1043118711259027 
0.05269603184357016 
-0.05392191725019674 
-0.04312764728809231 
0.1016553447631691 
0.1123362442354697 
0.1796339518881399 
0.007986492155867103 
0.03898814922460398 
-0.228062018963071 
-0.05237466809129003 
0.08819079113297899 
-0.186095530534117 
0.04584531578881786 
0.04190115885727343 
0.20204502688027 
-0.08001823868886393 
-0.03782407381716501 
-0.05422432454762412 
-0.002323493084606495 
0.01225023317684475 
-0.1387402920829833 
-0.1882369611902012 
0.1110742159421583 
-0.1116865580230078 
0.1199306153420908 
-0.009214680489331386 
-0.1752890715610169 
-0.01083135076390409 
0.1409064352889893 
0.09422693021595178 
-0.005084897391858603 
0.03185945646607273 
0.2684851926650609 
-0.02793290472976102 
-0.01810146449310451 
-0.1584192536498091 
-0.05547928620473288 
0.1082339090095037 
-0.2736026246746276 
0.05940949653348621 
0.1351265230334591 
0.08201706812279119 
-0.1250248011072475 
0.02177584553829887 
0.01823639428357175 
0.02821809067142579 
-0.1421141227632943 
0.01380671985787005 
0.1369433656691561 
0.1755793229876211 
0.04788986835676336 
0.05643901610577678 
-0.1213291264363479 
0.1544408333694507 
0.2711498368753203 
-0.05287826352524887 
-0.05641475959742226 
-0.1177736792375359 
0.1037077510124295 
0.07058670182166291 
-0.193625435176846 
0.2958234763074838 
-0.07686758703852491 
0.08094423259083944 
-0.01717178746538332 
-0.1218035829608503 
-0.1134200492451678 
0.2889066931799487 
-0.1432118183701427 
-0.0464520308190541 
0.08714305593366728 
0.08100666202227359 
-0.03875206350640898 
0.1400260610253994 
-0.03986119695655937 
0.006745051814931505 
0.05395102864660324 
0.09276685143320465 
-0.004533938197421296 
0.002908147422330763 
0.2624906248867347 
-0.01466410617837095 
0.03986568359379575 
-0.09509480792448927 
-0.01200424418426616 
-0.04622184840767794 
-0.1687499475028112 
0.09085958874537389 
-0.0901510250068116 
0.1387197761644427 
-0.1677405713953782 
-0.005945722114880975 
0.2610058289961877 
-0.07237686123008755 
0.1735440619528695 
-0.08435487554217748 
0.04765412900154841 
0.1043787905252801 
0.05005527113539333 
0.0599155681360831 
-0.07812654062288181 
0.07656034405288276 
-0.209579977058235 
0.2677475361952867 
0.0461509576778479 
0.1337694144408296 
0.0614264956591894 
-0.04595110872010485 
-0.1341998858361775 
0.1034348578362181 
0.009293372736146582 
0.1087621839383124 
0.008162475979537759 
-0.0990899791767139 
-0.06674969697649931 
-0.02617705817616884 
0.04932065765568722 
0.1667762543657261 
0.07880535399696686 
-0.07143508528804561 
0.1997800620101064 
-0.2201034015862348 
0.06742313180528849 
-0.043467244081057 
-0.03941931764198234 
-0.1091589636577656 
-0.02141432983143717 
-0.0733247637711588 
-0.2041301602915621 
-0.1821469219814818 
-0.1578468429124456 
-0.1098862079092685 
0.05136503413304676 
-0.003975049516558951 
0.04107453588862773 
-0.2920985845862537 
0.08208223850565016 
0.06992673390594047 
0.04683582261633677 
0.0551878139962247 
0.02205327626948601 
-0.01471998255420492 
-0.1007536210204173 
-0.04375203121513185 
-0.03398194207582191 
0.1279624815186875 
0.1223323096117402 
0.002137526478656145 
0.161392036561608 
-0.05970331475477576 
0.1285275961934729 
-0.1234030583098473 
-0.2051361479023739 
-0.05214798895297471 
-0.0764658859255307 
0.00263298485920404 
-0.1017280661612564 
0.07382591055135969 
-0.059381881050978 
-0.07127541556984629 
0.1634043813463558 
0.002948735859290908 
-0.04174844236266474 
-0.05510615394291132 
-0.01884039670400669 
0.08250403925770836 
-0.1497602876021863 
-0.132571471938556 
0.1082133154662774 
0.08324472706302137 
-0.02542938547212487 
0.0995111859297698 
-0.0434598263342752 
0.08192205482391776 
0.04642427232725231 
-0.1599958332462257 
-0.06645062824637787 
-0.1008656027527478 
-0.02861305185450962 
-0.04635005087682789 
0.03923967486234581 
0.1184755869377407 
-0.05729278238184552 
0.07893371502060054 
0.1453797893547418 
0.04107195058049506 
0.2000341010781425 
0.1526587599384145 
0.03462711925446182 
0.05915179103760957 
0.02120585927019802 
-0.03929622469289926 
0.1711670005676164 
0.084347025701782 
-0.04243415741967271 
-0.07021544732245236 
0.1649738351225776 
-0.1036586363417737 
-0.01833042585330493 
-0.2566121111014438 
0.07967290009991619 
0.08567620872480396 
-0.1389489230184842 
-0.07396593579352581 
-0.0642900792701038 
0.03807881558209174 
0.268077512071352 
-0.1195370386106903 
-0.02064549375321989 
0.1382147771774405 
-0.1661158888976798 
0.04502100358890333 
0.03605859949977572 
-0.2007726123118306 
-0.1348948101145409 
-0.2034839076019966 
0.06129458442046835 
-0.04248080145265781 
0.09856154375663971 
-0.2420468801012933 
-0.01496212109621886 
0.06517432827180659 
0.1864468249014602 
0.03361872818342496 
-0.0929327027827257 
0.01158937366511024 
0.1319690489064895 
-0.001910513625352934 
-0.007915105894734089 
0.1662692208766244 
-0.1615449978898475 
-0.0333212704671243 
0.2249277956357845 
-0.02337898302010254 
0.1017020193241118 
-0.08996304557280296 
-0.1374661243116665 
-0.06594717799849498 
0.01254501119236734 
-0.06391993638296725 
-0.09428707404540328 
0.11286316410485 
-0.1644388379543429 
-0.01635143799031936 
-0.1642035436909393 
0.04795845867748173 
0.06700090101370541 
0.01314828289695252 
-0.07854977732696411 
0.05222776827405993 
0.05538461633320799 
-0.1178209476155089 
0.003464685330832752 
0.1068483276095891 
0.1726125732404781 
-0.177390818342969 
-0.1286830375365823 
0.185850851926592 
0.1823839051512079 
0.05096601614857173 
-0.08767469273847533 
0.2094803260734181 
-0.06828415848998554 
-0.06284981845325528 
0.04065850190171715 
-0.001333160178954076 
0.1119437675009107 
-0.1067948553628297 
-0.1876106838897712 
-0.05647213157744465 
0.16937600551481 
-0.03903730246807715 
-0.04368800521399875 
-0.102558786019471 
0.09043293686946981 
-0.1047117948031289 
-0.0124271537688442 
-0.1110611249875199 
0.01330254872285218 
0.1314942868307731 
-0.009686255255540798 
0.048478398544271 
-0.06362510490592027 
0.06919372071568675 
-0.08344993948839287 
-0.1637562912480369 
-0.1746065186566377 
0.02740804984714292 
-0.04426457721496843 
0.2188476295682165 
0.09278863708512158 
0.04359511088302507 
-0.1012545487421963 
0.003332817046302156 
-0.04670863777376745 
-0.04024090684416566 
-0.1271336673950244 
0.002140015243466293 
-0.06057085183867878 
-0.01358773812890332 
0.1379765925515862 
-0.01290570495565314 
0.0465097044949053 
0.006363877605753856 
0.07110644537887813 
-0.03305491390996337 
-0.1098425545788878 
-0.2129524291590915 
-0.1459864711629527 
-0.0379202056499901 
0.003562223998779114 
-0.1165853647402177 
-0.1096436191455743 
0.08366201386849099 
-0.0938938573666185 
0.1003929956816985 
-0.2225152752488803 
-0.1376496420209918 
