solver_type L2R_L2LOSS_SVC_DUAL
nr_class 2
label -1 1
nr_feature 14608
bias 1
w
-0.006863990305784791 
-0.01331975568018219 
-0.01833097822629829 
0.008730956274841191 
-0.01053630731017533 
0.01179605067621016 
0.0009642994020530034 
0.01124103508217073 
-0.002816441513645609 
-0.006442034175032592 
-0.003753274051321003 
-0.01280317630104174 
0.003485012935670751 
-0.008938278009808594 
0.006419256889934786 
0.003979449405796408 
0.006140092016837862 
-0.005938112982964961 
-0.001285239492359268 
-0.006972696039661457 
-0.01862449771223817 
0.006546534929169504 
-0.01570819766162814 
0.01250836967292336 
0.003915095834975057 
0.009800651350146232 
-0.00117244962399613 
0.004911495120575356 
-0.006855131267303656 
-0.01201927821631528 
0.006536326406810015 
-0.01710925573275623 
0.002395261942808081 
-0.002596655386415352 
0.006581734480105254 
0.0003584573325236293 
-0.01032249093555067 
-0.007936174678994639 
-0.01538217317058111 
0.009996707522522998 
-0.006272296460951426 
0.01295561329227246 
-0.0001374637577187643 
0.006226517071732922 
-0.00928499885018909 
-0.007323700071528549 
-0.01149964415305803 
-0.01161464203627986 
0.006088637994156242 
-0.01186987452341845 
0.002398223827653818 
-0.0046772213074565 
0.004441388062165873 
-0.007165768182711299 
-0.001250239649711509 
-0.006322196098102162 
-0.01059343940894427 
0.01752406853691814 
0.0003363673211431088 
0.009836010923380045 
-0.002789378747791331 
0.01003599748414127 
-0.0002053602310715683 
-0.001673857632810638 
-0.008121689634711052 
-0.005094186361836016 
0.009097828689711176 
-0.006912649725056249 
0.00127851648323563 
-0.003254921531426575 
0.010348913332834 
0.001449554454253765 
-0.006714656869839504 
-0.007346116925443955 
-0.009499630041959077 
0.01643820322013263 
-0.004026354465333287 
0.006512812133976337 
-0.01080704450184093 
0.004840621879979658 
-0.007840819319464039 
-0.009301587228509753 
-0.006613554021493059 
-0.01038783272370493 
0.007624058203216625 
-0.01184151340194983 
-0.001917072182283591 
-0.007899163114990148 
0.001319746786394361 
-0.009036953327136063 
0.008107782411677937 
0.002358532886360125 
-0.01039624997415308 
0.008108561299915367 
-0.008550838112773485 
0.006782472419696397 
-0.01263440174023027 
0.006268466690362308 
-2.59424692503635e-05 
0.002221782394993602 
0.001884098562892025 
-0.01161599476545851 
0.007882128368307238 
-0.01257460906680949 
-0.003555020594265789 
-0.003873688664996765 
0.007528571328048571 
0.0006553927236832306 
0.0009160728667953396 
0.00039812951527562 
-0.009584810649844089 
0.006359674634710364 
-0.008354185164301415 
0.0097160557015299 
-0.008244603233353756 
0.00521654801788098 
-0.00168279155904098 
-0.002783551787115612 
-0.0007549894158905228 
-0.009227757104500741 
0.005668116915353115 
-0.009105300009574969 
0.0004965637372395611 
-0.0009429067647644967 
0.003685212949314558 
-0.002358658761383881 
0.003400140793432132 
-0.005227065378277653 
-0.01828975826324891 
0.001096508631049768 
-0.0118811738309013 
0.009301179229867614 
-0.007328440233623679 
-0.002969372846648559 
-0.001030996501383582 
0.001028228855357942 
-0.0009396254435730051 
-0.008479019148878233 
0.0006351846990028154 
-0.003127953706602537 
-0.0006376002107958501 
-0.008649413201553831 
-0.0003713885271018432 
-0.0009165926527122622 
-0.001007474083765186 
-0.006227110727071732 
-0.01287879457060938 
0.009129808499143766 
-0.006017043142705752 
0.008442766894559589 
-0.004947413831012954 
-0.005724702171889372 
-0.008762606824724508 
-0.001599024988910276 
-0.0006333931287506785 
-0.006765309023198871 
0.006891321204118429 
-0.0007270703332919856 
0.002146407139487 
-0.00592552769099372 
-0.0004271821600429952 
-0.004301473371483392 
-0.008837521047048337 
-0.00719587085112322 
-0.009079892965573388 
0.002703793965983095 
-0.006590134391395174 
0.005870802561192843 
-0.000366469498008731 
0.002624002125487429 
-0.006353911739546755 
-0.01114149769065284 
0.0006631959491168672 
-0.003238000710952432 
0.006155471639530462 
-0.0108650244177675 
0.00314480653621451 
0.001305646601520807 
0.006344431156545456 
-0.01008923069077371 
-0.007697696476157033 
-0.009572722925025572 
-0.01274078559810307 
0.005690665357016302 
-0.004269377582323649 
0.006413341944498381 
-0.001183921919192793 
0.005228604690256184 
-0.007102518791766066 
-0.01217838339395342 
-0.0006808992523924913 
-0.00442581553267792 
0.008965004040520797 
-0.005610981028141441 
0.005851573759920006 
-0.0003391777272512973 
0.003501053300750329 
-0.01429814585066056 
-0.004316545975270354 
-0.002390581720635178 
-0.01648357435029226 
0.000863912721683598 
-0.007434645059021443 
-0.001805368858788061 
-8.02376395615241e-06 
0.007960256137167183 
-0.01174717592872122 
-0.002244040620874297 
0.00761521528835469 
-0.01154845034020616 
-0.002881615938500763 
-0.01225928727220654 
0.002844680178617629 
-0.002154582502771265 
0.01151909811276322 
-0.01238248237234362 
-0.007482496163234125 
-0.004240060243900554 
-0.01557649015264076 
0.00425540025882239 
-0.009832616378120416 
-0.001261844389651044 
-0.00256583012880936 
0.00888993258059294 
-0.01258041699794193 
-0.003278842245419748 
0.009817875464902752 
-0.01012666921086943 
0.001381932248791216 
-0.01155493163820695 
0.002346418762661602 
-0.002607112339615428 
0.006623557606163632 
-0.0152691187640843 
-0.001363567721731788 
-0.004162738388812083 
-0.01456690793204787 
0.006079887481862649 
-0.005513691661186331 
0.00509673460184291 
-0.007851410094448995 
0.001282412490436595 
-0.009925079785221592 
0.002512404510338289 
0.003214216009528746 
-0.01081012110464544 
0.006934450179799182 
-0.003151217171404339 
0.005423891456804351 
-0.003225395260548362 
-0.003731515829942401 
-0.002342310085657751 
-0.006254556459305712 
-0.01234263449913512 
-0.0201748809726473 
0.007059218461166712 
-0.006987127514736422 
0.006638805012556307 
-0.01323824408870563 
-0.001900393172402159 
-0.0102815041597442 
-0.002018310811344019 
0.0005989019336105991 
-0.0123442156839056 
0.00950470548914953 
-0.0005344606741162956 
0.005448442535130534 
-0.004963714970241549 
-0.00425279815771412 
-0.0060615838004052 
-0.00551113625649266 
-0.007040908773771027 
-0.01717476883103332 
0.005555783912848371 
-0.005213019911828275 
0.01042027119920473 
-0.01178150675502226 
-0.004292785309928981 
-0.007651758031846857 
-0.006169194947724931 
0.002852822328884896 
-0.009724889462332525 
0.00835058575088053 
-0.009313438755522964 
0.003295442647165725 
-0.003406184477248313 
-0.0003561878031324073 
-0.009886715506550783 
-0.007285612932487706 
-0.006833113254207056 
-0.0187765600575331 
0.006366488275178103 
-0.004086057907931269 
0.0128291297852836 
-0.01275134042616781 
-0.006617888877780744 
-0.007734586805446354 
-0.008482334135860151 
0.005226220581576124 
-0.01258390052054262 
0.00956000255675846 
-0.006561157845538049 
0.006255583267776007 
-0.004184993184613124 
-0.003349899030724375 
-0.01679115098596021 
0.004887623782383997 
-0.003762677148879362 
-0.01989304656021985 
-0.00426420801726327 
-0.01482124381423935 
0.01042462291249301 
-0.00982373090269615 
-0.004329919756485597 
-0.001422361275653278 
-0.001678516501480613 
7.598642284218511e-05 
-0.01866158084642916 
0.0005983111686664758 
-0.009994914025042529 
0.00669260621158268 
-0.004531293105668134 
-0.004236671853579992 
-0.01255199453546963 
-0.004173592848315508 
-0.001719711250646502 
-0.0105779750247549 
0.003297460894777961 
-0.008263186213752034 
0.00552703094146802 
0.000733293200173328 
0.006344750075507563 
-0.006437439063810543 
-0.004486935910224991 
-0.009500451025317108 
-0.009412717357187954 
-0.003302629191096318 
-0.0162487996965548 
0.002202646420059444 
-0.006184149863382303 
-0.001391784446669685 
0.0002817717533381118 
0.0004319090562465289 
-0.002313159912999521 
-0.00518297059677668 
0.008331411721754113 
-0.01464374237941678 
0.004961576424234721 
-0.0006921886892821192 
0.005815143850731466 
-0.0006883108516051815 
-0.004745119649761344 
0.005345308055797368 
0.004598201916846237 
0.007017774993086839 
-0.01054105672230813 
0.003239572767399992 
-0.005416680426228896 
0.003550440935825971 
0.001434131641133293 
-0.01095285573058896 
-0.01042203315842019 
-0.004144884675553118 
0.006776250249252526 
-0.009107308770597497 
0.003854985379149833 
-0.004871133556368918 
0.003536607633870932 
-0.009768851657806632 
-0.01276544487413454 
-0.001892247899307409 
-0.005137807587891157 
0.003336717096326336 
-0.007517639376340366 
-0.002162590930506894 
-0.01103287372932097 
0.00148136090359784 
-0.007494927870717575 
-0.002638807551344573 
-0.006805565921154156 
-0.003231939901916276 
0.005680990527253972 
-0.008661477306605242 
0.002986182451771356 
-0.003336862051488234 
0.01026884924249145 
-0.0009872117962946483 
-0.001772697665024896 
-0.003001273491915646 
-0.0110848767629862 
0.00200654806371406 
-0.008546894252010969 
-0.003469787734803695 
-0.01048672678405967 
-0.000990098155234709 
0.0005483123744838887 
-0.006784360901527572 
-0.006305832910344395 
-0.008754281942948755 
0.00337918422027039 
-0.01428031193286958 
-0.0008023890808935313 
-0.009416304776110111 
0.005349667984277122 
-0.008787827895195402 
-0.008288433058462443 
-0.008201725930524153 
-0.01443114628589717 
-0.002011930459522621 
-0.01827606904366289 
-0.007291175624549592 
-0.01273436551755918 
-0.001859726932895747 
-0.005165681746650255 
0.002539623611000255 
0.0005005580162722868 
-0.005153452682856685 
0.005468193422844192 
-0.01044062562256086 
-0.001890117989069004 
-0.00396372033168899 
0.008250065393109322 
8.231375482615556e-05 
-0.006053604944443518 
0.001245955637933271 
-0.006475801485536831 
-8.091791593588302e-06 
-0.0144974455385722 
-0.005349531672114309 
-0.002383007879188896 
0.004762894312113537 
0.002560385911124825 
-0.005019353865052326 
-0.004609826598050721 
-0.003480865336080097 
0.005130347219453043 
-0.007751583535164827 
0.001919957635519745 
-0.002323451625545959 
0.003374106426259823 
-0.004154823576917277 
-0.01106171063245584 
-0.002421964297245256 
-0.004600450091279354 
0.002088723968723569 
-0.0142276620302595 
-0.003438091366004805 
-0.006473933089415031 
0.0009920054395960722 
-0.004691263816096121 
0.001315457954448202 
-0.005926725700033277 
-0.0099440500627547 
0.0004560444675824332 
0.001012007426168589 
0.0009166575829826918 
-0.006046115281567165 
0.004071666751744988 
-0.0004470993227023428 
0.003736215964751611 
-0.007980277727670952 
-0.005890222031370243 
0.007240192166008693 
-0.002613963120710196 
-0.0033764606334978 
-0.009650610628401583 
0.005460976557747234 
0.005959779528881332 
0.0006498008736834931 
-0.006097868551029507 
-0.008807880429516366 
0.007981477067139206 
0.005316994239117893 
0.008303217488866282 
-0.003859999539934713 
0.005123733283992106 
0.001937592341025359 
0.005346521874888403 
-0.007248009494373466 
-0.006502031826521926 
0.01090780192277987 
0.001133910738872353 
-0.0006964039002477972 
-0.01570713090885826 
0.004175892061571013 
0.006723129966752621 
-0.00711479305810114 
-0.002832213537573461 
-0.00385301302271866 
0.008369118564887142 
-0.007898772618914121 
0.005926123636699595 
0.000387522060769992 
0.008728675155602704 
-0.01109111782991619 
-0.003657814135463943 
-0.002102853182760432 
-0.01452949943808407 
0.004425269864103163 
-0.003136448441691152 
-0.001473305915724332 
-0.01497964111131083 
0.0003308364077221882 
-0.005606756385866135 
-0.00708449613298176 
-0.003523673391140889 
-0.004422853268921917 
0.01366535455128613 
-0.004664145067945326 
0.01052093332073266 
0.001235524540031922 
0.007142278112672379 
-0.01411557991530756 
-0.002862131906601378 
-0.006290249013479392 
-0.02001790558011086 
0.008268980625742516 
-0.002486968953486679 
0.001883358614777656 
-0.0117881422557696 
-0.003004978073665103 
-0.007337798426215645 
0.000122161553306144 
0.005498714365796456 
-0.008975669559234976 
0.003750197458037584 
-0.009599858832247928 
0.005573971551793603 
-0.0003702057331493624 
0.0141959337569217 
-0.01055812096925783 
-0.0004151994007600964 
-0.006129248911555239 
-0.01646657428022618 
0.007771700419555017 
-0.007036467078141751 
0.002287453586392546 
-0.009542848932994095 
-0.007359544821230042 
-0.003463053264741604 
-0.002681073588662814 
0.003429004694565946 
-0.009997448890247552 
0.002161372164025261 
-0.008319265543911644 
0.003656916911167243 
-0.003221175267670183 
0.005070282280498084 
-0.01234524106027921 
-0.002773553147384826 
-0.003399923737511737 
-0.01466459093868232 
0.00704594306911742 
-0.00496293970199156 
0.001649570151450932 
-0.01513770715111444 
-0.008666316857211113 
-0.006878778857099016 
0.004833596399217743 
-0.001163561741261863 
-0.01397640331130111 
0.005760674489818227 
0.001550868307513334 
0.009648137055876249 
-3.955159265913165e-05 
-0.003314965123460703 
0.001269913725666046 
0.00163923156510352 
0.001877323158049635 
-0.01902048552388373 
0.0003424870313492449 
0.004469677840416376 
0.01236203742980531 
-0.008905367747708283 
-0.008892786644747908 
-0.00252555989091608 
-0.003632701643208763 
-0.00296256820321159 
-0.01102253035267954 
0.005466366123474323 
-0.002581338423542268 
0.009104768358129853 
-0.001224033017152246 
-0.003857980894226376 
-0.008332135549483395 
-0.006087496196660166 
9.215716496756631e-05 
-0.0169774622000343 
-0.0008427738322501527 
0.00138376716937779 
0.0129389866126451 
-0.007865870746819303 
-0.007382867334079286 
-0.0092821185179752 
-0.008003331692302855 
0.004837519425713406 
-0.006181336656969283 
0.004465825730856378 
-0.009592652082163367 
0.004316895318124015 
-0.001877561185230399 
0.002866421779627943 
-0.008846202641215065 
-0.01331025293599366 
-0.001013559929292893 
-0.01123587138869926 
-0.005229832315190411 
-0.01313642106045164 
0.0007360091684303377 
-0.006627639742639385 
-0.004370351678501102 
-0.01211988893006559 
-0.008487204789857157 
0.0046631277173591 
-0.00587476422960405 
0.00781464433395544 
-0.005199316195261798 
0.008079331761951811 
-0.001369976054673321 
0.003601167510674176 
-0.01500644009128432 
-0.01446138403761708 
-0.003305051690387553 
-0.008879946285523667 
0.001940397863091955 
-0.007828679998722391 
0.001613120967587796 
-0.003929466215543498 
-0.002522954334543706 
-0.01657208491537975 
-0.005448340878836012 
-0.002194065551442408 
-0.01682909496354288 
0.001876014337786006 
-0.006365305584613162 
0.007780404319813242 
-0.00261688336006841 
0.001458400558950606 
-0.0121524020739207 
-0.01312798056810121 
-0.008992089398193971 
-0.01784573544763277 
0.002369883866473375 
-0.007388144659393061 
-0.005638546988794404 
-0.01462992533479048 
-0.006600218727243634 
-0.01149247666306629 
-0.005940137263164657 
-0.005356506181262087 
-0.01051313517721747 
-0.004934465920957226 
-0.01474199011452012 
0.006212974154786932 
0.0006858290591305478 
0.002618667620052369 
-0.0007951193178303244 
0.001583847641777873 
0.009301445827606751 
-0.004243408554952194 
-0.005948829805953687 
-0.02158875429022378 
0.001040477375853549 
-0.0006541040803171369 
0.0001663953295472749 
-0.006772833509531928 
-0.001940726602755478 
0.003397158174379179 
-0.0006117019795260448 
0.002398473343879555 
-0.007137534011418249 
0.00645384925961142 
-0.0003989309329036959 
0.004893183957655666 
0.003658115023811966 
-0.003884039591224216 
-0.002371496821988583 
-0.00563240385002971 
-0.003930425324841972 
-0.008721384672514135 
-0.0009215821828868559 
-0.006643669381269382 
0.006353429297660102 
0.003101849507584131 
-0.008192950240381289 
-0.002636372120594227 
-0.004685745178851015 
0.005090338916509176 
-0.003773179553722927 
6.830426085107592e-05 
-0.008751879897867326 
0.001031171290061204 
-0.004847556704223595 
-0.008143146977521965 
-0.005639314342856898 
-0.006123465304204927 
-0.004723022453625865 
-0.007616466477530345 
-0.005765598762130575 
-0.01138176469594217 
-0.0004456581325444519 
-0.003525960357020563 
0.001828308341175491 
-0.0003348899048254359 
-0.006014505791238196 
0.006030299953738019 
-0.006511031092443408 
-0.00301136514536742 
-0.007216577792438198 
0.000747999152961248 
0.005779904377411571 
-0.0006523042672537687 
0.005194643229191983 
-0.001056413533301288 
0.001100503374202029 
-0.008847297495319671 
-0.009812191671247307 
-0.01007639375545545 
-0.003849683744172229 
-0.00105567293976027 
-0.00502883556441249 
-0.003069472402203703 
-0.008926847378264862 
0.001172831711923732 
-0.01770146371439696 
-0.004484684639998877 
-0.008388003034987294 
0.0005252119632764454 
-0.0008632908737553591 
-0.004888874467924766 
0.005261798157802302 
-0.003007134451782142 
-0.001894679946761806 
-0.01429870426738725 
-0.01211823115315199 
-0.01357955863762244 
-0.007870098621135109 
-0.008184387062517513 
0.0006074750141031658 
0.0003359946604041189 
-0.003594258685934982 
0.0003946878969480853 
-0.01040849181546611 
-0.004032708558541103 
-0.0008697124895924894 
0.006151257188146689 
0.006643594691379578 
0.0008268609734063111 
0.0005136976614046598 
-0.002266215911107933 
0.0003723852952009355 
-0.009291503428048234 
0.001793541765244483 
0.002617369658827799 
-0.0004717546999827028 
0.004330266632936644 
-0.005251860233352947 
-0.002575028177064852 
-0.0001709633328210105 
0.007394044094050574 
-0.006333133805767069 
0.003966380338688095 
0.0001773426992444521 
0.008950846408786706 
0.002529522040221611 
-0.007454399871793101 
-0.001252347006029552 
-0.0005646331692458375 
0.004511069395537687 
-0.00758338385953734 
-0.0009746600131418263 
0.0005142096467756947 
-0.002545698525461501 
0.001386494764792955 
0.004176367792321003 
-0.009765848988876632 
-0.007737253770252272 
0.0125421028746924 
0.004405576502400656 
-0.001936512427996423 
-0.008008137204948043 
0.01027852201505896 
0.01284622222120345 
-0.01757354953379267 
-0.02552632199003801 
-0.002125513918998378 
0.01147681538250122 
-0.008099015777670146 
-0.03269078603694341 
-0.02580729332098344 
0.003971173224405605 
0.006533997987855 
0.01657242528761538 
-0.001562732628452567 
0.005210614544891622 
0.02971521880216579 
0.0226160220465846 
0.01151816270596177 
0.0005594058750394737 
0.02524376695976895 
0.02856373780527763 
-0.02217426629541045 
-0.03007631659159193 
0.006499179770098989 
0.02427706355908007 
0.002643153441861609 
-0.03447348539969119 
-0.02087442032979371 
0.01795748499787467 
0.01906242568316098 
0.012400673847555 
-0.01659600639158533 
-0.01158701460273294 
0.02021689359153292 
0.01893236460022797 
0.003293899069182893 
-0.01363047888058246 
0.01563953222030603 
0.0178150150277922 
-0.02715226281927797 
-0.06406126201818033 
-0.02811487311408487 
0.007821363611662987 
0.006678538820130292 
-0.0497026251807941 
-0.0386325165235322 
-0.009993087261731915 
0.02186728651624715 
0.02070004289144014 
-0.007192898713512129 
-0.01428696251232757 
0.02644431643973283 
0.02961534814428118 
0.0178477423323731 
-0.01014470734738765 
0.01394886909208697 
0.02331357859334934 
-0.001432770347118579 
-0.0533010499436838 
-0.03977873634121046 
-0.001968003197665082 
0.02532230506808095 
-0.03072939960560605 
-0.03585566748661039 
-0.02048422434647356 
0.02630436236985072 
0.02615366849663803 
0.01117592955698147 
-0.01277948078653385 
0.01366298546039754 
0.02131961367917601 
0.02452339479327104 
0.002302440066945216 
0.0009299941324558882 
0.01893412693452736 
0.0265401763375009 
-0.01066369591011066 
-0.04359529000045208 
-0.04144648566059929 
0.01777102654820362 
0.00276778136465353 
-0.02335387683139329 
-0.04302810742044769 
-0.002334851107956309 
0.01789487556214602 
0.01065428752948973 
-0.02043791896261499 
-0.0003636758855807811 
0.01535542614560072 
0.02042752132520771 
-0.006953317998604062 
-0.01040259024738295 
0.00852029939239852 
0.01343303810292692 
-0.001192366803827713 
-0.04717948900211619 
-0.0582419182512374 
0.001986265565575895 
0.00412238710067804 
-0.02821622581639246 
-0.05368505047159845 
-0.02455497659134609 
0.01930721457015709 
0.0182907088564303 
-0.004991139303117898 
0.006682758599638121 
0.01982124673642473 
0.02857030611205607 
0.01051533084892749 
0.007149036374710109 
0.0166011873799802 
0.01857387340166779 
0.02206948996859066 
-0.008926322348629693 
-0.02767671748190631 
0.007271864501660576 
0.01390247836993259 
-0.002705830006603926 
-0.02073380880973674 
-0.005356600126602074 
0.001279892569167076 
0.002791772653125787 
-0.01653467091304876 
0.00164781851541587 
0.009873079317638079 
0.01853607708614778 
-0.006609140994279101 
-0.00540180648488543 
-0.001645167204702115 
-0.0008752305502893355 
0.006094691385012783 
-0.02023492489500684 
-0.02159713982473494 
-0.002529163797232059 
0.004262334241517442 
-0.0128824651661469 
-0.02451362559452369 
-0.01402370395178386 
-0.0005273762186478394 
-0.0003751981672019174 
-0.008254534199806964 
0.001259265293637437 
-0.0038252590920207 
0.01049469358418264 
-0.003463027786802304 
0.008695359362427593 
-0.003381805704511799 
-0.01144278216708693 
-0.006604136270043351 
-0.003985754648064422 
0.0009962968668987813 
0.000358238289538364 
-0.0005430866776437159 
-0.002656954113973636 
0.004717664815688857 
-0.01054641662981345 
-0.01287723024919193 
-0.006394653312844295 
-0.007735278666403069 
0.00349323163506226 
-0.002144918113175659 
0.005857597432276131 
-0.004355978025483332 
0.004567341646305787 
-0.01235352779362828 
-0.01459636755049211 
-0.006809249032322344 
-0.002460803763487807 
0.005033062802737218 
-0.003617757318827225 
-0.002150178903863517 
-0.002429107485052869 
0.003725932401176523 
-0.007946169932592378 
-0.006844110123392403 
-0.008458194182160497 
-0.01313757814741513 
0.004893193455447766 
-0.002525453416155384 
-0.002319190783794025 
-0.01380458162862401 
0.002740347810896527 
-0.008653339498411681 
-0.009370247322359649 
-0.004773940937146988 
-0.00707067583625852 
0.0005572715408239397 
-0.01330548593992377 
-0.008613691686561347 
-0.01651626169114843 
-0.00607302830845536 
-0.006195181127349781 
0.003239593376458889 
0.009333185998549331 
0.0006089723747852855 
-0.008445566479048892 
-0.01157212502657514 
0.006378669955478712 
7.943274067284414e-05 
-0.003160707052732587 
-0.006632340624072614 
-0.0003951441585655234 
-0.004691609054557021 
-0.001971932164490748 
-0.01053143088492653 
-0.01073652176615331 
0.0002948634204103722 
-0.003260371925461463 
-0.00912564080947002 
-0.007375869509050773 
0.001228582189333066 
-0.004369337842269724 
-0.0002892813683584903 
-0.005189785298822473 
-0.001815657774365682 
0.001021671352692168 
-0.001977099623428201 
0.003940535955637639 
0.00574360047270484 
-0.003180969975372675 
0.0001878334552646796 
0.002231689511645443 
-0.009884496681897347 
-0.003305173856476337 
-0.002521671410273476 
0.0003333902820015729 
-0.005272507224164561 
-0.005582772669604962 
-0.005199940183000104 
-0.00769802797047075 
-0.002200373611226884 
-0.006680295726076157 
0.001152292864057885 
0.000310119716350619 
-0.006161258066835621 
-0.0001149651158915547 
0.001520939147088497 
-0.004245717790691534 
-0.0001888154344865977 
-0.002130425586367558 
-0.01217062013002336 
-0.004717432364280458 
5.337393277113334e-05 
-0.002908041412961825 
-0.01325790260087979 
-0.009042615425378967 
0.002452669597182374 
0.003974256885876103 
-0.003232268056086737 
-0.002674056267760436 
-0.005066936942419951 
-0.001505990795124294 
-0.002659644618163731 
0.002925058531100589 
0.006090203289591233 
0.003909055852898513 
0.002850537880930801 
-0.0009077123897959315 
-0.006111863915918215 
0.001666866611043937 
0.003145601608300512 
-0.002095700108752997 
-0.005691612439607936 
-0.0005970507669417596 
-0.004189280347413654 
0.002636989621617646 
-0.006721842934269003 
-0.006767397455536977 
-0.006619244358868274 
-0.001927412321587886 
-0.005136888449880007 
-0.001227742499452623 
-0.003387147217120808 
-0.004753256478513429 
0.0004174555851923429 
-0.002220518451980473 
-0.01087415102647211 
-0.002384169485455319 
0.004100401338641122 
-0.006890081646149575 
-0.008626118153238724 
-0.009581804738139035 
0.003178695184256047 
-4.976726110572279e-05 
-0.005073041623125651 
-0.0007271282284399313 
-0.003961858880983601 
0.00764651587425656 
0.009350720851174579 
0.006427099699014314 
0.01129011318818952 
0.006734568313278737 
0.0005636269330609801 
-0.003723490479329316 
-0.005769065601145954 
-0.002607227577469345 
-0.001820017171644768 
-0.00302006877802525 
-0.0001682627973013664 
0.006868944045762643 
-0.002799352155436821 
0.00190572598753519 
0.005241513821135249 
0.008900175769218118 
0.002977583337855544 
0.01254979456350942 
0.01214060983291102 
0.009778131229853887 
0.01145852360352815 
0.005145898655835542 
0.001648439580427918 
0.005537466404956918 
0.003541821561015487 
0.001687487102528216 
0.004424205492480679 
0.002068314480834407 
0.005047519626924185 
0.003781718275180368 
-0.02090976811649279 
-0.0240030194214368 
0.00290356669915884 
0.01026090101400202 
-0.01004889298338413 
-0.02750067395052769 
-0.012307316372723 
0.008883445849794511 
0.003553274462475564 
-0.02206374456450734 
-0.01560708868839793 
0.007522998961078941 
-0.008549194276252822 
-0.01536740949386295 
-0.02289618466332753 
-0.001857894535282411 
-0.009135761709691792 
-0.02195496055315695 
-0.02066767967138902 
-0.02186087385348109 
0.01832600951532638 
0.03156788542015813 
0.009547414497880489 
-0.01998781412808366 
0.003630455414821156 
0.02567242344943999 
0.01706839232702311 
-0.02009197352194576 
-0.00050822244616039 
0.0285443075437002 
0.009857986016732566 
-0.002176030308603937 
-0.01347357208427299 
0.01461405558351355 
0.001784329014085169 
-0.02007824804700672 
-0.02232972056554708 
-0.05223770302713641 
-0.01538367715554349 
0.009460378175388615 
0.004658032992893918 
-0.04250606908620982 
-0.01598283138581666 
0.007269619289923479 
0.01704162939293493 
-0.01755702732352158 
-0.00263259142868635 
0.02351196844219651 
-0.008647017695001709 
-0.008681877641379515 
-0.03514384559403556 
6.887782141649874e-07 
-0.01006323104571932 
-0.02300457840920823 
-0.002393904154541786 
-0.04847974546699777 
-0.0276068256738083 
0.001859376831120376 
0.02268065445673519 
-0.02679266860377054 
-0.01379671299432811 
-0.005248021056716923 
0.02065188082949597 
-0.004565294767149084 
0.003169312071424234 
0.02567174887521351 
6.531073492524243e-05 
0.001383614714088709 
-0.02791079570239368 
0.001134253861174504 
-0.01204874905473251 
-0.01578646639223055 
0.02582955384892495 
-0.006799371712371306 
-0.032610224021827 
-0.04102354457698798 
0.01215306453113484 
0.005702641079565634 
0.001689252447376056 
-0.02635409355696868 
0.002185099784155425 
0.004631535126320941 
0.01162567036042273 
0.02413793298628257 
-0.01045644325497457 
-0.003991059530345638 
-0.02284215100666916 
0.00565655938998977 
-0.007815736781872043 
-0.01041049397355785 
0.01310989962476231 
0.001581267189055227 
-0.03063353478681046 
-0.05343831227924371 
-0.002908000446944754 
0.005982347997056332 
-0.001592999612300794 
-0.03632592310749011 
-0.01816956039931793 
-0.008651669147715785 
0.007885377791070956 
0.01258067115355626 
-0.024833593395748 
-0.02256402906973009 
-0.03151868384320958 
9.821810917520429e-05 
-0.0143520689263592 
-0.02398326310644117 
0.02265848853991179 
0.03045595963220264 
0.002215776582230493 
-0.02603412870905976 
0.004159730898022961 
0.01457449779730785 
0.01394086322039826 
-0.001825248106624594 
0.001081876294130025 
-0.003489361465708344 
0.02200164881158848 
0.01979442409626932 
-0.01326182923635299 
-0.01633094023197686 
-0.0188463380109365 
0.01278785718844225 
0.007423549397443489 
-0.008939569916387391 
-0.004893511946758646 
0.006147233469583719 
-0.01632710144071797 
-0.02368837512954083 
-0.006075784881589074 
0.004486691271953281 
0.002048084890609665 
-0.01372044450043484 
-0.01337042594689855 
-0.02194887214429509 
0.001171247625106329 
-0.001493096351971312 
-0.01798947527711954 
-0.01854651342830658 
-0.02243745275503022 
-0.002142009368596375 
-0.007907321520448065 
-0.02049833534611249 
-0.003976032900830123 
-0.001757589929000058 
-6.194782346535646e-05 
0.004450183383529462 
0.004433781779500306 
0.01356689717502729 
0.008630701369208111 
0.01646214021476018 
0.002468683036026748 
-0.004721207546465709 
0.003741907595068388 
0.003901223728799604 
0.00575506753876655 
0.005958121106212284 
0.002886022804307571 
0.0003200183819646586 
0.0030326047910323 
0.0007356687472478889 
-0.01250803913193354 
-0.009498875432962199 
-0.005471737250992561 
0.002026260806652536 
-0.002980207872328891 
0.003234170048131535 
0.002346228639812594 
0.006969465870671657 
-0.004726498454315652 
-0.01200090259484796 
-0.006209735386022344 
-0.0005979077791933813 
0.00338075166888149 
0.002141683522792042 
-0.004665101287547638 
-0.004215295388044747 
-0.001389686227708105 
-0.004497930970139628 
-0.004327018178285656 
-0.01126449144000941 
-0.00803000414102162 
-0.00164224601351545 
-0.01100698765950418 
-0.006078598207643558 
-0.00876333119397674 
-0.003128423517319552 
0.001232847317790789 
-0.0102444124059942 
-0.01200694075429667 
-0.003117014499930294 
-0.000112030307359269 
-0.006314264521233104 
-0.0107422519841131 
-0.0112112071035196 
-0.00433034547068229 
0.008770803864464792 
-0.001433749298725101 
-0.00569312354478946 
-0.001515944603769916 
-0.0140364671769433 
-0.0105872567607126 
0.0009346888411707829 
-0.0005355940614430664 
-0.007636299849791152 
-0.003093969848288615 
0.003972611033131838 
0.007707537836349331 
0.008993403736813208 
-0.00357169853391066 
-0.01130033328807367 
-0.000953485154775054 
0.002029978235280006 
-0.007960617539071995 
0.004398704656802102 
-0.005318812800720975 
0.003800056531338094 
0.007477873005024913 
-0.0112613515300609 
-0.007913096747598738 
-0.002089399922837928 
0.002494370251439456 
-0.006139666688565364 
-0.008758544091515486 
0.00193535775198064 
0.01063362878925869 
0.01058916607369049 
-0.007171326179730037 
-0.005763195131782887 
-0.001251604228371475 
0.0003292747188635439 
-0.01073889521258944 
-0.001570305656972018 
-0.00551930376775779 
0.0003284119672456616 
0.003446868695298924 
-0.01094670268726283 
-0.008095122198571095 
1.863722458443741e-05 
0.001021727130175236 
-0.009198514676965801 
-0.01258478028256871 
-0.006631524793411542 
0.00166667546328213 
0.004398156881259847 
-0.007325654075487815 
-0.001247159808454834 
0.001392537052576157 
-0.00322720982425234 
-0.01097767868612937 
-0.008463181865565042 
0.005078868470917707 
-0.0007071478523312806 
-0.0007904577247168917 
-0.01064349946266238 
0.0007167987312206155 
0.004379062722296272 
0.003146249514695016 
-0.002866789309692899 
-0.003052609889327434 
0.005308995377659815 
0.00199108323095899 
0.006925062455931805 
-0.0007603335646139824 
0.005657774217864247 
0.001551781985695818 
0.0007502648313958384 
-0.005309930571689167 
0.007006260988892768 
-0.001434389918421338 
-0.001241549229875187 
-7.785307517676193e-05 
-0.01002791450700303 
9.630086744119572e-05 
0.006931542353477913 
-0.002272437332957329 
-0.003800182760652243 
-0.00815268861721501 
0.003003800765614162 
-0.001363695607655989 
0.007895162773120974 
-0.001433289791831037 
0.00202055238715435 
0.005188806260533089 
-0.0002199809565960764 
-0.008747518213275829 
0.001962798576783218 
0.01073027964525651 
-7.553450697972682e-05 
-0.002797336674482868 
-0.006100609395097958 
0.002809253997087056 
0.003520361559628243 
-0.005837787897591422 
0.001688314978006693 
0.007589436451187817 
0.008479221596562838 
-0.0008324014815834153 
-0.0004556575241677062 
-0.00629240377919353 
0.002885400514138035 
-0.006384508720661758 
-0.008695432985258732 
-0.009925193958474752 
0.009958986144050986 
0.01231545133718553 
0.005484185999646122 
0.008336225112485924 
0.009093437265426069 
0.009764506193723791 
0.0151311826937357 
0.003633515874635135 
0.007690014051383709 
0.00857534033785284 
0.01017011218188228 
-0.001135844780714249 
0.01009328786665365 
0.005531803082939776 
0.009004803018798028 
-0.009437049125196167 
-0.001641082257626385 
-0.003606448503857213 
0.01190095043487738 
-0.01222556824288134 
-0.01434751694211265 
0.01067760015818158 
-0.009470265366129989 
-0.007292265744095957 
-0.01261613328511516 
-0.000404441329882999 
-0.004859695052433212 
-0.01809452733638418 
-0.01246562880684357 
-0.0306905569551913 
0.01142066469050098 
0.007861891600226855 
0.007473683323470495 
-0.04085324554255066 
-0.02531323248656003 
-0.007363149241072976 
-0.0008750978664300824 
-0.01400078586094715 
-0.005267998370865946 
0.02683590363374947 
-0.001369965705624729 
0.00156134754842707 
-0.009257248548288698 
0.01155327668540305 
0.005456148380753606 
-0.01904873510994083 
-0.002358645276476628 
-0.02256079873491254 
0.02408599173554051 
0.01378578932662778 
0.03116546453670709 
-0.03054803528260524 
-0.0180238629434421 
0.002904157848496624 
0.00413357943508888 
-0.01140854672859038 
-0.002206219632387662 
0.0159322675336375 
-0.02072663832235045 
0.0003363435932959607 
-0.02583628069354501 
-0.006763270292533158 
-0.009756111082774094 
-0.01782901798883236 
0.006343690539586498 
-0.01709333545041387 
0.003167274207368358 
-0.01366066948474904 
0.03350491381383407 
-0.02607062787114231 
-0.02185606238165088 
-0.009170812438625268 
0.003686677495595928 
-0.006606619536238437 
-0.004460354291606581 
0.01561576607059508 
-0.01089690114071783 
0.006368954512732227 
-0.021627618528908 
-0.006729048528047829 
-0.0150757070436587 
-0.01429755434969841 
0.01104395406995823 
-0.01800769764750777 
0.0007932490243200487 
-0.01049481375413242 
0.04465781403971809 
-0.01774316861447157 
-0.01414731036334898 
-0.01469470217877124 
0.01048875931130674 
0.001973532560586556 
-0.0007562354081939325 
0.01778274906116676 
-0.01381539382236553 
-0.003899722165866983 
-0.02245250274633899 
-0.004074985770640646 
-0.01492373803965538 
-0.005002224945370992 
0.02228667371856738 
-0.009757240270244697 
-0.001536537987494579 
-0.01962335670424906 
0.02597703060656032 
-0.02334203865046523 
-0.009452587727703817 
-0.02679197804304813 
0.01479151108951975 
-0.004353692102723284 
-0.001570244486304927 
0.01449856873957722 
-0.01844409999788099 
-0.01161262316241351 
-0.02520894459378193 
0.0003794905652224961 
-0.01326159008581573 
-0.01017459489811692 
0.01931755657963808 
-0.007337922747995446 
-0.006433585261988211 
-0.02368442216146761 
0.01895911630706151 
-0.02638575590871553 
-0.01036834176927801 
-0.03600942416886845 
0.003197922593241503 
0.001007105130845128 
0.01899364662379727 
0.01124196071741795 
-0.01343987149208432 
-0.00907983603595087 
-0.01424199809996083 
0.02104073281254225 
0.009553965565770402 
0.002431276623569421 
0.0249577107806501 
0.01980438356853612 
0.001568840785684344 
-0.03091365706234336 
0.01409265384631697 
-0.001643466565454307 
0.002325657732028224 
-0.03332054458675385 
0.0005642668026841252 
-0.01358340390563211 
-0.001741863438566145 
-0.004172337128616572 
-0.01340702939316334 
-0.01003509325637715 
-0.01642422077349852 
0.00438989876963343 
-0.005017820600078077 
-0.009958707383011918 
0.007303408970569474 
0.006884361479136683 
-0.01419410064187064 
-0.03353375988942123 
0.007209760029065257 
-0.005055546887539489 
-0.00591668391400327 
-0.04405425382681483 
-0.01833915834468578 
0.005000990398131924 
0.003204685075471248 
0.006256448674164827 
0.01112074072581298 
0.01179903647096932 
0.003795151567244484 
0.008342925333750448 
0.00770831924972449 
0.008767162123818801 
0.007035669841225132 
0.0007848501123096171 
-0.002784569695879232 
-0.0002053846907470147 
0.01105590274512434 
-0.00125612743331231 
0.001377664058349166 
-0.01079555765809575 
0.001781647626443863 
-0.007482109454714826 
-0.01121564600443321 
-0.002147307565591479 
0.00636207549377291 
0.008857771093276947 
-0.004233171818078059 
0.0006231258216975402 
-0.0006384781735910424 
0.0001080580974144819 
-0.006222104935015545 
-0.01023625481550828 
-0.00846764697823177 
-0.002439704567093355 
0.006190636895850094 
-0.009238327090877466 
-0.008192452842396164 
-0.01230780537080185 
-0.004035902528569611 
-0.006296947907597693 
-0.01357320669552773 
-0.005655375126054811 
0.004056868587963877 
0.001532326089233734 
-0.005653601207810868 
-0.004914731673775059 
-0.001626599444929805 
0.01445188622294495 
-0.003758810959068102 
-0.009681129643008764 
-0.001031530116922701 
-0.005259818717361316 
0.007122079586250029 
-0.007882575087816457 
-0.008094535112570373 
-0.003813088644595494 
0.005958356123366227 
-0.0002908345881231144 
0.0009419916948739255 
-0.001532794424051845 
-0.01021808613721998 
-0.017358509166014 
-0.002246494977472869 
-0.00400773708408197 
-0.0110143155292261 
0.003406853111405244 
0.008739368739433652 
0.00751098796220873 
0.006591015162866297 
-0.007402477324029604 
0.0006177525414763462 
0.009665995016715806 
0.006255105583212423 
0.002384995312492639 
0.01271841616377939 
-0.004393312304394275 
0.0001611836662033218 
-0.0007499535985919385 
-0.01075992785455207 
-0.007673770737242811 
-0.003525597226327435 
-0.007524782275515511 
-0.0169435235277531 
-0.002370511625147126 
0.003455515650878806 
0.006514151251058002 
0.002890425704050736 
-0.005589263656946093 
0.006762165906909323 
0.01005932536744454 
0.00564189414779822 
-0.0008992309031910621 
0.005443759662683409 
-0.0128007861843471 
-0.00714012209154342 
-0.0001393881977771603 
-0.008560548212758097 
0.002113878944045108 
0.001519308321836625 
-0.008018408475139339 
-0.01398485836974954 
-0.008458825731585413 
0.001522984113421464 
0.003560565978035391 
0.001293777798258531 
-0.001164064255856919 
0.01285098629092044 
0.01219800278114267 
0.004329436758719067 
-0.003282511145799067 
0.002609962957368347 
0.0006214760690670185 
-0.00372636453657141 
0.002181958270322804 
-0.007346470183501624 
0.0004470183373791659 
0.000611104299781836 
-0.003580739179944548 
-0.006694264554618522 
0.009886369155048225 
0.00569655270895126 
0.009626909477680981 
0.01414077012827571 
-0.007715706307821649 
0.004055891915419883 
0.003475181024285864 
0.002798056214483925 
-0.001401158494558863 
0.01086933696593548 
0.002747600006039666 
-0.002194627819824324 
0.006867049449319009 
-0.003236533568134599 
0.001224314180022689 
0.007090782151900052 
-0.001154575393712765 
-0.003787732950127516 
0.00753365335375686 
-0.00176270167983274 
0.008472679834739032 
0.01938466929092802 
-0.001957353068425523 
0.00373861606838925 
0.005466181192710289 
0.007914657339044768 
0.0003060917298761326 
0.01419173462712652 
-0.0004221453756747146 
-0.01054147168174161 
0.003350130126239725 
-0.004996370732856016 
-0.00163025544856234 
-0.01543168772245261 
-0.008128625760076294 
-0.005971326177892765 
0.0090192039253949 
-0.008332144088527282 
-0.006647270692868682 
0.02524107984429955 
0.004096549576866608 
-0.006231353232358367 
-0.02141523190776486 
0.009034149236295622 
0.004307144160095318 
0.0213861952684071 
-0.001146797268185231 
-0.01533839682566632 
0.01411536081970574 
0.01257627579914432 
0.006800439819481012 
-0.01968715161412227 
-0.004206460523306759 
0.001383453510650709 
0.01282972990124584 
-0.01496747874103522 
-0.007523626174194786 
0.03443441738497831 
0.02022030598439681 
-0.002896578609350933 
-0.02555064865521098 
0.02066386117523532 
0.01580956756742902 
0.02482309330675824 
-0.02237314204908521 
-0.0455715035870911 
0.01388763204353926 
0.01608744709159756 
0.0116926186095711 
-0.05775772455979028 
-0.02574763230091145 
0.00287099114204746 
0.01118967204521878 
-0.01399246217123843 
-0.02822648164328368 
0.04042900376086434 
0.02556037616697478 
0.008694669915524551 
-0.0406210817163959 
0.0273845583030053 
0.0315287107500925 
0.04117164632814996 
-0.02616623874679659 
-0.05614570080262624 
0.006397666527187511 
0.008991198521954225 
0.02124533743028136 
-0.05523603661399311 
-0.03129562183787007 
-0.001691450035330756 
0.003444707585725704 
-0.005569136241366169 
-0.03117860867529062 
0.03411290637427595 
0.02451697164379969 
0.02208106449566965 
-0.0311226081566569 
0.031967853586196 
0.0332835261752505 
0.04574168253475883 
-0.0001370652465295681 
-0.03577426350607696 
-0.01359612630132059 
-0.02230724785468537 
0.03104949741885563 
-0.04275509144074734 
-0.03477323619008177 
-0.02089748497999776 
0.003636345676045037 
0.0363828786208165 
0.00368317124921257 
0.02203278177832595 
0.004370096763352191 
0.04445591896296007 
0.00148194855154946 
0.01759585046957738 
0.01235335829714619 
0.05172640177286027 
0.0008467112772852146 
-0.04131494487789534 
-0.0226364029426025 
-0.02621213535689512 
0.03793067400339091 
-0.02988270298542491 
-0.03395664416317477 
-0.02962564745823849 
0.004625285357648709 
0.0367830140240859 
-0.002933368600367323 
0.01346502052311432 
0.00453830755639094 
0.05376750890614852 
0.008718439154931758 
0.01420216272177227 
0.004274653470134442 
0.04719919389785564 
0.01427621096385353 
-0.02769971160953963 
-0.02657103051604066 
-0.03964432034922095 
0.02050644885002589 
-0.03403675115056506 
-0.02583991120094475 
-0.0458577791933477 
0.004007987087243782 
0.02934455481382207 
0.002563944331598576 
0.01777394904708437 
-0.0006449200784497495 
0.05907366954324331 
0.006094151562081018 
0.01769616142692465 
0.0007845405403774648 
0.03474309101487624 
0.01842104848309722 
-0.01905525233401118 
-0.02243617353919932 
-0.03974960689356179 
0.02040095685217379 
-0.02891336431112392 
-0.01927418259749503 
-0.05191071002598589 
-0.004567277393509406 
0.03202131968947935 
0.01359846832534142 
0.02267844599150256 
-0.004412846862657492 
0.06006610753415767 
0.01846850641562737 
0.02503424528489818 
-0.001319706642987693 
0.02502465180208209 
0.02749559807650303 
0.01154815484397247 
-0.0260135380119559 
-0.05901785254381325 
0.002626679422501125 
-0.001926332715784526 
-0.00100475811274298 
-0.05356203112562598 
-0.01874896672939269 
0.03097299035191798 
0.03210800736354716 
0.01179245044302023 
-0.04734861522414029 
0.02233470362920379 
0.02780614338314585 
0.04278761998595551 
-0.01058386545139127 
-0.01070591429582606 
0.01831899721646318 
0.01472736171878122 
-0.0167032405245043 
-0.04862286910975963 
0.01120676214525331 
0.007265544443810906 
0.004110914402274132 
-0.0505394831016643 
-0.02668659702949396 
0.02241154430573433 
0.03154759500022674 
0.01172493845669795 
-0.04813844849830443 
0.01732534092880757 
0.03106437205630988 
0.04055632094142866 
-0.01922157146982242 
-0.02436331677805839 
0.01187064804928971 
0.01086584136206767 
0.0001091769971699408 
-0.01493020245211809 
0.01481641220274356 
0.002015331706133893 
0.004479529930288314 
-0.01183011022176941 
-0.0007198352593701519 
0.01720710551316899 
0.0212781066941235 
0.01689571801554249 
-0.02830360780816789 
0.009969415881742457 
0.01278463929527533 
0.02104499445862618 
-0.001333563124726789 
-0.01168737064598503 
-0.006268770808542093 
-0.007308987411013415 
-0.004298883945249097 
-0.01086898552459266 
0.008500955242010567 
-0.006856024661514892 
-0.005844407179886242 
-0.01581928960907349 
-0.009962121320980516 
0.0004472113495261674 
0.008555715653412264 
0.009811752079350276 
-0.02243982742249455 
0.008668124951277877 
0.006183939099518868 
0.009158043233360304 
-0.004762796433032148 
-0.01033161326423323 
-0.004659426047181825 
-0.008706068229503958 
-0.001889031131360842 
-0.002357053147049864 
0.01018743078535575 
-0.001645241083240204 
-0.005442456620668479 
0.0002453411219820916 
0.009439695801988892 
-0.003685134132141409 
-0.0004694249829733562 
0.01276609133726766 
-0.0003104545184124221 
0.009797936159037285 
0.003847151436763862 
-0.002327044460720097 
0.005311721131704197 
0.00484320977615511 
-0.001733702711187529 
-0.008906426073049879 
-0.009968398300043965 
-0.01646864152943049 
-0.00382971034347471 
0.00342341532696993 
0.003673358271004663 
-0.003563757409816222 
0.002430225923461844 
0.01025158931118426 
0.002278858581174894 
-0.001194444542852114 
-0.002555206490705922 
0.008158978042507628 
0.0114749196999423 
0.0008862328037971217 
-0.001370312416352201 
0.006887218796116389 
-0.004575867281069351 
-0.005626205903209157 
-0.007003343349579299 
-0.01650569204757591 
0.0006867657088454562 
0.007719836122983969 
0.0003969406195297787 
-0.009023490367077702 
0.0004770451123190652 
0.005434629472623188 
0.003922070495754831 
0.001646883132271153 
-0.002467430998758845 
0.008950209545460379 
0.01166651462903064 
-0.005871459115587772 
3.483208753010852e-05 
0.007597641553906396 
-0.006987448607038655 
-0.00850693103680362 
-0.006244177616266168 
-0.01047697131491216 
0.00884230745985295 
0.01258465348288319 
-0.001219233178541657 
-0.007234940537312249 
-0.004082151661193168 
0.006402933896673932 
0.004405652521213835 
0.00419980229143449 
0.002803919203751569 
0.01792752237416155 
0.01980595129720381 
-0.002032844444236822 
-0.001052394314844511 
0.008860151388827953 
-0.005552691255545053 
0.003108952930373998 
-0.0003307863759454022 
-0.02012052257421281 
-0.003796647923785081 
0.001194095362655221 
-0.003130921488042856 
-0.003580988826658195 
0.002353461800745887 
0.007161454527804348 
0.001403584385234039 
0.001933855760257541 
-0.008263767573262266 
0.00656040578997517 
0.002893038031173279 
-0.0008166655217766557 
-0.005351018446072955 
0.007645132509366795 
-0.00393868372743285 
0.004496695470744821 
0.009197038791969613 
-0.01028116296982198 
0.0003859107767211696 
0.005989348655547018 
0.008142334918446237 
0.004789546605118091 
0.009290065552765214 
-0.0009430582226184108 
0.008538972322230795 
0.01349581079919817 
0.003063975140368281 
0.004079239728153622 
0.001193538564423225 
0.007045688662464595 
0.002753402605153858 
0.009054844637775667 
-0.01625974613689911 
-0.01121713302795356 
0.01885986985804227 
-0.001902719252969774 
-0.01251448027226911 
-0.02422753710754977 
0.01554797790756543 
0.003605646141551128 
0.01733992151935882 
-0.01688286625676935 
0.003530948216629318 
0.02447240126956381 
0.002682279617480642 
-0.009563819753491852 
-0.01241175106599907 
0.01850581997683303 
0.01092218143419129 
0.01857944913583946 
-0.03127075746634463 
-0.02428895740458771 
0.01987089909574326 
0.00662690382771937 
-0.0109370866826944 
-0.0233104373785906 
0.02514753561647636 
0.01270568913136018 
0.01165144087993755 
-0.02878625808041639 
-0.0008078862276610957 
0.02862158153100053 
0.007232352405260459 
-0.007731219361346264 
-0.01267175754646668 
0.02715400206810159 
0.01342809353176501 
0.01190207874437083 
-0.024374731823913 
-0.02966531813809911 
0.02507381292686163 
0.00400774402117959 
-0.002972617982443159 
-0.031972790198706 
0.04192557556766709 
0.03501038804449676 
0.03422112627693907 
-0.008097927328014138 
0.01390368544226576 
0.03492856070138098 
-0.004774759178040653 
-0.003415316501654254 
-0.004489383837021146 
0.03716644749263724 
0.02587293976758252 
0.02403617454261368 
-0.03319165187650866 
-0.04570978047364284 
0.002869198906237462 
-0.01391996179173418 
-0.007787202001761753 
-0.03304358454087486 
0.03464461013803063 
0.02796775651291798 
0.02064754001534485 
-0.02449478198638546 
-0.004466163656292661 
0.01642980972579344 
-0.0216363033832849 
-0.0117237775564528 
-0.01245213676610653 
0.03831805087367334 
0.02572518911121359 
0.01368389269179913 
0.006798812821706803 
-0.01855315054531167 
-0.002849694534263076 
-0.0234650202627642 
0.0207177014775533 
-0.007107324092304881 
0.02145036497007179 
0.01187465452417057 
0.03640337676178421 
0.004711839368770923 
0.009243594222397037 
0.01904104000596205 
-0.01316066837475619 
0.01416193570949816 
0.006012705848269743 
0.03237964457504922 
0.02209675973193087 
0.02699374104455631 
-0.002986454261155283 
-0.03166930411822996 
-0.01516689682149394 
-0.0288935941756892 
0.02361043935710078 
-0.005220085153869807 
0.009041184920823833 
0.0002406042646367195 
0.02505127094013064 
-0.007852879197602348 
-0.008265477326787635 
0.009609730683949247 
-0.01568823238109592 
0.01872686308648486 
0.006242646862200709 
0.03090506652049527 
0.01901152876263081 
0.01918933390966632 
-0.007470271237535714 
-0.02967516327918996 
-0.01206014106212064 
-0.03109576314693447 
0.02483019141855356 
-0.00412068351044734 
0.01336817252210726 
-0.004352002271082589 
0.01553174375855439 
-0.002829446192513649 
-0.01249587233129659 
0.008370208537234712 
-0.01741597585016514 
0.01440259761780777 
0.00662131645641002 
0.02995687854515319 
0.01626923738070561 
0.01917540979465765 
-0.001151240322733563 
-0.01582937101484002 
-0.0006271671896535256 
-0.02764951876143659 
0.03041740601356174 
0.01448431424940921 
0.02458582328125956 
-0.000264719394723603 
0.006503260359738501 
-0.002039082632007151 
-0.003232615245754908 
0.02293551089792241 
-0.005799030186084829 
0.02404879799724927 
0.01996192781632406 
0.03646536699538523 
0.02041368682695497 
0.01417281440643286 
-0.005430978303399993 
0.002848259703517354 
-0.006701223149397901 
-0.07037664887122133 
-0.004173584790396382 
0.01663801770399385 
0.03988567090769195 
-0.002904410456803845 
-0.02180317593109479 
-0.01778301157387433 
-0.005119517502050528 
0.01990828650745665 
-0.03504794315884464 
-0.004116423068911422 
0.01197803562324015 
0.03489396123269781 
0.01911209117466263 
-0.009738565895607797 
0.007477302156317403 
0.01280259144831464 
0.008250651625308058 
-0.05652714414394679 
0.002364607407779183 
0.02933625346359639 
0.04115463029667282 
-0.001827599921324634 
-0.02587784538053484 
-0.002311723937543054 
0.01418028585830534 
0.03236859488249098 
-0.01949200654557809 
0.009689828653007382 
0.02082505036559271 
0.03492199528877848 
0.02121852976830737 
-0.008126356096294562 
0.007980063267010108 
0.01306930009775298 
0.004813940380148389 
-0.04370265455287362 
-0.01078541765532525 
0.01099922076992006 
0.01830483483507577 
0.00197813644960066 
-0.01561594064839517 
0.00734298749946271 
0.01933470623871569 
0.0215491689805608 
-0.02854885220487926 
-0.002519723908525552 
0.01401939904887644 
0.01991342829434025 
0.01532351463483189 
-0.008928871262167584 
-0.006465153540126195 
0.002503720554900394 
0.004644724326930195 
-0.03103520030291497 
0.001366565323949628 
0.01032616886091055 
0.009134984968658721 
-0.001116829218789412 
-0.01922537992121114 
-0.004539579167886679 
0.009901289758868548 
0.01745346698859174 
-0.02197363463284996 
0.001909916236421544 
0.01593327339196545 
0.01551376908963243 
0.008270653276489875 
-0.01310318775196687 
-0.008963153291414686 
-0.004738361492639474 
0.003599249334763138 
-0.003607192733951846 
0.009486366596724966 
0.005497703709692203 
-0.001244786092670095 
0.004249241429786147 
0.002182369492013911 
0.001605948699142657 
-0.0003875827719257978 
0.01257510835995987 
-0.0007422976663277683 
0.01341133144191141 
0.005529633468678448 
0.0009334509274379792 
0.003743846883118717 
0.00839232790898582 
0.00466396254366882 
-0.005399815186568529 
-0.007800951328461049 
-0.009885518410944235 
0.000886500057860593 
0.009826693278702125 
-0.00293632552497848 
-0.009839457747991179 
-0.002011556676675747 
0.006849173217080731 
0.005440664351097142 
0.00217585049840317 
-0.0006819205006779899 
0.005057917087996334 
0.01475209286682171 
0.008346258784957409 
0.000497501469046613 
0.001707443995184144 
0.0006837678969263539 
-0.0003882353499157536 
-0.005487798999090382 
-0.01366472320628356 
0.001170100217956811 
0.005177946351015219 
-0.00771013707702952 
-0.009027017995674697 
0.002268802851233867 
0.009481088970520796 
0.00657272362050877 
0.004341558358787093 
-0.008851548380232431 
0.002836701659095514 
0.003102666976745747 
-0.001737168527910874 
-0.004757603599564835 
0.01055060812157328 
0.003686043186276485 
0.0005159018206277392 
0.0009980177083258885 
-0.003084409067774764 
0.01184200499030578 
0.01635689559968353 
-0.002584644561713294 
-0.005487867953330635 
0.003039052711662841 
0.009503366263707198 
0.01237644708730315 
0.007613632466048061 
-0.001828303590484138 
0.007674095229499051 
0.009311134481868611 
-0.003925357896285193 
-0.002778360956827067 
0.006414597564519097 
0.002253964422810086 
-0.001818926242563168 
-0.000835426023003445 
-0.01294530913017048 
0.00373434967360186 
0.00105153731237301 
-0.002614877860301401 
-0.008421011014153768 
0.006191100010745148 
0.001495377295415894 
0.004577856124716644 
0.009182283872835898 
-0.004972439577995259 
0.002852403427169626 
0.0009761592312577485 
-0.006984712267905931 
0.0003486710453066927 
0.006574662072274139 
-0.002599017287524073 
0.007626359301235376 
0.01260982062638338 
-0.0005008592973191129 
0.0004460021577964956 
0.0009855809303627406 
0.007347362140410708 
0.001952870058160575 
0.005991041887940813 
-0.002656837424572938 
0.01406415271080681 
0.01798165743646609 
0.00215391539639703 
-0.0009042974080010603 
0.002129850149209145 
-0.0004722337062956721 
0.006641943903964382 
0.004419649203772871 
-0.01965954127811806 
-0.001132030710826427 
0.01595456104185154 
-0.003275955639603752 
-0.008583140072731209 
-0.01322732815900811 
0.01926351218062214 
0.01103313517679713 
0.0114630195771349 
-0.01228352010483739 
0.01029594803407597 
0.01850385458699038 
0.0008570907216673743 
-0.0002051858055246756 
-0.008754153844723275 
0.0129762389680467 
0.008985720639172079 
0.004549580750097433 
-0.0340198311775263 
-0.009519107886920683 
0.0175160673123322 
-0.001435479540783658 
-0.008988428250193482 
-0.01327189059436462 
0.02636724269731345 
0.01340628150488652 
-0.001793590386714454 
-0.02689738420509497 
0.002685411403657637 
0.02360172583511227 
0.001999729891002932 
-0.003825348244019361 
-0.00845630430461361 
0.01310699982655941 
0.004816124642948704 
-0.004537997495785427 
-0.01311447219128166 
0.005883992225961874 
0.02376456726783834 
-0.01444181295799806 
-0.01358981180132407 
-0.008097607843823089 
0.03595358973248944 
0.0256841719501031 
0.01589355419926555 
-0.002604850498399968 
0.01692620581258496 
0.03234385325106238 
-0.003529046840676699 
-0.01201840155419524 
-0.004423311865224488 
0.02986660486529113 
0.01709771525697848 
0.01456970349213214 
-0.02850797595871456 
-0.01229087329595776 
0.01005243019641099 
-0.03135941968902128 
-0.02258598349596817 
-0.01876771810924851 
0.03408111136466543 
0.02408295128086286 
-0.001108808147696962 
-0.01464539438441002 
0.005904406880805654 
0.02002478420769426 
-0.02524104186988138 
-0.02214503415832214 
-0.0154281348725989 
0.02641018985589627 
0.01554821326199194 
-0.001092130253612668 
-0.005256666115800591 
0.002414982207847595 
0.01285326383959699 
-0.02353122642727139 
0.0010289555661344 
0.005563357694298848 
0.03055910660337821 
0.01890227334486431 
0.01701733672520512 
0.009919765952457154 
0.01080835937990905 
0.02087062860002627 
-0.007348691279583571 
0.01023828770250058 
0.00347311431040098 
0.02614909948713783 
0.01963097498727718 
0.021257921772999 
-0.01792058357031914 
-0.01540128949720024 
0.004432398249902218 
-0.02504321956230414 
0.005906860164668364 
0.004048063245472454 
0.0260743418128313 
0.01336746268391014 
0.002762401862363766 
-0.003655093020394171 
-0.002815326539667541 
0.01326837621364296 
-0.008814803572025654 
0.01618906810307516 
0.001520459753378492 
0.01517553484594058 
0.005768711426132351 
0.005329988029815364 
-0.01213193222349621 
-0.01945810343496208 
-0.001281611484211601 
-0.02242671429795507 
0.0002584454474707832 
-0.001126604718371337 
0.02618987893775325 
0.01319070931699038 
0.01431166078192663 
0.0008609682055400714 
-0.005510321976188644 
0.01253142870861446 
-0.009750136775775716 
0.01346814923858419 
-0.001087844122670118 
0.01555532733402667 
0.001925654838656794 
0.008773528953494175 
-0.01266650380029963 
-0.01377664767091257 
0.01447101879791562 
-0.01387584766481935 
0.01219200373853114 
0.01515481991453067 
0.03835307206206005 
0.02137911548342196 
0.008517652248507947 
-0.002019915531859099 
0.006168327425636203 
0.02390377150323055 
0.004252815293805926 
0.02271767345970897 
0.01299879415739194 
0.02924940230339859 
0.01169639828030894 
0.003826373244710496 
-0.02630937539260618 
-0.01322322754467709 
0.01048641540030528 
-0.03768792352031067 
-0.01364134408370236 
0.006015543025026744 
0.03595688028762781 
0.01389940768977643 
-0.01431956514603903 
-0.02573594453178827 
0.0002587265158449817 
0.02162189672831737 
-0.02395513306724642 
-0.01278181924614624 
-0.003099938393528148 
0.02146401417063053 
0.00908819115755142 
-0.02119430487928965 
-0.01310729432464877 
0.003062217009625503 
0.02382743708959648 
-0.02277449678160193 
-0.0001435384970392238 
0.016451465816507 
0.03632241227793407 
0.02260375798392237 
-0.01045157283313635 
-0.01094351906144182 
0.01458355958505654 
0.02983672087981685 
-0.01207377514053896 
-0.002997704563892984 
0.004958569032878785 
0.02580439843734913 
0.01595156457293715 
-0.01063086622939921 
0.0002902932137021218 
0.009574236069520872 
0.01201579064648016 
-0.03115585856029382 
-0.01103241204196645 
0.005755732853443366 
0.02275723055413376 
0.01393281636376407 
-0.007374245116077922 
7.80068363106489e-07 
0.01180576328553372 
0.02175512807769552 
-0.02303475578105366 
-0.01205583916735339 
-0.007601557990928914 
0.008678824126789591 
0.008202749589093805 
-0.007318495619540622 
-0.009277395809458201 
0.00320397363238071 
0.01297644730133234 
-0.02233954290703065 
-0.00103394855935735 
0.01100134899951717 
0.01706719596109648 
0.009399856446380497 
-0.01427436959460574 
-0.008872535869709864 
0.004388199118537934 
0.01710901138829659 
-0.01599247620417072 
-0.003152265751441194 
-0.00247940359503602 
0.00471461210398032 
0.004522195637724306 
-0.009143698473660958 
-0.002414292463259898 
-0.003518563270293644 
0.008572668797479676 
-0.001342312668475456 
0.01093929191622133 
0.004619374182329629 
-0.0003010858961757358 
0.002708849441927555 
0.007561907618934345 
0.002738928604613889 
0.003682585901847846 
0.01518963567297303 
0.008207331463794878 
0.01021713091276671 
0.006312567636243357 
-0.005049822902606617 
0.0009439225581748043 
0.005802961954064034 
0.006080987865606203 
0.0001688799001202175 
-0.002381347781104246 
-0.007554119097032322 
0.002304368800047349 
0.008149083361587383 
0.003484960170896184 
-0.004061830390110489 
0.001985783004032638 
0.01290949308719772 
0.009421898886099993 
0.009556742283923869 
-0.004868569777888076 
0.001328755340464283 
-0.0009062231817246254 
-0.009468946676874966 
-0.01023379607742045 
0.006739614462569475 
0.008317873310519338 
0.00428624049800389 
-0.005982518152087578 
-0.01222078539635761 
0.002209454017104534 
-0.001099803918173906 
-0.00653419305444925 
-0.003523781475440514 
0.004687938971364951 
0.007519777781652532 
0.00653804693722799 
0.005753887391241733 
-0.006572704708413203 
0.00334593180603359 
-0.005452322487296693 
-0.007809061345753892 
-0.003369907302033126 
0.001244768958401308 
0.009575767975780745 
0.006692571403271137 
-2.646926240764798e-05 
-0.005796192999145775 
0.006228058887091441 
0.004762133281963796 
-0.0008653966338407906 
0.0008291631200959452 
0.005406570911509516 
0.005564913380156203 
0.007379566232069409 
0.008520371195385045 
0.0008980361363244661 
0.006740744474294806 
0.002964481238447344 
0.001238706558833641 
0.002291376197898365 
0.005559905182835269 
-0.001142240358345461 
-0.00313375814260399 
-0.004778999491162248 
-0.008993103088053074 
-0.001500631694755679 
-0.001804335861942781 
-0.007972664840088479 
-0.00303385804212338 
0.003312100657918557 
0.003459482088011095 
0.004680781415868112 
0.001327664475558491 
-0.006969165530538687 
-0.003955738729008113 
-0.002513588785899142 
-0.003049042757223823 
0.0005590755949327522 
0.003155516545314533 
-0.007635946684567505 
0.0006374609778173329 
0.003916337398558208 
-0.001967947226563217 
-0.003984106043302716 
-0.0006090678819844387 
0.001206140444429725 
0.002978557182026682 
-0.001311124227683322 
0.00198903391574243 
0.009069649359917406 
0.008770306648625752 
0.004972558493501504 
0.001223179764136799 
0.005014265293953934 
0.003283566179660386 
0.005545766622130774 
0.004865915738025961 
-0.007958652304414946 
0.0008124745688691024 
0.007543589327607994 
-0.00238073161852892 
-0.0009523492972216721 
-0.01327613477420567 
0.01014679782349792 
0.006313358005181931 
-0.00189965788976453 
-0.0009075057379968498 
0.003124875227491608 
0.01335649649896139 
0.004040996719277765 
-0.001809096412567964 
-0.00709900795408061 
0.01036057766061031 
0.004568324636178308 
0.003445510943143009 
-0.02201833750539056 
-0.001874907606216656 
0.01847320454933781 
0.003638775735479992 
-0.000740370844592243 
-0.008443085879418289 
0.01584330885856769 
0.00185772085602953 
-0.01044051822136642 
-0.01791233600416869 
-0.0003015603063394213 
0.01957042763579824 
0.01067214551314576 
-0.00243649677509579 
-0.0117740591449349 
0.01555731042726943 
0.002306291133375655 
-0.009751835849405022 
-0.004699626259443129 
0.01924647965800808 
0.0301711345950366 
-0.002058186072742677 
-0.006861990467739368 
-0.0113427998155996 
0.02779195982666599 
0.01178611577353555 
0.007827867404346154 
-0.009758729310109043 
0.01193745117409086 
0.02571857658142897 
-0.001033267300340436 
-0.01439563094073405 
-0.02097547819404534 
0.02238367853767878 
0.009762105674588467 
-0.0001124764470079714 
-0.01633318398852973 
0.008006108555526062 
0.01992171544266694 
-0.01796431723887152 
-0.01310097036714183 
-0.02051192581570696 
0.02361076484966299 
0.007266685160582363 
-0.01036898821877366 
-0.02214002131824593 
0.0001176156342503226 
0.01251727634337734 
-0.01371318267238234 
-0.01254942239861212 
-0.02762168298895485 
0.01259429562612094 
-0.008838051657656288 
-0.01162036505810191 
0.01438386666093735 
0.01104492490707654 
0.01739017223386737 
-0.006773137333718802 
0.009531588141864764 
0.002631044237589287 
0.02418316580393123 
0.01716615526633561 
0.01940287351672596 
0.02317890870951011 
0.01001292305719482 
0.01177587332809358 
-0.005965313741275515 
0.02117965767078472 
0.002062035343460032 
0.008286784691335525 
0.001852624389594867 
0.01893478538286445 
0.002826789831173543 
-0.002693550746139207 
0.009273258513010653 
-0.009365851270227741 
0.01595645476709738 
-0.0002661123502527552 
0.01336065409326753 
0.004813082841056976 
0.005061046130772484 
0.01557307397955441 
-0.006752482342495906 
-0.00509310707629001 
-0.009270753643934204 
0.02603182310483246 
-0.00206867311649361 
-0.001292837387640889 
-0.0126147462612284 
0.01309842138580477 
0.002856244335782324 
-0.003889827524718407 
0.01075323305319457 
-0.009778889523370686 
0.01428818288373716 
-0.001831345038380208 
0.011646693774503 
-0.0008738723042089058 
0.008128037773199197 
0.01533470818381637 
-0.01347640808047147 
-0.00217097196098216 
-0.006400836181616755 
0.0248163954844441 
-0.007145732075102846 
-0.006539787735794006 
-0.008941151029036211 
0.01778842921657516 
0.002144980412739999 
0.004698726349699301 
0.02513853995144114 
0.008216952138394656 
0.02389066809056149 
0.01122510664114208 
0.02975617661451989 
0.01113978840833786 
0.003598574385139626 
0.01568115506075283 
-0.002262318729967498 
0.01883178477928135 
0.01066696030571935 
0.02970332027811174 
0.0001187722368688255 
0.005079156370377565 
0.002455060451480666 
0.01388904871783638 
-0.02214865941207575 
0.004047390564002269 
0.02507712379351633 
-0.02170307440565186 
-0.01844971397767879 
-0.01001301483142174 
0.01909195146338803 
0.005366979773563217 
-0.01955856817446063 
-0.01201397221100007 
0.001119474606517125 
0.01927418887797081 
-0.02714078854482721 
-0.01879614567239955 
-0.01904929035916557 
0.006021847148804302 
-0.002493504195871947 
-0.02181248838473216 
-0.00698555489271321 
0.01541185245381689 
0.0293020234193746 
-0.009516172121510595 
-0.006734016716766555 
0.003702361283704962 
0.02644346804712544 
0.01622223284923644 
-0.008652308761606277 
-0.005317955272901785 
0.01314226371714558 
0.02701860096227961 
-0.01188857431833808 
-0.006899613438482041 
-0.0008740989171472282 
0.01999106433683632 
0.003783322170185756 
-0.01420320586801951 
2.529602872830738e-05 
0.008627932600309465 
0.01141919231913395 
-0.02261607151828679 
-0.008339796299874944 
-0.004278995732235397 
0.0132373179291388 
0.0135609321171004 
-0.003418432043973373 
0.004333532231740624 
0.01780504926667147 
0.0180829658973121 
-0.0188973618999999 
-0.006566503858459156 
-0.005046485756942157 
0.01478467715387228 
0.008841465615727882 
-0.005801946948332666 
-0.009617734957316342 
-0.003691898679864828 
0.003660639833921649 
-0.01362417242488133 
-0.004445508296244833 
-0.002906924679365836 
0.00550140728238098 
0.005814460433952782 
-0.01108654366053385 
-0.003931344024487768 
0.008549887104622244 
0.01062866688909136 
-0.006990625230647361 
-0.0002114429246229647 
-0.001231585110005044 
0.007899992643391189 
0.003579548606264681 
-0.006311372534260864 
0.006414178383510924 
-0.0007533888610638066 
0.004372845711898499 
0.00256590720338249 
0.004854136759425104 
0.004526672914353803 
-0.004628508166586173 
0.001986297052499333 
0.005438522924276917 
0.006544484695085403 
0.0109702757339835 
0.01189239742869045 
0.004781376958377154 
0.004405587121305498 
0.005865898826495896 
-0.003634831585617913 
-0.002656814547086414 
0.01126641348968383 
0.01068813999170656 
0.00181542174648031 
0.001944057932314594 
-0.005937505280822031 
-0.0004749091670980869 
-0.004130091966786834 
-0.008433788538139038 
-0.004244760204892419 
0.006290780273841273 
0.008970872696539425 
0.002701188985529632 
0.002510003947815544 
-0.001068751390236826 
0.01010508723873183 
0.0058144157152285 
-7.071683377732383e-05 
0.007411747850079981 
0.01017864738558192 
0.002842247536899751 
-0.001505831697275755 
0.0009875531850276642 
-0.005712771971414545 
-0.0002022291888552888 
-0.006630038705535658 
-0.01271318660198018 
-0.001885374035777296 
-0.0006603257767575694 
0.007176723890843697 
0.002068264531957582 
-0.0002868137662493519 
-0.0009999872000262663 
0.003182402686980392 
0.005858891305983961 
-0.007626768040070865 
0.01127815456529993 
0.008465968417195581 
0.000502641099902433 
-0.002417751313464181 
0.003679741438940843 
0.002069543302406673 
0.001202717704051264 
-0.0006607510962900466 
-0.007141234754614686 
-0.001248566878417631 
-3.387445676813805e-05 
0.005249429293390387 
0.00221411941380185 
0.001489370878581826 
0.00748131185871437 
0.006515426745077554 
0.01157790383201192 
-0.006021889846092949 
0.005442138463001333 
0.007906545302165177 
0.0004424884487743709 
-0.0006675601387211128 
-0.007420273057837533 
-0.008625422236975768 
-0.005595740708031692 
-0.008281852309946868 
-0.008374235313220105 
-0.002931337142399973 
-0.0009326148285819147 
0.003746313769210139 
0.006208944234896673 
0.001070416663731229 
-0.0001349562900477211 
0.001293018333257032 
-0.003496417615035138 
-0.006603541654393755 
0.005199501057348455 
0.007175547163086216 
-0.003174476210739893 
0.003526727526427114 
0.002396946735091096 
0.001415357347485681 
0.001309624256165793 
0.003206065979741548 
0.002972277069558719 
0.004529968720928878 
-0.0005623378599704655 
0.001097975186157705 
0.0133675206055853 
0.01341413546982724 
0.01161357464133351 
0.01104442166770196 
0.001612880068477015 
0.001382393812975252 
0.01040043580561978 
0.00600617363423829 
-0.007228569500443351 
-0.003827482490049564 
0.004036810833059204 
0.001134703703753221 
-0.0006202880576115151 
-0.01010950008238288 
0.009918955112569575 
0.00228105730307134 
0.002950345446609958 
-0.006143960615520494 
0.003750417647062332 
0.01657607041412647 
0.004572639143460767 
-0.001594123826688014 
-0.01034891269944877 
0.008795765278453117 
0.004681487411737608 
-0.002428522020577116 
-0.01837616552871711 
-0.003009436771934139 
0.01461795195456802 
0.01004421108584439 
-0.00309795842617505 
-0.01033273429696519 
0.01894404294572781 
0.002534484258776394 
-0.009577020665467806 
-0.02022699829351211 
0.006097941617122526 
0.02773268526918867 
0.01623108192910649 
-0.001995786554810695 
-0.00805054088177432 
0.01978836912789033 
0.004704903247482205 
-0.01258928396312173 
-0.01375477252040066 
0.006998408307794601 
0.01861401561682021 
-0.003314434270765734 
-0.01768608545046971 
-0.02303124362795639 
0.02530322407482968 
0.009713848633957127 
0.002287494839097627 
-0.008967346713367214 
0.01323761762588085 
0.02951224663099972 
0.007216980202563889 
-0.008315548647125017 
-0.01445007406111926 
0.02180821186949058 
0.01165973513694071 
0.003675871498097481 
-0.02346220038852023 
-0.001919456486188998 
0.01039596479114051 
-0.01004057862923874 
-0.01152847879755042 
-0.02446439533370032 
0.01372836866988834 
-0.004866973179744019 
-0.01133911550563963 
-0.01676485513459943 
0.0058542436005573 
0.01785229253761777 
0.002053344589149151 
-0.0005577745790475866 
-0.01169016387076946 
0.009212585297299056 
-0.003265459090686928 
-0.00341811093890312 
0.02070326121574522 
0.004642093239422602 
0.004928620990843497 
-0.001594552081182976 
0.02876181644417012 
0.007335839405130506 
0.007749503642392178 
0.0004080476255273478 
0.01899307572106097 
0.02877830719015469 
0.01216627143986851 
0.0101498385479763 
0.003154412006888865 
0.03170174259003637 
0.007208976279063286 
-0.003489742714149263 
-0.007485515434667418 
0.03059133100830119 
0.01833292696906288 
-0.00903057393069266 
-0.00690742717978436 
-0.003444898450937086 
0.03171623537238626 
0.001482200458010635 
-0.001788263207648204 
-0.009357845928493419 
0.01610284166958603 
0.02463438131399272 
0.000929830651255053 
-0.000254584514223141 
0.004636641149100186 
0.03526644660871905 
7.083564852728769e-05 
-0.01791083775659134 
-0.02124693260314276 
0.02130349408185512 
0.02210156185736502 
-0.01300177901614173 
-0.005893924418092668 
-0.008035927290374166 
0.02850768010031976 
-0.00649998804612015 
-0.006974468925884245 
-0.004095578329917414 
0.0238501333328369 
0.01928336807878822 
-0.00781072519660938 
-0.0004166972878336337 
0.00202558867583437 
0.03457134363363266 
-0.0112287603417693 
-0.02454454316238604 
-0.01101192370511007 
0.02637442500693305 
0.01866308990428529 
-0.004516480854572223 
0.01220593539182339 
0.008265906005607233 
0.02908432987089752 
0.004066016795144242 
0.003804334820951273 
0.004064349557087224 
0.01956932703787641 
0.01680539438807254 
0.0004624991866798443 
0.01325350172842497 
0.01144428691161386 
0.04114476867962295 
0.004629228739979265 
-0.007805836869381004 
0.002744829467925657 
0.02385191927398125 
-0.01063108430120004 
0.001191197628504978 
0.01559789777472471 
-0.02697429039019176 
-0.02036763569340942 
-0.01318405723499718 
0.008741134768652211 
-0.001697765272845881 
-0.01788440060174581 
-0.001174629367620529 
0.007963312678548422 
0.0208958847363103 
-0.01474040585427741 
-0.01199866261535628 
-0.01227686946157361 
0.006961795967580997 
-0.0004078772687877468 
-0.014488436502801 
-0.006753566689326452 
0.005150624871685671 
0.02076454707963393 
-0.01924665156665355 
-0.007931898482593307 
4.81471380397917e-05 
0.01912925539391733 
0.005031447558355625 
-0.01563638484229582 
-0.003395072218480564 
0.0168350624081349 
0.02889907251010358 
-0.0045146649272878 
-0.002619068778463808 
0.0007357116018411159 
0.02072429379340179 
0.001509458146265534 
-0.0156512925490987 
0.006127494152859752 
0.01510131617973958 
0.01288418513138563 
-0.02256559686923573 
-0.01138459148643506 
-0.00779035259884345 
0.01143807283342462 
0.00835368227421599 
-0.006555824606382574 
0.004367775478285562 
0.0207157589250249 
0.02039847936193894 
-0.01295656316456647 
-0.01540616177119262 
-0.007746784065878382 
0.01178288457227565 
0.008970393716690181 
-0.004401779627818497 
-0.008299236501485513 
0.003368874064181265 
0.005912717442636576 
-0.0142928009793075 
-0.005565129467200502 
-0.005696693683104001 
0.002555695841571776 
0.000813415235316193 
-0.01126432666999371 
-0.01019859453230069 
0.007616743684603572 
0.01368672619480922 
-0.005866563378349276 
-0.004877535844516103 
-0.004973347840894504 
0.001922358995962523 
-0.002402191140641015 
-0.006285418634030622 
0.005698082905032886 
0.0092558373773899 
0.006441051025528666 
0.001167014577796851 
0.001530591126252564 
-0.0002473008212665716 
-0.005228693279973956 
-0.006015116341261321 
0.009139382402925835 
0.007070867868351456 
0.00703383364567328 
0.0107952173654139 
0.01263326857583973 
0.0049186470640791 
0.01278133491699642 
0.001861090442268414 
0.006812361254467608 
0.01257813716071128 
0.006850718660898341 
-0.004998906748886096 
-0.003799545878912646 
-0.004803919346832379 
0.008214692687938447 
0.003383396540533837 
-0.002567434953122991 
0.005623900041195434 
0.003886255175949824 
0.02062524859270361 
0.009545106445338108 
0.003476926171978334 
-0.003091827295221391 
0.01071611229781181 
0.001578873904284641 
-0.002764199794816553 
1.902157070460774e-05 
0.008746925777661145 
0.003630892762164467 
-0.007954129553090905 
-0.005873038028568315 
-0.005907816815759049 
-0.0008663338344881548 
-0.0009271943226444591 
-0.004053590558000951 
0.003692955867357519 
0.003984321459385987 
0.009488118806633056 
0.005002305607275059 
0.006520734408546806 
-0.002099153986545543 
0.001902473626992241 
-0.004794228561101516 
-0.003603734750536703 
-0.001222550894201101 
0.00489588448681678 
0.0001728712489608209 
-0.008543531519628781 
-0.001573182484114625 
-0.001133158777014704 
0.001654688028722224 
0.003205607471406424 
-0.001218546367631062 
0.002922573634298607 
0.003321536822141825 
0.008046002959930373 
0.00959557377214856 
0.009344816416132015 
0.002653350712796173 
0.006730227119666827 
-0.0009259685481113494 
0.002612030056807875 
0.002986129519012979 
0.002635653182119171 
-0.002481572679998561 
0.0005128510302107642 
-0.003291041277877964 
-0.01119446320339108 
-0.001885086200987071 
-0.00897217730753007 
-0.00885618320804255 
0.0002622251895684902 
0.003347579805940219 
0.01381371607229039 
0.01473970656752848 
0.007759827578475902 
-0.007583433569231779 
-0.000488772533771857 
-0.004470637290625254 
-0.004363781567221382 
-0.001453766605964128 
0.01126644157403731 
-0.001466389574938115 
0.01008380491523939 
0.01166924435464601 
0.002321171433226547 
0.00975340754015511 
0.0002187617867892736 
0.0009191214111997414 
0.007988476345230451 
0.002171281135964478 
0.01396451595134313 
0.01901692195209734 
0.01463414800225037 
0.00274344493435929 
0.01181413956507057 
0.004721619027753124 
0.00522963434066245 
0.005523279816488851 
0.007991789982413167 
-0.01360038211052872 
-0.001849618915137048 
0.0117405605485361 
-0.001753484830007249 
-0.004014112055576521 
-0.01358362379895823 
0.007730133845056246 
0.002052762405706537 
-0.008797196291639406 
-0.009436872341007525 
0.004620705758809025 
0.00711072694520856 
-0.002289594562824658 
-0.002471586226391494 
-0.009688178590108011 
0.003424905098176157 
-0.0003154222930201925 
-0.01145244226367574 
-0.02242616115986253 
0.005390396614971834 
0.02370749662319436 
0.01042874136435929 
-0.004883162138306401 
-0.008281604005921664 
0.02379171839061922 
0.01183138021195706 
-0.01568447900913407 
-0.01636247956918051 
0.01138919191930328 
0.01759767186894863 
0.005338191408241605 
-0.006200298429063567 
-0.005669688875718031 
0.01298290315548109 
0.00461873194245073 
-0.01722621103970091 
-0.01441705276198593 
0.007762247893353558 
0.02462937409392066 
0.00407147677968211 
-0.008042093090066963 
-0.01318075430064038 
0.02028097492633146 
0.008191449044163848 
-0.0002059058976600308 
-0.0008802878803392348 
0.01312394382998687 
0.02463145920941153 
0.003209884588076607 
-0.006955907410645869 
-0.002319998472628192 
0.02174203587109253 
0.009345581053802404 
-0.00103774871179157 
-0.02055665807991447 
-0.004543756113078184 
0.01109468262307661 
0.000100095396775056 
0.001742013067724474 
-0.01096472502510319 
0.005841517331539996 
-0.004586072631628508 
-0.009136006154111609 
-0.01518515296306578 
0.001833380769126299 
0.01213575026707858 
-0.0002992518412385284 
0.006360722566351666 
0.0009133935746668928 
0.01087390769604096 
-0.00543903130234953 
-0.01705906252857748 
0.02796387017338539 
0.005276894773193417 
-0.001381389360638892 
-0.0009459929497897373 
0.03280671625886904 
0.006564878213505247 
-0.002469966987008385 
-0.003042369741160588 
0.03020132390440967 
0.02826470520454862 
-0.0004528824251975588 
-0.006918773066796649 
0.003151207199417531 
0.04142607340469969 
0.01366392502860696 
0.01076853466697509 
-0.0003186204556182665 
0.02462793209819204 
0.02553566863043379 
-0.006851492191369189 
-0.01322042282668729 
-3.688644040670802e-05 
0.03506124971178839 
-0.001774001795018574 
-0.01195090069274362 
-0.01440021401953931 
0.02192815553643757 
0.02110000369503006 
-0.01503148607251808 
-0.01731214535355997 
-0.001674804141393164 
0.04161378718980085 
0.007940134149231512 
0.0007777896338687166 
-0.00455346979665824 
0.02308225208716593 
0.01926436307416274 
-0.01252320049420146 
-0.01111550600147258 
0.001644150942617921 
0.03293905839989938 
-0.00897596495103792 
-0.01639616058645655 
-0.008963187691211417 
0.02594458354239508 
0.03191773484351686 
-0.01836748972314541 
-0.01603212536608969 
-0.00261874861082725 
0.02821043809529944 
-0.003812697595292491 
-0.00517380400021916 
-0.001166177512077708 
0.03521784967309776 
0.02047309503514719 
-0.005536205398900459 
0.002612383348466885 
0.009675517784780398 
0.03771690509236265 
0.005347675508997176 
-9.748058491931578e-05 
0.002039758664474091 
0.02569958633765203 
0.03189159325550352 
-0.009403627205188883 
0.003915983280319718 
0.01430039108136957 
0.03399175073071344 
0.006328525131506045 
0.006141690364124949 
0.007194813600310889 
0.03270762923040419 
-0.002754469626838959 
0.004656909815573733 
0.01271923463453977 
-0.01705515893245499 
-0.02061323145587355 
-0.01485908978459377 
0.003781529235280686 
0.002715546723294933 
-0.01466810223091849 
0.003862540774347147 
0.005605667578189966 
0.02025226253334182 
-0.01284836504226959 
-0.02178667821933994 
-0.01771386261097336 
0.007443684421578424 
0.006211397788799695 
-0.001092442015636294 
-0.004911493603806638 
0.009865949227760839 
0.01882827535263996 
-0.008442931138974477 
-0.01045685868803209 
-0.005641077560873953 
0.01410580569957157 
0.001008563806825305 
-0.01890187828403816 
0.0001491673231333702 
0.009959025043002978 
0.0243127281956387 
-0.002181985559698225 
-0.006655926029672267 
-0.002293902455043968 
0.01816924537904325 
0.008342706134455221 
-0.009919583280184784 
-0.0004156213903290303 
0.01111233325042645 
0.01385795464332626 
-0.0118922828766186 
-0.0157824153639787 
-0.005361734555293855 
0.01516677432308322 
0.00608350999908621 
-0.005632424980980935 
0.004361403058743349 
0.009729702874282188 
0.01459801381889809 
-0.004182414727678641 
-0.01015794741236919 
-0.001194617943052662 
0.01172544022926671 
0.008446931032993309 
-0.0005884031777557949 
-0.01090503377326364 
-0.002036235439884953 
0.006267137870080006 
-0.009178219961278884 
-0.009392287516763593 
-0.01166657086950269 
-0.0004713026746826506 
-0.008262625303162562 
-0.01140628510887612 
-0.002052515427121814 
0.0003470062790028002 
0.007419350356744484 
-0.001683302178965936 
-0.004722187726580191 
-0.004687850787258305 
0.001471368343775949 
0.0002303880014480138 
-0.004681762894683267 
0.003717984340636788 
0.0001370291021713512 
0.004511175794993666 
0.009606858396989625 
0.003860087885079938 
0.00908097350754654 
-0.0004162854143825342 
-0.002426311863384005 
0.009957909732043402 
0.007415389834995209 
0.009684680175536305 
0.0132164802792646 
0.01875577266739696 
0.01410662777918714 
0.01007223138051176 
0.005829182648678962 
0.002302508982325356 
0.006596298160355766 
0.01706293161633436 
0.002603281625910234 
-0.005045534346632772 
-0.001801961045766151 
0.01299102922376588 
-0.003045950800586788 
-0.009574867460271584 
-0.008190924594062191 
0.004436757295786966 
0.01602006207178378 
-0.001722138928651023 
-0.0005085308972803699 
0.000475195224647126 
0.01942969667525642 
0.006982447103290739 
-0.004394649498992728 
-0.00214780119819629 
0.00683715759463495 
0.01070225706927727 
-0.001962273595002219 
0.003128172342518219 
-0.004692571799282783 
0.0004949309025257427 
-0.008674302587584044 
-0.00852545928679144 
-0.005794893655326293 
0.003020017663508236 
0.008691175514562346 
-0.006380562181267358 
-0.001789023664741627 
0.003136954170523502 
0.006016757595981145 
-0.007195382032651939 
-0.004792081394840511 
0.0006539203917151245 
0.006811770720679338 
0.006693830380305106 
0.001154758869187606 
0.00682345593133511 
-0.002842741358524332 
0.004432466356519543 
-0.003553780882730062 
-0.002889006335562569 
-0.004580867292500816 
0.001779336508343484 
0.007970314031550347 
-0.002532811675921392 
0.0006073062298932243 
0.004343875368204964 
0.008968772210007579 
-0.003944803089998656 
-0.0002800356841845958 
-0.0008104238052275057 
0.007151627847562399 
0.009747655141053701 
0.007767913860207762 
0.003977625786175366 
-0.01077293620633108 
-0.004110518123310077 
-0.004020018469499936 
-0.005583324853811833 
-0.008774299837513305 
0.007540085039696805 
0.01239968606677113 
0.002588612945642844 
0.005396908637380774 
-0.00205310133416906 
0.0007891775586880895 
-0.003448442224694585 
-0.0006794686733384086 
-0.001190812230024275 
0.006992959351243267 
0.01228174724461974 
0.01172655516566472 
0.007039998350338786 
-0.00278302820113536 
0.01033796886771663 
0.006058879351373151 
0.005209642734035554 
0.0005376091356773587 
0.005669404446660533 
0.01402123175394036 
0.009744706700144996 
0.01038219053151459 
0.004646137788529417 
0.01590708368199912 
0.0107387741302335 
0.006173617872326741 
0.005751230615355087 
0.01188414143610421 
-0.01143625965783786 
-0.0007273385790574368 
-0.004364454467251869 
-0.005419169833108937 
-0.003103355381785599 
-0.01144994840425721 
-0.002088572739673486 
-0.004578762856654072 
-0.01154969403724691 
0.005232316352943234 
0.003590311044443327 
-0.003120664447324882 
-0.002974224848259557 
0.01087852201341122 
-0.002732068767442041 
-0.005618116694288351 
-0.008472804083903737 
-0.008721019960495645 
-0.01410097179267857 
0.01001396071886246 
0.006115578517480759 
0.004117066230495407 
-0.005179473586561904 
-0.002916478651361114 
0.01057367328140039 
0.002720298169470987 
-0.01780854959311865 
0.001241873149443332 
0.01794906485354442 
0.00776458649942141 
0.004843954868274822 
0.002633923339570692 
0.004553594217840193 
0.006430623176264903 
-0.002181625220431787 
-0.009462026606009944 
-0.004969498335879003 
0.01621606211602791 
0.01681617803169584 
0.0001939191622440213 
-0.002152829902275311 
0.0007251764366845456 
0.02235968866125114 
0.003616123588539694 
-0.007800669876160695 
-0.002790805518472056 
0.02041190020705283 
0.01891986184434062 
0.003496569803206274 
-0.002369939981253881 
0.004846918280247768 
0.02484327363607235 
0.0006960189031977245 
-0.01471367750541235 
-0.01909072150981985 
0.001981696777827962 
0.008139441796398309 
-0.0005396963851162519 
0.009040527707877295 
0.004767969989138561 
0.01650311051319702 
-0.008351237599423139 
-0.0250881954888156 
-0.02226139524755824 
0.01233500527623668 
0.01688634864598703 
0.008154151737526217 
0.007000076997019984 
0.0003732398401245418 
0.02050091244481481 
-0.01264491173070468 
-0.02947196261641319 
0.01884814973066366 
0.002186172484207007 
-0.004527126978558994 
0.004552552753078016 
0.04022721420141977 
0.01350045441332428 
0.01833061786132474 
-0.001645585945778833 
0.01448941420701057 
0.01217803775948297 
0.02066015224661623 
0.02543476571865337 
0.01721814327295754 
0.01881898314757858 
-0.005453951276847395 
0.02105393948150766 
-0.004071450937773281 
-0.005367616706349627 
0.01321740838065042 
-0.01323130498382588 
-0.01632966664696858 
-0.001002831367740619 
0.03715459904128769 
0.006509696846516028 
0.007520232952970315 
-0.007473459836365293 
0.01129545934193745 
0.005447949140720041 
0.01714840418401125 
0.0188942572762778 
0.01317210726132723 
0.01200639156677975 
-0.0186626570203452 
0.004884411223358105 
-0.01416437856435421 
-0.0143040734366206 
0.03226906776248088 
-0.01772079143148699 
-0.0162801468796321 
-0.004532925308538428 
0.01582142151517332 
-0.009587696217759636 
0.001628454058413007 
0.003841391361544183 
0.03195638904038455 
0.02418292164327278 
0.01426737398665493 
0.01514323390213789 
-0.0005318944087475984 
-0.006381964891388688 
-0.02933413491685983 
0.004511272705187151 
0.002093336908744141 
0.0034046670581545 
0.03269837044866737 
-0.006294376598645059 
0.004013691793494909 
0.01194278820838756 
0.01758825305799297 
-0.000714388773140617 
0.01499951329503298 
0.01246085360203573 
0.03029633896855687 
0.02467077439523596 
0.0202196078883814 
0.02276483013288475 
0.01140479299357906 
-9.693378073822045e-05 
-0.02038877596657935 
0.01431366583150221 
0.01325954833975442 
0.008206378356244449 
0.003595528425014965 
0.00416359403408219 
0.01433956668286338 
-0.01470080687373801 
-0.02158100035040033 
-0.02072469072402739 
0.01182263120280175 
0.00889219783024477 
-0.0005848802568570114 
0.00646311807454512 
0.01338252214412923 
0.01884093742863473 
-0.004688029378180857 
-0.02685173833514437 
-0.0278169548579698 
0.009110676918759436 
0.01641795313620268 
0.002384050488456378 
-0.002758779814653071 
0.00543706837162531 
0.01778260955676399 
-0.004255356295629645 
-0.01348432120946115 
-0.005868286149889673 
0.01570958539560479 
0.008471249566385697 
-0.007452952623804747 
0.001252552304623395 
0.01488918715987429 
0.0216225279834116 
0.01039353032160193 
-0.01416530593170435 
-0.01456937024321346 
0.008354036657318192 
0.01460564663867835 
-0.004110716922334843 
0.0003134505193499543 
0.005189514202215832 
0.007062485832663824 
-0.004058639436111022 
-0.01361738399454003 
-0.003220833913811045 
0.01222935505912254 
0.009761435679296023 
0.001648771769977493 
0.01277660633112984 
0.007574954851441866 
0.01541367557969591 
0.01109146694392167 
0.006770625840107828 
-0.006073265531193616 
-0.004157942437646096 
0.007182253497867897 
0.008506804699944829 
-0.006191355194439614 
-0.00714040178371779 
-0.003946716111829511 
-0.008558049125327857 
-0.01137922076104742 
-0.01065439524931364 
-0.0007565380037613049 
7.409596722840065e-05 
-0.00766751521288262 
0.006169882283252055 
-0.005527625518193834 
0.004873680334928366 
0.006590227365757458 
0.001015117604534469 
-0.01022981017876293 
-0.01247809800689908 
-0.004711871528152316 
0.007286866562890154 
0.0007352580517484864 
0.005735826904082379 
0.0049000169527004 
0.01305895215565774 
0.01411995301867154 
0.003439742669920766 
0.004370924157595267 
0.005251828481914684 
0.004786307904661412 
0.007662976264164774 
0.007651815239437259 
0.005078186132663563 
0.01233894596447918 
0.01587391006039372 
0.004986986677134406 
0.005246319022080538 
0.00790664388557224 
0.01481073968591154 
0.01422710759826983 
-0.004673649716153408 
-0.006244128997033264 
-0.003302696934455923 
0.01722706465328977 
0.007337997121042909 
-0.0008098544919800775 
0.00192408004531218 
0.003914272950927029 
0.01721612309222207 
0.00552679464705661 
0.004155763288770421 
0.008395527588414971 
0.0185084284595791 
0.00590842770520177 
-0.007928579397688748 
-0.006518271786386911 
0.004498278684577552 
0.001860485884710346 
-0.006507338420766107 
-0.004273073437835095 
-0.0007160945460723353 
0.002596561424629391 
-0.008253742301159472 
-0.003310471958232549 
0.003361285813739756 
0.003539568426330219 
0.00384970496587841 
0.009274084688874798 
0.006692360298153116 
0.002352090760415852 
-0.0001420287090243504 
-0.006035054743584182 
-0.003693187170323498 
0.001014374322707265 
0.003802277159555529 
0.003381274251078378 
-0.004571465530824216 
-0.002453454589575734 
0.003568567236621716 
0.006261397617217597 
-0.007461765587407122 
-0.0003504445574267311 
0.0007809756777295429 
0.004832375180535222 
0.01032553510874554 
0.01124144143418064 
0.008784205944397985 
0.00697711098175254 
0.004483523503896528 
-0.003018354744721971 
-0.0005705200722812565 
0.002516093872555164 
0.003404406748210211 
0.009065742020681063 
0.001960978699974545 
0.002316656310716426 
0.001253805795778911 
0.0005906418942528636 
-0.009018853822046353 
-0.002041873739109415 
-0.003646876034706707 
0.004707651805997833 
0.009291539488528729 
0.00107678739480409 
0.002284585481992702 
0.004840554319730185 
0.009962833386439648 
-0.004303922487572032 
-0.003457591551212183 
0.003883890074100942 
0.003001361986024646 
0.0090591822927562 
0.009977982452555696 
0.007293531462273037 
0.007624728536490806 
0.01463873111478814 
0.002402055123330391 
0.004238390324764634 
0.001022097126230203 
0.00996425990437374 
0.0113637980594592 
0.004951424656605601 
0.007993115042572121 
0.01362361526531788 
0.01980300831987769 
0.005018154114811165 
0.001972989685022589 
0.00729691715951208 
0.006305693259458765 
0.0002809599731486346 
-0.0005730268572397751 
-0.002545996623558395 
-0.001934974576616457 
0.006895520261581117 
-0.008888005196953944 
-0.009659311101385267 
-0.01302121459737581 
-0.005103965405613419 
0.002078783791633854 
-0.001634945869407506 
-0.0005393152002179288 
0.005258486179856962 
0.01159408305857692 
-0.00931507075521845 
-0.00629090811534709 
-0.003426969728150482 
0.006472047585926478 
-0.003161157838580794 
0.01338241977122143 
0.008854479687949177 
0.004364941720782153 
0.001079985812993412 
0.001420304864093634 
0.003063132424815866 
-0.004065871570765148 
-0.008827231836795672 
-0.004692562917764808 
0.01119420346933256 
0.01437208228300165 
0.01652521668994434 
0.01339553467713523 
0.0006493605918673011 
0.006584245965031369 
0.004420850390833243 
-0.0003131892546844855 
-0.009389426149052022 
0.02076092184588734 
0.01568010871516919 
0.0004712742343439128 
-0.004972525867395646 
0.001866791636786841 
0.02334481282489716 
-0.002180696755499364 
-0.01544932770349774 
-0.007434262854615362 
0.01882858845444646 
0.02101926026445009 
0.008221798521782538 
0.004020773744691327 
0.006323067599416984 
0.0230720671122322 
0.009417372923395031 
-0.01703752085035679 
-0.0185084052689374 
0.01569229778936218 
0.01869961629055949 
0.009543958087831006 
0.007681073413167696 
0.004758481897278465 
0.0236041513529661 
-0.003967937241987371 
-0.0275539009488178 
-0.02200121512155047 
0.01788739329487447 
0.02247395364255285 
0.01023259410638349 
0.005318708584524803 
0.003915541824497967 
0.02401012898608765 
0.007689810551238618 
-0.02679761903876047 
0.01290347201262879 
0.02493505046700151 
0.02342700651688834 
0.02017613683116879 
0.01606850407292256 
-0.006137431255881465 
0.02541513673239478 
0.004089830367751172 
-0.006547455903182572 
-0.006339237290830675 
0.02198717719066896 
0.0265590461314424 
0.01843013952164667 
0.002722914151499022 
-0.01621074474609659 
0.02221570256017323 
0.01197826690202848 
-0.01494442699518215 
0.00411708906859844 
0.01798537334232737 
0.01790457370371656 
0.01748041727066119 
0.01293297985793664 
-0.0119478063570557 
0.01819323023420168 
-0.001288613758842084 
-0.01336531483637804 
-0.01092734959463378 
0.01492170964001213 
0.02467371235257532 
0.01325202595116156 
-0.001887441601487328 
-0.02047432256588166 
0.01626456626411444 
0.00349477341767693 
-0.02419386140978166 
0.02752608287585144 
0.0140771388211747 
0.01318171422921423 
0.003306378885461306 
-0.00950593171013967 
-0.02164740025746514 
0.01550013997068839 
0.01019333310958568 
0.006069436377189634 
0.01498589109688627 
0.02179021983249436 
0.01945359086781889 
-0.004941002496227542 
-0.01818802641152506 
-0.02375309085539939 
0.009007385275478961 
0.0007867349792847973 
-0.01198928177410822 
0.02441432309312385 
0.01912376415971899 
0.02305131841629923 
0.01318539311489444 
-0.006347112395933108 
-0.01951675602374172 
0.02186496433362184 
0.01927317941401961 
0.005173567782426774 
0.01819040641944469 
0.02766487600814404 
0.02644665308259852 
0.005531529718747177 
-0.01152811169435983 
-0.01261047426709958 
0.01585889198141755 
0.006360733146804241 
-0.009913134524482132 
0.007982194082728548 
0.01452217350744842 
0.02087077877769079 
0.0009249557958213163 
-0.02636426773333307 
-0.02464637467569283 
0.01368162400127506 
0.02331949177682916 
0.005540898353232655 
0.01296702431754935 
0.02258691856963211 
0.0205120843784614 
-0.0006382725131738064 
-0.02372213113760067 
-0.0204366830112867 
0.01519305277443324 
0.02037440216931543 
0.004520403324285896 
-0.001765764737287237 
0.01047991097925641 
0.01976809674973349 
0.007659949003469376 
-0.01717999376783147 
-0.01954662317236866 
0.005839625269784689 
0.01487577423738276 
-0.007779991794990816 
0.009210598655890721 
0.02032814118799197 
0.01537942304250835 
0.001197976116153343 
-0.01551534274308452 
-0.01040531828390962 
0.01448676682403744 
0.01618041665675189 
0.0006615413850026211 
0.009846921699249837 
0.008749832691708278 
0.01276828293428232 
0.007997444949401746 
0.005974912365826454 
-0.003353810282626816 
-0.006453217306972623 
0.001159460816083205 
0.007603397476550302 
0.01434022196017451 
0.01693182523102867 
0.006497122158254225 
0.002963074868921568 
0.004775922867513148 
0.004903808102417625 
0.004008313109906723 
0.01047037000661509 
0.009913433305836909 
0.007863039428929965 
-0.003626740857472902 
-0.001404015905919382 
-0.0009720644389220386 
0.002360004268465571 
-0.008365691492059903 
-0.0134903828025749 
-0.0109311337426827 
0.003514079540919468 
0.01181237153726581 
0.003201575131309045 
-0.005645402619050222 
-0.003743981246663328 
0.00455003636433556 
0.0007189225591951825 
-0.007740059865101944 
-0.004274249348067822 
0.009433712895618498 
0.01170205583282513 
0.006576003109112818 
0.0008039779326447149 
0.008716451224640749 
0.01560526673249484 
0.003566179587645277 
0.006742756367597755 
0.002855575494498494 
0.01532968699632092 
0.02069369003264077 
0.00860803894151483 
0.003937780574234425 
0.008466971616070825 
0.01690260980066004 
0.005001962609934897 
0.00407743250397519 
-0.001790074461715456 
0.0168262527468501 
0.01348774820505678 
0.005978234517133415 
0.001065429360542398 
0.01145755986227121 
0.01584932566107906 
0.0023612043591704 
-0.009995973540762636 
-0.01096051082356811 
0.004550108676368211 
0.0138360838838803 
0.007561693303130989 
-0.002647357752716236 
0.006030779130773475 
0.01551545598913622 
0.005317843703413564 
-0.005699202079820962 
-0.004631530611232466 
0.004513329412482149 
0.006008013230031467 
0.01159225223620985 
0.007106034587712479 
0.002840132340540245 
0.0004358971345899125 
-0.006235481714949091 
-0.004703855719516612 
-0.0004414191705363655 
0.003274488850285473 
0.003517479507708293 
0.007510690646897604 
0.001443815834316415 
0.005316261378620399 
0.007067470680424541 
0.0002617074735598505 
-0.005249484233498462 
-0.0002510946043498116 
-7.613182091608811e-05 
0.008961544000665622 
0.01076885595286192 
0.01026757341242842 
0.005166819423980299 
0.001612429573162326 
-0.003047728032624545 
5.738949550719748e-05 
0.001050269198442681 
0.002064207826368383 
0.004432679768464174 
0.007747932527434683 
0.004212418559774966 
0.009458877859412511 
0.007099995530059721 
0.003273471832602104 
-0.002460984983760288 
-0.001831216198027108 
0.003061456164688744 
0.009211152415913294 
-0.001654814505758198 
0.002539597425428622 
0.00237989623544384 
0.00486261928157434 
-0.001883503040998238 
-0.005866734843200605 
-0.0007338557136708285 
0.002053364467967137 
0.01046392754379999 
0.001396094100641919 
-0.0001428428762925258 
-0.003076117642868657 
0.005082128698703072 
0.005703769013519289 
-0.008843898200514363 
-0.006500959746026327 
0.004278637402178712 
0.01090145182687602 
0.001899665676701354 
0.007586388206870602 
0.01175670017994268 
0.01554148240287031 
0.003962433917394426 
-0.001482210739517841 
0.001261876675624914 
0.005393692648997809 
0.0119237568843348 
0.007612105260096137 
0.00591757816471091 
0.005858024879053091 
0.01127192057387225 
0.0102098400929321 
-0.006884668891347995 
-0.002789157145972043 
0.007792748678129894 
0.002791713297255421 
-0.004828120599540489 
0.000775679463770443 
0.007333177780611041 
0.005006250813200682 
-0.011374850857534 
-0.01223877475167656 
-0.004006437034327642 
0.00871766377799176 
0.004417667124310964 
3.617408143382846e-05 
-0.002320518187107914 
0.007578340358054493 
0.007834359545743732 
-0.0043341705443362 
-0.01090037192381151 
-0.001856502714775737 
0.01307958494960278 
-0.006166293490313151 
0.006526128015181853 
0.01470349444236503 
0.01957254506416062 
0.009687643930554234 
-0.002740159759150479 
0.002611068624458525 
0.004440489123697149 
-0.001675131261722251 
-0.006421350683201283 
0.008535722173383468 
0.01540040479400439 
0.02181827095552078 
0.007004060429904427 
0.001413551543917074 
0.004983356053302175 
0.009005691829089262 
0.009261037975666492 
-0.01672783280801799 
0.0190414474751255 
0.0255003948307675 
0.009615990318344605 
0.00243084342650909 
0.00124084806938923 
0.02120540731469765 
0.00745869725843451 
-0.01782827355928709 
-0.01960823124585949 
0.01386471425909162 
0.0322489062329109 
0.01795058916666754 
0.0006867183800378409 
-0.007597089970979259 
0.01658084964686101 
0.007865040461107269 
-0.006828020025984962 
-0.01841400752738733 
0.02356317361739498 
0.02887408595887541 
0.01451668679353811 
0.007649486769992447 
0.005351457909367412 
0.02788653659931159 
0.01133671054349958 
-0.01934261452425048 
-0.02288243389906249 
0.01719221831372 
0.03914166768693696 
0.0213518513760495 
-0.002882755973981641 
-0.008302369908373672 
0.02254977347294366 
0.007156230217152463 
-0.01278183850318114 
-0.007242836591012842 
0.0284068801155473 
0.03096875866728079 
0.0178627898819654 
-0.0002725581329495891 
-0.0167234993118489 
0.0281072829397683 
0.0145128317758422 
-0.01220196420436145 
-0.01731344946027867 
0.01963795159769468 
0.03470707081045229 
0.01246955668322069 
-0.01344622164987965 
-0.02919821751905735 
0.02496781797613805 
0.007972656693983783 
-0.0140667950344766 
-0.006929119809912569 
0.02090429908774696 
0.03144407535472046 
0.0147243344373212 
-0.003174140351410681 
-0.02021706572192732 
0.02652449322190765 
0.009087676989496878 
-0.02074444944446272 
-0.01846527401041224 
0.01568541224023632 
0.03304974178263306 
0.009127879797112057 
-0.01629549992935401 
-0.02827498024522406 
0.01779014681401094 
-0.0003232001787655927 
-0.02555493463679293 
0.01378334834119507 
0.02412907678447049 
0.02707799112102803 
-0.0007227888013813889 
-0.01150763682213101 
-0.01501418398584677 
0.02301458729214136 
0.004091144352221761 
-0.01471368250040791 
-0.005170233384027829 
0.01960156462334854 
0.02833048474325827 
-0.009375786101991742 
-0.01276001779821616 
-0.01645172856693853 
0.01742449635520555 
-0.007811726306526993 
-0.02670923662407126 
0.01147356364603799 
0.0274373513730212 
0.03193867267674208 
0.00535013617521142 
-0.0107940810868404 
-0.01250964976260584 
0.02461557601668273 
0.008685825112976973 
-0.01560019434678582 
-0.001301247022112846 
0.02474532086977812 
0.03576252743119608 
-0.007162320688152886 
-0.01457764658418512 
-0.009945486484363964 
0.02436625489336366 
-0.003529750902866237 
-0.02518631174856588 
0.01583362068766872 
0.02781674434597898 
0.0244214089119202 
-0.002693458114493064 
-0.02244365222588872 
-0.01476335054206694 
0.02251448134580719 
0.02123387486845436 
0.004775304358428046 
0.01485685780957277 
0.03231406452307639 
0.02874599205404984 
-0.01606148141277093 
-0.02256742000235434 
-0.009223258182662753 
0.02154612449728466 
0.008803409861396286 
-0.005111144588791331 
0.007703613161431736 
0.02252363704765522 
0.01898122039444621 
-0.005946849801961755 
-0.0228922495611513 
-0.01102060818161632 
0.01373912967783732 
0.01509137478756764 
-0.003611398581435821 
0.008405315099110829 
0.02856666995586179 
0.01905452737093538 
-0.01532766086680768 
-0.02319705424397847 
-0.0007422221864401166 
0.01661098350454647 
0.007009555315598747 
-0.007561704764684355 
0.009127505702313646 
0.01963662611092436 
0.005562809870612666 
-0.003670378628543941 
0.005525683102164357 
0.006771172688835733 
0.003073016992074825 
0.008163885023478687 
0.005433391985832418 
0.009762886893372446 
0.02126561954290787 
0.009769111264235689 
-0.0002544635543502459 
0.004929752733357945 
0.01224571750866379 
0.004132833862637918 
0.006526448439387988 
-0.002734632292502574 
0.003171096413769274 
0.004190568377033438 
-0.007687588888249604 
-0.009682087247074514 
0.005115453676473427 
0.001841588138490689 
-0.01027484762247182 
-0.005891966237052358 
0.001380088272237378 
0.002789826412919252 
0.006615482917089167 
-0.000460220273903604 
-0.003972114986844487 
0.006486858568314289 
-0.0004669200498934483 
-0.01269502790495971 
-0.004377523586192923 
-0.0001036049476812663 
0.01404827272874259 
0.005426854271948904 
0.002356401366061834 
0.006236342150154702 
0.01693206154349952 
