solver_type L2R_L2LOSS_SVC_DUAL
nr_class 2
label -1 1
nr_feature 28425
bias 1
w
-0.01864278294079424 
0.0449444541340555 
-0.03065407579887 
0.0301224736441731 
-0.04058831923898249 
0.07163014739820993 
-0.01823013532683819 
0.03768727586717972 
0.02592700998582651 
0.001800708329422253 
0.01915667930074403 
-0.01341912313449904 
0.0442099092602894 
0.01007221986039095 
0.03176675904625818 
-0.007987996819810099 
0.03046759188071794 
0.01792998732087237 
0.004079760007304993 
0.02245163369127222 
-0.03733488041744473 
0.05780389723742677 
-0.05501211719278862 
0.05929216979138532 
0.01325661141916405 
0.02477973118369873 
0.01752625215416955 
0.03908351101866998 
0.01705332588866088 
-0.007132985131958032 
0.04613534485603821 
-0.04250556961191256 
0.03496650620269882 
-0.0001070965187574168 
0.02141564982638241 
0.01006215157672305 
-0.006439950046013513 
0.003354074443306865 
-0.05230913270725629 
0.05611923072902588 
0.006331039984050587 
0.0573830134379792 
-0.008558254923887218 
0.006959660485381363 
-0.006090813596237916 
0.009401554740991167 
0.007926214467255084 
-0.007382830812018446 
0.02109705320256504 
-0.01585362004195425 
0.01500503096140757 
-0.01227266192101514 
0.01436213910275314 
0.001975480129549242 
-0.005823626900040078 
-0.01917829536750416 
-0.02785570109289864 
0.04967131046665874 
-0.000545876569552885 
0.02710302962614736 
-0.02843432778090439 
0.003645929884694051 
-0.01475923396586457 
-0.02207358007384197 
0.003433486097727912 
0.02854851670653687 
0.01906341093668551 
-0.01049416497279344 
0.001395510231612255 
-0.01808658288829255 
0.00574197315139508 
-0.02642543413057068 
-0.01396316868016752 
-0.0145727500468576 
0.0001485359346575423 
0.04879947846961369 
0.001278644137753441 
0.04211210936349812 
-0.05316622479942468 
0.02139319486263785 
-0.004911030590548641 
-0.03393095430319464 
0.007172949888621737 
0.01617287475301571 
0.02176891677438862 
-0.0432345278933952 
0.01703471007243393 
-0.02378248291115065 
-0.006553087633601288 
-0.02124053660592856 
0.02932256149866493 
0.01704710280704149 
-0.01223760469853044 
0.01123323733281621 
-0.04246734635625349 
0.04540976256474544 
-0.04683108324103552 
2.685423595973174e-05 
0.004481853518545406 
0.005206402391802363 
0.01156556397331622 
0.0005600806359292223 
0.02160985904694472 
-0.04972422988974814 
0.002510868117252844 
0.00335835523295286 
0.01367855401924051 
0.01793179185263426 
0.01431472572808222 
0.02169131144119229 
0.01017998531128169 
0.0227316249797357 
0.002182884697458869 
0.05838165053538748 
-0.04504708495266648 
-0.01064102933764353 
-0.01518164852152998 
-0.005272614250189828 
-0.002937695216288733 
0.004120177588650393 
0.01952699150716817 
0.006626022138215793 
0.02593369610743983 
0.01093934312713768 
0.0102314080566918 
0.002555699876314869 
0.01580568943525476 
0.003580476614553683 
-0.04423212179193399 
0.004776546215955916 
-0.06014421193010645 
0.01339945971236925 
-0.03422229309437934 
-0.01814170888552795 
-0.04854232963708694 
0.01369042710718201 
0.02232869331912621 
-0.008466785911522692 
0.005293698499274318 
0.001725918815934513 
-0.004474131007433632 
-0.02644379530900749 
0.0159237867154957 
-0.01933966361450944 
0.02762803752009789 
0.02195128870987184 
-0.02327948090956327 
0.03221317781222142 
-0.03967203832000158 
0.01403361859822728 
-0.02789728863266691 
0.000807352840182251 
-0.05438043330439226 
0.03076296467027402 
0.007574910928560605 
-0.009249751157800273 
-0.000399847687611563 
0.01125980917007712 
0.01325014627980043 
0.0002469017187451046 
0.03219928424179112 
-0.02204358605873948 
-0.0107828153246565 
-0.01452666254700241 
-0.02793099658881331 
0.04953903219401239 
-0.02432249265089327 
0.02275882239960261 
-0.005167210497984013 
0.02711020928611642 
-0.01135589833688468 
-0.002190195080762621 
-0.003231653896158987 
-0.006663467894883763 
0.009298084942128207 
-0.0352037427634132 
0.004656742232480185 
0.01319394286969957 
0.01470123115909277 
-0.01124734174394585 
-0.01692400230468953 
-0.03545565704907665 
-0.05255795810029572 
0.05096144112448925 
-0.0198183654667206 
0.02128470737179633 
-0.01932763878678724 
0.04749085288866229 
0.0126524507315285 
-0.003506359034019948 
0.003048890657820604 
-0.013092306733313 
0.02169484629708761 
-0.009149226865146109 
-0.007191352978778139 
0.009622950179619661 
0.01808147212986973 
-0.005519041591661408 
-0.0009144251170590544 
0.01780273029752502 
-0.05001412249274649 
0.04335845786700483 
-0.03179621006879909 
0.008477132996067411 
-0.04041259215300784 
0.04948369008042349 
-0.007168639923403265 
0.01041279577682365 
0.02494872369982731 
-0.0298915267565959 
0.02096732094609427 
-0.01330866817640412 
0.01044974672489806 
-0.003573684234376422 
0.0344011278985475 
-0.01789809968810194 
-0.004098902472427209 
0.0158650780125756 
-0.02843883418070003 
0.07479021389720412 
-0.02055294626305375 
-0.001285245981713099 
-0.0398343887294238 
0.0560723407479231 
-0.005033077260641208 
-0.002903192152006704 
0.02964054799683218 
0.0002381495246687712 
0.04257004994397884 
-0.006733517357454148 
0.02768095294504241 
0.01154602551749808 
0.03051872044598495 
-0.04065047745995922 
0.007187833566095788 
-0.01163806460436953 
-0.004105048047163012 
0.03927382267913937 
-0.03258273224974509 
0.03062690750036818 
-0.0415033881654886 
0.03580643344613928 
-0.02310761943067495 
0.02384661232650958 
0.01298044767881644 
-0.03446198636574702 
0.01939928770726921 
-0.02732204061893809 
0.01349328341903019 
-0.01679725793638811 
-0.01893670595815949 
0.0005687118225275453 
-0.001880786187502776 
-0.03913275765445579 
-0.03116528210885477 
0.01453526864874642 
-0.04391794849388342 
0.03914671791444743 
-0.04676035391773169 
0.02249755694845195 
-0.03380602581287325 
0.00716060996982494 
0.007505278295024171 
-0.006356632477473879 
0.003017213130577037 
0.0009862775056968275 
-0.002373070097555698 
-0.02375481929174484 
-0.0267043923180972 
-0.01466891277619849 
0.03740843869613015 
0.02511586265419748 
-0.02799563338539468 
0.01253601770969749 
-0.0470821000547093 
0.05133165900319976 
-0.02137704552688703 
0.04807317158902012 
-0.01469847907733254 
0.02449780489761418 
0.02421174367225889 
-0.02639864519176339 
0.004791510924761542 
-0.01766051565080934 
0.03593566890869399 
-0.002147767795743508 
0.03044712485758516 
-0.01087757250068755 
0.02178837048564471 
0.0189333537417756 
-0.02680819962600459 
0.02978622378684382 
-0.04718626636390506 
0.0584678697741371 
-0.05467138403920229 
-3.887659894466424e-05 
-0.03582680639804485 
-0.006984272784140673 
0.01084787973562571 
-0.03413715632057376 
-0.0009066554077270329 
-0.01284109957580788 
0.06011536515141052 
-0.02412444319796147 
0.005849420606428572 
-0.05728194585638473 
0.08463306048551437 
0.005115496119918794 
-0.02863856962384357 
-0.01135285534340819 
-0.07829443363431861 
0.03055985512480051 
-0.0298945768530473 
0.006595830744157265 
0.02350519368524364 
0.008601605238977923 
0.008739944942478792 
0.005201332834720525 
-0.007882340756084768 
-0.06301779949745671 
0.0366848671104616 
-0.01021745741656635 
0.009913968262829677 
-0.02246472263543546 
0.008333604906858399 
0.02103100436887808 
-0.00234673118060482 
0.05767833715033643 
-0.002281028169934583 
0.008950879332922329 
-0.01204188256965736 
0.04980342427383879 
0.01496721438445842 
-0.00827527785190022 
-0.0143676802569524 
-0.01520027354462464 
0.022104106903551 
-0.06096632034924721 
0.002267460865073934 
-0.027216273738904 
0.007552205595281259 
-0.02717927032875796 
0.01201551980207811 
0.01968878566314175 
-0.01008776927090395 
0.05047351210521887 
-0.02524709828973468 
0.03892967947623552 
0.005072065281881676 
0.02757521491438715 
-0.01217130233239647 
-0.01904428094537402 
0.03775677645518299 
0.005364677711463755 
0.02318353020733249 
-0.0186528694727241 
0.0291845795890792 
-0.005459486851034827 
0.01747435638883433 
0.01180934306012573 
-0.01057479264141922 
0.003503820638996646 
-0.01387934295632834 
0.01360446607503161 
-0.01290425921600667 
0.005631552607118254 
-0.006671973633692659 
0.03123366153047134 
-0.02216346022005077 
-0.03117606296997248 
0.03485727164900818 
-0.02384328876488683 
-0.008117093104210009 
-0.03482281762648309 
-0.004230788552229745 
-0.02845977355235253 
0.006340377627395052 
-0.0107695721479843 
-0.02570383088727285 
-0.000505881064923547 
0.01842127541826467 
0.002614225440524731 
-0.03103537583079221 
-0.02226805090705243 
-0.01918348756622176 
0.02173858177797976 
-0.02030199567350496 
0.00615135542241822 
0.009288107137227341 
0.004233967862111567 
0.00509188708077739 
-0.02085927895615728 
-0.02308031121142615 
-0.03206170569680509 
0.0235808524119803 
0.02745714476496647 
-0.02750352672337572 
0.001464032986124752 
0.01836235481831569 
0.01733326185308546 
-0.04253771467129167 
0.0245719864736592 
-0.003063493902901546 
0.009911465818017757 
-0.02259339653305036 
-0.01866002231330169 
-0.01624028683653652 
-0.02149686748433897 
0.0004300159961751401 
-0.04487994217422368 
-0.01455362678847321 
-0.04045703297644974 
-0.008414694767117804 
-0.009432813450889203 
0.01888328261418215 
0.007438136670780984 
-0.01532768995618058 
-0.00831192702207134 
-0.0496981135822902 
0.02753741205748534 
0.02491149029022322 
0.01559431663817508 
-0.002362329987297473 
0.004684100166264354 
0.0006564028467287334 
-0.0272387266660782 
0.01340492153167508 
-0.05580111096609029 
0.005583026109289031 
0.007380769820606997 
0.007298263487490296 
0.0001573238408526814 
-0.009843920017414024 
-0.0178034795288062 
-0.003231615805125104 
-0.003574446351993635 
-0.00561385711767701 
0.02500077820168795 
0.009093003725340295 
0.01334958540149891 
-0.02762044921553954 
-0.007908409184230067 
-0.008939318440150511 
-0.04820486244133244 
0.01966387953988505 
-0.03963026858775176 
0.007540564024625937 
-0.004933511101053523 
0.005477708540201594 
-0.01552726805491166 
0.02263766951836063 
-0.003079876503671438 
-0.01089167011814728 
-0.02923983101560712 
-0.002212418490318618 
0.009744173598860604 
-0.02121636775890807 
0.02780176699446309 
-0.01862887041319519 
0.05927895716031856 
-0.01357759579694823 
-0.03063362010021221 
-0.01143457490025346 
-0.003752522096286687 
0.02015888167282953 
-0.001268005388927399 
0.02231591610414921 
0.01043729314914877 
0.01115917834883757 
-0.01146015032574069 
-0.02129893345407639 
-0.0132236830769781 
-0.0004668354718524979 
0.01593808188460866 
0.002939315552164425 
0.01489088541859573 
-0.01840972789622378 
0.04890593818079468 
-0.007423187266272622 
-0.01538538561893606 
0.01958388618422026 
-0.01534741608374007 
0.03358061346322269 
-0.0120914775786282 
0.02614228587781838 
0.000588531775540098 
-0.00973036177414319 
-0.009382181630844416 
-0.03318971611430192 
0.00958683757597239 
-0.04122530276515547 
0.00376707613058773 
-0.009419078533558181 
0.005604744559886731 
-0.05838706028382949 
0.0130657744005631 
0.03807601343837671 
-0.0271107901123817 
0.03432567911733274 
-0.03931108949974797 
0.003141687577350079 
0.008750184829145816 
0.02924437398495061 
-0.04562489195909539 
-0.0047712823280686 
-0.006208485008828203 
-0.0241588069368582 
0.02795995224940724 
-0.02514208294270001 
0.001093367455618527 
-0.01997829134430432 
0.01293219368535863 
-0.04272777841417056 
-0.005021996296058592 
0.01699622413829622 
-0.04567710253915091 
0.04717344017905119 
-0.01834881270183157 
0.003977582454018103 
0.01085228880356566 
0.0176323423936454 
-0.04672772906409659 
-0.007661422898123191 
-0.005784405091907323 
-0.03064785673663193 
0.04051444681126459 
-0.02628314070234514 
0.01450496044813285 
-0.03377762998400952 
0.02819056335416192 
-0.04420016336458808 
-0.006038909890864253 
0.002954321336712658 
-0.04053284710627586 
0.03060255045804028 
-0.03509901448484189 
0.007821133048562551 
-0.0002124511643023192 
0.01658073518168409 
-0.03406661991290952 
-0.01010839954888886 
0.004453088830037456 
0.008154608448024767 
0.06009692823594322 
-0.01918592272583526 
0.01579368695251476 
-0.02205491695363141 
0.01151648980751836 
-0.03184835752065761 
-0.02104195078036184 
0.03335318829512847 
0.01390741583636111 
0.06487541372243369 
-0.03664608159279865 
0.03040578521038289 
-0.02817655938601215 
0.008319064920909731 
-0.02830149149946489 
0.008629279538235531 
-0.01469790125668365 
-0.02693299000236932 
0.006368823363919579 
-0.02046938866774002 
0.01413788963859054 
-0.006892004361283345 
-0.01595749678372771 
0.006749231116341173 
-0.02269940988813354 
0.01554365202541632 
-0.02430938293572409 
0.02373317271738689 
-0.02983674933164461 
0.03942994841435215 
-0.02638822546621115 
-0.03805873212137831 
0.006962813248716558 
0.01703945002605958 
-0.01567090018230556 
0.01183503678665268 
-0.001096881341241948 
-0.00476064506223829 
0.001054574087062254 
-0.006235288256186252 
-0.007130586676011664 
0.01632763311764712 
-0.01270157470918114 
0.01365806205732469 
-0.01967452370982526 
0.007831768714498498 
-0.02180923290616672 
0.03182136792590359 
-0.02182935848309352 
-0.01532777496319913 
-0.002234807149035415 
0.005143428578395633 
0.007332526709584118 
-0.006827294641088617 
0.01448954653683798 
-0.01740636838112465 
0.01816412303423693 
0.0002510083322530935 
0.02651443301662899 
-0.006464383583884547 
-0.01438979141737307 
0.001990404958727778 
-0.015636457503683 
-0.028403780107012 
-0.04092105715770533 
0.001073596586233113 
-0.008900133974298214 
0.01097961365664128 
-0.03393154372685912 
-0.01410914832842891 
-0.004730844401785267 
-0.02515791313092602 
0.01507693968629291 
-0.000361904130455337 
0.0419511993145226 
-0.03583040960570493 
0.02059257735142577 
-0.04820982777903578 
-0.02176086221318029 
-0.01085763239718805 
-0.03614086535797058 
-0.01754821533747954 
-0.006834243087381191 
0.008229714808205819 
-0.02564203618157677 
-0.001625939281437226 
-0.06182679290485583 
-0.01027925608676431 
0.01288852204346457 
-0.01198709432657584 
-0.008069716461125186 
-0.02953859528777245 
0.03997215370288765 
-0.009563541919790447 
0.008429843698160404 
-0.03297986002409754 
-0.02991732661982332 
0.005923412523273515 
-0.02712557835983397 
-0.02213305621668123 
-0.02846812405945554 
0.03287769275216244 
-0.02402773137409804 
-0.01900003627377578 
-0.02068340170480405 
-0.01712632365935132 
-0.01422411271096 
-0.03056727853585004 
-0.004816785818657908 
-0.05368638363445973 
0.02066125417258822 
0.007100957301027565 
0.01512873813527625 
-0.01078751094532232 
0.02966293173227567 
0.04142227724827587 
0.01300274897894425 
-0.01303005324755023 
-0.03405387503001513 
0.01313675374690653 
0.01730155890446609 
-0.01756166124454221 
-0.02623180943652576 
0.007373376932386097 
0.04569777148250088 
0.002272382535387125 
0.008995716761483159 
-0.02205832704073353 
0.02829674906990828 
-0.01329075628539452 
-0.0006441075676637853 
0.006525209911365789 
-0.005416216129326143 
-0.00116579472143814 
-0.01500132588629636 
-0.00287130870726681 
-0.009591881765901891 
0.01000838165540151 
-0.01495385055537282 
0.02113843016595284 
-0.009273897439008486 
-0.01642127002655986 
0.0222457106466204 
-0.006966105319456371 
-0.002649162705050492 
-0.01180779542832642 
-0.0001258474118857741 
-0.04267365200163023 
-0.01833030580421356 
-0.01276911077244585 
-0.01773837743172661 
-0.01212552857434174 
-0.007721236264625848 
0.002519594560945394 
0.003402282203864196 
0.0001770843988640033 
-0.03060303017516891 
-0.004702191781312613 
-0.01984589601937288 
0.004500753900008609 
-0.01114098056822935 
-0.02000004136239309 
-0.01598813667078998 
-0.02819751447579419 
-0.02899292880728721 
-0.02762371318772123 
0.01821081136652964 
0.03449955218955428 
-0.007020317304217651 
0.02066866907730753 
-0.01660951263836645 
0.01142304733479573 
-0.009730298133881187 
-0.01133389528528547 
-0.02000820700058035 
-0.001061383954361892 
-0.01585413909070557 
-0.01357488243758833 
-0.01904475210371957 
-0.01142927080581456 
0.01055576788332708 
-0.0405596769108917 
-0.005458285339718203 
-0.02069145325809212 
0.003273875729324986 
0.01094142541741533 
-0.02136551400342047 
0.02507036507444197 
-0.003759871833435763 
0.001745379023014753 
-0.05143791730089299 
-0.0007068018208979379 
-0.049565934304888 
0.0008758855989825803 
-0.006653531040112758 
0.03576017666853856 
0.01494350376894829 
-0.007142505005735441 
-0.004422311071725233 
-0.0509936941543323 
0.001250826127198862 
-0.006561262171040241 
-0.001321015289884843 
0.01656412043017224 
-0.00246576621414544 
0.01384911660462516 
0.02476865499737524 
0.001153568787748334 
-0.02704324613994574 
0.01895215867553167 
0.01253652190386558 
0.02210292817579654 
0.009499914008063815 
-0.00387969821351805 
-0.005154947033387829 
-0.002517469059742983 
0.03807881461287751 
-0.02505181713885614 
0.03149242259981834 
-0.0042619854658804 
0.00792935484906635 
-0.0003036273916841355 
-0.0616224890045638 
-0.005689836939860689 
-0.003249142649081499 
0.01175970016133447 
-0.02059579605880993 
0.0179214339770884 
0.0173848969827506 
-0.005995896276186744 
-0.0169045228471476 
0.0511820573078762 
-0.02579405226106803 
-0.0213869548670391 
0.01039289711905203 
0.004998536308752191 
0.02396487125090436 
-0.01237591233843918 
0.01195460278646358 
0.02735683028149552 
-0.004487085766447306 
-0.03870008702969754 
0.008918201095839049 
0.005718896961709173 
-0.0236319792791821 
-0.02359058193659308 
-0.06189800618879361 
0.00600557418829852 
0.03786434709195601 
0.02963491329603006 
-0.02888224693147134 
0.02253047644488391 
0.05734501732782998 
0.03451782552169961 
0.0406975661161893 
0.004481117747005062 
0.04790341615678795 
0.02930874875542889 
-0.05719586580916905 
-0.05598190037508441 
0.04990335352350839 
0.03212536618806526 
-0.03803273550717303 
-0.07463409366548923 
-0.05517878217149014 
0.02627601795667736 
0.0092254776533214 
0.04109672643380532 
-0.02356165378725219 
0.009974554425939208 
0.05636212738802534 
0.01126698394036937 
0.009490257591808776 
-0.03188410852594251 
0.02935657100115302 
0.001651636344276822 
-0.05740197402131995 
-0.116821050993714 
-0.002226342932753347 
0.01890527952031821 
0.00460387754425882 
-0.08539466285628532 
-0.0578117453778146 
-0.03815292065773865 
0.0299991671747882 
0.03181757918625981 
-0.01294791744203225 
-0.009803152658382846 
0.06899874405129865 
0.0223347758512927 
0.01420870350235552 
-0.04203748415417167 
0.02156313431390097 
0.01666267817229146 
-0.01398765466104732 
-0.1119945390690782 
-0.03765125828831554 
-0.01559754362598268 
0.07440404869742656 
-0.05508338417781435 
-0.05207952742129167 
-0.04690881700030337 
0.0475207124391365 
0.03603500983348983 
0.03488777141173092 
-0.02977225011650779 
0.02959150425261983 
-0.0004807046608412925 
0.03447462528309499 
-0.009926597497709442 
-0.002670587663589663 
0.003359842126564042 
0.03414422534296379 
-0.03203516900567071 
-0.06389596012235606 
-0.09847728509258549 
0.02671827802511263 
-0.01275412247309259 
-0.05780698884692324 
-0.0599191954588181 
-0.02622564276740967 
0.02420321142654766 
0.0498229875336462 
-0.03437854710513975 
0.04293204317038324 
0.008489560622773042 
0.03207305949715909 
-0.03670023344079647 
-0.01637321899260374 
-0.008144486485048131 
-0.0006172714016729764 
0.01688392708907225 
-0.06665574910655062 
-0.05463179153668273 
0.005446464919501238 
-0.01805031763257244 
-0.05324857738114853 
-0.1033273894624761 
-0.07707298335510611 
0.01015844489006445 
0.03944172732346357 
-0.01939673168438986 
0.008645610601843835 
0.009840625283129248 
0.06822474490125231 
0.00779615282849028 
0.01862500343917628 
0.01974722585417133 
0.005396386883305014 
0.0471351007680318 
0.006952411118893389 
-0.059293671610496 
0.01002307728616233 
0.04471092125344471 
0.01398243201069691 
-0.03723059538043744 
-0.02248945195516916 
-0.007374063992835906 
0.02045471144709915 
-0.0217895513512486 
0.01929667165457579 
0.004782974085851833 
0.05061078007912752 
-0.03394852983406937 
0.007242056746991126 
-0.01540920170995684 
0.01861131893538571 
0.01869270957798373 
-0.02812504149550564 
-0.01102405262718983 
-0.0008949392351312277 
0.02497187890602988 
-0.007784618191373163 
-0.02859281880499195 
-0.03307769236391481 
0.03708428877532608 
-0.006406964380089555 
-0.02156248722382194 
0.001712390270941251 
-0.007411984524782318 
0.01430361434595858 
-0.02308918511991303 
0.03441663912504202 
-0.01247962237402776 
0.0004161168574698397 
0.007888121928509547 
-0.001721458271505903 
-0.03162343847733493 
-0.0005106067041096658 
0.004479210688945105 
-0.01149876858725603 
0.0545161638464405 
-0.03828546325370118 
-0.01585255377291639 
-0.02976343487924493 
-0.0271209638197576 
0.008259760702108855 
0.01386220936911953 
0.02090774842804986 
-0.006249617427410182 
0.01564787241442792 
-0.06044039073104814 
-0.01826732722410843 
0.004343918988170803 
0.01183686665050236 
0.0008352680175634136 
0.007855772722730288 
0.02584354614148863 
-0.00677325594249264 
0.02892949435156501 
-0.04236226829410495 
0.001954695019437035 
0.007772035955672352 
0.003874240059104428 
0.0006207915609900209 
0.009535748807322298 
0.04001575838009049 
0.005079143498915092 
0.03303090632498661 
-0.02241110389124984 
-0.02927607569237495 
-0.02116336165379215 
-0.004214130716434713 
-0.001187227084071104 
-0.01357536842971163 
-0.02060728212504511 
-0.05000370861430099 
0.01138006978991036 
-0.02353306750693087 
0.008114745501135018 
0.005360682287930444 
-0.003335808126986146 
-0.03635855594669783 
-0.02226230072253135 
-0.001711725851477257 
-0.005531251309697885 
-0.02715929679250082 
-0.01622296734752726 
-0.01212092631863718 
-0.02336975944979743 
-0.01149755483493 
0.01224065002428588 
-0.003220669274059804 
-0.02428128125323443 
-0.003479815918551776 
0.01413435756270654 
-0.01702702601862789 
-0.01048792268017964 
-0.051771879353081 
-0.03285636537046318 
-0.01011953979015688 
0.00726872749564046 
-0.007882677216520006 
0.006999866880464881 
0.001797345761576836 
-0.0004238126575062606 
-0.03071664564420632 
-0.03996477021688012 
-0.02403124144824035 
-0.01091862703320979 
-0.003743789971471001 
-0.03479632891470869 
-0.006610628277452969 
0.004826322344158752 
-0.01044203721898875 
-0.02357853251473014 
-0.05052444523687639 
-0.02129183346762423 
-0.01022120761531149 
0.02272415161825725 
0.003547265049422601 
-0.01481689344394599 
-0.01605547048434244 
0.006442750952927289 
-0.004712177565513845 
-0.008760319172236807 
-0.009755040457572044 
0.009619618060506397 
-0.005501485020312157 
-0.009505669508464149 
-0.02324296663300558 
-0.04661909603121027 
-0.01590602669155416 
-0.008661862928587153 
-0.01893723628621448 
-0.03750259542085158 
0.01822118307563517 
-0.006666685141893554 
0.0101933352571965 
-0.0009103096083987249 
0.01009439600686084 
-0.00271665656608192 
0.04049559073803025 
0.03225362983055028 
0.01298083874205662 
0.03289726070176438 
0.007572038213972939 
0.01536425358093508 
-0.01410538371109906 
0.007467149820204091 
-0.01612122054464477 
-0.01163780455383992 
0.01337258090204165 
-0.03141168334606153 
-0.007216425160074082 
-0.0499820304971616 
0.004746796429395158 
-0.03069218620952453 
-0.01867801161907259 
-0.00314797786156456 
0.02868148286662196 
0.03556912598269805 
0.001239772258418149 
0.01183975061979782 
0.005820021930760941 
0.01438748587464925 
-0.03307590215401484 
-0.009252550759985462 
-0.02827409716479759 
0.0003031017846154896 
0.01452246684939328 
-0.02456081860187397 
-0.003375405338377678 
-0.020066618620439 
0.05459758484318838 
0.017561007470136 
0.02103580771965424 
0.02200721355133985 
0.04046781424808512 
0.01175692310928073 
-0.02524622811958982 
0.02261532558333795 
0.007083502779796356 
0.01039653984083457 
-0.001371950347613839 
0.0235821871957859 
0.0285222834252521 
-0.05158022461630615 
0.0004834460049121163 
-0.02001322085663632 
0.006528135483929944 
-0.005401336614316058 
0.06176588800738705 
0.02912624624739538 
0.01751722371947344 
0.005953049959026208 
0.02932159850620601 
0.01550751794437219 
-0.01631309326599519 
0.01142215094465965 
-0.002966098776923155 
0.01088225309701804 
-0.02513766457137624 
0.01772175355990703 
-0.004796218324843692 
-0.02817624104956428 
-0.03062862619205347 
-0.022461198293809 
-0.01071628108314217 
-0.02234356626351609 
3.918296737024494e-05 
-0.05991494352723301 
0.01230011777487868 
0.02220749911545886 
-0.00453520896495525 
-0.01258756454912285 
-0.01058926487326805 
-0.06429104651793031 
-0.01431399814776846 
-0.0137038033214839 
-0.04501377402205346 
-0.05911166461660121 
-0.05024697408779145 
-0.07076295840487645 
-0.0371583478723405 
0.04917931674997565 
0.04282984724014142 
-0.009449186535043869 
-0.02761638719979378 
-0.0071662848371684 
0.02320134324372952 
-0.009848712708319676 
-0.0467643202821582 
0.009915900930595536 
0.04878785875253076 
-0.01735744261816207 
-0.02885908033348767 
0.007739210376632367 
0.01511588695732118 
-0.04241322418918078 
-0.09739694509991714 
-0.03311907304504537 
-0.07596270706928812 
0.008047212510816634 
-0.005539056890480194 
0.01994397667169944 
-0.05557280026843415 
-0.002358389982364867 
0.004802310728313099 
0.01091034880999177 
-0.007640510707471449 
0.008903543503785966 
0.04532786226582722 
-0.05751195965876253 
-0.009842864005765865 
-0.06991569707573279 
0.006561849396646265 
-0.01671821774843347 
-0.07352000093140142 
-0.01511191312106645 
-0.1257781588724301 
-0.02656101522629948 
-0.004384908348038464 
0.09147856125621355 
-0.03528393681022621 
0.005144937235956034 
-0.01905043869600317 
0.03110715208969003 
0.02614532361292781 
0.02542372189763464 
0.05771925413823815 
-0.01735726680738484 
0.01572722046953147 
-0.05933976229071317 
0.02347372188259744 
-0.01236851805009642 
-0.03959144474406627 
0.04353639566201979 
-0.02276374939662421 
-0.07394135692337848 
-0.1006991543348123 
0.01732706268768329 
-0.01478251114268413 
0.01016375631692806 
-0.05071054108781864 
0.003692178609421975 
0.00380569214646147 
0.03333321579829412 
0.07542147887815771 
0.0004281833095215484 
0.002160881360919917 
-0.05868651895768635 
0.02998233404559219 
-0.01054764830419643 
-0.008723538414244111 
-0.01217067218743266 
-0.0009572636257676288 
-0.03406033955021758 
-0.06331383459623918 
-0.02727370739102632 
-0.01980970968509458 
0.00371864068695248 
-0.08437983147249534 
-0.0603261570909908 
-0.03345313861106291 
-0.002836622293049186 
0.03970486933605597 
-0.03179471787002464 
-0.04087251504873168 
-0.08073284833115527 
0.02730770288541879 
-0.017358147658615 
-0.0408313332188916 
0.008366455337837881 
0.04576347655519621 
0.01399092211850521 
-0.06289870148705516 
-0.01059894336543118 
0.03551399854111039 
0.0357624958244671 
-0.02136939713274818 
0.005201795034027386 
0.003647368333360248 
0.01545691076588927 
0.03682148877899322 
0.001418565710434072 
-0.01805022005215251 
-0.05799514796147567 
0.02110708281494281 
0.005143077226495216 
-0.01745681853279089 
-0.03322979448239778 
-0.01027974336967686 
-0.04655583161168213 
-0.03420217054054532 
-0.01386912093502547 
0.03224140185687911 
0.01760397351680399 
-0.0364751601378711 
-0.008783351587998922 
-0.01425704281943908 
-0.01924712508145895 
0.004214280367347297 
-0.01307843068658437 
-0.002940577574906053 
-0.02955413189939695 
-0.01966318457400084 
-0.02944776238525617 
-0.02214522131684508 
-0.006312152085698593 
0.01057059726454245 
-0.01821451996872759 
-0.03253598604538355 
0.01007793244599241 
0.02754161402436062 
0.01412585226079628 
0.0516709432006289 
0.007052593886568462 
0.01867961363717292 
0.0189471990850987 
-0.002203428080769498 
0.02296518775562529 
0.01028486662130343 
0.02236034589824498 
0.003720642590730227 
-0.005049166513834503 
0.02471440566412813 
-0.02632928805687302 
-0.0155821322368437 
-0.03657828634223068 
-0.03036431810199591 
0.0177889986709167 
0.03553767102566944 
0.0002847814956661702 
0.04238430057976521 
-0.01364828313635886 
-0.008523575504702051 
0.008808136018413159 
-0.02161268386100697 
0.01622817746667821 
0.0122937079439673 
0.003384416776824994 
0.001770282171337461 
0.01279010308830688 
-0.007728601551100472 
-0.01140738875530467 
-0.02962937338960074 
-0.02178690359824881 
0.005270607571767696 
-0.009225674349116825 
-0.02085331937636468 
-0.0209271857863796 
0.009905490784509427 
-0.0008928204132256218 
-0.004092262891439721 
-0.02383458537130226 
-0.01689009880942472 
0.01643300595028155 
0.03055609678997484 
0.004110358713717851 
-0.04629362700499825 
-0.000503520704126639 
0.0456912951037498 
-0.007422196060915311 
-0.03744852811368619 
-0.02888861749572698 
-0.009523646744634134 
-0.00975158621861927 
0.0001540420352611652 
0.01522397741033765 
0.05154731595679037 
0.01493984921731122 
0.007097586380230005 
0.002358619473529571 
0.007657810915318124 
0.01184053455785392 
-0.03581303665026495 
-0.01359150614731825 
0.0028756198422977 
-0.0117842821314101 
0.03420009135344084 
-0.0333927076006446 
-0.02987172390401957 
-0.02241918689977594 
-0.01240763848389053 
-0.03237455818466478 
0.008874602982148897 
0.009371838781898175 
-0.003574055145523986 
-0.02345314873525329 
-0.02340397991160097 
0.02087814405775581 
-0.01859788833424 
0.003268643306821184 
-0.02401911857728444 
-0.001307255983385793 
0.007172362197053665 
-0.02090311871923753 
-0.0004945168867865088 
0.004999815931774221 
-0.002495966291320972 
0.01054466803622449 
-0.008948129690782149 
-0.0311206210175555 
0.01023847634287782 
-0.008499811588688797 
-0.02446045036376818 
-0.02617699719614887 
-0.0004259905974453164 
0.01256901416470188 
-0.01745699675389842 
0.01538610239741536 
-0.002587555033995411 
-0.005570899868880096 
-0.005632518077445909 
-0.02424418668508765 
-0.01979727778332796 
0.02635022946662513 
-0.006391283513685455 
-0.003717275064352182 
-0.008352209101323659 
-0.01473188240850664 
0.01596614947728027 
0.04127298069482919 
0.02527222544891815 
-0.002414097150730391 
0.00712923192440987 
-0.0177348362920877 
0.02489324003190502 
0.009913982080623104 
0.01855843032871185 
-0.0142103003313207 
0.01807937681030668 
0.007422372312668007 
0.003851886198561503 
-0.004217041860757948 
0.009716390044566696 
0.01501217320096816 
-0.003981676191869953 
-0.01652627979753616 
0.0001160325809108808 
0.005897200214915059 
0.02086759251986439 
-0.02918578241393123 
0.006330673500785988 
-0.01671099780691151 
0.02847060654634472 
0.02205321009976387 
0.01840225541766101 
-0.001904805148143058 
0.001128374397980145 
-0.004180394044656018 
-0.01044592222537901 
0.01948192352337586 
0.009867791251391577 
-0.02224609167850027 
0.02862246740592242 
0.004774872304599581 
0.005738681700707954 
0.007645877572002267 
0.04882524153360465 
0.003721836914730554 
0.02120866369458805 
0.02525403835915628 
0.006829686698895801 
0.008764852889123631 
0.01475810381877275 
-0.001896374671769613 
-0.006634199010100783 
-0.0170016061911014 
-0.01431045194667154 
-0.01257208131975387 
0.000927520912513945 
-0.02764819804118911 
0.03819324611506582 
-0.00975115681102365 
-0.002741110637826926 
-0.01798667911310185 
0.01778389491755434 
-0.04102546416963705 
0.02304946145995792 
0.03012327511695228 
0.01128681245889933 
0.0298310255609364 
0.02898614575669205 
-0.01212206631322784 
-0.007631637794754 
-0.03353564080663383 
-0.05254516874577149 
-0.02196776528609481 
-0.05230718548385882 
-0.0165841044497357 
-0.06371749312533627 
-0.01849957529766098 
-0.01752173871003097 
-0.03957709688278393 
-0.03880114891370239 
-0.07842899962576612 
0.04251683641466467 
-0.05061338219281237 
0.01235738035319668 
-0.01712224975813915 
0.005808902651290388 
-0.08922640004402821 
-0.0448699588457204 
-0.03650263155382504 
-0.04474973681272709 
-0.05210370367592216 
-0.04068136898227662 
0.02992818357726745 
-0.05290309349589901 
-0.02823927525469222 
-0.01953880269004932 
0.01529891078623122 
-0.01236233895798839 
-0.0900329525879932 
0.02556218418688455 
-0.06214344086573455 
0.06626386509414878 
0.005643094977335937 
0.05506502733027132 
-0.05492785192701703 
-0.01781713694617902 
-0.02605062546055811 
-0.03957968880040535 
-0.009601436680512996 
-0.007485866316621835 
0.03980133185758363 
-0.08463589406208222 
0.01144815681241729 
-0.04624531915333133 
-0.0213674652826364 
-0.03342950963537879 
-0.07074108623664449 
0.0316236167988705 
-0.04503645757899621 
0.04188635774196752 
-0.0561187558864386 
0.07811146821204862 
-0.07641967987007472 
-0.005271847299829259 
-0.01457230964265051 
-0.02846112097429858 
-0.001886109109632668 
-0.0301193859939305 
0.03269104958783208 
-0.05721226276073019 
0.02385540467579853 
-0.03959938999200072 
-0.008677546099399797 
-0.03955982172165102 
-0.04536901229495638 
0.02557538695856668 
-0.06533425646059135 
0.03642427360859789 
-0.06464914223130214 
0.1044299624454147 
-0.07389305368908758 
0.01879225005188389 
-0.03444392300536708 
0.01913497194016876 
-0.006741299352219664 
-0.03599443232451431 
0.0322527162373846 
-0.03484534169092489 
-0.01748289545479039 
-0.04462752417051614 
0.02307184821978802 
-0.02782295388196106 
0.001461750544900155 
0.02775103591346975 
-0.02435194535905568 
0.04055773830261894 
-0.05743867336905944 
0.05479391933113737 
-0.03979150064475294 
0.06418967522412712 
-0.02540963619777023 
0.04324903799024893 
-0.07750199299929143 
-0.04901413910963034 
0.02903432700189666 
-0.04744783828808015 
-0.03251693407719452 
-0.05382560299003515 
0.03303863189262257 
-0.02636884587423388 
-0.01803455138060625 
-0.01876573867359932 
-0.03175677626424828 
0.0003439836785469825 
-0.08973585093839152 
0.02898938356698459 
-0.08936679521867133 
0.0424905438183342 
-0.05087247147419143 
-0.008376636643907217 
-0.02833855662258059 
0.003014899277068379 
-0.01432192687209602 
-0.06222308902294731 
-0.01168928066772553 
-0.04533060461394198 
0.04714982029063029 
0.002579300052535576 
-0.009893178084925522 
0.04164230541841141 
0.04085713966562237 
0.03368292060110308 
-0.05756908327306426 
-0.001478118949121675 
-0.0560501696596508 
0.01165315972409351 
-0.05139215190073568 
0.01627154583438684 
-0.03187949809052501 
-0.0217173884359991 
-0.02913108819975595 
-0.04807872555397441 
0.001607921447823748 
-0.02947605431734173 
0.00747344997563177 
-0.005701860614712718 
-0.01921394926357371 
0.008299752056090588 
-0.001829762720646204 
-0.01308179382937144 
-0.01174720479261471 
0.02923129276601805 
-0.04861281891884676 
0.001907934902276193 
-0.04412341912818959 
-0.005691395036055913 
0.01453969621335456 
0.001588577540287521 
-0.005085617807979667 
0.01490420030173773 
-0.01127039068137231 
0.0180977995828295 
0.002390835801401143 
-0.004116148622250804 
0.01506417365260385 
0.008495492583639436 
0.004345197139647684 
0.01357278050116188 
0.02903908733134809 
-0.03281159829537209 
-0.0407042989858843 
0.01524233597801659 
0.001509512972714096 
0.01060260620350973 
-0.01051433853354381 
-0.02916561840444434 
-0.009246611056732556 
0.0125864131919233 
0.03636300939824873 
0.021362526008486 
0.01390486462139832 
0.008422906789774724 
0.0161038816335037 
-0.02380075703233211 
-0.009645425324329103 
0.003010144882695907 
0.02800896388093938 
-0.01835385099883761 
-0.03703149619666922 
-0.007008821943710372 
-0.001701855359162167 
-0.02167662660657543 
0.002706628426783607 
-0.01509125322184353 
-0.02955994739197778 
-0.006746740545683999 
0.03341515066266698 
0.01725942213654701 
-0.01316874516973123 
0.007285548933651218 
0.03973105827092557 
-0.002987061953174225 
0.02480696853517808 
0.01193459260023462 
-0.02071948905527691 
0.0257801435512585 
-0.04254861634949691 
-0.001801702234823094 
0.001289162285641436 
0.01814650112328963 
-0.004690519759027641 
0.01328260790789344 
-0.002220409898353765 
0.0006346051840455612 
-0.03617751346233587 
-0.002011318635042045 
0.01095208306564391 
-0.01045502504842629 
0.03843824639300726 
0.02414752577466402 
0.01674981340615329 
0.020701769371171 
0.0120327765839642 
-0.006067603772594027 
0.01209284352695149 
0.009137370028249501 
-0.006217585309436988 
0.04030093120225292 
-0.04929729169284889 
0.02345627482162102 
-0.02177575492843249 
-0.02369180506460815 
-0.0328356308814978 
-0.0009358474930426957 
-0.007584908230182668 
-0.02927866046731467 
0.02105272504943732 
-0.01663695136954931 
0.03480024421662959 
0.03170517481892429 
-0.01674837895933808 
0.01536635287268844 
0.02572171186455473 
-0.005610659996808424 
-0.01296690077802102 
0.02446016354757033 
-0.04417995821976182 
0.02313030223600015 
-0.002162302195839605 
0.005523283132159113 
0.002059073437684618 
0.005357171099675851 
0.01771449277118158 
-0.02037727096242178 
-0.01189502103492087 
-0.0125648369167346 
0.06070807093221596 
0.03482048012600854 
0.0053013191342798 
0.03407649611707417 
0.03428539076558076 
0.01556035667601558 
-0.001802714554841914 
0.02092966413020739 
-0.009661343004455782 
-0.02872290468590199 
-0.00328075327561649 
-0.03207470876175636 
-0.02849548643868816 
-0.009265497365565797 
0.02316097109028723 
0.02390088763355968 
0.02681909325922373 
0.01138548024245888 
0.01539594128064039 
0.01662453710014811 
-0.01212687831588245 
0.01200592858498745 
0.02426387107849345 
0.00252617000388261 
-0.01167092563636086 
0.0347815044578209 
-0.01767912234590685 
-0.03935018961328277 
-0.001989070134009222 
-0.00821085517004453 
-0.02797511057919526 
-0.001444485563820396 
0.009172403433437852 
0.02438072975729465 
0.005845801423071676 
-0.01670255771553334 
-0.01479708697579921 
0.01186024084316325 
0.006291740325894614 
0.01636499546835524 
0.03239571659639189 
-0.0115211078613097 
-0.02423589760861296 
0.05663289118872371 
0.007448620647159047 
-0.01087375779408 
-0.01157418628981227 
-0.02168234147176395 
0.002080356692474992 
-0.0001255266125309905 
-0.004721388882367228 
-0.007205084285249921 
-0.0008052421089548872 
0.04581701115294861 
0.00986325869370968 
0.03540581309533429 
0.01747535167672092 
0.002073164636777599 
-0.002344164321073398 
-0.008022951756430996 
-0.02792408137050236 
0.04478510403662629 
0.0002796338993717529 
-0.02350802635082004 
0.01145699509128573 
0.05109734213351784 
0.002926284260109387 
-0.01653197904183624 
0.003552749886601065 
-0.000819280434528113 
-0.04505992955732193 
-0.02131055843863236 
0.01638292164309504 
0.04950821844673917 
0.04376949685552284 
-0.01716318456884393 
-0.03686794043859985 
0.007093525483618786 
-0.01630234782080611 
0.01421243824175001 
-0.03394501086935463 
-0.1044306595912308 
0.006264033421645235 
-0.002737269118897238 
0.03750952541202316 
-0.1100657075624989 
-0.02351854961796793 
0.004447594827085163 
-0.01701908463378264 
-0.02521068883042121 
-0.03539484764140772 
0.08704915743697338 
0.03232949800732473 
0.02708391948881738 
-0.06117487724313958 
0.03604065176315297 
0.01347863828203453 
0.06910994928220955 
-0.06340742091461168 
-0.1177211783557366 
0.005052430613541582 
-0.02162098176720122 
0.05788003027091151 
-0.08811356842783626 
-0.008365181637825174 
0.006618582393854676 
-0.02986489678119827 
-0.01912758647200288 
-0.04733782876061308 
0.08941463941740549 
0.03281188132710167 
0.06640038998170185 
-0.03262856531838394 
0.05559923158951141 
0.02385226769340787 
0.0983593324288612 
0.001498406062284338 
-0.06792107800648391 
0.009651199556693349 
-0.1067384622457032 
0.05784683754378104 
-0.1023138887601657 
-0.006936166182691312 
-0.01617601432499823 
-0.0236592701272723 
0.06681309281451407 
-0.02017541862724072 
0.0504987673781814 
-0.02061542228851982 
0.07172760621888115 
0.009292116905516278 
0.007346513517262536 
-0.01878556954901321 
0.08917512228131849 
0.003679060137005944 
-0.07521115623483657 
-0.002659579544841345 
-0.09725619795080054 
0.08622431483389266 
-0.07420680484159768 
0.002451649494991428 
-0.0284882415277426 
0.01893555831955122 
0.0653015028986461 
-0.04129327811799621 
0.02021614610995498 
-0.02222361163171466 
0.1115502346716489 
0.02222254303168591 
0.005903899588419977 
-0.02825169802599455 
0.08257156575370941 
-0.01662375674945527 
-0.05021953085601885 
-0.01720331224172218 
-0.1143334922862172 
0.03573024567090492 
-0.05710455694188282 
0.05131092534703874 
-0.03215050340295691 
0.01598630130173675 
0.01918705517304944 
-0.01383194366584407 
0.04739503561254671 
0.01817465305378898 
0.1280922599523467 
-0.02929584912118943 
0.03376539075532293 
0.002079239146284803 
0.07451117586777976 
-0.03221709008628074 
-0.04688146173922721 
-0.01666298013831223 
-0.1409445701456017 
0.00929119002440214 
-0.09538006803080148 
0.04418811161830791 
-0.06932960986379169 
-0.0320974153856779 
0.0154201398373151 
-0.005790594035365217 
0.03283190252635063 
-0.03520708886405293 
0.09723430570157476 
-0.02787810492195134 
0.03479855167654838 
-0.02500161694486637 
0.03505827930718501 
0.0538928259388237 
0.01973801712900426 
-0.03089626676018372 
-0.1330768334662536 
-0.05369114455440611 
-0.0538001736306638 
0.009705995805480082 
-0.114684097258917 
-0.05049951559800583 
0.05981540739333475 
0.02911169104725374 
0.02618103783647769 
-0.04859939810370216 
0.07496928852689967 
0.02300523171214751 
0.07929655675703821 
-0.02004926988175975 
-0.01914850477145949 
0.01423452706465107 
0.004839502987222077 
-0.02753038148905198 
-0.07241632638006906 
-0.002008664493120692 
-0.03482975592157496 
0.01090752817428894 
-0.09044083447084356 
-0.06206057709162945 
0.03392900962737033 
0.00955935056973993 
0.02458763004573306 
-0.05092098711760541 
0.077451450551275 
0.01818053791650549 
0.05728252710508071 
-0.05499429389568413 
-0.0737507462397473 
-0.00200550380793698 
0.01306454303228877 
-0.02659825067755233 
-0.03861384758797622 
-0.02141093779891784 
-0.05125433505770197 
0.02345774853759457 
-0.01708999729959952 
-0.02562243783774672 
0.02837002185207306 
0.02563392111669895 
0.03975824942205578 
-0.03452471428934727 
-0.006134596180185503 
0.007137816745376069 
0.01552205311567619 
0.006892917569483877 
-0.02009345052480209 
-0.0353293988538691 
-0.03322409716383899 
0.002649345053020632 
-0.00253675951624732 
-0.009356199851449781 
-0.05033528041996213 
0.01330610232983611 
-0.004884684790853023 
-0.02397063227253165 
0.02295652224997893 
0.0168304607461326 
0.04124288310573191 
0.01024159700117206 
0.04752435517225821 
0.02293034981528299 
0.01243868345560691 
0.01927583545373705 
0.02415562115010624 
-0.0275525643279089 
-0.00900195858915361 
-0.01111518930773136 
-0.02867716939022861 
0.017037334206906 
-0.0431796031854186 
-0.001839317227598223 
0.02691564757683537 
0.01592269275421904 
0.01618332808666027 
-0.001720373439483211 
0.02904764226160818 
-0.0002223014401800759 
-0.007597324187376252 
-0.0336633085486383 
-0.04906191059472591 
0.03689459324081602 
0.02859578033530571 
-0.01350800922503181 
-0.01523770040308129 
-0.01883396983782049 
0.01323822111473711 
0.0006284186385973002 
0.01192310057859968 
0.02800049675637799 
0.004230894010232004 
0.005203305641505171 
0.003486116534221506 
-0.006245114816209259 
-0.03382992614782259 
-0.0188416031065443 
-0.001545891188393056 
-0.004050518076566671 
0.02496809486259284 
-0.0015234343010091 
0.02130392948982506 
-0.03753673388017844 
-0.006139928925057104 
0.01655716461197455 
-0.0393511641811593 
0.006183852017571719 
0.03385039813726667 
-0.006107173796770084 
-0.01906765514594305 
0.01657707557269272 
-0.01256131846562079 
-0.008334322383247186 
0.006696468806772754 
-0.007872286897309226 
0.005053706482322809 
0.004538087944978142 
-0.03141987156671612 
0.0127468724663633 
0.005050634087815739 
-0.02843209974724769 
-0.0006295330253382922 
0.004790543722012874 
-0.03387107380175054 
0.02122512544608206 
0.04147050285686765 
-0.01517744159129285 
-0.002635102327794772 
0.006845982827852557 
-0.02063483236947017 
-0.0221564226007512 
0.01121677220724807 
0.008543566314479422 
0.02747332825287755 
0.03041472223142161 
-0.0274519216052273 
0.004627363219650842 
0.03548158270878886 
-0.01139006420462652 
0.01513958645310577 
-0.01562549816752088 
-0.05719722105872618 
-0.00907806102208816 
0.05057502479721741 
-0.03514782595999 
-0.01818865368392234 
0.007301010270420428 
0.02395364155207854 
-0.001964777046875036 
0.01047070740324242 
-0.01428614699425223 
0.02416001939983038 
0.03634752423907901 
-0.01707124401331142 
-0.0131842557968586 
0.0188136963683161 
-0.03229982566253573 
-0.02958977473977941 
-0.01333228506803739 
-0.0380214308354585 
0.001247011223431598 
0.04887336969550949 
-0.0169587141702486 
-0.01181005420758835 
0.01750811591174758 
-0.011082841036413 
-0.001491840410650784 
0.01858437477841436 
0.001851155556940034 
-0.01019677424262092 
0.01374113132081775 
-0.007439089102765431 
-0.02346016933787651 
0.02743515137815864 
-0.0008358354224799888 
-0.01342553476156278 
-0.006439964081707946 
-0.02616862907638106 
-0.0374174165276464 
-0.03574369780383792 
0.002484894414657907 
-0.05309789165476301 
0.02106048093543838 
0.001998922620807808 
0.01361673040525368 
0.0171517159596019 
0.004528961438617505 
0.009492364434840155 
-0.01171219792412598 
0.01163444097954539 
-0.01398343251847879 
0.03861469275066871 
-0.06864357707817845 
-0.02919232865897625 
-0.00584199478486788 
0.01567654419331456 
-0.01160910683400753 
-0.01747944267808386 
0.03892159098841365 
-0.01221075462767992 
-0.02583767992026014 
-0.03691766944322495 
0.001996729031970617 
0.03554102808840438 
0.02218525362130797 
0.01166698329323081 
0.002439227544262327 
0.02527639719720179 
-0.019586704217233 
0.003340820455591114 
-0.03703935144237146 
-0.05200961893394931 
0.02179808623525957 
-0.0413435725383202 
0.01705717002634336 
-0.04008942894346297 
0.0638289666424488 
0.0280441109614191 
0.0572524776052886 
0.01421705833341427 
0.006353721113505211 
0.03146559123364291 
-0.01457658244216345 
0.003624214544799775 
-0.01518376290797136 
0.009283646948363547 
0.01705656297941439 
0.0402247820899117 
-0.04598191069735076 
-0.08333873263015806 
-1.026979907696766e-05 
-0.06154454841864454 
0.01803681400460771 
-0.0065188571318868 
0.1096136595733964 
0.04502208240511441 
0.06465683989144767 
-0.004338052482630633 
-0.03598258797558775 
0.01329103605098254 
-0.03880638942010269 
0.01279004789130757 
-0.00841136972110691 
0.0509402178788308 
0.03511097899577154 
0.05443369943189961 
-0.01105090798135099 
-0.06643121648717903 
0.002897135261430341 
-0.09311473734958318 
0.04653274362067179 
0.01474271163986778 
0.06090279342529602 
0.003934471498951061 
0.06084736322345393 
-0.02973075070978375 
0.01626017522348478 
0.02800503860732324 
-0.03798648888346939 
0.03991717982887589 
0.005373750963337072 
0.04775500636016178 
0.003372630199467347 
0.02907608055772407 
-0.02270389116178819 
-0.06933359819420903 
0.01899307498983392 
-0.09579073715337888 
0.05160995310024113 
0.04853149775890798 
0.05006854095861969 
0.01092642425596643 
0.05599793007251593 
-0.01457346169470125 
0.02515190243642102 
0.03217903217806356 
-0.05636349303378105 
0.04486455538501176 
0.01980066444089906 
0.06970318460459916 
0.007362663145172206 
0.03479326135620698 
-0.03302439469762636 
-0.04982564608291083 
0.006559469347718704 
-0.05971167496334044 
0.05125487341776106 
-0.01906921104415374 
0.07390712553020219 
0.02572533319936221 
0.08607901395865797 
0.01715843631065331 
-0.01516957179602782 
0.05588014958080269 
-0.00779441403017902 
0.02288161679847223 
0.006906298018051833 
0.07234816059266501 
0.04112993112841241 
0.05358367973983096 
-0.0348135461418967 
-0.04746866538061353 
0.009465141981659061 
-0.08685838841830862 
0.05446552599803196 
-0.009240998726252118 
0.0559185368020327 
0.01773323072780232 
0.03099121110824929 
0.00170952830112659 
0.00374883260171361 
0.06556163970213233 
-0.0180843839285526 
0.03056335324682442 
0.007489397491408184 
0.03251771734099244 
0.01878510984727595 
0.01160515702803963 
-0.004120902231108691 
-0.0248678995918383 
-0.006325523222559228 
-0.1121625240362618 
0.01953850648197568 
0.03808725476932157 
0.09741687782409858 
0.03124194816415988 
-0.01153920203484363 
-0.02929715363598595 
-0.0247241155364377 
0.01593463518111468 
-0.04174345853365617 
0.004745387486882327 
0.04086497036168623 
0.04163606509066129 
0.02398703669801956 
-0.01688287506605341 
0.01863868532396565 
-0.02505284414627577 
0.01793893124026266 
-0.08390210751530583 
0.02151511271309041 
0.03917102065715298 
0.05437210292941121 
0.01152941675880391 
-0.05079417337887233 
0.0166918646050464 
-0.02029828063261812 
0.03876857082574358 
-0.03020465889263889 
0.02188395365396082 
0.001990099368894964 
-0.006419251011822489 
0.0005246944527910532 
-0.01357948529579308 
0.03247495959165732 
0.01172836790918868 
0.02081031189061523 
-0.05663394312144786 
-0.05816035907803523 
0.01330051567831432 
-0.005569538284824237 
0.02527396352093622 
-0.02142547851864194 
0.008915757341584517 
0.02306367941052533 
0.04294367417276661 
-0.08288604585209609 
-0.01872899570131974 
0.009293453915404738 
-0.03876617205299011 
0.009189292199486155 
-0.03226603448116461 
-0.003815061756588719 
-0.01271038705008736 
0.005404857965776318 
-0.02016748024402392 
0.03150163455767174 
0.03039750786821826 
-0.02961738209093312 
0.003570629545215312 
-0.0126538211750895 
-0.02654390992965212 
-0.01992866613083429 
0.03116787506827391 
-0.02227853436696898 
0.03795979483804718 
0.04693774335860897 
-0.02456022991656994 
0.01072469836794957 
-0.02901913744148747 
-0.0251809952221231 
-0.01818343798275381 
-0.002355448938772632 
-0.01489636949225492 
-0.02226806930547794 
-0.01738210028653341 
-0.03553453298695397 
0.03829561078186283 
0.01574057582849021 
-0.0234674608777058 
-0.0377311754043932 
0.04954789939063114 
0.00510291950115932 
-8.86457675727618e-05 
-0.006024388059647149 
-0.0553469983388546 
0.03510866797392664 
0.0253527146238439 
-0.0005204728863371366 
-0.02001741955246381 
-0.01284932814277514 
-0.03559377648857392 
-0.03839077302044151 
0.01453571882677759 
0.0181914594202787 
0.01043711647244728 
0.007367962627433536 
0.01550448348781308 
0.01267915295124541 
0.04010211429818448 
0.04044803612798183 
0.02229764665303241 
0.02334867519967739 
0.02454000637259751 
0.04976013942650424 
-0.007968034602815871 
-0.009657224568218182 
0.01608604704324603 
0.007207082478587512 
-0.01934764071927047 
-0.008997316079251706 
0.007742375920066827 
-0.008057585166583576 
-0.008322981255805795 
-0.02656532225693148 
0.04408467981668649 
0.03234074519213517 
-0.004314116144045704 
-0.008893368230993895 
0.01111889477807249 
0.003505958368039233 
-0.00785357075155341 
-0.0009110868536849899 
0.006161079820812723 
-0.02220635784250739 
-0.02556895007500588 
0.0241090117400619 
-0.01591740020122802 
0.01882572828774779 
0.01374276671539076 
-0.02274873842009206 
0.0007842640784676081 
-0.009372992954942743 
0.03779097443432686 
0.0304035332227882 
-0.001554894438658034 
-0.02125381121067688 
0.01400476602811435 
0.00448658151272099 
-0.04208581345128627 
-0.006599436529235594 
-0.005651735018310016 
0.01629555192239289 
-0.02676736203841303 
0.02271949545154161 
-0.02071209659409368 
0.01798347058813838 
0.01174771601330445 
-0.01306616766715429 
-0.009806124645582776 
0.0115297577504407 
0.03390813251028696 
0.01424702901362191 
-0.01343470254731035 
-0.0123927712713118 
0.0009112978286492656 
0.00369478103713376 
-0.02216635620366768 
0.03172885086886832 
0.02672855148265258 
0.004941821574360405 
0.003491347079732578 
0.03462753030634975 
-0.007964151599053677 
-0.01584542942375327 
0.005527127419778145 
0.000839440662280862 
-0.006079675320589431 
0.01077120863661175 
-0.01165120195574637 
0.04617985080267361 
0.001927309797839162 
-0.02165430286567563 
-0.02460573482279274 
-0.0004492069366814649 
-0.03241660769952951 
0.01498590657346826 
-0.02129220196403718 
0.005004619467223441 
0.00702487832778159 
0.02769917709549204 
-0.01411915052880177 
-0.007863936676094857 
-0.03296075381887009 
0.005287439942859185 
-0.01512360891166576 
0.02861929092066299 
0.0128434638220462 
-0.006667359167708906 
-0.0169824442000101 
-0.01676534638326236 
-0.003773252626462745 
-0.01941969902822221 
-0.009769140568433846 
-0.008255621624512221 
0.03557431106703758 
-0.02460228540071446 
-0.01802741342456944 
0.02569531994163777 
8.574009336030914e-05 
-0.005081158225434409 
-0.01535480430923056 
0.007358958636911192 
-0.01940610161708274 
-0.01040642335927408 
-0.002450606871768865 
-0.01529962784898544 
0.02555835841127828 
-0.01075309636751202 
0.004384650553743294 
-0.01561946533764448 
0.008060958689569126 
0.009237815027715101 
0.02407747040378109 
0.02580258736704692 
0.0260605500591645 
0.02731098079088996 
-0.043991746525132 
-0.01931019284121523 
-0.0153003684937568 
0.01498062314656628 
0.01827633160216409 
0.02568441674443174 
0.001128823179389511 
0.02878829771745808 
0.02893810531812937 
-0.02454450991434903 
-0.04313210066366246 
0.001034435825064757 
0.04444061888652821 
0.009526204705712169 
0.03853666205057908 
-0.01957239418454025 
-0.03231562279007458 
-0.0006092026336096806 
-0.0604631950153167 
-0.02104044195597118 
-0.02088627057730173 
0.05425591928728322 
0.06448193734236402 
0.0298150146963823 
0.01492623283409269 
0.01981795646083469 
0.02377561945782007 
-0.05554039442527831 
-0.008185538245382481 
-0.01162848609937235 
0.04990741592980628 
0.02631492264483704 
0.04716773326286077 
-0.06543908812749125 
-0.007533938183294797 
-0.004186377037833258 
-0.08460683821820328 
-0.003203479416257923 
0.01669048724861028 
0.07347831042480031 
0.02037388505415299 
0.005708025058348123 
-0.003252396019942898 
-0.002268350887904631 
0.04697880832443116 
-0.03373133710477167 
1.80652888864782e-05 
0.02111420792201781 
0.05838156614366729 
0.02141667859245461 
0.03238781061048168 
-0.0320894017720507 
0.009790143404232421 
0.006132865758159381 
-0.07294882189526848 
0.02879053432872597 
0.0170731566813043 
0.08282778244107714 
0.0261060858131767 
0.01229471423150859 
0.006222400087093133 
0.002985564190333432 
0.04100000750961246 
-0.02613359590255527 
0.02658471340198091 
0.01792883099421212 
0.02178064201921514 
0.02499034972417526 
0.04496531457181303 
-0.0007773627856535668 
-0.03514130056529963 
0.02441846151446921 
-0.02503096903886985 
-0.04168148861914038 
0.003507091835429159 
0.07163646327598211 
0.04745217303068467 
0.04224046012899019 
0.01615817292046591 
0.0108494507434045 
0.03351720610491361 
-0.04938899005120836 
0.007538471243818529 
0.02371576272659873 
0.03208238542637675 
0.005982173719470644 
0.03718710780063046 
-0.05669508918815511 
-0.05294367336020499 
0.03169878756039982 
-0.04601968259248795 
-0.03962469140156377 
-0.01187620078212306 
0.04149677299286304 
0.03036781905827052 
-0.01766979344568559 
-0.01229922266857044 
0.02017349015012553 
0.04778105755955066 
-0.02420075963160271 
0.02866168944056454 
0.04640537392879338 
0.04858321912163507 
0.01028783694624702 
-0.01591418373278572 
-0.0698485921571565 
-0.0403003298107489 
-0.001294253622956535 
-0.04163315972301756 
-0.02365885866875388 
0.01623520210846074 
0.0531799167757608 
0.01307424769478208 
-0.02601898916991028 
-0.04782178970586837 
-0.004448381991336904 
0.04104909218464139 
-0.04238137658798687 
0.01285421105036432 
0.01324669247044201 
0.02592356980316221 
0.01292140104249753 
-0.02382013236080531 
-0.01893607624572332 
-0.03607585365112124 
0.03424685104124961 
0.01011014670531624 
0.01357461617915917 
-0.01055656377034872 
0.02787518698561255 
0.01521592554091037 
0.004823250493958479 
0.008719233691273044 
0.01951008021830361 
0.03292226817889 
-0.01512016077191556 
0.03479836125394653 
-0.007530564797434846 
0.008431145639763212 
0.0008668249939921037 
-0.006320993124109615 
-0.005582164786214742 
-0.002387326124425447 
0.02819112509901332 
-0.08564942631513639 
-0.02514579746026223 
0.0001236468494174869 
0.0007665982220907156 
0.01825207218127597 
-0.02165807805373678 
0.02839035280650149 
0.009960446828093158 
0.02673233210599588 
-0.04869162003097461 
-0.001268287391208667 
-0.004943692728023941 
-0.02326132572315119 
-0.001136101455303059 
0.007783513825820315 
-0.04827632407521908 
-0.02408855355725505 
0.04517953832662061 
0.01586731115061999 
0.02371556425691544 
0.04782211693262253 
0.01746702381490297 
0.0181747990010694 
-0.03917637341482585 
-0.01429119452447145 
-0.02239545118135727 
-0.000139556130360504 
0.00414251140428179 
0.000618438110404487 
0.008884844605781797 
-0.03305893851380196 
-0.0008623311896953089 
-0.0197757761235938 
-0.04914133258753139 
-0.02309816430921315 
0.06205759427023827 
0.02685882306847522 
-0.0008890307026300329 
0.004774058428534866 
-0.03400265607821083 
0.04954850682562007 
0.01194244578538022 
-0.03846371841353186 
-0.01556594912103741 
0.04161824227562196 
0.03461415911772411 
-0.00999485952187535 
0.003709108121044749 
-0.05432774482800107 
0.01134719731542276 
-0.008547861206023178 
0.02127546726932904 
-0.004331725348545337 
-0.005115692533673293 
0.01091317997901524 
0.01993154935829286 
0.01374277578902104 
-0.0014868236129122 
0.02951191855839421 
0.00279395611291049 
0.02469687171715998 
-0.02378489533941928 
-0.0004204369917631316 
-0.01978063367210903 
0.001644460714450539 
5.666237193696593e-06 
-0.0006896114125365862 
-0.01632275985179988 
0.005504787314239425 
0.04156270518198498 
0.02210255296909848 
-0.04403435485768492 
-0.002769257064623732 
0.03333996744008028 
0.01002336438366996 
-0.02025820683203174 
0.002809458146658859 
-0.0118833802589378 
0.01134723708450773 
0.02411122447243163 
0.003576119661568589 
0.001307748995592244 
0.01603879239944969 
-0.03305550617040309 
-0.001036358401574124 
-0.0008883005831595933 
-0.009576659318291596 
0.0417815292526395 
0.01666743742927222 
-0.02284335959434897 
-0.003044840307224746 
0.04934258838104948 
0.00559612615374586 
-0.02383507613271478 
-0.007716121923207089 
-0.01311696151407867 
0.005116534838670308 
0.02273146155372132 
0.01558851131242244 
0.02722615252576932 
0.02766803816785647 
-0.01829602439159154 
0.00210491546784994 
0.002035901371017573 
0.004912067437506979 
0.0002725784670064329 
-0.0114718603101175 
-0.03203996954891908 
-0.01041990025303975 
-0.0008221589171173294 
0.01469653139400855 
-0.02072004296673222 
0.01139407136428546 
0.01125116647559504 
0.002917691715223213 
0.02503317464061966 
-0.02129052896507353 
-0.03017322083607619 
-0.02031960366917255 
0.01615526794860855 
-0.03229771267461944 
0.02221652245474694 
-0.01014985373253195 
-0.05752548310219141 
-0.01013303601638554 
-0.0316077136001485 
-0.01401211829219207 
-0.02448922219542789 
0.02868167113488523 
-0.017642371761214 
-0.001257290495935556 
-0.04370016914497753 
0.005489993292178625 
0.01163710283750858 
-0.005898303527223312 
0.01452275672770527 
-0.02496790888564703 
0.03128675177923256 
-0.01327167121621754 
0.02246416240302011 
-0.001610725406017765 
0.03784447807386485 
-0.006344022658780406 
-0.01398926198525661 
-0.01358819835787882 
-0.003328219889209764 
-0.02358046881309946 
0.003453241548908859 
0.001715410478468921 
0.009414060097184583 
0.01525906432571807 
0.006906544974981127 
-0.01524146472381254 
0.01265438794032977 
0.01747410768047833 
-0.02160836090822335 
-0.01342741281564361 
0.01893470138597301 
0.04566071873463746 
-0.003556120064210845 
-0.0217144333475402 
0.004218669561561336 
-0.005007176108634457 
0.01959366044451936 
0.003398172287621225 
0.02019803599410266 
-0.0004667640668678843 
-0.006481293204065579 
-0.06248757996978899 
-0.03219667967197182 
-0.007633654638708834 
0.04407748829095083 
0.01086860341828264 
-0.04589394114028962 
-0.009806609392816501 
0.01128425328011147 
0.008137566043953463 
-0.009179482773075152 
0.009542000229696855 
0.0408582191725104 
-0.0181292618628077 
-0.02323321954416638 
0.003361549704361008 
0.04891407334414796 
-0.01329585434745009 
0.01451184342155219 
-0.05574470666781816 
-0.0290497501777145 
0.02409103396080133 
-0.007231490424366257 
-0.03367367009513268 
-0.04341714314528165 
0.04017470149295492 
-0.004275572911647107 
-0.002476045867891807 
-0.004398928696397328 
0.002250639432983554 
0.02256136320301846 
-0.02849403953048232 
0.0002198010445867128 
-0.02847438035577309 
0.0327327748543975 
-0.003125823009299859 
-0.0002608127927991521 
-0.04220814704223223 
-0.06105022185382283 
0.01140516717292716 
0.002150339730245655 
0.018484040134171 
-0.05303410435489534 
0.03522306597677384 
-0.05527720001829482 
-0.009260216901769569 
-0.002042714599965143 
-0.007558768565633875 
0.01690624702229642 
-0.05127267557623654 
-0.01511423124420607 
0.007412398442513517 
0.05236000456275188 
0.0152076917197976 
0.003915331300049804 
0.03369695601475953 
0.007873426369491296 
0.02700528891440019 
-0.03139931792266044 
0.04476831772771567 
-0.004818581484557381 
0.03266828108060661 
-0.01798179085922319 
0.0116929856661853 
0.003495944456294491 
-0.027261171187258 
0.01048098233591278 
-0.06677856175109861 
0.01638709914387229 
-0.01013340197055696 
0.010704180662026 
-0.01514956750831635 
0.02360611823170275 
0.0381062271123753 
-0.0104834300562632 
0.00655749953346675 
-0.03588202062738966 
0.06033100829011922 
0.001786031990454192 
0.006871482448247385 
-0.03333603331486622 
0.05356465427324808 
0.007490891486231195 
0.0003373982515535079 
0.009850657778549991 
-0.03715526842187963 
0.02185324899788745 
0.02063259893491833 
0.02217330498503111 
-0.001904802765086126 
0.02254679754509024 
0.06050988909357748 
-0.01408857232182028 
0.03912351050580522 
0.01787870908697076 
0.05896286343345533 
0.006093648418857736 
-0.004478093182215435 
0.005206001198300427 
0.05331659055229811 
-0.01328020196538351 
0.006868087722025041 
0.02501140916977133 
-0.00642627000471136 
0.02211791011763699 
0.01487105791902054 
0.06704570993119521 
0.0191224152387741 
-0.01674888451762745 
0.03636485564762749 
-0.003483341204227738 
0.07127599860117059 
0.0002574133663677798 
0.04834758516149765 
-0.003607223314416028 
0.03271924011328935 
0.03745116025443321 
0.03316444283109837 
-0.01566119551486084 
-0.005593549769592784 
0.02869194356874999 
-0.06157160320063398 
0.00603943638367158 
-0.03493671121770821 
0.00635525461122427 
-0.007455344689395416 
-0.02898157299175984 
0.03176237113755151 
-0.02855012382686363 
0.03409260388535179 
-0.08148873016777303 
-0.006157229037255382 
-0.05450987695011016 
-0.004809135853970223 
0.009350042234877461 
-0.02514290012325885 
0.006285725897159541 
-0.002131485284022976 
0.005868669215566056 
-0.02946044892735603 
0.03542210232548678 
-0.0138644959902567 
0.002920398195170266 
-0.0177802640261258 
-0.003977186340577439 
0.01197758355861011 
-0.0137192368668127 
0.03677771026255168 
-0.04515572508399727 
-0.008929134203947746 
-0.006571474305122994 
0.04268612860568304 
-0.002502276704114475 
-0.04161005376377715 
0.0116588847626047 
-0.01570171334807887 
-0.02870696234388971 
-0.05986990247121968 
0.02800622778753275 
-0.003749836431520992 
-0.02512626294111817 
0.001825755034225696 
-0.0007228795782624917 
0.02787157903583615 
0.009688431603244512 
0.02588191476630751 
-0.06980176395592619 
-0.01196537186060109 
0.001221275354066464 
0.01702277840077994 
-0.001364638042936613 
-0.03545048521229268 
-0.01772961142090976 
-0.05901978255919782 
-0.03432342474111488 
0.01532805328066368 
0.02004555011787143 
0.01983714901697807 
-0.01406565269359131 
-0.006962622824359309 
-0.002674868303368618 
0.01893067626517242 
-0.000769312531784549 
0.02122932534602045 
-0.003407033885160286 
0.03565569494058934 
0.0353736335110779 
-0.004086147075202501 
-0.006654723216072163 
-0.01139092257799192 
-0.00213875311493753 
-0.03750805529782105 
-0.01440449802192933 
0.00315863457164827 
-0.02599097452823664 
0.008353924312565082 
-0.02204413822667108 
0.02944942148603835 
0.008326187528124427 
-0.01249997392066451 
0.02184913136843568 
0.01797174983861869 
-0.007109986902830477 
-0.03132772671801568 
0.03206325703862019 
-0.04187602079754991 
0.00930608023813552 
0.02443514048079185 
0.01746909806234285 
-0.02497887304386997 
-0.01471789071556385 
-0.00787591559609143 
0.00735865914812235 
-0.02441957455762761 
0.002460369437362879 
0.02202482820007661 
0.01374532257868208 
-0.02175695254419245 
0.005937047727600001 
-0.001907217295812532 
-0.01835671200296275 
0.01891996713927611 
0.003074962176672962 
0.01679680539716778 
0.05146079303432195 
0.01237776229207974 
0.02334655737915434 
0.002534575441013391 
0.01454038243630789 
0.007103157313278332 
0.01231695287130498 
-0.03179261049619063 
-0.02945840778218705 
-0.004845028309799132 
0.01330501220040185 
0.03106741478092657 
0.02277795524054476 
0.02552381376446277 
-0.00574933337802996 
0.01887620194021982 
0.005257394578599415 
-0.02738238197766871 
0.04670021370605115 
0.01496698561760286 
0.008293911239341095 
-0.009194347701823516 
0.005134460664425214 
0.03906149631604197 
0.01277612284745823 
-0.01362363122951342 
-0.006361067902068362 
-0.01441762175223938 
0.00876237174764892 
0.02045179997226789 
0.01145751606462072 
0.01290894519743659 
0.01680223183484374 
0.02095021169341393 
0.01594114992238793 
-0.02433193775092955 
0.003472544587790881 
-0.0009104022077579686 
0.03685554221023757 
0.01744469245714229 
-0.04826770058722507 
-0.03118824676140319 
-0.01192633649819991 
-0.006181364744307508 
-0.02973391927513535 
0.01256951152988689 
-0.0007395694287035155 
0.01555934249700965 
0.01039696014772095 
0.001656735260637357 
-0.01301274799414171 
0.001496475541197559 
0.006838062487570289 
-0.02617246218449357 
0.01450380885298107 
0.01652578303321687 
-0.0007452684929609157 
0.02198619582255171 
-0.02103037050317021 
-0.002923400578361599 
0.003977052125664069 
0.01369087242222356 
-0.01405439866266804 
0.01950964987694118 
-0.009097804206643485 
-0.01022546963293152 
0.004323819379180311 
0.01041265177242249 
0.01078988407603682 
0.01861252625900164 
0.006007237080397729 
-0.01433588806674282 
0.005400608466235407 
0.008243752199276064 
-0.006338905329471638 
-0.01588830603947977 
-0.04107958321768407 
0.02057388437013161 
0.04786564357135489 
-0.03335862017809488 
-0.02575159554320647 
-0.0001487999925564162 
0.0493277024002278 
-0.003893584620039582 
-0.03521784160373455 
-0.0003237245366900194 
0.0144156688259335 
0.0261376816225023 
-0.03270854898439018 
-0.01472923072394563 
-0.02444085096628797 
0.01227485548464847 
-0.06432266284815101 
-0.0498365300136177 
-0.0330597302230685 
0.04434119978562408 
0.009076844032024899 
-0.06781762902521397 
-0.01102532283397946 
-0.01676618778433397 
-0.002123186101498991 
-0.06885471216787475 
-0.04210156700607941 
0.01717237104507973 
0.0417011692587731 
0.001802693265997513 
-0.04368331800849304 
0.02949501823410492 
-0.01277034497208246 
-0.01556882081586578 
-0.07219593477362944 
-0.04459740134790617 
0.0104781684789057 
-0.02611386924746157 
-0.03528152363871021 
-0.07010614796348565 
0.03501940981239159 
-0.01050586624241362 
0.005784258772435528 
-0.04847249364539261 
-0.002646835905228416 
0.02972872397745479 
-0.00225928003868154 
-0.02311437438201347 
-0.04849910298899154 
0.0398270202787832 
0.0317858498124757 
0.0217119964754946 
-0.0745003500486517 
-0.0600613254293901 
-0.0123826915988012 
-0.008782778435261126 
-0.01073614971665744 
-0.08578027324553272 
0.02149424466578038 
-0.05141005435576426 
-0.02863899169717332 
-0.03586384236509775 
0.009132023509871336 
0.006742056974326491 
-0.003547669984609087 
-0.004798114081236243 
-0.03059906752853403 
0.0255853988069279 
0.006466648862405535 
0.03194625615196995 
0.04006066697341119 
-0.01846534371419438 
0.005332902987550808 
-0.01776253173686782 
0.05224278844789502 
-0.002575833074150287 
0.02215317691062842 
-0.02512220448516621 
-0.002035102056879745 
0.05661103895939412 
0.02319234376604736 
0.04015450963199477 
0.01819076058921654 
0.03709965740129142 
0.01048764026916725 
0.01644292612917719 
-0.04711891644853221 
0.03072372325424769 
0.02821569106777491 
-0.03799659987056282 
-0.0008464440122205096 
-0.03687477431824494 
0.04786593816634154 
-0.03491033343427754 
-0.009158048874708636 
-0.03044287229835529 
0.03149362836022135 
0.06931480302270851 
0.002718323666554473 
0.01700728053955778 
0.002405476447853302 
0.03155734494125263 
-0.02291548597462027 
-0.005072695737472554 
-0.07026983444341511 
0.03687057859789331 
0.04626828468841594 
-0.02134477350982713 
-0.008097076056749917 
-0.02418947973333609 
0.04678648904423449 
-0.01929120868186656 
-0.01294928499919093 
-0.003835458703906447 
0.02641539998306117 
0.02885282864459174 
0.02467510662005734 
0.01909743548407504 
-0.006441406418691903 
0.08023714102801435 
-0.003724870474404983 
-0.03708465009373424 
-0.01145045083390236 
0.03719117775944725 
0.01801422185321829 
-0.0005491079961276635 
0.03132356619341453 
0.01387968027729573 
0.04468921630589012 
-0.008059543406626285 
0.01533601617104136 
0.01463873256223154 
0.02854775467763124 
0.001982995002259923 
0.0352092030054592 
0.05107179815311743 
0.01184667867789386 
0.0879805476373221 
0.0377039459033171 
-0.02462591216586835 
-0.01111839300429224 
0.005510989305078854 
0.02071008875539544 
-0.02787889826945937 
0.01104496909413765 
-0.07954592746279476 
-0.04735936304516601 
-0.04179542040931285 
-0.01480198603499954 
-0.01584644935724457 
-0.0454739337682606 
0.0296969627951122 
0.002839539702568043 
0.01287135052579456 
-0.03938475443362083 
0.003392896462054706 
-0.006429181257240266 
0.005206145283271161 
-0.01520087343151084 
-0.05282485940747661 
-0.005251886055030431 
-0.03623291443390653 
0.02344617143155207 
-0.05271260015954131 
-0.01249679109383204 
-0.0176932152615216 
0.03128216647502513 
-0.01503992180023961 
-0.05887123932057166 
-0.001601667064671134 
0.01959458118639687 
0.0284343736368078 
-0.02914521215588579 
0.005687028981358735 
0.02215440776326128 
0.02637283347679961 
-0.01195989071043836 
-0.05635785135332334 
0.03821981696229296 
-0.007057745892090524 
0.01225165817400861 
-0.06573597626673705 
-0.002371380364133541 
-0.02254231446257072 
-0.02102350526023098 
-0.004331278115173212 
-0.02682651778061361 
0.01968418175586823 
0.04899506513266462 
0.003296506069156398 
-0.03305646029867945 
-0.04314048043181442 
-0.04276280318092959 
-0.003748111942950228 
0.0126575929232028 
-0.01979471231680036 
0.007171468851395449 
-0.006184157369399453 
0.01751685719816092 
-0.03309247966871964 
0.03382714896472104 
0.01007693916302569 
-0.0461063828544877 
-0.009118612499767118 
-0.005768796975915244 
-0.007364506288368611 
0.01956768913906625 
0.0003252646695757693 
-0.002268252736295287 
0.04603674682222483 
-0.004543222537275206 
0.0014262204391119 
0.009666805240798512 
0.007828997913762311 
-0.008506226458714594 
0.008925388382329126 
-0.002827860692031522 
-0.01588556421914558 
-0.009086432675892963 
0.005154347585807227 
-0.05924718620296471 
-0.005266692094380385 
0.008328436236220798 
-0.001684232791672658 
0.007122197353037456 
0.02072312744317383 
0.03359285358458128 
0.002448025571804021 
0.02038265008672609 
-0.02165131650607726 
0.02840825035488347 
0.01796085425915529 
-0.01921229847603097 
-0.02757567651494295 
-0.03546486582111263 
-0.02475692138214206 
-0.008159353569615314 
0.01100593959130894 
0.00672206928136916 
0.03745611605340884 
-0.002537460479410225 
0.03303640793438237 
0.01298291770051888 
-0.0340089254305803 
-0.01459624051475465 
0.009416642377128736 
0.03290281794879847 
0.002796541887756747 
5.638077246762422e-05 
-0.001311567904577136 
0.03007322890017815 
-0.0005998507649732093 
-0.003999993688038628 
0.001338166365621272 
0.0004333615664273391 
-0.00475905639745245 
-0.008837336720494717 
0.0254396245288152 
0.02524364103936665 
0.02138497940483662 
0.01893611920491914 
0.008792388596417998 
-0.009622065532866778 
0.007263303764120948 
0.00376364023840334 
0.006054673872121974 
0.005397682342468272 
0.01508756600358568 
0.002104288609692821 
-0.02067347068600398 
-0.01376099943502744 
-0.005839406342577211 
-0.001834026808076143 
-0.01305746991715503 
0.0001087140823524394 
-0.01507032671480584 
-0.008516272807644058 
0.006955029617100386 
0.005809597969585664 
5.487114290060528e-05 
0.003610884348527262 
-0.0005158998322178777 
0.01316336650640483 
-0.001076461380066106 
-0.01412479128569112 
0.003262109519970706 
-0.02533992329833595 
-0.009502708748922001 
-0.007687927347306959 
-0.04572665737065873 
-0.007769469341152768 
-0.02388540147201779 
-0.005428584207304326 
-0.003494862062773648 
-0.004782318489871972 
0.0252130710429161 
0.01341057544462699 
0.0008841435997879426 
0.007406235403864332 
-0.0002353879957000265 
-0.02765524181616783 
-0.02196875083854147 
-0.009687093078997051 
0.01513410105687727 
-0.0341684248847649 
0.002361801860895314 
0.0006482314808701478 
-0.01594899007443697 
0.0370426711645787 
-0.008643338122151864 
0.002183865958494206 
0.0160206313256539 
-0.001054490414447234 
-0.001840504179963887 
-0.0004927419017988517 
0.01408369782938611 
0.01251661795430953 
0.03965026500074444 
0.0004696312190419016 
0.005165548058691297 
0.01972373978232098 
-0.009368606791454218 
-0.01860960434127855 
-0.05194150890601189 
-0.03055221855015692 
-0.02932747813134169 
0.003987267473463275 
-0.04833512395910528 
-0.02926630365601707 
-0.03143567594420742 
0.01876984560299188 
-0.02641282901113598 
-0.006818364683471667 
-0.03039867459828908 
-0.04261253450506493 
-0.007107992606257586 
-0.01846444299533664 
-0.007352695555937731 
0.02647686398957278 
0.01746955221121342 
-0.08573696853687444 
-0.03482551358308641 
-0.02261707054081595 
0.01215327784505999 
-0.01031225507017126 
-0.04392816678022972 
0.02232179550113838 
0.0171108235716506 
-0.002501908993413729 
-0.04683547520627264 
-0.004455258136798666 
-0.02132302500082579 
-0.005905039560293882 
-0.03075827143993864 
-0.01433673334203582 
0.00157051166140757 
0.02969101044071648 
0.001240632466063811 
-0.0665330941129172 
-0.01655951138347908 
0.004632373220196856 
-0.009604756333910081 
-0.03693198283069302 
-0.05437679895271057 
0.02305965640171227 
0.007000510926389311 
0.003099304003558396 
-0.006331494158677491 
0.009108379972253628 
0.04016408647669851 
0.005865113403755268 
-0.01343109911739734 
-0.002871205201647232 
0.009106866744248347 
0.03899358155374376 
0.03091524351746344 
-0.07372625701281402 
-0.03398748354011089 
-0.01690973830754809 
-0.01441505354713602 
-0.0005354945066482807 
-0.05216961626201837 
-0.001698518214644365 
-0.01528948520708507 
-0.001209834708761739 
-0.0416365038863945 
-0.006064700826108316 
0.01611091767996876 
-0.009343525608535607 
0.003830125836881635 
0.002609612072177588 
-9.714458553199693e-05 
-0.01465261846382557 
0.002868294345016736 
0.04200344812929063 
0.00431180823494132 
-0.0001035377422831657 
-0.0259175137523487 
0.04575671185000715 
0.01128018722232715 
0.02648084626929333 
-0.02289592190495618 
0.01116253457852869 
0.03277177252614149 
0.0422570267904917 
-0.0007336818716198341 
-0.002076711038666618 
0.05178492388448609 
0.007262208968969382 
0.02530453753500077 
0.01810973053714225 
0.05622285540815286 
0.04856923015689365 
-0.01121010452546391 
-0.04032471326599051 
-0.03594684906559698 
0.01629877463821317 
-0.03588593494911206 
0.01374392398561366 
-0.03167098651986171 
0.0002093785127490568 
0.0177586462388759 
-0.002112831517058022 
-0.02718480865686451 
-0.02038732775929702 
0.04804752765420505 
-0.0001887917642312103 
0.01112422292837373 
-0.0002581197486844774 
0.0461571984739081 
-0.01198516342922917 
-0.01432888257419713 
-0.01246472006753717 
-0.02119184098747045 
0.05620583687614474 
-0.01108251953930165 
-0.01043537543595105 
-0.003773965240688727 
0.01047246816025083 
0.0379706333807504 
0.002076696951049093 
0.006274943789758148 
-0.007672399026312485 
0.03147494984977513 
-0.001080505689994389 
0.009083303491924851 
0.01457275992435749 
0.0462558141942266 
0.006207244967701232 
0.00221110402986964 
0.01070335058212187 
-0.01281119607094412 
0.06678598125259597 
0.01831936296476977 
0.004982961515077682 
0.002354125190566293 
0.01070926414589866 
0.05563125942941272 
0.01738171529099733 
0.04361224275547892 
0.03239360768787756 
0.07467068225956253 
0.006384697893113393 
0.02198763779369362 
0.02349078965721279 
0.02244295850415377 
0.02885200600573814 
-0.006476628103252433 
-0.02641461360943012 
-0.04777280990210205 
-0.005755242872689715 
-0.0142276186468716 
-0.02543056366841517 
0.0111767849458196 
-0.06007308513824767 
0.01379623976871914 
0.0201633867244841 
0.02716119913999175 
-0.021408837949527 
-0.01387898450471222 
-0.04661274835635004 
-0.01798706903571808 
0.01896470528162487 
-0.002963863571988139 
-0.0004660651717443161 
0.02643086958714725 
-0.007438874605207051 
-0.03719766291386783 
0.006937282977299149 
0.01090288124050377 
-0.008893363419721046 
-0.0112590136930955 
-0.06358637688674151 
-0.003012709471277601 
0.03548758983851923 
0.03397976648354684 
0.01803581444649775 
0.006492782882523822 
0.02185266567728257 
0.005042848131974794 
0.005491864558506256 
-0.05141530830425418 
0.006919291961423196 
0.03143900786914987 
-0.01414378488294708 
-0.0611648379199909 
-0.03811657920126659 
0.001192384266176169 
0.01912686703355494 
-0.01390129123335529 
-0.02564751443486862 
-0.004124724002085269 
-0.001459741535040966 
-0.002617180833095925 
-0.02001773076999831 
-0.02235689613719677 
0.04300656295018241 
-0.002896853108231284 
-0.007364638556201434 
-0.02868280832610536 
-0.03087718831143297 
-0.01747559043167753 
-0.02067798587275982 
-0.02572209293466712 
0.02244216762063429 
-0.003537314460280873 
0.01307260355644785 
-0.0209992695475148 
0.004943136366473577 
-0.01047413653871288 
-0.02780399642268015 
-0.01481049006911389 
0.002490085426709975 
0.001734960534565336 
0.03673408330777201 
-0.008171834071923977 
-0.007251425878269024 
0.000688185977661702 
-0.003413636907657256 
-0.02261876787366966 
0.0008214916044486747 
0.01797662999133001 
-0.003988134020938837 
0.0165308736672934 
0.004979059055473594 
0.02386574290495568 
0.03987346111949974 
0.01782415610366497 
0.03400673759780073 
-0.001282675137512493 
0.03468145348239231 
0.01622648654987402 
0.006096810591806415 
0.009504217960719907 
0.003327357075789347 
0.04100129022456396 
0.005100842759725081 
-0.009417493338446445 
-0.03281006075177482 
-0.01931772170464903 
0.01208341631925473 
0.02579966743886031 
-0.01894209619185496 
-0.009408362951479557 
-0.02146840247960476 
0.04643337091025808 
-0.000562005939320928 
0.011803738570158 
0.007404308314997307 
0.06055098648298154 
0.04000664094885237 
-0.007196219203148932 
0.00348728786799428 
0.01538068015143469 
0.02220345501572875 
0.009263035044725035 
0.01885915054215117 
-0.01945817722115633 
0.00148300557332981 
0.004619762596449925 
-0.0114986080422912 
-0.01055301243582837 
0.007913795503920008 
0.01741344556896815 
-0.001811180482717686 
0.01743775908432067 
0.007344372454240941 
0.01441067231455718 
-0.0006888085652874122 
-0.01230001548214883 
0.00265971264353407 
0.004289038553045252 
-0.0005048175975540711 
-0.002451645650721476 
0.004846418549028046 
-0.008692338474419166 
0.01816818149097944 
0.009990218572374794 
-0.018541797552069 
-0.02182643218866125 
0.004075364917364222 
0.003320826243720547 
-0.005758675226394013 
0.002804165452130099 
0.003533750652474359 
0.008685709123762674 
-0.0047975076903271 
-0.002297405971562306 
-0.02118338768863941 
-0.007041836851145826 
0.01054579309075041 
0.003877325236501548 
0.01224270759213104 
0.008341240135418966 
-0.01659712276520527 
-0.01362958742873737 
-0.006722972134887473 
-0.02613269824800171 
0.01193804398604608 
0.02127731048475133 
-0.01478310526286605 
0.02531385930905736 
-0.001113616397717253 
-0.02583900289232539 
0.01349235188475635 
0.01983898460669257 
-0.006783750423124038 
-0.007251651613632302 
-0.002899429801178618 
-0.004113021015650481 
0.02655924666612009 
0.007184645694322593 
0.02637819949662065 
0.0259771720800877 
0.01888462171014307 
0.001019586168572371 
-0.004882838076898259 
0.009559446823222928 
0.005254831450474481 
0.0178814879127538 
0.01058739458719897 
0.005679726689214006 
0.05550974469898173 
0.01547448049176698 
0.006447733074065042 
0.008171635831413882 
-0.02982882443993002 
0.009020743862882361 
-0.03800052495306767 
-0.02639814777899898 
-0.01281470444027703 
-0.01991814932047562 
-0.01843391673460937 
0.02279477850557207 
0.01992412100599548 
0.02631732876059082 
0.01261212228679901 
-0.03596455328259023 
0.005464225975420195 
0.01405654691621885 
-0.02629669742357673 
-0.05803706998295255 
-0.02180735860214341 
-0.003966454135157367 
-0.02949952517468932 
-0.0004418306398337554 
-0.03558357730779377 
-0.004533187077236205 
-0.006690875420507003 
0.0004729437998853438 
0.001748189176495251 
0.04895957920726864 
-0.0157599556295413 
0.003594166090538278 
0.02316825126082628 
-0.02955939967861392 
0.01638885088483395 
-0.01544123219520683 
-0.008744367644782586 
-0.04023560430148534 
-0.02150816883279046 
-0.003563320023404814 
-0.03707566077562845 
0.02383221354761487 
0.02177497523441157 
0.002138726035398001 
-0.005350034844983016 
0.01515917206610781 
0.01645826631242819 
0.01799026918539464 
0.006583302774487607 
-0.02161053678325508 
0.0254049861821245 
-0.008330627313705938 
-0.01782047357097393 
-0.02634462743413786 
0.0008709580001999123 
0.01593154425567635 
-0.002148688685876411 
-0.006521507404052735 
-0.04585161847014138 
-0.002078025842972028 
0.002696269138501844 
-0.006562931211543467 
0.003627158324134846 
0.007920917941115754 
0.03105323016322787 
-0.00286393047756416 
-0.01264767302491152 
-0.02242900167725831 
-0.00251754899778671 
-0.004254545768894312 
-0.009042219919572023 
-0.009045601857329629 
-0.01430889151502646 
0.01700932378097902 
-0.02696343859621533 
-0.0379285155302422 
0.01108296255700636 
0.03572311443466958 
-0.01421737976290987 
-0.01322086281369225 
0.06601641148551374 
0.01197745243949079 
0.05741898747320741 
0.02386828774170536 
0.0205656118164255 
-0.006578782397128776 
0.02622869529678999 
0.01169956315735847 
-0.01725077041630814 
-0.002747305929237419 
-0.04920521614519107 
0.02935631250700515 
0.01209282456638869 
0.001779977090045253 
0.001241192832285447 
-0.003175947839566618 
-0.03414570489030663 
-0.02047439873984246 
0.05366588243056204 
-0.009276126991016775 
0.01567633863906738 
-0.001986397432835206 
0.01652651443040777 
0.002870408306011559 
0.03833824258385218 
0.02765179937848375 
0.0111517835770741 
-0.002384870250088871 
-0.07783063927992928 
-0.0250027091042675 
-0.03566564463640948 
-0.03729337611234054 
0.04866213494049332 
0.0157879657488454 
-0.005045326106420374 
-0.01679388971463106 
0.03126337034936923 
-0.007452579608021305 
0.02902861028686566 
0.0229861454674047 
0.04237974014093101 
0.01755540785858302 
0.03328994954532982 
0.02089016660365351 
-0.003250698415068976 
0.002033063809424885 
-0.05149081217690117 
0.01837987833455569 
-0.03170831266009887 
-0.03913563107628956 
0.04122621878726083 
-0.004481676006518789 
0.03510896683274251 
0.01501076696912742 
0.01510424723472562 
-0.01981050220439746 
0.03640780217898178 
0.02786463289423534 
0.02584083621727593 
0.007582605492716348 
0.01559308874657977 
0.0310579767401873 
0.00627203259901681 
-0.02823835016516351 
-0.03311219810411142 
0.02195240372753673 
0.004979726708341457 
-0.01659930146487971 
0.01896140297217559 
0.01249740421527403 
0.007356724490951555 
-0.007732681173290359 
-0.005042255420353489 
-0.02643808853012041 
-0.01638162130943021 
0.02426329262752123 
0.01562921330778798 
-0.00551342902680324 
-0.008499397283302623 
0.001781954345237295 
-0.01303042182441876 
-0.02277747705255895 
-0.04018439634612326 
-0.01311725094474386 
0.01790929526547408 
-0.009723445463804662 
-0.005122108353311946 
0.02800557499236045 
0.02520819942212839 
0.0177722014802497 
-0.00657418678328951 
0.01357672959675148 
-0.0009579122838640934 
0.03102200239823841 
-0.01078992935171623 
-0.00207503735984335 
0.00657085005648113 
0.007235382159997476 
0.01614015230765416 
-0.01058024570779007 
-0.005553454984923099 
-0.008327037758423006 
0.03191424596734661 
-0.05517668745770593 
-0.01375478597513675 
0.00329462151818565 
0.000933322851312299 
-0.01813398542892864 
-0.01640484191798927 
0.03516133149562552 
-0.02204638385796718 
0.008849225007102344 
0.001509006458117982 
0.001820537335422924 
-0.01797419429930393 
-0.004807697234280038 
0.01175817386097278 
0.002347241490800873 
0.01580718225716094 
-0.05985456216455265 
0.00335961552655226 
0.03711131897894371 
-0.03161655106870395 
-0.01185538325116265 
-0.00505613770176867 
-0.01619483764478533 
-0.02733939935776036 
0.01283515932963402 
-0.02608340236558777 
-0.01199895781862454 
-0.009898310174278356 
-0.008236620803824949 
-0.03955246960205592 
-0.00889555292543103 
0.03084902049102906 
-0.03691036889600819 
0.01139029675519728 
-0.06204211175396868 
-0.01922665815710289 
0.02375318407610552 
-0.003027862831620218 
0.04411925830597025 
0.02484909533155518 
0.00474352828223687 
0.03566302047134813 
0.005415007639485431 
0.006400399531966579 
0.01411155617716707 
0.02139059964942897 
-0.03721030472903988 
0.00909670812461006 
0.01629144568678563 
0.03673641632461758 
0.006853564765916004 
-0.005091321012280883 
0.01744274746404263 
0.0405768076078551 
0.01989446625336663 
0.07617139793002549 
0.01525615190555896 
0.01193269802109445 
0.01225908430726679 
0.06156623458142101 
0.05411319514378109 
-0.01345771801899584 
0.02657847329132933 
0.04415299690977025 
0.05053909790763748 
0.01363423857017595 
-0.002395254799173047 
0.02310420033875406 
0.01459565881371418 
0.02208049152046718 
-0.05886694339932029 
-0.03929428070577519 
-0.005845741432323409 
0.001125328244593208 
0.008497883270335217 
0.03530155081925832 
0.001463081520284742 
0.01417653125033982 
0.005671891883700333 
-0.005066651873520665 
0.03033630192595545 
-0.001479334444727309 
-0.02508692140915932 
-0.001703338122346704 
0.01470439575768344 
0.04064361728259761 
-0.01653806221135421 
0.01320225017495849 
-0.0002346232701066155 
0.008876728894674063 
0.00147992610389816 
-0.008945465813463629 
-0.009800981806106486 
0.01846423356244859 
0.006434345366967479 
-0.01465238254824212 
-0.0143600545623215 
-0.003322301336277712 
0.0026522108270269 
-0.007682682091424311 
-0.001915448688718144 
-0.008933541028259322 
0.005924337477286796 
0.02374021990946228 
-0.02540766204011939 
-0.01134108748957957 
0.01053707021578475 
0.04011697192986634 
-0.02782100483463363 
-0.0004357726254297478 
0.01844036652563717 
0.01551045367764839 
-0.004285385465159042 
-0.01525540146459214 
0.005798576260420059 
0.02388110145005475 
0.01055353833950837 
-0.01330633710472305 
0.004783857619894982 
-0.02005775752252249 
-0.008320910925461309 
0.02409051139147607 
-0.0006650769542123152 
-0.03670247763063398 
0.0008179199300598852 
0.04952106928336345 
-0.01232682480169879 
0.01373474202175362 
0.02686309885673856 
0.004897792211786769 
0.01082051853994615 
0.02538450950726164 
0.05171536843377071 
0.02661788507324268 
0.009128747757495372 
0.02163474730566878 
0.02173228818249282 
0.001299759413453769 
-0.003165928012611417 
0.03065034846282794 
0.01838213412988181 
0.02292834527904797 
0.02353250917365222 
0.02811077622728337 
-0.008204886678150716 
0.005734311676515255 
-0.01103643135690783 
-0.05169866237670463 
0.0212936454653098 
0.03366568976271721 
0.005506911037164637 
-0.03970158715858216 
-0.01601126067403849 
0.02155757212469388 
-0.02104738851320733 
-0.02238221655368123 
-0.05041390672058934 
-0.009648961095222572 
0.04142129697618346 
0.009542786858122576 
0.009060664364311865 
0.006894133889580174 
0.0144784033614324 
-0.007826764535865087 
-0.0006107351710573839 
-0.03578019427863448 
0.01248278084966597 
-0.01283875351087325 
0.01184401082725199 
-0.03937739659314527 
-0.01035890723192192 
0.01673835477932974 
-0.02221735669862046 
-0.002402568481646379 
-0.00980472962741148 
0.006433693946108302 
0.006152591112984359 
0.0238499503090175 
0.01697317721510573 
0.01150048502475833 
-0.01208355505456243 
-0.02485474365307892 
0.02545850105743772 
-0.0176234617429846 
-0.0209500823574855 
-0.009128380052683556 
0.01358338858565308 
0.01627143204580809 
0.01100771711634108 
0.0141411858301571 
-0.007598590591495676 
-0.001010487417018865 
-0.01129907371770149 
0.006304399068252088 
0.02039427300284537 
0.0233764201719076 
0.02019723242093645 
0.03133077795147743 
-0.02627420528945174 
0.01659371526904271 
0.03775963112027365 
-0.01329300861335607 
-0.0180534232390249 
0.008457232343335326 
0.0104363624623967 
0.02998748673534947 
0.01858476641452065 
0.02323334835463787 
-0.03166092530858135 
0.006914962706032078 
-0.02133065230397356 
-0.0225200350378228 
0.003196728221328741 
-0.001607455516501053 
0.01242175772411447 
0.004863459064203967 
-0.02442008132864509 
0.02443059102414762 
0.04503834730871832 
-0.01223915012807159 
-0.0134675423094263 
0.005937007028737842 
-0.02397190882246606 
0.05565342185346517 
0.02301976370199113 
0.01042895334050252 
-0.04171455631370895 
0.007447337746436707 
0.004830192598914417 
0.003169504198804707 
-0.002618712386844203 
-0.05894746660600626 
0.01303790702467972 
0.02235168871237167 
0.002772572227897366 
-0.002567826799337649 
0.04893280827318894 
0.002850335717954823 
0.01266956017671145 
0.04560542272813754 
-0.03054956074849978 
0.03284449336096701 
0.0207770781368502 
-0.008708882112780892 
-0.05095306609742177 
-0.02301808768937474 
0.01377488622217117 
0.02244842521521088 
0.01546306905214677 
-0.03457611690965083 
-0.007982707497416062 
-0.006942322934290822 
-0.01585583481763958 
0.04841376120992393 
0.0199630229763807 
0.006444614685540264 
0.03244558559079222 
0.01023817816915448 
0.005143967457587256 
0.0448404035542513 
0.02080256952903961 
0.001470385046323927 
0.03044746414999877 
0.04087686447179002 
0.02273362956810597 
-0.02735061958916462 
-0.02666683362770144 
-0.01980416837819856 
-0.008781216044185974 
-0.02240310726748574 
-0.01629583626071897 
0.0148687565431132 
0.01687836087980139 
0.02871929058602078 
0.05657863029343217 
-0.01036087362401938 
-0.02256430183031694 
0.05166795171794528 
0.0454146524316527 
-0.02069013470236531 
0.02313869829689411 
0.04550099261006888 
0.03015989260356592 
-0.007962633217216361 
-0.02918797170276557 
-0.01633726207708255 
-0.006601251010593266 
-0.009262704199331936 
-0.05982871570880987 
0.000706637424336739 
-0.01194686719948992 
0.003437979645593546 
0.03789534784684525 
0.003167624848490818 
-0.002149965902886687 
0.01938577726430386 
0.0386911298330282 
-0.007194069471050552 
0.02242541410786777 
0.004300758437740484 
-0.03331376828607582 
0.008071363449926943 
-0.0003436627099005232 
-0.06200380709833896 
0.0009736974307805443 
0.04278507983658871 
-0.002813986128171963 
0.00907214651801071 
0.006469457189290014 
0.01554840955997822 
0.03173919379820296 
0.002211654780044449 
0.01715008015551268 
-0.009939840242973945 
0.02988901690834559 
-0.03763373819828381 
0.03015466874024332 
0.02863073257522431 
-0.01443811065406973 
-0.00495964536727141 
-0.02486593035421544 
0.01247875317390083 
0.000275964383596776 
0.02226749579674727 
-0.0050825861092441 
0.0128156150047604 
0.008096287023617088 
0.008643017656192704 
0.009276794729576132 
0.002851521185720347 
0.03820523313927237 
-0.04829082701125532 
-0.01956176490458516 
0.04413576274146015 
0.01457939005377906 
0.0244296563737918 
-0.02683144059713082 
0.01951931150578867 
-0.01800159742004652 
0.01440081496402957 
-0.02322108934817442 
-0.002980534202481425 
0.02673433808889067 
0.02008728731688738 
-0.009793265522185438 
0.0008586592784357012 
0.01583209834619968 
0.004699862776159213 
0.0368678429570598 
-0.02678054891580503 
0.001700702692170741 
0.04810708884233435 
0.02971593495470192 
-0.02393805036429522 
-0.03168234102559648 
-0.002916417488312486 
-0.02638146805931725 
0.01632085561716215 
-0.02120417496901423 
-0.02533629522037836 
0.03371203121713737 
-0.01351506071838577 
0.0181028887163841 
0.03090244618919169 
0.02535456597972743 
0.02984450873627827 
0.01920433790408823 
0.02099185331791817 
0.04018356896782408 
0.0408677398793329 
-0.003584130465278956 
0.009670551888003635 
-0.01040064476112679 
-0.007940150488222563 
0.00547880968953727 
-0.01193268425122873 
0.008444353385420128 
0.004263213107330136 
0.01077518556206564 
0.05562531983832956 
0.02267858274825059 
-0.004149155254348651 
0.01067691441016204 
0.01097366692676353 
0.02211610104988132 
-0.03638518277627981 
-0.03180588086740324 
0.004879693521269749 
0.04669083142896237 
0.04578403029464004 
0.001319259210071606 
-0.02151297456763475 
0.008926009612576738 
0.03002162237324775 
-0.01060051277574427 
-0.008350338633657087 
-0.03662408151824394 
0.001023007667034523 
0.03199089386799604 
0.02450506173828635 
0.02898478044385152 
0.005864070492185691 
0.03228056331084227 
-0.01043866114165429 
0.01463255751022072 
0.02598422149188061 
0.0008938985542212254 
0.02293117163209719 
0.009201183114432196 
0.005263268442290183 
0.01896381734049271 
0.06307099478621593 
0.01090883927358478 
0.003284387322490181 
0.0001614210483010341 
0.002148074284907706 
0.01238934473392916 
0.006747365013799558 
0.01719542895561963 
-0.02104691312308814 
-0.01043235640663298 
-0.008869070285609666 
0.025343488508243 
-0.0131123611595983 
0.002820722311741527 
0.01999089863841915 
-0.007165222617419603 
0.01770459909298793 
-0.01724405510396817 
0.02896403748451912 
0.002591974383545591 
-0.006990479180446316 
0.00169416679900892 
0.01025682930053473 
-0.02042600222756366 
-0.003721196143480201 
0.01696462189698308 
0.01272968094288959 
-0.03028787629309747 
-0.02768340246947479 
0.02379234776533882 
-0.008688231034318266 
0.03186087767846385 
-0.009608435618668741 
-0.01639745285402363 
-0.01865656891241402 
-0.01296371774669362 
-0.001014982103916581 
-0.01808885553827796 
-0.01820032035161903 
0.01040365124846836 
0.01618763380479575 
-0.001291358169352485 
0.008652040941683344 
0.0279793936070326 
0.009340823680758194 
0.004758353642011477 
0.004810228529735116 
0.01031481019879357 
-0.008638511905239189 
0.03864101167578891 
0.01010746385925358 
0.005733008327353716 
-0.008566528227141877 
0.01251871788982013 
0.01220920069328242 
-0.01196491247068619 
-0.0112405090057203 
0.02186727415750648 
0.01320877239497009 
-0.008567367429295435 
-0.01052958203890338 
-0.007949656246862814 
0.00747700688618071 
-0.001455031320792243 
-0.0006382374213771168 
0.01083563721974923 
0.01725771267068744 
0.007197339801700815 
0.002768215374877043 
-0.04086387732969692 
-0.02846812909387382 
0.002126288478901779 
0.004508435209053034 
-0.01534662098978913 
0.0001142949934760103 
0.04796118047005282 
0.01034522057504155 
0.01507512160101242 
0.01304716459290093 
0.01283606583238561 
-0.01792033987793715 
0.002840949484437256 
0.01665891909315281 
0.01272964928800675 
0.001885560212850807 
-0.03171041025105151 
0.004024682564562013 
-0.02199811142803963 
0.02016402348110089 
-0.009601162702670987 
-0.01153292127972508 
0.006009781933160077 
0.02419892709519246 
0.01440272828857225 
-0.03176346737895555 
0.01815349421771014 
0.01395180235003939 
0.0053152258763874 
0.006868181534925604 
0.0006821140611590724 
0.01254066163346102 
0.03415323025438653 
-0.01677908498773277 
-0.02674933854032767 
0.003940898635336184 
0.03292473878702031 
0.01647314982868618 
0.00588704762387809 
-0.03289992398920031 
0.01480164937879293 
0.04173904581136888 
-0.0001954438562002578 
-0.02997768743413374 
0.008993749253453783 
-0.004199200408115274 
-0.01208394397533026 
0.01154424990845494 
-0.00462643190353 
0.02637241878467121 
0.02203363165950471 
-0.01083939462029124 
-0.01305953068943807 
-0.003897320789315152 
0.05091165472208525 
0.02577603145830154 
-0.01362472276933216 
-0.03933535086245554 
0.0325281996709177 
0.007487747366913933 
-0.001215865270018306 
-0.03937744046586197 
0.02034540153229803 
0.02548484653836711 
0.007274414047266003 
0.01598168599631 
-0.05305358059879067 
0.0518897856759454 
0.03482780665881428 
-0.01039090386914325 
-0.02940305411428483 
-0.004837480074291813 
0.02739890181287759 
0.000488901021173255 
-0.028672443564754 
-0.07645747136023046 
0.01872898693778034 
-0.007258883081921493 
-0.002923075102545404 
-0.02508721507611322 
-0.01353889217578533 
0.03435288685309019 
0.01774372118243677 
0.01518170402248777 
-0.04389394020071698 
0.04464739259797541 
0.01660942699753686 
0.001027000384927853 
-0.0347221511637647 
-0.02323815535007027 
0.02295184605903242 
-0.02394840735011634 
-0.01187926633435332 
-0.05158166280827878 
0.01226556064628027 
-0.0209307308226313 
-0.02310549915119811 
0.04624600368219565 
0.06653880396292169 
0.04374083325687324 
-0.02056673700021238 
-0.00872890457996245 
-0.003400488961423655 
0.04025051422412877 
-0.004948076724843816 
-0.01712113806796337 
-0.01514719320683963 
0.01830029695691987 
0.006954069166070959 
-0.05395482456352505 
-0.02194052151115247 
-0.03082911602901941 
0.03829856530572292 
-0.02423923045677706 
-0.02185871352934296 
0.02386013416008293 
0.06105743688170852 
0.04835090544455836 
-0.0005560107475720266 
-0.0138610959723718 
-0.04184672813609858 
0.01912312936250919 
0.0006619111876099493 
-0.05655081225157698 
-0.03466007194363184 
-0.001048982018597721 
0.03148310832641085 
-0.0429547408558657 
-0.03055630002826204 
-0.0401599106039173 
0.02536749785461951 
-0.01276796515284979 
-0.070992079990714 
0.0228776140605383 
0.02832301942288773 
-0.01959129533123126 
0.003022480123542683 
0.007785376297954498 
-0.05599728169308581 
0.02600447094732345 
0.04461371633160803 
0.01635813363974434 
0.01630808593908575 
0.03789449339833232 
0.01335981795751659 
-0.03889896112974892 
0.009780480005498748 
-0.04448465251555306 
0.02768584212022623 
0.01729340525490393 
-0.03717182235950325 
0.02078585528031992 
0.04358955363402092 
0.0186556032362123 
-0.03482474102706395 
-0.02951926782838311 
-0.001381238604803398 
-0.005929216635801539 
0.007036660165017296 
0.003141707022602627 
0.01495712735675084 
0.0383631209037965 
0.01007870417096269 
-0.04179813834178343 
-0.04990449233045692 
0.02344504014096165 
0.03374447841691319 
0.006234559837847325 
-0.0002872264988271061 
0.009884798130340475 
0.06753368758886855 
0.009959417562374414 
0.01125995568550872 
-0.0005560174282260068 
0.02174448269121982 
-0.02174474756116864 
-0.001453847908824876 
0.01397618348558654 
0.01210640321211545 
0.03275108957233713 
-0.01562974519043415 
-0.02070695661644764 
0.01346394776273775 
0.02611469007633101 
-0.02091275007686483 
-0.00252584970565692 
-0.01879726510923509 
0.003652375171037167 
0.020436728159947 
0.001428966571724931 
-0.004429291145585634 
-0.003502854672750601 
0.04289210139476635 
-0.02305869244745908 
-0.01464914198402702 
0.01549272217817039 
0.02090053106491859 
0.008766185582134026 
-0.01234113606602427 
-0.006555671197877005 
0.01902927779013886 
0.01263059210281128 
-0.0363527067342336 
0.002867118204000857 
0.01001353213575796 
0.003034949776222303 
0.04392747540131386 
0.01249017292455693 
0.01228893637869478 
0.007130313055288865 
-0.003075501483135525 
-0.008895736958101053 
0.002828509046221271 
0.003123701546562603 
0.006537863520772061 
0.03312611287502556 
0.03476499016583384 
0.02834900766894035 
0.02477119998616379 
-0.00622522279805781 
-0.01874914671377089 
0.01898811868388963 
0.02963688390733909 
0.04140644480703544 
0.02188308906063782 
-0.005327530849631251 
-0.01127071737535438 
-0.004067075798391641 
0.0116430221922232 
0.01161123740063802 
-0.001946117798365154 
-0.03700170732173989 
0.02938763032831008 
-0.01117165627177269 
0.005931090378395031 
0.034698328292678 
-0.01457052586283604 
-0.03593519051610802 
-0.03107392921455624 
-0.01137425234383811 
0.01505017221768591 
0.009295694121405776 
0.01533608253046523 
-0.00130519879158467 
-0.006850037845572175 
-0.01563270216151862 
0.03144373639687322 
0.01327627944331707 
0.005219370005459561 
0.0009296803217743249 
0.03269409584578255 
0.02761395399231792 
0.0007805428601746051 
-0.007697431718822027 
0.004224991456729361 
0.009005103668577822 
-0.003115694512750137 
-0.008091380001753428 
0.03729167431084747 
0.001747569277736826 
0.02368817784510965 
-0.009952523496748772 
0.01107659747731769 
-0.01314565729156234 
0.01098966400702465 
-0.00339485622067428 
-0.01265481673360026 
0.003317354949005238 
-0.004595108557083555 
0.01119657905272673 
-0.005816382182277802 
-0.03261885680920222 
0.05527648800171821 
0.02391036380629428 
-0.01398733177124505 
-0.03667265545571325 
0.02711972398474243 
0.01560281988774244 
-0.01860309039212445 
-0.02149937193252657 
-0.005960019235820177 
0.01515902575474945 
0.007171860381020459 
0.01255823064962739 
-0.01665356995324578 
0.006742897447786322 
0.01070893185682832 
-0.04006377195558945 
