solver_type L2R_L2LOSS_SVC_DUAL
nr_class 2
label -1 1
nr_feature 3780
bias 1
w
0.06821114251496112 
-0.04262406478578361 
-0.05032972051623157 
0.1080807301096541 
-0.1143815752432497 
0.2337394547036115 
-0.08602761739212425 
0.03936237893641729 
-0.05545206500358975 
-0.01386298189326703 
0.02758611258094541 
-0.01162696961497522 
-0.02041319510794464 
-0.1372783057914633 
-0.03376876380037744 
0.001477139417385826 
-0.06788079316719479 
-0.02772656106970249 
0.006636542320229633 
0.006638942247354598 
-0.01195738040574391 
0.02960856672337335 
-0.02862623646599637 
0.05275542383471789 
-0.1580129867867899 
0.07627472233744137 
-0.04649681060981894 
-0.02413235386224306 
-0.002181964692886543 
-0.0676723681623171 
-0.01554046595077113 
-0.03256570460799566 
-0.04896197515479559 
-0.06366919409879013 
0.02477907962166588 
0.01674745805429712 
-0.07757124707071116 
0.04760248168743597 
-0.01202886269103303 
0.06033358508156837 
-0.04257776050022054 
0.03140449033162272 
-0.0792456907046362 
0.05890625859031444 
-0.04112492055005619 
-0.01479985227257883 
-0.02487858484867369 
-0.05527852474808347 
-0.09394076058855984 
-0.1097244860503491 
-0.06402281471133173 
0.02319840940804711 
-0.03725268518591061 
0.02777390296299921 
0.04087416281513651 
0.03182079102272983 
-0.0747934029979359 
-0.03147953165160235 
-0.02903080874214975 
0.05868895442070879 
-0.02907269340551653 
0.06570527272606916 
0.01858878915894967 
-0.03708006681199898 
0.02354007364414733 
0.05616388185481991 
-0.08614333035775508 
-0.05369503556336336 
0.008941397004799644 
0.06847496558355348 
0.01542946840424765 
-0.04741827413307734 
0.03205883596951145 
-0.07065873735232803 
-0.1020834094520169 
0.09179929636281531 
0.007724410536045907 
0.04457737100184863 
-0.0850287570922815 
0.02449478877739241 
0.001295954315285163 
0.01265196372732119 
-0.0161497955261287 
0.04611099720372328 
-0.0004650958955270993 
-0.08636645051578687 
-0.07530759418575324 
-0.04898928051096262 
-0.07019443058332402 
-0.0171577267166434 
0.04572435422273165 
0.07448916199218308 
-0.04426234989508836 
0.06339984783912987 
-0.04311221082587938 
0.07521416715486634 
-0.01846409019955621 
-0.008361392134814698 
0.03894398371310356 
0.02114606006767153 
0.09340115577308264 
0.08110763246799683 
-0.00291559701986728 
-0.1491531899168459 
0.04869067321455074 
0.03829708735461754 
-0.02748432210893886 
-0.07376746684487255 
-0.05183205229618734 
0.01618407841582469 
-0.04136817387394748 
0.1978282295282511 
-0.09112303992438649 
0.08474247692267924 
-0.02527602644987287 
0.09121711604898752 
-0.03722853596998035 
-0.03247247317563726 
0.04810226079626607 
-0.05925024468512857 
0.04149898423340723 
-0.1881263482933217 
-0.03302530054298101 
0.02465389332929401 
0.02281641242364493 
-0.14420174692734 
-0.06466939593963768 
0.06824572797054643 
-0.04609898227382198 
0.03468244782657542 
-0.0436011539382679 
0.1089408824914651 
0.01347848496669212 
0.08354706217601657 
-0.04759274052742098 
-0.06506135356492627 
0.01722134968026236 
-0.0146902262919298 
0.05917265515218795 
-0.1253133790128724 
-0.06740689426269339 
-0.0158635568277152 
0.05672022649279247 
-0.07064942971616885 
-0.02809006175150716 
0.06547250139068651 
-0.02898422673824208 
0.06446648248109875 
0.01750165255496852 
0.07392051519250877 
-0.03244814490488669 
-0.06359520993730615 
-0.02103813058560773 
-0.0911980431962575 
0.13070023989455 
0.03060963370166971 
0.1597914061418444 
-0.000723865527195594 
-0.09539304095541407 
-0.02296182213061809 
0.0757915367254795 
0.02355823605965444 
0.0822511785611344 
0.01843854213869015 
-0.1557621846407643 
-0.008592399210349514 
0.004296409434666401 
0.01442958152543144 
0.006536755987130933 
-0.05183217460138528 
0.0152930222351745 
-0.09515087064391405 
0.03227959886110884 
-0.005640572191137585 
-0.09161042740782328 
-0.09812421414854974 
-0.006886522879756978 
-0.05392142217032938 
-0.0716566811882928 
-0.05444796151662731 
-0.1041180322576916 
-0.0153188542281092 
-0.02072231757946496 
0.06111330882362082 
0.04459960741086382 
0.0532357304558163 
0.01553011801328217 
0.03758128342117235 
-0.04964132798662228 
-0.06195864114083278 
-0.06574805945066606 
0.0546264578914893 
0.003961177302143457 
-0.0625263081098109 
-0.03511495602473595 
0.04194928729070716 
0.06732286545870865 
-0.08659557183853846 
0.02572426905913664 
-0.04088529409117997 
-0.06625763549951059 
0.008827991198874495 
-0.07403515255033298 
0.0733508375063445 
-0.1043112008299881 
0.01053613577433263 
-0.06622386616031326 
-0.04617224199425086 
-0.1027872093975064 
-0.04842683945970088 
-0.06719447079887024 
-0.072855764215375 
-0.01454850407042308 
-0.04445963088578625 
-0.01362478805607656 
-0.06648756620524941 
-0.03069884186127228 
0.03997692688572234 
-0.03331721592251288 
0.08314635312236748 
-0.05213132113255898 
0.1490633014613807 
-0.1066082039327937 
-0.03884180217191659 
-0.07610945770123087 
0.03868491703080917 
-0.02594557315717096 
-0.1027168403869108 
0.01591064114190057 
-0.03016416947485205 
0.05881280234544358 
-0.05542832441240685 
-0.0454218491678262 
-0.07013916902059637 
-0.04515669833048138 
0.02644678896442735 
-0.06562803658542389 
-0.02138316089226519 
-0.0195086040748438 
-0.01636333830649112 
-0.1222228862471764 
0.09441725058646286 
-0.001832808277931994 
-0.07116728786790601 
-0.02794624287332988 
-0.06878783788245929 
0.047290829872334 
-0.06802827905818948 
-0.04781673250440587 
-0.05671972284185474 
0.09325691042266497 
-0.05342001164811039 
-0.02318947598331186 
-0.04142047241376827 
-0.01535572495234461 
-0.01735793805074301 
-0.09796274252869125 
0.06598209674722762 
-0.04617389261005632 
0.005055717181662864 
-0.01520181730426926 
0.01797418170999278 
0.0004404915675542191 
-0.07309323499432056 
-0.06992333003206969 
-0.02600451341315348 
-0.05361022752996605 
-0.006112281291088479 
-0.01367165550384005 
-0.04192353717241856 
0.02918911722398642 
-0.03779022137343751 
-0.08280538239564396 
0.06217266666474573 
-0.04876183240795321 
0.07015053711589229 
-0.02392917960890729 
0.04052902056342143 
0.02252133590665861 
-0.01962508846229448 
0.02318046494241107 
-0.06960197815422602 
-0.03443530476021156 
-0.02470939330148503 
-0.02292504189643188 
-0.0267519666386755 
0.0236981631767121 
-0.1228667199387716 
0.05899934022939626 
0.03164490778047757 
-0.01380366983883798 
0.06387507908668152 
-0.1050721363395407 
0.08200529792135042 
-0.0231481490597632 
-0.02621894243310002 
-0.01374666983046439 
0.04871776921613385 
0.1186559771104168 
-0.002421713674743699 
-0.01117850791387442 
-0.05605869290825537 
0.01352653903074431 
0.00219762659167963 
-0.01561819373901818 
-0.009245922275701614 
0.002726826513313971 
-0.05698885608794527 
-0.09103366206647932 
-0.01825729663527712 
-0.02099719187078647 
0.004100146921446478 
-0.03721082488320004 
0.07096959461876372 
0.005298263311624045 
-0.01778710046412205 
0.01786829989365539 
-0.02977763796939979 
0.02714147187369851 
-0.04945269861676405 
-0.03963130492563931 
0.04607855004117597 
0.05651433523161113 
0.04061770435582632 
0.01175759519389158 
-0.07197871058679121 
0.0491322324024541 
0.1698225523239557 
0.02776439340528354 
0.1183254434923068 
-0.06161186096477097 
0.1092712576792559 
0.1274920848240601 
-0.1093579056020787 
0.0006206386677438953 
0.05346657859375319 
0.09137110230436481 
-0.138856812790555 
-0.1510663881904708 
-0.06708536288744832 
-0.01486491040097744 
-0.0297244125457073 
-0.07087002971387552 
-0.1609308232932732 
-0.03060152874099632 
0.07924598999788768 
0.0581718559256626 
-0.1626747806167196 
-0.1960215052292573 
0.04727668272760067 
0.1845369314570442 
-0.1675645355249644 
-0.1791344627775411 
0.005340438277286753 
0.05292310476335151 
-0.01434871328139701 
-0.1246213336705923 
-0.08660798801319473 
0.005501012287123476 
-0.1470733684468623 
0.0811791609464118 
-0.2178170611020599 
-0.1005763088809045 
0.09162486680246333 
0.1851194478079192 
-0.04219189175919152 
-0.1599121495624965 
-0.03147825653116615 
0.1369340024810422 
0.04227239517248074 
-0.1319657036076618 
-0.1060220926405322 
0.02486314323173629 
0.06656641675332864 
-0.1062157906041355 
-0.06703401282196103 
-0.01965101737012065 
0.04595688250913579 
0.1772341900166802 
0.03974586672896399 
-0.1236833130197425 
-0.1176932121044977 
0.1401885946494797 
0.1231423560591984 
-0.04559489820968544 
-0.1357581390429006 
-0.009874086867531839 
0.06689655469128312 
0.03439358794305294 
-0.05878274601007358 
-0.08484559989082438 
0.06324271723026152 
0.05444313703989984 
-0.01643654783138231 
-0.1031544663814042 
0.003434856469548523 
0.08836960232398154 
0.0004036581667982153 
-0.09058603888064233 
-0.1610128257730441 
0.1280023946436143 
0.09014653460132852 
-0.1042887495154108 
-0.1996243134759064 
-0.02831250975022087 
0.05839777544978463 
0.06111443763135537 
-0.06203888212971369 
-0.2630642873773605 
-0.1088703733280721 
-0.04622352975521695 
-0.05679831774576919 
-0.1424209920417472 
-0.0359528313644499 
0.05313427708368586 
0.1052819255454925 
-0.07307406149249795 
-0.008369947160294725 
0.01010726877197561 
0.1463602870858589 
0.07747888675656781 
0.0713985372632063 
0.07100540718633559 
-0.06460097819982287 
0.09859207842421792 
-0.01164498094103788 
-0.02504469284663156 
-0.07791165356549133 
0.001133871645590164 
-0.002217989268949093 
0.004556960864917063 
-0.1456046802746136 
0.002690332825209293 
-0.09996587506109189 
-0.04259358712447732 
0.03738334007641265 
0.01355041372864527 
0.03880130147504785 
0.003885163474932854 
-0.01221097814834375 
-0.0430515447877148 
0.0146321536799469 
-0.04113551953264789 
-0.02910673229529637 
0.02731113256122417 
-0.005171831095026308 
0.03793892160675567 
0.05555065418401429 
0.03700665667223765 
0.01447827142983208 
-0.03946077188369596 
0.1258701173808233 
0.009809372187297827 
0.08363932118086788 
0.01486329078973384 
0.0471670487642788 
-0.0590173505293101 
0.08696259550075244 
-0.01809101718195793 
-0.0194881262850489 
0.003840488699822232 
0.08342712247984628 
0.05012173761768342 
0.01081272492137027 
0.01200684026942745 
-0.04616420312393898 
0.000360141719025969 
-0.02191246773810206 
0.016706088314289 
0.02795509899993506 
-0.04776569445805859 
0.01007700371711609 
-0.01621385111303553 
0.04487851258671241 
-0.02696286576717572 
0.01831041057549518 
-0.01630762639518677 
-0.05603107125274298 
0.01656310430248931 
-0.08266718178984855 
-0.03415112778985034 
-0.1316206152113242 
0.006192157129880495 
0.0751936967469943 
-0.1006062873830937 
0.02245647488184031 
-0.0839921893109546 
-0.01540794498280703 
-0.04156294017641139 
-0.007828268392896126 
0.00141765856913014 
0.06692824206113444 
0.03551095229935441 
0.07084251059344898 
0.02232324933537278 
-0.09629813421206126 
-0.03149122683483467 
-0.07269081944430497 
-0.02765939507742929 
-0.03434338773932571 
-0.04727285283702938 
-0.0116249638897705 
-0.06921176178911487 
-0.01569042940655579 
-0.003723626107930116 
-0.06849285984564801 
-0.006078793112485091 
-0.07089366738749826 
-0.0184200113979375 
0.009788159073994458 
0.01290468380092238 
-0.02446925990448794 
-0.008684961498566651 
-0.01825826160924558 
0.02836228923682114 
-0.04548039760412501 
-0.06778657120729489 
-0.05968962186559697 
-0.04911099883985538 
0.009036978677336051 
-0.06801414829227487 
-0.0337979557774137 
0.00696147190788637 
-0.05335929697743106 
0.0008943629734848245 
0.06161125526652017 
0.01079360824134378 
0.02759330936672197 
-0.05207299382649633 
0.05517159606235786 
-0.02572576300603625 
0.09216918369983419 
-0.0201135774918847 
0.0374747272075827 
0.02980883985859399 
0.01794844012326011 
0.008202154829794112 
-0.04713714576613127 
0.02073413099859536 
0.002979528556933969 
-0.03748139780107333 
-0.09798864686591752 
-0.005486039395122566 
0.009091433878376434 
-0.0399784269841815 
0.06356813089125972 
-0.129699138941588 
-0.02265506328183185 
-0.08526536396076412 
0.02932142754966133 
0.01389123263614996 
0.04016532245556673 
-0.02498397335219172 
-0.06194574893075351 
0.07133717949082775 
-0.008412998245008853 
-0.05439135786734767 
-0.07135299390499433 
0.04067469218506183 
-0.04255509213280572 
-0.07800015472448971 
-0.05389343186196779 
-0.003991808700133924 
0.1311987707439749 
-0.03149234816053179 
-0.03323844665089035 
-0.04443609017122293 
0.1498874661130603 
0.03220681300400683 
-0.02995261042466375 
-0.03317226404807473 
0.02697280364817151 
0.09643933874358945 
-0.08890049479096994 
-0.04386144119737718 
-0.02073391615748323 
-0.106925799987126 
-0.05279423246424046 
0.1061943739998434 
0.0009935509444255104 
-0.03725304934650918 
0.1530759254332723 
-0.008923802730628535 
-0.02748371459993401 
-0.1262684237663573 
0.0639129010647459 
-0.007157638861556377 
0.08372723889558334 
-0.02587551800082689 
0.01149304013407943 
0.00954751285847112 
-0.05270609308520931 
-0.0009786476404987489 
-0.1113707952938404 
-0.063141080501081 
0.04407997027156217 
0.09303126022572807 
-0.07966162770286585 
-0.06148577204931142 
-0.05694288978529988 
-0.0370381434077497 
0.04442156201036378 
-0.1622948030588305 
0.06890050495848152 
-0.08358238951294247 
0.1157294091494428 
-0.1473451876839234 
0.006398887860671843 
-0.02368625479329527 
-0.07129430709133669 
-0.07691184505623536 
-0.2761103424861313 
0.01610593779926789 
0.004449006329132641 
0.07580980959085307 
-0.07633985010945719 
-0.03527110442921826 
-0.05285354070868418 
0.04857807881280543 
0.04275478175838348 
-0.1246326066614752 
0.07260509461227378 
-0.04816956916832649 
0.1157771977921527 
-0.07226255090846104 
0.04312672057664174 
-0.0398057283095512 
0.04574102403593813 
-0.08027669750235233 
-0.01752179697711898 
-0.08632903838929259 
0.008615086933034073 
0.05786512977787477 
-0.02557483728140401 
-0.04011865848653892 
-0.03105325109041033 
0.1715399735494602 
-0.05925369352876901 
-0.02862183430689982 
-0.03887152474450048 
-0.02029558868141898 
0.1095864596513841 
0.0465498738974883 
0.05031695479484941 
-0.1244244643339875 
0.06163098622194939 
-0.0390605115894115 
0.06291370778734331 
-0.1433200942642461 
0.06366559411196557 
0.07246183644509832 
-0.02869556355853937 
-0.1432039108619608 
-0.1504925372188929 
0.08166206121674016 
-0.07414715275079277 
-0.1078883652350659 
-0.106422150898125 
-0.06719806062736706 
-0.006288170907031388 
-0.05118225635613918 
-0.07033437089015997 
-0.2515532845753207 
-0.01615864672108987 
-0.1009370511931853 
0.004518418766324072 
-0.0349700395009415 
0.07395671886312065 
-0.00266693534903875 
-0.02119700928093601 
-0.1231905489360968 
-0.0150910358743098 
-0.003611011982399609 
0.09387143381363354 
0.03525089926813175 
-0.01951029053361096 
0.066793568822236 
0.01773187908868975 
0.114481463631506 
-0.006913650173794669 
-0.05938269405988088 
0.03830553942927589 
-0.09106011475576652 
0.05560411373318379 
0.01451551664202312 
-0.099355961161743 
-0.0310619931559554 
0.05020290099614914 
0.008205073065466065 
-0.005070992715457155 
-0.03018044063601253 
-0.0006879912238347071 
0.0736947601659145 
-0.04151693249765421 
-0.03795994468344979 
-0.02066694444381375 
0.1286037908278823 
0.01842056020562018 
-0.008818676586232359 
-0.02057174101694893 
0.04752325322262951 
0.1147886386034335 
-0.06936291785376827 
0.01127906888778869 
-0.09091364248870974 
0.01346287133029313 
-0.03060472990504266 
0.01164038561638656 
-0.08643775046405355 
0.02012678391013651 
0.01146384238556862 
-0.02768369063876852 
0.006604486131261959 
0.01523071179182755 
-0.007156470289799569 
-0.0008690603518371986 
-0.09211113773290446 
-0.03356864177335749 
0.01210905806475838 
-0.04439207845745568 
0.01843177865659628 
0.0294104081886709 
-0.03177695673716197 
-0.01380578535947 
-0.009748171162372575 
0.02279698957570004 
-0.01470444045913606 
-0.005084580369982927 
0.07566985292066571 
0.003678813676673668 
-0.02587927864861912 
-0.02073831321291761 
-0.02884871831329069 
-0.01140681865633213 
-0.02957954963492567 
0.03430337955528545 
-0.05778760895422014 
0.01969947380422546 
-0.03480124746902617 
-0.08066315701916539 
-0.06446487998343212 
-0.004082499094854675 
-0.01201718944521959 
-0.002857618731558273 
-0.02791711029755125 
0.01774348347805556 
0.01825451753315279 
-0.03419479242866917 
-0.05847047406602422 
0.02786754306749272 
-0.06105853980959851 
0.02106163245775416 
-0.0623186453142927 
0.005900241859554276 
-0.01244421209671833 
-0.02381037899290304 
-0.09229868437855759 
0.01876706569238717 
-0.0403610483816697 
-0.01107945841035265 
-0.02508083190465702 
-0.005642832137264239 
-0.01223266753868642 
0.007400205235620806 
-1.801657168810551e-05 
-0.02645397536992907 
0.04441768479514197 
-0.004235299020891571 
0.008583239421396126 
-0.0003850471627423448 
0.03056980496890082 
0.05385794042098553 
-0.02489988093640047 
0.01455607941445614 
-0.05639101553219078 
-0.006222708151514249 
-0.00916018981667536 
-0.07703855004788324 
-0.008700129532818658 
-0.03123058235802825 
-0.02244152134514991 
-0.004382146076983077 
0.05805969377902463 
-0.04617972896129908 
0.0347988779354704 
0.004344748010586434 
0.01596740162884732 
0.05303443183504223 
0.01507658332326113 
0.006263973072758667 
-0.03652363293664247 
0.06029626352056197 
-0.008018290817707066 
0.03532197370812864 
0.05851586167257294 
0.04751978492482704 
-0.01225092692417491 
0.01174318052257052 
0.09165514160616492 
0.05231500991762557 
0.01339491669056121 
-0.02820176365919335 
0.05702626812501518 
0.08041363897957439 
0.0599765691740486 
-0.002774389298804815 
-0.06396882346276221 
0.03107937152037507 
-0.03946170359142766 
0.08158352942608742 
0.002436127339479881 
-0.1248284196099378 
0.02342630252602555 
0.03170060824815159 
0.08377835515376277 
-0.1112519546852242 
-0.1280488369406248 
0.005702978381862463 
-0.01932594895753892 
-0.02727758663514067 
0.005220698962807517 
0.02711921477827672 
0.001814645957237639 
-0.01211159439430992 
-0.1165475779657153 
0.0003134466478365582 
-0.1149766560823145 
0.1042111497474433 
-0.151099357486728 
-0.2526806254101828 
0.1266928960475524 
0.06827514465593412 
0.06446854998117832 
-0.1749503262705682 
-0.05118638032285248 
0.119700400221897 
-0.002773014118598974 
-0.04041475449148449 
-0.1247161148673174 
0.123188920798177 
0.1590676701780358 
0.03635614574213982 
-0.1627425429181928 
0.1400035603531586 
0.03322621791791651 
0.1801343890858396 
-0.08685673184105934 
-0.2044833383761006 
0.07351421692739205 
-0.1367361266551255 
0.1568906720273786 
-0.1616614080568118 
-0.07790452879555747 
0.1006284058934247 
-0.09967185334852498 
0.150893676701131 
-0.03727993700974608 
0.1720902312594462 
0.003423091600765312 
0.1897694804106494 
-0.08588529515308863 
0.04044555831652925 
-0.06685167789614156 
0.1482698017142834 
-0.02668029405180679 
-0.104764086473592 
-0.06352563629709453 
-0.1681535469281964 
0.1866755079929436 
-0.1369740330801547 
0.05005172339442673 
-0.09348569635138448 
0.01091261542651273 
0.1524521202579731 
-0.09964035216404636 
-0.02298635686431244 
0.02873195835200947 
0.1901431397701318 
-0.02062042573691633 
-0.01288422335408662 
-0.09425364574650656 
0.2051635014373856 
0.03202968516541176 
-0.1496007639524404 
-0.07305714259304617 
-0.1975984573692063 
-0.0006381011398119711 
-0.1186845502291118 
-0.02414739799261745 
-0.1039890440555238 
-0.03512465290088973 
0.1660742189727638 
-0.07240578431759516 
0.0335417568126825 
-0.009730998578676238 
0.2717069796804376 
-0.04694828218615252 
0.01233007864775023 
-0.06791059409831396 
0.1718935152035547 
0.05401466678330542 
0.01117791122639632 
-0.07212214339588574 
-0.2553160245042289 
-0.02322639395640697 
-0.1584731490084043 
0.09104401386515111 
-0.1944060644024096 
-0.05502846709726909 
0.1357174783834121 
0.0395359587474586 
0.1366711430242162 
-0.04511656703430565 
0.2999947937246145 
-0.03017701045595018 
0.1007108379269439 
-0.1903351042185875 
0.05128260559357294 
0.116820393419204 
0.1385023455495932 
-0.06068038089041617 
-0.2235850972588274 
-0.02830027698157235 
-0.01542674125320057 
0.1217364924063795 
-0.2057895589766341 
-0.09981538389260197 
0.167956485406154 
0.1169317078093943 
0.0649391407541781 
-0.1344903560677363 
0.06134312271398747 
0.009915310028372098 
0.09492604581422012 
-0.06800660390260403 
-0.07811209932509156 
0.03549350344632095 
-0.0008254592375621217 
-0.125175174292751 
-0.01844341854973511 
0.06800339502557906 
-0.02447163886563238 
0.03488392976109736 
-0.115683864901661 
-0.04526430072742553 
0.03462530315048568 
0.0005365525957297373 
-0.0312026042062014 
-0.07348797646246574 
0.04808614893973827 
0.02235598285123182 
-0.007965200980800257 
-0.111619092969764 
0.01187924530650589 
0.02761599317159343 
0.1355942935797125 
0.06600021988726741 
0.0167282746232268 
0.02982393361200921 
-0.007450751484170347 
0.03499898943807698 
0.1228526278602963 
0.08121435471596372 
0.05058140211650435 
0.03122292036415597 
0.05133809342675464 
-0.01524931798196196 
-0.02216421278971129 
0.05261849515626947 
-0.05453360414985688 
0.09351540677062756 
-0.005761472229856572 
-0.005532378041101043 
-0.05230507096527739 
0.008471042159143701 
-0.01216875753670389 
-0.002513632170451816 
0.01660893011234435 
0.02240205331075958 
-0.02658908910679584 
-0.01083813870359937 
0.06076782829658415 
-0.02166851531110844 
0.08724369217478752 
0.02843870416037463 
0.01870070228978948 
0.02295620316273316 
-0.03631135807650795 
-0.07028852661952391 
-0.03900160109606111 
0.01599623319015253 
0.02440758827328533 
0.008145402237628389 
-0.06271226416626588 
-0.03090216662837952 
-0.03392129415417928 
0.02429748075995903 
0.04185324607880794 
-0.01983357190226382 
-0.03438743386886392 
-0.05407169812305791 
0.07126850952594016 
-0.03344181098616347 
0.02312233160356742 
-0.01127314590093639 
0.03137481427769243 
0.02824046588424581 
0.04501574697432858 
-0.05272653863517077 
0.0007700775231657205 
-0.05557181341708149 
-0.05770580846861399 
0.0177493953658395 
0.09821126138984422 
-0.0382627450836717 
-0.04280364373785999 
-0.02826656330999592 
0.02103949594674311 
0.07980169469916813 
-0.01864392379984409 
0.08460630576530241 
-0.01762547250198569 
0.06781675973207216 
-0.04690912297267482 
-0.02350633253020323 
-0.01689076332442803 
-0.05018765334434975 
0.07729988894921506 
-0.09958342494825567 
-0.08969176485261006 
-0.03720509570957495 
0.07513844821867149 
-0.06579456412873244 
-0.00577360349557412 
0.02830374437457226 
0.04135226822783227 
0.01779210229439788 
-0.01154088096222433 
-0.09073294312042067 
0.08733026397885123 
0.03437211707406852 
0.02508385592192518 
0.01003485820197608 
0.08746856504843288 
-0.03890044136969178 
0.07741473961693718 
0.08280582775240229 
0.03472497666826237 
-0.0321473790487424 
0.03026997999609706 
0.02425263923405648 
-0.06061230997078419 
-0.02817017554036851 
-0.02833831537940974 
0.1096747774284657 
0.1055270335055985 
0.1676812394693263 
-0.02792853210496437 
-0.02926991620873658 
-0.01566074163473695 
0.05585873179931468 
0.05420922045207407 
-0.1197836004164032 
0.05468350031060398 
0.01530807642138917 
0.0236455812027425 
-0.01123955286156599 
-0.07085571791208199 
0.05133922221406512 
-0.06158131691209001 
-0.0006804990037781979 
-0.01591904135367107 
0.1398440826263624 
0.04729192393240404 
-2.61003516188594e-05 
-0.03298238314899166 
0.01511198142621324 
-0.05506182005662631 
-0.04251405996197743 
0.1839214768243872 
-0.1361496495090508 
-0.129102489408934 
-0.06885576917805283 
-0.07816485354128305 
0.00692873805426539 
-0.09216094896199416 
0.1673737470715127 
0.01177337350714646 
-0.06730712365435788 
0.03186937256061209 
-0.008130808928105714 
0.00561980663631877 
-0.08573903986811193 
-0.01428671187702889 
-0.03970363649587411 
0.1017695221359715 
-0.009203014559320136 
0.02593455794859299 
-0.0310903024124299 
0.05075993878253226 
0.09683102326139179 
-0.258178336181203 
0.002874587596779768 
0.04705485318226287 
0.1399864231603622 
-0.06305899315614856 
0.08361246215542274 
-0.02858593406489407 
0.07360499073914076 
0.02705054568623292 
0.007807324482996927 
-0.0634417604935969 
0.0179480094155106 
0.08631963168828773 
0.0843590107669565 
0.1425959567878536 
-0.1290684625194908 
-0.03479848160674461 
-0.01773900981489756 
-0.2262236022892146 
0.009103605917304457 
0.1234414490066836 
0.1382796496877767 
0.0003979573451015879 
-0.01430277714465339 
-0.0967850997595753 
-0.03328640544409582 
-0.01689540506644063 
-0.03938769904804602 
0.1050236726749573 
0.1075924354213979 
0.06637624164164749 
0.02373356129845441 
0.0559826308274891 
-0.1803171783177468 
-0.08198667626751559 
0.09622181789662607 
-0.1456586694496271 
-0.08076990747791442 
0.03733608498803646 
0.1050384793749555 
0.1608695743861897 
0.1306902367633667 
-0.02430801500450943 
-0.035287303033438 
-0.04640856071167698 
-0.0515564947143998 
-0.04270508061092397 
0.02201825238191615 
0.02376832630847656 
0.0620541640366874 
0.09018452291656005 
-0.130373978646344 
-0.08238780767512431 
0.07537817143706474 
-0.05927790673562432 
0.02278100015113578 
-0.02735997398797983 
0.05783264673988053 
0.101965726898079 
-0.006379083271844422 
0.01050906669093012 
0.04164797410294799 
0.09570718814828059 
0.0401994258040563 
0.06311383637805505 
0.0656937534127711 
0.06821368611470743 
0.03953609305794452 
-0.02122545108420134 
-0.08036500195077882 
-0.07293898493819784 
-0.05709229445331344 
-0.1895524026779075 
-0.1049118010377462 
-0.05311857280099455 
0.02989668671718565 
0.1269665835350107 
-0.03061947067617312 
-0.03791009243301649 
0.03032313942764079 
0.02690781846789171 
-0.09580754309303616 
0.07269908267494694 
0.04326909890545836 
0.01549646783291859 
0.06518395293585928 
-0.05205423336829474 
-0.03760117811016928 
-0.05159273978578412 
0.07833877164480524 
-0.06024036721604088 
-0.0146302396803135 
0.02667026114671687 
0.008231099065866063 
0.01969390776327622 
-0.06266309616925392 
-0.005032003636578162 
0.01800536405072395 
0.1040669942773059 
0.02762355724365846 
0.07401089964057846 
0.09642984723030903 
-0.06129020821724731 
0.07313406733668082 
-0.01987902336414448 
-0.00510441356233624 
0.1208523637946243 
0.03833965967353008 
0.01676745931812202 
-0.07677455920745678 
0.01139531011261298 
-0.02209755961805749 
0.1279660733386457 
0.02508983168599869 
0.06088369654880695 
0.1174055196043355 
0.1637399194126418 
0.01492155504856534 
-0.129725718700065 
0.02630719058085333 
-0.05615750963593225 
0.08906327814480174 
-0.07819073631033673 
-0.01509101345269919 
-0.07831370355654224 
-0.03408851335315259 
0.01951658224677727 
0.04556715269364355 
0.03999351792782983 
-0.08814043184323504 
-0.05690876135223415 
-0.01808113906493735 
0.03112515635014736 
-0.0912152275427284 
0.04229210459364966 
0.001101394483568013 
0.08001423690994311 
0.08628340465641583 
-0.06123336814186606 
0.04472032098565928 
0.05729634699084904 
-0.07137306524571263 
0.02064857168196536 
-0.05237113675237676 
-0.05783388315716011 
-0.06287607603144263 
-0.04149529793688168 
-0.02810409858319824 
-0.009091916920622018 
0.03081588397382254 
0.02477580097053263 
0.04469910336607769 
0.04910556652433239 
0.06349058938274217 
-0.01451041381586452 
-0.01437113926034217 
-0.01455704734083539 
0.07292446542596767 
0.01930537519157118 
0.1279760848630533 
-0.02150691705508924 
0.04538959000445531 
0.01274810717126755 
-0.003661575978943304 
0.03793606101408085 
-0.03866167259980504 
0.02860563307827181 
0.001420685780600365 
0.03764784092495257 
0.0744797024266774 
-0.01842145189834444 
-0.004632911206748138 
0.06442493653655933 
0.03096605204534943 
-0.02743063242521869 
0.04362344301057592 
-0.01328489083413819 
-0.0427221802038411 
-0.00352829451071309 
-0.1316357270389437 
-0.07393235668398798 
0.008813996043410717 
-0.02194258007830438 
-0.0391566983507644 
-0.0001706830589311505 
-0.001994794429742782 
-0.02136746644271955 
0.04586428935952274 
-0.04085757367259696 
-0.0402061298064382 
0.02775249644489266 
0.03050035865729872 
-0.02146433509462931 
0.108867745048987 
-0.05993477346713853 
-0.04780651502676151 
-0.0213907596256842 
-0.02956018506119331 
0.06549259455365994 
-0.07269036179983319 
-0.0336268426172581 
-0.009729743154005805 
0.02316195888499309 
-0.0642158776216282 
-0.01168250328932784 
0.05049869204325461 
0.057816456119532 
0.06462140126973244 
0.007404684056448473 
0.09882525725758896 
-0.03190684482404849 
0.0683508954483657 
0.02248843815761678 
0.008034117454890606 
0.004637556130936009 
0.03347765437492241 
-0.009554684340179162 
0.0587374629080546 
-0.03363564833474846 
0.03174604627788809 
-0.09412582776102453 
0.08446627449630875 
0.01998491286733712 
-0.004430771354148963 
0.05472890943085646 
0.05789115922844186 
0.02902756405023126 
-0.03506114109633635 
0.08067804957226553 
-0.002455490315433051 
0.01719183949401967 
0.009769367584914991 
-0.08479681238926326 
0.04219799470989116 
-0.06108312963233699 
-0.01008153127857241 
-0.1522981355498859 
0.08720121426986518 
-0.1043921993345206 
-0.12584138539484 
-0.03220671994244607 
-0.0531446802987281 
0.03650633418396354 
-0.0040033749683013 
-0.008504038516473576 
-0.1394093493010454 
-0.05751893261981339 
-0.09469472524288593 
-0.05235205717847143 
-0.003610388007521016 
0.08762782556685397 
0.06129321819025915 
-0.07732338351592086 
-0.1409633630737138 
-0.08641507163907436 
0.07511878716033796 
0.05937714349523612 
0.005623206019006038 
-0.04140503753396747 
0.1283906541263795 
0.1113318132252767 
-0.08089933147610533 
-0.04892011385250092 
-0.0772902472803844 
0.06466280074350575 
0.06374938499726084 
-0.01216731437028787 
-0.004460506361875127 
-0.04048225121159921 
0.03588638331233039 
-0.00428787243143081 
0.007812004111718489 
-0.05951408183004184 
0.01748889554879771 
0.03412267493533405 
-0.002554540949833377 
0.07315444274085198 
-0.05160372745525626 
0.03008117231418821 
-6.433419474314701e-06 
0.127050837804983 
0.01525044944520874 
0.04204483586553295 
-0.01324123534404223 
0.0308723193074626 
-0.03755079720798202 
0.0007511984000920412 
0.01336460512629577 
-0.03707524758147463 
0.001463954473455368 
0.005896965832834073 
0.02719782445444983 
-0.1496152184397809 
-0.03674240093527215 
0.04390468635601743 
-0.02199925382504129 
0.03740024207132982 
-0.006881664952087616 
0.09247267030114466 
-0.006906809063527442 
0.03225697597505911 
0.03983295322058685 
0.07626610480104089 
-0.08127535276115919 
-0.008658359483886449 
0.1294721257474846 
0.0109921285892473 
-0.006059842171424959 
0.03808975941691698 
0.06050430550573152 
-0.01969810683591164 
-0.06527759550710113 
-0.03717405884730941 
0.0310562606216674 
0.1355739518626394 
0.03145072147589898 
-0.02296723580181226 
0.01762786064231906 
0.08143769076072847 
0.0395787944704847 
-0.1149216910737272 
-0.02870750911008367 
-0.03273441059024391 
0.03444174154588533 
-0.1081775545041707 
0.0798916359030985 
-0.1104609221071951 
-0.01515085336626809 
-0.004327706611992921 
-0.03535672335443464 
-0.003733054343560562 
0.0237671654682537 
-0.02042166636300019 
-0.2188018121476021 
-0.007382532789470656 
-0.03749108405678819 
-0.01939436535513799 
-0.04307182555246466 
-0.1527636784526771 
0.04680348910559955 
-0.1066113321749495 
0.05026493610166946 
0.07327963420000058 
-0.03422731273780587 
-0.01678520091893814 
-0.01731609191418954 
-0.02619443879014253 
0.003710091951308419 
0.1292418008657559 
0.005964330020283871 
0.02505489019237873 
0.05703115331933795 
0.07242902848341515 
-0.004565433252267625 
0.09560766726740982 
0.001430629185587398 
-0.06474559939832435 
-0.06503722990520319 
0.0473926292179167 
0.002849197149579092 
0.01236575737033955 
-0.07674292195528647 
-0.04386809437428869 
-0.01074623044707956 
0.003445720395483715 
-0.09404076642188254 
0.01002889704729055 
0.1020696393993412 
0.0215474410749466 
0.03427736946688568 
-0.01527506219521417 
0.13563261511618 
-0.01503928830613297 
0.03593116364237031 
-0.008915269328777939 
0.0433698410522088 
-0.1608147844431267 
-0.06559889912024787 
0.05957014051117532 
-0.004317482775362713 
0.04087684562403539 
-0.01893340578816611 
-0.00855007190799016 
0.06483918869049184 
0.00466320484384897 
-0.04677212352460735 
-0.05020130093394649 
0.04817863994334098 
-0.07774519843414837 
0.11533117340041 
-0.02439423827439596 
0.02613433856733279 
0.04523366547759957 
-0.04006456430213414 
0.05528367926711424 
-0.02446137941259787 
0.124911377036403 
0.08246656357342631 
0.007650000908939073 
-0.02532343895844283 
0.06923263691525361 
0.04363900025240144 
-0.06922654659439022 
0.1036387804669897 
-0.01744701843126821 
0.07996149330692202 
0.02096126066274884 
-0.03625701773227018 
-0.007257198539054718 
-0.01632314172843634 
0.1886386531500844 
-0.03024876878552005 
0.01476358638133225 
-0.004606778172361904 
0.04415414246656355 
-0.001583381469733013 
-0.004107246783630892 
0.04864250001933814 
-0.0247853399661663 
-0.02708915713404475 
0.05488868434472529 
0.05778640659461313 
-0.09747333213939391 
0.01440078664264905 
0.07246224682912496 
0.1128347331320356 
-0.06988729377346461 
0.01822000143706983 
0.0006025599585449456 
0.02123230390246524 
0.07740132123600316 
-0.04789141297698413 
0.04306186916079868 
-0.01297978777518167 
-0.02338941687866998 
-0.07174068952916524 
0.03356510193551297 
-0.05291544763591721 
-0.02244904074358394 
0.0001063471629752686 
0.003923068470624786 
0.03191931022668514 
0.09044426076990106 
0.02367190167916784 
-0.02472875886518152 
0.1280252221843472 
0.04170859354528399 
-0.01401939576459276 
-0.005977677859063823 
0.03713302725022598 
-0.03223909186364674 
-0.01739166728886642 
0.06639295166595992 
-0.02314292522775004 
-0.03358586967102157 
0.007915576772237773 
0.01161922185384077 
0.01825222648173346 
0.117624460275001 
0.08341737878693892 
0.03698634584527789 
0.03776136874504332 
-0.0196650420453284 
-0.05093044912222069 
0.03628571896294861 
-0.05459114186777014 
-0.04067089224111184 
-0.04704921372544084 
-0.001433992421121229 
-0.06216939194751834 
-0.08173291062617921 
0.02635169666497135 
0.01365516639534725 
0.03197570903294291 
-0.04606330944896159 
0.07674434649196489 
0.04521074453998088 
0.04042215224172187 
0.01068546050987927 
0.01147900434769979 
0.09972520992562992 
0.02262819988266368 
-0.001144195563662437 
-0.04473175583117856 
-0.04909706140178278 
-0.04545755689274163 
0.0003538848546331901 
-0.1401757310198823 
-0.1571674346731012 
0.04690337732470507 
-0.06868203641803264 
-0.005043842289382283 
-0.01224956967934768 
0.06987913512545524 
0.05031312987015367 
0.01633781166160854 
-0.02176552728139176 
-0.08919782534062386 
0.0647222045566453 
-0.05810549747388329 
0.03326479587625514 
-0.09962172846085089 
0.08969290734422887 
0.02526016604947243 
-0.03907522382117282 
-0.03405076226580062 
-0.01269128747799702 
0.06640097583225062 
0.01370003934915044 
-0.02522658919966392 
0.02754815320288337 
0.08747845071091943 
0.09888707821634264 
0.01041396690809716 
0.001068927357701965 
-0.004571190790313004 
0.141854009202741 
-0.005736332489977399 
0.06866236930345292 
0.06736860160292936 
-0.08360825048165661 
-0.05255441746933569 
0.007116688222769792 
0.1895606848702056 
0.04191844703246945 
-0.01842040066726674 
0.003435090334769365 
0.06050199941201412 
0.1403497151576375 
-0.03628382249414266 
-0.05910428710969257 
0.001848812845527393 
0.09412319858848595 
-0.02031413978800777 
-0.03792979949199005 
-0.1348922533508434 
0.08762738382021958 
0.07248346277323403 
-0.09700692872682369 
-0.04253008446744082 
-0.01261310883321302 
0.1072701462278158 
-0.05538684007690624 
-0.01395428808609634 
0.005897808194988651 
0.1168192938193654 
0.04526841935710808 
-0.005353125459244297 
-0.04933853356790172 
0.02937446179683541 
0.1008523057698022 
0.0296012508717913 
-0.03357869572962079 
-0.05810085458568585 
0.01616036608726024 
0.01966370572669355 
-0.04609670262747505 
0.06684000721185848 
0.02727961435092683 
-0.09341927454189677 
-0.05944868507402613 
0.03882866949275644 
0.07098969034191135 
-0.05513699142734224 
-0.01788475076365452 
0.115850950320518 
0.1440653008229576 
-0.008751855290278882 
0.008195271933587121 
0.06955749887835498 
0.01292317975169978 
0.0808307851157786 
-0.07251001329865438 
0.02564497657668607 
-0.02343286695830102 
0.0149303330196604 
-0.119973998643577 
0.01143306875287478 
-0.0494155698812756 
-0.002639160001307195 
-0.001180689656119802 
-0.1281941914342726 
0.04107084774792769 
0.02692234414221909 
0.06735049907811355 
-0.08449256575918447 
0.02568067083955344 
-0.1371279210053563 
-0.006474830405469593 
0.08950136230906744 
-0.1115972944874924 
0.05198735124899917 
-0.1221821505046011 
-0.00934500415611926 
-0.03378489309420304 
0.04937775748407718 
-0.02057156482723158 
-0.04693712598224956 
-0.01056335616556139 
-0.08656404966449155 
-0.01581299818763678 
-0.04706270468402088 
0.05285005643768444 
0.007192771186640151 
-0.02842679629131934 
-0.02811346405197908 
0.01073456928647591 
-0.01798909570210825 
-0.009979421661031322 
-0.03982192264172377 
0.02091332918300618 
-0.02461420739643719 
-0.07567328587283449 
-0.0333497354090602 
-0.0222293402392099 
-0.07061308275333265 
0.0112635676468116 
0.02781002608474261 
-0.02857414289409358 
0.05558837240025534 
0.002017734650791824 
-0.02577356030706339 
-0.007954762888256082 
0.01029877159178755 
-0.02332971913272886 
0.05223900172367101 
0.003696457919998447 
-0.06668360966106959 
-0.03114582208475552 
0.008633920847574379 
0.03490628735983783 
0.01032418403583522 
0.002349052825953411 
-0.01638662359374008 
-0.06200549177172265 
-0.02427483257911955 
-0.004103232787555271 
0.01827366401637795 
-0.02323877864529332 
-0.01249915032675282 
0.0107239421214943 
0.120559721545298 
0.01902306568794219 
-0.04432978689602843 
0.09826426462701909 
-0.09054846681478701 
0.1028219860559774 
-0.03595236009144401 
0.01919864523826538 
8.336604021502489e-05 
-0.02276185460971204 
0.04509781765555704 
-0.04078583594359765 
0.06309641442589811 
-0.03246681991582174 
0.01121127479818785 
-0.0360820929950064 
0.07021956748675302 
0.02235579821413972 
-0.03151411889145994 
0.03877750782025118 
0.03923384283536539 
0.07452498748607614 
0.09264527142441596 
-0.03364820531964689 
0.003178246465462142 
-0.06087697407210246 
-0.07667623433439853 
-0.02709735342050048 
-0.01391761441939731 
0.04393218401323991 
0.01184178929426447 
0.09842035685302444 
0.05685655530473514 
0.04820805723187891 
0.01350006381279593 
0.002704592119899171 
0.01117354187827449 
0.02916516358394832 
-0.05269082867591417 
-0.02191312211763274 
0.04080124198018284 
-0.04802909944163903 
0.04221911479042979 
-0.07368754505859934 
0.01372674754124096 
-0.0775884663618885 
-0.03186754996608058 
0.02412111184053592 
-0.03623623415026113 
0.06968559213663857 
-0.0046461834658663 
0.02535999326707738 
0.02103427178066482 
0.03094772140883083 
-0.0377081196503425 
0.01452427059414059 
0.004443995129533404 
0.04491959516117151 
-0.03485967063207127 
-0.04860093154285869 
0.07922880295400135 
-0.02297537167677886 
-0.04340536803959134 
-0.01965358878627158 
0.01682838161836513 
0.02460409257983182 
-0.03218271513942449 
0.0189710377785042 
0.03795273867426367 
0.009812419788470625 
0.002057480533228644 
0.01999460032434751 
0.04587820504310233 
0.02601969298499406 
-0.03960725738311214 
-0.0725184551911956 
-0.08389694735504208 
-0.0007486950107233949 
-0.03755718969064092 
-0.04820240800096005 
-0.004493816557548763 
-0.05321750302577512 
-0.02121304797454125 
0.03152823233656853 
-0.06380498021767279 
0.0005060609723905665 
0.05346313925043545 
-0.02233312168486666 
-0.003096418464822111 
-0.07980974667421382 
-0.07805982710127071 
-0.03510633801355041 
0.02100804767899188 
-0.06668698921461097 
-0.1755843459922675 
-0.1016848266870733 
-0.02791005599427047 
-0.03260933740609393 
-0.0464995000763727 
-0.1497804030349358 
-0.1191837819758292 
-0.06583271639852128 
-0.009997389055658236 
-0.1268582332502681 
0.03499352728757736 
0.03048439936676904 
0.0294262857253945 
-0.03895541196001173 
0.1066086090261282 
0.006320043663888145 
-0.1110359963828082 
-0.01033507363774003 
-0.0113198390329014 
-0.03716696211702443 
0.06182622026739178 
-0.04815339587248275 
0.01478060671854388 
0.01868308245556138 
0.09331794079790791 
0.0190820336778445 
0.006542249771743302 
0.03541115967370431 
0.1274097361039333 
0.06196634270671701 
0.06432514603337192 
0.05623439323277851 
-0.0108313528626759 
0.07955970655272011 
0.02797589441850596 
-0.007594103714569419 
0.03869347378828652 
-0.1210684897150646 
-0.05502908758832813 
-0.05786213685099676 
0.09163012869823182 
-0.04647586839286919 
-0.04925962137311002 
-0.03240974542870836 
0.06822373512626212 
0.07828807431312669 
0.009198554849796326 
-0.04333773121445556 
0.0116931896509762 
0.1796278896090791 
-0.01352676432245798 
-0.07340022248804673 
-0.07602871362425905 
0.05313528743126596 
0.04969893535606682 
-0.1128342457742147 
-0.07151281379065627 
-0.04608309340693332 
0.1597849087269799 
-0.002059460283858833 
-0.02946806662166796 
-0.02361175189521979 
0.09262941781777462 
0.1173777400633699 
-0.05781650963488554 
-0.02147507110323386 
0.04192925548131784 
0.08601573534052694 
-0.07216570090895674 
-0.06893142549144431 
-0.06396744746008495 
0.1055236847672629 
0.04368655354440117 
0.009897020272205712 
0.08159668014171889 
-0.04482776351646449 
0.03135117886538871 
0.06155620532804874 
0.05904127435548974 
0.07504049254749355 
-0.0250524018100814 
0.03305962955848524 
0.03200327471215111 
0.1190769820696254 
0.04352631031051929 
-0.06453581867428397 
0.05944474443036192 
0.08276588905806968 
0.03524962779812372 
0.06993029030312083 
-0.03509919512938979 
0.01570037346994433 
-0.02609744423808206 
-0.09509194368235564 
0.0322028454243681 
-0.07633222441411243 
-0.0006680564237340777 
0.04255362296779374 
-0.1736410225488249 
0.01832753692978392 
-0.009567517290118496 
0.03628963746412619 
-0.04486467115382355 
-0.03623683559465162 
-0.03974096074688234 
-0.05679725547218811 
0.1075367605490773 
-0.04413686637449743 
0.02908161618792135 
-0.003375866974743674 
-0.05818359906748203 
-0.04881890667486861 
-0.03863345667503611 
0.02133329283663978 
-0.04433301450123141 
-0.03114022926610568 
-0.08698872188249122 
0.02812211480095352 
-0.0210902686444957 
-0.004886038476668378 
0.05285492859433146 
-0.05820073506357719 
-0.003491732286174214 
-0.06806916310140655 
0.009704174932905733 
-0.02390054032239095 
-0.0216927396409119 
0.01660729877399103 
0.002810685656728022 
0.00547912512005997 
-0.03466274855970769 
-0.02896797310578267 
0.07310367370664814 
-0.008948801784917736 
0.02899854032922717 
0.02248004079589824 
0.08254981457398571 
-0.004068703348336642 
-0.01416408446249068 
0.04821125410670331 
-0.04161519167069298 
0.004097615527098505 
0.1118062093907721 
-0.02364925734969594 
-0.01119241370027156 
-0.05095524608038818 
0.02934330654841685 
-0.06796479103220621 
0.03231555993894489 
-0.08561673172683429 
-0.023733337491913 
-0.110223138417536 
0.007424152216065457 
-0.05305155275434831 
0.08676672792742775 
0.05180099247757249 
-0.05301084107969702 
0.01563479731171582 
-0.03830632508579485 
-0.06152250633380149 
0.01067606255307893 
-0.01078515402816837 
-0.09773433728612654 
0.01927962347071599 
-0.06347673849452468 
-0.0002752967741487831 
0.02717239072329366 
0.0068756269968702 
0.03580728362185265 
0.01254521345886652 
-0.03016200870662794 
-0.03052809771659958 
0.04296465830644138 
0.02016621648879173 
0.05322083512958459 
-0.001341911991194632 
-0.02428488419838446 
-0.08614352977570576 
0.0179943389067616 
-0.02482496213476139 
0.0535518658522739 
-0.04531531934431706 
-0.05759153300318839 
-0.01308180254899692 
0.002500004048697215 
-0.03742969814081314 
-0.0056410879552921 
-0.05895720563874253 
-0.0138025162671925 
-0.003913626875386427 
0.0757235734299876 
0.009035094861904767 
0.01269230792818957 
0.01644276417344987 
0.06076293289938268 
-0.03439234202207964 
-0.01741406899403475 
-0.02042924188532676 
0.01802794073516921 
-0.0736318804071001 
0.01250043890857487 
0.00255746936490931 
-0.03130585348399226 
0.01109023727115822 
0.07962989136808457 
-0.05043013789637398 
0.01899029396815755 
0.06506091694101264 
-0.009603174396124556 
0.02011114450015589 
-0.02145741467833292 
0.1255693701767668 
-0.03876371307928896 
0.002929127572272923 
0.05765265426230717 
0.003589791001797584 
-0.02963895109926802 
-0.0002754801920074706 
0.01598114902650475 
-0.006817175666930454 
-0.03023773438005609 
0.04247239073288057 
-0.02913327546416101 
-0.01937905826610416 
-0.0179511733022988 
0.00263280148978077 
0.0546822241840583 
0.0402576619949489 
0.02600743889528808 
0.01479371664679665 
0.09134807984492949 
-0.003483486296792242 
0.05648826486727236 
0.03876729708003804 
-0.01166383895874372 
-0.02114548186286253 
-0.09943722254678232 
-0.05562038116733631 
-0.03119099576254901 
-0.04929812034591682 
-0.1276417950680654 
-0.0585088905638888 
-0.01449627167728864 
-0.0007609810666434061 
0.03478273140073386 
-0.05328353914577549 
-0.007007626280557754 
0.06315449243714552 
0.002835262068011832 
-0.08150551893236145 
-0.07884954652235786 
-0.008676738302064495 
-0.09252107715475708 
0.01451030188419316 
-0.03459121932938067 
-0.05611181799804445 
-0.03084382200060965 
-0.04047320111929673 
0.01294845550229855 
-0.0932391412811855 
0.01004490227778825 
0.01753044743162969 
0.07082471821639415 
0.01418282053201834 
0.02978489695158184 
0.02517568350627908 
0.03941037161021422 
0.04027683184082596 
-0.0719967352688594 
-0.002892330055231859 
0.004893276542440385 
0.08219494743498833 
0.06673552874257342 
0.0563673680189098 
-0.04497858604608634 
-0.01432565598607757 
0.2024348390491507 
0.06130876904528142 
-0.06868153204771232 
-0.06917407658686146 
0.0996856416625083 
0.03556348957640646 
0.08977192943961658 
-0.1006013419884434 
-0.0565762601861934 
0.04949086602862895 
0.1009717768518375 
0.02101404133296549 
0.1143559128074392 
0.01112851493291642 
-0.09008378516985069 
0.005502403403448364 
0.0392998121724482 
-0.05068756926874246 
0.05138576185440814 
-0.0005595701347134709 
0.01701353425516776 
-0.0360644989913799 
0.03475206313554879 
0.09812663854208374 
0.1307958210268368 
0.02483510449906827 
-0.05762498975173513 
0.02921173858877795 
-0.1137720208938912 
0.03863241204835947 
0.07723207859622315 
-0.06969385266684314 
-0.09515895663723431 
-0.002857990805786214 
0.0561478432364366 
-0.0732326049342979 
0.07109556466055918 
-0.03354812289320752 
0.03737513986732179 
0.08377843252072407 
0.04174391617039051 
0.03708292863835532 
-0.007573432124671004 
-0.0201341128494002 
-0.08177447357516336 
0.04387664161575034 
-0.03696678507270482 
-0.05317203896073247 
0.01999014584732023 
0.09020152368644174 
0.09399849169458815 
0.09248316952977145 
-0.06134468425454911 
-0.03385395073195156 
0.1603267957704531 
0.1313634134894455 
-0.06475484872715521 
0.07577142556258902 
0.08803942253711024 
0.1276634171568725 
0.07612461097777158 
-0.02142399816545654 
0.06488973144608896 
0.09473017576179646 
0.07278061422018753 
-0.07217553499417942 
-0.03053316684963315 
0.00275493533292457 
0.01510687078116236 
-0.004350897140312225 
-0.0876512345390606 
-0.07271385694105366 
-0.09438592178311166 
0.06801099777242915 
-0.04812616117099892 
-0.01550336538963266 
0.046672138876715 
0.02744422419729017 
0.0105221748408532 
0.05637177791941661 
-0.1037181340810967 
-0.0288773823850869 
0.07631637578592722 
-0.03276527227902795 
-0.03743058775248974 
-0.07532725708870494 
-0.02986518949455316 
-0.00959148344961477 
-0.06168658862795017 
-0.03405709521164978 
-0.08419597206868018 
-0.06776218335040213 
0.002897908887848979 
0.03263166942868727 
-0.0298856980137117 
0.009369399499638316 
0.03487730551877714 
-0.04820822079369221 
0.04754994561662571 
-0.1641493886421472 
-0.08650791251169382 
0.1130294714008888 
0.01796866005496634 
0.04010902107840373 
-0.004628670741535373 
0.01466104282988955 
-0.03933393225415314 
0.05207470395261312 
0.02862063098896415 
0.04390309747429381 
0.04952310806356004 
0.05343016734987393 
0.06012886654523102 
0.07280392006693551 
0.02020668365706213 
0.02538739339476396 
-0.002723923620659801 
0.07414601296892119 
0.08842611656361105 
0.043138597119504 
-0.06960912164740424 
-0.06554795959336757 
-0.02837686953172018 
0.006266068499030333 
0.09400980677523689 
0.00341043532035554 
0.02690301254805783 
-0.03240183489458383 
-0.001756832277958661 
0.05165185301600608 
-0.01107840055518368 
0.03465807811041241 
0.04884725262599305 
-0.0129805870682876 
-0.01185028578419797 
0.08718683592123953 
-0.06502232811222666 
-0.01377564060028849 
-0.05245373343285974 
0.0277740289101786 
-0.1005463788862683 
-0.003571076082078658 
0.03357646991850832 
-0.02468473555130393 
0.04746552933338656 
0.008207820273794388 
0.03791976429385999 
0.03348717678805253 
-0.002499834795291229 
-0.03566452636447988 
0.004405515154172276 
0.007466256489620205 
-0.02913163187033923 
-0.02767039960777237 
0.0610110916663676 
0.1252006507630656 
0.03260173391037229 
0.05841003611147763 
-0.01217661636529522 
0.08028547308699401 
0.03049970334410325 
-0.03151738390770031 
0.03519201622240692 
0.01355151011486205 
-0.07618855278454749 
-0.001401873139323927 
0.05678597547617592 
0.03941589333375712 
0.06760476540797648 
0.0006121623594590561 
0.02247566327869306 
0.06857758217619765 
0.02042432163591093 
-0.005702336662732327 
-0.03435784457463385 
-0.01303327550686396 
-0.01519704642081618 
-0.04246615531979765 
0.07531321041113838 
-0.03618718722840682 
-0.001495288102271469 
-0.04317581336086101 
-0.0272095735300724 
0.0359391124213529 
-0.03028066243832071 
0.02900655978864202 
-0.0471169059066251 
0.007307709691074755 
-0.02316204248285294 
-0.0004743978449053028 
-0.01657412991753454 
0.003083347731167474 
0.01816039269072212 
0.05084296537411293 
0.04448011984803017 
-0.01454486205069519 
-0.01800462503753805 
0.01038429697118944 
-0.005670916348014889 
0.02059929869206157 
0.06146976135047402 
0.03663554824242044 
0.04384586593101637 
0.0627972540221514 
0.007549498849000049 
0.05219826659827675 
0.03127653976663036 
0.07114366920295319 
-0.009927259681621477 
0.04155583112170832 
-0.03502515472305473 
-0.08780409277682541 
0.01563786886508028 
0.02286964432481543 
0.02972704515716168 
-0.07016700552660871 
-0.03789786089150707 
0.03676416191694993 
-0.007393182841827094 
0.03785940688092371 
-0.01026904128069194 
0.0132316609065103 
0.01375999790089017 
0.04924737593586632 
-0.02713020777228943 
0.04771384704027847 
0.02560786216799412 
0.1067590836100598 
0.005098248668114787 
0.01689879348568004 
0.01692008656783173 
0.02514036553196131 
-0.01454649572199742 
-0.005923744905356924 
-5.981666357195085e-05 
0.09766511434164291 
-0.002014790247148745 
-0.04733012269146846 
0.05994569186366286 
0.1143824609705976 
0.1128718672646594 
0.01300825334345311 
0.04438626523863128 
0.07233803862032963 
-0.008843088984155279 
-0.007453815005676863 
-0.07490560162201039 
0.08787928435301452 
-0.02099326070585816 
0.02407978604028864 
0.001047879053406928 
0.0177650423075673 
0.09305568936695711 
0.05220220711251419 
0.004749503395124738 
-0.1394652440369808 
0.0925238185561119 
0.1325731623436842 
0.01210862769228291 
-0.06232307949077477 
-0.127197023166247 
0.1339596207123866 
0.1035422546626411 
0.04104938458685391 
0.07564688869956089 
-0.08110125955302766 
-0.06268919285607732 
0.03147804380239144 
0.02330365671722349 
-0.05936427711391016 
0.03570779871023935 
-0.02175579264322639 
-0.08261195357647629 
-0.03106523523449651 
-0.03151283361523293 
0.1050837995427397 
-0.06716287976537721 
-0.06794389169435018 
-0.1398593524115025 
0.03563319962864933 
-0.08085275284494035 
-0.1504459952134199 
0.1222814007495296 
-0.07567500900258911 
-0.09196306436341482 
0.06186960414745517 
-0.07916919913518028 
0.06540378010078852 
0.09720023961118467 
-0.001413461075648405 
-0.03623452567923404 
-0.07969268347570717 
0.08284970818232264 
0.07002164821519885 
-0.06505420741563858 
0.003419102414116746 
-0.1231666498557727 
0.007298539140438956 
-0.01164584407615289 
-0.003000489000210597 
0.1009025851315861 
0.0484475614236106 
0.01712874524718684 
0.02957219439826749 
-0.07232651583700728 
-0.07369258892023381 
0.04042351382427152 
0.04210433382791916 
-0.1112674777591706 
1.045839203340273e-05 
0.09579931733844479 
0.1514650087997415 
-0.1472418530504421 
-0.002359320576062288 
-0.006385885502527169 
0.1219400768873031 
0.05311258223684669 
-0.07228774486698414 
0.03656050132078205 
0.1081095811758405 
-0.035409205407209 
0.0005956863325792771 
-0.0154343578258496 
0.02251339017632074 
0.02048358389833355 
0.03652948916606719 
-0.07982257587369097 
0.01238149892030757 
0.1452698894452044 
0.0817431325393999 
-0.02663244232613109 
-0.05330668263557554 
-0.04332518860275756 
0.01416630849972807 
0.09227016710419894 
-0.05063439056752078 
-0.0005867991259506102 
0.01143095231710826 
-0.04904167977752757 
-0.08747065090560191 
0.05103364460113349 
0.0755404479843115 
0.05614832689631136 
0.002736571225683419 
0.02239071115975761 
0.01563574094217412 
-0.01016738614815826 
-0.02479131101463676 
-0.08379552575062854 
0.0991137986527776 
0.1063274266174651 
-0.03178592990709433 
-0.0008485604391999449 
0.04968777575809809 
0.02920773985142817 
0.01546124099564693 
0.04005366083237619 
-0.01116719608684317 
0.0666465584669674 
0.04314801804939365 
-0.05540643478979926 
-0.003369931976510696 
0.0247104513613088 
-0.01811576220644619 
-0.001689158359562851 
0.07784613171464633 
-0.0128218646361394 
-0.001296458098217983 
0.01350167923090718 
-0.03941364109821482 
0.04544462850275076 
0.06768515220822857 
0.003818200751087149 
-0.03364497167342782 
-0.001414134783026535 
-0.02009801155571432 
0.01371019279021575 
-0.04204931401570753 
-0.02890862683220737 
-0.01160960602739598 
-0.04483971594417339 
-0.05270924496113423 
0.01270814321528291 
0.02626844725224283 
0.01659988248769041 
-0.04078901614236593 
-0.03049153423215934 
-0.06312990122833678 
-0.002697682189001998 
0.02164204575873199 
-0.03256219712083357 
0.06262855120027275 
0.002409706208221253 
-0.005284445358028252 
0.04385040183111924 
-0.002799613619416214 
-0.04267690889860618 
-0.03007374792767287 
0.05318539930386548 
0.0575166534387273 
0.0757378385045509 
-0.007667734797381731 
0.1032683744298504 
-0.003450880638259674 
-0.02148184491179735 
0.01550019172967589 
0.05922765892532786 
-0.0004749980868435906 
0.03898366976789209 
0.01251671382634124 
-0.08684016594636151 
0.0858142145370485 
-0.04284347245782649 
-0.1091444931562058 
0.04973678000391791 
0.007565186517091153 
0.00131248856153904 
0.004015249741160249 
-0.03438093245187149 
0.01677866717137625 
0.01584295585291846 
0.06262322580175338 
0.06925187130728427 
-0.02573715160528814 
0.01793514329493488 
0.008271118012163183 
0.05109342312230912 
-0.04925403194570682 
-0.04324486034258794 
-0.03514262640970744 
0.05855770019558835 
-0.03922238583676604 
0.01420947744527088 
-0.1048857165438931 
0.01001993330266374 
0.01460227735587232 
0.001192467913725317 
0.08948552855442107 
-0.07844815076425622 
0.01948428547673238 
0.01117290521259478 
-0.06749782372590069 
0.01662319604072109 
-0.002189803774853203 
0.008717338800981668 
0.02736422100106258 
-0.01142417295335499 
-0.01639423410012961 
0.05946053274764443 
-0.03259380639409735 
0.03401680346699617 
0.002517990780906928 
-0.01005927627464353 
0.05379824314458882 
0.1307316886784195 
0.07352294103085784 
-0.02449908919597823 
0.06144479552663807 
0.05399367476813199 
-0.05949684518703707 
0.04917326590540892 
0.1092999876046156 
-0.0198100088291048 
-0.07354447423446407 
-0.107827812600313 
-0.09050287964039778 
0.007962247782110002 
-0.0187651066912054 
-0.01668970463815739 
-0.08520358119602375 
0.09290851270054656 
-0.05026002959104822 
-0.002021798560745171 
-0.1009535593028792 
-0.03520901528645789 
0.07873261301236587 
-0.08107028254345536 
-0.04605927511954866 
0.07785968329076504 
0.07888326416206518 
-0.04274369227520078 
0.007208053177925011 
0.04502444941070142 
0.08970117643881816 
0.00745932043405112 
0.02993152511260661 
0.01402429787239078 
-0.0937316528726347 
0.009375701680992289 
0.02513866439186045 
0.02592506475029609 
0.02511127739532617 
0.05490870008880274 
0.02028923294226459 
0.03259062794960984 
0.06794871855466474 
0.02782880581990345 
-0.0454327261054425 
-0.01458029490005163 
-0.01044566141587522 
0.03711235177375893 
0.03733958788412288 
0.02553434667589459 
-0.03783108125107693 
0.1001169217560452 
-0.002474161853487194 
0.0850480692732065 
-0.07077690053014321 
0.02640537364295327 
0.08406777574807675 
0.05810475964610552 
-0.02993440108381717 
0.03373265757510831 
0.05766242212415829 
0.03993047317886822 
0.05149117476445139 
0.06908046512750841 
-0.06085658513676471 
0.005101387004681059 
-0.04752383611788143 
0.01872952313119519 
-0.1623893270120252 
0.02453174546344163 
-0.001959400454974396 
-0.07700222386218154 
-0.03456855661509545 
0.007570273030641383 
0.09143851653189011 
0.03843572720442786 
-0.02573168546869858 
-0.005890846937143214 
-0.0486935612336416 
0.0006616646608812514 
-0.07297196359847788 
0.0184830987333929 
-5.095855962447502e-06 
0.0107473529963771 
-0.0420702789251425 
-0.04246310784541221 
-0.06886975248208284 
-0.03035301182040955 
-0.02630561694789055 
-0.08862091482170414 
0.01483417824321237 
0.02644616036011989 
0.1197991192153469 
-0.03859987718163321 
-0.1365911613822128 
-0.03198434884017024 
-0.01869613866439711 
0.05784617536640844 
-0.00833766012885943 
0.06765902760843605 
0.01911476171918515 
0.07948798422369163 
-0.07296643215569518 
0.1015681326833965 
-0.002740874422670189 
0.02855941608111179 
0.06613571238963173 
-0.05282812984829259 
0.02698923717178482 
0.0338607625907351 
0.1010712048770499 
-0.08753125825562215 
0.04539566404737135 
-0.09227111808336685 
0.01799127029530587 
0.09304801934068704 
-0.1243094415125617 
0.05196499023555905 
0.07101430946312666 
0.06944727270522279 
-0.0124820786539645 
0.003576223545221977 
0.02475299226038686 
-0.03381171838111847 
0.0579831859871681 
0.03522773643032429 
0.0928070324794673 
0.115203683613751 
0.03679164550544532 
-0.05535487269958227 
-0.01851120139567244 
-0.00876721857821045 
-0.002106862550300239 
0.08574499306387319 
0.04414572701635316 
0.05148161787638057 
-0.09975838725670107 
-0.03736416207761221 
-0.03932521933691655 
0.1138762222004482 
-0.006656304580088498 
-0.03350967973752023 
-0.02128502649295835 
0.0004012204538317045 
-0.03185225831821339 
-0.07098953365121542 
-0.1194561863131697 
-0.06459035471277609 
0.01497596007123614 
0.05965131367666457 
-0.02397008178245741 
-0.02783225345716576 
0.01689225466990494 
0.03720484193089615 
0.007196393491315661 
0.01591716544917184 
-0.06648874944228919 
0.002249867474808373 
0.02610048413953191 
0.03022712674562339 
0.005254391138405611 
-0.005394025871218914 
0.01815573172650465 
0.1064547186580645 
0.06855834402238033 
0.0834293925068709 
0.07601253878952648 
0.1160300425000601 
0.01925291907783117 
0.006020552796662274 
-0.01782558624858467 
0.03050771152529933 
0.01327433489437082 
-0.08113756120903638 
-0.0259428401836402 
0.03114989748112582 
-0.01864447426786082 
0.01865400803180729 
-0.02881136412393149 
0.01868344275747906 
-0.02362638565502026 
0.003025060865967696 
0.002692617599813477 
-0.0150984375985368 
0.03765456028285893 
-0.007189171069081912 
-0.132450938221439 
-0.04604705070477071 
0.09554422460234026 
-0.04597542586430052 
0.05697663785281702 
-0.06455840647222746 
0.07081695426617307 
0.04469709164449049 
-0.03558865175078126 
0.04536763155175325 
-0.04432334251450108 
-0.03541211263183822 
-0.007605241423125881 
0.07756180619637104 
0.01437481293423619 
0.02288497976125847 
0.01492432183862391 
-0.07182655565348808 
-0.05187795556125448 
0.03132982816612834 
0.01517777035037826 
0.03671387300928728 
-0.05123407335407031 
0.03446630267448669 
-0.01916562702168278 
-0.03792516306686158 
-0.0033965949015595 
-0.07406133220149491 
0.03156728422020802 
0.01630124394326388 
0.02332232332417844 
0.07136595723679423 
0.0002143391728656568 
0.01782353812656224 
0.05447836021755646 
-0.008005559495914917 
0.07042582870011208 
-0.040121960508649 
-0.03127045610414449 
0.01169725099288148 
-0.0733016607353691 
-0.04424224932220536 
-0.05634071925949068 
-0.005904054294974454 
0.002625945798602067 
-0.002852036559008189 
-0.07025734993122071 
0.02341222503629086 
0.05142462761078664 
-0.03375472188950496 
-0.03740865337179902 
0.024081589887547 
0.004938413717098573 
0.05984873141141832 
-0.06891446547585586 
0.07000703598645315 
-0.04221951028594031 
-0.05914609835443533 
0.0798958115724636 
-0.04198693305287456 
-0.03246181477091014 
0.02490234284876076 
-0.02081096581182858 
0.01855556569913705 
0.01546563212003992 
-0.001490169907106973 
-0.02258384199253069 
0.03210002162410507 
0.005664218925903859 
0.0461434662841885 
0.03308615251026963 
0.05674193805899724 
0.09297440993156084 
0.09986217149588475 
0.03674028902322828 
0.03882642162805369 
0.02708586257089426 
-0.04431073577001243 
-0.02174224104245769 
0.07134331431320501 
-0.02155425266773231 
-0.03369676492527234 
-0.04151547412258257 
0.02558581285840201 
-0.008476486372284807 
-0.001568807245470543 
-0.06663042568319955 
0.01186174282140626 
0.01190016747139566 
-0.01840351541988226 
-0.08689983437604472 
0.01780566739712738 
0.003757451030790203 
0.01443480932384727 
0.0874533489360057 
0.04818086328389418 
0.103222383927523 
0.02551707495768299 
-0.01206614767282004 
0.05334762306588183 
0.09159880805299075 
0.004605835831069489 
-0.02813559346932885 
0.1266590196313234 
0.09150217925381687 
0.08426964137636817 
0.1210854590944737 
0.004543327440987271 
0.01826184276636019 
0.008267807285631253 
0.01295525531606815 
-0.04857405154868171 
0.07060433614752043 
-0.003745834995220298 
-0.02608419786136173 
0.04633563446777701 
0.001897310810787882 
0.07935681626032431 
0.04619541826898891 
0.03302708720736339 
-0.09273143284524867 
0.07425599937581216 
0.08906409221973648 
0.04932427762111424 
-0.06159305990951543 
-0.03429380769840253 
0.03656969358538861 
0.05905435726075976 
-0.08883641947911895 
0.05324502655645335 
0.007232652795817768 
-0.0382970007264934 
0.004769682551537862 
-0.03872981324173164 
-0.01604016805413133 
0.04723040864386614 
0.1404444852227538 
-0.0159166173453591 
-0.03946829146556059 
0.06533130376549084 
0.07904620364690289 
0.05899734471177199 
-0.1109738428872092 
0.01506618679883632 
0.03125159253187211 
0.03894523184844301 
-0.1299455936096825 
0.01380369940779577 
0.01192592978012284 
0.00924393484726212 
0.05148797286178403 
-0.04261896963692845 
0.1489158923813887 
0.09621000267758208 
0.02367659905118165 
-0.05962708316146895 
-0.02975650015137225 
0.06539836629964425 
0.02290301914228821 
0.05388188038474164 
-0.06443666114516489 
-0.0390532747692415 
0.03620922831884797 
0.0649351127910298 
-0.1047687677751484 
0.04583562323849918 
-0.0203030651818202 
0.03613815386052551 
0.02802784840456554 
0.005613766500580738 
-0.08110058279610652 
0.1165069448442256 
0.02861616801278699 
-0.04192067262323153 
0.0251811140811311 
0.002218441554790313 
0.02365692429452337 
-0.02916887519715976 
-0.05070095305171672 
-0.113606123323835 
-0.009336473010162065 
0.07234274800011399 
-0.07870580885251541 
0.07448675100308728 
0.1252819078334658 
0.09141300130437117 
0.1152234071773322 
-0.0617426083677106 
0.1072789673880388 
-0.01615805922364798 
0.01350250722824699 
0.008558422637083327 
0.04397314114097519 
0.08940994806003227 
0.08927635805129262 
0.08588821911789307 
0.0327980476599657 
0.02392052382092221 
0.004812702271202053 
0.02450734529769111 
0.06602720338324181 
0.04766857714962707 
-0.1195568023001292 
-0.03127343489926637 
-0.0609621248778924 
-0.0344595263327088 
0.02140422447239261 
-0.06362586636751946 
-0.05390849592571417 
-0.06677755362339888 
-0.01079557776143323 
-0.04873940547473626 
-0.01693698640351963 
-0.05999818706843635 
0.004758827111001515 
0.04332954320471177 
0.02026235724759167 
-0.06735190152762582 
-0.03626126610608191 
0.01191750284632836 
0.02998846658425744 
-0.02282984195641976 
0.04930076267014336 
-0.04857379206232661 
0.04019333214961163 
0.06981038736280466 
-0.06574618583241401 
-0.03998643424114956 
0.07344482163540442 
0.08655326297223404 
0.05163098787667683 
-0.03900095512216713 
0.04531827011963339 
0.07589883144445744 
0.07223003438547568 
0.05029420756964235 
-0.002068832728168628 
0.02634669459161645 
-0.0372948885546135 
-0.01466050294410665 
-0.0132575794332942 
-0.02968374674222627 
-0.04896238538138944 
-0.001758181673377957 
0.05204840903746903 
0.05095949508375701 
0.00528981250071166 
-0.00123626271252786 
0.001063918996801592 
0.04396507886836582 
-0.03153411417052758 
0.03408366503438762 
-0.04376032208360587 
-0.0547610443456919 
0.08148971844249822 
-0.05939731397597448 
-0.0119428050350346 
0.04272976303212084 
0.00885463201845642 
-0.004140096915972493 
0.01098985229376594 
-0.007829226812643293 
-0.007667160371115566 
-0.08039374407381246 
0.01968240656208881 
0.05168049644030526 
-0.03231764176143232 
0.09248885894335702 
-0.009656561699586633 
-0.005693261026825761 
0.003092781065769631 
0.05408533813194803 
0.09266361001574869 
0.01232490710858504 
-0.05951764493995849 
-0.01166739460971625 
-0.02062693022616121 
0.01453094569300521 
-0.07661854487974 
0.04250892532979462 
0.00500798621515163 
-0.04135382295031261 
0.1322616389380478 
-0.06929148815836537 
0.05291977481685507 
-0.0306078779211145 
0.06904125263935453 
0.002130361930602661 
0.02734751140206753 
0.04505301852011771 
0.01625758376942997 
0.0093739791497342 
-0.03841925643931263 
-0.0553839598039163 
-0.03462042508932379 
0.05903257316495527 
-0.06891308386833257 
-0.0513638869798755 
-0.08503736119379865 
-0.04393666544786236 
-0.02039882172532392 
-0.05615049346615893 
0.01080273863782542 
-0.03153367000880088 
0.08328357746451802 
0.03491725969955407 
-0.005619429170797073 
-0.02537466235144029 
0.0003609369494229296 
0.02012951872527939 
-0.01261333974732727 
0.03039113954420952 
0.02939341343379491 
0.008809766991265245 
-0.02681175153216241 
0.05125142423904299 
0.02488106053249189 
0.003714354805262535 
0.007913608018305662 
-0.009939723637214241 
0.1309262535480119 
0.001778347496555056 
0.01034494898191209 
0.1038639648258018 
0.1086170860772352 
0.06955712763420463 
0.02193288134852659 
-0.004302945754645241 
-0.06016917991157551 
-0.1244772006355955 
-0.05159073115271495 
0.007576722880786237 
-0.006962286275444218 
-0.07987771664194834 
-0.1396531100498727 
0.03857966520300229 
-0.01891899606063216 
-0.1765691313884873 
-0.07972105585536766 
-0.09212379842443726 
0.08425992394185901 
0.01217113645304911 
-0.05143467538455384 
-0.116544823067639 
-0.02671939384057506 
-0.1026381017003849 
0.0002033651745920194 
0.07281935840398514 
-0.0580028453385812 
0.06184864353567589 
-0.1015686057716625 
0.05154050217923887 
0.04895353790580523 
-0.0682068125721986 
0.0393433831946302 
0.04118559603332932 
0.1535421323436479 
0.01995154794173538 
0.08098082164468577 
0.129792712446096 
0.06314428947178975 
0.0001218321573201503 
0.06628759382933745 
-0.04965810049108488 
-0.1160464364837995 
-0.02910294842999276 
-0.03554087034697649 
-0.06209492894429883 
-0.1342224752670181 
-0.01756534088668208 
-0.04294407640862696 
-0.01292536826398943 
-0.1234468650235064 
-0.08342573785617979 
-0.07092664539148071 
-0.02650979200836267 
0.02318009483294517 
0.0204545197012137 
-0.1069435533039965 
-0.08076743249399358 
0.04103335969276825 
-0.04005366788911847 
-0.1005518850509321 
-0.002866019497035808 
0.02000893861613096 
-0.04055290422814246 
-0.08286496016991853 
0.0002528984482307803 
0.01926805100277163 
-0.02230423674634032 
-0.01547108594346727 
-0.05159988625337782 
0.008955229814784398 
-0.07719763100779459 
0.007381550183018179 
-0.00363895739442468 
-0.01248753767452778 
-0.03627535055734047 
0.03987830160799189 
-0.02204521265616134 
0.03519505844073649 
-0.03992694665611148 
-0.0168921303184186 
0.02606896695266976 
-0.006072265866772608 
0.0971148443495345 
-0.1080506969147312 
-0.01127488642726565 
-0.1189742842104227 
-0.08854407089123292 
0.06891797185321615 
-0.05974203420281606 
-0.006691941346604131 
0.07103771786390475 
-0.1249064264011125 
0.06068194725434863 
-0.07564102127883307 
-0.05205407890041008 
-0.02828151841801905 
-0.06387884790892273 
-0.1738251021638088 
0.03510866056674051 
-0.1426345818458363 
-0.04649089642694906 
-0.1628480051881356 
-0.04975953812135497 
0.06172489966144406 
-0.07170660500248589 
0.02006039643055455 
-0.1676767164106486 
0.006433115064471401 
-0.03236168647989955 
-0.1427012350024452 
-0.0521660074154341 
0.06582250000369747 
-0.01567785301265712 
0.04311942557324069 
0.05667271556282626 
-0.006888225778488157 
-0.09344558966074863 
0.07547117122349073 
0.01381453085264192 
-0.08555029395443495 
0.02987918123213499 
0.085303234502121 
0.1049762307576983 
0.1378679856386964 
0.1027868031001055 
0.1177377315955951 
0.01119720544425083 
0.001111624574797484 
0.1726438691508113 
0.09209167680733292 
-0.02869628549060909 
-0.0719298525462123 
0.006125208669415291 
-0.1095294007119607 
0.05020527705908696 
-0.07071131008187564 
-0.09507933362123315 
-0.1113206051969365 
0.01019083121359133 
-0.01131291175377275 
-0.1059266312929168 
-0.09093121712351666 
-0.2088488905396412 
0.04651652713091714 
-0.1031549278691588 
-0.08626852866173039 
-0.01221440504098949 
0.09623137408417172 
-0.01104604564523664 
0.02307261062500537 
0.02200676074850034 
-0.0009680235792031702 
0.03880349369602985 
-0.05670045850775204 
0.1124002043018289 
-0.04506641789901522 
-0.06917536739855903 
0.01332915623283482 
0.003336247546448312 
0.08266838438659621 
0.09438800857329661 
0.008212171135402145 
-0.03440049286792707 
0.01155869149871406 
0.105771274169221 
0.03060351412872035 
-0.08202804872277245 
-0.05363930601642392 
-0.05540802824844636 
-0.02636851925804821 
0.02874991781873035 
-0.1275952292762946 
-0.01010932067739149 
-0.07072115990829109 
-0.04225482901064027 
0.08761803402325206 
-0.06157877852697503 
-0.03475727313963756 
-0.08624452280764186 
0.06032255275261992 
-0.005807797886989114 
-0.009452472605552551 
0.02463060887414888 
0.05243316782971712 
0.005357773823787928 
0.02292665954253195 
-0.04923659705056235 
0.01159154604438642 
-0.001273998093926426 
-0.004289390400789199 
0.03812301664328155 
-0.1159292592145607 
0.008600965832728628 
0.01850995027103699 
0.01010150095263828 
0.01864478246610031 
0.08718562286854398 
0.06546904391661432 
0.03224741795452175 
0.05095432276405115 
0.02485642305845772 
0.05299824476159107 
-0.06720311387846369 
-0.05204671212485145 
0.005014359729682982 
0.02765825647146423 
-0.08255629224744455 
-0.03645776086910685 
-0.01104024276353939 
0.01279415721441609 
-0.04456608383607764 
0.03374792398528664 
-0.03771462982252199 
-0.06766708827319873 
-0.01770988991167965 
0.01113922778951906 
0.05398762429210746 
-0.03229563611727154 
-0.04195768479953648 
0.0924297520814864 
-0.02152825690747126 
0.003370646133437017 
-0.05814971442613229 
-0.0196095887902806 
-0.02474605607205925 
-0.07741552928814556 
-0.06808105686306394 
-0.0474426817912154 
-0.02263383074123936 
0.05209392200540792 
-0.07093393449642978 
0.0144796687469106 
0.0737255773347089 
-0.03870272734509859 
0.02255564234917632 
-0.08638538380379648 
-0.04954571912261247 
0.04755665270747115 
0.01478820923802369 
0.03339859057014451 
0.05342934588710791 
-0.03050320522495183 
-0.04449554836553479 
-0.02854470897760611 
0.06739676883747747 
-0.109666139384639 
-0.02675776447044181 
0.08287239965831196 
-0.005821367484441459 
0.04622999710577878 
0.03768320091764241 
-0.1288195709178173 
0.08144571459838153 
0.01749821160309954 
0.05120699529182077 
0.01809959323954354 
0.06200699967936826 
-0.02747632104053405 
-0.08232686172744634 
-0.03238452432646866 
0.03719526742443542 
-0.04662293091936106 
-0.007074872571846896 
-0.0702115565691904 
-0.006931482640289546 
0.08352416204676016 
-0.001665330344590183 
-0.03663493712864431 
-0.001391776349767461 
-0.004789997682348621 
0.07648500117919027 
-0.08112101235570798 
-0.06060064371687941 
0.04121902468672475 
-0.07024817905368599 
-0.06087044041886336 
0.07356499813619571 
-0.02271567017062834 
-0.08117222979527532 
0.009388694648816377 
0.01759419297422703 
-0.1103444434955666 
-0.1303566550146782 
0.1044122660896906 
0.01682007299268742 
0.005608792855586285 
-0.03222082098209329 
-0.03171901298624222 
0.2130056168232763 
-0.04774105573763567 
0.03498303577689056 
0.08634918623473216 
-0.012808995515909 
-0.01532274185702295 
-0.03518610218042686 
-0.06419126210200785 
-0.1230405062113154 
-0.1392274952005421 
-0.04659733581198218 
-0.1758467279092204 
-0.04351312697386058 
0.08811285606281669 
-0.03074115485130893 
0.06853070003173914 
0.04275507456411128 
0.04440108326957969 
0.142597503359018 
-0.111193221158516 
-0.02911152897468793 
0.2246470960323592 
-0.06908937017647981 
-0.09508283503961226 
-0.01958316205083515 
-0.05392899508280304 
-0.05961532872580154 
-0.1493632919683784 
-0.06774040502493867 
-0.1226919003050181 
-0.05312257352809131 
0.1040538474983576 
0.09413817921574624 
0.03937064836897744 
0.03964965341887793 
0.1485063651307667 
0.2166193414317009 
-0.09011437729566714 
0.05768072284595284 
0.1807430738008512 
-0.0894246198178397 
-0.0406893163126587 
-0.02895930265305297 
-0.0337256300518985 
-0.06459612492975272 
-0.04682005436106203 
-0.05830964598204461 
-0.1403464931835571 
-0.07982570835652855 
0.06786713659904134 
-0.01296677341785911 
0.0534951074178852 
0.1386124076017473 
0.08107054220999672 
0.1477935769175252 
-0.2004001343675857 
0.1099697558898267 
0.1003984185278811 
-0.04692426612519046 
0.03097814341310412 
0.02514098703368505 
-0.1153683110736789 
0.02329308046159579 
-0.1477492310674472 
-0.1161182122486977 
-0.1749836789793608 
-0.04183912153008361 
0.0015183181256051 
0.03531398251034494 
0.05113407202436119 
0.08758806101065551 
0.11420334953779 
0.1732468092513267 
-0.1170634063111191 
0.02063822704308958 
0.0867138057541527 
-0.009209785078978459 
0.07711465508615604 
-0.03073779229570705 
0.02373039280426723 
-0.1017895817182865 
-0.08700033406224567 
-0.0726438045183443 
0.01114954456595434 
-0.07303169141791105 
-0.06496104658435077 
-0.0433482595617506 
0.01877296975389172 
0.1195024314290768 
0.1160446404375209 
0.1127903769793139 
-0.04856009575484777 
0.1563089042772793 
0.05806664440859284 
-0.04673320313937084 
-0.05905423443083568 
-0.08664461357647958 
-0.0691397015604563 
-0.06387495519030101 
-0.07172093997313886 
0.0035853351464371 
-0.07315413724868899 
0.004504749279504193 
-0.03194068350939638 
-0.02091688757080754 
-0.07889937966557728 
0.09516786974002243 
0.08062710266620998 
0.02209659898947325 
-0.06142362231959332 
-0.07266085607652147 
-0.005673232191866877 
-0.0339791357409043 
-0.05284867456497022 
0.04161593976425641 
-0.01572060731089917 
-0.0355186372042414 
-0.03423556569789075 
0.01182298244849781 
0.1059481410797396 
0.04546424719345521 
-0.04446258091544739 
-0.00939224815917992 
0.08143859993487498 
0.02250571244487546 
0.04127202268040268 
0.07741898265065089 
-0.0006217824760761555 
0.03325447251682834 
0.01585299647363928 
-0.01098128431094542 
-0.05050760514360784 
-0.01877486623318849 
-0.1020643461370589 
-0.04369371391701314 
-0.0523713866814388 
-0.05146661066247597 
-0.07959029395190979 
-0.02702505247639338 
-0.03972487349467554 
-0.01226179506687829 
0.0398253671502893 
-0.005934993818173186 
0.05897502516212995 
0.0999493528845832 
-0.0635330204128331 
-0.05329592650609705 
0.01646060933903198 
-0.04667305004979141 
0.1487427000072848 
-0.0143538662554614 
-0.02018016062904374 
-0.03423809418616799 
-0.05880594708331877 
-0.07936830305561692 
-0.1054826705854489 
-0.08645162043162768 
-0.01332159236130404 
-0.006180779451167398 
-0.01482111709832557 
0.02443294747466135 
0.007793143900772737 
0.04054668234973229 
-0.0664262883439256 
0.008910478423996355 
0.02480157074395158 
-0.0513694667262402 
0.05166878285803525 
0.02510279574018176 
-0.04795265813696607 
-0.02420342399874532 
-0.001969952329793404 
0.04553396547293697 
-0.04854530918279282 
-0.07471337389438801 
-0.01117919654236823 
-0.01048320656701923 
0.09567490056919012 
0.09882957702299895 
-0.1002860083636303 
0.01870361337725662 
-0.0002619964860542914 
0.06366111291584475 
-0.09069063967884673 
-0.05476478060763114 
-0.01835873443793223 
-0.03195047995295761 
0.01013965524153855 
0.01313578773072187 
0.02875078872188989 
-0.03752235608667091 
0.02010493897902038 
-0.04949314093503553 
-0.07612970103734368 
-0.0497755060756891 
-0.02971491947247789 
0.05279007419130305 
-0.07326842651880176 
0.06390959417368811 
0.000567464385084449 
0.06979632090086291 
-0.04266432165622842 
0.01151533290593668 
-0.002721775452135049 
-0.04902990739928681 
-0.0384236734306438 
-0.06849097116984236 
0.02673580731791573 
0.01703983698020457 
0.03767581261163343 
-0.06277132313735995 
0.09663757971641522 
0.01591359887635249 
-0.02126703446451483 
0.05477815716280592 
-0.03567486356925429 
0.1082995338176543 
-0.04965319212725175 
-0.01749393909657056 
-0.010950665367825 
0.01620775899416218 
-0.04340620853192466 
0.01255124684585534 
-0.01570238089727175 
-0.05511905689216502 
-0.03621959196275735 
0.04606098176859124 
-0.05245634562359425 
-0.03312921717900601 
-0.005939676999427499 
-0.01136618816857401 
-0.03342531880713828 
0.1509655919419798 
-0.01905277587722858 
0.06706630937594217 
-0.02879659574540505 
0.0258616172983924 
0.02513680394416704 
-0.03044682589832856 
-0.04443239120200559 
0.06024217738381229 
-0.0315547785084803 
-0.01022735854022775 
0.02578663261665306 
0.04709323148791305 
-0.02467193347337699 
-0.07151345375592773 
-0.02578616356887408 
-0.01122741770091642 
-0.07664315524291607 
0.03403052681932037 
-0.0108630901474832 
0.0975677718572379 
-0.008190552074882318 
0.00166293812602853 
0.05392096924282364 
-0.02858928732877508 
-0.02659232241113609 
0.07973916545768511 
-0.03699536087199748 
0.01814598315508627 
-0.08816656154031394 
0.1436738685273345 
-0.05844095471731294 
0.01008180708042617 
-0.08062394568121424 
-0.06372230087741862 
0.03156868245779282 
0.05235857483693127 
-0.01933664844579045 
0.06051638618310525 
-0.08373743942100698 
-0.02805106760624412 
0.04349044844088166 
-0.04493225999152894 
0.01601799485899925 
0.002197096733303585 
-0.03167883736845723 
0.06383479993039172 
-0.1214228997449548 
0.01275992937362273 
-0.01773770018527536 
-0.07655551698635039 
-0.006944430458792047 
0.0130666313114597 
0.09072823363463642 
0.04991520523133435 
0.05246030746957817 
0.06293574845146893 
-0.007394669283442622 
-0.02897374614064678 
-0.01188059667435316 
0.001744323840707223 
0.1369237905403182 
0.01843552028959946 
0.04570550765530879 
-0.07394849828988122 
-0.1165813889949278 
0.03690086596073195 
-0.08434059490461893 
-0.02934523290354346 
0.06250571997325285 
0.05861612585412902 
-0.09499588464711796 
0.06406859151782468 
-0.04557479161170537 
-0.0007345864519437275 
-0.0881736269071567 
0.04858722183850755 
0.04121044691096677 
-0.06032031729098286 
0.0349878937830209 
0.05495281722656852 
-0.008468698288385305 
-0.05879519203245466 
-0.02352996747028138 
0.08380870759591401 
-0.01010966660085781 
0.02184716555105468 
0.02913317566668583 
-0.03408162030252019 
-0.002460007418715787 
0.06291994762455291 
-0.02778763040790681 
0.03280583993512076 
-0.09471283684211229 
0.04283109717969921 
-0.03255666772192519 
0.02754759437819001 
0.02054239782908679 
-0.02620613099653269 
-0.04134527498180967 
-0.06493520093715212 
-0.1235130104250874 
0.01466668029027946 
-0.006631878167254968 
-0.02060029910510451 
-0.003231712157117012 
-0.0266660117344368 
0.001978614919640917 
0.0146292772941262 
0.03428794795643413 
0.03777506734399613 
-0.08204914125210111 
0.06641539739332676 
0.05036572894810271 
-0.03750777017703848 
-0.002180479186505429 
-0.03148850743775797 
0.0662331129885021 
-0.02323337423644129 
-0.07483326009681701 
0.1254799547635507 
0.01891420273555658 
-0.05185546442443264 
-0.02791316724868915 
0.1254147614820777 
0.005532651703020046 
0.01808471539334213 
0.06313479585445679 
0.10422582878969 
-0.04904816709460267 
0.01347365699704872 
0.04874678979291427 
0.01021060144428996 
0.007395454674279913 
-0.06737771682639662 
0.02558265143846727 
-0.04905190631443856 
-0.09436022486553242 
0.05386915767073443 
-0.04519386374770521 
-0.05985757487287027 
-0.01199588253832958 
0.04196219532696447 
-0.1094947367479361 
-0.02655127829522455 
-0.009450813972297481 
0.04361390151686939 
-0.07345426005093671 
0.002094063939305756 
0.01463707708526845 
-0.02161406290101716 
-0.001797933973830529 
-0.04641009094726107 
0.03287202210260503 
-0.05689947532241667 
-0.04306705759447288 
0.03590551242445734 
0.02886445900720161 
-0.05927723040705277 
-0.04056004707766851 
0.04290964034479103 
-0.006771146292776445 
0.06792188207880662 
-0.08971777342570099 
0.07560752376568891 
0.03836324874741089 
0.08896245066061995 
-0.07531701102542621 
-0.0212277943110543 
0.04716837447958593 
-0.02839864907516146 
0.0880865356264824 
-0.0405371121158951 
-0.0638599861095614 
0.04676983689191902 
-0.05032029382337258 
-0.02192280612660209 
-0.03559417844111362 
0.1247715244786272 
-0.02581895888440784 
0.1156827192240749 
-0.05529098212425262 
0.02241962994202757 
0.02045968484170279 
0.01632389837371218 
0.009475046961521209 
2.547677758030147 
