solver_type L2R_L2LOSS_SVC_DUAL
nr_class 2
label -1 1
nr_feature 3780
bias 1
w
0.06337682484541075 
-0.04195765380790394 
-0.05259024597017791 
0.1095215428129638 
-0.110733062960973 
0.2349786704436553 
-0.08729220851017716 
0.03912211569911794 
-0.05782151571717259 
-0.01158895269607807 
0.02668604724544291 
-0.01176130670022419 
-0.02001167819349932 
-0.1382457971939729 
-0.03032464663839289 
0.002294303225218171 
-0.06542406762461909 
-0.02865687468662706 
0.006822450893915533 
0.004711434385396599 
-0.01295614654312886 
0.03218472094101509 
-0.03048676815317105 
0.05481636416172986 
-0.1584448994233923 
0.07342148070740574 
-0.04652125445578419 
-0.0231979647103197 
-0.003465099548027521 
-0.06878118102209863 
-0.01471776786090917 
-0.03361029700578057 
-0.04809523153103856 
-0.06638529340632238 
0.02670515151694915 
0.01474094981689403 
-0.073792901532444 
0.04626240227468363 
-0.009961889609066802 
0.06160142446303946 
-0.04525907061516522 
0.0325612313235312 
-0.07941629792332695 
0.05733876897233924 
-0.03814929591312032 
-0.01521254563700625 
-0.02469100250106815 
-0.05527053054800675 
-0.09572805107261205 
-0.112198419189537 
-0.0638555325525202 
0.02131139858874033 
-0.03454434192184497 
0.02650989504901064 
0.03821316563892363 
0.03006723202908595 
-0.07709277156818035 
-0.03263974499388569 
-0.03551685445120427 
0.0596509490767297 
-0.02885528407570261 
0.06755478835219685 
0.01997491279180746 
-0.03809062713494596 
0.01940125222083162 
0.05429953566598175 
-0.08548774896340601 
-0.04953466336675314 
0.004932348756495345 
0.07177977508041181 
0.01728643907220812 
-0.0486029556508808 
0.03116275201482508 
-0.06981306160621548 
-0.1010658059440083 
0.09383110760479436 
0.01154444404696376 
0.04856456430904042 
-0.08373766578878301 
0.02467233749762683 
0.002941381130188161 
0.01012727377114156 
-0.01906902126324104 
0.04240807076623151 
0.0008818183082670443 
-0.08450721667098779 
-0.07496876747690395 
-0.04673791843276018 
-0.07026738844116737 
-0.01482541493872237 
0.04966833014487334 
0.07319480166638299 
-0.04320752388195159 
0.06533791737893783 
-0.04390212348771082 
0.07591591142087571 
-0.01942249283921352 
-0.01048598915499885 
0.04084318185460033 
0.02147378328817643 
0.09240072393126783 
0.08121487292798425 
-0.00287093941972918 
-0.1499837035364083 
0.04690060669410989 
0.0350878166300831 
-0.02640666006235507 
-0.07304271388836851 
-0.05223421632673749 
0.0160052361432489 
-0.03801874179464314 
0.198703188731652 
-0.0932464114736872 
0.085042317371415 
-0.02688847010752938 
0.09105279698714355 
-0.03711379380178396 
-0.03231217156327505 
0.04682053707038668 
-0.06046447314636788 
0.0432926198435671 
-0.1885213151717999 
-0.03567846350264545 
0.02188339881077309 
0.02723393051383839 
-0.1445398436478014 
-0.06660779703080782 
0.06759689230707977 
-0.04554856518754087 
0.03496677222583356 
-0.04840145615471815 
0.11044202558922 
0.01578527145682036 
0.08394161123645029 
-0.05155228121221921 
-0.06278218903879064 
0.01702774921660622 
-0.01445429274446997 
0.06207682603908809 
-0.1236593786381102 
-0.06686643652561618 
-0.01322815386730935 
0.05552957446391495 
-0.06954999455244408 
-0.02941960971742916 
0.06561571136398128 
-0.02955883835931652 
0.06591933301812385 
0.01834433680051267 
0.07732039693176572 
-0.03402486592253089 
-0.06502862937745255 
-0.02403544644413848 
-0.08712498858571702 
0.1300799549008694 
0.0276080104794989 
0.155810010501267 
0.001466334580409187 
-0.09313259878654558 
-0.02305480899109862 
0.072484593981869 
0.02373686217096075 
0.08168094839684802 
0.02091500473151279 
-0.1542373097370103 
-0.005743877596094854 
0.003726665010123653 
0.01471235324321739 
0.004822726147556023 
-0.05288657690454865 
0.01646373681746488 
-0.09485012308688816 
0.03483939267038268 
-0.005687445308868187 
-0.0888240004164462 
-0.09691669605623424 
-0.008010781937590323 
-0.05798294799002295 
-0.07123091121323144 
-0.05385764440622436 
-0.1029929391502819 
-0.01447005399235481 
-0.02012752365348008 
0.0577841807976576 
0.04337005114153955 
0.05454649980697505 
0.014039605859235 
0.03863512105434753 
-0.04810461249983238 
-0.06127871458992085 
-0.06384644138114601 
0.05277885093820289 
0.004318004309955515 
-0.06466530264278961 
-0.03455413788141577 
0.03925526572892622 
0.07088991064771456 
-0.08459918067143357 
0.02355851317374827 
-0.03964432163209893 
-0.06735042202339754 
0.01056529543339725 
-0.07618060804777298 
0.07235190332556427 
-0.1022764413392735 
0.01343570884886201 
-0.06869720206231418 
-0.04370023900946669 
-0.1039588291675053 
-0.04660483802430968 
-0.06561115709572327 
-0.07362576176830611 
-0.01479082244615551 
-0.03990664290882093 
-0.01428922242578223 
-0.06865375563795792 
-0.03022743321710417 
0.03973565321966799 
-0.0374366333025398 
0.08346573873776171 
-0.05324226807076628 
0.1476357500860797 
-0.1062098768417331 
-0.03873708420064812 
-0.07482814319392492 
0.04066177276147678 
-0.02664391934171399 
-0.1034390112750187 
0.0151255715236751 
-0.02979593138442665 
0.05920808553774653 
-0.05215868053496613 
-0.04820926796960612 
-0.07426191392672778 
-0.04591698043199967 
0.02523206537093842 
-0.06582488083568408 
-0.0166241306747698 
-0.02047751073137219 
-0.01425436743316658 
-0.1207623151656304 
0.09707402445794874 
-0.002566782815688744 
-0.06935377251201552 
-0.02689861107231112 
-0.06721603091588949 
0.04752083990858263 
-0.07093919759722531 
-0.04778373097071974 
-0.06093030567346303 
0.09336230759112139 
-0.05238667520237112 
-0.0216436770498382 
-0.0397807525131899 
-0.01739390207417956 
-0.01614296911441583 
-0.1009384002847618 
0.06636361374277613 
-0.04606076279162229 
0.00560327332110765 
-0.01533059172522265 
0.01737084461084134 
0.0001193446741255362 
-0.07098061088720042 
-0.07110217749917851 
-0.02697680638342097 
-0.05375797096165864 
-0.005857005347211603 
-0.01404511858363224 
-0.04194239568255211 
0.02840380450408447 
-0.03601612284501782 
-0.08340533152178814 
0.06326367180559991 
-0.0472504231789377 
0.06873394971127232 
-0.02349012412508521 
0.0412361854833881 
0.02133130957097739 
-0.01965233161580243 
0.02553125435654794 
-0.06866684622471705 
-0.03455908153731297 
-0.02293767789387419 
-0.02132978048084682 
-0.02826713899042379 
0.02209865203411721 
-0.123404986956016 
0.05772778278643109 
0.034573064113326 
-0.01353183465119311 
0.06164513980567331 
-0.1022103743218185 
0.08119670223090185 
-0.02030486747440995 
-0.02536694270314574 
-0.01396955636561064 
0.05171381382471612 
0.1199183389354235 
-0.004925301630147079 
-0.01422448491231811 
-0.06307446202147599 
0.01512385531300274 
0.001035926651285506 
-0.01462384932240213 
-0.00842425246285388 
0.004699697459784428 
-0.05484657570763841 
-0.08980408677306857 
-0.01857346983802441 
-0.01827704720916562 
0.0008101295680311968 
-0.03715361113253455 
0.06966757056688361 
0.007727470430110113 
-0.01821516044627147 
0.01603882680871423 
-0.0293812356907543 
0.02730233402333701 
-0.05072673499624895 
-0.03803788332722726 
0.04755310961951398 
0.05782603596995748 
0.04280703779092827 
0.01319063116243157 
-0.07204633397619781 
0.04975022685387356 
0.168187139494054 
0.02465911941259813 
0.1167011070157191 
-0.06012294544851245 
0.1062506199275426 
0.1274246273117431 
-0.1083547155477718 
-0.001359964762554007 
0.05609052919263495 
0.09086048446299771 
-0.1369606656036206 
-0.14773798129066 
-0.06424520780941267 
-0.01539177730540212 
-0.02704098164148809 
-0.06953121082066878 
-0.1618864237532593 
-0.03058761917070207 
0.07700989852865472 
0.05780592383869509 
-0.1607655463643765 
-0.1958129014904693 
0.04503546439629787 
0.1816640612228665 
-0.1679432066186887 
-0.1789766204265497 
0.003853796408350676 
0.0500522669728806 
-0.01341849116605898 
-0.1265305931253336 
-0.08509611628726034 
0.003378131776877355 
-0.1480256267350969 
0.08170671424963044 
-0.2180185924420645 
-0.09932652704891157 
0.09050658350715429 
0.185916472889893 
-0.0404295493336876 
-0.1602319734657555 
-0.02940908539035045 
0.1336676141551536 
0.04296694062006944 
-0.1326840356732314 
-0.1067191667874026 
0.0233113899229104 
0.06760437349537901 
-0.1070902053121844 
-0.06505028799494494 
-0.02178148513028934 
0.04303152323816639 
0.1787974038771541 
0.03892770417797484 
-0.1207904479926696 
-0.1159679150751507 
0.1398814982066585 
0.1233234315564723 
-0.04499705114988055 
-0.136074138358775 
-0.008842230408832275 
0.06753047658084121 
0.03425984882623229 
-0.05878794595764729 
-0.0866312732358222 
0.06109846749020132 
0.05382732656210285 
-0.01689574679162487 
-0.1027937108645267 
0.002668457754716992 
0.08898106196817621 
0.0002370734187213403 
-0.08839982952957406 
-0.161020957395363 
0.1247059050951023 
0.09077102454462338 
-0.1032856358110321 
-0.1990714556157828 
-0.02812813195456321 
0.0591642597694132 
0.06296445877708158 
-0.06190699330810825 
-0.2618826484134553 
-0.1088792819986138 
-0.04724508973020024 
-0.05597434539002989 
-0.1445045260297289 
-0.03516200549498892 
0.0497488719375962 
0.1059500511730688 
-0.07373607375658592 
-0.006914616187866509 
0.01052131887760924 
0.1453422978553208 
0.07716973798282309 
0.07040888424117614 
0.06972427951246669 
-0.06563412417377477 
0.1022740501410933 
-0.009224688895547107 
-0.02615046150572612 
-0.07731757703408706 
0.002001545859180891 
-0.002952813952818624 
0.004926982777190837 
-0.1447549091790454 
0.0008519116083675265 
-0.09768629241568921 
-0.04358510214626582 
0.03725015801580713 
0.01279211566334389 
0.03912488596310677 
0.004538396267724073 
-0.01294372863277969 
-0.04300205176169646 
0.01545388401923897 
-0.0449076732368807 
-0.0282325283014743 
0.02672201262228561 
-0.006590505561005549 
0.03944835875028752 
0.05425930067111965 
0.03744681130465041 
0.01792305331252887 
-0.03868418401125089 
0.1247455328383446 
0.01111865189570893 
0.08446105359039943 
0.01309872376437746 
0.04387674939853562 
-0.0569335762874495 
0.08378382916579225 
-0.01786517756755905 
-0.01933917080181719 
0.001227281159801255 
0.08315385432154486 
0.04620705549609695 
0.01238289530182773 
0.01159894683833936 
-0.0454831256834493 
0.003173291591936147 
-0.02168392241656954 
0.01730397189489125 
0.02936940240274325 
-0.04558666640693165 
0.008921928268651853 
-0.01584067742296979 
0.04336681117736355 
-0.02620571561775056 
0.01510961069921477 
-0.01755426517063553 
-0.05425601002684893 
0.01530993330651825 
-0.08412993243974319 
-0.03768784194836618 
-0.1281486480685507 
0.006359370052342351 
0.07943238095146897 
-0.09962839214058171 
0.02228845889234934 
-0.0833140655265838 
-0.01385112754033337 
-0.04540853958322318 
-0.008338357549719639 
0.001639332274299182 
0.06709541026177648 
0.03474604322877449 
0.06879031283615168 
0.02064794090989909 
-0.09509378725824776 
-0.03457995620365736 
-0.07215696811866502 
-0.02751128464257242 
-0.03374075479904982 
-0.04834164273891281 
-0.01138994529785496 
-0.06958757545051147 
-0.01535792755941226 
-0.001443407008572187 
-0.07222662268387565 
-0.007279234841773988 
-0.06967528912813868 
-0.01963743531895783 
0.00616178869765102 
0.01259661288953608 
-0.02510008719695314 
-0.007525928725766393 
-0.01564965353637753 
0.02574943278558478 
-0.04609920853442726 
-0.07058047732702355 
-0.05799536612769773 
-0.04844441395019013 
0.006940864405077483 
-0.0698455977394631 
-0.03081136928227354 
0.004574927576303849 
-0.05205714026126329 
6.948801935558186e-05 
0.06151657982475926 
0.01135824882668104 
0.02928109686365401 
-0.05322460024725372 
0.05497848813741597 
-0.02998500647542368 
0.09036840836426172 
-0.01993031451935312 
0.03889585415856446 
0.02631435652615024 
0.01846262288841713 
0.007582605697844766 
-0.04555365913582536 
0.02080609276537161 
0.000129156788589469 
-0.03639805233901105 
-0.09787281840183681 
-0.007409047693948089 
0.009181567188755404 
-0.04086914557762495 
0.06346083747252451 
-0.1309531171321579 
-0.02033917417094121 
-0.08499748488261147 
0.02890704024370438 
0.01400233438137635 
0.0423831772756681 
-0.02486670672641181 
-0.06278917209201544 
0.07071637377313526 
-0.008800709740569177 
-0.05276585393404324 
-0.07216619072004109 
0.03826630527741519 
-0.04298366777378963 
-0.07722448487264114 
-0.05220605027442075 
-0.003108171953790493 
0.133242365512707 
-0.03187851166358169 
-0.0330385332174814 
-0.04270639700764036 
0.1494439481170723 
0.03367003134448846 
-0.03417440406803608 
-0.03193679595833513 
0.02638768731453528 
0.0944587778733201 
-0.08564742427709988 
-0.04395652311646531 
-0.0227089877819956 
-0.1079811653244862 
-0.05633152758884006 
0.107914251400253 
0.002497215447773384 
-0.03754616575767256 
0.1532212581488047 
-0.007286894561407352 
-0.02851720720676668 
-0.1239340222248595 
0.0630814980274704 
-0.005172210947003975 
0.08188315898463289 
-0.02475001435712032 
0.01181010486835389 
0.006960132541415151 
-0.05057762461389694 
-0.003499339835528981 
-0.1113462859295291 
-0.06412284732665353 
0.04365451083591465 
0.09228197302180198 
-0.08075438129303217 
-0.06060341300434227 
-0.05979771317410044 
-0.03743295733148711 
0.04360805009286271 
-0.1635271312676373 
0.06766854114901161 
-0.08295953417275923 
0.1158456182607385 
-0.1451884735353695 
0.007324504915041928 
-0.02651364112488106 
-0.0716852399300819 
-0.07758550140655439 
-0.2767426484345338 
0.0166646800195521 
0.003062998344365441 
0.07547214470482196 
-0.0768019457618279 
-0.03396430033623662 
-0.05453377135787332 
0.05002734221900205 
0.041782973647851 
-0.1245280477121414 
0.07192591477587919 
-0.05157449151108125 
0.1147954766754102 
-0.06729673543767775 
0.0442082667531566 
-0.04056153876822732 
0.04661391987032028 
-0.08119773833969658 
-0.01718094905721511 
-0.08642487496567861 
0.007651311079842116 
0.05570003546176899 
-0.02569209476754623 
-0.03984102941638129 
-0.03111007965174074 
0.1699445578919342 
-0.05823683761911647 
-0.02827389229536051 
-0.03725692544900805 
-0.02035368154873452 
0.1084138454575032 
0.04842467759815036 
0.05052920727737384 
-0.1232826987321229 
0.06228490459488031 
-0.0401343731382317 
0.06276748581832235 
-0.1418851950096096 
0.06426627869722164 
0.07005376760726864 
-0.02698398662633228 
-0.1423813619228885 
-0.1500882079071984 
0.08115055622335128 
-0.07487236890191391 
-0.1060384483388272 
-0.1052069094833895 
-0.06774226651229745 
-0.006410356371772513 
-0.05011974193563166 
-0.07131259181612437 
-0.2541756218949587 
-0.01599197330299079 
-0.1008589844074931 
0.004136577445722607 
-0.03480609867167288 
0.07772198308104944 
-0.002346503810806017 
-0.02053172215189917 
-0.1265881501434847 
-0.01574886999790661 
-0.003050154276180781 
0.09429240213522816 
0.03483982063587977 
-0.01832297505057312 
0.06761457985031577 
0.01914743444418756 
0.1153034872416718 
-0.009436086791198844 
-0.06157166361649082 
0.0408128383531897 
-0.09207946137421805 
0.05578487675357232 
0.01391025924924494 
-0.09999507367678828 
-0.03117157974413752 
0.05110132190445058 
0.007463759646326838 
-0.005406561390770719 
-0.0316683517565563 
-0.003206686748668176 
0.07371073025956421 
-0.04081356980596557 
-0.03824167530575324 
-0.01851247142283582 
0.1312570867777868 
0.01911335775474955 
-0.01098280573193515 
-0.02040285665965853 
0.04493319198725395 
0.1137679515908152 
-0.0694280757372614 
0.0089015994946368 
-0.08913613809883127 
0.01274835308545924 
-0.02769655728978842 
0.01214089168766013 
-0.08596371521165122 
0.02217104745050907 
0.01095330694341115 
-0.02746411535681431 
0.004734921209138268 
0.01456505726458438 
-0.008909727659273866 
0.003382357720752081 
-0.09226782822695087 
-0.0346737803162764 
0.01066928364432471 
-0.04436402291495183 
0.01962446256749527 
0.02984501264869822 
-0.03146508772568541 
-0.01326394120869239 
-0.007573668342754766 
0.02175982508494022 
-0.01354823716223408 
-0.005405085473669394 
0.07629330619224328 
0.004501833010612454 
-0.02415690248617301 
-0.02140421085851415 
-0.03135272801815837 
-0.01073784440413912 
-0.03281721970885644 
0.03491527436852731 
-0.0613857359778091 
0.01654032442384236 
-0.03682408866416378 
-0.07993955714278093 
-0.06557432408039877 
-0.003967159245677674 
-0.01226553988881172 
-0.003371312036160682 
-0.03035210569788745 
0.016711177258712 
0.01504261120946303 
-0.03579907281041857 
-0.06161034635749977 
0.02829875625103914 
-0.06306448305753208 
0.01808222376406858 
-0.05986832864429622 
0.005578048258958857 
-0.01277933697594352 
-0.02363303782057992 
-0.0934065365742596 
0.01600035710821318 
-0.03877123840012701 
-0.01361569477023673 
-0.02021111729303086 
-0.0056887208124983 
-0.01437986836960602 
0.002374017334426609 
-0.0008975523279786978 
-0.02770572635913717 
0.04392162521379865 
-0.002518981182624962 
0.009175225677669074 
-0.0003845571581985903 
0.02698377546064905 
0.05351611049753492 
-0.02831587596647271 
0.01419119818442857 
-0.05546183180940443 
-0.007070590196774369 
-0.01060512437696031 
-0.08067338838918922 
-0.008074382311263747 
-0.03100213267348404 
-0.0239560335138038 
-0.003296610619863422 
0.05853576442028192 
-0.04624672848098762 
0.03328674680014369 
0.006701049829975056 
0.01451614331185091 
0.05380570661237053 
0.01573426768813425 
0.005801672521798271 
-0.03568509285542946 
0.06194727719342604 
-0.006641878662570691 
0.03477218924845078 
0.0571680013726464 
0.04762958500873439 
-0.0149078299453478 
0.01155314896865842 
0.08844360854358634 
0.05340224623606462 
0.01444708225356407 
-0.02836262339503283 
0.05729454643643947 
0.08258388957263657 
0.05826632841072249 
-0.001411363677384278 
-0.06260836626405483 
0.03161650389120152 
-0.04041980559780593 
0.08256089397718606 
0.003305427784485843 
-0.1239020135309299 
0.02177143690573639 
0.03046949666775154 
0.08304581678803258 
-0.1123497437613493 
-0.1279216526056655 
0.006847558575227858 
-0.01997942730452215 
-0.02644994759800903 
0.004853548901563614 
0.0228770581897893 
0.002453605355505234 
-0.009577423577952026 
-0.1136986140564866 
0.001078314279766714 
-0.1149501371690417 
0.1029133633004204 
-0.153222545629262 
-0.2538200364277594 
0.1269362644690829 
0.06788914643050767 
0.06509484422091227 
-0.176116359876905 
-0.05027972021951883 
0.1192296390856932 
-0.001360821014322266 
-0.03825441284855031 
-0.1253181409988192 
0.1221321692013746 
0.1569395912566836 
0.03624825874391533 
-0.1627671740609542 
0.1402843256737073 
0.03500222314629634 
0.1769915497369451 
-0.08673678204204438 
-0.2006621312583277 
0.07715580134933506 
-0.1401129523290102 
0.1579867012761284 
-0.1622735186313182 
-0.07488749156056547 
0.09751797874816596 
-0.09964329890556792 
0.1507644884518091 
-0.03692202135160535 
0.1715478770716862 
0.001978235429464208 
0.1933728441758965 
-0.08657652142136764 
0.04003811896638026 
-0.06743689956026534 
0.151681979516714 
-0.02618160480422946 
-0.1099895341573306 
-0.06213752308334002 
-0.1694363065533163 
0.1873769930767308 
-0.1374369517925852 
0.05365652716559715 
-0.09483186536004273 
0.01149717077570103 
0.1537489306980203 
-0.09784644568492538 
-0.021409334423966 
0.03060801451128653 
0.1932977124451122 
-0.01975853518041341 
-0.01078298285922093 
-0.09542435714364583 
0.2070335140310569 
0.03330612460352363 
-0.1482754859520967 
-0.07570733591907126 
-0.1961901106089493 
0.0002323395771485828 
-0.1165803430193227 
-0.02316265149410277 
-0.1034912551330813 
-0.03594607848661124 
0.165727760256534 
-0.07307145254062294 
0.03534884290533383 
-0.01160619706342333 
0.2699541532163343 
-0.04459258335598316 
0.01422477280289198 
-0.06747127269881965 
0.1675195496435428 
0.05664541373078062 
0.008237374134500635 
-0.07371082455519419 
-0.2534162909536302 
-0.02256934609501858 
-0.1595767894721787 
0.09112213034873426 
-0.1904379500144896 
-0.05508545132577224 
0.1349609175207493 
0.04006634889257029 
0.1412873470418006 
-0.04634607983126682 
0.2991418680452818 
-0.03130576518322053 
0.1017006311205201 
-0.1882470825407904 
0.04949739023117743 
0.1192800555011799 
0.1394664005880565 
-0.06200382376287083 
-0.224959748470314 
-0.02984026534267291 
-0.01639922226559274 
0.1248101114290305 
-0.2053797261101086 
-0.09716396305573574 
0.1661682518612426 
0.1176860223992901 
0.06717140970228579 
-0.1304694344402987 
0.06390518577939705 
0.008686533677751098 
0.09460386381715701 
-0.06772193532819037 
-0.07700473282768555 
0.03733226805998585 
-0.001773506154759759 
-0.1254139277700918 
-0.01888211610690657 
0.07075106271750749 
-0.0227366338930577 
0.0345192607756257 
-0.1160064383758889 
-0.04537448129745596 
0.03320493457844907 
3.239029671667177e-05 
-0.03109218825542048 
-0.07297515581706929 
0.04908871146774108 
0.02288162889454761 
-0.00835193540306097 
-0.1134027204217322 
0.01007246794365643 
0.02753101130635566 
0.1346791847820236 
0.06469422070914417 
0.01710319426372931 
0.03237912578621428 
-0.006676448474575365 
0.03607134921191836 
0.1222247211024093 
0.08036359680702716 
0.05103204157300652 
0.03076323618513482 
0.05259853506837463 
-0.01590718887887529 
-0.02520097610281335 
0.05470283512240391 
-0.05474560740495873 
0.09370765258591102 
-0.005833501723857736 
-0.005591061691364155 
-0.05112170731488436 
0.009097951031707966 
-0.0143982028460128 
-0.003025840356241867 
0.01402936902393667 
0.02039881657652412 
-0.02569167407323238 
-0.01180337755961795 
0.06032905463115067 
-0.02194784716518444 
0.09053613296693332 
0.02867995665316094 
0.01929146021402387 
0.02284815733655461 
-0.03578276382828536 
-0.06970117433363476 
-0.03693112503717266 
0.01475968765245187 
0.02279166653130478 
0.007809278348932639 
-0.06192681298072697 
-0.03410520078815946 
-0.03259616769960258 
0.02292019552779511 
0.03997153657844462 
-0.02064378268204434 
-0.03775598495543516 
-0.05497099989488846 
0.07170472900253753 
-0.03323913575486476 
0.02477280014905796 
-0.01226094925879307 
0.02828542293656067 
0.02956810328028232 
0.04695869905118526 
-0.05058199743714516 
0.002278725180137821 
-0.05314996695206656 
-0.05935077010180734 
0.01810389676189826 
0.09711209330660572 
-0.03678019843720213 
-0.04468153339806806 
-0.03168035045948305 
0.02256851222881154 
0.08228680227547409 
-0.01849689024011255 
0.08226345260115685 
-0.02034538263390807 
0.07029855286984418 
-0.04520354928018903 
-0.02411379372909445 
-0.01961198736242719 
-0.05074392750487373 
0.07606466340655685 
-0.09857644898532245 
-0.08844203742947525 
-0.03570788108437354 
0.07446623429574047 
-0.0643171664603545 
-0.003807213694155724 
0.02989719743541465 
0.04049769612683822 
0.01993976182067974 
-0.01156244306732454 
-0.09152420200986924 
0.0883027737856993 
0.03396813027592033 
0.02616891786663712 
0.01247417398517861 
0.08734803972881751 
-0.04108341569862559 
0.07306318483881834 
0.08451828203152552 
0.03837403560581814 
-0.03294598525802915 
0.02578406635058815 
0.02436412389087112 
-0.06017983575313627 
-0.02371037787095492 
-0.02997868839052231 
0.1120799390953857 
0.1043113602146156 
0.1633344776728222 
-0.02931185984889165 
-0.0274087193701687 
-0.01584632394203654 
0.05613184374369061 
0.05663414111637694 
-0.1189808699369731 
0.05023319868002395 
0.01568073735574231 
0.02760433267620805 
-0.008508263858227876 
-0.06970434096841678 
0.05051498281892329 
-0.06219690131821475 
-0.001530117306839161 
-0.01358480329627832 
0.1391103295691335 
0.04714596821696291 
0.0009603175089372031 
-0.03224528002455938 
0.01462174097193641 
-0.0552971750818161 
-0.04269155338543165 
0.1828644716279945 
-0.1319150688183308 
-0.1306685129511091 
-0.07113190740719687 
-0.0822184339359824 
0.009080639300422544 
-0.09185363828376245 
0.1676665541194254 
0.0134917260951338 
-0.06700287547189762 
0.03276837339388643 
-0.007774532763617975 
0.006517230212252464 
-0.08291437899518546 
-0.01173133964973343 
-0.04034942031681871 
0.1019329815925362 
-0.00595135349150567 
0.02470568770532423 
-0.03164106401291755 
0.05526992345714094 
0.09161869122876691 
-0.261461624488153 
0.001927184262773801 
0.04938706999084901 
0.1411390700103859 
-0.0613478294794556 
0.08550205842959981 
-0.02824585583997186 
0.07417144601924061 
0.02935810513505549 
0.006226597724603528 
-0.06377655620133686 
0.01997356097932491 
0.08771104805139615 
0.08702946758577813 
0.1428788203825408 
-0.1319074725547112 
-0.03626121136986533 
-0.01634903096565843 
-0.2245920046756472 
0.008740214800855696 
0.1205902589824558 
0.1357345143755508 
-0.0008441898236791011 
-0.01577068859450477 
-0.09740275635607479 
-0.03365283351298402 
-0.01400115984387366 
-0.03591395651498529 
0.1043896876448263 
0.107997813913341 
0.06645839910671372 
0.0234157135335752 
0.0537167526219329 
-0.1773454378246678 
-0.08102967876508614 
0.09486730509448595 
-0.1480155344703454 
-0.07927147633648965 
0.0377602184480589 
0.1046199316703165 
0.1573582512522472 
0.1290574282818655 
-0.02478277504172618 
-0.03609840416732477 
-0.04358344817854 
-0.05079861518625643 
-0.04377220902424233 
0.02175030975843345 
0.02534468506092525 
0.0608532449804056 
0.08834825493773708 
-0.1268098669911278 
-0.08105344315163167 
0.07822386196465567 
-0.05987941407835867 
0.02499151166512416 
-0.02885150420138896 
0.05903876978214683 
0.1006592164837922 
-0.006883014160307312 
0.009685109436772787 
0.04016919869543801 
0.09569270189389358 
0.03880764919182478 
0.06470625719077952 
0.06484400391614711 
0.0703485380228996 
0.04086576720883415 
-0.02124318549999894 
-0.08246897111979881 
-0.07131336756555348 
-0.06053848477360641 
-0.1917701517666345 
-0.1074480132677448 
-0.05840571313580965 
0.02500298127924316 
0.1263230121605943 
-0.03064219460221776 
-0.03937937738498367 
0.02807502978713387 
0.02494628791870065 
-0.09356712894901992 
0.06997641418563715 
0.03620428184216531 
0.01675162154697919 
0.0659014561765541 
-0.05318665940078327 
-0.0361379357507273 
-0.05206082229283144 
0.07768454346957328 
-0.06148564640763406 
-0.01048949837122634 
0.02817006546578462 
0.006161102263960754 
0.01854426521117082 
-0.06033409936021862 
-0.006206296693582931 
0.01746246489500616 
0.1027788081393537 
0.02582556585679314 
0.0746675420722656 
0.09710161285707015 
-0.05952078868153624 
0.0735366032547121 
-0.01782981362452458 
-0.002817263339721654 
0.121631310635534 
0.03635866617415745 
0.01528310326788797 
-0.07623516265460191 
0.01151480585371432 
-0.01747686939251223 
0.1280267693035927 
0.02458112973990436 
0.06461615834296626 
0.1201754448527718 
0.1647300319477504 
0.01453299729406489 
-0.1267494893349331 
0.02761879344659428 
-0.05444852481004975 
0.08840026630653035 
-0.08019770563359192 
-0.0142406083130577 
-0.08009116274033416 
-0.03243124687667705 
0.01895527520416512 
0.04786386899805931 
0.03727280434554748 
-0.08505268426356988 
-0.05782940381590666 
-0.01774666158777673 
0.02883303909505112 
-0.08978984288787946 
0.04324909682133308 
-0.001185892401453897 
0.07732404900936654 
0.08394139858738445 
-0.05933880191051382 
0.04317938828542801 
0.05733244074700729 
-0.07267453332303001 
0.01646958399265988 
-0.05457536965920527 
-0.0580023319424221 
-0.06179791393303468 
-0.04317986210121119 
-0.0329115487410585 
-0.006350239945695867 
0.03433158944963755 
0.02725539904741004 
0.04105960084613937 
0.04885951137332933 
0.06565657743769304 
-0.01710611310826883 
-0.01832551509866703 
-0.01428462359279784 
0.07283384676469351 
0.01879795109469972 
0.1272450115476742 
-0.01951774096732956 
0.0475183744075127 
0.009479955643194734 
-0.004948913257675313 
0.0382020009428034 
-0.04240009731686106 
0.02648571548658954 
0.002632364224669071 
0.04001478304731786 
0.07052299978196852 
-0.01861768865274169 
-0.003859345478883182 
0.06519091179367496 
0.03183261479076382 
-0.03109471573558161 
0.04151679578982211 
-0.01426879646611568 
-0.04164488345854733 
-0.002494309546059911 
-0.1333445501360734 
-0.07584477507470644 
0.01010667358243938 
-0.02463105975347477 
-0.03982927988104423 
7.140181281745359e-05 
-0.002172327472457582 
-0.01782194130716142 
0.04371669904214378 
-0.04101536342257938 
-0.04031425211817342 
0.02948752490740801 
0.02931589428718078 
-0.02514709328598121 
0.1089989260081226 
-0.05888795073210121 
-0.05042175497166269 
-0.01715444385432088 
-0.02933627981379113 
0.06218811235023405 
-0.07259182099021592 
-0.03173445345704087 
-0.007888300849553618 
0.02359588607048286 
-0.07093257944602532 
-0.01121640624576424 
0.05204145758043756 
0.05872986291710271 
0.06551769359914031 
0.008247642277380847 
0.09764710688047945 
-0.0303038034280862 
0.06683387419425665 
0.02005313408528521 
0.009705791777166328 
0.004838476269193635 
0.0318190882645988 
-0.009951342215973992 
0.06048492659694249 
-0.03341678093193272 
0.03140808040289288 
-0.09394312346265971 
0.08375128623214995 
0.0212191989121582 
-0.002200348024300318 
0.0551020529165514 
0.05699649127893516 
0.02805882431343245 
-0.0350509424245486 
0.08095114360365112 
-0.001345158959943031 
0.0204337479727295 
0.009024173306988417 
-0.08477412830481695 
0.04415689150397356 
-0.05958803033744945 
-0.004609159131893397 
-0.1507327556365543 
0.08675288921182708 
-0.100421826262997 
-0.1249641501306047 
-0.03223731777443554 
-0.05331642894324886 
0.03710244588276954 
-0.00193021106847222 
-0.004110397872182867 
-0.1365750435259319 
-0.05718688660572702 
-0.09207539571707925 
-0.05297437471564522 
-0.001814355056069672 
0.0873714883794532 
0.06453468752854956 
-0.08105097625124251 
-0.1440998904785767 
-0.08551620473895352 
0.07645785571453885 
0.06046004334430282 
0.006764615034818722 
-0.03863557073951847 
0.1255882252996854 
0.1106665363200291 
-0.07579268356556314 
-0.04969209683351816 
-0.084159914544056 
0.06944098407516315 
0.06426850572219731 
-0.009323650682228478 
-0.003936465058216466 
-0.04230821976549955 
0.03675981083535611 
-0.002297923660185435 
0.007007834519922279 
-0.05907533584978861 
0.01907017677945627 
0.03287185822647037 
-0.003514580505905385 
0.07288552748251953 
-0.05252581382801717 
0.02675769675993592 
0.002465512583036688 
0.1259472110494535 
0.01616590754200598 
0.04222870279101269 
-0.01704932634846654 
0.02933202663076505 
-0.03626013815669622 
0.0002947703335932541 
0.01615468670744759 
-0.0407146416278022 
0.003429386032692108 
0.00726136764886855 
0.02658158449619206 
-0.1495673753150101 
-0.03689034632812069 
0.0450441134981726 
-0.0234575114467907 
0.03390684707244038 
-0.008281381031031132 
0.09041396819894632 
-0.00950422778161574 
0.03116838786362569 
0.03846168804209448 
0.07936996049587659 
-0.08432927543488732 
-0.008405445608576083 
0.1296861163955065 
0.007446871770507196 
-0.004944198007916899 
0.03936384546175733 
0.05908140300658232 
-0.02200558643368971 
-0.06634770365901499 
-0.04186202694136711 
0.03067372934263765 
0.1335651515868738 
0.0294340943540451 
-0.02775617553862696 
0.01943093297861345 
0.08043090863982887 
0.03928083377350058 
-0.1155672485840434 
-0.02713933920651627 
-0.03462974932965305 
0.03417109988583475 
-0.1051052140281018 
0.07896694208036549 
-0.1110322832651219 
-0.01640541703295841 
-0.006509608703545383 
-0.03492372261142126 
-0.004087582563924665 
0.02237233709101288 
-0.02444445222187237 
-0.2156872943860103 
-0.00490679974807522 
-0.04050331124179468 
-0.02138837978505527 
-0.04358069788943657 
-0.1486466193311423 
0.04613194243986047 
-0.1066713005648421 
0.04969390361059366 
0.07033089148927277 
-0.03505547238903496 
-0.01315320989660465 
-0.01519789647039821 
-0.02409802173193894 
0.005072002751849439 
0.1316184892989193 
0.009605995255673492 
0.02712032622920423 
0.05796721901720055 
0.07401412183688019 
-0.004251812912083698 
0.09634970895439458 
0.001012385397657842 
-0.06292724017982974 
-0.06205562278160478 
0.04787405614550067 
0.005099860307190168 
0.008578939320057282 
-0.07730069022814616 
-0.04289288730066552 
-0.01141975930914609 
0.002399781576021195 
-0.09560005948977353 
0.0127014367806162 
0.1015558103459203 
0.02172997355030464 
0.03719679734794588 
-0.01437074825859417 
0.1360201380136111 
-0.01461307275800544 
0.0371417003111062 
-0.006563905541791561 
0.04086709603235411 
-0.1616392891199406 
-0.06390227837737511 
0.05681337642440529 
-0.003717585057786393 
0.04089705813281765 
-0.01924074218792746 
-0.008864627414145392 
0.06634184082329019 
0.004006131340121112 
-0.05014074003920344 
-0.05357284043015018 
0.05145603815204511 
-0.07499186073137584 
0.1159572766585428 
-0.02498070519328053 
0.02740916860752951 
0.04521305880368504 
-0.03860317044439213 
0.05086754789497506 
-0.02200690727483064 
0.1254965722018775 
0.07946056760412444 
0.008678376754207238 
-0.0224641883235284 
0.06899465174235472 
0.04023767612030659 
-0.06896690805823161 
0.1046839960696677 
-0.01740294134751033 
0.08286440329100431 
0.01971606081419907 
-0.03719785110999981 
-0.008578423163506294 
-0.01703427262129076 
0.1902340713741292 
-0.02876645091467621 
0.01416460018239293 
-0.005976345880904628 
0.04529658276802848 
-0.005342016061734668 
-0.00312350967857345 
0.04705461508869543 
-0.02387351327006302 
-0.03016252038628065 
0.05357808388713807 
0.05789289442670779 
-0.09979461141857733 
0.0170806150140023 
0.07143662334679937 
0.1136894206682171 
-0.0681262370095099 
0.02124211923065566 
-0.001912619218440959 
0.02233793240613658 
0.07673679353260625 
-0.04708928845530783 
0.04333177200054335 
-0.01057805096235782 
-0.0230558750707424 
-0.07144732478125702 
0.03541705116063282 
-0.05289815253800422 
-0.02220393681447569 
0.0001644399108251805 
0.002735547987874679 
0.03114677198132878 
0.09194042733322851 
0.02164263322076031 
-0.02490663098599288 
0.1293525357796987 
0.04180689584898652 
-0.01526303574324939 
-0.004204914030213216 
0.03941694134354989 
-0.02906387754580241 
-0.01815408883324153 
0.0636156856828772 
-0.02126866568505835 
-0.03122706444870868 
0.005641323878979101 
0.01218728079975109 
0.01958191459361652 
0.1174929915932418 
0.0841475653080991 
0.03609353161593494 
0.03509601903666584 
-0.01989537554031417 
-0.0512531201951078 
0.03536289970550133 
-0.05282808375405035 
-0.03979432336501058 
-0.04614526551469299 
-0.002494047118568454 
-0.06492962894541229 
-0.08276052864129214 
0.02535838260613288 
0.01421816829357878 
0.03492344637084634 
-0.04389792222343249 
0.07596739616899484 
0.04557940581149729 
0.04005567647160062 
0.01439537977208137 
0.01145860461913331 
0.09839367680508025 
0.02405489859276148 
-0.001130733901350066 
-0.0471627904896678 
-0.05050641380267742 
-0.04525722087636092 
0.00215897883158157 
-0.1353510440986884 
-0.1562213931906525 
0.04639715187752497 
-0.06644559012942015 
-0.006093245952203043 
-0.01666533624192139 
0.07160165581135508 
0.05004469530760653 
0.01657311620261628 
-0.02447390275199583 
-0.08773493666732322 
0.06568375431047407 
-0.05808058774308022 
0.0323833963089807 
-0.0976215059196731 
0.08870638115040924 
0.02621556863162831 
-0.03494381600175316 
-0.03201527216692682 
-0.01536640624297158 
0.06823819245560141 
0.01415944012486841 
-0.02473274240872957 
0.02708709871188457 
0.08918945740731155 
0.1000259502632595 
0.01263858408550233 
0.002823033157698799 
-0.008958239065166686 
0.1418550637083943 
-0.005551391045072551 
0.06862829401245614 
0.06789947519252364 
-0.08216023064683584 
-0.05181338669174053 
0.01084595910560222 
0.1894505366061169 
0.04122401187281163 
-0.02037528898988509 
-0.001314045568006235 
0.05809652965062784 
0.1416104392611403 
-0.03863526706093767 
-0.06142881615874344 
0.004420358199620182 
0.0949985112226009 
-0.01880821881548059 
-0.04030835222422113 
-0.1353999458158829 
0.0875378394949556 
0.07510724627143457 
-0.09659574922151744 
-0.04238686568361902 
-0.01001055726184033 
0.1073456795210241 
-0.05602137089776693 
-0.01391541661217027 
0.004878692224218131 
0.1183623564449811 
0.04872739055104498 
-0.005506736148898465 
-0.04982890935363218 
0.02967249808175276 
0.1018520802302679 
0.0322605795866777 
-0.0327065438939691 
-0.05536128968941251 
0.01652701566620151 
0.01676471461178241 
-0.04451366274289367 
0.06794825121058072 
0.0282357317693957 
-0.09613521715980619 
-0.05685112362241842 
0.03973218763898033 
0.07155606303763032 
-0.05823070609588168 
-0.01685513193721277 
0.1146095224965515 
0.1431156205331901 
-0.008699219336811963 
0.008417629836565887 
0.0721278473567971 
0.0122117452368943 
0.08234478326966173 
-0.07302117916934908 
0.02320246877896425 
-0.02363339476502993 
0.0121981985816225 
-0.120493793674476 
0.01170839727745661 
-0.05075125350996924 
-0.001898883780461375 
-0.001053465376487408 
-0.1277850465475077 
0.03752340507615849 
0.02554258952493184 
0.06578014985306127 
-0.08354519931441964 
0.02873052894518311 
-0.1385422137556298 
-0.008683592244542617 
0.08827146506596772 
-0.109763164802596 
0.05169132653367114 
-0.1183395238945461 
-0.00800658416499018 
-0.03472129057938089 
0.04572331259511497 
-0.01952778137256541 
-0.04554107396105866 
-0.01234214335491595 
-0.08763858742368752 
-0.01556546771340258 
-0.04527753692359861 
0.05369215453062461 
0.007260813247197174 
-0.02943156399130405 
-0.02645945925216383 
0.01252269693233204 
-0.01731066252988593 
-0.01066892706180178 
-0.03825031953065695 
0.02098307377147294 
-0.02236230701670111 
-0.07274774614172616 
-0.03785242728365611 
-0.02168206223238543 
-0.07034687015941847 
0.01270073368256464 
0.03065654764790926 
-0.02737717877708342 
0.05742116880807498 
0.003095837026377988 
-0.02559345881365009 
-0.01005814155841737 
0.01444840648392675 
-0.02083267166849905 
0.05283887184963058 
0.00515269837486773 
-0.06734322631948222 
-0.03118722982986626 
0.007690104171148474 
0.03733442967482647 
0.008772409269645062 
0.002239136901755909 
-0.01540663816338072 
-0.05959318631174314 
-0.02496979791367254 
-0.002829462743705441 
0.01563129872123275 
-0.02265453235770851 
-0.01218078133293017 
0.01090505682837341 
0.1232412899095457 
0.01861080920919101 
-0.04391532491717303 
0.09891451447151547 
-0.09249694710745908 
0.1033224748180393 
-0.03718759049785821 
0.01753140672510443 
-0.001489419579148712 
-0.02214283370643394 
0.04530207135118695 
-0.03980543149425486 
0.0619346207233054 
-0.03049345874553314 
0.008521713410284498 
-0.03885965146985112 
0.0698243401278598 
0.02286368889090461 
-0.03019257632592558 
0.03941968243593266 
0.03839931507087017 
0.07550995621398902 
0.09082162890531524 
-0.03143313620809771 
0.00363148431567025 
-0.05971378854710276 
-0.08029067923445551 
-0.02486604459466422 
-0.01181356883039291 
0.04678088434005574 
0.01018713175754983 
0.09776216984232015 
0.0578882261600054 
0.04916723664120541 
0.01654395721812267 
0.001924423537500619 
0.01407216394014096 
0.03081171374738692 
-0.05131109567261442 
-0.02098445493804779 
0.0436882688268922 
-0.04711912310098541 
0.04314894955948718 
-0.07291504197503855 
0.01622240349477471 
-0.07675299830003597 
-0.03112775903729795 
0.02217876913344866 
-0.03706189299281194 
0.07172586755448521 
-0.005287138407100867 
0.02332013108510825 
0.02190074054223694 
0.03305899171841889 
-0.03689745527908218 
0.01448371496788661 
0.004758497145361576 
0.03953787306633975 
-0.03433059462391835 
-0.04785604284499302 
0.07851641119517927 
-0.02292899841729945 
-0.04358036812500161 
-0.0205609493424649 
0.01514992367406611 
0.02436145386860383 
-0.031840469582979 
0.018872227264638 
0.03847619746083904 
0.008783701118122425 
0.002603370144311033 
0.02153008842117709 
0.04697203792149312 
0.02556641731220753 
-0.03875473101621246 
-0.07498816803712696 
-0.08027595130269642 
-0.001995973380482098 
-0.03903610028729926 
-0.04927008409199105 
-0.0009093600558488095 
-0.05474952736355261 
-0.02209052095719842 
0.03278425805846563 
-0.06447239192994644 
0.002800971704292818 
0.05137819508127834 
-0.02257262554158168 
-0.003158785694619803 
-0.07659976788436951 
-0.07823511219745265 
-0.03609885407429661 
0.01979485390577119 
-0.06695200250308642 
-0.1763348926877504 
-0.09869093874872635 
-0.02738371835849632 
-0.03171965864633741 
-0.04977846499129615 
-0.1483847560336262 
-0.1168723623613166 
-0.06645710956063119 
-0.01237909180361581 
-0.1261686451853484 
0.03616934829138179 
0.03293975393425765 
0.03185413811078225 
-0.04383145167731299 
0.1091921936361012 
0.008345602104577422 
-0.1094153998399646 
-0.01199138231359409 
-0.01213146917853069 
-0.0337602792315813 
0.06536146919523413 
-0.04750568794024214 
0.01619927786757039 
0.0173206761344768 
0.09477819593816654 
0.0189564861469317 
0.006006513184615643 
0.0331983741808728 
0.1277139701283695 
0.06206710165339569 
0.06517864672934763 
0.0573091573780094 
-0.007128325976504631 
0.08110219270416985 
0.03015991329650173 
-0.006829037146264501 
0.04094873030883589 
-0.1224942436256661 
-0.0561775207110642 
-0.05875691969218941 
0.08942762869341633 
-0.04854371924424522 
-0.0512749332157429 
-0.03230709328941885 
0.06980065188761912 
0.07950246260067136 
0.007051002428296482 
-0.04399256650270744 
0.01189974346351528 
0.1777583710114759 
-0.01145386131808336 
-0.07483001120460417 
-0.08016410693511954 
0.05550490781912768 
0.05066079586366504 
-0.1121704456846379 
-0.07220550683759294 
-0.05099239184257621 
0.1571155236300867 
-0.0009456191801489569 
-0.02786127997146528 
-0.02398169007899876 
0.09000083711369959 
0.1181041925564038 
-0.05847855447464651 
-0.02061513678972504 
0.03781891187828062 
0.08652166318663368 
-0.07539573561356898 
-0.07204456270500524 
-0.06680254111822076 
0.1066948986549112 
0.04319637801387231 
0.009246034963141019 
0.08334809851265827 
-0.04397050123113325 
0.02788312742288037 
0.06344046384312257 
0.06009838319895418 
0.07671213022184173 
-0.02811454190063068 
0.03522925721101199 
0.0319716561753466 
0.1179899059645181 
0.0460164531671341 
-0.06594635906602998 
0.0597782059858418 
0.08463049261418316 
0.03481119043572198 
0.07003720769569892 
-0.03964167828151226 
0.01278481573264308 
-0.02649148162215715 
-0.09486391823703903 
0.03378518592242977 
-0.07795623066887938 
-0.002900763893903071 
0.03991429004101346 
-0.1737579800362422 
0.01709466980349781 
-0.01109216610748753 
0.03748684398602182 
-0.04526410683569427 
-0.03752440412087917 
-0.04172228016835204 
-0.05555100153783884 
0.1083233286175688 
-0.04155738118069536 
0.02806628167895167 
-0.001687692832890957 
-0.05766272473942073 
-0.04686505452922389 
-0.03836951341301087 
0.02232403962918699 
-0.04226154260655277 
-0.03074555305625458 
-0.08759295950653848 
0.02627865122296581 
-0.02181885539580145 
-0.004058366951871007 
0.05174588124460415 
-0.0547072650998423 
-0.001551535683574028 
-0.06670023272618097 
0.01013101004175915 
-0.02425535354414185 
-0.02054960842713937 
0.01963218468330911 
0.003597621616276566 
0.004494937151287338 
-0.03636800057805507 
-0.02933174073130808 
0.07469283836373501 
-0.008609115362897941 
0.03217005198040195 
0.02554140311677817 
0.08297144443170355 
-0.003427215665793232 
-0.01159308070127175 
0.04516534103554697 
-0.04053084442979624 
0.005033249837366422 
0.111284136672304 
-0.02280690491745347 
-0.0135176787098245 
-0.04924477426333293 
0.03082630596736121 
-0.06785604094212121 
0.03129801508743198 
-0.08585813999083593 
-0.02203594625188091 
-0.1083317661793705 
0.007566129037559006 
-0.05280862453468036 
0.08854001242603136 
0.05276420455399342 
-0.04982299583848237 
0.01372339277396552 
-0.03730935820813937 
-0.06062146113777067 
0.01193516378784467 
-0.0109189189129739 
-0.09732524232722314 
0.01964462880836144 
-0.06109827073239838 
-0.000318804282671401 
0.02855379811690865 
0.008465938111823716 
0.03651641787570174 
0.01306301514470701 
-0.02839017431550151 
-0.03257201504834742 
0.0465834608231568 
0.02236758032488981 
0.05297901020754057 
0.0008538595914211037 
-0.0237103885730216 
-0.08624521093477312 
0.02013258547357979 
-0.02571160621277298 
0.05276825071628001 
-0.04268747885733024 
-0.05837452967459345 
-0.01175849210256434 
0.001585519093783466 
-0.03406982764535092 
-0.004546171906192089 
-0.05633036901392942 
-0.01277153695988442 
-0.003822586854989434 
0.07667557224841448 
0.01071203059872905 
0.01603731229719105 
0.01397598908952509 
0.06054112738354232 
-0.03290160968225726 
-0.01685050545567724 
-0.0219945133850213 
0.01701573286102976 
-0.07636519903044064 
0.009577276126728889 
0.0006302744632952973 
-0.03300514111269513 
0.009598662485257215 
0.0773454169312522 
-0.05002306542446955 
0.01975967225649588 
0.06467816698626494 
-0.009365676512092309 
0.02026142835462469 
-0.02107310013907249 
0.1262737503870629 
-0.04078077607373556 
0.0005446880467978361 
0.05798612341926197 
0.004747360491244467 
-0.02987117291894254 
8.967777157166911e-05 
0.01773321238019435 
-0.006812300868177154 
-0.0280391950398209 
0.0445303602264035 
-0.02864690580799779 
-0.0166564326556921 
-0.01935078841786858 
0.00247921136935135 
0.05646208051770179 
0.04193343130440281 
0.02669293307805774 
0.01606560748900563 
0.09248830290637693 
-0.004363794806250171 
0.05724290855453475 
0.03666443697105963 
-0.009591469086903212 
-0.02231326157861791 
-0.09690619528446043 
-0.05442327648362955 
-0.02853797065773971 
-0.04886831226365235 
-0.1268765407496401 
-0.05829073161413464 
-0.01224887331997886 
-0.0003682679053823324 
0.03391665669430732 
-0.053138605349026 
-0.007214185464859707 
0.06517663764228022 
0.001397562712252265 
-0.08064741369200915 
-0.07973551652193926 
-0.009572136791911651 
-0.09153401659270469 
0.01516435660311004 
-0.0318274887525669 
-0.05439911482688699 
-0.03495652423666531 
-0.03782112658604478 
0.01366380019771054 
-0.09255604018843354 
0.009873288070675303 
0.01835021007167098 
0.07065918706170396 
0.01444535149697823 
0.03119394267720306 
0.02206874291492151 
0.04158607643022318 
0.04391001415462783 
-0.07116909483141887 
-0.00392121730355623 
0.003316698615049045 
0.08315669835220846 
0.06730208817500323 
0.05722049827747389 
-0.04471351061919607 
-0.01386223156915602 
0.2012628678021487 
0.06317279027796116 
-0.06544875180288259 
-0.07228797389292424 
0.1009529915586202 
0.03622395152975513 
0.09156176824001432 
-0.1006396487548415 
-0.05618651987643449 
0.05136089754244513 
0.1021735061606521 
0.01986309110736056 
0.1155188351919494 
0.009131208815462368 
-0.08981545909514875 
0.005893910308422699 
0.03992947011750439 
-0.05257433641417791 
0.04876895647874322 
-0.002613006463253908 
0.01685113570997135 
-0.03757929563028505 
0.03745736304942607 
0.09604632374231643 
0.1331503218802824 
0.02330939303516814 
-0.05929195346213345 
0.0308628982064388 
-0.1140434342430688 
0.04030723823025919 
0.07724712979436629 
-0.06930498603926398 
-0.09322332988279435 
-0.006279036906028109 
0.05953314731249237 
-0.0754678490655937 
0.06770377494153219 
-0.03296354867682169 
0.03701372705097482 
0.08421402136753899 
0.04250058860695875 
0.0342818477157561 
-0.0114116442849142 
-0.01785217478410818 
-0.08442741627820587 
0.04305802751035794 
-0.03603281112342922 
-0.05049064197527631 
0.02159116285422944 
0.09072662082316139 
0.09340513023622737 
0.09490571583202663 
-0.06211062369514257 
-0.0337829794816404 
0.1598028972221755 
0.1304592488001816 
-0.06884139071461162 
0.07590022824437026 
0.089614228933004 
0.1286780951661962 
0.07628494241925612 
-0.02052761467508713 
0.06435886941992901 
0.09435927455646068 
0.07332887679732661 
-0.07488703699370074 
-0.03134855590774681 
0.001070341088298282 
0.01753344793909202 
-0.004503892011838932 
-0.08645026119977944 
-0.07441327646278417 
-0.09388847403391279 
0.06739352632105042 
-0.04682009326588172 
-0.01257009783290329 
0.04481980747854896 
0.02804772984786141 
0.009691404971039409 
0.05762765650045642 
-0.1050874060410624 
-0.02959709647462869 
0.07433351379383679 
-0.03332933145824132 
-0.03780217510821517 
-0.07673084555642196 
-0.02941836156820788 
-0.01053307537157167 
-0.06148674110409112 
-0.03236892715052794 
-0.08368383820058056 
-0.06652089674192471 
0.00326501888684709 
0.03516608790314922 
-0.0301269091467687 
0.01040473588589585 
0.03509016889819459 
-0.0533921300316852 
0.04648120046244088 
-0.1664520083582305 
-0.08606439301776544 
0.1096374985836443 
0.02003850599909613 
0.04061350848281094 
-0.006381241639402461 
0.01563165712513166 
-0.03827895055734159 
0.05258022310569105 
0.03003527491164779 
0.04229633525075172 
0.05025074510585192 
0.05637115366748598 
0.06233449650333105 
0.07134719384617706 
0.02051991925963765 
0.02359406427451221 
-0.002007238292650826 
0.07207508243384811 
0.08841543910011217 
0.04222929538658312 
-0.06885035547424595 
-0.06452178568307622 
-0.03107153123461743 
0.00838669715794872 
0.09255045435361181 
0.00295597846918445 
0.02790076343603386 
-0.03152965337676772 
-0.002529323567490707 
0.05273430025784186 
-0.008720728939178508 
0.03495508112876805 
0.04989111732063709 
-0.01580748575858199 
-0.01001380009250205 
0.08606635631124458 
-0.06366329813665378 
-0.01138845210700493 
-0.05206508549149177 
0.03008410174225555 
-0.1017004851824336 
-0.003199758175629185 
0.03476692375639741 
-0.02354265810650893 
0.04684820605765318 
0.00876695683335557 
0.03901213630224877 
0.03374841403832596 
0.0001297312438887541 
-0.03575728936135207 
0.006004830591682211 
0.01013352608359361 
-0.02894654761986108 
-0.02444599695117565 
0.06168034275288042 
0.1261222227461142 
0.03182477470004153 
0.0593323095522453 
-0.01490422246112851 
0.08257907046348675 
0.02777467622393839 
-0.03157902265626009 
0.03306779718629995 
0.01513549473954345 
-0.0774083390647002 
-0.003182928123741334 
0.05715137638295657 
0.0329953300216437 
0.06917868394535986 
-0.0006581738790834526 
0.02278759818371949 
0.06176398560672279 
0.02153197157742614 
-0.006130467172201066 
-0.03232941610394852 
-0.01449940570479793 
-0.01958447470185584 
-0.04241343721842876 
0.07455577069152181 
-0.03777611398485443 
-0.0005264861362565688 
-0.04176854943470652 
-0.02353421880087048 
0.03566624305062319 
-0.02844734766268054 
0.02619332523273649 
-0.04679549399918645 
0.007843556365478503 
-0.02411951684762438 
0.001256312748092997 
-0.01820047541273434 
0.003474726928282895 
0.01701861940530984 
0.05277225270794154 
0.04467130077327628 
-0.01270705754152427 
-0.01625866296472249 
0.01187652852139061 
-0.005372095082073785 
0.02209785947080845 
0.06074219883923574 
0.03419323553789246 
0.04550215787092942 
0.06512425972327125 
0.00780328444317002 
0.05129392795347108 
0.03083885132433373 
0.07535467170039219 
-0.009082669828956351 
0.04130344365583944 
-0.03121887363652963 
-0.08632120772527103 
0.01694050108123924 
0.02446578761151929 
0.03372658099371131 
-0.07004422694225781 
-0.03759382752634943 
0.03247895280560484 
-0.008859425988035742 
0.04112903371602371 
-0.01004589066825782 
0.01385664190615435 
0.01355259265939067 
0.05141595799223711 
-0.02714391773197776 
0.04621097314720968 
0.02749424576640774 
0.1040508027521572 
0.007149158515644088 
0.01652192891867617 
0.01650363509412317 
0.02754031374437878 
-0.01874442271732007 
-0.005453802407381324 
0.0008898134624637403 
0.0975881128766355 
-0.0009528095971670364 
-0.04513069760529206 
0.06067222518595891 
0.1147612219582965 
0.1139378913165748 
0.01147229776273721 
0.04517461133761101 
0.07109350445840271 
-0.005888621941850797 
-0.00532424039763537 
-0.07702810232630582 
0.08746229484071746 
-0.02067602427903195 
0.02535815974333992 
0.002065434836405494 
0.01728076680796008 
0.09492522405208263 
0.05242729838355023 
0.003137600500829158 
-0.1372100060485909 
0.09274656140014469 
0.1327101467484068 
0.01102240641809162 
-0.06102350464532808 
-0.125298295391857 
0.1356287695388109 
0.1048624913077832 
0.03781433657019068 
0.07492957668103407 
-0.08099252696254212 
-0.06391312378036161 
0.03373587020001289 
0.02040676242415118 
-0.05928576630801793 
0.03655929825016225 
-0.0217479801601782 
-0.08194894854037151 
-0.02728355694952154 
-0.03171519383613309 
0.1057071245118396 
-0.06522803941007589 
-0.06793784662355158 
-0.1374809031514511 
0.03608738076815949 
-0.0784739960593991 
-0.1475215208025258 
0.1221090549637356 
-0.07621223385496442 
-0.0952106706241698 
0.05836806906883677 
-0.07735361062156451 
0.06468308579642834 
0.09814672651447827 
-0.002493360826555708 
-0.03538662168888394 
-0.07878410060674396 
0.08242625455228943 
0.07055295806651174 
-0.06318970109481996 
0.006669510892065325 
-0.1209079381965597 
0.009247016142493155 
-0.01149157296709507 
-0.005422996369592424 
0.1007586502524739 
0.05075319987975134 
0.01956399539998447 
0.02794506570150664 
-0.07321681019408166 
-0.07411279553462098 
0.04293167428909486 
0.04492618677913578 
-0.111564760796035 
0.001598183830353254 
0.09634586284327711 
0.1544121604634377 
-0.1453061474217964 
-0.0002333173499372063 
-0.009379428536225018 
0.122285591125353 
0.05396499348383527 
-0.07399079735404061 
0.03669044729318052 
0.1066547386650276 
-0.0332639612354822 
-0.001535914706867247 
-0.01352058701233514 
0.02616549170930358 
0.01920339031318777 
0.03651417738995855 
-0.0820015718194833 
0.01370750989110427 
0.1452563225417842 
0.08459737861679334 
-0.02727234844097545 
-0.0538915092350517 
-0.0422901026347825 
0.01245895053215744 
0.09039515237424411 
-0.04794715459875518 
-0.0003066906780849582 
0.009075993194540319 
-0.05017089838400331 
-0.0868593696333438 
0.04913095844030056 
0.0746442963183354 
0.0565110295640862 
0.002676578841591683 
0.01968843316210855 
0.01535994714705583 
-0.01200209208601224 
-0.02452872575774603 
-0.0829793778119147 
0.1003499791539644 
0.1066696644231885 
-0.03020318155563072 
-0.003480606975403157 
0.05218611355809942 
0.03154038760856555 
0.01514408056992265 
0.03676483409783866 
-0.01210787121548487 
0.06452904415135961 
0.04224886080887296 
-0.05692280006004121 
-0.00239763878783518 
0.02284366930296081 
-0.01695383397615381 
-0.001520129614782701 
0.0755134605092663 
-0.01242511735027202 
-0.0004916112252447196 
0.01247875739191193 
-0.04063218950501459 
0.04351151118992336 
0.06510052944715655 
0.003336579993494635 
-0.03391427428991577 
-0.003695391972905616 
-0.02198938979400105 
0.01407389291441543 
-0.04073527244360617 
-0.03213558065923387 
-0.009033118665152802 
-0.04513924262110555 
-0.05248281577411375 
0.01320879077969672 
0.02401196065046346 
0.0163901006215809 
-0.03937938990107569 
-0.02964653962219928 
-0.06456954163544877 
0.0002786052018072263 
0.02035061428119615 
-0.03095852301411177 
0.06372190293548013 
0.001210352002760192 
-0.007306062303280086 
0.04539637788540886 
-0.00314883371636433 
-0.04146842653382939 
-0.03348558117741036 
0.05370284355391151 
0.05857962174480258 
0.07683513525926343 
-0.006482929450043382 
0.1031852499192401 
-0.005443818802010265 
-0.02326792039901368 
0.01555399965323351 
0.06006886609944763 
-0.0009591243891524417 
0.03673278867803646 
0.01187428489211262 
-0.08721964432078104 
0.08291832206292517 
-0.04233141211280688 
-0.1055576900505385 
0.045254122719676 
0.01024746397430897 
0.002629629585631053 
0.004559898735823458 
-0.03260620654433981 
0.01827033799943015 
0.01674830789214323 
0.06037325551837389 
0.07204939236439285 
-0.0220634003825751 
0.01909019227793697 
0.009705925029751091 
0.0491389206400961 
-0.04616163914105384 
-0.04150069937548116 
-0.03290449265666744 
0.05805087475161338 
-0.04057640068885447 
0.01532299577666673 
-0.1047598955623595 
0.009250197741544309 
0.01249297678143137 
0.002685097888468826 
0.08948088748249286 
-0.07926906178492056 
0.02172767635950258 
0.009655364830211158 
-0.06787992411678466 
0.01830343583283214 
0.0004116151361413405 
0.00920252666280855 
0.02889574919345487 
-0.01119720389977992 
-0.01509074294508758 
0.05797579679780865 
-0.03430962822257329 
0.03573625408778577 
0.002758595284644126 
-0.008533265777544806 
0.05272067930718 
0.1250000137932355 
0.0758988145898065 
-0.02483332318953212 
0.06089794569418264 
0.05278068306344108 
-0.05991063671951698 
0.05046946302992657 
0.1067473775167846 
-0.0189999196725259 
-0.07694123963825562 
-0.1103827011741892 
-0.09200906381253129 
0.009014314403449179 
-0.01948645681964304 
-0.02124992809646058 
-0.08662102972115023 
0.09404577218598259 
-0.0509306211027206 
-0.003793110333244651 
-0.09916259046349603 
-0.03540347917712311 
0.08013441810022087 
-0.08060613680839049 
-0.04499735690989613 
0.08018367805253634 
0.07719987211881051 
-0.04126805159411983 
0.006713512661480116 
0.04569738958985747 
0.09152473143482708 
0.005790348588373303 
0.0316879835316439 
0.01331590873902703 
-0.09244249386484472 
0.01040034296106794 
0.02496673208050752 
0.02679871395718206 
0.02688747110557011 
0.0545154348770529 
0.01971410398073892 
0.03247324166605685 
0.0699802442131474 
0.02863009453276498 
-0.04451196232748252 
-0.0141958196756978 
-0.009960481693871323 
0.03788355581770239 
0.03533600400080616 
0.02633554357100605 
-0.0363021125842598 
0.1002209377394098 
-0.002074061240925233 
0.08180157347674927 
-0.07198726261364291 
0.02670699167916683 
0.08524028392839444 
0.05821375636681266 
-0.03142579118577832 
0.03371478852038361 
0.05593035547079283 
0.03802591999652278 
0.04973701127427252 
0.0663959009853933 
-0.06047259294188094 
0.005965570726489324 
-0.04653486235592547 
0.01599417912687025 
-0.1595659522488128 
0.02358209256717914 
-0.001073833149792455 
-0.0774360851286619 
-0.03584676576595868 
0.007279963600795566 
0.08924521362594205 
0.04039193733747574 
-0.02847806632856621 
-0.003732638539217897 
-0.04937607861916862 
-0.0004846099479658243 
-0.07102047265509306 
0.01806301498572489 
0.000769783528603942 
0.01114876631273345 
-0.04062421489909428 
-0.04195219836796351 
-0.0675977004463733 
-0.02913614907580581 
-0.02487925209397 
-0.09094745179270797 
0.0118293750808968 
0.02887932129072757 
0.121892010096958 
-0.03702807079034107 
-0.139057160725963 
-0.02995440011370836 
-0.01882153194918794 
0.05637645446862338 
-0.01035498557640795 
0.07160441692672632 
0.02089770709244682 
0.08289617382975072 
-0.07097634619008136 
0.1017232611052941 
-0.002585206889683896 
0.03005628497420124 
0.06693558771571889 
-0.05311295236592453 
0.02783258023604367 
0.03371936096214802 
0.09651747864865366 
-0.08668217885420741 
0.04414262771883239 
-0.09147707145626575 
0.02099976648139305 
0.09273714272431353 
-0.1219928119263505 
0.05283916821734704 
0.06806737392850282 
0.06741480655668894 
-0.01314385060627923 
0.0009900216155664242 
0.02723301065557465 
-0.0334138261253983 
0.0578874748433855 
0.03694310117275315 
0.0950815677251011 
0.1139486577231782 
0.03442635367944569 
-0.05346010272615472 
-0.01876328466686926 
-0.00873076026987905 
0.003805479725530883 
0.08842187760100303 
0.04207748453905463 
0.05059759084862021 
-0.1031310606811867 
-0.03881312463386621 
-0.03702067441306116 
0.1146064178829712 
-0.006555450099461083 
-0.03326968121532927 
-0.02207572875414554 
0.001823953959631538 
-0.02986050843814707 
-0.07065001076031178 
-0.1174949039953117 
-0.06183911308414868 
0.01216669638529779 
0.05829303593013218 
-0.01936281875372007 
-0.0279032295435993 
0.01596978788461161 
0.03755969300016296 
0.007037636522847185 
0.01678175485916166 
-0.06409842857788589 
0.00231004973857757 
0.0259482506634045 
0.02830151512987075 
0.004571016435179651 
-0.006439702415481033 
0.01871755880999995 
0.1046045559742025 
0.06867575887365603 
0.08237893645075729 
0.07720368653370149 
0.1147370398722694 
0.02336123447474616 
0.008533287330284724 
-0.01941390715895842 
0.03046233763555895 
0.01377719309757026 
-0.08197233715693956 
-0.02414584979190328 
0.03164666073169455 
-0.0161033572339917 
0.01601233063907804 
-0.02719264308083316 
0.01788850216964946 
-0.02463504369024071 
0.001678971561723785 
0.003899697422323553 
-0.01620416566699954 
0.03625765320453655 
-0.006460749552284868 
-0.1299568945032255 
-0.04335983617064421 
0.09501270996461908 
-0.04694356774274494 
0.05759792684343492 
-0.0643794981359119 
0.06894566609011721 
0.04242555535704751 
-0.0357354026117744 
0.04555038792793871 
-0.04224880075233621 
-0.03379056045041863 
-0.007903059877545663 
0.07535274391032863 
0.01665256738584107 
0.0211593404738951 
0.01540371467912838 
-0.07011122252944718 
-0.04969906918691542 
0.03040673676322091 
0.01783330088275702 
0.03972133193263033 
-0.05215254429778314 
0.03090690608500092 
-0.01731643895316629 
-0.03677866893245137 
-0.00219203892045928 
-0.07219825567587261 
0.03278925186467326 
0.0169273339695647 
0.02280558019080579 
0.07282788644043985 
0.002057077502062129 
0.01439371468604932 
0.05644441680550012 
-0.009712345841668323 
0.06956624373298631 
-0.03728576496619714 
-0.03017114432321858 
0.006438510430249201 
-0.07387125109660031 
-0.04715250697023456 
-0.05395203622139511 
-0.003530280673877757 
0.002927194959651996 
-0.001878648480307911 
-0.07159851656162812 
0.02799328289552559 
0.05424756966559861 
-0.03504654205605193 
-0.03639810535218465 
0.02475694051391443 
0.005255334974584974 
0.0578762602537208 
-0.07014941401733013 
0.06835127874428337 
-0.04339009010421324 
-0.05831060820818925 
0.07840681125872481 
-0.04296710891652975 
-0.03270600883427285 
0.02592810453997476 
-0.02089832402032593 
0.01807714596797668 
0.01138243119227573 
0.00169152015738348 
-0.01915530115615001 
0.03028815743294108 
0.007455632845825243 
0.04747670446207353 
0.03189938805240247 
0.05360355792522859 
0.08927404684559707 
0.1011196765515454 
0.03606295874646631 
0.03727131755997988 
0.02891376798356436 
-0.04137270037999 
-0.02242952334804105 
0.07249710851652975 
-0.02226213657819013 
-0.03253912238254069 
-0.04376044310534366 
0.02590074426529299 
-0.009518182678490694 
-0.002216875184143125 
-0.0669150240872959 
0.01075118993036181 
0.01266681370210877 
-0.0167399783063086 
-0.08613290079831772 
0.01460539604271218 
0.004296413473053168 
0.01324650162520009 
0.0900893103523803 
0.05112356061383286 
0.1037621883045768 
0.02398935233068068 
-0.01367296421146007 
0.05581679410467586 
0.08872494242952041 
0.004736145807540144 
-0.02642943437062716 
0.1275560292521234 
0.08836598645354689 
0.08434438037406029 
0.1225150549135668 
0.003838323068633818 
0.01591083270911322 
0.01006249688963157 
0.01489714396593377 
-0.0497281182565205 
0.06859271197883883 
-0.003036108981635828 
-0.02680412008881358 
0.0468268295983176 
-0.0002460792157863394 
0.07852861703489335 
0.04721030541253043 
0.03081651894493381 
-0.0928142770044782 
0.07383394745063354 
0.09106623358092779 
0.05319260117389495 
-0.06164695029451933 
-0.03692685133339257 
0.03925965153433337 
0.06219391096533022 
-0.08880537424948752 
0.05352380670710878 
0.006812676851497457 
-0.04050738861924698 
0.004506503155525398 
-0.03870278397879502 
-0.0170341927283148 
0.04473909141513512 
0.1393794857228576 
-0.01656442861758532 
-0.0390076867844796 
0.06189929186175284 
0.07779785853129323 
0.05966052543396453 
-0.112447706093503 
0.01246887477107883 
0.03121264378097355 
0.04013656604290364 
-0.1330068181736826 
0.009653069888541779 
0.01457180673342913 
0.01016762611376902 
0.04887456443925964 
-0.04487964208420116 
0.1492072435193824 
0.09498861178015726 
0.02271354451733786 
-0.06158762346622845 
-0.03063892338428507 
0.06294712051525386 
0.02263534366066117 
0.05374031448662199 
-0.05924255830948318 
-0.0423745634306041 
0.037756187960028 
0.06608281981709493 
-0.1105118844707405 
0.04276547979707247 
-0.0201373435916178 
0.03355032481999921 
0.02693092825106844 
0.002522689854861496 
-0.07822745273679128 
0.1142894984894673 
0.0295221913613142 
-0.04074695116521067 
0.0261143469880809 
0.003139760091990583 
0.02493487412832838 
-0.02654321828856114 
-0.04808253526896951 
-0.1137763274771691 
-0.01153496115031243 
0.07415303088648277 
-0.07857507612388312 
0.0772651144266354 
0.1242590012058878 
0.08944562836124463 
0.1157447014103505 
-0.06352029750786506 
0.1081162912559537 
-0.02052188646446571 
0.01303704504311231 
0.009964104594214832 
0.04470638889411771 
0.09144854949033052 
0.09243585656471266 
0.08486399262419948 
0.03408270552311998 
0.02508977599031388 
0.005494063808753686 
0.02437291481965389 
0.0651350217936682 
0.05164795733524762 
-0.1179697045850265 
-0.03207759323505757 
-0.05784015775110536 
-0.03573225922261049 
0.02174253516699213 
-0.06764934807283367 
-0.05573982095241237 
-0.0637046904765272 
-0.009695318785108632 
-0.04586957159300467 
-0.01450664447445447 
-0.05857626972044674 
0.005805113350941235 
0.04336010179615124 
0.02065882842031843 
-0.0692804572135006 
-0.03560815203006723 
0.01457038213827554 
0.03061151052521446 
-0.02165205162016546 
0.0511021676097461 
-0.0460970820389598 
0.03904346426378805 
0.06503184656668576 
-0.06472032493920091 
-0.04057288605522132 
0.07204000775365021 
0.08746555112701702 
0.05125429756127232 
-0.03994485597830014 
0.04621923972552566 
0.07581707153349192 
0.0712677732646578 
0.04964378186340282 
-0.002940153744573892 
0.02747407825431653 
-0.0356245647835632 
-0.01360438793074426 
-0.01197225446812547 
-0.0289579264205471 
-0.05035964353456264 
-0.002890712645498049 
0.05598828280843327 
0.05137494099002809 
0.002617892983482491 
0.001402327722694556 
0.001814179456033964 
0.04361956939560636 
-0.03256962399485966 
0.03405665024359333 
-0.04205258039976935 
-0.04912477287012898 
0.08114386810034797 
-0.05686278336568333 
-0.01386802438516334 
0.0397016369118903 
0.00675942897316131 
-0.00156533614410997 
0.01122684635656262 
-0.007740309463225493 
-0.01344627531140437 
-0.07709490055797899 
0.02124748482513656 
0.05401916533483086 
-0.02905473579964366 
0.09419486803824413 
-0.01014850220451593 
-0.006070541445163181 
0.004535559744265149 
0.05369312110927023 
0.09250337442495238 
0.01141234401564238 
-0.06036602661232258 
-0.01486007725292503 
-0.02350091654420661 
0.01532839343201786 
-0.07750196262058343 
0.04399216350743471 
0.004776150752012039 
-0.04030721634806198 
0.13159132364456 
-0.06791666887716506 
0.04952223655323881 
-0.03159992411968016 
0.07100130339581201 
0.0008156688232837968 
0.02825381806022246 
0.04521368783896255 
0.01635793135248422 
0.008010289935383693 
-0.03759989220480037 
-0.05305560725447835 
-0.03597708612460002 
0.05770463458451266 
-0.0697404165529443 
-0.05139367079516129 
-0.08463189591808841 
-0.0498730482015414 
-0.01962331037696334 
-0.05925678277669764 
0.01148061708076835 
-0.02967493364992739 
0.08296614784726193 
0.03358333898289604 
-0.004262571928942827 
-0.02669209295803912 
-0.001623481977266709 
0.02212526594492298 
-0.01165188730075711 
0.03251864859739147 
0.02807328039674649 
0.006760083998422076 
-0.02787524862069944 
0.05043616187689219 
0.02670878669520829 
0.0005874026471423019 
0.009356245028239972 
-0.01406137621531995 
0.1282852305521567 
0.0001948604685201984 
0.009280615217297769 
0.1062930101290801 
0.1072830039889511 
0.06925956747793045 
0.01764237243373356 
-0.004073886299975144 
-0.05921687933430498 
-0.1250255978030251 
-0.05187925294241095 
0.006696000115575154 
-0.006796451608190549 
-0.07844802311032158 
-0.1408930445200519 
0.03885472500042667 
-0.01907420854904943 
-0.174677549453033 
-0.0778732148641167 
-0.09056959135009922 
0.08565016899892869 
0.01419031885053586 
-0.05085584419423431 
-0.1141658593329562 
-0.02665025416834794 
-0.09907539640844656 
0.002798801314804532 
0.07088146079407552 
-0.05805742856175625 
0.06017672003576859 
-0.1050128151488833 
0.04896116517224201 
0.04557263536635271 
-0.06368742522712106 
0.03785640764760644 
0.03987790649488099 
0.1520625803546067 
0.02028209694543062 
0.08341548457451234 
0.1295135274607101 
0.06509089009102165 
0.000158557743371234 
0.06756780734486134 
-0.05036232163775069 
-0.113922300304493 
-0.02846810401575097 
-0.03618588150011443 
-0.0636778858972971 
-0.1336103172080445 
-0.0173185477986859 
-0.04119191920758341 
-0.01237738133885434 
-0.1218745392951381 
-0.08383667954588969 
-0.07114751125172972 
-0.02597486570890501 
0.02522140498602638 
0.01992034335608959 
-0.108868300045961 
-0.0817380022777143 
0.04235956350838928 
-0.036782074711854 
-0.09775614668729456 
-0.004291101429386818 
0.01876316433633068 
-0.04050070491981147 
-0.08264711243820289 
0.002818626311010474 
0.01987741601863226 
-0.02244721446541086 
-0.01403389815200999 
-0.05150843491702141 
0.007614775101665772 
-0.08008859016778852 
0.008730023327067429 
-0.002979876889981428 
-0.01228375090538545 
-0.04004221862809969 
0.04194367215186671 
-0.01866931600481121 
0.03530683582928314 
-0.03991113338324249 
-0.01872819879182665 
0.02632836465669404 
-0.006284741025296245 
0.09282777820057619 
-0.1087859686246134 
-0.01206656087228523 
-0.1199415740765605 
-0.08699145318211342 
0.06706600186646838 
-0.06108159451726656 
-0.007487651805958761 
0.07179618067798602 
-0.123206490016038 
0.06214245980580004 
-0.07375226647614601 
-0.05041037424003867 
-0.02911820476339748 
-0.06414272061320908 
-0.1768090846564594 
0.02925312220274003 
-0.1428955455001429 
-0.05081724955750627 
-0.1617394117176916 
-0.04913736604668269 
0.05954465280724543 
-0.07133669472615177 
0.0214808340457792 
-0.1703190913804147 
0.005139931086560265 
-0.03184882036042076 
-0.1436538096174811 
-0.05124416311521553 
0.06662631683372087 
-0.01611451529865116 
0.03848800675125462 
0.05419563334925522 
-0.008621999934364183 
-0.09087265500667885 
0.07556756874027948 
0.01320788182051854 
-0.08405977808384711 
0.02653495756066104 
0.08544818965931779 
0.1065326325725419 
0.1336566331226144 
0.1034602820364981 
0.1158026329170907 
0.01074583971468437 
-0.001404856849044745 
0.1720664647759392 
0.09072564116356149 
-0.02986743411383791 
-0.07578376834275945 
0.007004988505080003 
-0.1089758243199512 
0.05008754764071625 
-0.07192116318765612 
-0.09490478379467469 
-0.1118915066280614 
0.00746295586174584 
-0.01138203616396773 
-0.1034674697540972 
-0.09357068942385828 
-0.2062967025402229 
0.04611464141170345 
-0.1041317167294528 
-0.08702529138554224 
-0.01027691647268976 
0.09751002196406358 
-0.01255416350230162 
0.0222607556575843 
0.01800445051837799 
-0.005321629030557908 
0.04064950583600371 
-0.05569036990089732 
0.1107397474747197 
-0.04523754682459395 
-0.06811526972235192 
0.01133814425011585 
0.002576417278338379 
0.08267359750985825 
0.09312367801741286 
0.0108254459753789 
-0.03491035726010851 
0.009483845619168664 
0.1064243627347215 
0.03242902291458367 
-0.08123993049513288 
-0.05281837854360717 
-0.05727112542469699 
-0.03138547144461953 
0.02894693347096479 
-0.127086521019662 
-0.01243156126941096 
-0.06827316066544303 
-0.04021620811736059 
0.0871865790205414 
-0.06162887145122162 
-0.03192816679322031 
-0.0876806794452258 
0.06173840918603493 
-0.006096821635700226 
-0.01182572789318354 
0.02302630163064026 
0.05076256243290291 
0.005637662396263115 
0.02168589021219933 
-0.0441383741025525 
0.01284515250524006 
0.0003280131581216423 
-0.003322066932624976 
0.03830385734719999 
-0.1205172935593632 
0.007547147827559801 
0.01881341889731826 
0.00892791458208411 
0.0219540503890048 
0.08581371386699668 
0.0640224415947383 
0.03213551375194935 
0.05469149314638312 
0.02538427157612632 
0.05485813332438216 
-0.06489961692099515 
-0.05202265400432756 
0.005879593606756875 
0.02651406501377764 
-0.07949505434674362 
-0.03762464753090037 
-0.01373826167878051 
0.01184541328052507 
-0.04460911563094157 
0.03190787596899922 
-0.03308729391196047 
-0.06522016563514557 
-0.01709222168380557 
0.009420833591035538 
0.055027669453064 
-0.03244835549289219 
-0.04193148280954633 
0.09327653742970804 
-0.0207894687257554 
-0.0008325962491303629 
-0.05634399278202502 
-0.01926027964406095 
-0.02225142268943716 
-0.07860840295487038 
-0.06973629717043588 
-0.04983599889223456 
-0.02188819092477413 
0.05267345694605403 
-0.06942303429779231 
0.01490265106055667 
0.07417243040371861 
-0.03851143157413455 
0.02406327650929564 
-0.08714680155107556 
-0.04666927859998404 
0.04983734870209052 
0.017178042545246 
0.03000760548110952 
0.05363018558859545 
-0.03443351246096969 
-0.04416537518560501 
-0.02850587448600933 
0.06722656750812325 
-0.1103896340206517 
-0.02648508771438543 
0.08456493507883291 
-0.005525299730379596 
0.04432641081621902 
0.03901826310655242 
-0.1291955211793308 
0.08272543864861272 
0.01797005745459513 
0.05201618397594911 
0.02000971556804064 
0.0608105512002842 
-0.02885210258539573 
-0.077978543933982 
-0.03373300474520077 
0.0374357656293729 
-0.04594615793214556 
-0.006702275624001992 
-0.06961485092432348 
-0.009349121799625165 
0.08345716039540493 
-0.003523633024923624 
-0.03885271175731862 
-0.0004554194852129135 
-0.004296401604347107 
0.07886633486548159 
-0.08126363842370861 
-0.06121633727195522 
0.04061173487715578 
-0.07331321905197109 
-0.06168990404075027 
0.0737151267679713 
-0.02388147934350825 
-0.08013425115909789 
0.008185606713475992 
0.01852422958038529 
-0.1114004500556225 
-0.1320974335569541 
0.1022982998453593 
0.01582233809382251 
0.005491788005333986 
-0.03102357433753439 
-0.03204267923119719 
0.2126678889026208 
-0.04799047265825192 
0.03345510951866335 
0.08445494640785275 
-0.01283437494656782 
-0.01737507035967974 
-0.03521206894924608 
-0.06499524728501284 
-0.1211288656865143 
-0.1376221927712182 
-0.04556285363201526 
-0.1718794441410614 
-0.04505993756472952 
0.08846743183960798 
-0.03118731769248258 
0.07170975260533191 
0.04432032845499975 
0.04527604550887045 
0.1434854699260132 
-0.1128382672303758 
-0.03033949356157792 
0.2233074324722814 
-0.0665781170885949 
-0.09434133541251995 
-0.02059695800635496 
-0.0574142561731705 
-0.05966971560864696 
-0.1496522700239724 
-0.06910842713427504 
-0.1216771023252502 
-0.05255245147271514 
0.1047447681797043 
0.09488153434096881 
0.0412047411182823 
0.04042163442605454 
0.1486688378138956 
0.2172684831991455 
-0.09108846844419458 
0.05622784794062525 
0.1800746674135676 
-0.0918091423050189 
-0.0405669788285577 
-0.02874503901777755 
-0.03353459859757506 
-0.06535672743190371 
-0.04572972325754602 
-0.05922108970357599 
-0.1376340988549385 
-0.07877227487849763 
0.06810116907437444 
-0.01180296049166172 
0.0550398992402298 
0.1407447883752997 
0.08406083268916442 
0.1486170340719652 
-0.2007262546691559 
0.1116033264153934 
0.100693524910193 
-0.05198367131806828 
0.02983833061891124 
0.02709844052327025 
-0.1167554489240302 
0.02209474651905777 
-0.1462459003631504 
-0.1149925082210593 
-0.1757619633212025 
-0.04142480334388687 
0.001195279586781178 
0.0362220127558353 
0.05063147692945018 
0.08887119488159366 
0.1170928084258375 
0.1762229625600396 
-0.1187154053708636 
0.02149243788516527 
0.08616637336771449 
-0.008965054314876465 
0.07484138703008657 
-0.02900593017118581 
0.02473614634394436 
-0.1031281704687962 
-0.08542239000158972 
-0.07146035013458414 
0.01008301169473705 
-0.07198051919514625 
-0.06448065063375687 
-0.04102299744121346 
0.0171511804420841 
0.120090403977117 
0.1142635275611339 
0.1127907739427382 
-0.0529697725167487 
0.1583938585685289 
0.05677326698862529 
-0.04744475724919722 
-0.06006044305131919 
-0.08349561349399891 
-0.06655364764684822 
-0.06327847187633834 
-0.0703768258729531 
0.004763975054828718 
-0.07396253027658009 
0.006757141824900728 
-0.03203266878699792 
-0.01852386449376878 
-0.07722271004728191 
0.09499492419769912 
0.07965306720702012 
0.02454489242035288 
-0.06384724014031057 
-0.06963702803529428 
-0.005504691429788485 
-0.03673206618950015 
-0.05543211145390663 
0.04394954190772665 
-0.01914150395824699 
-0.03406162829389243 
-0.03461732166888091 
0.01116002782696909 
0.1041387564695672 
0.04602280832995882 
-0.04325025600722449 
-0.009761698413152029 
0.07893602516482458 
0.0226822942649042 
0.04083761043286812 
0.0785833183646639 
-0.0005530494818671782 
0.03114498069536662 
0.01672470582113035 
-0.007347766235176677 
-0.04827869222191407 
-0.01915672213235265 
-0.1036770359688145 
-0.04502755159404249 
-0.0525353705765619 
-0.05147609245499836 
-0.07924935718809054 
-0.02570834870256528 
-0.03953539053620148 
-0.01174591807000601 
0.03861661437410267 
-0.006073177642318954 
0.0602509909338793 
0.1003581506832798 
-0.0652635798495714 
-0.05398194687536862 
0.01612162208185955 
-0.04667805385699955 
0.1473896841866468 
-0.01689012508601824 
-0.02001608075406879 
-0.03471623722606983 
-0.05813693247851076 
-0.08047329964736549 
-0.1070930414973558 
-0.08425489637678038 
-0.01466804495921375 
-0.00623693928501946 
-0.0139256553178473 
0.02650779237511299 
0.00893436736866395 
0.0413633454644739 
-0.06795505005186304 
0.01015934919926918 
0.0229271639808045 
-0.05128192862710657 
0.05258920868368044 
0.02597906832059159 
-0.04727565574379155 
-0.02506822852756792 
-5.815118879223172e-05 
0.04755503226990589 
-0.0544443530439439 
-0.07226213439322082 
-0.01101849505067924 
-0.01235617233962783 
0.09321219795436209 
0.09965288637049115 
-0.1014572028555398 
0.016771687386342 
-0.002682500438183921 
0.0652357330241599 
-0.08904344128954604 
-0.05468124858041868 
-0.01843401352439701 
-0.03017213007710486 
0.01137440334300977 
0.01347971201079293 
0.02814403981917505 
-0.03564610476135648 
0.02232302221173326 
-0.04917839396377945 
-0.07552607760488443 
-0.04885137790341217 
-0.02807647542349761 
0.05283679043191516 
-0.07388473628534178 
0.06314560171314366 
0.003254548650632928 
0.06776690690862573 
-0.04381465287619313 
0.01266741351128686 
-0.003742459408874462 
-0.04866952261731899 
-0.037212919302203 
-0.06718068413379265 
0.02417736452488262 
0.01680399009144002 
0.03621417106050223 
-0.06247784394833239 
0.09751435296753906 
0.01560527277611872 
-0.01955690050567511 
0.05480262064638568 
-0.03511644062757029 
0.1084003044496921 
-0.05064064364222117 
-0.02016486196849694 
-0.01231404659423074 
0.01630036152741044 
-0.04518662007519612 
0.01196166635172046 
-0.01560986913568911 
-0.05641953464140265 
-0.03550532118111398 
0.04398337396612172 
-0.05456746397729748 
-0.03307956388797025 
-0.003346350802295347 
-0.009464656325414917 
-0.03224754347028772 
0.1503147279793186 
-0.0196190727224304 
0.06853467075097389 
-0.02840069371205402 
0.02662773926924014 
0.02556535006326272 
-0.030678045111887 
-0.04555270359369379 
0.06007932305283382 
-0.03335459104072987 
-0.01324648040068916 
0.02458801837607024 
0.04655508096216733 
-0.02471372049252302 
-0.07196517943281359 
-0.02344235815459348 
-0.009167466275141688 
-0.07724591070808753 
0.03337430835473966 
-0.01096771285591484 
0.09778564467172968 
-0.004248349869647889 
0.002043451500421819 
0.05438467404675587 
-0.02774277306313782 
-0.0266721500563859 
0.08078454958850075 
-0.03693194875105538 
0.01712881130758862 
-0.0893862546044437 
0.1457694515430985 
-0.05680254687300312 
0.008131731354023394 
-0.08116360080550565 
-0.06161563605771616 
0.02838953938230281 
0.05326302119163533 
-0.01933860462315041 
0.06066635182214517 
-0.08642788792245812 
-0.02737974406752068 
0.04337785775648523 
-0.04327306626613261 
0.01511699298271649 
0.004582854977373966 
-0.03149277383506751 
0.06325085825574775 
-0.1224478271142565 
0.01567870781675494 
-0.01713647340418139 
-0.07745995373841932 
-0.007845970577040048 
0.01297381299203539 
0.08745907072780344 
0.0531647994308404 
0.05340587920337736 
0.06270158955199243 
-0.008860928382790611 
-0.02866927176372122 
-0.01229449944097779 
0.001480913841034446 
0.1347077912145395 
0.02015405990006 
0.04311725167442328 
-0.0741075541319101 
-0.116617493029503 
0.03658608342579786 
-0.08392322417914487 
-0.02752667505941513 
0.0638820186765969 
0.05865422073625827 
-0.09502331201250816 
0.06190783463171231 
-0.04674866310662509 
-0.001824267619732409 
-0.09106968694850408 
0.04888621813229316 
0.04410136697790266 
-0.06104547847172417 
0.03510952182462983 
0.05385407253437462 
-0.01016395739442831 
-0.05761327245904587 
-0.02274962110463933 
0.08302158224516737 
-0.010197065732495 
0.02297819645234206 
0.02832046102083267 
-0.03142894977549648 
-0.001907493798602731 
0.06076620514823158 
-0.0285016673752508 
0.03252174523156172 
-0.09657462965803294 
0.03923017879828634 
-0.03289531489658572 
0.02769754878069794 
0.02220992102361649 
-0.02907262967259397 
-0.0413175818378331 
-0.06496088150879875 
-0.1242875955837236 
0.01419801601357176 
-0.005554591168181627 
-0.02053991804341622 
-0.003370464932533234 
-0.02553560958005027 
0.002901384509465677 
0.01424062481303053 
0.03491708892629198 
0.03939408236346118 
-0.07698671268862549 
0.06582449299129541 
0.04841136927304603 
-0.03762813674075399 
-0.003199896062972402 
-0.03334024848384445 
0.06546205496623622 
-0.02091999321083739 
-0.07386247339040791 
0.1259260767508562 
0.01921721656165537 
-0.05135073404085204 
-0.02807994800471218 
0.1235299659699165 
0.003274747778713186 
0.01730519512452804 
0.0642846671180521 
0.1037109360783234 
-0.04410230713698295 
0.01185970418496194 
0.046480924541746 
0.01037092303802002 
0.003488587833696327 
-0.06436521927045155 
0.02574656627133163 
-0.04782872467938202 
-0.09323919432569346 
0.05563379735319214 
-0.04799238590647199 
-0.05912874421617782 
-0.01103649853747822 
0.04269861439784891 
-0.1094572628970574 
-0.02475967825706633 
-0.008720525218241661 
0.04217812526354801 
-0.07057647362725634 
0.004822503944991451 
0.01615515977495875 
-0.02189477580405969 
-0.003888475272336541 
-0.04374137356122448 
0.03273783610515515 
-0.05555092281751049 
-0.04289017105583234 
0.03758544915860519 
0.0262835391374792 
-0.06141245979396941 
-0.03918939721801088 
0.04555399356677854 
-0.008603196684150858 
0.06891465534360848 
-0.08834739659596942 
0.07519630553895615 
0.03627440059489526 
0.09104123809807481 
-0.0743442016928372 
-0.0215537450829231 
0.04655146476268669 
-0.03145613339258224 
0.08943778282975094 
-0.04030708957820996 
-0.06487335772510504 
0.04779414918850153 
-0.05056337768118152 
-0.02312125046521533 
-0.03505440431255052 
0.129767238709398 
-0.02908931530437835 
0.1184549609858732 
-0.05357466257627715 
0.01776128803151988 
0.0178382272511821 
0.01373941688159903 
0.009023047713262679 
2.547335735768545 
