solver_type L2R_L2LOSS_SVC_DUAL
nr_class 2
label -1 1
nr_feature 6480
bias 1
w
-0.06488612602921497 
0.02355901127978353 
-0.1389948487424441 
0.1755150393928411 
-0.2164611733272417 
0.3874131247038886 
-0.145424654050453 
-0.03093742678702898 
0.0494457654931164 
-0.1898026644348657 
-0.02861308197024598 
-0.008019245845037758 
-0.1031020930326656 
-0.1480454146916591 
0.07461960192797427 
-0.002950576951996678 
-0.08206317001023011 
-0.0427935821883928 
-0.01650610765106822 
-0.1379914061766296 
-0.2034098476847586 
0.1210434678267104 
-0.3501289746959103 
-0.0414754343438461 
-0.001528502926561805 
0.007201557850158064 
-0.1193061243618333 
0.1535992391262136 
-0.2258066560450286 
-0.1206677066334932 
-0.01097618316687427 
-0.1642247956413495 
0.03392851930762224 
-0.09788155917995794 
0.01161047807858279 
0.06649945792000199 
-0.04055293058263329 
0.1715631381422462 
-0.08521327034344595 
0.05117873956039397 
0.2055182619867799 
0.2031554559922981 
-0.08885405903390055 
0.08639198369852029 
-0.1726997527749038 
0.1181256425528193 
0.2416528439388293 
0.07275647720455497 
-0.03467702704212035 
0.001413517968304012 
0.01197273830413387 
-0.09923110611266445 
-0.05579047417117988 
0.1044750100443882 
0.1419397033508794 
0.05633806175831862 
-0.149911567921306 
0.1556848764593261 
-0.01756488557138744 
0.09625053905558176 
0.03399239084384671 
0.1105997047976939 
0.198176747715651 
-0.02744300320646292 
-0.06796364942243535 
0.1991623538259967 
0.02205223821359316 
-0.0470892057254467 
-0.2124537743032944 
0.1069292605336854 
0.1539183970795693 
0.109962167260113 
-0.1226614727639674 
-0.1423230033186327 
0.2286746305531294 
0.1573927558059642 
0.1351535287692417 
0.2177984635652157 
-0.08639983513785136 
0.05249075937020987 
-0.2124906137909213 
-0.1359850388571656 
0.1084221963278278 
-0.03792743840369748 
0.07174791966125021 
-0.02339346315909393 
0.03945420322739494 
0.1550456856591267 
-0.07801488348620844 
-0.05701004469970749 
0.2098865429782774 
0.08090128395022834 
-0.04762291092489295 
-0.02254088540787409 
-0.01553658427101695 
0.0518568016670011 
-0.1641357919336616 
0.1009471194140419 
-0.09070806588461341 
-0.2580620849306612 
-0.1107674808983519 
0.02451746201690671 
0.1276829270301771 
-0.07075950544263243 
-0.3437356955080212 
-0.05362165255606246 
0.02805578559143213 
0.03454486884518346 
-0.04760411262459325 
0.06338415029504529 
-0.03881632220723909 
-0.001400021652942323 
-0.06630681270784008 
0.0681840988905108 
-0.1985167726362945 
0.02508975577330723 
-0.02830805602754929 
-0.1293460552855693 
-0.006070369476902621 
-0.1611157098990843 
-0.01680108329838449 
-0.05784959867512848 
-0.07253182804801328 
0.2131444799214416 
-0.1112478832375665 
0.01195547028554889 
-0.0586320930517536 
-0.04361217039641935 
-0.4062646239661504 
0.1061018834232629 
-0.08401312603058168 
0.1052634546461565 
0.07368018890089056 
0.03894684775836586 
0.03648592154725168 
-0.03897021754868132 
0.01981477373156366 
0.2856593578408648 
0.005289475708897787 
-0.03288405323585981 
-0.03064859401234755 
0.0006042371680703761 
-0.1055226263905124 
-0.01217788394704469 
0.05985604390366579 
0.06401197851921955 
-0.1067017249911083 
0.2077477963428146 
-0.07181761598679003 
-0.00301039540794957 
-0.1836808172127997 
-0.06126609076342936 
-0.1713731606708398 
0.04607930785855221 
-0.1059476970212306 
-0.1072368901664774 
0.05221075433946581 
0.09269265545264531 
-0.2549476759351522 
0.006462281890365102 
-0.07331930793655 
0.05521489919597822 
-0.1744780041900037 
-0.08152340120090384 
0.1493901413845658 
-0.2195843785784907 
0.05823511042272132 
0.1134436189683784 
0.009128706924547187 
-0.02802219537310099 
-0.008474395015807448 
0.09727762759491577 
0.01543360915552312 
-0.02341538123160783 
-0.1549337120088542 
-0.1803329248754745 
0.1601264443927777 
0.07238490425883957 
0.1532746851138324 
0.1242087570187817 
0.09873019951009529 
-0.02795225768436676 
-0.03354458911313735 
0.1152567038377909 
-0.1690688428674666 
8.436532650817757e-05 
-0.1934722799230074 
0.2039837318794906 
-0.08782384030177089 
-0.1172107174027539 
-0.05658853897655664 
0.02267461144545079 
0.1316949620074005 
0.1756194966704926 
-0.2622019240448781 
0.09069451634442416 
-0.02107157885803559 
0.01736326660309852 
0.0750780791611259 
0.03583678730599215 
-0.3015432481654212 
0.05883191520869469 
0.01804227856500962 
-0.05619551416263419 
0.1423840280648034 
-0.1481727932685084 
-0.3071030319855278 
-0.0169193996588221 
0.08933654938956082 
-0.1271133908104221 
-0.1309987471004108 
0.1712539648540372 
0.06144849103763645 
-0.08029602264429093 
-0.04094365057792061 
0.02086299454074825 
-0.01991210077215877 
-0.1593238290302399 
0.06418135878436801 
0.0526504184673403 
-0.1204586832890991 
0.0008996738285925854 
-0.006979510782404508 
0.1284797184394938 
0.3558010458686654 
-0.1210461744582227 
0.1351438045022534 
-0.01977277489690956 
-0.0866017516006444 
-0.09525944383561497 
0.09988100121755479 
0.1987789019832888 
0.04211639503650437 
-0.2918935717413675 
-0.04566971125123302 
0.0115600801155214 
0.0368166232328135 
0.1502931651643848 
0.03169229514137569 
-0.07168356860358439 
-0.1363586893084566 
0.1040944001858744 
-0.1249800620466345 
0.1104290516395665 
-0.0758686192275347 
-0.2572890347767099 
-0.08248365173242596 
-0.128161557755291 
0.01432220694599552 
-0.1529989824738434 
-0.1401610900838927 
0.05701366086080029 
-0.06014172557890963 
0.009012482849440463 
-0.2159055407858435 
0.077651436909927 
-0.2666520281373604 
0.1205019541425938 
-0.1730385871638245 
0.04667614473126339 
-0.1065741819750394 
-0.04998810951653888 
0.07073568158852508 
0.14057883427311 
-0.2173729043167946 
0.1199112277615058 
-0.09982419163172618 
0.02300391368914973 
-0.02552521602362462 
-0.1554076598089538 
-0.00641862855398258 
-0.1067139274311772 
0.04633628922119032 
-0.1176400583733907 
-0.01555531606012285 
0.06790059981671388 
0.07728101000472958 
0.05034699309932118 
0.007561677791630082 
0.1148736798760936 
-0.007019360097040607 
-0.2257401404212919 
-0.1214366216393126 
-0.1784888866058978 
0.03992834632933474 
-0.01036094186197404 
-0.0784991160931538 
-0.1770891207579869 
-0.07930501873864412 
0.1609719776357257 
-0.09444753678597703 
0.07226447722986519 
-0.03059668083062912 
-0.09387521958357888 
-0.1353532153179118 
-0.1732666179480243 
0.1374821810489625 
-0.0602970005511942 
0.1737938512985871 
-0.2054736314327985 
0.07875760501231784 
0.01292381899700556 
0.06923880225402489 
0.0001588933077502682 
0.05193869657480917 
-0.1842116406139654 
0.2543946666887635 
0.02603768262157379 
0.00693820385517689 
0.08047976280433183 
-0.08764498209984528 
0.1089599504247832 
0.01765320959959968 
0.04043577123561202 
0.1719113933454923 
0.02153581726482561 
0.06895783961123586 
-0.002389012054162635 
-0.06880795116891721 
-0.160803162404561 
0.01395708142695124 
-0.1071295221016837 
-0.1666840036246581 
-0.1256033158499305 
0.1149704459348027 
0.01983501617417988 
-0.007340978343747303 
0.05686959684105293 
0.1285876870914846 
-0.216356815953573 
0.004249206311023263 
0.2384782534524527 
0.003037957345563524 
0.1139051252792716 
-0.05123554901236329 
-0.08490063487911065 
-0.01127250017071768 
-0.05954571830103279 
-0.1625782220574792 
-0.01154805350364474 
-0.05040533375105242 
-0.02839522181051694 
0.01201368373100022 
-0.1535810496416851 
-0.1702339790631171 
0.1895068831259111 
-0.01529779054399675 
0.09285910040320473 
0.03473708398423887 
-0.1212379915882665 
-0.1188712515272605 
-0.04292339089465443 
0.03814147842629068 
0.1071252273630973 
0.01866470351945665 
-0.07964944532881345 
0.2287889980568669 
-0.09540343746567227 
-0.00314693301037485 
0.2852843227431608 
-0.02153713604400748 
0.0629928059028971 
0.1169587719748513 
-0.06192834220080123 
-0.004228782351020761 
0.05864627702827795 
-0.1813137726100849 
0.1730658123572082 
-0.2369458349818797 
-0.2154683627629994 
0.1250676578074529 
-0.02394469657512325 
0.1547567734113617 
-0.0326982710259517 
-0.0112634363202635 
-0.03197330437211455 
0.1361027617794617 
-0.0444651096447511 
0.02309022339190307 
-0.04782597215179203 
-0.008813677565788148 
0.1280322384431241 
-0.1497192388213499 
-0.1668542890121343 
-0.08690107376171931 
-0.02906638066584997 
-0.06909726039396133 
-0.1684771624715309 
-0.1039400438612012 
0.05026992157791948 
0.004740143130129633 
0.07528549984865227 
-0.04293901672522524 
-0.1995928875544876 
-0.04705748419113891 
0.1143866850458815 
0.09537133439390878 
-0.04324473644787334 
-0.118052708106135 
-0.1573247414497363 
-0.1455794538943656 
0.2868156275134314 
-0.1913725143193329 
0.09860723972994857 
-0.09702303846558019 
-0.1465511814086781 
-0.06349955446751836 
-0.1481529467547202 
-0.07187777746550096 
-0.06262287766647019 
-0.08915517084067243 
-0.231912790264043 
-0.03212290467343263 
0.03231668278754617 
0.1922449010155195 
0.107429451132005 
-0.1891239777998159 
-0.02196712076627802 
-0.07502352921476252 
-0.006937931711546924 
-0.1581750880454174 
-0.05229750975420825 
-0.03938842145376841 
-0.2198242576755088 
-0.2019963323812477 
0.02366075030645465 
0.09121487249975495 
-0.00919719356579103 
-0.08512544985763577 
0.2522548829573192 
-0.03363269843888902 
-0.00429255062979802 
0.2472466906917245 
-0.04137092884023012 
0.1251768605779343 
-0.09515467424096863 
0.1512230903057095 
0.3084254088825005 
0.009209396872075266 
0.04236921064579453 
-0.06186964591256947 
-0.1340103180560216 
0.2184210806935332 
-0.1140256680210177 
-0.053080644790047 
-0.2323929089776688 
-0.2079722928998186 
0.1016011489790933 
0.0388354005653702 
-0.1366636374402357 
-0.03663973571949909 
-0.009768989151604859 
-0.06496427361678464 
-0.2537144380198879 
-0.06044386352916351 
0.01863342823565408 
-0.04191101709273352 
0.2113849985091011 
-0.1449098042859353 
0.2307446685281181 
-0.03389155636526987 
0.08391890741334279 
0.01014139247515896 
-0.1123250679621211 
-0.09597432480580559 
0.07332853695430289 
0.05918374056881533 
-0.09575847631068032 
-0.1292165983976111 
0.01243678762989922 
0.05480119520053425 
-0.02422077460148751 
0.1316619875442453 
0.1460789661645424 
0.05415619674342249 
-0.1105645061890833 
0.2720780018914442 
0.116168230445403 
-0.07691227608865568 
0.04735260922051871 
0.1994189325008165 
-0.1252927160761249 
-0.2130109520507144 
-0.2561107122626923 
-0.02507569049882625 
-0.0887860896966277 
-0.08053579366150078 
0.08251505012330478 
-0.1417881066921831 
0.2072425254407594 
-0.0282968354367767 
0.1991153870749222 
-0.07575059735143369 
0.03111243752644836 
-0.2596355406783645 
-0.0485886051266187 
0.4869751617654217 
-0.008895541892645553 
-0.1006429948664075 
0.01935197272271066 
0.1165833963008653 
-0.03634956529556817 
0.0468317780413778 
-0.09432543370152396 
0.02775743253059548 
-0.1175720685681907 
-0.03182155993144297 
-0.08310510674589296 
-0.2654383870359991 
0.02932808562444573 
-0.1273759621273237 
-0.05742366763738734 
-0.09413947428692791 
-0.03380637235385038 
-0.0008919499234596092 
-0.2575119005261581 
0.02352239431522827 
-0.147606896176282 
-0.118992984283596 
0.2977900298863119 
0.1067164561005558 
0.03811143980187784 
-0.1310775707589053 
-0.01137598810150846 
-0.08136883498141005 
0.103320003691136 
-0.2573224504135631 
-0.02020434543251992 
-0.1904325230889844 
0.1941349475645553 
-0.1197259579624993 
0.1810766184972952 
-0.1883005669144021 
-0.3191282870563725 
0.2053352906049262 
-0.1796279045455405 
0.03723713770883071 
0.1711820276588996 
-0.08370321513770251 
-0.1523393502283118 
0.1058017454385442 
0.06189082198534797 
0.09146748605992862 
0.1774039100664396 
-0.04597820781375147 
-0.1321031552004149 
-0.05318937544468248 
0.1315562987753559 
0.1002933773134295 
-0.1781276286764887 
0.08533778422910579 
0.2767819299792178 
0.1452489544611233 
0.04098766640212883 
0.1061040586706434 
-0.2506423310475237 
0.2508430106552733 
-0.1622171277258127 
0.07293831164799688 
0.09155928199076535 
-0.3214354011850142 
0.3656401865145162 
0.1333172096986486 
0.1819370186972084 
0.1878596053852679 
0.006989744405831427 
-0.04391711391480804 
-0.1416367136653135 
0.1356216376431063 
-0.1066536334902623 
-0.01537583279252399 
-0.04558808154716602 
-0.02066681258782458 
-0.2287395439133146 
-0.2555394475524394 
-0.07728145684144003 
-0.05987373835203027 
-0.2324872327017481 
0.1855596197129767 
0.1218204268033464 
-0.0437707598479481 
-0.04680425847531345 
-0.001788857077834558 
-0.05427008210087159 
-0.01076298048682805 
-0.05764410625748896 
-0.1140732444707075 
0.0207603239069909 
-0.0544336281974004 
-0.02098840206463524 
0.1011010679030332 
0.09585244374064916 
-0.02081714028098164 
0.02693342712777224 
-0.04143963756594288 
0.003481319388168947 
0.005884250703424989 
0.132946485860661 
0.1482003776110404 
-0.1130899908615465 
-0.03514948093020012 
-0.1078221856629795 
0.2821754581894003 
-0.3220346019406411 
0.09916931105571256 
-0.009774087198243752 
-0.2708697321212094 
-0.1308901477537047 
-0.06334996550652479 
-0.06569127740532744 
-0.201430194461768 
-0.1360932054814367 
-0.1917573587799473 
-0.2293824568160188 
0.07460085104418278 
0.08442259086967263 
-0.01176151061979523 
0.02324617224646399 
-0.09467272597386864 
0.2623458026651295 
-0.08015881418582245 
0.1375225320242949 
-0.01657147453349292 
-0.09159718538969067 
-0.1533084429013922 
0.04731977955835327 
0.02729819195404649 
0.2316981293254207 
0.05787524679195958 
-0.08658106291722102 
-0.02782439325560073 
-0.008328558821398499 
-0.03400549944120015 
0.01398486075464442 
-0.1028951393309783 
0.120030223139894 
-0.1128150074576205 
0.031587713292883 
-0.1998593954930674 
-0.1768400704253772 
0.05770660962096932 
-0.1875438358893776 
0.06826754295861838 
-0.1802827630786123 
-0.03081484972988308 
-0.2510044513398144 
-0.4154097669085943 
0.07621286271181356 
-0.1311936151655667 
-0.2929495044674854 
-0.04090332204699241 
-0.01933316661683042 
-0.2069416639841453 
0.1692016824907992 
0.09658897034338028 
0.02603818422977026 
-0.2678540515629337 
0.1899443819444435 
-0.002797199827677932 
-0.02195320207773253 
0.03852825393034301 
-0.2210592864896359 
0.03315805232051516 
0.05199807467056082 
0.05239074011884989 
0.03608507464091854 
0.09521044838270852 
0.310121620443501 
-0.1020200564130819 
-0.002076322490337196 
-0.06753943710425266 
-0.05235977800393142 
0.1870771452208717 
-0.1257806602472148 
0.1112362519379355 
-0.08209029932752625 
-0.0001433199266276472 
-0.1299318291269318 
0.06528143182867013 
0.02437133237293971 
-0.1164476053371459 
-0.2398181075120638 
0.1518424406388121 
-0.1010205870073075 
-0.03527705676833861 
-0.03537497300189105 
0.01141528537509274 
0.04314382239409568 
-0.004681501775174517 
-0.02694859941683971 
-0.1731810442817625 
-0.04042190864252503 
-0.06362169424804066 
0.1128687259757023 
-0.05587552392890412 
-0.07588735088826727 
0.02079929784064897 
-0.1710885220662503 
-0.04565826419557281 
-0.05727503661414943 
-0.06378965477795905 
-0.04744323577543943 
0.118124657425734 
0.08575850889256384 
-0.07942530094755376 
-0.05650424445858798 
-0.02176876319903389 
-0.09385185103545363 
0.0469994556230303 
0.007700671532953222 
0.1186533114596997 
0.1885166851801673 
0.1676622911151571 
-0.1749191826510735 
0.01785815957337826 
0.007680124918833548 
-0.08675924568992202 
0.02856898188502786 
-0.1452815627584281 
-0.4111286272031309 
0.0788186819332503 
0.03337619035168722 
-0.06659493853168802 
0.02724494316355928 
-0.1179349979683613 
0.169415732365892 
0.08627114254548129 
-0.07912620534252437 
-0.1030951973826316 
-0.1560029997053404 
0.1046389890304538 
0.01514354494158014 
0.04280729904847812 
-0.1914992044822955 
-0.002459472427308252 
-0.2390381027731711 
-0.06489281488577567 
0.1645796488976144 
0.2079568476806026 
-0.005573598857181625 
-0.1795577870060174 
0.01404593047811375 
-0.04719505506473527 
-0.1487156940203949 
-0.05151126949113988 
0.1707772091014577 
0.08224236747700449 
0.2027848977224395 
-0.07367946493145378 
0.1042566499669465 
0.1064968043060848 
-0.1409579745791934 
0.03717885954742205 
0.05829997823815379 
0.1095317888213951 
-0.04282251154120663 
-0.02179566746948156 
0.08181132152053017 
0.08811872632973579 
-0.132809530029703 
0.1110252656405934 
0.2916770541667177 
-0.1507145385820242 
-0.0775800530711838 
-0.07316460450232463 
0.002477361471523379 
-0.009108713986459988 
-0.2572905061880554 
-0.03254598509824361 
-0.1180313814113984 
-0.1367374397554706 
0.1379712978963035 
-0.2481402548970801 
-0.09544152662068127 
0.0311867003544021 
-0.02420661174031255 
-0.2883331812344025 
-0.04293645427482155 
0.1226268832226081 
0.1412660638039236 
-0.009666698407751584 
-0.08215642450467391 
0.07175536727069926 
0.1128664162508106 
-0.1106060233356383 
0.02137931154088279 
0.01844435448235788 
0.03015300927992841 
-0.1201062907064642 
-0.2331266093445201 
0.2467215205824164 
0.00231339752627815 
-0.003985057749464986 
-0.168052633691797 
0.1068108527649273 
0.2640859111754824 
0.09472083781256255 
0.2101204040532353 
0.1992055434953166 
0.1521239398340765 
0.3615574705155857 
-0.03297686027089308 
-0.03939472140642489 
0.2340238579145458 
0.0002686422144185748 
-0.095972358902973 
-0.3247877956229462 
-0.1527380801685646 
0.1214287424832201 
-0.1075323775836937 
0.2378843760110398 
-0.2452240892000639 
0.048741680567193 
0.08379532274763395 
-0.01925145963555701 
0.1258086906569695 
-0.2297649049195784 
0.158824900510692 
-0.1919966877338652 
-0.2494294207647727 
-0.09186535064063482 
0.1877785514315134 
0.02242095369531506 
-0.04671345639817849 
-0.2279584899360463 
-0.08581380112218732 
-0.004237768981534423 
0.1734676161131147 
0.04756226254395995 
-0.1791314127333077 
-0.07847532548974415 
0.2516720968783784 
0.03292998700805644 
0.1936083937726287 
-0.392980416301326 
0.06466817475711006 
-0.1092495714429636 
-0.09436666196703929 
-0.07325161814750365 
-0.1304383442483799 
-0.2386168985750518 
0.2117423856307164 
-0.07759975843472455 
0.08151172527857553 
-0.276809206322546 
0.3220932864692655 
0.1069982253343343 
0.07721311690186709 
-0.1360480357333479 
0.2293521484453621 
-0.08689096951037661 
0.06415497070723723 
0.04108096652928118 
-0.05594589363073137 
0.0569723102283491 
0.250527888695426 
-0.01895128596630666 
0.01477165155916515 
-0.2394415482885146 
0.2339893957209326 
-0.07086406312355886 
0.01206083907593185 
0.06593977919570712 
-0.08410397001175038 
-0.02225461512907029 
0.2630272836748856 
-0.02697307253732811 
-0.1510723336544474 
0.1398626866941379 
0.115017054395401 
-0.1987395283224342 
-0.107666553724525 
0.2788466931931635 
-0.02251716302732127 
0.2332782202053426 
-0.1607685721200884 
-0.05922588582331142 
0.08928280337135351 
-0.1663445484927929 
-0.3402668481371259 
-0.15923167706836 
-0.1739711067644212 
0.02138799247423433 
0.1389388212168182 
-0.176519707046991 
-0.0330654328147446 
-0.05140165694797943 
0.2630397590336369 
0.4123335354531934 
0.09791243497187035 
0.1548864353329954 
-0.05391579057257619 
0.1962268529268841 
0.2971393535289775 
-0.2866233914704484 
0.1103779191439857 
0.05075050187972106 
0.04022020016419574 
-0.08865055388909747 
-0.06720676818924425 
0.07577501624941822 
-0.08839734408222809 
0.1167938241699725 
0.03336675042687633 
0.01745317265177651 
0.1942164493087604 
-0.1739661048472034 
0.07212969022287942 
-0.02230499721617413 
0.2216789513955516 
-0.1521949146625174 
-0.1489685091395354 
0.1617347984002471 
-0.0579360097424808 
0.1034560912740644 
-0.05885666245804939 
-0.2286558812152518 
-0.09480116595506462 
0.2443842258832095 
-0.05218961477773908 
-0.1294231538067309 
0.2720395032489015 
-0.07806757621495049 
-0.1278569428171459 
-0.1722686118932036 
0.1134447190894487 
0.1231639297604078 
-0.01853045295168224 
-0.05710749408913104 
-0.1180745858631884 
-0.1337640856305186 
0.0732407544577465 
-0.0784110759608742 
-0.1788422835349952 
0.2370732124840225 
-0.339032933166809 
-0.130050289825075 
-0.2087870248664481 
0.1251515252735115 
-0.04302187997340842 
0.1222034018152006 
0.1046849649175434 
0.2102667794731534 
0.01779640835076177 
-0.3502553975549625 
-0.1869422466094045 
0.1452453756188912 
-0.1348093313872269 
0.142720572993624 
-0.1111859950904333 
-0.01404304177660605 
0.1410012034116846 
-0.1063792038436326 
-0.004714762215538102 
0.159003982117546 
-0.01975071727973619 
-0.07769270219364013 
0.111414793817662 
0.04226251853391234 
0.1407037236784579 
-0.2137898933090978 
0.260870893893919 
-0.2646741435676997 
-0.1942928150604835 
0.1352297257153871 
-0.2324073385191632 
0.04824336573890943 
-0.2894530235566052 
0.02792788027713526 
-0.243144449027124 
0.06493958109891312 
0.05509977959530972 
-0.3467026757791777 
0.09656073078094358 
0.05209907087058813 
-0.2131488083336005 
0.1197320319108917 
0.08936471567820041 
0.01828056927694516 
-0.1469425340115982 
0.03165680445400828 
0.1663174825253066 
-0.1335406922075285 
-0.02014022484745038 
-0.02296215390620425 
-0.1278532715594434 
0.06092035228597208 
-0.1362013549322963 
0.01928571852274698 
-0.1422464285404916 
0.01023846694079173 
-0.1931741177365872 
-0.01932742510444117 
-0.1143478581717795 
0.214636718613548 
-0.2026037165269141 
0.008139539184746311 
-0.01826016717023203 
-0.01733502714231799 
0.04911523185018281 
0.02628715591955272 
-0.1727618144571408 
-0.01757593807719433 
0.2396815880896909 
-0.228109519110292 
0.01889014330631021 
0.1682254386351093 
-0.08151620795279091 
-0.1153377398614915 
-0.09893890548117598 
0.2123326198023053 
-0.2099348603000041 
0.08019756803015299 
0.1451336100198689 
-0.02530340814756093 
-0.02386039783904528 
0.1175930460040926 
0.0213003722473787 
0.06440876941448785 
-0.08651838029830654 
-0.04040502706150631 
-0.06166829335101222 
-0.1306171550594873 
0.05836985506615548 
-0.2086757138856913 
-0.05282800804309211 
-0.1243901515311598 
-0.1736002620192535 
-0.004771974531332206 
0.1134723359605043 
-0.07519676680717244 
0.05008263278179826 
0.2297840924060453 
0.2950163629426051 
-0.1007429405314765 
0.2189674280013101 
0.1192792659526193 
0.01440358457694482 
0.1233162218129059 
0.06977311536753963 
-0.02638482258971936 
0.04512115923969483 
0.3065989956936961 
-0.1246014054323978 
0.02961880719396032 
-0.03317820369114913 
-0.006913972853184123 
-0.205905280427218 
0.01395766572451525 
0.03083775849774847 
-0.2988614615028973 
-0.3040193908781286 
0.0685611616835833 
0.09686662478113618 
0.115103386718296 
-0.05095925405927125 
-0.1818248387262451 
-0.02672803876476618 
0.04977481824134297 
-0.1955321418446927 
-0.07522828189777159 
0.04187459338011432 
-0.210988168860103 
0.1213071455383011 
0.08359014730341541 
0.03014110408093051 
-0.01538110816079912 
0.1548691735450001 
0.1716889576361801 
0.1812644321946459 
0.02612450324110759 
0.04108624143893016 
0.03481683236373791 
-0.1321452084582449 
0.08893129481273304 
-0.008385484162846254 
-0.2339233845924217 
-0.02188956894521788 
0.1136703486655444 
0.07195311303506573 
-0.4373733122882638 
0.0310033565878692 
0.06184260125379672 
-0.04773420511070326 
-0.06412226552027421 
0.2346056680087718 
0.01340705293248542 
0.09048373866279415 
0.1479877152648679 
0.2692119938584767 
-0.08925338352574731 
0.057353727757453 
-0.01069260944031819 
-0.168634872520139 
-0.09938328163541288 
-0.04399757801115204 
0.02147264092857459 
0.0855607408716292 
-0.01403979557427039 
0.06283628311675621 
-0.1070128633944428 
0.007267474169859208 
-0.12980190142213 
0.1235610743547858 
-0.2141921599753074 
-0.132866434289624 
0.01588281887959423 
0.2075184989299225 
-0.01003901416377849 
-0.2568824924789007 
-0.1990998036912248 
0.14033243360877 
-0.08847477587158213 
-0.05591407668551762 
-0.1709149670293616 
-0.08635773379882294 
-0.4357370881409632 
-0.2427344567617403 
0.06885777561773769 
0.2436118988696102 
0.01385147082669 
0.06456473517239608 
-0.03591427186130557 
-0.1444707948912694 
-0.07040262309563711 
-0.1665075978468861 
0.2310193359155613 
0.1316748472642731 
0.1995807607319406 
-0.2260624578294221 
-0.05154604869042143 
0.2468967980720984 
-0.06468681793626145 
-0.2868375578841614 
0.02792372175053296 
-0.2723300989607997 
-0.05400316482902553 
-0.1390232273943704 
-0.1497944532752775 
-0.2750136512673127 
-0.007669447743855406 
0.09768528465309355 
-0.0325208553995169 
0.04837452407045216 
0.04632011188234133 
-0.2263910949814739 
-0.2164084096910185 
-0.01418699505235847 
-0.130181092614208 
0.06420399994938999 
-0.03167122679171991 
-0.3078158936348041 
0.04857624162804445 
-0.3572434350091107 
-0.1289949886217046 
0.187786406710938 
0.3310196280524755 
-0.07069204632303615 
0.0257109292449397 
-0.08942844274423992 
-0.03934081460798777 
-0.04789874932503342 
0.121048529589087 
0.1916486107330498 
0.08136888575304917 
-0.1005611454819731 
-0.1234991482355456 
0.1380396563939661 
0.1243764780941953 
-0.1839036944554295 
0.1546946358925336 
-0.1090208595426376 
-0.2307029882938594 
-0.3262842482462327 
0.04930284361504727 
0.002436487820044445 
0.2980353130478087 
-0.02100649857564415 
0.09843087043137372 
-0.04314145037926136 
0.3776245173797853 
0.1755342153589902 
0.08271979081771301 
0.08233861799997745 
-0.1063032723707227 
0.1269280851674808 
0.1722288259440078 
-0.2282571581187049 
-0.2130929675056708 
-0.1732376536046246 
-0.009826162764669206 
-0.0946201475600694 
-0.257142226104199 
0.08109803416057552 
-0.0230644680501902 
-0.3898857878173175 
-0.236165529991692 
-0.003784117928744759 
-0.008406793394727491 
-0.1372880806227741 
-0.124490155911404 
-0.2676345933134915 
-0.4008680047385194 
-0.1102826726740311 
-0.1567578465969284 
-0.1556171529496371 
0.08856052378614249 
0.2972916886479415 
-0.07864232009656252 
-0.309278238043669 
0.01599269118554935 
0.04282606211014161 
0.02369986663640749 
0.2438852787733491 
-0.0297249367095788 
-0.04858649687845159 
0.123287035066357 
0.03263469624492933 
0.126883703374886 
-0.2186156349070896 
-0.2859493873977504 
0.03316428023516635 
0.2222000333004606 
-0.1793857789172925 
-0.2980439817719711 
0.02335520296140713 
-0.2482563441791151 
0.09739383182169381 
-0.1381891299528037 
0.005542976350324615 
-0.1066121379663103 
-0.1282416586361921 
0.1682973956149659 
-0.1277560747257367 
-0.1166818132221738 
-0.02894846539443756 
-0.001758761214062662 
0.1219990325770774 
0.08179405810505035 
-0.07542208530496555 
-0.03645811025648994 
-0.06536281467216774 
0.02570761057112907 
0.1313764724790299 
0.07675738791895995 
-0.1379264716237522 
-0.1468298607960898 
0.2485067341759312 
-0.2280121811661365 
0.3678764012533922 
-0.01306522158657015 
0.03834389085583378 
0.1987704999718807 
-0.04872779930382151 
0.02537901505017174 
0.1793444895599703 
0.2608275997266729 
-0.02287478656642875 
0.02128001044693812 
0.0122296895008144 
0.1319987119318648 
-0.07967665497697719 
0.06019635080765234 
0.09207344592105171 
-0.09926552529099832 
0.04456121308688421 
0.1363017445386004 
0.06976416855139361 
0.1171804757798077 
-0.101026381488592 
-0.0935323192661352 
0.1040090947769184 
0.02753901883643374 
-0.02414634783500362 
-0.2497011943642151 
0.08392309490227494 
0.1656577932314763 
-0.1052076117289625 
0.08316508729759067 
-0.07539646712743635 
-0.09704695933744212 
0.1285866816342378 
0.06060422198220835 
-0.1396705865389325 
-0.00352375920795991 
-0.1227259957074456 
-0.02130277769086217 
-0.2106545360395602 
-0.1055045529710466 
-0.1436658877051839 
-0.03770216907226014 
-0.03454304387455288 
0.07557963701226036 
-0.2269143627653756 
0.1227053252451139 
0.07631563123424573 
0.05276524538872489 
-0.2046290563019711 
-0.1002974228420015 
0.1255384295339406 
-0.07926365363676095 
0.04972016299446644 
-0.06064445910378188 
0.0545237453111319 
-0.007784906951418249 
0.06970405797382401 
-0.1730731303353095 
0.03942844595468115 
0.109687288159854 
-0.09801804244095508 
-0.005933763999427751 
-0.006775124166897828 
-0.2042231796855372 
-0.0400621035732488 
-0.3576629342490706 
0.1418238652711334 
0.08807034027648865 
-0.04139264804315934 
-0.1596082460699435 
0.1814886618954958 
0.07133466292359206 
-0.1563583611537497 
-0.01149062662508774 
-0.1698317044689116 
0.1433829878673849 
-0.01527491523862617 
0.02695415850911712 
-0.0001492286253475483 
-0.0993814338519956 
0.1562115123317558 
0.1026538092909132 
-0.05619632405197653 
0.07205362291869434 
0.02359017692333926 
0.09937023145278168 
-0.08595578146513155 
-0.003609285836089319 
0.001709836077239094 
-0.1065733196987279 
-0.1023792595733916 
-0.04317341141861483 
0.08301428311104128 
-0.06483168697237005 
-0.4186894827937497 
-0.07554770961528723 
-0.1040907573750041 
0.1108683171617975 
-0.2904462632239309 
0.09522562273270305 
0.01633226899992212 
0.02348590631558317 
-0.1896506325883837 
-0.1469890531606382 
-0.008260313291570603 
-0.04004522439885666 
0.1225013396881749 
0.2090800410585552 
-0.01214864849011453 
-0.003712757074239731 
0.07319312010842027 
0.05276022666390247 
0.2391339685014648 
0.1190169503266103 
0.2625148128268121 
-0.1086968247495701 
0.02657050874409366 
0.009885628387260108 
-0.01993200522410691 
-0.09861289721273249 
-0.062626123071542 
0.1176402819756684 
-0.0691874748455948 
0.01606596162456099 
0.1438728792005141 
-0.01332037129179243 
-0.1079382960912129 
0.01239245247384477 
0.07633446702006949 
-0.2609266698948871 
0.3238531080980795 
-0.0537416799421137 
0.05208683996339882 
-0.03489869962353261 
0.2025751671611034 
0.08820543332589892 
-0.1363568492477246 
-0.03769465837918139 
0.1566489566597328 
0.01264206880155466 
-0.08088852428884356 
0.1995335397032303 
0.007236372364319692 
-0.1516904801491592 
0.07364775621734135 
0.04906601949462203 
0.1494540154777909 
0.110901710533598 
-0.09379926336697972 
-0.02332523632106526 
-0.05252202055760651 
-0.2678533898144834 
0.0954989103548161 
0.06862878665672333 
-0.1004213359033914 
-0.01466645873032788 
-0.03168151013822895 
-0.01200103499669416 
0.3312629557526307 
-0.05942257538292589 
0.3926884922814241 
-0.06697507463622772 
-0.04685943455716693 
-0.2285220850433626 
0.2202690759386589 
0.06785688989277644 
0.04196539282779743 
-0.1349267723697553 
-0.05098601425293188 
-0.01541549932444396 
0.1760793876209762 
-0.2071823103480282 
-0.05348719510420952 
0.05898919530806753 
-0.1930692301480571 
-0.01097620767056131 
-0.1080658294251104 
0.2768836785438452 
0.0007251457006472364 
-0.1232728976666292 
-0.02187690500846651 
-0.1324201230183023 
0.3009160273165238 
-0.07031333514825659 
-0.0581684398804565 
-0.112751706655035 
-0.2977763412352663 
0.076895804204336 
-0.04043192804515104 
-0.03756703329207643 
-0.2945823873295954 
-0.1749367579738004 
-0.2399085430429934 
0.42304159912907 
-0.03543282672511699 
-0.2639143209393505 
-0.109113429364075 
0.08048047200055793 
0.2900423608954537 
-0.09626224037273158 
0.3261996180002053 
-0.09775609423199046 
0.2482034973832107 
-0.0941686067570888 
0.1403489497850033 
0.05886999102160688 
-0.007182152358305691 
-0.2009757414147131 
-0.1774116024258572 
0.1590333261567866 
-0.02379189962938706 
0.1277685344204477 
-0.3662186965365322 
0.1464817384990491 
0.08470139343800834 
-0.2976373373679497 
-0.1605500059058993 
0.1568783621038971 
0.08062517294857523 
-0.0442978341915163 
0.1116323540087863 
0.01998040305965098 
-0.03692477795855518 
-0.04273709816279069 
-0.02593465610927802 
0.05353564828063737 
-0.2255974816183596 
-0.03393061908609071 
-0.09751928028740998 
0.1586753562502364 
0.01560800315878144 
-0.05661055582405363 
-0.07623965516730578 
-0.03121158710361518 
-0.09570575176440427 
0.08363944695744224 
-0.001151306044522461 
-0.3297896021939614 
0.1646731591625586 
-0.08064024438545117 
0.4127863199501838 
-0.05338415135218814 
0.09359367989241733 
-0.06917260370646068 
0.131035083892754 
-0.05030664582989785 
-0.2301226249425169 
-0.04328979797574244 
0.02419775309236596 
0.01979153060571577 
0.08496251121406109 
0.004189950370765138 
0.02989729231667238 
0.1584995507660405 
0.1177707719952371 
-0.07531817753475288 
0.277946893349908 
-0.2057392860391548 
0.1236328728050276 
-0.04883443937142074 
0.2924239140015388 
0.2355566109904284 
0.2672115771867215 
-0.1360679597980417 
-0.1185142119447168 
0.2851879189103017 
0.006049839759941916 
-0.03923236972017417 
0.02967332507076419 
0.04711619825743224 
-0.262625698377999 
0.2011559526955652 
-0.1174976053694682 
-0.04382274258971396 
-0.1184333113056819 
-0.09947441380973683 
0.2258630183542112 
-0.2860973740219834 
0.04190349969798396 
-0.05906552995879342 
-0.0174147939904864 
-0.1896681009143391 
0.3659068131107962 
-0.1867603936466089 
-0.1886833594285689 
-0.1555562515625906 
-0.1494824947564882 
0.324239199781464 
0.08181170241895661 
-0.09849444590860096 
-0.2527001586558055 
0.07736678113174689 
0.1961007460722051 
0.06556376295285021 
0.123080110006536 
-0.1629345497957613 
-0.1238498624491106 
-0.1026733335752554 
0.294837958700794 
0.05273570363485124 
-0.2169775013304768 
-0.2191662432984198 
-0.04295948991937208 
-0.1959538931520535 
-0.07660435576459486 
-0.1403243384485722 
-0.2342377081498742 
0.1445577432903526 
-0.02568864426242173 
-0.155620062232838 
0.01705293445738538 
0.0326324917469556 
0.2474308015342606 
0.08569767378889506 
-0.1245237061314884 
0.006818534347470582 
-0.08475451773373251 
0.3564034185406837 
0.0275175510894761 
-0.07180037940998885 
-0.03112330409725563 
-0.1646233184025404 
0.1537528762617989 
0.03744496717616295 
-0.03957548931965352 
-0.03624301406404302 
-0.2110510264430493 
-0.005424266441323116 
-0.1697159859701696 
0.2997833025851845 
-0.1137221247926788 
-0.00509444229446581 
-0.07751078724334313 
0.09868200057824787 
0.04505410412653438 
-0.1222102643405098 
-0.1283636028483636 
0.2472561031111019 
-0.06130742781295193 
0.1955406877998068 
-0.1144559687337923 
0.1157634855466627 
-0.0215707296865707 
0.07840815322679537 
0.01667382463043425 
-0.2546027497113861 
-0.114876105829173 
0.1415549942930301 
-0.2546386161253322 
0.09133718878355894 
0.03225924482593964 
-0.1769376519847431 
-0.04266674056760299 
0.02810738168330255 
0.02619840575392397 
-0.1697050233286086 
0.02218129860759548 
-0.1512327777907723 
0.1483861818994222 
-0.05452534704098174 
-0.1817688880821085 
-0.05578035893488092 
0.0041231606213759 
-0.005990974588366278 
0.2053527876701107 
-0.2502812875352865 
-0.07844190736250292 
-0.2961294682602699 
0.06971156046776955 
-0.1911638304053135 
-0.02599543519998551 
-0.055389624554293 
0.09326666539292598 
0.05100499456292313 
0.09048554318300345 
-0.1615614443812924 
0.01694715721141881 
0.06352545415178455 
-0.03891708157294963 
0.02204427290628291 
0.06166844789774586 
-0.025999908555939 
-0.06939426944624397 
-0.01326126446186551 
-0.1097020426508149 
0.2100146563617514 
-0.01254285839147987 
-0.170685649011838 
0.2354011522734925 
0.0498962566644319 
0.08571656624942198 
0.07680782502250807 
-0.06462380476335079 
-0.03351912040886786 
-0.1687720459441014 
-0.001162794825438839 
-0.1792696939761535 
0.1419691585145774 
-0.07913217131608774 
0.08868676675243886 
0.03844184174716987 
-0.03187101992115346 
-0.05220225112854335 
-0.1022969041602084 
0.02716470750787813 
0.05815191371281198 
0.1856781731264616 
-0.2454466707836038 
-0.01866381357496925 
0.002413305010345122 
-0.002454325039008102 
-0.001987558136301925 
0.168146638200369 
0.05864495049196653 
0.03494655683661602 
-0.03609113604489641 
0.1533671638812525 
0.0854012514483536 
-0.1592877251559899 
0.02553721486486318 
0.2003126335316396 
-0.1378632557860497 
0.1185123073072316 
-0.0614976152714246 
-0.1025109708898622 
0.04090766134747242 
0.1633888559115588 
-0.1249219752808547 
0.1094125421526497 
-0.2200840354941964 
-0.02172603233277837 
0.04622797055354435 
-0.08022909769561326 
0.1451074194497107 
0.2540353530520026 
-0.0213540951019331 
0.1333972276318546 
-0.0598591655993803 
-0.07046733821821581 
-0.09244195865529378 
0.1352457122408127 
-0.07584054677761408 
-0.05709554734156493 
0.1522487602538886 
-0.1287960036493407 
-0.04382553569997359 
-0.009373364780143887 
-0.03668455441270323 
0.1545428659568367 
-0.2588138166490732 
0.2194551127362424 
0.07634825406988703 
-0.3754571184710999 
-0.1270384798772934 
0.08644794659045735 
-0.00722489890074149 
0.09637963099126805 
0.03939731556352546 
0.06278299880496009 
-0.02762210836540805 
0.1883820716902826 
-0.2114121144865005 
0.05941086518571389 
-0.1020704305396602 
-0.2019128232855297 
0.08422789928299566 
-0.1019175900011095 
-0.006493942197768609 
0.0001692277516026272 
-0.08110263602319583 
0.3218994916622597 
-0.07665626538223304 
0.1123587803481134 
-0.1619502522515131 
0.2152228219164829 
0.08078613676403242 
-0.05911867479062635 
0.0169194562406274 
0.2040126853566533 
-0.09619235989427166 
-0.09081191041717196 
0.2180838321265665 
0.3780968243527846 
0.09565235592666496 
0.1386005438734103 
-0.01492388465875081 
-0.1003774384301111 
0.169202622542128 
-0.1933759253637767 
0.1647624582896915 
0.07781791782044187 
0.1893336706603238 
-0.1354561332444813 
-0.1828472397457266 
0.1836924170694716 
-0.1697566988449043 
0.1495851901812502 
-0.07259568833734513 
-0.2286835884566054 
0.07165658105822045 
0.2112242091860329 
0.33436609856842 
-0.3451341997476097 
-0.154526814793931 
0.1396454634436356 
0.07360120634170511 
0.2001635574805524 
0.0101159537923248 
0.2733141954134358 
0.1137241028390256 
0.09762753105126065 
-0.4192206185688683 
-0.1337051683930273 
-0.1257673183623772 
0.07055307500197734 
-0.3716177257637178 
-0.3795082041542995 
-0.1221671167981946 
-0.1751724042226602 
0.1710057420350197 
-0.2144761861653736 
-0.1433146871404307 
0.0677916364350621 
-0.121858206000345 
0.04439233015804937 
-0.1865579035745757 
0.1770120600694174 
0.3303925934776042 
0.1761799933940396 
-0.168606759027797 
0.3432612374304767 
0.1015709588410919 
0.4925716052120663 
-0.0247298314590302 
-0.1320058806167272 
0.002960594626638819 
-0.3584729385572363 
0.03627257346328168 
-0.4057029198686589 
0.04828557349916833 
0.01488077150788397 
-0.2783050148493905 
0.4074900639762609 
0.1592649524672747 
0.1995314079255718 
0.06632234284437109 
0.06554363384948776 
0.06007794602729517 
-0.02606411808029938 
0.003617294777009132 
0.3190819059716743 
-0.05368139993250786 
-0.001857495083555041 
-0.1398406035756752 
-0.2580811772190013 
0.2881538823280534 
-0.004966380972260652 
-0.0591502371476877 
0.004520879747127076 
0.1596114856004868 
0.2226315185249537 
-0.09490842579505877 
-0.2196072786212931 
0.1087671752244219 
0.3115222257198257 
0.07121275416031109 
0.04471760450717841 
-0.1292565594967833 
0.05769577460463807 
0.06295929367200258 
0.1696153364893846 
-0.08326031485777763 
-0.3532069700246359 
0.02124781642748999 
-0.1293650819938005 
-0.07448348940459121 
-0.1134845773954613 
-0.004407350839406988 
0.1299275933585071 
-0.05644656586745109 
0.04101716885589646 
0.1629013117471162 
0.454348876917678 
-0.082851242308482 
0.07787578095047189 
0.02279116782205992 
0.1373431317101808 
0.0597306196204825 
-0.2010133347444893 
0.01403655186758955 
-0.1788359502321246 
-0.2413886433513919 
-0.4086040424816374 
0.122612127456317 
-0.3881614585300114 
-0.2528909724346132 
0.1886716579783957 
-0.2285523493221711 
0.2282162604899815 
0.1066448404348619 
0.582874886003385 
-0.02631869344868226 
0.01014696559122359 
-0.1720824321105121 
0.2050792887906881 
0.250062246267192 
-0.0721420137826109 
-0.4137045103361862 
-0.4805207982788319 
-0.3138055067184625 
-0.075426508237041 
0.07309332078969792 
-0.4783673187418004 
0.1044317569207878 
0.2776407148162625 
0.2644985985824186 
0.09963952338389293 
0.105832980024858 
0.1259505014888629 
-0.0727553279836945 
0.2442754585651679 
0.02013017940953289 
-0.2433643864342158 
0.2551512967582863 
0.3347348924590058 
-0.04479716986874951 
-0.1082597015096149 
0.05392132202311744 
-0.1235718370710857 
0.155252403373181 
-0.1112083564616621 
-0.1300254688396649 
0.004414036018503439 
0.1190173957658106 
0.05005350129944609 
-0.1699583477966636 
0.1599843177456113 
-0.1891123148962452 
0.1585227568763574 
-0.3614792810383133 
-0.06375585679173167 
0.08710275569773961 
0.4416198501402486 
-0.03262403533968895 
-0.3192501050530157 
0.2850614716693907 
-0.1272994723179863 
0.1292202294063133 
-0.002404484247666145 
0.1649727701697645 
0.1119918122550834 
-0.133981707866224 
0.1649688814910955 
-0.0271028106806256 
0.2130992670994915 
0.06277843126243647 
-0.0256292105111767 
0.05599886207554867 
-0.3301437597827138 
-0.08912827871511583 
-0.1258756313898288 
0.06133101288680258 
0.04108884054775335 
-0.1255694042760753 
-0.207556199647785 
0.07132390630900878 
-0.1500074624573616 
-0.0220883940922023 
0.08339927722437908 
-0.283680495177451 
-0.03978190386402702 
-0.0206673922474205 
0.1906862428547295 
-0.07440612096300665 
0.151807166313639 
-0.01287802220469093 
0.1647308099590902 
-0.110233532046419 
0.01834508036533806 
-0.03896300822456727 
0.07308849576375538 
0.3061932264786065 
0.05404218579189601 
-0.02669158230206356 
0.1510319645845613 
0.1523825873551873 
0.132346498688561 
-0.08426762649017254 
0.1404256844110367 
-0.1522410802059774 
-0.2098589043495852 
0.1414080104130987 
-0.1512264635723629 
0.09215571423172583 
-0.02674831676027511 
-0.1180012511286303 
-0.05846222717198933 
0.0005988707831258518 
-0.03321926025910066 
0.124657588446059 
-0.02839086183731788 
0.1111156113836893 
-0.09495409208086383 
-0.0803615710423146 
0.09699202652674935 
0.1815840321133149 
-0.1703757528190527 
0.08292252967134539 
-0.007319914514860102 
-0.04242861260061859 
-0.02950267815115739 
0.1165783915947155 
0.1741287193539734 
-0.04588047482123157 
0.1823968757637919 
0.03437545220947825 
-0.001309963745051124 
-0.04715714877622881 
0.1570200713899544 
0.1517194669306333 
-0.07725914055697145 
0.2380556756001004 
-0.156216010083593 
-0.004819262059832618 
-0.05766163682197965 
-0.02710580786961286 
0.06342934629934163 
0.08539180221469742 
-0.09802754867159637 
0.07457476113140854 
0.04268181585134476 
-0.1079349676331153 
-0.2795959896785154 
0.06319361969145119 
0.01487013482320489 
0.231624536319768 
-0.01096563905468159 
-0.1089800235251087 
0.01462185549830297 
-0.1986089226902633 
0.1898452589873152 
0.2663395057452656 
-0.1409931524405823 
0.1484880794674601 
0.04691232012953409 
0.2888464992051349 
0.05112018570173416 
0.02994728948697791 
0.2844717186686403 
-0.22576338710618 
0.3121105003313884 
0.02133167132480212 
-0.2309591907262539 
-0.2220316169709643 
0.05292653329961129 
-0.266922473064561 
0.002544372043391305 
-0.03240087495645872 
0.1642727240673864 
0.05641261873440431 
-0.1324220993114806 
-0.1626533575348178 
0.1047172591303216 
0.04846113256621033 
-0.009095724299821518 
0.0467185482498552 
-0.1212718795466793 
-0.02086397589415569 
-0.07223315715106086 
0.09273742283922413 
-0.05927727287215739 
0.03265583427554807 
0.2143464900144238 
-0.05063495635573834 
0.1311491460008744 
0.009336573142774838 
-0.2209738314081233 
0.03564478061819037 
0.01159715482954648 
0.2908863722489687 
-0.03577428104747406 
-0.3824677813817425 
-0.04567375117961252 
-0.0465571776211447 
-0.003372241441403803 
-0.1612869115005709 
0.1192753303274278 
0.1007286538820474 
-0.0377907172913806 
-0.2284684923803584 
-0.2626655437770709 
0.1087276537763562 
-0.1322726263886222 
-0.06893651821187977 
-0.03940584449140143 
0.06291017672479914 
-0.2043602320555624 
0.1694026316687751 
0.1041041098144897 
0.1903259397056557 
-0.1435371732643039 
-0.01953128207333618 
0.02769126157671951 
-0.1222691543883532 
-0.1394902205729225 
-0.1631109081299118 
0.1415867867287939 
0.1685280175495003 
0.1218302441715484 
0.0610832254391324 
-0.01835848164405415 
-0.1465767684551498 
-0.1990229640102796 
-0.01367014651161353 
0.1931080525356441 
0.2220395308302881 
-0.2126112703028235 
-0.06674296728835236 
0.09774427200695034 
-0.08050767113838007 
0.138083460714685 
-0.1926363010631342 
0.03757124196407013 
0.07354212676047801 
-0.02840817321253478 
0.1188587358120951 
-0.1214666887198936 
0.1123775386660251 
0.178343144846816 
0.1474891341177493 
0.2061422146937375 
0.3311312424793061 
0.182638834473385 
0.1171665980645962 
0.1272194564677405 
0.04608764137232797 
-0.1770515888183645 
-0.1117546829804563 
0.03324705403520745 
-0.01840346024343467 
-0.1159811077269338 
-0.1184841662577282 
-0.2684695217762239 
-0.1219130310862995 
0.3549549327925575 
0.288637754167313 
0.0624173682423065 
-0.1453474053503051 
-0.2675293144376335 
-0.09853928631546008 
-0.1770611157323428 
-0.1196389215826903 
-0.04535088697671136 
-0.0845024889708029 
0.2491744210971061 
0.0104263757576374 
0.2768392271911044 
-0.2863777105914005 
-0.04781329476024036 
0.004931417846889776 
-0.3739936605759236 
0.02121808816738921 
-0.130288717485492 
0.2309133819258863 
-0.01867539367744475 
0.05193284597108656 
0.0415328947219035 
0.2249626939198971 
0.228410090733408 
0.07013757951864054 
0.1475247792331494 
-0.2070842363352772 
0.01022021357222342 
-0.07250055533487521 
0.2194712862429827 
-0.1876640249871087 
-0.186551434419939 
0.09517119933449081 
-0.0328004355817999 
-0.1479129593608417 
0.1588352724567829 
-0.009037343821007262 
-0.02938838074706889 
0.1159886964825325 
0.0870835122416026 
-0.007941056513937984 
-0.1275235285754376 
-0.01251141822681657 
0.1567099019744552 
0.03399385943661503 
0.2699421674498879 
-0.116628347464961 
0.1178909111387805 
-0.2062833424517694 
0.06362737659218946 
0.1558848616454673 
-0.2973090802221602 
-0.1919248443661677 
0.05893930387854927 
0.2128545080016085 
0.07836237425291102 
0.3726711955727592 
0.08104417813043212 
-0.05710386759132746 
-0.04166462572703034 
-0.07240855939909913 
0.137989271301751 
-0.1102362691199 
0.02276045641872793 
0.1120208442555803 
0.02389295895308227 
-0.2407004152034564 
-0.2148948581377411 
0.1219041836363774 
-0.126505999143176 
-0.08437533776667999 
-0.0209181936018902 
0.08062237680801154 
-0.1578294576302706 
-0.08048151355746901 
0.1393579637526782 
0.4513442908184133 
0.1959680849637559 
0.1085660941742286 
0.2269575329398472 
0.1345888886011803 
-0.1209713273381729 
-0.1225991547095919 
-0.1389341274644199 
-0.2994304521429647 
-0.09721069293679603 
-0.2378345498075704 
-0.3658277701526305 
0.2135555537121212 
0.151635410414329 
0.2019320700733455 
0.3583297131416425 
0.2672474466415708 
-0.1581569651899518 
-0.3753905104839433 
-0.0881464556669664 
-0.1894743719531291 
-0.1027456283342207 
0.07765276327171061 
0.0507867179599602 
0.2461566987420753 
-0.03106446795679208 
0.1934365477941798 
-0.03075280810938678 
0.2240199579222961 
-0.1356504223172316 
-0.2174055969920582 
0.1067517142590534 
-0.1078853451261232 
0.03176251231905065 
-0.1475402635185594 
0.2804240987883648 
-0.003994797487147021 
0.3599900064258084 
0.03868818602125331 
0.164662819233288 
0.0432574353848998 
-0.2583437308375212 
0.07640257618057643 
-0.0360632659323701 
0.09547809425400934 
0.2379466600498474 
-0.03465433893668908 
-0.04874788326552387 
-0.4608888004836503 
0.05088389326679089 
-0.09317608030648965 
0.1593931372666856 
0.1889382529165293 
0.03407353720195219 
0.250467326301444 
0.03610024200747265 
-0.3199255333119413 
0.1482799813352062 
0.1259118325550117 
-0.2817009500782421 
0.1186529392490799 
-0.2380198505345534 
-0.1287479737821794 
0.1543255025361966 
0.1574856972412884 
-0.09324424842984767 
-0.02822385076816107 
0.1060250820872733 
-0.1865312060677241 
-0.07716872130779293 
0.01506280868985101 
0.08926768790227811 
-0.03476355057574462 
0.102190183531114 
0.01110193425100697 
-0.08858071302466526 
0.1018754668013393 
-0.08666393653541898 
0.1166115237442258 
-0.1068603283933886 
-0.225460723122654 
-0.001747696336041833 
-0.06492556928148836 
0.1790739191758061 
-0.04351926915282281 
0.0007885037158638654 
-0.1701607877370678 
0.06405035804747912 
-0.06835930803216997 
0.1152708231331204 
0.005690803574085804 
0.07539011427881485 
-0.1977120139550458 
0.09185107135313582 
-0.07874451459926478 
-0.1272009859409255 
0.221445300275048 
0.04673377040647017 
0.07282288906088095 
-0.0987818286403043 
-0.146547249770747 
0.01133261988648959 
-0.2562674522474466 
0.2436966472025988 
-0.07043156830109534 
-0.1081954568659913 
-0.03584014663426239 
0.00252053741832853 
0.05896581885927317 
0.01762200654994145 
0.3029514622938842 
0.07652172030591851 
0.1298828421959493 
0.07924628888601576 
0.1990106584530648 
-0.3804383678334996 
-0.2419657187566777 
0.2535922145754121 
0.1491503171982952 
-0.0229148673066357 
-0.1163573812191938 
-0.211539966599109 
-0.02070293008379245 
-0.03733030497149777 
-0.127468385813586 
0.04136612609324113 
-0.1288914790774175 
0.02294176779534357 
-0.02827085313968205 
0.01040232079217859 
-0.3143294488076315 
0.1358393437105022 
-0.2398692302560531 
0.2079741429494668 
0.07817163243768399 
-0.2080564474998078 
0.08516633414074194 
0.003009334856854667 
-0.06726779836297171 
0.05681100724194713 
-0.03573880565609042 
0.1027941142273174 
-0.04737066918967388 
0.01475703970431261 
-0.1371042896146979 
0.06776623537289311 
-0.06074051289924692 
-0.1973216868594743 
0.1784689001154758 
-0.09104419490956525 
-0.08659554965700215 
-0.1412384352354041 
0.002321547032089942 
-0.06670421956651265 
0.06729706077703128 
-0.1704828898407572 
0.1679013845107084 
0.1326098945814687 
0.02741692938447798 
-0.2417542779430447 
0.1608979370253359 
-0.07107811600665891 
0.03012746106645796 
0.008784481572854984 
-0.09689033654409072 
0.2285893720302131 
0.04650876846921392 
0.04876370283093451 
0.2161685709860556 
0.3281885563122556 
0.08792585153207698 
0.09285169543380953 
0.2045511029660415 
0.05870076160480645 
-0.1957982634261851 
0.01646386362651023 
0.004553573142112228 
0.1099590193460647 
0.01044045463181752 
0.1663996400781173 
0.3156379446605823 
0.2247391946447487 
-0.05521689902310804 
-0.06252648621565118 
-0.0131680855591131 
-0.1310033966639609 
0.07126820085649983 
0.1037192916330519 
0.000667141038023736 
0.008913118683495404 
0.05609488680530128 
-0.07344011400547969 
0.05329431856236688 
-0.04150510616180008 
0.04165364237117392 
0.0940782703294598 
0.1187518356054821 
-0.1468089429233453 
0.1837144355797316 
-0.2003524059284241 
-0.06989467832373605 
-0.04810752230507069 
-0.02231539369723206 
-0.06470108199223172 
-0.06355203071640264 
0.1883287861259237 
0.1133251271079831 
-0.1608522871205851 
-0.02353246870800688 
-0.1781546684721532 
-0.1337916729704207 
-0.04683122899646346 
0.02022452834040885 
-0.06632881576653035 
-0.08501243977617785 
0.04046688173166989 
0.06170681190097516 
0.2090852907652689 
-0.1440548810530143 
0.001524111049536294 
-0.2255089441696738 
-0.07242558211725508 
-0.08251541602111202 
0.03102614234773809 
0.117515140350999 
0.0619200960105364 
0.1123633168692817 
-0.3213012549844407 
0.004230511934581646 
-0.0147221750608131 
-0.03272655010364303 
0.112864545174336 
-0.1225684925735834 
-0.01299404307077462 
0.1108162082889778 
0.1228432002771014 
0.0508385976259637 
-0.2054293684038581 
0.02121804082881717 
-0.08250922773791093 
-0.06108845471446255 
0.115413280954862 
-0.1167825308522464 
-0.2874540649814367 
-0.09708553764941705 
-0.08446843157388632 
0.04540620609820147 
-0.2068336454385855 
0.3261150273278894 
0.2430280598116272 
-0.1836205267917028 
0.1950979348296116 
-0.1108442195866069 
0.03506386550226524 
-0.3250098639536333 
0.01481932620370718 
0.07742488609892861 
0.2156414329899055 
0.2121693272776177 
0.135688231477284 
-0.2840376963627516 
-0.007135847909421319 
-0.1756965488308665 
-0.3312774653373501 
-0.1130589734509437 
0.1556821225042842 
-0.253638563728635 
0.03517395814981606 
-0.001071929168799404 
-0.08423455458915562 
-0.09814608590769841 
0.08728994306933451 
0.1136146082263785 
0.162377552070814 
0.297024883329423 
-0.01738703829249858 
0.253257874237272 
0.1603500148529207 
-0.06025787132705613 
0.1724376429789919 
0.2624752052465609 
-0.135822455516283 
-0.05091521252775569 
0.08495282063069549 
0.2215489827119365 
0.1341620990271197 
-0.09959658076826344 
0.1022221739968569 
-0.04076984849461383 
0.1816880306536905 
0.1400992072119662 
0.09692605748474918 
0.01309008892026275 
-0.08339788661501303 
-0.04170041316212974 
-0.0552022730271966 
-0.1642248963892883 
-0.06796188141343612 
-0.04646951853883682 
0.149555511816173 
-0.1190021870664391 
0.0240761887214905 
0.1512551761300409 
0.1635021974807608 
0.1514037899516758 
-0.1410898895925967 
0.06131385993029178 
-0.03612610636348348 
0.04137972900183164 
0.05020644346860443 
-0.05936960784865292 
-0.002510742723055158 
-0.257144832648435 
0.1254584532333813 
-0.2611851532028934 
-0.3728542843671822 
0.003910642334948232 
-0.1422645049616197 
-0.2210965185104814 
-0.09514954288942484 
0.07437103689769523 
0.06461214572777098 
-0.1285846913133234 
0.1955699293976285 
0.1208697863278946 
0.25404726522232 
-0.2219346400544657 
0.1510444112386337 
0.2581963313576803 
0.1517396727115364 
-0.1728195406578593 
-0.1014465396886736 
-0.3034056248319067 
0.04062111639488013 
-0.1217539795643202 
-0.1670020279686149 
-0.03910591622661319 
-0.07324471799516984 
0.5745454551767113 
-0.1616874954890372 
0.05015806981531926 
-0.291357560711522 
-0.03473515259694454 
-0.08728601218819985 
-0.104048742690489 
0.2525137419657117 
0.1048123197532257 
0.01114543183065384 
0.2139765714689017 
-0.06296346865843644 
-0.1308238980093111 
-0.2052985241940596 
0.0982277374208272 
0.04224731386049549 
0.1406176835891708 
-0.1488776977494932 
0.00918959825303132 
-0.112927099412569 
-0.08519555042471408 
0.04653883697349687 
-0.1572898314352689 
0.0247215297478417 
0.04203681333021569 
0.1187226155505047 
0.0539148340380425 
-0.07216015350484742 
-0.02336225426870365 
0.02640142195826359 
-0.231681806842951 
0.07293293254045756 
-0.1459996095893625 
0.08566279367460264 
-0.1258992241231456 
-0.01629756421226624 
0.2114103037779824 
0.08251698257841873 
0.1161506838566688 
0.09798959968993318 
-0.0003587420144324083 
0.2843292809984428 
-0.02488250259825786 
0.001234961487591677 
0.05900848549967435 
-0.2071894254681085 
-0.05193479082279546 
-0.1427111701385963 
-0.02930683764880063 
-0.09466335446682676 
0.1458133341734116 
0.1221816943848342 
0.2117758509853982 
-0.1471976733242781 
0.1742543274984779 
-0.04750832582842129 
-0.09171033811464704 
-0.001629868776811824 
-0.1384496276264298 
-0.01019598416690623 
-0.06645345256163376 
-0.04942971984412137 
0.03407773727268801 
-0.06369215210070484 
-0.04335121720434482 
-0.01576839922929128 
-0.2221226650233826 
-0.03111705218224572 
0.1990966729610315 
0.1349946486730663 
0.03812196797127038 
0.09563006061085108 
-0.1234480532701288 
-0.07420167281264921 
0.2287486873080651 
-0.1722266683203795 
0.03686798435169332 
0.33737637508979 
0.1513453816062163 
0.0574618638096941 
0.246604160615963 
-0.3120813776008647 
0.09580085809804587 
0.1087399415920364 
0.1331124965900236 
0.06639832009562981 
0.01456600928538283 
-0.1259271573708236 
0.07610949485240261 
0.05925783192961057 
-0.003982903669133465 
-0.1109515594034707 
0.07130757702443805 
0.09181879773210173 
-0.0421502303493282 
0.05434700588775354 
-0.2359773324552596 
-0.1620672517627543 
0.08854346135359083 
-0.1127838727776019 
-0.0301652021201399 
0.07196065539215832 
-0.08010576503283134 
0.05440713285201791 
-0.2104851725117254 
0.0585513624354146 
0.1465078864761458 
-0.06584606122785859 
-0.05488979631561722 
0.04654866046337185 
0.04659697483457402 
0.1992629876499142 
0.2310362134104938 
-0.07982042327110089 
0.05134641521156374 
0.09917080134927149 
-0.1368283525493176 
-0.04340563258950381 
0.005030233151265713 
0.08237636436640558 
0.2048958254216939 
-0.08737019402054058 
-0.07750336625402357 
-0.1040344224338938 
0.02335278797921227 
0.2260952017315482 
-0.05226773465321402 
0.1639347869935635 
-0.1241003803490488 
-0.3763622597574297 
-0.01678912633493091 
0.1676449395876217 
-0.01924817992600289 
0.05660059055735803 
-0.03282367947877439 
0.2478996345020656 
-0.1379724112201663 
0.07143132895352763 
0.1286144110029921 
0.09340021304167651 
-0.09565232675013093 
0.1173278658284267 
-0.003223190141753793 
0.07315291393296905 
-0.09206508079270083 
0.00455963251908909 
-0.1393393431156401 
-0.005220420051302978 
0.01517284628889588 
-0.1810522648905721 
-0.1318895705631326 
-0.02205368039244324 
0.06460107967555966 
-0.129804424723632 
0.1601213926280828 
-0.1816409035524629 
-0.1252440491659073 
-0.1803199079284166 
-0.1390768650272296 
0.01281343834441689 
-0.08674917186163277 
0.0595671674999622 
-0.06986840590901874 
-0.1416795397854399 
-0.235903588004918 
0.006719246824045621 
0.01772911666464019 
0.08430648566847697 
0.1047060503516006 
0.06287024549204318 
0.05867691151818206 
-0.002454307031667476 
0.05694661246643729 
-0.03652801791976538 
0.04171825986533399 
-0.07543986710933812 
-0.06860265785999255 
-0.09536479131654656 
0.08010393011991927 
-0.0462423579881457 
-0.1204882960074126 
0.06828222782674848 
-0.05163789411791207 
0.1869950150067881 
0.2009349814961 
0.008610131635930019 
-0.09852578927576058 
0.1288721980505404 
0.05192126244475896 
0.04566382934278281 
0.141340235009623 
0.02875497423898411 
0.07107262510317516 
-0.2994825108094743 
0.1025703078983142 
0.2933091432796376 
-0.06326121221483329 
-0.03975652776288795 
0.3281202323840289 
-0.09042641909749104 
-0.078470440348663 
-0.1498373492598589 
-0.0755251441568867 
0.1428041775096757 
0.2116362451113863 
-0.02675400377473612 
-0.08446754646588175 
0.07178086761183872 
0.1884485911331149 
-0.1133311553913773 
0.08878982392275506 
0.03251185514003938 
0.08354798917368259 
0.08406284848057437 
-0.0005108637681418419 
0.02866004203640321 
0.05428342535866792 
-0.1052405304884807 
0.156326359978898 
-0.07247167548957013 
0.1151841951769541 
0.1955457871105515 
0.03599375510708779 
-0.1609940399101578 
0.06639818145952893 
0.004992883743397948 
0.2520506605551335 
-0.0411609214753794 
-0.02982990109446326 
-0.01322916652468066 
0.06415774376027902 
-0.02504012473142862 
-0.0104426052808493 
-0.313538334920099 
-0.1435497288835414 
0.03893853982998305 
-0.4107490623081697 
0.06358396532123374 
-0.3667087835703675 
-0.07942321787370776 
-0.2464063996654313 
-0.001295705992302353 
-0.04218848119904978 
0.0820918037581887 
-0.2724518030567286 
0.09091413346281282 
-0.003013390434941309 
-0.03474111902622674 
-0.006265362275680136 
-0.1680849681791269 
-0.2921948750573433 
-0.054768433206317 
0.04252427258535484 
0.06787846940127819 
-0.1478321355171446 
0.2746698016305713 
0.1942026916191044 
0.3622277575896513 
-0.2601875014005876 
0.00864039415803761 
-0.002636477853596812 
-0.002421271205347909 
0.06274116400117956 
-0.1398670947525785 
0.01824989382700311 
0.2338714981707139 
-0.07988607030413615 
-0.0834478541260882 
0.1724465426288743 
-0.2279703983459234 
0.1820199289552626 
0.03988616146517725 
-0.07965871153981231 
0.06418829157891967 
-0.1847340117331585 
0.02344123833442519 
0.03614745646129637 
0.08776803367719092 
0.0226839959166389 
0.09385942064054272 
-0.1445253130209101 
0.08197150508213623 
0.04483087574597881 
0.06902743577039182 
0.02532175985493765 
0.1044458061626689 
-0.05298697945158848 
0.04081358371848742 
-0.09847708239342803 
0.01960107758699183 
0.3197199808778316 
-0.05479848371541005 
0.06731207699585191 
0.05155030459570038 
-0.04841797813471271 
0.18033618401246 
0.07219401370761352 
-0.1401533923035131 
-0.0001789032804238873 
-0.09206371718438544 
-0.01183345966993912 
-0.1412194059897198 
-0.06405270264114236 
0.05723071035873154 
-0.06323158733754312 
-0.09707105287397173 
0.3223819185855569 
0.002307686511209606 
-0.1094945261604751 
-0.1105068880933478 
-0.001414312943799199 
0.3595021399801708 
0.01761381923224489 
0.0001757316306178344 
-0.3172719301899077 
-0.08228794014039084 
0.134414760131449 
-0.04536526550373321 
-0.07938949402924694 
0.05731325447776521 
0.0007609013028889284 
-0.09588105172694145 
-0.1414308091582683 
-0.2181010568186734 
0.08193641269456915 
-0.1951101406442833 
0.02322778089259676 
0.06829889328064885 
-0.1380653304889888 
-0.003016418898885888 
-0.1943166722335522 
0.2363015440578573 
-0.05004792024350175 
-0.1151668977403995 
0.1604110005630532 
-0.2354933327856902 
0.1252417331660821 
0.02161909897537675 
0.1596802778279213 
0.05133402512055779 
-0.02346748041508405 
-0.07393396557031125 
0.1604557243120645 
-0.1226928629029493 
0.1062780318455563 
0.01102938833315772 
0.03881782899800025 
0.05367637839153561 
-0.0827207342813073 
-0.04693541867670863 
0.008579705167621209 
0.3304368497148956 
-0.1085055504128433 
-0.1267692008727372 
0.04717709333272647 
0.2573856075472616 
-0.2019170647201649 
-0.2540737396568464 
0.1775619527959629 
0.02644422356502163 
0.02366617349239503 
0.2691192386316365 
0.05495734470919408 
0.1045644187747615 
0.2535165729220604 
0.3051553999145 
-0.3118428990632762 
0.05322600878113366 
0.1368563461751714 
0.1202091211727443 
-0.09905878725376938 
-0.2559697635204696 
0.003314722225157241 
-0.1911021612572677 
-0.2326076479492932 
0.2611733495462203 
-0.2217148392614134 
0.0897426464620137 
0.01473670767692293 
-0.04534007338853302 
-0.0491465760065924 
-0.1220645993731837 
-0.3158437757714537 
-0.03786698442502152 
0.2263731404871646 
0.05269063896998892 
0.07995100470627949 
0.1091473376823434 
0.02752315980836785 
0.07154225599559193 
0.283431710714708 
-0.1243357086621075 
-0.1597734953242982 
-0.1266698440352334 
-0.1906196146322319 
-0.08524880447046541 
0.05658940173708411 
0.07882647940710989 
-0.08763393533993685 
-0.1937527966790836 
0.1687662434727131 
0.05903714877421297 
0.1045313413325862 
-0.1732076214167208 
0.323981942412726 
-0.1846699316030873 
-0.107979466750035 
-0.07812449828370392 
0.03135047712685694 
-0.05810134065779663 
-0.08296362676006963 
0.03846911347903994 
0.0419250570793893 
-0.1532506308627849 
0.2372993460442774 
0.007260559247153967 
-0.08548992074371778 
-0.2185515316491004 
-0.03720311926600166 
-0.05243972575948284 
0.01691787976473823 
0.2024803845071611 
0.02917426969446854 
-0.00267317552985514 
0.06226485290447053 
-0.03834090830263051 
-0.001669004643362371 
0.0539974789075682 
-0.1621554779409812 
-0.01297449238944651 
-0.2541930224551548 
-0.1570377732715561 
-0.2354550191710891 
0.01127837250923811 
0.04139761721433298 
-0.0431006950796286 
0.06414873334972204 
0.1137050478053274 
-0.08977794954370545 
0.090937607177553 
0.08656002065639201 
-0.09082927613661823 
0.1969338996557484 
-0.1131355035953003 
0.06936437538272812 
-0.1565023081768282 
0.3086836081701547 
0.2010447612819446 
-0.04645275569759948 
0.127982471298272 
0.1509907870978976 
0.02435461191266226 
0.06814072490570136 
-0.02360706683079248 
0.04625479123015565 
-0.03128229627140688 
0.06572009561911063 
-0.01216232501110677 
0.2579758268059505 
-0.2910985570012492 
-0.1887844949889322 
-0.1263859961711944 
0.03509265166216272 
0.0917964395780539 
-0.2625698651485587 
0.2126400938475538 
-0.1125108989069179 
0.05134921239741012 
-0.2075302304011751 
0.08022051769013708 
0.05669312204099786 
0.1254248357776182 
0.1934671104863336 
-0.1932390804483012 
0.08417261802346665 
0.08380192262395943 
0.0529337298584448 
-0.1339774832533688 
0.1647932399734998 
0.2062239483228929 
-0.2414882546856249 
0.1191982460687763 
0.2024266970535072 
-0.121360311675594 
-0.1574435961332013 
0.04457647748150043 
0.06001636566089872 
-0.09561927336068141 
0.0393232343504786 
-0.01352607762291212 
-0.05391507862180927 
0.08947469251495677 
0.0836647761250094 
0.1136545899717131 
0.1854521606516097 
0.05398626727011521 
0.1238942256849006 
0.1514832368138706 
-0.08512951785031372 
0.09253150969828225 
-0.1025151414579638 
-0.08603763983797638 
0.251164439128047 
0.08596271533819384 
-0.06738872073106816 
0.07570273798378292 
0.2215089852873001 
0.08771295930604749 
-0.04175164717981145 
-0.153253099633812 
-0.08478439756940567 
0.04234884814111344 
-0.01674558266333967 
-0.1424363430040282 
0.06068534375025424 
0.00217956214547468 
0.06089148163352399 
-0.2156519234592052 
-0.07706612584448208 
0.0683173146858298 
-0.1728191873059549 
-0.3116516037384144 
-0.02869068842027714 
-0.3792376564667564 
-0.02147675970824852 
-0.2301050304467863 
0.1930452132352682 
0.1144850398524987 
0.08091301156364149 
-0.007534286014418324 
0.08140944292182305 
0.1001253625346634 
-0.2313132079149167 
-0.2404597599278318 
-0.4374187285724591 
-0.02737911591013637 
-0.09842257140565763 
-0.2719350826146129 
-0.1015512499985183 
-0.1449610523403753 
0.3125263751342432 
-0.04068731577640648 
0.1232754575461685 
0.1381706900330112 
0.119056772918375 
0.1751546402533099 
-0.03657055345122247 
-0.06859908698167246 
-0.1350897003624654 
0.2213116823421664 
0.3246057790875357 
0.06157305828887075 
-0.05378869714778988 
0.07853947266046021 
0.02857958841437246 
0.1604157950849719 
-0.02779360877610277 
-0.2774031973230486 
0.04243960597037961 
-0.1777810585002373 
0.06665428534252016 
-0.1064291861735906 
0.1177797606545757 
0.1169464860196756 
0.08309350887927869 
0.1255449596139079 
0.1558090825440617 
0.1589859584293895 
0.05069062739477417 
0.08777759830374111 
-0.002795390604938262 
0.07643942613585539 
-0.2021128813452799 
-0.1047087608441991 
0.1577436239762701 
0.02414619427949581 
-0.04319429604454782 
-0.02186550799618665 
-0.1134062874808397 
0.162620074858473 
0.2128600834498367 
0.2963538689513846 
0.05645400708973188 
0.0922130743841208 
0.08848695398636752 
0.04097187611280778 
-0.1709553202530681 
0.1163547498301418 
-0.02861819462899318 
-0.1662918020375333 
0.03856684659835202 
0.1003389821130693 
0.1160737226792248 
-0.2021002533138127 
0.07507985182000179 
0.07576720431889043 
0.1693167663555818 
0.1875514352385376 
-0.05442818439400828 
-0.02739619521187876 
0.02847777751755941 
0.008251400329445095 
0.05051743301816718 
0.05732416915927564 
-0.2672398877109416 
0.009749295637287669 
0.1004984675900507 
-0.07979774616937536 
-0.03481391512421733 
-0.3200607216964025 
0.2024425977332678 
0.07101652497885533 
0.05379037428146593 
-0.08207287719177137 
0.1020577601844651 
0.009744771223256172 
0.04258692133250508 
-0.2791102219087365 
0.02205927346793874 
0.2103457388422834 
-0.1457246122549355 
-0.2855774483992934 
0.05640455138569216 
0.09320178537544654 
0.1568650933308506 
-0.06584204221418559 
-0.07525407930155405 
0.1802683230708489 
-0.2106045451965147 
-0.01835718167854805 
0.1383623729497699 
-0.1423607837377917 
0.1890836282875938 
-0.03494847013155125 
0.09324496365909636 
0.2570569401200978 
0.1319967511432553 
0.2275220997691002 
0.2316213873904143 
-0.2921127235757091 
0.2371355820148291 
0.06335196371833017 
-0.1857309357973406 
0.0290147149469175 
0.08309397688555457 
0.007939045823719661 
-0.2510971480392286 
-0.02598697571857513 
-0.1841070023330806 
-0.001557583075258393 
0.03349003721398555 
0.1381852840038744 
-0.02217841164352508 
0.05978721607505284 
-0.192493018685004 
0.006925396159629886 
-0.06814214941836791 
0.08563072682274951 
0.1464972902125065 
-0.06660494614712395 
0.1136718621613907 
-0.2801804457223879 
-0.02963094102083709 
-0.09259945140192223 
-0.04777609438170055 
0.1182094523611066 
-0.007877897011411039 
0.1159205473150364 
-0.04554754732489634 
-0.03858898663373181 
-0.02772613013409322 
0.122437268327143 
0.09188979022168937 
0.1582744040397734 
-0.0668750448844989 
0.223128849335108 
-0.02860498061066983 
-0.06573263800203095 
0.07725389942300205 
0.04273692008752031 
0.01715575763524899 
-0.3195365048693287 
-0.05649261865112585 
-0.2306299733294715 
-0.345200869598383 
0.08627973877169486 
-0.1993530276937851 
0.1507984850042824 
0.3585653753772526 
-0.006930884897732284 
-0.1314918909711924 
-0.1509306251210923 
-0.117263463247605 
-0.01032276039308288 
0.3257621120545689 
-0.1317155738595251 
0.1960986844758332 
-0.05758239415419832 
0.1378891158286677 
0.0006301648774190342 
0.1668587429057901 
0.156809890736773 
-0.0594410169337864 
0.2811901718588629 
0.1170960938040755 
-0.1825421745106786 
-0.03294118934284877 
-0.1471176842394435 
0.104987498851058 
0.08837131739557327 
0.1411416708876138 
-0.07987493060326592 
-0.183510988612104 
-0.0001814889402841878 
-0.01775840174360068 
0.04753934081686466 
-0.06545335219983263 
0.08978706428050269 
0.02491582405252629 
-0.175698538633495 
0.09355483864934343 
-0.186633567083915 
0.2504893247127768 
0.08127735220229231 
0.1649437909665934 
0.04175438784953975 
0.04680765162071152 
-0.0241932644549158 
0.1280866476515964 
-0.1246215300953321 
0.1663783204662241 
0.03325406772164204 
0.008015646998973846 
0.1430856894149455 
0.00654931511477211 
0.01120116205002319 
-0.02600520926186789 
0.1395777997076112 
-0.04620878030159438 
0.1972309521592651 
-0.04565514587322434 
0.2176474277263607 
0.1158906058989758 
-0.1962689207698558 
-0.1221161634636146 
-0.007492900207530818 
0.01378718450955162 
-0.004210461642905567 
-0.127851550816718 
0.1586737476753164 
0.005328454016034071 
-0.1013300481872805 
-0.219313714496102 
0.102584875050896 
0.120363518373405 
-0.04148438701258617 
-0.08132970935699248 
0.06886875185172893 
0.04987792791267445 
-0.2734579768256325 
0.1111046492696309 
-0.151580345574256 
-0.02824102305784007 
0.02021428660698696 
-0.1601069255934437 
-0.137527050147011 
-0.01063758291037371 
0.09718742006302133 
0.144119641333991 
-0.1943648584832232 
0.1619781532299842 
-0.02372235285584152 
-0.173141287694256 
-0.1093311228375683 
0.2575930908210198 
-0.1724216864323043 
0.05799437517493154 
0.07034044373042588 
0.09407260426744517 
-0.2690742455398177 
0.1686807080365346 
-0.1105699043086327 
0.06833746199811197 
0.1447621930284759 
-0.1250897119776137 
0.1133204084544307 
-0.234138096766047 
0.1046613808979758 
-0.08785756059748036 
-0.1305231482160094 
-0.03515778205999433 
-0.1409571784260952 
0.09329925247914195 
-0.140383296778187 
-0.1130162077396367 
0.04921540920114757 
0.1191819571317061 
0.08913280192876892 
-0.1438496691302041 
0.1968429193010159 
-0.3337521699269714 
-0.3373487562978585 
-0.004379520939764458 
0.04463112832109898 
-0.2020571937343332 
-0.07147127238660272 
0.2451317530664097 
-0.03067103235671408 
-0.02152631153128841 
0.1711987428039042 
-0.06312040624108066 
0.1070713730004112 
-0.120854169470827 
0.2823447183850056 
-0.02066308746768665 
0.06074579404875737 
-0.007628920841950206 
0.1436413632941086 
0.002421726928218079 
0.006361561167254043 
0.1380778497632136 
-0.06240853888090379 
0.04622089220038331 
-0.159578094447196 
0.2056117883706754 
-0.1054418492979334 
-0.07211767735814165 
-0.2466060275125788 
0.01337174086322538 
-0.04909536510109055 
0.07758939236096202 
-0.1452316416796741 
0.1817421356470591 
-0.1417348758433092 
-0.2955770656573642 
0.01494226403330851 
0.009986205614576438 
0.01176878507153965 
0.01722874161335631 
-0.1822579898022803 
-0.2675660149767264 
0.02348111444450468 
-0.1522762522036795 
0.153611117146187 
0.0408497756857617 
0.08102979090629178 
0.1748987893634394 
0.1085748318904779 
0.0477819257716777 
-0.01731340087728202 
0.2640328412541452 
-0.009379312721011017 
0.08495903667370278 
-0.03940222388210149 
-0.179853789837339 
-0.2096830218806743 
-0.08015351022239492 
0.05102347060123457 
-0.07348769945452453 
-0.0338485043770281 
-0.08574464948664567 
-0.02515175422819826 
0.05470493127826048 
-0.3344036588374094 
-0.003691776911573433 
-0.0734480784058542 
-0.07582381200399885 
0.2317473063788754 
-0.1276944889590189 
0.2148926116642679 
0.1152611150711765 
-0.3018062250747819 
-0.03076224236437027 
0.2413460893759598 
0.4486692630285755 
0.133748744271777 
-0.1080436719812563 
-0.2859846695648993 
-0.1774407098966729 
-0.0002772763995691902 
-0.001535865350597534 
0.04421475594156465 
-0.1562508534004864 
-0.3043313130151064 
0.007673271141031403 
0.06185715531465925 
-0.1123014735995632 
0.008545150752439787 
0.1216783414374668 
-0.01277406492184 
0.1036380341839584 
-0.1222000823683956 
-0.1477341702061206 
0.04143520178723681 
0.101411206150938 
-0.0530445760693852 
0.002918313085895715 
-0.1641122494294636 
0.2229895736448186 
0.02654511585073412 
-0.05461128190856598 
-0.03895659511799712 
0.02261230514602212 
0.287262694368734 
-0.03545255896012422 
-0.05096911049967802 
0.2561642435856264 
0.003449966034908396 
-0.05273144120996399 
0.01979539413326208 
0.06131505520462081 
0.2973106113443394 
0.02640636200745606 
-0.04971352054646326 
-0.1189802460532952 
-0.0388349521334029 
-0.1263989701861615 
-0.1467766191492675 
-0.03160635231365497 
0.2362423311282705 
-0.04513864799740585 
-0.03713219443747279 
-0.08903859613525476 
0.1130046168170253 
0.13230921384289 
0.04040648818604367 
0.1085836530572535 
-0.01645450300413781 
0.04585571208154491 
0.1664536832633194 
-0.02430112525026537 
0.02257856336513793 
-0.04743189980426741 
0.2423398099394465 
0.1919351071051389 
-0.04760656634052593 
0.2014936788811364 
0.1234701803704922 
-0.1100433248794469 
0.3910855423798573 
0.01990096029390165 
-0.2010974670201091 
0.06626811907358779 
0.1150004698425377 
0.01100381826883608 
-0.1590220088073151 
0.06536703101298048 
0.1463003494438001 
0.03292112375468415 
0.1168914003400754 
0.216586467843828 
-0.202618188413934 
0.04457545414495736 
0.03770940340186135 
0.1616759655557378 
-0.09231388674244606 
0.05568259134164211 
0.2102360231521056 
-0.1493945690646949 
0.2937029418679246 
-0.002462891278810512 
0.4348081971469065 
0.1745561638083999 
-0.1620997380966732 
-0.1308239727910573 
0.007939229107457094 
0.08370217241889692 
0.0002633262917980795 
-0.07312504970822732 
-0.04933179859286807 
-0.07728321714980756 
-0.0956552177737741 
-0.1749132542641796 
0.1622480705603067 
-0.2204198788176486 
-0.06007992406080197 
0.03249922510489846 
0.1655252566031005 
0.05292243310813273 
-0.07783002923363048 
-0.1356086553230741 
0.01372309566515689 
0.0280838435615758 
0.1217703591739294 
-0.04031491454781148 
-0.04117483046811409 
-0.1042219755440223 
-0.110309239087465 
0.04660474985048638 
0.0149464921787565 
-0.07133461693658437 
-0.05484724776648281 
-0.1904720468037884 
0.0127508771498205 
0.06008911203999547 
0.01887766042177222 
0.03129165772724012 
0.1469087611504069 
0.166652845153672 
0.2279347175047389 
0.009459587408570069 
-0.1889585033130091 
-0.1258077333692021 
-0.08362356032069004 
0.05808806026757943 
-0.09781015674563498 
-0.04352847477151461 
0.1081113576172398 
0.4642195301149526 
-0.04442926935654939 
0.2309055566447019 
-0.1084964269055609 
0.06548205100381228 
0.01254536318188901 
-0.1224267433834148 
-0.02534837490305467 
-0.02969455116964735 
-0.1580377329689349 
-0.01190332839211139 
-0.1619450755402292 
0.1259714494337308 
-0.1150643782516304 
0.1752175801016688 
-0.03691073398513393 
0.05058207714239939 
-0.2105449993376285 
-0.05166138057456088 
-0.1288866170869176 
-0.07179506499188062 
0.1123064867330796 
-0.1970673838648288 
-0.1707189220262046 
0.0611306512856799 
-0.1236633122084057 
0.03070465956048051 
-0.1923735859413222 
-0.05401079239354407 
0.09944898241887278 
-0.2098825120931666 
-0.0678055363267607 
0.02073825961018343 
0.009589281089739806 
-0.2535613494969691 
0.1212522402230684 
-0.03051082984005116 
-0.06943790737162994 
0.2505854237039999 
-0.08066867482660467 
0.1436615090954378 
-0.0428135511108551 
0.1251301086323003 
0.03444793599984015 
0.03954659540537497 
-0.02949661157883831 
0.008207476788057871 
-0.03643831412867506 
0.05660881142891378 
-0.09925766944483984 
-0.05912907376848159 
0.003553008392774515 
-0.1104940850372567 
-0.08079988447638177 
-0.01786245646468858 
0.06854910129537764 
-0.2267030567547119 
0.03305497154455746 
-0.06354875141927288 
0.1983732082495639 
0.08429184808731849 
0.1042742573948208 
0.07757478510182111 
-0.09781142276122699 
-0.05037499894548545 
0.003280859084276409 
0.1706119708894246 
-0.06107349579145241 
0.2822403342305919 
-0.1639568131738675 
-0.03900723197389612 
-0.0141160071536849 
-0.0001369131411923684 
0.0668897929086036 
-0.04357973627658646 
0.009780957079139821 
-0.0866054900876032 
-0.003993649162522965 
0.06576952091171913 
0.1407074510301765 
-0.3128691720604187 
-0.1098613340570828 
0.06659158249803575 
0.06803304380747992 
0.02068974620521269 
0.08595530508593653 
0.1639009219298279 
-0.04387007409664192 
-0.05750654982747035 
0.1458636851301003 
0.005525208939926834 
-0.00771070934781845 
-0.09074807841642242 
0.04591979793061179 
-0.1326211016470633 
-0.06651701351744067 
0.1113357996360099 
0.1145353067471074 
0.01359003705426346 
0.1720351479073337 
-0.1873253885883658 
0.006808947746644179 
-0.08285109710789361 
0.03798103216916793 
-0.05753863770453022 
0.02459079912601501 
-0.2240075116784795 
-0.01819288559314161 
0.002952817825083923 
-0.1982806115265766 
0.1293326826267716 
0.127390513891067 
-0.1156163601226156 
0.1327261553439973 
0.1275241646466659 
-0.1714446096344658 
0.04199895062101548 
0.1003354832993965 
-0.01742056891639091 
-0.1643447165059038 
-0.01244399988803217 
-0.2471228471463897 
0.01670046463371748 
-0.09031560748271879 
0.03699979621985904 
0.009526903993584386 
0.2470052103269198 
0.01813996067235953 
-0.09850366229520327 
-0.06888877479300169 
-0.03837790578001158 
0.02803221852692705 
-0.1746009831184269 
-0.1156719004980568 
0.2242543149500797 
-0.1131941193707374 
0.1573209027284357 
0.1233061126201829 
-0.06441450904444214 
-0.07573689621619067 
-0.09238055193878081 
0.1464694822707161 
-0.06733895479656768 
-0.1370519500643249 
-0.06566530291634855 
-0.06568041631254301 
-0.01083707796740124 
0.4168270090961704 
-0.001377336778921602 
-0.1447327562876201 
-0.09114931779887396 
0.1094202410552882 
0.06530713841236942 
-0.2089433021328219 
0.07915749492572337 
-0.2599114037522232 
0.02706703307986739 
0.02718108287593744 
-0.2306399150173868 
-0.01326061883416214 
-0.1218106200230084 
0.078491078896434 
0.08161105501432374 
0.05437214251849999 
-0.02404006873006689 
0.01815637550566036 
0.1472090158681438 
0.08114436770806822 
-0.0004338809748509931 
-0.03121598799045498 
0.317911341772577 
0.02176191711758811 
-0.18053702111197 
0.05879961281638804 
-0.3664207338200829 
0.2638281733076264 
0.1969167773658199 
-0.1320990987604002 
-0.02009138219642566 
0.05943281229688208 
-0.0549328867701231 
-0.0225479429489577 
-0.1075640675938428 
0.1825598512167256 
0.05604643911776587 
0.05814799083984213 
-0.0533482060394762 
0.09380628165631061 
0.05228443008827015 
0.150527611666805 
0.1378679945098865 
-0.1296341795651406 
0.04613445400834693 
0.006064966133733168 
-0.1151623744428222 
-0.08506148608805593 
0.1361455194816042 
-0.0229037229890672 
0.007358459689005844 
-0.01228483057625937 
-0.1299676090944045 
-0.2252015084533234 
-0.04285385750633579 
-0.0242059592134519 
0.1282783726323938 
0.1468368250096833 
0.007447390126898012 
0.0002776225295893811 
-0.2904329034008528 
0.1445177215641411 
-0.007863943649794371 
0.2314460387160342 
-0.003018890624466385 
-0.2263086869412031 
0.2534603910674182 
-0.05068753948127422 
0.1819724700475585 
-0.09504334635068058 
-0.07394711168577993 
-0.1950757424163072 
0.06640867867426818 
0.0506137717606089 
0.09533577050948186 
-0.09317998613697299 
-0.176448776821547 
0.2772059549545054 
0.06402931865764562 
-0.09187696790962523 
-0.03913758505399 
-0.1073909776178367 
0.006221751541965278 
-0.1174430867478346 
0.2436374842861636 
0.04718359896582657 
0.08212470011265054 
-0.1275080027152136 
-0.1645531899556596 
0.1691119377936107 
0.112392311886376 
0.202706526668351 
0.1161699504259191 
-0.1428959007774519 
-0.1920022629032982 
-0.1870047661544816 
-0.07627717176290172 
0.1825666708924769 
-0.07397683687262468 
-0.08773110791018417 
-0.06725979263052825 
-0.1258623279911751 
0.05758211072106364 
-0.01475702654940405 
-0.08943355751700396 
0.03416882601790153 
0.1243645594221158 
0.02873255954515295 
0.2420202245476526 
0.1549009340666348 
-0.1596210818621839 
0.214680777242636 
-0.1444494245706918 
0.05421512806605738 
-0.09001112972058964 
-0.170458392281389 
-0.07934256952771818 
-0.2013609594656154 
0.1838878480101759 
0.01712098441048434 
-0.0404906898305246 
-0.1154489406542781 
0.3523851821856259 
0.02373597317349229 
0.06049331265169318 
0.09042272079117938 
0.23619821470085 
0.1080149439109462 
-0.1375340034717633 
0.04133238855399952 
0.02839153072354907 
0.02718849782638159 
-0.1165519714300038 
0.08125736940308645 
-0.1218085058255009 
-0.09417917153676274 
-0.04693948161397238 
-0.1456655796745734 
-0.09242149266856155 
-0.08289305451683517 
-0.0146278770803733 
0.05898329413326437 
0.1694310595310773 
0.1510435748821402 
0.1052364292911969 
-0.1513933908585682 
-0.1779604942937591 
0.06919154925149705 
-0.2479794294253793 
0.02486634172586216 
0.2620505640499413 
0.04729184461438346 
-0.08699720342377408 
0.03231612768162542 
-0.08087480979376399 
0.121423272147102 
-0.2028564855601433 
0.02430568353524763 
-0.1467620128178835 
-0.03301100090501692 
-0.05438115128079749 
0.03734229602144964 
0.1355007044236235 
0.02831291905577391 
0.1700680572825542 
-0.06632786927452079 
-0.03464800450309461 
0.01161489427041818 
-0.01550537394176518 
-0.1881772492977116 
0.02136370717444496 
-0.01789798994151598 
-0.01421403565707113 
0.1198825559798045 
-0.1108753994923175 
0.1647127727712205 
0.1074627777661104 
0.2803199862411537 
-0.1272455574396033 
0.0413551110587308 
-0.08734586478235691 
-0.0456758299428788 
-0.01849833298534609 
0.1858912152809025 
-0.1056970643535788 
-0.2779597796384284 
0.3613430727387229 
0.04443477997841724 
0.008432719080556761 
0.08072238294176903 
-0.02752814342035096 
-0.07479565206389512 
0.07790147558778956 
-0.1144155408709138 
0.07043508183965141 
-0.1660492244651359 
-0.1135080627959889 
0.02967212905435553 
-0.2850156796781069 
0.1011402804785201 
0.3039417312253404 
-0.3535499280072563 
0.06353084101452726 
-0.2145598020292369 
-0.05006716032890011 
0.2277769564950708 
-0.3205193219009351 
0.1789061123799658 
0.08814884185562294 
-0.1170764803464121 
0.3715610880203313 
-0.09776982050447575 
0.1644052758540064 
0.006210940972866604 
0.005439093998651404 
-0.02802045858811873 
0.0736330158692569 
-0.09476765021019781 
0.05345001615180166 
-0.01393261575959631 
-0.05512039758597678 
0.08147454652450786 
0.1918327611554273 
0.110090454095001 
0.1878980583736725 
-0.01946660245334571 
-0.1815113529259195 
-0.2397538000160602 
0.1113952539034559 
0.02721503400996119 
0.05418424411254494 
-0.03622634529498942 
-0.195668832443467 
0.02680563683648918 
0.005398512995573286 
0.03791071350379573 
0.09609488554004915 
0.2354197956980894 
0.03159857056052822 
-0.07656428821104688 
0.1235806145541275 
-0.1800839330518576 
-0.05645444420549474 
0.09353896209739183 
0.198328389456659 
-0.1571764769960095 
-0.06209813416678555 
0.08639733970964886 
0.08872211058217823 
0.1418945641306011 
-0.03221425983225968 
-0.3774613136469595 
0.001598708638270207 
0.0575032395520388 
-0.1185864785129583 
-0.1133158277601608 
0.0198824173678903 
-0.03461068990868119 
-0.03367289000196026 
0.05605955559225125 
0.0446352039227428 
-0.1469947252314859 
-0.05071431370464455 
-0.1071860022549002 
0.01734165875773595 
0.008527835851977176 
-0.08886341545106359 
-0.2024527802930133 
-0.05576698757593189 
0.165620887545331 
0.02884672615842326 
-0.0009414878054700318 
0.06146168353769974 
0.06087924247682101 
-0.06425797818325202 
0.03743688906915583 
0.1235352756450882 
-0.1129742301381405 
-0.02095300779832051 
0.1257471836158781 
-0.01892229944553988 
0.06142059001750101 
-0.07344871320697693 
-0.2669425688785683 
0.141318565213889 
-0.2407704673008321 
0.03948878207446576 
0.04101614140682487 
-0.0426218689762129 
-0.1580509671478157 
-0.08657015644520527 
0.06235935833145621 
-0.1101682179579958 
0.001105081991475903 
0.149749322898145 
-0.07020174419786479 
-0.1052435800952709 
0.14625668925684 
0.1556868081793198 
0.08312266751832777 
0.08981986659964503 
0.1501912369117471 
0.09506605207699138 
0.07535219976877928 
0.2455920581812887 
0.06807138658610933 
-0.05898751930466098 
0.229834248051502 
0.2086406536820264 
0.2093641108391057 
0.1782083746885088 
0.000456941176628971 
0.008553348291206301 
-0.0129264126873129 
-0.1921410401902106 
-0.1307099677322485 
-0.05745685470056409 
0.07786936268405784 
0.1991591500544249 
-0.1302099977801574 
-0.01722475005599052 
-0.04156214960721592 
0.02130580078084441 
-0.1317772339712372 
-0.05453853036696703 
-0.2566563594683173 
-0.1343045786002445 
0.2583991776677338 
-0.01551809056516052 
0.08157347425521085 
0.0529787007481839 
0.02327324531522139 
-0.06471797480055859 
-0.1160473808182882 
0.166130887473975 
0.006762819257731644 
-0.1632323555573119 
-0.141208694101349 
-0.1848398728045785 
0.09334219663523431 
0.1128936257480851 
-0.08658209807457493 
0.1002574487835543 
0.1064501598323868 
-0.05198115043700689 
0.2169915873105622 
0.09882389526092568 
-0.02903037312518534 
-0.06378356495638533 
-0.05710656236920807 
-0.2100687957202587 
0.1081451638760251 
-0.07537537540079652 
-0.06876095752900865 
-0.3030147177140683 
-0.2827836253129615 
0.02852896735997508 
-0.1083167895707024 
-0.1265080251387018 
0.2151685690176498 
-0.1375489788418513 
-0.0008072055734732768 
0.2248371293153298 
-0.076609709107597 
0.2580642439099796 
0.008143723959276048 
0.108333696355041 
-0.1321520674275603 
0.1204078445283545 
-0.02660278097100022 
-0.002792475970334057 
-0.04875785330277776 
0.07463312741380594 
0.1245928285143288 
0.13470005536826 
0.02895051625516798 
0.06241281280675285 
-0.1365900681090327 
0.1150966745096686 
-0.05099579928367878 
-0.04796358772047334 
0.05803847839676206 
0.1965120948532412 
-0.04037923892704112 
0.009596587364402918 
-0.03796057402439976 
0.3072057698871913 
0.1848577626195979 
-0.02373149850342668 
0.090250911880298 
-0.1552529165446688 
0.1512401156238111 
0.07567765587031099 
0.1346899017282523 
-0.07783191969479067 
-0.03518875392779108 
0.277289984965626 
-0.003213723457513749 
0.005097107236409043 
0.0390124935539625 
-0.2552159511617482 
-0.0621927541081098 
0.2712157780009284 
0.04170490711753687 
0.01410919741194962 
-0.1795222687751701 
-0.1827576479931935 
0.07012674396715605 
0.1703656428407422 
0.01110680896879763 
0.03197890501425706 
-0.004356787206982531 
-0.03353196497777262 
-0.1962053046007809 
-0.1150948118548799 
0.1714880024484246 
0.04470937466130715 
-0.02570937241879154 
0.0698477926536455 
-0.01177181724813966 
-0.2371309029340364 
-0.0827367341756218 
0.3271700276786925 
-0.2216476872514539 
-0.1599698959142738 
-0.02716953566789636 
-0.07744256785928105 
0.09483190230981749 
0.1672498894487155 
-0.01018473620672639 
0.04536127807462028 
-0.06716143881391672 
0.1236187892263062 
0.07566179547062434 
-0.07610295896026976 
0.01046767533062012 
-0.06301571866042023 
0.0318751656486375 
0.06045040389080598 
0.1146933659092218 
0.1655491827074938 
0.02142539927094068 
0.04719826084303479 
0.3738644283409064 
-0.18738907663699 
-0.3520019616489696 
0.3362308670823999 
0.1885008819446587 
-0.09161220060591063 
0.01969205890725411 
0.3131019979598472 
0.1010947103612805 
-0.0770454023446728 
-0.1695078924717519 
0.2366073541785457 
-0.3115439355865334 
-0.09666017538440767 
-0.08316542110755043 
-0.05908813101110811 
-0.1680241367512889 
0.03488693669749136 
0.2269495390774441 
-0.08996881541176494 
0.0645101865726424 
-0.001827450120660525 
0.1804708202316846 
0.06160888157331649 
0.1614915369360993 
0.04858106794435384 
0.03687692246769804 
0.1096171657960885 
0.1525576991304401 
-0.1300055489349081 
0.1017461101844356 
0.3514393877912693 
-0.01159877096948594 
-0.01471342674575426 
-0.09085705011605888 
0.1610968688746584 
-0.09744149583778515 
-0.1979861574801937 
0.1554092113246882 
-0.2179715276469286 
-0.165153643073325 
-0.1557772247043725 
0.09449349821198609 
0.2265101292696013 
-0.09834533776086828 
-0.02604607007283843 
0.04212059454591376 
0.03000669740758357 
0.09598672103705259 
-0.1205825712422511 
-0.1823609919182822 
-0.03043307853985277 
0.1029918060743294 
0.1028779529422239 
-0.09677222759910567 
0.1160663664847512 
-0.02248040162812352 
-0.1869210772441429 
-0.1001751457671615 
-0.01664647595349397 
0.1631437427887451 
0.1634626977343187 
-0.07871574579921028 
0.277173564430325 
-0.1979203466963846 
-0.1643750428995336 
-0.03886142926693322 
0.3155634196197107 
0.09799866533145087 
0.06115326701911888 
-0.1675139289050741 
-0.003351052723875591 
-0.289646318123891 
-0.02581110314212399 
0.227872379104962 
-0.0182392927219096 
-0.01782879521878312 
-0.200250534691816 
0.04259280485269615 
-0.1798663116554915 
-0.1223288626570349 
-0.005546471285194138 
-0.05876979145593435 
-0.09500934184034118 
-0.1273246222606007 
-0.1406269937870401 
0.31598083096926 
-0.117807744718356 
0.1767150748545479 
-0.1422466992285008 
0.1344192363601051 
0.2144711935363557 
-0.144181324165614 
0.06039291851043231 
-0.01084377724640434 
0.05502296691305641 
0.2106179449326802 
0.05465482918223154 
0.01830461969932613 
-0.1951108153979787 
-0.1023263064461697 
-0.1316036230737069 
0.2051659013188201 
-0.06569618570054354 
0.09520132754860607 
0.07026047854663518 
-0.05318653184558458 
-0.03668429200689448 
-0.04316569689982114 
-0.0972468770215028 
0.02099582177193385 
0.01975524839855999 
-0.1260542324772291 
0.08205389256142213 
-0.1356133835509128 
0.2475350351244512 
-0.01178534201580566 
0.02412697032561958 
0.08863361719877813 
-0.09188117744093337 
-0.04410870900625301 
-0.1288337441538363 
0.1587038202166919 
-0.07864611729759106 
0.3024442549541715 
-0.1578669544467193 
0.1391780001449009 
0.04349735614339627 
0.07104866950648048 
-0.1098434056676032 
-0.1386150997173787 
0.3577666849146534 
-0.1774875804808893 
0.01867751422746372 
-0.07225865610058231 
0.04134817788263666 
0.06451904724068135 
0.2637591034770626 
-0.03401633791444265 
0.1506045890265326 
0.02669299308104515 
0.1181762230660903 
0.008203155034630033 
-0.1301608753746466 
0.09232841735775472 
-0.01933610803577883 
-0.1634359278401389 
-0.01760145404092111 
0.02643223838142466 
-0.389944123026037 
0.03260847802233952 
0.1827966265991071 
0.1274880507910914 
0.1065743688521189 
-0.1758837299385879 
0.1135458986899704 
0.1993179682129509 
-0.09103724833207437 
0.01351064377874355 
-0.2704024622885506 
-0.1609356693006845 
-0.1260320350292368 
-0.04695136321432836 
-0.01922580933689044 
-0.1135011864762525 
-0.169223339589759 
0.04846196342880812 
-0.1457501302829103 
0.006359581942150468 
-0.1672863456748344 
0.02665057074330127 
-0.1758949315778474 
-0.098634615087863 
0.08276133862978677 
-0.2185945548383429 
0.08872949176659792 
0.05453106656420323 
0.3394875959047127 
0.0473841895247526 
0.1479436204746325 
0.0545891253028768 
-0.06867073711061561 
-0.03425122140946311 
0.2525966191048868 
-0.1152464350661778 
-0.0708539744249298 
-0.1196857909428203 
0.1455664433013908 
0.2054323760530732 
-0.1357314889500388 
-0.05273333297108774 
-0.00165160908564654 
-0.1040698298487785 
-0.08684470517406015 
0.06747616131248148 
0.2220188334763716 
-0.03129955270640905 
0.1834261806109672 
-0.04597867375003744 
-0.2311519056123355 
-0.0271616590002031 
-0.05121093542382719 
0.1702936034491037 
0.08932385777931594 
-0.04679627888527332 
-0.01282209783785234 
-0.1760899407368225 
-0.08226484313244797 
0.05854606396842869 
0.07490212352612519 
-0.09582291270487452 
0.01485520188772147 
0.113907361512161 
0.09614341261568622 
-0.2303632733137747 
0.04711894013885471 
0.05887007272709451 
-0.05891292063204456 
-0.02012551469090918 
-0.0008641010676273459 
-0.1106292151063736 
-0.01984716297496535 
-0.1113253714414919 
0.05818124380025681 
-0.03420873097699532 
0.2878507927010343 
-0.08446555304524661 
-0.01003548435646788 
0.05027460332336953 
-0.01212537154921856 
0.002737379755518198 
0.04527416046493653 
0.02923866129369012 
0.2414792651678452 
0.1131482249485159 
0.1310384507193721 
-0.2097129429990308 
0.1074189195269125 
0.04808999661367321 
-0.06016383690724768 
-0.02504065903307369 
0.2146479738675635 
-0.1029809677715936 
0.2110274596283041 
0.0893849508334181 
0.08219544199014196 
0.1599367576159701 
0.3710390932854216 
-0.004550072489950081 
-0.07521089384212663 
-0.1333554972021775 
-0.006611882358370859 
-0.2132305042241028 
0.03114999731344132 
-0.07648794645793147 
-0.04464333662698122 
0.03829846720844107 
0.1502597698742846 
0.03217556864837415 
-0.1626919385918891 
0.02426118222710152 
-0.02149885550359779 
-0.1442819962471442 
0.06950459993417374 
-0.0005975066678959582 
-0.1308734689009791 
0.06184892755507946 
-0.09176941130735114 
0.2088273843052626 
-0.07992514599392456 
0.09122918463174909 
0.09325888923720825 
0.08843203175281535 
0.09513347539883853 
-0.1149089743643626 
-0.00591417303692469 
-0.03969294199108394 
0.1562625378535616 
0.1317020551469977 
0.107870464095712 
-0.02742725494191258 
-0.2202534126824714 
0.2097596256671261 
0.131011363494719 
0.07363382232872985 
0.1668564232733621 
-0.2283419109887863 
0.1458598193242228 
0.02639245493018454 
-0.01269842645804898 
-0.1922372006681626 
0.1527612401139459 
0.01203912482648726 
0.1676144144640526 
-0.1613004543788176 
-0.0931235070292321 
0.05711922468859492 
-0.1332660756927774 
-0.1202433057122392 
-0.1806364186452608 
0.02785157012088491 
-0.05597482856667203 
-0.1833854957359765 
0.06529225327271629 
-0.3534273793664234 
-0.04915845441113977 
-0.03721527570877822 
-0.1693661602610426 
0.05025794387164061 
0.236389824033115 
0.08952555112208115 
-0.2375049491148087 
-0.03877185224273801 
0.1481050779676827 
0.03504959633839334 
-0.04047538426069253 
0.08125816805404669 
-0.09243361722983237 
-0.09850094884864433 
-0.05815192539601616 
0.04659388577133351 
0.153986239603708 
0.02601547911900111 
0.09837017527094158 
-0.01811691767265802 
0.1642497229623525 
-0.1769944115519477 
-0.09780249931960493 
0.1947782927825441 
-0.1446657247512392 
0.02057818727201051 
-0.04922883840875305 
0.3290763111416404 
-0.1971464133229583 
-0.008125193148218952 
0.005233483428701754 
0.1505023577426052 
-0.01584749263662022 
-0.236329957856737 
0.0218973400069387 
0.1320858056751353 
-0.0211754144678807 
0.2034991240719712 
-0.149447410135027 
-0.101731004125868 
-0.07574242410641127 
0.1232554946534017 
0.1565777638160337 
-0.1091302075276578 
0.05765413501853195 
0.2433650778200677 
0.1212852322860494 
0.1312026791865403 
-0.1581138650343306 
-0.1210794783344652 
0.0467680089767521 
-0.3387014882918014 
0.1008900609001449 
-0.05334401513176695 
0.04671830175416646 
-0.1624422703849784 
-0.1812662051491677 
0.03282121108462677 
-0.002568759282935862 
-0.1818570508678439 
0.1419772304506227 
0.1678023162346568 
0.224368286431997 
0.129529849752763 
-0.008273077229475297 
-0.04444786389916073 
0.2326598819278956 
0.3114031337068328 
-0.06892292262385628 
0.08379281628603524 
-0.172325972697554 
0.09349498560757093 
0.03758316419497917 
-0.1757119604546225 
0.289823078411705 
-0.1721179026226452 
0.1230410127261831 
-0.01477166953329358 
0.01250176281670897 
-0.03278613659355791 
0.4812827447141975 
0.02488472217859512 
-0.02816588534495011 
0.04966873308755702 
0.1437652862658951 
0.03027082221885256 
0.2692276538930709 
-0.09841567568579339 
-0.155757653855245 
0.08308411580733996 
-0.07108677707018904 
-0.09569619344951059 
0.0571526518046998 
0.2666547250298408 
0.02563849855595827 
-0.1018758789790286 
-0.1250023389407387 
-0.07586038321930323 
-0.06813331326495982 
-0.1975472006450067 
0.005558941377354973 
0.04007287605552089 
0.2209423014969999 
-0.09925908663154402 
-0.0366873245078662 
0.2356084718633238 
-0.03437232086453296 
0.2197545534428857 
0.003818995598667937 
0.09496077661603404 
0.06484950436927607 
-0.06854004938582063 
0.07426257540239894 
-0.08847191809531418 
-0.01870885014210944 
-0.2798371704105357 
0.2230532434954483 
0.1598953958938642 
0.08727610613728377 
-0.06709056400815322 
-0.01376242620728843 
-0.100562864563712 
0.01790237647958856 
-0.04302400078760325 
0.1491654809327652 
0.007020674346978955 
-0.1247744426340409 
-0.0388962455407502 
0.002419680073063158 
0.0437712032226488 
0.2280469131270693 
-0.0176170471052813 
-0.1414058381017337 
0.2050727888154463 
-0.1089627370123305 
-0.02263158113846985 
0.09294315899566802 
-0.1436776415660154 
-0.08740801319988568 
0.008693389602021956 
-0.03017833321595064 
0.03608705718052276 
-0.1207745919293347 
-0.2111049478774718 
-0.2755514952904335 
0.1110542024870882 
0.03208769543934204 
0.1262022537530756 
-0.2726254019682631 
0.1587043061954894 
-0.04614846876888583 
0.275355855615524 
0.05880328187685315 
0.06596656181971498 
0.0074144831028054 
-0.03234159197438997 
-0.1377760129820214 
-0.005193425645563361 
0.03520231574584291 
0.1133819170987232 
-0.02610935752974912 
0.2404671223491309 
0.02874751292720653 
0.09538536541727789 
-0.2312130224470351 
-0.2702044790470244 
-0.06444764736658168 
-0.1375393089465071 
-0.0572276557161969 
-0.1197463371893823 
0.0239276005316404 
0.06396108547166771 
-0.2524897404853561 
0.1402959222444815 
-0.0282143351045916 
0.00157203996976099 
-0.02911361462627758 
-0.113623211001371 
0.09847741518034372 
-0.3006864061574724 
-0.2354752110164533 
0.1412102948123962 
0.08441109483072047 
-0.009630972630501552 
0.07324776085460824 
-0.1243233360145487 
0.01410953335931447 
0.1052186320846502 
-0.1766585759569102 
-0.1387194734731156 
-0.002363939993472153 
0.04530114514712161 
-0.03745470106786716 
-0.1089497120233161 
0.2097060692700269 
-0.07132124513779589 
0.05998259838421486 
0.1746326948390407 
0.06906736353857207 
0.1690329180311882 
0.1022806213773814 
0.04318857765001828 
0.2997341280392614 
-0.06699174874249705 
-0.116554002588345 
0.0655829367252691 
0.112285792531466 
0.07125175237751041 
-0.1279944474236637 
0.1022813857221927 
-0.06984510298957952 
-0.001844566190069899 
-0.231240338941943 
0.1633910333073147 
0.2252812428331565 
-0.1420142212419177 
-0.05131302427704717 
-0.03512703197344773 
0.1311329453898003 
0.09779609315625078 
-0.1274648689177107 
-0.07238220127830215 
0.05467014248188599 
-0.1588166422181677 
0.1102958592050893 
-0.04123616695332739 
-0.2721605862479885 
-0.1402056820197362 
-0.2021884881290238 
-0.03548356754878827 
-0.06110616985175893 
0.0434705675828058 
-0.2221901986332827 
0.09476780959580594 
-0.06681165095467614 
0.2201111949778507 
0.06442759400251391 
0.04745964038855997 
0.1015874331531298 
0.1601913162639484 
0.1008631656852969 
0.0239201766085049 
0.1656434820241766 
-0.1541969585285043 
-0.04247035689331602 
0.1853759395390666 
0.04698397863595848 
0.1397278325327791 
-0.1310491606178347 
-0.1681362262907014 
-0.02813348221994902 
-0.1181794764350073 
0.07715880980782017 
-0.2214515930676299 
-0.07987214049554907 
-0.08848480838447291 
-0.06647007916054579 
-0.2490957279872863 
0.2624707746419475 
-0.06184822865086387 
-0.0104014017046188 
0.008845716161676181 
-0.0003439409869841232 
0.1500689498800807 
-0.1355112323861198 
0.1486702555488129 
0.2898068440393566 
0.1106595506380706 
-0.09590126745878576 
-0.1432119816133499 
0.2527274119511482 
0.1974215337634634 
0.1197382828398445 
-0.08991291901710825 
0.1703337994946287 
-0.1629149680366775 
-0.04163309564052837 
-0.03710812432582557 
0.08350547307608668 
0.2340001024958066 
-0.1690442568926553 
-0.2258101838969067 
-0.07061274030711663 
0.2362876996034341 
-0.1700528106642234 
-0.1128846748868389 
-0.1453191434132307 
-0.01603492601492723 
-0.1254412554595113 
-0.02804552446495525 
-0.06052769393021286 
0.02095286777359846 
0.06918713650436718 
-0.04591840532861931 
-0.05233372204121042 
-0.1281281967436346 
0.01743901326322483 
-0.1077183038492712 
-0.2052332624799765 
-0.1189159804356963 
-0.01923010866458506 
-0.1099494257258131 
0.2528698210617181 
0.1883167576114387 
0.003751861821318196 
0.01997219801948249 
0.05505394751014986 
-0.082810700663003 
-0.0112826125069816 
-0.1466354905091974 
-0.03388889311891464 
-0.1206705396314213 
-0.06446450662370284 
-0.008526387053935653 
0.02451425840656192 
-0.03196591760281532 
0.1292391854765205 
0.03395724922876474 
-0.08356645605001688 
-0.1640306734017325 
-0.304735127021991 
-0.05726141014234632 
-0.02510912784140647 
-0.05649921634377958 
-0.02110867775189871 
-0.05462901837135577 
0.1501491509857506 
-0.02388962235608064 
0.02380871051518725 
-0.1119391358767043 
-0.1598226253554041 
0.2257736991297507 
0.2006798110867072 
0.002963893375346134 
0.181121786690615 
-0.174143785126413 
-0.2159449756755744 
0.06777307931079306 
-0.04341021216258695 
-0.2377969640474603 
-0.02647000670489941 
-0.153155056776166 
0.1157489454864769 
0.05563709676821033 
0.01652142657018224 
-0.07862235035475314 
0.1788456634501333 
0.0201027919446976 
0.003239229977194025 
