solver_type L2R_L2LOSS_SVC_DUAL
nr_class 2
label -1 1
nr_feature 3780
bias 1
w
0.05454595093839907 
-0.05527257391575519 
-0.0432390909550236 
0.111290194458002 
-0.1027047494422341 
0.2188334930082488 
-0.0848739681379521 
0.05438071183886425 
-0.03738452561374824 
-0.01216071161959717 
0.0440438495475293 
-0.0005127949339948266 
-0.02072246091399135 
-0.1423190554686593 
-0.01380896680711271 
-0.01323569637058606 
-0.05334131108502416 
-0.04886638712532993 
-0.007222951851805783 
0.01020350901917546 
-0.01188805151400115 
0.04333670782930534 
-0.03315203126139939 
0.05854442996386652 
-0.145034766681866 
0.06560685142232378 
-0.04785077075630747 
-0.02423848001576817 
-0.005197756969662722 
-0.07050042969839172 
-0.01750651018712348 
-0.02176193845908397 
-0.03557581252719001 
-0.06574377826522326 
0.03222965415229612 
0.01791608161889337 
-0.06838690451052874 
0.05134197754087867 
-0.00540898613282997 
0.06619543256295302 
-0.05494617832485228 
0.02923905613480363 
-0.08268316358851786 
0.03592133774884008 
-0.02760858306759378 
-0.0217026635669032 
-0.03330241285579582 
-0.05605909970456757 
-0.1025500294979226 
-0.1112716699298772 
-0.06787641546153443 
0.0208217720935442 
-0.04471462385307785 
0.0323301434842491 
0.04336684307734355 
0.04010715747901284 
-0.08110561959846721 
-0.02920665560424148 
-0.04734951283877072 
0.06569517536915684 
-0.04995433422629537 
0.06941608726150153 
0.009877625839741428 
-0.05490607110825231 
0.02227819645531475 
0.06717209216916094 
-0.08190124844018461 
-0.05113625754383934 
0.006154158310463586 
0.06702339395205827 
0.0239297561344823 
-0.05701244894009112 
0.04527053374915709 
-0.06811661997460892 
-0.08888343659485735 
0.0767771601140788 
0.00835262839274979 
0.0580427793937792 
-0.09780592994995935 
0.02780435937688254 
-0.006617890889564768 
-0.0001950485175091886 
-0.03162543126865495 
0.05324135736277511 
0.003460044048273601 
-0.07816254813194999 
-0.06006286905170959 
-0.04012157746393848 
-0.04366661766740868 
-0.01622274959511693 
0.05755795748343358 
0.06484893772321003 
-0.05532944867421016 
0.05351043155172306 
-0.0513994751219464 
0.0677637315770752 
-0.03210669114077781 
-0.00847044175528342 
0.03531496715294043 
0.01905503088641283 
0.08327138977902418 
0.08999237627525124 
-0.008149119667638947 
-0.1388815898066733 
0.04176885746038705 
0.0391070601340233 
-0.01144885144127109 
-0.07255007133028028 
-0.04190256134700394 
0.01820841673419954 
-0.044826220581797 
0.1994198249795289 
-0.09745160151549979 
0.09104436659487897 
-0.02562066085384871 
0.09444353442622372 
-0.05064373350524943 
-0.02556719059548922 
0.04922312025763997 
-0.05600979776935759 
0.04827929195377133 
-0.1899200793133549 
-0.03613538000821967 
0.02843527843668506 
0.02798869965893007 
-0.1422673017153707 
-0.07066360838781428 
0.04847161056041437 
-0.04787112525710335 
0.04552428114969342 
-0.05460849643404944 
0.1121425183115432 
-0.003944634513792929 
0.08277095150147665 
-0.0738128021037891 
-0.06393114836900679 
0.03743427283839031 
-0.02681718453082566 
0.07286605960648723 
-0.123857202865108 
-0.05707787268503788 
-0.009040228746781551 
0.05472976999985719 
-0.07523737509300713 
-0.03612564734493907 
0.04632801598460098 
-0.02562305771672364 
0.08369641533171947 
0.01459700870847598 
0.07788659022075586 
-0.05302430123792055 
-0.05262535382266625 
-0.03374718847352495 
-0.08484181181853707 
0.1288534343375606 
0.02135998869714626 
0.1496105538341569 
0.01108039221822931 
-0.09098098304712204 
-0.03013244600131029 
0.06027043817717664 
0.01687473507676193 
0.07077886893852495 
0.01875995400792065 
-0.1481578658105296 
-0.004527926344812876 
0.0003367941096873617 
0.01674140882965002 
-0.004080113776309728 
-0.04267685500237424 
0.01064341572914438 
-0.09242845366840703 
0.03346829196999188 
-0.01363471031903381 
-0.08424592765283917 
-0.09519193976586227 
-0.009299484577813049 
-0.05541624537288672 
-0.0672307667759361 
-0.05055841110073465 
-0.1117486663220142 
-0.002455647066630551 
-0.02071009131813238 
0.0479748738344713 
0.03317460214714078 
0.06309241246639587 
0.01024556743128746 
0.04191187581427645 
-0.0471789661310495 
-0.04928634770267348 
-0.06467269635135459 
0.04924750028324822 
-0.003586153927978359 
-0.07833215355933307 
-0.03198340851168801 
0.04360781488474976 
0.05653626177119873 
-0.08433052130830934 
0.02761752380429729 
-0.02721341253845522 
-0.06549460791708596 
0.001676366524419804 
-0.07804309666189187 
0.07702615007234717 
-0.09738456696496813 
0.01771014599142367 
-0.0534315257579036 
-0.03976400975309865 
-0.1067566170634241 
-0.0580488734267039 
-0.06434846614151699 
-0.07077946320548174 
-0.002971057600975502 
-0.03557594434092941 
-0.009280613997753758 
-0.05948951010435864 
-0.04308380900924404 
0.0491715106848566 
-0.03754402825951757 
0.07978208674248258 
-0.03740217983065475 
0.1370825979644055 
-0.1054332707174929 
-0.03245888239305365 
-0.09062336986436334 
0.02032685142706021 
-0.01979238946258968 
-0.1190474253858055 
0.0162426136793202 
-0.0287741447259682 
0.05368807901140819 
-0.05116278688471126 
-0.02901199831677785 
-0.08881887868733014 
-0.06614321112032066 
0.02801844025148031 
-0.0727337821918619 
0.002856934864981114 
-0.0154068328829486 
-0.005707687548916931 
-0.1321065848230173 
0.1174542863679141 
0.0008168141949987871 
-0.06982179741130208 
-0.009681071285684311 
-0.05966732613440327 
0.05295573969869416 
-0.0628286741347744 
-0.03961135872600683 
-0.08381137767393626 
0.1048117687226865 
-0.05785763630603669 
-0.01842749635840464 
-0.02778840497587505 
-0.005553129477320761 
-0.01277440456810155 
-0.1040694589690894 
0.07344965598286612 
-0.0462967779593001 
0.00342980678383429 
-0.01435368817151336 
0.01690022702052377 
0.004550262281457881 
-0.0604539550275861 
-0.07865451343289269 
-0.006146383281480682 
-0.051233270995861 
0.007218130897512354 
0.001791707269719865 
-0.04155470182356329 
0.03019565150924185 
-0.03177879055938626 
-0.07500264518801299 
0.06476380739601562 
-0.04813625976109431 
0.06604110780203157 
-0.02289076942953408 
0.0419411971966338 
0.01776027366156722 
-0.03132428268168033 
0.01890679032943839 
-0.06125191132367668 
-0.03738740184654762 
-0.02788275691689091 
-0.01323087399292454 
-0.03279489368361953 
0.03575043995926405 
-0.1227732109173989 
0.06647256302416395 
0.03813651126853601 
-0.01660431102661762 
0.05801633399356132 
-0.09675272743399384 
0.07635240421801487 
-0.02177094535850405 
-0.0281053349365149 
-0.001609062125122359 
0.05496869198449668 
0.09892196082920555 
-0.003648396612646218 
-0.01964787429215047 
-0.06518497325966281 
0.01623268532883108 
-0.003901859977226918 
-0.01476224562187118 
-0.01129657879567355 
-0.003928713959503879 
-0.05616393029770388 
-0.08863869778190629 
-0.0270225338769457 
-0.01671794457292384 
0.009440914778646094 
-0.04411027356377121 
0.05921344138364596 
0.02386451676009763 
-0.01096530152027238 
0.001739731557231162 
-0.0219294596620406 
0.008922560013150636 
-0.0533208581910276 
-0.03496471463966876 
0.03593663379800732 
0.04112980569121851 
0.0372400394687945 
0.0005724871786259165 
-0.08186324859776338 
0.05274807615950426 
0.1554997591417557 
0.02515960442500843 
0.1136132729721454 
-0.07874595827210083 
0.1064957656705438 
0.1381177637334901 
-0.1045003395300478 
-0.02135266230852454 
0.04994770716245605 
0.07143161513541739 
-0.1423905772532913 
-0.1420588032406022 
-0.06387742266844403 
-0.01691538211115822 
-0.0307028453068236 
-0.07331602142668354 
-0.1716365427838744 
-0.02919144862637262 
0.0887548902222846 
0.0663344754867088 
-0.166240847395702 
-0.2013923085781162 
0.0393364525793793 
0.179657145267109 
-0.1543141326063316 
-0.1856079956599802 
0.004843440512812575 
0.05711133741454356 
-0.01363283602079872 
-0.1374084415150027 
-0.08697140261363753 
-0.006110823723089008 
-0.1505584529609932 
0.0832389294546899 
-0.2052962068658101 
-0.1090537199110066 
0.09448480809037292 
0.1641720425003318 
-0.05169569439685471 
-0.1793830883260382 
-0.02314215220373702 
0.1353821195360916 
0.05092797662883414 
-0.1405637328609508 
-0.1052436776633319 
0.01230867503240992 
0.064742680853625 
-0.1219942625938171 
-0.05499303677344915 
-0.02362869735413555 
0.03190844425516249 
0.1763040249589337 
0.05123233516506372 
-0.1248375314958522 
-0.1129162497639064 
0.1384250253747349 
0.1346212107714495 
-0.04116371769867506 
-0.1311931321392606 
0.006121152099463928 
0.05992828060513176 
0.02827566097502989 
-0.07630393956510115 
-0.09274746031958565 
0.05799290958450072 
0.05527890474316674 
-0.01327691850693597 
-0.1114041103964296 
0.006120735326751141 
0.09107679571224599 
-0.002071944034563308 
-0.08918331593165121 
-0.1614125126570267 
0.1295960241447152 
0.09350679348675293 
-0.1094018737573226 
-0.2001931547445311 
-0.02938529896579837 
0.05721430816824583 
0.06369822326301142 
-0.06236247970839486 
-0.2542473317613277 
-0.1022170668485654 
-0.04592506012557684 
-0.05918986899722738 
-0.1549736940378095 
-0.03922797553328131 
0.06246364574929618 
0.09368430652951679 
-0.06873804644222425 
0.005360674591414576 
0.02719937461312468 
0.1453614193544796 
0.08067174700637297 
0.07207528501739932 
0.07398707999441051 
-0.05592033563367201 
0.1038548760804681 
-0.01016204123958207 
-0.02677091113500464 
-0.07493449493382698 
0.007964624921830754 
0.006606724514623652 
0.007582230953836535 
-0.1479588577481498 
0.01253990988048817 
-0.1010774530996226 
-0.03270616562297055 
0.04836274463708944 
0.004302112903228974 
0.03923064719941734 
0.01095209009111815 
-0.01733902623902823 
-0.04123490075256803 
0.01014490090227997 
-0.04885844205395565 
-0.03788133045941989 
0.0315609545711409 
0.003871142846084801 
0.04034552363466885 
0.05885756572695378 
0.03850504653225498 
0.0006473577152448387 
-0.0245010784622463 
0.1201662616069884 
0.01580117537816515 
0.07827251125340703 
0.01089907104580595 
0.03537632440838358 
-0.0561758325550836 
0.07891891083378748 
-0.008731519285117867 
-0.01070846022092034 
-0.001932079018937329 
0.07282549384537761 
0.02756764564334046 
0.007004484857654021 
0.004375651700142659 
-0.03772908871236322 
0.01259565709374188 
-0.02055373216049161 
0.01262811528922611 
0.03127906909356133 
-0.0512316477190058 
0.001586007958561838 
-0.02859874612103128 
0.03654231000346411 
-0.02423659260143819 
0.01901529128503952 
-0.03485621258998683 
-0.04300463398092768 
0.008669336232462637 
-0.0865476671311448 
-0.03674639276032007 
-0.1161165023684565 
0.0003588548556158468 
0.07609352640564367 
-0.08479328625989942 
0.01625018266525733 
-0.07723559322381297 
-0.02004072852495756 
-0.04839127536463152 
-0.02608733697406019 
0.005572158789089655 
0.07163195040253127 
0.01281698610814322 
0.06688132231133781 
0.02620900650314148 
-0.07351666929472188 
-0.03744546274178822 
-0.07081611546790728 
-0.02592826961988464 
-0.03690558431430025 
-0.05487819907781356 
-0.008984996958210425 
-0.05044941367378661 
-0.02332191569270185 
-0.01124471633879796 
-0.06193054053471628 
-0.01445294975187281 
-0.08344361837582916 
-0.009117984514216989 
0.003325111370484963 
0.001289108221123704 
-0.03354063548212084 
0.001873159634224354 
-0.03030647909562169 
0.01977810910385862 
-0.03747704796128972 
-0.06722250516066267 
-0.07614354053024026 
-0.05222943274332693 
-0.002244172870307305 
-0.05978543922239499 
-0.02469100958475402 
-0.0118934149998984 
-0.03986991184285214 
0.007180173935165449 
0.07041223245252987 
0.008341885993755186 
0.04392748328422077 
-0.04815998079012777 
0.0499494568616149 
-0.02359500497218583 
0.08214269148232983 
-0.02172801693115921 
0.0497777045287455 
0.01454021871923491 
0.006539845385138817 
-0.004579272506497249 
-0.03515778722843677 
0.02042121620743114 
0.002630091219974837 
-0.04166914753866919 
-0.0924670269080405 
-0.01518354200465808 
0.001688343561233352 
-0.05166624228473946 
0.05767015363387459 
-0.1367414760483658 
-0.01307424703585728 
-0.08009837776020676 
0.03405370646705902 
-0.002464812020666768 
0.04144347930461263 
-0.03172536927391965 
-0.06402823191983495 
0.05976066389850574 
-0.009594661425692345 
-0.05429747474719007 
-0.07519762466028945 
0.0435066616950605 
-0.05640525183824346 
-0.08123568015771357 
-0.05666355620180696 
-0.01540396723088703 
0.1211430287303251 
-0.0331433169699991 
-0.03100078623047069 
-0.03854626045674878 
0.1466925589113217 
0.03342243531243935 
-0.05135838855300805 
-0.02205453413590895 
0.02907197397557996 
0.09121604609933376 
-0.07835083054252366 
-0.04186012980817107 
-0.0219846543123421 
-0.1002307492851195 
-0.06034009724100357 
0.1138501249912861 
-0.01098139233319754 
-0.04869550110645338 
0.1304254532637531 
0.001639181036843907 
-0.02245097015483296 
-0.1215178764182247 
0.05706641865610192 
0.0008671710250201951 
0.09214874120002049 
-0.01635454447387434 
0.01222914625094658 
0.004497338155841558 
-0.05281154989894257 
-0.0002488273454901979 
-0.11491677350675 
-0.06244176067629685 
0.03101389376396933 
0.1023091889925101 
-0.06536564865692393 
-0.04325035147096826 
-0.06065797120843971 
-0.04976824933138702 
0.03362029999557844 
-0.1681245526396936 
0.06945932200197197 
-0.08375455295757769 
0.1189005763585532 
-0.1442593520931804 
0.003717348102187752 
-0.03642752692269684 
-0.07099375367402691 
-0.06623103216930019 
-0.2659398660751764 
0.01847619648110752 
-0.0008993218201806742 
0.07725241287464325 
-0.08514360445557671 
-0.01422047833394945 
-0.0618568368573158 
0.05146493937859533 
0.03541957378713378 
-0.130463586830437 
0.08618177121853034 
-0.04904538442527711 
0.1137321594919651 
-0.07014105186449214 
0.05346744904231122 
-0.04429133937132531 
0.03828240977415561 
-0.08327572257297208 
-0.02527260900463815 
-0.09467530797745917 
0.01485008924258409 
0.04147619684724968 
-0.02754340680049252 
-0.04337053805429027 
-0.0356479417850378 
0.1776535702644012 
-0.04796901406470661 
-0.02629570168563031 
-0.02683300858636645 
-0.03076661546930672 
0.1077047528390488 
0.04460872109139207 
0.0413397444204957 
-0.1219602046793977 
0.05569128743466657 
-0.04840307155386494 
0.06581664455606095 
-0.1413957601196688 
0.06754456409289396 
0.06072122102380898 
-0.02444145616444791 
-0.1496087360523113 
-0.1553479263075214 
0.08025748363882851 
-0.08055631224817454 
-0.1219588922367836 
-0.1172994301461534 
-0.0632405166600078 
-0.000477538916570198 
-0.03825810555611855 
-0.07159140518361889 
-0.2587993871598329 
-0.02083778239330299 
-0.1142011737377451 
0.01228841962159684 
-0.03284774322032461 
0.09626355640208137 
0.001110421028961898 
-0.04096470838887913 
-0.119245780852975 
-0.01229742543587549 
0.006046964198266915 
0.07443271437262255 
0.04229457004591472 
-0.0251346023225358 
0.08396453657812349 
0.01654471016145512 
0.1151006115538691 
-0.003137378648745328 
-0.07412760862241238 
0.03812799676590509 
-0.09186545530888242 
0.06331439074401764 
0.000597846548430708 
-0.09895671825364888 
-0.04061107061429624 
0.04844785384200048 
0.01767303362417441 
0.006323825572878822 
-0.03155059061854169 
-0.0149251249216018 
0.07016199307656411 
-0.03622788209701439 
-0.04464990808617557 
-0.0329646141622281 
0.1189103573919277 
0.02111918306620578 
-0.01347470071139119 
-0.0424670054658842 
0.04283269569877574 
0.1079312200980027 
-0.05708351263647765 
0.004249698887930819 
-0.09461815308938928 
0.01275435319614544 
-0.02473558806504925 
0.009763343217911159 
-0.08065885591336242 
0.02331745279874577 
0.0122842683114838 
-0.01887238358846477 
-0.003025091814043734 
0.01928342073097018 
-0.01386502219207025 
0.002677438009344866 
-0.07944409219925644 
-0.03732757611471044 
0.0134424690131861 
-0.03492557378630515 
0.02248715766650623 
0.03177333115868843 
-0.02770243746061807 
0.001358911976621519 
-0.001956124487241206 
0.01616151754765009 
-0.004928449502217147 
-0.004989028908267405 
0.05917199539203566 
0.005439228266586222 
-0.008940269546163906 
-0.02239864377745855 
-0.03774520076733524 
-0.02170496544889226 
-0.01486909440454718 
0.03507235386735043 
-0.06373171661982885 
0.00801508838379303 
-0.01940545172142141 
-0.0728284211923251 
-0.06551024260096935 
-0.00612569679695143 
-0.01626943949326905 
-0.01392084773363887 
-0.0337137176000964 
0.02336923303374456 
0.009651099842227822 
-0.05306332429051895 
-0.05687756182890279 
0.01980420369397904 
-0.06882850645047844 
0.02743131335653449 
-0.06891518269610399 
-0.01440950154162868 
-0.004847052440904127 
-0.02997929080391595 
-0.1067652529953322 
-0.001812302483666573 
-0.03750803750770934 
-0.008644031754339112 
-0.02078707459841845 
-0.01171268260440965 
-0.01618231207884188 
0.001189615494958972 
-0.007449046725214516 
-0.01541005372868071 
0.03490680534144187 
-0.0009962330256341522 
0.01048758528477643 
0.02016293471886071 
0.03305227048895205 
0.03960227974335786 
-0.04237712685274204 
0.01096385709477709 
-0.04859632474520124 
0.004711078530817731 
-0.0156832058392844 
-0.09525078353345608 
-0.01150290932689305 
-0.02357990193972281 
-0.03367060426996052 
-0.01008025068581867 
0.06706106649538399 
-0.04659213488387363 
0.04230671874459822 
0.007911459965501459 
0.01295781147265547 
0.05941690652275764 
0.02661547542105291 
0.01382455342594878 
-0.03867701320711626 
0.05225566460460321 
0.001255718345129588 
0.03512621459044519 
0.05530404516665056 
0.03440592961103989 
-0.01557738118255496 
0.01092103326137578 
0.09184448758789983 
0.04609298319954134 
0.01912196341043009 
-0.03011206447645201 
0.05492933746132849 
0.08496950363556928 
0.05603065146281137 
0.005191495960598336 
-0.06025723850034544 
0.040584754230404 
-0.04827440788881224 
0.08649949340682822 
0.01337020868991486 
-0.1127058834582013 
0.009171018503679323 
0.02857818577024025 
0.09033390025037519 
-0.124157149676049 
-0.1350275821439712 
0.006426467567186612 
-0.01688925957548924 
-0.0314493041427865 
-0.003417539633647145 
0.01982537340486869 
-0.006669323165220331 
-0.002795572692818143 
-0.1046918361308092 
0.007168094581320619 
-0.1131640494595473 
0.1044089213005513 
-0.1583049516937084 
-0.2377167321048297 
0.127823294222974 
0.07028629668619404 
0.06610438483748933 
-0.1815251101656663 
-0.05336891263418415 
0.1167751189590401 
-0.002721215346653249 
-0.0382394038806582 
-0.1079934218678229 
0.1242286447360864 
0.1535707420674554 
0.03792915868742459 
-0.1684270851383127 
0.1437075990277053 
0.03397705724879409 
0.1894101680992639 
-0.08202481032842125 
-0.2040661919479561 
0.08776335605065587 
-0.1391735354203207 
0.1478679765407517 
-0.1733090668459324 
-0.07251290046655126 
0.09257499117846628 
-0.08918658883408055 
0.144455128338732 
-0.03808805727185745 
0.1840169733457936 
0.0110467368289642 
0.1728958151027661 
-0.07406303273445959 
0.03791527888601332 
-0.07687374839596124 
0.1514738958407711 
-0.02190513916371295 
-0.1231651716712817 
-0.05872401117119209 
-0.1627515756437208 
0.1767198221846842 
-0.1384450951735523 
0.04210347556181838 
-0.107813259349176 
0.009077279743556391 
0.1542410166077547 
-0.1088442825974636 
-0.00730557449197879 
0.03323377375074828 
0.1895325495295198 
-0.01413798427351956 
-0.006295413581951481 
-0.09242462521168918 
0.2131793931787952 
0.03133571606827716 
-0.146670509002628 
-0.08758913741262719 
-0.1986773965193956 
0.01433169583265607 
-0.1140734971957273 
-0.01954424461249294 
-0.1006303201862171 
-0.02180296018439012 
0.1481310757007331 
-0.06847258324180233 
0.04002308341294885 
0.002516185790421296 
0.2820491703365715 
-0.04478868320938869 
0.01800617428256182 
-0.07477107434037485 
0.1845945935179052 
0.05137444159519415 
0.01477463399838104 
-0.07756670541981767 
-0.261923779418941 
-0.02435454207457303 
-0.1677402119996625 
0.09308393639383683 
-0.1915730410814462 
-0.03194357277784003 
0.1308174851493524 
0.06207208587605727 
0.1425243500337187 
-0.05929057510656355 
0.297741486680189 
-0.0395725874161642 
0.1015410525206632 
-0.1996951386357925 
0.05626986926548978 
0.1064403708026739 
0.1575978343777785 
-0.05897202911398746 
-0.2140339213142309 
-0.03052747990102416 
-0.03042851024597054 
0.1357308220295251 
-0.1983949318782468 
-0.07874642228595985 
0.1547338602889776 
0.1161080324099332 
0.0667864949514078 
-0.1399602003921226 
0.07572528912362607 
0.01198217219941826 
0.1040316167913503 
-0.07179700539625233 
-0.09379203188789803 
0.02172761449070466 
-0.00508172228661991 
-0.1313754126615901 
-0.03322535566315213 
0.06760293339816312 
-0.0182120399472322 
0.03062911102598095 
-0.1114278630164627 
-0.04861521950718751 
0.03352703688017434 
-0.004649855922027961 
-0.04598886614808798 
-0.08065565082621164 
0.05394818329778649 
0.02478915363241104 
0.004138628801251562 
-0.1179121921672304 
0.004355398325742955 
0.02636250505915941 
0.1315545750669875 
0.06714350321862736 
0.009587638630994528 
0.03158549530313863 
0.003040652622499723 
0.05488271882121371 
0.1262201348412924 
0.07761295571551786 
0.04782660240082407 
0.0346765957526392 
0.05150916274049387 
-0.01972723949604489 
-0.03558479427222321 
0.03875077598090784 
-0.05454473181041589 
0.1037655837535549 
-0.01899956031925572 
-0.02787071774750201 
-0.05513947396842147 
0.005893109201532088 
-0.01384355530741876 
-0.01354541493143139 
0.03315043488239131 
0.01320211622810085 
-0.01832977624035659 
-0.01173833099560912 
0.06149855265556283 
-0.01042041049739283 
0.08155970828511683 
0.03558690842752868 
0.01405970702460809 
0.02038211576874059 
-0.02764599668771344 
-0.07041036365446961 
-0.03268871726700198 
-0.00579460047199208 
0.01370366913917463 
0.01649507408743752 
-0.07287731712369891 
-0.01549721562498512 
-0.0393089736525827 
-0.010025503144333 
0.05832854969107573 
-0.02171074835356734 
-0.03179497883578033 
-0.05816754172751111 
0.08785409836023153 
-0.0230784424704397 
0.0407882511610661 
0.008287984682248555 
0.02949639116582993 
0.03418962303746016 
0.0586515834132958 
-0.04720230463204086 
-0.01792645170343934 
-0.05063515592476386 
-0.0608715652496814 
0.006381673681297076 
0.1087133406351948 
-0.03459340279374545 
-0.04649114084068341 
-0.01891548426821818 
0.0147677133065547 
0.08708608272412705 
0.008130508737802553 
0.08775871959281649 
-0.02003908244201023 
0.09072130730530917 
-0.04118027836891065 
-0.01969296083175592 
-0.02268399475498884 
-0.05362679448281216 
0.08016017385943473 
-0.09777438851841379 
-0.09822613232430391 
-0.04470838420217955 
0.06885221325022486 
-0.05025285534172897 
-0.01380120953432073 
0.02046197400917314 
0.0307067908708175 
0.01763367859843311 
-0.002672791902666156 
-0.08295629063889386 
0.08733530937825948 
0.0358044796225408 
0.0356399925405801 
0.01153408593321477 
0.07766204160722358 
-0.0352338261907701 
0.07415955062657625 
0.08438555888546263 
0.04039942514309417 
-0.03710009003006647 
0.02536718783483216 
0.029537591622751 
-0.07494352949984898 
-0.02265007133191365 
-0.03492891473914576 
0.1025636067284654 
0.1020005470806166 
0.154252200290734 
-0.03747162620187588 
-0.02680663420421237 
-0.004394513212182502 
0.05391469949342494 
0.0622894733474711 
-0.1372488904865785 
0.05639236041454949 
0.02842790616312081 
0.01883513445019503 
0.001862348832310713 
-0.07333612376599327 
0.05966619635411138 
-0.050333534320009 
-0.001136187315870598 
-0.02690993907416731 
0.1278501872316984 
0.03731031238141868 
0.003483919901493392 
-0.04155943612203784 
0.01898265219828738 
-0.06399723351105369 
-0.02918968886015878 
0.1722170238693897 
-0.1330958796011355 
-0.1221890816752901 
-0.05656641737557443 
-0.08016469337157586 
0.005122035443759776 
-0.1140028514172887 
0.1753083673337513 
0.01424207851684825 
-0.05877944604608974 
0.03028619395571254 
-0.009627205848752327 
0.006106151651586775 
-0.08561050353599606 
-0.02541399304142442 
-0.03772709186991476 
0.08489853265223739 
-0.004884579360311323 
0.02480628729251371 
-0.03375133269108153 
0.05322158380575435 
0.08817057414205261 
-0.2530597409166235 
0.01088369034469656 
0.05239831089654802 
0.1420789730667119 
-0.06302324134175043 
0.08989755030981918 
-0.01813905218978658 
0.07534643394923757 
0.02402360527854506 
0.005014381408947446 
-0.06158708843849495 
0.01203728450816177 
0.0982443872042474 
0.09406015947460546 
0.1371684522383022 
-0.1217800853236106 
-0.04918763610109349 
-0.01889462733296608 
-0.2224294432152508 
0.02295971165184684 
0.1168113787535052 
0.1363016791110723 
0.005691651287584949 
-0.004856276562476647 
-0.08522631967684795 
-0.02307169853444103 
-0.0167779472666632 
-0.03109416495423446 
0.1205221597150163 
0.1000180166866987 
0.07555017160235232 
0.02598919657306328 
0.04808153576546986 
-0.1839791098645116 
-0.08205411630002592 
0.08370999614072985 
-0.135002087920571 
-0.05640697123353192 
0.02562144848679889 
0.1161651530288999 
0.1505607734070145 
0.1470513542479018 
-0.01610140588150161 
-0.02897116969928347 
-0.03362213004049123 
-0.03956575029756922 
-0.03027889018739913 
0.02043738613314533 
0.02765051905028873 
0.05854980446771593 
0.1036521269312467 
-0.1295827701526566 
-0.07724971480770318 
0.08002168568605018 
-0.08642210784670153 
0.02355000768512347 
-0.0373530069640642 
0.07521060517118786 
0.08569096350926618 
0.004859433815803135 
0.01079760332110006 
0.05019009707450991 
0.1070257446547276 
0.02237905643531314 
0.05742823556130957 
0.05799030117297359 
0.068767164515193 
0.04833017666375466 
-0.009613808955891756 
-0.05947400618358282 
-0.07376275656705408 
-0.05433694455911704 
-0.1975293335094974 
-0.1029921524511365 
-0.05591476656945705 
0.02405988918474642 
0.1149974475995368 
-0.03541868853106096 
-0.04172963600626169 
0.03763030637898686 
0.02804238232515056 
-0.09656320082721992 
0.05992605413986622 
0.03591520549136944 
0.01730673631071629 
0.06715693997254299 
-0.05466048120563598 
-0.02793555853619908 
-0.05509897042679673 
0.0793922018931736 
-0.07047709991482407 
-0.006764875760545581 
0.02099147620684995 
0.002783678310204474 
0.009206940883597522 
-0.06785969614875192 
-0.0288651846154104 
0.01862891771991968 
0.1008237747930006 
0.02819781534220014 
0.08559730567348184 
0.09025349129488944 
-0.06445584144426966 
0.06996694901120606 
-0.02091720806121641 
-0.004663541983860784 
0.1223849504753315 
0.02690115781818395 
0.01664585597077124 
-0.08119647935702255 
-0.001839334933320129 
-0.01729298952809919 
0.1323266658820886 
0.01987450143164663 
0.03787181875592491 
0.1104415568171335 
0.1540808342129354 
0.0127354796827576 
-0.1320616326085763 
0.03545659268523581 
-0.05285323227872761 
0.09367761369156419 
-0.06974245348400822 
-0.01228678734970828 
-0.06922934179058482 
-0.03854441981666502 
0.03029218612622211 
0.04241534634606757 
0.01793647848543385 
-0.09823683889434301 
-0.05841270895759292 
-0.01670614927925187 
0.02866204908162005 
-0.08580890492400431 
0.03379160528537462 
0.0003173476701016396 
0.06854637611058648 
0.1009731175998137 
-0.05160640651114472 
0.05468460738548699 
0.06142546120847388 
-0.06640330255889546 
-0.001263864799564765 
-0.047730594843377 
-0.05312788006103447 
-0.04873585498032225 
-0.02664580368450061 
-0.04258501320479309 
-0.02127194182824191 
0.04539446763023675 
0.01874037891600856 
0.05204962852678598 
0.06518382825419375 
0.07104644716510879 
-0.02680935768527902 
-0.0179821743739764 
-0.0132605382946815 
0.0609263555362278 
0.01304039124084417 
0.1249766481276448 
-0.02686490204276649 
0.04836215174283683 
0.01241516319220847 
-0.009404412669282027 
0.069527875915327 
-0.05401343210919747 
0.02654118614635926 
0.01124601593732203 
0.05702949625746545 
0.07124979284812373 
-0.01929386435402554 
0.01655145549039413 
0.04747947858612143 
0.04210816049073585 
-0.02040009601204611 
0.03271290018181455 
-0.008110871413202646 
-0.03426030948969998 
-0.00358830692227528 
-0.1328299795419876 
-0.0905102478246544 
0.01481981234716193 
-0.02310810531911593 
-0.05191784320381787 
-0.01586284712787475 
-0.01421972756345572 
-0.003881879991082192 
0.04181397692607559 
-0.04612963845880315 
-0.0454604157734696 
0.03489478471976238 
0.02597877836105067 
-0.03158623514433993 
0.1187649364333286 
-0.05149988286803701 
-0.04638237019420928 
-0.01081477660613561 
-0.02148867041289038 
0.05133056574153123 
-0.06854164213008428 
-0.03387607192878182 
-0.009300805921728357 
0.0228473588716756 
-0.07213574277249205 
-0.01715523686652265 
0.03858622532058589 
0.04282937416241238 
0.06249582962781752 
0.01583263296534101 
0.09823585267341314 
-0.02017052970171099 
0.07334217253255157 
0.02851969720065189 
0.007285081170471874 
0.0031807364286396 
0.0189049339526913 
-0.01217766652315368 
0.06262783918836778 
-0.04190426402371884 
0.02540366838478945 
-0.08390645974880172 
0.07086350777805127 
0.01402158853954747 
-0.01184150861814371 
0.0536355099334986 
0.04346628887703451 
0.02713392789587057 
-0.05233732408634054 
0.08875808221443361 
0.001309828611810435 
0.03776862363419442 
0.004635368035369043 
-0.07947688781678444 
0.04483333636638343 
-0.0686277502435985 
0.001877871801854203 
-0.1468033270467474 
0.09154480069675201 
-0.08005817949009347 
-0.1241466961051187 
-0.04632129457015519 
-0.05162902023610064 
0.04017555274446517 
-0.01159330676726723 
-0.001436991805517673 
-0.1301365926020462 
-0.03399429489532006 
-0.09105654064945994 
-0.03998022717279771 
0.01291337778216717 
0.06960199599866647 
0.06251746449236942 
-0.08250564073124116 
-0.1398598535916886 
-0.08569798840434764 
0.08447969809460032 
0.07433880847097175 
0.01548577045480011 
-0.03052463098539497 
0.1274307272689328 
0.1076880243114018 
-0.0783230469128911 
-0.04477600903133443 
-0.08341283230536616 
0.07179237859808972 
0.0564105841527958 
0.00237304212085946 
0.01134896644774664 
-0.0514138483745805 
0.03611615491329037 
-0.0129077256192945 
0.00730375082856712 
-0.07414602791770802 
0.01252650403243013 
0.02224633632200153 
-0.004567844127074557 
0.06523920183115629 
-0.03854426557547282 
0.02721280524473579 
0.01542546366665762 
0.1268239569077598 
0.02342667147423097 
0.05336060766569174 
-0.0158824185310318 
0.02666163093112937 
-0.0353270118156043 
0.005089240185372921 
0.01661018648354754 
-0.04539914234253255 
0.007549124901143976 
0.01643860751270698 
0.0222880760415592 
-0.1602449637517342 
-0.03918998164425116 
0.0410280205818245 
-0.01557177009226249 
0.02009159801582882 
0.002673996189872039 
0.1095337724698175 
-0.008901770113743589 
0.0408644612501502 
0.02825422232314473 
0.08115269397131286 
-0.07507612706700201 
0.008150039814369896 
0.1376542623672048 
0.006242057690843485 
-0.008850357533221243 
0.03796768167985017 
0.05707183042192357 
-0.0169930273095098 
-0.05892303124574216 
-0.03285917401162904 
0.0440564754081203 
0.1208017584886487 
0.03431373355262279 
-0.003805350731645946 
0.01519825278348921 
0.07450393611469287 
0.03208864631231446 
-0.1150429732123863 
-0.03202152640702124 
-0.02306404177751538 
0.03574850560330602 
-0.1125988738094169 
0.08759279032764969 
-0.1142978431773279 
-0.01165564105642684 
-0.006032368027990832 
-0.04384989551957458 
-0.004759664659875261 
0.04075130181548716 
-0.01343633489188165 
-0.2051183164555831 
0.001976321276830827 
-0.05162649517856659 
-0.01112885610755858 
-0.04127324280022191 
-0.1348625765161799 
0.03542067089375416 
-0.09653169408097025 
0.04388098345725475 
0.04598528131870935 
-0.007833792211163346 
-0.02251432367342699 
-0.009665366589007119 
-0.02301800673080379 
0.01863385287304294 
0.116735624962894 
0.004701320857961109 
0.02993634985856622 
0.04937924448878885 
0.06943145097063583 
-0.0004286812422325105 
0.09303428188449886 
-0.003605618468563652 
-0.06227726884951647 
-0.06927024374048492 
0.04657997528257765 
0.01299237527254024 
0.01009763129867272 
-0.08060741586595248 
-0.04084375403264279 
-0.01921885594197859 
-0.009624730560265958 
-0.08129102846427674 
0.004073779376264126 
0.1017053688624114 
0.01325678995250093 
0.03420628732869621 
-0.00977122190666976 
0.1238171204282371 
-0.01198583616562996 
0.04864308968642986 
-0.0007743601125462621 
0.03908619203073465 
-0.1744782311494008 
-0.05817753217901827 
0.04500696444557223 
-0.01712772853134602 
0.04543837086203401 
-0.01894393847630584 
-0.0168740850890433 
0.07123966463370507 
0.008928886744958991 
-0.04401764203835973 
-0.0566860475105302 
0.05194190117811572 
-0.07751153151879432 
0.1194148761995437 
-0.0222635331960442 
0.03426968451413466 
0.03722570267601024 
-0.03631708459472714 
0.04404572928212176 
-0.02240237948305701 
0.1210345694178783 
0.05821743640047703 
0.003876320959521915 
-0.01749751648031508 
0.06797286782144009 
0.04036662583733766 
-0.06901437552746702 
0.09468908368221643 
-0.0179895569149484 
0.09743469807897343 
0.0210156761033971 
-0.04605638201121299 
-0.02381741706388057 
-0.01184790576717408 
0.185854045556287 
-0.01152863291901405 
0.0203817268676524 
-0.001182134321531267 
0.04489619654038618 
-0.03882212072851841 
-0.002068105627231417 
0.02825551495261066 
-0.02428899452102906 
-0.03905100889994384 
0.04928661972476012 
0.0374964376255934 
-0.09092402027596523 
0.02494123906735486 
0.0486169749815713 
0.1197460495211785 
-0.0703107687886274 
0.02748404330490962 
-0.004354179636174417 
0.02504595860903926 
0.07563412306002587 
-0.0368606718242938 
0.02669019777249786 
-0.01247690872634388 
-0.02519932568028756 
-0.08110676091086896 
0.03352299625571892 
-0.05566762378526682 
-0.007652610319882983 
0.005767601497484915 
-0.007734395278401895 
0.02919465848563336 
0.07565843014483294 
0.01754967833331477 
-0.03511433561341647 
0.1392548449843427 
0.0278677549244537 
-0.01378409756951615 
-0.01204567932297786 
0.05097319419706156 
-0.03056323594186878 
-0.0113984493555526 
0.07160560933620894 
-0.01681358233547484 
-0.02185047303872405 
0.001234841560457988 
0.002077994149300654 
0.02880991362228172 
0.1047655831269028 
0.07366085466854097 
0.04465468799890114 
0.02851356357866355 
-0.02405317704402979 
-0.0467764187149821 
0.02483576218310128 
-0.05247911579486705 
-0.04793477130175323 
-0.03682470592486753 
-0.002271772338647853 
-0.0545965706754928 
-0.07899401510557574 
0.02078865062963354 
0.003015003747087828 
0.03182062622829342 
-0.03566486002401707 
0.08139202805460241 
0.05032415874483272 
0.03550977817937664 
0.02602688161098808 
0.003155885056407553 
0.09182115962559183 
0.02383310145548172 
-0.01308442791778927 
-0.05973582722305548 
-0.05971490307257848 
-0.0244853167692808 
0.006641846880732907 
-0.1219945203074534 
-0.1617898602667523 
0.05841493196959843 
-0.07267321225149195 
-0.02281047974592355 
-0.02060614172462273 
0.09039120957495793 
0.05260417646900418 
0.01924384956288874 
-0.0229543199662546 
-0.08720649226123453 
0.06936070136419539 
-0.04674613371627664 
0.03041186946533161 
-0.08923612447866996 
0.09409570745039988 
0.03510325331784656 
-0.03934086620828426 
-0.01550534605819412 
-0.02298121489509713 
0.06782213443109431 
0.007060771859751432 
-0.02418691536095543 
0.03180624881411728 
0.08575875572159876 
0.09796921836660846 
0.01450078963237028 
0.01569356315796216 
-0.0056779999151656 
0.1463393726389085 
-0.01411842718434443 
0.06911893848590429 
0.06709886981050844 
-0.08387694421551539 
-0.04023652590828124 
0.0180232586670418 
0.1844452575690364 
0.03471929323218043 
-0.003076867798201491 
0.01021826993069063 
0.0564979089006863 
0.1352828160000753 
-0.01875566756263602 
-0.04392215847098697 
0.01531651262786517 
0.09271759954277962 
-0.01651316323027745 
-0.0292470731803452 
-0.1417884448426501 
0.09779443573647482 
0.07664789132972814 
-0.08630398763578245 
-0.04220161371860984 
-0.01002408343295776 
0.1167022498684213 
-0.05106641493715684 
0.008365560324577115 
0.01078048736426277 
0.1303516085845771 
0.05566117577542742 
-0.000424956083518984 
-0.03589126564031487 
0.03475816865855451 
0.1123793567315559 
0.02209723932531222 
-0.04704238763830534 
-0.03543693148601111 
0.03164264603440318 
0.01536422093075194 
-0.03778446611508415 
0.07730465886311616 
0.02313987150116094 
-0.09463323991290121 
-0.06132901250100945 
0.04566343073379529 
0.05913732969637715 
-0.0713285914471844 
-0.01228212124831407 
0.1025624666783901 
0.1403896037223819 
-0.008442348312696383 
0.002849252949932865 
0.06708394004554045 
0.004812764375558769 
0.08047380643983222 
-0.09213381856599467 
0.02259832037308402 
-0.0158358536362443 
0.02480774587242148 
-0.1296404968143888 
0.01078035826281207 
-0.05968507349201852 
0.01449293043504217 
-0.004989608642142588 
-0.1182226090876644 
0.03761294203576777 
0.02392912369622086 
0.07583144545244132 
-0.06555066454103707 
0.02568730215132722 
-0.1544581229120606 
0.004442302759794646 
0.07531904554884394 
-0.1255146667556583 
0.05398353187722263 
-0.1213828001267905 
0.002739127056231082 
-0.0527745789529375 
0.01673060984891255 
-0.01915833164127065 
-0.02825662983820249 
-0.01586120153940084 
-0.07198984373114543 
0.001870957297451296 
-0.04940426383827971 
0.03217306884120488 
0.02971621704407007 
-0.02023442923068971 
-0.03250669121938165 
0.01881306169575554 
-0.01234474730691189 
-0.009739699485857126 
-0.03602970776637191 
0.01935837934999701 
-0.02330591723814168 
-0.06605573444552275 
-0.0372064216815345 
-0.0386189135929166 
-0.06501382013748144 
0.001843217743927982 
0.02767542158116937 
-0.02403527841544009 
0.06704623721847019 
0.002923486641847457 
-0.01922311563763016 
-0.004807534007515933 
0.01351963191173586 
-0.02089955373172091 
0.0524390903661155 
0.006059055183343116 
-0.05501272246643611 
-0.02994238399769865 
-0.00050580771568939 
0.03777955320293696 
0.01305934195100652 
0.01104201677548436 
-0.01408655439212787 
-0.06386415615263957 
-0.03000748283605226 
-0.00364900801227094 
0.01943755147446869 
-0.03231017629092653 
-0.02293708942270443 
0.01039288580029385 
0.1203530873041871 
0.02466805505083258 
-0.03560239342672372 
0.07872423108318857 
-0.09555185577888678 
0.1115608511536291 
-0.02887793875234574 
0.03325963038770677 
0.006200235794462164 
-0.01262275622223914 
0.03085467812268943 
-0.04509671252464446 
0.05568204887501133 
-0.02384632058185386 
0.02341342090929152 
-0.03591232015238409 
0.07199551139796634 
0.01995958244794519 
-0.02456780412702584 
0.02361263584607337 
0.04261086948135126 
0.07948969713129807 
0.09265221085325627 
-0.04844103747444072 
-0.001976760280842643 
-0.05783338942950813 
-0.07055143829127858 
-0.01911337952225074 
-0.03453477693175005 
0.05073669240792266 
0.002599050302778207 
0.09647666468357403 
0.06039503687845484 
0.04061841902546272 
0.02917519502795233 
0.005774471078480004 
0.01984668433711772 
0.01870099183302496 
-0.04966817705865407 
-0.02370088642246584 
0.07895493738163932 
-0.03735968868078835 
0.02774665053126791 
-0.06768699652685763 
0.02275393618096489 
-0.06408231102686375 
-0.01914615953466809 
0.02156456824617006 
-0.02676469119435603 
0.07876875252812607 
0.003382955884933078 
0.01407916420262722 
0.01847208034452987 
0.02737907887168994 
-0.0269616591145035 
0.02386147920125091 
0.004310541094204294 
0.03419871091953128 
-0.02860367892889261 
-0.05168236426155159 
0.06475249420431538 
-0.03159770055804243 
-0.03370220612914143 
-0.02793602954755399 
0.008500123290568399 
0.02324528096561296 
-0.03729349331975169 
0.01301245527221049 
0.03861320943071218 
0.002154421738038638 
-0.005642325005975599 
0.01642181000043698 
0.04922161998804755 
0.0309478462258873 
-0.03200585194603887 
-0.08045434716392283 
-0.07795515458671115 
-0.008245258247889176 
-0.04745041727111772 
-0.05316098894357037 
0.01261000144336125 
-0.06563064008781153 
-0.02821181214447026 
0.03240544489985882 
-0.0614085102340611 
0.005275999632765847 
0.04876345641545993 
-0.02963881052613987 
-0.004651357651858471 
-0.07862083713311728 
-0.0930335867846314 
-0.04104305402418486 
0.008004925718922327 
-0.06773671468541986 
-0.1848683519469879 
-0.09715162998657337 
-0.03077556922688234 
-0.04026363783449147 
-0.05232582124949594 
-0.152913965052706 
-0.1135954137538164 
-0.05429788094055585 
0.003028912905915751 
-0.1332010957377494 
0.04164414176362204 
0.01574337760402138 
0.03213099069640224 
-0.04134774998692552 
0.09085981420444107 
0.01485394348858558 
-0.1055406327597657 
-0.0187076438137424 
-0.01606598378682212 
-0.02992149239216978 
0.05566351468751708 
-0.04898880757120903 
0.03017413187519541 
0.01874894198873737 
0.09836057441186627 
0.01336766548066394 
0.01013138808033056 
0.03547400569086252 
0.1204839512286416 
0.05824778327197527 
0.07466562619244306 
0.07566942230050838 
0.001821933931167592 
0.08484079196881328 
0.02845162925648568 
0.003151168740228449 
0.04077862182272891 
-0.1059904596513403 
-0.05269073843730602 
-0.04778292849620563 
0.07145328274461375 
-0.0553247073944825 
-0.0473598670934651 
-0.02729761041233793 
0.07375353671074374 
0.07397180879958738 
0.0149562179031226 
-0.03100495466078245 
0.03121777195202219 
0.1526487639476139 
-0.00498387228536353 
-0.06965824697671366 
-0.08178466554604358 
0.0514367387960863 
0.04435418122598824 
-0.1243309191979826 
-0.07394717368686873 
-0.03383099546253461 
0.158546266184021 
-0.02015980266212283 
-0.04669563658698266 
-0.02898435000414213 
0.08781779844201169 
0.1343930546055991 
-0.0613657280587383 
-0.01995133436431166 
0.04350400265799256 
0.07092983006294026 
-0.06710317852082469 
-0.08241496572009166 
-0.04902320431513852 
0.1114488713159216 
0.05363234980520145 
0.007063393878914693 
0.08083397379281629 
-0.03847989561109788 
0.02398893868001619 
0.06930304469565997 
0.05712402699363353 
0.06022999961070424 
-0.04195471948137975 
0.0607369237755947 
0.03178060985902369 
0.1142587962896389 
0.05106052975336988 
-0.05695990345027314 
0.07652632057370058 
0.07986526826477519 
0.04546083417429458 
0.07049348290549601 
-0.03621056696880622 
0.01232945210217845 
-0.0163302684929494 
-0.1084044091214648 
0.01230697617277138 
-0.06963627050348906 
0.004055673345448213 
0.03373721386200486 
-0.1749978386633153 
0.01392074234247532 
-0.007041783233497779 
0.03772681579536396 
-0.05317653273080804 
-0.03686913882709323 
-0.03604738919135998 
-0.04016933190331145 
0.1083313068358595 
-0.03666328448168722 
0.02529890350863261 
-0.01764472617574936 
-0.06370850062743379 
-0.0441594676989011 
-0.04124404455266753 
0.02480713372284908 
-0.04276731340449034 
-0.03381694595007809 
-0.07923539372574015 
0.03700140819196333 
-0.02181134410287083 
0.004254509351985624 
0.04290414690880914 
-0.04304076197014579 
-0.002256025021725104 
-0.05893814015721129 
0.0006304634833081343 
-0.01605645432961697 
-0.03767668827400194 
0.02571179461923755 
0.01373740434695462 
-0.002221732401689992 
-0.03439159006290685 
-0.03075609531375558 
0.07179449281972092 
0.0002978872370257307 
0.02701853629342478 
-0.0006803423895724648 
0.07948334684084109 
0.005974218078866667 
0.001796187498867707 
0.05248500922965271 
-0.03815025397917272 
0.01843840799337989 
0.1021216497319951 
-0.0288985267608329 
-0.01096938903939365 
-0.04300767000103766 
0.02965762273442709 
-0.08013504610324003 
0.02269749693518831 
-0.1051645387572296 
-0.02508295776616221 
-0.1007938138014732 
-0.004510395060866285 
-0.05432291217389122 
0.07965207425623816 
0.05749644547276748 
-0.04137021637011848 
0.02193851258293116 
-0.04826048974091805 
-0.05000678879091251 
0.01135124308142065 
-0.0141840389654282 
-0.1027882540167092 
0.02280974429009959 
-0.07135476538890147 
0.00280955866754915 
0.03763076943582219 
0.01183660346508061 
0.02662395959579145 
0.005435492096118159 
-0.01251662927083019 
-0.04211384746337971 
0.05405926130090453 
0.02744510728823882 
0.05345549451671202 
0.01141129525066628 
-0.01793092747680279 
-0.0726902026418724 
0.02597125445620732 
-0.02502388565490541 
0.04853306318170258 
-0.04399225115714123 
-0.06456521551931736 
-0.003220736318930033 
0.01096456850242458 
-0.03581260559749442 
-0.002206660087075513 
-0.05059158321577395 
-0.0104441821083911 
0.003267101609899355 
0.08167081028986384 
0.02928027271604275 
0.03084327598347558 
0.01667803846865391 
0.06288167334327255 
-0.01223584694870596 
-0.004807633885537245 
-0.02260257961632775 
0.0142260831895205 
-0.08103278924139365 
0.01055397109361506 
0.007307314962891709 
-0.03957482120190879 
0.01024741426963856 
0.07415484362700636 
-0.05363286263051576 
0.01701318876414247 
0.06561528278134361 
-0.007489744543877759 
0.02960433627356462 
-0.008199392180088598 
0.108331504109996 
-0.02406559346074074 
0.0007995279869044889 
0.06272369736314487 
0.02235863687520393 
-0.03750668287922531 
0.003335969066195141 
0.03338010782843274 
0.004383730246023331 
-0.03575155184483667 
0.05724820176498511 
-0.01107783045261421 
-0.01860880948425913 
-0.03645615033914566 
0.002237060870060471 
0.04429816419002208 
0.0492110139684914 
0.03285337439549899 
0.003417114757659761 
0.1021152150111068 
0.0002556079981626817 
0.06200578894318169 
0.03735870779057332 
-0.008516190625489558 
-0.008722996742601035 
-0.09033592916531147 
-0.04125283633925274 
-0.02338112589473672 
-0.03660844624601373 
-0.1194557179560263 
-0.06139690145015013 
-0.01456001901288243 
-0.01271363874739638 
0.03812140101732778 
-0.0531734694122489 
0.002610045715975942 
0.06337912959272293 
0.001233829865596086 
-0.08090292013324968 
-0.07396306768296994 
-0.008236888132579423 
-0.09704710285636181 
0.03419249265748697 
-0.03994426844382611 
-0.05982350456300564 
-0.02335156620668571 
-0.03303357834460608 
0.02158310698397043 
-0.09301050602818903 
0.00566791435672922 
0.01531033795674625 
0.07888555248475543 
0.01070648193977216 
0.03570058028598796 
0.03802624694885844 
0.05386179284759669 
0.03769170250182272 
-0.06117621745839632 
-0.0147783465524405 
0.00983178085765328 
0.09594563390609741 
0.05498527591249522 
0.05289115028030325 
-0.03077503257218646 
-0.0227873791375299 
0.1941674317467728 
0.06202842926036887 
-0.06153614205555168 
-0.07084527941201603 
0.09756856483075642 
0.03441046001537375 
0.07758769779534715 
-0.07920526607364352 
-0.04867232391973762 
0.04441444774193152 
0.08682487312546101 
0.01332018358363186 
0.1064419286580104 
0.03648548807487953 
-0.08946649967692914 
0.01018881122365339 
0.02928220309675388 
-0.05056848903498794 
0.05598822872803218 
-0.002396595192849303 
0.006552193246359393 
-0.03680409031864731 
0.03943285771005632 
0.09033779981867268 
0.1240607919233021 
0.01849568282855523 
-0.05872741142359607 
0.04644102957816005 
-0.104721536934565 
0.0427278119419339 
0.07118795112950844 
-0.0759499511900416 
-0.08137631034883816 
0.0001858637154457802 
0.04845497854666042 
-0.07622164602410093 
0.06934014184499665 
-0.02359525595289271 
0.03408433879129196 
0.07677286973607385 
0.04234107338449311 
0.03518240797609621 
-0.01497984749804548 
-0.02526040193142744 
-0.08821678995282013 
0.04788264650846519 
-0.02258718104073008 
-0.05420103987199169 
0.02484515741144138 
0.07678517302865132 
0.08648000869278949 
0.0981453291806617 
-0.05277157885022908 
-0.02038222285648395 
0.1526750024032603 
0.1449852673820927 
-0.06663028368843521 
0.0701348114989252 
0.08536431135711429 
0.1205398806559807 
0.07852635595240899 
-0.006893637521833918 
0.06661546768620021 
0.07850438060871061 
0.0690157703015546 
-0.07370508753698858 
-0.01533797253771093 
0.0002955577422025497 
0.02914461177315911 
-0.00318527964864234 
-0.08980950326922763 
-0.08396672047950736 
-0.08425546807691973 
0.07360020292512673 
-0.05395105002983649 
-0.00417538858123324 
0.04638196627415582 
0.04335844096294127 
-0.005809439284407264 
0.04776652386713632 
-0.09691871095027578 
-0.02162515083626563 
0.07298069477814328 
-0.03788084308613167 
-0.01596059619328571 
-0.09688140099384182 
-0.02677666785099584 
-0.01209813010050613 
-0.05803851172436532 
-0.04308116606720864 
-0.09649897196412442 
-0.0601816520926826 
0.007558367416446258 
0.03927729717391668 
-0.03465457969755781 
0.005837682176110892 
0.03252561856447569 
-0.06006245983267477 
0.05200590803309553 
-0.1577623033534149 
-0.08645478774837821 
0.1153735671733881 
0.004645657847567319 
0.03138600334400227 
-0.004344448534743505 
0.0279639694685462 
-0.01918276472562956 
0.05020469433632243 
0.03768017340651773 
0.04531783938120046 
0.05153202485864497 
0.05125182120997951 
0.06154723697889285 
0.05798250548594609 
0.01635733225557257 
0.02667520046702052 
0.009465142980407794 
0.07938752347226848 
0.08261460931155286 
0.04746273718264158 
-0.06484336365404239 
-0.0576521482182763 
-0.04053079482857243 
0.009490077113457234 
0.08658972615249969 
-0.006959930387944381 
0.03444045461999517 
-0.03147325912245266 
0.002837860218353412 
0.06269047099584882 
0.01020714354120979 
0.02733344194642168 
0.04139776146448219 
-0.0166479138927427 
-0.01657190895408709 
0.08465670008842666 
-0.04799569880652148 
-0.006801888733900277 
-0.03035216858789488 
0.04916748713971173 
-0.1059836487433592 
0.003097644974624928 
0.04124546831838369 
-0.01900510066709458 
0.03087914744254374 
-0.009231442780512267 
0.04494726061003832 
0.03569476989959885 
0.00837280146263129 
-0.03425702414040931 
0.00947739008330642 
-0.0006365232723939748 
-0.02164622884281598 
-0.02934572067731378 
0.05707889363701378 
0.1152354879638049 
0.02008224542216962 
0.06468509127920069 
-0.01123834473272303 
0.09229178071977652 
0.0316764656698106 
-0.03664718495422611 
0.007728582774158731 
0.01171743804782805 
-0.070495921520038 
0.01110160526933714 
0.06219145821623178 
0.02198362404973428 
0.06973518255291505 
0.005792218503770962 
0.01994971564570183 
0.0517036220864714 
0.02375235110019883 
-0.01335684413166427 
-0.0439812741447017 
-0.01560509095954573 
-0.02579536698376766 
-0.04692465353119003 
0.0461458604452433 
-0.02883169502390572 
-0.02166669246355981 
-0.04073017267730524 
-0.02965337043337072 
0.01782392795968496 
-0.03758726809406749 
0.006789962071317945 
-0.04432173529695003 
-0.009179651798802441 
-0.01170020650693308 
0.002998612990276471 
-0.0166275107021831 
0.001372734762269307 
0.02375689170865888 
0.05275439081869576 
0.04391794609709728 
-0.00152921408315163 
-0.01577750220432366 
0.0263254122838637 
-0.01944137152856272 
0.02545133507253561 
0.05688589122127317 
0.01552840185799279 
0.04059407510551712 
0.05933753820472337 
0.01267915017580085 
0.05281147261927203 
0.02342433421913952 
0.07163201811375813 
0.003404995738092036 
0.04906861665780071 
-0.02853850265898754 
-0.08724056559901577 
0.01531712173972884 
0.02895911357038258 
0.02471130757436418 
-0.07727233437810363 
-0.04060306168895107 
0.01253870958461755 
0.002030664795627185 
0.04285011060399879 
-0.02132590908060729 
0.01705066208038111 
0.01534644706171713 
0.0489851358110823 
-0.02960910771799117 
0.05223581419771865 
0.02448095512533994 
0.0986852287935186 
0.00947917201775106 
0.02269111540443737 
0.02785425601024638 
0.03906092334899324 
-0.009475148565358731 
-0.003098595392853393 
0.00362073130536133 
0.09880847416964753 
0.00124821332600396 
-0.06737483840626426 
0.06575481926254456 
0.1274919832257398 
0.1173946202405486 
-0.0009899016060021042 
0.03707366416827759 
0.08132559512891065 
0.007776991878748319 
0.0002151310091835285 
-0.08508437516996117 
0.08976750441217557 
-0.01768603480108992 
0.01549682800333501 
0.003341058345680865 
0.01599355822363657 
0.1001260535511957 
0.03039944586277001 
-0.005388812148731475 
-0.1319559795706783 
0.08574605864617167 
0.1342532811970963 
0.01786082314518734 
-0.05318196385526558 
-0.1434594958831221 
0.1345509135066718 
0.1018232469545784 
0.02491070624093169 
0.07832101169569039 
-0.07261062834061989 
-0.06268406329536538 
0.03578639625746772 
0.008279883638626667 
-0.06183356660605454 
0.05524125245436225 
-0.02397504345507584 
-0.0766224556396575 
-0.01542995697170876 
-0.03130086665976312 
0.1039114865499971 
-0.04647704776143864 
-0.06030462613479333 
-0.1325770925424977 
0.03373422309116531 
-0.08072827342085009 
-0.1397072850383523 
0.1163508477709457 
-0.06221518453604521 
-0.09418964109162475 
0.04445299350147055 
-0.05644152666387912 
0.06861017963812156 
0.09917164261645696 
0.003952120321623486 
-0.04451901820527887 
-0.07311037353604449 
0.07137241631879353 
0.06097060794352011 
-0.06852651054888487 
0.004338936535853511 
-0.1146860870807481 
0.01047437246664056 
-0.01882696723976548 
-0.0285058721722979 
0.1030840034259049 
0.05606451200605413 
0.02847834567559986 
0.04433336139231398 
-0.07295791484803746 
-0.07516885219064123 
0.03584601884910625 
0.04925955886259349 
-0.1144020757520404 
0.01761933961600888 
0.08536690844319596 
0.1566632462987887 
-0.1293885941623629 
0.01273643791167787 
-0.01229789125538617 
0.1345676304455811 
0.06362284040322476 
-0.07301480461179849 
0.02740296146017797 
0.1100659020924707 
-0.007874574942106327 
-0.008531687701865699 
-0.008208375083384097 
0.02752147582832796 
0.03853205641511084 
0.04123485973499629 
-0.1009001679463318 
0.01881311441190654 
0.1447024687994155 
0.08959676635320557 
-0.02931599528191373 
-0.04479248320675242 
-0.02867221467509412 
0.01996578005798267 
0.1102347852507933 
-0.04813894267482199 
-0.004682529830484475 
0.002612410741454732 
-0.0569668970480759 
-0.08801790364647717 
0.04291301290469181 
0.07657210516661786 
0.04133202185211447 
-0.001554110323526825 
0.02259108629378649 
0.02587105899673993 
-0.01341264474180859 
-0.02096436179987729 
-0.06755057173556067 
0.1019149115453201 
0.1006772105073103 
-0.03530801880410746 
0.003962803369379357 
0.05695048996232525 
0.03255126413263006 
0.02005234340089269 
0.03157387140782392 
-0.00336602622052112 
0.06608933772491449 
0.03743169167713062 
-0.05390902903935096 
0.001375737510707348 
0.02521547930969575 
-0.01485940422309909 
0.003721259533033194 
0.09557514360859728 
0.00353545405744982 
-0.0145920744450518 
0.02285135986173153 
-0.04881361580943833 
0.04201698958888037 
0.05577330539629664 
-0.006047539122694701 
-0.0166619462798255 
-0.00747064868642592 
-0.01814343697451779 
0.009695620203237896 
-0.04580910389605058 
-0.01889220165621791 
-0.003305741723767808 
-0.06318428844243212 
-0.0430720778531211 
0.01676975648381606 
0.0297303044464225 
0.02395855039386303 
-0.02430110314402048 
-0.03180789274212661 
-0.06253606619292401 
0.003354050464100695 
0.009038189530480226 
-0.03162047597020833 
0.06535100144750088 
-0.00843749174606852 
-0.01239553321686934 
0.04095066224786912 
0.004879201464008308 
-0.04616803584851621 
-0.02065728343034552 
0.03988683161781645 
0.0622002324858504 
0.09557724020471819 
-0.0117595627249153 
0.119287086280333 
-0.01195732212293606 
-0.01709070620782489 
0.005080140849771458 
0.05460485641238171 
0.001877772361489196 
0.05394936982698229 
0.02982402509838071 
-0.08054750474473174 
0.07986502619169206 
-0.02966603667898218 
-0.1075869545757707 
0.01692524330395774 
0.01174000156132526 
0.003103093890107646 
0.01382189433676558 
-0.02644877717557405 
0.01646382309409236 
0.01405680770841707 
0.06458463340485092 
0.08094063446067648 
-0.007715115484882201 
0.01845486420881346 
0.01858357268422554 
0.0488768667673117 
-0.04720970403853737 
-0.04185462186529646 
-0.03742066416988529 
0.04867713392479552 
-0.01308048588178174 
0.01539935039420642 
-0.09355884056999486 
0.007559478556432939 
0.01416630961335741 
0.003426103081660862 
0.08712826019691987 
-0.07101060277334201 
0.01938607772776166 
0.005204822281925012 
-0.0443580558745412 
0.02624359320090115 
0.01657486712410309 
0.004085216056918588 
0.02265756093050414 
-0.01577372717768731 
-0.01468740413440166 
0.06380169226827201 
-0.03190735392374557 
0.02833924728717394 
0.003694439178812588 
-0.008389491778055026 
0.04797073383755239 
0.1201690464056593 
0.07504086160685879 
-0.03818617516647155 
0.05164937986939023 
0.04481213105426174 
-0.05658656294474386 
0.04194787823909732 
0.1034468705737011 
-0.01184468161999937 
-0.06467542903917858 
-0.105130111832545 
-0.0936393559069867 
0.01056664784562615 
-0.02087982158177384 
-0.02973218912467 
-0.1081469694965845 
0.08234377600956007 
-0.03544498373995594 
-0.01279611926069196 
-0.1017646141323823 
-0.02950996981881305 
0.07988558657870216 
-0.06596040326058744 
-0.05000792374053344 
0.07103572107571779 
0.07887922949188181 
-0.04221825417355302 
0.02343599254658319 
0.05989336247093228 
0.09325782736389557 
0.00568739798871225 
0.02716043694642125 
0.0286221984193848 
-0.07827973640390412 
0.02286443031722611 
0.03393399757440372 
0.01741171328672891 
0.0295384224241464 
0.06213849340733101 
0.02450919117483817 
0.03234481540906273 
0.07714092357002314 
0.02882392404717394 
-0.0503699766055522 
-0.006576125302266266 
-0.01682919040303425 
0.03689375259923352 
0.03121375535572691 
0.02123840663588365 
-0.04480599693612551 
0.100573105660951 
0.01350248811570248 
0.07945896221215565 
-0.0644644164071763 
0.0288579879335571 
0.08721030707641245 
0.05982860563145843 
-0.02896746045066004 
0.03654677878623543 
0.05850119113497406 
0.02041062842648023 
0.04083416192000791 
0.06073242682496542 
-0.05877286972752842 
0.008342144812267352 
-0.03913319925596554 
0.01400330421363319 
-0.147352814042076 
0.0111526541303179 
0.007707350038790803 
-0.08022466484922712 
-0.04694953784666358 
0.009786189106141591 
0.09014557352638859 
0.04502060740137543 
-0.03219060770693441 
0.000400231237459832 
-0.03851091417007239 
-0.01056032193117974 
-0.07533922713214339 
0.01807658383495438 
0.005474742278430791 
0.009137581519085496 
-0.04705051385630647 
-0.04866849077706557 
-0.06301425500748969 
-0.02415074551781808 
-0.02755902125660567 
-0.1006371493480603 
-0.008421901279027571 
0.01779039014604272 
0.1148244361797957 
-0.04421798716424336 
-0.145767109806008 
-0.02632601783019225 
-0.02034688330307152 
0.05858228752087611 
-0.02052607658998996 
0.07913933945703247 
0.0201301199032503 
0.08542083511247017 
-0.07013249722686035 
0.09121707377486785 
-0.005367017898359945 
0.01982026185028302 
0.06147909172455568 
-0.05499166832367977 
0.0250741620448372 
0.03378922940609851 
0.09771676684906394 
-0.08883160620562608 
0.03006003997949126 
-0.06402793148649674 
0.03075166438367016 
0.1006196247983892 
-0.1219721698145188 
0.05436499066854746 
0.07057260885605771 
0.0688635076599966 
-0.04219949562789251 
0.01483167122203666 
0.01848774495771749 
-0.02612738823837997 
0.06193104639534897 
0.03347419199846702 
0.08212143472017279 
0.1194735511679357 
0.02918404355245292 
-0.0442732758728724 
-0.01885509238450505 
-0.002944714304233865 
0.02252883856821141 
0.09197391675480991 
0.03335710929938206 
0.05496557958957685 
-0.1163022835573009 
-0.0392051984045975 
-0.04859964911078903 
0.1128645846601719 
-0.02562225833340896 
-0.03771649263131314 
-0.03156563902807901 
-0.002851564999223466 
-0.0205000012397532 
-0.0737018994061049 
-0.1278140524278444 
-0.05320024005634551 
0.02173520915265889 
0.05938218386983053 
-0.01950499357285862 
-0.02661949501383655 
0.02154406381353539 
0.03928515816566993 
-0.002746793164115571 
0.0127785226389965 
-0.06344329981590635 
-0.004035424998753563 
0.01996212633472212 
0.02312032566457017 
0.006713288802938374 
-0.006885784464853495 
0.0277026644122253 
0.1084368176186708 
0.05842587797196919 
0.07179675251714789 
0.06658424775147384 
0.09319276671612549 
0.01815548511542837 
-0.001008371429676564 
-0.005316751814549341 
0.0339499797997929 
0.01155738062159963 
-0.09155144768085262 
-0.01453773533991088 
0.03925960483108994 
-0.01638163939625413 
0.01672087791130782 
-0.0118288226910333 
0.0113828927388425 
-0.02450792625170038 
0.007197222952592681 
0.01873486762497393 
-0.02020275639144564 
0.05028290709634303 
-0.009603006334855418 
-0.1328869292389304 
-0.04868600355549812 
0.08421502694699201 
-0.03969085120510497 
0.06094936625655868 
-0.07524430571564131 
0.06377376149404722 
0.03812312516655946 
-0.03207816703118332 
0.03180487468851616 
-0.03244898676676591 
-0.03109091375456383 
-0.008189793986520177 
0.07135786702280919 
0.01459810929135592 
0.02005414168390275 
0.02112506628423591 
-0.07067817712307854 
-0.02931648926528468 
0.02816117874397092 
0.003065906062081313 
0.02850996891557539 
-0.05200671610313232 
0.02276494322785196 
-0.01671149444021711 
-0.03975335969453717 
0.007948143586609689 
-0.05839574951016793 
0.03261033873140957 
0.01665138973543432 
0.022078006295569 
0.08304429544081801 
0.01067299095311808 
0.02246243683372142 
0.0399205093871922 
-0.01298486458415564 
0.05006825899678131 
-0.03634247769859252 
-0.03191286213462586 
-0.01192706754199136 
-0.06530383855416474 
-0.05088986304640029 
-0.04394518827276375 
0.01457543506890247 
0.0001962559814963386 
0.002251818501148903 
-0.0715182200013777 
0.02566992930343051 
0.05007131454719309 
-0.0260828618671133 
-0.03060974945925819 
0.01289120141443412 
0.0101543935913824 
0.04288912046949592 
-0.08845493311828516 
0.0774166664787576 
-0.04206378823480918 
-0.05749510154291911 
0.07446480857852983 
-0.04229127074075648 
-0.03082750840218166 
0.03233237270894673 
-0.01829586057355949 
0.009194693047270044 
0.003440085180485679 
0.007158377565765757 
-0.02181972478792344 
0.02609564065186704 
0.01449153578765793 
0.04349159180499457 
0.05145200940978179 
0.05830437799821995 
0.07349296062295016 
0.1014685902060611 
0.03311253424422683 
0.02566946838603147 
0.007689394132088662 
-0.04758459338756589 
-0.02194166508623843 
0.0661908283763994 
-0.02247565095401062 
-0.02588988127334105 
-0.04635001725033014 
0.03875065785446075 
-0.01397169592950783 
-0.01332477191588886 
-0.07511791553656855 
0.0180498787414585 
0.002128082290763294 
-0.01207380248828395 
-0.07707840921786686 
0.01021230281583923 
0.02201280970096293 
0.008596363625304942 
0.07713273462914097 
0.03749509420139623 
0.1034660268621537 
0.02202384750582573 
-0.02078450270838669 
0.06778584173199204 
0.0889730769936064 
0.006576397270239482 
-0.02087150918334183 
0.1323188860426115 
0.08223581499820919 
0.08801572984469119 
0.09573419880666578 
0.006980398034546676 
0.02123008103930145 
0.01466252213558418 
0.02122222930759819 
-0.04622566463838465 
0.0732532533675149 
0.004880435880889322 
-0.02851205243052105 
0.05528048646790237 
0.003102810254457696 
0.08499615856641646 
0.0442255245291095 
0.03328581629247801 
-0.100169955811543 
0.0823957816774612 
0.09335274401836963 
0.04904515919553405 
-0.06115298058980367 
-0.03999166228333805 
0.02338861120942276 
0.05464593879607652 
-0.08572375801656873 
0.05684135187249832 
0.01380622854251571 
-0.02620786441359074 
-0.003226321565667078 
-0.04737578877026043 
-0.02400739462901525 
0.05356084041392897 
0.1300546684931098 
-0.02573358865667264 
-0.04296313144912881 
0.06224677436059515 
0.08313046370963537 
0.05544376866755936 
-0.1097695909160193 
0.003035957396302064 
0.01715308165341684 
0.0401611697422378 
-0.1316409691847058 
-0.00217375900834399 
0.01366393150354778 
0.01194579630607301 
0.0419076032377596 
-0.04978086076076628 
0.1310640737712204 
0.08906333453745097 
0.02316022293408384 
-0.06459667073146748 
-0.01916018127785078 
0.06125538782770922 
0.02331701596378966 
0.06836301846142775 
-0.0502048022930028 
-0.04648605038630586 
0.02866324304856849 
0.068249102476725 
-0.123568773972307 
0.03139711713010611 
-0.01887115360446317 
0.03565614893459536 
0.02168864275805374 
-0.002482726671048699 
-0.07501365856660769 
0.11268383376234 
0.02433919938576498 
-0.05114340191240597 
0.04422194873395868 
-0.00122895109046517 
0.02813625005349078 
-0.02077320086956643 
-0.03367017006568641 
-0.1212465347806303 
-0.003918776635601782 
0.06439442734338063 
-0.08452400435273044 
0.06497453578804306 
0.1172412494643271 
0.09105350946006065 
0.1290432889251904 
-0.07204710040592902 
0.109702929333812 
-0.008421611866479849 
0.01637698460685568 
-0.001050089419015413 
0.05334315028279395 
0.08476144593433636 
0.1038583963966112 
0.08786912932379086 
0.02598876421776284 
0.02222427737047081 
0.000201503834331544 
0.01702928334502259 
0.06097524592377383 
0.04836835872993114 
-0.1143706247931256 
-0.03312280108837656 
-0.04971926356156947 
-0.03462631257235274 
0.01469698061102898 
-0.09115833974520039 
-0.06417396863439348 
-0.05873007155456404 
-0.001531285310721597 
-0.04959641039212408 
-0.02690678162212243 
-0.04864145089675487 
0.01475774262333259 
0.03247575495938389 
0.02499165696777285 
-0.05748583533660684 
-0.01687693118909683 
0.02124086929307757 
0.0330516155259337 
-0.01916382302300254 
0.04417634806828251 
-0.04349194679250056 
0.02334923764665079 
0.05731401305291434 
-0.0527160363410099 
-0.0250358265517252 
0.07359185823846337 
0.07151290167631008 
0.03971199833710873 
-0.03073400358621403 
0.05346456506286845 
0.05590191255243529 
0.08356673839229456 
0.05134872911329881 
0.001775701499681348 
0.0153644663253387 
-0.04028893592074049 
-0.01333293390614085 
-0.004368336078461232 
-0.0196852128054417 
-0.05308767796467945 
-0.02355502727981465 
0.05432573130551288 
0.04547454529748822 
0.003900096252995633 
0.005457030491709424 
0.001789676801432817 
0.05304806142839662 
-0.03331268525325014 
0.02349165162248555 
-0.03189245887249388 
-0.06090679260612597 
0.08315492959275961 
-0.05542049930199072 
-0.02609977034105583 
0.04905841447948304 
0.01304498395578647 
0.001330555822370031 
0.009137348013611457 
-0.01078704263874595 
-0.01132066272848261 
-0.05189720594776236 
0.02259497247823736 
0.06691079312172556 
-0.00410180549829169 
0.08294208016488841 
-0.01561826960997073 
-0.007162630560392818 
0.01330463408279695 
0.05023358491605279 
0.0944456140758148 
0.008680535914635959 
-0.07131458157383747 
-0.01321887245005354 
-0.02406645036890123 
0.01477359234537679 
-0.0900551594680364 
0.04183060940852448 
-0.007381525475908775 
-0.04130191703030564 
0.1167668750732778 
-0.06774387669345849 
0.04069011316423241 
-0.03609156487880085 
0.07237237244856416 
-0.004007403571698553 
0.0207000526002897 
0.03137811492878406 
0.02089214729449897 
0.008467259563061744 
-0.03348572333593746 
-0.06191597315252908 
-0.05817449883375483 
0.0491796323204621 
-0.07773129685846725 
-0.0485645028544102 
-0.06942348921341132 
-0.04659638608064903 
-0.01999655628960517 
-0.03707195801159405 
0.02997930301457 
-0.04141104030807929 
0.09501166594822559 
0.02354309022384314 
0.005343452077015248 
-0.01262257913994327 
-0.0106879736290462 
0.005202586482459617 
-0.01920935489723549 
0.01893575907470085 
0.01743027554100034 
0.01078750190917689 
-0.03413028672634275 
0.0440566479090234 
0.02443177766856022 
-0.004244754725123647 
-0.0002747168114766618 
-0.01129567811436296 
0.1174087805284668 
-0.00428404813349887 
0.02059515350790651 
0.1014618749445537 
0.1024705465805634 
0.06858401362963695 
-0.0006035474273489533 
-0.0167806992972119 
-0.06325040379277716 
-0.1254834785041123 
-0.04106061919843624 
0.002049358706498256 
-0.007596284921081455 
-0.07330801873915185 
-0.149667911659367 
0.03335679811205839 
-0.01888887108172408 
-0.1783383342307458 
-0.08891740879751946 
-0.1094016143692275 
0.08536210396832362 
0.01854153621882144 
-0.04262076871289032 
-0.1201961926038749 
-0.03896273921625114 
-0.08928107906719117 
0.01180418581746063 
0.07046280820960296 
-0.0427722986325741 
0.04243271277534632 
-0.1069124158294159 
0.06258602235727445 
0.03280632809854323 
-0.07339993737832901 
0.0428721493225509 
0.04340445342896734 
0.1463129880915547 
0.007469684955126933 
0.07911539581610794 
0.1318643758533625 
0.06560984364830928 
0.0009726327767388654 
0.05795331806694266 
-0.05128646168675755 
-0.1104493728563263 
-0.03474571787706006 
-0.02361012083201728 
-0.05805893195730051 
-0.1357273264800244 
-0.02270500919915495 
-0.04309569880423068 
-0.02450552457029356 
-0.1143237004361746 
-0.07164352268401045 
-0.05516153806931432 
-0.0266491609096073 
0.03778469914481426 
0.01406232622045204 
-0.1084726222436251 
-0.08546744306926723 
0.02142799320352004 
-0.02076511302875262 
-0.08121751254329612 
0.004033873437683341 
0.02419219131035897 
-0.04045035039486148 
-0.08869849836276521 
-0.001031105167704539 
0.01258165576744786 
-0.01807889580180974 
-0.005456075883349079 
-0.03064233315892683 
0.01248270479407989 
-0.08558476370104431 
0.01282597394576039 
-0.0157147267893675 
-0.02248085039987605 
-0.04503544148681562 
0.03748124124528912 
0.01521316780623919 
0.04747661452413791 
-0.04291472400627355 
-0.01331228859715921 
0.0283726068364307 
8.598679274823182e-05 
0.08680614468077953 
-0.1013925360825615 
-0.01976308293907169 
-0.1113454398073392 
-0.09419474432332717 
0.08075168981331943 
-0.06280938526887044 
-0.0001084824981142698 
0.06544021561108307 
-0.1239126572113993 
0.05920969631967813 
-0.06365753680012369 
-0.03131568069268522 
-0.02377162517552953 
-0.07725505324229524 
-0.1743052156463173 
0.02094483617740861 
-0.1458103758483492 
-0.03467452926480876 
-0.15121708530114 
-0.05600747370765936 
0.05991327714462303 
-0.08249376506642532 
0.02984218018976487 
-0.1694798280324785 
0.008581003805570243 
-0.04062485787131759 
-0.1446229489191031 
-0.04263588087442326 
0.07357566716055974 
-0.002601958741983252 
0.03527038351994322 
0.04684823701686631 
-0.031041376922622 
-0.08885009804513781 
0.07355780924556013 
0.007068382242098683 
-0.09058195745520507 
0.01239174490003453 
0.07734581207379167 
0.1168375894448349 
0.1225355309221622 
0.09353177972030814 
0.1144159390391613 
0.007252600933876012 
-0.01065179124374273 
0.1721756210512437 
0.0873354546056543 
-0.01979577441811342 
-0.0769430847257951 
-0.01331495293293162 
-0.1137714957285074 
0.04644121913166497 
-0.07550269228502861 
-0.08122654168182925 
-0.1099031976491429 
0.00918501738104963 
-0.02078868721253684 
-0.09045291116076605 
-0.1079933556610976 
-0.1963720245915638 
0.05295804208758223 
-0.1015316052712768 
-0.07678144173431478 
0.008094612179531743 
0.08973735455116505 
-0.005484204380557487 
0.01884307455560695 
0.01658194295541246 
-0.00620517501985962 
0.0407836311853516 
-0.07020596700729087 
0.1216351205798457 
-0.04796256293987687 
-0.07675629877612668 
-0.004089010555096981 
0.002270363495777506 
0.08222165669400805 
0.09798932647011963 
0.005874001708293272 
-0.03997498705590623 
0.002439016483965801 
0.1102517795142043 
0.02186171208009508 
-0.06919853521439159 
-0.05973837917386804 
-0.05322433175240128 
-0.03121189409962648 
0.01238793244371038 
-0.1253278409613111 
-0.00353903223955657 
-0.07527668048308393 
-0.0405057670913027 
0.08756874582058907 
-0.05810676073932446 
-0.0287156490125236 
-0.0655129528970556 
0.06786700659360755 
-0.00270364942041765 
-0.02383506718792355 
0.004730593259592374 
0.04163107209533137 
0.00586775934891634 
0.02626113750158546 
-0.04290728044136572 
0.0138101536696207 
0.0008493758460329063 
0.006003577466067994 
0.05332546557016793 
-0.1085245308868478 
0.01323617031925717 
0.02876250701946463 
0.01292308667662636 
0.02451618190644415 
0.09321974496556648 
0.08231071741526577 
0.04948158271536576 
0.0460390343832016 
0.0172999924192119 
0.06882279869715545 
-0.05713813013629983 
-0.05817744555049259 
0.003581935130307887 
0.03046955368726342 
-0.07921812254256319 
-0.04392467695610779 
-0.01134576883470732 
-0.008952392312086985 
-0.0258083971827428 
0.02188666956295528 
-0.01270891315322194 
-0.05578622967719507 
-0.004759300110486502 
0.01915724247409175 
0.03944158618326771 
-0.02502240179657098 
-0.03783941554642645 
0.1016797603093525 
-0.016958640150032 
0.000752030770121194 
-0.05676721263270933 
-0.02153544768251815 
-0.00781963175942072 
-0.08958671121375136 
-0.07090965409261483 
-0.02995374241087649 
-0.01635231691093009 
0.04465828997571138 
-0.05511277571134894 
0.01644895825142712 
0.06953844080911854 
-0.03467545065029514 
0.02035460415953706 
-0.07714380735575931 
-0.03808160469546362 
0.0476771344422208 
0.01188772993353074 
0.02465534414079427 
0.04317028908960251 
-0.03549763073404443 
-0.03301346569300286 
-0.02551158200488045 
0.05699017608294192 
-0.09317077518554046 
-0.0397910788497572 
0.08183755949250938 
-0.01146034034778828 
0.04399238520979364 
0.03856568573512997 
-0.1362179336622151 
0.08724591570616273 
0.0232347104690656 
0.04991276291387883 
0.01951355120619827 
0.05145046194750595 
-0.03325898145995197 
-0.08424421850413301 
-0.0477823690967027 
0.02828370952295672 
-0.03864905939561007 
-0.01659973911458845 
-0.06926338573254219 
-0.001052437239990063 
0.08544109948604427 
-0.008939739944251391 
-0.03254646445657988 
0.005937150474015661 
0.001266332112174683 
0.08415062150931878 
-0.0674550089114742 
-0.05862296053996004 
0.04947794696991024 
-0.07643764197146076 
-0.05577736461917025 
0.05987191864195551 
-0.04093000234173916 
-0.07742643981886971 
0.01750725667300767 
0.009439808824910492 
-0.1096115921000659 
-0.1272317582945637 
0.0956227430032237 
0.01338172989814845 
-0.003888646228547294 
-0.0240896495808455 
-0.02442734817905681 
0.2062473046503297 
-0.03057788470546736 
0.02792303965866497 
0.08936272187784923 
-0.02506787545686254 
-0.03189707732754683 
-0.0208233538466333 
-0.05827810463752184 
-0.1109020772338628 
-0.1408384627880802 
-0.05071727851429372 
-0.1846673761954669 
-0.04753607248967707 
0.09374490191379285 
-0.03684077375681433 
0.06651430497205219 
0.04298309095220994 
0.04057699623019061 
0.1535597240837049 
-0.1269097696186486 
-0.04265566587612765 
0.2182176581810757 
-0.06255914154851576 
-0.1000262637972619 
-0.01093046601689427 
-0.0588987412123212 
-0.06033944243083877 
-0.1583433681056277 
-0.07265936342410617 
-0.140183316721805 
-0.04570336668988188 
0.1160656737661891 
0.09115744280004383 
0.04571001233270817 
0.04469541033726222 
0.143186857324606 
0.2131590645979622 
-0.09269722824278569 
0.05046578889730871 
0.1814074133733244 
-0.09214435258576349 
-0.04196591990332359 
-0.02712211912878823 
-0.03198391568952732 
-0.06548441292339188 
-0.04554226916804765 
-0.05215691180239622 
-0.1493285810931992 
-0.06775546764721095 
0.07166777573332443 
-0.01421603106531428 
0.06157456396142071 
0.1365009465369097 
0.09353841988372219 
0.1620139468026985 
-0.1873505623071789 
0.1158613679020519 
0.1023013737472728 
-0.06020674116600179 
0.01059953399117836 
0.02575861855173943 
-0.1146719541653387 
0.01668811471012402 
-0.1618607120823888 
-0.1152324034742772 
-0.1791834218104451 
-0.03215779090929515 
-0.001569510923429628 
0.03586462639440709 
0.05289091464705881 
0.09178538828351354 
0.1286962127668674 
0.1804896413373293 
-0.1205813876936244 
0.01774410869573483 
0.08283460321712827 
-0.02071495888374213 
0.06698681742718215 
-0.02975823062445774 
0.004146492800093287 
-0.1063594018232203 
-0.08198234806283006 
-0.07443322088047762 
0.01480010228888978 
-0.06595336426536998 
-0.06411731454406494 
-0.03222594804491171 
0.01477903706181782 
0.1194185146758299 
0.1186180699658595 
0.1206858394098972 
-0.0516270855407762 
0.1485285274867947 
0.06069471263053036 
-0.06095458495213488 
-0.0643229814217836 
-0.075668605576402 
-0.08189620189241494 
-0.05945607816378502 
-0.07122044087437764 
-0.0003166196074540077 
-0.06581858290639707 
0.01008759418434275 
-0.03486260551350849 
-0.001226020440216529 
-0.0760059052049008 
0.08460345345755226 
0.08462092602992438 
0.02890269597871408 
-0.05908319979031813 
-0.05581569453743747 
-0.007976996418613829 
-0.04189418378617843 
-0.05847821175246266 
0.05178772256226928 
-0.02080439117617513 
-0.04541171385860326 
-0.04146628511457154 
-0.003512134245843989 
0.1163570756825569 
0.04355593587738346 
-0.03223185189686625 
-0.001282053376392371 
0.07312177875323818 
0.02074341165078133 
0.04176205957819738 
0.07954091281295821 
-0.006070745046454619 
0.01600200338285387 
0.02092356998506911 
-0.01056530184691496 
-0.05749705784462663 
-0.01854822791393084 
-0.09683151536902085 
-0.04805852367909372 
-0.03957546150075933 
-0.04403647590711418 
-0.06724934329059673 
-0.03025291954303039 
-0.02667629807312455 
-0.01028830543428965 
0.02447543069132459 
0.009642603160943331 
0.05134770641702931 
0.1041200372826366 
-0.07129246815732679 
-0.06135715338791645 
0.02178767688923321 
-0.04704024933833319 
0.1441622848257395 
-0.01234847036520253 
-0.023933809017691 
-0.02824357748519452 
-0.04356660701162422 
-0.08084950055461426 
-0.1136745499530773 
-0.08093302664458582 
-0.01673747934020158 
-0.006588466254675567 
-0.02173048028786414 
0.01413632231866689 
0.01329350596389027 
0.05257328443278272 
-0.05854852564393128 
0.01342623389974168 
0.01573227485427986 
-0.04879170602543621 
0.03387099567410326 
0.02791091266400169 
-0.04016740491884213 
-0.02754113936192948 
-0.004937524980853059 
0.04230515696525541 
-0.06919914493526919 
-0.05904581265910033 
-0.001197686233035345 
-0.01553228204330536 
0.1135914247948101 
0.09408264582565935 
-0.09498041255182241 
0.01590956314385266 
-0.009113468269571726 
0.0892468550049559 
-0.06475007843689884 
-0.05126126062987011 
-0.02475302684806687 
-0.02682141341393093 
0.01320987697065115 
0.00819286393938681 
0.02511524940103851 
-0.02816958519688048 
0.01499266919842264 
-0.06133703335403327 
-0.07323219003779612 
-0.05157933249875516 
-0.03161129952671808 
0.04312546117225106 
-0.06049222765972731 
0.06858385621005265 
-0.007487251007463087 
0.07167014225191259 
-0.04633504313012149 
0.0203801263291923 
-0.005028881133690142 
-0.04211830911541351 
-0.03320786635125057 
-0.07844507969395649 
0.02141119629293122 
0.01547136882176212 
0.03885203145022172 
-0.05954005002148404 
0.1040290794323642 
0.02201697742144759 
-0.01496713310956811 
0.05141961610731043 
-0.02141665202329352 
0.1153172525273329 
-0.060147484311079 
-0.0135557058287118 
-0.01505932523927511 
0.0174562080866602 
-0.04966576580243936 
0.009802355044239295 
-0.003244304265308841 
-0.05302705613489335 
-0.04130823873821469 
0.05247146980142518 
-0.04092600881379119 
-0.03191987948920824 
-0.002186233911981165 
-0.01319241990579206 
-0.01305065411367026 
0.138881549174183 
-0.0136084572126772 
0.08559187705379637 
-0.02210851012410271 
0.01303654104799571 
0.03473741510224873 
-0.03394499232425919 
-0.0486046817666114 
0.06057893029406772 
-0.02906819726044796 
-0.01085654045508713 
0.007649172144123637 
0.03476947189218669 
-0.02632978214736227 
-0.06960253051407021 
-0.01288842730620142 
-0.0125146013748987 
-0.05793971019469325 
0.02781077090124082 
-0.00791157779350574 
0.1065493206543136 
0.01487070257248823 
-0.009953161129969133 
0.05645527955497853 
-0.02705449944878245 
-0.0243653295534835 
0.06869843554231589 
-0.05271747774692899 
0.0221201938882633 
-0.08298445225795337 
0.1346178637082885 
-0.05825183035384501 
0.003596838980871899 
-0.06732750143295201 
-0.06388947306388815 
0.02330343593810402 
0.052700734198826 
-0.01344204681957597 
0.06135390808564956 
-0.08598468912224984 
-0.03298293523510103 
0.03486467716235769 
-0.03995917125643805 
0.02857122464436295 
0.007389416899170398 
-0.04737421318797184 
0.04614457165220177 
-0.1431197277077663 
0.02621140752238705 
-0.03176908550622649 
-0.09079211362489101 
-0.01986504835894061 
0.008427519164287484 
0.08762489651385143 
0.04555088659922747 
0.04266026886062135 
0.05612340021279827 
-0.0100712671447345 
-0.02438725162660574 
-0.02252626509016781 
0.002111361911802474 
0.1298115974932914 
0.03384996846556431 
0.04156254058915759 
-0.08653620422176188 
-0.1045631162682102 
0.04209743367242003 
-0.0867722966758986 
-0.02145752366584448 
0.0612665622656614 
0.05430957617322361 
-0.0831224254384032 
0.07255554318572799 
-0.0429468336573371 
0.007224714502864348 
-0.1012350214253404 
0.04914523545000787 
0.04893887164493121 
-0.06681519214981635 
0.02071292187479346 
0.06279480035779766 
-0.008672319473999988 
-0.05543850788154125 
-0.03564037559320909 
0.07930793842239579 
-0.01752345512979319 
0.02205618297416352 
0.02284884401499338 
-0.03115165560475142 
-0.006061648505768631 
0.06791432716022557 
-0.03318409133070508 
0.0381926736190814 
-0.1048957718532852 
0.04003657589455378 
-0.02329623088758022 
0.02202530241225967 
0.02525953190835141 
-0.03483536342631362 
-0.05672162808037315 
-0.06276422928351186 
-0.122880838609759 
-0.004930072848715904 
-0.002427572240499486 
-0.02146050047176679 
0.007088623637274623 
-0.02236804509644735 
-0.006875361019217666 
0.01899913440274513 
0.01783707301048939 
0.05059246817001321 
-0.07325614504492489 
0.07301666779076221 
0.0544659082361063 
-0.0329907329673222 
0.006278462386841004 
-0.03734063983651232 
0.05409284510734786 
-0.0142732954336852 
-0.06186422539875692 
0.1130264038485017 
0.02550704601070666 
-0.06356574680838817 
-0.02270096996772802 
0.1145092134726584 
-0.01061969515146159 
0.02301080817254327 
0.05510466003369023 
0.1172686006707185 
-0.04400521836425984 
0.02357298719380608 
0.04415312263624292 
0.01257489176632086 
0.001011804637808419 
-0.06556450719476478 
0.02493156472453186 
-0.0497741424282935 
-0.09219948066541361 
0.04637404088407569 
-0.03244826788084129 
-0.05145566205007895 
-0.0110010366329588 
0.04355139373322624 
-0.1079031926072915 
-0.000620184392275933 
-0.005841956807755878 
0.05253738543179152 
-0.05912190812428567 
0.009757857613422925 
0.01627522813360234 
-0.007395309653634189 
-0.006268778671199289 
-0.03127919854470982 
0.04538064928006497 
-0.05584932316618439 
-0.03409836451786569 
0.03709608441904683 
0.01874782543517173 
-0.05288688433232123 
-0.03153636482976467 
0.04672196256140403 
-0.002184616753352703 
0.0888885728227205 
-0.09170743837410805 
0.07370438148690757 
0.03421873194586437 
0.07783098385355285 
-0.06261651349874253 
-0.01119111351674878 
0.04355044784135766 
-0.02295945683616574 
0.07932038598078991 
-0.03512286261947511 
-0.05498866968727784 
0.05793660611696336 
-0.04451461790126576 
-0.02097032102417411 
-0.01537412159786588 
0.1432984183713354 
-0.03960038285775429 
0.116167292896391 
-0.05952747093142616 
0.01359095212212485 
0.03462734768010783 
0.02142078038170353 
0.007192620925954107 
2.510083660340293 
