solver_type L2R_L2LOSS_SVC_DUAL
nr_class 2
label -1 1
nr_feature 6480
bias 1
w
-0.006459022453269901 
-0.02405084084252927 
-0.02492254861065134 
0.1001242100594095 
-0.0442436164929795 
0.1915374836310737 
-0.01264357661896105 
0.04091429019118344 
-0.0003756973680203602 
-0.09327663134018244 
0.01481453302759743 
0.008073120878511114 
-0.01457756664239075 
-0.05275815762377295 
0.03457802610634017 
0.00144130347711334 
-0.08262242993453836 
0.006186086290843208 
0.03718763798756365 
-0.0007590440930061212 
-0.138511427215665 
0.03050093153497635 
-0.1931719435308462 
0.0263721709747204 
0.0009882275022316375 
-0.0126734099389143 
-0.05304695252721911 
0.02793842471049158 
-0.05160857986707146 
-0.06146576569849609 
0.005839468370781428 
-0.1212897409726431 
-0.01565988527354397 
-0.04358838855323275 
-0.01364336534301938 
0.02265960318269799 
-0.07143475070016883 
0.08043887381487715 
-0.1172366507941442 
0.07391310774095763 
0.04699020704661602 
0.11696747758136 
-0.06837112924756056 
-0.002485071841730545 
-0.09641306700164755 
0.03009829910098417 
0.03762515133251004 
0.01567895854128547 
0.01162278512447989 
0.002373289928637941 
-0.006140013825818319 
-0.0789381063882254 
-0.02900000530959519 
0.01221065725239709 
0.02451997740263412 
-0.02001956711806049 
-0.01848280222860467 
0.08597123233230186 
-0.02527042879922809 
0.04447637082152468 
0.01694345800296268 
0.05520222626985771 
0.1159471177779694 
0.008265209088036367 
-0.0546022988109448 
0.08546297030468854 
-0.01691455422246395 
-0.01134459008850137 
-0.08138873895541561 
0.03567586643459474 
0.04949904120417873 
-0.02297960831637912 
-0.06906981829937761 
-0.02276524820701505 
0.105139047428345 
0.09458436875531664 
0.04842447452610196 
0.09969644630596222 
-0.008264628812691693 
0.02068193047441474 
-0.0409570077260824 
-0.005043472078570266 
-0.001660910433920934 
-0.07516592152810385 
-0.03190266271781056 
0.009302552138037152 
-0.008862217486683104 
0.05752820567099198 
-0.04606922659381153 
-0.0213272996224654 
0.06823794245998901 
0.000469769330499116 
-0.05642806898488334 
0.01330795778816407 
-0.07959136078607328 
0.01709976347902077 
-0.1638536048058448 
0.03929327362369625 
-0.09168703781912785 
-0.08946471986869059 
0.01579398659713754 
-0.02491607494067482 
0.05522045052280531 
-0.05056600584521477 
-0.131937720396212 
-0.03466014112871203 
0.01483642986451256 
0.0386011754940634 
-0.05647220904781582 
0.01160102662586867 
-0.09521387260516162 
0.007033250785489992 
-0.02610466202999314 
0.02666943857417469 
-0.1057569408415247 
0.04399876959302963 
-0.01669275710702412 
-0.04071115781397593 
-0.004615615717805232 
-0.08346749706951775 
-0.01174116396607304 
0.02170668175693612 
0.01957658104767921 
0.08313911392079651 
-0.04999066053381866 
-0.01120478783312446 
-0.03464918000193805 
-0.01544842287149518 
-0.1774132439069153 
0.06400020493615409 
-0.09070458807989527 
0.04809809229416277 
0.0009558090506579708 
0.009175503536459668 
-0.04176330268669807 
-0.0008195584951496235 
-0.0006183322879666902 
0.0676084713361423 
0.0340800170978466 
0.02017363212196566 
0.004605373427292589 
-0.0004922803182010485 
0.04801554038305259 
-0.05304996153321007 
0.06274343134451325 
0.03456502316890025 
-0.03668731605698916 
0.09903906024349642 
-0.05260314881262568 
0.05358187529800873 
-0.05645156183370145 
-0.07282444503489709 
-0.008061811190385799 
-0.001878850984976118 
-0.08984624846093041 
-0.04480250674674578 
-0.008341492562543055 
0.02259749142370574 
-0.1079068021829669 
-0.005262488293524151 
0.0207645107918084 
-0.02335762006039524 
-0.04657145178925653 
-0.02399108963353381 
0.04630840187351436 
-0.05429146574357769 
-0.004553231163445123 
0.04688274702307176 
0.05203403635187288 
0.04390825265570658 
-0.01855731430356377 
-0.005399557351128658 
0.04241696043580084 
0.002897061817782707 
-0.03514627156930994 
-0.09428391371008374 
0.04230873482709378 
0.08802691003499943 
0.04578049233942201 
0.03822525604679097 
0.04115996034975418 
-0.03875783474607711 
-0.0107908929857756 
0.04289006535818694 
-0.1350568068414044 
0.010806786080554 
-0.08514435297035212 
0.09097330176999127 
-0.04050261004465317 
-0.07410960900743897 
-0.0232188265667378 
-0.05134565683614011 
0.005376325137406021 
0.006593623309215458 
-0.02748396527403452 
-0.006622713764465602 
0.01832192686477041 
0.05982080146454286 
0.02827758010467363 
0.07289758450192645 
-0.1437062000106201 
0.02315282986033893 
0.001490502111921974 
-0.03566158802505971 
0.03945771011425273 
-0.05862592154222868 
-0.1706283072343872 
0.02098420382954513 
0.08426077577348992 
-0.02495394768269876 
-0.1291065569674908 
-0.01043825082602186 
0.05841925438434491 
-0.01713772089586152 
0.004596149337614252 
-0.02700838204120783 
0.01040929903787971 
-0.0101843022561513 
-0.01263777172247649 
0.086366756014046 
-0.007547708628029843 
-0.02461216669042887 
-0.04558753928770783 
0.07406250682378489 
0.09163298143990413 
-0.05383351505849976 
0.0766470711384616 
-0.008202393897316865 
-0.001593031048384648 
-0.04638771582242181 
0.04658476719380263 
0.08504493615961611 
0.07143393935733422 
-0.07070593299313213 
0.01799034665694635 
0.05129136728670207 
0.02894433530019445 
0.1148176178209112 
-0.01435213836464085 
0.03232303773390236 
-0.1009853582231144 
0.07005908789257349 
-0.08931792939487036 
0.03671908247797868 
0.04257309748175302 
-0.08454186035437058 
-0.02753601585243539 
-0.04130493380482522 
-0.06868529048438016 
-0.09770068599651495 
-0.07951859758362531 
0.03241489979528169 
0.007285959665638349 
-0.08652221223127511 
-0.1379300428541026 
0.04997246308006908 
-0.1306721143550599 
0.0591254506914279 
0.007427412935145975 
0.044905689754077 
-0.02547977687219662 
0.01706145763934887 
0.01965051804216837 
0.03661508371179565 
-0.01935682423899493 
0.0960164945553158 
-0.04606275580160223 
0.0184427286307217 
-0.09412712946312363 
-0.08961554939231568 
0.02392859958521662 
-0.04823390443406611 
0.01429935415518435 
-0.01900846669146009 
-0.01277448354554414 
0.01538074713816759 
-0.00325154223389026 
0.01911588580043162 
-0.02002999110361234 
0.06575194866540796 
-0.02718325873683795 
-0.08252398483987845 
-0.04935442821128171 
-0.02712171694241512 
0.03291438718273107 
-0.05751844123045587 
-0.05354012601663445 
-0.05898770534613395 
-0.0002313847490949373 
0.05250632717194344 
-0.08773658831067024 
0.04180256894376774 
0.004686039523253126 
0.02214239603379763 
-0.08054492593823376 
-0.09440277067407488 
0.00262316669690566 
-0.07158334858138746 
0.03426337030500165 
-0.09001782106003013 
0.01566463182832593 
-0.001563002924707613 
0.08385994937918534 
-0.05518272337475612 
-0.02979391023036623 
-0.0996528363877197 
0.1289160670954811 
0.05134390323670432 
-0.03161136880678071 
0.01774961101701243 
-0.0210977755816366 
0.08424995850524726 
-0.02588302469970102 
0.07817224111043757 
0.09721156036508814 
0.0004070033810069209 
-0.01866422670842559 
0.008517562198245746 
-0.03191067148346429 
-0.1354707086323471 
0.009803885343815606 
-0.03996647204690134 
-0.09190336346031469 
-0.0829091386023814 
0.05114707106979131 
0.04462611719474867 
-0.04791558328939769 
0.03247064331228253 
0.02358370876641972 
-0.05151241688776347 
-0.005804348602771629 
0.1064440895048623 
0.0104091455021162 
0.07854438673762619 
-0.07519676633351716 
-0.002719506381258987 
0.01269481097738416 
-0.08975488360802562 
-0.08070434432486291 
-0.02751924360153397 
-0.03437532741961137 
0.005254301334987119 
0.007407140998912242 
-0.01886341597773432 
-0.06694122128522169 
0.06084268433911561 
-0.03286310676338991 
0.09292034234095992 
0.03110819703509289 
-0.005968442151730789 
-0.01597255231682467 
0.06230309645268659 
0.02445576273679052 
0.07562711713498563 
0.007200198371259381 
-0.07125223488374699 
0.01071621660992535 
0.002825106552833646 
-0.008454158834866377 
0.1104302258306788 
-0.01342845164321924 
-0.05627887093737147 
0.0712155389055355 
0.01891473254273602 
-0.02500337051841034 
0.05566658155018537 
-0.04031498097285669 
0.07327140817998576 
-0.1281832051893824 
-0.05359986352084715 
0.09085389364157234 
-0.02411471151793341 
0.07663132730316143 
-0.02813549328718089 
-0.03448706627819449 
-0.006133321535027329 
0.08480305903770305 
-0.01159818168705085 
0.04672037620963685 
0.01416306852100905 
-0.007780943025586756 
-0.01271671023825298 
-0.08588919946450199 
-0.02622878330936376 
-0.03439824736632837 
0.03994566286073837 
-0.02743502925728237 
-0.04440984522372956 
-0.01090560632876187 
0.02836701878471591 
0.0100889688662711 
0.007523954951620547 
0.01668498915412239 
-0.07806107083624883 
-0.02788569231298161 
0.01695259051354848 
0.06002253064083716 
-0.04503052481629097 
-0.08844700410052102 
-0.02567059084873723 
-0.02567585784217526 
0.1130388419275742 
-0.06920228674486749 
0.09338905044931729 
-0.0455209103093406 
-0.07345201597195421 
-0.05276461102175844 
-0.08340910122725757 
-0.06072278918536667 
-0.01972631476602552 
-0.04725997913356929 
-0.1531544474132822 
-0.03549477991823464 
-0.04066372097407061 
0.04636604725154031 
0.07735003209959643 
-0.02610575637467479 
-0.01788696956089285 
-0.0713909778267203 
0.01537206201525756 
-0.04325653006372587 
-0.02391232316637888 
-0.03517516167039127 
-0.05670595836767237 
-0.0307111349282003 
0.03443810003979644 
0.04699615630171106 
-0.06364499884373243 
-0.06809354163490774 
0.0215618915469852 
0.0003005692690267704 
0.01706241569127626 
0.03489087606852398 
-0.02319892742021884 
-0.001092244917994395 
-0.05337182269059638 
0.04455875523328535 
0.09344454980370828 
0.008011976766608806 
-0.0003081362512489081 
-0.05390452302176366 
-0.1149145246812617 
0.01878666785286985 
-0.003658118231374717 
-0.04644367123627446 
-0.1062357014377906 
-0.06538948986230304 
0.01635753838609453 
-0.01988601419978008 
-0.05011119259396214 
0.001410921219681796 
0.02268944452233231 
-0.02078313687911898 
-0.1156239109548152 
-0.005993094424110626 
-0.03117673411619646 
-0.0612764816043015 
0.05298214992921099 
-0.05431329727285369 
0.05034771550932431 
0.03799541404186687 
0.05876103406189893 
-0.03166450208745836 
-0.01385109891157874 
-0.1017754473636854 
0.1005115366006904 
0.04727635973231033 
-0.02651974156375724 
-0.002176157085510398 
-0.08684666366031822 
0.01059724446670623 
0.007318810631803201 
0.09778342122769799 
-0.0299928057765502 
-0.06559587066584949 
0.008014814123717335 
0.09161299880863037 
0.01120851396308794 
-0.05529252002725824 
-0.02772506357580001 
0.1139195755563131 
-0.04053904778574265 
-0.07582415979652687 
-0.07490850553472264 
-0.04009547399367922 
-0.0323928205204327 
-0.002262909852667051 
0.02733548598558277 
-0.03812807059771378 
0.1109170433934253 
-0.05795076684027257 
0.1062475051660624 
-0.03311844562794405 
0.03147434773389485 
-0.1363945372187031 
-0.0299970421303312 
0.2312450910657854 
-0.04359020084497091 
-0.05673843877059113 
-0.00968708829459354 
0.04433219236034917 
0.01052529632823292 
0.03476985394545179 
-0.05882485266704381 
-0.005553291444616346 
-0.07081258031135948 
-0.02326421469016848 
0.02363331758518926 
-0.06143141970181749 
0.047290282109701 
-0.1325186572912895 
0.001104877054467136 
-0.0574520848412465 
-0.06256968252250882 
0.08833799296595415 
-0.1557446049219106 
0.06452363615564324 
-0.1114149536438298 
-0.01109513674424343 
0.1301228142500157 
-0.0188635299882456 
-0.09256904276498561 
-0.02300793358966928 
0.006168528387997542 
-0.05302715529510368 
0.0121122057979544 
-0.08865462010475351 
0.04356810536738043 
-0.1224809556917581 
0.1033762144806835 
-0.1344647153569332 
-0.02449354711120201 
-0.1027457715061074 
-0.08882750960323152 
0.1060508988790687 
-0.1466412389401316 
-0.01554053013517129 
0.08312538602202264 
-0.007064643470319182 
-0.07037576137964334 
-0.01057842780012616 
-0.005455628374064826 
0.04230694602086034 
0.1352979168211529 
0.06586926049549273 
-0.01535576003082567 
-0.1016738381128574 
0.07105935415432728 
0.04708827636584177 
-0.1067042127703101 
0.01469680391242798 
0.114192339706336 
0.1604818304245401 
0.01594528529196549 
0.0330195635150917 
-0.07480038568549106 
0.1003240085157383 
-0.07588637168304174 
-0.05214549716359801 
0.06681452859578012 
-0.1381186009751253 
0.1265293973568899 
0.03777134870470777 
0.1044167241828188 
0.07070365083278392 
-0.01201741464402495 
0.009565132342769421 
-0.07746734090889215 
0.0773166169114583 
-0.05560559220618283 
-0.02414146567000245 
-0.01637018712246139 
0.01268891452992299 
-0.03684263053616178 
-0.1471088357897209 
-0.03673912217284079 
-0.03270272928563557 
-0.03426536798323189 
0.01008253175277331 
0.02889701113655769 
-0.02692991614473886 
0.007767474932701585 
0.07426630684351132 
0.01031961770007319 
0.05000804617846689 
0.01589040920664025 
-0.04132324017203724 
-0.0567005579942577 
0.01145238923529606 
-0.02943588363645759 
0.01928318278045238 
0.07263235760602713 
-0.09570504127956923 
0.03484009101862528 
0.04084332169665026 
0.06241184953806533 
0.02205489572179857 
0.03751991814385676 
0.01926305355994037 
-0.07137512416942228 
0.0326762168583624 
0.03990883406306225 
0.09590040474461133 
-0.156590865847529 
0.05638964618696495 
0.02340799623310039 
-0.1340019483494176 
-0.05897787526592453 
-0.0735611093176471 
-0.005601886655669094 
-0.04512779598517596 
-0.08557391090956215 
-0.0149726839019496 
-0.07457693463905006 
0.04645443684940748 
0.04663704669882874 
-0.02971828617814799 
0.03432593757906419 
-0.05872923080106528 
0.1151431978390615 
-0.05523838969992544 
-0.01250640665918514 
-0.04889442392604536 
-0.05692934347948391 
-0.007655027599377261 
0.005783453435326041 
-0.01342012331683302 
0.04339739244769533 
0.009229306241205203 
-0.05437252068519894 
-0.01052551117204488 
-0.01657980527671513 
0.02375357014709538 
-0.01131354618943109 
-0.1204604836413166 
0.09526049318982446 
-0.07893633181222694 
0.04619446212557764 
-0.1342978673511865 
-0.1129594211169457 
0.0222404509565626 
-0.1406882416986371 
0.01068861294416707 
-0.07767695175213514 
0.01252544171387394 
-0.1382972235121866 
-0.1800758545860018 
-0.02086530901637642 
-0.06790200816963153 
-0.1184945988134758 
-0.02726224087252605 
0.005961449207583701 
-0.1046821997317012 
0.05354158681192939 
0.02294970869206915 
0.0844865057009237 
-0.1032127771661184 
0.08853676234774904 
0.04164264579847446 
-0.04590174942337182 
0.008561916473123189 
-0.0941034233014956 
0.04484520883891305 
-0.004934758655497193 
0.01788947083401471 
0.01144822086329958 
0.03606359978104696 
0.08693626001676984 
-0.03030467051851295 
-0.02816037635465141 
-0.009356773503753774 
0.02220301136980045 
0.05645562574531129 
-0.04352525945571443 
0.06165603728752896 
-0.07866112825075676 
0.03001159183611953 
-0.05679454576486077 
0.04083738489607627 
0.03903761351974821 
-0.05772216265110149 
-0.06644432627309108 
0.06551679449379362 
-0.0709465003472913 
-0.05069110079642755 
-0.02735708555112073 
-0.0235563904382781 
0.05762867695355464 
0.02488718505914142 
0.01845438442189674 
-0.1089424111503751 
-0.01792447687200392 
0.007904510531414858 
0.04969685902138473 
-0.03512817025925661 
-0.03426689781896973 
0.005414858137293594 
-0.1270446322267539 
-0.01624793835438143 
-0.03585760912856129 
-0.04902802384722269 
-0.01279394541002562 
0.06259486387675584 
0.02427022788898501 
0.01371359200994204 
-0.02034471234918576 
-0.08675375011476041 
-0.02448415868408352 
0.02566065491124148 
0.02997810888442397 
0.06910325245889734 
0.04729422434630939 
0.09099010793031587 
-0.1173221564541796 
-0.006139796354135246 
0.004961735203428912 
-0.01252315703147391 
-0.0586785361978029 
-0.02793032994734323 
-0.1829732114213644 
0.004645340862406206 
0.01223629034142796 
-0.01930626684360696 
0.02484553287797783 
-0.05158545074315821 
0.05137770424139433 
0.01138376002401418 
-0.01149251274456519 
-0.0325624101647122 
-0.07993660989827556 
0.1136600320002832 
-0.04824885494625784 
0.0626674030676134 
-0.1543109025616295 
0.03080931822060877 
-0.09979856219286207 
0.007893168354403627 
0.01378572857644468 
0.08174454110237607 
-0.01578566411023895 
-0.07666982545183511 
-0.00374887627483533 
-0.04369137593851096 
0.008558404733515934 
-0.02376741171254309 
0.0467671761518227 
0.05978627657636528 
0.1058010957780629 
-0.02516846777698729 
0.006009191066974499 
0.08464290415653612 
-0.09543715261356368 
0.01377423329991256 
0.04586140443652049 
0.1092355992839185 
-0.04644901994356692 
0.02584220218622147 
0.07113493933923563 
0.0196505930986935 
-0.02860054289651488 
0.01110736868808738 
0.1437768455653445 
-0.05121936312893261 
0.0008907201818097792 
0.005013185546839351 
-0.01439970838111067 
0.05838624685884247 
-0.1143236408550745 
-0.03123747597326427 
-0.100040974125104 
-0.06052703497849524 
0.05027992908087908 
-0.09781091769030324 
0.01041441824723961 
0.05489081121668113 
-0.0824988149533788 
-0.1289511721162343 
-0.00963154077110011 
0.0111996378280283 
0.08363852929139004 
-0.05559245404546075 
-0.005406673054346292 
0.04256772695428342 
0.1029103035285518 
-0.04423705254078868 
0.02353574767036319 
0.01132749608192402 
-0.005011893656906402 
0.01687089871944658 
-0.2021123306498615 
0.04636137894823517 
0.02570503546380914 
-0.01647456381800099 
-0.09403288154365469 
0.06788294155374347 
0.1603112555565169 
0.0216919667550631 
0.149153267408952 
0.06017118832674913 
0.08445167195367274 
0.1355517495432151 
-0.09176006764438342 
-0.0217967792152936 
0.1352547519156233 
0.05794147085622127 
-0.05320961937778688 
-0.1788313168057188 
-0.09339674186926385 
0.03069645919473662 
-0.02402184148808875 
0.1051911814662747 
-0.120952211581263 
0.007395995485352485 
0.04551425173216695 
0.01297827436329578 
-0.0001097193210681704 
-0.103969313414468 
0.1144193000458253 
-0.0472512148292777 
-0.13446628836465 
-0.07814894332625501 
0.1350070801802926 
0.01063297798352403 
0.00836504303029364 
-0.1570675641364058 
0.0003541725217022216 
-0.0555967389498646 
0.04554992308914199 
0.06183014059933137 
-0.1069539111632878 
-0.06503073715501838 
0.195323218059054 
0.0491157015252358 
0.08445394361912877 
-0.2007081981112318 
0.03381022695581089 
-0.01076114483503723 
0.002569390241246198 
-0.1180106801971463 
-0.06370606174609256 
-0.04344487935603015 
0.1673317106472663 
-0.09246806699645461 
-0.007745853121086523 
-0.105446282456096 
0.1152134020014501 
0.075048843901856 
0.05691666069404441 
-0.04857030882514137 
0.08030083437448421 
0.005466804565494387 
0.04524301511657457 
-0.007871417406142443 
-0.007721556079848698 
0.06877007720170715 
0.1305935734763581 
0.01852996379912933 
-0.07784660039567708 
-0.1046952416090689 
0.07958315189373891 
-0.07868866071317815 
-0.00696962644135446 
-0.0330537519285792 
-0.07004765096510192 
-0.002341177309566893 
0.1446339574940166 
0.002888062207147564 
-0.06714991795851986 
0.07948773666520036 
0.03343375323722701 
-0.1446947970654786 
-0.1116536538775619 
0.09402433951409281 
0.0472699328915134 
0.1541038677068945 
-0.08566021196246111 
-0.1326953721807437 
-0.01525236416694892 
-0.04996778738914657 
-0.1946241310897985 
-0.077785856633222 
-0.08475587296765752 
-0.008126308141954633 
0.09211273052319405 
-0.06980719096181844 
-0.06842569890672093 
0.01319520157330257 
0.1710220827226252 
0.1923780707530283 
0.07678536000421222 
0.08208533763396807 
-0.004164308548690223 
0.1104686952325526 
0.08546685766342192 
-0.2013049473709599 
0.04357596827844896 
0.02703462503510829 
0.01841769977127964 
-0.03142640590911124 
-0.03956773355771875 
-0.02353201247622967 
-0.1175707454131587 
0.004527900670157116 
0.0656053301303834 
0.05242805233183723 
0.09961507865500834 
-0.01934628330896933 
0.03170382314869341 
0.0254072778138921 
0.04383980013713206 
-0.06070285228016386 
-0.1705763170106941 
0.09404496313725536 
-0.02626145601893763 
0.06583516415816934 
-0.04116107034364409 
-0.03427619645591733 
-0.03434095811153363 
0.1356436663790906 
-0.007622460551302519 
-0.03427852331185319 
0.05690554320916312 
-0.03583554762492032 
-0.001477654247872197 
-0.0316537395553738 
0.061573891271386 
-0.04067455490297502 
-0.01180220067217081 
-0.005138392043600185 
-0.008712333849671782 
-0.09193429995911462 
-0.01991973562367064 
-0.03087517837915763 
-0.1122623210733821 
0.1352150131651583 
-0.1747358921121223 
-0.02908441891547789 
-0.1624700519652801 
0.04388463901407485 
0.04211156284763744 
0.09183348006066905 
0.01313983733394202 
0.06262976733012322 
0.02221183439538982 
-0.1617471661373587 
-0.08092110488676914 
0.06328440307775673 
-0.0639208126676714 
0.09669098616967768 
-0.0581591715287041 
-0.04884397010115735 
0.02952698167988585 
-0.03167535998242055 
-0.01630061773440579 
0.08845175048777731 
0.04653443127450246 
-0.05375274910187953 
0.04968408057090432 
-0.04647547903678081 
0.04320982292843947 
-0.08814396491189545 
0.09874022102844268 
-0.06942562877657422 
-0.1399157435030831 
0.03368289583809581 
-0.1278251814625085 
0.03956761199922052 
-0.129243262009689 
-0.04118840715639609 
-0.175636763462122 
-0.004168945575135047 
-0.03284041459367983 
-0.1265486077489931 
0.0008117456193130238 
-0.03803249320994934 
-0.1093508569853753 
0.02099036176301073 
0.04068919068840185 
0.02818822763413373 
-0.09659581801863669 
-0.01981727006518048 
0.05555043598049168 
-0.06757040410272303 
0.0005805734537792712 
0.06201495772210384 
-0.04017049119767047 
0.01566097558327364 
-0.01977603542343206 
-0.01890506020522928 
-0.05076635510417037 
-0.03698211695018747 
-0.05258669853842052 
-0.002730931813072995 
-0.03341924651702972 
0.117008010010484 
-0.1371790800076856 
0.05952698050574542 
-0.01040326028481709 
0.01202760890641258 
-0.01359609405587955 
0.06573371250856982 
-0.09085830246189158 
-0.02855226800070863 
0.1271429260744493 
-0.1486430749605011 
-0.01664919634930192 
0.06051419021544818 
-0.06505102502796345 
-0.00636644749811939 
-0.1126386297805112 
0.07137647145237655 
-0.1247823389221979 
0.02784870292756147 
0.05306158103959988 
-0.06420645647151429 
-0.0806046572755249 
0.07587697470872162 
-0.01304344651605094 
-0.001473837941046665 
-0.06645031463604437 
-0.03359860898809606 
0.01427921482350037 
-0.04647395419367743 
0.01558124952930191 
-0.05887279036010631 
-0.07571100448042048 
-0.04096968277100652 
-0.08691686386071634 
-0.03600304141201189 
0.03513441864187911 
-0.04441499024275255 
0.01644772496878904 
0.05303092483181459 
0.06525380390333226 
-0.0674914122976697 
0.1194094946691627 
-0.005256802374251661 
-0.01065956361029268 
0.05686636465835124 
0.06807727078972041 
0.02003133290977139 
-0.002987255312461004 
0.1148833555383068 
-0.01354870387677225 
0.004207746624842522 
0.002071536002267959 
0.02146965351419634 
-0.006569938697396545 
-0.06302298058195877 
-0.003835680204590223 
-0.08235708231147734 
-0.07715473274199383 
0.01541168261530385 
0.05407219608372417 
0.04999269589376185 
-0.01082541490777622 
-0.1066864246527578 
0.01532632592814021 
-0.007929709044233882 
-0.1396753999175919 
-0.01744800312422719 
0.004862460734334609 
-0.03566296229873593 
0.01316314925823781 
0.04513301246034913 
0.07034474408472779 
0.007264537221161946 
0.1095762522213968 
0.03047750756898088 
0.05847786926309712 
0.0112750406306132 
0.01989782549454882 
0.04849371308401609 
-0.01155054686066815 
0.01290903750360475 
0.03429358100494002 
-0.1304925366676548 
-0.01609323024665057 
0.05382636656436616 
-0.02519594967078417 
-0.1879390090048328 
0.01646087847609846 
0.02588693735792142 
-0.006880692246491363 
-0.0555727197150543 
0.1137137380913229 
0.00876994878020714 
-0.006463267690920298 
0.04280934944909072 
0.1080056734753152 
-0.02394723246498253 
0.05591557946357759 
-0.03404522144130572 
-0.04978081155105611 
0.00543739396449671 
0.004040521109596667 
0.005786605795427788 
0.009345509036190471 
-0.03302795316348901 
0.0136178522806906 
-0.1257896988678553 
-0.03437140826989986 
-0.1105767351237465 
0.05219888056363902 
-0.1811915271005072 
0.02034911586284206 
-0.009560992806649297 
0.1074525365511568 
-0.07506373504619905 
-0.1410226748173032 
-0.1201283150018699 
0.07937508041762957 
-0.132930149602469 
-0.000764421868557817 
-0.08595063656697591 
-0.08385077512962319 
-0.2674005498144558 
-0.1347787729901847 
0.09771145660355458 
0.1709464509853593 
-0.04930334807438988 
-0.005810350600198738 
-0.007207336284061206 
0.02309486798370815 
-0.02225519289351744 
-0.1079888734209439 
0.06481775180101815 
0.05090542943645854 
0.0498471484589471 
-0.1126309009248837 
-0.05267778943540693 
0.152849292639453 
-0.02728755719225099 
-0.1728979358949926 
-0.004758456993263905 
-0.1745234198113366 
-0.04617169021749773 
-0.08612844435499463 
-0.07183387187867091 
-0.1556549148164645 
0.006406869358267463 
0.03144454858862476 
0.01071543375468223 
0.002493420943720663 
0.0793729296011509 
-0.0031653940496301 
-0.1411225161645484 
-0.02072498269103838 
-0.07661968017126478 
0.0322923759362389 
-0.00105151244734961 
-0.1695587397342595 
0.03282940824094891 
-0.2516992508750077 
-0.1133202583189902 
0.02916582596723172 
0.1903487735113002 
-0.05476941981442651 
-0.0452213476189905 
-0.0338833500032432 
0.07664185262842002 
-0.01330730677046881 
0.1210021532583987 
0.1466273231124325 
0.0398223369447683 
-0.001958518712192015 
-0.0511519252703611 
0.1270264104409568 
0.09127849296519686 
-0.1116843055735036 
0.07619988769517394 
-0.05524082198925274 
-0.1174453001836286 
-0.1945175952865262 
-0.005589534585195221 
0.05596701725530186 
0.1656450080443442 
-0.03756738350557438 
0.05392494931834381 
0.01966666425379842 
0.173618667876514 
0.1213448152786946 
0.04571760758709072 
0.04525475396741058 
-0.04705561534057148 
0.125000181555695 
0.1217215067200285 
-0.09512841279990839 
-0.05330573322467317 
-0.05947237074765815 
0.008836866379398768 
-0.06233279551527574 
-0.08427791069548735 
0.06002076149435221 
-0.03760842024863054 
-0.243854943709236 
-0.1383958609522207 
-0.08390031290574668 
-0.003539987474685405 
-0.06280520433740394 
-0.07523715213638234 
-0.1025022375150595 
-0.2165034587888164 
-0.03307770487500918 
-0.1243069730358228 
-0.1175797949369189 
0.08315857428623447 
0.1660107910339719 
0.05371028393203807 
-0.21969016981049 
-0.04841845070128858 
0.04614646750220295 
0.02851051857464683 
0.08256623016959196 
-0.001307968012540357 
-0.01904670506042527 
0.1743022138154096 
0.07001447703008756 
0.02772069623106152 
-0.1289051009556573 
-0.155360137300435 
0.1232916401733001 
0.06938241234204233 
-0.09785831904815689 
-0.0623673913506862 
-0.001008988332499218 
-0.1534943755376073 
0.06195262449098138 
-0.06494625998940581 
0.03583750116635525 
-0.0284653202200661 
-0.07257521993337082 
0.01430521274365448 
-0.1458406060293901 
-0.05811653014867475 
-0.04616265301120608 
-0.02468113189555536 
0.02967247518756801 
-0.07244012693639473 
-0.04586701917233584 
-0.03945293325315817 
-0.09523169317690452 
0.0440752448246661 
0.06547718701580575 
0.02385181432099551 
-0.04933237401309052 
-0.08533100722056397 
0.1420811328452818 
-0.03276785115284175 
0.1915339973717226 
0.05376935605132231 
-0.005162891084817821 
0.07014547333425157 
0.005499139725453706 
0.07076881639474665 
0.09476535735032766 
0.1058821750100454 
-0.005684470361379453 
0.04871981497961754 
-0.02973510553272238 
0.02567222247380336 
-0.02069927952871472 
0.01427674628514777 
0.01719516358238056 
-0.0105064533555755 
0.08763056083043921 
0.03540140270837348 
0.07934057303065956 
0.007195354790080744 
-0.04964786515739102 
-0.002985818932661599 
0.003302005196685245 
0.0567268393808332 
-0.04608381254722062 
-0.1245859015663284 
-0.029321536646588 
0.06006427759568946 
-0.05601359952296477 
-0.02506003307976454 
-0.01927898170063197 
-0.06260610880132969 
0.02063194140468335 
0.02581278270078531 
-0.01791081346886223 
-0.07327879075273838 
0.01182091816708398 
-0.01003795174261383 
-0.07350616145555054 
-0.03722776315245933 
-0.06441339768066311 
-0.03326213635971007 
0.003193568338277589 
0.01127479915273835 
-0.1078947022800591 
0.0491657693240656 
0.02211154747527317 
0.04193754482873165 
-0.0916335114666435 
-0.04302857504920628 
0.0001467696808846174 
-0.04427734769049568 
0.07152607821220536 
-0.06199986517571418 
-0.0349856697461149 
-0.00427587251389668 
0.07377031026743 
0.01485526333744741 
0.08296902134080232 
0.0613220401681857 
-0.04287908242901309 
-0.02429106175133131 
-0.02311632599382878 
-0.1107457669709369 
-0.03521258986867576 
-0.1351393155515625 
0.05865764980044726 
0.04869251039998241 
-0.03955512581567827 
-0.09720731076122575 
0.04312946341244903 
0.04252821070549997 
-0.03970351082403836 
0.03240071043157173 
-0.05530674276069127 
0.02853380663701116 
0.01197689746889195 
-0.0203504921058608 
-0.003954903688383533 
-0.03784646406951221 
0.07716943887295882 
0.07092889921035968 
-0.03487047786196615 
-0.01643131478020321 
-0.01986495137972354 
0.03087599979072428 
0.02380882796010927 
-0.08218384675400618 
-0.007326247532371553 
-0.02194032165747942 
-0.04637336719526116 
0.0008294263877161035 
0.004423294354716324 
-0.04752167152369304 
-0.1934714723144528 
-0.00190979602138385 
-0.03458689293089586 
0.04600680513608423 
-0.0900570761486328 
0.01190994405781902 
0.00904804359001456 
0.01474074963512224 
-0.07188552169266182 
-0.08291739516544695 
0.04409151875905186 
-0.04125981716616167 
0.07641137777371269 
0.1436435080313748 
0.0188939142318355 
0.003012802305490391 
0.04223993000804558 
0.02044527299722954 
0.09522543615118222 
0.05918088071827032 
0.1406558930660723 
-0.05091882424470589 
0.08160321171625257 
-0.008864669401665547 
-0.00184191054592369 
-0.04730529245553666 
-0.0444675857672912 
0.05236825832637604 
-0.03457711378150868 
-0.02721977426202102 
0.0602530257809357 
-0.03026895955548823 
-0.0218020029847957 
-0.003852336609188645 
0.06737961836336225 
-0.1025756499808764 
0.1292238301140634 
-0.02480567517183538 
0.05263520933968348 
0.01179565484908753 
0.03006127667556692 
-0.02420566597987769 
-0.03879721657286166 
-0.02623111027019398 
0.08859393758739489 
-0.05196202725063306 
-0.007682826485844287 
0.08269078783392764 
-0.02528465767482022 
-0.06412606965431135 
0.06322558675049469 
-0.04840537307184007 
0.0640654054258569 
0.09031266203695451 
9.774238630649062e-05 
-0.07420726662673209 
-0.01083535093464114 
-0.09301625011338921 
0.02762970035487555 
-0.004070159456123719 
-0.08103685919029403 
0.004936662107723772 
-0.07348948435879289 
0.01819864301253615 
0.1082710517864858 
-0.0004816973637634663 
0.1992725608284985 
-0.08595678544942338 
-0.007684783280981005 
-0.07217798944443732 
0.1005098457040522 
0.02219332728984734 
0.001368038466755488 
-0.1050954795380498 
0.02300090001183876 
-0.02281457626823721 
0.05673188210524784 
-0.1124746564507272 
-0.07634889451800903 
0.04054155163933837 
-0.08263021894623526 
0.006855531280517669 
-0.09035391146154423 
0.07194039971976525 
0.01370845790074957 
-0.08497840794380168 
-0.03496441216858625 
-0.1365549567707677 
0.2074945216931834 
-0.1110987779097914 
-0.04281910415661193 
-0.07202515551441954 
-0.08138363120747835 
-0.01943788653805177 
-0.02942948004155371 
-0.08883391177674635 
-0.1581970772228204 
-0.0506142947944746 
-0.07550996299770338 
0.1971703539331857 
0.02637442839936484 
-0.09984836267568759 
0.01292064833979927 
0.03018167560106345 
0.1155724102194773 
-0.0827430472456275 
0.1132982971393907 
-0.05723542611782636 
0.1495717988525883 
-0.06823409696152902 
0.1205608750059781 
0.01925238470044328 
-0.002658684201286609 
-0.03071200454435883 
-0.1063153519652232 
0.05014532342572613 
-0.01727391993211444 
0.07953825531061276 
-0.1823558619289012 
0.05566877257141812 
0.03779081249764355 
-0.1780777046320962 
-0.0681087944778864 
-0.00191596206717712 
0.0416399834149986 
-0.08096554240309624 
0.06579135163276378 
-0.03637958447224983 
0.03932467482987919 
-0.02257269374204793 
0.002710690900342904 
0.02846891314134566 
-0.1227676321734386 
-0.03060848100033642 
-0.04144172338592614 
0.0269040030923781 
-0.01584765568074085 
-0.02231018642445558 
-0.02751407775099083 
-0.07878390522815119 
-0.07484367471831181 
0.06190985806326962 
0.03826436258607169 
-0.1831331483894222 
0.08493871135809404 
-0.09261486124155836 
0.1824261991888335 
-0.06240939581998241 
0.03454922219561539 
-0.008586318108088289 
0.06086263490760624 
0.008143590457321315 
-0.1055100020212311 
0.01763332077965061 
-0.0176551751627115 
0.03053868483753334 
0.06138346299039844 
0.05382947209273726 
-0.05609797229406754 
0.07692240305848434 
0.06398629845439058 
-0.03571690363127449 
0.1407909552843044 
-0.04053862486865328 
0.09003125443238259 
-0.1084766234242431 
0.1328822633151204 
0.04034953785404156 
0.1491596491396773 
-0.08822265199102156 
-0.04474187550119763 
0.0976961528741299 
0.004530064541434734 
-0.09729756665078906 
-0.007217955365282128 
0.05908389745899192 
-0.1447739179475421 
0.1522489068784317 
-0.09398829230552706 
-0.05111070341577356 
-0.005087460582724989 
-0.05503180985060833 
0.02790982088763721 
-0.2664430471676325 
0.01753409907618448 
-0.06501289480616601 
-0.0168077349076771 
-0.1102817461018511 
0.1886416648994022 
-0.07237204444778526 
-0.04206826433874565 
-0.1011478841552456 
-0.05256020955434235 
0.1490851950605436 
0.04013698672510847 
0.08501177778127851 
-0.06173347865273409 
0.05086290912794441 
0.07797999315232722 
-0.02862107180969109 
0.09236658266266264 
-0.05985321944014124 
-0.03960843435560242 
-0.1182012464451073 
0.1732547866793695 
-0.005135981097070918 
-0.1709933909126819 
-0.1602208066975038 
-0.02008932525152316 
-0.04756349614893712 
-0.1053649202338714 
-0.09633074092323997 
-0.1405107517376892 
0.1157805465346453 
-0.05590454057749002 
-0.09486776417062795 
0.06612499760849924 
0.04961309088120266 
0.1521607834501401 
0.002616471169179577 
-0.05088079327805846 
-0.03389493805776739 
-0.0492337652093192 
0.1386029406689659 
0.004373291154287885 
-0.03514210797211739 
0.07135573050709317 
-0.04413755235225477 
0.1176324274405333 
-0.03628337117420786 
-0.01590644453379819 
0.01359333871936993 
-0.0820277826571142 
-0.007683750251685263 
-0.04180491656330907 
0.1046780598999159 
-0.09006243877314127 
-0.03116048436193706 
-0.003759120734032694 
-0.03422944082136191 
0.06468473633820687 
0.006695403797276513 
-0.07691666071836863 
0.05648969587816666 
-0.01430667548708479 
0.05480797930650999 
-0.02085639174247259 
0.1052164694375572 
-0.03350216476706217 
0.02104163401362764 
-0.01701218569663517 
-0.1379066071590784 
-0.04070993176066299 
0.05632748393955855 
-0.1027789726247484 
-0.04642907810025684 
0.01172588775673568 
-0.01269642073966838 
-0.01427105179662269 
-0.01597255473111265 
-0.05020601426903023 
-0.04886547157917527 
-0.03602858493230043 
-0.05192726269604706 
0.06936173112914361 
-0.02829267192893652 
-0.05279079376126256 
0.02172608414288695 
-0.02849086144259951 
-0.012514814579052 
0.07909863121989065 
-0.03877957733769709 
0.009319080780066148 
-0.1522128675559316 
0.02865106137741835 
-0.1137225981949917 
-0.01385220901311969 
0.01309548318137819 
-0.05832076303154324 
-0.002029737552754825 
0.04439290976692529 
-0.09235592480108981 
-0.0001795931437139637 
0.03676357347292694 
0.005999766789488274 
0.04711086442933651 
0.08056487307799734 
0.03284570245009305 
-0.04433469088973534 
-0.03841734811021403 
-0.04789036503873838 
0.0925912573326934 
0.01302645513840886 
-0.09873712557160264 
0.1224444830222265 
0.02725864910258958 
0.01451166332362669 
0.06064541288211154 
-0.04141527955579587 
-0.08296397982385394 
-0.02035328783009359 
0.04861093364584521 
-0.06436552693718477 
0.03013806823458581 
-0.05470614034303724 
0.06824206585993588 
0.03148591662250093 
-0.03438080624213713 
0.05510106371100629 
-0.0082199543466344 
0.02795982989594725 
0.05033717064345571 
0.07954064339574773 
-0.06555185045252836 
-0.03435323322994321 
0.01484240573424788 
-0.04153082139528613 
0.01745570226349899 
0.01015293024323848 
-0.0319408968519327 
-0.0655702368210085 
0.01760722494323199 
0.01769952547163842 
0.02164079538090094 
-0.00864017404396031 
0.002528607088130637 
0.1164126788212572 
-0.08234152623312441 
0.03167679279258847 
-0.08009345674918765 
-0.06044384966151284 
-0.003052827599389817 
0.122066650570521 
-0.003753682002588219 
-0.02443775444647186 
-0.08833211366321116 
-0.05110411843085363 
-0.005144981261210553 
-0.005600851681549523 
0.07113807956586707 
0.1145984270553948 
0.003764647343307642 
0.04774269883967633 
-0.05218451670469781 
-0.08012151739580053 
0.007574279295398555 
0.07999745760918313 
-0.02075379660324621 
-0.01531407128509682 
0.01580408111349229 
-0.06787369701015031 
0.04109255932956005 
-0.00198231809863375 
-0.01968673017058752 
0.1087120486829624 
-0.05076984030353045 
0.1104949376079715 
0.04115327330008725 
-0.1761427545873213 
-0.07960237686362759 
0.02423774153574593 
0.09871213531522963 
0.07371687335275501 
0.07380384542664271 
0.03406236380767245 
-0.03326318457932781 
0.0771990569332382 
-0.0741583344001509 
-0.002186274231113777 
-0.03759523630609699 
-0.09113170299382056 
0.03705736262541269 
-0.03726473935702682 
0.05860730130118395 
-0.01005995497230533 
-0.025332405993538 
0.07832592375783472 
0.00303540633298059 
0.009440047290220622 
-0.0817627048469953 
0.1035504917897248 
-0.01074725739764869 
0.03857706252173901 
-0.007340983342375929 
0.1553810033846102 
-0.0433662246506706 
-0.03826303551329176 
0.1696156004320922 
0.2370528224452052 
0.0462393682218355 
-0.01257442349838043 
-0.009885871760812993 
-0.007223161441803638 
0.0210814794926627 
-0.02515519265458995 
0.03375882633807764 
0.04194488063153075 
0.1468785830724335 
-0.01810016807234298 
-0.06809457231146973 
0.05657722834720782 
-0.08652061296653132 
0.1007586443688601 
-0.09387496098900355 
-0.1672815518243258 
0.02689314383479949 
0.1640967170774845 
0.1935946857515698 
-0.1760644674145865 
-0.1054370184914585 
0.08605619181041983 
0.07057968515260273 
0.06171939451680754 
-0.054757874422336 
0.1240061385517247 
0.1114507429043862 
0.02976628026362938 
-0.1993724489052348 
-0.04288880736110443 
-0.03486040434660776 
0.1555404687052423 
-0.1903500640973203 
-0.202646748271372 
-0.04071939543097283 
-0.0832337482892478 
0.09635628725970231 
-0.1943358152718953 
-0.04844070811304058 
0.09534369807572939 
-0.07016064983152795 
0.08232462632621181 
-0.1724753397423661 
0.1128598950181299 
0.1917092221207013 
0.1423588027145013 
-0.01033653644232765 
0.1319959598154645 
0.02178004174420803 
0.2352377964096373 
-0.03258567317253816 
-0.117430657877599 
0.04298422549960288 
-0.1976483467589213 
0.07646460131503559 
-0.2400826594537098 
0.00410092484883882 
-0.03018147928984017 
-0.1413713054239767 
0.2244599292486954 
0.07806828829780983 
0.09564714285585493 
0.08976489552559912 
0.07972698704956437 
0.009366656215840994 
0.02029960752225195 
0.005584276039703556 
0.2248515578186558 
-0.02358708781835549 
-0.03802323623428045 
-0.02644822603750744 
-0.1851770319947338 
0.1380756368395579 
-0.08748871639251991 
-0.0235331518190086 
-0.0559402287447448 
0.03166506579498143 
0.1753065927162601 
-0.08909851445484901 
-0.1151339365714042 
0.01566112919890293 
0.1922430423973933 
0.06753904133657661 
0.02096014186214264 
-0.09565254414212096 
0.1402390191472295 
0.04977684180221432 
0.0139176375516869 
-0.06564803568210767 
-0.1323110635932247 
-2.683870236477502e-05 
-0.04548416864384981 
0.02944603175503043 
-0.07952508216920393 
0.01780286725784555 
0.07583246402581885 
0.005782468472753893 
0.04659670534245252 
0.1180467590992676 
0.2566042527959881 
-0.0278597995418292 
0.05273171854790477 
-0.006325084037198367 
0.1480218275682566 
-0.006926895514020631 
-0.07881740536668558 
-0.0549311997343372 
-0.145582422590636 
-0.09414621303451383 
-0.2269130679954502 
0.05539528058782848 
-0.1626490458883368 
-0.1999419314077677 
0.1116940001932225 
-0.01420703759638208 
0.1171318273392302 
0.0943535396591466 
0.3609435642358269 
-0.06508043437421154 
0.0430233950516691 
-0.09470969035885282 
0.1708307908246307 
0.1358073040472516 
0.04430993797413099 
-0.2162369778275583 
-0.3447460226227721 
-0.1529980791022936 
-0.05501172788589613 
0.04825346813941923 
-0.2563183725064245 
-0.02763302402585782 
0.1548309725418162 
0.1495623343698098 
0.002326989932173966 
-0.03215366600162193 
0.1781697941600867 
-0.03398801518273599 
0.1484185950963045 
0.01695708024629645 
-0.09540342084502031 
0.1654123228645941 
0.1564710824225216 
-0.02308046433982204 
-0.1283028431501188 
0.06648737963319931 
-0.02809810614626217 
0.04853042409783825 
-0.08022008318011314 
-0.06344321587290822 
0.0820629143982668 
0.1076951293354863 
-0.02414093392169745 
-0.09412938855526971 
0.108195684462203 
-0.04878458445556735 
0.06109203155870274 
-0.1815053188149534 
-0.08350052949519515 
0.08595762301952564 
0.2540903787677101 
-0.02748231173323343 
-0.1292612967127085 
0.0768762403607135 
-0.08834524390690808 
0.05564026695377301 
0.004737674195555031 
0.09258529007352718 
0.03722313135595172 
-0.02076512381035328 
0.01938627072113621 
-0.03267647186598152 
0.1663498737189292 
0.05670853989387573 
0.02545475847757169 
0.07154872056318116 
-0.09380240752586104 
0.001838448713940356 
-0.04850947221137288 
0.043830927319686 
-0.02795138056126526 
-0.03316301457374399 
-0.1086920218792111 
0.02845158159615874 
-0.04384560113529622 
-0.02444679001804497 
0.03823335468817936 
-0.1079317952941369 
-0.01676633731614179 
0.003723442899155161 
0.07412161209944725 
0.03354791384664792 
0.02740348125987404 
-0.02350405683734021 
0.1053030098920989 
-0.07249076689026324 
0.02359139315261816 
-0.01229329596976921 
-0.03551255463084647 
0.07301078496214208 
0.02397886179401212 
-0.04532850226374469 
0.04181254889033349 
0.08268452562071775 
0.02306631866304735 
0.001600126200434354 
0.07927469581092755 
-0.04788343880893229 
-0.04014351875481247 
-0.001044936903980606 
-0.1105568022518752 
0.01476258762747578 
-0.04458303344491625 
-0.04864691105377399 
-0.05831355542689919 
-0.03155155701887086 
0.00475212989845408 
-0.008597920806921124 
0.03778497995610814 
0.05524239006480752 
-0.05623759453659129 
-0.03896731282340397 
0.039842682725684 
0.05558136293552377 
-0.1134148121883756 
0.06709996218568544 
0.07825223011367781 
0.07608949954767127 
-0.07156364815960542 
0.05061972475004285 
0.03184820281630883 
-0.02739636215263334 
0.08481362916110129 
0.03477289200261066 
-0.0661936799797801 
0.0366375831419305 
0.04822686710692589 
0.04288201541010812 
0.005828995982841156 
0.1262088686777408 
-0.02993456853144891 
0.05635308459762218 
-0.04462185665159153 
-0.0233854544560784 
0.01566987342737038 
0.0487883673642346 
0.01311084665645328 
0.02946113847854285 
0.06396944876918542 
-0.03181555034594977 
-0.1213186615401427 
0.01083468813336867 
0.01344542321129793 
0.07631348897167131 
0.02971128888523794 
-0.06026304664360847 
-0.01613282159725564 
-0.07731229611856934 
0.0835093217834374 
0.04659141758891703 
-0.04225361113898016 
0.06986248508344707 
0.004737127550077045 
0.140442351731363 
-0.04323064653422166 
0.03524573518284915 
0.1844232582334827 
-0.05795209862397126 
0.1604902010822286 
-0.0006059145190125612 
-0.1711571794149994 
-0.1267269768789866 
0.0208318474375074 
-0.0841713529355276 
0.008916043468301597 
-0.02329045656345178 
0.08077494042205985 
0.03684503091745547 
-0.03447695860560542 
-0.006816442952442251 
-0.000396574390926264 
0.074014000251127 
-0.02326338393312053 
0.03344822973311486 
0.01672351098565517 
-0.0007847062823114901 
0.01323505926530746 
0.04467849140924172 
0.01748334539950999 
-0.01677393013167966 
0.05553890444607194 
-0.08700550479924002 
0.0526309046988803 
-0.007472063727786934 
-0.08729563816368048 
0.04718917469156756 
-0.02432167106349663 
0.1735353205077884 
-0.01541652260204328 
-0.0957025677797209 
-0.05510231890328942 
0.005939583970687371 
0.03422227719890886 
-0.09310382372696531 
0.105974912593973 
0.06072989253147921 
-0.07305179024696264 
-0.09124594938609054 
-0.1589375749210762 
0.05633578983252067 
-0.1549324201174174 
0.06632568945053606 
-0.07710769854139023 
0.08111994324504723 
-0.05834245967023823 
0.1415034682650361 
0.06630323920718829 
0.05248900354384019 
-0.02329954026476381 
-0.03530662354491043 
0.04323695107144798 
-0.1116287287253198 
-0.03197983483175804 
-0.01192049188603161 
0.0695201259209802 
0.01710640391401343 
0.005621364276244815 
0.08308782776306789 
-0.09457750512821321 
-0.06869965584701959 
-0.073947289160621 
0.01109538829548596 
0.06529417368530435 
0.155885666613327 
-0.0893837882005088 
-0.02635126972825434 
0.05403343170852891 
-0.04190406171369824 
0.04063096034315368 
-0.06736199257306355 
0.08913935183167766 
0.0687526264208112 
-0.03478047347245972 
0.01287233469573645 
-0.05589795864845964 
0.112501105194466 
0.0651764353850128 
0.06592033555666087 
0.1339256794707764 
0.1624515768229136 
0.1457039391203927 
0.0477906933367586 
0.04219925848573715 
-0.00880522625220613 
-0.05687756679025156 
-0.04354349600453201 
0.1252185010847078 
-0.06172038455134427 
-0.03971909652602784 
-0.06241397821666429 
-0.1787838076234998 
0.02180929580900112 
0.1046410516440858 
0.190131908672128 
0.05474977250309233 
-0.08435244700226957 
-0.1607073462772394 
-0.1213619202374855 
-0.05609513993557035 
-0.1081828361551043 
0.01657502730884791 
-0.03420648091419324 
0.07589035193156299 
0.02734009108128646 
0.06181271026040668 
-0.09215179142232778 
-0.0428392656016874 
0.0002937261444527924 
-0.189868750389968 
-0.01544703910371456 
-0.05188893878914424 
0.1223178429875217 
0.01669118084935004 
0.02890162232951942 
0.03132548615723656 
0.1165513436668576 
0.08706743298496276 
0.03626539725452826 
-0.001737227914196459 
-0.1166929495734907 
0.01829577864461148 
-0.01490494477950449 
0.1739093473201857 
-0.1041284952174503 
-0.08572873505886021 
0.0725381881433417 
-0.09185756403664885 
-0.03224283371900158 
0.1531593941302222 
0.06090444844143479 
-0.0341522213046563 
0.02601568723716357 
-0.02523500651552222 
-0.03147898957397359 
-0.06080574219182165 
-0.02954909271666856 
0.08961377995077259 
0.07766439692479979 
0.1327442239894726 
-0.00552487559870383 
0.03889562594690933 
-0.1006192506741094 
-0.01684480997708727 
0.09327467588994648 
-0.2065150044669909 
-0.1130495642468729 
0.01304808399078067 
0.1374764004301829 
0.05570200876394774 
0.1359990810084422 
0.01570766057160652 
-0.01739680931966159 
0.056414167391549 
0.00249839330899031 
0.04103731271841647 
-0.01990616776637334 
0.01425861113883358 
0.05193103780759702 
0.02723466450586819 
-0.09597295851824422 
-0.1766184754726694 
0.07866580669036542 
-0.09830386592286083 
0.02624444112202105 
-0.05438406235196181 
0.05471293991095572 
-0.06572222053248161 
0.00789395436069432 
0.09042331989299374 
0.1552933842053268 
0.11990992994238 
0.09059129273440243 
0.1519981095050257 
0.1235493262747815 
-0.04965108403521497 
-0.06066239988512865 
-0.02796567495060081 
-0.1827040048045256 
-0.1092924449512878 
-0.0571354674140997 
-0.2622601445713846 
0.005196622267234619 
0.003239096860058876 
0.1817213938128638 
0.2209864966258623 
0.1196846054032597 
-0.07538612834170878 
-0.1375209182432329 
-0.01140444013632068 
-0.1403236723320731 
0.02806159102306468 
0.08467220969952444 
0.02864961445155547 
0.1304200068728585 
-0.06359302306069442 
0.09784645342716285 
-0.006329766229000165 
0.1297798882558068 
-0.06745761090932463 
-0.1150964996136779 
0.03403283201789112 
0.007978132400706453 
0.04826570179130409 
-0.07063324212264983 
0.1609085364598464 
-0.005656048281705696 
0.1856415991235069 
0.1042795165691278 
0.1224601978888792 
0.003718831096473346 
-0.1233510264890294 
0.02931608407193302 
-0.03486959121482101 
0.01160709164287787 
0.07779615199362659 
0.03092193116582343 
-0.02878413217507058 
-0.2593290046889588 
-0.02428577540821075 
-0.009033311226364618 
0.1053679083593931 
-0.02676441142781343 
0.05033936626626614 
0.2071530146079301 
0.06871077818924072 
-0.08763715953400493 
0.07397138219799811 
0.0720216396141925 
-0.1140803249261707 
0.0812961318881838 
-0.09427236255586993 
-0.02628192977686624 
0.03221542973597503 
0.04922327550401653 
-0.02961433466909013 
-0.06013943858105911 
0.02897166943542399 
-0.03759893969671625 
-0.06575673883928559 
-0.02462071565647648 
-0.0178463749139556 
-0.02379567307095585 
0.1053584773043145 
-0.04319547632531463 
0.03010554152338883 
0.09527441073892155 
-0.07058161092084726 
0.04047487443454307 
-0.05076990123273174 
-0.05400773854805575 
0.03012236387844612 
-0.01469866466417276 
0.07370579973008227 
-0.07786944841402547 
-0.006198183883469704 
-0.06083978199813662 
0.05921355313430081 
-0.0122602316071509 
0.06797769248686825 
0.006493040688834135 
0.1118350002241724 
-0.05986315553336721 
0.05681015217932461 
0.006056304922074469 
-0.1624273591592356 
0.08060244332766288 
0.03505269203299612 
0.04789918101038668 
-0.01610037425974079 
-0.07544526032259083 
0.01481418905993803 
-0.09914269004693529 
0.1059608179305353 
-0.001436217886984554 
0.03855396315208851 
-0.02520229481252187 
-0.02096147429663804 
-0.005315484325007943 
0.02629984510283695 
0.1286365241508146 
0.05796571463281674 
0.06073096573642184 
0.05623946744173182 
0.08514048422907036 
-0.08732097301041609 
-0.143728799809745 
0.0928316494127583 
0.04309913297225255 
0.01333719835995321 
-0.07618289863260712 
-0.1280402898676372 
-0.0351856062342042 
-0.04634894902200114 
-0.06077026790156713 
-0.02318960126280355 
-0.009626327592565778 
-0.02857362794762519 
0.04190828700737175 
-0.002970982850507473 
-0.1151599072978764 
0.07879540471251456 
-0.02090790772420058 
0.09423700041223872 
0.003787720907973661 
-0.08573577229028306 
0.1101978402757397 
-0.06632389926426559 
-0.05262448252070224 
0.08285968254536709 
-0.02405965365737445 
-0.04530593812187259 
-0.09458789708219389 
-0.01176756926386188 
0.02518238958383074 
0.03728436379955317 
-0.03885617482596896 
-0.07267147557015428 
0.07440302981418172 
-0.06984142857225323 
-0.03977770368429104 
-0.04994338666403613 
-0.01487949912551448 
-0.04733459694777941 
0.0319298270600676 
-0.1319375801001555 
0.04290039268380598 
0.04170801691144148 
-0.01152096241081133 
-0.1300601490529956 
0.01315410426525512 
0.008804770802709303 
0.01215138649224293 
-0.002853746561379373 
-0.06441016713451708 
0.1011485000488273 
0.04168377328894 
0.0185503094294515 
0.1113419403576871 
0.1104958202345402 
0.002766107169110692 
0.05636241074183541 
0.09629762312454034 
0.0320673026477338 
-0.04525045555827164 
-0.005303516841298603 
-0.05628248093636703 
0.0698691450907237 
-0.00858967061847762 
0.04335325031749023 
0.1826754676037651 
0.1082097076207628 
-0.04234989234261886 
-0.08218053849353997 
0.02429555854521561 
-0.09309867602035544 
0.05175622883864005 
0.07069871398521027 
-0.07132263278562644 
-0.00808491695095925 
-0.01709583934775249 
0.007066307830977077 
-0.006626384947143225 
-0.06957071356451311 
0.001083805938915151 
0.03397712632935154 
0.06745863147306032 
-0.0885175064716632 
0.07214981916704849 
-0.05350999952335376 
-0.04393094788783806 
0.00984425856744682 
-0.09725654389320199 
-0.04872468816044132 
-0.004993433329992908 
0.1158406482675953 
0.0399980793390423 
-0.04160893925638542 
-0.02376017987839122 
-0.1076584991620028 
-0.116186993956319 
-0.0446082296799979 
0.08665614021642486 
-0.01280895055700772 
0.002009319158632378 
0.002803645107003988 
-0.04352398013879873 
0.08062313722931722 
-0.06585846159315975 
-0.02380589169227297 
-0.09786174672118464 
0.004227566124546972 
-0.06754152827112035 
0.02531144490448375 
0.02538228555735048 
0.1010347714308692 
0.07401559294753127 
-0.1239722440801838 
0.004743947446561277 
0.0133680888253347 
0.013102336314973 
0.0320262324699116 
-0.01368783971642593 
-0.1052338347180489 
0.08660253723715138 
0.01130057145950984 
-0.0005054737901509407 
-0.09117412014974471 
0.04145311623368181 
0.04508632100347645 
0.01105535232549726 
0.142684269230311 
-0.0004701830952001674 
-0.1017741428406675 
-0.05174323440817259 
-0.05674735426055991 
-0.02765616719751524 
-0.09216021769057146 
0.1371123087188896 
0.1701319778523334 
-0.08591737157297689 
0.09202728856520562 
-0.06042351774431885 
0.002740072573989401 
-0.1622742433502742 
0.01261271587645934 
0.01448346058472043 
0.07375237039198149 
0.1008199865488833 
0.07219156961581741 
-0.1374712087408938 
-0.001220842285979911 
-0.07514072749235354 
-0.1631047451327653 
-0.1035037691227422 
0.05456153978436331 
-0.05200171473862564 
0.01226054661914624 
0.05324256841062651 
0.007188410947620966 
0.0414731326691518 
0.1121707993266507 
0.01237268881089924 
0.06678191953089656 
0.1694238537973097 
0.004415200565065458 
0.1168583418410844 
0.05742927721849989 
-0.06565540534532714 
0.09250696280055853 
0.03281870920907399 
-0.0531533703273006 
0.004055661090366092 
0.0364106689066858 
0.1533828842885825 
0.08231860328893241 
-0.05683140257119916 
0.01363697286514044 
0.004165017192065914 
0.1139698996006364 
0.0626330601111985 
0.1066458585215469 
0.04230834917533913 
-0.05410903431775901 
-0.004246178067258767 
-0.007365980904247035 
-0.1443580879649866 
-0.0101288146332279 
0.005879258492706678 
-0.0043446331553163 
-0.09500171292291779 
-0.02143012836255589 
0.0693387012479576 
0.08765806438058087 
0.06697893261227884 
-0.02201175509112168 
-0.02173839656779899 
0.02110061716451265 
-0.04856498905375516 
0.008601681657679669 
-0.06222930739149826 
0.01239826927934996 
-0.1795475659988633 
0.08260602647380783 
-0.1995474501141669 
-0.2206804124068595 
0.02214060624072061 
-0.07916406111676834 
-0.1040849296924974 
-0.05662219326107142 
0.03008086454479544 
0.01686130431512392 
-0.06769386007042311 
0.04031745144228192 
0.01647948667190646 
0.1360922911849791 
-0.05484563876639036 
0.1123271719535584 
0.09016558657972287 
0.1217608347981979 
-0.1016684906292519 
-0.01758741068366079 
-0.1689762123899773 
0.007375614968039352 
-0.05154399080029102 
-0.1317865512022022 
-0.04614784036651298 
-0.02174005710497109 
0.2128058550553242 
-0.06421814595677577 
-0.0198297888945087 
-0.1560259013609633 
-0.02279000070985899 
-0.03446625262288491 
-0.1529332964513588 
0.1336072037944825 
0.06226213490493921 
0.03419332995339489 
0.117578761878839 
-0.01544077088528632 
-0.07496515581981729 
-0.1167974509049137 
0.02300881144960846 
0.1130755149513307 
0.09210579743287588 
-0.0703195960232008 
0.01794959400060766 
-0.04902401180493002 
-0.02787405187152496 
0.03154031184076476 
-0.04214275557642059 
0.090361834448572 
0.04204519627959985 
0.08231268322571031 
0.01439632337509516 
0.02938519982574347 
-0.01078108364547268 
0.05483198692082709 
-0.06572916339379103 
0.05671922440648456 
-0.08503847092631248 
-0.02399807541700791 
-0.05193587254805893 
-0.02577802818740173 
0.1069408787901363 
0.09246549931623761 
-0.01183446619974778 
0.03431441353168421 
0.007841165548536588 
0.1028757674114922 
-0.1156282542390787 
-0.02524713803288055 
-0.03878319960915173 
-0.09723717215851978 
0.03295462786038386 
-0.01640043569774289 
0.003054387546331049 
-0.0877010562471575 
7.302877439390347e-05 
0.1086288202844506 
0.0990032632707957 
-0.00724048132770883 
0.09734398984197927 
-0.003316954206053462 
-0.03347685879608833 
0.01676532918104621 
-0.06370973422550803 
0.01430532662775988 
-0.04061455148334509 
-0.03723781100154944 
0.06432813844860517 
-0.01693393338973562 
-0.0127449101539319 
0.02503754396338622 
-0.1196096580201269 
-0.03789995702078272 
0.07866501119949353 
0.0903129639820414 
0.07512774797632192 
-0.007202856083505003 
-0.04638082269879416 
-0.01050279800783726 
0.07837485651164024 
-0.04334470831465589 
0.01475622711181431 
0.2051022508204862 
0.1080768759018292 
-0.02197460862874308 
0.09273227904963484 
-0.08433442206023491 
0.02513029134635029 
0.01395182810859415 
0.115344925263303 
0.02148816581477423 
0.03516065046432431 
-0.07795281020727289 
0.05099059370467606 
0.02882590942637652 
-0.02764936962041249 
-0.0180201409632892 
0.0298040204512558 
-0.0209238071616846 
-0.009465344418973943 
0.05457729225343384 
-0.08870475697763734 
-0.0669707486973536 
0.1217507216047172 
-0.05796955149546562 
-0.01894780632637185 
0.04854665877864344 
0.02822831667301957 
0.002770595915060796 
-0.1196655955233042 
0.01025364171016361 
0.04830982444612257 
-0.04765502260472471 
-0.05659962168575753 
0.0567215996976137 
0.02149017632713974 
0.07962390556217712 
0.1833215631831121 
-0.0131152160855452 
0.0193212612907052 
0.02550190094065394 
-0.03226705612537389 
0.06569335656165641 
-0.01270039987339738 
0.05614055154263236 
0.06001492425285941 
-0.0328827438562489 
0.007082061542005218 
-0.02985142512344727 
0.05066454916722837 
0.1139130281833757 
-0.01317199412585406 
0.0244884091103987 
-0.07847446740379886 
-0.1078406917640438 
0.01027901495471643 
0.06188229161793324 
0.0007246277365382986 
-0.03344877899876804 
0.01333434739402664 
0.0689166956376646 
-0.006653961583535126 
0.01923592880686467 
0.02182236895732546 
-0.05972082235006636 
-0.09146064758228788 
0.04843424399536335 
0.08598223873678856 
-0.01136747436225353 
-0.06289131501373027 
-0.00958250079135021 
-0.01202083590898212 
0.01537547231343879 
0.01483255154649211 
-0.1155468553847761 
-0.09205882943237531 
-0.06427647994996426 
0.06297809213781352 
-0.07628310493246368 
0.0660545775045466 
-0.06871072890312344 
-0.1538065583201002 
-0.02025368913546777 
-0.07112875214020405 
0.01970420101885843 
-0.05535630626785111 
0.01105396209841284 
-0.02854522931981581 
-0.05510988999675272 
-0.1422064236818945 
-0.02498339118428723 
-0.02782586565701191 
-0.01136545799132815 
0.13089054301335 
0.01858364983082479 
0.1382868528023146 
-0.03028564722977476 
-0.001023075007090383 
-0.01102609070597346 
0.1025659563646292 
0.01841715880571494 
-0.02768043120445262 
-0.1130430606441632 
0.03741338627675382 
-0.01407315088825689 
-0.02821589872051443 
0.02276122277911765 
-0.05180468479055136 
0.05626395904817495 
0.05795037464220186 
0.000678737186967103 
-0.08514649294817586 
0.03819789943102592 
-0.005420275898041093 
0.05257412693141623 
0.04356268766191478 
0.02753474851015525 
0.04228142668369007 
-0.1148617927024966 
0.05724406283411757 
0.09367914244979782 
-0.004568335682488578 
0.01913821251835166 
0.1534618593354614 
-0.144450823442553 
-0.04955587594519618 
-0.08145708667900411 
-0.06028328454793166 
0.09406688652495983 
0.114314345794075 
-0.03963177124038324 
-0.1387684445397983 
0.08931961460094175 
-0.01750573701763735 
-0.01558028291879634 
-0.004677518834970768 
0.04626589314255711 
0.06963480063564624 
0.006857903232720486 
0.01152826386443007 
-0.001202640429170545 
-0.01707961916647215 
-0.1178701480773235 
0.044760077060487 
-0.1121013552990494 
0.1011913294185865 
0.08724082711087935 
-0.03411166833741489 
-0.0740606251425336 
-0.007267937453156918 
0.0149243785677388 
0.119628199594877 
0.01415909214318153 
-0.004431629936629971 
-0.02971833530852882 
0.05638439460653866 
-0.0272088645905811 
-0.003371031490549815 
-0.21577984770591 
-0.07084373591303533 
-0.008294007698060915 
-0.1827605895467766 
0.02337075495269363 
-0.1212647544178667 
-0.02837660264451493 
-0.1178564983261739 
0.002997269465168005 
-0.07816547174056637 
-0.04390095812134857 
-0.1656080112066753 
0.02816467763893558 
0.004953458818637754 
-0.03001813531719164 
0.002433997659993504 
-0.06644184998707063 
-0.1326632068569657 
-0.0166735204636642 
0.07018358163550376 
0.05181024220854718 
-0.08320465575157424 
0.09865046603738697 
0.1079727954271599 
0.1835999400979024 
-0.156289022800243 
0.04772313886513491 
-0.01195728543248006 
0.06728047773091968 
0.09281162833003652 
-0.08552955971497433 
0.04155352356229067 
-0.005021174800496787 
-0.01549904929483801 
-0.03701006701871093 
0.05399999191869467 
-0.08423952233955802 
0.1032991918473866 
0.005961226964721697 
-0.044409290741942 
0.04791712311165224 
-0.07934296542558536 
0.02403206161225981 
-0.04604604688673489 
0.09232629409463743 
0.03092887139170521 
-0.001856280755396095 
-0.06984300533164085 
0.09752022430275201 
0.0224365926449041 
0.03906000085777283 
0.02767021043852183 
0.0209358046234419 
-0.02872978138108921 
0.00669960445229797 
0.003586916829466789 
-0.02463545099271348 
0.1052747173674373 
0.03209197847092111 
0.03915666764495117 
0.06637330035847812 
-0.002531388805596796 
0.1218569890326604 
0.01196280011336148 
-0.01260121409975392 
0.03400118574303448 
0.03067301076785584 
0.001030564535055774 
-0.00515615994608708 
0.0274519176330649 
0.1136599827251224 
-0.004221821833540555 
-0.0487782680916828 
0.161705199718107 
-0.009211755053152465 
-0.09107528680134236 
-0.03539694041330145 
0.01325324809296646 
0.1570069799062289 
-0.00954838181956018 
-0.0356987864147867 
-0.1289800770666845 
-0.004101042585314599 
0.03118277013373327 
0.002149106003983074 
-0.05802122101782396 
0.01225990796513821 
-0.04378021290853099 
-0.149915914405197 
-0.002002880199366432 
-0.1714984001668022 
0.01145107791915889 
-0.05520191835087152 
-0.06395384131902886 
0.007763859226946293 
-0.05105241451084949 
-0.03549333647412089 
-0.1551330392664133 
0.06507768878451389 
-0.08069338499196869 
-0.03353571734158885 
0.03500481085271297 
-0.155602207197838 
0.0911877934872778 
-0.06112957750008096 
0.08113740270208696 
0.04169405471147292 
-0.0400684336351536 
0.006272090553450408 
0.05460748464694656 
-0.06047095287377109 
-0.03114607986062105 
0.06328715360835413 
-0.005939166189902356 
0.08085206652862741 
-0.09448871577950615 
-0.05243533219923047 
0.04391539150188709 
0.1208039372575695 
-0.03656586736942482 
-0.1107845056450209 
0.02666959343264135 
0.1257475280703985 
-0.0921554339274452 
-0.1467625601464467 
0.09819732061967555 
-0.02896564294184134 
-0.01132612502395814 
0.05717815826760786 
-0.01191646720023387 
0.04858073476002405 
0.1304015911192497 
0.1432895320099742 
-0.1872431208299744 
0.03624373428780464 
0.05113428201052705 
0.0567345224750735 
0.01897006362171322 
-0.1440399924485434 
-0.01774033326808074 
-0.1005989612074817 
-0.1376863127727226 
0.1064582840507723 
-0.09472176251512567 
0.07010310641488247 
0.01526419432210489 
-0.05142033548490791 
-0.02718736247032015 
-0.07368977018188562 
-0.07594922629501599 
-0.03511365924080987 
0.1342922308005547 
-0.03432398837838369 
-0.02676924240272982 
-0.004520993871367433 
-0.003305247206922536 
0.03523462756199326 
0.1048275130259512 
-0.05341408860556292 
-0.07290029848541067 
0.0141039174617668 
-0.06306422996618663 
-0.002160499638480039 
0.001248509007507298 
0.0208178781043151 
0.02934337616159641 
-0.04396332530452172 
0.05815812290799608 
-0.005241907885115371 
0.07399556606477614 
-0.08070848859391909 
0.1561327773983063 
-0.1237658447307824 
-0.07553413296583669 
0.04021795976270531 
0.02907939875296831 
-0.01417751657624428 
-0.06155327029249898 
-0.03107647384331849 
0.004607750783977237 
-0.08263736751374039 
0.1369348564351327 
0.0009364396410701484 
-0.02123969848190876 
-0.0965545647162064 
-0.007663411903126606 
-0.06736560064699866 
0.03316501800287613 
0.04338753160496941 
-0.007185945857275415 
-0.02440566394313387 
0.09884585321803431 
-0.06095502092652418 
-0.04475103469606357 
-0.02910285835859497 
-0.03498139945768157 
-0.0222196168181972 
-0.04537807945591509 
-0.1401966144625838 
-0.03309553826683897 
-0.04452155068961132 
-0.02949519045531673 
0.03669393323677016 
0.03779516986329408 
0.0504245667121485 
-0.05822121389865493 
0.07777749500473066 
0.0418131337723756 
-0.08763514042086884 
0.1410984119800799 
-0.05375097369825248 
0.03225255050868679 
-0.1278247157055198 
0.1291824664534328 
0.1497199424168808 
0.01745579033744269 
0.02914214750980534 
0.03228282451233035 
-0.00758303898736585 
-0.04467385367713045 
0.04636047744709787 
0.006334023413596269 
-0.02854884294403263 
0.06092169688027204 
0.005447149574241542 
0.1881030935608629 
-0.1441613867569154 
-0.1077792061814304 
-0.05139617061280548 
0.05585109082188575 
0.04097600741840385 
-0.09501037897728905 
0.001934926005838741 
-0.07377792467325942 
-0.04237766749517882 
-0.1026454750335072 
0.04925934354478972 
-0.003105198678151115 
0.02561857668484323 
0.03633997453857733 
-0.08968613904133553 
0.07741308194880223 
0.04810080836081372 
0.01926862853804536 
-0.06905263001320094 
0.07601249725414159 
0.06830130449160365 
-0.1281248563762988 
0.003524497177336895 
0.04724878511316648 
0.009052482062079618 
-0.07839782085080481 
0.07909189434716506 
-0.004096616146865785 
-0.04045293647176433 
-0.010961366254921 
0.0006195087564476407 
0.004042122885715306 
0.05844378713696092 
0.05476529864251838 
0.06095327213095775 
0.1003606121846453 
0.004724627377550816 
0.03108757038920085 
0.1119065862592414 
-0.02694152438987406 
0.03083697796223542 
-0.05560884061319136 
-0.0296477849992163 
0.1141856658805764 
0.0105434502419577 
-0.02597385901376638 
0.08518670605172808 
0.09330761536739036 
0.03477991530037931 
0.03342159688828867 
-0.06218508479005155 
-0.04352004848466993 
0.03109782202192415 
-0.06434421964846697 
-0.04750576549745083 
0.02801387091712176 
0.01426529933768518 
-0.03573407598951537 
-0.1164839253645382 
-0.07928558102949927 
0.07212040286361074 
-0.08252256353038843 
-0.1459188346930049 
-0.04182338012932831 
-0.1376408090502005 
-0.03638284218937893 
-0.1536398019607228 
0.09133262613448584 
0.05925473950157052 
0.08931194142849685 
0.03291908838302542 
0.03987589882729977 
0.03471682322777683 
-0.163858998303021 
-0.1260995508824795 
-0.1687301729742432 
0.02435804948536369 
-0.06009960294905392 
-0.1006605466282872 
-0.05516289507261203 
-0.08796476484081898 
0.1552527560637113 
0.01499070503112345 
0.1137435243074956 
0.02804542947309151 
0.1200398786970604 
0.115905032367622 
-0.01623229654749807 
-0.07096620311493083 
-0.05637674265906286 
0.09621710775835264 
0.1206971325097164 
0.03848893280407255 
-0.04293495157925308 
-0.0578285684663138 
0.01483947356234752 
0.107289077533687 
-0.03502062996520886 
-0.1661710016494804 
-0.01079518959849456 
-0.07978614360488887 
-0.02224238169214345 
-0.02488739778925018 
0.03781239285527885 
0.06225984074991513 
0.0555794114774254 
0.07430145596411981 
0.05415658716325068 
0.05981031605290626 
0.004959566744380759 
0.05908506440839181 
0.02875507431624216 
0.05726767710646984 
-0.07614403904078582 
-0.07298586670147771 
0.04985933471726692 
0.01773948684816896 
0.01752999357914917 
-0.009335265984005747 
-0.1048103124846891 
0.08452067033852897 
0.07687507355109942 
0.09925667847415204 
0.01960818361029357 
0.035808409019995 
-0.007131427260921501 
0.08734386224103831 
-0.08130865831076109 
0.05430916554765211 
0.01475534909540571 
-0.07915985690931382 
0.01139466370454238 
0.03269069239628837 
0.07531724583776302 
-0.02369413736887884 
0.01803644202700891 
0.004893841688037294 
0.1175116086858397 
0.1560393593661997 
-0.03149761275420614 
-0.05514429474140411 
0.02818449469729938 
0.04549191952985569 
0.03191201169228929 
-0.02278397610093146 
-0.1161571274332257 
0.06561874099814703 
0.06257997376704554 
-0.05975473088229281 
-0.08228256836900251 
-0.07916657780974 
0.09554739773569604 
0.005330987638369278 
-0.008924432819426809 
-0.04127485499395095 
0.02528999708327234 
0.0201823319582158 
0.04644629043051603 
-0.07939565427193331 
-0.0404385603759137 
0.1479695198816795 
-0.07229730631403705 
-0.1550028730913582 
0.00233760623308611 
0.04063005606636351 
0.04393449375915947 
-0.06686747936705985 
-0.01580852144987794 
0.06641480365277663 
-0.1035452521673027 
-0.01670385826625169 
0.09892374902825436 
-0.02867945741250007 
0.1191520209935555 
0.008984590043936579 
0.09340037208432243 
0.08838370358947521 
0.04635735515261855 
0.1899812604166983 
0.1791611117712456 
-0.0910140078866503 
0.1139663181961122 
0.03855252037778147 
0.001502585091139037 
-0.0271383411673904 
0.005198886518360488 
0.003528245658268483 
-0.1059960407771601 
-0.06552452609540245 
-0.05708760193884523 
-0.02432162510986161 
-0.04279830835326862 
0.1257210390826133 
0.002012962446616921 
0.09875844967854877 
-0.09585330699290845 
0.01455377945053262 
-0.02506763335526738 
0.06341803049259148 
0.1352452991455318 
-0.03609506755977036 
0.03138620566947916 
-0.1525630157712773 
0.02987188603394144 
-0.05285441581933415 
-0.02114293539755166 
0.09071120151507453 
0.002237348388447831 
0.03905880958314577 
-0.001005342926665041 
-0.03811928178317591 
0.01829062834591405 
0.1213012907567571 
0.05955968061632193 
0.05259404865007775 
0.01647266153822573 
0.109618151526788 
-0.008271132986192533 
-0.09542363031144985 
0.05961509891283397 
0.005209106047794036 
-0.04302153236394399 
-0.2600538646164537 
-0.001980192839210667 
-0.08622476923157335 
-0.1098027824020299 
0.03609918842384425 
-0.07778999693049575 
0.07139468006853651 
0.1428426611231024 
0.02750650407949938 
-0.1001672098215461 
-0.09871231533668251 
-0.09165631527636715 
0.002858631290425579 
0.1623514978274742 
-0.06583859625100977 
0.02350485943047616 
-0.04769686315032449 
0.02131504857410239 
0.05313454263819525 
0.1058506120577031 
0.113390917123098 
0.022149602704197 
0.1192663723914907 
0.04936442844880591 
-0.1313968140720447 
-0.004329252228015459 
-0.05880474072878233 
0.08921187569069521 
0.05215869770228154 
0.05734535795078276 
-0.02869332297052895 
-0.1349222212885803 
-0.00399560313546101 
0.02473777543313067 
0.0313329989833727 
0.001920386472976251 
0.03549852285048299 
-0.005443146208491539 
-0.06174582546924771 
0.03762586763507744 
-0.02523427785703307 
0.03821994121620145 
0.0008839708467218957 
0.1267970560837444 
0.01819012530210712 
0.06545163807017892 
-0.03461481069309176 
0.07443945575466304 
-0.07235512198110719 
0.07574379621822924 
0.01303513660302738 
0.009212797609800807 
0.03703230833704568 
-0.02612725121759062 
0.01996586906250485 
-0.01610337860736781 
0.0002888351717349837 
-0.07909064573240729 
0.04750930894685361 
-0.009420276415644288 
0.1253588062417205 
0.1027280534936923 
-0.08356773461198623 
-0.04890684888756531 
-0.01578659280268316 
0.04043885399172837 
0.02254059448985977 
-0.07167630521507548 
0.01406745444460145 
-0.008448145965385444 
-0.01338844959056435 
-0.01806266550172648 
0.02038770025277308 
0.02478011856214541 
-0.03132356518973444 
-0.04744004349346018 
0.0005465838659676996 
0.006159313770557094 
-0.05515723229461655 
0.008495604102454252 
-0.07131797880359039 
-0.04320063218509303 
-0.002084494987001884 
-0.1157254664576644 
-0.06480274709637371 
-0.02458664699579849 
0.03117979614860912 
0.04801158528877293 
-0.09162740908730593 
0.051335460372898 
0.022595648026629 
-0.08901435993829944 
-0.0050723511503225 
0.1257071920822145 
-0.0993863524886055 
-0.01874228605305294 
-0.01838456887827079 
0.08281892829901473 
-0.09657473306704253 
0.03434783577750029 
-0.06701856001490039 
0.05413827877769684 
0.02192883108772209 
-0.02535899673523332 
0.06305261030940754 
-0.07895321109915476 
-0.01854688284385255 
-0.0187275104809791 
-0.1060130485214821 
0.01330396337744649 
-0.08338640901640781 
0.04578212667839846 
0.0008955206887650316 
-0.04225029972615099 
0.1114411024774463 
0.01767847582964165 
-0.01199393239005766 
-0.03624537614001255 
0.06488802729559962 
-0.05530907975680076 
-0.1319429733137889 
0.006610467131153515 
0.02067123405243454 
-0.05476350723002373 
-0.0411830757224143 
0.1485118581808955 
-0.03863736954289591 
0.04748147553749084 
0.051828410758041 
0.0329442047670058 
0.1147232810370514 
-0.05730381538383978 
0.1952997657416458 
-0.007309804989880624 
0.05678311867801059 
0.07175098091688951 
0.06884713226580465 
0.0211726963678455 
-0.03609421966626521 
0.06702955436380124 
-0.04046120940744435 
-0.03381162702285372 
-0.07308506312455379 
0.05982518766535302 
-0.0743616329405834 
-0.02420768614715566 
-0.07059552988657021 
-0.0255536662513974 
-0.01730225221597156 
0.07052481966232001 
-0.02117989112717143 
0.1069655885574546 
-0.04509010653730081 
-0.07043011682296427 
0.007489946831288042 
-0.03090502509969197 
-0.02859113399751164 
0.04422729108846212 
-0.06882815083883598 
-0.1570992011353876 
-0.02169073993205444 
-0.03145328578605004 
0.06413864922346729 
-0.0412664300103983 
-0.01021565445100183 
0.09565364820450413 
-0.01805671297883657 
-0.003078612722013712 
-0.01176803005517348 
0.1206292903585797 
-0.03150213370499507 
0.0411560563554482 
-0.03460018770444997 
-0.01942429141914694 
0.02088094136443443 
-0.01612731321697641 
-0.01456137323618544 
-0.07515668277633374 
-0.01880426234433377 
0.02586912570642512 
-0.06014425123416305 
-0.04372589616357185 
-0.1359360845037828 
0.02099852351973082 
-0.006427741882659054 
-0.05904101073285776 
0.03237012835870477 
-0.05334443878467678 
0.1334685204446148 
0.07794500449634977 
-0.2003899069184152 
-0.01805174171307219 
0.09659716481272636 
0.2104791673385879 
0.03374039208039298 
-0.09215116253720824 
-0.1723222718207613 
-0.1030115811952513 
-0.05497092593299184 
0.04030101394155958 
-0.01153795498258476 
-0.07113756360036974 
-0.06688505923323747 
-0.01874610839335814 
0.0554429038151407 
-0.07661384662486234 
0.01051856920425831 
0.05996222054777012 
0.09674626123052001 
0.049229814893907 
-0.0224523870851151 
-0.1099590746936686 
0.1129092747571221 
0.04177779705943041 
-0.01056999463550136 
0.07503201786486252 
-0.1409722273950626 
0.07080890385700826 
0.04676137901524303 
-0.01175562105709598 
-0.03478806318575246 
0.06697505078471354 
0.1549107557149899 
0.04228451357369371 
-0.01410960132689082 
0.1051089234196648 
0.06504981165577596 
-0.06922212410920305 
0.0384348862894475 
0.02216203076659392 
0.1546067596169477 
0.001844720305606913 
-0.08924554102732384 
-0.01393576679215981 
-0.01222721070953604 
-0.02913181793796922 
-0.04665160355116646 
-0.01271257210880427 
0.06799933939840783 
-0.02894709926283753 
-0.0155050114692452 
-0.06619802716036303 
0.0312996601976428 
0.1173450465964807 
0.1144443006828262 
0.03558956682320773 
0.06616225100760567 
-0.01928936068246649 
0.00903846241048077 
-0.04463820605905127 
0.02555080545454669 
-0.01933453970548182 
0.02990549477408236 
0.1136149569407378 
-0.08953288594290811 
0.02860506318850265 
0.03421388317165744 
0.003621910057682856 
0.1697656731192884 
0.00424636898227151 
-0.05687436841596501 
0.05719867900930559 
0.0926100693775324 
-0.003402156660919712 
-0.05645325057006439 
0.02259710943302979 
0.1000236348023489 
-0.01513152961965064 
0.01405619569921861 
0.0806841557645438 
-0.03647854512162901 
0.05019937556619825 
0.04279134337973853 
0.0882376124440952 
-0.005566656418719241 
0.02616241917945043 
0.1372315822624849 
0.001557053795742278 
0.1157509996301685 
0.04203762455500098 
0.2057653363463205 
0.08990093177441302 
-0.03481595469813415 
-0.02722656063265359 
0.04288795822628758 
0.06696729354219887 
-0.04123842047899741 
-0.03743802060869748 
-0.07434518254425977 
-0.01464757276359983 
-0.08056012911363894 
-0.09641171549696498 
0.1111928353979855 
-0.1129699241735741 
-0.000109506691318852 
0.04940252655913485 
0.06926018429513781 
-0.004865937837226721 
0.01099068600098857 
-0.07226825251153188 
-0.04224093611979949 
-0.01546305505718658 
0.05714992575934392 
-0.03429033939503481 
-0.05011930075454335 
-0.07200792950103965 
-0.05227921478217661 
0.02889673657830657 
0.01332966984481736 
-0.04186990089819409 
-0.03869382032336111 
-0.119441966362115 
-0.07195361145656831 
0.0424084030297476 
0.01943437748131379 
0.04175086167985965 
0.002975827260497103 
0.06092727044444428 
0.06468977534974435 
-0.009353226653158681 
-0.128031848742934 
0.005741474661665515 
-0.03287643958265534 
0.04326644421415748 
-0.09290015774457185 
-0.09515132053541908 
0.02294448662462364 
0.1748659838986822 
0.01058918163793988 
0.0489420224754207 
-0.01897158829873657 
0.02011958865159827 
-0.03004354244478192 
-0.06124538538848322 
-0.04993614663254328 
0.03941667932705954 
-0.06883179372826827 
0.01868996793086834 
-0.08017602552571515 
0.07771216189947509 
-0.06714174015673763 
0.1015835532206362 
-0.03319782657125604 
0.03436917200499528 
-0.0748664715231529 
-0.006436665967991769 
-0.04988472299638797 
0.01185374884280123 
-0.006199800586344314 
-0.07809864229666637 
-0.03605363606708679 
-0.003279598542503542 
-0.0292963517924791 
0.03410378999114758 
-0.09500575943804357 
-0.04165763120529764 
-0.03562287049683166 
-0.07892291584767763 
-0.006536293230301248 
0.03005248412771065 
-0.07646244493268799 
-0.08656595143692074 
0.05549169168142565 
-0.04705017970851889 
-0.04134622932928113 
0.1241889528258096 
-0.06753664757489898 
0.1000241187019578 
-0.02325184192987491 
0.07329961118789742 
0.03833455807040514 
-0.004086032339059935 
-0.03184849377689075 
-0.002132457245804537 
0.06538325270016383 
0.01967485141677214 
-0.04909744642253793 
-0.05371072725390232 
-0.03344052292477827 
8.841489998555164e-05 
-0.0343622493858278 
-0.02687153183777829 
-0.06959755904797081 
-0.1006167179156375 
0.05652414564996464 
-0.03550517313461861 
0.09782758051942948 
0.05764341712430911 
0.07821879022507418 
0.04484387070834669 
-0.005498873756566946 
-0.03274012952281455 
-0.06138887406116126 
0.06967403805993079 
-0.01694243926869094 
0.1239006267666685 
-0.05863670118931601 
-0.02305242352225729 
-0.05628449628356012 
-0.06061873671929214 
0.02350215019461921 
-0.009721553347775969 
-0.005234518595370914 
-0.125911853484783 
0.01140676985362342 
0.07791869934867375 
0.06454592673753286 
-0.07417850980038171 
-0.01054702986642379 
0.02501588596815642 
0.005283443123827407 
-0.03118676097792603 
0.03723480457593079 
0.1059727786939321 
-0.06206750062526817 
-0.06551750224565923 
0.0337328450958724 
0.04159561467528883 
0.004588192107040404 
-0.02778564867716994 
0.04816159467531527 
-0.04099724680465096 
-0.05241166556980966 
0.02594175704516077 
0.02959939317790169 
0.02338355020066282 
0.06676903081962107 
-0.09060517162567581 
0.03724694575442473 
-0.0356084861428481 
0.003629180546239181 
-0.004963136769205964 
-0.07481106303302104 
-0.08728544561049108 
-0.02276345937122157 
0.01260636846900734 
-0.1013949711606317 
0.02636705788899753 
0.05892318597949583 
0.03330397886620154 
0.01347246618886961 
0.05789702872814612 
-0.07260073573952724 
0.02097596611386346 
0.05963171150932065 
0.03581160606438107 
-0.05945036477301269 
0.02568134667280249 
-0.1087220526377062 
0.01238572238088635 
-0.03198208947750315 
0.03935283404256551 
0.0167117003741697 
0.1179873075111526 
0.0004101341630560408 
0.01679994236793611 
-0.011653726052716 
0.05586231129446025 
0.01995885478253317 
-0.04663431380031736 
-0.08291773683455096 
0.09798132236108027 
0.02044324209682218 
0.02266729727415621 
0.03442159944323911 
-0.06480408165762686 
-0.04023802409235235 
-0.09518458385213376 
0.05430759123294855 
-0.0660780254160318 
-0.1150682314632871 
-0.03939654649577003 
-0.03589402533747799 
-0.01366912779922301 
0.1315036011233318 
-0.002031302115045041 
-0.1117531323711216 
-0.06573880845738615 
0.0957107524946101 
0.04470735278739697 
-0.1301481599433363 
-0.0004095146540582929 
-0.04702241792595984 
-0.007313181411532279 
0.03342702590280153 
-0.1340673082312451 
0.01746871763987845 
-0.01097201823580442 
0.0284384380128391 
0.01254686881214705 
0.0005851095627503246 
-0.06344224685856373 
0.07978528362630601 
0.09911382732150135 
0.01983249087072688 
0.01220484088933328 
-0.01485843269451884 
0.1227773169860497 
0.02672325003941094 
-0.05841546358705584 
0.05242337455071352 
-0.1089872985403132 
0.1034917068567454 
0.09863743629474034 
-0.05660110080282973 
-0.03670336646775287 
-0.002739005050496702 
-0.05109007555423045 
0.02153187686828475 
-0.1165263816464252 
0.04567422561655524 
0.02954427341778097 
0.030764587486955 
-0.02205851707676102 
-0.06396296517652886 
0.009746614491549165 
0.1207291470285746 
0.06093430880792583 
-0.04088629722253884 
0.002603119709599533 
-0.04833637499559394 
-0.0313203322773024 
-0.09977658644745006 
0.02581640449791605 
0.002420104683874303 
0.00242871047828661 
-0.05653549691600719 
-0.08487412470339799 
-0.06567795872364635 
-0.04336057364451419 
-0.02994878929977023 
0.07475044440139636 
0.05176415352704459 
0.03301342806054369 
0.04541198315254508 
-0.1653214552354928 
0.08127072579598385 
-0.02011598651347759 
0.09473682012577367 
-0.03605238798579568 
-0.1609990030757752 
0.06542951410991177 
-0.05102565037853297 
0.05426366283568246 
-0.04095754133870823 
-0.02943611227402108 
-0.0443510929271398 
0.02028853164694089 
0.01157249174631551 
0.05283878257655346 
0.03437748797251664 
-0.04114079335685843 
0.1789224988255412 
0.01204511264603266 
0.008207169573351337 
0.002229992078341134 
-0.03776242416734867 
0.009932328943056824 
-0.1055885653371802 
0.1152337651766497 
0.00595872348494972 
0.06157770401994932 
-0.02434995404736797 
-0.03513978405812874 
0.06740955220286235 
0.06699631044022918 
0.09123526656888678 
0.1143483814166591 
-0.05844423768774597 
-0.1111173558882202 
-0.07382973152011686 
-0.08363395518726481 
0.06772002381446778 
-0.06698369945147863 
-0.04452614022678112 
-0.06623225466649663 
-0.08920675741651789 
0.07714296501480229 
-0.02877197959724159 
-0.045885072512302 
0.01237230329206669 
0.137950171012722 
0.02776682928686756 
0.153389482405337 
0.06699261496934976 
-0.02882998927270681 
0.0628428991356824 
-0.08454216869365716 
-0.01292308796638326 
-0.07359207856769009 
-0.0602716316637156 
-0.009185154772358794 
-0.1758702636780145 
0.03661704666182749 
0.02461095221967961 
-0.0166203475497066 
-0.05938536577237199 
0.09279446410391932 
0.05920051966112311 
0.1467339952782141 
0.06800693233273332 
0.1253754815492204 
0.1036182099967161 
-0.02847923562122956 
-0.000793890695282877 
-0.01473218089201833 
0.01098242803151561 
-0.04155080206692126 
-0.02965560775885464 
-0.03299027059377091 
-0.03900935013284666 
-0.002955315685934873 
-0.06806464739924196 
-0.03693175638370228 
-0.1227867857695267 
0.03274607517886659 
0.006444479305360639 
0.0681834641664899 
0.04541983183253982 
0.03668485405407489 
-0.05597125391768865 
-0.08179087432383191 
0.04198048921412233 
-0.117789355558666 
-0.01453976415367259 
0.07621649830061869 
0.03128814301032868 
-0.05943957825532078 
0.007242493322449179 
-0.02296489870492214 
0.04524049732572544 
-0.1432631271940975 
0.03829830233614775 
0.05422590578248508 
0.04152138307551263 
-0.04582954619017467 
-0.00831475176023146 
0.03204091878026032 
0.02704972593443606 
0.1246663744781246 
-0.0540058268162857 
0.00261432197403611 
-0.01475780000956402 
-0.0006891001755830386 
-0.07503213456762677 
-0.00163798413461703 
0.01548783214368184 
-0.03496698580974623 
-0.000677104560598769 
-0.06245771497923149 
0.02491589205311108 
0.0108954413155217 
0.1219090388328645 
-0.01898703643771575 
-0.02164697468657786 
-0.03684886842921583 
0.04266964502227784 
0.04005677113377133 
0.04383217615589138 
-0.0346215474196594 
-0.07910967235137883 
0.159841290853264 
0.007954753607711517 
0.01978069307924442 
0.02153990208794713 
-0.03642669681788521 
-0.06945923814791762 
0.01599423962516881 
-0.05318225774243351 
-0.03347365708577962 
-0.08443601677644705 
-0.08250255540642568 
-0.03310831812594527 
-0.1798608495744642 
0.01733462929844777 
0.1440259360163302 
-0.1222525577363013 
-0.02113738649002483 
-0.1567569831821151 
-0.01773845966446399 
0.07335042335278487 
-0.1395848704568429 
0.108423106023461 
0.02141092913461662 
0.01836309905940609 
0.1642778746153773 
-0.06485109534667277 
0.0731560283360303 
0.05075114900199561 
0.02524133037075912 
-0.06160584746880779 
0.03703261059190519 
-0.005773336987406081 
0.1179413990634695 
-0.01766655253086295 
-0.1075732634319829 
0.02231411000987635 
0.1110109962912258 
0.06337602871436623 
0.1280183596768004 
-0.008250211139478809 
-0.05212594465719508 
-0.1052144195309941 
0.05403189283660034 
-0.0234590907934183 
-0.06645817831069548 
-0.0523389599556229 
-0.09150502902949258 
0.02522508680410144 
0.0943213521968749 
0.08439730628454005 
0.01711538517536742 
0.08980647228270038 
-0.002936765261116529 
-0.07277678719819332 
0.04259437864290534 
-0.0255915168900833 
-0.05268781262644966 
0.03013862920950878 
0.03987405483917621 
-0.07653499270948948 
-0.00198584320525177 
0.02052610911766892 
0.01839364632135488 
0.07493243606628885 
-0.006508389522440376 
-0.1317437586327381 
-0.04336699920416524 
0.04549099676874691 
-0.009764696894480153 
-0.06193710539074732 
0.03020013360919394 
-0.01235033072541067 
0.009687404284579688 
0.07269554080800154 
0.01719448672107153 
-0.03163078036690402 
-0.02616873211992629 
-0.03623266292026172 
0.04433166153401792 
-0.001909424064104113 
-0.003170921108242101 
-0.04677552125101663 
0.004428768133634568 
0.05843607071336997 
0.01142564150812946 
-0.03725869753903679 
0.02629009277512849 
-0.004778783323086259 
0.056116318726471 
0.03708062014927466 
0.01748613164966752 
-0.06441114162284588 
-0.004336081389791341 
0.04764212761221966 
-0.02181847942512507 
-8.023383580729199e-05 
-0.01689845549064423 
-0.1346944586520337 
0.05752386594900608 
-0.05961019785332251 
-0.009677334544330509 
0.08239898754159272 
-0.009466604770164887 
-0.0859409822399289 
0.02079500136700987 
0.06633042006750214 
-0.01893757468640628 
0.0414255448100768 
0.1016666984728381 
-0.03958201441211499 
-0.08197591362546476 
0.04946755158256673 
0.08531730841374729 
0.0006017187988213008 
0.05740969278556705 
0.04691611500887253 
0.05628361783201017 
-0.03798025716890191 
0.05829913314162106 
0.07249942599445107 
-0.0470522115809483 
0.1055613851843502 
0.08508411060518239 
0.03215024557597424 
0.09409421213921236 
0.009527144390740271 
0.01538921787105135 
-0.04130764259287784 
-0.09244397841957451 
-0.08299679179588956 
-0.06881741661048962 
0.01112231664764574 
0.115124761485511 
-0.1057563119990035 
-0.0488828162058733 
0.005128862423718583 
0.03395928368297715 
-0.0624701808855641 
-0.139468046191038 
-0.1086786750379127 
-0.07603606675753133 
0.0996668921653415 
0.02761580867416702 
-0.02770048860302457 
-0.0077573902051956 
0.04274970195781546 
-0.09507513354023121 
0.02511143092271523 
0.06577693890728809 
-0.003240817381716034 
-0.08550852310653294 
-0.06011904443374264 
-0.117907531185856 
-0.01074306095050033 
0.01927290807230389 
0.008105606210634041 
0.007418410426044943 
0.0976934069365345 
0.03602474106793967 
0.0531498061868825 
0.0867177102660764 
-0.0006286272496721025 
0.01528348688890556 
-0.02375401003711543 
-0.1325475147270427 
0.1227523828114241 
0.03430464210446269 
0.004180637825277979 
-0.09485517325869222 
-0.1058481202226566 
0.03731390936898733 
-0.01886157646755961 
-0.07374902937105865 
0.1012189208833964 
-0.007739083538030441 
-0.01059047212972153 
0.06406178172924941 
0.01257618658590995 
0.06457660343925943 
0.03188073080325621 
0.09705939125323355 
-0.06870847813463972 
0.04184291237522247 
0.003702937389990853 
-0.0175885158873739 
-0.006162810443256722 
0.04670105573856356 
0.06321775170459561 
0.04725328037046757 
-0.01632456998820557 
0.01273779367106663 
-0.06984916349585954 
0.02303574691123742 
-0.05178881494809293 
0.01099792850604478 
-0.00235335591973459 
0.05608960365704694 
0.02071979438662272 
-0.003344617489847945 
-0.02471606125697821 
0.1316737392934361 
0.09587529510813686 
-0.02419832017551131 
0.1077216369720787 
-0.03583033164641474 
-0.02579943844721836 
0.121861713708448 
0.0520457736339152 
-0.00497345025070583 
-0.04716356309189915 
0.1493995434270292 
-0.005090696667669431 
-0.0004849869516491095 
0.02219195723847512 
-0.1089463379621005 
-0.01036465256852092 
0.1281327793128224 
0.0570040708159311 
0.01429954627241986 
-0.04654850981051677 
-0.1039465145414072 
0.06037715892025376 
0.06547116233394609 
-0.01857691009324318 
0.06965540142028556 
0.04473653577279822 
-0.01701604489881111 
-0.1125386823650752 
-0.08126818271860399 
0.09313693676263858 
0.06885990483949121 
-0.0159022197623838 
0.02779206640606493 
-0.008917726821896762 
-0.139134649908308 
-0.06421738233187385 
0.1686223662265985 
-0.09641180447239632 
-0.1322144051611523 
-0.0007165679537748852 
-0.04026596241993328 
0.1211021385818381 
0.05852119318574947 
0.008539191359178966 
-0.02068335506595041 
-0.0197835734929479 
0.1111904797313965 
0.0397774896633311 
-0.05554656909074256 
0.01618284156094346 
-0.01111347132182923 
-0.0128918955910613 
-0.02289452403673701 
0.05384824293509795 
0.1482286868936038 
-0.02981059369471921 
0.1011688180120926 
0.09510332356046383 
-0.1035175034508917 
-0.09181079069365922 
0.17190697059122 
0.1473696441985206 
-0.04707343504961368 
0.07472416413728716 
0.1588716393928229 
0.1147698768913752 
-0.003455737197079835 
-0.07470244032976221 
0.1230403425283052 
-0.0555387243192221 
-0.02256083332730813 
-0.07250291949596877 
-0.01334165513221117 
-0.07554706625422672 
0.02662183279652056 
0.05174870347126848 
-0.02569566315362559 
-0.005795968592172265 
0.003037565310193734 
0.09664538496657406 
0.05941431846133456 
0.1036103672415909 
0.02877378031428917 
0.01842795838135812 
0.1444792602330542 
0.0665310663180045 
-0.08920552876616783 
0.09657287490532966 
0.1447194214085815 
-0.0501655875202965 
-0.01629879069056666 
-0.01527031415370643 
0.05273822275491977 
0.000473648624516486 
-0.08359867254824357 
0.06700657991109815 
-0.07671822735733011 
-0.05251421557400571 
-0.06112175800892514 
0.05972212878303384 
0.09717423037102736 
-0.02300947882787321 
0.02108457182794918 
0.006481998768507951 
0.004056246260281916 
0.01828278528114542 
-0.112565268525175 
-0.05575532408534154 
-0.01604988685937522 
0.04143707514181348 
0.04971988614500359 
-0.0973213922329258 
0.09873730635031978 
0.04706053781809111 
-0.08922108622016814 
-0.06364108189155651 
0.02232036532931949 
0.065158883586907 
0.1110695434631328 
-0.03406138401807395 
0.06536946032058384 
-0.0001198425509193144 
-0.01659926464953729 
-0.02203986579366674 
0.1644728620798748 
0.07854482289060385 
0.1100548704751792 
-0.07131960297813011 
0.003299988775322068 
-0.1377898395040138 
-0.009052230787819672 
0.06700972591010471 
-0.02636987765570212 
-0.01251354194245045 
-0.03461766656204091 
0.02629025098173452 
-0.1416455210137857 
-0.08266016300436008 
0.01664233481865903 
-0.04769959218273569 
-0.06459293564690641 
-0.06701926401737665 
-0.06376544005665016 
0.130581540407608 
-0.05298016987828218 
0.1061568762089162 
-0.06142178134186075 
0.07037746228384772 
0.07726997752737046 
-0.0531215015842925 
0.05658404461591347 
0.004594654981395826 
0.01378052487883371 
0.0932071917408588 
0.07268004937480674 
-0.01730553847728584 
-0.05954223244238849 
-0.01022899697225151 
-0.07780680686964678 
0.112541466887382 
0.01816506138560357 
-0.02514435357696097 
0.01776267099240503 
0.01543277045607655 
-0.02156923243673635 
-0.01238868532512331 
0.01430267194628339 
-0.007476022185140558 
0.004939211373253145 
-0.0654940166375282 
0.07280553889072919 
-0.01589005908298326 
0.1747820826219909 
0.05300722412675257 
0.0452053943433925 
0.02998541591433179 
0.01520881566878205 
0.03564515812973421 
-0.03791167188999962 
0.03578520326582875 
-0.03166322287802233 
0.1042198851199342 
-0.07536398640343013 
0.1008258173898869 
0.008703114845857134 
-0.02191271138044336 
-0.03617441429005692 
0.02721204752906911 
0.1629735477395088 
-0.02691436133339689 
0.02451959152764288 
-0.089216468527785 
-0.01100343302868551 
0.04125189069851754 
0.1234028565685568 
0.0001640030965306134 
0.02540555277067752 
-0.008895334580065953 
0.03979954203703471 
0.02075483708106042 
-0.081931258508614 
0.03885178549067365 
-0.0620968723561621 
-0.1120160715515734 
0.03979576829443696 
-0.004033207627847635 
-0.2016559126048851 
-0.0003806785288973578 
0.1159762750840759 
0.09594054561763345 
0.03783457356842657 
-0.07219151135022692 
0.008250691409189421 
0.08850565478164006 
-0.04686753414904313 
0.08214384722313946 
-0.08782741625108277 
-0.09344838260673043 
-0.05338108733586842 
-0.05705754937926234 
0.02972635153104242 
-0.08799016745324834 
-0.07264516549048727 
-0.0146705423639078 
-0.1058331868125466 
-0.001458782619229863 
-0.1210164439766156 
-0.01701887655651703 
-0.07997651425230225 
-0.08669433760475564 
0.05912541899255195 
-0.1095655050085682 
-0.001272535489709603 
-0.02814629554919131 
0.1349962721831379 
-0.003075333220709871 
0.11336559749239 
0.03811071340711312 
-0.08239833403554173 
-0.03103951546627088 
0.06612552163651789 
-0.05091074900205227 
-0.01583476560504502 
-0.02625980227398161 
0.0741682613812551 
0.1185477677038775 
-0.01596145396714011 
-0.03043209805113201 
0.01872721604561512 
-0.01705861819514275 
-0.07760272916387881 
0.04797754602734446 
0.06572436890526992 
-0.03365678692314764 
0.0472714710508304 
0.02662827547980346 
-0.1543842433920302 
0.02387032752423823 
-0.04407617614360276 
0.04674185025708585 
0.06893106466332849 
-0.03180038455102633 
0.04573254847568202 
-0.08435426757828046 
-0.001982914639741768 
0.01874100395078204 
0.03562676620396089 
-0.04060429710671214 
0.007612369264121716 
0.1208601187409048 
0.07213346982909592 
-0.07441306776559119 
0.07419357589562292 
0.06701029006360285 
0.01847980468537341 
0.018973517045841 
-0.008562711008217485 
-0.05412787176470824 
-0.001249030907390661 
-0.1234662043481819 
0.04904556227010484 
0.008555009547358359 
0.1535282610852821 
-0.05113554708229764 
0.03147121816050101 
0.02180306249057587 
0.06871811100496655 
0.06176460450434073 
0.01459183567006508 
0.02241975255967447 
0.0819632914559051 
0.03347600748962554 
0.03593236328497529 
-0.1012763586581292 
0.04965787893513214 
0.09682314437023465 
-0.03971101584562537 
-0.02992896942016822 
0.1204988147112294 
0.02686846579941038 
0.01665954188775958 
0.04583757448373717 
0.012671310130878 
0.03697200576591145 
0.2368080715101427 
0.0908901057682267 
0.002544423945708379 
-0.02794379924083134 
-0.01756317691970185 
-0.05445152768576857 
0.007704599868602925 
-0.005501002081919223 
-0.005145228701704909 
-0.04855923533763109 
0.02734966104577973 
0.007743314212017356 
-0.04487319116681409 
0.04033327362906118 
-0.008270911995679238 
-0.03110373749745809 
0.04410101534370058 
0.02303961308624713 
-0.1079891370725247 
-0.02130723735347223 
-0.06429848314011249 
0.1292623708899975 
-0.01897850438308335 
0.01418586998113758 
0.07245484741204418 
-0.04548688328315603 
0.08319822992164916 
-0.01895903929341817 
-0.003028922150669064 
-0.06983540638722606 
0.1074733752608286 
0.08215201122793306 
0.05756472559644699 
-0.0294332978096343 
-0.1697280180950776 
0.152612672633731 
0.04672448575723015 
-0.01684754858037238 
0.03122375825109189 
-0.1203959641084842 
0.006330565388119995 
-0.02138030703414278 
0.0004202695871359366 
-0.06633596835127968 
0.08848553564341458 
0.03270118309766583 
0.01102125054789493 
-0.0607553169956481 
-0.03544142745599195 
0.05946263370927708 
-0.07514895985569066 
-0.08240300053849996 
-0.06252073918115567 
0.0320934338472343 
-0.05768616066903173 
-0.06677791249245141 
0.09031719718446719 
-0.0859608875574016 
-0.01752667374414752 
-0.03577133197304612 
-0.03266356026233627 
0.01659731010140542 
0.05774503209096651 
0.05882403363350711 
-0.09540313862424897 
-0.03255163666200091 
0.05536923636507877 
0.03037434567897332 
-0.07692505865086743 
-0.04356528625475248 
-0.04007528968850455 
-0.004695894391443097 
-0.0123977754908512 
-0.04376205455240013 
0.04827527590236609 
-0.009450330404249179 
0.09573165755094347 
0.0166934380087151 
0.03416196615181859 
-0.08226567690932658 
-0.003858674483662976 
0.02821208309960837 
-0.1071677011041999 
-0.01205794776611059 
-0.0573413622380554 
0.1713901446980182 
-0.04343769013171159 
-0.04393275007992206 
-0.01096592728847224 
0.04672949819278052 
0.00783179650862125 
-0.1527649505425343 
0.04854357444684044 
0.02006878363653848 
-0.08077481925221792 
0.1410664272966618 
-0.06122926409942704 
-0.08297727580285311 
0.03940864326357065 
0.08621822781181625 
0.008536258616127192 
0.001754367979946167 
0.04892145432328154 
0.1363613455741461 
-0.01789528236477065 
0.05911920988758765 
-0.1047141706810917 
-0.03836206387597076 
0.01420868338059755 
-0.1751792932873766 
0.02218295956832669 
0.05861986240880395 
0.03506605237930751 
-0.1297001547346181 
-0.07962241014637546 
-0.01512816370937374 
-0.006797352690485293 
-0.01544113531524918 
0.09150584303267706 
0.08400909780503711 
0.1091922909384354 
0.05198641674288508 
-0.0189632121556308 
-0.0384581559602186 
0.1208432560804921 
0.1217647514472555 
0.008366393425531459 
0.02085661585360542 
-0.05882366123829372 
0.09018100274474287 
0.0343836399606854 
-0.1058914223090327 
0.1475111345915507 
0.04158624252213117 
0.05559794216003312 
0.04123937989677204 
0.007677250109552826 
-0.04196635964332134 
0.179065124663539 
-0.01008441680528294 
0.002932917924959196 
0.02141331931916731 
0.1180981426319204 
-0.0009894545006987603 
0.0952586373908902 
-0.03956191714588882 
-0.05650098712086987 
-0.02358555629856921 
0.006044071039569028 
0.006542762678469715 
0.03360760325785251 
0.1160589234252296 
-0.02602371133210164 
-0.0186115309414695 
-0.06648758683345703 
-0.009300528334618356 
-0.04183891552190089 
-0.08712054531144804 
-0.008858119630179784 
0.01564328842719335 
0.04655319660697919 
-0.03010683517926394 
0.01144007319786843 
0.06623397573300011 
-0.01383712244085269 
0.092232401023342 
0.06732372070643738 
0.03952791049605443 
0.06363510746712379 
-0.0183173194857404 
-0.01111234301822628 
-0.109602526076055 
0.004595458710907185 
-0.06218330730294248 
0.1677389026080973 
0.07368841459987538 
0.04989717045901251 
0.003206003712535762 
0.007191755777964967 
-0.03018151607600346 
-4.797058646555835e-05 
0.05522278577795622 
0.06836843843701675 
-0.03253183902047226 
-0.0445425929562742 
-0.02193563205509472 
-0.006593134359880195 
-0.03960344735719678 
0.0361815716428963 
0.01406656220726082 
-0.04849449834393593 
0.08256022873817655 
-0.0459274734453068 
-0.08648157936901871 
0.02391909131172967 
-0.06529361628430248 
-0.04828279044607494 
-0.0006924905099759613 
0.01009112333671069 
-0.06373165541590194 
-0.04202923250741606 
-0.1227939016899992 
-0.1573751438764356 
0.07715147697059759 
-0.0402405365016506 
0.09494488915987638 
-0.0677063054938456 
0.05839467172164593 
-0.01812160695052397 
0.09397405695882134 
-0.003057782095228591 
0.0567816638992685 
-0.004153248884660714 
0.01941585211843292 
-0.04969417238443112 
0.02508219828733093 
0.1096236125076247 
0.07016881497412475 
-0.02440831310631239 
0.06583772637786993 
0.009865728491236249 
0.07826159151209695 
-0.1361312038950647 
-0.1137542501223346 
-0.04560993004633342 
-0.1041648858845291 
-0.04657738034220897 
-0.08674374471503617 
0.03614981858959809 
0.06606053730268779 
-0.06523421089031906 
0.04223774180357536 
0.002693720706411933 
0.000466223860051705 
-0.02251972655486276 
-0.02205756813865762 
0.03593122656459938 
-0.1474889858417974 
-0.1298279510158293 
-0.01332405346340661 
0.07347694714598059 
-0.04802299676753039 
0.001819051890085794 
-0.03761908852263062 
-0.01156093241770354 
0.06945457441909009 
-0.1256221575946786 
-0.05353721358089428 
-0.02720439032078052 
0.03256077126113123 
-0.04834059339730645 
-0.04940666470446844 
0.06476834380659043 
-0.02122610627979299 
0.06265703696759328 
0.1197973902804971 
0.04680473093577053 
0.04906693772426925 
0.1116880424330398 
-0.01610770955062294 
0.1301892327188508 
-0.03068388121439789 
-0.01019007776997623 
0.0373835917764227 
0.07870220622878264 
0.03232523549294362 
-0.05967898675260742 
0.04963411750705953 
-0.04620515592369444 
0.07132611290478763 
-0.04381857155089263 
0.0854836247712247 
0.1007184740454116 
-0.03647716946885068 
-0.0721723953883784 
-0.06926986806423774 
0.0765200802559972 
0.03332836433484281 
-0.03724183278315883 
-0.02732837408099087 
0.07027201105216412 
-0.09521533950188374 
0.009907812709115024 
-0.08835705045798556 
-0.07837518273867228 
-0.05951775398719474 
-0.08848572175340363 
-0.03977157037169092 
-0.08273335182122522 
0.0226952680645498 
-0.1135620130016793 
0.03868584928768733 
-0.02144948610110743 
0.07361967878658743 
-0.01638462498613155 
0.01455746043128807 
0.03890267776073887 
0.03184635050840056 
0.007712366924453012 
0.01364929813037145 
0.116344893072847 
-0.04696825001160478 
-0.004658882526526085 
0.1029992390652568 
0.01692610508797054 
0.03889149182410073 
-0.03978266266649984 
-0.04937214129566067 
-0.008433107213074562 
-0.002837169087672137 
-0.008269658347609163 
-0.04838098728083182 
0.01065912505125242 
-0.08936762887373183 
-0.02427951737976334 
-0.09155352377522893 
0.07804251606596697 
0.05409971622199278 
0.03500328083978998 
0.030776462259554 
0.01532325244106857 
0.1077110895502594 
-0.05344083494821111 
