solver_type L2R_L2LOSS_SVC_DUAL
nr_class 2
label -1 1
nr_feature 28425
bias 1
w
-0.02591821157175688 
0.0213893978491513 
-0.02100901089535136 
0.02968485384673639 
-0.03388338051399187 
0.07253515997254288 
-0.01802514565087433 
0.01742111186988825 
0.002341403520656484 
-0.0008402035022437364 
0.006779678345416706 
-0.006251277706840139 
0.0292552968341017 
-0.003994730411047516 
0.03202857333869436 
-0.01383067084696847 
0.002672335328084938 
-0.003176445700049795 
0.003904173676974442 
0.01463029011736523 
-0.03668503980103674 
0.04881387720481012 
-0.05469688388057876 
0.0471988369093296 
0.01425106451160457 
0.03626199149620201 
-0.004861727040424688 
0.02799216702450121 
0.003696092514618028 
-0.02840502233316948 
0.02294909368683176 
-0.009696622098956836 
0.01253842264162304 
-0.02310942652145782 
0.01427334440654801 
0.01403336837242555 
-0.01752055616064999 
0.01734202257128001 
-0.03951379817579363 
0.0551849179042759 
-0.001138417169526771 
0.04693756397489 
0.007523108508766658 
0.02499272191241624 
-0.03562159281843336 
-0.007619383654512498 
-0.00524112200736065 
-0.03678436089772705 
0.007975068824728921 
0.006295791825688736 
0.01853751963986974 
-0.02963525608817351 
0.01226465114465764 
-0.001708098070288468 
0.0005184072957779172 
-0.001540443294583545 
-0.005717899218969012 
0.05649657630996278 
0.02343802441420548 
0.01625867264175255 
-0.02471598641568279 
0.004755505840980124 
-0.008111707569826779 
-0.0307321919388665 
0.02302929645322047 
0.0162715659647776 
0.01139161444135554 
0.0006697901478470727 
0.01187376062624537 
-0.0298922922875187 
0.007581537975158334 
-0.0232370110090446 
-0.009595500149128832 
-0.001032416043175483 
-0.002422450581184538 
0.06580980986300269 
0.02313271911470381 
0.02733060941178054 
-0.04986752815660922 
0.009361364221509943 
0.009032719860755418 
-0.02375815191599603 
0.02054446146518271 
-0.003439904732382925 
0.02819917016652183 
-0.01483577374868893 
0.03255617666669152 
-0.03216144879997079 
-0.004355993341770133 
-0.01229234389116113 
0.01821522296331667 
0.007103668667006889 
-0.0113746681575754 
0.04550166317160444 
-0.03966661353679017 
0.02093928581361401 
-0.03752954218199141 
0.01006798662397556 
0.02101809869199133 
0.004148664230257897 
0.01328737946981401 
-0.02745172019002329 
0.01412266660460974 
-0.03744899209091149 
0.006650891989566888 
0.004688507743217755 
0.01006902664810566 
0.01014342925686891 
-0.0190159081790624 
0.0007470659614746243 
-0.008184106349497365 
0.03659536026707493 
-0.008817865926677441 
0.03110626415942203 
-0.0266042033616486 
0.007672918355525821 
-0.007039653419485066 
-0.009540760813802375 
0.002145962812296488 
-0.02313872108683608 
0.01223050491751646 
-0.0013651023455644 
0.02045393232394191 
0.006461354007342244 
0.007466781869826127 
-0.005278511942529013 
-0.002992882750667046 
-0.006624269016446738 
-0.04518601332679965 
0.02238941888585585 
-0.04474081426493076 
0.01469903857428548 
-0.01107309324571918 
-0.001751955561355264 
-0.03670981978338751 
0.02317524697818147 
0.02591148748747747 
-0.02412887792935798 
0.001681843124905873 
0.002392617847662975 
-0.002393499403781081 
-0.02378617968770519 
0.01439675257050142 
0.001600023639100865 
0.01317401830174989 
0.01371119780736972 
-0.03461120251321067 
0.04056126551621822 
-0.01393785157304591 
0.01485287075935982 
-0.009798921505599715 
0.001500372983859431 
-0.03257079773562992 
0.02195505090272995 
0.01608301955558214 
-0.02095183919347215 
0.01018415595262135 
0.02202700462085269 
0.007315635214570987 
-0.007901955612241648 
0.0122880300480237 
-0.00953353900935423 
-0.01665126706499074 
0.005177812216610755 
-0.01569216212535056 
0.03079074768742519 
-0.01104504733847309 
0.01237450631990487 
0.002872917885931701 
0.01948737983216551 
-0.008831619269200359 
-0.004239139081033164 
0.006361249255841537 
-0.005968591559605377 
0.02082424218770952 
-0.01843336484442467 
-0.01782293634527026 
0.02409568546392149 
0.04335373992111217 
0.004523594972830216 
-0.01385867646760264 
-0.02131766682443689 
-0.03580922424236376 
0.02878094189467344 
-0.01708552857412839 
0.004177201578650402 
-0.008438783645841613 
0.03006138555099114 
-0.008146738510749077 
0.001576347583193932 
0.003407340986012359 
-0.03093886680465316 
0.02916887947813744 
0.0001829991011709455 
-0.007240825060680933 
0.02186375857717395 
0.02793344667262236 
0.003632830553439512 
0.007905992322273764 
0.01242951764963339 
-0.06141551986210109 
0.03128208060881853 
-0.02566757781884786 
-0.003040298530242319 
-0.01464229389545805 
0.03320918731264624 
-0.002918433061601871 
0.03973833202302818 
0.03945820644734205 
-0.04255273043417091 
-0.003594337849752532 
-0.01901166513146007 
0.0116873116202588 
0.01532905300208975 
0.03634281134972471 
-0.003050305597440356 
-0.01645768767943019 
0.0176894818689701 
-0.04560125872659194 
0.06160815027028969 
-0.0352182817919646 
-0.001839189459484246 
-0.01816688609977559 
0.03995896480205936 
-0.01166688410098315 
0.007490402623121088 
0.03863232724985841 
-0.02523139441536089 
0.02364871782486993 
-0.02574400639322354 
0.02164813689161455 
0.03257384745168207 
0.04425669585380998 
-0.02854349912823518 
-0.00446060887594027 
-0.01987789660917947 
-0.03206088422996432 
0.04093320561561539 
-0.02787128180657853 
0.02270970783516549 
-0.05169108958296714 
0.01655971780466741 
-0.006010846918751088 
0.01961117954420607 
0.004283336176751034 
-0.02399864018930468 
0.01513291307773912 
-0.03951746351876277 
0.01127506168985535 
-0.01953731671075501 
-0.01333623464037471 
-0.009220565282618465 
-0.005760705005783395 
-0.01992014615246086 
-0.03861383688926802 
0.02641479726634979 
-0.03837449198352864 
0.02774581364629329 
-0.04505414398781824 
0.01497662875853777 
-0.01745646418738692 
0.02081657234789409 
0.008453576414395581 
-0.006348396499586019 
0.02405852880897806 
-0.02230589414991771 
0.009861933401229251 
-0.01119046750782078 
-0.007791564499277457 
-0.001648235131968907 
0.0249619598302647 
0.01903795592379416 
-0.0280173405536147 
0.0009506281998910644 
-0.03386244913995907 
0.04192978152485363 
-0.02555207868570438 
0.0217350436952133 
0.002065563399296308 
0.009043538657254536 
0.02988816767267398 
-0.02237891451367638 
0.01082391555000415 
-0.02149332812007795 
0.01657875768272345 
0.007138657278127696 
0.03079777176607471 
-0.0117508689980265 
0.01189810444910504 
0.008998720550142274 
-0.01974926663002607 
0.02730957801211483 
-0.02479684178802744 
0.04631063011768934 
-0.05292557601553231 
-0.008298613282879126 
-0.02575265009945195 
-0.02437721623713204 
0.02193457508785641 
-0.003913127646347697 
0.02559787177011711 
-0.00655262822056935 
0.03872586425200533 
-0.009763075784820935 
0.01466552840555402 
-0.05200130329150442 
0.065929311480593 
-0.003180849208781326 
-0.01765584512203796 
0.004518585164986741 
-0.06167413317054219 
0.03617398349829242 
-0.04541445223068806 
-0.02617606487634031 
0.02808922092989299 
0.01203604087751804 
-0.01742603508545886 
-0.008326696181080855 
0.000985816843644242 
-0.05468632973120043 
0.04587867331006693 
-0.01831895457217895 
-0.00910025970851859 
-0.004967034945309519 
-0.0005153086569923681 
0.005829028114479204 
0.0002622049664908632 
0.04743850452239695 
0.006359191836386521 
0.02300141194920076 
-0.0002051540665016378 
0.02940065950390868 
0.0002986734381680824 
-0.0266663168072757 
-0.04340913877586514 
-0.02534957396325825 
0.01369611000171082 
-0.02416163561957866 
8.07074599112251e-06 
-0.01382721647450049 
-0.001859047846530288 
-0.03442950452665996 
0.002008937192665996 
0.001164114570734516 
-0.02832811621802279 
0.03206977460909582 
-0.007471314492748061 
0.02542592529834041 
-0.008499511861968163 
0.02929437382305564 
0.006230494660976349 
-0.01291678586688604 
0.03584692678861814 
0.01665393913069212 
0.00872501782371634 
-0.01594179009328189 
0.01173738959962369 
-0.01727090685900676 
0.008977830338715 
-0.004538985169848559 
-0.02862455282077441 
-0.01467489513269015 
-0.02925239694770378 
0.002218582222963318 
0.013688254116258 
0.02135155711415142 
-0.01297897971055909 
0.03548268042143178 
-0.01963140533995242 
-0.02974049084688056 
0.02481454070962391 
-0.004385538479676026 
-0.0065542734071255 
-0.02312062234444939 
-0.002239140411198566 
-0.04030376727918841 
-0.003862317534731496 
-0.02382902174930765 
-0.0256882683861845 
0.01196252857090449 
0.01775273609094783 
0.002643719803542284 
-0.01131890511999654 
0.01049560786717335 
-0.01775718076401937 
0.01949257325590041 
-0.02603181430283706 
-0.006120223546227299 
0.00817385414902924 
0.006406542039077523 
-0.005560542172700934 
-0.03002429668536797 
-0.009752255319638801 
-0.03299500408738459 
0.01966593421481736 
0.003518992030219188 
-0.01954362975045783 
0.02265528412430369 
0.003168897494489353 
0.01487679290913503 
-0.02851126176109266 
0.04178249259748425 
-0.002949602055753734 
0.01329322185183085 
-0.02459938284401794 
-0.01351526591323144 
-0.01439366516090175 
-0.02932234544328657 
-0.01052290204986377 
-0.04008246893834742 
-0.001225050640817036 
-0.03710867805584334 
-0.003347001214506695 
-0.01256628032917695 
0.02056087109831578 
0.014725720789271 
-0.02856373906510261 
-0.005017456487607832 
-0.0308345949494136 
0.02143136322756121 
0.02341092092293217 
0.0136433503310267 
0.000547841894125869 
-0.0008479149704169761 
0.006919665712190004 
-0.03156563286427775 
-0.007394240307611206 
-0.04737809101805918 
-0.005809917940596793 
0.01616594071661278 
0.01199032887275966 
-0.008044129575432589 
-0.01668815957778491 
-0.01101788058586776 
-0.02016203173123655 
-0.001434568830417784 
-0.004001591971727276 
0.02623837767458687 
0.01119794811612481 
0.003460071124735386 
-0.02268118250939627 
-0.02568703509809055 
0.0006357488156767358 
-0.03511591167080278 
-0.00262766892380151 
-0.03802194840664548 
0.005020973487003443 
-0.005382152595621675 
0.002267031779639836 
-0.02611078179462557 
0.0185815409801487 
0.005008151858982031 
-0.02162640403004628 
-0.01910612883801156 
0.004734906898936186 
0.009017017631175267 
-0.006497760693009455 
0.020635732879963 
-0.003546739197470687 
0.03818813738449883 
-0.0004763873736506847 
-0.001730957861522999 
0.0005032901022076233 
0.001270319732191122 
0.005927414192676108 
-0.01118696078091889 
0.02268744974469989 
0.008078702855905728 
-0.002084299059891255 
-0.0172809685717693 
-0.0203534168799613 
-0.003728794607334456 
0.01532721622147696 
0.006958938230513725 
0.0035429490488198 
0.0008160987634128426 
-0.01679525712743944 
0.02175159832831012 
0.008333088787477126 
0.0120704464326471 
0.02702507175521126 
-0.003494978004250326 
0.01549036937924611 
-0.03037844679374312 
0.001901516453541214 
-0.01360878889568559 
0.006225346951408521 
0.01832695727056638 
-0.01110433919237397 
0.02055521744944324 
-0.02298722739181726 
-0.01248232205460207 
0.01033486237189854 
0.03258061380202534 
-0.02619088432311609 
0.002517171412617122 
0.04222712619017612 
-0.008631458219507183 
0.02835699535580872 
-0.03909269809881546 
0.005758750867464448 
-0.003943333227097524 
0.005342862394546752 
-0.03943153428380947 
-0.003442015925519981 
0.006993891153590139 
-0.01754115331102623 
0.03195862764823679 
-0.02529292905735537 
-0.003473490694403428 
-0.01029785709688222 
0.02825950378487604 
-0.02928800021160503 
-0.03741182634420576 
0.01198384087702731 
-0.0200783058840104 
0.04066768130114622 
-0.02348080233377682 
-0.01517829728510962 
-0.01616102771844638 
-0.003627414507977622 
-0.05119417374362738 
0.008157907702239382 
0.01720959833972334 
-0.02776177061974749 
0.01421169131055851 
-0.02589133089132983 
0.007200487755813779 
-0.00812129598874093 
0.05501040888058617 
-0.01407810070838209 
-0.01702091947141951 
0.002900517135808551 
-0.02740614141478421 
0.03009355326385571 
-0.03280593007779343 
-0.006927367625442122 
-0.01751181791548622 
0.01527863471664298 
-0.01563569466096106 
-0.00413728637290157 
0.02328684008516787 
-0.001547167091092053 
0.04230325125002467 
-0.0209533112309723 
0.01053094140380397 
0.0008540745739476261 
0.03992835170035071 
-0.01874548550346309 
-0.02996475542465726 
0.02341861923858931 
0.01879214732820321 
0.05220019396634508 
-0.02826799179158694 
0.01953610974375687 
-0.02649455287642365 
0.01778034184911087 
-0.02050234308519594 
1.532759043614165e-05 
-0.003283843279302266 
-0.01938293960536798 
-0.001965266658925881 
-0.02985458060704004 
0.01762053067275576 
-0.007983847954211464 
-0.008979105287004699 
-0.01250542611085141 
-0.03116347633675005 
-0.01193633446202804 
-0.01975902180611199 
0.01060645334192878 
-0.03249712239920267 
0.02434092022344874 
-0.02415720602737958 
-0.03828843563073691 
-0.02021587766855685 
0.01141374964434306 
-0.001006945375129822 
0.01657294325473751 
0.004218419302624263 
-0.02079751728995072 
0.01708224655882189 
0.01181484428288153 
0.001856115759147144 
0.00159508980315291 
-0.02267049131064424 
-0.01329218881239463 
-0.0273556510299139 
0.007244210493359453 
-0.01721826868139389 
0.03805960559500571 
0.006960727892503849 
-0.02653123892552228 
-0.0227637624015407 
-0.01058274728608424 
0.02956853923846407 
-0.005477039534511429 
0.01937893742694789 
-0.008579970905431692 
0.01192869928924121 
0.009363386328735315 
0.02513881956752677 
-0.02044690191421423 
-0.01393695536148309 
0.003491675859986956 
-0.02744568811362403 
-0.02702756680389241 
-0.01740689303599141 
0.01302101887018754 
0.0007581715673206663 
0.01224143684394932 
-0.03024847120721495 
-0.02533622078363927 
0.02162339192087856 
-0.007605685130050798 
0.02023101472066113 
-0.0005317066438901114 
0.03105792265029799 
-0.02360363428463632 
0.02616961126641883 
-0.05208057760049642 
-0.02243542641616254 
-0.007236653203721161 
-0.0335609471932305 
-0.01087187856646453 
0.001891365015927285 
-0.00203722319322221 
-0.00977091410872126 
0.005429774724989274 
-0.06739915401534732 
0.005675756492953274 
-0.007818104778326824 
-0.02410020064847078 
-0.01201487391430061 
-0.03108890557399406 
0.04511856666362354 
-0.0181614375953036 
-0.005287748948897546 
-0.01468019237830192 
-0.02238719233193833 
0.003361030558253409 
-0.02280198747647716 
-0.01165920702820614 
-0.01792139808856558 
0.003930758479521453 
-0.03233260741549266 
-0.02855842950184488 
-0.01598487407432949 
-0.01033437222889393 
-0.03952796995815851 
-0.0321467371794662 
-0.003201573371631224 
-0.03838876034983635 
0.00989728608203084 
0.01325199474015521 
0.007234528799558135 
-0.007744226958500184 
0.04106034737464855 
0.02092034878050712 
0.005148873383253328 
-0.009260829490770006 
-0.04140270544907577 
0.007019297337575561 
0.01897671852837373 
-0.005487182742437229 
-0.01064907168170358 
0.005701136166735368 
0.04308993608859066 
0.01827713796603378 
-0.004262536461163906 
-0.01948771861525126 
0.01076213462680782 
-0.005057935453612558 
-0.009280929143206402 
-0.008524953593093926 
0.003313060029881341 
-0.0167967202112183 
-0.00937159072613066 
-0.01113133756688683 
-0.01244795626123628 
0.007594271948574215 
-0.02471341796311258 
-0.00507771274890458 
0.004162119084502524 
-0.003786421591749385 
0.02559955452309807 
0.01916071679730789 
-0.006930313806273194 
0.0005891588920760854 
0.009664988172838914 
-0.03083236126860155 
-0.01551780172277988 
-0.01602646489811595 
-0.00825610959529339 
-0.02525659074397975 
-0.005556631483967851 
-0.004831951934948307 
0.002073213920052447 
0.01354692544035299 
-0.03796050070666783 
-0.02667899592052231 
-0.0001170134473074268 
-0.002110993551780521 
-0.008804646469393282 
-0.01421672190793918 
-0.01573740422482688 
-0.02428944990069213 
0.006450571110138035 
-0.004623524138638034 
0.02567559420324649 
0.0268459047776931 
0.002219152255192779 
0.01001890775361798 
-0.02241001893383798 
-0.009438780701688458 
-0.005044883238042187 
-0.001177929693104658 
-0.03355024592408817 
-0.01189310012584194 
-0.0168395472097977 
0.006382912840621717 
-0.01231539995784404 
-0.0130623508436906 
0.003996584675664651 
-0.02589138974543811 
0.01452945757269691 
-0.002828611872624016 
0.01570912589275256 
0.02119566812172043 
-0.01785945948751568 
0.01187071300994816 
-0.01432289150758743 
-0.02133019954034355 
-0.03863575544724632 
-0.0006148489681393656 
-0.03868873698813671 
-0.002303740903603242 
-0.02320799880060433 
0.04850039380232991 
0.008129508249852554 
-0.009624127422341415 
-0.006452363779462477 
-0.02437302397920329 
0.004530110029147513 
0.01222143357737236 
0.01293145953703471 
0.02683683471398642 
0.003775032579806043 
0.009333455586674425 
0.01424074867463944 
0.004579445352950556 
-0.01908219897644554 
-0.0004518138399173029 
0.01819572668359533 
0.01888995608027545 
-0.008515800916226737 
0.004019726637906386 
-0.006143423124019053 
-0.01610208899833162 
0.01530117119253892 
-0.007072445097593429 
0.02076728631285468 
0.004671468750491705 
0.003358386651530574 
0.002608780125751866 
-0.03187616392013914 
-0.001967599903836388 
-0.003713392843748032 
0.001482362387185283 
-0.009731808333142954 
0.003555861258763257 
0.01343921731718811 
-0.01242485725277081 
-0.02504711530571022 
0.04728148991800798 
-0.01118995647047429 
-0.02208090506995911 
0.01890899189308187 
0.005165092763397564 
0.01253045745272698 
0.005663252223919351 
0.02217352851551046 
0.03873640090100416 
-0.00905719729277768 
-0.03454809698877914 
0.01134128547673356 
0.01890496919722189 
-0.004083051789590116 
-0.02407542368854371 
-0.05407762389405465 
0.006083595849592474 
0.03981970890052035 
0.03092432532054055 
-0.00541642498854938 
0.0225780722252064 
0.05764742521580345 
0.03129792236189816 
0.03893855523089193 
0.02415671127191281 
0.04611539518872521 
0.03928829719158799 
-0.05473505603397683 
-0.04915927415331274 
0.05442655259474006 
0.04109990555511946 
-0.01596224934833695 
-0.04812611265302302 
-0.04481749014844726 
0.01086184228316566 
0.009990677854200257 
0.0463201399901251 
0.001038711773790449 
0.003010902304458241 
0.04208109958442825 
0.01218036059585929 
0.0272096620369823 
-0.01212559089801702 
0.03162781290443097 
0.006690682424943691 
-0.06031796526696609 
-0.09072603061964164 
-0.009380622396745041 
0.006094126020422422 
-0.001908883662714457 
-0.07911093867252705 
-0.0475201225829768 
-0.02577418234753048 
0.02095877181461971 
0.02853079312434027 
0.00606780994082296 
-0.003851684749312326 
0.06591808873573407 
0.0369994317371754 
0.02610672636202803 
-0.02983775283588782 
0.01407132508806255 
0.01377980467307376 
-0.03685585975322297 
-0.08701839855470526 
-0.03873505327660366 
-0.03023831235066397 
0.04981290050241652 
-0.04993319075720644 
-0.04134934810076481 
-0.03235663432929274 
0.02665299257996485 
0.02188331024907767 
0.0429735938211683 
-0.02155008029130617 
0.03521247699120783 
0.03732441191554092 
0.0383173887790856 
-0.005404128399247577 
0.01882973187228084 
0.01359084293062659 
0.02810962301677365 
-0.01068169882368033 
-0.05456337064354014 
-0.0773137749319449 
0.05141097132116573 
0.003409615961764559 
-0.0464047906586781 
-0.05255631814515276 
-0.02766681627162844 
0.00719880775498824 
0.04464524964609169 
-0.02444343274102992 
0.03251117365462632 
0.03108715118632429 
0.03204836856625219 
-0.02207773646491874 
0.002274812347369995 
0.007217331226915372 
0.006657998719453825 
0.008553409429601287 
-0.06923862363415284 
-0.07399736798305276 
0.007997333762316353 
-0.002128668282955079 
-0.05663163417067849 
-0.09568134282529554 
-0.0534972740193634 
0.001648378518557058 
0.01926347324859484 
0.001407701742782407 
0.01243723584866861 
0.006900078907369743 
0.06348445386944204 
0.007711267456278858 
0.01604038299955186 
0.01729108526532404 
-0.000376164647782591 
0.05019243677758535 
0.02547494801574575 
-0.05295433590032212 
-0.003963335623145872 
0.02876301286814708 
-0.002241759818709342 
-0.03359898171802206 
-0.01500501242405285 
-0.02036575799557473 
-0.0007775689375030958 
-0.01561030683471303 
0.02009800191695393 
0.01098991760183476 
0.04913522848711058 
-0.01346462590262968 
-0.007875555466670943 
-0.02997318559581514 
-0.001543335771175096 
0.01932940492562724 
4.016638268616859e-05 
0.002732875328952854 
0.0002590582511569813 
0.02331959012613478 
-0.005896305982486913 
-0.03246427530595462 
-0.03514009193083507 
0.02236698997030444 
0.008968332655159793 
-0.02065103886800953 
0.009515328132938219 
0.003684365314332956 
0.01763437336429658 
-0.0182767369271837 
0.02378676726681146 
-0.01939806391294796 
0.00915217848488151 
0.02251718418854423 
0.01385926622850119 
-0.003587712145609381 
-0.003305109598189419 
0.0008630586154724782 
-0.008299573755669207 
0.03043258902367124 
-0.02329041621300984 
-0.009075452337129955 
-0.0102045015076217 
-0.02808002748207202 
0.01389810634299504 
0.01545741572808811 
0.00119542134469921 
-0.006305484231560981 
0.01436636474376714 
-0.05536789450172828 
-0.009026180070988135 
0.001850068318771899 
0.003598189073516847 
0.01509462786854208 
0.01751575726966709 
0.003909642900795477 
-0.0036514352749257 
0.01666285795984757 
-0.02527375374101763 
0.003634561965981166 
0.004721146938377382 
-0.004181978046262466 
0.01078518226739468 
0.007132290663662059 
0.01596354588669921 
-0.0192689425177678 
0.01523444737199193 
-0.02411971803461378 
-0.01695010337800426 
-0.02379806572541665 
-0.005024453156807133 
-0.001856315107452773 
-0.009980326652987422 
-0.01011514707612767 
-0.03969941083197844 
0.01770314659919778 
0.002287692434714739 
0.01320610324037385 
0.00640067206396534 
-0.001885339092769042 
-0.02247164497472606 
-0.02008522105387517 
0.003878330512817765 
0.02367098443694966 
0.007699038801675589 
-0.007444895991241814 
-0.02415336060424827 
-0.0158296177437085 
-0.01430489017454814 
0.01529701244074137 
-0.01059566325470742 
-0.008477169350837869 
-0.01077457361471727 
0.02454234657934278 
-0.02040755087675241 
-0.0005325606357054247 
-0.04207717082494085 
-0.01845991056658195 
-0.0210190925514489 
-0.005230408617775481 
-0.0159940060719479 
0.005649900045876746 
-0.001025278851633713 
0.006274074112474968 
-0.02115614018511611 
-0.02637650381350914 
-0.02898812674055014 
-0.02155208811859596 
-0.01010277104274906 
-0.02960288207686878 
-0.01987485884599492 
0.002326956126171174 
-0.01734615969585935 
-0.01521029990674207 
-0.04221546794904287 
-0.01518423631490113 
-0.01728689620529027 
0.01156870430414804 
0.01766024011285773 
-0.005718203114556713 
-0.007604347578866401 
0.01229144972288835 
-0.001145409163224507 
-0.006121170218008176 
-0.01210318963604758 
0.002894907869098902 
-0.0005773281601337945 
-0.02295488817105196 
-0.02650374063072672 
-0.03858846402518728 
-0.01745379012125556 
-0.00839806965194816 
-0.01417106945536053 
-0.02723211710744539 
-0.006385539781634917 
-0.006730383616418287 
0.01128296586463697 
-0.006678680407610194 
0.01483740583312218 
-0.002838359905128484 
0.01823052592876919 
0.01132364743541023 
0.005841865130028078 
0.0452529486701376 
0.008804613890426471 
0.005241947910427842 
-0.02772413205726099 
0.002967414910969485 
-0.01869788449538578 
-0.01927311459471302 
0.02192589893172269 
-0.01028694111835631 
-0.01804995773550097 
-0.03777725756241829 
0.01918688792700147 
-0.01063372156050719 
0.006070086870014494 
-0.01217198989064468 
0.001263408079175473 
0.02203410566658252 
0.009241467367515247 
0.02371726403645313 
-0.01150817418247043 
0.0115995007477097 
-0.03638002659392984 
-0.001188630267246562 
-0.02486331879355969 
0.01089897467291108 
0.01855288764709722 
-0.01315131041942983 
-0.01444626585396121 
-0.01469479446376228 
0.03819820692038989 
0.02820799514052951 
0.0299563028458581 
0.01311283324751836 
0.02900998291989329 
0.007012957640536689 
0.006081264980171682 
0.00287810237555695 
-0.02032795823556064 
0.005792657451466639 
-0.01394116744998442 
0.01296340091426482 
0.007851413165028751 
-0.02852848682924668 
0.00965737766450111 
-0.001156063902773822 
0.002679240678059852 
0.004586027192496993 
0.04656438926786416 
0.02814531609048458 
0.01609835029445616 
0.001244184928914274 
0.01439660685261441 
0.00361481745175499 
0.01568629130267919 
0.005117226569093912 
-0.02872116626300885 
0.005700023972989781 
-0.02978475186691041 
-0.0003566710562078877 
-0.001303507976666505 
-0.006861854578185002 
-0.03046243730832698 
0.008616561461096005 
0.007497787140194064 
-0.008859680554297195 
-0.01639680137013599 
-0.03112756623757601 
0.02880026791783492 
0.03246330461949778 
0.004893373495533422 
-0.02628448094337793 
0.02094270990150124 
-0.03945342350216175 
-0.02866970731392178 
-0.02618348147549579 
-0.04051414469361528 
-0.06403952380692964 
-0.03369966365999466 
-0.06215194238751402 
-0.04433287197332277 
0.06305144373950826 
0.03541439205760073 
-0.007201249013859475 
-0.02254987577076142 
0.001437660368252857 
0.02331567791190161 
-0.008621658451671723 
-0.02959449978688615 
-0.01326822693032255 
0.05307600685206398 
-0.0210411381341542 
-0.0232489803697974 
0.007218899928465536 
0.01365863188576993 
-0.04057425865250602 
-0.0873511978272995 
-0.0479389616925605 
-0.06281912994177917 
0.006378241218563757 
-0.01777872132477342 
-0.001609444644750569 
-0.04767227581019368 
0.002011415146645323 
0.007324351007041156 
-0.004544601874131024 
-0.008700556587217956 
0.004377573740955347 
0.05768138056366271 
-0.05914153283913066 
-0.02450258557841613 
-0.06069712950711747 
0.001139529325588693 
-0.03417754840518378 
-0.07410716478559341 
-0.03377136524026245 
-0.09796390414684689 
-0.0162938729374179 
-0.02734450364214872 
0.05721377543660528 
-0.03568495203176517 
0.01329534335930724 
-0.005156758001614698 
0.007054390285782424 
0.0080606252764149 
0.01028340601250085 
0.0682425019162302 
-0.0270504662170555 
0.01370770385369688 
-0.05670328767966509 
0.01277788590559773 
-0.03668878675823595 
-0.06790866418882605 
0.03783777313998651 
-0.005694926888347419 
-0.04605885114283139 
-0.08689408711844746 
0.02156896156950575 
-0.0004738514968417202 
0.01374358377807141 
-0.03669390010219564 
0.006257510506448711 
0.001858371169172938 
0.01593412219060703 
0.05476551422484602 
-0.001750815549949328 
0.005655836914997027 
-0.05501333727846391 
0.01410504925402715 
-0.03018042230858446 
-0.005064130149947322 
-0.00413756962890289 
0.006320861100405785 
-0.03057570151904075 
-0.07246984065313876 
-0.02679731028788835 
-0.01051044056920223 
0.003525237867985603 
-0.07160420222998302 
-0.04720246252919223 
-0.0409528761683221 
-0.003259451630023665 
0.03072530775158213 
-0.02019555399653841 
-0.02960899502061344 
-0.06941194717193087 
0.00607371773778785 
-0.03015919231478517 
-0.05200392809767315 
0.01548182549159964 
0.05292167073006828 
0.02495321679037804 
-0.06651259794879363 
-0.01894158944972698 
0.02892517995580025 
0.02926772888922729 
-0.01310435401990409 
0.006138163885477669 
0.0149507665147253 
0.03219896334430744 
0.0365493713419636 
0.001060294949371113 
-0.01520972368760405 
-0.04813011916979936 
0.0003565567091369673 
0.007406951348891055 
0.006497540831063013 
-0.03178633233665669 
0.01107816148304292 
-0.02417161073794595 
-0.0295276491263031 
-0.01457239381367315 
0.02109622240297801 
0.01128249282409873 
-0.02783899831928225 
-0.02819104356978084 
-0.0221005582393019 
-0.0008078216322230077 
0.02023632059517627 
-0.01114350735422895 
-0.01249496119964936 
-0.03872498031906244 
-0.03499996414720513 
-0.02475987930388409 
-0.01397461505122434 
0.00772678284841473 
0.01934449788875126 
0.004315202598826702 
-0.01085188321796583 
0.00406365438821312 
0.02469006088107762 
0.0111116325686759 
0.04674485064586879 
0.004693683876220786 
0.01779435524223766 
0.009336477280197415 
0.01473265237758128 
0.00696191559046304 
-0.000113136430069646 
0.0206574898940886 
-0.01209781372434526 
0.002303416437817624 
0.01788608079629572 
-0.01612542981632522 
-0.02972125462217893 
-0.02343645219942193 
-0.003113054218146753 
0.02954820184209384 
0.0171491080870382 
-0.004924762009535587 
0.02808735285537848 
-0.01364093377104945 
-0.008515782573340059 
-0.006592794388397042 
-0.003934995568130669 
0.01087169914607202 
0.01763416714966935 
0.00606320497134445 
-0.01007007928910921 
0.007281345156457062 
-0.01552065871920689 
-0.007270804856573097 
-0.04405397062272949 
-0.02114567116191492 
0.006872426072390102 
-0.00970030183463814 
-0.02115574621219382 
-0.02698483234043159 
0.02066566676028412 
0.01773158490955366 
0.01572112294978354 
-0.01924539386886639 
-0.01221121231926833 
0.0254885009111394 
-0.007170550228935576 
-0.02952182169375878 
-0.05265078050289457 
0.0301640347165777 
0.06132325479235153 
-0.01508727053211156 
-0.009981820083982462 
-0.02072710099970681 
0.003623614485959346 
-0.02765931405421976 
0.01716609860482078 
0.01642266475705803 
0.03297595999790132 
0.001126747508997303 
0.00373462310852119 
0.004773752784283243 
0.04091770101181456 
0.008931106960423815 
-0.03278227563000948 
-0.004186222979813577 
-0.009572164750674701 
-0.0421090853677169 
0.007763431901933174 
-0.02323745598551096 
-0.01630765931526526 
-0.01996206233148589 
-0.02862547627555401 
-0.03424381747103528 
-0.003876701166668694 
0.0149067237303695 
0.0131086584786332 
-0.02142363542463218 
-0.0132796780032455 
0.01607755665323161 
0.007275871085153224 
-0.03247933882001165 
-0.02223227915165128 
0.01730486151349958 
0.004445365309888382 
-0.01989654365847637 
-0.007640981826784278 
-0.006400246573523408 
-0.004062554873974901 
-0.005138125875390713 
-0.005937365530339954 
-0.0251848343144639 
-0.01016427038667606 
-0.009963587540092156 
-0.005431773999077022 
-0.02096040383171068 
0.002145942884352631 
0.00597493139350821 
-0.002040431511172564 
0.00859766908823145 
-0.003844963982107232 
0.0148755235900869 
-0.008848653998393975 
-0.0195585503770701 
-0.02508699856750611 
0.008309508712716773 
-0.01937772327180995 
-0.01738103739603447 
0.01754295345381247 
-0.01403199016441342 
-0.003583077289479952 
0.01735031194947549 
0.02627672238884994 
-0.005190813703726583 
0.02304008685849498 
-0.01847698955747636 
0.01910501706783292 
0.01799918274007068 
0.004083944230691138 
-0.02607980679675776 
-0.01110718268869924 
0.01071069705523981 
0.02793203139220685 
-0.01807289654623454 
-0.003099028839829598 
-0.003193735839188345 
0.01955184102176501 
-0.01218146668771375 
-0.001572074861401958 
0.004883029151310746 
0.03429483815836532 
-0.02375451613532702 
0.01552823306928474 
-0.030023906305668 
0.02657684739557376 
0.03440179747543837 
0.01947339173836742 
0.006588169421350135 
-0.00825490593564079 
0.007209970887914562 
0.0006172579914739447 
0.02111039427092719 
-0.004018135738356601 
-0.01837882041723271 
-0.0002625512122341627 
-0.008587182680813869 
0.01167924404034619 
0.01260776109535102 
0.03737116112441381 
-0.005361836241141672 
0.03035082569109818 
0.03652197820664189 
0.0107578389362306 
-0.003743659184979508 
-0.001622690780165629 
0.004195194976127447 
0.001393848379242901 
-0.01791138971233312 
-0.008479055066421786 
-0.0001065103171858137 
-0.01821764645526364 
-0.01605363167706059 
0.01389814331351008 
-0.02479923215392052 
0.01503186102963743 
-0.007421599926486342 
0.01427008943080935 
-0.01683895555627078 
0.02444755061327648 
0.02287770191120057 
0.00719349215212717 
0.004635855774447861 
0.01325560806044747 
-0.01223945587768137 
0.0009861296529473302 
-0.01813616775905761 
-0.02113156757418164 
0.007524476713327113 
-0.06615359556739471 
-0.003803851028185552 
-0.05338326235726629 
-0.0328536984015554 
-0.0236539035689481 
-0.02267853624869625 
-0.02056223520782415 
-0.04458726571797297 
0.03634005610473216 
-0.06151125368531358 
0.03486649624547486 
-0.006767697209718333 
0.01622341276381914 
-0.08830700306689943 
-0.05636445830368239 
-0.0122607203988042 
-0.02660814659398562 
-0.02510519206590231 
-0.06626370483975501 
0.03387043558277616 
-0.0437699671269285 
-0.02188194965795237 
-0.02988521068515475 
0.01699957930910172 
-0.007208846305219501 
-0.06795301944070037 
0.01684279409897388 
-0.0807087364589284 
0.05639887932812406 
0.005365242480098669 
0.05801441645259262 
-0.07251092588694527 
-0.02020861009873883 
-0.01153151125283996 
-0.02686998424114948 
0.009739995910736741 
-0.01877506217854081 
0.0196842228669695 
-0.08332190841872758 
-0.01632399866956362 
-0.05288338855579554 
-0.01645546591118919 
-0.05084205003242124 
-0.06310969927376191 
0.03902719741596648 
-0.04088292575331873 
0.02142925898861827 
-0.06587578494240033 
0.04994989731668711 
-0.06243422458384866 
0.006859236636270832 
-0.03139639853114976 
-0.03905220683838514 
0.01131184023937181 
-0.03061649431409462 
0.01741925348192013 
-0.06089374302317035 
0.01193566225669965 
-0.04252813042657575 
-0.004715207795072058 
-0.05003517510516595 
-0.05233630664481619 
0.02325078343475205 
-0.059818059843161 
0.02558934320150534 
-0.06401911059139145 
0.08562619508592691 
-0.04735377003894495 
0.03305441026643359 
-0.02355505015506711 
-0.01623180435026399 
0.01936828486022103 
-0.04580940046442613 
0.007259270733751816 
-0.03835658457390916 
-0.01065524115850875 
-0.05431110959536026 
0.02234458924653466 
-0.0380422724108696 
0.01277061056759313 
0.04864321514394145 
-0.03743426118491924 
0.02552706893038498 
-0.04789584884324685 
0.04640938553193533 
-0.0480562132491563 
0.04966338382627534 
-0.0102279359153153 
0.03048305079728478 
-0.0421021943930877 
-0.06219646197165096 
0.001946365682059066 
-0.03821381332916899 
-0.02248279511670607 
-0.07922527541984022 
0.0007519879399360721 
-0.04559779789273465 
-0.03163099029095495 
0.002548905962074823 
-0.03655284223042329 
-0.00741253543363663 
-0.06162035148481233 
0.01679181467401322 
-0.1092682049148174 
0.02687545498968337 
-0.05087363594724649 
-0.02551398968135226 
-0.01564798487918223 
0.005396928181420793 
-0.007598974911761857 
-0.03211355579219346 
0.01546354986971763 
-0.04892723960580694 
0.03315649972969412 
0.003192267599950527 
0.004287116251159951 
0.02233892824744762 
0.02595457085398899 
0.02532576583513206 
-0.03852661090919822 
0.01664814398547468 
-0.06329344944267375 
0.03658433384455021 
-0.03870800879813855 
0.002233890086132762 
-0.0355583236528079 
-0.03139695602002574 
-0.03393792185173215 
-0.03981108326225122 
0.0100465578253397 
-0.0527064224593456 
-0.009810509477921751 
-0.0100944878135859 
-0.01594977426537765 
-0.005270962611875379 
-0.01187558423567257 
-0.005389172676591903 
-0.0117593774858618 
0.03374252468177584 
-0.05887092977976998 
0.008705868603619493 
-0.04862810577239357 
-0.022428909428365 
0.01168672399673535 
-0.005055502872456239 
-0.01299315320218018 
0.00138818841303971 
-0.02041253574587073 
0.004413937449833366 
0.004145606514111998 
-0.003362882722348387 
0.0107173692110306 
0.01912783218652519 
0.000617521863191611 
0.00107763209961837 
0.02134047745866269 
-0.0380464907237193 
-0.04834008667373418 
0.02276797625517373 
0.006959634060829038 
0.01244333767088722 
-0.0007231318570441637 
-0.02542008181813675 
-0.007994394853626508 
0.005420262812948747 
0.01598778309037734 
0.01123093649295076 
0.02048871840161889 
0.01164385532302083 
-0.001543985674787466 
-0.008289596276678904 
-0.01701575402863166 
-0.005387543345612815 
0.02612405230849625 
-0.01247213148534632 
-0.02953536148586152 
-0.004540218374498851 
0.002891336599050579 
-0.01612647463095518 
0.03535135858388976 
0.0006346673647396982 
-0.03066655985892848 
-0.01112625545848287 
-0.004609867421039945 
-0.005355010757348956 
-0.01605653123333086 
0.02501795994716601 
0.04843703138919297 
-0.008429756262353616 
0.02307907279720641 
0.008109969753566712 
-0.03685338841339632 
0.00730467472948593 
-0.02646779323114636 
5.504947219908273e-05 
-0.0002488461041780183 
0.0002471122653726788 
-0.005753899883726996 
0.007714492951421517 
0.01833261742484123 
0.00880524780570198 
-0.02161086260898817 
0.004077106690550857 
-0.007414176636043322 
-0.03314175507465458 
0.01242220412951162 
0.02926403478911703 
0.03384768568203118 
0.02515530316275713 
-0.0008695038654163315 
0.002543298869227658 
0.04075251104847732 
0.008370908286515495 
-0.01834538979324223 
0.01255481466790332 
-0.01810120427525574 
0.01285070145919764 
-0.005983067021168738 
-0.03234213578776791 
-0.01623936268596851 
0.0303571757372463 
0.01216668201331184 
-0.02887221365767334 
0.01221456334244262 
-0.01469092693112009 
0.02661667088058684 
0.03498279397335511 
-0.02407914465239573 
0.001357666147861198 
0.02410148091248668 
0.002128849468788233 
-0.01730778534340568 
0.0178670904881614 
-0.02793749198537202 
0.005763079446337563 
0.004444564456273756 
0.004516268450943078 
0.01830621672748644 
0.02588004523384748 
0.01703363124502095 
-0.01980980385035915 
-0.01705806624108629 
-0.01442443091004894 
0.03749622003983542 
0.04029660544910398 
0.001522410769593644 
0.0346691943443464 
0.03264953460612535 
0.02057717078860834 
-0.01267695502662736 
0.01374471446984938 
-0.009245673240612196 
-0.02403861845827737 
0.003356861918064844 
-0.01468067073294133 
-0.01943013965012366 
-0.008177010445120246 
-0.003220337211358138 
0.01099214755597438 
0.02966349575819188 
-0.0007209431001179028 
0.02713473837437759 
0.026517736038686 
-0.008683396097566982 
0.0008677008804098849 
0.01008986299654089 
0.005630859357306924 
-0.03056355425431286 
0.01993302522189225 
-0.01398666523761844 
-0.04298197612946682 
0.004649363296481692 
-0.008927232758791698 
-0.01448282609659664 
-0.003852710417802767 
-0.0098422460401926 
0.01844161994143591 
0.005943937687161234 
-0.02881632867715946 
-0.001370494761130616 
0.02934624694599441 
-0.007915589388974287 
0.021166252212241 
0.0229115185047177 
-0.002730557836128069 
-0.03170149067399599 
0.0360279381045689 
0.02297575566769899 
-0.005166151275818764 
0.004325389555795743 
-0.02084596817326309 
-0.001905224802338707 
-0.01484982059804966 
0.0005024777399920572 
-0.00755139401609272 
0.00912834085362549 
0.02867595152840349 
0.00155461822251646 
0.03685362954644 
-0.003612996799379688 
0.01055476424398698 
-0.0208607680776297 
-0.00824060562493148 
-0.03458416186459565 
0.04470571155614136 
0.003984709513179437 
-0.02274094259309818 
0.01242989017194182 
0.01806488572495703 
0.01276530184185623 
-0.02629922700999827 
0.0032574255923524 
0.006204926348785175 
-0.02322822902868526 
-0.02725260166437394 
-0.01299580790762983 
0.04607951198648204 
0.02465347407091161 
0.00142112884142052 
-0.02755956291366923 
0.009861411704795838 
-0.02157211852334085 
0.01619545000436128 
-0.033621643974363 
-0.1155787606171325 
0.004956023190370237 
0.00647175787022267 
0.02925219450839765 
-0.1093545674901386 
-0.0356117870693906 
0.01297602775347689 
-0.02971466138438303 
-0.0135381020094101 
-0.03384679101981383 
0.04441108150777841 
0.03005966450305195 
0.01982380752841911 
-0.07422795345252124 
0.04788837071210436 
0.01281953130506297 
0.05643975515775784 
-0.06227688435942261 
-0.1337950887727286 
-0.005233536889600458 
-0.00824937060022554 
0.04379857167872628 
-0.1132713417117496 
-0.03021214083746358 
0.01157235755924746 
-0.03526981972724295 
-0.01351336371060672 
-0.06245520918344925 
0.03679759210474078 
0.02517831160431115 
0.04688152920395272 
-0.0399126842927976 
0.06772506404659019 
0.0368460304166161 
0.08121852418027224 
-0.01525600128910755 
-0.06787900717759801 
0.001798029299694567 
-0.09689016573513433 
0.03335725354811512 
-0.09353691768439877 
-0.000279965451722985 
-0.0377732847797584 
-0.0387632354883916 
0.05398353884806562 
-0.02494124250773066 
0.04554081175729822 
-0.02414111816118865 
0.0515578154640353 
-0.006667163803426331 
0.01952218742534188 
-0.01789699461393765 
0.06886100481448983 
-0.01142311805279264 
-0.07401280574712209 
-0.00833481045095236 
-0.09407603525727819 
0.06693048180336621 
-0.05850625906615787 
0.01234675858323925 
-0.03274631477176321 
-0.03225020040574268 
0.04793517302288566 
-0.04746714619295572 
0.03308050484767563 
-0.02801856605248094 
0.07929520989752438 
0.00415926332624487 
0.02544089966092034 
-0.02635002031345344 
0.05551792805522023 
0.007399290158050107 
-0.06405516231440299 
-0.02733294273274991 
-0.09905034524204381 
0.02628634094210531 
-0.06639500041462031 
0.03883522979033036 
-0.01980241350512809 
0.009277086140518698 
0.03183544522692703 
-0.0225147460315246 
0.04483981507668072 
0.001377666672887684 
0.1185421983855869 
-0.03730072126857162 
0.02491683088983232 
0.006188563527451633 
0.06785426951761464 
-0.01486147797774256 
-0.06278059043056435 
-0.02352118428515872 
-0.1074567666105152 
-0.007098704478914255 
-0.1283546969738417 
0.02172340336651225 
-0.06375656269690944 
-0.03690154881471863 
0.02502304040819098 
-0.01384288569576331 
0.03343108699107901 
-0.03366186900381623 
0.0908373251584171 
-0.04630354048291385 
0.02604137956201833 
-0.02318546705674503 
0.03512144258372901 
0.04598056191304242 
0.01374728425649161 
-0.03789531947539642 
-0.1108039013444909 
-0.03742554385974721 
-0.06470631316133575 
0.0412359599170878 
-0.08169938801626568 
-0.03913626010155423 
0.06732861103005619 
0.0259306698174847 
0.02174925855998861 
-0.07409733063365084 
0.04737249021941096 
0.02554750795818904 
0.07442013596654508 
-0.02394349089255731 
-0.002871288010008529 
0.007890972651360639 
-0.004997048631524087 
-0.03205222453541723 
-0.06791458246375011 
0.01131535614737226 
-0.04657194604858565 
0.0150772323608736 
-0.07932886392569591 
-0.05575620681539058 
0.04484922594762599 
0.001467813502100122 
0.01012663088683423 
-0.0676482467153811 
0.05181053559867868 
0.02316405898154904 
0.04565955248041964 
-0.06685852695709409 
-0.05685154813668127 
0.0004147073844336709 
0.01960487574294704 
-0.01100859780703299 
-0.02594158342161699 
-0.02240435740183343 
-0.05496574431108524 
0.01287419021756636 
-0.009073433922002751 
-0.007044528436780381 
0.03604481703690762 
0.00641623930151586 
0.03731836290735733 
-0.021323532135273 
0.009512061860656101 
-0.005111448984679134 
0.004812147393701655 
0.01295653138893218 
-0.0007316475250334496 
-0.02237310194540282 
-0.02384483789089131 
-0.001438937386205337 
-0.001665270333576579 
-0.01057476833746535 
-0.03516644027720062 
0.005825874227547045 
0.002430637412266527 
-0.02112430190155968 
0.03160848808375259 
-0.0005065098299831378 
0.02437828904509588 
0.01041610682392754 
0.05893395079458637 
0.004397535171227579 
0.004583925517409429 
0.01106651850170107 
0.01108290681411879 
-0.0183730977707589 
0.01033944393418968 
-0.007047174864093584 
-0.02882840585912552 
0.003175837071414399 
-0.03011623610491784 
0.01792653628490323 
0.02184617179411122 
0.0089833765641623 
0.0141579014066545 
-0.007989583575547477 
0.008985126374913633 
-0.01359662088483324 
0.004350700097531406 
-0.01456337159262595 
-0.02588287244291322 
0.01671150432905246 
0.006151146038181847 
-0.003751276447791047 
-0.00356434682503698 
-0.02027541037907713 
-0.01470262360201934 
0.01148659988122225 
0.04139490843904664 
0.03563717973451509 
0.0008004758638274915 
-0.001210380314921477 
0.005801549229511875 
0.01198145530999438 
-0.003966886395591018 
-0.01918077460841539 
0.004379649068106287 
0.01391649865883544 
0.02897577584414331 
0.02003827803130257 
-0.003054367242280177 
-0.02895159686956972 
-0.01265405960316792 
0.01501429922256829 
-0.05269444741135661 
-0.001405987711612184 
0.03360323509174271 
0.005638822280511522 
-0.01678653775297626 
0.01554773712871235 
0.01371927117309599 
-9.198604003645971e-05 
-0.003093820625587721 
-0.02453157171006436 
0.004796013626813277 
0.01636484786306156 
-0.02857250685037848 
0.01147259495963203 
0.024035791932532 
-0.01987592817369592 
-0.01344460679722659 
0.01344337525508417 
-0.03415363596997165 
0.02056817124530334 
0.0319117731594168 
0.00307606178378524 
-0.009627223729500178 
-0.003278002692521877 
0.01205285016824301 
-0.006228454452550111 
-0.004140004785593739 
-0.01072583259619178 
0.02823696332180666 
0.03898147515996537 
-0.02856119911492622 
9.532978248022131e-06 
0.03822732373644023 
-0.02326195559416264 
0.0337651894256464 
-0.002022338516894504 
-0.05476851570576257 
-0.02019626732122145 
0.01651764838609788 
-0.02604232435188986 
-0.01544466018326958 
-0.008577957398292967 
0.0320054605646402 
0.01494476888149071 
-0.0005327053605125155 
-0.01466113635782375 
-0.003200381927250366 
0.01341351762830478 
-0.01718539146505997 
-0.01724930680580619 
0.02045794961883461 
-0.03662272589764669 
-0.00561298700239799 
0.01515858576743339 
-0.04620522063256659 
-0.0005962645512459565 
0.02224228861964388 
-0.008976648267463302 
-0.01181735333420004 
0.001959391387844655 
-0.0122788732929452 
0.01042186244317015 
0.009176356679196277 
0.005413316868396909 
-0.016726527599616 
0.009547999991453558 
-0.01691871561497372 
-0.01894929424567321 
0.007154688427347951 
-0.01022367485181747 
-0.009699931406671261 
0.01600811496874222 
-0.02226380628255407 
-0.02069534883740469 
-0.03347575055841053 
0.000153150603840516 
-0.05692897096772083 
0.01501512835563649 
-0.005293029561319412 
0.01960172182476325 
0.009436380197536108 
-0.0004673039463722441 
0.002412292881608875 
-0.006294343210166328 
0.004375440680387295 
-0.01030195335869187 
0.02392895639642412 
-0.06414975083217178 
-0.02450749714421594 
0.01250457977243098 
0.01731930087614827 
-0.004221938204731 
-0.02692913264785796 
0.01872498235674896 
-0.03415038465014599 
-0.02786163881306392 
-0.03709785796401152 
0.001130125134300166 
0.03108164360565812 
0.01587411538417723 
0.01383982685739822 
0.00133518772257906 
0.01695443948435523 
-0.02910263706587648 
-0.01245655361816926 
-0.02415051724995973 
-0.03820229670285476 
0.01834117593408255 
-0.002338955789195553 
0.007580330763410788 
-0.04860488918944823 
0.06537217910947454 
0.02351551682098723 
0.0483270694607283 
0.01651185811177481 
0.01986830196230219 
0.03219691316352934 
-0.01006894523608064 
0.008356977107935147 
-0.02376825712496956 
0.01101435578223313 
0.005337222105704083 
0.03112656317398996 
-0.03912190989052589 
-0.07948995270008262 
-0.008791388082307783 
-0.0312863744950597 
0.01549202129227382 
-0.02635450662262571 
0.09923424645104134 
0.05977923424485911 
0.05344578355162025 
-0.004022242463453262 
-0.01907797406364281 
0.01840684653530636 
-0.04119002016381513 
0.007900924538265361 
-0.0248097453573546 
0.04545054570317118 
0.03113276728583411 
0.03744074240143642 
-0.01334375360662394 
-0.05568918656898968 
0.004157339229357724 
-0.08817417508487008 
0.02754029685966197 
-0.003317695388956891 
0.04584430401721257 
0.002195872918689763 
0.0584054643151388 
-0.02336150937116925 
0.01958388116753962 
0.03397661774428401 
-0.03414381872730262 
0.03113096557820194 
-0.0003916922302804597 
0.0308901060418928 
0.01434011746024362 
0.03544392900854458 
-0.01951028020106402 
-0.08128567763809121 
0.005211363978160012 
-0.09333354449966674 
0.03807152534654945 
0.02845886316927603 
0.0421090057106984 
0.007512662256505981 
0.04581517414304091 
-0.01912114118520386 
0.01188613367723135 
0.0294906568374633 
-0.05629921973695389 
0.02864835076330544 
0.01879039994158256 
0.05872968398076705 
0.02204935247596448 
0.03295335687493432 
-0.01407562334252305 
-0.06639988047214913 
0.004481534963652914 
-0.04966658996458424 
0.07075096948289046 
-0.01829147326093341 
0.06659606581433482 
0.02189156070736472 
0.06822179063925836 
0.02388564951021581 
-0.005696264312218754 
0.03202767788940641 
-0.00331730550540995 
0.02216967441164528 
-0.01166194691663565 
0.05475025295120146 
0.0422101934732051 
0.04498981425548851 
-0.01470493894936804 
-0.05457848293175957 
0.02203327504336106 
-0.07241389117424363 
0.05675143953523109 
-0.02059811388298782 
0.05332439933769075 
0.006871144799626494 
0.02733216721655025 
0.001573856531162351 
0.007919437585961218 
0.04033350797044979 
-0.003164869428382852 
0.0309642655293348 
-0.007191908731783208 
0.03995584220496873 
0.01904678765179311 
-0.001047630648295397 
0.02000157105799766 
-0.0296726572946598 
-0.01111387255428909 
-0.1307983598862389 
0.01508536436465031 
0.04015132593842181 
0.09533233100921717 
0.03752297665763783 
0.01775236053487935 
-0.03876546382754271 
-0.0298430156614033 
0.02591055204478094 
-0.04431776609357597 
0.01389315203102813 
0.01671167408647114 
0.03336111454002035 
0.01437138351928681 
-0.01915543857702097 
0.03269339187115285 
-0.03153647250561354 
0.007879922069177061 
-0.08101939865186289 
0.01461437408197144 
0.03953590745516782 
0.051939756367218 
0.005083381301750506 
-0.02867801375439823 
0.00500821675182089 
-0.01981848993459665 
0.03653576438610249 
-0.03267189381066872 
0.02193386022389327 
-0.00241761495763303 
-0.005513833147791272 
0.00251663631087073 
-0.01136924324236649 
0.03507209394702956 
6.177384472431309e-05 
0.02512241837387626 
-0.05241067562275176 
-0.03275341427245054 
-0.005014972529640621 
-0.004054051762698801 
0.02838896207598054 
0.008506780336201902 
0.01728654245492448 
0.03820139198744976 
0.03484482877814982 
-0.0650260035681916 
-0.01307578010624847 
0.007562255111324335 
-0.01759728556754589 
0.01872802965415634 
-0.01234812936830009 
0.003617680930610912 
-0.01028303452488424 
0.01038806146008705 
-0.0180238689003002 
0.04105474575165564 
-0.004141336684554136 
-0.02520342382928829 
0.00574625922852744 
-0.02007423703870682 
-0.01472481393758816 
-0.01162573680710356 
0.02857427552466919 
-0.02070765920158549 
0.03334883949597183 
0.03465996332919135 
-0.0131202354754057 
0.01916595777750658 
-0.03015996826285857 
-0.02021261480898861 
-0.01968748876674018 
-0.006287833875316797 
-0.01561802292640422 
-0.01997688583185851 
-0.01545419800134286 
-0.01732217020636368 
0.008901869070224029 
-0.000549587830261851 
-0.03102584896563266 
-0.04893106738977429 
0.03835983228241591 
0.01019659467243824 
-0.006102573419770477 
-0.004533000465734731 
-0.03392100821975434 
0.01515074986508742 
-0.001548774406732981 
-0.004159557671915478 
-0.0134493516589168 
0.009569748367347142 
-0.02278037400441131 
-0.01782774310099628 
0.02342730517360989 
-0.005713376798633079 
0.009667745994541637 
-0.01086934676170227 
-0.009410481202754263 
0.007825938573474937 
0.04171487992641266 
0.0184345790909834 
-0.001157558016122701 
0.04000703066876896 
0.01518330120028966 
0.02558482634778328 
-0.02313671880636935 
0.002533586732452239 
0.006992318915457174 
-0.00738839988197661 
-0.03583713989036392 
-0.004370341227371248 
0.006574363542233573 
-0.005789597624741139 
-0.01704962597949354 
-0.00303886499694851 
0.0239736895697937 
0.02593259858937207 
0.003017325825211325 
-0.007760331958781946 
0.005660548492527796 
0.004883642657238782 
-0.005539238576216251 
-0.01343470587301247 
0.003160175273478729 
0.002546462317194944 
-0.02250147750564768 
0.002412195017587822 
-0.03096156401821839 
0.02527852754513692 
0.01636512704787587 
-0.01769521644184255 
-0.006691659562982624 
0.002029681976966348 
0.02474551443951221 
0.01321130467621104 
-0.006563939612416114 
-0.01711768755557674 
0.005655433842815086 
0.01928157215346708 
-0.02201321925311391 
-0.003223237782689039 
0.01429677152967124 
0.01890488822135393 
-0.01725243525532976 
-0.004416371912517989 
-0.02672743174780314 
0.007832648686297664 
0.01504365460248721 
-0.01782946931362362 
-0.006899777552461761 
0.02265832695284666 
0.02854088309509628 
0.02288590097987893 
-0.01444512180311101 
-0.02504220784351828 
0.0007503671220266455 
0.01654070541041356 
-0.0358889878162791 
0.0155865885403023 
0.03828343097597318 
0.002983253330590486 
0.003615765686397415 
0.01025259037786148 
-0.002905976508858992 
-0.009771173529463101 
0.008255407642713129 
-0.00201763435468441 
0.01004505518414338 
0.01819605742512963 
-0.01079925164179813 
0.04364085439186803 
0.001924490189684694 
-0.008702335469905316 
-0.01502259894497868 
0.0160473737273975 
-0.04098686032444748 
0.007958233463683221 
-0.01216384037073099 
-0.01103006531392123 
0.004880971883237638 
0.01064766081922394 
-0.02098118929040057 
-0.01807071196413022 
-0.02703474930684871 
0.02517025364890222 
0.002922315620246058 
0.02143661450895847 
0.01219363857342177 
-0.001478200805447337 
0.01263893161144642 
0.004360843266960756 
-0.0218610712278214 
-0.02438244013485734 
-0.009807854891941735 
0.0001674700102728448 
0.03100711693031805 
-0.0255806108395498 
-0.01526894983425788 
0.02513779567937485 
0.007623375207265858 
0.004649294867823522 
-0.0009744802580636377 
0.04272929779187905 
-0.007021301492444564 
-0.01230507017295265 
-0.009434304976811315 
-0.0199850369732864 
0.03497338007422914 
0.005988191526027352 
-0.00243520573346598 
-0.01238968658909077 
-0.001168881068028539 
-0.003698678998555162 
0.01180918838182082 
0.0124316389298682 
0.01887315126872861 
0.02299815504351449 
-0.05200308194523239 
-0.01592682228113629 
-0.03242614752631635 
0.03137970476401813 
0.01952147568953863 
0.02126695135101326 
0.001600499667593105 
0.001950909125456696 
0.04676291297152708 
-0.01877996936352319 
-0.03319432374947473 
0.001455998747670666 
0.03328530416213962 
0.01437559648913211 
0.02819123731684686 
-0.01816036003927948 
-0.02554374642326278 
0.003115780995872444 
-0.06594341140375355 
-0.01507869965969093 
-0.03389739071483676 
0.06920368610213234 
0.05755693017177033 
0.01503629229600391 
-0.005731293886256117 
0.002210259519172893 
0.03960620069470058 
-0.04187193857831054 
-0.003516158847921855 
-0.007692464286592688 
0.05130969140782954 
0.02818996889894389 
0.02410593751681495 
-0.06520394185854619 
0.003152949206998858 
0.007509226572681622 
-0.07454351806165524 
0.005402475644529151 
0.00826192818796293 
0.04335385102392013 
0.03017140366048321 
0.00893241370729473 
0.004457752170505054 
0.01118302985180967 
0.03494042245123614 
-0.03026628831912206 
0.003315103293738382 
-0.002087779578334302 
0.03781736364972572 
0.03217440118640289 
0.00819474377545785 
-0.05145381126719972 
0.001906319906859735 
0.005981930534117798 
-0.07440643993167315 
0.01404811362154536 
0.014262544198674 
0.05324772947816146 
0.03289912016811833 
0.007985307862420543 
-0.005143974863500954 
0.007132702936116363 
0.0335602588550078 
-0.0350317108611105 
0.01605606642966916 
0.0053023788932665 
0.01747448419120172 
0.02041365933679037 
0.01818412684256907 
-0.00355096918931601 
-0.03137645126955204 
0.006730817719377908 
-0.02139550585905946 
-0.02169070592975924 
-0.01325225762666853 
0.04872980969422606 
0.04572137004596423 
0.04184607231205675 
0.02096958881752624 
-0.01503572608282645 
0.01032111104930327 
-0.03459318653882867 
0.00810237026666024 
0.007516128719200454 
0.01702083752158495 
0.006315718039421076 
0.06549509702984078 
-0.04110815864569764 
-0.04166120914803145 
0.004516792791165787 
-0.03133698992463498 
-0.02283698434365357 
-0.02504646930844428 
0.03978594399472325 
0.02269624620480521 
-0.01802664339080305 
-0.005038370057496099 
0.007294632281686668 
0.02794879131005466 
-0.01769444574217871 
0.03510046817390362 
0.02221836730868375 
0.04431221689068323 
0.02353457627398644 
0.02744657571692303 
-0.05584685617107098 
-0.041876932517685 
0.002781648801124337 
-0.04414451685812618 
-0.005783960576058953 
-0.00148373486722363 
0.04509256512519525 
0.00219626546545041 
-0.02762287019306554 
-0.02221226572330489 
0.006225596723323351 
0.02499828439508876 
-0.03586112794618607 
0.01733483766688908 
0.01597049103879122 
0.03025170112064461 
0.01972652475871111 
-0.01839615452598562 
-0.02565100148164566 
-0.02910579273543051 
0.03737218827411368 
-0.01762639351087819 
-0.001149363186393419 
-0.0172544998023544 
0.01449011660485126 
0.00597128986421138 
-0.01090238161351608 
-0.001186886579764799 
0.03685367239220716 
0.02883338028953534 
-0.02062817527133551 
0.01828055871401197 
0.001064525203269934 
0.01825543349449829 
0.01680000626312003 
-0.01619346230213756 
-0.004768089070074583 
0.002598545211735782 
0.02450775333111615 
-0.07786934487445613 
-0.017023430970169 
0.005528188102045254 
-0.0020548740558831 
0.01857300450121622 
-0.01633305056442734 
0.01096714143122673 
0.01856965180391339 
0.02063486619895321 
-0.0473431117945721 
0.01378746162868046 
0.01505403491225614 
-0.008107900794984734 
0.02370580336591011 
0.01019728221401837 
-0.03178489208458474 
-0.02691289483115822 
0.033777473158 
-0.005091226268549137 
0.02127062540736797 
0.04346231327482147 
0.006780734854381943 
0.0201035756657164 
-0.03264792343499636 
-0.01496967315526132 
-0.01655148033226801 
0.001134455291883988 
-0.007342342591659053 
0.0173133686123824 
0.02753479016588267 
-0.02117635837950953 
0.005311812768712263 
0.002398683011613648 
-0.04992841128330662 
-0.03867758175664123 
0.03331350099052681 
0.02385811222499345 
-0.008617432507142891 
0.01272478219724447 
-0.02555763309586693 
0.01755970722179093 
-0.003082342237007695 
-0.04189058579947572 
-0.03159887568615193 
0.0120889983860415 
0.01560194793835256 
0.002180017593781535 
0.03160246915952181 
-0.01951059022109509 
0.01761117307814967 
0.000601007101587087 
-0.008616658642827332 
-0.01405994746169223 
0.007018623398171751 
-0.01041167470757182 
-0.00617337680077502 
0.02751120893186101 
-0.00576407658008411 
0.009278200919272759 
-0.01625898753488846 
0.02080415688993383 
-0.02367012993764992 
-0.0118024253648139 
-0.0216183688992365 
-0.002930373218396077 
0.02249440478644715 
0.00172096634253801 
-0.0196087305202066 
-0.001646893281386268 
0.01840050688240407 
-0.001130021551840059 
-0.02263510776944459 
-0.00492442227885029 
0.01905794080459265 
0.01088509414717968 
-0.008526682967307882 
-0.00369483615753346 
-0.006331053741036586 
0.02950348044385409 
0.02416779129018436 
-0.004818281894377932 
-0.01070949828065722 
0.006109161991273521 
-0.03213520433532974 
-0.004220176026210818 
0.006835970695182853 
0.008433686955241725 
0.03477428511014491 
-0.002329311916459691 
-0.01898050050870582 
-0.01468497723831504 
0.03297135157212577 
0.02356022296289989 
-0.004375857995612367 
0.009873261055988545 
0.008461241623106701 
0.02066078370591569 
0.01172260711976856 
0.006139307495209853 
0.01582697919820132 
0.009479952400396147 
-0.01358136831917119 
-0.01093618022496344 
0.0002392180864289307 
0.02394855113667271 
0.002369646549568635 
-0.01086657027307202 
-0.04269934001074177 
-0.02770519876568325 
0.009752031474456264 
0.0244839888799305 
-0.0343446532767084 
0.01631264750027861 
0.02300113307542753 
0.003312571951152223 
0.0005539205259728443 
-0.02837142025008293 
-0.02082209710829656 
-0.01626582485360149 
0.01354344282437804 
-0.02670630964701627 
5.091415130439486e-05 
-0.006495204305853504 
-0.03584649122748153 
-0.01148955489188403 
-0.01237302810263638 
-0.0008979351746556857 
-3.343939943684952e-05 
0.03130006103026729 
-0.02556090700466575 
0.005017041300210024 
-0.02633339178439827 
0.004018424162181658 
0.008778808789810735 
-0.002316581645076045 
0.02173775483087484 
-0.01236335621341898 
0.02230634462900714 
-0.006168774883325089 
0.009817065038810413 
0.009064072841961228 
0.0333646646830953 
0.01041131126223935 
0.004881239044583994 
0.004014181021805947 
-0.01101110083089567 
-0.0226475091656397 
0.005191560775951606 
0.02215038425501937 
0.02444907494057807 
0.02749232892013647 
0.005787421338387418 
-0.003825538628724675 
0.008165075318248104 
0.004153658793647534 
-0.02201482260260442 
0.009060358874054519 
0.03095586413134421 
0.05297140746674762 
-0.01585117994130115 
-0.01488659215604646 
0.02141169437484022 
0.00449751309981635 
0.004086574167474167 
-0.01022634481639 
0.007077906729211174 
0.001504158233481335 
0.003665050982061866 
-0.03627962669396729 
-0.02816914210160179 
0.000467021101643636 
0.02959516031346424 
0.01524952251343285 
-0.05300215972550554 
-0.007977639822054515 
0.004470632889931365 
0.0142090270009626 
0.0006900678513309545 
0.003391947395409737 
0.04378309163067795 
-0.01149191824201298 
-0.0175689860642119 
-0.0005466528259812152 
0.03270305471334651 
-0.005047991175481175 
0.02132300006554218 
-0.02731135008988953 
-0.008795023826580759 
0.03172601397964302 
0.006490759462174577 
-0.03825011005681246 
-0.04942618532754409 
0.02620742579254513 
0.003359977656780268 
0.009125697915695986 
-0.0159009357254038 
0.009020416623358523 
0.03468391407101224 
-0.02256211169533942 
0.005976781603512223 
-0.01746096358057238 
0.02342087880711629 
-0.002885702865500989 
0.0001502236540534316 
-0.03072198194147469 
-0.03102098168449831 
0.02084160867174798 
0.002292547792920133 
0.0173941489227093 
-0.04825423245321018 
0.01822646473047653 
-0.03891119132715991 
0.002480001398955871 
0.00320946235701999 
0.00718271087784659 
0.01794513630016427 
-0.03754024209741454 
-0.002855395585591345 
-0.01152338160539548 
0.03403488798655839 
0.01487562371312138 
-0.01790437057247728 
0.02606655637596571 
0.008058691299136377 
0.01698419354529621 
-0.02633435638933796 
0.04710979776095674 
-0.00947773590203827 
0.01806663106119535 
0.0003009435679315495 
0.02354043229367669 
0.01808620904119556 
-0.008723199354122349 
0.007344822370687529 
-0.06083584583783189 
0.01992405590092164 
-0.01204418102115726 
0.006026964755441309 
-0.007288691654369738 
0.01353120046791621 
0.0156751731100574 
-0.01342021793244763 
-0.00311366377019032 
-0.03212714579593318 
0.06899127089949678 
-0.0005078005602057286 
-0.002144776353955132 
-0.02431682633508689 
0.04380470589857304 
0.02373585335904197 
-0.01933505740882243 
-0.001353629969308388 
-0.02005407083298978 
0.02691659467850732 
0.01115434287188797 
0.008907991160174813 
0.007351595666985739 
0.06088579611914834 
0.0564609800646239 
-0.0323683883708798 
0.004224421408976145 
0.01147933974750826 
0.0675905318671474 
0.01026156856692626 
-0.02197704902119136 
0.01438228422790751 
0.06678983986832228 
-0.003027845589699877 
-0.006367543139138659 
0.01994751430715759 
-0.007552593155130774 
0.02677619942533502 
0.00155456861969301 
0.03869562508811485 
0.01749182094975051 
0.02767497846371111 
0.01787536933725879 
-0.024842058877433 
0.04628297933029017 
-0.001831546175593599 
0.05090948046335167 
-0.005281822415886514 
0.008417309514407114 
0.03631836386145703 
0.03295079123189858 
0.008566123422281352 
0.006674740836016554 
0.03303274185986887 
-0.04909278171268278 
0.001597069587377248 
-0.01460676739802501 
0.0168122849990054 
-0.01498635616626471 
-0.01617001272717883 
0.02657615640602495 
-0.02480740168229921 
0.0286477915776257 
-0.06472429561383157 
-0.0138283303334607 
-0.03987938204452572 
0.01098869616716021 
-0.01097585640100573 
-0.02689020645668093 
0.01221105294895042 
0.0200047930770115 
0.02406435002662548 
-0.02478440725057765 
0.01666194106477982 
-0.001745988729428833 
0.004825332112770555 
-0.009107040554084896 
-0.0146449490491287 
-0.002198528617139952 
0.00168398531164682 
0.03319177910281462 
-0.03705800638674565 
-0.01085522006030458 
0.009863277281654185 
0.03034197000387509 
-0.02151133874390855 
-0.04572306056293783 
0.002000886767063327 
0.004577430655548165 
-0.008201278173250354 
-0.04776076305773367 
0.02512570560393249 
-0.008142229234914748 
-0.01493514964963677 
0.01649683734073895 
0.004834933840433866 
0.03121969056442871 
0.01606517257610039 
0.01117275030032617 
-0.03795833154782492 
0.002840367962217321 
0.008845248504566798 
0.0202075620114092 
-0.002032133463460714 
-0.02070905276460993 
-0.01830233835887474 
-0.03494791131793035 
-0.02596507020241398 
-0.0001064004287311045 
0.03698893184343132 
0.0171992518879298 
-0.01629036068470836 
0.005954699538243897 
0.004042584504641501 
0.01069175547662685 
0.0002510180560124744 
0.00536327244427699 
0.009657684604997149 
0.05783554278940796 
0.03088493728941051 
0.005912709792297764 
-0.006944465491693621 
0.002736761362621591 
-0.01770619730569964 
-0.03870951296258319 
-0.0232783491199036 
-0.01130042420333535 
-0.01301067465923564 
0.03666589935342514 
-0.005571971207534638 
0.02213662575709571 
0.008675816853463676 
-0.02339082006984281 
0.01735494358129224 
0.01460898520403341 
-0.01747443514420624 
-0.00160446292211083 
0.04937216082606467 
-0.03483451740095354 
0.006202421332264798 
0.01769266353375258 
0.02128891251995413 
-0.01311658277329196 
-0.02115045147964118 
-0.007630050256864142 
0.01663240431610251 
-0.002138138824716847 
0.006793895618860601 
0.01854444426712975 
0.005853694577037299 
-0.01119596001300535 
-0.00150708848375832 
-0.01573349986886909 
-0.02815335054010427 
0.03431964921547374 
0.02013313683999052 
0.01306486635250394 
0.04622969024080605 
0.0107470215222223 
0.01842209961330433 
0.008401173799468116 
0.003788458439770603 
-0.01936792548496146 
-0.002118227667474622 
-0.03199370909633623 
-0.02785692903538816 
0.01506886619113805 
0.009186281700151833 
0.0269232336184355 
0.01466628051054296 
0.01878471579529028 
-0.01586507872709137 
0.006859043414003481 
0.01027099082249175 
-0.01684435394127324 
0.03442329082402136 
0.01835960150734453 
0.01562610343741045 
-0.002059475670505065 
0.00264007233493496 
0.02148440564849636 
-0.003273930708817027 
-0.004539438978155014 
-0.01127714327545149 
0.003976378428810824 
0.01305563232746996 
0.03375384153257976 
0.003503339100020251 
0.003026895631258598 
0.006037899395271336 
0.004999163708421425 
0.02928281060720181 
-0.01518357794320054 
0.01206141051552479 
0.008490991541213033 
0.02276049010994611 
0.006340872598595284 
-0.03671148996411953 
-0.007665095689197675 
-0.01198152586091763 
-0.006624658747164057 
-0.03560683615024505 
-0.01158630484499509 
-0.005564037080049281 
0.01143752409125797 
-0.0008071344413289896 
0.001066065848853554 
0.005573918410671616 
-0.006422618530817955 
0.005816428730830134 
-0.01878236587044969 
0.020844659148191 
0.01401590427836917 
-0.01384073004029085 
0.009087231284382389 
-0.01346084994782327 
0.005184978892375108 
0.0123422473418485 
0.01394107034918807 
-0.01649563853805006 
0.000746113489778281 
-0.004523300694661408 
-0.006797901752203932 
-0.001833609024607814 
0.002321681152380602 
0.01396295808112312 
0.0314213270403049 
0.01495690718573885 
-0.003708670267094655 
0.0280868039753705 
0.007575102797960263 
0.02078578223707813 
-0.007065553736921497 
-0.02753494586552756 
0.0144343013211584 
0.02048075248327145 
-0.01484474320628187 
-0.01200022355970585 
0.01025426480092866 
0.04570066719632716 
0.02127698295676119 
-0.0145787172903718 
-0.01779895356558555 
0.02142382522675057 
0.01624586767601878 
-0.01498377927723286 
-0.008660563350929518 
-0.01569019419845299 
-0.001608166766401484 
-0.02903515466694684 
-0.04601396345366494 
-0.03274142348121103 
0.01483686029362971 
0.007938685240570544 
-0.05407983201799255 
-0.01193356245434147 
-0.01046478815575201 
0.006758463412424541 
-0.03738666968559003 
-0.02517596241580817 
-0.01274315921147887 
0.03625146014330138 
0.005457800858145601 
-0.02781140692191248 
0.01431979702459531 
-0.0159713113946877 
-0.0340344601220085 
-0.04427857240554182 
-0.02247238421901437 
0.0128912997689585 
-0.02437291163549303 
-0.04482051402633594 
-0.05747513134716366 
0.03636287468158508 
0.009669548092086146 
0.008642511331255907 
-0.0121733746081233 
0.009517530162238079 
0.04192228408128841 
-0.005078779406866989 
-0.02845219576325716 
-0.05191085980584569 
0.04564723686034949 
0.0271722801351274 
0.01467852223680191 
-0.07118943189441383 
-0.04073934301299503 
-0.003499058205522608 
-0.01646896872456917 
-0.006873324000529575 
-0.07111700680331687 
0.006021085672448518 
-0.03509734072624152 
-0.0240085765754979 
-0.01084661832647387 
0.01832855684886539 
0.03311045835205316 
-0.007044542640673061 
0.0128476388252298 
-0.02319760563704037 
0.02620693324081789 
0.001793197508616116 
0.002741863009237961 
0.02205569757390086 
-0.01003204252439993 
-0.005783896859739908 
-0.02667263230508198 
0.04403881560906189 
-0.002652659503268443 
0.00699107080852879 
-0.01553031179360665 
0.002390001746199589 
0.06315239764103327 
0.006297391588666373 
0.0368931574736903 
0.01236966970369603 
0.03608866281977414 
0.02602696180491007 
0.02352519528937179 
-0.02829047197291071 
0.02913187945219447 
0.01190859502951573 
-0.02913192021243505 
-0.00777555196116655 
-0.03899332323553107 
0.05295228033973566 
-0.02559479444375968 
-0.008677341585514529 
-0.02829016960701649 
0.03186595242358027 
0.06228022114907482 
-0.01649589863873513 
0.02131380668822292 
0.00969530045937202 
0.04937046543294572 
0.009989067585764202 
0.002258403719354928 
-0.04891830530049044 
0.0262149323392996 
0.04344694182921452 
-0.03957529495673897 
-0.03008030595000596 
-0.02203250975059374 
0.05000913029018993 
-0.0007763130332850611 
-0.02415983715607831 
-0.003315742479991734 
0.03864343564118643 
0.03779135506119832 
0.000295143217659775 
0.02307174522075448 
0.0039818091425074 
0.07963005044010271 
0.01222999528374255 
-0.02486424511679374 
-0.02450933628148081 
0.03063796270552544 
0.007798473070691303 
-0.02736622629088521 
0.005169274112713607 
7.300977168039616e-05 
0.04099534732014403 
-0.01358799935482766 
0.002668836199675484 
0.01851696975508422 
0.0264047628939733 
0.0008289423655038658 
0.008121821261457971 
0.05088187715061823 
0.01675623889628212 
0.07782226241386253 
0.03060589176069863 
-0.02784274015073974 
-0.01078115117567528 
0.003058808497861141 
0.01109540116875163 
-0.03748204499047351 
0.01291840854486088 
-0.06602970903016123 
-0.03722185601433473 
-0.02961617819628075 
0.004797866822986262 
-0.01716686710269751 
-0.03556459308176448 
0.01247455087396698 
-0.003909597250214008 
0.03141055388109716 
-0.03580613608251699 
0.001297399420556357 
0.0005193177544265715 
0.02154756716604393 
0.01781747742806762 
-0.0374163894272919 
-0.01700893418417007 
-0.02653213358439452 
0.01846946346940672 
-0.04523543081074698 
-0.01095347457113322 
0.001050013395004612 
0.0271054155632024 
-0.0237072678036374 
-0.06139434411846274 
-0.009900186210450473 
0.006973425665773278 
0.03939429686928966 
-0.01036932617432047 
0.005297288350775334 
0.017538889240892 
0.04329411060507574 
0.00732266035079759 
-0.0501972756560293 
0.03621731173956123 
-0.005329516904156939 
-0.01014845125230166 
-0.05250956702897402 
0.0009116339848569548 
-0.01157071655867663 
-0.007217335852909847 
-0.001191518891742121 
-0.0168290423591251 
0.0238886499419395 
0.03491593378301681 
-0.005827092525364556 
-0.03914053280739047 
-0.01448684160027479 
-0.0368865609494559 
0.01896551195883675 
0.02618526196219794 
-0.01008594703958419 
0.01255812839494518 
-0.0008405112489400356 
-0.001276518462996927 
-0.02589853726921607 
0.04655477366790339 
0.007682246042549334 
-0.01890267155175783 
-0.01913208711951866 
-0.009119213857319902 
-0.0005923800621250653 
0.01228154536204047 
0.007414010903619471 
-0.00997065049127455 
0.0565352314440495 
0.01660110721043381 
0.02180122247196185 
0.01721110864163567 
-0.003797765047378188 
-0.01409099386521588 
0.008353357037293396 
-0.01454843747390045 
-0.01183652025117632 
0.01359753102164233 
0.02961687252114629 
-0.04706791714568744 
-0.01097297478641513 
0.004257470829754293 
0.01067912256551452 
-0.005031099633998538 
-0.005830942785691016 
0.02314244054955029 
0.02483340498326306 
0.03228821358978638 
0.009677177157633273 
0.02120157427634813 
0.009044261664275381 
-0.00644100312772476 
-0.01654787594485945 
-0.02613302828872482 
-0.04114912994648941 
0.0155437321181592 
0.02000834604121324 
-0.001797453733157307 
0.03286039539254558 
-0.01263470378766789 
0.04662905928286399 
0.01072672047412145 
-0.04083291017663505 
-0.03798931379329033 
0.01233553721899918 
0.02609440956148393 
-0.005658439031138724 
0.009162342094464142 
0.007363278011901705 
0.008573473669121166 
0.002614049687182539 
0.001630542525111841 
-0.01173304553248152 
-0.003486858497340896 
-0.007857701466319391 
-0.005408808851764798 
0.003829798178210372 
-0.009008134434834522 
0.01842685717968707 
0.01934531941181891 
0.005086750227026955 
0.006672793159541349 
0.006060476418235452 
-0.007611505941598387 
0.001499298623648808 
-0.002732346881317428 
-0.003969079624177758 
0.01509216462505605 
-0.0145594901602454 
-0.01848649905179954 
-0.009558627792408837 
-0.01246190321730651 
-0.009756659516041526 
0.01095392543211711 
-0.007618404457221446 
-0.00822542983957243 
0.01969182993324459 
0.01469074203140069 
0.005312397034014343 
0.01301675850870464 
0.004747920699444744 
-0.00471880095794823 
-0.002123595672720115 
-0.02368995028146176 
-0.005007706525731523 
-0.01740302389358848 
-0.01919703366672666 
-0.01111621905148392 
-0.02526405255531056 
-0.017105248748245 
-0.02179941030621529 
-0.003125660062620926 
-0.0009338366870769589 
-0.004202180948904266 
0.03099293376921776 
0.007709772348526226 
-0.003211908741134919 
0.003958277319934971 
-0.007010665999639852 
-0.03362921734218952 
-0.02224815877438281 
-0.01524183215014089 
0.0009607916794250172 
-0.01345421004537295 
0.001356636507236021 
-0.003257433330848931 
-0.01155199517776723 
0.0349983722327931 
0.005013800150869328 
-0.0002680047831124337 
0.01993900223042904 
0.004285606966814578 
0.03197012268741597 
0.01060389594069436 
0.008349567824283831 
0.00911118395069101 
0.02289579775640047 
-0.01198438323681699 
0.004294555013664486 
0.01132878960953456 
-0.007704134726158627 
-0.01449292586761551 
-0.03124165844300938 
-0.03825106483326961 
-0.008973254869572385 
-0.008335225870427253 
-0.02038115815774699 
-0.01041000962932007 
-0.02274559667241112 
-0.01155233638162198 
-0.029417871431032 
-0.002640575538506877 
-0.02781106014341798 
-0.03071964168827411 
-0.00661828375896987 
-0.01933880137981432 
-0.00904613324684978 
0.01795706280455683 
-0.006751941459962528 
-0.06367114200207402 
-0.02289723921044729 
-0.02728055962925718 
0.02369953188193056 
-0.01460657619463623 
-0.03538691202765031 
0.01490656594403052 
0.0007797986521976963 
-0.03499115973465743 
-0.0392240273195049 
0.00169718879779311 
-0.01946637315154493 
0.0007564558253627339 
-0.03064131495340543 
-0.01625711074532245 
-0.002843633853298145 
0.01502075715243696 
-0.004630220585841819 
-0.02334271811477684 
-0.001017184819768239 
0.01767130852465986 
0.0006489268339866644 
-0.03495111639863366 
-0.05533557076440748 
0.03444645343912673 
-0.01184852713408084 
-0.006549972843141779 
0.01625182725520256 
0.003875331902543265 
0.04817171473560213 
0.03058123411307954 
-0.01306992997315905 
0.0001702499754918355 
0.02769070967321875 
0.0252127908308059 
0.0367397505661001 
-0.04398969474433803 
-0.02305578753698075 
0.01255237903499656 
-6.695530377471624e-05 
0.01313432100450448 
-0.04141563487072313 
0.001188800705790049 
-0.03253671479896091 
-0.02356194428653145 
-0.02958484536612612 
-0.01732075097049447 
0.02358244237513136 
0.01546368623746285 
0.01983897612665447 
0.0125224314317446 
0.01228210316414309 
-0.01850038923333584 
-0.002222130252966539 
0.04954029541419663 
-0.01032059502004603 
0.005861087551782091 
-0.005685340326007539 
0.03296038418707824 
0.02654921124202972 
0.01574847341785732 
-0.01738190560599488 
0.02213395198839936 
0.05140840973424541 
0.005363278019766721 
0.006364319722663122 
0.03052429583380344 
0.05592379536778142 
0.004113500784412512 
0.01873349444078876 
0.001191088243886091 
0.03767008331947617 
0.05222290555324301 
-0.03349360299577143 
-0.03349479387518555 
-0.02086714682592028 
0.0271258387446126 
-0.01081746642146815 
0.005299363542029793 
-0.02842018976980019 
0.004861941245918539 
0.03141675889877145 
-0.02440573158813873 
-0.01818577779706351 
0.003154234795447929 
0.05392856746330054 
-0.005534808096362901 
0.00989517413125638 
-0.004325992548050255 
0.03058568546829584 
0.00547012116450951 
-0.02556170174442939 
-0.002811147774693055 
-0.01863313511712962 
0.05356032244712815 
-0.003963835771836353 
-0.01211981718132195 
-0.02786878106004722 
0.008786872335940601 
0.03958698836972063 
-0.0155935193864863 
0.003099474884163769 
-0.00735848807780838 
0.04830236432068542 
0.02361103961652155 
0.006596859576024332 
0.009976310659455749 
0.03596013608918994 
0.01083280090650861 
-0.01420510579756015 
0.02540577948316624 
-0.0127825625105782 
0.05720682798393394 
0.01837809026575058 
-0.008260991121940967 
-0.01075022348793071 
0.01194004159937918 
0.04011961394832156 
0.005671578449874697 
0.03485199214937339 
0.02014673875671103 
0.06727087334070457 
0.030316618893833 
0.02080069405252354 
0.02245060604439869 
0.02744112968002979 
0.01825692324591397 
-0.003454731758711539 
0.007578869782022601 
-0.03421692999097908 
-0.005186838173569699 
-0.01503094838004602 
-0.01742981307863264 
0.01732608193197642 
-0.03055681592002516 
0.01353257612575266 
0.01474835406872728 
0.03057397723261343 
-0.02749839056271049 
-0.002863233232109423 
-0.01759081601472289 
-0.001712573979657309 
0.002418550434764006 
-0.00465111409114654 
-0.009475762915961224 
0.008259847173134681 
0.01342819163799278 
-0.01563452393002953 
0.0095188722980823 
-0.0006894836172428062 
0.001688621904672246 
0.003713830666555271 
-0.05535100581714832 
-0.005707911937451325 
0.02717618081534545 
0.04284667888885947 
0.009778874438927412 
0.01053014889853926 
0.0218524550362455 
0.0126774348845471 
0.00243800484667389 
-0.03969809233633338 
0.003751379514856162 
0.02762858874909052 
-0.009427773898697527 
-0.05330088558552474 
-0.03158413967919363 
-0.004728428781456532 
0.02595476436711037 
-0.008544833715459799 
-0.01507413939189973 
-0.002234461482984183 
0.007541727086467259 
-0.002771968755208811 
-0.007455689963290463 
-0.007642291040045905 
0.02808253142127241 
-0.007235118986541793 
-0.01383702737941865 
-0.01848945562341645 
-0.01811228901070775 
-0.01062475784000724 
-0.006942467701148496 
-0.03301906779670591 
0.0214748395854916 
-0.001569557215756665 
0.0173399156052852 
-0.01247142148262764 
-0.01303207566081709 
-0.01426278824003289 
-0.01271756199857071 
-0.01130293523520102 
0.01014579348237438 
0.01723007254841981 
0.02213945352190189 
-0.01014653655449213 
-0.01466634070651442 
-0.009569115301536972 
0.01505559782503582 
-0.01842140953819799 
-0.01065764099458652 
0.01057738537142249 
0.00667398983195454 
0.01148614262171892 
0.01295673590892017 
0.0134534286726132 
0.02852867861307074 
0.01286710626443676 
0.01719530115408616 
0.005896353692372794 
0.03303991878839862 
0.02138225584884648 
0.000282903774620027 
0.01737992219984992 
0.003348942888117153 
0.03478379685944426 
0.0359858057176998 
-0.004596763649695766 
-0.03109567645298284 
-0.05046532644624935 
0.01194520827899587 
0.02418539346159287 
-0.01309163552296768 
0.004319390010422138 
-0.002639231038239494 
0.04312980660878072 
0.004175464202882792 
0.003768737047027504 
0.0001841306150763639 
0.04119811232335819 
0.02519637878817132 
-0.0194938855327603 
0.008651735788856219 
0.01655074398196574 
0.01642436617060629 
0.01040518509208004 
0.008038754229273887 
-0.01341364116734647 
0.003125318195774048 
0.008922890306037684 
0.002695531713275917 
-0.01529523821833306 
-0.01831592843470775 
0.00570470330338634 
0.0004925940203365393 
-0.0008840041838267408 
0.005069704984351342 
0.01822787027660843 
0.006633682010905287 
-0.009460033642179148 
0.001204579222806604 
-0.0009300551441237094 
0.007797952514467447 
0.008364177005829842 
0.005412900512877777 
-0.005668852554402514 
0.01928714569390514 
0.01371263565738552 
-0.002245075667950294 
-0.02923752804397338 
-0.01320686452932623 
0.01731938578154046 
-0.005314239982637648 
-0.01737267369636362 
-0.006820706294970796 
0.01458702070007322 
0.01597839860216991 
0.007512447239016853 
-0.01237181825174649 
-0.005170451369630446 
0.01501268537122932 
-0.0008364629707114836 
-0.003350217454920593 
0.0004469179273106819 
-0.0146466517502089 
-0.02315903170621316 
-0.01240147485087241 
-0.02927797856269131 
-0.008685845206813009 
0.01417722410161759 
-0.01271790585663554 
0.003149310233526727 
-0.002178935444474476 
-0.002437056351684526 
0.02580038469376613 
0.02027417981639544 
-0.01200458403180628 
-0.01696166217167676 
0.02546219504430269 
-0.000833463196494936 
0.009202484424965674 
0.008815205686674278 
0.007690981836841735 
0.004036846134656376 
0.02116021088425805 
-0.003971358594096422 
-0.006037536978821872 
0.01069916932948608 
0.001118475179126763 
0.003613818978766753 
0.001372575806630765 
0.003728626085226517 
0.04779953039843905 
0.01717073039315325 
0.00980122346942384 
0.02195148933569376 
-0.03945938876745702 
0.0002254466564568418 
-0.03708050112704429 
-0.02008594170128713 
-0.005096589076978271 
-0.0230711114172632 
-0.02090290762782246 
0.00974905311294426 
-0.007699012644274124 
0.02744044819764402 
-0.001621170919498363 
-0.03616844394893727 
-0.009679296344348649 
0.008684259277161847 
-0.006335516912400963 
-0.04210932258397421 
-0.001878617590049811 
0.002799339027353816 
-0.02792046334631486 
-0.01058210643626516 
-0.02131439476268524 
-0.005668530037291745 
-0.01151124281865667 
-0.00810312868899422 
-0.009586824334564061 
0.02177712758983795 
-0.006453104001490142 
0.007437125120527663 
0.01001426427803627 
-0.02086104265906903 
-0.00698936110842648 
-0.02916809569252422 
0.007278545941724938 
-0.02460029621604333 
-0.009410134102284281 
0.01660741233607761 
-0.01145940236867739 
0.0102178169977748 
0.02680321434916553 
0.01137714668608707 
-0.003868770101271754 
0.0100285698289091 
0.02256514005040753 
0.008341258926762657 
0.02472871168270781 
-0.01656374467653503 
0.008089818121266457 
-0.006788648749825808 
-0.007561364747396764 
-0.02647774510945964 
-0.002091875112019251 
0.0348796867297778 
0.008088677666317833 
-0.00150101395103163 
-0.03425736245840161 
-0.01425508063095791 
0.006590179926857409 
0.006249751621900473 
0.01725376105247965 
0.02623014781180664 
0.03104426689740719 
-0.0007143199658841791 
-0.004581056361256238 
-0.03584176370733196 
-0.00421635067055525 
-0.007977050680197505 
0.01030302320153284 
-0.001445043072422097 
-0.006546899172358825 
0.02803931737343799 
-0.01788688132248461 
-0.02579726947961825 
0.02234379244562441 
0.006061887746767832 
-0.004900409126577249 
0.01466354263015412 
0.06476121503226229 
0.003077248175752576 
0.02417495980114729 
0.01850668177590527 
0.01404244742178569 
-0.00318386166210945 
0.01273816029218339 
0.03630268805786723 
0.00610538956251599 
0.01172560522785541 
-0.01084156146206409 
0.03033754717787483 
-0.001760165573497012 
-0.004749851428575742 
0.008242151707253204 
-0.02537199612055082 
-0.02751029650759303 
-0.0007833753086672523 
0.05578653100794989 
-0.001389783338639071 
0.005482586671722821 
-0.0009960932078856134 
0.01645662098056415 
-0.005116228963600387 
0.02042171272099688 
0.04255005719513277 
0.004619065479567524 
-0.009877625378925304 
-0.05033183825457987 
-0.01652822456728854 
-0.03531262676967174 
-0.03987171103186176 
0.0500333306671831 
-0.01463970316881772 
-0.00967124210667937 
-0.01604535208303881 
0.03550003974415844 
0.005924152686121929 
0.02290709503537794 
0.02729288648507506 
0.04402673004954865 
0.02585117763154943 
0.02953427216889514 
0.02532851874070682 
0.0009532389896296581 
0.0007148888529331502 
-0.04582101866729407 
0.002965934738775978 
-0.02406927293737916 
-0.02507838470122103 
0.03516393626971179 
-0.01450938551383593 
0.0215788864952749 
0.006311463774742715 
0.01515291921179644 
-0.003101514330155738 
0.0398838443867402 
0.02494810707690122 
0.02775115592778101 
0.009513163783972415 
0.03097220542628331 
0.02408948976298616 
0.006543557338345835 
-0.02337346514248712 
-0.02664309517027115 
0.01199144668161243 
-0.01201494350939157 
-0.01697623478776488 
0.01389149781591688 
0.01398457366628721 
0.005994196000546337 
-0.02139584982109677 
0.005801660089112008 
-0.0001860415536082981 
-0.0009937598559217856 
0.01467387261678369 
0.01447492881123124 
0.007641126654526004 
0.01454955476842545 
-0.0001380043598114688 
-0.004377388701514762 
-0.006234687398620101 
-0.04451716106901765 
-0.007234515520092299 
0.00855855914221793 
-0.01404955323460386 
-0.003450903224857629 
0.0277812392653261 
0.02793987652777677 
0.008035233666677312 
0.001595169883416123 
0.03851876605606112 
-0.001652086572169425 
0.006976132619012324 
-0.01786354419813816 
-0.001265509732173832 
0.01592560379608799 
0.006853433106063498 
0.02213844038839623 
0.001931770186859107 
-0.009873534468508829 
-0.008489774831501972 
0.01343034044637019 
-0.03989711878137468 
0.001838421553799094 
0.01739864579029128 
-0.001610090427316689 
-0.001767935419841486 
-0.008246901160328682 
0.04361517747206885 
-0.01512266021727884 
-0.004455256729203475 
0.005537971191737885 
0.01153098080849218 
-0.02110088368302467 
-0.008181089453026674 
-0.001183034291279409 
0.009280901033993627 
0.006384192032490395 
-0.04546746029306779 
-0.01409162759415833 
0.01158640635207807 
-0.01684690136555288 
-0.005283222790007194 
-0.01143226200779129 
-0.00907767478918821 
-0.008413082707667937 
0.01128238973768829 
-0.02487353317500812 
-0.02445819823792442 
-0.009608257734528435 
0.002675760652505554 
-0.03881358027506315 
-0.007224700641814734 
0.01065468518874551 
-0.02076251935436128 
-0.01201758942548647 
-0.04226286357751567 
-0.03082728912333896 
-0.00157077279767363 
0.0003038223656754004 
0.01503455325774817 
0.0245937669824505 
0.0163228103400229 
0.04134183973365359 
-0.007493834172162545 
0.005945519315330612 
0.009766803987197674 
0.02566132697219389 
-0.01902766100614396 
0.01933762192274092 
0.03438957977083154 
0.04463727048590838 
0.01295833080284036 
-0.02427947694682072 
0.01304156297175137 
0.03406622891510144 
0.001699543044268764 
0.03739418730190348 
-0.0005259185367270393 
0.03063229946748366 
0.007992356987021408 
0.04253563894465241 
0.01298902640785627 
-0.01479295822440258 
0.01982963313101113 
0.02110454916592301 
0.01626606122170256 
-0.01246392825716634 
0.02143178663883871 
0.03245934444723741 
0.03290113472802877 
0.005603554475529682 
-0.02686045919889041 
-0.01742138317854396 
-0.0107369657712114 
-0.01021413708229179 
-0.0006062006901034548 
0.01259906366996238 
-0.0140917053535907 
0.01248371691772758 
0.003081442846068177 
-0.005563544707569403 
0.003335319472057477 
-0.01519852710361716 
-0.01827421544978293 
0.01123459121861258 
0.0136729714511464 
0.004816102576726574 
-0.01867551377242082 
-0.008263689673227475 
0.004306857661209039 
0.01743106156499368 
0.01723079111760777 
0.01232580466249588 
-0.007378564900468694 
0.00610528224918691 
-0.0163366262149634 
-0.0006353564757491161 
0.01146616261947512 
-0.0006624951004846145 
-0.003548402870077911 
-0.00770027912779724 
0.008944393366728772 
0.005719379035890967 
-0.003332346910285589 
-0.0004940235486211097 
-0.02852593838026313 
-0.02219536898074286 
0.01099328551451103 
0.03098360666501883 
-0.00898100459961153 
-0.009022931398025739 
0.004442726505004165 
0.02120296920413997 
-0.005773083647529978 
-0.009050013555840602 
0.01927454353891613 
0.01735721853931617 
-0.007005642614643915 
-0.01888452246609737 
-0.001473714078478815 
-0.03358474354426347 
-0.006623426401731707 
0.0233310798531059 
0.007298010002898232 
-0.01037571737655401 
0.01038836140039481 
0.03253325573383416 
-0.007359129709757556 
0.001800708664069145 
0.02190105000398163 
0.01108350890382894 
0.01272904145273917 
0.02640359386337712 
0.04252489862689639 
0.0184708974660989 
0.0004120218099628047 
0.02847846160940151 
0.0004001908990513061 
-0.009716498184433925 
0.008693107998385631 
0.03458785478437858 
0.02495331427670139 
0.04331524062264239 
0.01882218674068592 
0.02104842762711745 
0.00203619814004494 
0.0115714921438121 
-0.02328101374542587 
-0.03982086059782222 
0.01531288326413941 
0.01854725574931983 
0.01916135315835025 
-0.0350567734361614 
-0.006660503990938497 
0.01512064745874536 
-0.0336445087061228 
-0.02706285027509941 
-0.02921702155122872 
0.01840748882145298 
0.03332896721314808 
0.01511863594849068 
-0.0130076781370864 
-0.01161062412727109 
-0.002984996480271638 
-0.0007079389647419816 
-0.005822903866123575 
-0.02422160497201236 
0.006831262622522249 
-0.01275856636844569 
0.01560848403954019 
-0.02311913263359756 
-0.002630164074133695 
0.01847766728896856 
-0.0247041555351817 
0.001061445695512257 
-0.005101852217253493 
0.02499877026445743 
-0.006660942217601504 
0.02515493272785778 
-0.001868676313410781 
0.006718974396199872 
-0.02056875374118672 
-0.009525362847451851 
0.02065437897476536 
-0.01034616350482224 
-0.005629154185524505 
-0.01609555231987803 
-0.006010319979788111 
0.0254331202277392 
0.006053421222983428 
0.01727810760748971 
0.01589246274385452 
0.02220202824344055 
0.003562386369805884 
0.002848898829518665 
0.01410224138045134 
0.009105532363825782 
0.03218070760479979 
0.001134368687473881 
-0.02851793736979099 
0.009351150685271885 
0.03433641503308581 
-0.007793095964275316 
0.00519930449667492 
0.005866066956434956 
0.007542600928446136 
0.04188784413092694 
0.01289025753518706 
0.01295687929976777 
-0.01569360111460934 
0.03312879579077208 
-0.004025949936283565 
-0.02054498470889007 
-0.01265763574449028 
-0.002955031082059087 
0.0218971297234326 
-0.01979322689120622 
-0.04124355003931746 
0.02053162740424947 
0.03200223468063396 
0.01442877018836718 
0.007067121721576572 
0.01402605157835702 
0.001655372480440309 
0.05292526933636038 
0.01370542604917593 
-0.0007643826480055467 
-0.01460826640248637 
0.01960918765932728 
0.01966807567951233 
0.004057977948609645 
0.006638437337362668 
-0.05308067931996134 
0.01182434568681047 
0.007198036689120005 
-0.02681703774866613 
-0.00399435954532126 
0.0394302662791683 
0.02292559803752861 
0.02032863547576287 
0.01894915160628332 
-0.01261557790035822 
0.04107260449794347 
0.004412573122924734 
-0.02492968562205404 
-0.02852678328540526 
-0.008752720097505043 
0.02979208620529462 
0.01757656941965929 
0.008998823891512594 
-0.04439776017552273 
-0.006087984641485911 
-0.01260478320918583 
-0.0429597902375671 
0.056007169212217 
0.03998997488477026 
0.01616224143397545 
0.02634307029348559 
0.01620240172108877 
-0.01473957054903365 
0.04958426944590633 
0.01026676970238842 
0.009472650580955547 
0.02877206655247081 
0.02736265229966093 
0.02440904858713645 
-0.00910931260803686 
-0.01416619348217629 
-0.02684271827352468 
0.0103402141750127 
-0.01169542222974822 
-0.01154291915332942 
0.02848543836455168 
0.04192992907862397 
0.02742266029250568 
0.05091730288420322 
-0.006727769218465905 
-0.02716811489253809 
0.0497166201505508 
0.02535759303006339 
-0.02371043287291726 
0.02365183000845799 
0.03191886063020256 
0.03561966705356208 
0.007176298596906291 
-0.02586698109218232 
4.957331279992113e-06 
0.005927273237483546 
-0.01775544514103212 
-0.03324667619207761 
0.009469437987433164 
0.01537313326026256 
0.01413011691827184 
0.05466496425073527 
0.01225682625610607 
-0.02869149347703399 
0.02360415497887736 
0.04081019416460602 
-0.009952181384301982 
0.01501726249825847 
-0.0003081161469243729 
-0.0081579967323612 
0.004499933566241723 
-0.01070997565445017 
-0.03764842113152303 
-0.00318007684707619 
0.04081254537381091 
-0.004806722592225967 
0.003615354771927314 
0.02443465815007832 
0.02036345532003493 
0.04124325759064554 
0.0147683446613942 
0.003377989250544534 
0.0004395269079836463 
0.01652340848914555 
-0.03163048127089246 
0.01383055746451522 
0.02443328998261366 
-0.002226913539362895 
0.001912820634851594 
-0.02239941352724232 
0.01204676497680205 
-0.01964610206076457 
0.01029168335592107 
-0.006870604295405129 
0.01025762869005483 
0.01086043578779164 
0.02727816785501481 
0.009508728422589211 
0.01321495147359636 
0.02660210978783848 
-0.02655713581247116 
-0.01332704870699675 
0.009421148089750007 
0.009505911508948523 
0.02902260797017786 
-0.02008719122493268 
0.009452605670608825 
-0.01131843459154836 
-0.004171148233582484 
-0.03374103878674985 
0.006168111624640817 
0.009327032278949961 
0.02061876103592796 
0.004064284705853779 
0.02233580795219346 
0.006523562765196668 
-0.004333752034525141 
0.002082982257394955 
-0.0166824015625243 
-0.01350132665118347 
0.02112003589578331 
0.01896110941884602 
-0.001979063859081615 
-0.03197870208893364 
-0.02104327156846425 
-0.0345317215669668 
-0.01339145338197824 
-0.02234315226449754 
-0.004587400681190535 
0.01390068595074129 
0.011388126957266 
0.04596801368088497 
0.0590509483527738 
0.0380779511372329 
0.03190475549827244 
-0.0008561431541080915 
0.02135496108241806 
0.0383535929931048 
0.03131619835345179 
0.01904299670959941 
0.02990804053192924 
0.002513495647229605 
0.02761659347794196 
0.005216109442417877 
-0.008760840750788328 
0.02416546402188057 
0.0002218740650617541 
0.007157676587303705 
0.02451877136159193 
0.004690682162366192 
0.005870358971797717 
0.01673277715732054 
0.01276302429960379 
-0.01029421770097455 
-0.02527868887723387 
-0.02680499689316751 
-0.01637568813926759 
0.03304581932192097 
0.009796547076384025 
-0.01214440873135489 
-0.007876094557745935 
0.002159471738830955 
0.01534804840929573 
-0.004529725974312214 
-0.02296606412726333 
-0.01510255476708032 
-0.005277447450692005 
0.03434289101762132 
0.01187540155253694 
0.003557498491735049 
-0.006181648541696243 
-0.006937578947502431 
-0.002064575404431696 
0.007674804155202475 
0.02182287100309644 
-0.005216287415552786 
0.02131704696713334 
0.008879496320850741 
0.01169790626424475 
0.01146235043005607 
0.04171569886642307 
0.01483256175095787 
-0.001136882981037771 
0.00121645376277287 
0.007593702567109895 
0.01852631753144303 
8.037160241568745e-05 
0.006298361331188668 
-0.02740195374040177 
-0.02958585297507807 
-0.01062525706959784 
0.01007430979211242 
0.002917531157339392 
-0.00323536764714356 
0.01341090607968482 
8.206790216203223e-05 
0.02383389353963866 
-0.008654514667955358 
0.03137243531792996 
0.009175105871601802 
-0.01411105889139309 
0.00782481864546202 
-0.01045222314864044 
-0.04791885924791806 
-0.01357774821189589 
0.01602480613268677 
0.01822004502709733 
-0.006728115602649134 
-0.01412896025667754 
-0.002083220256021077 
-0.01311011852768936 
0.01720318147142947 
-0.01049997748202647 
-0.02348748273580087 
-0.01985359930692404 
0.007156505754564591 
0.02634664700823642 
-0.01891096977818225 
-0.01739913739727832 
0.01335040244547359 
-0.001044018506789999 
-0.01167652863136741 
0.009724177144886118 
0.02258540617836131 
0.01751046780938138 
0.02392993094986007 
0.002284414862323491 
0.00533604921028816 
0.0009390938762884335 
0.03581932688853862 
0.02100221156941546 
0.01266168689328287 
-0.006042731227918344 
0.01269847333994347 
0.01605547391037671 
-0.01129128068518525 
0.003006512258737561 
0.03257752182787835 
-0.01015981025117487 
-0.01800497481251181 
0.003892170990066479 
0.02293551058677483 
0.009468997621245987 
0.003728259069254409 
-0.02828056471763756 
-0.004925437251818902 
-0.005004291671691486 
0.01092839459591596 
0.009747005874260851 
-0.020772421726345 
-0.0001374165741548821 
0.0009290438318089277 
-0.007929810443837983 
-0.02896675632242796 
0.01070943533864371 
0.0471047018689096 
-0.0119408580727828 
0.004286162348196343 
0.01712087437602701 
0.03174045418225902 
-0.01313416115492554 
0.002924565622976855 
-0.0008565119712192172 
0.01138089799972712 
-0.01551764375425491 
-0.03701993666795236 
0.005328284927017056 
-0.01058032782793841 
0.02259884648276212 
-0.01620143015618277 
-0.009263068315836407 
-0.002829238180506287 
0.04027758497767187 
0.01693199670557207 
-0.000654376348828323 
0.03227416872400912 
0.01080129900787018 
0.0001859168967506768 
0.009016264489383011 
-0.01144027853993691 
0.02831440156659145 
-0.002919343419479531 
-0.01975396773191007 
-0.03794369193331507 
-0.002324795356218014 
0.01224552636169296 
0.01783761620055892 
0.01898635758120377 
-0.03467585632454909 
0.02710274494122758 
0.0366841433962023 
0.007878290002428154 
-0.003671056174430742 
0.03433326507591214 
-0.0006704213750241025 
-0.003716746349308806 
0.001145135271782706 
-0.002766429457837585 
0.03851312732300079 
-0.01191882320415906 
-0.02478361665537064 
-0.02225103787255084 
-0.004488441836954312 
0.03597760985995015 
0.02679637484303917 
-0.01882395845327904 
-0.03871185720814685 
0.03707565648022831 
0.01127509132566951 
-0.003409395273635623 
-0.02236533644703235 
0.0258102357302995 
0.02788209366167058 
0.01063308725535793 
0.02380355768298511 
-0.05661057895115494 
0.05076426073392113 
0.02317981783283512 
-0.02777867605994063 
-0.03341818336002101 
-0.02055670689069752 
0.01667581341675752 
-0.009658406621937779 
-0.0133122192297533 
-0.05949820904581343 
0.02941466187456099 
0.01087454290173573 
-0.01168474914235318 
-0.0138810605587098 
-0.01312599926596395 
0.03158076230042989 
0.01434091055603844 
0.02358592658183275 
-0.04720325421792566 
0.03589618039670464 
0.01120064360728424 
-0.02243557580944051 
-0.04066320188909355 
-0.0280638901124549 
0.01375376776350548 
-0.01059095490577035 
0.005143786360007179 
-0.05416058613513189 
0.007670802434575433 
-0.005082400777847801 
-0.03205164747252934 
0.03943009345378416 
0.02633889455820139 
0.04083505199880891 
-0.008962395457890409 
0.008018451784768505 
-0.01382464742643487 
0.04400776125304162 
0.01789509865589262 
-0.006489242599707034 
-0.009013216159334071 
0.02821840141647917 
0.02548674130961627 
-0.02926678232423247 
0.00641452006332795 
-0.02610620818864033 
0.01328838453943967 
-0.01757172501496232 
-0.02652466433384679 
0.02749711901031479 
0.02965077529656488 
0.05061862033579423 
0.002502727701599068 
-0.004534491808599839 
-0.004860230509020507 
0.03223154294429021 
0.01013376611498904 
-0.03735105847107176 
-0.02300124764201819 
0.0127424404408863 
0.03944835968535924 
-0.03353228913081196 
-0.01063330505105002 
-0.01919025903090056 
0.01130668014152052 
-0.001958374158715885 
-0.07223878172093022 
0.01937070545573091 
0.02019240555596366 
0.001627403061022754 
-5.887712481258681e-05 
-0.004677035519442423 
-0.02086464813726119 
0.02375947777263199 
0.05037680552385799 
0.02409550380057411 
0.02939597412572368 
0.03938883850639078 
0.03539653710316108 
-0.03771659339552546 
-0.02630219598884594 
-0.04363790333971565 
0.02653470904174482 
0.01778294016442396 
-0.03064638409689583 
0.01767618867911979 
0.03566785663558286 
0.01694115668521325 
-0.02908702585440913 
-0.03288966929277749 
0.00968352995539253 
-0.01202795269516482 
0.009247557531429479 
0.007148248244409865 
0.01784761319076954 
0.03431038673228714 
0.01367730880915922 
-0.04312031272400682 
-0.03840177792040415 
0.01105979256638034 
0.01513788775643998 
-0.001537616969999979 
-0.0104623378480056 
0.002724053476407359 
0.05215055927179046 
0.002291386913321885 
0.001950476855480834 
0.01413804246123061 
0.0001930622480298573 
-0.03101511567888679 
0.007793413028011197 
-0.006490718695945189 
0.0005215895391404588 
0.02389279519860283 
-0.004040659087652454 
-0.02729819323918503 
0.01390649311640132 
0.01169594343837558 
-0.008198658956080377 
0.007082906132099741 
-0.01789788624456236 
-0.004011647540109997 
0.02064794382264782 
-0.004024837942064006 
-0.01367893868326216 
0.01176334703150887 
0.01514241650695709 
-0.02629040206276155 
-0.003108437654789725 
-0.0015930158829259 
0.007931888064746711 
-0.005710982936494861 
-0.005156092884759592 
-0.01508803917996205 
0.01820848073409272 
0.01188006657943306 
-0.01789694630941413 
0.003608927441514722 
0.008834920736358397 
0.008409206076693912 
0.04681056727038257 
0.009190614564116201 
0.03258919288384393 
0.02768192072382288 
0.001377854520413756 
0.01112607232693969 
0.0007132491565627771 
0.006313108847783144 
0.007026673436326012 
0.009704765915815716 
-0.005555653760119975 
0.008133787559951939 
0.02655362590630035 
0.001575195759920453 
-0.003556391820089315 
0.002802833507345728 
0.0295521590745588 
0.03426253614627353 
-0.00343983609736716 
0.0001327601189191307 
0.004452506018794318 
0.005333313281011967 
0.01159510473100752 
0.006559536619442343 
-0.02037036352773125 
-0.008294132653332127 
0.01062661020022783 
-0.02183899222659439 
-0.006271072405743696 
0.0286661098496203 
0.001726302860488084 
-0.02100804553233434 
-0.01636955590192493 
-0.001702775916257284 
0.01092479698825118 
0.008287991769421804 
0.01478856700529663 
-0.00473366836549084 
0.004942414842396773 
-0.01261045258620844 
0.01720645966200961 
-0.00313794126859949 
-0.01070892377719486 
0.007323044785453147 
0.009186530092897377 
0.0116353712228939 
-0.008078313074642698 
-0.006865461750276656 
0.0005784444040997158 
-0.003282367199364087 
-0.006991096740400789 
0.009191634298077862 
0.04008802071078532 
-0.002044173307239998 
0.01446766503781299 
-0.008189485349043676 
0.02058711692439864 
-0.002499212998949228 
0.009764557054271813 
-0.01559315828701654 
-0.01886002118990387 
0.002068804653514556 
-0.01830270975253171 
-0.01028640755160296 
-0.009789732341238063 
-0.01758905427190162 
0.04360418260299025 
0.01194036828976237 
-0.02976550093225862 
-0.02211266007349605 
0.02453443196478538 
0.01572190591451412 
-0.01346323802716036 
-0.02067526206666222 
-0.01083259742026334 
0.02256497154203233 
