solver_type L2R_L2LOSS_SVC_DUAL
nr_class 2
label -1 1
nr_feature 3780
bias 1
w
0.06800278207738518 
-0.03847607514242538 
-0.04951411212953607 
0.1070276195665956 
-0.1121319197320098 
0.2357741852960751 
-0.08533054386168454 
0.04130858312042586 
-0.05331021296061083 
-0.01298613263339094 
0.02474347702527973 
-0.009880744258201813 
-0.01949140821304636 
-0.1406983401135733 
-0.0361229477722303 
-0.001088463617214424 
-0.0648734213260251 
-0.02922513598619455 
0.004875803624084549 
0.005780122639096391 
-0.0128435896131803 
0.03099819428678489 
-0.02809088613812164 
0.05355580571483323 
-0.1613229291205639 
0.073275903834967 
-0.04355181440038037 
-0.02335608665404307 
-0.003334141341064256 
-0.06813381820861963 
-0.01561573510488783 
-0.03675656976677733 
-0.04949028298535822 
-0.06200265349832712 
0.02150483990686472 
0.01295219062789166 
-0.07857580509609892 
0.04367067813151047 
-0.01551484415510559 
0.0597594932852338 
-0.03653834361661971 
0.02903645727966996 
-0.0812495232710134 
0.05373432836857534 
-0.03755961210620471 
-0.01455107117833129 
-0.02623563403899593 
-0.05865048334895929 
-0.09517838041887966 
-0.1062936013644949 
-0.06417603239061684 
0.02164249528664652 
-0.0385900467725717 
0.02971526694682256 
0.04099408120943929 
0.03032044038735029 
-0.07417937379343402 
-0.03106062267035284 
-0.02520216580217692 
0.05875509815836355 
-0.02456818993685 
0.06874918543806663 
0.0186453722430375 
-0.03854344855726494 
0.02503596241683654 
0.05378963972823667 
-0.08661371321369618 
-0.05203062238691065 
0.01017863644981688 
0.06695104335569046 
0.0158658638975497 
-0.04627343961425569 
0.03396985047376612 
-0.06705660882872833 
-0.1000706113407373 
0.09117282857610934 
0.006960631697621148 
0.0451606816440605 
-0.07926873282876404 
0.02801531330410027 
0.000605237631430092 
0.01152868951832777 
-0.01431225323214795 
0.04577926361538245 
-0.001751728267887169 
-0.08712974304163984 
-0.07651086302610509 
-0.04602930870110162 
-0.07054715125096515 
-0.01543162138894073 
0.04468530250320678 
0.07746744013361825 
-0.04102628231841166 
0.06201994305642469 
-0.0446564108998604 
0.07601726904169985 
-0.01806737572410493 
-0.008621665636287978 
0.03523446964486245 
0.02407328657294357 
0.09358372660208188 
0.07984863797689624 
-0.003946384820000755 
-0.1505818683085614 
0.04427046879068437 
0.03866562372385507 
-0.03032314557312671 
-0.07322355796999765 
-0.05429862278867233 
0.01237227267393771 
-0.0422231976171951 
0.1960969217143359 
-0.08802864430521683 
0.08145674374785557 
-0.03036263651230306 
0.09100427485058782 
-0.04113933015142481 
-0.03747196669642648 
0.04840678412738574 
-0.06180857191433407 
0.04085210013390148 
-0.1871260626066804 
-0.03451342205348915 
0.02442357146667911 
0.02003157994964999 
-0.1418588013810347 
-0.06179093231825796 
0.06988181430539435 
-0.04148559924518698 
0.03256484132083395 
-0.03904142934073877 
0.107179643511749 
0.01624136433136453 
0.08437682255188887 
-0.04869648363966277 
-0.06657918175709425 
0.0188159907728223 
-0.01565874843268696 
0.06020120940246854 
-0.1282509198625841 
-0.06764778352389793 
-0.01505926115670181 
0.05880776435756657 
-0.07122482519147488 
-0.02561496921351298 
0.06762658628296232 
-0.02660241823331271 
0.06260655116180237 
0.02204938863615354 
0.0728809151251478 
-0.03152208695751266 
-0.0627031765228625 
-0.02271775509947507 
-0.09058233595285975 
0.1319688177553522 
0.03033556725324877 
0.161320936947598 
-0.001871214207721155 
-0.09341104466532937 
-0.02192430522009149 
0.07840050449721947 
0.02585828922224016 
0.08314373273496868 
0.01767515094045376 
-0.1605024875090898 
-0.009681542842261479 
0.002959585201956734 
0.01585232726047736 
0.00732898958412479 
-0.05312549029677001 
0.01422551067350931 
-0.09680408665025729 
0.02937271373655282 
-0.00517319255408753 
-0.09250340747559282 
-0.09690945721014582 
-0.009193471466043455 
-0.05302828435254447 
-0.07100820650812448 
-0.05374126691128116 
-0.1046134980588633 
-0.0161562801948365 
-0.02108450635948888 
0.06165127376121705 
0.04404216039431091 
0.05526008524094426 
0.01401975666523694 
0.03521979478263836 
-0.05123463954777982 
-0.06527753372019311 
-0.06562675985198473 
0.05618238284483203 
0.00344204397287068 
-0.06539044997383137 
-0.03544175480442059 
0.04180202403277307 
0.06921887348311613 
-0.08627347042140968 
0.02253547605728737 
-0.03364668926559233 
-0.06619877077254235 
0.007625808021016594 
-0.07182648402154744 
0.07169268237097329 
-0.09907625688101331 
0.009192205989160984 
-0.06712843200910502 
-0.04639618601545675 
-0.1007039261707372 
-0.04922731690186109 
-0.06707095883906898 
-0.07620192815256478 
-0.01222221349204473 
-0.04475463796419005 
-0.01541468262110216 
-0.0679308121913412 
-0.03396982444566108 
0.0426436529228186 
-0.03341770185149211 
0.08397575310365327 
-0.0473408642453771 
0.1491646478820198 
-0.1067522397792469 
-0.03666597352626155 
-0.07582464989338254 
0.0380829041543165 
-0.0265474886151134 
-0.1056790072838208 
0.01720555996355937 
-0.02741342483962701 
0.05967506559625989 
-0.05810925215549675 
-0.04566448131807741 
-0.06971071631481843 
-0.04371045635436236 
0.02372390851035731 
-0.06904749353461322 
-0.02265460316067131 
-0.02088127989408906 
-0.01579888884869578 
-0.1178024130320061 
0.08942504688495163 
-0.0009280750941553131 
-0.07313815561653671 
-0.02505738467941811 
-0.07057670538608601 
0.04552510256596068 
-0.06378412969078742 
-0.0491129719100866 
-0.06052752138675136 
0.09214943702170908 
-0.05122825092500989 
-0.01944448664181224 
-0.04458365482499863 
-0.01451228513743252 
-0.01410061624354447 
-0.09838156854697659 
0.06817952648198042 
-0.04639971200489958 
0.004270385680790361 
-0.01641465212790114 
0.0198865497756959 
-0.001451624891039453 
-0.07339477702530003 
-0.06837367260812384 
-0.0282517343093488 
-0.04959291906343929 
-0.005999537456808239 
-0.0140603261624149 
-0.04149098629474302 
0.03209217677543522 
-0.03779903464141252 
-0.08267826171975964 
0.06211543611444043 
-0.05116278075876766 
0.07058792453761609 
-0.02492197759915492 
0.03972066169301029 
0.01970890810982953 
-0.01954972389118211 
0.02250783283544479 
-0.07065883044288593 
-0.03530263720375231 
-0.02454137120389483 
-0.02312282540546873 
-0.02723360508391543 
0.02362586980836922 
-0.1195779498232356 
0.06009106319880007 
0.03334561590241947 
-0.01530030410232696 
0.06151441119675839 
-0.1025688947311483 
0.08200278920428392 
-0.02500557187693534 
-0.02401733978943498 
-0.01341618453361117 
0.0497382999825815 
0.1193626811275059 
-0.004461046968462068 
-0.01493446740298555 
-0.06136297925817724 
0.01452400187883963 
0.005655643921541744 
-0.01027012989656083 
-0.006376344073881749 
0.004067478318290332 
-0.05746314508096435 
-0.08968402282148369 
-0.01779530365564201 
-0.01963661697687287 
0.003979399006140626 
-0.03657681125267208 
0.07138063767861885 
0.007474917464819054 
-0.01549807000481859 
0.01870275862226565 
-0.0286195529726759 
0.02603957480793057 
-0.04664508651816323 
-0.04119371976964156 
0.04832885998676958 
0.05663588381964457 
0.03877421796799847 
0.0100162207211748 
-0.07258889343514914 
0.04858538367910761 
0.1686257615270348 
0.02702770116283452 
0.1172221456716165 
-0.06214653600254785 
0.1088370731539795 
0.1279201598859066 
-0.1086626420812171 
0.001104140018706154 
0.05560181298291379 
0.09048716161529441 
-0.1327634934057125 
-0.1468282315038385 
-0.06961436233619613 
-0.01632307796641647 
-0.02999976910677252 
-0.06803235229794036 
-0.1636691171921477 
-0.02943776391330339 
0.07718818752942103 
0.05735861606198772 
-0.1625399595754721 
-0.1936546903447093 
0.04547699131801099 
0.1839590462144459 
-0.1633096352307508 
-0.1777501370321182 
0.006158043223512977 
0.0552772802765204 
-0.01284785855762357 
-0.1236760809566934 
-0.08518592202046636 
0.003968605978052714 
-0.145747991746814 
0.07938185841749321 
-0.2185681350867761 
-0.0981400552078978 
0.08964781518211934 
0.1879224141517268 
-0.04087004592652691 
-0.160276579596511 
-0.03207206095762016 
0.1360489799596115 
0.04257346274557809 
-0.1310505443883969 
-0.1058399927960034 
0.02713349850628153 
0.06699088869127658 
-0.1046139961553026 
-0.06618184454551494 
-0.02171922375863582 
0.04695270929598979 
0.1783324304763302 
0.04200431465745154 
-0.1206382425417307 
-0.1192862679888885 
0.1407603662712192 
0.1235690203240892 
-0.04644246226930276 
-0.1357324250520983 
-0.01085697548648137 
0.06419090617807897 
0.03607897602468089 
-0.05914607761280605 
-0.08486940235350808 
0.06335484226162975 
0.05132300145329859 
-0.01617467466707383 
-0.1038018100659708 
0.00301691028717413 
0.08982200331160745 
0.0007271208363958633 
-0.09027501533818438 
-0.1605243620876529 
0.1288356334344408 
0.08951818330936452 
-0.1054163383730267 
-0.1979352154566046 
-0.02634294323274684 
0.06146351910232364 
0.06134473212476624 
-0.06207702923391109 
-0.2642543582618713 
-0.1072646240959416 
-0.04734548005950805 
-0.05761871465476258 
-0.1419775550622727 
-0.03241435659859249 
0.05550485038809096 
0.1028130261538058 
-0.07319038322395252 
-0.0068639689994374 
0.01067781825985259 
0.1471120003401521 
0.07696205303767741 
0.07210185393370003 
0.07280018655217346 
-0.0643451020585346 
0.09757531248035949 
-0.01003216404857026 
-0.02534258432442553 
-0.07888745329643143 
0.001339724296892528 
0.001196664467889524 
0.0004111143056421489 
-0.1437810091041901 
0.004891125421104056 
-0.1001177694848953 
-0.03978812490221293 
0.03436158842734029 
0.01254825428486684 
0.03902215825127985 
0.00646584478147161 
-0.01452607273001702 
-0.04417444683573515 
0.01444479907001175 
-0.04097032476219805 
-0.03078403496191297 
0.02656254055053966 
-0.004116830824269957 
0.039689406849106 
0.06214204985240068 
0.03578342249121702 
0.01463923542212748 
-0.0377328486541665 
0.1267498772131513 
0.009920049336422918 
0.08218513163344468 
0.01212047736959721 
0.05046607717358698 
-0.05867115973959815 
0.08558709949632048 
-0.01650653595399405 
-0.022566244394646 
0.001468869574426974 
0.08071559143914522 
0.04790769256056968 
0.008513473224251507 
0.007186091336014359 
-0.0457033013407581 
0.004477954160891921 
-0.02106215066223204 
0.01794223723991296 
0.02660009726131943 
-0.04636498012052118 
0.0100068914515022 
-0.01613918828201479 
0.04609005109193955 
-0.02799708595854628 
0.01573774456765441 
-0.01317640910061028 
-0.05885666441511726 
0.0156483174062395 
-0.08181046200694386 
-0.03479188881267675 
-0.1299392213755582 
0.006273203710860973 
0.07705295477492047 
-0.09985238734904801 
0.0214635856773158 
-0.0860755115776361 
-0.01397110697989728 
-0.03872652014172737 
-0.01027123422634233 
-0.0007697268085110143 
0.06780990204386113 
0.03080721739657662 
0.07305560690961298 
0.02539380780129512 
-0.09710668536873249 
-0.02668340983815732 
-0.07209584135718669 
-0.02741456752295043 
-0.03688723546900694 
-0.04521183764316572 
-0.01197248427967839 
-0.07058821945621965 
-0.01706603477020247 
0.004527744892267259 
-0.0666701117713886 
-0.006302050579951846 
-0.0711690355418913 
-0.02076529245657084 
0.008701998234666207 
0.01012979876616689 
-0.02598564982072793 
-0.01031666889252864 
-0.01776455495148351 
0.028373245868842 
-0.04419987486664299 
-0.06920097372681344 
-0.05911895288595976 
-0.05141179590604282 
0.008849249984236933 
-0.07205675434227159 
-0.03326166363406356 
0.001359628377059505 
-0.05186766957494806 
0.0006935077528473505 
0.06216248061064991 
0.01430297120326146 
0.0286606247099008 
-0.05203202915803029 
0.05234972908608568 
-0.02433852803247913 
0.0886203675520577 
-0.02112997539379452 
0.04089734232719022 
0.02904994968770777 
0.02314669646909022 
0.006092616055161547 
-0.04305388147899485 
0.02185649342468304 
0.003693625366447377 
-0.04194521114408958 
-0.09443709417047318 
-0.001727101303668944 
0.01085274806560266 
-0.04411206228138328 
0.06333629735225899 
-0.1315100036021309 
-0.02323849508523759 
-0.08428901942955974 
0.03219488991530303 
0.01261074622149416 
0.04228205550275575 
-0.02404959690321493 
-0.06180300122067982 
0.06913352164290605 
-0.006626682346479226 
-0.05071323612459445 
-0.07355399367164442 
0.03895705676195068 
-0.04223479352289782 
-0.07603811288457803 
-0.05078360465869294 
-0.006542895111729651 
0.1277280785274794 
-0.02987021122201598 
-0.0288043288878892 
-0.04586524804745843 
0.1536165160702538 
0.03404747946326556 
-0.02977823369957238 
-0.02679875817493743 
0.02609596494243598 
0.09323907693871471 
-0.09011269633620886 
-0.04175725917665399 
-0.02043270622149729 
-0.1073177076252895 
-0.054128347931629 
0.1074501396802644 
0.001602916321935559 
-0.03773626353308315 
0.1570446407262395 
-0.0124788046728707 
-0.02490892788421037 
-0.126609981335208 
0.06630480331804887 
-0.006173060804537392 
0.08620623870900954 
-0.02385563073617502 
0.01246621551065638 
0.01094541865761329 
-0.05054028618545038 
-0.0008944687048774793 
-0.1117036642432812 
-0.063259273220273 
0.04400304713630609 
0.09428284856256514 
-0.08272413694802383 
-0.06086865327235658 
-0.05283004403512129 
-0.03666056476804254 
0.04421468067691778 
-0.1594139971473851 
0.06792864082852253 
-0.08514522695285183 
0.1193415209501725 
-0.1508570589655206 
0.005530492225899427 
-0.01978383881310808 
-0.07010491137333336 
-0.07465923062420785 
-0.2753317028933771 
0.01216593142941711 
0.004866260820543226 
0.07591693179199072 
-0.07480988408859111 
-0.03439328814633821 
-0.04779671548583277 
0.04894204441527126 
0.04101106362736347 
-0.1211985103773633 
0.07303998501681781 
-0.04990102677571898 
0.1150467180644801 
-0.0710513693112212 
0.04314475843888634 
-0.03610571002931246 
0.04411818700082493 
-0.08230470450517176 
-0.01757764321072173 
-0.090406784696919 
0.007745459711382464 
0.05954776280757326 
-0.0274007498034442 
-0.04297973912775117 
-0.02949861924110851 
0.170704534239816 
-0.05775191131188874 
-0.02782591776840721 
-0.03759341777481314 
-0.02105434362893974 
0.1080933339695301 
0.04871392309096904 
0.05136456964740514 
-0.1240532132848501 
0.06358906579178525 
-0.03710010744533097 
0.06585550294159212 
-0.1433887030152364 
0.06515788416146948 
0.07423229866987419 
-0.03036589310481889 
-0.1436616897559813 
-0.151911057459116 
0.0796823386218914 
-0.07338546982732787 
-0.1072573267895048 
-0.1045209067870624 
-0.06773172792702094 
-0.007678165074221944 
-0.05176673191800128 
-0.07343529943949362 
-0.2505691428954415 
-0.01437051814922837 
-0.09921061806805148 
0.002870421194067446 
-0.03434374055145942 
0.07768585033081495 
-0.0004227186643583854 
-0.0180822000237562 
-0.1196848247885019 
-0.01425859945497879 
-0.005704702362394635 
0.09307192672744616 
0.03468960203202128 
-0.01818018056083038 
0.06856621176633719 
0.01684904030551274 
0.114408977074239 
-0.005631895202326603 
-0.06275819354122383 
0.03510738854358673 
-0.09070061958879301 
0.0557341198657641 
0.01403360769674341 
-0.09782011823635811 
-0.03090246796789465 
0.05052629081614156 
0.01062837721542904 
-0.001735249495510799 
-0.02962886756476521 
-0.001941644646321523 
0.07030835390120831 
-0.0406900385566257 
-0.03738068373409832 
-0.0224442884323765 
0.1298829182234243 
0.01848421243843874 
-0.01105388093698414 
-0.02159205046179823 
0.04703903830249695 
0.1161645804233285 
-0.07109686413686425 
0.009175752345835569 
-0.092706270895679 
0.01062530483982062 
-0.02983739189796733 
0.009767826947486779 
-0.08500779295719402 
0.02181198211675354 
0.01161112954605116 
-0.02527985872246319 
0.003782482924933187 
0.01514179078730913 
-0.005505455445054159 
-0.001341146050466346 
-0.09214932478280247 
-0.03220608429559756 
0.01357718255621329 
-0.04521862384177894 
0.01684840191738473 
0.02694119341748506 
-0.03171251434358277 
-0.01448759730696444 
-0.005140472285105651 
0.02567395682739072 
-0.013828915675703 
-0.003147528605317737 
0.07568426619955879 
0.005351932321034592 
-0.02939520979620019 
-0.01829207872098123 
-0.02552842207944485 
-0.01241144228127184 
-0.02811673533171163 
0.03462314803007257 
-0.05890077891239154 
0.01948565498938258 
-0.03613087962529677 
-0.07527715360148668 
-0.06256194634260338 
-0.005056169519559025 
-0.009330994089535567 
-0.0005727466319482268 
-0.02801127377234125 
0.01663576715239101 
0.0208435160399932 
-0.03497754541887452 
-0.05951861466345706 
0.02960571028325128 
-0.06210524656699141 
0.02244201481934447 
-0.05978357875501361 
0.004046038953309282 
-0.01420815432847384 
-0.02232380083684904 
-0.09302878812467662 
0.01606940125281514 
-0.04136082962313097 
-0.01257195301305326 
-0.02331864832938661 
-0.00647251084943497 
-0.007840302887083688 
0.006128897096367911 
0.0003347746622500903 
-0.02664938619696091 
0.04739507638916073 
-0.0007229869780130942 
0.007413004900888602 
0.0005682483937444256 
0.0338306458451635 
0.05602902035750901 
-0.02811274448256479 
0.01226424939602096 
-0.0587686086715102 
-0.008488211864128119 
-0.0109110305599126 
-0.07794299558561069 
-0.004815576395312575 
-0.03441420600483508 
-0.01855602422118753 
-0.006136627768686746 
0.05548049074864109 
-0.04531479870986165 
0.03370142609969364 
0.005338374885417075 
0.0135782990178199 
0.05323933069321354 
0.01681765200062735 
0.003859150166020457 
-0.03872242739930244 
0.06498182818270275 
-0.006803629581733967 
0.03616369980838623 
0.05673061573557036 
0.04611713066138777 
-0.01180057081292986 
0.008785485213047948 
0.09202962721888668 
0.0513617948668741 
0.008161402961379202 
-0.02916769718330142 
0.05722897634051078 
0.08088622601674396 
0.06478480593693921 
-0.002570136348665275 
-0.06040857727509599 
0.02874403982988365 
-0.03572774059541741 
0.08446891207759134 
0.005460534928020702 
-0.1261044835742723 
0.02084072549767107 
0.03304521193405736 
0.08722271153999514 
-0.112044716061644 
-0.1277148215515114 
0.003084142782983793 
-0.02202542590310896 
-0.02580246959514505 
0.003012863518091755 
0.02447130009701983 
0.0007366478175053481 
-0.008688830095137831 
-0.1153594439650501 
-0.001384343275196262 
-0.1146729509915463 
0.1002133222117837 
-0.1478624647365901 
-0.2533167263261594 
0.1241880810406098 
0.06618490599671253 
0.06634691928146913 
-0.173060110510086 
-0.04946337749450573 
0.1174388394292041 
-0.004734123928222087 
-0.03883025362009533 
-0.1212645770936574 
0.1273094457041046 
0.1553609086726938 
0.0359200928467882 
-0.1632446685526226 
0.1374728157563064 
0.03332996193253461 
0.1740123726321061 
-0.08572696719988576 
-0.2055742986222548 
0.07243722423997799 
-0.1404185629348749 
0.1571527622154794 
-0.1573706967800318 
-0.0794104196019066 
0.1026581702774808 
-0.1013723025495766 
0.1509496255899455 
-0.03711443609430455 
0.1756040951540896 
0.005891917538419123 
0.190054427372112 
-0.09093173773101257 
0.04026572138888688 
-0.06639089328466169 
0.1467975027451228 
-0.02244270340714244 
-0.1035718301045056 
-0.0643248754973804 
-0.171438729638925 
0.1859440347611233 
-0.1361125730426569 
0.04642812230588802 
-0.09556394729952336 
0.008709818314568416 
0.1517326956377724 
-0.1009254294732377 
-0.02384182932183428 
0.02756867887210675 
0.1889112476821498 
-0.02327968434999574 
-0.01328924626350623 
-0.09061484025468775 
0.2022910508961825 
0.03119953720988923 
-0.1508336831533943 
-0.07226073730437146 
-0.1920753689129469 
-0.001493587348293578 
-0.1183620427257276 
-0.02586490978971248 
-0.1041886924627973 
-0.03650164638333587 
0.1662973307612795 
-0.07364053303294539 
0.0357440213321486 
-0.008392441767801889 
0.2686417383031765 
-0.04758929310236549 
0.01321789567166981 
-0.06782572142026587 
0.1728729288601246 
0.05359793371303997 
0.007490278573205532 
-0.07046119687737487 
-0.2532055757599002 
-0.02593433878020944 
-0.1590081506749652 
0.09162643524991575 
-0.1945774392211075 
-0.05750179800669509 
0.1332310893012832 
0.03815637682188013 
0.1367007765803119 
-0.04710793108975803 
0.2969027653340223 
-0.03278131954185688 
0.1030452119027274 
-0.1929536580766021 
0.0523267448404884 
0.1147792409603769 
0.1419143931445961 
-0.06145200645713841 
-0.2241100973220744 
-0.02982808883455504 
-0.01784247122394247 
0.1205917203140595 
-0.2030145973677778 
-0.09974921564473795 
0.16579306711008 
0.1150494358875716 
0.06745857919036385 
-0.1338521561844759 
0.06198436464479271 
0.01003544017246679 
0.09544678701211924 
-0.06857568131798308 
-0.08134412583310266 
0.0366436121731806 
2.050394598955894e-05 
-0.1280727342633094 
-0.01778712179373664 
0.06724300985017842 
-0.02501421967268462 
0.03470738066124069 
-0.1169934524460136 
-0.04298743214931674 
0.03173725403437658 
-0.001859366421564816 
-0.03189707976176632 
-0.07199506520001811 
0.05051843086847985 
0.02216975371021435 
-0.01094675078432736 
-0.1131899363030286 
0.01009033384504258 
0.027770112502548 
0.1352315858990783 
0.06696578321785811 
0.01955937118019425 
0.02840547936252891 
-0.007965620956267173 
0.03318787263685052 
0.1271129012831408 
0.08044611858627682 
0.04880274288386995 
0.02899376615359482 
0.04893034563055469 
-0.01595016489340629 
-0.02222007015067287 
0.05498747027482451 
-0.05866614096091872 
0.09350121338923717 
-0.005150104872830972 
-0.00682529210608524 
-0.05313916385735679 
0.008134637528460503 
-0.009200480717195219 
-0.004165719814261146 
0.01558960390290345 
0.02714491616040527 
-0.02676997925768247 
-0.01232241390478136 
0.06030350692751336 
-0.02124344506639615 
0.08875647157201698 
0.02759808628710549 
0.01376753509546856 
0.0204440760567512 
-0.03966183685198262 
-0.06978256656787096 
-0.03876551521081777 
0.01612175617279519 
0.02537197594317959 
0.006459457826376389 
-0.05501146981979658 
-0.02829790837333277 
-0.03420198961480052 
0.02762809322780721 
0.04084589646356412 
-0.01862939824881667 
-0.03391056913267843 
-0.05344719721294121 
0.0692857089620708 
-0.03101001765201368 
0.01986824404539346 
-0.009190189705641444 
0.02829855080722841 
0.03126999163319867 
0.04116536317457718 
-0.05333895993986917 
0.002115712238462625 
-0.05452433275717686 
-0.05981711263648782 
0.01140349270361092 
0.09786070650812258 
-0.04055555009382509 
-0.0448251733542389 
-0.03318777026823286 
0.02121351893730837 
0.07931191140118189 
-0.01879487488023772 
0.08746641528363915 
-0.01945056481148619 
0.06651509692921692 
-0.04572799713045676 
-0.02509618616928561 
-0.01749522081968806 
-0.04950910641693159 
0.08055208113595484 
-0.09989612180425236 
-0.08727698953247447 
-0.03947297337043154 
0.07271941060366706 
-0.06658928825979743 
-0.0004202189800309679 
0.03138495837011703 
0.04284874292452882 
0.01753940704910394 
-0.01017772571027004 
-0.09309772272793644 
0.08573163825071495 
0.03196405801037167 
0.02470160410516912 
0.009947479731984399 
0.08660230904399131 
-0.03765422321269547 
0.07733892357218598 
0.08104729856318804 
0.04098707056613032 
-0.0321187049986184 
0.03204721093181141 
0.02427785111893388 
-0.05661807592907359 
-0.02638591230745695 
-0.02897991811442945 
0.1095486457905833 
0.1048070835024314 
0.1718738805957094 
-0.02959323743109808 
-0.02873204678026925 
-0.01564177680382048 
0.05388596087850977 
0.05574257887665942 
-0.1211442398905371 
0.05148755950745889 
0.01657781533917472 
0.02292345503436466 
-0.01274206846065409 
-0.07116922073367674 
0.05068549314984369 
-0.06076722833091331 
-0.001065901402873126 
-0.01783147230650825 
0.1399522611196945 
0.04874330553503323 
0.0003146495006340568 
-0.03534597109305231 
0.01087350865660739 
-0.0537738788522959 
-0.04062933905816509 
0.185449808218636 
-0.1388682703385539 
-0.1258849352389815 
-0.07034525190079687 
-0.08036562651133908 
0.0114670539023109 
-0.09135070806953292 
0.166013738510994 
0.0143197818840781 
-0.06328183412532931 
0.02968999666488539 
-0.01062091884345222 
0.004641316031278082 
-0.08614043705529525 
-0.0115931658895521 
-0.03918190789213973 
0.1013236137256077 
-0.007227632440121057 
0.02634632115900344 
-0.02978369769486584 
0.04680597828652343 
0.09269432691413104 
-0.2572605522017613 
0.004012347169542018 
0.04505438512554936 
0.1412539106456184 
-0.05978077486084699 
0.08092928590789297 
-0.02886368119020644 
0.07204448148145104 
0.02578329461861126 
0.009161523767432159 
-0.06354743626577812 
0.01766225903235271 
0.08302324999154743 
0.08843016937563064 
0.1397882282272472 
-0.1282609940311404 
-0.03574514963710915 
-0.0195217491860799 
-0.226961649279481 
0.01126053062822182 
0.1285427018475908 
0.1406894537856495 
-0.001056834432662546 
-0.01452511353974337 
-0.09611894334177874 
-0.03505824803043039 
-0.01741687392870307 
-0.03496787582566478 
0.1060104572864462 
0.1080316920123939 
0.06621348471810064 
0.02555185801125576 
0.05903534035128712 
-0.1789877630854507 
-0.0860924101156738 
0.09433735433273241 
-0.1409942905686531 
-0.0819745673254911 
0.04005845220268251 
0.1056497155364658 
0.1589588405378881 
0.1312981659213587 
-0.0311719180994175 
-0.03398905952961676 
-0.04581031352572362 
-0.05398215169023875 
-0.0445235947051202 
0.02071196501967566 
0.02198042669889498 
0.06569967126490019 
0.08983330466275623 
-0.1327310814975157 
-0.08411507912637485 
0.07476984458807721 
-0.05304431702471746 
0.02150451729490879 
-0.02528170229377136 
0.05925480302407597 
0.09666303941994898 
-0.006701810321016455 
0.008904095780904226 
0.0422731461269886 
0.09522014569255915 
0.03955140725931291 
0.06581223621722174 
0.0680703985147743 
0.06950944440524379 
0.04278385699328882 
-0.02267378897943226 
-0.0842225373294485 
-0.07318662104298398 
-0.05944329231733909 
-0.1929286370365935 
-0.1047789487683756 
-0.05043947149203457 
0.03243432487977459 
0.125765781383723 
-0.03390207341619817 
-0.03518466722155886 
0.03067553692067795 
0.02961476017948773 
-0.0951485064115823 
0.07166099938383912 
0.04507593457348639 
0.0179432239942653 
0.06242814038850121 
-0.0533920980143632 
-0.03866346385651025 
-0.04879693138454764 
0.07666911721741497 
-0.06023687369952578 
-0.01601026525990116 
0.02661894919870363 
0.007512349025031973 
0.01708834682789404 
-0.06244099588778226 
-0.003802936069744205 
0.01791432467037971 
0.1063984138808704 
0.02903788236636501 
0.07145903572430382 
0.0979685415279615 
-0.06337679072931296 
0.07013118339931337 
-0.02102624226003052 
-0.004451583282556977 
0.1211692822153884 
0.03558661227997948 
0.01717498570698147 
-0.07632176077599548 
0.01291529831683792 
-0.01886539546222772 
0.1282781479388993 
0.02719390241580809 
0.05820405944772029 
0.1177071157161766 
0.1640185682208958 
0.0150563741381235 
-0.1248484454325496 
0.02477134832703851 
-0.05576780096090427 
0.0883294498507433 
-0.08012951724274335 
-0.01304145989591108 
-0.07571780631265763 
-0.03552430356040016 
0.01923947556963263 
0.04006601398584832 
0.03930539602431034 
-0.08480826392291933 
-0.05872473047745771 
-0.01606026881717842 
0.02540816625301349 
-0.09277354403947696 
0.03994304764486067 
-0.0009537553201582823 
0.08021372742902556 
0.0876331710044152 
-0.06147775266324662 
0.047918803636176 
0.05706597578611752 
-0.06692657988037198 
0.02306601551935555 
-0.05244535569913444 
-0.05595006905023606 
-0.06629675070437879 
-0.041173880360712 
-0.02821711427264419 
-0.01149752734921278 
0.02679736381609623 
0.02715549076810469 
0.04759074276540762 
0.04832687092342676 
0.06322199188465114 
-0.01643998252560891 
-0.01111233279879897 
-0.01692020965727771 
0.07106144436043878 
0.01488186702788717 
0.1282622157556005 
-0.02730308036810463 
0.04642160835078216 
0.0135937957963824 
-0.002500722848773492 
0.035947709291729 
-0.03718196944548685 
0.02700883378878081 
0.006102449963399412 
0.03207285013973187 
0.07453012495674091 
-0.01755716079844918 
-0.003478193653148869 
0.06739389960763074 
0.02887670181059619 
-0.02570583208408882 
0.04607077563365924 
-0.01373854987419893 
-0.04019869685570921 
-0.002138296104753595 
-0.1309588930835916 
-0.07276766730130747 
0.007579114480346009 
-0.02288267023906258 
-0.04140668283397475 
0.001488482329842446 
-0.004166662607328997 
-0.01497704716922928 
0.04643686695045889 
-0.04086293861565715 
-0.04151092002184859 
0.02775124354984744 
0.02945179759999837 
-0.02369368730582192 
0.1083535394200229 
-0.06024087633192969 
-0.04866172831430746 
-0.01874647202032347 
-0.03141429287891331 
0.07125947093331288 
-0.07207382091155183 
-0.03333414208857643 
-0.01153075779346173 
0.02160942782031091 
-0.06346981548343995 
-0.01052989191804984 
0.05052494098109718 
0.05335462348195788 
0.06269096102870408 
0.008256615807936641 
0.09785593034085871 
-0.0312036779563789 
0.0687085707690388 
0.02112790081908953 
0.007449463694887848 
0.007356100527341034 
0.03267091841398353 
-0.01137502766733633 
0.05920009955701152 
-0.03718500458736921 
0.030184414829331 
-0.09737553737807658 
0.0847243858776664 
0.02200993968601368 
-0.005169290474597741 
0.05305104526010353 
0.0579094880397103 
0.0296630475332076 
-0.03543838152304748 
0.08204519980564932 
-0.004367531822547712 
0.02012465410632993 
0.009856247435793671 
-0.0868588862235234 
0.04343993513363899 
-0.06267863470959111 
-0.01080713133302234 
-0.151749565301176 
0.08678163937148144 
-0.1053591026975601 
-0.128589033236643 
-0.02941919235962205 
-0.05502355232440753 
0.03651605668197156 
-0.003634137930854381 
-0.01430214707473272 
-0.1377178358197511 
-0.05993168311353823 
-0.0935758726254154 
-0.05320331837657064 
-0.00398876746786724 
0.08850332803275827 
0.06174777952965631 
-0.07861941329237122 
-0.1432602245197061 
-0.08858824528047944 
0.07118002538098817 
0.06245168755742486 
0.0004590345106141992 
-0.0425530250847584 
0.1301474828700454 
0.1095429116049154 
-0.08097901000705583 
-0.04568324949187483 
-0.0799552550807836 
0.06624581808983902 
0.06440124379465953 
-0.01380124810109886 
-0.002304519989023665 
-0.03799736647549898 
0.03450859738299868 
-0.003917693745504164 
0.00799433612701054 
-0.06159147845965008 
0.01581314126991568 
0.03733436588037067 
-0.0008085031587532822 
0.07763358040808546 
-0.05277031823109251 
0.02559679958686577 
0.001152426972826243 
0.129905803188323 
0.01601117615501335 
0.04416200203787863 
-0.01138004350343943 
0.03035237210375964 
-0.04068585024526743 
0.005900901180791954 
0.01563656621856517 
-0.03710350591381032 
-0.000301316827577165 
0.00353126994261479 
0.02483587987354052 
-0.1451765209383792 
-0.03562142710569912 
0.04694245925731336 
-0.01977092929958545 
0.03602921801692211 
-0.00586537033920492 
0.09329600452427285 
-0.009213624780931212 
0.03000872526843636 
0.04218318700077667 
0.08077159810546612 
-0.08217225977000041 
-0.00878205710696766 
0.1274337264307074 
0.0114854479904668 
-0.006718172336824793 
0.03741513508712536 
0.05946449082255861 
-0.0170837961228451 
-0.06470081649313755 
-0.03877019802898663 
0.03241396717638561 
0.13866743095023 
0.0280171960657281 
-0.02572022226307253 
0.01857055026199132 
0.07899628429864611 
0.03725926276605731 
-0.1153118257879331 
-0.02798665869259387 
-0.03418672672343324 
0.03410906511846101 
-0.1107450725270754 
0.07842535442985811 
-0.1112149416158955 
-0.01181873422505498 
-0.004636812134365995 
-0.035432680812137 
-0.005339004967124476 
0.01970848543784046 
-0.01917078755306675 
-0.2206152781110818 
-0.007510471218085568 
-0.03630592785911823 
-0.01960887758923312 
-0.04210621389422482 
-0.150661849253097 
0.04600470496667933 
-0.1094036051593579 
0.04866255573549112 
0.07397742507032819 
-0.03297234174939296 
-0.0157513276243757 
-0.0161169729650038 
-0.02470719661343716 
0.0003082399370645961 
0.1315886720203439 
0.00432774069087454 
0.02630455528859046 
0.05885036410982556 
0.07533112653683509 
-0.004402635779135855 
0.09614131437612604 
0.003966233490204856 
-0.0632033758108438 
-0.06570251168090223 
0.04552542184472972 
0.001805261904115638 
0.009973048945029773 
-0.07156875026687064 
-0.04671209714452092 
-0.01313918978528533 
0.004257747068987233 
-0.0908241516825903 
0.009975438602088025 
0.1028624705752919 
0.02320731803445786 
0.03362961391194511 
-0.01254769605033505 
0.1356711206583987 
-0.01642001815951221 
0.03241454497763742 
-0.005319786618803658 
0.04088982238397731 
-0.1573763510473452 
-0.06584383518570937 
0.0588409678128414 
-0.005069196817946754 
0.04259272494426823 
-0.01921936508088359 
-0.007005653362731686 
0.06575754915553923 
0.002153424702703078 
-0.04861879931352315 
-0.04717593027565681 
0.04660309382989247 
-0.07876367549103649 
0.1160168678498615 
-0.0266680748551827 
0.02486346412217903 
0.04366159836463853 
-0.04026008917442086 
0.05890157923877536 
-0.0237309117257286 
0.1222109544364614 
0.08506766493292985 
0.01016349859144764 
-0.02342703978246346 
0.06898368051427614 
0.04304985869867622 
-0.07359396423800743 
0.1033263399144799 
-0.0202809390654529 
0.08007588231294357 
0.02321276555564773 
-0.03592695502121589 
-0.01014210255326739 
-0.01372970408884983 
0.1919370107785905 
-0.03202792074550916 
0.01123533121528621 
-0.004720863021332099 
0.04511982260528177 
0.001813591559258754 
-0.006465887607062613 
0.05007181307279603 
-0.02062431484778083 
-0.02999840833823853 
0.05557212108557981 
0.05707486883096895 
-0.09972757142851209 
0.01683391516484585 
0.07310832116966681 
0.1123453906985647 
-0.06651618886178146 
0.02624390486395594 
0.002168424309283531 
0.02458947562837096 
0.07664251065318053 
-0.0468101090759 
0.04617054386329395 
-0.01386781464073774 
-0.02478889052214506 
-0.0739902816679017 
0.03434360262803929 
-0.05409535444769729 
-0.02164898247393534 
-0.001402392008960613 
0.00302409352958608 
0.03177762450473504 
0.0889283645558878 
0.02480036472661844 
-0.02201480662391537 
0.1284954758793165 
0.04288134864100555 
-0.01346542040931875 
-0.007670279904581011 
0.0368456294724957 
-0.0314255702370123 
-0.01563443101965532 
0.06671011562495074 
-0.02014019240658403 
-0.03523033305719401 
0.00377610724734478 
0.0151758421436944 
0.01512971740191987 
0.1146454830316665 
0.08172269080551148 
0.03518486794919254 
0.03742129108498314 
-0.01859502990161514 
-0.0488511376294971 
0.038998485028399 
-0.05164879258399551 
-0.03433086301442542 
-0.04743533072348701 
-0.002505283139191844 
-0.06239856862528026 
-0.08215672912420693 
0.02872074250362503 
0.01465292886081332 
0.03345763796529937 
-0.04360273084126362 
0.0812671080406156 
0.04505674486456542 
0.04668730808472777 
0.01157906830466394 
0.01170663248498502 
0.1006235154122201 
0.02096154277210836 
-0.001230172102935775 
-0.04454777456846618 
-0.04244001846098282 
-0.04505212615459267 
-0.0005599043357767472 
-0.1471789605277532 
-0.1571744165499501 
0.04534508248281072 
-0.06998166351679561 
-0.004570798939746896 
-0.01423716042728538 
0.0737301744777742 
0.04778961708825811 
0.01849342190658205 
-0.02136929472095904 
-0.09264222080961625 
0.06460441865443683 
-0.05990153977800027 
0.03393741864272931 
-0.1019288495187804 
0.08954554289922853 
0.02614029179193094 
-0.04174678307151645 
-0.034194884683747 
-0.01497076938379634 
0.0696495693319059 
0.01413346717729655 
-0.02480641898067401 
0.02531096249650411 
0.09067822797285519 
0.1007032538703603 
0.00839114575106816 
0.001802685331543424 
-0.004270644989791243 
0.1407655127755854 
-0.006556769921831973 
0.06867963787318253 
0.06872763787088376 
-0.08576166970630976 
-0.05412757582641734 
0.007256667320688965 
0.1932409209859574 
0.04184666817020041 
-0.01671460553421622 
0.005607252193085383 
0.05522944582821857 
0.1420452734439824 
-0.0375870458892713 
-0.06076896369044193 
0.0002547778380221061 
0.09412267129977479 
-0.02051601326707535 
-0.03899911373462146 
-0.1371906836869799 
0.08581279321953685 
0.07112410677523362 
-0.09827778747286951 
-0.04129486173079815 
-0.01164512875914693 
0.1125102400714731 
-0.05424434508876416 
-0.01776052768563065 
0.005768982193717987 
0.1202336859049941 
0.04315242541202632 
-0.007092564594349096 
-0.05358914465094185 
0.02888460401219855 
0.1008535910138612 
0.03083260931447858 
-0.03622314819970369 
-0.05623533200936597 
0.01728715456670724 
0.01855752944814889 
-0.04835004588880544 
0.06943385590319093 
0.02489160597334138 
-0.09817719079361027 
-0.05794006432468228 
0.03776088768919422 
0.06926674826641677 
-0.05630126284302011 
-0.02003115393165074 
0.1169297165052736 
0.1442893176247892 
-0.004083667667496675 
0.004242661878669611 
0.07091777050538071 
0.01536392265018748 
0.07938705888119539 
-0.06935748695307883 
0.02643022582907348 
-0.02379564241284906 
0.01590419282431641 
-0.1188623440805267 
0.01027128626308975 
-0.04625326183207196 
0.0007855435911556557 
-0.001714359738093852 
-0.1269770135163446 
0.04391517063626521 
0.02869156276379591 
0.06772569595990398 
-0.08497770166606083 
0.02199441737879249 
-0.1372863880496485 
-0.005467736000328485 
0.08957224552188491 
-0.1117924903761298 
0.05434126248064614 
-0.1227506573961857 
-0.008535241248096499 
-0.02777774689933279 
0.04953968703747991 
-0.02294707918735696 
-0.04750825291842758 
-0.01181972763064329 
-0.08481644751839762 
-0.01765258418843457 
-0.04742723821595771 
0.05324014933646666 
0.005134337505599465 
-0.03320144918275227 
-0.02856312052689414 
0.009534401478548204 
-0.01964051160820252 
-0.009244930963091603 
-0.04099152004130266 
0.02262402230627735 
-0.02529105842431243 
-0.07689856054143258 
-0.03075596523545142 
-0.02275648931409589 
-0.07250516962505887 
0.01138409677327166 
0.03203163644052348 
-0.02852507382490145 
0.05633795084110065 
0.002738610017372538 
-0.03024377726294408 
-0.006616701326542821 
0.0106981875266501 
-0.02292165062525275 
0.05475936824868326 
0.007105583560601159 
-0.06843719178467197 
-0.0304205377621982 
0.008633791455431812 
0.03260468107132793 
0.007373936401121987 
0.003782443895398756 
-0.01435306638435687 
-0.06102602564719526 
-0.02848218421855436 
-0.005973480591147832 
0.01883240806898967 
-0.01940123972913207 
-0.01499746912912825 
0.01207386683136789 
0.1222254299777963 
0.01912156806604869 
-0.04276088394823382 
0.09863900889312634 
-0.08628484004732909 
0.1028052913162264 
-0.03579270332439873 
0.01978817282866666 
0.003443750719907595 
-0.02463288520475493 
0.04250458745837875 
-0.04221136011586269 
0.06403759325957761 
-0.0286868643790408 
0.008786282987501772 
-0.03851754344124476 
0.06910036399412739 
0.02798230488241992 
-0.03252395218538133 
0.04168277422024596 
0.03897340535138689 
0.07492476234190149 
0.09589067311013041 
-0.0343571760001349 
0.007916554160942483 
-0.05650503778116821 
-0.07410558533500608 
-0.02787127967661964 
-0.01174436861477404 
0.04336913385250563 
0.01186182694538733 
0.101232619994349 
0.05514494092549355 
0.05143049686090903 
0.01244189734268731 
0.005417109564013314 
0.01234333763564356 
0.02925343277923048 
-0.05511950980828888 
-0.02221236670345259 
0.04368788662735109 
-0.05004756803935456 
0.04426614106418972 
-0.07462302282164231 
0.01455960836149338 
-0.07694178634474613 
-0.03274328279161044 
0.02340682025131482 
-0.03658683940478075 
0.06813483349627228 
-0.007985422636627472 
0.02344926103670134 
0.02102345038628028 
0.03408988146284454 
-0.0368196668491742 
0.01479112141290315 
0.003207601187687777 
0.04434413627112542 
-0.0346313637289144 
-0.04595028777211711 
0.07871047995644806 
-0.02546439691213694 
-0.04489685505664171 
-0.01954128313337945 
0.01763736601218332 
0.02477446566210573 
-0.03141719369631545 
0.01639399064438374 
0.03641219600899326 
0.01037411409590882 
0.001722015975049893 
0.01939949193934006 
0.04797225650964934 
0.02708991925310496 
-0.03943911545437163 
-0.07692659427887755 
-0.08642230125752746 
0.001629177389952399 
-0.03689381135093356 
-0.04629619769242687 
-0.003408448199406407 
-0.05340680252317225 
-0.01871399758324216 
0.03129323238164732 
-0.06190565007742738 
-4.70041187202548e-07 
0.05711312786861941 
-0.02058892764407652 
-0.005181994799436258 
-0.08062786155629173 
-0.07785168261207477 
-0.03483589655170941 
0.02098117501752957 
-0.06785062665005145 
-0.1777778389247709 
-0.100811697331256 
-0.03018498921870269 
-0.03204675240233822 
-0.04539976879675475 
-0.1500026990701222 
-0.1186407746543815 
-0.06807145936740709 
-0.01149605636188275 
-0.1248531634173985 
0.03806154960161921 
0.03108376053753725 
0.0285297328557498 
-0.03731104410892883 
0.1080373095652678 
0.004148199959647308 
-0.1121882673662168 
-0.010363388409595 
-0.01112471213395466 
-0.03444754990782532 
0.06608783472598675 
-0.04845599970769271 
0.01559262326644329 
0.02509236984542123 
0.09641193777775696 
0.01759459856277919 
0.007010448436727244 
0.03780145520906029 
0.129843643153642 
0.06264153763794476 
0.06424697288819602 
0.0553713812819551 
-0.01000394696010404 
0.08261902824675831 
0.03065434184487251 
-0.006388031118130853 
0.03949835628491348 
-0.1254521733513528 
-0.0519648386672982 
-0.05682253803721136 
0.08840171924320907 
-0.04667809960835768 
-0.04755522988707012 
-0.03486392553461239 
0.06705332649726604 
0.07593022943977809 
0.01048686400513676 
-0.04450621889046586 
0.01022758008737559 
0.1751010791047271 
-0.01526237830158852 
-0.07228701329391782 
-0.07265500325267234 
0.05295131330181436 
0.04771246624559834 
-0.1122595913454 
-0.0748311493583905 
-0.04925983905885836 
0.1638363935614461 
-0.001963275443309181 
-0.0305082350305612 
-0.02288058129976871 
0.09127959177555271 
0.1164909553141932 
-0.05763444804451209 
-0.0193710723439984 
0.04133326824676721 
0.09122689744551467 
-0.07641387749969569 
-0.07217997834630265 
-0.06576312748350455 
0.1054775574122486 
0.04258120663862447 
0.009544544587285295 
0.08154778972970808 
-0.0411352875448043 
0.03238301146361319 
0.06009869417834215 
0.05944592448669463 
0.07580191653962318 
-0.0213759622963257 
0.03409574895597081 
0.03198093855059739 
0.1204923174135893 
0.04283034047377802 
-0.0633194107307978 
0.05699471348746313 
0.08138261888211071 
0.03472322571030943 
0.07469923825671854 
-0.03062648738497687 
0.01586700401555117 
-0.02509409481966287 
-0.09460653177941671 
0.03131511259047864 
-0.0769667788295393 
-0.001189366980356843 
0.04305673970459091 
-0.1724373717745444 
0.0182656189067342 
-0.009772958596081538 
0.03709316833345064 
-0.04391959014482791 
-0.03515261870352008 
-0.04181040078077564 
-0.0579809237743913 
0.1094894360896949 
-0.04286299650847786 
0.03322034236298808 
-0.003112889765376275 
-0.05887341974878394 
-0.04613801859843256 
-0.03845042637894373 
0.0210495718330259 
-0.04501289574590708 
-0.03083655693534614 
-0.08712476906132188 
0.02523622386766659 
-0.01981665081454457 
-0.004617351657460676 
0.05508132698757451 
-0.05511276265841903 
-0.003176547796425257 
-0.06597863241055228 
0.01059892811400696 
-0.0288820438396321 
-0.01998069396471708 
0.01544875027391223 
0.004420563940394995 
0.006085171629285835 
-0.03603006532624334 
-0.03004625359965115 
0.07344004596315794 
-0.008155350266148494 
0.03235534413060707 
0.02248616717141012 
0.08351080986058904 
-0.004425926213861988 
-0.008208306077986441 
0.049367031886149 
-0.04379203978623092 
0.005210301632104759 
0.1126447407103883 
-0.02179133199738125 
-0.01231173407657688 
-0.0493146883803582 
0.03275740812255638 
-0.07115480331963137 
0.02856775293583916 
-0.08673024630015334 
-0.02362837681929358 
-0.1114357351373204 
0.006675952354227691 
-0.05465628624857886 
0.0870124759389955 
0.05384685433880287 
-0.05177418891829839 
0.01575158085300747 
-0.04210043386529595 
-0.06251823652898528 
0.008359529408671707 
-0.01223511627789271 
-0.09631030899802415 
0.01750009521252082 
-0.06601307485948536 
-0.0001266033746125292 
0.02815397948182758 
0.003308718562869929 
0.03805955533761255 
0.01262599310507059 
-0.03171340907766297 
-0.03374203991435351 
0.04258005220800321 
0.01907454731640149 
0.05542279318351243 
-0.003122094128955819 
-0.02580754891085357 
-0.08744778911304153 
0.02013643511071582 
-0.02281479372004998 
0.05740647272127444 
-0.04620710191294237 
-0.05604733790686237 
-0.01567688519687376 
0.003928433461336707 
-0.03920382975230256 
-0.002888433486555523 
-0.06135734214064886 
-0.01372951599741522 
-0.001627508609215204 
0.07740096422050734 
0.007648293221392472 
0.01115084011357861 
0.0163216285754927 
0.05731590863697347 
-0.03696528448960729 
-0.02029606049191424 
-0.02399773022928308 
0.01621183724690666 
-0.07965830192300871 
0.008148250788496269 
0.003492353055655647 
-0.02933872269346572 
0.007660377297685358 
0.07759589933719949 
-0.05052296108018323 
0.01918407836162093 
0.06411240995710298 
-0.01276513529822387 
0.01528681234329536 
-0.02245799375276409 
0.125484239742566 
-0.0383932828606193 
0.003740059064862461 
0.05790188598031581 
0.001161509837684772 
-0.03018833490213934 
-0.001754823905749347 
0.02141217153037699 
-0.005773035820533966 
-0.03124740303602277 
0.04111841857750227 
-0.02967716031632282 
-0.01618052156937649 
-0.01966172722892954 
0.002055548401434564 
0.05719589612591155 
0.04042188741374584 
0.02678597392101398 
0.01607972871575311 
0.09067190785242607 
-0.002490116399720895 
0.05496770577905245 
0.03745980803887159 
-0.01195047066584936 
-0.01665196109021043 
-0.09948213888038411 
-0.05866387620794064 
-0.03328272716088665 
-0.05154737592378891 
-0.1299659887262631 
-0.05733622885644898 
-0.01812229592311417 
-0.002893256042765567 
0.0353304602368729 
-0.05381451883008395 
-0.007149821961956605 
0.06354777652158465 
0.002747827648563019 
-0.08051510285589109 
-0.0747273659870363 
-0.01172416836531152 
-0.08929793105303972 
0.01474175641497415 
-0.03400158194165093 
-0.05423036826665876 
-0.03073144439344807 
-0.04220312243096268 
0.009106205118375692 
-0.09450182348668368 
0.008128903576680849 
0.01711928657300828 
0.06735416339034349 
0.01678650397281608 
0.0342595645451558 
0.02514117903399372 
0.0408920125679856 
0.04049613244326192 
-0.06966784056679745 
0.0003113093856729078 
0.00401675807673604 
0.0801230745544797 
0.06740792912173087 
0.05833802671478953 
-0.04616273398249671 
-0.01544940430935543 
0.2036130754729553 
0.06354819956321214 
-0.06753776578393711 
-0.06910117728067727 
0.1009987082581687 
0.038487003541383 
0.09312221715788652 
-0.1013593117469567 
-0.05598817175369665 
0.04657103557430434 
0.1028658804215349 
0.01852184432961102 
0.1162831429446238 
0.008779934118135308 
-0.08949578749775432 
0.01018829188727385 
0.04156839487764472 
-0.05204043672636847 
0.05220025737091721 
0.001050732585117097 
0.01481762226184029 
-0.03635509036522448 
0.03825041314557658 
0.1001203615299808 
0.1318833475198677 
0.02612642131318709 
-0.05642965456628445 
0.02782050448099081 
-0.1180209445100213 
0.03839535974478833 
0.07394937319469498 
-0.07079285978250925 
-0.09487400598886464 
-0.001517128726354314 
0.05688873448631751 
-0.07235256288284128 
0.07337301341333025 
-0.0343552645847382 
0.03323616142232987 
0.08040588780157114 
0.04167736314253104 
0.0344977756411002 
-0.01139379394123093 
-0.01720026362317552 
-0.08076734488027394 
0.04399416272177761 
-0.03553171210183339 
-0.0511605964022319 
0.01957586141055545 
0.09034038980553535 
0.09380919321365054 
0.09096207360498904 
-0.06372909914013389 
-0.03345463181074596 
0.1652241499831852 
0.1319828980668959 
-0.06522882363631755 
0.07789845910058729 
0.08805867066635314 
0.1291641802160463 
0.07518491049154251 
-0.02021794279136023 
0.06309790301889943 
0.1015268825714385 
0.07363767080853649 
-0.07500301320212828 
-0.0293512969198082 
0.00423034460021572 
0.01288525873490332 
-0.006372788198750654 
-0.08456692793790745 
-0.0729777373516719 
-0.09706158785627504 
0.06990849144679921 
-0.04708725926881795 
-0.01251479317200409 
0.04600425459145695 
0.02993994047457439 
0.009846065350458342 
0.06045916243051475 
-0.1016026823005021 
-0.02864667804586486 
0.07736141102691541 
-0.03499685447712667 
-0.04025518647298425 
-0.07438734535656413 
-0.0299543200170215 
-0.009485635238166685 
-0.06044492626803585 
-0.0314780904759021 
-0.08163177246216465 
-0.06787949208563031 
0.0006207633625614562 
0.03360104969358967 
-0.03092233295464923 
0.01193692579541083 
0.03479530180021809 
-0.04733608006029997 
0.04746109085062289 
-0.163047414061471 
-0.08737629489126682 
0.1114616088291275 
0.02227250408738799 
0.03943235675551185 
-0.004660766715412357 
0.01718138978945452 
-0.03993943177864847 
0.05420204238093156 
0.02671033338696195 
0.04403096929151597 
0.04916253876041501 
0.05470581978970871 
0.06132744677029037 
0.07553993614526443 
0.02382640353421538 
0.02896015168316035 
-0.000731641867597184 
0.07236826719888692 
0.08882681747769793 
0.04220961713514223 
-0.06514062751592609 
-0.06601296804371905 
-0.0297631845815996 
0.008494132405421337 
0.09371738146022469 
0.003575434884601282 
0.02559344621173121 
-0.03517514350524889 
-0.001075189005094034 
0.0518630612925986 
-0.01169437563671124 
0.03670397995390678 
0.04650075183968547 
-0.01125012342640657 
-0.01198588906886935 
0.08364765823360502 
-0.06467960903562797 
-0.01054145256154018 
-0.05613204258033863 
0.02554294232217857 
-0.1048526358095625 
-0.001687157851338462 
0.03470065208630134 
-0.02376123351187097 
0.0428419460952776 
0.008163948048535498 
0.03812746565656218 
0.03349326978068867 
-0.006847415471417601 
-0.03585620876435673 
0.004627757659288427 
0.005650573026247435 
-0.02897570163886458 
-0.0253810870121151 
0.06063854641098027 
0.1264659643331041 
0.03424838664163152 
0.05881654885278655 
-0.01374192934267611 
0.08100120535509819 
0.03162150715365435 
-0.03341519014365355 
0.03459249166687958 
0.01925242808782264 
-0.07547968400422995 
-0.00165447284242622 
0.05669330684318468 
0.03634256997812077 
0.06509857707718396 
0.0006369574581463019 
0.02237568993550789 
0.07055479145194381 
0.01671772790393619 
-0.005747437228731415 
-0.03615411546302941 
-0.01462366914669169 
-0.01515762698617495 
-0.04119205574962553 
0.07078969854784094 
-0.03444288674521924 
0.001727957185400023 
-0.04187923623761886 
-0.02907996137852371 
0.03645382787397251 
-0.03164819922825827 
0.03280635838166455 
-0.04937175479228441 
0.005503151576492847 
-0.02282772644680195 
0.001417322377748112 
-0.01637161902573394 
-0.0007720180404627703 
0.0160946987260699 
0.05163371067666651 
0.04575302812806743 
-0.01374965630404236 
-0.01705300079786838 
0.008780623095298694 
-0.005518743359106609 
0.01625059392849567 
0.06412094392907979 
0.03666099529916218 
0.04188130359082194 
0.06338554988226928 
0.003523587528144696 
0.0553131790307835 
0.03063708604036247 
0.07353649829090832 
-0.007604198859695508 
0.03960339713753658 
-0.0377894613402641 
-0.08784069849585048 
0.0162232272519794 
0.02136261510978239 
0.03139994913843894 
-0.07172364990937946 
-0.04372849904120251 
0.03956872017539606 
-0.009008284786600235 
0.03884429893885607 
-0.0115938669403974 
0.01493514444303392 
0.0167759434253967 
0.04974053292398018 
-0.02377312001096003 
0.04785548584624227 
0.02199208303244475 
0.1035759618771534 
0.006781305493130016 
0.0157967202660397 
0.01640101070834797 
0.02405667396670874 
-0.01364742711345397 
-0.006371421415165671 
-0.000799621284910061 
0.1009962365185752 
-0.003113358061154544 
-0.04820007931612195 
0.05962465065978167 
0.117345211643366 
0.1136112945625749 
0.01355376279591169 
0.0460781022244167 
0.07292307530916453 
-0.01192386483077209 
-0.002441867380687291 
-0.07542440595206362 
0.08774243255285033 
-0.02162800259701439 
0.02466441393246771 
-0.001091310842882367 
0.01553216607209897 
0.09114086521686675 
0.05315593753172564 
0.009346054248766099 
-0.1401615528033464 
0.09160951958107925 
0.1316201391875763 
0.00976982056004292 
-0.06144485140274342 
-0.1278386035466242 
0.1310644760202933 
0.1037259024512305 
0.04598780282024333 
0.07654096416021146 
-0.07869116704257471 
-0.06428250880928484 
0.0322362553095005 
0.02508257417144805 
-0.0564260491264841 
0.0325201760716087 
-0.02248548923686308 
-0.08237021327332189 
-0.03136297903358461 
-0.02995548903580872 
0.1072786614242547 
-0.06637527860514014 
-0.07185767428691388 
-0.1374645772602422 
0.038336701732683 
-0.08073197128307348 
-0.1497298537658268 
0.121794886289605 
-0.07416083974678594 
-0.09543861082760949 
0.05947158468672712 
-0.07885036048612522 
0.06942547896249671 
0.0987078147772678 
-0.00178800839949263 
-0.03443844357145495 
-0.07750207391533478 
0.08441128666954745 
0.06893373790885932 
-0.06526709594705304 
0.002874602023514534 
-0.1274945654732677 
0.006411405944647516 
-0.0125217731842258 
-0.00298469606271202 
0.1021164118519099 
0.0508037980825812 
0.018011081585759 
0.03054992467702019 
-0.07100173051376354 
-0.07488749697199944 
0.04181585904184348 
0.03900088954961363 
-0.110274837789557 
-0.0004694000534548324 
0.09574928983580666 
0.1501230749179097 
-0.1435574403538318 
-0.002953179270888845 
-0.002960944320238389 
0.1202339903116381 
0.04949924331983608 
-0.07065166752598764 
0.03795933949195077 
0.1067364041064793 
-0.03734488139531447 
0.001729118285502226 
-0.01970029949888617 
0.02194863838580074 
0.02535709763189182 
0.03601531258106248 
-0.07987254808913705 
0.01300798597944647 
0.1444466901833074 
0.07892137359335066 
-0.02765737646966025 
-0.05283075454419343 
-0.04682057361665115 
0.01489382300877353 
0.09452798573219448 
-0.0483948262185257 
0.0002769286815445085 
0.008905126838133158 
-0.05110052293257486 
-0.08605984573765099 
0.04930220394830519 
0.07604381138436092 
0.05813214636545906 
0.002542875671710663 
0.02193352963600432 
0.01652630844857221 
-0.009079985687416883 
-0.02758038005697743 
-0.08529369810811674 
0.102631254304426 
0.1071246054851898 
-0.03341523745088559 
0.003665202278393933 
0.05172493586224694 
0.02940146402837652 
0.01429016623601465 
0.03817435819772198 
-0.01046669437190381 
0.06566691191182951 
0.0437836467599398 
-0.05801925348318463 
-0.005725224236110657 
0.01999299329685655 
-0.01959589302755098 
-0.001133460789684419 
0.07401356399396934 
-0.01424501519911677 
-0.002175884036850308 
0.01776324958745329 
-0.0424657737367462 
0.04515500890364547 
0.06384982469436881 
0.004963386334736981 
-0.0356728308482317 
-0.002127759207465358 
-0.02262938926596384 
0.01319435854579664 
-0.04315119862794044 
-0.03108117623023527 
-0.01063250255818578 
-0.04499927341087161 
-0.05256150682980854 
0.01385135504199914 
0.02529897743902681 
0.01248264203144693 
-0.0387276422380265 
-0.02937171148120755 
-0.06339920271519282 
-0.003627947592805084 
0.02286695133946296 
-0.03272892651472679 
0.06254476019063272 
0.004037405039094516 
-0.007314417960929606 
0.04159272096707801 
-0.002738094295910974 
-0.03944561242579876 
-0.0314232705787296 
0.05278957274448924 
0.05529915817586969 
0.07281011324377042 
-0.009278882495207011 
0.1000393324832887 
-0.003476499688103422 
-0.01982797717865126 
0.01989852755545937 
0.06089705489519773 
-0.003170124030761132 
0.03993171518101949 
0.01517387060860468 
-0.08310143821360635 
0.0813444924417923 
-0.04396548385441832 
-0.1107951941565855 
0.05325446501895556 
0.009034195156943682 
0.004013136274713282 
-0.001987921331546787 
-0.03316123243305626 
0.01510146266063918 
0.01637817379496979 
0.06140429820026272 
0.07002879731118636 
-0.02532878061517076 
0.01901112730304481 
0.007117216394837994 
0.05599468618495524 
-0.04504278455754548 
-0.03986344316059467 
-0.03104726299451986 
0.06128129574193703 
-0.03945381914197192 
0.01519954348285144 
-0.1083312883056849 
0.01486208176776037 
0.01252327461538694 
0.004277215373932186 
0.09134160455586308 
-0.07765151959357604 
0.02225801140562077 
0.01081724460950201 
-0.06491004611455722 
0.01822006863909117 
-0.00215710377719906 
0.007254576373126761 
0.02451062532545103 
-0.01304367000908103 
-0.02252373645758174 
0.06116464168171531 
-0.03581912685772042 
0.03190260823293919 
0.004517651443304109 
-0.01201194592597472 
0.05373619857091098 
0.1320620855750627 
0.07471266024092683 
-0.02523532210090915 
0.06078373620368861 
0.05502051522964252 
-0.05975904398451664 
0.04258777236108607 
0.1063544022247874 
-0.01810109774254726 
-0.07463841208109807 
-0.1086340108491009 
-0.09300397219600259 
0.006072887560541527 
-0.01926306070550668 
-0.0200050869502729 
-0.08015415348667397 
0.09871577553244615 
-0.05198183861790369 
-0.001447231017600796 
-0.1012286459083014 
-0.0345308555103933 
0.07936836172647377 
-0.08282798278297457 
-0.049247796337428 
0.07694181003602257 
0.07664435357929814 
-0.04123224219720127 
0.006519006052021653 
0.04603283336900119 
0.09062522465496183 
0.009043090676716738 
0.02913167455945902 
0.01175440795978821 
-0.0931757735471055 
0.01232437471253013 
0.0245362859142452 
0.02423430962225167 
0.02470916966330496 
0.05658654601019879 
0.02326658398872382 
0.03402134308258309 
0.06604369866910303 
0.02359795264136154 
-0.0446291870992602 
-0.01379045030473698 
-0.0132182416890348 
0.0359410281841844 
0.03561414420990597 
0.02509068048266559 
-0.03803339601638295 
0.09930503133283708 
-4.620825780203298e-07 
0.08700614932357287 
-0.07580195853158671 
0.02424066662182542 
0.08594598439479592 
0.05983090496905102 
-0.02853490777497302 
0.0334550203642577 
0.05779382563995613 
0.04491784709879684 
0.05301374019820124 
0.06346352742730303 
-0.06048152353615009 
0.007856515600710601 
-0.04766362118713589 
0.01524480238764591 
-0.1599148586565224 
0.02533673210488019 
-0.001885554225844984 
-0.07785690772070594 
-0.03814967688496236 
0.009221324200019414 
0.08977054312802218 
0.03672844684246541 
-0.02817764896587346 
-0.004505064030656131 
-0.05183765976398882 
-0.0003282684635359143 
-0.07133047820972237 
0.02191733852780461 
0.003359244685526345 
0.01060328243621609 
-0.04172116717654974 
-0.04291846930023038 
-0.07011522655227456 
-0.02822616552689302 
-0.02901530537713548 
-0.0868606223880273 
0.01638396302626884 
0.02902118560923396 
0.1180918764055829 
-0.03860183172524533 
-0.1359914563690445 
-0.03232356241200302 
-0.01985164822854329 
0.05894681646713013 
-0.006827454499294857 
0.06535692205796166 
0.01954733575278199 
0.07734042288515554 
-0.06980798792317137 
0.1006474821944664 
-0.002802291145846658 
0.02781210547581442 
0.06141675411577804 
-0.05253213605108448 
0.02857237188202521 
0.03514153076795175 
0.09905121959875243 
-0.0893948940962996 
0.04350031703656534 
-0.09393476155735454 
0.02108557524581803 
0.09328309095204984 
-0.1219886631325686 
0.04890657941833471 
0.07104085692766968 
0.06957883295766171 
-0.01059417170764293 
0.004078983897166362 
0.0227927792735381 
-0.03478757185605805 
0.0573048056344314 
0.03248843290174464 
0.09545246320668355 
0.1143583830420866 
0.03776508607836714 
-0.05979809365315729 
-0.01818406453240964 
-0.0094283060788638 
-0.002556458519116343 
0.08462191051371842 
0.04092197803693001 
0.05256310510961527 
-0.1006277236156846 
-0.03602413198966691 
-0.04030648247525381 
0.1130418209555111 
-0.005566294777828187 
-0.03292302563901625 
-0.01941266554788644 
0.002005017019642627 
-0.0304869530459136 
-0.07222977277036388 
-0.1154515700171648 
-0.06281965172477477 
0.01328677036339037 
0.06371466388175352 
-0.02668503154620523 
-0.02799531099606478 
0.01548528723743581 
0.03563265701205982 
0.007269631099163884 
0.01905595209270198 
-0.06466987347473621 
-0.001015452339576237 
0.02838277797815465 
0.0256831753615615 
0.007677111673132462 
-0.007669331944516656 
0.01956331927949856 
0.1022479391642719 
0.072196061896208 
0.08694841382900877 
0.07964450639737548 
0.116611880879626 
0.01886854894015003 
0.00596967834724934 
-0.01937577687266952 
0.03020127306585548 
0.01241352980054121 
-0.07687555612816671 
-0.0259451023572446 
0.03207638812010551 
-0.02007354442033289 
0.01338054298186992 
-0.02818602806153013 
0.01886459229303513 
-0.02320802541760448 
0.0005892398271329062 
0.003557180368494073 
-0.01600997782427393 
0.03633036078446777 
-0.009296288993632881 
-0.1330126961574566 
-0.04781321535217551 
0.0982292646442222 
-0.04851159107966592 
0.05604390198826426 
-0.06154725213949745 
0.06991378450738178 
0.04389847569418229 
-0.03764139222876976 
0.04761436196869179 
-0.04329176378639774 
-0.03808197414233021 
-0.009654692963235914 
0.07713985412517693 
0.0157088694006437 
0.02185896958934115 
0.01075052476613283 
-0.06826404641312198 
-0.05463497195742942 
0.02992736229376208 
0.01690885947050474 
0.03296313869203208 
-0.05506524582318598 
0.03089226551350647 
-0.01761340326506272 
-0.03637660233130385 
-0.00746355135725775 
-0.08126907965249545 
0.02458202693599838 
0.01253768826792139 
0.02085383163912834 
0.07307564342497044 
0.002810396759026926 
0.01369611681599948 
0.05430916815656125 
-0.009271148077183974 
0.07187673170858989 
-0.03991160117950326 
-0.03149928364352828 
0.01403486831970145 
-0.07370223213254931 
-0.04755712446668236 
-0.05599759157438943 
-0.005326098080405077 
1.677170706117355e-05 
0.001325506850463077 
-0.06755731627370015 
0.03051539870403858 
0.04920738407812685 
-0.03394255001497075 
-0.03515607972611162 
0.02038344897289888 
0.002712323027253507 
0.05529871967440703 
-0.0723105218097698 
0.06722001076925951 
-0.0456453359044592 
-0.05810116277479229 
0.08401251634072464 
-0.04089050110920413 
-0.03171326945848969 
0.02525414896326552 
-0.01987121345725981 
0.02146706925237818 
0.01736148197195907 
0.004618060352880551 
-0.02413267336604854 
0.02801410982549292 
0.009280944193530529 
0.04491803240560614 
0.03274958380082456 
0.05458147258298048 
0.09093947675225379 
0.09817167557673416 
0.03591564640548073 
0.03598531680188617 
0.02843365458387369 
-0.04676713223695055 
-0.02472442570580951 
0.06851383656824728 
-0.01312028263682535 
-0.02882495344351987 
-0.03653624136045487 
0.02683550016928121 
-0.006435251156692557 
-0.00435007557158718 
-0.06646861175433537 
0.01115295955743826 
0.01139712396127107 
-0.01834896741308024 
-0.08780083700044343 
0.01548241215097401 
0.0009315650854035308 
0.01381220606433039 
0.08609880350394114 
0.04648688776000132 
0.1041765468831099 
0.02527731079262878 
-0.01371753508681524 
0.04851670473707252 
0.08661174832024293 
0.0004907496072849473 
-0.02250013166118413 
0.1270172904409734 
0.08969573506204587 
0.08761509518029943 
0.1235309717299617 
0.003317535732000348 
0.02171671099115326 
0.007407595610472948 
0.008592794285483514 
-0.04731545812967665 
0.07091218696409309 
-0.004524761213746185 
-0.0237346177951621 
0.04586061841604536 
0.00379382980678951 
0.07665688670347441 
0.05198871889385168 
0.03502261244710641 
-0.09331447153833666 
0.07787505175354155 
0.08699727467457835 
0.05055841806395062 
-0.06125420265873584 
-0.03389147122758095 
0.03608457239387422 
0.05836028738125624 
-0.09119514670366032 
0.05258712592184619 
0.010186056903743 
-0.03883492403911446 
0.005006214457957466 
-0.0402779220775278 
-0.01364846181509554 
0.04510868261548334 
0.1393393467754542 
-0.01568118447628743 
-0.040944027657658 
0.06609193163634119 
0.07985806408543029 
0.05737874310218406 
-0.1140568524797791 
0.01970670631273356 
0.03666253145081471 
0.03940057688942253 
-0.1325271457675979 
0.01492777631176027 
0.01257340688284402 
0.01203730733148073 
0.05186655766097951 
-0.040935654937803 
0.1507201305163545 
0.09374273516312773 
0.02265551774309759 
-0.06342766964881802 
-0.03133889381419209 
0.06243571530834505 
0.02246935326269374 
0.05352775882632431 
-0.06213587651155818 
-0.03540106440806673 
0.03931869977145248 
0.06647742247890573 
-0.108113639666602 
0.04452018790366784 
-0.02289217998469351 
0.03692827613889178 
0.02599202333965827 
0.004231558363414253 
-0.08254947289432689 
0.1168217372743468 
0.02553898746643184 
-0.04008833107046887 
0.02519551329498898 
-0.0005031092731243911 
0.02484282627293609 
-0.02733152018343015 
-0.05327398718465898 
-0.1141023407397967 
-0.01435181474681147 
0.07181483684586529 
-0.07939001326701964 
0.07913000872493973 
0.1209731283952893 
0.08745032179793602 
0.1108274162917185 
-0.05843637720336171 
0.1054623688436489 
-0.01682703882644183 
0.01302399464816117 
0.009112968706188447 
0.04292022525924544 
0.09090855905872301 
0.0925145897293114 
0.08461676349933957 
0.03664286242339974 
0.02317307607011317 
0.002658576539089927 
0.02235265690999261 
0.06708201777419617 
0.04823030877748652 
-0.1232487888846589 
-0.03212064210879212 
-0.06128044662442058 
-0.03692257025887219 
0.02003706798673056 
-0.06495213338740473 
-0.05306156441731551 
-0.06567273773745269 
-0.009657899720679677 
-0.04708133817691162 
-0.01473786229484215 
-0.05987150799168294 
0.006806668038006397 
0.04389112800907724 
0.0246204217766287 
-0.06656965761222898 
-0.03368196623120757 
0.01424628176909867 
0.02996909880398968 
-0.02163997294466202 
0.04962217847279504 
-0.04763436328690723 
0.04128066974732295 
0.0725651604607509 
-0.06830926666227889 
-0.04160170304094338 
0.07576190467793321 
0.0867813520457483 
0.04776081380600828 
-0.04063663007755338 
0.04074381554881636 
0.07651416643835036 
0.07530219149175471 
0.0501710321512602 
-0.002288618217914969 
0.02862573254541289 
-0.03676364137674448 
-0.0141684511399529 
-0.01696035397174509 
-0.03281234484300133 
-0.05009028556668808 
0.0004596179219311168 
0.04949584213967508 
0.05049161103015898 
0.006452781254180042 
-0.00154734574546463 
-0.005982234811955913 
0.03845478365597444 
-0.03672138998590051 
0.03127215936173642 
-0.04211379875186928 
-0.05491126523033061 
0.07998464264439639 
-0.0628499371490064 
-0.01226535028947123 
0.04705487866130731 
0.006164960477287908 
-0.00774228110914599 
0.0153608660371879 
-0.006632278591100277 
-0.01037690835595348 
-0.07939904372676036 
0.01663057061340907 
0.05415980236088835 
-0.03719249067930575 
0.09164845552509564 
-0.01054203450730645 
-0.00750299244727409 
0.005327773337349229 
0.05332675239161265 
0.09109100259890772 
0.01567808387709988 
-0.06217642679807254 
-0.01438745827444578 
-0.02078088222377394 
0.01602382622965355 
-0.07472613277212897 
0.04186062244836856 
0.00839013293326164 
-0.03955841050963683 
0.1336411059048692 
-0.06911746701484141 
0.05181071172192012 
-0.02821070472653818 
0.06833056496051582 
0.0007913898328692032 
0.02593998751250104 
0.04798613678816939 
0.01773143098866144 
0.009004235056106293 
-0.04227179811487777 
-0.05707655092452961 
-0.03458704091935366 
0.06302276841313649 
-0.06865965998950292 
-0.05208818619647749 
-0.08369751673862814 
-0.04665134355993263 
-0.01825915572830813 
-0.0551164071398988 
0.01117918288471724 
-0.0313446552643 
0.08497840139713125 
0.0327163850124569 
-0.007438901353888958 
-0.02363181113311271 
0.000501495714307575 
0.01891879637793548 
-0.01352958633738284 
0.02987709032062372 
0.03077974956343517 
0.01264550097971632 
-0.0267456294689815 
0.05232237144124836 
0.0261241724734972 
0.001092646792256264 
0.008428249039559967 
-0.01257121629972463 
0.1325752582444366 
0.003103319872526541 
0.01089724815829365 
0.1010505625682765 
0.1066352217070078 
0.07074538356115624 
0.02289023101230875 
-0.006571525324224166 
-0.05679646092185645 
-0.1213318499390725 
-0.05175832154176591 
0.004606732763285665 
-0.006705309113088523 
-0.0785104594309447 
-0.1430613655501817 
0.03871018523257992 
-0.01971187276227305 
-0.1776129307579339 
-0.07555845748175714 
-0.09231427112182521 
0.07958479626319184 
0.01303461020209949 
-0.0551713777561506 
-0.1179832347106056 
-0.02775785425465074 
-0.100558024626724 
-0.0009486893360317881 
0.07148054531119058 
-0.05514135231709601 
0.06308831820135181 
-0.1014064807885005 
0.05542968774770321 
0.04697187167019645 
-0.06815376691839981 
0.03593232576613686 
0.04188909039416817 
0.1537996647131848 
0.01972892591340977 
0.08130869782485106 
0.1329514125996519 
0.06283579469390159 
0.002206069981480681 
0.06870497196668772 
-0.05177423703716062 
-0.1107102609181871 
-0.03285818624159673 
-0.03447065803910244 
-0.06177690442049553 
-0.1350318342300743 
-0.01937675726663826 
-0.04738863034027516 
-0.009837217543347801 
-0.1234432341653156 
-0.08877986247717526 
-0.07481478560963416 
-0.02683169945443551 
0.02370607454233066 
0.01917417664223318 
-0.1087488053653852 
-0.08204243862729896 
0.04327110677235516 
-0.04049511114828701 
-0.09982089561920235 
-0.003259508172148305 
0.01879099381445449 
-0.04231569786029982 
-0.08435396368738057 
8.737769310738979e-05 
0.01642366483605247 
-0.02061386449543429 
-0.01255887068241294 
-0.05366739896898031 
0.008296992828386885 
-0.07536607669167024 
0.007623527266744473 
-0.003049245187939653 
-0.00978722298026061 
-0.03599944536152223 
0.04704435809150029 
-0.0237713738577204 
0.03304559620322676 
-0.04086484706438991 
-0.01784638560905662 
0.02955050537777693 
-0.006612398168910735 
0.0980487498713391 
-0.1096575160953572 
-0.01582145624430771 
-0.1213231200628231 
-0.09030934866533849 
0.07100679956284028 
-0.06078155697854237 
-0.006765067049417951 
0.07256153204300241 
-0.1243835069657585 
0.06383984375528794 
-0.0750762319955896 
-0.05333203904614457 
-0.02906652855233569 
-0.06532604957956825 
-0.1711038097862602 
0.03481328020843948 
-0.1455680460085485 
-0.04690118388923106 
-0.1581496235845676 
-0.05199078362203807 
0.0607566643348245 
-0.07048516614514781 
0.02215594898312411 
-0.1687146964815957 
0.005152515644501122 
-0.03276535474517921 
-0.1401672524968356 
-0.05121919981942786 
0.0674218666115559 
-0.01635607493387089 
0.04262361862473055 
0.05538037580631251 
-0.005509353660970311 
-0.09356154836629714 
0.07855520641201146 
0.0125354673598319 
-0.08137911986327423 
0.02784797372754489 
0.0837078192009926 
0.1046918668563843 
0.139649367472561 
0.10079655245095 
0.120672553470872 
0.01264709573800152 
-0.001255881774229672 
0.1693423519859749 
0.09037904255666578 
-0.02861289711521531 
-0.07353228058927923 
0.004114132954970201 
-0.1111561187516056 
0.05074211725221224 
-0.06883547362428719 
-0.09230368332410571 
-0.1078183574721391 
0.01126500338085507 
-0.01097987450667226 
-0.1030685367057848 
-0.08596924524078091 
-0.211059387561381 
0.04745723108682809 
-0.1072389176512638 
-0.09072273862415092 
-0.01560811590526651 
0.09710384422874621 
-0.009821569557393746 
0.02133451336993403 
0.02455623394513266 
0.00168814316597224 
0.04012326650809898 
-0.05578289931753191 
0.1129924309005487 
-0.04754049508717151 
-0.07194949081818403 
0.01449516850526026 
0.002277253154609574 
0.0878160206576194 
0.09668657862651719 
0.0085181302922081 
-0.03048898345196353 
0.01132451580757224 
0.1050749057253387 
0.03453599295551255 
-0.08224168839088514 
-0.0571720027236117 
-0.05022298052727804 
-0.02703701223920437 
0.03104993272053765 
-0.126930968527695 
-0.01278477170590628 
-0.06974809519151642 
-0.04391625527054054 
0.08860160145052683 
-0.06587137815667622 
-0.03061568546742821 
-0.08148474344157752 
0.06310059487344016 
-0.00254919911850187 
-0.008374457207887624 
0.02310594961569224 
0.05610032043176205 
0.005274361429289957 
0.02308279852710122 
-0.04905189605130822 
0.01343599000788068 
-0.0005412760396986885 
-0.002693759596489445 
0.03763908593940293 
-0.1132252111248027 
0.008216407958708033 
0.0202716413977058 
0.00748972863216514 
0.02075723773292412 
0.08905108344589037 
0.06864176565693698 
0.03129771333767519 
0.0563383326094247 
0.02635753666630125 
0.05335611032981392 
-0.06385153587649478 
-0.05014236599982058 
0.004613991898424683 
0.02834628252999284 
-0.08044419491989886 
-0.03489629205415073 
-0.01205502930669983 
0.01120562481252794 
-0.04605319880959309 
0.03432206446459678 
-0.03393331678402481 
-0.06704197967189526 
-0.01821470716859828 
0.008979358678122891 
0.05486281859257815 
-0.03430946042262076 
-0.03993736006312522 
0.09197957581990233 
-0.01692148589694042 
0.002576033239708935 
-0.05897545186498209 
-0.02056030727011532 
-0.02388168694620758 
-0.07763337192236362 
-0.06994165767765097 
-0.04802664620602507 
-0.02011398485468359 
0.04998763648661517 
-0.07518863670879666 
0.01311900838436374 
0.07586020244783324 
-0.03942543985539058 
0.02333398421837872 
-0.08712726541158934 
-0.04731539530105774 
0.04802641627151532 
0.01794018175281394 
0.03206001694549868 
0.05192104792919432 
-0.03097273690139593 
-0.04473399470132265 
-0.02642301860687513 
0.06844434431457196 
-0.1106759833480533 
-0.0256537973372705 
0.07947939900156553 
-0.006605410347291386 
0.04482477276573809 
0.04047307194257681 
-0.1307494250013776 
0.08118909101071245 
0.01828160246031036 
0.05115206835413878 
0.01569014335557075 
0.0609518889483594 
-0.02963033082698918 
-0.08326276177003736 
-0.03330706369152156 
0.03556867024546325 
-0.04835971672435155 
-0.008692324575156854 
-0.07272122184212772 
-0.01173789382428927 
0.08699871481580149 
0.003633187361008362 
-0.03458881347270946 
-0.0004495707797746735 
-0.008036837585424478 
0.07553595379388392 
-0.08039758189962182 
-0.06435349477150182 
0.03957393556236346 
-0.07424724090107199 
-0.06151152453552451 
0.07265791790668928 
-0.02278115416351887 
-0.07976351377196834 
0.01009067624674824 
0.01700102267528598 
-0.1111675091350569 
-0.1301430324847569 
0.1038882160961895 
0.01946504582801062 
0.004798603984155592 
-0.03514186582982111 
-0.03086822470863881 
0.215750950768248 
-0.04520563270301235 
0.03193939607131403 
0.08542204561925412 
-0.01228116993774106 
-0.01391221451075859 
-0.0384147274128288 
-0.06761301181182802 
-0.1236261417823615 
-0.1392313687624191 
-0.04784151501189055 
-0.1703815243595569 
-0.04038195607660002 
0.0866700543509745 
-0.03284609593064121 
0.06527284526254032 
0.03963322443961086 
0.04099194666444574 
0.1456453082450767 
-0.1135281199378131 
-0.03355115751066691 
0.2240963671105379 
-0.07091191369001097 
-0.09469924087047613 
-0.01888685794594515 
-0.05296722135242296 
-0.06010351246303731 
-0.1500379987912856 
-0.06733872511004267 
-0.1242437528318632 
-0.05324655906978281 
0.1048515631344379 
0.09390064926409139 
0.03716710169703764 
0.04168189309619488 
0.1455908658726323 
0.2206151036073886 
-0.09075213404580718 
0.05604111881286791 
0.180668531869453 
-0.08809963810810839 
-0.04224907997379316 
-0.02639033037576317 
-0.03465221758087492 
-0.0662454581387012 
-0.0494750053791776 
-0.0609726486303503 
-0.1418420716189054 
-0.08062315437874978 
0.06957117596636669 
-0.01079139123207684 
0.05239444257457486 
0.1395081342654965 
0.08206687248614923 
0.1457416992824394 
-0.2003366592038023 
0.1104775270785287 
0.09759403141178663 
-0.04350973308160437 
0.02925382532095703 
0.02514737635036644 
-0.1173129860439061 
0.01986475215713775 
-0.1505925983508641 
-0.1148367871514613 
-0.1749137441147275 
-0.03763931465976986 
0.004785862271411964 
0.0358184301310587 
0.05215031539878808 
0.08648081220720602 
0.1159438110612353 
0.1737660382127104 
-0.1160413759653876 
0.02187612173095656 
0.08955692477799167 
-0.008982968747061847 
0.07745732407966995 
-0.03184478472906938 
0.02481997736849939 
-0.1006351786263963 
-0.08563537088342678 
-0.06660091394653556 
0.01191069573169347 
-0.07691721730735139 
-0.06355985094937652 
-0.04192496105153115 
0.018096468569169 
0.1187196692594633 
0.1185773435892448 
0.1146478914023304 
-0.04743088049605818 
0.154655268655162 
0.05662722234584727 
-0.0447500990254127 
-0.05640661244336451 
-0.08443335673687351 
-0.0686115215003032 
-0.06185691311847012 
-0.07056198322831948 
0.006771571632020402 
-0.07142933170418821 
0.002670096348568265 
-0.02700573496544134 
-0.01881097580645584 
-0.08012845392123727 
0.09509107938927776 
0.07892315292609808 
0.02399357382122716 
-0.06091477733512535 
-0.0711187366102113 
-0.004181745420073923 
-0.03086907666695603 
-0.04889381111598824 
0.04140974753996227 
-0.01670544639675521 
-0.03886222259661194 
-0.02968948175674495 
0.01334411815656601 
0.1067439734307678 
0.04863153618515149 
-0.04120506118207227 
-0.006380304201017001 
0.07830100658874052 
0.02309406704940205 
0.03915177543098026 
0.07699352941500956 
-0.0006109600682491425 
0.03359583372845491 
0.01626607906108649 
-0.01034170820923585 
-0.04988729566168552 
-0.0174746144389761 
-0.1008855751914996 
-0.04405483958573406 
-0.05258892957566147 
-0.05176330745062168 
-0.08006101862244162 
-0.02649526604991417 
-0.03960950647304699 
-0.008745431544288817 
0.03956523444183306 
-0.008122309167435763 
0.05764912432552309 
0.1002169948408332 
-0.0641370927867292 
-0.05367433018125627 
0.01602111809744059 
-0.04885736192745416 
0.1491857983663663 
-0.01398832210171368 
-0.02014838169819528 
-0.03244555927314208 
-0.06087481956569569 
-0.0779565860320344 
-0.1021344207754661 
-0.08664532822606956 
-0.01386222540252411 
-0.005194572206933459 
-0.01304222197139403 
0.019537838814081 
0.009769847421652088 
0.0417737346981222 
-0.06673467883201298 
0.008176134765654208 
0.02746983531540546 
-0.05252101629512794 
0.05611583954388391 
0.02815197369200214 
-0.048410951928586 
-0.02740914944038355 
-0.001244150122141064 
0.04677860835730576 
-0.04710311183075358 
-0.07757095837426957 
-0.009737025046595495 
-0.01152909571875739 
0.0923933872641597 
0.1030408627471417 
-0.09898990953252981 
0.01644152689810525 
0.001704511009880017 
0.06854286407525575 
-0.08502229460515211 
-0.05758780234721855 
-0.02051758292317575 
-0.03432764771484955 
0.01383238689461045 
0.01144791470162624 
0.02836115159236243 
-0.03749311329898893 
0.02530829322646878 
-0.04915540686057222 
-0.07758524240585568 
-0.04902582363148412 
-0.03343056984906081 
0.05124125101125718 
-0.07450080193953888 
0.06885774449367164 
-0.001647519164255352 
0.06997544644242669 
-0.0433783056062541 
0.009018655601350206 
-0.0004553707081499742 
-0.05193555533121341 
-0.03672600546778127 
-0.07058893159392551 
0.02636197311222546 
0.0157993417038785 
0.03785067209159414 
-0.06374518821624918 
0.09696604716836259 
0.01505735678735003 
-0.02397298849274716 
0.05185582612616032 
-0.03934795020023125 
0.1108745025116977 
-0.04998967139518267 
-0.02149997096598232 
-0.01198682381538118 
0.01576998983863891 
-0.04132212228692084 
0.01282902444563144 
-0.01460276214589316 
-0.05536650887126671 
-0.03739255878963857 
0.04543550676802552 
-0.05810120742331282 
-0.03419039963148224 
-0.006789061772526228 
-0.008120844871983461 
-0.03139739569275778 
0.1534553265133032 
-0.01965566647526037 
0.0668685604410067 
-0.02856568989939216 
0.02128578035690798 
0.02530553441548726 
-0.03160700135928134 
-0.04531630911582975 
0.05911220942861495 
-0.03621562857469221 
-0.008492821665732628 
0.02572966998634959 
0.04695393335999337 
-0.02726964863048548 
-0.06972589453413493 
-0.02879123953825637 
-0.01277191452443635 
-0.07835153075191024 
0.0326704601773446 
-0.01279561242490951 
0.09867605123549585 
-0.007060597181705623 
-0.001254544499436298 
0.05602419905821562 
-0.01858875721103685 
-0.02628262919453769 
0.0788406911954109 
-0.03577486291564459 
0.01435996600251327 
-0.08883176790239994 
0.1402111111573473 
-0.051516424660606 
0.01403095442750282 
-0.08300517568493501 
-0.06840839779510205 
0.03111230666468315 
0.04933424994094741 
-0.0207887569091844 
0.05998206523146854 
-0.08443326443730063 
-0.027468540482487 
0.04681939150577679 
-0.04806507708996179 
0.01412714894542539 
0.003926446639736963 
-0.02451939987648535 
0.06518378159562715 
-0.1191662434924295 
0.01521370492997135 
-0.01540598973551648 
-0.0758652906604772 
-0.01213173313928938 
0.01223370953386758 
0.09567843996845433 
0.05109214011290705 
0.05182656016874466 
0.06569873223584653 
-0.009389177445657027 
-0.02893882482744985 
-0.01335720591809143 
0.001944891178434206 
0.1390974654366556 
0.01657365148563485 
0.04725403942466684 
-0.06889506544711203 
-0.117157223032523 
0.03559913801219639 
-0.08387968221603859 
-0.02936932239498066 
0.06158053367943647 
0.05858784254980344 
-0.09629901526714171 
0.06314405554457811 
-0.04798641826206139 
-0.001883593229459207 
-0.09081183243276249 
0.04742809181837276 
0.04423564634906447 
-0.05896534163329005 
0.03743209987656781 
0.05486479185127358 
-0.01149284147835103 
-0.0531733213828982 
-0.02506091216418455 
0.08210812793879939 
-0.008224050153159822 
0.02263176832125242 
0.02833982742980884 
-0.03321839616539297 
-0.002851201646669313 
0.0627756895791276 
-0.02503177672728739 
0.0301258032093338 
-0.09347916901055446 
0.04315927731990412 
-0.02963513399796553 
0.02457564337534641 
0.01534653279354285 
-0.02308753879875193 
-0.04362246368223729 
-0.06553650288381953 
-0.1247017224432379 
0.01288113864936749 
-0.006202350409258936 
-0.01978641502055099 
-0.003798005811907275 
-0.02743768425810335 
0.004089257589055715 
0.01220120725952575 
0.03411032171647718 
0.03453124971974046 
-0.07925871508867462 
0.06489729361424799 
0.04948230271061226 
-0.03506038414805647 
-0.004806010789358864 
-0.02723728466796903 
0.06563120757520789 
-0.02674036109480211 
-0.07581825050588459 
0.125392443981601 
0.02135777737442065 
-0.05137332153850081 
-0.02755183722755216 
0.1246271854660686 
0.007892124290220931 
0.01730293624909149 
0.06184825953994957 
0.1038147371166826 
-0.04276287444068329 
0.01237205947566022 
0.04515362774303856 
0.0125423606493542 
0.008769579759875305 
-0.06837972680373702 
0.02789855704461447 
-0.05032639361923957 
-0.09315923496531617 
0.04939341369305227 
-0.04816068108270877 
-0.06270285352873203 
-0.009691507819688527 
0.03952856657587343 
-0.1118186711308489 
-0.02405957390087323 
-0.01026625754523001 
0.04266288811058846 
-0.07163719879880548 
0.004004166673840181 
0.01298396845305608 
-0.02389733793269023 
-0.00205488103774138 
-0.04728432827677007 
0.03169728149816908 
-0.05758423958259757 
-0.04001639866342467 
0.03705712344004569 
0.03030799751817558 
-0.06275308886922568 
-0.03895137698578454 
0.04091745876176666 
-0.009222472080733568 
0.07426412485115161 
-0.09002142654241198 
0.07303225544544725 
0.03771034346091132 
0.09257136704927164 
-0.07643848997591125 
-0.02471479751896259 
0.04494394548698998 
-0.03271331708171365 
0.08465918492953842 
-0.03950924713924411 
-0.0659131612742747 
0.04591977856478981 
-0.05138078244337935 
-0.01818138827813009 
-0.03872271098767543 
0.1284620825303946 
-0.02157110066958418 
0.1185069637916418 
-0.05455188598413417 
0.01899569075392013 
0.01711141428171411 
0.01294512094168947 
0.006189781511541762 
2.547340746517972 
