solver_type L2R_L2LOSS_SVC_DUAL
nr_class 2
label -1 1
nr_feature 3780
bias 1
w
0.06201928650897457 
-0.04651961113275919 
-0.05257124937504916 
0.1094771245457872 
-0.1094826891611663 
0.2357655184394473 
-0.08669526171584804 
0.03294800254852006 
-0.05784487633608656 
-0.01141815715145548 
0.03341035344853118 
-0.009070472644032941 
-0.01757262520558322 
-0.1391111153006963 
-0.03006441959749624 
-0.002152160703775541 
-0.06237002435265993 
-0.02980818402826106 
0.004581803593647071 
0.007868595354406706 
-0.01152253574713956 
0.03507320455797838 
-0.03564758669917825 
0.05500502521842861 
-0.1579373169161726 
0.07580911520652651 
-0.04682210779295589 
-0.02066940466608825 
-0.003395108548884364 
-0.0693633532741131 
-0.01512329152783906 
-0.02837272474405357 
-0.0438561511302079 
-0.06381504098061126 
0.03083102098735461 
0.01811760361297063 
-0.07722371727621319 
0.0461112534523142 
-0.00965170065114508 
0.06202569865930251 
-0.04693137777313584 
0.0344329170107407 
-0.08037957655270229 
0.05330351386892982 
-0.04134116599563501 
-0.01613233919582623 
-0.02922640767794011 
-0.05803822463440244 
-0.09795785928127654 
-0.1110097710802889 
-0.06018635871637254 
0.0222815756191285 
-0.03563693646609722 
0.02337619068311452 
0.03773379520560156 
0.03061375515654129 
-0.07617362323136313 
-0.02964156361299362 
-0.0365821426747257 
0.0621899780347025 
-0.02736786738582189 
0.06729907687477198 
0.02042545655892864 
-0.04020340847466632 
0.01848725763466744 
0.05944263814506966 
-0.08587184732050154 
-0.05254153094697543 
0.002887461871006804 
0.06676986877731024 
0.01689027076938519 
-0.05246143934485159 
0.03206506573571512 
-0.06828601906621524 
-0.09969349208940742 
0.09655299531186116 
0.01371820877044071 
0.04931627897455095 
-0.08651983623676061 
0.02473164881677013 
0.001230373497482769 
0.008516330426668361 
-0.02498598421699682 
0.04747819369253293 
0.0005762657339746306 
-0.08549770041786976 
-0.07556477870476944 
-0.05249734758800227 
-0.06856605431954843 
-0.01396710236068248 
0.04999750711030233 
0.07343074286599169 
-0.04224949945679535 
0.06256755952220311 
-0.0462716990467835 
0.07636669344080479 
-0.01823124210763357 
-0.01263356290773557 
0.03778246290665528 
0.02125117643574545 
0.08872597125113882 
0.08105256059785118 
-3.752151014713661e-07 
-0.1437594488404768 
0.04590343250705136 
0.03587908577115626 
-0.02717323149612137 
-0.06917226292740675 
-0.05154511468703279 
0.01970737656856018 
-0.03588940801446514 
0.1979903795211898 
-0.09314032011593042 
0.0869391944411252 
-0.0246216698380999 
0.09056492881165061 
-0.04002945996644814 
-0.02949907616313026 
0.05025060143966672 
-0.06336163865931356 
0.04499599959000045 
-0.1885566957205048 
-0.03360450124088327 
0.02540236194221143 
0.02728317812462928 
-0.1408424237913833 
-0.06737550078200448 
0.06281498317351634 
-0.04713658948622305 
0.03338355205289545 
-0.04927419563780528 
0.1135622571935958 
0.01372553790057996 
0.08091876840427409 
-0.05558490032699635 
-0.06048678672537811 
0.01778093829625499 
-0.01803343618674836 
0.0633891070973704 
-0.1230248259252061 
-0.0630490565962291 
-0.01412998188912774 
0.05601480855604697 
-0.0705953017566687 
-0.02933192363203753 
0.06299431592849893 
-0.02900841304465099 
0.06368912718243377 
0.01595501604070997 
0.07791382682827827 
-0.0386357782555202 
-0.0654410153353107 
-0.02051193612300028 
-0.08482830049624308 
0.1288848270501733 
0.0258764712729514 
0.1563828949679891 
0.002766660324585395 
-0.09087515853852077 
-0.02670190326517325 
0.07271235069271845 
0.02374770566223875 
0.0774916019072176 
0.02134908961631853 
-0.153857900449451 
-0.005285687480685467 
0.0003947826488049774 
0.01347707616790929 
0.002082891093090461 
-0.04910771507352303 
0.01655994357715342 
-0.09430935405398688 
0.03587071330636209 
-0.005198219987048033 
-0.09098184460145468 
-0.09225044910430241 
-0.005576562260697617 
-0.05699137034371184 
-0.06939091871688732 
-0.05546355054157206 
-0.1034019192407581 
-0.01023701454069605 
-0.02133934426371278 
0.05653384288550461 
0.04316798493889749 
0.05636733780061775 
0.01273240292478485 
0.03626440385426732 
-0.0464521620935919 
-0.06191901893295325 
-0.06312873855359133 
0.05318069563616763 
-0.001616411629428533 
-0.06352502741892492 
-0.03044464953990202 
0.04227840736283196 
0.06970534853302932 
-0.08497487082131676 
0.02392365187549689 
-0.03667374771508128 
-0.06394953377302168 
0.01505864619823747 
-0.07473954173719587 
0.07285934396058888 
-0.09894969421327304 
0.01342590418600517 
-0.0675378774304521 
-0.04377886181278544 
-0.1027206046294621 
-0.05225607820275883 
-0.06799843836473771 
-0.07074190885422936 
-0.01364751038509602 
-0.03992853392176161 
-0.0104724675597382 
-0.06754736896536924 
-0.0292651482257705 
0.04241281913911727 
-0.03416313818768715 
0.08572957331479737 
-0.04693225629316809 
0.148250004587773 
-0.1061123181047159 
-0.03355938642098088 
-0.07543011291210996 
0.04087929635401594 
-0.02018264752012094 
-0.1143644347801992 
0.01052218330784279 
-0.02780014709517517 
0.05867030938792835 
-0.05396065645229967 
-0.04567572935139574 
-0.07348243897534337 
-0.04984980652348701 
0.02794285646864623 
-0.06536353948260938 
-0.01534248396877162 
-0.02206782132653104 
-0.01682088138677244 
-0.1246066350835266 
0.09899779734516465 
-0.004858514422813326 
-0.06634684227853467 
-0.0229946598370679 
-0.06456861645265373 
0.04615287807953643 
-0.07041160236711316 
-0.04561138854282083 
-0.06264922041979946 
0.09518139668624566 
-0.05550943705988686 
-0.02485897979857738 
-0.03459381025183241 
-0.01885256514161034 
-0.01712281603864324 
-0.09986749308927703 
0.06452416704919792 
-0.04924078204568912 
0.005649221119561748 
-0.01777081134822216 
0.01251270492681361 
0.003272211807345724 
-0.07228516125213195 
-0.07149964702829467 
-0.02359235430356415 
-0.05608102367729163 
-0.00380273191482775 
-0.01114943703559083 
-0.04706282755309315 
0.03120783211931219 
-0.03509327635410431 
-0.085588408545499 
0.06208230687916986 
-0.0442493680874174 
0.06975631054935824 
-0.02446605706186858 
0.04040492003484644 
0.0192304724529229 
-0.02064008706993542 
0.02420483608035965 
-0.0671630876310666 
-0.03376662074657991 
-0.02633696473803401 
-0.02364389600041002 
-0.02819750921882731 
0.02746368478486465 
-0.1224692057316147 
0.05934949962190502 
0.03566347713050074 
-0.01193908944744957 
0.06286332694264805 
-0.1039944917773778 
0.08214340286335552 
-0.01849204668174128 
-0.02992988207844157 
-0.01388579926041702 
0.05153235711953771 
0.1121391563831507 
-0.005319689241050292 
-0.01465961551830206 
-0.06373182040188186 
0.01361215855394152 
0.00306296597697476 
-0.01167228772763563 
-0.01099572648856107 
0.0035884708399351 
-0.05876366355297966 
-0.08811737010521324 
-0.02416912377215263 
-0.02183683951864019 
0.0003500374982722587 
-0.03553293449368615 
0.0656644787346536 
0.009030791040185374 
-0.02020421512572475 
0.01234744249468041 
-0.02965828429500074 
0.02538659056648554 
-0.04974014855813188 
-0.03987216933771022 
0.05049502393139782 
0.05344457395888153 
0.04196481074839815 
0.01273496329348361 
-0.07198566572823788 
0.05063379037625236 
0.1616050563335344 
0.02372686418418237 
0.1152776876709551 
-0.05844387056542669 
0.106393678019606 
0.1301602116994696 
-0.1069354108923545 
-0.003895191435201508 
0.05484253976312661 
0.08940003562429848 
-0.1393387277324419 
-0.1481841298284441 
-0.06119253243426802 
-0.01484932379276406 
-0.02606910361513613 
-0.06915031409916413 
-0.162122673172021 
-0.0287091031328522 
0.07840269259534395 
0.05989986165341531 
-0.1628341309293448 
-0.1960020196660505 
0.04424161237054009 
0.1827129031485703 
-0.1676268949863577 
-0.1804969677407273 
0.0004177903414090321 
0.04951231620062556 
-0.01398536475691804 
-0.128155567276638 
-0.08558838203562782 
0.003700515652889199 
-0.1489131392138388 
0.08276157383006595 
-0.2163143871197682 
-0.09923688770263518 
0.09237531066344244 
0.1793862023693362 
-0.04252538423938222 
-0.1607760344723541 
-0.02819229245294022 
0.1341402836734171 
0.04271065603015616 
-0.1313744541587067 
-0.1070967600962421 
0.02393584492699399 
0.06571734307152405 
-0.1103130083879358 
-0.06211813782444128 
-0.01835278601809365 
0.0411588685275257 
0.1773059389263375 
0.03752624449579537 
-0.1205136688762987 
-0.1167795530513913 
0.1374208113813164 
0.1248696562055212 
-0.04866591730773433 
-0.1328785167566069 
-0.01148542612928775 
0.06411801369495941 
0.03475374854208768 
-0.0582035052313879 
-0.08555406888526054 
0.06033975688611747 
0.05262273957025017 
-0.01385974740864956 
-0.103128095271773 
0.0004849463909630674 
0.09124748379122101 
-0.0004253953033926651 
-0.08881165594635099 
-0.1607320276106247 
0.1236634286324786 
0.09190438104636395 
-0.105714407521291 
-0.1974180595880189 
-0.0318226390449795 
0.06010761395168426 
0.06234764646882607 
-0.06347282526093638 
-0.2560472344667361 
-0.1103625455972545 
-0.04471253770038228 
-0.05267099293456524 
-0.147060137693237 
-0.03740528816387578 
0.0493821617346059 
0.1041509761636859 
-0.07238989482150181 
-0.007521181853753413 
0.01007342931392182 
0.1442949760491712 
0.07985003593114644 
0.07175504233693893 
0.06587055957582259 
-0.06642544176076692 
0.09901521698111998 
-0.01098081262034782 
-0.02716669468767955 
-0.07941964932815052 
0.002296090583240431 
0.000658800331222048 
0.007106764419832832 
-0.1460730312089487 
0.0005529320432583266 
-0.1002763032961895 
-0.04266391674836392 
0.03626368397988636 
0.011932650842228 
0.03948940616265013 
0.00583267582627124 
-0.01433294635231722 
-0.04277998004710205 
0.01434169585586987 
-0.04729726948388609 
-0.02833831574410843 
0.02872660509850272 
-0.006371786101033373 
0.04155189204755567 
0.05333201381656257 
0.03726860429185962 
0.01852749436695492 
-0.03898421262575155 
0.1237271775125223 
0.01185589370826965 
0.08217562409834357 
0.01377353781127567 
0.04269260544549942 
-0.062507905723009 
0.0843250000197896 
-0.01674557721987865 
-0.01784843712836522 
0.000847363769031484 
0.0851984081973361 
0.04205082852834875 
0.009996824004217204 
0.01440231501747213 
-0.04652430927241612 
0.003381718550351409 
-0.02032334895103699 
0.01393873372310058 
0.0335012198731326 
-0.04482420494935001 
0.01064246743879969 
-0.01526967709181874 
0.04120645599714859 
-0.03031087255064375 
0.01591922000367997 
-0.0199780238224778 
-0.05332518792543323 
0.01374801329386384 
-0.08332637259542643 
-0.03694487952983021 
-0.1308212116601511 
0.00782728504442045 
0.08042856510077129 
-0.09921708567680157 
0.02161217752561237 
-0.08246752566068534 
-0.01573368149256623 
-0.04463895882921302 
-0.008811603520566759 
0.002833987774088031 
0.06705402845547685 
0.03476146694610868 
0.07028359535286062 
0.01730929574015195 
-0.09413292731098298 
-0.03596229008055464 
-0.0746428650084628 
-0.02507540943263172 
-0.03298874261477642 
-0.05186691557632994 
-0.00883131735324688 
-0.06750428478025756 
-0.01703521354469039 
0.001203501651769283 
-0.0682791759702971 
-0.008607936287568251 
-0.0700667754303481 
-0.01637802641292346 
0.006014693568606354 
0.008916611177221334 
-0.02725904356638261 
-0.007853173129670907 
-0.01917521684653941 
0.02647230609372979 
-0.04542655458413427 
-0.06820908697485414 
-0.05614663044081606 
-0.0457129370696439 
0.00378100009986224 
-0.07038683364697243 
-0.0298153651295053 
0.00267967428621883 
-0.0523718117199017 
0.002005596461412395 
0.06216179415350236 
0.008430322301174863 
0.02699264839554488 
-0.05147047591875409 
0.05404304524952996 
-0.02506796990824463 
0.08647541541555005 
-0.02197906290500428 
0.03803872501730866 
0.02483819553788563 
0.0186818040227034 
0.006985494478683075 
-0.04288496437591877 
0.02229835802668717 
0.006486930691545746 
-0.03515457950371715 
-0.09851782998759974 
-0.007199094138153545 
0.0071497157419042 
-0.0422429664552432 
0.06178778489766976 
-0.1308942852556202 
-0.02311477012669861 
-0.08207368106153777 
0.03085824082884662 
0.01393972623879618 
0.04192804484596821 
-0.02774171363181237 
-0.06169928567444324 
0.07033201767067374 
-0.008806305526169921 
-0.05139509706119488 
-0.07334173220937816 
0.04004286002783919 
-0.0440856269558555 
-0.07493407165998109 
-0.05195646719686286 
-0.001271459230327006 
0.1310661341515371 
-0.03246160703625508 
-0.03429256392589011 
-0.04242389863958555 
0.1524613574983016 
0.03471889225660224 
-0.03660110710736342 
-0.03500545632662797 
0.02731944284553241 
0.09481544559549897 
-0.08817742521057041 
-0.04571151127237578 
-0.02467528121708739 
-0.1063687303192476 
-0.05580989073851379 
0.1108164417103173 
0.0008206624277042152 
-0.03955109318267635 
0.1510697018193997 
-0.009927688978531501 
-0.02680624296090816 
-0.1248499199293901 
0.06213577772987561 
-0.006867439949917248 
0.08221598034351132 
-0.02415048424147515 
0.01224293166193619 
0.007587540034437681 
-0.05207818055645803 
-0.004007208251520658 
-0.1091328815799985 
-0.06555389520626921 
0.04560330850431605 
0.09019648002456167 
-0.08058301413188083 
-0.06264915426587164 
-0.05989983536220236 
-0.04279936335656794 
0.04009293518619235 
-0.1611532154778172 
0.06926397660506464 
-0.08395256148314918 
0.1134931901638528 
-0.1429207879088401 
0.006946098661600655 
-0.0276883151670688 
-0.0690737602864302 
-0.08010839838717121 
-0.2739258866211259 
0.01623154082134881 
0.004647352739500015 
0.07706308808617922 
-0.07734802789312586 
-0.03329298480965481 
-0.05667530688102845 
0.04912926163829013 
0.04044703868325399 
-0.1227030191192362 
0.07519705646732448 
-0.04964016262702732 
0.1124598181109941 
-0.06703293175278988 
0.04392723079694855 
-0.04205359992026916 
0.04977497457648523 
-0.08417388925886182 
-0.02025248403069214 
-0.08887512953919509 
0.005760976940615055 
0.05739699016459501 
-0.03093351689478607 
-0.03911921286211551 
-0.03046044235182542 
0.170098000867389 
-0.06043804114377771 
-0.02896444172173201 
-0.03814860186645128 
-0.02135152093364309 
0.1043785078071068 
0.04681327912807804 
0.05337637317155433 
-0.1266871222903145 
0.06181209355499199 
-0.0427189042053814 
0.06234341858909696 
-0.1396651969617358 
0.06151491190168381 
0.07075512021731215 
-0.0297910406879996 
-0.1410796470885635 
-0.1499668918182049 
0.08293582456761127 
-0.07568163803057443 
-0.1065610630803706 
-0.1064129988482701 
-0.06676720010262827 
-0.009754466147573481 
-0.05016089896498512 
-0.06735199223606968 
-0.2558805279258831 
-0.01600191410653232 
-0.1012701140697587 
0.006499094192258494 
-0.03506583880533961 
0.07720236608203059 
-0.001815292405073772 
-0.02596579534118483 
-0.1253712590781506 
-0.01545545082543913 
-0.001614036824416998 
0.09542926274302364 
0.03718499455811342 
-0.01756087104488795 
0.06849909976802573 
0.02021952895685219 
0.1175587919236106 
-0.007094745524460056 
-0.06267003908527477 
0.04104274136758367 
-0.09011823530990651 
0.05697156610941773 
0.01192509219039078 
-0.1014265913089475 
-0.03198519112274182 
0.0478101906726995 
0.008320610833167581 
-0.004478382579387007 
-0.03228924866707763 
-0.003304865604887331 
0.07576035598680052 
-0.03909158288294409 
-0.03948707232631805 
-0.01726316033459943 
0.1344331728864436 
0.01823392830151416 
-0.01034355835582902 
-0.02226861346975644 
0.04558012614371588 
0.1126249901526069 
-0.06977744991589604 
0.01025273655754672 
-0.09049023768703027 
0.0105198954598471 
-0.02928287176741197 
0.01361344262772234 
-0.08711941019057282 
0.02058249885358159 
0.01093014763824279 
-0.02695232899229153 
0.001213320311656894 
0.01552017546135157 
-0.00346854310536019 
0.003015599708395486 
-0.09134223938794064 
-0.03613460275344787 
0.01026837920418204 
-0.04418158342953919 
0.02025369740435552 
0.02781086600856967 
-0.03467681192815636 
-0.010877195749569 
-0.01074016480203405 
0.0238841506365815 
-0.0128246458724293 
-0.00692255152726198 
0.07507218984999488 
0.00541177415296383 
-0.02435415424720374 
-0.02129719326770046 
-0.03108309270060652 
-0.01511474015683952 
-0.03295721165893911 
0.03374676070936444 
-0.06137908891098436 
0.01973096574320697 
-0.03450236888774676 
-0.08042016165087981 
-0.06916587358913195 
-0.004372814497886313 
-0.01067754713965216 
-0.007338065964091858 
-0.03294969271627265 
0.01576947014703518 
0.01384891753840543 
-0.0367491668528219 
-0.06299066326214128 
0.02636243541912142 
-0.06558248785714124 
0.01803517309177316 
-0.06124068182273232 
0.001394972276160167 
-0.01329312773500114 
-0.02500665504648604 
-0.09649497702985382 
0.01522340381879346 
-0.04011124341174651 
-0.01133456916310645 
-0.02363685021468202 
-0.004745760111397945 
-0.01711336137173968 
0.0001592855621312826 
-0.0005566691151610211 
-0.02507592828472087 
0.0426481822482395 
-0.003226660064394601 
0.006322050974856263 
-0.000116666063825693 
0.02953735164890834 
0.05240473395086288 
-0.0286042380903363 
0.01561321903674596 
-0.05776770075009312 
-0.00588529019738451 
-0.01077568806736343 
-0.0802517646107645 
-0.007429306316639465 
-0.03271220475541053 
-0.02468407520009597 
-0.00652268704885643 
0.06053969928274463 
-0.04653260342662759 
0.0338132292558334 
0.007322828511366476 
0.01334891589269858 
0.05371533636990383 
0.01389875890851416 
0.006851502966030922 
-0.03525241787157975 
0.0623204772934075 
-0.006029992471574923 
0.03445724096082912 
0.05945048828259202 
0.04533482765862201 
-0.01398909035885995 
0.008405947727473747 
0.08848303480469083 
0.05190930970883793 
0.01414841273172346 
-0.02638194124812187 
0.05753048321504457 
0.08559574213233664 
0.05871532768677088 
-0.001907812452491758 
-0.06841983854261045 
0.03297053795347994 
-0.03885451984874915 
0.0829178895598638 
0.005436656300540494 
-0.1237217273584192 
0.01518724804030326 
0.0288163823932352 
0.08225028414782201 
-0.1141068430007986 
-0.127099031056159 
0.009142925082159494 
-0.01866531885955505 
-0.02152020380311816 
0.007987770025820637 
0.02229188262468204 
0.001850522775993317 
-0.0103897299344585 
-0.1172098916377341 
0.003777002691576731 
-0.1127365231447455 
0.1040853326058358 
-0.1540432839329103 
-0.2526540622781491 
0.1270725415654195 
0.07039456329210557 
0.06609021121308706 
-0.1761965042604831 
-0.04971558455558846 
0.1221857274812534 
-0.00262152738193875 
-0.03931583392800193 
-0.1227239016424779 
0.1220611344051342 
0.1586632654691165 
0.03865913428000955 
-0.1656194120595165 
0.139997746305559 
0.03435874061409663 
0.1745223612309884 
-0.08238673452890043 
-0.201024991170683 
0.07703359241420914 
-0.1379183513733058 
0.1594963996785028 
-0.1660697938147535 
-0.07421287571143551 
0.09842807711761065 
-0.09587690889601451 
0.149369357204505 
-0.04092693218674524 
0.1681969333861721 
0.00306731558651528 
0.1929224597293952 
-0.08596342829816558 
0.03469030202498407 
-0.06905890042477295 
0.1479669634716936 
-0.02331335197218348 
-0.1082338837854011 
-0.0592444111087357 
-0.1682104352515731 
0.1855701162131506 
-0.1410130598370085 
0.05175176887921189 
-0.09606747947402336 
0.009433426774957468 
0.1542640477407449 
-0.0991629794820183 
-0.02378541114318155 
0.02927767120728584 
0.1932366078191302 
-0.02047456450985163 
-0.01178170893091758 
-0.09379187406629375 
0.2072863079303264 
0.03165582553208639 
-0.1435014695798179 
-0.07299073619845653 
-0.1941040711162512 
0.002631045216224941 
-0.1177907018656438 
-0.01962275242303033 
-0.1039915511699446 
-0.03588298498981311 
0.1662863280205902 
-0.07187257674413219 
0.0324652552146454 
-0.01122345652088116 
0.2735191051595813 
-0.04552632684889035 
0.01508829391216229 
-0.07245878469653635 
0.170728720144333 
0.05437142725730265 
0.008222871836122232 
-0.07409625317412824 
-0.2546529723404898 
-0.02058309294232787 
-0.1616355253608578 
0.09060506575467292 
-0.1900630806881503 
-0.05175717951475305 
0.1322793538875867 
0.04181471606948409 
0.1407866003375676 
-0.04520382494784191 
0.2963470436644517 
-0.03173849416730603 
0.1028308645558647 
-0.1915874621755783 
0.05241988520341953 
0.1184208884210955 
0.141071844156684 
-0.06356307173300899 
-0.2229748175655313 
-0.02811727597522731 
-0.01471893927313413 
0.1274223085894403 
-0.2025768395153796 
-0.09799779374287632 
0.1632524589701368 
0.1187789965934734 
0.06717997905606816 
-0.1307966216913754 
0.06435326178809514 
0.01092339611208039 
0.0984833537046388 
-0.06635239056503285 
-0.08192841293046982 
0.03735391872943108 
4.803729957645991e-05 
-0.1260244277870351 
-0.02087780339085537 
0.06590911218009063 
-0.02011584023648571 
0.03523194675075531 
-0.1127629666012282 
-0.045322582278623 
0.03417478749817223 
0.001169393589942448 
-0.03195627681895388 
-0.07676987693434592 
0.0502808694786044 
0.01999838324349592 
-0.006454209554352599 
-0.1120680354243254 
0.01028010366544807 
0.02808427456844234 
0.1339799426090323 
0.06564399278747687 
0.02137622416883929 
0.03172995328607472 
-0.005640173012926249 
0.03928465642604882 
0.1225818333720476 
0.08059695305331092 
0.05314280140039246 
0.03425970658725087 
0.05455845259075182 
-0.01836263015428457 
-0.02481733593082294 
0.05076719116986647 
-0.05443122998353955 
0.09389355714183556 
-0.006548538827739661 
-0.008530594256212564 
-0.05106408190341948 
0.006310668587889197 
-0.011172165108495 
-0.006676645194981669 
0.0144706733545492 
0.02081416496976842 
-0.02682983836480226 
-0.008497271885818088 
0.05756645283768747 
-0.01947560927403975 
0.08927170526510458 
0.03363141247953708 
0.02052414937037264 
0.02154124414650374 
-0.03400207894177963 
-0.07163311635551807 
-0.03701628588269083 
0.01147149647125397 
0.02175649718810494 
0.01012354720127307 
-0.0643284786801491 
-0.03415707342653037 
-0.03048891791686677 
0.0219735137490914 
0.04129233803237377 
-0.02359365683233294 
-0.03813113989397154 
-0.05774050588258382 
0.07271996984603228 
-0.03541016125879197 
0.02668763207410066 
-0.01063142631002856 
0.02826597404012663 
0.03176089397482941 
0.04591520517673284 
-0.0481645596623799 
0.001547745531135588 
-0.05437576222077158 
-0.06298116601253813 
0.01782616174933587 
0.1018633168730869 
-0.03647277361650583 
-0.04672008251346093 
-0.02798239892788667 
0.01580048891387067 
0.07993359421608535 
-0.01713636821642789 
0.08337813681657168 
-0.02345289001999763 
0.07346513666404381 
-0.03981751555628502 
-0.02366119473194789 
-0.01749092441076185 
-0.04795012179438971 
0.07596718049634894 
-0.09729062218615653 
-0.08871216695498203 
-0.03575300666883176 
0.07735560906297545 
-0.06577252811429458 
-0.003932477226674822 
0.03271500374884093 
0.04236889817142315 
0.02235626384920823 
-0.01101400965251015 
-0.09081978982960541 
0.08977361131656181 
0.04026982350036649 
0.0270365912171443 
0.01590592254209141 
0.08826489387362166 
-0.04048942661057101 
0.07229409331009722 
0.08766891216756081 
0.03834141773392132 
-0.03355645670601072 
0.02574211874925791 
0.022759701790232 
-0.05981203851851744 
-0.02520510588955789 
-0.03264152944271275 
0.1109264851634451 
0.1038015929538423 
0.1616299140529713 
-0.02904509236510802 
-0.02582049772349507 
-0.01628498192571505 
0.05742589176099289 
0.05518661044928886 
-0.1189847034884781 
0.05139797204459069 
0.01601101046335645 
0.02830768821741685 
-0.009710502896889467 
-0.07302331782425225 
0.05330539112932024 
-0.06117129519511168 
-0.003935445047219668 
-0.01749100323921017 
0.136785428078637 
0.04840261854775631 
0.0003096604481260454 
-0.03181751477967205 
0.01184778312296094 
-0.05872205617314352 
-0.0398679714853543 
0.1822519574112159 
-0.1307330785583292 
-0.1325550804369987 
-0.06947218571307032 
-0.07870998799610829 
0.007945530917377278 
-0.0934764130791025 
0.1697093400052497 
0.01357527239973764 
-0.06580478879157525 
0.03529174892047996 
-0.007324552633213191 
0.00885866412465771 
-0.08721183655802708 
-0.009935434706128331 
-0.0416594951592117 
0.09975142142832023 
-0.004858828834601866 
0.02422111361226712 
-0.03081440508717353 
0.05153018894051385 
0.09097269314928336 
-0.2600911373435609 
0.003804000607165005 
0.05033604302828095 
0.1388694016704355 
-0.06196841941242726 
0.08614477844988162 
-0.02882766699406374 
0.07356377434820752 
0.02837387555565072 
0.007126423461381932 
-0.0615324139939467 
0.01924085944969102 
0.08756866900011454 
0.0877990004623133 
0.1458920664932991 
-0.1325644502979922 
-0.03602055377166138 
-0.01777926452323518 
-0.2282751767815136 
0.008956764948967228 
0.1179198582384895 
0.1352235681419235 
-0.0009099702872305482 
-0.01628644055337283 
-0.09857168036725593 
-0.02983060842741785 
-0.01639086556928224 
-0.03663693801340145 
0.1064351232711533 
0.1062459792747966 
0.06666048366346498 
0.0253737118814165 
0.05403748563348067 
-0.178879718500284 
-0.0744496390673554 
0.09418919888372507 
-0.1491833279214561 
-0.07794315291526834 
0.03929644740351306 
0.103877396018224 
0.1561987324351959 
0.1282259194684703 
-0.02509845401335664 
-0.03572584995306443 
-0.04307719590329886 
-0.05079679271997641 
-0.04195046097815238 
0.02943056558873837 
0.02483411511047922 
0.05785833835410858 
0.08793099525248139 
-0.1291070400420917 
-0.07877831991192849 
0.08107469618040129 
-0.06057452547925046 
0.02344747204275786 
-0.02880671134919255 
0.05929807471660815 
0.09794510314308111 
-0.003247478649236826 
0.01155651118080334 
0.04032263088068127 
0.09768260727311007 
0.03634525004717113 
0.06133491440639742 
0.06253531298237541 
0.06720263839364117 
0.04113034093779076 
-0.01541811060240515 
-0.08056548479240874 
-0.07646003678612728 
-0.06367438777015745 
-0.192259708786044 
-0.1073630726828865 
-0.0581472185183801 
0.02843276436925471 
0.1261018244885 
-0.0319411448192534 
-0.04052963472355749 
0.02771081802989648 
0.02875875253155877 
-0.09427417905776739 
0.07139987583463746 
0.03588147314368156 
0.01712240613970543 
0.06809263170471123 
-0.05458244554474277 
-0.03225604656676776 
-0.05558240831824255 
0.07908466167345971 
-0.06276672329560405 
-0.005717987987691353 
0.02591343272658097 
0.007829996976015311 
0.01853230618479486 
-0.05814751749036671 
-0.01185025351278577 
0.01938396392736743 
0.1038598347251215 
0.03021923006049144 
0.07763002524833985 
0.09315617364863701 
-0.05864972386931235 
0.07485511199575441 
-0.01968446433671909 
-0.0009457007871461494 
0.1199309889129277 
0.03676211471050878 
0.01335957653252383 
-0.07507777767159231 
0.01070030004297253 
-0.01958577217937801 
0.127752037633587 
0.02527637041342758 
0.06181236792893233 
0.1132206208408806 
0.1622562658277957 
0.01108113997534688 
-0.1326985910274887 
0.02436041085881376 
-0.05206641458732267 
0.0901146337336005 
-0.07652812429761416 
-0.01683237406949483 
-0.07933282175194804 
-0.0342521624852283 
0.01911384763964201 
0.0514818548080288 
0.03898419111026011 
-0.08553755162045612 
-0.0586837756089297 
-0.01679881643725519 
0.02881317911486416 
-0.09231178969107827 
0.04390394258717451 
-0.002280836926719182 
0.07696869642645217 
0.08409407013393745 
-0.05772760662833108 
0.04538662235160627 
0.0586441208556248 
-0.07525846130795438 
0.01614547631787652 
-0.05218762871720752 
-0.06041653633297304 
-0.05999057627878513 
-0.04257341405669806 
-0.03326005077742191 
-0.004683935595657711 
0.03518934080737601 
0.0276011943925055 
0.04213425858899671 
0.0517305248083918 
0.06587970091103178 
-0.01798322007673499 
-0.01730501193058796 
-0.01530249050951628 
0.07045714128760629 
0.01589849000594483 
0.1230971397547162 
-0.0193318653537328 
0.05058460603374709 
0.01040119506020839 
-0.009985306580346501 
0.04113306345896417 
-0.04143435704480591 
0.02317305036845108 
0.005848337618462711 
0.04610879880084609 
0.07222505503083124 
-0.01737185075998621 
-0.000441184834097191 
0.06065992579124243 
0.02817860967283248 
-0.02265257516511503 
0.03838892312230739 
-0.01228378878364504 
-0.03902589887047558 
-0.00310582642997842 
-0.1317722229490271 
-0.07925029515093131 
0.01186460886115403 
-0.02309058214651299 
-0.04322945763428651 
0.0001214442866370096 
-0.006421730884515 
-0.01647202601602672 
0.04181959859871229 
-0.04365302017957437 
-0.03923676378626131 
0.02869032560537826 
0.03069248839992301 
-0.02450476501775695 
0.1088633277986814 
-0.05593975380519677 
-0.05130068969645325 
-0.01825832528747313 
-0.02674713227694742 
0.05811664974487667 
-0.06857908472215139 
-0.03356552689265131 
-0.009787135949334259 
0.02430714886414629 
-0.07237157245637055 
-0.01324989340972128 
0.05211774388105716 
0.05701266719648502 
0.06474590517224274 
0.01020976965247291 
0.09752372597701642 
-0.02957720870383483 
0.06714378604055779 
0.02145171973331222 
0.009423200696865924 
0.001381674393540625 
0.03304714639315139 
-0.0108442551878442 
0.05987014419170453 
-0.03501083304204239 
0.03128176511759061 
-0.09182341062320577 
0.0830963766253075 
0.021291537913473 
-0.001558475942414234 
0.05498979722971901 
0.05616939739601969 
0.02741134255080951 
-0.03521600215841462 
0.08052402433954436 
0.0003981104850745281 
0.02269173814656426 
0.01284489208972876 
-0.08577842631691401 
0.04805985434498381 
-0.06048961661940071 
-0.001107812774449532 
-0.1506042277848707 
0.08653060568971309 
-0.1004804826508779 
-0.1272869957699857 
-0.03677786569253409 
-0.05201665961877237 
0.03801956207387885 
-0.001394983505567723 
-0.004069307515049552 
-0.136110312548564 
-0.05497856708043951 
-0.09266980896009815 
-0.05149970186013474 
-0.00150329374028525 
0.08677072009837866 
0.06194441358674452 
-0.07847445406322172 
-0.1404196293153305 
-0.08621607977391436 
0.07578361192076145 
0.06217688350531651 
0.01107831402703837 
-0.0350841382655394 
0.1262247954318083 
0.1115523535395719 
-0.07414008165423276 
-0.05183498814549612 
-0.07982894590536567 
0.06760842159224341 
0.06356073903019618 
-0.007902649825756657 
-0.00252304481999063 
-0.03725882088333086 
0.03761316377457545 
-0.002414523347853736 
0.008825518379242118 
-0.06006125204293018 
0.01777248747383829 
0.03636416003570099 
-0.0004288523273348442 
0.06998245234103986 
-0.04887389820460041 
0.02677353988347586 
0.002665514947034257 
0.1292357984382459 
0.01790546722508176 
0.04331728050977069 
-0.01250724055985398 
0.02629653932407776 
-0.03385149072360795 
0.002660941763299043 
0.01957845065444833 
-0.04643643179956009 
0.0005248353299854451 
0.01150887993653285 
0.02603469098290645 
-0.1549532870108634 
-0.0355776240240934 
0.04622184998731444 
-0.01943352758040688 
0.03210513623383665 
-0.001840965114604637 
0.09107033258790101 
-0.01206528448064652 
0.03422306710086043 
0.03575535531069997 
0.07766472851491181 
-0.08228418351340894 
-0.008257773078965892 
0.1324047954639797 
0.008398062772467204 
-0.006815728414136864 
0.03747613952153963 
0.05865679812518015 
-0.02387282573982869 
-0.06401135561934172 
-0.04242154958369009 
0.03207023584469317 
0.1327210049969539 
0.0325367871828489 
-0.02316279246236726 
0.01469970364358577 
0.08340767913797817 
0.04104221145482047 
-0.1156222902788775 
-0.02780358505854863 
-0.03293221157102618 
0.03537546773101718 
-0.1115945865143446 
0.08108548595955056 
-0.1120823729884303 
-0.01822769424652781 
-0.006531085050554608 
-0.03598783943751331 
-0.003603908572539732 
0.02267013521155685 
-0.02760173555589547 
-0.2178052285626501 
-0.006141310430116488 
-0.04215579690952047 
-0.01743897183060544 
-0.04152137396766584 
-0.1469493232521357 
0.04249111085411942 
-0.1023061965237819 
0.05081312580735738 
0.06578125043532768 
-0.0335116388521251 
-0.01358160603253885 
-0.01441506489323619 
-0.02574147044577866 
0.001958733253482741 
0.1286025239465985 
0.01112262034897423 
0.02526910375685973 
0.05503823643719927 
0.07052562623186627 
-0.0002270198064686993 
0.09769426183840144 
-0.001101911151797865 
-0.06602772201233147 
-0.06089296582122512 
0.04274219464093295 
0.003771715598695779 
0.009319031711286896 
-0.07962249181980828 
-0.0449274138732547 
-0.007217298237591633 
0.001467720004523432 
-0.09178059493787641 
0.01093280365004204 
0.09952089615916054 
0.02068140790089897 
0.03681845241754133 
-0.01000144211138708 
0.1339581400018014 
-0.01286283850580475 
0.03668628642084907 
-0.007097456537764147 
0.04044685520903937 
-0.1645644819875303 
-0.06139994820434331 
0.05413589807489521 
-0.003645317742593927 
0.04380613756808023 
-0.01748683525970601 
-0.009507118299006599 
0.07013561555803424 
0.002339408286129179 
-0.04920889398129833 
-0.05308169695455815 
0.05318532500434605 
-0.07576093049755954 
0.118822173635391 
-0.02501070243135711 
0.02940564583051289 
0.0441438266485186 
-0.03600833867873061 
0.05096215816828206 
-0.02102938387821836 
0.1202563785708583 
0.07434235304050145 
0.0103745095645252 
-0.0239809684809889 
0.06732456558379553 
0.03811690366771409 
-0.06597768403413012 
0.1067872675002186 
-0.01618811882565243 
0.08326813690578699 
0.0197836174246539 
-0.03617364618536974 
-0.01110192526002843 
-0.01824838506702726 
0.1906235677537698 
-0.02787494543677052 
0.0170544354931154 
-0.001550799409615971 
0.04831613985967024 
-0.006027957624476873 
-0.007586912825691113 
0.04742251012262907 
-0.02589065827341175 
-0.02824807358616505 
0.05375402867806715 
0.05559213637629738 
-0.09760985815378448 
0.0196865680701101 
0.06313627170323984 
0.1119331323108416 
-0.0700898152801229 
0.02293941507639139 
-0.003255614688217961 
0.02278402119051217 
0.07356899240482917 
-0.04862589676355122 
0.04076270078463631 
-0.01353777236040622 
-0.0204668033211599 
-0.06867233874522756 
0.03585387390999636 
-0.04688358583341626 
-0.02074715505053716 
-0.001203072876287204 
0.002198673658287762 
0.02900619857987771 
0.09391054562632235 
0.02450547991173673 
-0.02476703009025674 
0.129904074456653 
0.04280582752359928 
-0.01716950518079029 
-0.003939969965286144 
0.03748153510949528 
-0.03114175993412019 
-0.01680154011422163 
0.06461772124017866 
-0.01902811614267364 
-0.03010773852486502 
0.005476333546623306 
0.007818434911813867 
0.02216778322405588 
0.1180489450233931 
0.08305599202156637 
0.03725970348310668 
0.03596808236281825 
-0.02059566662877363 
-0.05150826091843007 
0.03409930475584574 
-0.05079638814112185 
-0.03757536632374642 
-0.04644085645042927 
-0.005570113626442484 
-0.06248340512601507 
-0.08372439467502162 
0.02302077949482356 
0.01503063212983421 
0.03226675153452952 
-0.04461441781529458 
0.07779596686019088 
0.04536891851041527 
0.03960219468246684 
0.01520449550777504 
0.004092376827122559 
0.09558506345509341 
0.0250141252143408 
-0.001413182839981328 
-0.05267290663540609 
-0.05322434956340012 
-0.04189764948592897 
-0.0009680990692665844 
-0.1350504568464929 
-0.1593011382340806 
0.04649890432593189 
-0.06402115852343881 
-0.00820070386640433 
-0.01750667573871827 
0.07295528783634825 
0.0503827480760452 
0.0166604077397921 
-0.02491459190817862 
-0.08878796900182091 
0.06559648076991825 
-0.05565161031325529 
0.03260968467177173 
-0.0936657802235859 
0.09003100485601559 
0.03163213302387605 
-0.03371717077531166 
-0.03138650887724741 
-0.01143100607452928 
0.06488598803015093 
0.01334436525493195 
-0.02080777169692593 
0.03004416365260535 
0.08741490857379106 
0.0981285570871777 
0.01257570711182501 
0.00728822587568784 
-0.006701497605863752 
0.1431768169374177 
-0.00732582466516752 
0.07095483041154185 
0.06587195635510794 
-0.08467354212128783 
-0.05227997778055545 
0.01226409592783004 
0.1936139024241698 
0.04338200048323367 
-0.0212664687144876 
0.0007117266928258167 
0.06104689292311066 
0.1402515615305562 
-0.03557404477154792 
-0.05659352781161798 
0.003237268186561119 
0.09133894513642767 
-0.0167016759722118 
-0.03795822459650564 
-0.1331424561938954 
0.0913685946973021 
0.07435731103794817 
-0.09131305292534929 
-0.04193185364120306 
-0.01011564390671446 
0.1117237278219448 
-0.05628741159159194 
-0.01079525940488833 
0.007192347835889381 
0.1187171672570324 
0.05049770356508054 
-0.004676139411952788 
-0.04692245532138858 
0.03108018307454597 
0.1033615935505636 
0.032748237188971 
-0.03288884703364418 
-0.05308545877522006 
0.02290184450322682 
0.01501941133083227 
-0.04432886190914591 
0.07096473379862553 
0.02963258845164232 
-0.09352288421971389 
-0.06224196248595887 
0.0422632671255738 
0.07136363281070082 
-0.06132259559457441 
-0.01751109222322052 
0.1133527092461953 
0.1425663219026741 
-0.007191819845448971 
0.003582707352611949 
0.0690430962296133 
0.01123239092244552 
0.07933900305095051 
-0.07890828725036181 
0.02477520445797033 
-0.02357494189930779 
0.009904287120278561 
-0.1199722946233316 
0.01327487883813321 
-0.04941615282720672 
0.0003732602508493945 
-0.001633421639311989 
-0.1219841150681185 
0.04006822710312259 
0.02410652778418637 
0.06594868943702296 
-0.08354884972696307 
0.0330288558305817 
-0.1410399916043792 
-0.008891598574138128 
0.08793137044880783 
-0.1091667998484044 
0.050396661036006 
-0.1180304153553678 
-0.009768408460938767 
-0.03648069623609915 
0.03989101997536525 
-0.02038632468807828 
-0.04761465767591053 
-0.01420067105527794 
-0.08779594321860194 
-0.01215381127617783 
-0.04680215990347497 
0.05079807430100597 
0.009189269700776659 
-0.02478619109637521 
-0.03102114144781153 
0.01135219808244963 
-0.01695124975800924 
-0.01206952149681851 
-0.04042501714787797 
0.02196745071504816 
-0.02335514732087975 
-0.07238539831555736 
-0.03427340349580899 
-0.0269471412353976 
-0.06874442153509891 
0.009957276525557895 
0.03223628022171605 
-0.02765048124407016 
0.05570689114353429 
0.002501690200434652 
-0.02506255114613771 
-0.003207583010352168 
0.0114650439736853 
-0.01840939421410383 
0.05554795046476017 
0.003863998198440049 
-0.06760047092177773 
-0.02827276981122804 
0.008786655823015887 
0.04043371685759826 
0.00664754143064945 
0.002310041152528413 
-0.01620658056679915 
-0.05789417998112525 
-0.0277448398059153 
-0.0007143536629718057 
0.01765036089186465 
-0.02453236850870805 
-0.009229311167742995 
0.009512202750982445 
0.1185464632281313 
0.0219167568067833 
-0.04160016240507874 
0.09581257584514359 
-0.09196803489319036 
0.1074907475084805 
-0.03272118046848589 
0.02259956816481519 
-0.003301313406343193 
-0.01876857261130879 
0.0468867883487976 
-0.03966009217011351 
0.06156197289397745 
-0.03254042234753744 
0.01135001114757038 
-0.03705337134405568 
0.07284486481581115 
0.02003609577237267 
-0.03234027817699542 
0.03882553464368069 
0.04062338399283189 
0.07717462715473772 
0.09035253508728022 
-0.03344584559055565 
0.004723461904513963 
-0.06008225192156055 
-0.08305207350786345 
-0.02547079842418142 
-0.02344343332452065 
0.04766968332514494 
0.01082476639689204 
0.09836095460149831 
0.0594751997261451 
0.04878767667531871 
0.01622298930853408 
-0.002674180661842847 
0.01655599982714683 
0.03209792170744483 
-0.0515323040220601 
-0.01856104241642215 
0.0467655042575361 
-0.04687325360852668 
0.04049591256936594 
-0.07295521375796156 
0.01733311658696702 
-0.07356806558699933 
-0.02435186945579638 
0.02394121899907769 
-0.03272898651035133 
0.07172907653418069 
-0.0004292210449636834 
0.027796088282221 
0.02278846060942725 
0.03095765881412956 
-0.03947178009370331 
0.01649967549535442 
0.005225917167455775 
0.04096757386199407 
-0.03648813963072502 
-0.04569169642784713 
0.07975192693494959 
-0.02502803948485467 
-0.04510238101073868 
-0.02436317999828337 
0.01824793681099401 
0.02671120859856507 
-0.03305771485516618 
0.02013874100517982 
0.04016738095598909 
0.01014137849647347 
0.001979837586515726 
0.02451687846391631 
0.04524045211642831 
0.02716094234679693 
-0.03835849685865936 
-0.07598921907902498 
-0.07997643666733256 
0.0007652200285113063 
-0.03844467255556391 
-0.04939421431629978 
-0.0001214753285796043 
-0.05689782644853382 
-0.02210134452265909 
0.0346708209082525 
-0.06235346805053762 
0.005460517258493414 
0.05110905543041527 
-0.02530638776631326 
-0.004078456453091774 
-0.07457057366439464 
-0.07625059506487904 
-0.03475843749738789 
0.01970795816126628 
-0.06651258760531538 
-0.177446300525798 
-0.09828511514813408 
-0.02671173869573966 
-0.03225422456514979 
-0.04968462606835585 
-0.1477166158803769 
-0.1165580986037528 
-0.06416554457844865 
-0.009702068850862789 
-0.1331735883713728 
0.03965479756532631 
0.03230791959048722 
0.0318894802382504 
-0.03983638581983036 
0.1075862006355685 
0.009781533003448134 
-0.1066811703538967 
-0.009992343712821931 
-0.01170391405435674 
-0.03224445032706268 
0.06252729804392071 
-0.04759128672967562 
0.01745176420111674 
0.01712533636035142 
0.09030105499717626 
0.01864542278647794 
0.005305277909327524 
0.03531505731602981 
0.1258365040218197 
0.06218760731392352 
0.06261241626397923 
0.05876571815514634 
-0.006917258850465916 
0.08089161311401842 
0.03126060222540557 
-0.01009604676787715 
0.04315269873764239 
-0.1199054677413134 
-0.05527745554943601 
-0.05579228650804129 
0.07905609872789494 
-0.04905742727604277 
-0.05067470067508711 
-0.02976068340992661 
0.06908222691483046 
0.08072544011065236 
0.007360339392276585 
-0.04559214482981792 
0.01167138737973547 
0.1693382350967778 
-0.01109827081533398 
-0.07669783873739777 
-0.08066503123658689 
0.05238536463401758 
0.0520636415014242 
-0.1151967164140657 
-0.07230348267611879 
-0.04946797178603782 
0.1559587947989985 
-0.002774521604630662 
-0.02856995128021254 
-0.02971026988207807 
0.09218810010597657 
0.1164157299988712 
-0.0598275025480544 
-0.0213831439737815 
0.04322867437716565 
0.08675276862676541 
-0.07192393123047278 
-0.07434331067306425 
-0.06481284247336724 
0.106045125539447 
0.04659900107482237 
0.009974201424788665 
0.0825629552611578 
-0.04376052356169041 
0.02519083846989959 
0.06352438120113793 
0.0619148457222279 
0.07204018372076604 
-0.02802182946146971 
0.03598166072761411 
0.03186928477515214 
0.1183580418967367 
0.04446914080440593 
-0.06460488992174038 
0.06212171821330793 
0.08517330956934624 
0.03462698197313966 
0.07101897385400809 
-0.03753618525949821 
0.01348866790336401 
-0.02567754620509195 
-0.09788437164350514 
0.03084135051419714 
-0.07748561560645553 
-0.002441970917298704 
0.03987863960789885 
-0.1716526875766682 
0.01647468792048451 
-0.01169370139752712 
0.03614905242173992 
-0.04549924037690587 
-0.0397414774628192 
-0.0381901640033858 
-0.05446670402506376 
0.106315185673583 
-0.03960128751287281 
0.02710451772898434 
-0.00332978730865772 
-0.05729392506269782 
-0.05210643884185145 
-0.04120546277665706 
0.02210741995220294 
-0.04548612419240512 
-0.03206353904790525 
-0.08945084777859115 
0.03132093824333599 
-0.02094622948082162 
-0.003775741356032403 
0.05005863807029946 
-0.06141391871769041 
-0.004251412744991074 
-0.06706555497335032 
0.011591132422509 
-0.02456261509259123 
-0.0255036866768753 
0.01878802779248036 
0.007124466924392614 
0.001564974010199405 
-0.03509753809636197 
-0.03000148526259736 
0.07577976586380725 
-0.006865840705457605 
0.03002525327573247 
0.02039908051312645 
0.08015446460760094 
-0.002163977945294674 
-0.01428259899520291 
0.04426707103661368 
-0.04113074915493121 
0.004226432859000792 
0.1128183330301543 
-0.02060856492689258 
-0.009950956344982706 
-0.04699335951180828 
0.0318385309583175 
-0.06721187400900776 
0.03209830485484574 
-0.08828111058515913 
-0.02238753568513558 
-0.1097385253316065 
0.005726703729656158 
-0.05027371691501102 
0.08621387014202257 
0.0532206612531461 
-0.05133831759087062 
0.01802297613706584 
-0.03674946473068504 
-0.06265435608837182 
0.01327567063399842 
-0.005980891077046643 
-0.09991895533899837 
0.02116609827549179 
-0.06744364458102696 
0.001659537806908329 
0.03185866131408136 
0.01036344731300347 
0.0339679875968103 
0.01153472936096712 
-0.02376097986619872 
-0.0361564779182199 
0.04701331808317941 
0.02211918601802151 
0.054680579082216 
0.001443044885570246 
-0.02464399296829629 
-0.08384055075413729 
0.01836760287185191 
-0.02330309646807115 
0.04839007146942555 
-0.04628235910843397 
-0.05978278946765361 
-0.008548493751101933 
0.001225464563744127 
-0.03247951087400024 
-0.003810014875090269 
-0.05458159236805153 
-0.01014463453823786 
-0.006668552567692818 
0.07912251093462044 
0.01284479629413003 
0.01712639810041844 
0.01537189715538839 
0.05938347766577219 
-0.03181024960597146 
-0.01573558432199384 
-0.02628696319746289 
0.01745492594891778 
-0.07480251946947891 
0.01204412010564967 
0.004233972674011818 
-0.03219414710934573 
0.006823490016508981 
0.08073442040362155 
-0.04917165522054117 
0.02067207703728353 
0.06719859167905032 
-0.01148053194268699 
0.01684583864133829 
-0.02077013707464138 
0.1217203458821987 
-0.03948638003818699 
0.00441724920200207 
0.05631413839939705 
0.002311450064995389 
-0.03048584850789156 
0.003070257985856107 
0.01843687535004405 
-0.007775477681172496 
-0.0257697957463887 
0.04843958983286872 
-0.02585329593135919 
-0.01596809683083325 
-0.02032613755604 
-0.0006571696075801268 
0.05905657776655494 
0.0428677928408688 
0.02901245874423126 
0.01897961006765703 
0.09165567727684176 
-0.001837515569320882 
0.05785821784769274 
0.03929488936049523 
-0.005814469761588536 
-0.02113606112332945 
-0.1017670260639987 
-0.05438134200089051 
-0.02870374255319158 
-0.04747134190055838 
-0.1254100071422189 
-0.0570819574907119 
-0.01113552052346451 
0.0001453789836562282 
0.03574985521133165 
-0.04882019462154447 
-0.003634146452500221 
0.0643957137444527 
-0.001605677776837635 
-0.08412562070269919 
-0.08103623566693986 
-0.007648235799078588 
-0.09699847744720139 
0.01799593699477219 
-0.03435824441826458 
-0.0548816498331561 
-0.02968124156921124 
-0.04022418652318567 
0.01360323739359664 
-0.09046710456055564 
0.01093959928124246 
0.01219997637040485 
0.07294870070944218 
0.01588464848066993 
0.03144304908384035 
0.02661036911555072 
0.04485039821391219 
0.04150638488357653 
-0.06928110373525119 
-0.007287763650942218 
0.008269880905521667 
0.08301148101087333 
0.06982492282631163 
0.05590162530560477 
-0.04082861288421327 
-0.0148642528037718 
0.1994516878476334 
0.06439858790290404 
-0.06638096008657489 
-0.06799854551409122 
0.1000700047383807 
0.03698138449983937 
0.09244121388450315 
-0.09808245352994452 
-0.05517122262018263 
0.05088819228363413 
0.1000440491407645 
0.01804518763265989 
0.1176175276365952 
0.009281113886167191 
-0.09089434204296154 
0.005898864340178354 
0.0387506640595272 
-0.0519279091950469 
0.04838993310384705 
-0.002647012274511981 
0.01269807870433538 
-0.03699638883688445 
0.03624798366275692 
0.09572338114819687 
0.1340426773699104 
0.02033768223667452 
-0.05539955416281758 
0.03275403750111926 
-0.1110356929209982 
0.03908024267865685 
0.0751999524564772 
-0.07279167332254613 
-0.09186711847458014 
-0.006150542425946293 
0.05744224816627742 
-0.07464379178752426 
0.06487249611985643 
-0.03148426017803273 
0.03606590288294276 
0.08173059081595786 
0.04046271846662728 
0.03581440151076573 
-0.01104485204866779 
-0.02094674633104289 
-0.08790061655422594 
0.04067163322406289 
-0.03689804790755662 
-0.04944694189252744 
0.02381590306186424 
0.09223755570189104 
0.09551901897093008 
0.09508049480507576 
-0.05783571568690283 
-0.03475708310359193 
0.1533835634402277 
0.1301602522076203 
-0.06803891443097998 
0.07395762726924039 
0.09239204472060519 
0.1283983344081975 
0.07933987685017944 
-0.01814901152518038 
0.06250036785101594 
0.09172855384594421 
0.07110265610785557 
-0.07689943418188507 
-0.03022529057683994 
-0.000205969839595911 
0.01999571934498593 
0.0007736419831791256 
-0.08969130045304022 
-0.07243625404975287 
-0.09055697643521264 
0.06706083344457922 
-0.04845298284652397 
-0.01281973320109663 
0.0436233664238753 
0.03003115135492293 
0.007673062804611526 
0.05957835888678133 
-0.1012368630452797 
-0.0286415827712533 
0.07481363275329939 
-0.03094963311935711 
-0.03629913662500212 
-0.07583550500286429 
-0.02791051890413819 
-0.01084872816603372 
-0.05846995255728616 
-0.03314613690542805 
-0.0831798785889698 
-0.06504664586779449 
-0.0004091146241580012 
0.03378470532029573 
-0.02971569472803125 
0.01117494628292778 
0.03396860953958637 
-0.05324955869800372 
0.04401287238219928 
-0.1649402171041228 
-0.08458513590944305 
0.1109063583447955 
0.01556074895222438 
0.03895572668697429 
-0.00415470518015808 
0.01567647574247607 
-0.03435086715890327 
0.05092513874303205 
0.03134174938109267 
0.04329604045215733 
0.05149896242401733 
0.05734646250737867 
0.06089152901846825 
0.07112918913765337 
0.02149905033593462 
0.01946787530961207 
-0.0003938304698658464 
0.07177566452303072 
0.08763365100394653 
0.04198875268066053 
-0.07064290393798378 
-0.06502169911609849 
-0.02974527223409897 
0.006988368564029822 
0.09369052539821095 
0.003125674807873512 
0.02688180285389596 
-0.03002387322185069 
-0.004258121754829989 
0.05206742791743015 
-0.004737313149900756 
0.03846724492350995 
0.05223791643062879 
-0.01183272941969834 
-0.01231721556965897 
0.08612956558227577 
-0.06104273795606483 
-0.01326754193596543 
-0.04964422833372942 
0.03208846241394513 
-0.1013263323429325 
-0.0008969264609255313 
0.03503644285153054 
-0.02359932155291299 
0.04825360998099988 
0.005404743609708783 
0.03923259556071481 
0.0326896189033135 
0.004613949547952016 
-0.03332048035940804 
0.008164656635956093 
0.009088287577956943 
-0.02823291266173149 
-0.02390494650197851 
0.06318285818014385 
0.1266012575762268 
0.02780318638932229 
0.05532837564241046 
-0.01359425577495726 
0.08508210926553625 
0.02460043538957263 
-0.03035708950025674 
0.02594343601048935 
0.01111795278073084 
-0.08001753695021434 
-0.00135702652718224 
0.05614435912329068 
0.03045019882745427 
0.06999214382423428 
-0.001515721240087116 
0.02685617035093682 
0.06015926632452176 
0.0214387717990633 
-0.00412502856481023 
-0.03652402947609521 
-0.01628231747357516 
-0.02237457779423957 
-0.04050999647870614 
0.06954249771693195 
-0.03595216263114877 
-0.003575260416314677 
-0.04413931918087658 
-0.02773997900594628 
0.032424321314007 
-0.03010403729035836 
0.02032499825352509 
-0.04551871598840457 
0.0002617236909359823 
-0.02336032178262792 
-0.001251896653878782 
-0.01965577653920153 
0.00238878409290216 
0.01565520772573721 
0.05344225049941444 
0.04473731263717506 
-0.01127716001625203 
-0.01204555173311422 
0.01245690633581383 
-0.005042271307189799 
0.02488982141022514 
0.06270875579299696 
0.03392088006538456 
0.04834006131703006 
0.06270349594069601 
0.008266075337653918 
0.05505796917054721 
0.0298338610982736 
0.0712599963373421 
-0.003975646444975816 
0.03899237787446853 
-0.02525273657478571 
-0.08729873926503587 
0.01439159154787551 
0.02698419498518546 
0.03054072826760933 
-0.07034590256346987 
-0.03859869194296237 
0.03232953341529442 
-0.005594425899761283 
0.04111239369177561 
-0.008432242688451505 
0.01211518757882341 
0.01470477509554001 
0.05399137206944892 
-0.02705029092667738 
0.04972694007732875 
0.02919821076550708 
0.1019748708452259 
0.004662808676459371 
0.01874097775972236 
0.01388552136814233 
0.02838375209815438 
-0.01742896762521811 
-0.001202986017112237 
-0.000147048062372739 
0.09942700664636608 
-0.001152919224181201 
-0.0468883090570078 
0.06135380585792724 
0.1117148169832084 
0.1156505744999624 
0.01074238965601106 
0.04314624636699443 
0.07373727700592889 
-0.0051617470448826 
-0.004536940999776893 
-0.07496460438789568 
0.08736999952317948 
-0.02209891419721919 
0.02561243960049151 
0.0006823444767406945 
0.01860897059639388 
0.09170111112323492 
0.04906222275908542 
0.003017283536440141 
-0.1329868951577025 
0.09062416952340988 
0.1312642244895783 
0.009157285303088568 
-0.05864015823462842 
-0.1277894845010076 
0.1295476610241593 
0.1022119243784563 
0.03600612799702389 
0.07161584238210368 
-0.07876747002295853 
-0.06303181911105497 
0.03711113854684089 
0.01674270465747286 
-0.05633084138164646 
0.03922457017158863 
-0.01923066996767549 
-0.08629384509284208 
-0.02784549335374456 
-0.0302972509436801 
0.1076062514120988 
-0.06271816676026777 
-0.06964985603922057 
-0.1375628438952884 
0.03473241640660539 
-0.07722055346256008 
-0.1481422120906019 
0.1233792502661616 
-0.07516381898241009 
-0.0924713759744443 
0.05602118965213963 
-0.07419658436234594 
0.06267946371476604 
0.09981797958572131 
-0.0002142802589148335 
-0.0353583147356416 
-0.07263438001812236 
0.08186069559217153 
0.07333326059527678 
-0.06609662962933778 
0.005197066141997865 
-0.1203982828879411 
0.008727350208768594 
-0.01277550270119694 
-0.01119246108645839 
0.1009363543357002 
0.05033379324202004 
0.01840202232006281 
0.03186898164043287 
-0.0707050495046186 
-0.07586651586731093 
0.0435559614028105 
0.04310804602872362 
-0.1132614510761649 
0.004840452897298339 
0.09452604744877667 
0.1548397089543688 
-0.1426118317994496 
0.001976679952084478 
-0.01129449305255631 
0.1243385396813445 
0.05742287794921686 
-0.06935878504685591 
0.03662425824403691 
0.1061921358673027 
-0.03488114042613306 
-0.001061748857622598 
-0.01462637062820296 
0.02903037794864234 
0.02104866701101151 
0.03801217699339338 
-0.07938716571170751 
0.0114647035837611 
0.1450385947099977 
0.08205383268256143 
-0.03068533884289805 
-0.05197349861537033 
-0.03787526278740678 
0.01289407526815541 
0.09029148136696259 
-0.04607030741002316 
-0.003015934302825946 
0.009637819971930488 
-0.05124261936367685 
-0.0881552309100713 
0.04856755680184532 
0.07469382354604036 
0.05738878524201015 
0.004133739543879473 
0.01751187189940012 
0.01333612674052897 
-0.01067719439680294 
-0.0239139328969645 
-0.0821796698849524 
0.09999242787418074 
0.1093673932856005 
-0.02943834745545726 
-0.004514881154149547 
0.05193382668660602 
0.03151309611359174 
0.01289502091232268 
0.03186617268516695 
-0.01134431247685894 
0.05972829890771999 
0.04530443844302685 
-0.05910514400531384 
-0.003564194308598609 
0.02125623788826429 
-0.01572467548943696 
-0.003572552636839612 
0.07712274109379361 
-0.009647944281271489 
-0.002334555302542523 
0.009934780441873115 
-0.04209859325493543 
0.03962758522090095 
0.06461481184119006 
0.002973868024407524 
-0.03097617713591294 
-0.006733438342355223 
-0.02006628438703396 
0.01644808781164729 
-0.043503850924352 
-0.03265702693912163 
-0.008698354618965754 
-0.0463008600303717 
-0.04680759566990209 
0.01218185051250611 
0.02014434708161 
0.01800811415426726 
-0.03390510204650763 
-0.03379629400257068 
-0.06072990898100967 
-0.002881981150242276 
0.0232181528549076 
-0.03128390919295593 
0.06584534573227023 
-0.002710957917739544 
-0.006873158679035866 
0.04149057557109561 
-0.001200805224952579 
-0.04335236137041265 
-0.03145070317871464 
0.05371301918174183 
0.05918891807965641 
0.07975317748500299 
-0.009506251226747232 
0.1043666877603015 
-0.0002843129883943608 
-0.02340178890818967 
0.01521198671311052 
0.05827542452404877 
-0.0008140014715695926 
0.03798539170548378 
0.01047200102579132 
-0.08720795389755737 
0.08178190020735128 
-0.04089916478421311 
-0.101835403572398 
0.04229759936621569 
0.01142120297723239 
0.007725862285892758 
0.008060499040746846 
-0.03712269440670728 
0.01772027455999659 
0.01735476549007941 
0.05862231075467366 
0.06877020064007155 
-0.01973162428136481 
0.01654350687301148 
0.005511694124890203 
0.04755952667651186 
-0.05028105608928548 
-0.0452111333869625 
-0.03484037151193117 
0.05544694244654286 
-0.03561429895279803 
0.01545557902806846 
-0.1034742712752488 
0.009318168063752475 
0.0121818361319153 
-0.0002337606297627818 
0.09012827339586225 
-0.07748193758436896 
0.0214487609073457 
0.01185140035938125 
-0.06422278252505753 
0.01965352475990801 
-0.001463842214154948 
0.01046306339794715 
0.0308809525015411 
-0.008241922702225235 
-0.01845904462571929 
0.06236317324304013 
-0.03478970020023097 
0.03046931470800624 
0.005054734302767843 
-0.01313575310746725 
0.0530959386123414 
0.1267205412679072 
0.07710188559900744 
-0.0261514608708302 
0.05984139933194408 
0.0534858763555426 
-0.06096834020946893 
0.05172655262984372 
0.107161555484182 
-0.01932251383767035 
-0.07222636382141998 
-0.1072183395513154 
-0.08853955640790617 
0.01057960149493072 
-0.02053032555543007 
-0.02179250082323743 
-0.08817365763497485 
0.09436742837420613 
-0.05368635834204298 
-0.006118580529114914 
-0.0986946462182835 
-0.03415800048773138 
0.07832775823121255 
-0.07962455993158307 
-0.04522398763183313 
0.07944399274820657 
0.07679714342640907 
-0.04073959769887157 
0.008399978191625647 
0.04411560870128386 
0.09338729518523714 
0.002614396769941467 
0.02641861764967595 
0.01594744721993953 
-0.09084646318805135 
0.01130176502549559 
0.02256251658911849 
0.02166847630210157 
0.02980495170244055 
0.05368501794892735 
0.01868627933457228 
0.03437902163588944 
0.07127480064442693 
0.0282232194014468 
-0.04517657985262594 
-0.01220008660561104 
-0.01205181189810817 
0.0367249088722987 
0.03363644258975405 
0.02234084670924026 
-0.04222478022692839 
0.09635261458954736 
-0.002646501829273229 
0.08178789354166176 
-0.07476430314494753 
0.0240136253661289 
0.08400921449745997 
0.05595698269614698 
-0.02979823924000937 
0.03409858210070122 
0.05732917708454367 
0.03608642643020718 
0.05045257370415501 
0.06149186137663302 
-0.0577127430901328 
0.008746713428468007 
-0.04449465707772327 
0.01569519377869182 
-0.1609377620103946 
0.02311056163247874 
0.002441337711791314 
-0.08186461695568616 
-0.04015704938656434 
0.007055094346649414 
0.09093948492591253 
0.04159666467080871 
-0.02629103645026648 
-0.002732707704568429 
-0.04512352672452283 
-0.003047515600067835 
-0.07202976835759042 
0.02243730602806639 
-0.0001808891875789733 
0.01183719281229578 
-0.04458313684274296 
-0.04221399971132141 
-0.07066339186334801 
-0.02855019246334765 
-0.02637744839443822 
-0.09647399073734718 
0.01215363026491519 
0.02578240125929645 
0.1225622213345691 
-0.03478270127864827 
-0.1383293171923876 
-0.03205445249715547 
-0.01915130603134682 
0.05492125373604698 
-0.008132349364350424 
0.0710292805358571 
0.01993579590947945 
0.08350730100613071 
-0.07057531316146948 
0.1035782359117262 
-0.007526772186392795 
0.02885644395633456 
0.06745361501983363 
-0.05095326586634425 
0.02804136620506773 
0.03507231143260803 
0.0991430159456196 
-0.08811583802776718 
0.04019275455057322 
-0.08637998659389724 
0.0224872827775131 
0.09218400141863814 
-0.120888793705552 
0.05124601026959025 
0.06818325174800954 
0.06597757584600281 
-0.01636089043623062 
0.002155615895090568 
0.02945288442298788 
-0.03149206804673443 
0.05891366558784323 
0.03709771960620827 
0.09028617549033867 
0.1170278326238798 
0.03394597787652305 
-0.05049225780167708 
-0.0204438752940826 
-0.004395508036225865 
0.007556691619876852 
0.08985647738723153 
0.03994721600206484 
0.05136286063544694 
-0.1011027799652621 
-0.03816473532581496 
-0.04148735102110473 
0.1116835653473665 
-0.009066040227832245 
-0.02980519231981062 
-0.0212493023671999 
0.004627127182109388 
-0.02936253217326239 
-0.06967293093562253 
-0.1204354494927719 
-0.06323501551490308 
0.0114902743043301 
0.05588206468328292 
-0.01548464987054146 
-0.02765103359528835 
0.01663280183737634 
0.03706185224149331 
0.005166936383018174 
0.01462638108942967 
-0.06225301438051115 
-0.0003359835627481699 
0.02507578525594799 
0.02834538347420637 
0.003157976817474529 
-0.007997372930792081 
0.01656839934744195 
0.1042542228539465 
0.06764904086281527 
0.0828498268084546 
0.07368127115182863 
0.1154495874342165 
0.02148677484813517 
0.00515169972131376 
-0.01992214419921599 
0.02935270593342397 
0.01216656521793356 
-0.08377162520243539 
-0.02124782866880228 
0.03538564736984175 
-0.01540231563107589 
0.01825717829547096 
-0.02694431164689561 
0.01842483849576745 
-0.02546808373798174 
0.004098183665356086 
0.006358286523822663 
-0.01516616998052468 
0.03744637271852269 
-0.005442109966534799 
-0.1263473505866549 
-0.04423023747393309 
0.09605745991001562 
-0.04807176363856122 
0.05927794691588045 
-0.06671194931920886 
0.07088235912356701 
0.04241560230079469 
-0.03511552399450842 
0.04334489966505188 
-0.04021464836090702 
-0.03405297257842494 
-0.006711072417522342 
0.07433968762004318 
0.01569807481000921 
0.02113057752122544 
0.01838696203552261 
-0.07292566798277049 
-0.0430686158642388 
0.03277769806616977 
0.01761088636631313 
0.0448325732436217 
-0.05244298605362231 
0.03396633062687395 
-0.01743770085162686 
-0.03563175656691931 
-0.002523536640425645 
-0.06821822889454174 
0.03219126144957878 
0.01554467394701054 
0.01968479371828733 
0.07573372959575936 
0.004866754862503749 
0.01702965000647233 
0.05591725738586709 
-0.009455349779821921 
0.06827045308491951 
-0.03889668159022266 
-0.02612525074819659 
0.008849922225553447 
-0.07312637326421599 
-0.05549529173220418 
-0.05356039453140298 
-0.002471417316658585 
0.005851731068780293 
-0.0003121895602777486 
-0.07002674534870774 
0.02452778522687905 
0.05565595807385437 
-0.03437659152241974 
-0.0366799036316308 
0.02748239630038807 
0.007097321911234179 
0.05568034361206201 
-0.07390148780209983 
0.06721564837387373 
-0.04423212743652169 
-0.05453319836686131 
0.07962563414014433 
-0.04732134978600155 
-0.03227615740875511 
0.02591790971263908 
-0.01923889268174485 
0.01510020664651389 
0.01238210001612767 
0.003542588084618926 
-0.01753342486624471 
0.03075611632355246 
0.006657984065026138 
0.04786642893319275 
0.03775621424745872 
0.05541308185271787 
0.09032858019389442 
0.09983871407294521 
0.03500884369235636 
0.02965496414137218 
0.02710097295583314 
-0.03965003195472985 
-0.02265433518337449 
0.07024038225421823 
-0.02122218879767752 
-0.03411283762541299 
-0.04399173841141565 
0.0322138304181776 
-0.008415533849971705 
-0.004680598853089496 
-0.06765620844254147 
0.01007280868916526 
0.01204937798556925 
-0.0142437746789175 
-0.08315892712657968 
0.01197029305633208 
0.005514558930693129 
0.00972107887797616 
0.08782179443791924 
0.0535664585163801 
0.1020936693969138 
0.02312997500144154 
-0.009829211582244651 
0.05463036603390237 
0.08472858003499825 
0.006549471655308162 
-0.02617421479318921 
0.1261382925272951 
0.08984942641481326 
0.08268986455341472 
0.1194390339078918 
0.008529375235461278 
0.01623128415804738 
0.003438237588537776 
0.0133299465699279 
-0.04984778087682792 
0.06901727961085148 
-0.0004697503863672529 
-0.02552399367752357 
0.04950537810843057 
0.0002656887797407718 
0.07811085887683863 
0.04042588906033347 
0.02973787211396885 
-0.08798791880280805 
0.07189890744896851 
0.0916906159875015 
0.05358679630009949 
-0.06421884417254131 
-0.03735041513747469 
0.03869983815699773 
0.06032854926495464 
-0.08959102668458305 
0.05465309198635256 
0.0081021190875111 
-0.03718870582212159 
0.005101244983808066 
-0.03464183984049624 
-0.01543182466316562 
0.04633726207909977 
0.1341498154622698 
-0.01881874471738722 
-0.03889871528440109 
0.06191558387499686 
0.07824798543025389 
0.06174554988579987 
-0.1093621551738203 
0.01084059309678655 
0.0300545772214028 
0.04130002827687677 
-0.1338823094807148 
0.008760847267554009 
0.01307299189993306 
0.01022079410727156 
0.04748578595488791 
-0.04147125092665453 
0.1471040243910953 
0.09143279657505526 
0.02389979406770192 
-0.05958229609891094 
-0.02921686876757158 
0.06121704499188081 
0.02377199334245482 
0.05190709546621874 
-0.05838422725260996 
-0.04796960497569874 
0.03768881487590491 
0.07268041061996097 
-0.1126139939301003 
0.04271748041745285 
-0.01937672596546533 
0.03529138424838841 
0.02497338702512867 
0.001734138891229204 
-0.07437770493442511 
0.1086205633907807 
0.03039203274329276 
-0.04197950217969406 
0.03002906933276377 
0.004330237691690608 
0.02440596266847355 
-0.02839511294621192 
-0.04188315285518025 
-0.1177947172306767 
-0.006886655173849459 
0.07812105639917408 
-0.08206979389791091 
0.07315632198080423 
0.1255077549178589 
0.08675549452392152 
0.1194489623511863 
-0.06953938382377477 
0.1099878488707503 
-0.01988610573274145 
0.01289022927701119 
0.008560292465001063 
0.04959038810412143 
0.09075207855021079 
0.09130479658879036 
0.0883561931849042 
0.03138973657692824 
0.02792862320273218 
0.005823388103817108 
0.02452704199771844 
0.06962720220228147 
0.0490878157414642 
-0.1190230627591777 
-0.03646915227568991 
-0.05433102992840842 
-0.03780870190478288 
0.02037419284207828 
-0.06762786752298665 
-0.05592972777296894 
-0.06284081184761107 
-0.008421784027914016 
-0.04839710962874576 
-0.01383579820068306 
-0.05718790636382606 
0.0104242406184 
0.04367083334622652 
0.01880134810785432 
-0.06927798190232327 
-0.03165774651577023 
0.01647454174404194 
0.0316081652950176 
-0.02178545004907008 
0.05240319728810909 
-0.04866153317024478 
0.04017145848676228 
0.05958214554303699 
-0.06605841505450621 
-0.03601603570734351 
0.06966030212401859 
0.08718011670541372 
0.05124314402006003 
-0.03929774473289308 
0.04618635211807427 
0.07366785469015197 
0.07233925378923414 
0.04730084440497455 
-0.005407206318246402 
0.02604207353895985 
-0.0343178526769926 
-0.00813037512790144 
-0.0104974886696096 
-0.02976204237503295 
-0.04847871969750395 
-0.006835024537218887 
0.05529602725593078 
0.05293664704261589 
0.002636014665051237 
0.002075886499750619 
-0.0008822475100418773 
0.04590130886733151 
-0.03060771877042912 
0.02904248891244934 
-0.03897487645717253 
-0.04959312683431512 
0.08266136048255572 
-0.05606343195708279 
-0.01318248644678991 
0.04140129908850518 
0.007329063826915791 
-0.0001156249421388536 
0.005044371292039823 
-0.006106650239302925 
-0.01082707891071294 
-0.07532511235584419 
0.02308034077818277 
0.0575860827618104 
-0.02180462800655924 
0.09089974001422092 
-0.007316156413820916 
-0.003576607075882091 
0.004807296392860591 
0.05564242884006596 
0.09629752326863968 
0.007884711516935185 
-0.059842061084843 
-0.01251384769325553 
-0.02481284620787865 
0.01444394721906039 
-0.0810098858531922 
0.04507013781327608 
0.002502562399025402 
-0.03493644457702823 
0.1319062107192015 
-0.06913266900026509 
0.05340010107652346 
-0.03362133707238736 
0.07035916837806981 
0.002536342002582421 
0.02911768366860571 
0.04223194250014304 
0.01941359507824 
0.006954872902010556 
-0.03506417043941389 
-0.05439775302486069 
-0.03790223357131923 
0.05619992754104714 
-0.07241313681936894 
-0.05196643023989751 
-0.08319904350565555 
-0.0500801378425535 
-0.01973080269409264 
-0.0543185954311222 
0.01379906044302189 
-0.0309467484977212 
0.082755659681108 
0.02912734802401876 
-0.006236797194654357 
-0.0268341451412207 
-0.004339968602151125 
0.02096061284185696 
-0.01174268315979994 
0.0301199862538942 
0.02694322218294757 
0.008764562615381494 
-0.02810507862845878 
0.05253283182533624 
0.026431704591157 
0.0008526567177549928 
0.006486040474485351 
-0.01331006622844411 
0.1282827682818955 
0.0002651725504028357 
0.01136027399940968 
0.1005034604581047 
0.1057401321659017 
0.07106381967831349 
0.01503970845995983 
-0.007889861251845895 
-0.0577205720051865 
-0.1261632481123679 
-0.05167643316423162 
0.006327460095876983 
-0.004721924016806882 
-0.07726047023950948 
-0.1388759752750886 
0.03572800323810722 
-0.01814678117203088 
-0.1748716740211618 
-0.07756559430200206 
-0.09299837059169279 
0.08779408658055317 
0.00882257606377573 
-0.0508528705059094 
-0.114444148990364 
-0.02610380621246907 
-0.09905853370653667 
0.002365080931044824 
0.07020492308223823 
-0.05837206215978644 
0.05642084713376008 
-0.1049329931621267 
0.04748887450608956 
0.04289459853289013 
-0.06606993214922995 
0.03966666111529074 
0.03981726127219564 
0.1501814825320129 
0.01786535896520406 
0.08541634720280959 
0.1303214167903469 
0.06405879284070917 
0.002313391879760361 
0.07027267972912211 
-0.04458351546033346 
-0.1157236216143857 
-0.02992856189483647 
-0.03484021855909919 
-0.06508729596322956 
-0.1379564288169118 
-0.01763383692037102 
-0.03952861173314096 
-0.01033301152019489 
-0.1211773287250346 
-0.08026041882818646 
-0.06603448499391443 
-0.0275218579924219 
0.02382353146406905 
0.02209138155236944 
-0.1115890046490643 
-0.08274622306740968 
0.04260670709442989 
-0.03177295556580707 
-0.09821701061259132 
-0.002408664369356565 
0.02266166049160019 
-0.04100865241403479 
-0.08447984124927398 
0.003413953751064511 
0.02085326659677456 
-0.02209270905112173 
-0.01356044460598859 
-0.04599855498317525 
0.01239722990341522 
-0.07800917650432874 
0.01037037539213114 
-0.00252079363892622 
-0.01366492150235162 
-0.04645714628078448 
0.0379867988839993 
-0.01371119012250843 
0.0353306335887944 
-0.04080995603236087 
-0.02095443891875583 
0.0259306969568609 
-0.008538449604675502 
0.09502720790626587 
-0.1051963867760137 
-0.01847293987205166 
-0.1156445863205456 
-0.08783105933451592 
0.07289424667299078 
-0.06196741185466784 
-0.003471562432262892 
0.07163290776573897 
-0.123046387089453 
0.05800502612121448 
-0.07455487509933621 
-0.04505145506276146 
-0.02710522055054475 
-0.06844520330051962 
-0.1782854429105112 
0.03151077549561218 
-0.1480369840446948 
-0.0483707827987213 
-0.1601106862420923 
-0.05477374323502412 
0.06125002755005919 
-0.07575649179473927 
0.02481880995647558 
-0.1712448995208873 
0.008634592942540658 
-0.03348611410742237 
-0.1477264322816914 
-0.04979021313569548 
0.066494675492812 
-0.01326850174440665 
0.03997181391713917 
0.0555200623826368 
-0.007146062932784702 
-0.08935648407502923 
0.07534345456795435 
0.01145734898391194 
-0.08599957861000757 
0.02464051655616326 
0.08503634414425046 
0.1056810668587752 
0.1343905318530162 
0.1025941378138015 
0.1117889892414356 
0.008450686708453902 
-0.002797716387857547 
0.1748692096157543 
0.09175829708481407 
-0.02989846927454499 
-0.07740514675559412 
0.007251408147854673 
-0.1128716515239922 
0.04766411958342963 
-0.07161665993863349 
-0.09453672826515692 
-0.1128045317881168 
0.008854216602049948 
-0.01459928036613347 
-0.1022513435682204 
-0.09565636231179653 
-0.2073199276930504 
0.04469794288304272 
-0.1104550941533416 
-0.0875484304626365 
-0.0104019477325562 
0.09389167748086692 
-0.01293556470683519 
0.02397771482678374 
0.01716221920765579 
-0.007274665686083617 
0.04012519483119571 
-0.05699238608323199 
0.1088449007823426 
-0.04416510965367391 
-0.07229482177922875 
0.006971894153052847 
0.001701068420114621 
0.0831709778919088 
0.09313505660602532 
0.009032812254837539 
-0.03265935601609469 
0.01041304588246758 
0.1074881843712655 
0.0299800530298365 
-0.08084162292154981 
-0.05394334645482363 
-0.05839284636475107 
-0.03127508078094903 
0.02914669025205621 
-0.127759536276956 
-0.01116821144907636 
-0.06644598028408905 
-0.04216199376305613 
0.0865486546138015 
-0.05739663339150313 
-0.0302306927951283 
-0.08527660570538854 
0.06618136216479041 
-0.00425579698840477 
-0.01258426184101418 
0.02098408450525732 
0.05141748237497855 
0.005301671557938154 
0.02287004004503945 
-0.04336288468534583 
0.004909591387091337 
0.0002633209068540369 
0.000601713004216645 
0.0412912231534556 
-0.115027064361714 
0.009726555931849864 
0.01895207868126842 
0.01234553190453457 
0.02323087279965762 
0.08600617802056817 
0.06700594901579082 
0.03645144458166615 
0.04900559533470625 
0.02551627127121506 
0.0559425739309113 
-0.06138755639748717 
-0.05401037443473788 
0.005849182003269074 
0.0244101284038557 
-0.08268002625902968 
-0.03605924230703778 
-0.0129302205318255 
0.008232741885198416 
-0.04303398306487996 
0.03108188967482641 
-0.03139186577007446 
-0.06295275839933695 
-0.01479883074785023 
0.01289421990130904 
0.05407604045691932 
-0.02992293034848191 
-0.04435951920232088 
0.09460977233697457 
-0.01915698598404699 
0.0003403577806361558 
-0.05590436424823891 
-0.02115734570323986 
-0.02438810253901628 
-0.07966285053186124 
-0.06796378962178191 
-0.05064891510727632 
-0.02232061141683923 
0.04984961227368746 
-0.06823883532823488 
0.0150995252099238 
0.07322108837627453 
-0.03862164684764813 
0.02302236652595608 
-0.08871954760649665 
-0.04479129328736226 
0.04934551382227015 
0.01440626908795901 
0.0298727702065475 
0.05223389920393022 
-0.03442587499303378 
-0.04270772479116518 
-0.02917107314908853 
0.06791365855703396 
-0.1081811846363611 
-0.02691008014301743 
0.07987357276952396 
-0.007901613441098751 
0.04265868438048211 
0.03483568297639798 
-0.1291869290690612 
0.08605760924923087 
0.0162244182894245 
0.05232155543405946 
0.02209209193422476 
0.05829510314242539 
-0.02796933210010797 
-0.0786183245350514 
-0.03646171308993754 
0.04089559314993883 
-0.04537602666506923 
-0.005407338613309377 
-0.07273355508407103 
-0.00622107477534591 
0.08203798839480894 
-0.0006845271202853693 
-0.03905443434673868 
-0.004115214394153405 
-0.004307025887044034 
0.0811039071724297 
-0.07991078477508311 
-0.05897758614333427 
0.04075714636782133 
-0.07365370749377448 
-0.06267078881407374 
0.07373995338972833 
-0.02561706214769207 
-0.07495778513606947 
0.01216771173889602 
0.01868230954592952 
-0.1119915951181899 
-0.1297183238091511 
0.1006276893231937 
0.01429194354073582 
0.004237959148134862 
-0.0336299114572619 
-0.02922828862913509 
0.2134524813212269 
-0.04536966893261331 
0.03733747912203008 
0.08578835124542375 
-0.0136370497319507 
-0.01816726962174854 
-0.03600937047921497 
-0.06568705151694286 
-0.12062708815721 
-0.1352853462607874 
-0.04561419135930797 
-0.1742421639839244 
-0.04716346022402188 
0.08801232200248969 
-0.03537793409057616 
0.07217920354270359 
0.04580489927012496 
0.04632958941384843 
0.143476019668436 
-0.1149522170213687 
-0.03049457030939145 
0.2226839168362996 
-0.06625090188331888 
-0.0918701843020049 
-0.02464067455341414 
-0.05883887129017917 
-0.05933416844447845 
-0.1508438802033768 
-0.06598781707570879 
-0.1246607442869839 
-0.05520278723285262 
0.1067991953363596 
0.09075227668849645 
0.04118007925655843 
0.04031331555900011 
0.1485529659786355 
0.2148123115130202 
-0.08970205073319057 
0.05592667782741507 
0.1813710084557623 
-0.08918713998128026 
-0.03952689946951021 
-0.02829669904994071 
-0.03543529845482776 
-0.06822204834941703 
-0.04599960518494024 
-0.05869027028120629 
-0.1361537888322014 
-0.07456069539790708 
0.06931032171173292 
-0.01197730889634978 
0.05677114333516024 
0.141187789238039 
0.08159678396882498 
0.1517721923370692 
-0.2032541031774426 
0.1144785290639342 
0.1005483741806528 
-0.05157433701599528 
0.02713082964852875 
0.02617895471074329 
-0.1164336033013483 
0.01981201281348044 
-0.1458390152790303 
-0.1168920423229703 
-0.175659561779732 
-0.040053822453067 
0.002315797723339322 
0.03543422980609384 
0.05141707167649526 
0.09096773550875999 
0.1149114408360728 
0.1762319695563209 
-0.122986053994871 
0.02174420768192312 
0.08431874193650103 
-0.01155941528044408 
0.07098589722751568 
-0.03187509354082482 
0.02088766807703866 
-0.1022690386226711 
-0.08405161942669416 
-0.07417660792302112 
0.008628317902508648 
-0.07074357343426135 
-0.06549612376697554 
-0.0378256031025691 
0.01504885440147643 
0.1212145843694822 
0.114642884449136 
0.1143056169303273 
-0.05341309509432959 
0.1582537036103945 
0.05459885277647428 
-0.04977647965558891 
-0.06348473348385548 
-0.08419977358369492 
-0.06973480386647304 
-0.06357814544503618 
-0.06923866981340772 
0.005717535480492205 
-0.0773747252327588 
0.006103099563455408 
-0.03241616024794202 
-0.01592868342735444 
-0.07803360708232858 
0.09290155344525926 
0.07974668334167306 
0.02506387599658844 
-0.06282615482740142 
-0.06925641096053597 
-0.0064464931917261 
-0.03552876043241084 
-0.05817111338782892 
0.04489292579388596 
-0.01759031055308513 
-0.03776154979915033 
-0.03492266024522184 
0.009185629582427218 
0.1059272764359028 
0.04945865048572821 
-0.04377650397917982 
-0.01128492960922673 
0.07651541675367188 
0.02109900943558012 
0.03895169203517016 
0.07816635194796809 
-0.001874998429867441 
0.03262766796616696 
0.01595744716565062 
-0.006203187689367093 
-0.04893954838010119 
-0.01496037746684999 
-0.1009129047868227 
-0.0440404876975342 
-0.05075383722370587 
-0.05087102222264278 
-0.07948179100409536 
-0.02465061214980368 
-0.03795720872752044 
-0.01043017956440681 
0.03651337916721079 
-0.003229374224074701 
0.05740271351423316 
0.1013008944529782 
-0.06526713074520009 
-0.05182088937509641 
0.01816516280662513 
-0.04599323100851204 
0.1523400378263044 
-0.01815805395890115 
-0.0199841065720739 
-0.03217117438773925 
-0.05577190409610375 
-0.07934579061072206 
-0.1087931741726378 
-0.08756050075839658 
-0.01556941956605763 
0.0004555040882764836 
-0.01731965550229438 
0.02672414986972016 
0.01165782066683401 
0.04294427576111799 
-0.06679194170959166 
0.007661948824510771 
0.02222712427839119 
-0.05177711156043774 
0.05379026368208196 
0.02610141722723002 
-0.04670031832465777 
-0.02380292805118526 
-0.0008060079133261939 
0.04414941938421642 
-0.05785408327273641 
-0.07141116407442347 
-0.01148848611967444 
-0.009857367712937375 
0.09567963892366003 
0.09760791260764144 
-0.09912041491828971 
0.01821736494278746 
0.001084518653437064 
0.06795703190968784 
-0.08978188442681684 
-0.05537995021562545 
-0.01794295577129131 
-0.027395819800562 
0.01074822310264866 
0.01306338188343771 
0.02836194113936654 
-0.03598017892867937 
0.01665499818304939 
-0.0499038575367769 
-0.07217804984073134 
-0.04900178311586733 
-0.02963184566179741 
0.05535676250727108 
-0.07327087935569182 
0.06494381409817625 
0.001193042574068914 
0.0666431874901479 
-0.04294476417465291 
0.01248865797085951 
-0.003328577439993335 
-0.04738673587579614 
-0.03767288075334316 
-0.06786007185733543 
0.028364280275465 
0.01502143420375778 
0.03105608365260509 
-0.05860278014650969 
0.1006572816048144 
0.01608867286667354 
-0.01989700233736592 
0.05621025472022607 
-0.03533508913191034 
0.1049658062568644 
-0.05366133342852961 
-0.02179862763159211 
-0.01059415879608813 
0.01508546776897586 
-0.0446105724448857 
0.01162426000774795 
-0.01453517717148962 
-0.05905679263228619 
-0.04190517046521342 
0.04343026844520503 
-0.05184622743572983 
-0.03335065176098279 
-0.004042833433166057 
-0.006648896084484949 
-0.03217507945092109 
0.1494132650820258 
-0.02338207365941995 
0.06739350947130672 
-0.02421644761539121 
0.02643425923169515 
0.0258656903714337 
-0.031549465681422 
-0.04899341991294726 
0.06400076166400337 
-0.0306115882890847 
-0.01128188679185527 
0.01333829966271032 
0.04624274791420165 
-0.02173205996820559 
-0.06950576042889905 
-0.02335311616590499 
-0.008170974358227298 
-0.07640061482593795 
0.03572325933279732 
-0.01056261907691363 
0.09999571813429162 
0.001286782324806831 
0.003628294009393986 
0.05612488771320703 
-0.02895701441428735 
-0.02967776404662274 
0.08222263795785463 
-0.0364187209532057 
0.02110539107794165 
-0.09091153239272196 
0.1423149342510676 
-0.05342014411729279 
0.01140283570934487 
-0.07953189307806656 
-0.06069469939055576 
0.03055746144242655 
0.05102801077620694 
-0.0193247033991959 
0.06104942235706767 
-0.08362802494263955 
-0.03013703631903068 
0.04065095490492565 
-0.04207132100076926 
0.01358959469748284 
0.001642280596108681 
-0.03482790125233325 
0.0589566218114875 
-0.1241714004649977 
0.0164654285337124 
-0.01644851918882979 
-0.07313816537570564 
-0.00715886487650243 
0.0156131312911205 
0.08864324245853558 
0.04976619326832272 
0.05252714096914422 
0.06264719624673966 
-0.006783053297880213 
-0.03349685533619853 
-0.01505916772145882 
0.002256742309481968 
0.1339441271490007 
0.02027130311588284 
0.04407981460163175 
-0.08066434984123907 
-0.1147816336728115 
0.0381969351834069 
-0.08483357688887448 
-0.03041534884913456 
0.06134279927606116 
0.06065495806439777 
-0.0951233718333844 
0.0620266892339048 
-0.04588846414350315 
-0.002412102070714179 
-0.09543280877649173 
0.05323323592980088 
0.04497892131165149 
-0.06157044408024013 
0.029442985981115 
0.05596385296332654 
-0.005995219948078448 
-0.05662564970541753 
-0.02133902794739627 
0.08298145049305249 
-0.01081276222574624 
0.02040847612547764 
0.02703210254662246 
-0.02943660944144021 
-0.003294925412457668 
0.06322648029276355 
-0.02659078811384663 
0.0328029490218152 
-0.09864826884330323 
0.04074156882890306 
-0.0313281623688372 
0.02589676660303791 
0.02605580680251267 
-0.02913611111909393 
-0.04562587178381042 
-0.06631584587731187 
-0.1234014154810966 
0.01481395461833743 
-0.004528183757587351 
-0.02402252610661463 
-0.003140557420483709 
-0.02309117362285348 
0.001739767896924841 
0.01706927520526476 
0.03634968445989543 
0.03632440728935188 
-0.07859337290658748 
0.06537243426408607 
0.04769642786280503 
-0.03809885140407376 
-0.0006104544188584226 
-0.034843659878503 
0.06112397896445566 
-0.01981018678892413 
-0.07147516880991119 
0.1258300605730248 
0.02197781899991046 
-0.05152394826029609 
-0.0280326892654622 
0.1234552382841434 
1.965871240225954e-05 
0.0213631786984426 
0.06690704686335866 
0.1019966838481741 
-0.04697512659977479 
0.01286816087465021 
0.04778787793202123 
0.01149443444821538 
0.003032451304427254 
-0.06491285529635397 
0.02158087114036254 
-0.04737226124630867 
-0.09272996967709417 
0.05260560557795442 
-0.04621287053247487 
-0.06071384221488591 
-0.01118421440282807 
0.0383489653349431 
-0.1116804726154273 
-0.0228197197756083 
-0.009414266047731086 
0.04378393693824658 
-0.06707178543391637 
0.0007738123266136582 
0.01913497275619323 
-0.01939232624960462 
-0.003298043105378462 
-0.04354749899738257 
0.03353691282692729 
-0.0582194643686811 
-0.04146391183246206 
0.03649419828049508 
0.02836871234809929 
-0.06342206764872256 
-0.038811078322776 
0.04129515224064815 
-0.01139185983551352 
0.07178817270237216 
-0.09171131960537773 
0.07655830709008295 
0.03942743877912893 
0.08654571525061598 
-0.07393599659380279 
-0.02058147607829972 
0.0494692325355882 
-0.03178174451272198 
0.08558399743430395 
-0.0361710917124764 
-0.06613279016616883 
0.0484646171899997 
-0.04918420960106705 
-0.02289376512186534 
-0.03336908383031717 
0.1303976551561708 
-0.02742706117063702 
0.1236918058928249 
-0.05380003064113781 
0.01653095118076426 
0.02034011472179209 
0.02139395664221101 
0.007912705619264562 
2.54528897331393 
