solver_type L2R_L2LOSS_SVC_DUAL
nr_class 2
label -1 1
nr_feature 3780
bias 1
w
0.009075687430598625 
-0.07364516283531586 
-0.05932603227627779 
0.1342289226732314 
-0.06119245105243965 
0.05837259130106455 
-0.001995958869980747 
0.07603563123893814 
-0.0049200752089655 
-0.07127907353288987 
0.01149382992149177 
-0.01340261073068294 
0.01593122758478905 
-0.0623702044002198 
-0.0418096205111193 
-0.06574264224799665 
-0.03492429877575826 
-0.02717559118473664 
0.008527032422905163 
-0.04211919364572639 
-0.08586952915452052 
0.04050802929724108 
-0.1402085449444285 
-0.01542694475206581 
-0.06804583483892207 
0.0703599310047122 
-0.002369985313188576 
-0.03454950037510572 
0.03022879593919166 
-0.03850477183959985 
-0.02383579379186705 
-0.03243124324231289 
-0.04934918038503665 
-0.065061156611275 
0.004554995953745179 
0.003875942913077698 
-0.003128611347722269 
-0.007706505242395319 
-0.09153271625928776 
0.03646337194102073 
-0.0801790208539097 
-0.004208360393693952 
-0.07455645014565464 
0.04873638504241193 
-0.05489290287613657 
-0.07477923415694558 
-0.001895375725255695 
-0.04821583771259073 
-0.07553313514738397 
-0.07542987007880338 
-0.04894957094767531 
-0.04335129665523072 
-0.005153739635473078 
-0.002182732364864216 
0.04193221327809323 
0.03014118608118552 
-0.08113402608824391 
0.01484783036200087 
-0.03589615684820736 
0.05381952363984679 
-0.03614231357457693 
0.05498730529620745 
-0.00595967800667646 
-0.02042265857927196 
0.03072926609863952 
0.02128036486037163 
-0.01523914787146042 
-0.08675702204107097 
0.01220310954741109 
-0.02034006990678502 
0.04549550064155609 
0.03028738539467598 
0.0153993159049267 
-0.02620925973126026 
-0.08462749932905442 
0.05336262498441697 
0.02704247938180061 
0.03756706272312316 
-0.02835704193011396 
0.06015094247201777 
-0.02748407907394008 
0.009301993964084949 
-0.05617753193493887 
-0.001369503746817307 
0.02819106034087094 
-0.003869724544189963 
-0.017649344893261 
-0.06548714502819547 
0.006176681141246453 
0.0246125189728414 
-0.04090268822734604 
0.0007313492067221204 
-0.07699455790460863 
0.09636381885893762 
-0.02094600926233786 
0.04601750161105309 
0.01722974222619538 
0.06309450095248935 
-0.07362161578039707 
0.02497709348898746 
-0.04179924921322622 
-0.05917017979238043 
0.06973007934642582 
-0.01043601156258336 
0.003802335954628645 
-0.08928020787935349 
-0.0189402410249281 
0.01075415412148898 
-0.05270799666100728 
-0.0007080748305535292 
-0.05798194323388042 
0.1442756304644881 
-0.02703715141648912 
0.09606912459188731 
0.04437594583778159 
0.07168264979798437 
-0.1224176910923236 
0.01507961268217038 
-0.04180728620956708 
-0.07454138311107815 
0.1048381808649621 
-0.03346288761224869 
0.009823937661872771 
-0.08687442164977258 
0.01541205723275042 
-0.01261976348825869 
0.05949909577067229 
0.06256391278660992 
-0.06039493105615187 
0.04197106123279112 
-0.05966978215703261 
0.0484304354445005 
0.04387537009610957 
0.1374735357897442 
-0.04612398105155615 
-0.002776226430867693 
0.02050258518070517 
-0.1134533182296833 
0.03902837451496952 
2.428144930933122e-05 
0.05408738126451842 
-0.0909164971502574 
0.01809396703520195 
-0.05547608647228874 
0.02293912440238621 
0.02933647841208577 
-0.03873868193901584 
0.04493360871269377 
-0.005310641962048942 
0.06664739901250817 
0.02477199397863086 
0.07813520791268158 
-0.06531929898584579 
-0.04442160464544945 
0.0376183865915142 
-0.09415033699756922 
0.03407636591640578 
0.04742414346527683 
0.03581409338407381 
-0.1064380569994957 
-0.001498997270540314 
-0.08115949774051225 
0.0246042636668128 
-0.004831594315384354 
-0.1055280290033404 
0.02063588668343211 
0.03038466853100252 
0.0413625554624338 
0.005231853352361748 
0.02165781079015886 
-0.005544477597231633 
-0.04251456870265198 
0.02756125890502786 
-0.05038476830572751 
-0.02158280527360872 
0.03206409879483454 
0.03699254059916787 
-0.02710445672809142 
-0.0258762872209238 
-0.02858426932386085 
-0.07009696660423347 
-0.01955163014108661 
-0.07252466346854958 
0.08021547460698522 
0.01150091498867975 
0.03696690502962587 
-0.02281965315783976 
0.0441951018538582 
-0.08009483799405627 
-0.07408326479090725 
-0.003790825142416803 
0.01013433442282372 
0.006659478230315191 
-0.03364314714261311 
0.03943856503057235 
0.01413101961118413 
0.03220911837297087 
-0.1019454683072074 
0.01120437495682819 
-0.03253952079788987 
-0.01976333459908049 
0.05127538828893022 
-0.0563599772720897 
0.03742014289901332 
-0.0238008025576599 
0.0009614377355606802 
-0.0758598595450637 
-0.062307939041593 
-0.0469697381912774 
-0.01535006750801719 
0.02266338282786427 
-0.02615875633013545 
-0.003259813282115552 
-0.0180951701406483 
-0.02834388736235562 
-0.1054647324595971 
-0.01635926725810041 
-0.006902743616504242 
-0.004604261084037611 
0.02973329530053464 
-0.01764086115535303 
0.09159475740308258 
0.02149244268663354 
0.007437543974930722 
-0.06960949266109018 
-0.01210059116840352 
-0.001713497485959236 
-0.03653251083591397 
0.0018204359044684 
-0.01196650118888106 
0.005478953115053226 
-0.06114870500000648 
-0.0722091789123865 
-0.07988125238347528 
-0.08686608101731953 
0.01164173922315779 
-0.09382531600065977 
0.01631037064889403 
-0.003835044143083333 
-0.002957347153419205 
0.02035705841418172 
0.06093591162128462 
-0.02961168173350897 
-0.09720839665706528 
-0.008098228421478585 
-0.03565081933505496 
-0.009453420272027811 
-0.0305699265824438 
-0.02819691598533055 
-0.05687145240616546 
-0.08933158102766448 
-0.09186233915017918 
-0.0417455847298814 
-0.01438464822177551 
-0.03538791313257935 
0.02803208440178623 
-0.02739143931581542 
-0.01493112487668281 
-0.0643311771104708 
0.01112771996018602 
0.03315917457786701 
-0.03957424842178431 
-0.04697875581906685 
-0.04808544472123508 
-0.02274154951563366 
-0.0306611457780021 
-0.007130328215525259 
-0.03507476436787255 
-0.004210125200378134 
-0.02504340118438123 
-0.02145691761572872 
0.01956433830499831 
-0.003645258992818429 
0.01827714763120195 
-0.01318024987394542 
-0.01400342101015596 
-0.05447255351022686 
0.003436770461940145 
0.02734460599659181 
-0.0247114380580346 
-0.004366149187854182 
-0.03451949511426892 
-0.0361308036836959 
0.02528010680695872 
-0.01354433954104948 
-0.05636462163661046 
0.02952084902034189 
-0.0219896924846314 
-0.05893481426276164 
0.02597325027670308 
-0.03074510008085516 
0.006177714429760634 
-0.0511050899030706 
-0.01277569516850974 
-0.03916060448965168 
-0.019125921212413 
-0.01526181386812321 
-0.01381471169878668 
0.06537132945529719 
-0.02144705026063292 
-0.04976928635693222 
-0.03794868793955303 
-0.03221853937547421 
-0.01982842578602489 
0.005172777851801612 
-0.01523669499758111 
-0.009909170648076579 
-0.04330560322327082 
-0.03637835489866987 
0.001985373446595377 
-0.05893276971965512 
-0.0162409619370165 
-0.05200297975985699 
0.04932521154548362 
0.03769149174189117 
-0.05160330054356163 
0.02923633866414029 
0.03225765551261466 
-0.002745017145938018 
-0.02682389305450761 
-0.006470098605079534 
0.01272045943733592 
0.02793388745116763 
-0.009745531850973346 
0.02090960541853594 
-0.06572996889372225 
0.02445589094805386 
0.08164026792846488 
0.06057394714256979 
0.03298081217248063 
-0.02246939634264388 
0.100926945827474 
0.100251640474515 
-0.061268439917884 
-0.008105110465544189 
0.09095036662113805 
0.0440357188959335 
-0.04219191733164721 
-0.05765303577824054 
-0.005861676305605902 
0.01759196724228856 
0.01972451926585022 
-0.02641491239442562 
-0.1656380940554092 
-0.02849266007193224 
0.1117191085536512 
0.06291477468849624 
-0.05078899488934929 
-0.1365926976950474 
0.0394056057882053 
0.09990680270638706 
-0.1355818656814258 
-0.1927759792277941 
-0.01471125870644507 
0.003465816316580973 
-0.04732637562756101 
-0.2151596745746248 
-0.1473838533267162 
-0.00707968409509229 
-0.09234222285400447 
0.04542852413197281 
-0.1147544812992122 
-0.03449138270619587 
0.1288744535495459 
0.1237197998641189 
0.0260010444500891 
-0.1237473729062773 
0.05678085853813979 
0.09630277628335594 
-0.03333560345372093 
-0.1390645832598245 
-0.03200911775690624 
-0.004069143456738531 
0.01876662949154137 
-0.1878752459461777 
-0.08518431062575002 
-0.04290778984575491 
-0.001499324227228806 
0.1037176722923818 
0.03571070920930292 
-0.1306399802656497 
-0.06108704313466467 
0.09084266124054828 
0.1314522102663981 
-0.03737935841434162 
-0.03759069022251562 
0.02870911774884894 
0.008722396004973734 
0.01995500183054241 
-0.1237025739069005 
-0.1372169906887642 
-0.04051627491699677 
-0.03706693282590024 
-0.0328261672290508 
-0.127272930998013 
-0.07367497926674321 
0.01001499084348683 
0.03680782709759315 
-0.1422243631858093 
-0.1339032522139173 
0.06757568487262405 
0.1290697008521196 
-0.05831213822685737 
-0.1008842021798819 
-0.05871868997466735 
-0.01316839304356241 
0.06111200052124343 
-0.1440360785120426 
-0.2199054548847326 
-0.1371866008567809 
-0.06982466891372491 
-0.08556604857354283 
-0.1863612607823273 
-0.1080165089486138 
0.03004737504297294 
0.06414161326056947 
-0.02045173161227822 
-0.01640977864121789 
0.09384980468371977 
0.1299126291128669 
0.06083061563201269 
0.04413434918756323 
0.01457713220082677 
-0.009132753712672984 
0.06398515044774607 
0.0443565728167993 
-0.03644736535706759 
0.03098460417459351 
0.02565729319610488 
-0.000558364966557211 
0.01464433117629858 
-0.02015432120495335 
-0.04025577606247817 
-0.009456249872623716 
-0.02804314053019526 
-0.01677796204627226 
0.002309008287181827 
0.06475103878976536 
0.02498657538561896 
0.05116651203258967 
-0.08438384291420435 
-0.04527454712756383 
0.03106064384682216 
0.001130425704510028 
-0.004165165436620089 
-0.003329952156753334 
0.001926297234565042 
0.01106170371244121 
0.05568391322988434 
0.005921451284206015 
-0.01434733620137297 
-0.03091195041989323 
-0.0340852967305587 
0.0722868089018657 
0.00299365439571429 
0.03979922978493286 
-0.01437955788286985 
-0.009825200898570681 
-0.06490741871485081 
-0.04846202736971487 
-0.09744240787158029 
-0.01618055434330455 
0.06368449557346731 
0.009300150400955271 
-0.03954799064815293 
-0.03997163019822115 
0.01102468181903507 
-0.009650272676819447 
0.009511386590563498 
-0.02680528222537966 
-0.03448210549761847 
0.02120111186566953 
-0.0001828273088104839 
0.020080411877437 
-0.04190224677690158 
-0.009865753068880842 
-0.01785675255581637 
-0.0199889816067504 
-0.03283951577228258 
-0.06013404987409843 
0.04186668932888681 
-0.05411924880392904 
-0.03724137383494905 
-0.01446180253298693 
-0.01309790390924039 
0.03408726179557465 
-0.07072768945362695 
-0.04108802262801527 
-0.0563293880340144 
-0.02711625682552296 
0.0131387743711666 
0.05046991528574041 
-0.02271372626694079 
-0.03240826353196684 
-0.04948107278431856 
-0.07106830036821368 
-0.01529967667116764 
-0.09837987317117161 
-0.01307238482868889 
-0.01762784825189428 
0.02463275817185287 
0.02871988202456811 
-0.0131664934423814 
-0.008726106976479454 
-0.01834911396046834 
-0.01356270740999841 
-0.01003294972513231 
-0.06793578147548651 
-0.05411749804952428 
0.03678807741323786 
-0.03038774771376517 
0.001623277447679596 
-0.04021339299311304 
-0.007609938019584643 
0.02339942225794379 
0.03126532373782964 
-0.08579160369000662 
-0.06375262473900216 
-0.0100604510251384 
-0.02726092688996316 
-0.06493835505474777 
-0.07527988552607603 
0.05161055425561575 
0.0292729853386734 
-0.04810598402770307 
-0.01872505396255576 
0.02646200766273449 
0.03645618315228428 
-0.03768228133395772 
0.001093250980129376 
-0.004445549127248579 
0.02750996798654696 
0.02800359428568274 
0.03038347028404109 
0.01822990246449668 
0.09006921050009078 
0.04851281090132868 
0.03510225732973746 
-0.04531006928796226 
0.005553253009577886 
0.03281387610242046 
0.05654732345627348 
-0.0232417225474988 
-0.04139452142161294 
-0.007857558480122151 
0.03126818053594944 
-0.03979775229277704 
0.03795071521890191 
-0.01500453669835887 
0.03934536534978747 
0.003017512904478146 
0.017826751761969 
-0.02201083470722982 
0.03939886400748189 
-0.009237642190313785 
0.01933281453395137 
-0.05298151988736739 
-0.0002204245520004118 
-0.05337064525249421 
-0.02346577410309041 
0.03332975130480382 
-0.03104847194529118 
0.02186691283660152 
0.05053286023598613 
0.02474341102439271 
0.05168379438179647 
-0.03537844417891318 
0.01390094441209709 
-0.0262744651132548 
-0.01474128056945224 
-0.0093522056218238 
0.009793426284776178 
-0.03773022113611568 
-0.04572178824417437 
-0.05587066503376739 
-0.005521150150309783 
-0.09141947925490779 
-0.00886034365626286 
0.1285481861453488 
0.0231906965120882 
0.061275346625883 
0.05769596181568777 
0.05367968138517255 
0.06212411480347751 
-0.03010112761214787 
-0.007189385591871825 
-0.02282726206989509 
0.0989994153623464 
0.05096823436362745 
0.08271761937700584 
-0.04878651282499826 
-0.01831038728541659 
-0.01126707894809822 
-0.02333747934221418 
-0.1188945534042465 
-0.07510607735804831 
0.04285344048220235 
-0.0667609902475778 
-0.03060337841231439 
-0.2172311318660395 
-0.08975784721880704 
0.02015610131811949 
-0.121594072271404 
-0.03142537232131604 
-0.06497442903438631 
0.08953014942802145 
-0.08639885138474115 
0.05535968483436223 
-0.1216155740492793 
-0.04988659697853799 
-0.0359470009444845 
-0.09442788237369196 
-0.02812690918077239 
-0.06930534229517844 
0.04419540168585338 
-0.06045662626780443 
0.009069426371546898 
-0.1790701614704691 
-0.01747827767113389 
-0.004737367231287802 
-0.07977773916602005 
0.02209276501306546 
-0.03823899178692929 
0.07042324194229342 
-0.07555834154358086 
0.118011282508484 
-0.1056592786435485 
-0.03306939435932593 
-0.05597466370742175 
0.0213474621409925 
-0.02624176179443637 
0.01533787521781181 
-0.01253717303939409 
-0.1203761153316986 
-0.06438980688088503 
-0.06245228227130047 
0.03555996294143609 
-0.09470709173445514 
-0.1013097992948861 
0.04716011540901511 
-0.0293662896169541 
0.05585373210901797 
-0.06747010801649274 
0.06222655460725623 
-0.1177469405577591 
-0.01081619719370108 
-0.07697572455849147 
0.0211033271941003 
-0.03398469508976242 
0.04188992162818181 
-0.01228082006326104 
-0.1484746536721545 
-0.1064005041423379 
-0.07891534295899455 
-0.01488330037075696 
-0.1204519321539338 
-0.09316353362681951 
-0.03359173826397491 
-0.01822390647972119 
-0.008122325200367191 
-0.1351133946462325 
-0.03080182466844972 
-0.1298725400717395 
0.002134799701145254 
-0.116990596677655 
-0.02351838917743893 
0.03150380472563778 
0.06821585170321975 
0.06900837915063686 
-0.0399039910256612 
0.02065892111323227 
0.02853929407698383 
0.03282167795040086 
0.07774859229756922 
0.09023441115029192 
0.08394241322956178 
0.08066607215445681 
0.02462905800916163 
-0.01900581545719581 
0.06288481161155987 
-0.02312644901833846 
0.0007319940879031478 
-0.03027843418090901 
0.05730048608037439 
-0.06588492988011704 
-0.03189972583526005 
0.006031939151499568 
-0.0173861499899917 
0.02007882854793931 
-0.04488128695508486 
-0.01277091721949845 
0.07616196745952554 
0.05269209448671617 
-0.03187675475076224 
-0.004403083158644494 
-0.06142854227638043 
0.02132384190074571 
0.02763524821309904 
-0.02904802302968756 
-0.0445077427909984 
-0.02445898842635711 
-0.01647780955579893 
-0.01462955209738476 
-0.03155061427218319 
0.002095645957371147 
0.06872138204679996 
0.03425126815036815 
-0.00591214351160127 
-0.01269114059961514 
0.02708816165315235 
0.04408020214376548 
0.002296427150201952 
-0.03817669665751165 
-0.02951189297223538 
-0.006063682175526988 
0.04951011404783244 
-0.05487505884700332 
-0.005952918483288628 
0.01000832913768014 
-0.007540200209700147 
0.01670870493307743 
-0.01354819558527373 
-0.03497093301185031 
0.03433870231140853 
-0.02500804432842816 
-0.03222194409338073 
0.00799755951733417 
0.02467459434157861 
0.07205072230598963 
0.02234943974718342 
-0.01310258282755566 
0.007617135448839462 
-0.02028620021433235 
-0.04251972516819313 
-0.06444598086052458 
0.002431209623977085 
0.01783733523452693 
0.03690128255233575 
-0.03059274682729572 
-0.01647892621388001 
-0.05474903516066425 
0.004591457584996486 
-0.04381271978873828 
0.0117664648611784 
0.0327463815864565 
0.0412916591394096 
-0.006244489909591235 
-0.03611589005613124 
-0.05031069000095912 
0.02630217232660231 
0.05483037520751963 
-0.03349991116098451 
-0.07925462115374145 
-0.02988845348115182 
-0.0356784295334495 
-0.04703928594241369 
-0.04107095640344548 
0.04334901040829596 
0.04161074719147533 
-0.05585021250877229 
-0.02033124336730689 
0.04262920958239796 
-0.02010776508476468 
-0.0793000273543584 
-0.08136232557292755 
-0.02764376014383372 
0.04195428686273303 
-0.005461056058461878 
-0.05415676332019487 
0.04804181392456253 
0.08913258313213113 
0.006044620360165921 
-0.04526581785118059 
0.01756059433003255 
-0.002185480477667866 
0.0373904674188681 
0.04720314865261301 
0.004670381684856791 
0.03526739771473907 
0.02165512465540661 
0.00613801144499097 
-0.02982495637247242 
0.01238189528547527 
-0.02115769482659977 
0.05742438721748248 
0.09662388930676506 
-0.01084325644122249 
0.03000723106778899 
0.04947515143859479 
-0.01403118861270788 
-0.01656486358712049 
0.05043886995537895 
0.025890088717014 
0.006516280311088977 
0.07195604754029257 
0.0197893692137424 
0.02500920832915932 
-0.004758565207791798 
0.02411542940238574 
0.0001371692643362648 
0.04750395953214143 
0.01818855176351667 
0.05763408362216949 
0.1250168110333867 
0.01351634805225079 
0.03200100487581475 
0.05586444637968975 
0.03536924556229262 
0.0116930200874681 
0.1461825523618039 
-0.002979460672672361 
-0.07888167514198224 
-0.01619507130567914 
-0.009418204165970216 
-0.008181210158658428 
-0.1215020748905486 
-0.09703910461931074 
-0.02683306708463641 
0.06286932520157847 
-0.03326005669794847 
-0.006030205165454187 
0.0973140144325958 
0.07105718713757872 
0.03217899086654837 
-0.09431156771960099 
0.06273767719976947 
0.003833404468401598 
0.1586539740439589 
-0.09312509267621914 
-0.1352523796500648 
0.05583502961544497 
0.05563940783929815 
0.02277462768597477 
-0.1593708113021972 
-0.06131572416581251 
0.006241497465704615 
0.00230279360397426 
-0.06051960517468448 
-0.04374178832195615 
0.1498526456003213 
0.09508890225079038 
0.06161909319555776 
-0.09476888773969108 
0.1258963005231654 
0.05268693081896003 
0.1216730748363805 
-0.03996714290710742 
-0.1524838926031158 
0.01895351761363575 
-0.105648667620833 
0.1020226863864999 
-0.2097890306512863 
-0.1207967121063118 
-0.003662746156473309 
-0.02697945118790826 
0.1066774662668615 
-0.003766457530472932 
0.1646693813191374 
0.0196391812149769 
0.141991795803472 
-0.05372061519147861 
0.07391108841956311 
0.008716047360564359 
0.2071246869807919 
-0.02587863915415791 
-0.1671210003000237 
-0.05306259178142796 
-0.1120657625783803 
0.1537632850024249 
-0.1823018138109306 
-0.08712145026266668 
-0.06377709829185865 
0.01863989538186319 
0.1719758411642029 
-0.01939958674859111 
0.09753224784014906 
0.02905562858489599 
0.2369625062116102 
-0.02201779271566932 
0.04079459722488867 
-0.02374445116572499 
0.2387641170715255 
0.06418599655906833 
-0.10143602532848 
-0.08195950879187412 
-0.182104327551918 
0.05248784919281584 
-0.1363777073205102 
-0.05551217945822488 
-0.1139996906878215 
0.009637986390155839 
0.1363876351663131 
0.03100430813399103 
0.1261494835855056 
-0.0357970146342988 
0.2292852789192132 
0.02482989856893098 
0.08110826383871692 
-0.06435908681483524 
0.1228417883973234 
0.03057606868280156 
-0.08188590873685758 
-0.05779481234502887 
-0.1960166136142058 
0.003620603117722112 
-0.05790346033811419 
0.03810261600305129 
-0.1797426330089879 
-0.04769806394578261 
0.09399269033610672 
0.09023265996147958 
0.1701658062668642 
-0.09098891954767256 
0.209879572352397 
0.09453659592098611 
0.1346550136001197 
-0.08522643745969616 
0.02959066262064074 
0.113225052954535 
0.08789440073662269 
-0.02698946334970324 
-0.1615736540512704 
0.01836029585070923 
-0.01592057614368985 
0.03124460786108676 
-0.09192502624219046 
-0.02231002664773628 
0.1476221769151387 
0.09620532060997031 
0.08078789922643967 
-0.1558490132303037 
0.0421748533293384 
0.05934776670763083 
0.1191258688645196 
0.001566449567981709 
-0.05363427755784022 
-0.02976631764066603 
-0.01225130299399274 
-0.03961082689125067 
-0.03578591328704487 
0.07881048552170686 
-0.008766992617456851 
0.0004666396768787533 
-0.08913239367031417 
-0.08203312616783276 
0.06227121813069893 
0.03501026993028499 
0.05100252739100331 
-0.1162306198482637 
0.07989099566054886 
0.07199042783681903 
0.04053788675210918 
-0.05533228529644445 
-0.09649538992395791 
-0.001396565776552694 
0.02616719574398266 
0.005550480433471189 
-0.02559574609753563 
0.1055148525800665 
0.007339473612960583 
0.01162957773812395 
0.0103807198007509 
-0.021305528528215 
0.02009825517932271 
0.02078359172970958 
0.1002823918315309 
-0.05566804791145571 
0.08402024915148711 
0.03907205673354918 
-0.05484145437609857 
0.02859847699193739 
0.004644154341293883 
-0.001097848555060534 
-0.01895360322801572 
0.005553871261190851 
-0.02041518581525772 
0.009304971408334453 
-0.002444184171196031 
-0.02036486382826504 
-0.005706512126798642 
0.0211478794959764 
0.0358067748485401 
-0.002123167040259376 
0.07630770827277063 
-0.01604679211786175 
-0.01455018370709185 
0.006286142061122896 
-0.06899910074579672 
-0.006209068996337763 
0.05834394949793419 
-0.007232907621080919 
-0.02746807451747375 
-0.0216392179069343 
0.04558315359457057 
-0.005900084066631966 
-0.06101636335749803 
0.005165241352132951 
-0.01400045303934522 
0.03072492995975436 
-0.01271321673742527 
-0.008411929330787741 
0.02124722465956904 
-0.01019292177964686 
0.005955002936172898 
0.08929393641350494 
0.004348196541246624 
-0.01158072679658651 
0.06361316511193141 
-0.07163068605227066 
-0.08466553384096877 
-0.08369679523878093 
-0.109550653420365 
0.008838712726803432 
0.07926759999881995 
0.009555569284687098 
-0.0225164411155341 
-0.02252201110445856 
0.1034366321493596 
0.01495680736181261 
0.0005575989687665344 
0.03919776782111174 
0.0559413820836146 
0.1094104998648858 
0.02222062271050625 
0.04145167711469107 
0.09846358670629504 
-0.06731425445561069 
-0.01230356019137173 
-0.03692005263816173 
-0.09131645439975654 
-0.01774944703871937 
0.01869921242440396 
-0.05128237534574565 
-0.03282791654647971 
-0.00885812059653217 
0.01807070517975424 
0.06154815372519584 
0.02499334128036375 
-0.005374338487118577 
0.06249173313269502 
-0.0007400785836255311 
0.005380920779962502 
0.001031533593091065 
0.06001354982812591 
-0.04434770915463494 
0.01561822000837934 
0.0467026973029603 
-0.03167305849997317 
-0.005594033160991666 
0.04008508908934254 
0.03608726240472011 
-0.0184425546401366 
0.05023028881310874 
-0.005476563089151422 
0.1256785492302548 
0.1190473808582836 
0.07164830852139424 
-0.002139566455787751 
-0.01060328929267459 
0.04300353590506097 
0.0039281667380606 
0.03680188427210478 
-0.07466014683055146 
0.004219234777225007 
0.07503268362153451 
0.008274612735869963 
-0.0071811904912859 
-0.0919566369983994 
0.07314548615727082 
0.0009317800778623414 
0.08450490366458074 
-0.01520092462971431 
0.09923563460734841 
0.08568143827540613 
-0.01984496929315456 
-0.03537756878321562 
0.02277940636978753 
0.04584228056379033 
-0.02155525716405822 
0.07860308261346675 
-0.1386634330161882 
-0.08850758320910573 
0.07370422561311345 
-0.04889464355984866 
-0.01759987197332002 
-0.1322335658444537 
0.1137327862300637 
0.01369326525940713 
-0.009886666378971962 
-0.02918794190861314 
0.05938687870797279 
0.08118810335237218 
-0.09586120530556845 
-0.05428268577044369 
-0.02467588842976625 
0.1114469602943584 
-0.02367784167816098 
0.0005149869469414537 
-0.01905319772340264 
0.001843800018598857 
0.1230295921924033 
-0.126817785740558 
0.01858796761526649 
-0.04528074347830897 
0.1399179167210355 
0.03680020953042831 
0.1212110189810828 
-0.01928217008515396 
0.08782837176046997 
0.1176847111664883 
-0.04362870556687367 
-0.0389330713637031 
0.0472115775368381 
0.1487550212448556 
0.08207619847427121 
0.06355545160243391 
0.004781386503407163 
-0.08733318118614943 
0.02833918201753198 
-0.1110208086746054 
0.07966961466601723 
-0.01822891784148191 
0.08425819639373912 
-0.005496079551161975 
0.08343054037956604 
-0.05650199775668668 
0.01604435549245392 
0.02657372219877218 
-0.06579887092897681 
0.03802743271216044 
0.06498574117083769 
0.1391471859160215 
0.08670701225948485 
0.1025338665659007 
-0.07490588226945179 
-0.07188908826774885 
0.05592597279305536 
-0.1094054164705982 
0.04000118146250321 
0.02296414844266644 
0.087138161151554 
0.003772208644692569 
0.05462903816778779 
-0.04806317467108174 
-0.02826256750586316 
0.04645383777292264 
-0.04543128816671187 
0.006312311723455771 
0.02714841946443517 
0.1029440384118532 
0.09022367211641334 
0.07177747610629068 
-0.05582870609030894 
-0.0153805566151581 
0.1179058783436197 
-0.1177307692172279 
0.06102239133552349 
0.09152337971282808 
0.1240424085387373 
-0.002722948397893169 
-0.02216582640985798 
-0.02649437953051588 
0.01116927050889681 
0.09915552948320472 
-0.01987671731614547 
0.03855537543102543 
0.03177434061205735 
0.1407916566937099 
0.09180181438873675 
0.01332600010962703 
0.04304028892236098 
0.01161974154050676 
0.05501925972231864 
-0.2442575639254138 
-0.08808639679689699 
-0.04115248474429038 
0.1039783492626098 
0.02200972014674534 
-0.09540032404387885 
-0.02476124342023938 
-0.01182107660504302 
0.1103311944315605 
-0.06943356506307832 
0.02537073576424276 
-0.04267512808611813 
0.0590791081279804 
0.0703871421491184 
-0.06355869656070212 
0.01429710486793153 
-0.03022301489575464 
0.1001913324585276 
-0.1565739549253036 
0.039291174339822 
0.03869438991351351 
0.0390451771833219 
-0.001968750545645814 
-0.1020517991921292 
-0.03044312814016463 
0.003375665913998756 
0.1509066220066663 
-0.01921820433021851 
0.05501471456232303 
-0.0009642440358059575 
0.01604817820828906 
0.0941283255097438 
-0.003237467681009187 
-0.04404620370805908 
-0.0381896141907684 
0.05055452294424301 
-0.06593036385800456 
0.01154808599607172 
-0.02233975668213856 
-0.01695068227868517 
0.04504708892983039 
0.007075701187059524 
-0.02564480394206521 
0.07121392034743827 
0.1331607576160129 
0.03195622287525784 
0.01952835867388665 
-0.008475720815976803 
-0.02470454062891449 
0.06188469778835369 
-0.007679091972867445 
-0.06370306521910471 
-0.1227437635980208 
0.0009977863434415331 
-0.06644864349511326 
-0.03513262308651272 
-0.007098764622611543 
-0.03070671802072157 
0.02270236133403189 
0.02784759541813992 
0.003246126600700367 
-0.02494819630895551 
0.06689721633056842 
0.008552191101480202 
0.04194728502113584 
0.03765681733228043 
0.004469291497531083 
0.05846904506069314 
0.05089267813031019 
-0.05164000138617576 
-0.05716730820072125 
-0.06563641232169987 
-0.09072654479664767 
-0.04354212940901928 
0.02839046627729691 
0.04560547317727649 
0.03114987738128732 
0.06265209324570938 
0.0421696051236729 
0.0002330087062867252 
0.0098006757298661 
0.009219033633575343 
0.03420509222655678 
0.01293265166564278 
0.03013807807063036 
0.08152565504930805 
0.07388876989048766 
0.09415666273808192 
-0.04365179693570815 
-0.01983013836926584 
-0.009179824940679418 
0.002962035909847235 
0.06613614101339732 
-0.03180053905189449 
-0.0008851554216915341 
0.05758991817123688 
0.03621602343295718 
0.07975077122117084 
0.03538916822947004 
0.02927269121513811 
0.02727014220549408 
0.04868989933750495 
-0.01252822828806006 
0.01050410656210865 
0.0673761331085506 
-0.02723388972765857 
0.02044775747512655 
-0.05390727765448708 
-0.05156241640255194 
0.02729280772838334 
0.0006112247781719154 
-0.0009963529910864953 
-0.0131692424245411 
0.01370258607051944 
-0.04587554684258207 
-0.04988785267015104 
-0.01447747561971363 
0.002120874237306331 
-0.04505832144706921 
-0.02519790965688979 
-0.04587730233102579 
0.005260108150915786 
-0.001185667264059832 
-0.004388009042247727 
0.04098369913318045 
0.026271859255054 
0.01263570799963559 
-0.008016955662715229 
0.00582138835498409 
0.028567601641142 
0.01156702832384032 
0.004397965702849012 
-0.01414396275927662 
-0.00909433739895104 
0.01321185684388639 
0.03674800761767515 
-0.03303594576879505 
0.01047218541360696 
-0.03033191885161108 
0.0116245092310835 
0.04740507767480511 
-0.009098437422458328 
0.04788926090931731 
0.04107149163055789 
-0.05022423169416406 
-0.01939324708737365 
-0.02236786247174746 
0.07288933717132275 
-0.02468828910221241 
0.05522924106172927 
-0.01892848716801905 
0.06792077354860568 
0.1098926736544929 
0.04020677391159826 
0.0183227997965797 
-0.04058049940491893 
0.06937096598625271 
0.04011586705830781 
0.06525080538061315 
-0.06645480950438111 
0.001644155377290944 
0.05123175367724847 
-0.07078928942288816 
-0.03787376940859315 
-0.0422972149502255 
0.1196733410568199 
-0.02624259286237662 
-0.05281894299504893 
-0.1115066554350104 
0.05538406595202765 
0.111942138427316 
-0.01304089346771805 
0.01011454647099742 
-0.04997203128597748 
0.03846646052387107 
-0.01311751305467029 
-0.01914618510497137 
-0.05042786519267501 
0.05615702362876319 
0.05939538711392085 
-0.03369519646680058 
-0.04879741426833956 
0.01766344008223632 
0.121001961160929 
0.07013614646595065 
0.04926261448908205 
0.03545169924956657 
0.09391984145106894 
0.09808240513441248 
-0.0259394573285005 
0.03074853066757878 
0.043801601697857 
0.06469895858315325 
0.01760143717188066 
0.05852187515776306 
-0.03478631849140419 
-0.01943539704572302 
0.02999607835091381 
-0.02754976746078748 
0.00964673219662677 
0.001620620142520883 
0.06346035085359596 
0.0399680140402122 
0.06616896049223431 
0.05233674967905903 
-0.001527277881923413 
0.0113556996966465 
-0.01164897969568942 
0.08671687359727244 
0.0397901913884347 
0.0272394432942322 
-0.03898638154352863 
0.05330047116736125 
-0.04998012592749466 
-0.04024166175634057 
0.04244535530791477 
-0.006007555170409394 
0.004486334777748712 
0.01180440876698947 
0.06789186613142977 
0.009908424713209263 
0.05724352904754296 
0.02463506186034002 
-0.0008308101084680215 
0.02796453021797764 
0.03274154934531538 
0.0906804876151516 
-0.011875802051818 
0.04009756920721367 
0.01352080411989062 
0.0546524676676584 
-0.03589980295727262 
-0.03010558101959095 
0.1144296880513186 
-0.02798529413406902 
0.02129093029511167 
0.02134012775464414 
0.1412322727164353 
0.09164804954263588 
-0.002316274747836479 
0.02451200247033765 
0.04959728330995482 
0.1235182494747291 
0.02393887329547896 
0.05153038424827543 
-0.01897127133281021 
0.08759069879805544 
0.04475416613893698 
-0.002054569015259962 
-0.02201962984755969 
-0.03457526009176996 
0.07010431617449149 
-0.1417039736728752 
-0.05082462350564855 
-0.06843467560973329 
0.05064618656733225 
0.0396282531614646 
-0.04346913207456816 
-0.01443344597493382 
0.04706003697089309 
0.07369836051872976 
-0.1069784191541761 
-0.05461321162381891 
-0.07250743667525818 
0.03867939054072132 
-0.01169435347757913 
-0.05678731652881021 
-0.03828626691763375 
-0.06084031314633712 
0.06758065990882282 
-0.0566862732147525 
-0.01043058228690207 
-0.01108645289249381 
0.03796608654653923 
0.02553434797173626 
-0.01311573662848032 
0.03932810004420294 
0.04489683575837942 
0.08330206257451599 
-0.01499573683548343 
0.01962986179906517 
0.003919322631141545 
0.07736415036283213 
-0.007498165102235903 
-0.04950257066459746 
-0.02796448344858638 
0.02419762739110763 
0.05853966093224109 
0.01403911828860134 
0.03027011466763782 
-0.001115871737324493 
-0.01919785625184364 
0.02935741881863365 
0.0003991063205584384 
0.003740466699246667 
0.05676063884692406 
0.05576506154131936 
-0.01679209070182927 
0.0182947609285648 
0.03439556340082559 
0.001768007083613384 
0.03159439963473941 
0.01016474946995669 
-0.007784424649864111 
-0.08210107251056317 
0.006818850149829233 
-0.0222625497554064 
0.01265406575519164 
0.0184629925962708 
-0.01131677491247226 
-0.003531656029664722 
0.01366037697158459 
-0.00566227584263611 
0.002765232422858304 
0.01865754356503331 
-0.03413223727247899 
0.006407702709367825 
0.0209085139160891 
-0.0286547424418528 
0.0009645007551940774 
0.002875499985642353 
-0.0143793342085748 
-0.06395891958455144 
-0.05144843112200671 
-0.003651316654788652 
0.07441973699339337 
0.01415691032069016 
-0.03161367091299856 
0.007162981209319081 
0.04763250317302654 
0.01215769380319057 
0.0598080303870037 
0.03512894413267532 
0.05188118448337894 
0.09844137946305045 
0.007575088790487594 
-0.01639140037602775 
-0.06582126267385462 
0.1069193070643004 
-0.02754838722551243 
0.01344856869776292 
0.03520337061706783 
0.009925212548126897 
-0.002064424072401102 
0.005012868813033123 
-0.03587541970766681 
-0.004206550044047109 
0.004739516589629124 
0.05283415510817559 
-0.02208047028823096 
0.02371287897016062 
0.01162542472900116 
0.04107995221561354 
0.07587381263080496 
-0.01297936782124503 
0.02550459279421468 
0.04778788209783006 
-0.04141353495306108 
-0.03513521498741373 
-0.04768732720013438 
-0.04013783376866809 
-0.07412760825161308 
-0.04404507106298777 
-0.07415977906046488 
-0.0426649745282369 
-0.006653742875394691 
-0.001382787508073808 
0.04216743277049145 
-0.01250238238486229 
-0.02485076222794132 
0.006297697569292399 
0.001963579104423921 
-0.0008821673541284415 
0.05548217913545626 
0.02057066489443192 
-0.04819431128859072 
-0.04374488156158092 
-0.05213665442089124 
-0.02945508660077678 
-0.02857019492285079 
-0.02277406460177477 
-0.02419285237698893 
-0.02379492889925193 
0.03099600723820575 
-0.002876493996894793 
0.06282652860451965 
0.03454359879672425 
0.02074752685051717 
0.03637298604685663 
0.003894348084200127 
0.02462445524719232 
0.04852536388451367 
0.00757867124104594 
-0.06222976214119118 
0.009260912718851407 
-0.01313438608609981 
0.01377349078488069 
-0.004246096371333494 
-0.08250642600344094 
0.03225680914935855 
-0.01431649549415648 
0.02270704043343213 
-0.01551447699831034 
0.02541271488182439 
0.02434610067776318 
0.01555758973111568 
0.03016241151577182 
-0.03533001643991231 
0.06178797030083261 
0.01302242685041804 
0.006241192474010306 
-0.113281716943574 
0.02936938256414547 
0.03296787905044664 
-0.01536573929503715 
-0.03170213314455022 
-0.0775698331803264 
0.05836125997442763 
-0.01795469438762009 
-0.023470016161229 
-0.0453588165855246 
0.03129522504380983 
0.0427694641676995 
0.02635520955738471 
0.002128647673442469 
-0.06504095720541637 
0.05063119190346407 
-0.04865892917748257 
0.02911263644893575 
0.02649206263047816 
0.05342063999117751 
0.03735156605561218 
-0.0236971634868468 
0.01512398198677744 
-0.002044602165801223 
0.0468471198551485 
-0.005676159096418585 
0.04814959572736534 
0.05833940597536733 
0.07396774944688514 
0.05836206616655104 
0.008421040901117399 
0.03512760268903155 
0.01261138295813908 
0.00565024733000147 
-0.05298646042974554 
0.1271844683306455 
0.04497575720202579 
-0.03170437413902234 
-0.03711562677317574 
-0.01673062959096061 
0.07572142707511979 
-0.002798399971886752 
-0.00982445089460446 
-0.03772348062366301 
0.05387253835999241 
0.06826788382850808 
0.00455027127039378 
-0.01113370746094645 
-0.005588288952333887 
0.1023520944781652 
0.005292932563112658 
-0.03456743488828199 
-0.07114123032035416 
0.1593603501394426 
0.03169385801707775 
-0.03942522022604562 
-0.010646830159949 
-0.002225638221707838 
0.1032242264040195 
-0.02626985800119657 
0.02454157156963703 
-0.02030231957090711 
0.06840855571231788 
0.05878923823849191 
-0.04867891222357148 
-0.05074864756138645 
0.04389245753950075 
0.2021879953568992 
0.06559530688663173 
-0.0473338862430076 
-0.05650877434732875 
0.06923654192939796 
0.04940380144714657 
0.0265562638303269 
0.06828697979235171 
0.01112990128041155 
0.04963057113353384 
-0.03079369776574885 
0.0575304021766502 
0.0234046592009029 
-0.002699545535206055 
0.02983943728753989 
0.0165634100576798 
0.06836473909090324 
0.03041009327656576 
0.09936535581680096 
0.01775428076071972 
-0.03111377467841109 
0.01706221047615273 
0.006083101260044597 
-0.02132359729762857 
0.0487917491531689 
0.05656762488365644 
-0.1078549195646301 
-0.05479496762798942 
-0.06225184933244891 
0.03635930707118371 
0.001414965504784326 
-0.04780408342841896 
0.01219050697634863 
0.06056858059435175 
0.02179943736252076 
-0.0873342030998366 
0.06076995955503268 
-0.05508180690928154 
0.0508470907008671 
-0.001632595004553356 
-0.06536450192645586 
0.03032579219879273 
0.004143801412795886 
0.03712797715331693 
-0.07946436000510584 
0.009010957836259433 
-0.006215821263861438 
0.04089558518071434 
-0.008072772884532183 
-0.04104151182623691 
0.02679875590229979 
0.02493855318266313 
0.01916063979470899 
-0.02580736873231354 
0.03984337126314944 
0.02851049888065625 
0.08733490747302965 
-0.04060992055541823 
-0.006287733308040126 
-0.01344597475176609 
0.02905489264014762 
0.006973792124556107 
-0.02171452602513039 
-0.003636176978170005 
-0.0265753428185096 
-0.009244734058866428 
-0.00654476718506404 
-0.008593404869050669 
0.0315482478480854 
0.05306158334402505 
0.02939861600594065 
0.03137010237543847 
0.002984537226359607 
0.05251521484979986 
0.03078216307065244 
0.001506916352353186 
0.03009882238848151 
-0.02211398496220288 
-0.0195096589729836 
-0.017259415622876 
-0.03981257395906863 
-0.04738043183695061 
-0.04393590951716925 
-0.0575262080840975 
-0.02994282593120775 
-0.04316312456256464 
-0.05592093847725865 
0.005982744571996356 
0.03505577177989403 
0.02880952828672872 
-0.01096884934250621 
0.04186060032430323 
0.0197847920425597 
-0.01161340624828816 
7.738094010763012e-05 
-0.01776365564988213 
0.05946079160364336 
-0.03809935569196463 
0.02755649128021103 
0.03544796519296029 
-0.005461300528875323 
-0.01855055593024308 
-0.1075945840703294 
0.04432198303504783 
-0.0204842879528316 
0.01714532460928477 
0.02930565944583398 
0.01347974008947356 
0.03346119231158775 
0.01262512459851238 
0.02214655327432781 
0.01257474194833902 
0.03558840357206852 
0.06905815500922655 
-0.05544498281172935 
0.008301203245336567 
-0.03135963527802672 
-0.01086487419852468 
0.06608488657335633 
0.03405732825172914 
0.04527644226013935 
0.001877072495958958 
0.0922902260776419 
0.0694141228289045 
0.05551111426757257 
-0.02843313366107273 
0.01769332448323949 
0.03358735778632114 
-0.001031202766406934 
-0.04353291831702562 
0.01755326210118872 
-0.02957266695528452 
0.02054850566094659 
0.01471777039849069 
-0.09366334876981869 
-0.02330568805643177 
-0.06914212473605545 
0.01345921282557959 
-0.02239563284240004 
-0.03384068901349153 
0.02592794215811527 
0.05731544048234106 
0.06921846839699573 
-0.06650635254080683 
-0.001067632097427893 
0.01132638049180034 
0.02784498803837935 
0.02748338250201013 
0.006114793540262043 
-0.0307548041344168 
0.02556089472878574 
0.05080989454277614 
-0.02704156067540899 
0.01643354517310352 
-0.03886276268125984 
0.04147933115386487 
0.03664473515347091 
-0.04382639947955713 
0.02989890481815289 
0.07298774229198821 
0.05861255800283174 
-0.02030767152180197 
0.06633961119642592 
0.02193821474908466 
0.04582395261545395 
0.03722823021867391 
-0.003061102587219281 
-0.0426211658806724 
-0.006551450621786379 
0.02341971644576004 
-0.01601558434664652 
-0.05163300608343405 
-0.09964803863878367 
0.01250582769071351 
-0.0007649623365645942 
-0.01089256251616543 
-0.008250620315163248 
0.03744313068459347 
0.04753812168463227 
0.01800722656656729 
-0.05719503911333802 
-0.08035377341803721 
0.00264245576483474 
0.02592435384774835 
-0.02679334231660581 
-0.08731708981545311 
-0.004616407554263242 
0.07210539025446719 
0.01734118281271015 
-0.05508797150308424 
-0.1249364061444194 
0.009658200789944877 
-0.01468319829968989 
0.01919912408804617 
-0.09501194173623352 
0.05873670666575816 
0.08675200076366758 
0.05402581334622102 
-0.04762127096304689 
0.01580527632555808 
0.03978301572998319 
0.01047624000277464 
-0.07041379851894379 
0.05998744727523159 
0.0172730450000446 
0.02375248173737743 
-0.0117281897101978 
0.04686462510429994 
0.0007378172836563091 
0.03371935576613711 
-0.01876186122521885 
0.08013001734236297 
0.07968731593407972 
0.06541131014074944 
0.04595516228197402 
0.05790475491697767 
0.07708492021832015 
0.04060517914932055 
0.1304189433112246 
0.04106374081304326 
0.02491014556568031 
0.04983978476393483 
-0.05679176425229296 
-0.06115818835394615 
-0.02649599785329318 
0.09059458932982006 
-0.001241683569525221 
0.01158372804503547 
-0.02000155537004266 
0.1112023852153312 
0.07389217908747664 
0.001394753503023428 
-0.03372831599676359 
0.02507241233633854 
0.168956777789319 
0.04071544744893835 
0.04953533853526442 
-0.03188861135178261 
0.009775851914223782 
0.02722309362367411 
-0.06583738188876828 
-0.07768293433092426 
0.01586607707714445 
0.1757345529515038 
0.01914412466516754 
-0.03632273080195793 
-0.002372147493300561 
0.05731789713643184 
0.1214228568224048 
-0.03356856423065498 
-0.01397068816562117 
0.06310263649717067 
0.08566257446748461 
-0.06717306378209763 
-0.02823357990174328 
0.04443443112422407 
0.08353343508968575 
0.02744609791446368 
0.01737650647913538 
0.02545427715816967 
-0.001351719302720137 
0.0481500402334889 
0.007722626490140086 
-0.009201764598198095 
0.04053725157514657 
0.02158356666686974 
0.08174615483170257 
0.06609994537539346 
0.1102544244703846 
0.0686690595926478 
-0.01922740946440197 
-0.01905428969544184 
0.06983662018809489 
0.07952672843052602 
0.05799834674725245 
-0.05364825647743243 
0.05969240202674097 
0.01454501095531263 
-0.1001964764171227 
-0.001484288134020343 
-0.02649249367935574 
0.02656261538917421 
-0.006071966251539288 
-0.1095067013450704 
-0.01202115453057528 
0.02511459830882584 
0.0976111105865969 
-0.02751018968106576 
-0.05197256962697107 
-0.02064534681429827 
0.02900370887137012 
0.04717291599635763 
-0.0558758072370336 
-0.04160062808282525 
-0.02855119512108764 
-0.00840918794269941 
-0.06325902841646493 
-0.04134738530365545 
-0.0008449403880031221 
0.02570634807916811 
-0.07902360531678328 
-0.08412646493897145 
-0.02982662899279685 
-0.0508749297248418 
0.05709133109711927 
0.02033268330357296 
-0.04166576523000179 
0.0129022848621618 
0.02565050798426461 
-0.04426417486852509 
-0.06648478705382532 
-0.03024347376181243 
0.01913607228087661 
0.03980385201904992 
0.01748122847949014 
-0.03878345038460513 
-0.008461267059239174 
0.02991497794035642 
-0.03381419600835858 
0.003085766631296189 
0.006186786209839526 
0.02099917483417165 
0.0282142140240954 
0.05099192280612844 
0.01419094456857938 
0.01984021291368406 
0.05439218824776415 
0.03782364393791798 
0.06521751707310565 
-0.07775344563743414 
-0.05816478664795141 
0.03239751470563881 
-0.01003783942407081 
-0.03081431227445957 
-0.03304518048091412 
-0.03393178992298638 
-0.05483621934909644 
-0.03413140082714437 
-0.05672130090295936 
-0.00873260046506963 
0.01454423164395149 
0.05992331399969801 
-0.0005582927489506001 
-0.00638816694124994 
-0.002680184878823261 
0.03565155816925408 
0.008247860838275244 
-0.0346716363800826 
-0.03938020123021471 
-0.04049896102829014 
0.001646430419044466 
0.01175091132950484 
0.03258614612071342 
-0.03544722983621878 
0.01058850805906328 
0.01265839127160018 
-0.009870608177367747 
0.02865201463596101 
-0.01563319143004402 
0.09344072183016157 
0.00170053499933833 
0.04385822214449929 
-0.08903531439807782 
0.04463628727810336 
0.0186107354383539 
0.03114234985964947 
-0.009154329501494862 
0.0007441411827552247 
-0.01618018533884592 
-0.005252759006833648 
-0.03540462154067726 
-0.01233676992109525 
-0.0301712797772268 
-0.01409147092184143 
0.02446664579074438 
-0.03823653191291585 
0.009805245474575609 
0.04520811556845963 
0.01124106584852902 
-0.02035472722411868 
0.01474798448846161 
0.1139926654033346 
0.04014564555849896 
0.03199035131882496 
1.004503079260149e-05 
0.002452912470596405 
-0.05048384140376106 
0.006513308166551857 
0.009145724450562687 
0.0005421553140410714 
-0.01928738540223494 
0.003572325273699059 
0.06583244748775496 
-0.03857970100077416 
-0.03628334907775645 
0.0391443276722304 
0.0449060116123403 
-0.01755638194028046 
-0.02619424975077737 
0.01321581735604154 
0.0582054912783069 
0.01184431695435628 
0.02309404134221182 
-0.01966248678613157 
-0.02841716148629654 
0.08280731819616874 
0.03983070360885413 
0.02306404706123016 
0.003941797679893358 
0.007615600252863093 
0.06657893194626542 
0.01411113745330724 
-0.001274653692159876 
0.08783022126938382 
0.1026322342508412 
0.03396936528697491 
-0.002908098458638338 
-0.008277117726024973 
0.03739506218332349 
0.008801159967304744 
0.03090961109771105 
-0.0344226626749136 
-0.04309783609119468 
-0.04126510043328733 
-0.0134531060052844 
-0.02828068763057338 
-0.009306877827917509 
-0.002581200201590937 
-0.03281478036901838 
0.003370476361414664 
0.003830328050405949 
0.02810632607018565 
0.04050272487538332 
-0.009633774425510699 
-0.01161157213030479 
-0.05774483699151487 
-0.004063182105116019 
-0.05783848296600867 
0.0496012038049377 
0.0235989675509407 
-0.006514631885980433 
-0.04929130092054241 
-0.005287819812423366 
0.02075757011063152 
-0.03762594484363713 
-0.06392027760948965 
-0.05238994393124276 
0.04140019695634574 
0.0326702032246035 
0.03097928101186046 
0.009956716399936446 
0.02457089575178262 
0.06181357311496322 
-0.03224806406372084 
-0.05185296792145424 
0.04357584804014289 
0.05310582923091305 
0.01196333150186006 
0.04264527416743297 
0.03980045184255085 
0.003877734036913045 
0.1009203979726309 
-0.01459685206508141 
-0.02378404686067475 
0.002880468606048645 
0.07626460478946158 
0.09707422521939545 
0.06938843888379817 
-0.001069104249684304 
-0.02632838155827468 
0.04821269001288939 
0.01072575533015305 
-0.0006977570390748021 
0.04459233809407873 
-0.03086884369467554 
-0.04544771360019848 
0.02829222086634469 
0.1389846593359927 
-0.01471446876511042 
0.03686669419781275 
-0.06726497048063847 
-0.04678409398189635 
-0.03093298957447698 
0.03045840423927436 
0.09909509248009495 
0.07515754951227116 
0.03037982833338999 
-0.04914545973691692 
0.02641072899561088 
-0.03250639421982995 
-0.04746408671888965 
0.1168789220428139 
-0.001849919671119136 
-0.009734550990503989 
0.01469662399658904 
0.007760668457104119 
-0.1182208259632005 
0.008154933009316643 
-0.006756352412698795 
0.02878269157286062 
0.104432922877153 
0.03840742202856336 
0.08748049379832371 
-0.004492045738654945 
-0.05364756148042932 
-0.08176197789267851 
0.07381866956085593 
0.02344128614681819 
-0.0544673122301168 
0.1044467662492613 
0.1167290397927116 
0.1124401329831438 
0.05124102345037279 
-0.05336847798146477 
-0.0613047203440007 
0.09012821735973006 
0.07502792505694404 
-0.01813127475642947 
0.09403401257409989 
0.08249237791401848 
0.1231631519416691 
-0.002614785795097187 
-0.04763630068826608 
-0.02812526729078644 
0.07338538539452624 
0.06817312427647518 
-0.05761840886787934 
-0.0142256880590498 
0.009266265592456706 
0.02932302817931078 
-0.02841891537299356 
-0.01207227958506218 
-0.05006026213988689 
-0.01068204944045612 
0.03328896240481811 
-0.05159571614579769 
0.05202731975292618 
0.07023759069182126 
0.04818846791959676 
-0.03012921101962259 
0.0162008908198679 
-0.0578291319361648 
-0.02880577731012365 
0.06586555372771681 
0.01431235929176527 
-0.0190704905344387 
-0.08539653833123734 
-0.004182213070662823 
0.01206510013200559 
-0.02777205161851044 
0.002689726867385575 
-0.03040213573426448 
-0.0650059343225398 
-0.04758852601117953 
0.06897924312012443 
0.03791424491859405 
-0.01171810807166839 
0.01079557006480942 
0.01992034614229139 
-0.03539205523721214 
-0.06294327332824987 
-0.01764677482534573 
0.03170844411589124 
0.008432574955962049 
-0.002399336092832013 
-0.03426140120657119 
0.03780172175924144 
-0.01126832718456951 
-0.0191403419683421 
0.03543735477848183 
0.004501977445347768 
0.08517522132004528 
0.0773683075966871 
0.03326091514593546 
0.006710396082928118 
0.03963606458851465 
0.05406554144989982 
0.00487842902488001 
0.03162940877886446 
0.003348401606894712 
0.06667663701862021 
-0.03696377326176126 
-0.03707061166889752 
-0.04573366984857192 
0.02255894173882305 
-0.02874408443819057 
-0.04139067978426759 
0.01516321368877015 
-0.01246120774607529 
-0.02377224219736399 
0.03106168008401868 
-0.008980949308174098 
0.004906472058303507 
0.03705907629482839 
0.03257376162845604 
0.006396172826861789 
0.06041646200804848 
-0.03616851553740571 
0.03600265337158914 
-0.01776189338695315 
0.05373796484417542 
-0.09399198769631247 
0.01753659890951257 
0.008936856761211207 
0.006658130584045198 
-0.06342647498436156 
-0.007778350553708587 
-0.03042611556195157 
0.02546773841139707 
0.0846351326261373 
-0.01425496635713735 
-0.03170936955794086 
0.0105160041293164 
0.006550435499387263 
0.02928859538367333 
0.003586507702996503 
0.01602113148417238 
0.02976331004075988 
0.0004791445399347327 
-0.02296212699723447 
0.04172494038550814 
-0.008370558624646519 
-0.03872265587416518 
0.01087794996871653 
0.1155761621083605 
-0.009247811441672929 
0.05730620487759112 
0.08463574847924783 
0.01601897639544459 
0.07998889515638588 
0.02781335478526259 
0.01048718417323462 
0.006878060939078225 
-0.02337401433100039 
-0.03466203249329061 
0.02792041809710005 
-0.01499429918711518 
-0.05477160253578038 
0.01207388999118204 
-0.01001703677179747 
-0.02002892454776852 
-0.04930908184838344 
-0.002832648536619834 
0.018696268415349 
0.0404960421972437 
0.0242550317302625 
0.01602729666651182 
-0.01894145190247358 
0.003225558371470504 
0.02987641975612837 
-0.04144124595543864 
-0.04926893658855551 
0.04396610363494591 
0.06509109704871413 
0.04846597451022629 
0.007390001689605072 
0.06710606464847821 
0.04481733024437762 
0.02264704532612558 
-0.03786939878467333 
-0.01877629814157602 
0.0256289831266633 
0.02405192743389961 
0.05132509122188605 
0.03248615643253961 
0.01598251348145159 
0.09721691050566539 
0.03408678523558498 
-0.06491989197486718 
-0.03030506046251341 
0.03674398525443433 
-0.0195142384793095 
-0.01236771683491478 
0.02142185123030445 
0.01725693195989365 
0.004251582232574603 
-0.052344373570692 
-0.00266169985604416 
-0.02881238115826203 
-0.00412078310861799 
0.01475375334806315 
-0.0195589994567618 
0.0185217644878623 
0.02106641464782251 
0.02092871687603876 
-0.06781439771130082 
0.01567281622293193 
0.02598277072273783 
0.04680970734659996 
-0.03322534070089622 
0.04098451024976741 
0.07200281227987744 
0.0430773715130511 
-0.008947373794955523 
-0.01825151236811636 
0.06995688876507324 
0.01906511105009953 
-0.04697115572284437 
-0.06041707225446081 
0.04803932613385074 
0.07069406200479686 
0.07709436426961856 
0.009231179030020754 
-0.06090114312160064 
0.05105708906821299 
0.01106622014519826 
-0.05753843123409733 
-0.03518548958706384 
0.08222243462352029 
0.08387590246848343 
0.03005703861773283 
-0.0437224874600442 
-0.07776997138147022 
0.09948227673440344 
0.04385800114954311 
0.003031934315741763 
-0.07171381432465337 
0.05738087588464032 
0.1190583650270901 
0.0264046788916606 
-0.08294263734308992 
-0.1458059460059836 
0.118601035415086 
0.04630418355598601 
0.02390988716352861 
-0.0407006664223506 
0.0146649971148711 
0.06828835009459157 
0.03560913445566849 
0.0009701720071561211 
-0.07916129461919306 
0.07027640458364466 
0.00896952580579094 
-0.07438137755191296 
-0.04429260476488342 
0.04796403955201286 
0.07731250912618255 
-0.004080819651860368 
-0.0753171871804431 
-0.1293176171685512 
0.06296871543282295 
-0.03559131615647854 
-0.0938042729076385 
0.06156379776981837 
0.00943771531880528 
0.04723577314001847 
-0.0255982876940103 
-0.02922177890327306 
-0.07166821387562636 
0.05976210361840227 
0.03545873127594126 
-0.0684033211126176 
-0.04209473684066241 
0.05587898570117258 
0.08367751829607252 
-0.0593425906523194 
-0.03424774761704496 
-0.1164825248812811 
0.009793415832202773 
-0.03742596006168276 
-0.1345536409850999 
0.06131729380337483 
0.05495783321564522 
0.08719070445811154 
-0.01343220578946436 
-0.07209221149017958 
-0.06525479317060118 
0.0651191528156235 
0.07627930129103444 
-0.09490209069170827 
-0.003995081405194889 
0.1214231110475611 
0.159688371241013 
-0.04772876187233444 
-0.01570251937087143 
-0.03666721201677911 
0.09459769494803225 
0.01100321090775208 
-0.1225869195808536 
0.06233976431621355 
0.08621633275603209 
0.01665054432887633 
-0.08762942718511083 
0.008583760190564059 
-0.05202968814039186 
-0.02343054134812388 
0.07165965397312031 
0.005849750681576607 
0.07064013073211162 
0.11683746269529 
0.0695560225056379 
-0.01875203904927153 
-0.06515325808523921 
-0.01370060498239942 
0.03730009954324171 
0.03538157789951234 
-0.002807307649554471 
0.04133424548052382 
0.03774756797230081 
-0.03941442613624026 
-0.04264609122566104 
0.02857767953124307 
-0.02643699459736207 
-0.04904787171277857 
0.03115121434358527 
-0.03981366390454209 
-0.01063011577251863 
0.01937680715869538 
0.01918720626314643 
0.01731032358856833 
0.04411348737726088 
0.03079110990108253 
0.01530566937559607 
0.03101993103798777 
-0.01729221453736 
0.05113399877359043 
0.01488889652351532 
0.01190293624681736 
0.04655796184678473 
0.06404360441201636 
0.003692193271591057 
-0.02030971881384663 
0.01629488964474445 
0.04052982130976457 
0.04452224805242176 
-0.005613461956431443 
0.01780595682078061 
0.03348591362331289 
0.01743232290980659 
0.02168079314931659 
-0.03613412855325199 
0.007751954914704124 
0.06155529712804629 
-0.01603746601407146 
-0.02603537348585453 
-0.02339515765523631 
0.001090296355474856 
0.009273840610355768 
-0.01123637152792139 
0.01470021239666212 
-0.02324575965619552 
0.009816622848507157 
-0.01815326566288549 
-0.01755854436518354 
0.03137927222274647 
0.01836850861177409 
0.01050751176254468 
0.01710632014275835 
-0.02270377314426958 
0.005209748871243242 
0.034755948558066 
-0.009280839518445114 
0.06267292644875773 
-0.0229795398420838 
-0.03848387390963035 
0.012498149693544 
0.03850670723365424 
0.03428622137102876 
-0.003007229361411675 
0.01951380855661631 
0.04325005365517325 
0.0673472926779607 
0.07340660383988794 
0.01214234202728674 
0.0396601502998727 
-0.04316811608779198 
0.05000150534994581 
0.04137788081964705 
0.0710762587542617 
0.04437569015138766 
0.0268888881322203 
-0.05922730251651125 
0.08318599702387323 
0.05609968089262275 
-0.01630313034161881 
0.03104051718926974 
0.04082280787237528 
-0.01215469767592721 
0.03934602292722649 
0.03042475067806117 
0.04502127685511135 
0.01139922642511151 
0.06776666160096265 
0.02895886259773438 
-0.03483208850257383 
0.01344449101489913 
0.04071954650138189 
0.0151250309921019 
-0.005416391643880314 
-0.01941864343198604 
-0.03367661034186969 
0.02999477926527397 
0.05508967475990571 
-0.01599675717984223 
-0.03401825319504997 
0.02091902632378824 
-0.008439068564479721 
-0.03227375666879253 
0.05004597892509183 
-0.04076986301893145 
0.03612029733925894 
0.01808351955269127 
-0.06019187977986293 
0.03127620735312796 
0.04568715455260404 
-0.0325431523330064 
-0.006237787893479029 
-0.01592618169988685 
0.02400626466006303 
0.1296134974865549 
0.05912868669838408 
-0.007256640536529428 
0.0122441363482723 
0.01070460705296357 
-0.007270292121041614 
0.004584456385562252 
0.02740665049952678 
0.04224031674088588 
0.06536463054970659 
0.06217311368335132 
-0.0643378096718725 
0.06193388327224103 
0.02573203197328804 
0.001829772845262125 
-0.03430531335205128 
-0.05068825565114564 
-0.008733052557900758 
0.01194213305866148 
-0.02406304575349558 
-0.006550718003945789 
0.03861208986913985 
0.05756360985373174 
-0.006877727741439655 
0.00383426218768205 
-0.03217441787192661 
0.06662742064526785 
0.04040358178625265 
-0.02851518194845279 
-0.08929964123616116 
0.06547408978035504 
0.01868993489468205 
-0.04423111523040575 
0.04434457185139243 
0.02722064838119031 
0.08679134107322965 
0.01207711519059516 
-0.03995769168037933 
0.07698296433553066 
0.03609765116197225 
-0.02383664363987453 
0.01869354290867777 
0.04562615617790168 
0.05537099516747448 
0.1054631697191269 
0.01711905247882825 
0.0001225792992043057 
0.002727676983409122 
0.07644022050060961 
-0.03610043055889454 
-0.01486756870505607 
0.05898143888789107 
0.08889309163500418 
0.03100392327946777 
-0.06860196104894542 
-0.0966145140339669 
0.1050812641357218 
0.03665270295964728 
0.04768102177260957 
-0.00486247782547485 
0.05816851967005536 
0.079734674142246 
0.04177342365215394 
-0.07025478408148245 
-0.02279045563175981 
0.04215651049302979 
0.0150443254077623 
0.009365872488549276 
-0.009215859657807992 
0.05978712047368168 
0.04398194313764398 
0.01763452411600315 
-0.01600965437509525 
-0.08915798781131661 
0.08219163285430547 
-0.007917326201389224 
-0.06586781522062014 
-0.05180633131194601 
0.05363177517175098 
0.09378995645799368 
0.03439649334302389 
-0.01071167734958194 
-0.04565108077184017 
0.01706240982855463 
-0.03287807740033714 
-0.06642171123232267 
-0.001718400484054539 
0.07037571054621573 
0.05240241764699689 
-0.02768556034711493 
-0.01569276319163247 
-0.07582223533538998 
0.03458123254239195 
-0.01965148904273636 
-0.08386619823049632 
0.02755534941612599 
0.05188018384866127 
0.06041115840674703 
-0.03578813556958153 
-0.0538540098007898 
-0.02602688305545558 
0.03617980147447399 
0.01688684231503889 
-0.04046316217336229 
-0.01092271291769908 
0.08063148816595198 
0.09374610376103167 
-0.009608729776160453 
-0.00415575739034416 
-0.0292311323141656 
0.03895354587620296 
-0.02905890626865619 
-0.09187192654572267 
0.02140531972719403 
0.07508353693512015 
0.08697147312782524 
0.01428425138406063 
0.02013752775194125 
0.0007610650344593093 
0.05771190412662046 
0.04781092016333906 
-0.04889397242528575 
0.08183200889373332 
0.0687368580779063 
0.03982984049929004 
-0.02773668820110248 
-0.03431039385227387 
-0.007958494938477077 
0.0465784899509543 
0.0005955314405669039 
0.02932690844160622 
0.0851061397986326 
0.1087986122219718 
0.002087895109552667 
-0.00318394697014913 
-0.02523237369568108 
-0.02867147528956359 
-0.006741276852621528 
-0.01932835176848369 
0.0467019938646747 
-0.006535939655500126 
-0.0273818654000549 
-0.01940691052731102 
0.006729711951714361 
0.02811256597910921 
0.01456573260989596 
0.004659447573822658 
0.009532658704248626 
0.006499842062311937 
0.02713436100195486 
0.008391805798383519 
-0.05492350050572661 
0.01057688617289888 
0.01477434597368758 
0.04415808163825549 
-0.02804533704478954 
-0.04465405190730959 
0.006672204590665438 
0.05040069188873199 
-0.01992591117092467 
-0.02265574821752713 
-0.008163990802124814 
0.002254279494197641 
0.01599612220126574 
-0.03808235915796331 
0.04996494280950631 
0.05545515248217388 
0.06015947482559814 
0.04798116102268425 
0.06040935586924388 
0.01055852205184321 
0.0265036439768196 
0.02766575751429894 
0.01150652653954869 
0.007382691169868586 
0.04434898619401695 
-0.01062914889050833 
-0.008694181513922972 
-0.03647217377272321 
-0.009002927086735047 
0.01320126021028483 
0.000982473320601652 
-0.0250413666387992 
0.02769832822829364 
0.003579838432657849 
0.02328232792639464 
0.02653650079468287 
0.04393011713654408 
-0.01272535683629481 
0.04674853509599599 
-0.005344567612050319 
-0.04908445342988954 
-0.02190336321361154 
0.03971286679536021 
0.0235644720056519 
0.05298576936622499 
0.003669559093996002 
0.005116878705986063 
0.0336907208283264 
-0.02491465280830145 
0.04909556227618731 
0.01025503786763408 
0.07058846252274355 
0.06710776421469905 
0.06867817501544006 
0.03443333521518212 
0.01030678020827565 
0.07043937246309097 
0.03660010298701634 
-0.01845049295957403 
0.02314979072713569 
0.07263026979387058 
0.05959396691630455 
-0.02331701956609595 
-0.00911299193712632 
-0.02303017346063244 
0.03818356612460961 
0.02091778809036587 
-0.06024344434135109 
-0.009733687268320758 
0.05086952791352242 
0.0858818306827657 
0.08718266203451092 
-0.01080185807231464 
-0.02188091144390306 
0.09178842369909268 
0.04342750775121308 
0.00584728254976009 
0.01488319052694218 
0.01993121081554294 
-0.004253739857587401 
-0.0682967992405555 
-0.02868956363978528 
-0.03910409055770069 
0.02164519499075111 
-0.008825788889329028 
-0.0186995276774997 
-0.02058163109931893 
0.03647738030512473 
0.04929777773843012 
0.02191428905329553 
-0.02152140523134076 
-0.02159953356228425 
0.0121103696344694 
-0.01211046456846785 
-0.01866690045319324 
0.03658975791821482 
-0.02351400521864696 
-0.009690565808259329 
0.006155259629101978 
-0.02623236015606507 
0.01525935008549983 
0.01957324623673571 
0.002270242782375578 
0.002637880745708713 
0.04196626360074476 
-0.009220883653440076 
0.01844374052436351 
0.02127794084428036 
0.0342924099088535 
0.01614178685235754 
0.02463511835201561 
-0.01815297841097059 
0.03893934712647519 
0.05509244713687862 
0.003561848359674374 
-0.04001947244002202 
-0.006961019614151612 
0.01400694115864067 
0.07931013182147566 
0.01728691878719358 
-0.02803973163002008 
-0.03503914717892138 
0.009745205046544966 
-0.006488087179334833 
-0.04200590431030653 
-0.07043479725375049 
-0.0004642759131886528 
0.005623648049629666 
-0.003298987832395101 
-0.0353978618917209 
-0.02316892047530176 
-0.02408860875960242 
-0.002480582635233765 
-0.004012843406904516 
0.03312204761540393 
0.0738492083840082 
0.1168206145303604 
0.01129389438169144 
-0.006905987136309677 
0.04991326367379535 
0.1044528258948475 
-0.01517020432037616 
-0.0353545804784756 
-0.01771767467521593 
0.06455937012843359 
0.05224597540472746 
0.02673523590111588 
-0.02396866045503581 
0.01213556883635841 
-0.005439578041757933 
-0.01387723949175747 
-0.04881130949244526 
0.04078320788640529 
0.09002223025003571 
0.04321915940438531 
-0.09920761520968724 
-0.04472823493817418 
0.08365991640342604 
0.05715155022501589 
-0.001902803994945405 
-0.07484598007111043 
0.02389650933270884 
0.08078037947498828 
0.03389536284599522 
-0.07947828861758303 
-0.07891850077336598 
-0.00110319272043573 
0.02300421362542774 
-0.0331490767068963 
-0.04450945215314329 
0.05261740865408148 
0.08483424024954676 
0.06884047021484239 
-0.01468090784434536 
-0.02305130175235947 
0.07649835341398781 
0.06749744062558406 
-0.05926058649364602 
-0.04002163383198704 
0.06870268120943288 
0.1167244588025813 
0.02554851147564254 
-0.03817478527938676 
-0.03722851960648045 
0.01275042177157318 
0.05701024598194043 
-0.0816602952652264 
0.0561124560181581 
0.07015656121860513 
0.06110687488607439 
-0.01257383683427815 
-0.04183085158301691 
0.04416431528600293 
0.1024586673428992 
0.02089776453358435 
-0.03467236693050334 
-0.005360707767352826 
0.1236203893593311 
0.06452949985951134 
-0.01088239421459984 
-0.09244129463109818 
0.007394334546454048 
0.03858444855763724 
-0.03636023000787549 
-0.07785788997184299 
0.05005475876238553 
0.06932761976186869 
0.0762059717631911 
-0.029342986797804 
-0.0327377039870479 
-0.02583736903922351 
0.1211161682934708 
0.04602547660460132 
-0.08104340669761109 
0.005415946686297681 
0.09678145592448675 
0.05726514798063965 
-0.06593235495752797 
-0.0954271035313244 
-0.06052802862858152 
0.03922327348357257 
-0.007006735514047756 
-0.1039366830223264 
0.09924591687635714 
0.1316553351639765 
0.04571231911065508 
5.551842712808777e-05 
-0.01482767207221909 
0.005574811563734483 
0.01032069165136435 
-0.007568053115763014 
0.02911195268407686 
0.05208436649085378 
0.07904762098881202 
0.05034323781630057 
-0.05668302745374301 
-0.02557518441314309 
-0.05015185622203801 
-0.02911215445498564 
0.02597608305178285 
0.01754882401917758 
0.02922391983337591 
0.01296771088222571 
-0.0175357945621488 
-0.05411576210499777 
-0.05930247855608178 
0.003240198908990613 
-0.0318547167369558 
-0.0343147650277093 
-0.05278029099210476 
-0.004162264874912859 
0.01712354006268487 
0.004941434557052271 
-0.07968766860912468 
-0.04689685987553382 
-0.02504018888206849 
-0.05514688691532921 
-0.02720527264063516 
-0.01203315832954747 
0.03293307270286701 
0.006919233315497863 
-0.009657919756695147 
0.001735137755411496 
0.01216339234469203 
-0.01091958645129797 
0.05186559984743822 
-0.01320124429587897 
0.02649289147425591 
0.05723083504810608 
0.07901940553151761 
0.02644699980322363 
0.03511936003115036 
0.06704361715888832 
0.006920922472614555 
0.06162707892036069 
0.02256679540013825 
0.01498952536329373 
0.009136994525825668 
-0.0226620340901773 
-0.0202481096337484 
-0.02555565247056104 
0.01916156079396302 
-0.02394174421053051 
-0.02559415621803096 
0.005897608127182973 
0.03378922998666908 
0.01298135577846416 
0.05578634640824367 
0.01027524135034642 
0.02529245899602312 
0.04668270488793955 
-0.009319834821344904 
-0.01619939925204728 
0.002303429084192918 
0.002106087648028727 
0.05433162990903449 
0.024921805874332 
-0.01671195552856364 
0.01465106326781545 
0.0412224626095734 
0.05501620156055061 
0.01476783706840575 
-0.01416905706555199 
0.01825599071936103 
0.05343401166811828 
0.01594041105310254 
0.02455642986049745 
0.01315184862409022 
0.0170587333636417 
0.02291470364062603 
0.03019828395954888 
0.01756731114894504 
0.04667443939416866 
0.05889530479415932 
0.0283851135400903 
-0.02455307482256072 
-0.05381211012407556 
0.07056007568021323 
-0.04576774487646203 
-0.04718605171425292 
-0.01938031257750062 
-0.02566340426990786 
0.09109931231580906 
0.01456764003802259 
0.03020919648091001 
-0.003564650978822283 
0.1118828045228499 
-0.07218553940462195 
-0.01877748467207122 
0.02115289039102163 
0.03475387334550061 
0.02185701970462681 
-0.01719747452293456 
-0.04036663005184532 
-0.1053598394483285 
0.008780485854496433 
-0.08802403324527629 
-0.06021970383379111 
-0.07531643874522168 
-0.07139787086336033 
0.04196962375942252 
-0.05984158546488338 
-0.02429987692808652 
-0.05318416758977219 
0.04722414097600861 
0.03451937800707387 
-0.002893087235185353 
-0.050400198912026 
-0.008986216305035093 
0.0140810977345803 
0.007849919394632858 
0.01611332599445967 
-0.0571573803205575 
0.01770336646981942 
-0.0381808204507636 
0.01583610673563358 
-0.02127044538972845 
-0.05368319173504726 
0.05399085802139034 
0.003403794721880527 
0.0221225302089549 
-0.02120261708194024 
0.07138418746445582 
0.05815390666784586 
0.03162026874482466 
0.01954701456577055 
0.007883792986709569 
-0.07016345931604964 
-0.09890087696778017 
-0.02811450830392317 
-0.06612729699010818 
0.0170954282757546 
-0.0188600251341713 
-0.02898170530503634 
-0.09830688758401107 
-0.05229169676649999 
0.0238050219123624 
-0.06946307641739619 
-0.005476828360121954 
-0.05885847953012564 
0.06492533865049792 
-0.001909682799253064 
-0.02985598569099646 
-0.08516454320989453 
0.01955089074117127 
-0.05342459343413208 
-0.03576687102721481 
0.0307196356231301 
-0.02221825984935334 
0.06009730005083762 
-0.04651955684343696 
0.01794741291204506 
-0.01251857494514699 
-0.02689128901013783 
0.04711760351500213 
0.02965991428726306 
0.07909792045388062 
0.002917764988249031 
0.1051963786594941 
0.03487435726988112 
-0.003781915938822004 
-0.04056917546320593 
0.05332280094344526 
-0.06316267681975997 
-0.04912687205515143 
-0.005551632769582739 
-0.006801065947318291 
-0.05977028516097278 
-0.1174175042282464 
-0.02727947429546315 
-0.03411090840912888 
-0.06193783660220138 
-0.01558484568474534 
-0.01246808763934946 
0.0004145474807347274 
-0.02727320302932751 
0.05635792868993379 
-0.0376397761757026 
-0.1071418415234892 
-0.09354642112163124 
-0.0076200687990284 
-0.0333159076369639 
-0.02942409793072516 
0.007910969180375368 
-0.0376301540950165 
-0.03671020213416398 
-0.07171701967943661 
0.04600626581797711 
-0.004443317149767733 
-0.08025631647850473 
0.02160678422641561 
-0.01241864091822752 
-0.009939665154366494 
-0.02956756371711321 
0.07251628876409849 
-0.03899484849308791 
-0.09421072855199215 
-0.07197163977888757 
-0.01258188952149823 
-0.00125206428945765 
0.064267850659285 
-0.03409777238792618 
-0.05472498231362573 
-0.07146616689550639 
-0.02634238952741901 
0.05637612749259167 
-0.04154609477331837 
-0.04010984685474675 
0.03957111565336167 
0.01262894174258632 
0.03292147887797854 
0.01064554108165337 
0.05265069533034422 
-0.08398750645162732 
-0.1172081741317784 
0.01913964208733812 
0.004481751366972239 
-0.04697373877927066 
0.01221328889357054 
-0.05368922312906972 
-0.1513329508747227 
-0.1007588914424654 
-0.1341712043327961 
-0.0009462807844882237 
-0.06899569922005093 
-0.09894493916603679 
0.02255538518778304 
-0.01800675506041326 
0.01180824644240277 
-0.06111208599505026 
0.03499600802846502 
-0.1367913337833257 
-0.1383979567351286 
-0.0229790318015274 
0.02328116289190488 
0.02528511717587334 
0.01989654857170886 
0.001386786921626243 
-0.053553257876996 
-0.07966252980845118 
-0.03321321275664359 
0.02792422758139821 
0.03874030286075743 
0.007955737053588683 
0.08598973584075115 
0.0331663051902733 
0.01417243652894491 
0.03481310620154138 
0.06769009759780767 
-0.02679755053562137 
-0.02010367829454728 
0.07301936483727589 
0.08713794569852119 
-0.01985919380192394 
-0.04509921924460103 
-0.03087558116988678 
-0.09115654981536227 
-0.06641329734027002 
-0.06762176741999967 
-0.04724927178614893 
-0.04003043616109533 
-0.0301413231610579 
0.01773974957450776 
-0.01546944983518932 
-0.0593810130664183 
-0.05608804256709445 
0.002179948219185534 
-0.09181700464011879 
-0.08827791807115587 
0.009696382955269398 
0.04866646704419327 
-0.002692296381856455 
0.03469501340141684 
0.01341217861290961 
-0.01442088005829651 
0.03719732813295284 
-0.0446705503909863 
0.0393944720270881 
-0.008528190511728364 
-0.0421777797540556 
0.01330454485445006 
-0.003064119465862602 
0.06493869641686253 
0.005693718360676479 
0.04911888840065965 
-0.004881901706062845 
0.007403304096125609 
0.03218512862643445 
0.04891219695263322 
-0.01038286384750046 
0.02195387512372151 
-0.01344161319230052 
-0.03611196851299742 
0.01820730642315902 
-0.08067593097019082 
-0.06283478061407674 
-0.04845588656583252 
-0.04608692783734598 
0.06085026103666302 
-0.03565751197042318 
0.04753299885138863 
-0.01559221673895036 
0.05873632048385567 
-0.03433665182856353 
-0.031214276707743 
-0.001838177640724266 
0.07884459046246846 
0.03894686119115409 
-0.04341937026579415 
-0.03234807916487854 
-0.05350926588331743 
0.01122866325089539 
-0.01427099705093022 
-0.03549974848365217 
-0.0661365025635057 
0.006342035420211812 
0.0904446845539649 
-0.02862888328165118 
0.02455958183095159 
0.04066627639135017 
0.1124457752882013 
-0.05488837119103239 
0.01650976604811998 
-0.005400942637818359 
0.04434045924324032 
0.01534991310639948 
0.01308501576522779 
0.04001340149317971 
-0.02686242946050007 
0.006282660947532826 
-0.08714053412623707 
0.04689792246342898 
0.06108541315026469 
0.002181832295241178 
0.04350835686577486 
0.03251234182765685 
-0.02145693813350242 
0.02216110219555755 
-0.02454172103650543 
0.007012260512129354 
-0.01408512174765907 
0.05514367625401789 
0.06782568300634909 
-0.01814151339410523 
-0.04829099249798661 
-0.02882014427200272 
-0.06508298964640634 
-0.02164763655594161 
-0.04254280540168194 
-0.01963736700975028 
-0.04560501163448188 
-0.02316027849239958 
0.002511195286560459 
-0.04276391650204198 
-0.001483671511875067 
0.09057145989033252 
0.001336498169163993 
0.0345072160137302 
-0.01079083946839968 
-0.01929361102360167 
0.004855025817509612 
0.002043244074593669 
-0.02762085387055226 
-0.0114185192361202 
-0.09270477280185908 
-0.005092183775948523 
0.001560501717044267 
0.001816718910617678 
-0.02344900817492945 
-0.04968740458194924 
0.002781385134466378 
-0.001176390865463143 
0.05224710211484969 
0.06576880203898805 
0.03262720453225341 
0.08166162586999497 
0.02291488214187058 
0.00199714435462292 
-0.007966059795739383 
0.01031696030088081 
-0.07854348298855152 
-0.05343849489822745 
-0.07963349771560113 
-0.002177538422659325 
-0.05982120902118482 
-0.07991412927544982 
-0.1019755230779262 
-0.005101542387332944 
0.08798274022329401 
0.004818112987593244 
0.0175061613120668 
-0.02496615085427085 
-0.01459005817464664 
0.03851625526136081 
-0.02649354308200465 
-0.01543639816669155 
0.03431927663294908 
-0.02164748676463442 
-0.02161864499266321 
-0.009833145953967415 
-0.04425882565637057 
0.01534041634235526 
-0.044266426636038 
-0.08967128026408266 
-0.1446919479263434 
-0.04728253340937147 
0.1032895034441689 
0.06188312187536563 
0.06038731072934168 
-0.00494164817605394 
0.05334452972012697 
0.09876637400035011 
0.009703358567781555 
0.02817709150210859 
0.08702716894040749 
-0.05578566333499452 
-0.07312458705545624 
-0.07257792721712396 
-0.08717504429700428 
0.001818418856833112 
-0.1128507034169612 
-0.1901258559200866 
-0.1708067397009762 
-0.1122118655848633 
0.09752407528706411 
0.07159346230597557 
0.04364653172965383 
0.06317020087342473 
0.07551510363427628 
0.08178133823813608 
-0.06775386820223328 
-0.01223040772101251 
0.1078520844008999 
-0.03445904722755732 
-0.1143422739431499 
-0.0647059024083253 
-0.08567180169174202 
-0.009636039799872452 
-0.1018060990418548 
-0.1994192640109753 
-0.1805736779592036 
-0.1007046999319226 
0.1100353572566823 
0.09723274901220975 
0.04883939385506198 
0.09042217104596469 
0.1324065325173456 
0.08098161435007707 
-0.07715701839449146 
-0.002871755811557403 
0.122787570152931 
0.0312475238848397 
-0.03884529979693335 
-0.04509190131658247 
-0.0431775869522831 
-0.03579362390624416 
-0.1514964036920004 
-0.1818510683253626 
-0.07517003942583023 
-0.03755924787858582 
0.06103520357392219 
0.01708553338179502 
0.103879710187325 
0.09980895107167703 
0.09113520157407043 
0.09152657868879044 
-0.07481172245755774 
0.03165842335703594 
0.05687483214662608 
0.003863664320161383 
-0.05628459952569402 
-0.06985354468919232 
-0.08281240558769418 
-0.02451584279406718 
-0.1601549422694802 
-0.1850820102593469 
-0.1006904388452491 
-0.02687153446041891 
0.05942031989270302 
0.003398311997494529 
0.07692456161941816 
0.07797560877022075 
0.1093662699409705 
0.08928528642596469 
-0.07946566206675491 
-0.02579274433974999 
0.0679782471313356 
0.04397800933700823 
-0.03147935804724309 
-0.07739490885960872 
-0.009494670104852873 
-0.02042375076105008 
-0.08459860903513944 
-0.1174844798678547 
-0.03720567103151648 
-0.002808714783444558 
0.01884033977504204 
-0.009172632185730851 
0.04236660409551877 
0.06383244893056229 
0.1353713400053766 
0.06407633334339193 
-0.03602424305307335 
0.02111772063025759 
0.09133118189756549 
-0.01254648989998387 
-0.06549132838949838 
-0.08062235855014104 
-0.05488434888527839 
-0.01881213059994119 
-0.08069593847235244 
-0.1213969137425106 
-0.06146176401747588 
0.019328939802771 
0.0174302801900243 
0.03292607446528595 
0.03043610822343562 
0.05308172612383828 
0.08494140817646093 
0.003594085037212354 
-0.01673480816154175 
-0.03132413501427059 
0.06755087707586062 
-0.04126467952542839 
-0.03048683337372253 
0.01146821014503588 
-0.04829436979621307 
0.009807194684585983 
-0.01936896228732058 
-0.02032805604980505 
0.03346622841895949 
0.02024806198123735 
-0.00826616733127694 
0.07721373472768804 
0.04063065926973509 
0.01284747414954268 
0.02574721014249258 
0.07861291401068768 
-0.00581069597203713 
-0.01834751237692265 
0.01415132423827652 
0.00763330066402323 
-0.01305109783232974 
0.009888309927998332 
-0.05655662678358985 
-0.02486432088845137 
-0.05848755446590261 
-0.08446815322299726 
-0.04288499485002943 
0.01000774626432905 
0.01078017933366891 
0.05684507171992313 
0.001590166276659609 
0.01780737713125762 
-0.00263912710176766 
0.06453886259987433 
-0.05565854085267184 
-0.0297041483984347 
-0.003619791850996819 
0.03054266438749239 
0.01409257218666316 
0.03455794295322957 
0.004737810610992778 
0.02192132598923001 
-0.08501426257748462 
-0.02768271260097547 
0.003477014785837622 
-0.02008071023509564 
0.02842905515088599 
0.02620311375962114 
0.06566073643775401 
0.03713903388787509 
0.001944652495485083 
0.04427344840594581 
-0.008275836175313 
-0.01458255610247108 
-0.007233055482525346 
-0.01063504248256174 
0.04359613898269053 
0.02488243732306559 
0.01824809312026004 
-0.07218856069290436 
-0.01530199841899054 
-0.006162760303555418 
0.05362848055308041 
-0.0009924505629030635 
0.01620805537243076 
0.02881477200990832 
0.0686133116209105 
0.09003558585947347 
-0.07046120221147145 
-0.007624970783330359 
-0.001541838176718463 
0.04154002986629861 
-0.02173275447571441 
-0.009144820990149497 
-0.01108730196826028 
0.01354486700116949 
0.06932663636358695 
-0.03965921440138746 
0.03729000958348565 
0.03232516677581384 
0.01310819357682648 
-0.009541208953951944 
0.01068937384118348 
0.005286257608376317 
0.02586303462771311 
0.06708558457583805 
-0.05800786918163738 
0.08631760111034049 
0.05035015995318019 
0.03653956278388061 
0.03188340259945859 
-0.05583850271440782 
-0.01146214591017087 
0.004159819520556136 
0.04105943972708125 
-0.05103301102586157 
0.03279873327362191 
0.0470449177910418 
-0.02837905919794404 
-0.07341304432654987 
0.01203479659272217 
0.01562471833564951 
0.004286155708307999 
0.06998708410187976 
0.03015715374425787 
0.09684406417969897 
0.03696136449861361 
-0.008416543386764626 
-0.01906242830300187 
0.01166131718013047 
0.0183782725054353 
-0.002949720433738931 
0.003153943484302328 
-0.04489394773391875 
0.01120467701354502 
-0.006099936957960505 
-0.07472139795784799 
-0.02324705668285737 
0.02070670911951397 
-0.003091820988980813 
-0.005136402240800863 
0.04603536401116765 
-0.03288719703707912 
0.02860023834803135 
-0.02188639429367602 
-0.05174802805305484 
0.06467342895014248 
0.0177478439253444 
0.03614479859597523 
-0.007451288706282557 
-0.03422455293201234 
-0.009507001249111701 
0.002918949245507977 
-0.02399037979292714 
-0.03254722244365432 
0.01048374612752411 
-0.01325545157635546 
0.03103551227885493 
0.00235126150398478 
0.03797210721459823 
-0.001572371992943084 
-0.01453593105383828 
-0.04248209104111735 
-0.07209347519514986 
0.02156081028654344 
-0.008567050191196697 
0.03428189634514247 
-0.01485010287151801 
-0.004946689552156738 
-0.007250896918890501 
-0.01167593435069899 
-0.004653341124069227 
-0.06789684639094649 
-0.0125620303897295 
0.01206518260804084 
0.04408106415800184 
0.02275050143708306 
0.0283536299891549 
0.03494988835558527 
0.01261045523037837 
0.009372863033035481 
-0.05730752882115173 
-0.04456431965977832 
0.02144984344978962 
0.06567928789804801 
-0.01029136470203181 
0.02862624424530187 
0.007614598309705305 
-0.04351255554090164 
-0.01670055890062282 
-0.04153133039058755 
-0.009408120779639298 
0.003954104843288129 
0.01644216550140492 
0.02329764307393068 
0.04436680484669382 
0.03287068755233583 
0.0351040106778311 
0.06501990084917948 
-0.03291003674846527 
-0.04298629676250423 
-0.01595205958419735 
-0.00796232419922019 
0.05943559424178046 
0.03599361373026451 
-0.04265388783872427 
-0.01676371748333875 
-0.03589614133268339 
-0.02927202894325454 
-0.01185334248527591 
-0.006516199244933238 
0.009339595217693161 
0.004656049357851039 
0.05577789666925653 
-0.04310668374088073 
-0.06133244617013649 
-0.02853994359896319 
0.05846545379467525 
0.01726957728208852 
-0.02152615986091603 
-0.04921858654544357 
0.06753605034305281 
0.05536251745225713 
-0.005403441717226917 
-0.01560767474854812 
-0.05007715160865021 
-0.03744134637905834 
-0.001977788165736405 
-0.008377294121736234 
-0.009374890968825229 
0.0309386837880032 
0.08123106097867594 
-0.03000901494409736 
-0.05813715136600405 
-0.06424685300384818 
0.01555217677071546 
-0.02689291762197969 
-0.01646693382275481 
-0.03415059531033914 
-0.02125877398135244 
0.05275663632125857 
0.02599755942471737 
0.01680017166203642 
0.007015606734399265 
-0.02221315905952601 
0.004320358036379766 
0.0107068388016195 
-0.003071765952498081 
0.02318000835069996 
0.07514963470551143 
0.05309125759063111 
0.0212579014765476 
-0.00347302169078443 
0.01827811895914283 
0.001570566864438297 
-0.03505524868428565 
-0.03662639520924501 
-0.04578268983344192 
0.03787480118830502 
-0.02851548314301639 
-0.04953672643767423 
0.01221970482146108 
0.004635973978984772 
-0.002281206478960322 
0.01067820905109445 
0.01779670091494584 
0.01724407613910852 
0.0347601981383101 
0.02562868786720527 
0.00129297788493466 
0.00379228717512374 
0.0136372516364469 
0.003263474046416446 
-0.02569242241664755 
0.0364923178170264 
5.433092379325285e-05 
0.004889843177195725 
-0.05425443366286005 
0.01367674851116652 
-0.005314459752477057 
-0.009557148328034549 
-0.02597332757660415 
0.02368591879849953 
0.05945984905321086 
0.01148279674923319 
0.03264253106066025 
-0.01641345855101048 
0.02108565551994886 
0.03098251700799136 
0.02979776129690455 
0.06519482706174222 
-0.01871420152359187 
0.05278716444347362 
-0.007351041435153629 
0.01465565704869016 
-0.08009990186124986 
0.02179490671543196 
0.008258466826378747 
0.03382230782535342 
-0.03141147499064922 
0.002852305337176872 
0.09775821906690142 
0.05990290662374747 
0.04036445485028437 
-0.05784119119148864 
0.06196997119924376 
0.04181422296178142 
0.03537951272002278 
0.01188183938069884 
-0.06495979502152181 
0.03830953245273906 
0.01381199741405809 
0.02175588437414534 
-0.0901431072458812 
0.03391728092378533 
0.02935675439249401 
-0.0114138141528281 
-0.05919172499470898 
0.003816640093994124 
0.1138770486579746 
0.03354614994610002 
0.05112658829694441 
-0.02215090384632341 
0.05176137373743388 
-0.01279000651862243 
-0.06043041161312675 
-0.07581250471465907 
0.356991922580399 
